{"learner":{"attributes":{"best_iteration":"0","best_ntree_limit":"1","best_score":"0.7008952323128196"},"feature_names":["ret_1","ret_3","ret_6","vol_24","sma_diff","rsi","atr_norm","hour_sin","hour_cos","dow_sin","dow_cos"],"feature_types":[],"gradient_booster":{"model":{"gbtree_model_param":{"num_parallel_tree":"1","num_trees":"51","size_leaf_vector":"0"},"tree_info":[0,0,0,0,0,0,0,0,0,0,0,0,0,0,0,0,0,0,0,0,0,0,0,0,0,0,0,0,0,0,0,0,0,0,0,0,0,0,0,0,0,0,0,0,0,0,0,0,0,0,0],"trees":[{"base_weights":[3E-1,-1.7910448E-1,7.2E-1,6.857143E-1,-1.0588236E0,9.0076333E-1,-4.347826E-1,1.245283E0,-8.5714287E-1,7.2727275E-1,-1.76E0,-0E0,1.0260869E0,-1.25E0,9.0909094E-1,1.5348837E0,-0E0,-1.5E0,6.666667E-1,1.2941177E0,-6.666667E-1,-5E-1,-1.826087E0,1.1111112E0,-6.666667E-1,1.1401869E0,-3.3333334E-1],"categories":[],"categories_nodes":[],"categories_segments":[],"categories_sizes":[],"default_left":[1,1,1,1,1,1,1,1,1,1,1,1,1,0,0,0,0,0,0,0,0,0,0,0,0,0,0],"id":0,"left_children":[1,3,5,7,9,11,13,15,17,19,21,23,25,-1,-1,-1,-1,-1,-1,-1,-1,-1,-1,-1,-1,-1,-1],"loss_changes":[1.4214627E1,2.6212769E1,8.219475E0,1.6175743E1,2.257027E1,3.6970463E0,7.4357705E0,4.77841E0,6.142857E0,5.208556E0,1.2782669E-1,4.444444E0,4.839466E0,0E0,0E0,0E0,0E0,0E0,0E0,0E0,0E0,0E0,0E0,0E0,0E0,0E0,0E0],"parents":[2147483647,0,0,1,1,2,2,3,3,4,4,5,5,6,6,7,7,8,8,9,9,10,10,11,11,12,12],"right_children":[2,4,6,8,10,12,14,16,18,20,22,24,26,-1,-1,-1,-1,-1,-1,-1,-1,-1,-1,-1,-1,-1,-1],"split_conditions":[9.797532E-4,2.0953123E-3,4.060843E-3,7.0633606E1,7.680943E-4,-7.038957E-4,1.2905612E-3,9.1412105E-4,7.865661E-1,2.4364286E-4,-1.2419679E-3,-1.6142678E-3,1.3390842E-3,-6.25E-2,4.5454547E-2,7.674419E-2,-0E0,-7.5E-2,3.3333335E-2,6.4705886E-2,-3.3333335E-2,-2.5E-2,-9.1304354E-2,5.555556E-2,-3.3333335E-2,5.7009347E-2,-1.6666668E-2],"split_indices":[3,4,2,5,3,4,3,3,7,1,1,4,3,0,0,0,0,0,0,0,0,0,0,0,0,0,0],"split_type":[0,0,0,0,0,0,0,0,0,0,0,0,0,0,0,0,0,0,0,0,0,0,0,0,0,0,0],"sum_hessian":[6.9E1,3.25E1,3.65E1,1.65E1,1.6E1,3.175E1,4.75E0,1.225E1,4.25E0,4.5E0,1.15E1,4E0,2.775E1,3E0,1.75E0,9.75E0,2.5E0,3E0,1.25E0,3.25E0,1.25E0,1E0,1.05E1,1.25E0,2.75E0,2.575E1,2E0],"tree_param":{"num_deleted":"0","num_feature":"11","num_nodes":"27","size_leaf_vector":"0"}},{"base_weights":[2.1426217E-1,-2.9175892E-1,5.6778127E-1,8.3210355E-1,-8.122189E-1,6.8774986E-1,-4.9930295E-1,1.413801E0,-7.6590574E-1,7.399775E-1,-1.0442622E0,1.3804988E0,4.1198084E-1,-1.274274E0,5.26988E-1,3.7332395E-1,1.6117142E0,-1.6169213E0,1.0623055E-1,3.8878435E-1,1.692166E0,6.8298614E-1,-4.671519E-1],"categories":[],"categories_nodes":[],"categories_segments":[],"categories_sizes":[],"default_left":[1,1,1,1,1,1,1,1,0,0,1,1,1,0,0,0,0,0,0,0,0,0,0],"id":1,"left_children":[1,3,5,7,9,11,13,15,-1,-1,17,19,21,-1,-1,-1,-1,-1,-1,-1,-1,-1,-1],"loss_changes":[1.2585731E1,1.7765057E1,5.6193733E0,1.0138032E1,8.14722E0,6.5892296E0,4.445093E0,9.4131756E-1,0E0,0E0,1.2180191E1,2.508131E0,7.043769E0,0E0,0E0,0E0,0E0,0E0,0E0,0E0,0E0,0E0,0E0],"parents":[2147483647,0,0,1,1,2,2,3,3,4,4,5,5,6,6,7,7,10,10,11,11,12,12],"right_children":[2,4,6,8,10,12,14,16,-1,-1,18,20,22,-1,-1,-1,-1,-1,-1,-1,-1,-1,-1],"split_conditions":[2.1694186E-1,2.0953123E-3,4.7187023E-3,1.2625161E-3,7.680943E-4,6.078576E-1,9.729917E-4,-2.5454867E-3,-3.8295288E-2,3.6998875E-2,1.1440611E-3,9.7545795E-4,2.201447E-3,-6.37137E-2,2.6349401E-2,1.8666198E-2,8.058571E-2,-8.0846064E-2,5.3115278E-3,1.9439219E-2,8.46083E-2,3.4149308E-2,-2.3357596E-2],"split_indices":[9,4,4,1,3,9,3,1,0,0,3,3,2,0,0,0,0,0,0,0,0,0,0],"split_type":[0,0,0,0,0,0,0,0,0,0,0,0,0,0,0,0,0,0,0,0,0,0,0],"sum_hessian":[6.842928E1,2.821604E1,4.0213245E1,8.741398E0,1.9474642E1,3.6468685E1,3.7445612E0,6.4930954E0,2.2483025E0,2.2480307E0,1.7226612E1,9.2432E0,2.7225485E1,1.9958376E0,1.7487236E0,1.4989676E0,4.9941278E0,1.12309675E1,5.9956436E0,2.7476633E0,6.4955363E0,2.0980927E1,6.2445583E0],"tree_param":{"num_deleted":"0","num_feature":"11","num_nodes":"23","size_leaf_vector":"0"}},{"base_weights":[1.6410704E-1,-9.767776E-2,8.884666E-1,4.604684E-1,-7.59574E-1,1.1260976E0,-2.846327E-1,6.1736304E-1,-4.308929E-1,5.4143804E-1,-9.8197097E-1,1.342489E0,3.820484E-1,-1.1933078E0,7.387848E-1,7.6747906E-1,-5.4391813E-1,-1.2075602E0,2.470616E-1,1.2732751E0,-6.739378E-1,-1.6036023E0,-2.7532965E-1,4.854382E-1,1.673507E0,9.060445E-1,-6.6048986E-1],"categories":[],"categories_nodes":[],"categories_segments":[],"categories_sizes":[],"default_left":[1,1,1,1,1,1,1,1,1,1,1,1,1,0,0,0,0,0,0,0,0,0,0,0,0,0,0],"id":2,"left_children":[1,3,5,7,9,11,13,15,17,19,21,23,25,-1,-1,-1,-1,-1,-1,-1,-1,-1,-1,-1,-1,-1,-1],"loss_changes":[1.35582905E1,1.9960922E1,5.605397E0,4.380648E0,7.667533E0,2.057808E0,4.5936513E0,4.850445E0,2.9271505E0,4.6338253E0,8.966543E0,2.5838966E0,3.327193E0,0E0,0E0,0E0,0E0,0E0,0E0,0E0,0E0,0E0,0E0,0E0,0E0,0E0,0E0],"parents":[2147483647,0,0,1,1,2,2,3,3,4,4,5,5,6,6,7,7,8,8,9,9,10,10,11,11,12,12],"right_children":[2,4,6,8,10,12,14,16,18,20,22,24,26,-1,-1,-1,-1,-1,-1,-1,-1,-1,-1,-1,-1,-1,-1],"split_conditions":[1.6699356E-3,2.4999043E-3,8.117449E-1,9.159756E-1,7.614661E-4,4.8108697E-3,1.2940952E-1,2.1375634E-3,-1.4140319E-4,-1.1439478E-4,9.800917E-4,2.6964159E-3,9.571845E-4,-5.966539E-2,3.693924E-2,3.8373955E-2,-2.7195906E-2,-6.037801E-2,1.235308E-2,6.366376E-2,-3.369689E-2,-8.0180116E-2,-1.37664825E-2,2.4271911E-2,8.367535E-2,4.5302223E-2,-3.3024494E-2],"split_indices":[6,4,10,7,3,4,8,1,1,1,3,4,1,0,0,0,0,0,0,0,0,0,0,0,0,0,0],"split_type":[0,0,0,0,0,0,0,0,0,0,0,0,0,0,0,0,0,0,0,0,0,0,0,0,0,0,0],"sum_hessian":[7.00424E1,5.2084225E1,1.7958176E1,2.8421783E1,2.3662441E1,1.4966521E1,2.991654E0,2.4429222E1,3.9925613E0,3.2449682E0,2.0417473E1,1.097141E1,3.9951122E0,1.49673E0,1.494924E0,2.1933092E1,2.4961288E0,1.4967253E0,2.495836E0,1.9956505E0,1.2493176E0,1.0186816E1,1.0230656E1,3.7440503E0,7.227359E0,2.7459028E0,1.2492093E0],"tree_param":{"num_deleted":"0","num_feature":"11","num_nodes":"27","size_leaf_vector":"0"}},{"base_weights":[2.4350215E-1,-2.5135325E-2,9.230887E-1,4.307342E-1,-5.7439977E-1,1.3506796E0,3.0286747E-1,7.905106E-1,-6.556999E-1,5.958193E-1,-8.127055E-1,3.7841105E-1,1.5516467E0,-2.5098512E-1,1.2897302E0,1.4947442E0,3.4818712E-1,-1.477995E0,3.2194638E-1,1.2812588E0,-6.552471E-1,-1.5026495E0,-1.3399445E-1,-8.210542E-1,8.766159E-1],"categories":[],"categories_nodes":[],"categories_segments":[],"categories_sizes":[],"default_left":[1,1,1,1,1,1,1,1,1,1,1,0,0,1,0,0,0,0,0,0,0,0,0,0,0],"id":3,"left_children":[1,3,5,7,9,11,13,15,17,19,21,-1,-1,23,-1,-1,-1,-1,-1,-1,-1,-1,-1,-1,-1],"loss_changes":[1.2508659E1,1.2764116E1,4.7363033E0,1.1419012E1,6.9261923E0,1.6003304E0,5.3557796E0,6.146763E0,6.49261E0,4.6858053E0,8.983812E0,0E0,0E0,5.048494E0,0E0,0E0,0E0,0E0,0E0,0E0,0E0,0E0,0E0,0E0,0E0],"parents":[2147483647,0,0,1,1,2,2,3,3,4,4,5,5,6,6,7,7,8,8,9,9,10,10,13,13],"right_children":[2,4,6,8,10,12,14,16,18,20,22,-1,-1,24,-1,-1,-1,-1,-1,-1,-1,-1,-1,-1,-1],"split_conditions":[1.6757756E-3,2.4999043E-3,5.3404564E1,7.0633606E1,7.658523E-4,-9.159756E-1,1.2755883E-3,2.0048442E-1,3.7940952E-1,-1.1439478E-4,9.776177E-4,1.8920554E-2,7.758234E-2,1.9251481E-3,6.448651E-2,7.473721E-2,1.7409356E-2,-7.389975E-2,1.609732E-2,6.4062946E-2,-3.2762356E-2,-7.513248E-2,-6.6997223E-3,-4.105271E-2,4.3830793E-2],"split_indices":[6,4,5,5,3,7,3,10,7,1,3,0,0,6,0,0,0,0,0,0,0,0,0,0,0],"split_type":[0,0,0,0,0,0,0,0,0,0,0,0,0,0,0,0,0,0,0,0,0,0,0,0,0],"sum_hessian":[6.739007E1,4.8988247E1,1.840182E1,2.688799E1,2.2100258E1,1.0195281E1,8.206537E0,2.0403637E1,6.4843545E0,3.4852812E0,1.8614977E1,2.2402093E0,7.955072E0,5.734092E0,2.4724452E0,6.9535017E0,1.3450135E1,3.2440257E0,3.2403286E0,2.2360508E0,1.2492303E0,8.629092E0,9.985884E0,3.9891818E0,1.7449102E0],"tree_param":{"num_deleted":"0","num_feature":"11","num_nodes":"25","size_leaf_vector":"0"}},{"base_weights":[2.2122356E-1,-4.462992E-2,9.3165904E-1,1.8523318E-1,-9.755412E-1,1.1182024E0,-7.6192564E-1,4.7259578E-1,-5.9057206E-1,2.0006463E-1,-1.4747522E0,-2.9185498E-1,1.2434564E0,1.0577923E0,1.5590866E-1,-1.4987091E0,3.2668427E-1,-7.1144986E-1,8.7401766E-1,1.3265709E0,1.2716815E-1],"categories":[],"categories_nodes":[],"categories_segments":[],"categories_sizes":[],"default_left":[1,1,1,1,1,1,0,1,1,1,0,0,1,0,0,0,0,0,0,0,0],"id":4,"left_children":[1,3,5,7,9,11,-1,13,15,17,-1,-1,19,-1,-1,-1,-1,-1,-1,-1,-1],"loss_changes":[1.3235918E1,1.1262788E1,6.8763885E0,9.72596E0,6.4075155E0,3.468195E0,0E0,5.668458E0,1.0400468E1,3.069887E0,0E0,0E0,1.3471317E0,0E0,0E0,0E0,0E0,0E0,0E0,0E0,0E0],"parents":[2147483647,0,0,1,1,2,2,3,3,4,4,5,5,7,7,8,8,9,9,12,12],"right_children":[2,4,6,8,10,12,-1,14,16,18,-1,-1,20,-1,-1,-1,-1,-1,-1,-1,-1],"split_conditions":[1.6699356E-3,2.3111603E-3,5.4669823E-3,8.117449E-1,1.3852983E-3,-3.7538176E-3,-3.8096283E-2,7.9256116E-4,9.967545E-4,1.1694755E-3,-7.3737614E-2,-1.4592749E-2,1.3344022E-3,5.2889615E-2,7.795433E-3,-7.493546E-2,1.6334213E-2,-3.5572495E-2,4.3700885E-2,6.632855E-2,6.3584074E-3],"split_indices":[6,2,2,10,6,1,0,3,3,6,0,0,3,0,0,0,0,0,0,0,0],"split_type":[0,0,0,0,0,0,0,0,0,0,0,0,0,0,0,0,0,0,0,0,0],"sum_hessian":[6.885872E1,5.078976E1,1.8068958E1,4.1374485E1,9.415278E0,1.6582218E1,1.4867407E0,3.0476608E1,1.0897875E1,2.985017E0,6.430261E0,1.2442992E0,1.5337919E1,9.879816E0,2.0596794E1,5.157624E0,5.7402506E0,1.2452253E0,1.7397916E0,1.4099731E1,1.2381878E0],"tree_param":{"num_deleted":"0","num_feature":"11","num_nodes":"21","size_leaf_vector":"0"}},{"base_weights":[2.2334906E-1,-1.8615396E-1,5.865396E-1,1.481871E-1,-1.4787966E0,8.285997E-1,-1.0523519E-1,5.152618E-1,-1.0328263E0,2.991183E-1,1.2808135E0,-9.939091E-1,4.1634107E-1,1.0846789E0,-1.361025E-1,1.5657255E-1,-1.4634671E0,6.3055706E-1,-6.27134E-1,-2.836271E-1,1.4454887E0,-1.2685493E0,-1.8570791E-1,1.024214E0,-5.6036514E-1],"categories":[],"categories_nodes":[],"categories_segments":[],"categories_sizes":[],"default_left":[1,1,1,1,0,1,1,1,1,1,1,1,1,0,0,0,0,0,0,0,0,0,0,0,0],"id":5,"left_children":[1,3,5,7,-1,9,11,13,15,17,19,21,23,-1,-1,-1,-1,-1,-1,-1,-1,-1,-1,-1,-1],"loss_changes":[1.0607304E1,1.488608E1,6.3916216E0,1.2615173E1,0E0,6.321871E0,5.348543E0,8.281479E0,3.7846837E0,4.756052E0,4.222513E0,7.039447E-1,4.9755206E0,0E0,0E0,0E0,0E0,0E0,0E0,0E0,0E0,0E0,0E0,0E0,0E0],"parents":[2147483647,0,0,1,1,2,2,3,3,5,5,6,6,7,7,8,8,9,9,10,10,11,11,12,12],"right_children":[2,4,6,8,-1,10,12,14,16,18,20,22,24,-1,-1,-1,-1,-1,-1,-1,-1,-1,-1,-1,-1],"split_conditions":[9.797532E-4,8.117449E-1,2.3352536E-3,7.0633606E1,-7.393983E-2,1.575524E-3,2.1694186E-1,7.918958E-4,1.3023526E-3,1.1693285E-3,-3.6931003E-3,6.035534E-1,6.078576E-1,5.4233946E-2,-6.805125E-3,7.828628E-3,-7.317336E-2,3.1527855E-2,-3.1356703E-2,-1.4181355E-2,7.227444E-2,-6.342747E-2,-9.285396E-3,5.12107E-2,-2.8018257E-2],"split_indices":[3,10,2,5,0,6,9,3,6,3,1,7,9,0,0,0,0,0,0,0,0,0,0,0,0],"split_type":[0,0,0,0,0,0,0,0,0,0,0,0,0,0,0,0,0,0,0,0,0,0,0,0,0],"sum_hessian":[6.958619E1,3.2936836E1,3.664935E1,2.6871822E1,6.0650153E0,2.7002924E1,9.646425E0,2.093016E1,5.9416614E0,1.3204126E1,1.3798798E1,3.2327693E0,6.413656E0,1.0812621E1,1.0117539E1,1.7485931E0,4.1930685E0,9.959559E0,3.2445674E0,1.2453578E0,1.255344E1,1.9877148E0,1.2450545E0,3.9232812E0,2.4903748E0],"tree_param":{"num_deleted":"0","num_feature":"11","num_nodes":"25","size_leaf_vector":"0"}},{"base_weights":[1.7412288E-1,-9.380781E-2,7.5758994E-1,4.17666E-1,-6.5841085E-1,9.660848E-1,-3.623013E-1,7.576938E-1,-6.359416E-1,4.984705E-1,-8.8124216E-1,-3.2093194E-1,1.1358784E0,-1.0760037E0,4.218411E-1,1.0657933E0,-2.671042E-1,-1.3153495E0,3.6038715E-2,-7.1773756E-1,1.195988E0,-1.4355289E0,-2.3442656E-1,-2.7564782E-1,1.2658795E0],"categories":[],"categories_nodes":[],"categories_segments":[],"categories_sizes":[],"default_left":[1,1,1,1,1,1,1,1,1,1,1,0,1,0,0,0,0,0,0,0,0,0,0,0,0],"id":6,"left_children":[1,3,5,7,9,11,13,15,17,19,21,-1,23,-1,-1,-1,-1,-1,-1,-1,-1,-1,-1,-1,-1],"loss_changes":[1.0979577E1,1.4341431E1,5.50303E0,9.857157E0,6.5077925E0,4.489954E0,2.7994452E0,6.675461E0,3.2106605E0,4.6255307E0,6.8697405E0,0E0,3.449768E0,0E0,0E0,0E0,0E0,0E0,0E0,0E0,0E0,0E0,0E0,0E0,0E0],"parents":[2147483647,0,0,1,1,2,2,3,3,4,4,5,5,6,6,7,7,8,8,9,9,10,10,12,12],"right_children":[2,4,6,8,10,12,14,16,18,20,22,-1,24,-1,-1,-1,-1,-1,-1,-1,-1,-1,-1,-1,-1],"split_conditions":[1.6449591E-3,2.3105135E-3,4.2697946E-3,7.0633606E1,7.630545E-4,9.4650174E-4,5.748158E-4,1.0259319E-3,7.895043E-4,1.224054E-3,9.800917E-4,-1.6046597E-2,-3.7538176E-3,-5.3800184E-2,2.1092055E-2,5.3289663E-2,-1.335521E-2,-6.5767474E-2,1.8019358E-3,-3.588688E-2,5.9799403E-2,-7.177644E-2,-1.1721328E-2,-1.3782391E-2,6.329398E-2],"split_indices":[6,4,2,5,3,3,4,3,3,6,3,0,1,0,0,0,0,0,0,0,0,0,0,0,0],"split_type":[0,0,0,0,0,0,0,0,0,0,0,0,0,0,0,0,0,0,0,0,0,0,0,0,0],"sum_hessian":[6.8779305E1,4.770992E1,2.1069387E1,2.5169302E1,2.2540617E1,1.7878258E1,3.19113E0,1.9240671E1,5.9286304E0,3.440655E0,1.9099962E1,1.9799942E0,1.5898263E1,1.4757463E0,1.7153836E0,1.476243E1,4.478241E0,2.4719424E0,3.456688E0,1.2434893E0,2.1971657E0,9.629021E0,9.470942E0,1.246261E0,1.4652001E1],"tree_param":{"num_deleted":"0","num_feature":"11","num_nodes":"25","size_leaf_vector":"0"}},{"base_weights":[1.9838144E-1,-6.046711E-2,7.840123E-1,3.966605E-1,-6.240041E-1,1.0134938E0,-4.894726E-1,6.8872833E-1,-6.8358546E-1,7.328825E-1,-8.062748E-1,1.3079785E0,4.7155523E-1,-1.0689311E0,2.8802785E-1,8.9861226E-1,-4.276786E-1,9.226249E-2,-1.280827E0,-3.5937628E-1,-1.2993326E0,5.551005E-1,1.4259189E0,-3.5134363E-1,1.0189626E0],"categories":[],"categories_nodes":[],"categories_segments":[],"categories_sizes":[],"default_left":[1,1,1,1,1,1,1,1,1,0,1,1,1,0,0,0,0,0,0,0,0,0,0,0,0],"id":7,"left_children":[1,3,5,7,9,11,13,15,17,-1,19,21,23,-1,-1,-1,-1,-1,-1,-1,-1,-1,-1,-1,-1],"loss_changes":[1.0604213E1,1.2927745E1,6.755224E0,9.2382765E0,6.139347E0,2.3314075E0,2.0850003E0,5.626568E0,3.0911946E0,0E0,3.9958773E0,2.2121811E-1,3.992217E0,0E0,0E0,0E0,0E0,0E0,0E0,0E0,0E0,0E0,0E0,0E0,0E0],"parents":[2147483647,0,0,1,1,2,2,3,3,4,4,5,5,6,6,7,7,8,8,10,10,11,11,12,12],"right_children":[2,4,6,8,10,12,14,16,18,-1,20,22,24,-1,-1,-1,-1,-1,-1,-1,-1,-1,-1,-1,-1],"split_conditions":[1.6449591E-3,2.500943E-3,4.3087117E-3,2.309189E-3,-9.159756E-1,5.494586E1,2.1694186E-1,9.159756E-1,1.3798866E-3,3.6644127E-2,1.5073996E-3,3.333281E1,-2.8225125E-4,-5.3446557E-2,1.4401393E-2,4.4930615E-2,-2.1383932E-2,4.6131248E-3,-6.4041354E-2,-1.7968815E-2,-6.4966634E-2,2.7755026E-2,7.129595E-2,-1.7567182E-2,5.094813E-2],"split_indices":[6,4,2,2,8,5,9,7,6,0,6,5,0,0,0,0,0,0,0,0,0,0,0,0,0],"split_type":[0,0,0,0,0,0,0,0,0,0,0,0,0,0,0,0,0,0,0,0,0,0,0,0,0],"sum_hessian":[6.864064E1,4.8222893E1,2.0417746E1,2.6788685E1,2.143421E1,1.7473234E1,2.944513E0,2.137258E1,5.416105E0,2.1805537E0,1.9253656E1,1.0405473E1,7.067761E0,1.4723581E0,1.472155E0,1.8154608E1,3.2179716E0,2.723568E0,2.692537E0,1.1006469E1,8.247188E0,2.1821616E0,8.22331E0,2.9664962E0,4.101265E0],"tree_param":{"num_deleted":"0","num_feature":"11","num_nodes":"25","size_leaf_vector":"0"}},{"base_weights":[1.6130853E-1,-4.703266E-2,6.948153E-1,3.8265836E-1,-4.0111142E-1,9.230256E-1,-3.547604E-1,7.87143E-1,-7.63466E-2,-7.7373105E-1,2.311064E-1,-1.337726E-1,1.0793914E0,-8.7662303E-1,5.0574845E-1,1.1764927E0,5.6684874E-3,5.2906823E-1,-8.7926024E-1,-1.2043651E-1,-1.1166623E0,-5.219642E-1,1.0438696E0,1.3007046E0,4.3164596E-1],"categories":[],"categories_nodes":[],"categories_segments":[],"categories_sizes":[],"default_left":[1,1,1,1,1,1,1,1,1,1,1,0,1,0,0,0,0,0,0,0,0,0,0,0,0],"id":8,"left_children":[1,3,5,7,9,11,13,15,17,19,21,-1,23,-1,-1,-1,-1,-1,-1,-1,-1,-1,-1,-1,-1],"loss_changes":[7.6496534E0,7.794041E0,4.952381E0,4.367219E0,6.779708E0,2.811142E0,2.3163598E0,3.772406E0,6.1907477E0,3.8666792E0,7.3759074E0,0E0,1.4696293E0,0E0,0E0,0E0,0E0,0E0,0E0,0E0,0E0,0E0,0E0,0E0,0E0],"parents":[2147483647,0,0,1,1,2,2,3,3,4,4,5,5,6,6,7,7,8,8,9,9,10,10,12,12],"right_children":[2,4,6,8,10,12,14,16,18,20,22,-1,24,-1,-1,-1,-1,-1,-1,-1,-1,-1,-1,-1,-1],"split_conditions":[1.6699356E-3,1.4219297E-3,4.3087117E-3,-1.5561742E-4,1.0624317E-3,-2.5454867E-3,1.2905612E-3,7.865661E-1,8.7579386E-4,5.640776E1,-3.117393E-4,-6.6886297E-3,6.3313778E1,-4.383115E-2,2.5287423E-2,5.8824636E-2,2.8342436E-4,2.6453411E-2,-4.396301E-2,-6.0218256E-3,-5.5833112E-2,-2.609821E-2,5.219348E-2,6.503523E-2,2.1582298E-2],"split_indices":[6,6,2,2,3,1,3,7,3,5,2,0,5,0,0,0,0,0,0,0,0,0,0,0,0],"split_type":[0,0,0,0,0,0,0,0,0,0,0,0,0,0,0,0,0,0,0,0,0,0,0,0,0],"sum_hessian":[6.752789E1,4.9219067E1,1.830883E1,2.2198925E1,2.7020142E1,1.5137944E1,3.1708863E0,1.1420263E1,1.0778662E1,1.6859545E1,1.0160596E1,1.9697664E0,1.3168178E1,1.9621799E0,1.2087063E0,7.2851467E0,4.135117E0,6.3395576E0,4.4391036E0,6.268692E0,1.0590853E1,5.4596844E0,4.700912E0,9.063448E0,4.1047297E0],"tree_param":{"num_deleted":"0","num_feature":"11","num_nodes":"25","size_leaf_vector":"0"}},{"base_weights":[1.695177E-1,-2.5780347E-1,5.5519354E-1,4.3940014E-1,-9.323503E-1,8.024224E-1,-1.7135935E-1,9.832466E-1,-7.8532845E-1,3.9135984E-1,-1.3652438E0,9.904712E-1,-3.617542E-1,-9.852568E-1,4.2864475E-1,1.3050219E0,-2.8581265E-1,-1.2886652E0,3.631669E-1,9.5837957E-1,-7.036E-1,-2.301748E-1,-1.4888618E0,-1.0953474E-1,1.1585562E0,2.5470114E-1,-1.0691975E0,-1.2715904E0,-1.3285911E-1,-4.1311306E-1,1.1788933E0],"categories":[],"categories_nodes":[],"categories_segments":[],"categories_sizes":[],"default_left":[1,1,1,1,1,1,1,1,1,1,1,1,1,1,1,0,0,0,0,0,0,0,0,0,0,0,0,0,0,0,0],"id":9,"left_children":[1,3,5,7,9,11,13,15,17,19,21,23,25,27,29,-1,-1,-1,-1,-1,-1,-1,-1,-1,-1,-1,-1,-1,-1,-1,-1],"loss_changes":[1.1089838E1,1.5549597E1,6.4654856E0,1.1768874E1,1.0093698E1,6.1511517E0,5.1925087E0,5.223032E0,3.7242446E0,3.7093227E0,1.452488E0,4.388443E0,2.1965492E0,9.167719E-1,4.478114E0,0E0,0E0,0E0,0E0,0E0,0E0,0E0,0E0,0E0,0E0,0E0,0E0,0E0,0E0,0E0,0E0],"parents":[2147483647,0,0,1,1,2,2,3,3,4,4,5,5,6,6,7,7,8,8,9,9,10,10,11,11,12,12,13,13,14,14],"right_children":[2,4,6,8,10,12,14,16,18,20,22,24,26,28,30,-1,-1,-1,-1,-1,-1,-1,-1,-1,-1,-1,-1,-1,-1,-1,-1],"split_conditions":[9.797532E-4,2.0953123E-3,2.3352536E-3,6.979493E1,7.630545E-4,1.3227961E-3,2.1694186E-1,9.1412105E-4,7.865661E-1,8.073605E-5,-1.2419679E-3,-2.4070584E-3,3.7576132E-3,7.865661E-1,3.1421082E-3,6.52511E-2,-1.4290633E-2,-6.443326E-2,1.8158345E-2,4.791898E-2,-3.518E-2,-1.150874E-2,-7.4443094E-2,-5.476737E-3,5.7927813E-2,1.2735057E-2,-5.345988E-2,-6.357952E-2,-6.642956E-3,-2.0655653E-2,5.894467E-2],"split_indices":[3,4,2,5,3,3,9,3,7,1,1,1,4,7,4,0,0,0,0,0,0,0,0,0,0,0,0,0,0,0,0],"split_type":[0,0,0,0,0,0,0,0,0,0,0,0,0,0,0,0,0,0,0,0,0,0,0,0,0,0,0,0,0,0,0],"sum_hessian":[6.542119E1,3.1192297E1,3.422889E1,1.5509972E1,1.5682325E1,2.5460766E1,8.768125E0,1.0877111E1,4.6328607E0,3.8883617E0,1.1793963E1,2.2048494E1,3.412272E0,3.4483714E0,5.3197527E0,8.654411E0,2.2226999E0,3.1363049E0,1.4965559E0,2.6439435E0,1.2444181E0,1.4393885E0,1.0354575E1,2.9686933E0,1.9079802E1,2.1653705E0,1.2469014E0,2.213157E0,1.2352142E0,2.7187533E0,2.6009996E0],"tree_param":{"num_deleted":"0","num_feature":"11","num_nodes":"31","size_leaf_vector":"0"}},{"base_weights":[1.4244314E-1,3.399999E-1,-4.5993966E-1,8.0531937E-1,-3.6608797E-2,-1.0425317E0,-2.3840364E-2,5.0546336E-1,1.24913E0,4.6221483E-1,-8.81575E-1,-1.420536E0,-1.6655824E-1,-5.891583E-1,7.686766E-1,1.1000301E0,-6.0297612E-2,4.9928248E-1,1.4143443E0,1.1856478E0,4.5029085E-2,-1.2994866E0,1.1535926E0,5.927968E-1,-8.691339E-1,8.242363E-1,-1.2100668E0,9.8248E-1,4.071879E-2],"categories":[],"categories_nodes":[],"categories_segments":[],"categories_sizes":[],"default_left":[1,1,1,1,1,1,1,1,1,1,1,0,1,1,1,0,0,0,0,0,0,0,0,0,0,0,0,0,0],"id":10,"left_children":[1,3,5,7,9,11,13,15,17,19,21,-1,23,25,27,-1,-1,-1,-1,-1,-1,-1,-1,-1,-1,-1,-1,-1,-1],"loss_changes":[8.404206E0,9.276259E0,4.431836E0,2.5154448E0,1.3102322E1,2.2421741E0,5.4059258E0,5.378316E0,3.9082623E-1,5.860404E0,1.1300766E1,0E0,2.323498E0,7.1568985E0,7.4389815E-1,0E0,0E0,0E0,0E0,0E0,0E0,0E0,0E0,0E0,0E0,0E0,0E0,0E0,0E0],"parents":[2147483647,0,0,1,1,2,2,3,3,4,4,5,5,6,6,7,7,8,8,9,9,10,10,12,12,13,13,14,14],"right_children":[2,4,6,8,10,12,14,16,18,20,22,-1,24,26,28,-1,-1,-1,-1,-1,-1,-1,-1,-1,-1,-1,-1,-1,-1],"split_conditions":[2.3207057E-3,2.133166E-3,2.1694186E-1,3.7940952E-1,2.0048442E-1,7.452227E-4,1.7005167E-3,-2.4086339E-4,-8.8754785E-4,-6.035534E-1,5.1175756E-3,-7.10268E-2,1.5130853E-3,1.3495069E-3,1.1516215E-3,5.5001505E-2,-3.0148807E-3,2.4964124E-2,7.0717216E-2,5.9282392E-2,2.2514544E-3,-6.497433E-2,5.767963E-2,2.963984E-2,-4.3456696E-2,4.1211814E-2,-6.050334E-2,4.9124E-2,2.0359396E-3],"split_indices":[2,4,9,8,10,0,6,2,2,8,4,0,6,6,0,0,0,0,0,0,0,0,0,0,0,0,0,0,0],"split_type":[0,0,0,0,0,0,0,0,0,0,0,0,0,0,0,0,0,0,0,0,0,0,0,0,0,0,0,0,0],"sum_hessian":[6.830667E1,5.1765347E1,1.6541328E1,2.2646313E1,2.9119034E1,6.485997E0,1.0055331E1,1.4791504E1,7.854809E0,1.8594687E1,1.0524346E1,4.096563E0,2.3894343E0,6.018684E0,4.0366473E0,6.7517023E0,8.039802E0,2.1443617E0,5.710447E0,6.1273546E0,1.2467332E1,9.031299E0,1.4930482E0,1.2234077E0,1.1660266E0,1.7370688E0,4.2816153E0,2.849965E0,1.1866822E0],"tree_param":{"num_deleted":"0","num_feature":"11","num_nodes":"29","size_leaf_vector":"0"}},{"base_weights":[1.9496845E-1,-3.9566015E-3,7.257115E-1,3.6474842E-1,-4.599368E-1,1.0654278E0,8.519073E-2,6.004535E-1,-5.15535E-1,3.088691E-1,-6.804877E-1,1.3131174E0,7.507939E-2,4.782544E-1,-6.4818734E-1,7.743368E-1,-4.616401E-1,1.949153E-1,-1.0187591E0,6.501455E-1,-3.9616433E-1,-1.203933E0,-2.3724265E-1,3.9381173E-1,1.3983591E0,-3.6731678E-1,4.9470982E-1,1.0509251E0,-2.1840078E-1],"categories":[],"categories_nodes":[],"categories_segments":[],"categories_sizes":[],"default_left":[1,1,1,1,1,1,1,1,1,1,1,1,1,1,0,0,0,0,0,0,0,0,0,0,0,0,0,0,0],"id":11,"left_children":[1,3,5,7,9,11,13,15,17,19,21,23,25,27,-1,-1,-1,-1,-1,-1,-1,-1,-1,-1,-1,-1,-1,-1,-1],"loss_changes":[6.851843E0,8.267937E0,3.7586823E0,5.9526443E0,3.9376392E0,2.715704E0,2.3906746E0,4.404728E0,2.4445987E0,1.6021814E0,3.7501917E0,1.6374207E-1,8.047301E-1,2.333896E0,0E0,0E0,0E0,0E0,0E0,0E0,0E0,0E0,0E0,0E0,0E0,0E0,0E0,0E0,0E0],"parents":[2147483647,0,0,1,1,2,2,3,3,4,4,5,5,6,6,7,7,8,8,9,9,10,10,11,11,12,12,13,13],"right_children":[2,4,6,8,10,12,14,16,18,20,22,24,26,28,-1,-1,-1,-1,-1,-1,-1,-1,-1,-1,-1,-1,-1,-1,-1],"split_conditions":[1.6699356E-3,2.4999043E-3,5.540252E1,2.201447E-3,1.3725325E-3,8.117449E-1,-5.6174487E-1,9.159756E-1,1.3798866E-3,5.0229533E-3,4.201472E-3,3.3395027E1,-5.605153E-4,4.8108697E-3,-3.2409366E-2,3.871684E-2,-2.3082005E-2,9.745765E-3,-5.0937958E-2,3.2507274E-2,-1.9808216E-2,-6.019665E-2,-1.1862133E-2,1.9690586E-2,6.9917955E-2,-1.836584E-2,2.4735492E-2,5.254626E-2,-1.0920039E-2],"split_indices":[6,4,5,2,6,10,10,7,6,4,4,5,0,4,0,0,0,0,0,0,0,0,0,0,0,0,0,0,0],"split_type":[0,0,0,0,0,0,0,0,0,0,0,0,0,0,0,0,0,0,0,0,0,0,0,0,0,0,0,0,0],"sum_hessian":[6.3871143E1,4.718029E1,1.6690855E1,2.619728E1,2.098301E1,1.0472908E1,6.217946E0,2.0914965E1,5.2823153E0,4.588338E0,1.639467E1,8.116922E0,2.355986E0,4.2747254E0,1.9432209E0,1.8205362E1,2.7096026E0,2.4442286E0,2.8380868E0,3.1442118E0,1.4441261E0,6.7303543E0,9.664316E0,1.1656526E0,6.9512696E0,1.2075696E0,1.1484165E0,2.0670338E0,2.2076914E0],"tree_param":{"num_deleted":"0","num_feature":"11","num_nodes":"29","size_leaf_vector":"0"}},{"base_weights":[1.6171053E-1,-5.8414634E-2,7.56928E-1,4.59516E-1,-4.388223E-1,9.687424E-1,-2.5739753E-1,6.799991E-1,-4.308965E-1,2.600407E-1,-6.6687924E-1,1.1787977E0,1.7969574E-1,-8.889726E-1,3.551913E-1,1.0706031E0,-5.100524E-1,9.842866E-1,-1.1935827E0,-8.0761856E-1,8.92163E-1,-3.2699943E-1,-1.0077938E0,3.2902095E-1,1.2909592E0,9.31123E-1,-5.935259E-1],"categories":[],"categories_nodes":[],"categories_segments":[],"categories_sizes":[],"default_left":[1,1,1,1,1,1,1,1,1,1,1,1,1,0,0,0,0,0,0,0,0,0,0,0,0,0,0],"id":12,"left_children":[1,3,5,7,9,11,13,15,17,19,21,23,25,-1,-1,-1,-1,-1,-1,-1,-1,-1,-1,-1,-1,-1,-1],"loss_changes":[8.590948E0,9.766892E0,4.0484486E0,4.4249105E0,4.7160463E0,2.2474642E0,1.803267E0,8.567947E0,6.3441343E0,5.93876E0,2.1929197E0,6.7500496E-1,3.0507073E0,0E0,0E0,0E0,0E0,0E0,0E0,0E0,0E0,0E0,0E0,0E0,0E0,0E0,0E0],"parents":[2147483647,0,0,1,1,2,2,3,3,4,4,5,5,6,6,7,7,8,8,9,9,10,10,11,11,12,12],"right_children":[2,4,6,8,10,12,14,16,18,20,22,24,26,-1,-1,-1,-1,-1,-1,-1,-1,-1,-1,-1,-1,-1,-1],"split_conditions":[1.6699356E-3,1.5646149E-3,4.3087117E-3,6.8173004E1,-8.6523173E-4,6.3313778E1,2.1694186E-1,7.865661E-1,1.3326192E-3,-3.7940952E-1,-5.6174487E-1,-2.5454867E-3,3.7940952E-1,-4.444863E-2,1.7759565E-2,5.3530157E-2,-2.550262E-2,4.921433E-2,-5.9679132E-2,-4.038093E-2,4.460815E-2,-1.6349971E-2,-5.038969E-2,1.6451048E-2,6.454796E-2,4.6556152E-2,-2.9676294E-2],"split_indices":[6,4,2,5,1,5,9,7,6,7,10,1,8,0,0,0,0,0,0,0,0,0,0,0,0,0,0],"split_type":[0,0,0,0,0,0,0,0,0,0,0,0,0,0,0,0,0,0,0,0,0,0,0,0,0,0,0],"sum_hessian":[6.42311E1,4.7548447E1,1.6682653E1,2.0046665E1,2.7501783E1,1.3837919E1,2.844735E0,1.6257345E1,3.7893195E0,6.731961E0,2.0769823E1,1.0538476E1,3.299443E0,1.1785177E0,1.6662172E0,1.2315477E1,3.9418678E0,1.2252624E0,2.564057E0,2.400265E0,4.331696E0,1.1381776E1,9.388047E0,1.6874192E0,8.851057E0,1.569738E0,1.7297051E0],"tree_param":{"num_deleted":"0","num_feature":"11","num_nodes":"27","size_leaf_vector":"0"}},{"base_weights":[1.6314875E-1,3.5271004E-1,-4.1206855E-1,1.1831708E-1,9.786419E-1,-7.5888896E-1,1.4553896E-1,6.663295E-1,-4.144155E-1,2.8290966E-1,1.346883E0,-1.0033174E0,3.5043818E-1,5.72979E-1,-8.223472E-1,8.3250505E-1,-3.200761E-1,1.7748518E-1,-8.878758E-1,-4.0043384E-1,8.6807466E-1,-1.2961203E0,2.889171E-1,9.80343E-1,-3.8616133E-1],"categories":[],"categories_nodes":[],"categories_segments":[],"categories_sizes":[],"default_left":[1,1,1,1,1,1,1,1,1,1,0,1,0,1,0,0,0,0,0,0,0,0,0,0,0],"id":13,"left_children":[1,3,5,7,9,11,13,15,17,19,-1,21,-1,23,-1,-1,-1,-1,-1,-1,-1,-1,-1,-1,-1],"loss_changes":[7.3583326E0,7.262906E0,3.370527E0,1.1290714E1,3.094182E0,3.2133632E0,3.4927192E0,3.3777533E0,5.691638E0,2.7310755E0,0E0,3.7447577E0,0E0,2.5882773E0,0E0,0E0,0E0,0E0,0E0,0E0,0E0,0E0,0E0,0E0,0E0],"parents":[2147483647,0,0,1,1,2,2,3,3,4,4,5,5,6,6,7,7,8,8,9,9,11,11,13,13],"right_children":[2,4,6,8,10,12,14,16,18,20,-1,22,-1,24,-1,-1,-1,-1,-1,-1,-1,-1,-1,-1,-1],"split_conditions":[2.3111603E-3,1.6449591E-3,7.5203826E-4,2.2436338E-3,-6.482139E-4,1.8034071E-3,1.8854042E-3,9.159756E-1,-5.6174487E-1,-6.035534E-1,6.734415E-2,9.159756E-1,1.7521909E-2,4.696413E-3,-4.1117363E-2,4.1625254E-2,-1.6003806E-2,8.874259E-3,-4.439379E-2,-2.0021692E-2,4.3403734E-2,-6.4806014E-2,1.4445855E-2,4.901715E-2,-1.9308066E-2],"split_indices":[2,6,0,4,0,6,0,7,10,7,0,7,0,2,0,0,0,0,0,0,0,0,0,0,0],"split_type":[0,0,0,0,0,0,0,0,0,0,0,0,0,0,0,0,0,0,0,0,0,0,0,0,0],"sum_hessian":[6.515061E1,4.9293045E1,1.5857566E1,3.672838E1,1.2564666E1,9.554124E0,6.303442E0,1.7980938E1,1.8747442E1,4.960629E0,7.604037E0,7.9073796E0,1.6467445E0,4.655486E0,1.6479561E0,1.5522029E1,2.4589083E0,8.609425E0,1.0138019E1,2.4339747E0,2.5266542E0,6.4442024E0,1.463177E0,3.2521389E0,1.4033471E0],"tree_param":{"num_deleted":"0","num_feature":"11","num_nodes":"25","size_leaf_vector":"0"}},{"base_weights":[1.4015448E-1,3.2497507E-1,-4.0562195E-1,7.7547127E-1,-5.4453664E-2,-1.0260473E0,1.0373654E-2,9.429759E-1,-7.237363E-2,3.9114064E-1,-8.1640553E-1,-1.3027532E0,-2.7727267E-1,-3.111044E-1,9.946735E-1,7.757131E-2,1.035534E0,-1.086385E0,1.0771052E0,-1.312368E-1,9.763718E-1,-1.1839356E0,1.0727774E0,-5.261017E-1,5.945067E-1],"categories":[],"categories_nodes":[],"categories_segments":[],"categories_sizes":[],"default_left":[1,1,1,1,1,1,1,1,1,1,1,0,0,1,0,0,0,0,0,0,0,0,0,0,0],"id":14,"left_children":[1,3,5,7,9,11,13,15,17,19,21,-1,-1,23,-1,-1,-1,-1,-1,-1,-1,-1,-1,-1,-1],"loss_changes":[6.727482E0,8.486459E0,4.3946238E0,3.2851133E0,9.741119E0,1.0534334E0,3.8402388E0,1.4404202E0,6.6082215E0,5.6878805E0,8.604994E0,0E0,0E0,2.0987558E0,0E0,0E0,0E0,0E0,0E0,0E0,0E0,0E0,0E0,0E0,0E0],"parents":[2147483647,0,0,1,1,2,2,3,3,4,4,5,5,6,6,7,7,8,8,9,9,10,10,13,13],"right_children":[2,4,6,8,10,12,14,16,18,20,22,-1,-1,24,-1,-1,-1,-1,-1,-1,-1,-1,-1,-1,-1],"split_conditions":[2.3111603E-3,2.0953123E-3,2.1694186E-1,7.865661E-1,2.0048442E-1,7.452227E-4,1.2153608E-3,-2.4070584E-3,2.9096563E-4,1.0432687E-3,5.1175756E-3,-6.513766E-2,-1.3863633E-2,9.159756E-1,4.9733676E-2,3.8785655E-3,5.1776703E-2,-5.431925E-2,5.385526E-2,-6.5618404E-3,4.8818592E-2,-5.919678E-2,5.363887E-2,-2.6305085E-2,2.9725334E-2],"split_indices":[2,4,9,7,10,0,3,1,4,3,4,0,0,7,0,0,0,0,0,0,0,0,0,0,0],"split_type":[0,0,0,0,0,0,0,0,0,0,0,0,0,0,0,0,0,0,0,0,0,0,0,0,0],"sum_hessian":[6.438731E1,4.840134E1,1.5985966E1,2.1651134E1,2.6750206E1,5.827786E0,1.0158179E1,1.7985603E1,3.6655312E0,1.7186241E1,9.563964E0,3.715058E0,2.1127279E0,8.172822E0,1.9853578E0,1.9153609E0,1.6070244E1,1.9766877E0,1.6888435E0,9.4906435E0,7.695598E0,8.31888E0,1.2450843E0,6.9434667E0,1.229355E0],"tree_param":{"num_deleted":"0","num_feature":"11","num_nodes":"25","size_leaf_vector":"0"}},{"base_weights":[1.350748E-1,3.1113103E-1,-4.1050193E-1,5.1690435E-1,-3.5119483E-1,-6.501354E-1,8.0843616E-1,9.991903E-1,2.6176792E-1,8.94636E-1,-8.070516E-1,-9.7080916E-1,1.1528009E-2,2.3439163E-1,1.2042309E0,5.339425E-1,-4.6806306E-1,-1.3058798E0,1.1238284E0,-2.976369E-1,-1.3166847E0,-7.4081993E-1,7.18731E-1],"categories":[],"categories_nodes":[],"categories_segments":[],"categories_sizes":[],"default_left":[1,1,1,1,1,1,0,1,1,0,1,1,1,0,0,0,0,0,0,0,0,0,0],"id":15,"left_children":[1,3,5,7,9,11,-1,13,15,-1,17,19,21,-1,-1,-1,-1,-1,-1,-1,-1,-1,-1],"loss_changes":[6.3135147E0,6.89479E0,5.240894E0,4.412586E0,7.691191E0,2.9912243E0,0E0,1.7230244E0,5.4540257E0,0E0,1.0627211E1,1.8134747E0,3.4976861E0,0E0,0E0,0E0,0E0,0E0,0E0,0E0,0E0,0E0,0E0],"parents":[2147483647,0,0,1,1,2,2,3,3,4,4,5,5,7,7,8,8,10,10,11,11,12,12],"right_children":[2,4,6,8,10,12,-1,14,16,-1,18,20,22,-1,-1,-1,-1,-1,-1,-1,-1,-1,-1],"split_conditions":[2.3111603E-3,8.117449E-1,1.9437529E-3,-6.035534E-1,1.7641428E-3,6.035534E-1,4.042181E-2,-3.7940952E-1,3.3472504E-3,4.47318E-2,5.1175756E-3,-5.6174487E-1,3.5705683E-3,1.1719582E-2,6.0211547E-2,2.6697127E-2,-2.3403153E-2,-6.529399E-2,5.6191422E-2,-1.4881845E-2,-6.583424E-2,-3.7040997E-2,3.593655E-2],"split_indices":[2,10,6,8,4,7,0,7,4,0,4,10,2,0,0,0,0,0,0,0,0,0,0],"split_type":[0,0,0,0,0,0,0,0,0,0,0,0,0,0,0,0,0,0,0,0,0,0,0],"sum_hessian":[6.3400356E1,4.8257504E1,1.5142853E1,3.698611E1,1.1271392E1,1.3044957E1,2.0978963E0,1.1787615E1,2.5198498E1,2.7615886E0,8.509803E0,8.471862E0,4.573095E0,2.9452012E0,8.842414E0,1.8549332E1,6.649166E0,7.0199413E0,1.4898618E0,3.5069232E0,4.964939E0,2.1927905E0,2.3803043E0],"tree_param":{"num_deleted":"0","num_feature":"11","num_nodes":"23","size_leaf_vector":"0"}},{"base_weights":[1.2376637E-1,3.131404E-1,-4.457566E-1,6.812927E-1,-3.315555E-2,-7.4667656E-1,7.619464E-2,8.997925E-1,-2.5880116E-1,3.51104E-1,-7.427448E-1,-1.147992E0,-2.3478884E-1,4.3067935E-1,-8.7885284E-1,1.0043157E0,-3.5846046E-1,-1.1433475E0,8.093801E-1,1.1520958E0,-7.5850636E-2,-1.1375787E0,1.0108281E0,-3.7087846E-1,-1.2592145E0,-9.0437245E-1,1.757767E-1,7.781561E-1,-3.71448E-1],"categories":[],"categories_nodes":[],"categories_segments":[],"categories_sizes":[],"default_left":[1,1,1,1,1,1,1,1,1,1,1,1,1,1,0,0,0,0,0,0,0,0,0,0,0,0,0,0,0],"id":16,"left_children":[1,3,5,7,9,11,13,15,17,19,21,23,25,27,-1,-1,-1,-1,-1,-1,-1,-1,-1,-1,-1,-1,-1,-1,-1],"loss_changes":[6.902505E0,6.0968485E0,2.579358E0,4.9860992E0,7.215119E0,1.8421674E0,2.6740234E0,2.8587656E0,5.782571E0,5.977873E0,7.5755353E0,8.793831E-3,1.746431E0,1.8543762E0,0E0,0E0,0E0,0E0,0E0,0E0,0E0,0E0,0E0,0E0,0E0,0E0,0E0,0E0,0E0],"parents":[2147483647,0,0,1,1,2,2,3,3,4,4,5,5,6,6,7,7,8,8,9,9,10,10,11,11,12,12,13,13],"right_children":[2,4,6,8,10,12,14,16,18,20,22,24,26,28,-1,-1,-1,-1,-1,-1,-1,-1,-1,-1,-1,-1,-1,-1,-1],"split_conditions":[2.3046911E-3,2.3105135E-3,7.5203826E-4,7.865661E-1,2.0048442E-1,3.4381784E-3,1.9442032E-3,6.799657E1,2.9096563E-4,-6.035534E-1,5.1810034E-3,4.1334418E-4,8.853179E-4,4.696413E-3,-4.394264E-2,5.021579E-2,-1.7923024E-2,-5.7167377E-2,4.0469006E-2,5.760479E-2,-3.7925318E-3,-5.6878936E-2,5.054141E-2,-1.8543923E-2,-6.296073E-2,-4.5218624E-2,8.788835E-3,3.8907807E-2,-1.8572401E-2],"split_indices":[2,4,0,7,10,2,0,5,4,8,4,1,1,2,0,0,0,0,0,0,0,0,0,0,0,0,0,0,0],"split_type":[0,0,0,0,0,0,0,0,0,0,0,0,0,0,0,0,0,0,0,0,0,0,0,0,0,0,0,0,0],"sum_hessian":[6.170507E1,4.664512E1,1.5059955E1,2.2140186E1,2.450493E1,9.279505E0,5.7804503E0,1.7999542E1,4.1406446E0,1.622429E1,8.280641E0,4.5049777E0,4.7745266E0,4.6161313E0,1.1643189E0,1.6805336E1,1.194205E0,2.226523E0,1.9141216E0,5.0506234E0,1.1173667E1,7.0455465E0,1.2350937E0,1.1067384E0,3.3982394E0,1.3576359E0,3.4168909E0,3.2417216E0,1.3744097E0],"tree_param":{"num_deleted":"0","num_feature":"11","num_nodes":"29","size_leaf_vector":"0"}},{"base_weights":[1.2034217E-1,-2.27862E-1,4.0834677E-1,4.46793E-1,-6.851896E-1,6.765946E-1,1.0221846E-1,8.517185E-1,-7.31769E-1,2.3886842E-1,-1.2192004E0,8.903742E-1,-4.1893604E-1,4.8568788E-1,-5.99085E-1,1.0438031E0,-3.7443736E-1,1.2963325E-1,-1.1565931E0,1.0328854E0,-6.8566865E-1,-1.7144737E-1,-1.3407664E0,1.1747286E0,3.8059628E-1,-1.123859E0,4.9565426E-1,-5.109843E-1,7.7824277E-1,1.3491231E-1,-9.488465E-1],"categories":[],"categories_nodes":[],"categories_segments":[],"categories_sizes":[],"default_left":[1,1,1,1,1,1,1,1,1,1,1,1,1,1,1,0,0,0,0,0,0,0,0,0,0,0,0,0,0,0,0],"id":17,"left_children":[1,3,5,7,9,11,13,15,17,19,21,23,25,27,29,-1,-1,-1,-1,-1,-1,-1,-1,-1,-1,-1,-1,-1,-1,-1,-1],"loss_changes":[6.597566E0,9.56339E0,2.8753672E0,6.696926E0,9.309967E0,4.8071604E0,5.1112795E0,2.7306795E0,1.53773E0,6.2359114E0,1.2663269E0,1.8956604E0,2.988493E0,3.9375224E0,1.8696146E0,0E0,0E0,0E0,0E0,0E0,0E0,0E0,0E0,0E0,0E0,0E0,0E0,0E0,0E0,0E0,0E0],"parents":[2147483647,0,0,1,1,2,2,3,3,4,4,5,5,6,6,7,7,8,8,9,9,10,10,11,11,12,12,13,13,14,14],"right_children":[2,4,6,8,10,12,14,16,18,20,22,24,26,28,30,-1,-1,-1,-1,-1,-1,-1,-1,-1,-1,-1,-1,-1,-1,-1,-1],"split_conditions":[9.797532E-4,1.5615432E-3,2.0048442E-1,9.1412105E-4,7.6874567E-4,8.005118E-3,1.1963581E-3,7.62827E1,-4.0927067E-4,2.51355E-4,-1.1014215E-3,7.044058E-1,1.7975996E-3,1.3592722E-3,8.0681326E-5,5.2190155E-2,-1.872187E-2,6.4816624E-3,-5.7829656E-2,5.1644273E-2,-3.4283433E-2,-8.572369E-3,-6.703832E-2,5.8736432E-2,1.9029815E-2,-5.6192953E-2,2.4782714E-2,-2.5549216E-2,3.891214E-2,6.7456155E-3,-4.744233E-2],"split_indices":[3,4,10,3,3,4,3,5,1,1,1,9,6,6,4,0,0,0,0,0,0,0,0,0,0,0,0,0,0,0,0],"split_type":[0,0,0,0,0,0,0,0,0,0,0,0,0,0,0,0,0,0,0,0,0,0,0,0,0,0,0,0,0,0,0],"sum_hessian":[6.386073E1,2.900357E1,3.485716E1,1.1726919E1,1.7276651E1,1.7933016E1,1.692414E1,8.934547E0,2.7923713E0,6.529912E0,1.074674E1,1.5161667E1,2.7713485E0,1.1140189E1,5.7839527E0,7.853041E0,1.0815065E0,1.1517861E0,1.6405852E0,3.4498754E0,3.0800366E0,1.3678486E0,9.378891E0,8.895408E0,6.2662587E0,1.435851E0,1.3354975E0,2.3585353E0,8.781653E0,2.0648997E0,3.7190533E0],"tree_param":{"num_deleted":"0","num_feature":"11","num_nodes":"31","size_leaf_vector":"0"}},{"base_weights":[1.1340153E-1,-2.2948113E-1,4.157378E-1,3.7755182E-1,-6.580517E-1,6.8065256E-1,7.2074253E-3,7.107264E-1,-4.6601525E-1,2.2692177E-1,-1.1912583E0,8.8081515E-1,-3.6535227E-1,4.3880993E-1,-6.9614786E-1,8.895474E-1,-3.65718E-1,5.196789E-1,-1.1318144E0,9.9922407E-1,-6.593019E-1,-5.487947E-2,-1.3179315E0,1.0796064E0,-4.7099885E-2,-1.0185372E0,5.223862E-1,-6.2547185E-2,1.0936849E0,3.5400778E-2,-1.3939618E0],"categories":[],"categories_nodes":[],"categories_segments":[],"categories_sizes":[],"default_left":[1,1,1,1,1,1,1,1,1,1,1,1,1,1,1,0,0,0,0,0,0,0,0,0,0,0,0,0,0,0,0],"id":18,"left_children":[1,3,5,7,9,11,13,15,17,19,21,23,25,27,29,-1,-1,-1,-1,-1,-1,-1,-1,-1,-1,-1,-1,-1,-1,-1,-1],"loss_changes":[6.475193E0,7.918271E0,3.5730643E0,3.938827E0,8.596813E0,4.5185604E0,4.5602217E0,2.1727948E0,3.3696475E0,5.7744927E0,1.5357552E0,3.2084846E0,2.8088388E0,3.1215687E0,2.9675496E0,0E0,0E0,0E0,0E0,0E0,0E0,0E0,0E0,0E0,0E0,0E0,0E0,0E0,0E0,0E0,0E0],"parents":[2147483647,0,0,1,1,2,2,3,3,4,4,5,5,6,6,7,7,8,8,9,9,10,10,11,11,12,12,13,13,14,14],"right_children":[2,4,6,8,10,12,14,16,18,20,22,24,26,28,30,-1,-1,-1,-1,-1,-1,-1,-1,-1,-1,-1,-1,-1,-1,-1,-1],"split_conditions":[9.801746E-4,1.5646149E-3,6.078576E-1,9.1412105E-4,7.6874567E-4,4.1626487E-3,5.3427155E1,7.62827E1,-7.714791E-5,2.51355E-4,-9.306829E-4,6.841133E-3,1.2885493E-3,1.6662299E-3,1.0821484E-3,4.447737E-2,-1.82859E-2,2.5983945E-2,-5.6590717E-2,4.9961206E-2,-3.2965094E-2,-2.7439736E-3,-6.589658E-2,5.398032E-2,-2.3549942E-3,-5.092686E-2,2.611931E-2,-3.1273593E-3,5.4684248E-2,1.770039E-3,-6.969809E-2],"split_indices":[3,4,9,3,3,2,5,5,2,1,1,4,3,6,3,0,0,0,0,0,0,0,0,0,0,0,0,0,0,0,0],"split_type":[0,0,0,0,0,0,0,0,0,0,0,0,0,0,0,0,0,0,0,0,0,0,0,0,0,0,0,0,0,0,0],"sum_hessian":[6.054184E1,2.8481573E1,3.206027E1,1.183598E1,1.6645592E1,1.9044569E1,1.30157E1,8.597711E0,3.2382698E0,6.474371E0,1.0171222E1,1.611814E1,2.926429E0,8.29917E0,4.716531E0,7.521799E0,1.0759114E0,1.3939853E0,1.8442845E0,3.3914092E0,3.0829618E0,1.1638268E0,9.007395E0,1.3139691E1,2.9784482E0,1.6010562E0,1.3253729E0,5.2128344E0,3.0863354E0,2.76604E0,1.9504911E0],"tree_param":{"num_deleted":"0","num_feature":"11","num_nodes":"31","size_leaf_vector":"0"}},{"base_weights":[1.5624508E-1,-4.833187E-2,7.254291E-1,1.1799102E-1,-8.126108E-1,8.974157E-1,-1.5533741E-1,4.483025E-1,-2.7189285E-1,-1.2346433E0,-1.9993743E-1,2.6142964E-1,1.0586674E0,-5.943277E-1,4.171563E-1,9.6652085E-1,1.6874447E-1,3.625349E-1,-5.871928E-1,-9.55415E-1,5.922799E-1,6.7620456E-1,-4.3202943E-1,1.149826E0,4.3620574E-1],"categories":[],"categories_nodes":[],"categories_segments":[],"categories_sizes":[],"default_left":[1,1,1,1,1,1,1,1,1,0,1,1,1,0,0,0,0,0,0,0,0,0,0,0,0],"id":19,"left_children":[1,3,5,7,9,11,13,15,17,-1,19,21,23,-1,-1,-1,-1,-1,-1,-1,-1,-1,-1,-1,-1],"loss_changes":[7.139305E0,5.9200907E0,2.59237E0,5.0803075E0,1.9032993E0,1.1277523E0,1.1270237E0,2.9112282E0,3.8697424E0,0E0,3.3099918E0,1.4708449E0,9.976578E-2,0E0,0E0,0E0,0E0,0E0,0E0,0E0,0E0,0E0,0E0,0E0,0E0],"parents":[2147483647,0,0,1,1,2,2,3,3,4,4,5,5,6,6,7,7,8,8,10,10,11,11,12,12],"right_children":[2,4,6,8,10,12,14,16,18,-1,20,22,24,-1,-1,-1,-1,-1,-1,-1,-1,-1,-1,-1,-1],"split_conditions":[1.6699356E-3,7.129086E1,4.3087117E-3,2.4999043E-3,7.473508E1,-6.4783613E-4,1.2905612E-3,7.9800363E-4,-6.964189E-4,-6.173217E-2,-6.1232336E-17,-4.6416512E-4,7.865661E-1,-2.9716386E-2,2.0857817E-2,4.832604E-2,8.437224E-3,1.8126747E-2,-2.9359639E-2,-4.777075E-2,2.9613996E-2,3.3810228E-2,-2.1601472E-2,5.7491302E-2,2.1810288E-2],"split_indices":[6,5,2,4,5,0,3,3,1,0,8,2,8,0,0,0,0,0,0,0,0,0,0,0,0],"split_type":[0,0,0,0,0,0,0,0,0,0,0,0,0,0,0,0,0,0,0,0,0,0,0,0,0],"sum_hessian":[6.0011032E1,4.481768E1,1.5193351E1,3.750207E1,7.3156085E0,1.2695423E1,2.4979277E0,2.0220951E1,1.7281122E1,3.7306335E0,3.5849748E0,3.097997E0,9.597425E0,1.3922255E0,1.105702E0,6.22476E0,1.399619E1,5.687421E0,1.1593701E1,1.7295926E0,1.8553823E0,1.9540896E0,1.1439073E0,7.6324415E0,1.9649845E0],"tree_param":{"num_deleted":"0","num_feature":"11","num_nodes":"25","size_leaf_vector":"0"}},{"base_weights":[1.1988175E-1,2.8442132E-1,-3.988451E-1,1.0514052E-1,8.081244E-1,-6.2391126E-1,7.3081213E-1,4.902424E-1,-3.6279956E-1,-1.199141E-1,1.0795647E0,-8.945123E-1,3.374014E-1,8.2791233E-1,1.6198538E-1,1.468108E-1,-7.830145E-1,-7.593771E-1,5.241288E-1,1.1997E0,3.776551E-1,-3.1442532E-1,-1.1956333E0,-3.805822E-1,9.6890557E-1],"categories":[],"categories_nodes":[],"categories_segments":[],"categories_sizes":[],"default_left":[1,1,1,1,1,1,0,1,1,1,1,1,1,0,0,0,0,0,0,0,0,0,0,0,0],"id":20,"left_children":[1,3,5,7,9,11,-1,13,15,17,19,21,23,-1,-1,-1,-1,-1,-1,-1,-1,-1,-1,-1,-1],"loss_changes":[5.3808727E0,4.3688755E0,4.3403645E0,6.7532883E0,3.1392856E0,3.756176E0,0E0,2.13166E0,3.7655737E0,1.8822404E0,3.3487606E-1,1.4819632E0,2.0205328E0,0E0,0E0,0E0,0E0,0E0,0E0,0E0,0E0,0E0,0E0,0E0,0E0],"parents":[2147483647,0,0,1,1,2,2,3,3,4,4,5,5,7,7,8,8,9,9,10,10,11,11,12,12],"right_children":[2,4,6,8,10,12,-1,14,16,18,20,22,24,-1,-1,-1,-1,-1,-1,-1,-1,-1,-1,-1,-1],"split_conditions":[2.3111603E-3,1.6449591E-3,1.9437529E-3,2.4999043E-3,-2.5454867E-3,9.159756E-1,3.654061E-2,-2.4086339E-4,-5.6174487E-1,1.0816109E-3,4.9717873E-3,-5.6174487E-1,-5.6174487E-1,4.1395616E-2,8.099269E-3,7.34054E-3,-3.9150726E-2,-3.7968855E-2,2.620644E-2,5.9985E-2,1.8882755E-2,-1.5721267E-2,-5.9781667E-2,-1.902911E-2,4.844528E-2],"split_indices":[2,6,6,4,1,7,0,2,10,3,4,10,10,0,0,0,0,0,0,0,0,0,0,0,0],"split_type":[0,0,0,0,0,0,0,0,0,0,0,0,0,0,0,0,0,0,0,0,0,0,0,0,0],"sum_hessian":[6.0714886E1,4.643686E1,1.4278026E1,3.548868E1,1.0948178E1,1.2279274E1,1.9987507E0,1.9441336E1,1.6047346E1,2.6038828E0,8.3442955E0,9.636246E0,2.6430292E0,8.83295E0,1.0608385E1,7.546298E0,8.501049E0,1.2167283E0,1.3871543E0,6.519292E0,1.8250035E0,3.9913645E0,5.644881E0,1.4227664E0,1.2202626E0],"tree_param":{"num_deleted":"0","num_feature":"11","num_nodes":"25","size_leaf_vector":"0"}},{"base_weights":[7.1595624E-2,-1.316823E-1,5.527046E-1,9.508765E-2,-6.6435605E-1,9.5851916E-1,1.8410154E-2,2.2400805E-1,-7.1090335E-1,-7.54263E-2,-1.0553467E0,-5.912047E-2,1.1632127E0,-3.4731388E-1,9.026152E-1,2.2582615E-2,7.736515E-1,-1.0476972E0,1.5072058E-1,-5.0006515E-1,6.509458E-1,-1.1775274E0,-2.9235882E-1,2.872345E-1,1.2447511E0,-6.491235E-1,5.3574485E-1],"categories":[],"categories_nodes":[],"categories_segments":[],"categories_sizes":[],"default_left":[1,1,1,1,1,1,1,1,1,1,1,0,1,1,0,0,0,0,0,0,0,0,0,0,0,0,0],"id":21,"left_children":[1,3,5,7,9,11,13,15,17,19,21,-1,23,25,-1,-1,-1,-1,-1,-1,-1,-1,-1,-1,-1,-1,-1],"loss_changes":[6.172434E0,5.456871E0,4.040762E0,3.504446E0,3.019383E0,2.2805796E0,3.2559817E0,3.1394482E0,1.5156987E0,2.3140204E0,4.0258121E-1,0E0,2.7732754E-1,2.2557564E0,0E0,0E0,0E0,0E0,0E0,0E0,0E0,0E0,0E0,0E0,0E0,0E0,0E0],"parents":[2147483647,0,0,1,1,2,2,3,3,4,4,5,5,6,6,7,7,8,8,9,9,10,10,12,12,13,13],"right_children":[2,4,6,8,10,12,14,16,18,20,22,-1,24,26,-1,-1,-1,-1,-1,-1,-1,-1,-1,-1,-1,-1,-1],"split_conditions":[1.6449591E-3,1.5322008E-3,5.494546E1,7.129086E1,2.4983897E-3,-9.159756E-1,1.291618E-3,1.1987037E-3,7.865661E-1,1.0704796E-3,6.0831676E-3,-2.9560234E-3,-3.668236E-3,1.9280763E-3,4.513076E-2,1.1291307E-3,3.8682576E-2,-5.238486E-2,7.536029E-3,-2.5003258E-2,3.254729E-2,-5.8876373E-2,-1.4617941E-2,1.4361724E-2,6.2237557E-2,-3.2456174E-2,2.6787242E-2],"split_indices":[6,6,5,5,4,7,3,2,7,3,4,0,2,6,0,0,0,0,0,0,0,0,0,0,0,0,0],"split_type":[0,0,0,0,0,0,0,0,0,0,0,0,0,0,0,0,0,0,0,0,0,0,0,0,0,0,0],"sum_hessian":[6.136938E1,4.3651897E1,1.7717485E1,3.119363E1,1.2458267E1,9.618171E0,8.099315E0,2.7514658E1,3.6789718E0,5.4468546E0,7.011413E0,1.7297657E0,7.888405E0,6.159026E0,1.9402883E0,2.089752E1,6.617138E0,2.4897966E0,1.189175E0,3.6339793E0,1.8128752E0,5.575304E0,1.4361088E0,1.056881E0,6.831524E0,4.787635E0,1.3713912E0],"tree_param":{"num_deleted":"0","num_feature":"11","num_nodes":"27","size_leaf_vector":"0"}},{"base_weights":[1.2488687E-1,-8.2746424E-2,7.003373E-1,4.0585694E-1,-2.5740412E-1,8.446735E-1,-3.755179E-1,1.1676491E0,-2.1700874E-1,-2.8059985E-2,-7.572204E-1,-2.594285E-1,1.0377806E0,-6.859803E-1,7.5696623E-1,9.170492E-1,-1.2742245E-1,-2.8824683E-2,-1.0506495E0,1.1259284E0,1.192342E-1],"categories":[],"categories_nodes":[],"categories_segments":[],"categories_sizes":[],"default_left":[1,1,1,1,1,1,0,0,1,1,1,0,1,0,0,0,0,0,0,0,0],"id":22,"left_children":[1,3,5,7,9,11,-1,-1,13,15,17,-1,19,-1,-1,-1,-1,-1,-1,-1,-1],"loss_changes":[7.033031E0,3.8416934E0,2.7371984E0,5.9094486E0,3.7469637E0,3.264534E0,0E0,0E0,3.8999581E0,2.33044E0,2.17139E0,0E0,8.500986E-1,0E0,0E0,0E0,0E0,0E0,0E0,0E0,0E0],"parents":[2147483647,0,0,1,1,2,2,3,3,4,4,5,5,8,8,9,9,10,10,12,12],"right_children":[2,4,6,8,10,12,-1,-1,14,16,18,-1,20,-1,-1,-1,-1,-1,-1,-1,-1],"split_conditions":[1.6699356E-3,1.314606E-3,4.8931343E-3,7.865661E-1,6.4757095E1,-2.5454867E-3,-1.8775895E-2,5.838246E-2,8.783797E-1,2.7962809E1,1.36921135E-5,-1.2971425E-2,7.993575E1,-3.4299016E-2,3.7848312E-2,4.5852464E-2,-6.371123E-3,-1.4412341E-3,-5.2532475E-2,5.629642E-2,5.96171E-3],"split_indices":[6,6,2,7,5,1,0,0,9,5,2,0,5,0,0,0,0,0,0,0,0],"split_type":[0,0,0,0,0,0,0,0,0,0,0,0,0,0,0,0,0,0,0,0,0],"sum_hessian":[5.7377346E1,4.2793026E1,1.4584319E1,1.0920183E1,3.1872843E1,1.3048607E1,1.5357126E0,4.5188227E0,6.4013605E0,2.257177E1,9.301072E0,1.8913352E0,1.1157271E1,4.5204444E0,1.8809162E0,1.364422E0,2.1207348E1,2.9862845E0,6.3147874E0,9.974319E0,1.1829515E0],"tree_param":{"num_deleted":"0","num_feature":"11","num_nodes":"21","size_leaf_vector":"0"}},{"base_weights":[6.5021865E-2,3.4171584E-1,-3.106829E-1,6.442439E-1,-2.6166068E-2,9.002136E-1,-4.1453746E-1,8.247482E-1,-8.717061E-2,-6.3280314E-1,2.0864744E-1,-1.2556552E0,-2.2342223E-1,4.4989645E-1,1.0830549E0,-5.340694E-1,7.4527186E-1,2.9553494E-1,-1.1463677E0,-3.0772308E-1,5.7814217E-1,9.385619E-3,-7.60484E-1],"categories":[],"categories_nodes":[],"categories_segments":[],"categories_sizes":[],"default_left":[1,1,1,1,1,0,1,1,1,1,1,0,1,0,0,0,0,0,0,0,0,0,0],"id":23,"left_children":[1,3,5,7,9,-1,11,13,15,17,19,-1,21,-1,-1,-1,-1,-1,-1,-1,-1,-1,-1],"loss_changes":[6.2666717E0,3.8680573E0,3.5997858E0,2.5839696E0,2.4932494E0,0E0,3.6281796E0,9.9968624E-1,2.1356065E0,2.66237E0,2.6014936E0,0E0,2.6365604E0,0E0,0E0,0E0,0E0,0E0,0E0,0E0,0E0,0E0,0E0],"parents":[2147483647,0,0,1,1,2,2,3,3,4,4,6,6,7,7,8,8,9,9,10,10,12,12],"right_children":[2,4,6,8,10,-1,12,14,16,18,20,-1,22,-1,-1,-1,-1,-1,-1,-1,-1,-1,-1],"split_conditions":[2.0048442E-1,6.1550064E1,2.8334045E1,7.865661E-1,0E0,4.5010682E-2,1.3571018E-3,-3.7940952E-1,6.5769296E-4,7.0633606E1,9.7405276E-4,-6.278276E-2,1.1963581E-3,2.2494823E-2,5.4152746E-2,-2.6703471E-2,3.7263595E-2,1.4776747E-2,-5.7318386E-2,-1.5386154E-2,2.8907109E-2,4.6928096E-4,-3.80242E-2],"split_indices":[10,5,5,7,9,0,6,7,2,5,3,0,3,0,0,0,0,0,0,0,0,0,0],"split_type":[0,0,0,0,0,0,0,0,0,0,0,0,0,0,0,0,0,0,0,0,0,0,0],"sum_hessian":[5.8261147E1,3.3603653E1,2.4657495E1,1.8027496E1,1.5576156E1,1.3420297E0,2.3315466E1,1.4356803E1,3.6706927E0,3.8736706E0,1.1702486E1,3.2854996E0,2.0029966E1,6.9756026E0,7.381201E0,2.6216724E0,1.0490204E0,1.5309004E0,2.34277E0,4.9508414E0,6.751644E0,1.4658334E1,5.3716335E0],"tree_param":{"num_deleted":"0","num_feature":"11","num_nodes":"23","size_leaf_vector":"0"}},{"base_weights":[9.275293E-2,-1.972537E-1,3.4038442E-1,1.5797034E-1,-9.306085E-1,6.686227E-1,5.813144E-4,7.303417E-1,-2.8594747E-1,-1.908747E-2,-1.1241977E0,8.6842185E-1,-4.6713844E-1,6.099369E-1,-4.403566E-1,-2.5826985E-1,8.8335836E-1,2.3131467E-1,-9.0701467E-1,-3.3891663E-1,-1.1899741E0,1.1474562E0,3.3060083E-1,3.3497992E-1,-1.0165662E0,9.684082E-1,-2.9959384E-1,-6.1868936E-1,4.3264666E-1],"categories":[],"categories_nodes":[],"categories_segments":[],"categories_sizes":[],"default_left":[1,1,1,1,1,1,1,1,1,0,1,1,1,1,1,0,0,0,0,0,0,0,0,0,0,0,0,0,0],"id":24,"left_children":[1,3,5,7,9,11,13,15,17,-1,19,21,23,25,27,-1,-1,-1,-1,-1,-1,-1,-1,-1,-1,-1,-1,-1,-1],"loss_changes":[4.4917808E0,7.704522E0,3.747326E0,5.391944E0,1.6746731E0,4.283894E0,4.973436E0,1.6186123E0,4.1314607E0,0E0,5.3186417E-3,1.8542156E0,1.7538486E0,2.8236504E0,1.9397125E0,0E0,0E0,0E0,0E0,0E0,0E0,0E0,0E0,0E0,0E0,0E0,0E0,0E0,0E0],"parents":[2147483647,0,0,1,1,2,2,3,3,4,4,5,5,6,6,7,7,8,8,10,10,11,11,12,12,13,13,14,14],"right_children":[2,4,6,8,10,12,14,16,18,-1,20,22,24,26,28,-1,-1,-1,-1,-1,-1,-1,-1,-1,-1,-1,-1,-1,-1],"split_conditions":[9.797532E-4,8.929308E-4,2.0048442E-1,1.5646149E-3,-1.3207507E-3,8.005118E-3,-6.297379E-4,-9.195401E-4,7.6874567E-4,-9.5437345E-4,9.023852E-4,7.044058E-1,-1.2940952E-1,1.2610327E-3,5.065099E-3,-1.29134925E-2,4.4167917E-2,1.1565734E-2,-4.5350734E-2,-1.6945831E-2,-5.9498705E-2,5.737281E-2,1.6530043E-2,1.6748996E-2,-5.0828308E-2,4.842041E-2,-1.4979692E-2,-3.0934468E-2,2.1632334E-2],"split_indices":[3,3,10,4,2,4,2,2,3,0,3,9,8,3,4,0,0,0,0,0,0,0,0,0,0,0,0,0,0],"split_type":[0,0,0,0,0,0,0,0,0,0,0,0,0,0,0,0,0,0,0,0,0,0,0,0,0,0,0,0,0],"sum_hessian":[6.0611813E1,2.801098E1,3.260083E1,1.9399029E1,8.611953E0,1.6090387E1,1.6510445E1,8.191714E0,1.1207314E1,1.701059E0,6.910894E0,1.3883444E1,2.2069438E0,6.7705665E0,9.739878E0,1.0057704E0,7.185944E0,6.4570484E0,4.7502656E0,1.0096464E0,5.9012475E0,8.394599E0,5.4888453E0,1.0558306E0,1.151113E0,4.8100557E0,1.9605105E0,8.329648E0,1.4102294E0],"tree_param":{"num_deleted":"0","num_feature":"11","num_nodes":"29","size_leaf_vector":"0"}},{"base_weights":[5.5188537E-2,2.937448E-1,-2.7022856E-1,5.0045085E-1,-3.3764982E-1,-3.9862514E-1,7.5840104E-1,8.252177E-1,1.6342285E-1,5.924742E-1,-6.439597E-1,1.2165682E-2,-1.0942326E0,6.290734E-2,1.0439664E0,-3.5068953E-1,7.5599474E-1,2.410026E-2,-1.2014618E0,6.06405E-1,-3.5159206E-1,-3.5587987E-1,-1.2098541E0],"categories":[],"categories_nodes":[],"categories_segments":[],"categories_sizes":[],"default_left":[1,1,1,1,1,1,0,1,1,0,1,1,1,0,0,0,0,0,0,0,0,0,0],"id":25,"left_children":[1,3,5,7,9,11,-1,13,15,-1,17,19,21,-1,-1,-1,-1,-1,-1,-1,-1,-1,-1],"loss_changes":[4.6268573E0,4.6429014E0,3.6436415E0,2.73592E0,2.9604132E0,6.627593E0,0E0,2.1204662E0,4.5661116E0,0E0,2.7434974E0,3.5727386E0,3.040619E-1,0E0,0E0,0E0,0E0,0E0,0E0,0E0,0E0,0E0,0E0],"parents":[2147483647,0,0,1,1,2,2,3,3,4,4,5,5,7,7,8,8,10,10,11,11,12,12],"right_children":[2,4,6,8,10,12,-1,14,16,-1,18,20,22,-1,-1,-1,-1,-1,-1,-1,-1,-1,-1],"split_conditions":[2.0048442E-1,4.772754E-3,5.065099E-3,5.6613673E-4,-3.7940952E-1,2.0103774E-3,3.7920054E-2,-1.160173E-3,9.796945E-4,2.9623711E-2,1.2940952E-1,-2.4086339E-4,8.117449E-1,3.145367E-3,5.219832E-2,-1.7534478E-2,3.779974E-2,1.205013E-3,-6.007309E-2,3.0320251E-2,-1.7579604E-2,-1.7793994E-2,-6.0492706E-2],"split_indices":[10,4,4,1,8,4,0,2,3,0,7,2,10,0,0,0,0,0,0,0,0,0,0],"split_type":[0,0,0,0,0,0,0,0,0,0,0,0,0,0,0,0,0,0,0,0,0,0,0],"sum_hessian":[5.757867E1,3.3279507E1,2.4299162E1,2.5227812E1,8.051696E0,2.2147158E1,2.1520035E0,1.2109929E1,1.3117883E1,1.763256E0,6.28844E0,1.4541933E1,7.605224E0,2.9872692E0,9.12266E0,7.242509E0,5.8753743E0,3.2958107E0,2.9926295E0,5.268381E0,9.273552E0,1.5818143E0,6.02341E0],"tree_param":{"num_deleted":"0","num_feature":"11","num_nodes":"23","size_leaf_vector":"0"}},{"base_weights":[1.1442776E-1,3.363487E-1,-1.9022025E-1,5.074564E-1,-3.3862883E-1,1.8047087E-1,-6.571408E-1,4.780901E-3,7.638444E-1,2.3849271E-1,-8.825128E-1,1.0356169E0,-3.432197E-1,-1.1285892E0,8.021271E-1,-3.6942902E-1,4.8313534E-1,9.6484536E-1,1.630411E-1,-7.5981784E-1,7.766371E-1,-1.8619423E-1,-1.0629398E0,1.1480927E0,2.543306E-1,4.9288866E-1,-6.6699296E-1,9.560882E-1,2.7490336E-1],"categories":[],"categories_nodes":[],"categories_segments":[],"categories_sizes":[],"default_left":[1,1,1,1,1,1,1,1,1,1,1,1,1,0,1,0,0,0,0,0,0,0,0,0,0,0,0,0,0],"id":26,"left_children":[1,3,5,7,9,11,13,15,17,19,21,23,25,-1,27,-1,-1,-1,-1,-1,-1,-1,-1,-1,-1,-1,-1,-1,-1],"loss_changes":[4.048952E0,4.1520576E0,4.5287404E0,3.5912352E0,2.586379E0,7.0676055E0,8.81126E0,2.0451093E0,2.0726233E0,2.9860032E0,3.1839633E-1,2.3011923E-1,3.0484705E0,0E0,1.2392998E-2,0E0,0E0,0E0,0E0,0E0,0E0,0E0,0E0,0E0,0E0,0E0,0E0,0E0,0E0],"parents":[2147483647,0,0,1,1,2,2,3,3,4,4,5,5,6,6,7,7,8,8,9,9,10,10,11,11,12,12,14,14],"right_children":[2,4,6,8,10,12,14,16,18,20,22,24,26,-1,28,-1,-1,-1,-1,-1,-1,-1,-1,-1,-1,-1,-1,-1,-1],"split_conditions":[2.0048442E-1,5.4316805E-3,1.7641428E-3,-3.7940952E-1,1.2940952E-1,-2.8670699E-4,5.065099E-3,-1.2940952E-1,2.383861E-3,9.6737116E-4,-9.140002E-4,4.0182372E-4,9.199276E-4,-5.6429457E-2,5.643344E-3,-1.8471451E-2,2.4156768E-2,4.8242267E-2,8.152056E-3,-3.7990894E-2,3.8831856E-2,-9.309712E-3,-5.314699E-2,5.7404637E-2,1.2716531E-2,2.4644433E-2,-3.3349648E-2,4.780441E-2,1.3745168E-2],"split_indices":[10,4,4,7,7,2,4,8,2,3,2,0,3,0,4,0,0,0,0,0,0,0,0,0,0,0,0,0,0],"split_type":[0,0,0,0,0,0,0,0,0,0,0,0,0,0,0,0,0,0,0,0,0,0,0,0,0,0,0,0,0],"sum_hessian":[5.7942497E1,3.3462597E1,2.44799E1,2.68933E1,6.569299E0,1.3988127E1,1.0491773E1,9.427784E0,1.7465515E1,3.4596868E0,3.1096125E0,4.9415016E0,9.046625E0,8.101131E0,2.3906412E0,5.417477E0,4.0103073E0,1.2633129E1,4.8323865E0,1.0674816E0,2.3922052E0,1.058094E0,2.0515187E0,3.9092293E0,1.0322722E0,2.3795013E0,6.667124E0,1.2207236E0,1.1699177E0],"tree_param":{"num_deleted":"0","num_feature":"11","num_nodes":"29","size_leaf_vector":"0"}},{"base_weights":[5.0374854E-2,2.2738066E-1,-5.1777375E-1,-1.1380151E-1,5.264865E-1,-6.618012E-1,4.757944E-1,4.8653892E-1,-5.794859E-1,7.456401E-1,-1.6175898E-2,6.1771773E-2,-8.4938407E-1,7.780638E-1,-9.47018E-2,3.4760427E-1,-1.052321E0,8.519018E-2,1.0388609E0,-4.8212722E-1,5.3226477E-1,-5.8697486E-1,6.400271E-1,-1.0205735E0,3.83793E-2],"categories":[],"categories_nodes":[],"categories_segments":[],"categories_sizes":[],"default_left":[1,1,1,1,1,1,0,1,1,1,1,1,1,0,0,0,0,0,0,0,0,0,0,0,0],"id":27,"left_children":[1,3,5,7,9,11,-1,13,15,17,19,21,23,-1,-1,-1,-1,-1,-1,-1,-1,-1,-1,-1,-1],"loss_changes":[5.880369E0,4.589428E0,2.3064008E0,6.308499E0,2.8459363E0,1.7590184E0,0E0,1.7614369E0,5.8874555E0,3.2027426E0,2.2584865E0,1.6964326E0,1.5668993E0,0E0,0E0,0E0,0E0,0E0,0E0,0E0,0E0,0E0,0E0,0E0,0E0],"parents":[2147483647,0,0,1,1,2,2,3,3,4,4,5,5,7,7,8,8,9,9,10,10,11,11,12,12],"right_children":[2,4,6,8,10,12,-1,14,16,18,20,22,24,-1,-1,-1,-1,-1,-1,-1,-1,-1,-1,-1,-1],"split_conditions":[2.3111603E-3,9.797532E-4,1.2755883E-3,2.0953123E-3,1.1914617E-3,1.3798866E-3,2.378972E-2,5.789952E1,7.680943E-4,-4.5636698E-4,1.6449591E-3,1.1694755E-3,1.8625332E-3,3.8903188E-2,-4.73509E-3,1.7380213E-2,-5.261605E-2,4.259509E-3,5.1943045E-2,-2.4106361E-2,2.661324E-2,-2.9348744E-2,3.2001358E-2,-5.1028676E-2,1.918965E-3],"split_indices":[2,3,3,4,3,6,0,5,3,0,6,6,6,0,0,0,0,0,0,0,0,0,0,0,0],"split_type":[0,0,0,0,0,0,0,0,0,0,0,0,0,0,0,0,0,0,0,0,0,0,0,0,0],"sum_hessian":[5.6302277E1,4.3385406E1,1.2916868E1,2.0556581E1,2.2828823E1,1.1573142E1,1.3437263E0,8.960415E0,1.1596167E1,1.5995158E1,6.833666E0,2.5206816E0,9.052461E0,5.741903E0,3.2185125E0,4.006146E0,7.5900207E0,5.3147535E0,1.0680405E1,3.760059E0,3.0736067E0,1.1808279E0,1.3398538E0,7.4636307E0,1.58883E0],"tree_param":{"num_deleted":"0","num_feature":"11","num_nodes":"25","size_leaf_vector":"0"}},{"base_weights":[4.4386417E-2,-6.2763445E-2,7.2972775E-1,3.3489826E-1,-2.0733373E-1,9.3746746E-1,-2.760461E-1,5.861968E-1,-1.7693901E-1,4.2672035E-1,-3.6090657E-1,1.0102768E0,3.0933964E-1,-2.884545E-1,8.041019E-1,7.497342E-1,-6.013088E-1,-2.5999284E-1,9.0197754E-1,-6.5568453E-1,-7.432746E-2],"categories":[],"categories_nodes":[],"categories_segments":[],"categories_sizes":[],"default_left":[1,1,1,1,1,1,0,1,1,1,1,0,0,0,0,0,0,0,0,0,0],"id":28,"left_children":[1,3,5,7,9,11,-1,13,15,17,19,-1,-1,-1,-1,-1,-1,-1,-1,-1,-1],"loss_changes":[4.4290237E0,3.0899386E0,1.9615436E0,1.954685E0,3.9660861E0,6.7887306E-3,0E0,2.115674E0,2.6164207E0,2.8753164E0,2.6593919E0,0E0,0E0,0E0,0E0,0E0,0E0,0E0,0E0,0E0,0E0],"parents":[2147483647,0,0,1,1,2,2,3,3,4,4,5,5,7,7,8,8,9,9,10,10],"right_children":[2,4,6,8,10,12,-1,14,16,18,20,-1,-1,-1,-1,-1,-1,-1,-1,-1,-1],"split_conditions":[1.7958992E-3,4.367611E1,4.4477023E-3,8.117449E-1,1.314606E-3,1.3008612E-3,-1.3802305E-2,1.2974236E-3,2.889555E1,5.9118805E1,9.79108E-4,5.051384E-2,1.54669825E-2,-1.4422725E-2,4.0205095E-2,3.7486713E-2,-3.0065442E-2,-1.2999642E-2,4.509888E-2,-3.2784227E-2,-3.7163731E-3],"split_indices":[6,5,2,10,6,3,0,6,5,5,3,0,0,0,0,0,0,0,0,0,0],"split_type":[0,0,0,0,0,0,0,0,0,0,0,0,0,0,0,0,0,0,0,0,0],"sum_hessian":[5.868911E1,5.1539562E1,7.149545E0,1.3390508E1,3.8149055E1,5.9819126E0,1.1676326E0,8.883611E0,4.5068965E0,7.0915694E0,3.1057486E1,4.8153486E0,1.166564E0,1.707221E0,7.1763897E0,1.1748154E0,3.332081E0,3.085779E0,4.00579E0,1.4674838E1,1.6382647E1],"tree_param":{"num_deleted":"0","num_feature":"11","num_nodes":"21","size_leaf_vector":"0"}},{"base_weights":[1.0319528E-1,-6.1023954E-2,6.049408E-1,1.8406047E-1,-4.1052866E-1,1.0097754E0,2.2630039E-1,3.828325E-1,-4.7306022E-1,3.4750733E-1,-7.76152E-1,2.6044795E-1,1.0975155E0,-3.2573867E-1,5.992736E-1,1.0264213E0,1.3541266E-1,-1.064111E0,2.5048617E-1,-7.163266E-1,8.535088E-1,-1.0803431E0,1.697147E-1,-7.207914E-1,3.7314928E-1,9.3309194E-1,1.8943687E-3],"categories":[],"categories_nodes":[],"categories_segments":[],"categories_sizes":[],"default_left":[1,1,1,1,1,1,1,1,1,1,1,0,0,1,1,0,0,0,0,0,0,0,0,0,0,0,0],"id":29,"left_children":[1,3,5,7,9,11,13,15,17,19,21,-1,-1,23,25,-1,-1,-1,-1,-1,-1,-1,-1,-1,-1,-1,-1],"loss_changes":[4.8432894E0,3.9179027E0,1.9904256E0,3.71529E0,5.479994E0,1.5511608E-1,2.0006442E0,3.2569644E0,3.1451306E0,4.2759876E0,3.9212875E0,0E0,0E0,1.4240093E0,1.1120164E0,0E0,0E0,0E0,0E0,0E0,0E0,0E0,0E0,0E0,0E0,0E0,0E0],"parents":[2147483647,0,0,1,1,2,2,3,3,4,4,5,5,6,6,7,7,8,8,9,9,10,10,13,13,14,14],"right_children":[2,4,6,8,10,12,14,16,18,20,22,-1,-1,24,26,-1,-1,-1,-1,-1,-1,-1,-1,-1,-1,-1,-1],"split_conditions":[1.6699356E-3,2.6987996E-3,4.9567505E1,7.0633606E1,-6.964189E-4,-1.2563315E-3,2.7055172E-3,7.7909324E-4,3.7940952E-1,-3.7940952E-1,1.1102784E-3,1.3022398E-2,5.4875772E-2,2.5675056E-4,4.8108697E-3,5.1321067E-2,6.770633E-3,-5.320555E-2,1.2524309E-2,-3.581633E-2,4.267544E-2,-5.4017156E-2,8.485735E-3,-3.6039572E-2,1.8657465E-2,4.6654597E-2,9.471844E-5],"split_indices":[6,4,5,5,1,0,4,3,7,7,3,0,0,0,4,0,0,0,0,0,0,0,0,0,0,0,0],"split_type":[0,0,0,0,0,0,0,0,0,0,0,0,0,0,0,0,0,0,0,0,0,0,0,0,0,0,0],"sum_hessian":[5.7332424E1,4.3856686E1,1.3475737E1,2.6057594E1,1.7799093E1,5.7070403E0,7.768697E0,2.0326466E1,5.73113E0,5.807703E0,1.1991389E1,1.0141646E0,4.6928754E0,3.1834717E0,4.585225E0,4.7700644E0,1.55564E1,2.8953156E0,2.8358145E0,1.7380044E0,4.069699E0,8.965809E0,3.0255804E0,2.013808E0,1.1696635E0,2.5809836E0,2.0042415E0],"tree_param":{"num_deleted":"0","num_feature":"11","num_nodes":"27","size_leaf_vector":"0"}},{"base_weights":[5.0082386E-2,-2.4762933E-1,2.8769428E-1,5.711536E-2,-8.9758575E-1,5.4510003E-1,-8.7997E-2,5.843667E-1,-3.0684906E-1,-1.2882061E-1,-1.0326741E0,7.662533E-1,-4.9140167E-1,1.3702565E-1,-7.1289194E-1,-1.5311897E-1,7.332316E-1,2.622509E-1,-9.5762163E-1,2.539751E-2,9.263892E-1,-9.8745304E-1,3.9644894E-1,-5.0376713E-1,2.9679063E-1,9.47451E-2,-1.1012397E0],"categories":[],"categories_nodes":[],"categories_segments":[],"categories_sizes":[],"default_left":[1,1,1,1,1,1,1,1,1,0,0,1,1,1,1,0,0,0,0,0,0,0,0,0,0,0,0],"id":30,"left_children":[1,3,5,7,9,11,13,15,17,-1,-1,19,21,23,25,-1,-1,-1,-1,-1,-1,-1,-1,-1,-1,-1,-1],"loss_changes":[4.1172757E0,5.186203E0,3.1687565E0,3.7466776E0,7.325821E-1,4.798146E0,2.0637555E0,9.8354673E-1,4.567064E0,0E0,0E0,1.9088535E0,2.1536882E0,1.2878194E0,1.3159573E0,0E0,0E0,0E0,0E0,0E0,0E0,0E0,0E0,0E0,0E0,0E0,0E0],"parents":[2147483647,0,0,1,1,2,2,3,3,4,4,5,5,6,6,7,7,8,8,11,11,12,12,13,13,14,14],"right_children":[2,4,6,8,10,12,14,16,18,-1,-1,20,22,24,26,-1,-1,-1,-1,-1,-1,-1,-1,-1,-1,-1,-1],"split_conditions":[9.797532E-4,8.929308E-4,6.078576E-1,1.5646149E-3,-1.3207507E-3,4.060843E-3,7.865661E-1,-7.152718E-4,7.6874567E-4,-6.4410307E-3,-5.1633704E-2,-2.1694186E-1,1.2905612E-3,-1.7035052E-3,-8.7642035E-4,-7.6559484E-3,3.666158E-2,1.3112545E-2,-4.788108E-2,1.2698754E-3,4.6319462E-2,-4.9372654E-2,1.9822447E-2,-2.5188357E-2,1.4839532E-2,4.737255E-3,-5.5061985E-2],"split_indices":[3,3,9,4,2,2,7,2,3,0,0,9,3,1,2,0,0,0,0,0,0,0,0,0,0,0,0],"split_type":[0,0,0,0,0,0,0,0,0,0,0,0,0,0,0,0,0,0,0,0,0,0,0,0,0,0,0],"sum_hessian":[5.6195965E1,2.4924759E1,3.1271206E1,1.758964E1,7.33512E0,1.8289316E1,1.2981892E1,6.9361434E0,1.0653496E1,1.3882762E0,5.946844E0,1.5288099E1,3.001216E0,1.0118849E1,2.8630426E0,1.1601437E0,5.776E0,6.001877E0,4.651619E0,2.92312E0,1.236498E1,1.8534758E0,1.1477401E0,1.589686E0,8.529162E0,1.1751477E0,1.6878949E0],"tree_param":{"num_deleted":"0","num_feature":"11","num_nodes":"27","size_leaf_vector":"0"}},{"base_weights":[1.0959936E-1,-1.8158367E-1,3.0912367E-1,9.232926E-2,-8.2285786E-1,1.4184642E-1,7.912092E-1,6.9445914E-1,-1.6718516E-1,-1.1316444E0,-5.894982E-2,4.1249046E-1,-1.5131646E-1,9.0915483E-1,2.2133356E-2,8.441449E-1,1.1692257E-1,-1.0216334E0,2.6219624E-1,-4.3915713E-1,3.4390596E-1,1.1607067E-1,8.2227427E-1,-6.5205795E-1,2.9702896E-1,3.45148E-1,1.0701141E0],"categories":[],"categories_nodes":[],"categories_segments":[],"categories_sizes":[],"default_left":[1,1,1,1,1,1,1,1,1,0,1,1,1,1,0,0,0,0,0,0,0,0,0,0,0,0,0],"id":31,"left_children":[1,3,5,7,9,11,13,15,17,-1,19,21,23,25,-1,-1,-1,-1,-1,-1,-1,-1,-1,-1,-1,-1,-1],"loss_changes":[3.258405E0,4.123271E0,2.555163E0,2.7794669E0,1.5837998E0,2.1074557E0,7.329688E-1,3.618586E-1,4.9334507E0,0E0,6.211262E-1,1.5650845E0,3.1356523E0,2.8186655E-1,0E0,0E0,0E0,0E0,0E0,0E0,0E0,0E0,0E0,0E0,0E0,0E0,0E0],"parents":[2147483647,0,0,1,1,2,2,3,3,4,4,5,5,6,6,7,7,8,8,10,10,11,11,12,12,13,13],"right_children":[2,4,6,8,10,12,14,16,18,-1,20,22,24,26,-1,-1,-1,-1,-1,-1,-1,-1,-1,-1,-1,-1,-1],"split_conditions":[2.1694186E-1,1.9798037E-3,1.7171742E-3,7.688661E-4,7.452227E-4,1.0084696E-4,4.759866E-3,2.703822E-4,9.882292E-4,-5.658222E-2,3.7940952E-1,1.075871E-3,1.0812694E-3,1.7939692E-3,1.1066678E-3,4.2207245E-2,5.846129E-3,-5.108167E-2,1.31098125E-2,-2.1957858E-2,1.7195297E-2,5.803534E-3,4.1113716E-2,-3.26029E-2,1.4851448E-2,1.72574E-2,5.3505708E-2],"split_indices":[9,2,6,3,0,0,2,1,3,0,7,3,2,6,0,0,0,0,0,0,0,0,0,0,0,0,0],"split_type":[0,0,0,0,0,0,0,0,0,0,0,0,0,0,0,0,0,0,0,0,0,0,0,0,0,0,0],"sum_hessian":[5.4118393E1,2.2041397E1,3.2076996E1,1.6044287E1,5.997111E0,2.477473E1,7.302265E0,4.3275156E0,1.171677E1,3.9279633E0,2.0691478E0,1.2670479E1,1.2104252E1,6.1733756E0,1.1288896E0,3.0701616E0,1.2573539E0,3.457399E0,8.259372E0,1.0181388E0,1.0510092E0,8.096831E0,4.5736475E0,5.503367E0,6.6008854E0,2.0687442E0,4.1046314E0],"tree_param":{"num_deleted":"0","num_feature":"11","num_nodes":"27","size_leaf_vector":"0"}},{"base_weights":[1.2519231E-1,1.1321477E-2,8.8400406E-1,-2.7679905E-1,2.1713437E-1,1.0191756E0,1.0400244E-1,8.681705E-1,-5.1931256E-1,7.625993E-1,6.71588E-3,4.9880826E-1,-7.69128E-1,-8.0903836E-2,9.0920275E-1,2.615563E-1,-3.564228E-1],"categories":[],"categories_nodes":[],"categories_segments":[],"categories_sizes":[],"default_left":[1,1,1,1,1,0,0,0,1,1,1,0,0,0,0,0,0],"id":32,"left_children":[1,3,5,7,9,-1,-1,-1,11,13,15,-1,-1,-1,-1,-1,-1],"loss_changes":[4.826617E0,3.0063303E0,6.6271067E-1,6.3214035E0,3.385611E0,0E0,0E0,0E0,4.9802494E0,1.0894165E0,2.1594462E0,0E0,0E0,0E0,0E0,0E0,0E0],"parents":[2147483647,0,0,1,1,2,2,3,3,4,4,8,8,9,9,10,10],"right_children":[2,4,6,8,10,-1,-1,-1,12,14,16,-1,-1,-1,-1,-1,-1],"split_conditions":[1.7939692E-3,-1.2940952E-1,1.2940952E-1,-1.056556E-3,-6.964189E-4,5.0958782E-2,5.200122E-3,4.3408524E-2,7.734725E-4,-2.0746703E-4,2.0048442E-1,2.4940414E-2,-3.8456403E-2,-4.0451917E-3,4.546014E-2,1.3077815E-2,-1.782114E-2],"split_indices":[6,7,7,4,1,0,0,0,3,4,10,0,0,0,0,0,0],"split_type":[0,0,0,0,0,0,0,0,0,0,0,0,0,0,0,0,0],"sum_hessian":[5.4975224E1,4.868434E1,6.2908797E0,2.0142147E1,2.8542196E1,5.1003704E0,1.1905093E0,3.0696485E0,1.7072498E1,7.2149024E0,2.1327293E1,3.1673374E0,1.3905161E1,1.134655E0,6.0802474E0,1.2696785E1,8.630508E0],"tree_param":{"num_deleted":"0","num_feature":"11","num_nodes":"17","size_leaf_vector":"0"}},{"base_weights":[4.7524363E-2,4.0488407E-1,-1.4458875E-1,6.534191E-1,-1.9344562E-1,-2.3229712E-1,7.3752743E-1,1.1086881E0,-1.5950987E-1,9.411567E-1,-9.925381E-1,-6.151094E-1,3.526258E-2,-4.5048282E-1,6.248657E-1,4.6520114E-1,-7.589837E-1,1.5672778E-1,-9.2120093E-1],"categories":[],"categories_nodes":[],"categories_segments":[],"categories_sizes":[],"default_left":[1,1,1,1,1,1,0,0,1,0,0,1,1,0,0,0,0,0,0],"id":33,"left_children":[1,3,5,7,9,11,-1,-1,13,-1,-1,15,17,-1,-1,-1,-1,-1,-1],"loss_changes":[3.8955777E0,3.0713754E0,3.0406215E0,5.4398475E0,6.9031615E0,3.5545788E0,0E0,0E0,1.6461363E0,0E0,0E0,2.5670438E0,2.6129286E0,0E0,0E0,0E0,0E0,0E0,0E0],"parents":[2147483647,0,0,1,1,2,2,3,3,4,4,5,5,8,8,11,11,12,12],"right_children":[2,4,6,8,10,12,-1,-1,14,-1,-1,16,18,-1,-1,-1,-1,-1,-1],"split_conditions":[4.821692E1,8.117449E-1,1.9333014E-3,1.0723593E-4,1.7641428E-3,-1.2940952E-1,3.6876373E-2,5.5434406E-2,1.7384968E-3,4.7057834E-2,-4.9626905E-2,-8.379134E-4,7.387464E-3,-2.252414E-2,3.1243285E-2,2.3260057E-2,-3.7949186E-2,7.836389E-3,-4.6060048E-2],"split_indices":[5,10,6,0,4,7,0,0,6,0,0,4,4,0,0,0,0,0,0],"split_type":[0,0,0,0,0,0,0,0,0,0,0,0,0,0,0,0,0,0,0],"sum_hessian":[5.4889896E1,1.880402E1,3.6085876E1,1.32204275E1,5.5835915E0,3.34924E1,2.5934734E0,8.241228E0,4.9791994E0,2.2339315E0,3.34966E0,1.3244218E1,2.0248184E1,3.9424012E0,1.0367985E0,1.2940662E0,1.1950151E1,1.870846E1,1.5397251E0],"tree_param":{"num_deleted":"0","num_feature":"11","num_nodes":"19","size_leaf_vector":"0"}},{"base_weights":[6.268824E-2,3.463045E-1,-1.0953957E-1,5.737467E-1,-5.878899E-1,-3.8067964E-1,9.8226316E-2,1.0859905E0,3.4462065E-1,2.4589162E-2,-9.92554E-1,-5.9783435E-1,3.818746E-1,2.1426888E-1,-7.289124E-1,-2.421291E-1,7.7046704E-1,2.958098E-1,-8.581419E-1,-3.376985E-1,8.4367716E-1,-1.017947E-1,5.221864E-1],"categories":[],"categories_nodes":[],"categories_segments":[],"categories_sizes":[],"default_left":[1,1,1,1,1,1,1,0,1,0,0,1,1,1,0,0,0,0,0,0,0,0,0],"id":34,"left_children":[1,3,5,7,9,11,13,-1,15,-1,-1,17,19,21,-1,-1,-1,-1,-1,-1,-1,-1,-1],"loss_changes":[2.6782196E0,4.727577E0,1.9747094E0,1.6354461E0,1.1495199E0,2.7328298E0,2.1013184E0,0E0,3.5087261E0,0E0,0E0,3.0830107E0,1.6016963E0,1.8579702E0,0E0,0E0,0E0,0E0,0E0,0E0,0E0,0E0,0E0],"parents":[2147483647,0,0,1,1,2,2,3,3,4,4,5,5,6,6,8,8,11,11,12,12,13,13],"right_children":[2,4,6,8,10,12,14,-1,16,-1,-1,18,20,22,-1,-1,-1,-1,-1,-1,-1,-1,-1],"split_conditions":[4.885759E1,7.865661E-1,-1.2940952E-1,8.5942826E-4,3.8879723E1,1.8625332E-3,7.387464E-3,5.429953E-2,1.5805492E-3,1.2294581E-3,-4.9627703E-2,-3.4811313E-4,-9.159756E-1,9.797532E-4,-3.644562E-2,-1.2106455E-2,3.8523354E-2,1.479049E-2,-4.2907096E-2,-1.6884925E-2,4.2183857E-2,-5.089735E-3,2.6109321E-2],"split_indices":[5,7,7,3,5,6,4,0,6,0,0,4,7,3,0,0,0,0,0,0,0,0,0],"split_type":[0,0,0,0,0,0,0,0,0,0,0,0,0,0,0,0,0,0,0,0,0,0,0],"sum_hessian":[5.305258E1,1.9662542E1,3.339004E1,1.6123016E1,3.539526E0,1.412469E1,1.9265352E1,3.827155E0,1.229586E1,1.7818477E0,1.7576784E0,1.1162051E1,2.9626386E0,1.7544865E1,1.7204868E0,5.3524446E0,6.9434156E0,2.4871607E0,8.6748905E0,1.2631531E0,1.6994855E0,8.988244E0,8.556621E0],"tree_param":{"num_deleted":"0","num_feature":"11","num_nodes":"23","size_leaf_vector":"0"}},{"base_weights":[5.202093E-2,1.903663E-1,-4.07185E-1,4.8693463E-1,-6.398696E-2,4.7697863E-1,-6.605041E-1,6.654673E-1,-2.2911018E-1,2.8271106E-1,-6.7000633E-1,7.9700276E-2,6.38725E-1,-8.972289E-1,4.5955572E-1,7.591044E-1,-2.8708243E-1,-1.0128875E0,8.6981136E-1,-9.529986E-2,7.9179955E-1,-1.0188773E0,8.8153416E-1,-1.00673884E-1,-1.0149661E0],"categories":[],"categories_nodes":[],"categories_segments":[],"categories_sizes":[],"default_left":[1,1,1,1,1,1,1,1,1,1,1,0,0,1,0,0,0,0,0,0,0,0,0,0,0],"id":35,"left_children":[1,3,5,7,9,11,13,15,17,19,21,-1,-1,23,-1,-1,-1,-1,-1,-1,-1,-1,-1,-1,-1],"loss_changes":[3.5215578E0,3.225172E0,3.197566E0,2.6663938E0,5.1641526E0,1.7057866E-1,3.1759443E0,1.6447229E0,4.902032E0,3.1091523E0,5.7226763E0,0E0,0E0,7.365465E-1,0E0,0E0,0E0,0E0,0E0,0E0,0E0,0E0,0E0,0E0,0E0],"parents":[2147483647,0,0,1,1,2,2,3,3,4,4,5,5,6,6,7,7,8,8,9,9,10,10,13,13],"right_children":[2,4,6,8,10,12,14,16,18,20,22,-1,-1,24,-1,-1,-1,-1,-1,-1,-1,-1,-1,-1,-1],"split_conditions":[2.3111603E-3,2.0953123E-3,1.3852983E-3,7.865661E-1,2.0048442E-1,1.2104977E-3,1.9437529E-3,6.8173004E1,2.9096563E-4,1.0432687E-3,5.1175756E-3,3.985014E-3,3.193625E-2,5.3145172E1,2.2977786E-2,3.795522E-2,-1.4354122E-2,-5.0644375E-2,4.349057E-2,-4.764993E-3,3.958998E-2,-5.0943863E-2,4.4076707E-2,-5.033694E-3,-5.0748307E-2],"split_indices":[2,4,6,7,10,6,6,5,4,3,4,0,0,5,0,0,0,0,0,0,0,0,0,0,0],"split_type":[0,0,0,0,0,0,0,0,0,0,0,0,0,0,0,0,0,0,0,0,0,0,0,0,0],"sum_hessian":[5.3212135E1,4.134234E1,1.1869798E1,1.8665047E1,2.2677292E1,2.446795E0,9.423003E0,1.4996562E1,3.6684842E0,1.476428E1,7.913011E0,1.1398543E0,1.3069408E0,7.94316E0,1.4798428E0,1.3839227E1,1.1573352E0,2.1869724E0,1.4815118E0,8.939375E0,5.824906E0,6.7406564E0,1.1723549E0,1.2617594E0,6.681401E0],"tree_param":{"num_deleted":"0","num_feature":"11","num_nodes":"25","size_leaf_vector":"0"}},{"base_weights":[4.665473E-2,-4.5169406E-2,6.893559E-1,9.012489E-2,-4.9111927E-1,9.272344E-1,-2.6849115E-1,-1.8649453E-1,3.626773E-1,2.749727E-1,-8.248897E-1,-4.6408343E-1,7.094649E-1,9.315316E-1,7.214823E-2,-6.059227E-1,8.257484E-1,-1.027908E0,-9.368775E-3],"categories":[],"categories_nodes":[],"categories_segments":[],"categories_sizes":[],"default_left":[1,1,1,1,1,0,0,1,1,1,1,0,0,0,0,0,0,0,0],"id":36,"left_children":[1,3,5,7,9,-1,-1,11,13,15,17,-1,-1,-1,-1,-1,-1,-1,-1],"loss_changes":[3.1625016E0,2.9020298E0,1.7743297E0,2.8711574E0,3.0855732E0,0E0,0E0,5.0834E0,3.0844533E0,2.5103185E0,1.3210816E0,0E0,0E0,0E0,0E0,0E0,0E0,0E0,0E0],"parents":[2147483647,0,0,1,1,2,2,3,3,4,4,7,7,8,8,9,9,10,10],"right_children":[2,4,6,8,10,-1,-1,12,14,16,18,-1,-1,-1,-1,-1,-1,-1,-1],"split_conditions":[1.7958992E-3,2.3111603E-3,4.3087117E-3,1.2940952E-1,1.3852983E-3,4.6361722E-2,-1.3424558E-2,1.0812694E-3,-3.7733396E-4,1.1694755E-3,1.1583226E-3,-2.3204172E-2,3.5473246E-2,4.6576582E-2,3.6074116E-3,-3.0296136E-2,4.128742E-2,-5.1395398E-2,-4.6843878E-4],"split_indices":[6,2,2,8,6,0,0,2,0,6,3,0,0,0,0,0,0,0,0],"split_type":[0,0,0,0,0,0,0,0,0,0,0,0,0,0,0,0,0,0,0],"sum_hessian":[5.2060036E1,4.6365425E1,5.694611E0,3.6185276E1,1.018015E1,4.5873227E0,1.1072884E0,1.8115355E1,1.8069921E1,3.1427848E0,7.037365E0,1.4198391E1,3.9169626E0,5.3629556E0,1.2706965E1,1.1705359E0,1.9722489E0,5.426135E0,1.6112299E0],"tree_param":{"num_deleted":"0","num_feature":"11","num_nodes":"19","size_leaf_vector":"0"}},{"base_weights":[2.9863015E-2,3.3470947E-1,-1.4781912E-1,4.9125102E-1,-2.977337E-1,1.2502822E-1,-3.4851792E-1,8.848064E-1,1.5716048E-1,6.083671E-1,-8.7980133E-1,4.495703E-1,-5.623398E-1,3.6515763E-1,-5.6559646E-1,-7.082288E-2,1.0900668E0,6.7736846E-1,-7.8787905E-1,-9.8067805E-2,9.837718E-1,-8.0287457E-1,-1.9016014E-1,6.959029E-1,-2.4663398E-1,-7.492558E-1,5.834597E-1],"categories":[],"categories_nodes":[],"categories_segments":[],"categories_sizes":[],"default_left":[1,1,1,1,1,1,1,1,1,0,0,1,1,1,1,0,0,0,0,0,0,0,0,0,0,0,0],"id":37,"left_children":[1,3,5,7,9,11,13,15,17,-1,-1,19,21,23,25,-1,-1,-1,-1,-1,-1,-1,-1,-1,-1,-1,-1],"loss_changes":[3.0135446E0,2.1715558E0,1.9747133E0,2.0666142E0,3.004289E0,3.7511933E0,3.3953588E0,1.5456443E0,5.5919833E0,0E0,0E0,3.375451E0,3.3736134E-1,1.2659817E0,3.850637E0,0E0,0E0,0E0,0E0,0E0,0E0,0E0,0E0,0E0,0E0,0E0,0E0],"parents":[2147483647,0,0,1,1,2,2,3,3,4,4,5,5,6,6,7,7,8,8,11,11,12,12,13,13,14,14],"right_children":[2,4,6,8,10,12,14,16,18,-1,-1,20,22,24,26,-1,-1,-1,-1,-1,-1,-1,-1,-1,-1,-1,-1],"split_conditions":[4.885759E1,7.865661E-1,-5.6174487E-1,2.0048442E-1,-1.6129654E-3,4.864921E-3,-8.194513E-4,-7.865661E-1,1.6427145E-3,3.0418355E-2,-4.399007E-2,9.796945E-4,6.2902207E-3,7.865661E-1,5.065099E-3,-3.541144E-3,5.450334E-2,3.3868425E-2,-3.9393954E-2,-4.9033905E-3,4.918859E-2,-4.014373E-2,-9.508007E-3,3.4795146E-2,-1.2331699E-2,-3.746279E-2,2.9172985E-2],"split_indices":[5,7,10,10,2,4,4,7,4,0,0,3,4,7,4,0,0,0,0,0,0,0,0,0,0,0,0],"split_type":[0,0,0,0,0,0,0,0,0,0,0,0,0,0,0,0,0,0,0,0,0,0,0,0,0,0,0],"sum_hessian":[5.3722168E1,1.9456758E1,3.426541E1,1.5775319E1,3.681439E0,1.4682197E1,1.9583214E1,6.486217E0,9.289102E0,1.4222496E0,2.2591894E0,1.0208288E1,4.4739084E0,4.4082713E0,1.5174942E1,1.2626529E0,5.223564E0,6.1738644E0,3.1152375E0,5.4438906E0,4.7643976E0,2.014646E0,2.4592621E0,2.7721272E0,1.6361439E0,1.33836975E1,1.7912444E0],"tree_param":{"num_deleted":"0","num_feature":"11","num_nodes":"27","size_leaf_vector":"0"}},{"base_weights":[4.8128653E-2,1.8052459E-1,-3.6425683E-1,4.549839E-2,8.344726E-1,-5.386754E-1,5.2129585E-1,1.5366706E-1,-8.076026E-1,1.708039E-1,1.0663542E0,-8.230134E-1,1.5281501E-2,5.32614E-1,-8.2833275E-2,1.11518145E-1,-1.2618581E0,-1.00428365E-1,-9.477632E-1,5.8948255E-1,-4.335647E-1],"categories":[],"categories_nodes":[],"categories_segments":[],"categories_sizes":[],"default_left":[1,1,1,1,1,1,0,1,1,0,0,1,1,0,0,0,0,0,0,0,0],"id":38,"left_children":[1,3,5,7,9,11,-1,13,15,-1,-1,17,19,-1,-1,-1,-1,-1,-1,-1,-1],"loss_changes":[2.9146929E0,3.5088353E0,2.2906747E0,3.2939632E0,8.668976E-1,1.8023844E0,0E0,2.851557E0,1.8213289E0,0E0,0E0,5.833287E-1,1.5019423E0,0E0,0E0,0E0,0E0,0E0,0E0,0E0,0E0],"parents":[2147483647,0,0,1,1,2,2,3,3,4,4,5,5,7,7,8,8,11,11,12,12],"right_children":[2,4,6,8,10,12,-1,14,16,-1,-1,18,20,-1,-1,-1,-1,-1,-1,-1,-1],"split_conditions":[2.3207057E-3,1.1987037E-3,1.9437529E-3,5.570892E-4,8.380739E-4,7.5203826E-4,2.6064793E-2,1.8457283E-3,2.0048442E-1,8.540195E-3,5.3317707E-2,5.5601463E1,1.386358E-3,2.66307E-2,-4.1416637E-3,5.5759074E-3,-6.309291E-2,-5.0214184E-3,-4.7388162E-2,2.9474128E-2,-2.1678235E-2],"split_indices":[2,2,6,2,3,0,0,4,10,0,0,5,6,0,0,0,0,0,0,0,0],"split_type":[0,0,0,0,0,0,0,0,0,0,0,0,0,0,0,0,0,0,0,0,0],"sum_hessian":[5.118006E1,3.916759E1,1.2012472E1,3.3350918E1,5.8166723E0,1.0363068E1,1.6494042E0,3.0325657E1,3.02526E0,1.955741E0,3.8609312E0,6.527102E0,3.8359659E0,1.1172224E1,1.9153433E1,1.2501879E0,1.775072E0,1.2267083E0,5.3003936E0,1.5455027E0,2.2904632E0],"tree_param":{"num_deleted":"0","num_feature":"11","num_nodes":"21","size_leaf_vector":"0"}},{"base_weights":[9.076269E-2,-1.6968431E-2,6.105385E-1,1.7691593E-1,-3.2993394E-1,-1.3763241E-1,8.8283503E-1,2.898251E-1,-4.540221E-1,-8.113627E-1,6.294335E-2,6.5846604E-1,-8.5193723E-1,1.0977793E-1,8.337256E-1,-8.807506E-1,1.48237E-1,7.340165E-2,-1.0441464E0,-7.4226534E-1,4.5469913E-1],"categories":[],"categories_nodes":[],"categories_segments":[],"categories_sizes":[],"default_left":[1,1,1,1,1,1,0,1,1,1,1,0,0,0,0,0,0,0,0,0,0],"id":39,"left_children":[1,3,5,7,9,11,-1,13,15,17,19,-1,-1,-1,-1,-1,-1,-1,-1,-1,-1],"loss_changes":[2.9380805E0,2.7453113E0,1.9556978E0,2.1257937E0,3.320933E0,2.4190717E0,0E0,2.293461E0,1.3227255E0,1.6914492E0,3.6330888E0,0E0,0E0,0E0,0E0,0E0,0E0,0E0,0E0,0E0,0E0],"parents":[2147483647,0,0,1,1,2,2,3,3,4,4,5,5,7,7,8,8,9,9,10,10],"right_children":[2,4,6,8,10,12,-1,14,16,18,20,-1,-1,-1,-1,-1,-1,-1,-1,-1,-1],"split_conditions":[1.7384968E-3,1.5322008E-3,2.1694186E-1,7.0987564E1,9.924753E-4,5.6903705E-4,4.414175E-2,1.2077274E-3,7.865661E-1,-8.194513E-4,1.5754219E-3,3.2923304E-2,-4.259686E-2,5.4888963E-3,4.1686278E-2,-4.4037532E-2,7.41185E-3,3.6700827E-3,-5.220732E-2,-3.7113268E-2,2.2734957E-2],"split_indices":[6,6,9,5,3,2,0,2,7,4,6,0,0,0,0,0,0,0,0,0,0],"split_type":[0,0,0,0,0,0,0,0,0,0,0,0,0,0,0,0,0,0,0,0,0],"sum_hessian":[5.128444E1,4.3281143E1,8.003295E0,2.6993307E1,1.6287836E1,2.2675233E0,5.735771E0,2.3354551E1,3.638757E0,6.840437E0,9.447399E0,1.1093339E0,1.1581894E0,1.8449165E1,4.9053864E0,1.8590925E0,1.7796645E0,1.5674716E0,5.2729654E0,2.7992175E0,6.648182E0],"tree_param":{"num_deleted":"0","num_feature":"11","num_nodes":"21","size_leaf_vector":"0"}},{"base_weights":[7.555282E-2,6.916089E-1,-1.8404229E-2,8.7166137E-1,-1.3051604E-1,-3.355393E-1,1.8220751E-1,1.4051639E-1,1.0457029E0,4.244585E-1,-5.3966653E-1,3.9486527E-1,-2.8950542E-1,-2.2700702E-1,8.706839E-1,-9.5884407E-1,4.0503093E-3,1.6231507E-1,9.718602E-1,-6.641118E-1,3.389605E-1],"categories":[],"categories_nodes":[],"categories_segments":[],"categories_sizes":[],"default_left":[1,1,1,1,0,1,1,0,0,1,1,1,1,0,0,0,0,0,0,0,0],"id":40,"left_children":[1,3,5,7,-1,9,11,-1,-1,13,15,17,19,-1,-1,-1,-1,-1,-1,-1,-1],"loss_changes":[3.0067246E0,1.1308172E0,2.9784381E0,5.868597E-1,0E0,3.0400016E0,2.9968429E0,0E0,0E0,1.4755654E0,3.3594966E0,2.5566125E0,2.463081E0,0E0,0E0,0E0,0E0,0E0,0E0,0E0,0E0],"parents":[2147483647,0,0,1,1,2,2,3,3,5,5,6,6,9,9,10,10,11,11,12,12],"right_children":[2,4,6,8,-1,10,12,-1,-1,14,16,18,20,-1,-1,-1,-1,-1,-1,-1,-1],"split_conditions":[-9.159756E-1,1.8626943E-3,-1.2940952E-1,-1.35692E-3,-6.525802E-3,4.3271523E1,6.7076965E1,7.0258193E-3,5.2285146E-2,1.011014E-3,1.1379397E-3,1.6306812E-3,7.460445E1,-1.1350351E-2,4.3534197E-2,-4.7942203E-2,2.0251547E-4,8.1157535E-3,4.859301E-2,-3.320559E-2,1.6948026E-2],"split_indices":[8,2,8,1,0,5,5,0,0,3,2,6,5,0,0,0,0,0,0,0,0],"split_type":[0,0,0,0,0,0,0,0,0,0,0,0,0,0,0,0,0,0,0,0,0],"sum_hessian":[5.0725132E1,5.8707814E0,4.485435E1,4.7666006E0,1.1041807E0,1.7119143E1,2.7735209E1,1.2639875E0,3.502613E0,3.3959825E0,1.372316E1,1.9229204E1,8.506003E0,1.580219E0,1.8157635E0,7.317922E0,6.405238E0,1.4618658E1,4.6105466E0,5.2938232E0,3.2121804E0],"tree_param":{"num_deleted":"0","num_feature":"11","num_nodes":"21","size_leaf_vector":"0"}},{"base_weights":[3.963913E-2,3.4487072E-1,-1.313013E-1,6.905978E-1,2.3889993E-3,7.6062095E-1,-1.8562692E-1,9.833005E-1,-7.63666E-2,-4.814131E-1,3.56961E-1,2.4558596E-2,-6.013232E-1,1.1998574E-1,1.115305E0,6.463447E-1,-6.4541733E-1,-9.6125174E-1,6.441455E-1,6.750453E-1,-5.008724E-1,4.6631372E-1,-1.7605607E-1,-9.524467E-1,6.790284E-1],"categories":[],"categories_nodes":[],"categories_segments":[],"categories_sizes":[],"default_left":[1,1,1,1,1,0,1,1,1,1,1,1,1,0,0,0,0,0,0,0,0,0,0,0,0],"id":41,"left_children":[1,3,5,7,9,-1,11,13,15,17,19,21,23,-1,-1,-1,-1,-1,-1,-1,-1,-1,-1,-1,-1],"loss_changes":[2.8224962E0,2.2934906E0,1.829512E0,2.239809E0,2.0143967E0,0E0,2.9546185E0,6.697507E-1,1.8941829E0,3.3025928E0,2.1861026E0,2.1477408E0,5.7441735E0,0E0,0E0,0E0,0E0,0E0,0E0,0E0,0E0,0E0,0E0,0E0,0E0],"parents":[2147483647,0,0,1,1,2,2,3,3,4,4,6,6,7,7,8,8,9,9,10,10,11,11,12,12],"right_children":[2,4,6,8,10,-1,12,14,16,18,20,22,24,-1,-1,-1,-1,-1,-1,-1,-1,-1,-1,-1,-1],"split_conditions":[4.846205E1,-4.525367E-4,-1.5285704E-3,8.117449E-1,9.838089E-4,3.803105E-2,2.0048442E-1,2.9285757E1,1.7641428E-3,6.035534E-1,3.8301575E-3,1.3832364E-3,5.065099E-3,5.999287E-3,5.576525E-2,3.2317236E-2,-3.2270867E-2,-4.806259E-2,3.2207277E-2,3.3752266E-2,-2.504362E-2,2.3315687E-2,-8.802804E-3,-4.7622334E-2,3.395142E-2],"split_indices":[5,1,4,10,3,0,10,5,4,8,4,6,4,0,0,0,0,0,0,0,0,0,0,0,0],"split_type":[0,0,0,0,0,0,0,0,0,0,0,0,0,0,0,0,0,0,0,0,0,0,0,0,0],"sum_hessian":[5.2227386E1,1.838378E1,3.3843605E1,8.642715E0,9.741064E0,1.1965997E0,3.2647007E1,6.0512576E0,2.5914576E0,3.968476E0,5.772588E0,2.2308329E1,1.0338678E1,1.0557247E0,4.9955325E0,1.0817603E0,1.5096973E0,2.8846812E0,1.0837948E0,4.366553E0,1.4060351E0,6.5533576E0,1.5754971E1,8.31459E0,2.0240874E0],"tree_param":{"num_deleted":"0","num_feature":"11","num_nodes":"25","size_leaf_vector":"0"}},{"base_weights":[5.7830106E-2,8.98736E-1,3.9927214E-3,2.237438E-1,-2.8117663E-1,3.820007E-1,-3.467336E-1,5.853949E-2,-7.1730894E-1,6.4708984E-1,7.5842366E-2,4.8294565E-1,-6.410425E-1,7.8861356E-1,-2.291174E-1,-1.0830052E0,5.485353E-1],"categories":[],"categories_nodes":[],"categories_segments":[],"categories_sizes":[],"default_left":[1,0,1,1,1,1,1,1,1,0,0,0,0,0,0,0,0],"id":42,"left_children":[1,-1,3,5,7,9,11,13,15,-1,-1,-1,-1,-1,-1,-1,-1],"loss_changes":[2.2370307E0,0E0,3.0407298E0,2.6056833E0,3.1717725E0,1.730026E0,1.8902705E0,2.8686564E0,4.910728E0,0E0,0E0,0E0,0E0,0E0,0E0,0E0,0E0],"parents":[2147483647,0,0,2,2,3,3,4,4,5,5,6,6,7,7,8,8],"right_children":[2,-1,4,6,8,10,12,14,16,-1,-1,-1,-1,-1,-1,-1,-1],"split_conditions":[2.8334045E1,4.4936802E-2,2.0048442E-1,4.864921E-3,1.6427145E-3,6.904964E-4,-3.7940952E-1,4.367611E1,5.1175756E-3,3.2354493E-2,3.7921183E-3,2.4147283E-2,-3.2052126E-2,3.9430678E-2,-1.145587E-2,-5.415026E-2,2.7426764E-2],"split_indices":[5,0,10,4,4,1,8,5,4,0,0,0,0,0,0,0,0],"split_type":[0,0,0,0,0,0,0,0,0,0,0,0,0,0,0,0,0],"sum_hessian":[4.84922E1,1.973521E0,4.6518677E1,2.6394508E1,2.0124168E1,2.0921131E1,5.4733763E0,1.1799203E1,8.3249655E0,1.0615798E1,1.0305334E1,1.2653393E0,4.208037E0,2.8427606E0,8.956442E0,6.5710588E0,1.7539064E0],"tree_param":{"num_deleted":"0","num_feature":"11","num_nodes":"17","size_leaf_vector":"0"}},{"base_weights":[1.689309E-2,1.4435199E-1,-3.805315E-1,1.7701894E-2,7.1035665E-1,-5.3118E-1,4.64964E-1,1.1633144E-1,-6.595596E-1,-3.740628E-2,9.389009E-1,-6.742881E-1,3.9498818E-1,4.9736124E-1,-1.2143252E-1,1.295447E-1,-1.1927199E0,9.529569E-2,-9.499832E-1],"categories":[],"categories_nodes":[],"categories_segments":[],"categories_sizes":[],"default_left":[1,1,1,1,1,1,0,1,1,0,0,1,0,0,0,0,0,0,0],"id":43,"left_children":[1,3,5,7,9,11,-1,13,15,-1,-1,17,-1,-1,-1,-1,-1,-1,-1],"loss_changes":[2.6923559E0,2.8653984E0,1.892428E0,2.3366642E0,1.2852921E0,1.7814877E0,0E0,2.8128366E0,2.0269763E0,0E0,0E0,2.2697167E0,0E0,0E0,0E0,0E0,0E0,0E0,0E0],"parents":[2147483647,0,0,1,1,2,2,3,3,4,4,5,5,7,7,8,8,11,11],"right_children":[2,4,6,8,10,12,-1,14,16,-1,-1,18,-1,-1,-1,-1,-1,-1,-1],"split_conditions":[2.3111603E-3,1.1987037E-3,1.9437529E-3,5.570892E-4,2.1694186E-1,1.2905612E-3,2.3248201E-2,1.8457283E-3,2.0048442E-1,-1.870314E-3,4.6945047E-2,1.3852983E-3,1.9749409E-2,2.4868062E-2,-6.071626E-3,6.4772354E-3,-5.9635997E-2,4.7647846E-3,-4.749916E-2],"split_indices":[2,2,6,2,9,3,0,4,10,0,0,6,0,0,0,0,0,0,0],"split_type":[0,0,0,0,0,0,0,0,0,0,0,0,0,0,0,0,0,0,0],"sum_hessian":[5.106613E1,3.914775E1,1.191838E1,3.2832397E1,6.315354E0,1.0431475E1,1.4869047E0,2.9381765E1,3.4506319E0,1.6741408E0,4.641213E0,9.2709255E0,1.1605494E0,1.0870065E1,1.8511702E1,1.696601E0,1.754031E0,2.6178162E0,6.653109E0],"tree_param":{"num_deleted":"0","num_feature":"11","num_nodes":"19","size_leaf_vector":"0"}},{"base_weights":[-2.8129634E-3,8.586793E-1,-5.100421E-2,-2.7809092E-1,9.493539E-2,5.179803E-1,-4.9222204E-1,5.1351404E-1,-1.1032281E-1,8.800546E-1,-2.2185229E-1,1.0864685E-1,-6.889073E-1,-2.946873E-1,9.1731316E-1,4.3171784E-1,-3.5682058E-1],"categories":[],"categories_nodes":[],"categories_segments":[],"categories_sizes":[],"default_left":[1,0,1,1,1,1,1,1,1,0,0,0,0,0,0,0,0],"id":44,"left_children":[1,-1,3,5,7,9,11,13,15,-1,-1,-1,-1,-1,-1,-1,-1],"loss_changes":[2.1624224E0,0E0,1.6593081E0,3.5843024E0,2.697775E0,1.4347585E0,1.9543998E0,3.6288812E0,3.0199192E0,0E0,0E0,0E0,0E0,0E0,0E0,0E0,0E0],"parents":[2147483647,0,0,2,2,3,3,4,4,5,5,6,6,7,7,8,8],"right_children":[2,-1,4,6,8,10,12,14,16,-1,-1,-1,-1,-1,-1,-1,-1],"split_conditions":[2.8334045E1,4.2933967E-2,2.1694186E-1,1.5646149E-3,6.078576E-1,5.9446733E-4,7.688661E-4,9.7545795E-4,9.1412105E-4,4.400273E-2,-1.1092614E-2,5.4323426E-3,-3.4445368E-2,-1.4734365E-2,4.586566E-2,2.1585893E-2,-1.784103E-2],"split_indices":[5,0,9,4,9,2,3,3,3,0,0,0,0,0,0,0,0],"split_type":[0,0,0,0,0,0,0,0,0,0,0,0,0,0,0,0,0],"sum_hessian":[5.0031082E1,1.7594824E0,4.82716E1,1.8531096E1,2.9740505E1,3.627229E0,1.4903867E1,9.291254E0,2.0449251E1,2.3081079E0,1.3191211E0,3.785836E0,1.1118031E1,3.1855695E0,6.105684E0,6.1575627E0,1.4291688E1],"tree_param":{"num_deleted":"0","num_feature":"11","num_nodes":"17","size_leaf_vector":"0"}},{"base_weights":[2.3177974E-2,-4.7123305E-2,7.89672E-1,7.4647784E-2,-4.330553E-1,9.012415E-1,2.4715555E-1,-4.9520575E-2,6.5406305E-1,2.3540288E-1,-6.966575E-1,-3.406755E-1,2.4789351E-1,9.0969104E-1,6.790072E-2,-5.980505E-1,7.7421886E-1,-8.322307E-1,1.5210688E-1],"categories":[],"categories_nodes":[],"categories_segments":[],"categories_sizes":[],"default_left":[1,1,1,1,1,0,0,1,1,1,1,0,0,0,0,0,0,0,0],"id":45,"left_children":[1,3,5,7,9,-1,-1,11,13,15,17,-1,-1,-1,-1,-1,-1,-1,-1],"loss_changes":[2.8042245E0,2.2871404E0,4.178238E-2,2.7177186E0,2.2176478E0,0E0,0E0,2.8266342E0,9.357798E-1,2.278914E0,1.1174731E0,0E0,0E0,0E0,0E0,0E0,0E0,0E0,0E0],"parents":[2147483647,0,0,1,1,2,2,3,3,4,4,7,7,8,8,9,9,10,10],"right_children":[2,4,6,8,10,-1,-1,12,14,16,18,-1,-1,-1,-1,-1,-1,-1,-1],"split_conditions":[1.9333014E-3,2.3111603E-3,1.108235E-3,1.1335152E-3,1.3852983E-3,4.5062076E-2,1.2357778E-2,1.2940952E-1,6.1516243E1,1.1694755E-3,1.269212E-3,-1.7033776E-2,1.2394676E-2,4.5484554E-2,3.3950359E-3,-2.9902523E-2,3.8710944E-2,-4.1611534E-2,7.605344E-3],"split_indices":[6,2,0,2,6,0,0,8,5,6,3,0,0,0,0,0,0,0,0],"split_type":[0,0,0,0,0,0,0,0,0,0,0,0,0,0,0,0,0,0,0],"sum_hessian":[5.034984E1,4.6979496E1,3.3703432E0,3.6324726E1,1.0654771E1,2.2470164E0,1.1233267E0,3.0667278E1,5.6574464E0,3.0436008E0,7.6111703E0,1.5423203E1,1.5244076E1,3.5551057E0,2.102341E0,1.1518921E0,1.8917087E0,6.579677E0,1.0314928E0],"tree_param":{"num_deleted":"0","num_feature":"11","num_nodes":"19","size_leaf_vector":"0"}},{"base_weights":[5.9971895E-2,4.834606E-1,-7.733806E-2,5.946122E-1,-3.5967198E-1,8.258723E-1,-1.3631514E-1,9.1762066E-1,2.5828797E-1,8.980411E-2,-5.297878E-1,7.370079E-1,-6.000146E-1,2.314918E-1,-4.7532964E-1,-7.4915636E-1,6.1356366E-1],"categories":[],"categories_nodes":[],"categories_segments":[],"categories_sizes":[],"default_left":[1,1,1,1,0,0,1,0,1,1,1,0,0,0,0,0,0],"id":46,"left_children":[1,3,5,7,-1,-1,9,-1,11,13,15,-1,-1,-1,-1,-1,-1],"loss_changes":[2.9698327E0,1.3839462E0,2.1870837E0,1.002315E0,0E0,0E0,3.376492E0,0E0,3.3104472E0,2.081081E0,3.920819E0,0E0,0E0,0E0,0E0,0E0,0E0],"parents":[2147483647,0,0,1,1,2,2,3,3,6,6,8,8,9,9,10,10],"right_children":[2,4,6,8,-1,-1,10,-1,12,14,16,-1,-1,-1,-1,-1,-1],"split_conditions":[4.367611E1,1.2609374E-3,-1.5285704E-3,1.7641428E-3,-1.7983599E-2,4.1293617E-2,2.0048442E-1,4.5881033E-2,2.0048442E-1,4.772754E-3,5.059256E-3,3.6850397E-2,-3.0000731E-2,1.1574591E-2,-2.3766482E-2,-3.745782E-2,3.0678183E-2],"split_indices":[5,3,4,4,0,0,10,0,10,4,4,0,0,0,0,0,0],"split_type":[0,0,0,0,0,0,0,0,0,0,0,0,0,0,0,0,0],"sum_hessian":[4.942962E1,1.14854555E1,3.794416E1,1.0408097E1,1.0773585E0,1.528746E0,3.6415417E1,4.427505E0,5.9805923E0,2.3615768E1,1.2799647E1,3.9299657E0,2.0506268E0,1.9353842E1,4.2619276E0,1.1028451E1,1.7711967E0],"tree_param":{"num_deleted":"0","num_feature":"11","num_nodes":"17","size_leaf_vector":"0"}},{"base_weights":[5.5744395E-2,3.2508194E-1,-1.0474143E-1,5.909253E-1,-1.6362344E-1,1.7528367E-1,-4.4684273E-1,8.200543E-1,-1.1716514E-1,-6.109652E-1,2.967504E-1,-1.18613854E-1,5.848373E-1,-7.853416E-2,-1.0168577E0,1.0839745E-3,1.0084275E0,4.4243237E-1,-5.404196E-1,-5.1792245E-2,-8.024945E-1,8.7521017E-1,-2.9939488E-1,4.7780535E-1,-4.5205998E-1,9.729931E-1,-1.5910654E-1,-2.6899976E-1,7.717343E-1,-1.1194916E0,-2.903584E-1],"categories":[],"categories_nodes":[],"categories_segments":[],"categories_sizes":[],"default_left":[1,1,1,1,1,1,1,1,1,1,1,1,1,1,1,0,0,0,0,0,0,0,0,0,0,0,0,0,0,0,0],"id":47,"left_children":[1,3,5,7,9,11,13,15,17,19,21,23,25,27,29,-1,-1,-1,-1,-1,-1,-1,-1,-1,-1,-1,-1,-1,-1,-1,-1],"loss_changes":[2.192677E0,2.5508482E0,3.1485772E0,2.1162548E0,1.7132138E0,2.2771387E0,3.0078714E0,1.4694834E0,1.1673424E0,3.9749026E-1,1.7582903E0,2.5050755E0,2.4163666E0,1.8300273E0,9.915924E-2,0E0,0E0,0E0,0E0,0E0,0E0,0E0,0E0,0E0,0E0,0E0,0E0,0E0,0E0,0E0,0E0],"parents":[2147483647,0,0,1,1,2,2,3,3,4,4,5,5,6,6,7,7,8,8,9,9,10,10,11,11,12,12,13,13,14,14],"right_children":[2,4,6,8,10,12,14,16,18,20,22,24,26,28,30,-1,-1,-1,-1,-1,-1,-1,-1,-1,-1,-1,-1,-1,-1,-1,-1],"split_conditions":[-5.6174487E-1,4.864921E-3,1.2088907E-3,7.0987564E1,6.1091394E-3,3.7940952E-1,5.642611E1,-7.865661E-1,-3.7940952E-1,-5.9152476E-4,8.005118E-3,4.8405006E1,5.3305295E-4,5.056242E-3,4.955549E-3,5.4198725E-5,5.0421376E-2,2.212162E-2,-2.702098E-2,-2.5896123E-3,-4.0124726E-2,4.376051E-2,-1.4969744E-2,2.3890268E-2,-2.2603E-2,4.8649654E-2,-7.955327E-3,-1.3449988E-2,3.8586717E-2,-5.597458E-2,-1.451792E-2],"split_indices":[10,4,4,5,4,8,5,7,8,1,4,5,0,4,4,0,0,0,0,0,0,0,0,0,0,0,0,0,0,0,0],"split_type":[0,0,0,0,0,0,0,0,0,0,0,0,0,0,0,0,0,0,0,0,0,0,0,0,0,0,0,0,0,0,0],"sum_hessian":[4.893949E1,1.7889904E1,3.104959E1,1.1451444E1,6.43846E0,1.734201E1,1.3707579E1,8.53236E0,2.9190834E0,3.099547E0,3.338913E0,1.0510215E1,6.831795E0,9.0182905E0,4.689288E0,1.7836273E0,6.748733E0,1.2375587E0,1.6815246E0,1.1149235E0,1.9846234E0,1.4570109E0,1.8819022E0,3.613675E0,6.8965397E0,4.2870984E0,2.5446966E0,7.926364E0,1.0919267E0,3.6348474E0,1.0544407E0],"tree_param":{"num_deleted":"0","num_feature":"11","num_nodes":"31","size_leaf_vector":"0"}},{"base_weights":[3.5521004E-2,-5.212229E-1,1.0945428E-1,3.6405808E-1,-8.129198E-1,-3.7698843E-2,5.781475E-1,-3.4910816E-1,-1.1325552E0,4.0001133E-1,-1.5612087E-1,8.1912947E-1,7.0267715E-2,2.6228724E-2,-5.1561326E-1,1.6222065E-2,8.176891E-1,6.0259485E-1,-2.3294026E-1,-1.1250044E-1,9.892004E-1,5.611954E-1,-4.3030986E-1],"categories":[],"categories_nodes":[],"categories_segments":[],"categories_sizes":[],"default_left":[1,1,1,0,1,1,1,1,0,1,1,1,1,0,0,0,0,0,0,0,0,0,0],"id":48,"left_children":[1,3,5,-1,7,9,11,13,-1,15,17,19,21,-1,-1,-1,-1,-1,-1,-1,-1,-1,-1],"loss_changes":[2.107342E0,1.8486443E0,3.1114767E0,0E0,3.2094646E-1,1.8783331E0,1.2600148E0,2.2706789E-1,0E0,1.2275325E0,1.7893331E0,1.2532282E0,1.3616306E0,0E0,0E0,0E0,0E0,0E0,0E0,0E0,0E0,0E0,0E0],"parents":[2147483647,0,0,1,1,2,2,4,4,5,5,6,6,7,7,9,9,10,10,11,11,12,12],"right_children":[2,4,6,-1,8,10,12,14,-1,16,18,20,22,-1,-1,-1,-1,-1,-1,-1,-1,-1,-1],"split_conditions":[-9.159756E-1,1.5482074E-3,1.6699356E-3,1.8202905E-2,1.1914617E-3,-5.481584E-4,1.2295414E-3,-3.3465505E-5,-5.662776E-2,1.2940952E-1,-1.1597734E-3,-3.4789003E-3,6.035534E-1,1.3114362E-3,-2.5780663E-2,8.1110327E-4,4.0884458E-2,3.0129744E-2,-1.1647013E-2,-5.625022E-3,4.946002E-2,2.805977E-2,-2.1515494E-2],"split_indices":[7,6,6,0,3,0,1,1,0,8,4,1,8,0,0,0,0,0,0,0,0,0,0],"split_type":[0,0,0,0,0,0,0,0,0,0,0,0,0,0,0,0,0,0,0,0,0,0,0],"sum_hessian":[4.881043E1,5.0127473E0,4.3797684E1,1.1808562E0,3.831891E0,3.4032307E1,9.765377E0,2.4169493E0,1.4149417E0,6.7404575E0,2.729185E1,6.20727E0,3.5581064E0,1.0016034E0,1.4153459E0,4.0541143E0,2.686343E0,1.8799542E0,2.5411894E1,1.0104799E0,5.19679E0,1.7352309E0,1.8228755E0],"tree_param":{"num_deleted":"0","num_feature":"11","num_nodes":"23","size_leaf_vector":"0"}},{"base_weights":[8.210555E-2,8.573505E-1,3.2248873E-2,2.2293426E-1,-2.167282E-1,7.40223E-1,5.8408506E-2,-9.831643E-1,-7.108096E-2,9.9698156E-1,1.6920386E-1,-3.3279413E-1,2.6626337E-1,1.0155664E-1,-5.149547E-1],"categories":[],"categories_nodes":[],"categories_segments":[],"categories_sizes":[],"default_left":[1,0,1,1,1,1,1,0,1,0,0,0,0,0,0],"id":49,"left_children":[1,-1,3,5,7,9,11,-1,13,-1,-1,-1,-1,-1,-1],"loss_changes":[1.814921E0,0E0,2.2241704E0,2.2075353E0,2.2055752E0,7.543845E-1,1.8084127E0,0E0,1.4474822E0,0E0,0E0,0E0,0E0,0E0,0E0],"parents":[2147483647,0,0,2,2,3,3,4,4,5,5,6,6,8,8],"right_children":[2,-1,4,6,8,10,12,-1,14,-1,-1,-1,-1,-1,-1],"split_conditions":[2.8334045E1,4.2867526E-2,2.0048442E-1,-8.248697E-4,1.3571018E-3,5.5237514E1,0E0,-4.9158216E-2,5.642611E1,4.9849078E-2,8.460193E-3,-1.6639708E-2,1.3313169E-2,5.077832E-3,-2.5747735E-2],"split_indices":[5,0,10,1,6,5,9,0,5,0,0,0,0,0,0],"split_type":[0,0,0,0,0,0,0,0,0,0,0,0,0,0,0],"sum_hessian":[4.667181E1,1.8414788E0,4.483033E1,2.5446264E1,1.9384066E1,5.2959695E0,2.0150295E1,2.177124E0,1.7206942E1,3.1386898E0,2.1572797E0,6.7829843E0,1.33673115E1,1.2943845E1,4.263098E0],"tree_param":{"num_deleted":"0","num_feature":"11","num_nodes":"15","size_leaf_vector":"0"}},{"base_weights":[5.7228982E-2,1.7095803E-1,-3.3224466E-1,-9.224359E-2,4.0476212E-1,2.7172968E-1,-5.311748E-1,1.5945363E-1,-8.0312294E-1,-2.9225308E-1,5.466585E-1,-2.7025974E-1,6.321232E-1,-7.5322974E-1,4.4622502E-1,3.138662E-1,-7.4876654E-1,-1.8794213E-1,-9.105886E-1,-6.7471904E-1,3.2684195E-1,9.3310046E-1,1.0543171E-1,-8.384788E-1,-1.5502253E-1],"categories":[],"categories_nodes":[],"categories_segments":[],"categories_sizes":[],"default_left":[1,1,1,1,1,1,1,1,1,1,1,0,0,1,0,0,0,0,0,0,0,0,0,0,0],"id":50,"left_children":[1,3,5,7,9,11,13,15,17,19,21,-1,-1,23,-1,-1,-1,-1,-1,-1,-1,-1,-1,-1,-1],"loss_changes":[2.2863364E0,2.4753697E0,1.5519787E0,3.6085336E0,2.2532222E0,8.6705405E-1,2.3223245E0,2.366666E0,1.760776E-1,1.2225481E0,2.9596534E0,0E0,0E0,2.6928568E-1,0E0,0E0,0E0,0E0,0E0,0E0,0E0,0E0,0E0,0E0,0E0],"parents":[2147483647,0,0,1,1,2,2,3,3,4,4,5,5,6,6,7,7,8,8,9,9,10,10,13,13],"right_children":[2,4,6,8,10,12,14,16,18,20,22,-1,-1,24,-1,-1,-1,-1,-1,-1,-1,-1,-1,-1,-1],"split_conditions":[2.3207057E-3,9.797532E-4,1.3852983E-3,9.0541993E-4,-7.865661E-1,1.178154E-3,1.2755883E-3,8.117449E-1,-1.188546E-3,1.7956696E-3,6.078576E-1,-1.3512987E-2,3.160616E-2,1.8625332E-3,2.2311252E-2,1.569331E-2,-3.743833E-2,-9.397107E-3,-4.5529433E-2,-3.3735953E-2,1.6342098E-2,4.6655025E-2,5.2715857E-3,-4.192394E-2,-7.751127E-3],"split_indices":[2,3,6,3,7,6,3,10,2,6,9,0,0,6,0,0,0,0,0,0,0,0,0,0,0],"split_type":[0,0,0,0,0,0,0,0,0,0,0,0,0,0,0,0,0,0,0,0,0,0,0,0,0],"sum_hessian":[4.9334423E1,3.861858E1,1.0715842E1,1.8451986E1,2.0166594E1,2.5643198E0,8.151523E0,1.4199974E1,4.252013E0,3.2318182E0,1.6934774E1,1.1240218E0,1.4402982E0,6.8293247E0,1.3221977E0,1.2695879E1,1.5040948E0,1.0411083E0,3.2109048E0,1.942147E0,1.2896713E0,8.433571E0,8.5012045E0,5.625934E0,1.2033906E0],"tree_param":{"num_deleted":"0","num_feature":"11","num_nodes":"25","size_leaf_vector":"0"}}]},"name":"gbtree"},"learner_model_param":{"base_score":"5E-1","boost_from_average":"1","num_class":"0","num_feature":"11","num_target":"1"},"objective":{"name":"binary:logistic","reg_loss_param":{"scale_pos_weight":"1"}}},"version":[1,7,6]}