{"learner":{"attributes":{"best_iteration":"0","best_ntree_limit":"1","best_score":"0.6911802832211289"},"feature_names":["ret_1","ret_3","ret_6","vol_24","sma_diff","rsi","atr_norm","hour_sin","hour_cos","dow_sin","dow_cos"],"feature_types":[],"gradient_booster":{"model":{"gbtree_model_param":{"num_parallel_tree":"1","num_trees":"51","size_leaf_vector":"0"},"tree_info":[0,0,0,0,0,0,0,0,0,0,0,0,0,0,0,0,0,0,0,0,0,0,0,0,0,0,0,0,0,0,0,0,0,0,0,0,0,0,0,0,0,0,0,0,0,0,0,0,0,0,0],"trees":[{"base_weights":[-6.0273975E-1,-9.411765E-2,-1.2698413E0,-5.8181816E-1,7.5E-1,-3.448276E-1,-1.4851485E0,9.2307694E-2,-1.4285715E0,1.4042553E0,-8.5714287E-1,1E0,-1.0476191E0,-1.6321839E0,-4.4444445E-1,-1.2E0,8.181818E-1,-0E0,-1.7073171E0,1.8181819E-1,1.6E0,4E-1,-1.4666667E0,-1.4666667E0,-0E0,-6.666667E-1,-1.6962025E0,1E0,-1.1428572E0],"categories":[],"categories_nodes":[],"categories_segments":[],"categories_sizes":[],"default_left":[1,1,1,1,1,1,1,1,1,1,1,0,1,1,1,0,0,0,0,0,0,0,0,0,0,0,0,0,0],"id":0,"left_children":[1,3,5,7,9,11,13,15,17,19,21,-1,23,25,27,-1,-1,-1,-1,-1,-1,-1,-1,-1,-1,-1,-1,-1,-1],"loss_changes":[2.4649576E1,1.793262E1,5.761486E0,1.5829371E1,1.8027357E1,7.8998356E0,3.1383476E0,1.6225174E1,4.878048E0,2.5206966E0,4.6095233E0,0E0,2.304762E0,2.1358871E-1,5.68254E0,0E0,0E0,0E0,0E0,0E0,0E0,0E0,0E0,0E0,0E0,0E0,0E0,0E0,0E0],"parents":[2147483647,0,0,1,1,2,2,3,3,4,4,5,5,6,6,7,7,8,8,9,9,10,10,12,12,13,13,14,14],"right_children":[2,4,6,8,10,12,14,16,18,20,22,-1,24,26,28,-1,-1,-1,-1,-1,-1,-1,-1,-1,-1,-1,-1,-1,-1],"split_conditions":[-1.2774842E-3,-2.545429E-3,-1.8823005E-3,2.1694186E-1,5.502436E1,6.078576E-1,1.0390591E-3,4.7991727E-4,2.1155949E1,-1.0168329E-3,-1.851459E-3,5E-2,-8.09954E-4,2.6863913E1,-1.0295275E-3,-6.0000002E-2,4.0909093E-2,-0E0,-8.5365854E-2,9.09091E-3,8.0000006E-2,2.0000001E-2,-7.333334E-2,-7.333334E-2,-0E0,-3.3333335E-2,-8.481013E-2,5E-2,-5.714286E-2],"split_indices":[4,4,2,9,5,9,3,3,5,1,4,0,1,5,4,0,0,0,0,0,0,0,0,0,0,0,0,0,0],"split_type":[0,0,0,0,0,0,0,0,0,0,0,0,0,0,0,0,0,0,0,0,0,0,0,0,0,0,0,0,0],"sum_hessian":[7.2E1,4.15E1,3.05E1,2.65E1,1.5E1,6.25E0,2.425E1,1.525E1,1.125E1,1.075E1,4.25E0,2E0,4.25E0,2.075E1,3.5E0,5.25E0,1E1,2E0,9.25E0,1.75E0,9E0,1.5E0,2.75E0,2.75E0,1.5E0,2E0,1.875E1,1E0,2.5E0],"tree_param":{"num_deleted":"0","num_feature":"11","num_nodes":"29","size_leaf_vector":"0"}},{"base_weights":[-5.64938E-1,-8.1227005E-2,-1.1180558E0,-4.9589875E-1,8.102913E-1,-4.777931E-1,-1.5345051E0,-9.0459245E-1,8.440908E-1,1.4168121E0,-6.4968824E-1,5.037534E-1,-1.0329236E0,-1.615725E0,-1.7530856E-1,4.9236923E-1,-1.1546448E0,1.4104459E0,-5.4418594E-1,1.5745261E0,2.0933676E-1,1.636732E-1,-1.2271305E0,9.4407964E-1,-6.500017E-1,-1.0873248E-1,-1.3803297E0,-1.7956405E0,-7.076219E-1],"categories":[],"categories_nodes":[],"categories_segments":[],"categories_sizes":[],"default_left":[1,1,1,1,1,1,1,1,1,1,1,1,1,1,0,0,0,0,0,0,0,0,0,0,0,0,0,0,0],"id":1,"left_children":[1,3,5,7,9,11,13,15,17,19,21,23,25,27,-1,-1,-1,-1,-1,-1,-1,-1,-1,-1,-1,-1,-1,-1,-1],"loss_changes":[1.928398E1,1.5082135E1,8.254028E0,1.5946363E1,1.2419936E1,8.549549E0,1.9213333E0,8.158058E0,6.2688084E0,1.4774742E0,2.3129978E0,3.6595182E0,2.9771671E0,1.7882767E0,0E0,0E0,0E0,0E0,0E0,0E0,0E0,0E0,0E0,0E0,0E0,0E0,0E0,0E0,0E0],"parents":[2147483647,0,0,1,1,2,2,3,3,4,4,5,5,6,6,7,7,8,8,9,9,10,10,11,11,12,12,13,13],"right_children":[2,4,6,8,10,12,14,16,18,20,22,24,26,28,-1,-1,-1,-1,-1,-1,-1,-1,-1,-1,-1,-1,-1,-1,-1],"split_conditions":[-1.4579555E-3,-2.5225282E-3,-7.6495926E-4,8.117449E-1,5.186969E1,6.078576E-1,4.4731845E-4,2.1155949E1,-2.943615E-3,8.879036E-4,-1.851459E-3,6.0463545E-4,-8.5583405E-4,9.4826147E-4,-8.765428E-3,2.4618462E-2,-5.7732243E-2,7.05223E-2,-2.7209297E-2,7.872631E-2,1.0466838E-2,8.183661E-3,-6.1356526E-2,4.7203984E-2,-3.2500084E-2,-5.436624E-3,-6.901649E-2,-8.978202E-2,-3.5381094E-2],"split_indices":[4,4,2,10,5,9,4,5,4,3,4,4,4,3,0,0,0,0,0,0,0,0,0,0,0,0,0,0,0],"split_type":[0,0,0,0,0,0,0,0,0,0,0,0,0,0,0,0,0,0,0,0,0,0,0,0,0,0,0,0,0],"sum_hessian":[7.141584E1,3.8710068E1,3.2705772E1,2.6723795E1,1.1986275E1,1.3735568E1,1.8970203E1,2.0727026E1,5.996769E0,8.489175E0,3.4970996E0,4.9954605E0,8.740108E0,1.7722448E1,1.2477549E0,2.9996862E0,1.7727339E1,4.2478614E0,1.7489072E0,7.2395954E0,1.2495798E0,1.7494504E0,1.7476492E0,3.7471197E0,1.2483406E0,2.7465506E0,5.993557E0,1.3976116E1,3.7463315E0],"tree_param":{"num_deleted":"0","num_feature":"11","num_nodes":"29","size_leaf_vector":"0"}},{"base_weights":[-6.159248E-1,-3.748821E-2,-9.960638E-1,-1.3729694E0,2.492391E-1,1.6284679E-1,-1.1466397E0,1.1430159E0,-3.9102727E-1,1.3213527E0,-1.0423226E0,-5.44079E-1,-1.3394458E0,1.3390312E0,-2.136867E-1,1.8928069E-1,-1.0158912E0,8.5767305E-1,-1.0428208E0,-1.5006561E0,1.5246385E-1],"categories":[],"categories_nodes":[],"categories_segments":[],"categories_sizes":[],"default_left":[1,1,1,0,1,1,1,1,1,0,0,1,1,0,0,0,0,0,0,0,0],"id":2,"left_children":[1,3,5,-1,7,9,11,13,15,-1,-1,17,19,-1,-1,-1,-1,-1,-1,-1,-1],"loss_changes":[1.6116999E1,1.1896232E1,7.916073E0,0E0,1.5146308E1,9.710963E0,3.8398323E0,3.2049818E0,5.8892746E0,0E0,0E0,8.736158E0,7.2295074E0,0E0,0E0,0E0,0E0,0E0,0E0,0E0,0E0],"parents":[2147483647,0,0,1,1,2,2,4,4,5,5,6,6,7,7,8,8,11,11,12,12],"right_children":[2,4,6,-1,8,10,12,14,16,-1,-1,18,20,-1,-1,-1,-1,-1,-1,-1,-1],"split_conditions":[2.1694186E-1,4.5817858E-4,5.3062727E-4,-6.864847E-2,4.3286213E1,-1.3926618E-3,2.7421928E1,4.1129967E-4,-1.8659229E-3,6.6067636E-2,-5.2116133E-2,6.6225615E-4,9.585591E-4,6.6951565E-2,-1.0684336E-2,9.464035E-3,-5.079456E-2,4.2883653E-2,-5.214104E-2,-7.503281E-2,7.623193E-3],"split_indices":[9,3,3,0,5,4,5,4,4,0,0,3,3,0,0,0,0,0,0,0,0],"split_type":[0,0,0,0,0,0,0,0,0,0,0,0,0,0,0,0,0,0,0,0,0],"sum_hessian":[7.246678E1,2.9173576E1,4.3293205E1,4.486858E0,2.4686718E1,4.968852E0,3.8324352E1,9.975813E0,1.4710906E1,2.4843197E0,2.4845324E0,1.0216736E1,2.8107618E1,8.727845E0,1.2479675E0,7.9888167E0,6.7220893E0,2.49229E0,7.724446E0,2.5361305E1,2.7463126E0],"tree_param":{"num_deleted":"0","num_feature":"11","num_nodes":"21","size_leaf_vector":"0"}},{"base_weights":[-4.8109123E-1,5.5834718E-2,-8.579969E-1,-1.2358333E0,2.8470528E-1,-5.3231364E-1,-1.6049155E0,9.901899E-1,-2.4008746E-1,7.102354E-3,-9.84304E-1,1.2199152E-1,1.2496065E0,-1.0796816E0,2.1038166E-1,6.485541E-1,-7.685039E-1,-1.911696E-1,-1.2825174E0],"categories":[],"categories_nodes":[],"categories_segments":[],"categories_sizes":[],"default_left":[1,1,1,0,1,1,0,1,1,1,1,0,0,0,0,0,0,0,0],"id":3,"left_children":[1,3,5,-1,7,9,-1,11,13,15,17,-1,-1,-1,-1,-1,-1,-1,-1],"loss_changes":[1.4363697E1,9.254736E0,9.271332E0,0E0,1.0010148E1,7.4389143E0,0E0,2.4273872E0,6.256154E0,7.9063926E0,3.6793022E0,0E0,0E0,0E0,0E0,0E0,0E0,0E0,0E0],"parents":[2147483647,0,0,1,1,2,2,4,4,5,5,7,7,8,8,9,9,10,10],"right_children":[2,4,6,-1,8,10,-1,12,14,16,18,-1,-1,-1,-1,-1,-1,-1,-1],"split_conditions":[2.1694186E-1,4.523811E-4,1.2602217E-3,-6.1791666E-2,-3.6745504E-4,-1.7942763E-4,-8.024578E-2,-1.2186912E-3,2.0821372E-4,2.0048442E-1,7.723678E-4,6.099576E-3,6.2480327E-2,-5.3984083E-2,1.0519083E-2,3.2427706E-2,-3.8425196E-2,-9.55848E-3,-6.412587E-2],"split_indices":[9,3,6,0,2,1,0,1,1,10,6,0,0,0,0,0,0,0,0],"split_type":[0,0,0,0,0,0,0,0,0,0,0,0,0,0,0,0,0,0,0],"sum_hessian":[6.974052E1,2.9115503E1,4.062501E1,3.7202072E0,2.5395296E1,2.9482338E1,1.1142675E1,1.0454447E1,1.4940848E1,1.3889987E1,1.5592352E1,2.74337E0,7.7110767E0,4.7293634E0,1.0211485E1,7.692143E0,6.1978436E0,4.709069E0,1.0883283E1],"tree_param":{"num_deleted":"0","num_feature":"11","num_nodes":"19","size_leaf_vector":"0"}},{"base_weights":[-5.52567E-1,-1.1898768E-1,-1.090642E0,-5.408588E-1,6.6869366E-1,-1.276601E0,-4.3801847E-1,-8.2906824E-1,4.747017E-1,1.21747E0,-5.8103293E-1,-2.873E-1,-1.4522811E0,6.559433E-1,-1.0502099E0,6.3088524E-1,-1.0722961E0,1.260313E0,-9.278303E-1,1.24392994E-1,1.4939901E0,3.7168103E-1,-1.0652108E0,-1.074316E0,3.5440272E-1,-6.3281436E-3,1.0972548E0,-1.950758E-1,-1.2347708E0],"categories":[],"categories_nodes":[],"categories_segments":[],"categories_sizes":[],"default_left":[1,1,1,1,1,1,1,1,1,1,1,1,0,1,1,0,0,0,0,0,0,0,0,0,0,0,0,0,0],"id":4,"left_children":[1,3,5,7,9,11,13,15,17,19,21,23,-1,25,27,-1,-1,-1,-1,-1,-1,-1,-1,-1,-1,-1,-1,-1,-1],"loss_changes":[1.6828283E1,1.4110659E1,3.3623886E0,8.441801E0,1.0911113E1,3.8626366E0,6.5072813E0,8.411576E0,8.567553E0,3.0366583E0,2.8022897E0,2.8857508E0,0E0,1.0979446E0,6.989722E-1,0E0,0E0,0E0,0E0,0E0,0E0,0E0,0E0,0E0,0E0,0E0,0E0,0E0,0E0],"parents":[2147483647,0,0,1,1,2,2,3,3,4,4,5,5,6,6,7,7,8,8,9,9,10,10,11,11,13,13,14,14],"right_children":[2,4,6,8,10,12,14,16,18,20,22,24,-1,26,28,-1,-1,-1,-1,-1,-1,-1,-1,-1,-1,-1,-1,-1,-1],"split_conditions":[-1.3148261E-3,-2.545429E-3,8.6181797E-4,8.117449E-1,5.2277275E1,-1.8257813E-3,1.0938694E-3,2.1155949E1,-2.943615E-3,-1.0168329E-3,-1.8115373E-3,-1.4203633E-3,-7.261406E-2,3.4433586E1,-9.525537E-4,3.1544264E-2,-5.3614806E-2,6.3015655E-2,-4.6391513E-2,6.2196497E-3,7.4699506E-2,1.8584052E-2,-5.3260542E-2,-5.3715803E-2,1.7720137E-2,-3.1640718E-4,5.4862738E-2,-9.75379E-3,-6.173854E-2],"split_indices":[4,4,3,10,5,2,6,5,4,1,4,1,0,5,4,0,0,0,0,0,0,0,0,0,0,0,0,0,0],"split_type":[0,0,0,0,0,0,0,0,0,0,0,0,0,0,0,0,0,0,0,0,0,0,0,0,0,0,0,0,0],"sum_hessian":[7.168835E1,4.0375233E1,3.1313116E1,2.6497105E1,1.3878126E1,2.3625223E1,7.6878924E0,2.0782736E1,5.7143703E0,9.661435E0,4.2166905E0,3.9601183E0,1.9665106E1,2.732879E0,4.9550138E0,2.7403328E0,1.8042402E1,3.7277293E0,1.9866409E0,2.243356E0,7.4180794E0,1.4991561E0,2.7175343E0,1.4758714E0,2.484247E0,1.4870057E0,1.2458732E0,1.2447286E0,3.710285E0],"tree_param":{"num_deleted":"0","num_feature":"11","num_nodes":"29","size_leaf_vector":"0"}},{"base_weights":[-4.864718E-1,-1.21480845E-1,-9.728948E-1,-8.246628E-1,2.2049578E-1,-2.0736594E-1,-1.1077904E0,3.5330486E-2,-1.2885875E0,-1.2139913E0,5.004442E-1,3.31345E-1,-6.908766E-1,-7.3688567E-1,-1.364871E0,8.4585637E-1,-1.2300127E0,2.8626436E-1,-1.5633926E0,1.1134049E0,-2.5008643E-1,6.94898E-1,-1.804761E-1,-9.531261E-1,-1.1966675E-1,-1.0475808E0,6.544555E-1,-1.5084356E0,-6.9733304E-1],"categories":[],"categories_nodes":[],"categories_segments":[],"categories_sizes":[],"default_left":[1,1,1,1,1,1,1,1,1,0,1,1,1,1,1,0,0,0,0,0,0,0,0,0,0,0,0,0,0],"id":5,"left_children":[1,3,5,7,9,11,13,15,17,-1,19,21,23,25,27,-1,-1,-1,-1,-1,-1,-1,-1,-1,-1,-1,-1,-1,-1],"loss_changes":[1.2932121E1,1.055524E1,3.0096092E0,5.7610636E0,1.2579534E1,1.7734509E0,1.515255E0,7.1870847E0,4.486389E0,0E0,1.2079624E1,7.730658E-1,4.0261745E-1,6.303883E0,3.321705E-1,0E0,0E0,0E0,0E0,0E0,0E0,0E0,0E0,0E0,0E0,0E0,0E0,0E0,0E0],"parents":[2147483647,0,0,1,1,2,2,3,3,4,4,5,5,6,6,7,7,8,8,10,10,11,11,12,12,13,13,14,14],"right_children":[2,4,6,8,10,12,14,16,18,-1,20,22,24,26,28,-1,-1,-1,-1,-1,-1,-1,-1,-1,-1,-1,-1,-1,-1],"split_conditions":[-1.2671612E-3,-3.8270294E-3,-7.207964E-4,-2.1694186E-1,4.523811E-4,3.9497807E1,1.0719277E-3,5.0349304E1,6.6225615E-4,-6.0699563E-2,4.732093E1,8.8053974E-5,1.2450304E-3,8.614961E-4,7.865661E-1,4.229282E-2,-6.1500635E-2,1.4313218E-2,-7.816964E-2,5.5670243E-2,-1.25043215E-2,3.47449E-2,-9.023805E-3,-4.7656305E-2,-5.9833373E-3,-5.2379042E-2,3.2722775E-2,-7.542178E-2,-3.4866653E-2],"split_indices":[4,4,0,9,3,5,6,5,3,0,5,4,6,3,8,0,0,0,0,0,0,0,0,0,0,0,0,0,0],"split_type":[0,0,0,0,0,0,0,0,0,0,0,0,0,0,0,0,0,0,0,0,0,0,0,0,0,0,0,0,0],"sum_hessian":[7.250632E1,4.2137722E1,3.0368597E1,1.3325662E1,2.8812061E1,4.929733E0,2.5438864E1,4.9932833E0,8.332379E0,4.159881E0,2.465218E1,2.4806206E0,2.449112E0,1.1996786E1,1.3442079E1,3.2457266E0,1.7475566E0,1.2317536E0,7.1006255E0,1.3303599E1,1.134858E1,1.2412488E0,1.2393718E0,1.2202644E0,1.2288476E0,1.0008824E1,1.9879614E0,1.0026107E1,3.4159713E0],"tree_param":{"num_deleted":"0","num_feature":"11","num_nodes":"29","size_leaf_vector":"0"}},{"base_weights":[-4.7217974E-1,-7.977887E-2,-9.479422E-1,-4.704437E-1,7.2123486E-1,-5.441063E-1,-1.2118324E0,7.206216E-3,-1.067187E0,1.1614257E0,-6.571296E-1,3.6293992E-1,-1.0424056E0,-4.1447356E-1,-1.3916254E0,5.1405764E-1,-1.3926547E0,-1.3136923E-1,-1.2823102E0,-4.9659804E-2,1.3614204E0,2.582701E-1,-1.1692241E0,7.3887503E-1,-5.90106E-1,-6.2118597E-2,-1.1753849E0,-9.348957E-1,4.722618E-1],"categories":[],"categories_nodes":[],"categories_segments":[],"categories_sizes":[],"default_left":[1,1,1,1,1,1,1,1,1,1,1,1,1,1,0,0,0,0,0,0,0,0,0,0,0,0,0,0,0],"id":6,"left_children":[1,3,5,7,9,11,13,15,17,19,21,23,25,27,-1,-1,-1,-1,-1,-1,-1,-1,-1,-1,-1,-1,-1,-1,-1],"loss_changes":[1.3432207E1,1.3088891E1,2.815998E0,7.986227E0,9.106785E0,7.023889E0,2.1339035E0,1.2451691E1,2.3381443E0,2.6796455E0,2.1617103E0,2.5696352E0,1.1977262E0,2.704252E0,0E0,0E0,0E0,0E0,0E0,0E0,0E0,0E0,0E0,0E0,0E0,0E0,0E0,0E0,0E0],"parents":[2147483647,0,0,1,1,2,2,3,3,4,4,5,5,6,6,7,7,8,8,9,9,10,10,11,11,12,12,13,13],"right_children":[2,4,6,8,10,12,14,16,18,20,22,24,26,28,-1,-1,-1,-1,-1,-1,-1,-1,-1,-1,-1,-1,-1,-1,-1],"split_conditions":[-1.4199389E-3,-2.545429E-3,-7.6495926E-4,2.1694186E-1,1.9338098E-3,6.078576E-1,7.7251333E-4,-2.8328872E-3,-2.215325E-3,-1.0168329E-3,-7.865661E-1,6.0463545E-4,6.2753854E-4,2.833694E-4,-6.958127E-2,2.5702883E-2,-6.963273E-2,-6.5684617E-3,-6.411552E-2,-2.4829903E-3,6.807102E-2,1.2913506E-2,-5.8461208E-2,3.6943752E-2,-2.9505301E-2,-3.1059298E-3,-5.8769245E-2,-4.6744786E-2,2.361309E-2],"split_indices":[4,4,2,9,2,9,6,4,2,1,8,4,3,2,0,0,0,0,0,0,0,0,0,0,0,0,0,0,0],"split_type":[0,0,0,0,0,0,0,0,0,0,0,0,0,0,0,0,0,0,0,0,0,0,0,0,0,0,0,0,0],"sum_hessian":[7.135449E1,3.9742905E1,3.1611591E1,2.6991491E1,1.2751411E1,1.37032E1,1.790839E1,1.5540425E1,1.1451066E1,9.784158E0,2.967254E0,4.9551187E0,8.748081E0,3.9032524E0,1.4005138E1,1.1873966E1,3.6664596E0,2.4413798E0,9.009686E0,1.4932635E0,8.2908945E0,1.242274E0,1.7249798E0,3.7145953E0,1.2405235E0,1.2202038E0,7.527878E0,2.425451E0,1.4778013E0],"tree_param":{"num_deleted":"0","num_feature":"11","num_nodes":"29","size_leaf_vector":"0"}},{"base_weights":[-4.9797305E-1,-1.1848385E-1,-1.028241E0,-8.1388E-1,2.025155E-1,-3.7132064E-1,-1.1907928E0,-7.224469E-2,-1.1987417E0,-3.9137003E-1,7.3974764E-1,6.8834496E-1,-9.6984506E-1,-4.4359335E-1,-1.2957646E0,7.2627693E-1,-1.2084515E0,-4.680134E-2,-1.4631264E0,-9.396527E-1,6.0102725E-1,1.105478E0,-1.9046916E-1,-6.8560325E-2,-1.2370191E0,-8.4174633E-1,3.2412422E-1,-4.5758393E-1,-1.3993392E0],"categories":[],"categories_nodes":[],"categories_segments":[],"categories_sizes":[],"default_left":[1,1,1,1,1,1,1,1,1,1,1,0,1,1,1,0,0,0,0,0,0,0,0,0,0,0,0,0,0],"id":7,"left_children":[1,3,5,7,9,11,13,15,17,19,21,-1,23,25,27,-1,-1,-1,-1,-1,-1,-1,-1,-1,-1,-1,-1,-1,-1],"loss_changes":[1.4234499E1,9.699402E0,2.7217312E0,3.820631E0,9.868937E0,5.3167825E0,1.2526321E0,6.0863366E0,2.6567297E0,8.67984E0,5.6913595E0,0E0,1.1431732E0,1.6148734E0,1.0879974E0,0E0,0E0,0E0,0E0,0E0,0E0,0E0,0E0,0E0,0E0,0E0,0E0,0E0,0E0],"parents":[2147483647,0,0,1,1,2,2,3,3,4,4,5,5,6,6,7,7,8,8,9,9,10,10,12,12,13,13,14,14],"right_children":[2,4,6,8,10,12,14,16,18,20,22,-1,24,26,28,-1,-1,-1,-1,-1,-1,-1,-1,-1,-1,-1,-1,-1,-1],"split_conditions":[-1.2774842E-3,-3.8270294E-3,-1.9112258E-3,-2.1694186E-1,1.2940952E-1,6.078576E-1,7.5310166E-4,5.0349304E1,-7.2147297E-3,8.117449E-1,2.210511E-4,3.441725E-2,-6.729223E-4,7.333887E-4,-6.7627773E-4,3.6313847E-2,-6.0422577E-2,-2.340067E-3,-7.315632E-2,-4.6982635E-2,3.0051364E-2,5.52739E-2,-9.523458E-3,-3.4280163E-3,-6.1850954E-2,-4.2087317E-2,1.620621E-2,-2.2879196E-2,-6.9966964E-2],"split_indices":[4,4,2,9,7,9,6,5,4,10,2,0,4,6,0,0,0,0,0,0,0,0,0,0,0,0,0,0,0],"split_type":[0,0,0,0,0,0,0,0,0,0,0,0,0,0,0,0,0,0,0,0,0,0,0,0,0,0,0,0,0],"sum_hessian":[7.034255E1,4.1713493E1,2.8629055E1,1.2689079E1,2.9024416E1,6.330389E0,2.2298666E1,4.740932E0,7.9481473E0,1.3914301E1,1.5110114E1,2.230789E0,4.0996003E0,3.3905098E0,1.8908155E1,2.996084E0,1.7448479E0,1.7033912E0,6.244756E0,8.996845E0,4.9174557E0,1.0710638E1,4.3994765E0,1.2247255E0,2.8748746E0,2.1691303E0,1.2213795E0,2.6753907E0,1.6232765E1],"tree_param":{"num_deleted":"0","num_feature":"11","num_nodes":"29","size_leaf_vector":"0"}},{"base_weights":[-4.3722785E-1,-7.703459E-2,-8.8463616E-1,-4.829843E-1,9.088487E-1,-2.715997E-1,-1.162356E0,-7.562433E-1,4.9062276E-1,1.3085734E0,-4.4437486E-1,6.133967E-1,-6.015441E-1,-2.5005898E-1,-1.2813632E0,4.647692E-1,-9.622032E-1,1.1700202E0,-6.469338E-1,1.439638E0,6.0260624E-1,2.6902816E-1,-9.654193E-1,1.0345713E0,-8.679237E-2,2.3766609E-1,-9.348447E-1,6.6231304E-1,-9.8368114E-1,-1.446343E0,-5.264235E-1],"categories":[],"categories_nodes":[],"categories_segments":[],"categories_sizes":[],"default_left":[1,1,1,1,1,1,1,1,1,1,1,1,1,1,1,0,0,0,0,0,0,0,0,0,0,0,0,0,0,0,0],"id":8,"left_children":[1,3,5,7,9,11,13,15,17,19,21,23,25,27,29,-1,-1,-1,-1,-1,-1,-1,-1,-1,-1,-1,-1,-1,-1,-1,-1],"loss_changes":[1.1112032E1,1.6259388E1,4.9360046E0,7.994083E0,7.0056334E0,3.5582752E0,1.9513378E0,6.1726456E0,6.078808E0,4.2304993E-3,1.5438765E0,1.110537E0,2.5887842E0,3.0992866E0,1.5137959E0,0E0,0E0,0E0,0E0,0E0,0E0,0E0,0E0,0E0,0E0,0E0,0E0,0E0,0E0,0E0,0E0],"parents":[2147483647,0,0,1,1,2,2,3,3,4,4,5,5,6,6,7,7,8,8,9,9,10,10,11,11,12,12,13,13,14,14],"right_children":[2,4,6,8,10,12,14,16,18,20,22,24,26,28,30,-1,-1,-1,-1,-1,-1,-1,-1,-1,-1,-1,-1,-1,-1,-1,-1],"split_conditions":[-1.4579555E-3,-2.545429E-3,-3.492301E-4,8.117449E-1,5.4547096E1,2.1694186E-1,-1.9112258E-3,2.1155949E1,-2.943615E-3,2.0048442E-1,1.09186E-3,-5.687617E-4,-9.847264E-4,1.2212561E-3,7.865661E-1,2.3238461E-2,-4.811016E-2,5.8501013E-2,-3.2346692E-2,7.19819E-2,3.0130312E-2,1.3451408E-2,-4.8270967E-2,5.1728565E-2,-4.3396186E-3,1.1883304E-2,-4.6742234E-2,3.311565E-2,-4.9184058E-2,-7.2317146E-2,-2.6321176E-2],"split_indices":[4,4,0,10,5,9,2,5,4,10,6,2,4,6,7,0,0,0,0,0,0,0,0,0,0,0,0,0,0,0,0],"split_type":[0,0,0,0,0,0,0,0,0,0,0,0,0,0,0,0,0,0,0,0,0,0,0,0,0,0,0,0,0,0,0],"sum_hessian":[6.8375984E1,3.852943E1,2.9846556E1,2.7653046E1,1.0876386E1,9.922242E0,1.9924313E1,2.1767025E1,5.8860207E0,8.421716E0,2.4546697E0,2.4613016E0,7.460941E0,2.6570275E0,1.7267284E1,2.9603417E0,1.8806683E1,3.667246E0,2.2187746E0,6.2265058E0,2.1952097E0,1.2402377E0,1.214432E0,1.2386653E0,1.2226362E0,2.202428E0,5.258513E0,1.2275641E0,1.4294634E0,1.3418955E1,3.8483303E0],"tree_param":{"num_deleted":"0","num_feature":"11","num_nodes":"31","size_leaf_vector":"0"}},{"base_weights":[-4.5967498E-1,-2.5633104E-2,-7.640656E-1,-9.9421436E-1,1.7448749E-1,-4.9040094E-1,-1.3299627E0,-8.664958E-2,-1.2420018E0,9.1756177E-1,-3.2921723E-1,-8.34957E-2,-8.023122E-1,1.8979726E-2,1.1184673E0,5.186905E-1,-5.351341E-1,5.912404E-1,-6.667873E-1,-9.435931E-1,4.0397406E-1],"categories":[],"categories_nodes":[],"categories_segments":[],"categories_sizes":[],"default_left":[1,1,1,1,1,1,0,0,0,1,1,1,1,0,0,0,0,0,0,0,0],"id":9,"left_children":[1,3,5,7,9,11,-1,-1,-1,13,15,17,19,-1,-1,-1,-1,-1,-1,-1,-1],"loss_changes":[9.280658E0,5.9984846E0,5.7502003E0,1.0831695E0,9.942488E0,3.670751E0,0E0,0E0,0E0,1.904994E0,3.0862842E0,5.8629317E0,3.2025404E0,0E0,0E0,0E0,0E0,0E0,0E0,0E0,0E0],"parents":[2147483647,0,0,1,1,2,2,3,3,4,4,5,5,9,9,10,10,11,11,12,12],"right_children":[2,4,6,8,10,12,-1,-1,-1,14,16,18,20,-1,-1,-1,-1,-1,-1,-1,-1],"split_conditions":[2.1694186E-1,4.5817858E-4,1.2538558E-3,6.880629E-4,4.3286213E1,-1.7942763E-4,-6.649814E-2,-4.332479E-3,-6.210009E-2,-1.3799982E-3,-9.159756E-1,6.685267E-4,8.891739E-4,9.4898633E-4,5.592337E-2,2.5934527E-2,-2.6756704E-2,2.956202E-2,-3.3339366E-2,-4.7179654E-2,2.0198703E-2],"split_indices":[9,3,6,6,5,1,0,0,0,1,7,3,0,0,0,0,0,0,0,0,0],"split_type":[0,0,0,0,0,0,0,0,0,0,0,0,0,0,0,0,0,0,0,0,0],"sum_hessian":[6.93933E1,2.9051668E1,4.0341633E1,4.2951446E0,2.4756523E1,2.8449974E1,1.189166E1,1.2106438E0,3.0845008E0,9.669813E0,1.508671E1,1.2895187E1,1.5554787E1,1.9669206E0,7.702893E0,2.6511378E0,1.2435572E1,5.9726076E0,6.92258E0,1.4118938E1,1.4358475E0],"tree_param":{"num_deleted":"0","num_feature":"11","num_nodes":"21","size_leaf_vector":"0"}},{"base_weights":[-4.0023118E-1,-9.830899E-2,-8.4177125E-1,-4.2759097E-1,4.7060788E-1,-4.0150148E-1,-1.1373E0,-7.388279E-1,7.0155394E-1,1.1140366E0,-7.242848E-1,4.7828442E-1,-8.667176E-1,-1.3082068E0,-8.738017E-2,3.7741005E-1,-9.109853E-1,1.3563887E0,-7.386368E-1,1.280674E0,1.4167537E-1,1.4949476E-3,-1.0580368E0,9.5881045E-1,-5.9160984E-1,-3.8422173E-1,-1.2239759E0,-4.1778785E-1,-1.356521E0,3.1559843E-1,-4.571931E-1],"categories":[],"categories_nodes":[],"categories_segments":[],"categories_sizes":[],"default_left":[1,1,1,1,1,1,1,1,1,1,1,1,1,1,1,0,0,0,0,0,0,0,0,0,0,0,0,0,0,0,0],"id":10,"left_children":[1,3,5,7,9,11,13,15,17,19,21,23,25,27,29,-1,-1,-1,-1,-1,-1,-1,-1,-1,-1,-1,-1,-1,-1,-1,-1],"loss_changes":[9.403439E0,8.330224E0,3.28611E0,1.0361573E1,1.3403407E1,5.7758856E0,2.8762665E0,4.65683E0,7.193346E0,1.607955E0,1.537461E0,3.2278693E0,1.0679908E0,4.67968E-2,6.5168613E-1,0E0,0E0,0E0,0E0,0E0,0E0,0E0,0E0,0E0,0E0,0E0,0E0,0E0,0E0,0E0,0E0],"parents":[2147483647,0,0,1,1,2,2,3,3,4,4,5,5,6,6,7,7,8,8,9,9,10,10,11,11,12,12,13,13,14,14],"right_children":[2,4,6,8,10,12,14,16,18,20,22,24,26,28,30,-1,-1,-1,-1,-1,-1,-1,-1,-1,-1,-1,-1,-1,-1,-1,-1],"split_conditions":[-1.2774842E-3,-2.7026082E-3,-7.705167E-4,8.117449E-1,5.2277275E1,6.078576E-1,1.0399031E-3,2.1155949E1,-2.943615E-3,8.9057756E-4,-1.851459E-3,4.1129967E-4,-3.9157027E-4,6.876793E-4,5.9253036E-4,1.8870503E-2,-4.5549266E-2,6.781944E-2,-3.693184E-2,6.40337E-2,7.0837685E-3,7.474738E-5,-5.290184E-2,4.7940522E-2,-2.9580493E-2,-1.9211087E-2,-6.1198797E-2,-2.0889392E-2,-6.7826055E-2,1.5779922E-2,-2.2859655E-2],"split_indices":[4,4,2,10,5,9,3,5,4,3,4,4,4,6,1,0,0,0,0,0,0,0,0,0,0,0,0,0,0,0,0],"split_type":[0,0,0,0,0,0,0,0,0,0,0,0,0,0,0,0,0,0,0,0,0,0,0,0,0,0,0,0,0,0,0],"sum_hessian":[7.01585E1,4.2393055E1,2.7765442E1,2.7008997E1,1.5384058E1,1.2099124E1,1.5666319E1,2.144389E1,5.565108E0,1.0043486E1,5.3405724E0,4.17519E0,7.9239345E0,1.3261581E1,2.4047368E0,2.7060583E0,1.8737831E1,3.865642E0,1.6994658E0,8.303419E0,1.7400657E0,1.9958664E0,3.3447058E0,2.9528093E0,1.2223806E0,4.254069E0,3.6698654E0,1.1790639E0,1.2082518E1,1.2209207E0,1.183816E0],"tree_param":{"num_deleted":"0","num_feature":"11","num_nodes":"31","size_leaf_vector":"0"}},{"base_weights":[-3.63838E-1,-2.5308268E-2,-7.413748E-1,-3.9604783E-1,7.844061E-1,-3.028995E-1,-1.0327617E0,-6.647292E-1,4.6169955E-1,1.137207E0,-3.055227E-1,4.10961E-1,-7.5208324E-1,-1.2212602E0,-3.2842213E-1,5.8942384E-1,-8.922692E-1,1.0907826E0,-5.874523E-1,7.3918946E-2,1.372658E0,2.8849754E-1,-7.208553E-1,7.629149E-1,-5.512769E-1,1.057775E-2,-1.0247196E0,-1.3310032E0,-1.2108685E-1,2.562421E-1,-8.2077885E-1],"categories":[],"categories_nodes":[],"categories_segments":[],"categories_sizes":[],"default_left":[1,1,1,1,1,1,1,1,1,1,1,1,1,1,1,0,0,0,0,0,0,0,0,0,0,0,0,0,0,0,0],"id":11,"left_children":[1,3,5,7,9,11,13,15,17,19,21,23,25,27,29,-1,-1,-1,-1,-1,-1,-1,-1,-1,-1,-1,-1,-1,-1,-1,-1],"loss_changes":[8.652858E0,1.1360145E1,3.7809525E0,6.2786765E0,4.9216285E0,4.8646145E0,2.0994682E0,6.273694E0,5.1095724E0,2.2013865E0,1.1201098E0,2.497799E0,1.8974643E0,1.5883064E0,1.7487088E0,0E0,0E0,0E0,0E0,0E0,0E0,0E0,0E0,0E0,0E0,0E0,0E0,0E0,0E0,0E0,0E0],"parents":[2147483647,0,0,1,1,2,2,3,3,4,4,5,5,6,6,7,7,8,8,9,9,10,10,11,11,12,12,13,13,14,14],"right_children":[2,4,6,8,10,12,14,16,18,20,22,24,26,28,30,-1,-1,-1,-1,-1,-1,-1,-1,-1,-1,-1,-1,-1,-1,-1,-1],"split_conditions":[-1.4579555E-3,-2.545429E-3,-7.6495926E-4,8.117449E-1,5.2277275E1,6.078576E-1,8.744998E-4,2.1155949E1,-2.943615E-3,-1.0168329E-3,-2.1694186E-1,6.0463545E-4,-8.5583405E-4,5.156334E-4,-1.026626E-3,2.9471193E-2,-4.4613462E-2,5.4539133E-2,-2.9372616E-2,3.6959474E-3,6.86329E-2,1.4424877E-2,-3.6042765E-2,3.8145747E-2,-2.7563846E-2,5.2888755E-4,-5.123598E-2,-6.655016E-2,-6.0543427E-3,1.2812105E-2,-4.103894E-2],"split_indices":[4,4,2,10,5,9,3,5,4,1,9,4,4,4,4,0,0,0,0,0,0,0,0,0,0,0,0,0,0,0,0],"split_type":[0,0,0,0,0,0,0,0,0,0,0,0,0,0,0,0,0,0,0,0,0,0,0,0,0,0,0,0,0,0,0],"sum_hessian":[6.6849106E1,3.5807907E1,3.1041199E1,2.491232E1,1.089559E1,1.3206995E1,1.7834204E1,1.9141464E1,5.770855E0,8.198444E0,2.6971452E0,5.133588E0,8.073407E0,1.3490034E1,4.34417E0,2.6952715E0,1.6446192E1,3.5828547E0,2.1880002E0,1.7245203E0,6.4739237E0,1.235492E0,1.4616534E0,3.910431E0,1.2231572E0,2.3791835E0,5.6942234E0,1.2075667E1,1.4143672E0,2.2051532E0,2.139017E0],"tree_param":{"num_deleted":"0","num_feature":"11","num_nodes":"31","size_leaf_vector":"0"}},{"base_weights":[-4.0605682E-1,-7.792057E-2,-9.823671E-1,1.6334535E-1,-6.8241066E-1,-4.5510188E-1,-1.3409457E0,-2.8747702E-1,8.755186E-1,-1.4642449E-1,-9.8434806E-1,4.0579513E-1,-9.510758E-1,-3.449453E-1,-1.4003825E0,2.7883556E-1,-8.425074E-1,1.1894941E0,1.5501241E-1,-1.1101329E0,6.161932E-1,-1.2205402E0,-6.641008E-2,9.903425E-1,-5.8354694E-2,2.267064E-1,-1.2653774E0],"categories":[],"categories_nodes":[],"categories_segments":[],"categories_sizes":[],"default_left":[1,1,1,1,1,1,1,1,1,1,1,1,1,0,0,0,0,0,0,0,0,0,0,0,0,0,0],"id":12,"left_children":[1,3,5,7,9,11,13,15,17,19,21,23,25,-1,-1,-1,-1,-1,-1,-1,-1,-1,-1,-1,-1,-1,-1],"loss_changes":[1.2789656E1,6.5925164E0,4.040304E0,1.0708283E1,1.9386692E0,5.2836676E0,3.532524E-1,6.740277E0,2.7275438E0,4.955764E0,1.6659226E0,1.3855482E0,3.0916457E0,0E0,0E0,0E0,0E0,0E0,0E0,0E0,0E0,0E0,0E0,0E0,0E0,0E0,0E0],"parents":[2147483647,0,0,1,1,2,2,3,3,4,4,5,5,6,6,7,7,8,8,9,9,10,10,11,11,12,12],"right_children":[2,4,6,8,10,12,14,16,18,20,22,24,26,-1,-1,-1,-1,-1,-1,-1,-1,-1,-1,-1,-1,-1,-1],"split_conditions":[-1.0550639E-3,5.1892487E1,-8.626303E-4,-2.620983E-3,-2.8357916E-3,6.078576E-1,3.363034E1,2.1694186E-1,-1.502135E-3,-2.1694186E-1,8.7991636E-4,3.1242702E1,-8.5583405E-4,-1.7247265E-2,-7.0019126E-2,1.3941779E-2,-4.212537E-2,5.9474707E-2,7.7506206E-3,-5.5506647E-2,3.080966E-2,-6.102701E-2,-3.320504E-3,4.9517125E-2,-2.9177347E-3,1.133532E-2,-6.326887E-2],"split_indices":[4,5,2,4,4,9,5,9,4,9,3,5,4,0,0,0,0,0,0,0,0,0,0,0,0,0,0],"split_type":[0,0,0,0,0,0,0,0,0,0,0,0,0,0,0,0,0,0,0,0,0,0,0,0,0,0,0],"sum_hessian":[6.703616E1,4.3438564E1,2.3597597E1,3.1568594E1,1.1869972E1,1.0470553E1,1.3127045E1,1.9696552E1,1.1872041E1,4.812313E0,7.0576596E0,3.8937383E0,6.576815E0,1.122389E0,1.2004655E1,9.995497E0,9.701056E0,7.8154025E0,4.0566382E0,1.9245723E0,2.8877404E0,5.351123E0,1.7065371E0,1.221597E0,2.6721413E0,1.444087E0,5.132728E0],"tree_param":{"num_deleted":"0","num_feature":"11","num_nodes":"27","size_leaf_vector":"0"}},{"base_weights":[-3.7592858E-1,3.859078E-2,-6.6331553E-1,-8.86038E-1,2.6932204E-1,-4.488105E-1,-1.1964768E0,-1.2367389E0,2.7316368E-1,9.31834E-1,-1.9088688E-1,7.893767E-2,-8.837596E-1,-4.8536605E-1,-1.3466067E0,1.2038119E0,-5.3479064E-1,2.4330254E-1,-8.78834E-1,5.5608195E-1,-1.1533802E0,-1.2762886E-1,-1.1684583E0,-8.309216E-1,1.1731364E-1],"categories":[],"categories_nodes":[],"categories_segments":[],"categories_sizes":[],"default_left":[1,1,1,1,1,1,1,0,0,1,1,1,1,1,0,0,0,0,0,0,0,0,0,0,0],"id":13,"left_children":[1,3,5,7,9,11,13,-1,-1,15,17,19,21,23,-1,-1,-1,-1,-1,-1,-1,-1,-1,-1,-1],"loss_changes":[7.959632E0,6.257841E0,3.9675503E0,2.723206E0,7.296073E0,6.8842845E0,4.8870945E-1,0E0,0E0,4.5289145E0,4.576809E0,9.067783E0,3.3719225E0,8.115469E-1,0E0,0E0,0E0,0E0,0E0,0E0,0E0,0E0,0E0,0E0,0E0],"parents":[2147483647,0,0,1,1,2,2,3,3,4,4,5,5,6,6,9,9,10,10,11,11,12,12,13,13],"right_children":[2,4,6,8,10,12,14,-1,-1,16,18,20,22,24,-1,-1,-1,-1,-1,-1,-1,-1,-1,-1,-1],"split_conditions":[2.1694186E-1,4.7991727E-4,1.2602217E-3,7.865661E-1,-3.6745504E-4,-1.7942763E-4,-2.2306845E-3,-6.1836947E-2,1.3658184E-2,6.0463545E-4,-1.8659229E-3,-3.7367438E-4,7.6696253E-4,-3.430909E-3,-6.733034E-2,6.0190596E-2,-2.6739532E-2,1.2165127E-2,-4.3941703E-2,2.7804097E-2,-5.766901E-2,-6.3814432E-3,-5.842292E-2,-4.154608E-2,5.865682E-3],"split_indices":[9,3,6,7,2,1,2,0,0,4,4,4,6,2,0,0,0,0,0,0,0,0,0,0,0],"split_type":[0,0,0,0,0,0,0,0,0,0,0,0,0,0,0,0,0,0,0,0,0,0,0,0,0],"sum_hessian":[6.560121E1,2.7214071E1,3.838714E1,4.8676E0,2.2346472E1,2.8687273E1,9.699866E0,3.6856635E0,1.1819364E0,8.739858E0,1.3606614E1,1.333079E1,1.5356483E1,2.4287472E0,7.2711196E0,7.523803E0,1.2160546E0,8.738041E0,4.8685727E0,1.000549E1,3.3253E0,4.5966215E0,1.0759862E1,1.3029622E0,1.1257849E0],"tree_param":{"num_deleted":"0","num_feature":"11","num_nodes":"25","size_leaf_vector":"0"}},{"base_weights":[-3.5388508E-1,-7.995915E-2,-8.2701516E-1,1.3956317E-1,-6.0251886E-1,-3.7617487E-1,-1.1194314E0,-3.171657E-1,8.882733E-1,4.252732E-1,-7.385817E-1,-6.2473584E-2,-1.108539E0,-2.2629231E-1,-1.278385E0,2.376622E-1,-8.6686707E-1,1.160808E0,1.2781478E-1,4.9012464E-2,-1.0189157E0,6.130285E-1,-6.684108E-1,-8.0911607E-1,5.06324E-1,-1.3448482E0,-3.1519222E-1],"categories":[],"categories_nodes":[],"categories_segments":[],"categories_sizes":[],"default_left":[1,1,1,1,1,1,1,1,1,0,1,1,0,1,1,0,0,0,0,0,0,0,0,0,0,0,0],"id":14,"left_children":[1,3,5,7,9,11,13,15,17,-1,19,21,-1,23,25,-1,-1,-1,-1,-1,-1,-1,-1,-1,-1,-1,-1],"loss_changes":[8.659794E0,5.1025543E0,2.819418E0,1.1093841E1,2.150189E0,2.4985247E0,1.7555866E0,6.420283E0,2.3890018E0,0E0,2.690578E0,4.046364E0,0E0,1.8576959E0,3.4511566E-1,0E0,0E0,0E0,0E0,0E0,0E0,0E0,0E0,0E0,0E0,0E0,0E0],"parents":[2147483647,0,0,1,1,2,2,3,3,4,4,5,5,6,6,7,7,8,8,10,10,11,11,13,13,14,14],"right_children":[2,4,6,8,10,12,14,16,18,-1,20,22,-1,24,26,-1,-1,-1,-1,-1,-1,-1,-1,-1,-1,-1,-1],"split_conditions":[-1.0550639E-3,5.1892487E1,4.082595E1,-2.620983E-3,-9.159756E-1,7.090104E-4,6.2202086E-4,2.1694186E-1,-1.4579555E-3,2.126366E-2,-3.1575297E-3,1.0878777E-3,-5.542695E-2,5.99384E-4,9.159756E-1,1.188311E-2,-4.3343354E-2,5.80404E-2,6.390739E-3,2.4506233E-3,-5.0945785E-2,3.0651426E-2,-3.342054E-2,-4.0455803E-2,2.53162E-2,-6.724241E-2,-1.5759612E-2],"split_indices":[4,5,5,4,7,4,3,9,4,0,4,6,0,3,8,0,0,0,0,0,0,0,0,0,0,0,0],"split_type":[0,0,0,0,0,0,0,0,0,0,0,0,0,0,0,0,0,0,0,0,0,0,0,0,0,0,0],"sum_hessian":[6.632831E1,4.2747807E1,2.3580502E1,3.0618284E1,1.2129523E1,1.0176718E1,1.3403784E1,1.9375319E1,1.1242966E1,1.1695335E0,1.095999E1,7.8846893E0,2.2920284E0,2.39126E0,1.1012524E1,9.925204E0,9.450114E0,7.8891716E0,3.3537946E0,3.0936337E0,7.866356E0,3.7227948E0,4.161895E0,1.2736242E0,1.1176357E0,9.931015E0,1.0815084E0],"tree_param":{"num_deleted":"0","num_feature":"11","num_nodes":"27","size_leaf_vector":"0"}},{"base_weights":[-3.5107443E-1,7.398101E-2,-6.586794E-1,-8.5750914E-1,2.8812096E-1,-4.179416E-1,-1.1894048E0,3.0564758E-1,-1.2141672E0,5.2012646E-1,-8.371601E-1,1.5818244E-1,-6.5298426E-1,6.973703E-1,-9.994449E-1,-1.0780457E0,-8.5311644E-2,-7.315153E-1,7.7917856E-1,4.2662013E-1,-7.765109E-1],"categories":[],"categories_nodes":[],"categories_segments":[],"categories_sizes":[],"default_left":[1,1,1,1,1,1,0,0,0,1,1,1,1,0,0,0,0,0,0,0,0],"id":15,"left_children":[1,3,5,7,9,11,-1,-1,-1,13,15,17,19,-1,-1,-1,-1,-1,-1,-1,-1],"loss_changes":[8.996405E0,6.1574926E0,4.5883713E0,2.7731037E0,6.9206276E0,4.0200195E0,0E0,0E0,0E0,6.409949E0,7.4644303E-1,5.6452503E0,3.0969114E0,0E0,0E0,0E0,0E0,0E0,0E0,0E0,0E0],"parents":[2147483647,0,0,1,1,2,2,3,3,4,4,5,5,9,9,10,10,11,11,12,12],"right_children":[2,4,6,8,10,12,-1,-1,-1,14,16,18,20,-1,-1,-1,-1,-1,-1,-1,-1],"split_conditions":[2.1694186E-1,4.7991727E-4,1.2643568E-3,-2.9660836E-3,6.950097E1,2.8311764E1,-5.9470244E-2,1.5282379E-2,-6.0708363E-2,7.001625E-4,8.439476E-4,8.9258724E-4,4.7041674E-4,3.4868516E-2,-4.9972247E-2,-5.3902287E-2,-4.265582E-3,-3.6575764E-2,3.895893E-2,2.1331007E-2,-3.8825545E-2],"split_indices":[9,3,6,4,5,5,0,0,0,4,3,6,3,0,0,0,0,0,0,0,0],"split_type":[0,0,0,0,0,0,0,0,0,0,0,0,0,0,0,0,0,0,0,0,0],"sum_hessian":[6.743388E1,2.863076E1,3.8803123E1,4.7900457E0,2.3840714E1,2.792417E1,1.0878955E1,1.1576538E0,3.6323922E0,2.02114E1,3.6293159E0,8.186027E0,1.9738144E1,1.8584736E1,1.6266623E0,2.4200823E0,1.2092335E0,3.2918463E0,4.894181E0,1.774613E0,1.796353E1],"tree_param":{"num_deleted":"0","num_feature":"11","num_nodes":"21","size_leaf_vector":"0"}},{"base_weights":[-3.124096E-1,-6.286259E-3,-7.526037E-1,-3.5521618E-1,5.6764346E-1,-1.2729156E-1,-9.28784E-1,-1.133402E-1,-1.2276428E0,9.743105E-1,-3.121199E-1,6.868477E-1,-7.173755E-1,-1.1410329E0,-4.08592E-1,4.751062E-1,-7.3620903E-1,1.546251E-1,1.0843331E0,3.7542352E-1,-8.136879E-1,9.2714256E-1,1.3691969E-1,-1.0000437E0,-3.1932324E-2,4.0766263E-1,-7.123986E-1],"categories":[],"categories_nodes":[],"categories_segments":[],"categories_sizes":[],"default_left":[1,1,1,1,1,1,1,1,0,1,1,1,1,0,1,0,0,0,0,0,0,0,0,0,0,0,0],"id":16,"left_children":[1,3,5,7,9,11,13,15,-1,17,19,21,23,-1,25,-1,-1,-1,-1,-1,-1,-1,-1,-1,-1,-1,-1],"loss_changes":[8.539629E0,7.8931465E0,2.7461176E0,5.0309896E0,5.6372476E0,3.7950625E0,1.7558861E0,7.7844553E0,0E0,7.735796E-1,2.191688E0,3.2227743E-1,8.3501863E-1,0E0,2.123013E0,0E0,0E0,0E0,0E0,0E0,0E0,0E0,0E0,0E0,0E0,0E0,0E0],"parents":[2147483647,0,0,1,1,2,2,3,3,4,4,5,5,6,6,7,7,9,9,10,10,11,11,12,12,14,14],"right_children":[2,4,6,8,10,12,14,16,-1,18,20,22,24,-1,26,-1,-1,-1,-1,-1,-1,-1,-1,-1,-1,-1,-1],"split_conditions":[-1.2774842E-3,-2.7037645E-3,-1.9112258E-3,-2.819105E-3,5.2277275E1,6.078576E-1,6.035534E-1,2.1694186E-1,-6.138214E-2,-5.002605E-4,-1.851459E-3,-2.424417E-3,-1.2849004E-4,-5.7051647E-2,-9.847264E-4,2.375531E-2,-3.6810454E-2,7.731255E-3,5.4216653E-2,1.8771177E-2,-4.06844E-2,4.635713E-2,6.8459846E-3,-5.0002187E-2,-1.5966162E-3,2.0383133E-2,-3.561993E-2],"split_indices":[4,4,2,4,5,9,7,9,0,0,4,2,0,0,4,0,0,0,0,0,0,0,0,0,0,0,0],"split_type":[0,0,0,0,0,0,0,0,0,0,0,0,0,0,0,0,0,0,0,0,0,0,0,0,0,0,0],"sum_hessian":[6.2407246E1,3.7407383E1,2.4999863E1,2.350078E1,1.3906602E1,5.873986E0,1.9125877E1,1.9284235E1,4.2165456E0,9.436944E0,4.469658E0,2.3994625E0,3.474523E0,1.2735889E1,6.3899875E0,1.0038107E1,9.246128E0,1.4014341E0,8.03551E0,1.9913877E0,2.47827E0,1.19247E0,1.2069925E0,2.135072E0,1.3394512E0,1.6405034E0,4.749484E0],"tree_param":{"num_deleted":"0","num_feature":"11","num_nodes":"27","size_leaf_vector":"0"}},{"base_weights":[-3.2869604E-1,-2.2408624E-1,-1.1561741E0,1.3131279E-1,-4.7410578E-1,-3.240835E-1,-1.255513E0,-9.141472E-1,4.0273675E-1,-3.0017966E-1,-1.0965757E0,-5.8146637E-2,-1.1359288E0,1.0180057E0,-7.510887E-2,-1.578574E-1,-8.5302085E-1,-3.2244334E-1,-1.1793257E0],"categories":[],"categories_nodes":[],"categories_segments":[],"categories_sizes":[],"default_left":[1,1,1,1,1,0,0,1,1,1,1,0,0,0,0,0,0,0,0],"id":17,"left_children":[1,3,5,7,9,-1,-1,11,13,15,17,-1,-1,-1,-1,-1,-1,-1,-1],"loss_changes":[5.32466E0,5.2609344E0,1.7165089E-1,7.4464674E0,3.41263E0,0E0,0E0,9.680629E-1,6.10274E0,2.0991764E0,7.9110146E-2,0E0,0E0,0E0,0E0,0E0,0E0,0E0,0E0],"parents":[2147483647,0,0,1,1,2,2,3,3,4,4,7,7,8,8,9,9,10,10],"right_children":[2,4,6,8,10,-1,-1,12,14,16,18,-1,-1,-1,-1,-1,-1,-1,-1],"split_conditions":[1.4367278E-3,2.1694186E-1,-6.984593E-4,4.5817858E-4,5.4618767E1,-1.6204176E-2,-6.277565E-2,6.880629E-4,-3.6745504E-4,1.2602217E-3,-4.625608E-4,-2.9073318E-3,-5.679644E-2,5.0900288E-2,-3.7554435E-3,-7.89287E-3,-4.2651042E-2,-1.6122168E-2,-5.8966286E-2],"split_indices":[6,9,0,3,5,0,0,6,2,6,0,0,0,0,0,0,0,0,0],"split_type":[0,0,0,0,0,0,0,0,0,0,0,0,0,0,0,0,0,0,0],"sum_hessian":[6.3505463E1,5.7506317E1,5.9991436E0,2.394444E1,3.356188E1,1.094415E0,4.9047284E0,4.447143E0,1.9497297E1,2.739078E1,6.171097E0,1.1748409E0,3.2723024E0,8.028928E0,1.146837E1,2.2805357E1,4.5854244E0,1.0688181E0,5.1022787E0],"tree_param":{"num_deleted":"0","num_feature":"11","num_nodes":"19","size_leaf_vector":"0"}},{"base_weights":[-3.253975E-1,-8.426628E-2,-7.0721483E-1,-6.024214E-1,1.4244117E-1,4.8832364E-2,-9.1271406E-1,-1.265179E0,-2.079998E-1,1.2018151E0,-8.693049E-2,-8.678157E-1,5.2714145E-1,2.0296334E-1,-1.0201905E0,4.4455454E-1,-1.0857878E0,-8.785761E-1,3.2236463E-1,1.0096885E0,-4.0990156E-1,-4.219885E-1,-1.0769813E0],"categories":[],"categories_nodes":[],"categories_segments":[],"categories_sizes":[],"default_left":[1,1,1,1,1,1,1,0,1,0,1,0,1,0,1,0,0,0,0,0,0,0,0],"id":18,"left_children":[1,3,5,7,9,11,13,-1,15,-1,17,-1,19,-1,21,-1,-1,-1,-1,-1,-1,-1,-1],"loss_changes":[5.741736E0,4.755947E0,3.8130274E0,2.9499044E0,7.0211134E0,3.1464067E0,2.4999876E0,0E0,5.5820303E0,0E0,8.16689E0,0E0,2.517436E0,0E0,1.4370728E-1,0E0,0E0,0E0,0E0,0E0,0E0,0E0,0E0],"parents":[2147483647,0,0,1,1,2,2,3,3,4,4,5,5,6,6,8,8,10,10,12,12,14,14],"right_children":[2,4,6,8,10,12,14,-1,16,-1,18,-1,20,-1,22,-1,-1,-1,-1,-1,-1,-1,-1],"split_conditions":[-1.0550639E-3,-3.6472864E-3,-1.9487699E-3,9.0194866E-4,-3.062425E-3,1.8581081E1,3.2870354E1,-6.325895E-2,7.044058E-1,6.0090758E-2,-2.545429E-3,-4.3390784E-2,1.3887889E-3,1.0148167E-2,-6.7627773E-4,2.2227727E-2,-5.428939E-2,-4.3928806E-2,1.6118232E-2,5.0484426E-2,-2.0495078E-2,-2.1099424E-2,-5.3849068E-2],"split_indices":[4,4,2,6,4,5,5,0,9,0,4,0,6,0,0,0,0,0,0,0,0,0,0],"split_type":[0,0,0,0,0,0,0,0,0,0,0,0,0,0,0,0,0,0,0,0,0,0,0],"sum_hessian":[6.2011307E1,3.875613E1,2.3255177E1,1.1291466E1,2.7464666E1,5.1329684E0,1.8122208E1,3.3890567E0,7.9024086E0,4.1336107E0,2.3331055E1,1.4807901E0,3.6521783E0,1.514301E0,1.6607906E1,4.815833E0,3.0865755E0,7.560745E0,1.577031E1,2.3595562E0,1.2926221E0,2.1709502E0,1.4436957E1],"tree_param":{"num_deleted":"0","num_feature":"11","num_nodes":"23","size_leaf_vector":"0"}},{"base_weights":[-3.389078E-1,-2.4086273E-1,-1.1187572E0,1.01513386E-1,-4.6751133E-1,-1.231129E0,-2.4828337E-1,2.855724E-1,-1.0378058E0,-1.18447036E-1,-8.8402665E-1,-9.952837E-1,4.92768E-1,-7.381163E-1,1.8809812E-1,-1.0723617E0,6.2374726E-2],"categories":[],"categories_nodes":[],"categories_segments":[],"categories_sizes":[],"default_left":[1,1,1,1,1,0,0,1,0,1,1,0,0,0,0,0,0],"id":19,"left_children":[1,3,5,7,9,-1,-1,11,-1,13,15,-1,-1,-1,-1,-1,-1],"loss_changes":[4.5902276E0,4.52759E0,3.618288E-1,5.2910094E0,4.9718275E0,0E0,0E0,6.1403813E0,0E0,3.9666805E0,2.8769236E0,0E0,0E0,0E0,0E0,0E0,0E0],"parents":[2147483647,0,0,1,1,2,2,3,3,4,4,7,7,9,9,10,10],"right_children":[2,4,6,8,10,-1,-1,12,-1,14,16,-1,-1,-1,-1,-1,-1],"split_conditions":[1.4367278E-3,-7.6344446E-4,-6.8651803E-4,6.797762E-4,-1.680268E-3,-6.1556455E-2,-1.2414169E-2,4.570206E-4,-5.189029E-2,-3.8270294E-3,8.806135E-4,-4.9764186E-2,2.46384E-2,-3.6905818E-2,9.404906E-3,-5.3618085E-2,3.1187364E-3],"split_indices":[6,2,4,4,4,0,0,3,0,4,3,0,0,0,0,0,0],"split_type":[0,0,0,0,0,0,0,0,0,0,0,0,0,0,0,0,0],"sum_hessian":[6.2558304E1,5.6734344E1,5.82396E0,2.2817806E1,3.3916542E1,4.7911386E0,1.0328212E0,2.028937E1,2.5284355E0,1.9151138E1,1.4765402E1,2.2954712E0,1.7993898E1,5.8724174E0,1.3278721E1,1.2203746E1,2.5616553E0],"tree_param":{"num_deleted":"0","num_feature":"11","num_nodes":"17","size_leaf_vector":"0"}},{"base_weights":[-2.4632478E-1,-8.7050535E-3,-6.438541E-1,-5.1066434E-1,1.8608224E-1,-2.5028223E-1,-9.635245E-1,-1.1001144E-1,-1.1292288E0,-3.3948904E-1,5.43673E-1,3.6935363E-2,-1.0192387E0,-1.0714023E0,-1.0252853E-1,8.801605E-1,-6.821824E-1,-9.5898753E-1,7.7602637E-1,8.8647705E-1,-1.2499854E-2,6.997844E-1,-7.487497E-1,-1.128633E0,-3.1808308E-1],"categories":[],"categories_nodes":[],"categories_segments":[],"categories_sizes":[],"default_left":[1,1,1,1,1,1,1,1,0,1,1,1,0,1,0,0,0,0,0,0,0,0,0,0,0],"id":20,"left_children":[1,3,5,7,9,11,13,15,-1,17,19,21,-1,23,-1,-1,-1,-1,-1,-1,-1,-1,-1,-1,-1],"loss_changes":[5.9831905E0,4.073951E0,2.7412758E0,2.7614844E0,5.8322735E0,2.682511E0,1.072525E0,5.2317624E0,0E0,9.578059E0,3.49395E0,5.5672135E0,0E0,1.24150276E-1,0E0,0E0,0E0,0E0,0E0,0E0,0E0,0E0,0E0,0E0,0E0],"parents":[2147483647,0,0,1,1,2,2,3,3,4,4,5,5,6,6,7,7,9,9,10,10,11,11,13,13],"right_children":[2,4,6,8,10,12,14,16,-1,18,20,22,-1,24,-1,-1,-1,-1,-1,-1,-1,-1,-1,-1,-1],"split_conditions":[-1.0522418E-3,-3.8440346E-3,-8.626303E-4,-5.6174487E-1,-1.2940952E-1,6.797762E-4,5.156334E-4,-3.9847742E-4,-5.6461442E-2,8.117449E-1,-9.5549185E-5,1.2709419E-3,-5.0961938E-2,1.4523701E-3,-5.1264265E-3,4.4008028E-2,-3.410912E-2,-4.7949377E-2,3.880132E-2,4.4323854E-2,-6.249927E-4,3.498922E-2,-3.7437484E-2,-5.643165E-2,-1.5904155E-2],"split_indices":[4,4,2,10,7,4,4,1,0,10,2,6,0,6,0,0,0,0,0,0,0,0,0,0,0],"split_type":[0,0,0,0,0,0,0,0,0,0,0,0,0,0,0,0,0,0,0,0,0,0,0,0,0],"sum_hessian":[6.2399788E1,3.9694588E1,2.27052E1,1.0643933E1,2.9050653E1,1.0975419E1,1.1729781E1,7.174657E0,3.4692767E0,1.1783054E1,1.72676E1,8.683835E0,2.2915843E0,1.0206579E1,1.5232015E0,2.4304142E0,4.744242E0,7.666052E0,4.1170025E0,1.0315577E1,6.952022E0,4.7694144E0,3.9144201E0,9.022885E0,1.1836938E0],"tree_param":{"num_deleted":"0","num_feature":"11","num_nodes":"25","size_leaf_vector":"0"}},{"base_weights":[-2.8211978E-1,-6.0570303E-2,-5.933896E-1,-3.2081234E-1,3.762782E-1,-2.649585E-4,-7.5964737E-1,-9.1489695E-2,-1.1704613E0,8.0908847E-1,-4.0158096E-1,8.018315E-1,-5.2042884E-1,-9.1735774E-1,3.706142E-2,4.040018E-1,-7.269773E-1,-8.818134E-2,1.0643946E0,3.4994024E-1,-8.630333E-1,-9.7952205E-1,2.7959675E-1,-1.1932585E0,-5.669598E-1,6.8178046E-1,-6.0750693E-1],"categories":[],"categories_nodes":[],"categories_segments":[],"categories_sizes":[],"default_left":[1,1,1,1,1,1,1,1,0,1,1,0,1,1,1,0,0,0,0,0,0,0,0,0,0,0,0],"id":21,"left_children":[1,3,5,7,9,11,13,15,-1,17,19,-1,21,23,25,-1,-1,-1,-1,-1,-1,-1,-1,-1,-1,-1,-1],"loss_changes":[4.396674E0,4.516242E0,2.6241379E0,4.719054E0,5.33933E0,3.265637E0,2.6457386E0,6.776944E0,0E0,2.3620515E0,2.3803234E0,0E0,2.0176334E0,1.0046568E0,2.2409656E0,0E0,0E0,0E0,0E0,0E0,0E0,0E0,0E0,0E0,0E0,0E0,0E0],"parents":[2147483647,0,0,1,1,2,2,3,3,4,4,5,5,6,6,7,7,9,9,10,10,12,12,13,13,14,14],"right_children":[2,4,6,8,10,12,14,16,-1,18,20,-1,22,24,26,-1,-1,-1,-1,-1,-1,-1,-1,-1,-1,-1,-1],"split_conditions":[-1.2774842E-3,-2.7026082E-3,-1.9112258E-3,-2.819105E-3,5.186969E1,6.078576E-1,9.585591E-4,2.1694186E-1,-5.8523066E-2,-1.0168329E-3,-1.851459E-3,4.0091574E-2,-8.09954E-4,-7.8713807E-4,-3.5511568E-4,2.020009E-2,-3.6348864E-2,-4.409067E-3,5.3219732E-2,1.7497012E-2,-4.3151665E-2,-4.8976105E-2,1.3979837E-2,-5.9662927E-2,-2.834799E-2,3.4089025E-2,-3.0375347E-2],"split_indices":[4,4,2,4,5,9,3,9,0,1,4,0,1,4,0,0,0,0,0,0,0,0,0,0,0,0,0],"split_type":[0,0,0,0,0,0,0,0,0,0,0,0,0,0,0,0,0,0,0,0,0,0,0,0,0,0,0],"sum_hessian":[6.3276524E1,3.7663635E1,2.5612888E1,2.376928E1,1.3894358E1,5.8269253E0,1.9785963E1,1.9589655E1,4.1796236E0,8.901376E0,4.9929814E0,2.079234E0,3.7476916E0,1.6390076E1,3.3958871E0,1.1211939E1,8.377716E0,2.1167371E0,6.7846394E0,1.9914161E0,3.0015655E0,2.2386708E0,1.5090208E0,7.824042E0,8.566033E0,1.6688826E0,1.7270045E0],"tree_param":{"num_deleted":"0","num_feature":"11","num_nodes":"27","size_leaf_vector":"0"}},{"base_weights":[-2.5894502E-1,-2.650387E-2,-6.072007E-1,-5.553521E-1,2.1983021E-1,-2.0851202E-2,-7.171499E-1,-1.249789E0,-7.3791265E-2,-9.201109E-1,4.376761E-1,3.2839394E-1,-5.638038E-1,-8.2380235E-1,-2.4115983E-1,6.2290144E-1,-1.0602443E0,5.9900653E-1,-6.200864E-1,-7.860011E-2,6.459727E-1,-4.176893E-1,-9.7825456E-1,3.462062E-1,-5.6627035E-1],"categories":[],"categories_nodes":[],"categories_segments":[],"categories_sizes":[],"default_left":[1,1,1,1,1,1,1,0,1,0,1,1,0,1,1,0,0,0,0,0,0,0,0,0,0],"id":22,"left_children":[1,3,5,7,9,11,13,-1,15,-1,17,19,-1,21,23,-1,-1,-1,-1,-1,-1,-1,-1,-1,-1],"loss_changes":[4.8934937E0,4.9967713E0,1.5472193E0,3.9790652E0,6.92005E0,1.1060047E0,8.3569336E-1,0E0,6.331546E0,0E0,4.247129E0,5.144305E-1,0E0,6.095247E-1,1.1782606E0,0E0,0E0,0E0,0E0,0E0,0E0,0E0,0E0,0E0,0E0],"parents":[2147483647,0,0,1,1,2,2,3,3,4,4,5,5,6,6,8,8,10,10,11,11,13,13,14,14],"right_children":[2,4,6,8,10,12,14,-1,16,-1,18,20,-1,22,24,-1,-1,-1,-1,-1,-1,-1,-1,-1,-1],"split_conditions":[-1.2774842E-3,-3.6472864E-3,-7.207964E-4,9.835517E-4,4.523811E-4,-1.2940952E-1,7.865661E-1,-6.248945E-2,-5.6174487E-1,-4.6005543E-2,6.911125E1,-6.035534E-1,-2.819019E-2,6.078576E-1,7.257195E-4,3.1145072E-2,-5.301222E-2,2.9950326E-2,-3.1004319E-2,-3.9300057E-3,3.2298636E-2,-2.0884465E-2,-4.891273E-2,1.731031E-2,-2.8313518E-2],"split_indices":[4,4,0,6,3,7,7,0,10,0,5,7,0,9,3,0,0,0,0,0,0,0,0,0,0],"split_type":[0,0,0,0,0,0,0,0,0,0,0,0,0,0,0,0,0,0,0,0,0,0,0,0,0],"sum_hessian":[5.9650417E1,3.6418926E1,2.3231491E1,1.1174411E1,2.5244516E1,3.8562262E0,1.9375265E1,3.922567E0,7.2518435E0,3.5330644E0,2.1711452E1,2.5872142E0,1.269012E0,1.5231675E1,4.1435905E0,4.466134E0,2.7857094E0,1.9214544E1,2.496908E0,1.4637907E0,1.1234236E0,5.217425E0,1.0014251E1,1.4532201E0,2.6903703E0],"tree_param":{"num_deleted":"0","num_feature":"11","num_nodes":"25","size_leaf_vector":"0"}},{"base_weights":[-2.4938488E-1,-1.5156893E-1,-1.0621052E0,1.4954308E-1,-3.910625E-1,-1.1686296E0,-3.1959715E-1,-7.0894635E-1,4.1665798E-1,-5.6339156E-2,-7.0850223E-1,-1.0497394E0,3.3556288E-1,1.0347575E0,-3.3489022E-2,2.7483654E-1,-1.0365825E0,2.5800398E-2,-1.0078506E0],"categories":[],"categories_nodes":[],"categories_segments":[],"categories_sizes":[],"default_left":[1,1,1,1,1,0,0,1,1,1,1,0,0,0,0,0,0,0,0],"id":23,"left_children":[1,3,5,7,9,-1,-1,11,13,15,17,-1,-1,-1,-1,-1,-1,-1,-1],"loss_changes":[4.773914E0,4.138301E0,1.4080381E-1,6.208592E0,3.3376966E0,0E0,0E0,2.6622546E0,5.6819663E0,5.660529E0,3.5932932E0,0E0,0E0,0E0,0E0,0E0,0E0,0E0,0E0],"parents":[2147483647,0,0,1,1,2,2,3,3,4,4,7,7,8,8,9,9,10,10],"right_children":[2,4,6,8,10,-1,-1,12,14,16,18,-1,-1,-1,-1,-1,-1,-1,-1],"split_conditions":[1.4367278E-3,2.1694186E-1,-7.246353E-4,5.110098E-4,-1.7942763E-4,-5.8431484E-2,-1.5979858E-2,7.865661E-1,-3.6745504E-4,-3.9033103E-4,7.723678E-4,-5.2486967E-2,1.6778145E-2,5.1737875E-2,-1.6744512E-3,1.3741828E-2,-5.1829126E-2,1.29002E-3,-5.0392535E-2],"split_indices":[6,9,4,3,1,0,0,7,2,4,6,0,0,0,0,0,0,0,0],"split_type":[0,0,0,0,0,0,0,0,0,0,0,0,0,0,0,0,0,0,0],"sum_hessian":[6.1076504E1,5.5574287E1,5.502216E0,2.4786343E1,3.0787945E1,4.3099847E0,1.1922309E0,5.489469E0,1.9296873E1,1.5559138E1,1.52288065E1,4.13525E0,1.3542192E0,7.584223E0,1.1712651E1,1.2167849E1,3.3912897E0,4.6749496E0,1.0553857E1],"tree_param":{"num_deleted":"0","num_feature":"11","num_nodes":"19","size_leaf_vector":"0"}},{"base_weights":[-2.4632525E-1,3.161342E-2,-5.763813E-1,-5.6876445E-1,3.1793588E-1,-1.1299122E-1,-7.7126956E-1,1.1094316E-1,-9.281467E-1,4.1762137E-1,-8.7409395E-1,-3.4230164E-1,5.708444E-1,-3.159522E-1,-9.577173E-1,6.698562E-1,-7.9200876E-1,9.60952E-2,-1.3017368E0,1.0646815E0,2.4378064E-1,-5.2959305E-1,2.9614386E-1,3.9162692E-1,-8.6433494E-1,-1.0642097E0,-6.481703E-2],"categories":[],"categories_nodes":[],"categories_segments":[],"categories_sizes":[],"default_left":[1,1,1,1,1,1,1,1,1,1,0,1,0,1,1,0,0,0,0,0,0,0,0,0,0,0,0],"id":24,"left_children":[1,3,5,7,9,11,13,15,17,19,-1,21,-1,23,25,-1,-1,-1,-1,-1,-1,-1,-1,-1,-1,-1,-1],"loss_changes":[5.595386E0,6.017213E0,2.4274616E0,2.8686225E0,3.172946E0,1.6718029E0,1.3468084E0,2.9575205E0,2.9998527E0,2.2694695E0,0E0,1.0746932E0,0E0,3.1078079E0,1.1949415E0,0E0,0E0,0E0,0E0,0E0,0E0,0E0,0E0,0E0,0E0,0E0,0E0],"parents":[2147483647,0,0,1,1,2,2,3,3,4,4,5,5,6,6,7,7,8,8,9,9,11,11,13,13,14,14],"right_children":[2,4,6,8,10,12,14,16,18,20,-1,22,-1,24,26,-1,-1,-1,-1,-1,-1,-1,-1,-1,-1,-1,-1],"split_conditions":[-1.4579555E-3,-3.8270294E-3,-3.492301E-4,-6.035534E-1,2.3601698E-3,-5.34485E-4,-9.068743E-4,1.441949E-3,-7.865661E-1,-3.1551146E-3,-4.37047E-2,8.117449E-1,2.854222E-2,1.2404943E-3,5.156334E-4,3.349281E-2,-3.960044E-2,4.8047598E-3,-6.508684E-2,5.3234078E-2,1.21890325E-2,-2.6479652E-2,1.4807194E-2,1.9581346E-2,-4.3216746E-2,-5.3210486E-2,-3.2408517E-3],"split_indices":[4,4,0,7,1,0,2,6,8,4,0,10,0,6,4,0,0,0,0,0,0,0,0,0,0,0,0],"split_type":[0,0,0,0,0,0,0,0,0,0,0,0,0,0,0,0,0,0,0,0,0,0,0,0,0,0,0],"sum_hessian":[5.9796253E1,3.2951862E1,2.6844393E1,1.0321881E1,2.262998E1,8.41519E0,1.8429203E1,3.809045E0,6.5128365E0,2.1483076E1,1.1469032E0,6.6759753E0,1.7392141E0,6.136954E0,1.2292249E1,2.5121887E0,1.2968565E0,1.9391645E0,4.573672E0,3.4642344E0,1.8018843E1,5.293573E0,1.3824022E0,2.804349E0,3.332605E0,1.0811009E1,1.4812402E0],"tree_param":{"num_deleted":"0","num_feature":"11","num_nodes":"27","size_leaf_vector":"0"}},{"base_weights":[-2.2249426E-1,-1.12593144E-1,-9.5884633E-1,8.245399E-2,-4.953191E-1,1.6023946E-1,-1.1708254E0,-1.6109078E-1,4.6028173E-1,8.317685E-3,-9.028903E-1,9.153172E-2,-1.1199672E0,7.554734E-1,-8.1120215E-2,4.021556E-1,-9.431593E-1,-1.0384672E0,-8.060269E-2],"categories":[],"categories_nodes":[],"categories_segments":[],"categories_sizes":[],"default_left":[1,1,1,1,1,0,0,1,1,1,1,0,0,0,0,0,0,0,0],"id":25,"left_children":[1,3,5,7,9,-1,-1,11,13,15,17,-1,-1,-1,-1,-1,-1,-1,-1],"loss_changes":[4.733448E0,4.0113683E0,1.9991221E0,3.3951151E0,3.722538E0,0E0,0E0,5.5977454E0,2.3634155E0,3.7840955E0,1.0325079E0,0E0,0E0,0E0,0E0,0E0,0E0,0E0,0E0],"parents":[2147483647,0,0,1,1,2,2,3,3,4,4,7,7,8,8,9,9,10,10],"right_children":[2,4,6,8,10,-1,-1,12,14,16,18,-1,-1,-1,-1,-1,-1,-1,-1],"split_conditions":[1.4194584E-3,-1.0550639E-3,-8.850945E-4,-2.7026082E-3,-8.626303E-4,8.011973E-3,-5.8541268E-2,-2.819105E-3,-1.502135E-3,7.090104E-4,5.156334E-4,4.5765857E-3,-5.5998363E-2,3.777367E-2,-4.056011E-3,2.0107782E-2,-4.7157966E-2,-5.192336E-2,-4.0301345E-3],"split_indices":[6,4,0,4,2,0,0,4,4,4,4,0,0,0,0,0,0,0,0],"split_type":[0,0,0,0,0,0,0,0,0,0,0,0,0,0,0,0,0,0,0],"sum_hessian":[5.8825184E1,5.218886E1,6.6363215E0,3.5090427E1,1.7098434E1,1.09574E0,5.5405817E0,2.1685661E1,1.3404766E1,8.0860615E0,9.012374E0,1.7879683E1,3.8059804E0,8.419016E0,4.98575E0,6.127207E0,1.9588546E0,7.511067E0,1.5013075E0],"tree_param":{"num_deleted":"0","num_feature":"11","num_nodes":"19","size_leaf_vector":"0"}},{"base_weights":[-2.4511875E-1,4.7879186E-1,-3.312283E-1,9.08883E-1,-6.122079E-1,-2.4085577E-1,-9.938728E-1,1.1385378E0,-3.1415352E-3,4.2402068E-1,-3.3595723E-1,-2.3339318E-1,-1.0999657E0,-7.1170485E-1,8.015143E-1,-8.758192E-1,-1.9761972E-1],"categories":[],"categories_nodes":[],"categories_segments":[],"categories_sizes":[],"default_left":[1,1,1,1,0,1,1,0,0,1,1,0,0,0,0,0,0],"id":26,"left_children":[1,3,5,7,-1,9,11,-1,-1,13,15,-1,-1,-1,-1,-1,-1],"loss_changes":[3.7961338E0,3.659101E0,2.9190626E0,1.0812278E0,0E0,3.1605823E0,2.2816372E-1,0E0,0E0,3.320786E0,2.9872813E0,0E0,0E0,0E0,0E0,0E0,0E0],"parents":[2147483647,0,0,1,1,2,2,3,3,5,5,6,6,9,9,10,10],"right_children":[2,4,6,8,-1,10,12,-1,-1,14,16,-1,-1,-1,-1,-1,-1],"split_conditions":[6.8944553E-4,4.567431E1,1.4367278E-3,6.6133845E-4,-3.0610396E-2,-2.2233943E-3,-6.984593E-4,5.6926887E-2,-1.5707676E-4,1.6500793E1,-8.905548E-4,-1.1669659E-2,-5.4998286E-2,-3.5585243E-2,4.0075716E-2,-4.3790963E-2,-9.880986E-3],"split_indices":[6,5,6,3,0,2,0,0,0,5,1,0,0,0,0,0,0],"split_type":[0,0,0,0,0,0,0,0,0,0,0,0,0,0,0,0,0],"sum_hessian":[5.73542E1,5.612281E0,5.1741917E1,4.1451263E0,1.4671545E0,4.673201E1,5.009909E0,3.112909E0,1.0322176E0,5.4151096E0,4.13169E1,1.0051111E0,4.004798E0,1.1300136E0,4.285096E0,7.3403115E0,3.397659E1],"tree_param":{"num_deleted":"0","num_feature":"11","num_nodes":"17","size_leaf_vector":"0"}},{"base_weights":[-2.8012946E-1,4.1334957E-1,-3.5456797E-1,8.520327E-1,-5.9695715E-1,-2.7242407E-1,-9.7300154E-1,1.4668287E-1,1.0421432E0,4.8938822E-2,-4.6778396E-1,-2.2807711E-1,-1.0784246E0,-4.9407682E-1,3.3024532E-1,-5.3466034E-1,5.525678E-1],"categories":[],"categories_nodes":[],"categories_segments":[],"categories_sizes":[],"default_left":[1,1,1,1,0,1,1,0,0,1,1,0,0,0,0,0,0],"id":27,"left_children":[1,3,5,7,-1,9,11,-1,-1,13,15,-1,-1,-1,-1,-1,-1],"loss_changes":[3.1851192E0,3.242121E0,2.462646E0,4.790299E-1,0E0,3.0858543E0,2.1792126E-1,0E0,0E0,3.119059E0,2.3723798E0,0E0,0E0,0E0,0E0,0E0,0E0],"parents":[2147483647,0,0,1,1,2,2,3,3,5,5,6,6,9,9,10,10],"right_children":[2,4,6,8,-1,10,12,-1,-1,14,16,-1,-1,-1,-1,-1,-1],"split_conditions":[6.8846426E-4,4.567431E1,1.438499E-3,-1.0881281E-3,-2.9847858E-2,-7.6344446E-4,-6.984593E-4,7.334144E-3,5.2107163E-2,9.840941E-4,3.0655854E-3,-1.1403856E-2,-5.392123E-2,-2.4703842E-2,1.6512265E-2,-2.6733017E-2,2.762839E-2],"split_indices":[6,5,6,2,0,2,0,0,0,6,2,0,0,0,0,0,0],"split_type":[0,0,0,0,0,0,0,0,0,0,0,0,0,0,0,0,0],"sum_hessian":[5.7862206E1,5.1675673E0,5.2694637E1,3.7123117E0,1.4552557E0,4.778771E1,4.9069304E0,1.1642532E0,2.5480585E0,1.8350695E1,2.9437014E1,1.0005368E0,3.9063935E0,6.0042048E0,1.2346489E1,2.807304E1,1.3639725E0],"tree_param":{"num_deleted":"0","num_feature":"11","num_nodes":"17","size_leaf_vector":"0"}},{"base_weights":[-2.393215E-1,-4.1049957E-2,-5.985226E-1,-5.1001436E-1,1.6185205E-1,3.3658665E-1,-7.9918844E-1,1.0559765E-1,-9.159693E-1,-7.2288245E-1,3.739731E-1,7.153574E-1,-6.9608964E-2,-9.5698E-2,-9.418076E-1,5.793065E-1,-7.650141E-1,-1.4603117E-1,-1.0965813E0,-1.0970558E0,2.9306287E-1,-9.814516E-2,7.3894656E-1,8.4530157E-1,-8.1089455E-1,-6.6744626E-2,-1.0555123E0],"categories":[],"categories_nodes":[],"categories_segments":[],"categories_sizes":[],"default_left":[1,1,1,1,1,1,1,1,1,1,1,0,0,1,1,0,0,0,0,0,0,0,0,0,0,0,0],"id":28,"left_children":[1,3,5,7,9,11,13,15,17,19,21,-1,-1,23,25,-1,-1,-1,-1,-1,-1,-1,-1,-1,-1,-1,-1],"loss_changes":[4.093244E0,3.7296479E0,4.113882E0,3.0496705E0,5.433626E0,7.150364E-1,1.6322012E0,2.7494638E0,8.444176E-1,2.4737022E0,4.0099735E0,0E0,0E0,3.38193E0,1.3384314E0,0E0,0E0,0E0,0E0,0E0,0E0,0E0,0E0,0E0,0E0,0E0,0E0],"parents":[2147483647,0,0,1,1,2,2,3,3,4,4,5,5,6,6,7,7,8,8,9,9,10,10,13,13,14,14],"right_children":[2,4,6,8,10,12,14,16,18,20,22,-1,-1,24,26,-1,-1,-1,-1,-1,-1,-1,-1,-1,-1,-1,-1],"split_conditions":[-1.0550639E-3,-3.8270294E-3,-7.207964E-4,-3.7940952E-1,4.6616577E-4,-4.746497E-4,6.2202086E-4,-5.2560293E-3,-9.159756E-1,7.865661E-1,-1.2940952E-1,3.5767872E-2,-3.4804482E-3,-1.7986825E-4,-2.4484098E-3,2.8965324E-2,-3.8250707E-2,-7.3015587E-3,-5.482907E-2,-5.485279E-2,1.46531435E-2,-4.907258E-3,3.694733E-2,4.226508E-2,-4.054473E-2,-3.3372312E-3,-5.2775618E-2],"split_indices":[4,4,0,8,3,4,3,4,7,7,7,0,0,2,2,0,0,0,0,0,0,0,0,0,0,0,0],"split_type":[0,0,0,0,0,0,0,0,0,0,0,0,0,0,0,0,0,0,0,0,0,0,0,0,0,0,0],"sum_hessian":[5.681874E1,3.7328476E1,1.9490263E1,1.0816005E1,2.6512472E1,3.3238177E0,1.6166445E1,4.5921297E0,6.2238755E0,4.661591E0,2.1850882E1,1.3261184E0,1.9976993E0,3.0066578E0,1.3159787E1,3.190658E0,1.4014714E0,1.5262212E0,4.6976542E0,3.348499E0,1.3130922E0,9.845778E0,1.2005102E1,1.2198111E0,1.7868469E0,1.6958271E0,1.1463961E1],"tree_param":{"num_deleted":"0","num_feature":"11","num_nodes":"27","size_leaf_vector":"0"}},{"base_weights":[-1.933602E-1,1.7206049E-1,-4.6767995E-1,-5.753105E-1,3.274356E-1,-2.2937787E-1,-1.0774608E0,2.7508983E-1,-9.76394E-1,8.609883E-1,-1.660117E-2,1.7639187E-1,-5.858443E-1,3.790319E-1,1.0368043E0,-7.142712E-1,3.609309E-1,7.4679315E-1,-3.6258993E-1,1.6210744E-1,-8.611816E-1],"categories":[],"categories_nodes":[],"categories_segments":[],"categories_sizes":[],"default_left":[1,1,1,1,1,1,0,0,0,1,1,1,1,0,0,0,0,0,0,0,0],"id":29,"left_children":[1,3,5,7,9,11,-1,-1,-1,13,15,17,19,-1,-1,-1,-1,-1,-1,-1,-1],"loss_changes":[5.937311E0,3.1825402E0,4.641517E0,1.9059819E0,4.049691E0,3.7859273E0,0E0,0E0,0E0,3.3889103E-1,4.0366287E0,4.167556E0,2.9784155E0,0E0,0E0,0E0,0E0,0E0,0E0,0E0,0E0],"parents":[2147483647,0,0,1,1,2,2,3,3,4,4,5,5,9,9,10,10,11,11,12,12],"right_children":[2,4,6,8,10,12,-1,-1,-1,14,16,18,20,-1,-1,-1,-1,-1,-1,-1,-1],"split_conditions":[2.1694186E-1,4.7991727E-4,1.2602217E-3,6.933969E-4,-3.6745504E-4,-1.7942763E-4,-5.387304E-2,1.3754492E-2,-4.8819702E-2,9.6286705E-4,6.237167E-5,6.685267E-4,7.723678E-4,1.8951595E-2,5.1840216E-2,-3.571356E-2,1.8046545E-2,3.7339658E-2,-1.8129496E-2,8.105372E-3,-4.305908E-2],"split_indices":[9,3,6,6,2,1,0,0,0,6,1,3,6,0,0,0,0,0,0,0,0],"split_type":[0,0,0,0,0,0,0,0,0,0,0,0,0,0,0,0,0,0,0,0,0],"sum_hessian":[5.742696E1,2.4784441E1,3.2642517E1,3.8005702E0,2.098387E1,2.4459803E1,8.182716E0,1.3187062E0,2.481864E0,7.6371374E0,1.3346733E1,1.1675086E1,1.2784717E1,2.884856E0,4.7522817E0,4.373206E0,8.973527E0,5.484893E0,6.1901927E0,3.5506487E0,9.234068E0],"tree_param":{"num_deleted":"0","num_feature":"11","num_nodes":"21","size_leaf_vector":"0"}},{"base_weights":[-1.7574833E-1,2.2589877E-2,-5.277366E-1,-5.1831627E-1,2.5753465E-1,-1.856054E-1,-8.1822765E-1,5.9511524E-1,-7.02846E-1,-7.3997927E-1,4.8313186E-1,1.1556897E-1,-9.443338E-1,-9.439848E-1,9.401006E-2,-1.938422E-1,-1.1874076E0,-1.0264444E0,1.9070484E-1,-7.04295E-2,8.892012E-1,5.434129E-1,-5.111378E-1,-2.4104524E-1,-9.965574E-1],"categories":[],"categories_nodes":[],"categories_segments":[],"categories_sizes":[],"default_left":[1,1,1,1,1,1,1,0,1,1,1,1,0,1,0,0,0,0,0,0,0,0,0,0,0],"id":30,"left_children":[1,3,5,7,9,11,13,-1,15,17,19,21,-1,23,-1,-1,-1,-1,-1,-1,-1,-1,-1,-1,-1],"loss_changes":[4.0608196E0,4.9694395E0,1.9295821E0,2.8540947E0,6.4780736E0,2.6022081E0,1.3544459E0,0E0,2.391261E0,1.638519E0,5.184685E0,2.6107705E0,0E0,1.2145805E-1,0E0,0E0,0E0,0E0,0E0,0E0,0E0,0E0,0E0,0E0,0E0],"parents":[2147483647,0,0,1,1,2,2,3,3,4,4,5,5,6,6,8,8,9,9,10,10,11,11,13,13],"right_children":[2,4,6,8,10,12,14,-1,16,18,20,22,-1,24,-1,-1,-1,-1,-1,-1,-1,-1,-1,-1,-1],"split_conditions":[-1.0550639E-3,-3.8270294E-3,-8.626303E-4,6.2406115E-4,4.6405336E-4,6.797762E-4,5.156334E-4,2.9755762E-2,-6.1232336E-17,7.865661E-1,-1.2940952E-1,-6.4156414E-4,-4.721669E-2,-7.707361E-4,4.7005033E-3,-9.69211E-3,-5.937038E-2,-5.132222E-2,9.535242E-3,-3.5214748E-3,4.4460062E-2,2.7170647E-2,-2.555689E-2,-1.2052262E-2,-4.982787E-2],"split_indices":[4,4,2,3,3,4,4,0,8,7,7,1,0,0,0,0,0,0,0,0,0,0,0,0,0],"split_type":[0,0,0,0,0,0,0,0,0,0,0,0,0,0,0,0,0,0,0,0,0,0,0,0,0],"sum_hessian":[5.6996567E1,3.7053497E1,1.9943068E1,1.0855377E1,2.6198122E1,9.910146E0,1.0032921E1,1.2269657E0,9.628411E0,4.4115705E0,2.178655E1,7.7009597E0,2.2091863E0,8.786808E0,1.2461127E0,5.3785715E0,4.24984E0,3.2945983E0,1.1169721E0,9.568775E0,1.2217775E1,4.6555724E0,3.045387E0,1.0000675E0,7.786741E0],"tree_param":{"num_deleted":"0","num_feature":"11","num_nodes":"25","size_leaf_vector":"0"}},{"base_weights":[-1.712885E-1,2.276764E-2,-5.4058313E-1,-7.221149E-1,1.3618664E-1,-4.8108213E-2,-9.659544E-1,2.2208174E-1,-1.0315833E0,-3.4226522E-1,3.4811902E-1,2.4111739E-1,-8.813304E-1,-1.0304719E0,-2.1290043E-1,3.119432E-1,-8.126923E-1,6.170583E-1,-2.5751755E-1,7.374133E-1,-5.068848E-1],"categories":[],"categories_nodes":[],"categories_segments":[],"categories_sizes":[],"default_left":[1,1,1,1,1,1,1,0,0,1,1,1,0,0,0,0,0,0,0,0,0],"id":31,"left_children":[1,3,5,7,9,11,13,-1,-1,15,17,19,-1,-1,-1,-1,-1,-1,-1,-1,-1],"loss_changes":[4.0525694E0,3.301728E0,4.0302677E0,1.7395239E0,3.5411735E0,2.639608E0,2.8538132E-1,0E0,0E0,3.5970213E0,4.0490932E0,3.4406905E0,0E0,0E0,0E0,0E0,0E0,0E0,0E0,0E0,0E0],"parents":[2147483647,0,0,1,1,2,2,3,3,4,4,5,5,6,6,9,9,10,10,11,11],"right_children":[2,4,6,8,10,12,14,-1,-1,16,18,20,-1,-1,-1,-1,-1,-1,-1,-1,-1],"split_conditions":[-1.0550639E-3,4.6528893E-4,-8.626303E-4,6.904913E-4,-3.8270294E-3,6.797762E-4,1.4318314E-3,1.1104087E-2,-5.1579166E-2,-2.1694186E-1,5.4653572E1,1.2786472E-3,-4.406652E-2,-5.1523596E-2,-1.0645022E-2,1.559716E-2,-4.0634613E-2,3.0852914E-2,-1.2875877E-2,3.6870666E-2,-2.5344241E-2],"split_indices":[4,3,2,6,4,4,6,0,0,9,5,6,0,0,0,0,0,0,0,0,0],"split_type":[0,0,0,0,0,0,0,0,0,0,0,0,0,0,0,0,0,0,0,0,0],"sum_hessian":[5.537793E1,3.6917137E1,1.846079E1,4.1691747E0,3.2747963E1,9.071423E0,9.389369E0,1.0988694E0,3.0703053E0,9.864101E0,2.2883862E1,7.2614646E0,1.8099575E0,8.309101E0,1.0802677E0,4.2670045E0,5.5970974E0,1.5833826E1,7.050036E0,4.3736954E0,2.8877697E0],"tree_param":{"num_deleted":"0","num_feature":"11","num_nodes":"21","size_leaf_vector":"0"}},{"base_weights":[-1.6612186E-1,-8.2527846E-2,-9.173605E-1,-1.1080394E-2,-9.9569833E-1,-1.0350208E0,-2.1290924E-1,2.7039912E-1,-2.4241988E-1,-5.7050693E-1,5.0810206E-1,1.3355303E-1,-6.0887074E-1],"categories":[],"categories_nodes":[],"categories_segments":[],"categories_sizes":[],"default_left":[1,1,1,1,0,0,0,1,1,0,0,0,0],"id":32,"left_children":[1,3,5,7,-1,-1,-1,9,11,-1,-1,-1,-1],"loss_changes":[3.4516494E0,3.3583786E0,2.3762035E-1,3.250262E0,0E0,0E0,0E0,4.794393E0,3.8524878E0,0E0,0E0,0E0,0E0],"parents":[2147483647,0,0,1,1,2,2,3,3,7,7,8,8],"right_children":[2,4,6,8,-1,-1,-1,10,12,-1,-1,-1,-1],"split_conditions":[1.4387316E-3,6.797762E-4,-7.246353E-4,2.1694186E-1,-4.9784917E-2,-5.1751044E-2,-1.0645462E-2,5.110098E-4,-1.7942763E-4,-2.8525347E-2,2.5405103E-2,6.6776513E-3,-3.0443538E-2],"split_indices":[6,4,4,9,0,0,0,3,1,0,0,0,0],"split_type":[0,0,0,0,0,0,0,0,0,0,0,0,0],"sum_hessian":[5.5168964E1,5.064347E1,4.525492E0,4.7907288E1,2.7361846E0,3.4757068E0,1.0497854E0,2.153545E1,2.6371838E1,4.4374146E0,1.7098034E1,1.3330501E1,1.3041337E1],"tree_param":{"num_deleted":"0","num_feature":"11","num_nodes":"13","size_leaf_vector":"0"}},{"base_weights":[-2.4014166E-1,-3.080995E-2,-6.2030196E-1,1.877173E-1,-5.483005E-1,1.5356302E-2,-8.6038524E-1,-1.368829E-1,7.254939E-1,-8.999597E-1,-1.1802413E-1,-5.0337344E-1,5.5162853E-1,-3.2033843E-1,-1.1373255E0,2.9993156E-1,-5.8162576E-1,1.74161E-1,1.1007379E0,-1.1098171E0,3.5439342E-2,1.0134203E0,-6.5899163E-1,1.3556042E-1,-8.4472364E-1,8.642893E-1,-9.895141E-2,8.81054E-2,-8.063487E-1],"categories":[],"categories_nodes":[],"categories_segments":[],"categories_sizes":[],"default_left":[1,1,1,1,1,1,1,1,1,1,1,1,1,1,0,0,0,0,0,0,0,0,0,0,0,0,0,0,0],"id":33,"left_children":[1,3,5,7,9,11,13,15,17,19,21,23,25,27,-1,-1,-1,-1,-1,-1,-1,-1,-1,-1,-1,-1,-1,-1,-1],"loss_changes":[4.462685E0,4.3291345E0,3.0572953E0,4.816127E0,1.6112926E0,2.072167E0,1.8036842E0,3.6113594E0,1.9452887E0,1.235807E0,4.4968286E0,9.437089E-1,8.277502E-1,1.3228092E0,0E0,0E0,0E0,0E0,0E0,0E0,0E0,0E0,0E0,0E0,0E0,0E0,0E0,0E0,0E0],"parents":[2147483647,0,0,1,1,2,2,3,3,4,4,5,5,6,6,7,7,8,8,9,9,10,10,11,11,12,12,13,13],"right_children":[2,4,6,8,10,12,14,16,18,20,22,24,26,28,-1,-1,-1,-1,-1,-1,-1,-1,-1,-1,-1,-1,-1,-1,-1],"split_conditions":[-1.0550639E-3,5.1892487E1,-1.9112258E-3,-2.625328E-3,2.0048442E-1,-1.3071359E-3,7.257195E-4,2.1694186E-1,3.3953964E1,1.6463427E-3,6.951953E-4,-3.4265108E-3,-5.806675E-4,1.0182452E-3,-5.6866277E-2,1.4996578E-2,-2.9081289E-2,8.7080505E-3,5.50369E-2,-5.549086E-2,1.7719672E-3,5.067102E-2,-3.294958E-2,6.7780213E-3,-4.2236183E-2,4.3214466E-2,-4.9475706E-3,4.4052703E-3,-4.0317435E-2],"split_indices":[4,5,2,4,10,1,3,9,5,1,3,2,1,6,0,0,0,0,0,0,0,0,0,0,0,0,0,0,0],"split_type":[0,0,0,0,0,0,0,0,0,0,0,0,0,0,0,0,0,0,0,0,0,0,0,0,0,0,0,0,0],"sum_hessian":[5.5318398E1,3.6371704E1,1.8946693E1,2.602082E1,1.0350884E1,5.450821E0,1.34958725E1,1.6691406E1,9.329413E0,5.0951233E0,5.255761E0,2.801912E0,2.6489089E0,5.3058734E0,8.189999E0,8.58503E0,8.106378E0,4.3711557E0,4.958258E0,4.009194E0,1.0859296E0,1.4175595E0,3.838202E0,1.1855983E0,1.6163138E0,1.5672278E0,1.081681E0,3.3278553E0,1.9780183E0],"tree_param":{"num_deleted":"0","num_feature":"11","num_nodes":"29","size_leaf_vector":"0"}},{"base_weights":[-2.0880596E-1,9.6187524E-2,-4.484238E-1,-6.2435395E-1,3.0599964E-1,-1.9208327E-1,-7.688163E-1,-9.387214E-1,2.8380597E-1,9.3865144E-1,-6.9194406E-2,6.346736E-1,-4.8006508E-1,-9.180624E-1,2.5094202E-1,1.1365885E0,-1.3731275E-1,3.450832E-1,-7.259971E-1,9.8522615E-1,-3.8979805E-1,-9.056619E-1,7.1894385E-2,-1.0071619E0,-2.877985E-2],"categories":[],"categories_nodes":[],"categories_segments":[],"categories_sizes":[],"default_left":[1,1,1,1,1,1,1,0,0,1,1,1,1,1,0,0,0,0,0,0,0,0,0,0,0],"id":34,"left_children":[1,3,5,7,9,11,13,-1,-1,15,17,19,21,23,-1,-1,-1,-1,-1,-1,-1,-1,-1,-1,-1],"loss_changes":[4.0387454E0,3.9521306E0,2.3814754E0,1.9621055E0,4.797806E0,4.69518E0,2.2628298E0,0E0,0E0,1.7515359E0,3.9095943E0,2.2495644E0,3.4116383E0,9.1105175E-1,0E0,0E0,0E0,0E0,0E0,0E0,0E0,0E0,0E0,0E0,0E0],"parents":[2147483647,0,0,1,1,2,2,3,3,4,4,5,5,6,6,9,9,10,10,11,11,12,12,13,13],"right_children":[2,4,6,8,10,12,14,-1,-1,16,18,20,22,24,-1,-1,-1,-1,-1,-1,-1,-1,-1,-1,-1],"split_conditions":[2.1694186E-1,5.110098E-4,-1.3884564E-4,7.865661E-1,-3.6745504E-4,6.2202086E-4,9.238373E-4,-4.6936072E-2,1.41902985E-2,4.1129967E-4,-1.8659229E-3,-2.4741908E-4,3.7940952E-1,1.0381276E-3,1.2547101E-2,5.6829423E-2,-6.865638E-3,1.725416E-2,-3.6299855E-2,4.926131E-2,-1.9489903E-2,-4.5283094E-2,3.5947193E-3,-5.0358094E-2,-1.4389924E-3],"split_indices":[9,3,1,7,2,3,0,0,0,4,4,2,8,3,0,0,0,0,0,0,0,0,0,0,0],"split_type":[0,0,0,0,0,0,0,0,0,0,0,0,0,0,0,0,0,0,0,0,0,0,0,0,0],"sum_hessian":[5.3673088E1,2.3878424E1,2.9794664E1,4.9394565E0,1.8938969E1,1.7440413E1,1.2354252E1,3.6442986E0,1.2951581E0,6.4914002E0,1.2447568E1,4.1945524E0,1.3245861E1,1.0863985E1,1.4902661E0,5.4351854E0,1.0562146E0,7.9240704E0,4.5234976E0,3.1537232E0,1.0408293E0,7.117213E0,6.1286483E0,9.754138E0,1.1098478E0],"tree_param":{"num_deleted":"0","num_feature":"11","num_nodes":"25","size_leaf_vector":"0"}},{"base_weights":[-2.1801488E-1,-1.4071858E-1,-8.9076275E-1,-7.3702686E-2,-9.610904E-1,-1.0151099E0,-1.6952807E-1,-3.916077E-3,-7.284088E-1,3.04324E-1,-2.221504E-1,-1.5230712E-1,-8.900455E-1],"categories":[],"categories_nodes":[],"categories_segments":[],"categories_sizes":[],"default_left":[1,1,1,1,0,0,0,1,1,0,0,0,0],"id":35,"left_children":[1,3,5,7,-1,-1,-1,9,11,-1,-1,-1,-1],"loss_changes":[2.7183466E0,2.6911147E0,3.1650925E-1,2.1686206E0,0E0,0E0,0E0,3.0243242E0,2.9023457E-1,0E0,0E0,0E0,0E0],"parents":[2147483647,0,0,1,1,2,2,3,3,7,7,8,8],"right_children":[2,4,6,8,-1,-1,-1,10,12,-1,-1,-1,-1],"split_conditions":[1.4367278E-3,6.797762E-4,-7.246353E-4,6.828507E1,-4.805452E-2,-5.0755497E-2,-8.476404E-3,2.1694186E-1,-1.6949137E-3,1.5216201E-2,-1.110752E-2,-7.6153562E-3,-4.4502277E-2],"split_indices":[6,4,4,5,0,0,0,9,4,0,0,0,0],"split_type":[0,0,0,0,0,0,0,0,0,0,0,0,0],"sum_hessian":[5.368544E1,4.923741E1,4.4480314E0,4.6526516E1,2.7108943E0,3.4463837E0,1.0016478E0,4.295394E1,3.572576E0,1.7641758E1,2.5312181E1,1.2082919E0,2.364284E0],"tree_param":{"num_deleted":"0","num_feature":"11","num_nodes":"13","size_leaf_vector":"0"}},{"base_weights":[-1.8950398E-1,5.1234436E-1,-2.6284993E-1,-3.544564E-1,8.4606487E-1,-1.0019772E0,-1.9214697E-1,1.0836635E-1,-4.1516873E-1,6.8136E-1,-1.5302855E-1,-1.4565842E-1,-9.334837E-1],"categories":[],"categories_nodes":[],"categories_segments":[],"categories_sizes":[],"default_left":[1,1,1,0,0,0,1,1,1,0,0,0,0],"id":36,"left_children":[1,3,5,-1,-1,-1,7,9,11,-1,-1,-1,-1],"loss_changes":[2.9047532E0,1.8707685E0,2.3880389E0,0E0,0E0,0E0,3.1485205E0,3.1776068E0,3.606008E0,0E0,0E0,0E0,0E0],"parents":[2147483647,0,0,1,1,2,2,6,6,7,7,8,8],"right_children":[2,4,6,-1,-1,-1,8,10,12,-1,-1,-1,-1],"split_conditions":[6.8944553E-4,-3.1097834E-3,4.6528893E-4,-1.772282E-2,4.2303246E-2,-5.0098862E-2,2.1694186E-1,4.3286213E1,1.2479722E-3,3.4068E-2,-7.6514273E-3,-7.282921E-3,-4.667419E-2],"split_indices":[6,4,3,0,0,0,9,5,6,0,0,0,0],"split_type":[0,0,0,0,0,0,0,0,0,0,0,0,0],"sum_hessian":[5.2811295E1,4.4304976E0,4.83808E1,1.2143159E0,3.2161818E0,3.0739675E0,4.530683E1,1.951935E1,2.5787481E1,5.611646E0,1.3907703E1,1.780853E1,7.97895E0],"tree_param":{"num_deleted":"0","num_feature":"11","num_nodes":"13","size_leaf_vector":"0"}},{"base_weights":[-1.3506658E-1,2.6631957E-2,-4.4194114E-1,-4.7707814E-1,2.4236503E-1,-4.4944447E-2,-8.0531025E-1,-2.4012832E-2,-9.966941E-1,9.9768037E-1,9.237879E-2,2.5000173E-1,-8.506204E-1,-2.9753736E-1,-9.173294E-1,-9.6247566E-1,4.687453E-1,-3.9262548E-1,3.395843E-1,8.3992547E-1,-5.2038187E-1,-6.8568426E-1,2.6564157E-1],"categories":[],"categories_nodes":[],"categories_segments":[],"categories_sizes":[],"default_left":[1,1,1,1,1,1,1,1,0,0,1,1,0,1,0,0,0,0,0,0,0,0,0],"id":37,"left_children":[1,3,5,7,9,11,13,15,-1,-1,17,19,-1,21,-1,-1,-1,-1,-1,-1,-1,-1,-1],"loss_changes":[2.7002053E0,4.073909E0,2.6690998E0,2.6267939E0,2.8721294E0,2.5939837E0,2.806344E-1,3.7065423E0,0E0,0E0,2.8829205E0,4.1221294E0,0E0,8.9018744E-1,0E0,0E0,0E0,0E0,0E0,0E0,0E0,0E0,0E0],"parents":[2147483647,0,0,1,1,2,2,3,3,4,4,5,5,6,6,7,7,10,10,11,11,13,13],"right_children":[2,4,6,8,10,12,14,16,-1,-1,18,20,-1,22,-1,-1,-1,-1,-1,-1,-1,-1,-1],"split_conditions":[-1.0550639E-3,-3.8270294E-3,-8.626303E-4,-6.1232336E-17,-3.1575297E-3,6.797762E-4,4.087333E1,8.965153E-4,-4.9834706E-2,4.9884018E-2,-2.7037645E-3,1.2709419E-3,-4.253102E-2,2.2505815E-4,-4.586647E-2,-4.8123784E-2,2.3437265E-2,-1.9631274E-2,1.6979216E-2,4.1996274E-2,-2.6019095E-2,-3.4284215E-2,1.3282078E-2],"split_indices":[4,4,2,8,4,4,5,6,0,0,4,6,0,2,0,0,0,0,0,0,0,0,0],"split_type":[0,0,0,0,0,0,0,0,0,0,0,0,0,0,0,0,0,0,0,0,0,0,0],"sum_hessian":[5.3179203E1,3.542582E1,1.775338E1,1.0259568E1,2.5166254E1,9.021111E0,8.73227E0,6.0396595E0,4.219908E0,3.2330637E0,2.193319E1,7.108494E0,1.9126163E0,2.2390375E0,6.4932323E0,1.7512138E0,4.288446E0,7.2063847E0,1.4726806E1,3.9746351E0,3.1338587E0,1.196723E0,1.0423145E0],"tree_param":{"num_deleted":"0","num_feature":"11","num_nodes":"23","size_leaf_vector":"0"}},{"base_weights":[-1.4626901E-1,-5.578361E-2,-1.0083469E0,1.4240254E-1,-3.2986733E-1,2.3237821E-1,-8.0214673E-1,-1.0199231E0,-7.848271E-2,4.2218682E-1,-2.4851896E-1,9.739595E-2,-6.6714853E-1],"categories":[],"categories_nodes":[],"categories_segments":[],"categories_sizes":[],"default_left":[1,1,0,1,1,1,0,0,1,0,0,0,0],"id":38,"left_children":[1,3,-1,5,7,9,-1,-1,11,-1,-1,-1,-1],"loss_changes":[4.0386066E0,2.6850877E0,0E0,2.6411715E0,3.507695E0,2.5829005E0,0E0,0E0,1.7466794E0,0E0,0E0,0E0,0E0],"parents":[2147483647,0,0,1,1,3,3,4,4,5,5,8,8],"right_children":[2,4,-1,6,8,10,-1,-1,12,-1,-1,-1,-1],"split_conditions":[1.4367278E-3,-1.323919E-4,-5.0417345E-2,6.797762E-4,4.5124318E-5,-1.3884564E-4,-4.0107336E-2,-5.0996155E-2,-1.0522418E-3,2.110934E-2,-1.2425948E-2,4.8697977E-3,-3.3357427E-2],"split_indices":[6,2,0,4,1,1,0,0,4,0,0,0,0],"split_type":[0,0,0,0,0,0,0,0,0,0,0,0,0],"sum_hessian":[5.1494484E1,4.7566517E1,3.9279673E0,2.7884247E1,1.9682272E1,2.6147476E1,1.7367707E0,4.4392424E0,1.524303E1,1.8835318E1,7.312157E0,1.2379031E1,2.8639977E0],"tree_param":{"num_deleted":"0","num_feature":"11","num_nodes":"13","size_leaf_vector":"0"}},{"base_weights":[-1.4848238E-1,1.1381429E-1,-3.5636544E-1,-8.4853464E-1,2.2208834E-1,-1.6353858E-1,-8.6520654E-1,6.042255E-1,-5.6355946E-2,1.9758844E-1,-4.558273E-1,-1.8510994E-1,-1.0459008E0,-2.8603378E-1,8.237757E-1,-6.908389E-1,2.7927223E-1,5.250131E-1,-8.343848E-1,2.1245629E-1,-7.6940864E-1],"categories":[],"categories_nodes":[],"categories_segments":[],"categories_sizes":[],"default_left":[1,1,1,0,1,1,1,1,1,1,1,0,0,0,0,0,0,0,0,0,0],"id":39,"left_children":[1,3,5,-1,7,9,11,13,15,17,19,-1,-1,-1,-1,-1,-1,-1,-1,-1,-1],"loss_changes":[3.015099E0,2.7805834E0,2.8682327E0,0E0,2.4977098E0,2.5682313E0,8.1367636E-1,2.159893E0,3.240008E0,4.2224083E0,2.946026E0,0E0,0E0,0E0,0E0,0E0,0E0,0E0,0E0,0E0,0E0],"parents":[2147483647,0,0,1,1,2,2,4,4,5,5,6,6,7,7,8,8,9,9,10,10],"right_children":[2,4,6,-1,8,10,12,14,16,18,20,-1,-1,-1,-1,-1,-1,-1,-1,-1,-1],"split_conditions":[2.1694186E-1,4.4318233E-4,1.2602217E-3,-4.242673E-2,-3.50277E-4,-1.8536241E-4,-2.2306845E-3,5.110098E-4,2.1323303E-4,-3.7367438E-4,7.723678E-4,-9.255498E-3,-5.229504E-2,-1.4301689E-2,4.1188788E-2,-3.4541946E-2,1.3963612E-2,2.6250655E-2,-4.171924E-2,1.0622814E-2,-3.8470432E-2],"split_indices":[9,3,6,0,2,1,2,3,1,4,6,0,0,0,0,0,0,0,0,0,0],"split_type":[0,0,0,0,0,0,0,0,0,0,0,0,0,0,0,0,0,0,0,0,0],"sum_hessian":[5.355164E1,2.3877142E1,2.9674496E1,1.7233089E0,2.2153831E1,2.2477844E1,7.196653E0,8.844975E0,1.3308857E1,1.0199816E1,1.2278028E1,1.9356594E0,5.2609935E0,1.6898688E0,7.1551065E0,4.2382946E0,9.070562E0,8.116017E0,2.0837984E0,4.024266E0,8.253761E0],"tree_param":{"num_deleted":"0","num_feature":"11","num_nodes":"21","size_leaf_vector":"0"}},{"base_weights":[-1.5162519E-1,3.4723748E-2,-4.912134E-1,-2.3450294E-1,4.8627588E-1,-2.4125138E-1,-8.3956766E-1,-4.6465784E-1,5.2614987E-1,7.949119E-1,-1.7519556E-1,-4.642595E-1,4.795874E-1,-9.09864E-1,-2.5492525E-1,1.08797096E-1,-7.76837E-1,8.856291E-1,-4.2799872E-1,-3.9760834E-3,9.79323E-1,4.2719325E-1,-6.3571507E-1,-7.2047514E-1,2.242644E-1,-1.2766822E-3,7.4179524E-1],"categories":[],"categories_nodes":[],"categories_segments":[],"categories_sizes":[],"default_left":[1,1,1,1,1,1,1,1,1,1,1,1,1,0,0,0,0,0,0,0,0,0,0,0,0,0,0],"id":40,"left_children":[1,3,5,7,9,11,13,15,17,19,21,23,25,-1,-1,-1,-1,-1,-1,-1,-1,-1,-1,-1,-1,-1,-1],"loss_changes":[3.215396E0,4.1948295E0,1.362515E0,4.0441456E0,2.7654066E0,2.1304548E0,6.0086727E-2,3.1624858E0,2.2691593E0,1.3226852E0,1.6341901E0,1.850167E0,4.165252E-1,0E0,0E0,0E0,0E0,0E0,0E0,0E0,0E0,0E0,0E0,0E0,0E0,0E0,0E0],"parents":[2147483647,0,0,1,1,2,2,3,3,4,4,5,5,6,6,7,7,8,8,9,9,10,10,11,11,12,12],"right_children":[2,4,6,8,10,12,14,16,18,20,22,24,26,-1,-1,-1,-1,-1,-1,-1,-1,-1,-1,-1,-1,-1,-1],"split_conditions":[-1.2168741E-3,-2.7026082E-3,1.222349E-3,8.117449E-1,5.2277275E1,8.6181797E-4,1.0468841E-3,-4.4732657E-4,-2.943615E-3,-1.0168329E-3,-1.851459E-3,1.0070691E-3,-7.865661E-1,-4.54932E-2,-1.2746262E-2,5.4398547E-3,-3.884185E-2,4.4281457E-2,-2.1399936E-2,-1.9880418E-4,4.896615E-2,2.1359663E-2,-3.1785753E-2,-3.602376E-2,1.121322E-2,-6.3834115E-5,3.708976E-2],"split_indices":[4,4,6,10,5,3,3,1,4,1,4,6,8,0,0,0,0,0,0,0,0,0,0,0,0,0,0],"split_type":[0,0,0,0,0,0,0,0,0,0,0,0,0,0,0,0,0,0,0,0,0,0,0,0,0,0,0],"sum_hessian":[4.9541138E1,3.256749E1,1.6973652E1,2.0703949E1,1.1863539E1,1.0867913E1,6.105738E0,1.6193367E1,4.510583E0,7.951647E0,3.9118924E0,8.571933E0,2.29598E0,4.9538245E0,1.1519134E0,5.9376817E0,1.0255685E1,3.3284051E0,1.1821778E0,1.6747773E0,6.2768693E0,1.7262344E0,2.185658E0,6.213384E0,2.3585489E0,1.1613345E0,1.1346455E0],"tree_param":{"num_deleted":"0","num_feature":"11","num_nodes":"27","size_leaf_vector":"0"}},{"base_weights":[-1.3341819E-1,-5.6162473E-2,-8.2958454E-1,-7.7846193E-1,1.128203E-2,-9.5456415E-1,-1.7778292E-1,3.3313322E-1,-2.1238811E-1,7.5376093E-1,3.293503E-2,-6.1516814E-2,-7.418285E-1],"categories":[],"categories_nodes":[],"categories_segments":[],"categories_sizes":[],"default_left":[1,1,1,0,1,0,0,1,1,0,0,0,0],"id":41,"left_children":[1,3,5,-1,7,-1,-1,9,11,-1,-1,-1,-1],"loss_changes":[2.7344565E0,2.3284192E0,2.451384E-1,0E0,3.2768054E0,0E0,0E0,2.330073E0,2.1019607E0,0E0,0E0,0E0,0E0],"parents":[2147483647,0,0,1,1,2,2,4,4,7,7,8,8],"right_children":[2,4,6,-1,8,-1,-1,10,12,-1,-1,-1,-1],"split_conditions":[1.4367278E-3,4.5817858E-4,-7.5528736E-4,-3.8923096E-2,2.1694186E-1,-4.7728207E-2,-8.889146E-3,-3.6745504E-4,1.2602217E-3,3.7688047E-2,1.6467515E-3,-3.0758407E-3,-3.7091427E-2],"split_indices":[6,3,4,0,9,0,0,2,6,0,0,0,0],"split_type":[0,0,0,0,0,0,0,0,0,0,0,0,0],"sum_hessian":[5.0708843E1,4.6616356E1,4.092486E0,3.0807447E0,4.3535614E1,3.0442631E0,1.0482227E0,1.7649454E1,2.588616E1,6.7211394E0,1.0928314E1,2.1014097E1,4.872062E0],"tree_param":{"num_deleted":"0","num_feature":"11","num_nodes":"13","size_leaf_vector":"0"}},{"base_weights":[-1.812032E-1,-9.957196E-2,-9.777091E-1,-1.68313E-1,8.258505E-1,7.9486084E-1,-2.1055281E-1,1.0173825E0,2.1832114E-1,-1.5082393E-2,-4.1658652E-1],"categories":[],"categories_nodes":[],"categories_segments":[],"categories_sizes":[],"default_left":[1,1,0,1,1,0,1,0,0,0,0],"id":42,"left_children":[1,3,-1,5,7,-1,9,-1,-1,-1,-1],"loss_changes":[3.2385888E0,3.1702657E0,0E0,2.0057387E0,1.8096852E-1,0E0,1.7689178E0,0E0,0E0,0E0,0E0],"parents":[2147483647,0,0,1,1,3,3,4,4,6,6],"right_children":[2,4,-1,6,8,-1,10,-1,-1,-1,-1],"split_conditions":[1.4367278E-3,1.4053835E-3,-4.8885457E-2,5.486796E-4,1.4194584E-3,3.9743043E-2,-3.5466385E-4,5.0869126E-2,1.0916057E-2,-7.5411965E-4,-2.0829326E-2],"split_indices":[6,6,0,6,6,0,2,0,0,0,0],"split_type":[0,0,0,0,0,0,0,0,0,0,0],"sum_hessian":[5.0306572E1,4.6650528E1,3.6560469E0,4.4186447E1,2.4640777E0,1.1078091E0,4.307864E1,1.3605292E0,1.1035486E0,2.2656725E1,2.0421915E1],"tree_param":{"num_deleted":"0","num_feature":"11","num_nodes":"11","size_leaf_vector":"0"}},{"base_weights":[-1.222332E-1,-5.0480817E-2,-7.949951E-1,5.19117E-1,-1.4453574E-1,-9.2432135E-1,-1.5122913E-1,-2.9130334E-1,7.0499766E-1,1.2892788E-2,-6.232574E-1,-1.369644E-2,1.1824583E0,-9.106385E-1,1.4976731E-1,5.363622E-1,-8.136258E-1],"categories":[],"categories_nodes":[],"categories_segments":[],"categories_sizes":[],"default_left":[1,1,1,1,1,0,0,0,1,1,1,0,0,0,0,0,0],"id":43,"left_children":[1,3,5,7,9,-1,-1,-1,11,13,15,-1,-1,-1,-1,-1,-1],"loss_changes":[2.444097E0,2.6235716E0,2.674966E-1,1.2537862E0,3.1440444E0,0E0,0E0,0E0,2.0591626E0,4.2185283E0,2.7141109E0,0E0,0E0,0E0,0E0,0E0,0E0],"parents":[2147483647,0,0,1,1,2,2,3,3,4,4,8,8,9,9,10,10],"right_children":[2,4,6,8,10,-1,-1,-1,12,14,16,-1,-1,-1,-1,-1,-1],"split_conditions":[1.4367278E-3,-1.9548181E-3,-7.5528736E-4,2.038016E1,-9.847264E-4,-4.6216067E-2,-7.5614564E-3,-1.4565167E-2,2.0048442E-1,-6.598303E-3,3.2870354E1,-6.84822E-4,5.9122916E-2,-4.5531925E-2,7.4883658E-3,2.681811E-2,-4.068129E-2],"split_indices":[6,2,4,5,4,0,0,0,10,4,5,0,0,0,0,0,0],"split_type":[0,0,0,0,0,0,0,0,0,0,0,0,0,0,0,0,0],"sum_hessian":[5.0462864E1,4.6570946E1,3.891917E0,5.95969E0,4.0611256E1,2.8779597E0,1.0139574E0,1.0060902E0,4.9536E0,3.1293423E1,9.317833E0,2.3650062E0,2.5885937E0,3.3095899E0,2.7983833E1,1.0576593E0,8.260174E0],"tree_param":{"num_deleted":"0","num_feature":"11","num_nodes":"17","size_leaf_vector":"0"}},{"base_weights":[-9.597631E-2,1.1677532E-1,-3.767179E-1,-1.4074858E-1,6.7926526E-1,-4.0738657E-2,-7.404259E-1,7.162422E-2,-1.0094265E0,-1.1423609E-1,8.9453804E-1,2.8413898E-1,-6.5271235E-1,-9.086273E-1,-1.5429518E-1,-3.703142E-1,5.799384E-1,1.0740881E0,1.0057602E-1,5.092359E-1,-6.4757735E-1,-4.1197035E-3,-8.754722E-1,-2.2930959E-1,-1.0344841E0,-6.754201E-1,3.946487E-1],"categories":[],"categories_nodes":[],"categories_segments":[],"categories_sizes":[],"default_left":[1,1,1,1,1,1,1,1,0,0,1,1,1,1,1,0,0,0,0,0,0,0,0,0,0,0,0],"id":44,"left_children":[1,3,5,7,9,11,13,15,-1,-1,17,19,21,23,25,-1,-1,-1,-1,-1,-1,-1,-1,-1,-1,-1,-1],"loss_changes":[3.0676258E0,4.37783E0,2.6656506E0,3.9661229E0,1.7173877E0,2.6758084E0,8.9844036E-1,4.234523E0,0E0,0E0,9.6841526E-1,2.1919096E0,6.677878E-1,4.4517183E-1,1.2831472E0,0E0,0E0,0E0,0E0,0E0,0E0,0E0,0E0,0E0,0E0,0E0,0E0],"parents":[2147483647,0,0,1,1,2,2,3,3,4,4,5,5,6,6,7,7,10,10,11,11,12,12,13,13,14,14],"right_children":[2,4,6,8,10,12,14,16,-1,-1,18,20,22,24,26,-1,-1,-1,-1,-1,-1,-1,-1,-1,-1,-1,-1],"split_conditions":[-1.502135E-3,-2.7026082E-3,-6.11136E-5,-2.819105E-3,-2.92097E-4,-4.746497E-4,-4.5526056E-5,-3.8270294E-3,-5.0471324E-2,-5.7118046E-3,1.9338098E-3,5.973967E1,-8.1644155E-4,-1.3267758E-3,2.1944672E-4,-1.8515712E-2,2.899692E-2,5.3704407E-2,5.028801E-3,2.5461797E-2,-3.2378867E-2,-2.0598518E-4,-4.377361E-2,-1.146548E-2,-5.1724207E-2,-3.3771005E-2,1.9732436E-2],"split_indices":[4,4,0,4,0,4,4,4,0,0,2,5,0,4,0,0,0,0,0,0,0,0,0,0,0,0,0],"split_type":[0,0,0,0,0,0,0,0,0,0,0,0,0,0,0,0,0,0,0,0,0,0,0,0,0,0,0],"sum_hessian":[4.9623203E1,2.8562222E1,2.106098E1,2.0106617E1,8.4556055E0,1.1525854E1,9.535126E0,1.6893959E1,3.212657E0,1.9045871E0,6.551018E0,7.8788958E0,3.646958E0,6.981452E0,2.5536737E0,9.182231E0,7.7117286E0,5.0550303E0,1.4959877E0,6.711002E0,1.1678939E0,1.1927153E0,2.454243E0,1.5323763E0,5.4490757E0,1.1918367E0,1.361837E0],"tree_param":{"num_deleted":"0","num_feature":"11","num_nodes":"27","size_leaf_vector":"0"}},{"base_weights":[-1.1713183E-1,-5.9548307E-2,-9.0139145E-1,1.3957086E-1,-3.0855846E-1,3.492372E-1,-4.160551E-1,-8.945569E-1,-9.2336096E-2,-6.3658065E-1,4.3873876E-1,2.2087778E-1,-8.0207443E-1,-1.0622927E-1,-1.0714341E0,2.5419152E-1,-3.8951382E-1],"categories":[],"categories_nodes":[],"categories_segments":[],"categories_sizes":[],"default_left":[1,1,0,1,1,1,1,1,1,0,0,0,0,0,0,0,0],"id":45,"left_children":[1,3,-1,5,7,9,11,13,15,-1,-1,-1,-1,-1,-1,-1,-1],"loss_changes":[2.2405267E0,2.4427211E0,0E0,3.3583941E0,2.6816049E0,2.0940893E0,2.1472344E0,6.9002914E-1,1.854925E0,0E0,0E0,0E0,0E0,0E0,0E0,0E0,0E0],"parents":[2147483647,0,0,1,1,3,3,4,4,5,5,6,6,7,7,8,8],"right_children":[2,4,-1,6,8,10,12,14,16,-1,-1,-1,-1,-1,-1,-1,-1],"split_conditions":[6.797762E-4,-1.323919E-4,-4.506957E-2,-1.3884564E-4,4.5124318E-5,4.523811E-4,2.1694186E-1,-3.3683404E-3,5.182863E1,-3.1829033E-2,2.1936938E-2,1.1043889E-2,-4.0103722E-2,-5.3114635E-3,-5.357171E-2,1.2709576E-2,-1.9475691E-2],"split_indices":[4,2,0,1,1,3,9,4,5,0,0,0,0,0,0,0,0],"split_type":[0,0,0,0,0,0,0,0,0,0,0,0,0,0,0,0,0],"sum_hessian":[4.980118E1,4.739703E1,2.4041529E0,2.6581123E1,2.0815905E1,1.9568407E1,7.012717E0,4.764935E0,1.605097E1,1.1199689E0,1.8448439E1,2.8077419E0,4.2049747E0,1.1665041E0,3.5984309E0,7.476988E0,8.573982E0],"tree_param":{"num_deleted":"0","num_feature":"11","num_nodes":"17","size_leaf_vector":"0"}},{"base_weights":[-8.2402036E-2,-2.753223E-2,-8.773151E-1,-7.694407E-1,4.035559E-2,3.7379745E-1,-2.0833638E-1,8.044199E-1,-1.5605739E-1,1.3478905E-2,-8.920727E-1],"categories":[],"categories_nodes":[],"categories_segments":[],"categories_sizes":[],"default_left":[1,1,0,0,1,1,1,0,0,0,0],"id":46,"left_children":[1,3,-1,-1,5,7,9,-1,-1,-1,-1],"loss_changes":[2.1784189E0,2.4622507E0,0E0,0E0,3.8238697E0,4.610487E0,4.0337133E0,0E0,0E0,0E0,0E0],"parents":[2147483647,0,0,1,1,4,4,5,5,6,6],"right_children":[2,4,-1,-1,6,8,10,-1,-1,-1,-1],"split_conditions":[7.001625E-4,4.5817858E-4,-4.3865755E-2,-3.8472038E-2,2.1694186E-1,5.1145454E1,1.2602217E-3,4.0220995E-2,-7.8028697E-3,6.7394524E-4,-4.4603635E-2],"split_indices":[4,3,0,0,9,5,6,0,0,0,0],"split_type":[0,0,0,0,0,0,0,0,0,0,0],"sum_hessian":[4.9498367E1,4.7270126E1,2.2282405E0,3.0964737E0,4.4173653E1,1.865641E1,2.5517242E1,1.0006092E1,8.650318E0,2.0006948E1,5.510296E0],"tree_param":{"num_deleted":"0","num_feature":"11","num_nodes":"11","size_leaf_vector":"0"}},{"base_weights":[-2.048337E-1,7.606377E-1,-2.4257179E-1,-1.608522E-1,-6.177827E-1,-3.2350462E-2,-5.499672E-1,-7.954903E-1,-8.8413805E-3,-2.616255E-1,2.3148087E-1,-7.589355E-1,3.6828294E-1,-1.3942513E-1,-9.228599E-1],"categories":[],"categories_nodes":[],"categories_segments":[],"categories_sizes":[],"default_left":[1,0,1,1,1,1,1,1,0,0,0,0,0,0,0],"id":47,"left_children":[1,-1,3,5,7,9,11,13,-1,-1,-1,-1,-1,-1,-1],"loss_changes":[1.9433181E0,0E0,1.3483312E0,1.9884211E0,8.6863947E-1,1.9493272E0,2.1788237E0,3.938315E-1,0E0,0E0,0E0,0E0,0E0,0E0,0E0],"parents":[2147483647,0,0,2,2,3,3,4,4,5,5,6,6,7,7],"right_children":[2,-1,4,6,8,10,12,14,-1,-1,-1,-1,-1,-1,-1],"split_conditions":[5.486796E-4,3.8031887E-2,-4.7742238E-4,5.452303E1,3.7940952E-1,-2.6198267E-3,3.0655854E-3,-9.159756E-1,-4.4206902E-4,-1.3081275E-2,1.1574044E-2,-3.7946776E-2,1.8414147E-2,-6.9712563E-3,-4.6142995E-2],"split_indices":[6,0,4,5,8,4,2,8,0,0,0,0,0,0,0],"split_type":[0,0,0,0,0,0,0,0,0,0,0,0,0,0,0],"sum_hessian":[4.727244E1,1.0576775E0,4.6214767E1,3.9122684E1,7.092082E0,3.0224464E1,8.898219E0,5.2528043E0,1.8392779E0,1.6175753E1,1.4048713E1,7.3899655E0,1.5082532E0,1.1945374E0,4.058267E0],"tree_param":{"num_deleted":"0","num_feature":"11","num_nodes":"15","size_leaf_vector":"0"}},{"base_weights":[-1.3435136E-1,4.845058E-1,-2.0087087E-1,7.98864E-1,-4.111789E-1,-9.274086E-1,-1.3775465E-1,1.8553354E-1,9.561089E-1,-6.1977126E-2,-7.659587E-1,-1.2400411E-1,7.2105485E-1,-1.742323E-1,-8.8437563E-1],"categories":[],"categories_nodes":[],"categories_segments":[],"categories_sizes":[],"default_left":[1,1,1,1,0,0,1,0,0,1,1,0,0,0,0],"id":48,"left_children":[1,3,5,7,-1,-1,9,-1,-1,11,13,-1,-1,-1,-1],"loss_changes":[2.1969068E0,1.8047746E0,2.0164678E0,2.2968173E-1,0E0,0E0,2.0564513E0,0E0,0E0,2.0577862E0,1.730957E-1,0E0,0E0,0E0,0E0],"parents":[2147483647,0,0,1,1,2,2,3,3,6,6,9,9,10,10],"right_children":[2,4,6,8,-1,-1,10,-1,-1,12,14,-1,-1,-1,-1],"split_conditions":[6.8944553E-4,4.567431E1,4.6528893E-4,-1.0422526E-3,-2.0558944E-2,-4.6370428E-2,1.4367278E-3,9.276677E-3,4.7805447E-2,1.4053835E-3,-5.3239416E-4,-6.2002055E-3,3.6052745E-2,-8.711616E-3,-4.4218782E-2],"split_indices":[6,5,3,2,0,0,6,0,0,6,0,0,0,0,0],"split_type":[0,0,0,0,0,0,0,0,0,0,0,0,0,0,0],"sum_hessian":[5.0002758E1,4.2431746E0,4.5759583E1,3.2208505E0,1.0223241E0,2.5629964E0,4.3196587E1,1.1020868E0,2.1187637E0,3.9527245E1,3.6693418E0,3.7405823E1,2.121424E0,1.023964E0,2.6453776E0],"tree_param":{"num_deleted":"0","num_feature":"11","num_nodes":"15","size_leaf_vector":"0"}},{"base_weights":[-1.18479274E-1,1.249159E-1,-3.1898135E-1,-7.6496583E-1,2.2318022E-1,-1.2913811E-1,-8.1061614E-1,6.335512E-1,-7.251652E-2,2.8006017E-1,-5.127853E-1,-9.093208E-2,-1.017198E0,7.236801E-2,7.4273825E-1,-4.216505E-1,4.7940806E-1,-2.4648444E-1,6.6895324E-1,-7.774045E-1,5.574372E-3],"categories":[],"categories_nodes":[],"categories_segments":[],"categories_sizes":[],"default_left":[1,1,1,0,1,1,1,1,1,1,1,0,0,0,0,0,0,0,0,0,0],"id":49,"left_children":[1,3,5,-1,7,9,11,13,15,17,19,-1,-1,-1,-1,-1,-1,-1,-1,-1,-1],"loss_changes":[2.4268577E0,2.1654782E0,2.4247575E0,0E0,2.6327267E0,3.3996732E0,1.0017729E0,4.995749E-1,2.7625237E0,2.3524377E0,1.5211196E0,0E0,0E0,0E0,0E0,0E0,0E0,0E0,0E0,0E0,0E0],"parents":[2147483647,0,0,1,1,2,2,4,4,5,5,6,6,7,7,8,8,9,9,10,10],"right_children":[2,4,6,-1,8,10,12,14,16,18,20,-1,-1,-1,-1,-1,-1,-1,-1,-1,-1],"split_conditions":[2.1694186E-1,4.4318233E-4,1.2602217E-3,-3.8248293E-2,4.3286213E1,-1.7942763E-4,-2.2306845E-3,4.7991727E-4,1.2761607E-3,9.746916E-4,4.061454E-4,-4.546604E-3,-5.08599E-2,3.6184005E-3,3.7136912E-2,-2.1082526E-2,2.3970403E-2,-1.2324222E-2,3.3447664E-2,-3.8870227E-2,2.7871862E-4],"split_indices":[9,3,6,0,5,1,2,3,6,6,0,0,0,0,0,0,0,0,0,0,0],"split_type":[0,0,0,0,0,0,0,0,0,0,0,0,0,0,0,0,0,0,0,0,0],"sum_hessian":[4.7912945E1,2.1811872E1,2.610107E1,1.4943414E0,2.0317532E1,1.9740866E1,6.3602033E0,8.030354E0,1.2287178E1,9.68299E0,1.0057877E1,1.7396907E0,4.6205125E0,1.5787784E0,6.4515758E0,7.670833E0,4.616345E0,4.2690578E0,5.413933E0,6.3278246E0,3.7300518E0],"tree_param":{"num_deleted":"0","num_feature":"11","num_nodes":"21","size_leaf_vector":"0"}},{"base_weights":[-1.21100575E-1,-6.0865935E-2,-7.158994E-1,-1.2911084E-1,5.351166E-1,-1.8022391E-1,-8.4669733E-1,2.2788292E-1,-2.4410914E-1,9.1715586E-1,-5.7171833E-2,-2.4834171E-1,5.97494E-1,-3.4283814E-1,4.1312554E-1],"categories":[],"categories_nodes":[],"categories_segments":[],"categories_sizes":[],"default_left":[1,1,1,1,1,0,0,1,1,0,0,0,0,0,0],"id":50,"left_children":[1,3,5,7,9,-1,-1,11,13,-1,-1,-1,-1,-1,-1],"loss_changes":[1.6297187E0,1.8384489E0,1.4180732E-1,1.6911395E0,1.1077816E0,0E0,0E0,1.9479172E0,2.1281705E0,0E0,0E0,0E0,0E0,0E0,0E0],"parents":[2147483647,0,0,1,1,2,2,3,3,4,4,7,7,8,8],"right_children":[2,4,6,8,10,-1,-1,12,14,-1,-1,-1,-1,-1,-1],"split_conditions":[1.4367278E-3,1.3649948E-3,-9.159756E-1,2.8311764E1,-7.865661E-1,-9.011196E-3,-4.2334866E-2,1.8205128E1,8.894292E-4,4.5857795E-2,-2.8585917E-3,-1.24170855E-2,2.9874701E-2,-1.7141907E-2,2.0656278E-2],"split_indices":[6,6,7,5,7,0,0,5,0,0,0,0,0,0,0],"split_type":[0,0,0,0,0,0,0,0,0,0,0,0,0,0,0],"sum_hessian":[4.5704144E1,4.2502308E1,3.2018332E0,3.883836E1,3.6639473E0,1.09504E0,2.1067932E0,9.223589E0,2.9614773E1,1.8938661E0,1.7700813E0,4.173872E0,5.0497174E0,2.6162966E1,3.4518068E0],"tree_param":{"num_deleted":"0","num_feature":"11","num_nodes":"15","size_leaf_vector":"0"}}]},"name":"gbtree"},"learner_model_param":{"base_score":"5E-1","boost_from_average":"1","num_class":"0","num_feature":"11","num_target":"1"},"objective":{"name":"binary:logistic","reg_loss_param":{"scale_pos_weight":"1"}}},"version":[1,7,6]}