{"learner":{"attributes":{"best_iteration":"14","best_ntree_limit":"15","best_score":"0.6889032165109802"},"feature_names":["ret_1","ret_3","ret_6","vol_24","sma_diff","rsi","atr_norm","hour_sin","hour_cos","dow_sin","dow_cos"],"feature_types":[],"gradient_booster":{"model":{"gbtree_model_param":{"num_parallel_tree":"1","num_trees":"65","size_leaf_vector":"0"},"tree_info":[0,0,0,0,0,0,0,0,0,0,0,0,0,0,0,0,0,0,0,0,0,0,0,0,0,0,0,0,0,0,0,0,0,0,0,0,0,0,0,0,0,0,0,0,0,0,0,0,0,0,0,0,0,0,0,0,0,0,0,0,0,0,0,0,0],"trees":[{"base_weights":[3.2833207E-1,3.6693242E-1,1.4025837E-1,-2.3070058E-2,3.7944952E-1,9.100345E-2,6.4432603E-1,-1.1707317E0,6.635075E-2,9.470128E-2,3.9461547E-1,1.4930275E-1,-4.4712988E-1,8.455009E-1,-9.677419E-1,-1.5294118E0,3.3333334E-1,2.3960884E-1,-5.101214E-1,2.7495557E-2,1.0990992E0,7.191503E-1,3.7798333E-1,6.1509675E-1,7.862736E-2,-9.9319726E-1,-1.0581972E-2,9.7058827E-1,-5.454545E-1,5.1851857E-1,-1.4710743E0,-4.390244E-1,-1.6521739E0,4.234931E-1,-4.309392E-1,1.2857143E0,-7.0742357E-1,-1.0120481E0,1.4106794E-1,-1.1111112E0,1.4923857E0,9.513582E-1,4.8595852E-1,3.888517E-1,-8.032089E-3,1.183056E0,2.1205825E-1,-1.4058954E-1,2.338749E-1,-5.6097555E-1,-1.4285715E0,3.0374756E-1,-6.022304E-1,1.1341077E0,-1.1180121E-1,6.666667E-1,-1.4285715E0,-4.390244E-1,-1.6E0],"categories":[],"categories_nodes":[],"categories_segments":[],"categories_sizes":[],"default_left":[1,1,1,1,1,1,1,1,1,1,1,1,1,1,1,1,0,1,1,1,1,1,1,1,1,1,1,1,1,0,1,0,0,0,0,0,0,0,0,0,0,0,0,0,0,0,0,0,0,0,0,0,0,0,0,0,0,0,0],"id":0,"left_children":[1,3,5,7,9,11,13,15,17,19,21,23,25,27,29,31,-1,33,35,37,39,41,43,45,47,49,51,53,55,-1,57,-1,-1,-1,-1,-1,-1,-1,-1,-1,-1,-1,-1,-1,-1,-1,-1,-1,-1,-1,-1,-1,-1,-1,-1,-1,-1,-1,-1],"loss_changes":[3.1399078E1,1.7552795E1,1.829781E1,1.1643497E1,1.5000244E1,2.1233984E1,2.2109018E1,4.933524E0,1.0659408E1,1.1944508E1,1.7571716E1,2.001648E1,1.577055E1,1.0777481E1,6.5604234E0,1.8489361E-1,0E0,1.0268702E1,9.6613035E0,1.9894783E1,1.1306841E1,8.204224E0,1.3204681E1,1.8096218E1,1.808222E1,4.731043E0,7.2126904E0,9.755146E0,6.839827E0,0E0,1.0256004E-1,0E0,0E0,0E0,0E0,0E0,0E0,0E0,0E0,0E0,0E0,0E0,0E0,0E0,0E0,0E0,0E0,0E0,0E0,0E0,0E0,0E0,0E0,0E0,0E0,0E0,0E0,0E0,0E0],"parents":[2147483647,0,0,1,1,2,2,3,3,4,4,5,5,6,6,7,7,8,8,9,9,10,10,11,11,12,12,13,13,14,14,15,15,17,17,18,18,19,19,20,20,21,21,22,22,23,23,24,24,25,25,26,26,27,27,28,28,30,30],"right_children":[2,4,6,8,10,12,14,16,18,20,22,24,26,28,30,32,-1,34,36,38,40,42,44,46,48,50,52,54,56,-1,58,-1,-1,-1,-1,-1,-1,-1,-1,-1,-1,-1,-1,-1,-1,-1,-1,-1,-1,-1,-1,-1,-1,-1,-1,-1,-1,-1,-1],"split_conditions":[4.511641E-3,5.2127475E-4,1.9242777E-3,-1.849032E-3,-8.833386E-3,1.5967158E-3,8.783797E-1,6.05316E1,6.747236E1,6.384149E-3,-6.3867895E-3,3.7888546E1,7.024889E-3,8.628945E1,2.0016097E-3,-8.168584E-4,1.6666668E-2,2.8377102E-4,3.2893533E-4,-6.6842027E-3,-7.865661E-1,2.1694186E-1,2.2319201E-3,6.078576E-1,9.547912E-4,5.3323526E-3,6.035534E-1,1.9601267E-2,3.2001308E-3,2.5925929E-2,-7.865661E-1,-2.1951219E-2,-8.260869E-2,2.1174654E-2,-2.154696E-2,6.428572E-2,-3.537118E-2,-5.0602406E-2,7.053397E-3,-5.555556E-2,7.4619286E-2,4.756791E-2,2.4297927E-2,1.9442586E-2,-4.0160445E-4,5.91528E-2,1.0602913E-2,-7.029477E-3,1.1693745E-2,-2.8048778E-2,-7.1428575E-2,1.5187378E-2,-3.0111521E-2,5.6705385E-2,-5.5900603E-3,3.3333335E-2,-7.1428575E-2,-2.1951219E-2,-8.0000006E-2],"split_indices":[4,3,3,4,4,3,9,5,5,3,4,5,4,5,3,1,0,0,3,2,8,9,0,9,3,4,7,4,1,0,7,0,0,0,0,0,0,0,0,0,0,0,0,0,0,0,0,0,0,0,0,0,0,0,0,0,0,0,0],"split_type":[0,0,0,0,0,0,0,0,0,0,0,0,0,0,0,0,0,0,0,0,0,0,0,0,0,0,0,0,0,0,0,0,0,0,0,0,0,0,0,0,0,0,0,0,0,0,0,0,0,0,0,0,0,0,0,0,0,0,0],"sum_hessian":[4.3312E3,3.59285E3,7.3835004E2,1.11700005E2,3.4811501E3,6.737E2,6.465E1,7.2E0,1.045E2,1.7640001E2,3.30475E3,6.085E2,6.5200005E1,5.79E1,6.75E0,5.8E0,1.4000001E0,8.08E1,2.37E1,1.663E2,1.01E1,1.5905E2,3.1457002E3,7.915E1,5.2935004E2,2.84E1,3.68E1,5.34E1,4.5E0,1.7E0,5.05E0,1.05E0,4.75E0,6.37E1,1.71E1,1.8000001E0,2.19E1,1.56E1,1.507E2,1.25E0,8.85E0,7.815E1,8.09E1,3.05955E3,8.615E1,3.205E1,4.7100002E1,2.195E2,3.0985E2,1.5400001E1,1.3E1,2.435E1,1.245E1,4.6350002E1,7.05E0,2E0,2.5E0,1.05E0,4E0],"tree_param":{"num_deleted":"0","num_feature":"11","num_nodes":"59","size_leaf_vector":"0"}},{"base_weights":[3.0704567E-1,2.700499E-1,4.5274788E-1,3.21395E-1,1.4799465E-1,7.09278E-1,3.893848E-1,4.0262946E-1,2.203318E-1,3.111972E-1,4.2654548E-2,9.647344E-1,2.737011E-1,4.010956E-1,-1.0605628E0,2.99761E-1,5.079476E-1,-4.9183187E-1,2.3766568E-1,-1.490024E-1,3.959391E-1,-3.9887738E-1,1.0890106E-1,1.5082723E-1,1.0505557E0,-8.2035285E-1,5.598153E-1,-1.1055614E0,4.1105705E-1,-1.4760305E0,-2.2918044E-1,2.455881E-2,3.9445937E-1,5.4868215E-1,-3.617796E-2,-2.3053518E-2,-1.2797434E0,3.8185018E-1,1.4290851E-1,-3.9072552E-1,5.0245416E-1,3.345093E-1,9.4468886E-1,1.4196256E-1,-7.073883E-1,6.0350907E-1,5.522329E-2,4.3136376E-1,-8.698501E-1,4.7860205E-1,1.154243E0,-1.054301E0,5.3625023E-1,3.1422892E-1,1.5061909E0,-1.4792538E0,8.820906E-2,3.8291538E-1,9.524805E-1,9.390472E-2,-4.4829953E-1],"categories":[],"categories_nodes":[],"categories_segments":[],"categories_sizes":[],"default_left":[1,1,1,1,1,1,1,1,1,1,1,1,1,1,1,1,1,1,1,1,1,1,1,1,1,1,1,1,1,0,1,0,0,0,0,0,0,0,0,0,0,0,0,0,0,0,0,0,0,0,0,0,0,0,0,0,0,0,0,0,0],"id":1,"left_children":[1,3,5,7,9,11,13,15,17,19,21,23,25,27,29,31,33,35,37,39,41,43,45,47,49,51,53,55,57,-1,59,-1,-1,-1,-1,-1,-1,-1,-1,-1,-1,-1,-1,-1,-1,-1,-1,-1,-1,-1,-1,-1,-1,-1,-1,-1,-1,-1,-1,-1,-1],"loss_changes":[2.3145721E1,2.154187E1,1.3907806E1,1.981221E1,1.7555605E1,1.8833061E1,1.2345215E1,1.4393814E1,1.3478561E1,1.5686008E1,1.8243446E1,7.370384E0,2.075637E1,1.0916756E1,1.6992254E0,1.7755226E1,1.4692505E1,9.590366E0,1.4391491E1,1.0123328E1,1.1100475E1,1.3681069E1,1.4352011E1,3.6534417E0,5.2200623E0,4.960253E0,1.161109E1,2.29394E0,1.0197899E1,0E0,2.6505315E-1,0E0,0E0,0E0,0E0,0E0,0E0,0E0,0E0,0E0,0E0,0E0,0E0,0E0,0E0,0E0,0E0,0E0,0E0,0E0,0E0,0E0,0E0,0E0,0E0,0E0,0E0,0E0,0E0,0E0,0E0],"parents":[2147483647,0,0,1,1,2,2,3,3,4,4,5,5,6,6,7,7,8,8,9,9,10,10,11,11,12,12,13,13,14,14,15,15,16,16,17,17,18,18,19,19,20,20,21,21,22,22,23,23,24,24,25,25,26,26,27,27,28,28,30,30],"right_children":[2,4,6,8,10,12,14,16,18,20,22,24,26,28,30,32,34,36,38,40,42,44,46,48,50,52,54,56,58,-1,60,-1,-1,-1,-1,-1,-1,-1,-1,-1,-1,-1,-1,-1,-1,-1,-1,-1,-1,-1,-1,-1,-1,-1,-1,-1,-1,-1,-1,-1,-1],"split_conditions":[8.117449E-1,6.035534E-1,7.1399537E-4,5.3502335E1,8.9346827E-4,3.7940952E-1,9.249516E1,6.078576E-1,5.176035E-4,5.88297E-4,9.640789E-4,-6.2493444E-4,5.3127477E-4,7.1825576E-4,9.0240105E-4,1.42168E-3,2.413568E-3,6.669831E1,1.4870374E-3,8.783797E-1,8.710844E-4,9.195404E-4,1.0231256E-3,-6.990874E-4,3.6620174E1,3.3229246E-4,1.2735731E-3,1.4552849E-3,2.4851635E-3,-7.3801525E-2,5.2707987E-3,1.2279405E-3,1.9722968E-2,2.7434109E-2,-1.8088979E-3,-1.152676E-3,-6.398717E-2,1.909251E-2,7.145426E-3,-1.9536277E-2,2.5122708E-2,1.6725466E-2,4.7234442E-2,7.098128E-3,-3.5369415E-2,3.0175453E-2,2.7611644E-3,2.1568188E-2,-4.3492507E-2,2.3930103E-2,5.771215E-2,-5.2715052E-2,2.6812512E-2,1.5711447E-2,7.5309545E-2,-7.396269E-2,4.410453E-3,1.914577E-2,4.7624025E-2,4.695236E-3,-2.2414977E-2],"split_indices":[10,7,3,5,3,7,5,9,3,3,3,0,3,3,0,6,2,5,6,9,3,3,3,0,5,0,6,2,3,0,2,0,0,0,0,0,0,0,0,0,0,0,0,0,0,0,0,0,0,0,0,0,0,0,0,0,0,0,0,0,0],"split_type":[0,0,0,0,0,0,0,0,0,0,0,0,0,0,0,0,0,0,0,0,0,0,0,0,0,0,0,0,0,0,0,0,0,0,0,0,0,0,0,0,0,0,0,0,0,0,0,0,0,0,0,0,0,0,0,0,0,0,0,0,0],"sum_hessian":[4.315591E3,3.4439731E3,8.716176E2,2.423038E3,1.02093506E3,1.7062714E2,7.009905E2,1.3416434E3,1.0813945E3,3.9971136E2,6.212237E2,1.0678513E2,6.3842E1,6.9609174E2,4.898752E0,6.806611E2,6.609824E2,2.5044987E1,1.0563496E3,6.2039772E1,3.376716E2,8.039189E1,5.408318E2,1.0448805E1,9.6336334E1,1.284761E1,5.099439E1,3.8496773E0,6.9224207E2,2.7493994E0,2.1493528E0,1.7457867E2,5.0608237E2,6.149383E2,4.604408E1,1.6347868E1,8.69712E0,4.1771536E2,6.386342E2,4.554173E1,1.6498043E1,3.0512405E2,3.254754E1,2.9396952E1,5.099494E1,5.1945198E1,4.888866E2,8.648979E0,1.7998255E0,1.5646107E1,8.069022E1,1.11479645E1,1.6996455E0,4.154533E1,9.44906E0,2.7497606E0,1.0999167E0,6.596619E2,3.2580143E1,1.0995462E0,1.0498067E0],"tree_param":{"num_deleted":"0","num_feature":"11","num_nodes":"61","size_leaf_vector":"0"}},{"base_weights":[2.985892E-1,3.3814847E-1,1.5681918E-1,2.908556E-1,5.235181E-1,1.0814726E-1,5.8119035E-1,2.9386115E-1,-1.5697016E0,3.5478666E-1,6.885385E-1,1.5018536E-1,-3.3525416E-1,9.507244E-1,2.0812161E-1,3.5115632E-1,1.9979464E-1,5.2132773E-1,1.4295195E-1,1.0573171E0,5.9662247E-1,4.8367366E-1,9.771053E-2,-5.606238E-1,6.0150933E-1,-6.0445225E-1,1.034273E0,3.6364314E-1,-8.3217674E-1,3.6421224E-1,-6.59763E-1,-6.5434784E-1,2.1670172E-1,2.3625089E-2,6.636429E-1,3.83999E-1,-1.2909694E-1,4.2500034E-1,1.5279537E0,9.042246E-2,7.666765E-1,5.327358E-1,-1.3659124E0,2.2008842E-1,-9.919159E-3,-4.0389653E-2,-9.184783E-1,-8.955998E-1,8.777161E-1,1.1559325E0,-1.8926512E-1,9.300979E-1,1.05069816E-1,-1.1718059E0,2.7296212E-1],"categories":[],"categories_nodes":[],"categories_segments":[],"categories_sizes":[],"default_left":[1,1,1,1,1,1,1,1,0,1,1,1,1,1,1,1,1,1,1,1,1,1,1,1,1,0,1,1,1,0,0,0,0,0,0,0,0,0,0,0,0,0,0,0,0,0,0,0,0,0,0,0,0,0,0],"id":2,"left_children":[1,3,5,7,9,11,13,15,-1,17,19,21,23,25,27,29,31,33,35,37,39,41,43,45,47,-1,49,51,53,-1,-1,-1,-1,-1,-1,-1,-1,-1,-1,-1,-1,-1,-1,-1,-1,-1,-1,-1,-1,-1,-1,-1,-1,-1,-1],"loss_changes":[2.4171448E1,2.944574E1,1.943945E1,1.5515961E1,1.8829605E1,1.5861969E1,1.3163757E1,1.44206085E1,0E0,1.1947433E1,1.1072235E1,1.3523893E1,1.591103E1,6.915306E0,8.312762E0,2.2276505E1,1.4872654E1,1.3470554E1,9.975584E0,1.9464622E1,2.3918777E1,1.0272484E1,8.844505E0,1.1129292E1,6.901137E0,0E0,7.1124687E0,6.312806E0,2.8507848E0,0E0,0E0,0E0,0E0,0E0,0E0,0E0,0E0,0E0,0E0,0E0,0E0,0E0,0E0,0E0,0E0,0E0,0E0,0E0,0E0,0E0,0E0,0E0,0E0,0E0,0E0],"parents":[2147483647,0,0,1,1,2,2,3,3,4,4,5,5,6,6,7,7,9,9,10,10,11,11,12,12,13,13,14,14,15,15,16,16,17,17,18,18,19,19,20,20,21,21,22,22,23,23,24,24,26,26,27,27,28,28],"right_children":[2,4,6,8,10,12,14,16,-1,18,20,22,24,26,28,30,32,34,36,38,40,42,44,46,48,-1,50,52,54,-1,-1,-1,-1,-1,-1,-1,-1,-1,-1,-1,-1,-1,-1,-1,-1,-1,-1,-1,-1,-1,-1,-1,-1,-1,-1],"split_conditions":[3.7954177E-3,8.117449E-1,2.6220735E-3,1.3453763E-2,-7.339695E-4,1.5906582E-3,-3.7940952E-1,3.7940952E-1,-7.848508E-2,3.7602376E-4,6.1442243E-4,3.7849617E1,1.9399386E-3,2.7987106E1,3.108316E-3,8.745097E1,-1.3390843E-2,9.0628094E-4,1.8407758E-3,5.3390407E-4,1.3261852E-3,1.5541627E-3,1.5039952E-3,4.5467785E1,3.78459E1,-3.0222613E-2,8.203682E1,5.132769E1,8.117449E-1,1.8210612E-2,-3.298815E-2,-3.271739E-2,1.0835086E-2,1.1812545E-3,3.3182144E-2,1.919995E-2,-6.4548473E-3,2.1250017E-2,7.639769E-2,4.521123E-3,3.8333826E-2,2.6636792E-2,-6.829562E-2,1.1004421E-2,-4.9595797E-4,-2.0194827E-3,-4.5923915E-2,-4.477999E-2,4.388581E-2,5.7796627E-2,-9.463256E-3,4.6504896E-2,5.253491E-3,-5.8590293E-2,1.3648107E-2],"split_indices":[4,10,6,2,4,3,8,7,0,2,3,5,3,5,3,5,4,3,6,3,6,2,6,5,5,0,5,5,10,0,0,0,0,0,0,0,0,0,0,0,0,0,0,0,0,0,0,0,0,0,0,0,0,0,0],"split_type":[0,0,0,0,0,0,0,0,0,0,0,0,0,0,0,0,0,0,0,0,0,0,0,0,0,0,0,0,0,0,0,0,0,0,0,0,0,0,0,0,0,0,0,0,0,0,0,0,0,0,0,0,0,0,0],"sum_hessian":[4.3183906E3,3.375196E3,9.431947E2,2.6911729E3,6.840233E2,8.4727405E2,9.59206E1,2.687673E3,3.4996314E0,3.3976636E2,3.44257E2,7.7450586E2,7.2768234E1,4.74107E1,4.8509903E1,1.6686052E3,1.0190678E3,1.8940115E2,1.5036519E2,6.658932E1,2.776677E2,1.0418318E2,6.703227E2,5.8980125E1,1.3788105E1,2.0993094E0,4.531139E1,4.276683E1,5.743071E0,1.6479618E3,2.0643507E1,1.9048311E1,1.00001953E3,4.2374763E1,1.470264E2,7.950703E1,7.085816E1,2.922608E1,3.7363235E1,7.02088E1,2.0745888E2,1.021846E2,1.9985801E0,3.1318167E2,3.57141E2,2.4490177E1,3.448995E1,1.7983121E0,1.1989793E1,4.126369E1,4.047702E0,1.2589678E1,3.0177155E1,4.3468738E0,1.3961973E0],"tree_param":{"num_deleted":"0","num_feature":"11","num_nodes":"55","size_leaf_vector":"0"}},{"base_weights":[2.859801E-1,3.2638794E-1,1.4367965E-1,2.7835593E-1,5.1440793E-1,5.4662924E-2,3.025632E-1,-1.5618414E-1,2.9130587E-1,3.652823E-1,6.6022944E-1,1.0881204E-1,-4.138429E-1,4.1730008E-1,-1.0847806E-1,-3.146973E-1,7.402504E-1,2.143832E-1,3.7335056E-1,2.6523066E-1,6.094399E-1,6.89283E-1,-1.7327699E-1,2.5919688E-1,-9.821158E-3,2.0386481E-1,-8.9659667E-1,1.6306949E-1,6.181071E-1,3.168492E-1,-9.9951357E-1,-1.08582996E-1,-1.1571875E0,-7.295665E-1,1.0266585E0,3.788211E-1,1.4935929E-1,4.7228944E-1,2.2967364E-1,1.8678965E-1,8.937153E-1,7.3646677E-1,-4.462477E-1,6.3880366E-1,1.67497E0,-6.4518344E-1,8.145796E-1,3.7184867E-1,4.740801E-2,-4.735071E-2,8.700604E-1,9.9832016E-1,-1.6825815E-1,-6.1448205E-2,-1.088726E0,4.1308463E-1,-2.4221678E-1,7.7971315E-1,9.860246E-2,7.213662E-1,-2.1826987E-1,-1.2749183E0,-2.957175E-1],"categories":[],"categories_nodes":[],"categories_segments":[],"categories_sizes":[],"default_left":[1,1,1,1,1,1,1,1,1,1,1,1,1,1,1,1,1,1,1,1,1,1,1,1,1,1,1,1,1,1,1,0,0,0,0,0,0,0,0,0,0,0,0,0,0,0,0,0,0,0,0,0,0,0,0,0,0,0,0,0,0,0,0],"id":3,"left_children":[1,3,5,7,9,11,13,15,17,19,21,23,25,27,29,31,33,35,37,39,41,43,45,47,49,51,53,55,57,59,61,-1,-1,-1,-1,-1,-1,-1,-1,-1,-1,-1,-1,-1,-1,-1,-1,-1,-1,-1,-1,-1,-1,-1,-1,-1,-1,-1,-1,-1,-1,-1,-1],"loss_changes":[2.4763489E1,3.01987E1,1.3505178E1,1.5116974E1,1.4599564E1,1.562095E1,1.622552E1,1.13389845E1,1.6335968E1,8.135437E0,8.445435E0,9.835453E0,1.921334E1,1.3602356E1,2.8991165E1,1.1529018E1,5.818359E0,1.4322765E1,1.7764526E1,1.17976055E1,1.3464554E1,1.5471069E1,6.296762E0,5.7820396E0,1.0247017E1,8.685397E0,5.7107162E0,1.2240247E1,1.2483479E1,1.1408043E1,4.408163E0,0E0,0E0,0E0,0E0,0E0,0E0,0E0,0E0,0E0,0E0,0E0,0E0,0E0,0E0,0E0,0E0,0E0,0E0,0E0,0E0,0E0,0E0,0E0,0E0,0E0,0E0,0E0,0E0,0E0,0E0,0E0,0E0],"parents":[2147483647,0,0,1,1,2,2,3,3,4,4,5,5,6,6,7,7,8,8,9,9,10,10,11,11,12,12,13,13,14,14,15,15,16,16,17,17,18,18,19,19,20,20,21,21,22,22,23,23,24,24,25,25,26,26,27,27,28,28,29,29,30,30],"right_children":[2,4,6,8,10,12,14,16,18,20,22,24,26,28,30,32,34,36,38,40,42,44,46,48,50,52,54,56,58,60,62,-1,-1,-1,-1,-1,-1,-1,-1,-1,-1,-1,-1,-1,-1,-1,-1,-1,-1,-1,-1,-1,-1,-1,-1,-1,-1,-1,-1,-1,-1,-1,-1],"split_conditions":[3.7915497E-3,8.117449E-1,6.64532E-3,5.200617E-4,-7.339695E-4,1.570273E-3,8.783797E-1,2.2026338E-3,6.078576E-1,5.8890976E1,1.8319533E-3,5.3830807E1,-5.6174487E-1,1.2153629E-3,6.035534E-1,6.685321E1,-7.865661E-1,-6.035534E-1,4.1225788E-4,2.0223625E-3,8.328697E1,1.5336445E-3,1.9089514E-3,5.1474497E-3,8.934377E1,-8.450714E-4,3.8376305E1,4.1808648E-4,2.2554179E-3,-1.2940952E-1,6.171215E1,-5.42915E-3,-5.7859372E-2,-3.6478326E-2,5.133293E-2,1.8941056E-2,7.467964E-3,2.3614472E-2,1.1483682E-2,9.3394825E-3,4.4685766E-2,3.682334E-2,-2.2312386E-2,3.1940185E-2,8.3748505E-2,-3.2259174E-2,4.0728983E-2,1.8592434E-2,2.3704006E-3,-2.3675354E-3,4.350302E-2,4.991601E-2,-8.412908E-3,-3.0724104E-3,-5.4436304E-2,2.0654231E-2,-1.211084E-2,3.898566E-2,4.930123E-3,3.6068313E-2,-1.0913494E-2,-6.3745916E-2,-1.4785876E-2],"split_indices":[4,10,4,3,4,3,9,4,9,5,3,5,10,3,7,5,8,7,1,3,5,3,4,4,5,1,5,1,1,8,5,0,0,0,0,0,0,0,0,0,0,0,0,0,0,0,0,0,0,0,0,0,0,0,0,0,0,0,0,0,0,0,0],"split_type":[0,0,0,0,0,0,0,0,0,0,0,0,0,0,0,0,0,0,0,0,0,0,0,0,0,0,0,0,0,0,0,0,0,0,0,0,0,0,0,0,0,0,0,0,0,0,0,0,0,0,0,0,0,0,0,0,0,0,0,0,0,0,0],"sum_hessian":[4.313809E3,3.3587578E3,9.550514E2,2.6772913E3,6.814666E2,6.129703E2,3.4208115E2,7.715827E1,2.6001328E3,3.386492E2,3.428174E2,5.5015234E2,6.2817936E1,2.6741928E2,7.466189E1,6.611615E1,1.1042124E1,1.3438201E3,1.2563127E3,2.4169357E2,9.695561E1,3.3143753E2,1.1379894E1,2.4208699E2,3.0806534E2,2.781059E1,3.5007343E1,1.1881115E2,1.4860811E2,5.0974228E1,2.3687658E1,5.402731E1,1.2088838E1,1.5484321E0,9.493691E0,3.794385E2,9.643816E2,7.4263306E2,5.136797E2,2.1602834E2,2.5665237E1,8.681222E1,1.0143398E1,3.1685852E2,1.4578989E1,7.9357924E0,3.4441018E0,1.5753656E2,8.455042E1,2.9637045E2,1.1694892E1,8.334427E0,1.9476164E1,6.794186E0,2.8213156E1,7.34696E1,4.5341553E1,1.1296607E2,3.5642044E1,2.8831411E1,2.2142818E1,1.644214E1,7.2455173E0],"tree_param":{"num_deleted":"0","num_feature":"11","num_nodes":"63","size_leaf_vector":"0"}},{"base_weights":[2.7502465E-1,3.082884E-1,1.1224409E-1,2.6644295E-1,4.7225684E-1,-9.5080644E-2,2.209045E-1,2.9289147E-1,8.523138E-2,3.024226E-1,6.168848E-1,4.4038934E-1,-1.7225525E-1,2.825369E-1,-2.1077284E-1,-5.151995E-4,3.138978E-1,-8.3969873E-1,1.0715328E-1,1.3105905E-2,3.7772077E-1,9.8372686E-1,5.265228E-1,5.7749593E-1,-8.117594E-1,1.265241E-1,-3.387066E-1,2.4236228E-1,9.445635E-1,9.554346E-1,-3.2964593E-1,1.8071596E-1,-6.129151E-1,2.5930756E-1,4.127683E-1,2.9945794E-1,-1.102768E0,-3.3088556E-1,1.534795E-1,-1.2222987E-1,8.88912E-1,3.5698065E-3,4.7671682E-1,4.429503E-1,1.3759537E0,5.877507E-1,-5.089679E-3,1.2952055E-1,9.159097E-1,-1.2236351E0,6.5434486E-2,-3.7781503E-2,9.7694784E-1,-1.07121E-1,-6.702163E-1,2.7887306E-1,-4.1028777E-1,1.2154753E0,-8.884805E-2,1.08364664E-1,1.4294467E0,-9.547949E-1,-8.6736344E-2],"categories":[],"categories_nodes":[],"categories_segments":[],"categories_sizes":[],"default_left":[1,1,1,1,1,1,1,1,1,1,1,1,1,1,1,1,1,1,1,1,1,1,1,1,1,1,1,1,1,1,1,0,0,0,0,0,0,0,0,0,0,0,0,0,0,0,0,0,0,0,0,0,0,0,0,0,0,0,0,0,0,0,0],"id":4,"left_children":[1,3,5,7,9,11,13,15,17,19,21,23,25,27,29,31,33,35,37,39,41,43,45,47,49,51,53,55,57,59,61,-1,-1,-1,-1,-1,-1,-1,-1,-1,-1,-1,-1,-1,-1,-1,-1,-1,-1,-1,-1,-1,-1,-1,-1,-1,-1,-1,-1,-1,-1,-1,-1],"loss_changes":[2.3397766E1,2.4524963E1,1.6598217E1,1.3704163E1,1.772374E1,1.0561657E1,1.29127865E1,1.5404312E1,7.516176E0,7.3435726E0,1.2504272E1,6.0045266E0,1.110812E1,1.102618E1,8.7618E0,1.8754124E1,1.2481323E1,2.9052882E0,7.328934E0,8.48826E0,9.910904E0,1.5614639E1,1.0332695E1,4.375882E0,1.3799932E0,1.126186E1,1.0919266E1,9.653349E0,6.7895584E0,2.2111607E0,8.426787E0,0E0,0E0,0E0,0E0,0E0,0E0,0E0,0E0,0E0,0E0,0E0,0E0,0E0,0E0,0E0,0E0,0E0,0E0,0E0,0E0,0E0,0E0,0E0,0E0,0E0,0E0,0E0,0E0,0E0,0E0,0E0,0E0],"parents":[2147483647,0,0,1,1,2,2,3,3,4,4,5,5,6,6,7,7,8,8,9,9,10,10,11,11,12,12,13,13,14,14,15,15,16,16,17,17,18,18,19,19,20,20,21,21,22,22,23,23,24,24,25,25,26,26,27,27,28,28,29,29,30,30],"right_children":[2,4,6,8,10,12,14,16,18,20,22,24,26,28,30,32,34,36,38,40,42,44,46,48,50,52,54,56,58,60,62,-1,-1,-1,-1,-1,-1,-1,-1,-1,-1,-1,-1,-1,-1,-1,-1,-1,-1,-1,-1,-1,-1,-1,-1,-1,-1,-1,-1,-1,-1,-1,-1],"split_conditions":[4.512394E-3,8.117449E-1,9.547912E-4,1.0762762E-3,-7.339695E-4,3.8128834E1,9.159756E-1,5.785507E-4,-3.615342E-3,8.915401E-4,6.146605E-4,9.397891E-4,-5.6174487E-1,1.5322732E-2,3.266421E1,6.685321E1,1.191412E-3,1.3257328E-3,1.1573269E-3,1.3526254E-3,-8.8086E-3,5.3390407E-4,3.7951537E-3,5.4989415E-3,-1.2940952E-1,8.333674E-3,8.285747E-4,1.30536705E-2,2.2761268E-3,-1.3060411E-3,4.750157E1,9.035799E-3,-3.0645756E-2,1.2965378E-2,2.0638416E-2,1.4972897E-2,-5.5138398E-2,-1.6544279E-2,7.673975E-3,-6.1114933E-3,4.44456E-2,1.7849033E-4,2.3835842E-2,2.2147516E-2,6.8797685E-2,2.9387534E-2,-2.5448395E-4,6.4760274E-3,4.5795485E-2,-6.1181754E-2,3.2717243E-3,-1.8890752E-3,4.8847392E-2,-5.35605E-3,-3.3510815E-2,1.3943653E-2,-2.051439E-2,6.0773768E-2,-4.4424026E-3,5.418233E-3,7.147234E-2,-4.7739744E-2,-4.336817E-3],"split_indices":[4,10,3,0,4,5,7,3,1,3,3,3,10,4,5,5,4,0,0,1,4,3,4,4,8,4,3,4,1,0,5,0,0,0,0,0,0,0,0,0,0,0,0,0,0,0,0,0,0,0,0,0,0,0,0,0,0,0,0,0,0,0,0],"split_type":[0,0,0,0,0,0,0,0,0,0,0,0,0,0,0,0,0,0,0,0,0,0,0,0,0,0,0,0,0,0,0,0,0,0,0,0,0,0,0,0,0,0,0,0,0,0,0,0,0,0,0,0,0,0,0,0,0,0,0,0,0,0,0],"sum_hessian":[4.32656E3,3.5917107E3,7.3484955E2,2.8635464E3,7.281641E2,2.5274174E2,4.8210782E2,2.498295E3,3.652516E2,3.363201E2,3.9184402E2,3.124492E1,2.2149683E2,4.2217728E2,5.993055E1,1.6697945E2,2.3313154E3,7.592772E0,3.576588E2,6.969736E1,2.6662274E2,7.549024E1,3.163538E2,2.864696E1,2.5979617E0,7.933349E1,1.4216333E2,3.9931143E2,2.286585E1,4.892742E0,5.5037807E1,1.2939247E2,3.7586983E1,1.5043359E3,8.269795E2,1.398516E0,6.194256E0,3.3620144E1,3.2403867E2,6.111402E1,8.583334E0,5.600196E1,2.1062077E2,3.263062E1,4.2859627E1,2.8358646E2,3.2767326E1,1.292294E1,1.5724019E1,1.4991239E0,1.0988377E0,6.7288605E1,1.2044882E1,8.447443E1,5.7688908E1,3.7869882E2,2.0612606E1,1.797696E1,4.8888903E0,2.1963782E0,2.6963642E0,1.4581189E1,4.045662E1],"tree_param":{"num_deleted":"0","num_feature":"11","num_nodes":"63","size_leaf_vector":"0"}},{"base_weights":[2.49883E-1,2.791526E-1,1.07334055E-1,3.404146E-1,2.1894349E-1,4.792275E-2,5.423682E-1,3.5362932E-1,-5.729619E-1,-1.8386738E-1,2.4048568E-1,9.953488E-2,-2.9266527E-1,-1.0072687E0,6.15016E-1,6.6973764E-1,3.2715845E-1,7.861389E-1,-8.1772953E-1,5.2939456E-2,-6.835558E-1,6.5965354E-2,2.784751E-1,1.5191532E-2,4.3006128E-1,-4.8266053E-1,6.311804E-1,-3.4430784E-1,-1.2676185E0,9.321684E-1,1.9958808E-1,7.1095806E-1,-9.1386414E-1,3.3774048E-1,-3.1937328E-1,1.3205365E0,-4.8101744E-1,-9.8864573E-1,1.268365E-1,2.758319E-1,-9.0659034E-1,-1.1043825E0,6.5050197E-1,1.9653407E-1,-3.7993652E-1,6.383049E-2,3.303212E-1,-2.1823594E-2,6.49391E-1,9.7437215E-1,2.6186898E-1,-2.5456287E-2,-6.411547E-1,1.2287164E0,-2.5067908E-1,1.0716445E0,-4.0269982E-2,9.251931E-1,-6.1209124E-2],"categories":[],"categories_nodes":[],"categories_segments":[],"categories_sizes":[],"default_left":[1,1,1,1,1,1,1,1,1,1,1,1,1,1,1,1,1,1,1,1,1,1,1,1,1,1,1,0,0,1,1,0,0,0,0,0,0,0,0,0,0,0,0,0,0,0,0,0,0,0,0,0,0,0,0,0,0,0,0],"id":5,"left_children":[1,3,5,7,9,11,13,15,17,19,21,23,25,27,29,31,33,35,37,39,41,43,45,47,49,51,53,-1,-1,55,57,-1,-1,-1,-1,-1,-1,-1,-1,-1,-1,-1,-1,-1,-1,-1,-1,-1,-1,-1,-1,-1,-1,-1,-1,-1,-1,-1,-1],"loss_changes":[1.8007507E1,1.3152588E1,1.9050163E1,2.1634949E1,1.57621155E1,1.1463639E1,1.0592506E1,1.4432343E1,9.194161E0,1.0984014E1,1.1384018E1,1.5761892E1,1.53744755E1,3.1370592E-1,1.1044884E1,9.419029E0,1.1175018E1,3.636936E0,3.7211494E0,1.3873666E1,1.7459538E1,1.80508E1,1.5693192E1,1.0617169E1,1.02689495E1,5.184931E0,8.253364E0,0E0,0E0,6.562439E0,7.280842E0,0E0,0E0,0E0,0E0,0E0,0E0,0E0,0E0,0E0,0E0,0E0,0E0,0E0,0E0,0E0,0E0,0E0,0E0,0E0,0E0,0E0,0E0,0E0,0E0,0E0,0E0,0E0,0E0],"parents":[2147483647,0,0,1,1,2,2,3,3,4,4,5,5,6,6,7,7,8,8,9,9,10,10,11,11,12,12,13,13,14,14,15,15,16,16,17,17,18,18,19,19,20,20,21,21,22,22,23,23,24,24,25,25,26,26,29,29,30,30],"right_children":[2,4,6,8,10,12,14,16,18,20,22,24,26,28,30,32,34,36,38,40,42,44,46,48,50,52,54,-1,-1,56,58,-1,-1,-1,-1,-1,-1,-1,-1,-1,-1,-1,-1,-1,-1,-1,-1,-1,-1,-1,-1,-1,-1,-1,-1,-1,-1,-1,-1],"split_conditions":[4.491848E-3,6.123234E-17,2.6220735E-3,8.79981E1,-8.837953E-3,1.5362769E-3,2.9001717E1,-4.118885E-3,1.0072193E-3,2.0639547E-3,3.4651016E1,1.2613053E-3,1.9377945E-3,-1.9600962E-3,-1.2940952E-1,2.3705005E-3,7.1137385E-3,8.558207E-4,4.028731E-3,-9.459177E-3,4.2000734E-3,3.1762724E1,9.82363E-4,2.9682862E-3,1.7486094E-3,3.8798054E1,1.438378E-2,-1.7215392E-2,-6.338093E-2,8.112005E1,-8.1157364E-4,3.5547905E-2,-4.5693208E-2,1.6887024E-2,-1.5968664E-2,6.602683E-2,-2.4050873E-2,-4.943229E-2,6.341825E-3,1.3791596E-2,-4.532952E-2,-5.5219125E-2,3.25251E-2,9.826704E-3,-1.8996825E-2,3.1915244E-3,1.651606E-2,-1.0911798E-3,3.2469552E-2,4.871861E-2,1.3093449E-2,-1.2728143E-3,-3.2057736E-2,6.143582E-2,-1.2533954E-2,5.358223E-2,-2.0134992E-3,4.6259653E-2,-3.0604561E-3],"split_indices":[4,7,6,5,4,3,5,2,2,3,5,3,3,0,8,1,2,3,1,4,6,5,6,1,6,5,4,0,0,5,0,0,0,0,0,0,0,0,0,0,0,0,0,0,0,0,0,0,0,0,0,0,0,0,0,0,0,0,0],"split_type":[0,0,0,0,0,0,0,0,0,0,0,0,0,0,0,0,0,0,0,0,0,0,0,0,0,0,0,0,0,0,0,0,0,0,0,0,0,0,0,0,0,0,0,0,0,0,0,0,0,0,0,0,0,0,0,0,0,0,0],"sum_hessian":[4.3220933E3,3.5850215E3,7.3707153E2,1.7746669E3,1.8103547E3,6.4948364E2,8.7587875E1,1.7499613E3,2.4705566E1,9.1519745E1,1.718835E3,5.6462854E2,8.4855095E1,3.346173E0,8.42417E1,1.3334062E2,1.6166206E3,3.4327946E0,2.1272772E1,6.26998E1,2.8819944E1,3.077577E2,1.4110773E3,4.5067245E2,1.13956116E2,7.0776886E1,1.4078203E1,1.5984144E0,1.7477587E0,4.706598E1,3.7175724E1,1.3049495E2,2.8456717E0,1.5910568E3,2.5563856E1,2.3848896E0,1.047905E0,1.7973803E1,3.298969E0,5.1458794E1,1.1241004E1,2.203971E1,6.780235E0,2.3848415E2,6.9273544E1,2.7496082E2,1.1361165E3,4.2673178E2,2.394066E1,2.5768812E1,8.81873E1,1.8518278E1,5.2258614E1,8.157481E0,5.9207225E0,4.1072906E1,5.993073E0,9.155422E0,2.80203E1],"tree_param":{"num_deleted":"0","num_feature":"11","num_nodes":"59","size_leaf_vector":"0"}},{"base_weights":[2.3981215E-1,1.8410727E-1,3.168348E-1,1.648802E-1,5.380028E-1,3.8458115E-1,7.77041E-2,1.7224135E-1,-3.6091864E-1,-1.2837241E0,5.960354E-1,-3.956556E-2,4.16192E-1,-1.30270785E-2,5.5895054E-1,1.7553401E-1,-1.0087178E0,7.31754E-1,-7.842305E-1,9.9283725E-1,4.3049455E-1,7.8450197E-1,-2.5265115E-1,-1.3172044E-1,4.4000062E-1,5.513293E-1,-1.0418019E-1,-5.7540697E-1,8.1767803E-1,9.8252244E-2,2.1577018E-1,4.6751168E-1,-1.601793E0,1.2551757E0,3.137814E-3,-9.387599E-1,6.3487417E-1,-6.025426E-1,1.0693725E0,6.7003006E-1,-1.4290369E-2,-1.2396467E0,1.0087031E0,-1.0921428E0,-1.1444624E-1,1.0510794E0,-3.3840576E-1,-9.588071E-2,4.622531E-1,1.1265006E0,1.8952988E-1,-8.7422967E-1,-7.32624E-2,-7.990348E-1,6.687531E-1,1.0148615E0,-3.610877E-1],"categories":[],"categories_nodes":[],"categories_segments":[],"categories_sizes":[],"default_left":[1,1,1,1,1,1,1,1,1,0,1,1,1,1,1,1,1,1,1,1,1,1,1,1,1,1,1,1,1,0,0,0,0,0,0,0,0,0,0,0,0,0,0,0,0,0,0,0,0,0,0,0,0,0,0,0,0],"id":6,"left_children":[1,3,5,7,9,11,13,15,17,-1,19,21,23,25,27,29,31,33,35,37,39,41,43,45,47,49,51,53,55,-1,-1,-1,-1,-1,-1,-1,-1,-1,-1,-1,-1,-1,-1,-1,-1,-1,-1,-1,-1,-1,-1,-1,-1,-1,-1,-1,-1],"loss_changes":[1.8483475E1,1.699173E1,2.9330444E1,9.282822E0,1.439344E1,1.8947998E1,1.7531704E1,9.315392E0,1.593701E1,0E0,7.823723E0,1.7555538E1,1.7201035E1,1.7479036E1,1.9162037E1,7.2687836E0,6.599355E0,3.7304373E0,5.9517384E0,5.065937E0,9.641054E0,1.0577306E1,9.075024E0,1.3922571E1,1.5065262E1,9.619448E0,6.8976555E0,3.9886022E0,1.251622E1,0E0,0E0,0E0,0E0,0E0,0E0,0E0,0E0,0E0,0E0,0E0,0E0,0E0,0E0,0E0,0E0,0E0,0E0,0E0,0E0,0E0,0E0,0E0,0E0,0E0,0E0,0E0,0E0],"parents":[2147483647,0,0,1,1,2,2,3,3,4,4,5,5,6,6,7,7,8,8,10,10,11,11,12,12,13,13,14,14,15,15,16,16,17,17,18,18,19,19,20,20,21,21,22,22,23,23,24,24,25,25,26,26,27,27,28,28],"right_children":[2,4,6,8,10,12,14,16,18,-1,20,22,24,26,28,30,32,34,36,38,40,42,44,46,48,50,52,54,56,-1,-1,-1,-1,-1,-1,-1,-1,-1,-1,-1,-1,-1,-1,-1,-1,-1,-1,-1,-1,-1,-1,-1,-1,-1,-1,-1,-1],"split_conditions":[2.0048442E-1,3.147894E-3,3.8671019E-3,6.3353083E-3,-1.668948E-2,-8.811474E-3,2.350804E-3,1.4032724E-2,1.7935138E-3,-6.418621E-2,-7.865661E-1,-1.5018994E-2,8.554525E-4,3.677952E1,-9.159756E-1,4.3912315E1,-3.7940952E-1,2.029993E-3,7.259923E-3,-1.2727895E-2,2.863338E-3,-7.865661E-1,-5.595061E-3,6.123234E-17,-3.9091575E-1,1.312081E-3,9.3311875E-4,4.1572186E-3,2.1278576E-3,4.9126125E-3,1.078851E-2,2.3375584E-2,-8.008965E-2,6.275879E-2,1.568907E-4,-4.6938E-2,3.174371E-2,-3.0127129E-2,5.3468626E-2,3.3501502E-2,-7.145185E-4,-6.1982334E-2,5.0435156E-2,-5.460714E-2,-5.722312E-3,5.255397E-2,-1.6920289E-2,-4.7940356E-3,2.3112655E-2,5.632503E-2,9.476494E-3,-4.3711483E-2,-3.66312E-3,-3.9951738E-2,3.3437654E-2,5.0743073E-2,-1.8054387E-2],"split_indices":[10,6,4,2,4,4,6,4,6,0,8,4,6,5,7,5,8,4,4,4,2,8,2,7,9,6,6,6,0,0,0,0,0,0,0,0,0,0,0,0,0,0,0,0,0,0,0,0,0,0,0,0,0,0,0,0,0],"split_type":[0,0,0,0,0,0,0,0,0,0,0,0,0,0,0,0,0,0,0,0,0,0,0,0,0,0,0,0,0,0,0,0,0,0,0,0,0,0,0,0,0,0,0,0,0,0,0,0,0,0,0,0,0,0,0,0,0],"sum_hessian":[4.320554E3,2.509213E3,1.8113411E3,2.381303E3,1.2790985E2,1.4109945E3,4.0034662E2,2.3490884E3,3.221465E1,3.2968333E0,1.2461302E2,9.784761E1,1.3131469E3,3.3765936E2,6.268725E1,2.343406E3,5.6823483E0,8.791911E0,2.3422739E1,3.5212074E1,8.940095E1,1.9552078E1,7.829553E1,5.4495667E1,1.2586512E3,4.6251846E1,2.9140753E2,1.1415124E1,5.1272125E1,8.035216E2,1.5398844E3,1.6892744E0,3.9930737E0,4.6958394E0,4.0960717E0,2.1427893E1,1.9948459E0,1.2972889E0,3.3914783E1,5.777841E1,3.1622536E1,1.4980555E0,1.8054022E1,1.0091974E1,6.820356E1,7.498504E0,4.699716E1,5.00498E1,1.2086014E3,1.7043425E1,2.920842E1,1.0195627E1,2.8121188E2,9.979212E0,1.4359117E0,4.4043583E1,7.228544E0],"tree_param":{"num_deleted":"0","num_feature":"11","num_nodes":"57","size_leaf_vector":"0"}},{"base_weights":[2.300664E-1,-1.0989604E-1,2.3931721E-1,3.2877114E-1,-2.801211E-1,1.9102553E-1,3.0731475E-1,-2.6012084E-1,6.6571224E-1,3.054178E-1,-4.303058E-1,1.9897167E-1,-3.2628593E-1,-1.3265839E-1,3.2426822E-1,3.942165E-1,-1.0693442E0,1.0893785E0,1.22181505E-1,5.9599954E-1,-1.3113204E0,1.7010622E-2,-6.867451E-1,2.2868508E-1,9.340637E-2,4.8101512E-1,-8.254233E-1,1.9561194E-1,-5.245398E-1,5.0782627E-1,2.82885E-1,-2.209552E-1,1.1369894E0,-1.1818362E-1,-1.4911767E0,-1.1756061E-1,1.3353705E0,7.416418E-1,-7.95546E-1,-1.7823192E-1,1.2514263E0,-4.6023515E-1,7.1919954E-1,-2.904215E-1,-9.742908E-1,4.3373156E-1,2.1228571E-1,2.3475969E-1,-1.3018967E-1,-5.0381726E-1,6.5789086E-1,7.4090755E-1,-1.0292654E0,-1.2789114E0,3.6910853E-1,-1.2951692E0,-1.205344E-1,7.881704E-1,2.5128534E-1,3.5702896E-1,1.937766E-1],"categories":[],"categories_nodes":[],"categories_segments":[],"categories_sizes":[],"default_left":[1,1,1,1,1,1,1,1,1,1,1,1,1,1,1,1,1,1,1,1,0,1,1,1,1,1,1,1,1,1,1,0,0,0,0,0,0,0,0,0,0,0,0,0,0,0,0,0,0,0,0,0,0,0,0,0,0,0,0,0,0],"id":7,"left_children":[1,3,5,7,9,11,13,15,17,19,21,23,25,27,29,31,33,35,37,39,-1,41,43,45,47,49,51,53,55,57,59,-1,-1,-1,-1,-1,-1,-1,-1,-1,-1,-1,-1,-1,-1,-1,-1,-1,-1,-1,-1,-1,-1,-1,-1,-1,-1,-1,-1,-1,-1],"loss_changes":[1.3586868E1,8.672601E0,1.3726288E1,6.638668E0,7.458891E0,1.0166061E1,1.303421E1,7.081484E0,4.7042885E0,9.047139E0,7.666291E0,7.5718765E0,1.552933E1,8.506999E0,1.2597748E1,3.762756E0,2.1880765E0,3.6244087E0,6.4614973E0,8.139859E0,0E0,8.806603E0,4.553425E0,6.2577972E0,1.6889282E1,2.9407704E0,8.2893715E0,9.753193E0,9.200176E0,2.1904816E1,8.988831E0,0E0,0E0,0E0,0E0,0E0,0E0,0E0,0E0,0E0,0E0,0E0,0E0,0E0,0E0,0E0,0E0,0E0,0E0,0E0,0E0,0E0,0E0,0E0,0E0,0E0,0E0,0E0,0E0,0E0,0E0],"parents":[2147483647,0,0,1,1,2,2,3,3,4,4,5,5,6,6,7,7,8,8,9,9,10,10,11,11,12,12,13,13,14,14,15,15,16,16,17,17,18,18,19,19,21,21,22,22,23,23,24,24,25,25,26,26,27,27,28,28,29,29,30,30],"right_children":[2,4,6,8,10,12,14,16,18,20,22,24,26,28,30,32,34,36,38,40,-1,42,44,46,48,50,52,54,56,58,60,-1,-1,-1,-1,-1,-1,-1,-1,-1,-1,-1,-1,-1,-1,-1,-1,-1,-1,-1,-1,-1,-1,-1,-1,-1,-1,-1,-1,-1,-1],"split_conditions":[5.2251655E-4,-6.035534E-1,2.0048442E-1,4.6578835E-4,4.220595E-4,8.743352E1,-3.9091575E-1,1.643479E-5,4.9512926E-4,1.3462169E-3,-9.956087E-5,7.865661E-1,0E0,2.1144481E-4,7.371353E-4,-2.1058015E-4,-9.159756E-1,-6.3842617E-4,5.623016E1,5.827237E1,-6.5566026E-2,-3.3222506E-4,2.0048442E-1,-4.51445E-3,1.1487735E-3,6.3091936E-4,9.4992237E-4,-3.2024325E-3,4.980442E1,6.123234E-17,5.4476375E-4,-1.104776E-2,5.684947E-2,-5.909181E-3,-7.455884E-2,-5.878031E-3,6.676853E-2,3.708209E-2,-3.97773E-2,-8.911597E-3,6.257132E-2,-2.3011757E-2,3.5959978E-2,-1.45210745E-2,-4.871454E-2,2.1686578E-2,1.0614286E-2,1.1737985E-2,-6.509484E-3,-2.5190864E-2,3.2894544E-2,3.704538E-2,-5.1463272E-2,-6.394557E-2,1.8455427E-2,-6.4758465E-2,-6.02672E-3,3.940852E-2,1.2564267E-2,1.7851448E-2,9.68883E-3],"split_indices":[3,8,10,3,3,5,9,0,3,2,0,7,9,0,3,0,8,0,5,5,0,0,10,2,3,3,2,2,5,7,2,0,0,0,0,0,0,0,0,0,0,0,0,0,0,0,0,0,0,0,0,0,0,0,0,0,0,0,0,0,0],"split_type":[0,0,0,0,0,0,0,0,0,0,0,0,0,0,0,0,0,0,0,0,0,0,0,0,0,0,0,0,0,0,0,0,0,0,0,0,0,0,0,0,0,0,0,0,0,0,0,0,0,0,0,0,0,0,0,0,0,0,0,0,0],"sum_hessian":[4.3108926E3,1.1390905E2,4.196984E3,3.1584614E1,8.232443E1,2.4563206E3,1.7406632E3,1.1577655E1,2.000696E1,1.6594059E1,6.573038E1,2.419767E3,3.655338E1,6.43311E1,1.6763322E3,6.685008E0,4.8926463E0,1.0678849E1,9.328111E0,1.46011095E1,1.9929489E0,2.4291496E1,4.143888E1,1.8873654E3,5.3240186E2,1.3979442E1,2.2573936E1,3.5279278E1,2.905182E1,3.0632697E2,1.3700051E3,4.0408573E0,2.6441507E0,1.8965089E0,2.9961374E0,1.896404E0,8.782445E0,5.683593E0,3.6445181E0,7.0276613E0,7.573448E0,1.4667343E1,9.624153E0,1.8268898E1,2.3169985E1,1.3788585E2,1.7494795E3,3.2615973E2,2.0624211E2,1.8470068E0,1.2132435E1,2.2960763E0,2.027786E1,3.0433002E0,3.2235977E1,9.233449E0,1.9818373E1,1.4538264E2,1.6094432E2,7.461518E2,6.2385333E2],"tree_param":{"num_deleted":"0","num_feature":"11","num_nodes":"61","size_leaf_vector":"0"}},{"base_weights":[2.1837042E-1,2.775699E-1,1.6154818E-1,3.6685258E-1,1.8637349E-1,-2.565805E-1,1.738959E-1,1.1924281E0,3.391534E-1,3.0581096E-1,-2.1952292E-2,-4.247451E-1,5.458255E-1,2.3425038E-1,8.741089E-2,1.3513006E0,2.225053E-1,3.0820182E-1,7.645732E-1,3.3049053E-1,-4.8200586E-1,6.623262E-2,-3.7566042E-1,-2.649223E-1,-1.3008857E0,-3.6248192E-1,1.0389646E0,1.999829E-1,6.827213E-1,-4.587314E-3,1.9522424E-1,1.4287206E0,3.6159422E-2,-5.497916E-1,9.9871933E-1,4.5831677E-1,2.1261983E-1,-4.515154E-1,9.0209013E-1,1.5806554E-1,4.3449885E-1,3.670429E-1,-1.165794E0,1.1590247E0,3.5677068E-2,-8.64765E-1,3.8761873E-2,-7.906754E-1,7.186725E-2,5.6546354E-1,-1.7027502E0,7.2972596E-1,-1.0630467E0,1.4741744E0,-6.124276E-1,2.1057895E-1,-8.885874E-1,3.4752744E-1,1.2018458E0,-4.5150075E-2,5.1690006E-1,5.420187E-1,1.1318315E-1],"categories":[],"categories_nodes":[],"categories_segments":[],"categories_sizes":[],"default_left":[1,1,1,1,1,1,1,1,1,1,1,1,1,1,1,1,1,1,1,1,1,1,1,1,1,1,1,1,1,1,1,0,0,0,0,0,0,0,0,0,0,0,0,0,0,0,0,0,0,0,0,0,0,0,0,0,0,0,0,0,0,0,0],"id":8,"left_children":[1,3,5,7,9,11,13,15,17,19,21,23,25,27,29,31,33,35,37,39,41,43,45,47,49,51,53,55,57,59,61,-1,-1,-1,-1,-1,-1,-1,-1,-1,-1,-1,-1,-1,-1,-1,-1,-1,-1,-1,-1,-1,-1,-1,-1,-1,-1,-1,-1,-1,-1,-1,-1],"loss_changes":[1.4361862E1,1.6998917E1,1.1339436E1,2.3793045E1,2.5858688E1,8.753713E0,1.10742035E1,4.9311867E0,1.3263542E1,1.3000324E1,1.1863438E1,7.045271E0,5.4739823E0,1.9093178E1,8.6820135E0,2.8986816E0,4.131355E0,1.3638756E1,1.1922043E1,1.1426376E1,1.2310867E1,1.013117E1,1.5416478E1,8.182246E0,6.877556E0,4.407002E0,6.389617E0,1.3611893E1,1.4966133E1,1.003358E1,1.1404624E1,0E0,0E0,0E0,0E0,0E0,0E0,0E0,0E0,0E0,0E0,0E0,0E0,0E0,0E0,0E0,0E0,0E0,0E0,0E0,0E0,0E0,0E0,0E0,0E0,0E0,0E0,0E0,0E0,0E0,0E0,0E0,0E0],"parents":[2147483647,0,0,1,1,2,2,3,3,4,4,5,5,6,6,7,7,8,8,9,9,10,10,11,11,12,12,13,13,14,14,15,15,16,16,17,17,18,18,19,19,20,20,21,21,22,22,23,23,24,24,25,25,26,26,27,27,28,28,29,29,30,30],"right_children":[2,4,6,8,10,12,14,16,18,20,22,24,26,28,30,32,34,36,38,40,42,44,46,48,50,52,54,56,58,60,62,-1,-1,-1,-1,-1,-1,-1,-1,-1,-1,-1,-1,-1,-1,-1,-1,-1,-1,-1,-1,-1,-1,-1,-1,-1,-1,-1,-1,-1,-1,-1,-1],"split_conditions":[6.123234E-17,1.2940952E-1,5.2635174E-4,1.9538303E1,4.078265E-4,8.783797E-1,1.5357353E-3,-5.712932E-4,7.2489623E-3,8.166992E1,8.783797E-1,5.152001E-4,4.9521378E1,7.9007324E1,5.190062E1,2.729813E-3,-1.3313447E-5,4.62143E1,-3.0616708E-3,4.38696E1,1.3490026E-3,-1.3637574E-2,1.0510697E-3,7.7756064E-4,-2.1694186E-1,-9.366636E-5,7.4725E1,1.6278743E-3,1.2400926E-3,2.4437916E-3,-8.0394815E-4,7.143603E-2,1.8079712E-3,-2.7489578E-2,4.9935967E-2,2.2915838E-2,1.0630991E-2,-2.2575771E-2,4.5104507E-2,7.903277E-3,2.1724943E-2,1.8352145E-2,-5.8289703E-2,5.7951238E-2,1.7838534E-3,-4.323825E-2,1.9380937E-3,-3.953377E-2,3.5933626E-3,2.8273178E-2,-8.513751E-2,3.6486298E-2,-5.3152334E-2,7.370872E-2,-3.062138E-2,1.0528947E-2,-4.4429373E-2,1.7376373E-2,6.009229E-2,-2.2575038E-3,2.5845004E-2,2.7100936E-2,5.6591574E-3],"split_indices":[7,8,3,5,1,9,6,1,4,5,9,3,5,5,5,3,0,5,1,5,6,4,3,6,9,0,5,3,6,3,1,0,0,0,0,0,0,0,0,0,0,0,0,0,0,0,0,0,0,0,0,0,0,0,0,0,0,0,0,0,0,0,0],"split_type":[0,0,0,0,0,0,0,0,0,0,0,0,0,0,0,0,0,0,0,0,0,0,0,0,0,0,0,0,0,0,0,0,0,0,0,0,0,0,0,0,0,0,0,0,0,0,0,0,0,0,0,0,0,0,0,0,0,0,0,0,0,0,0],"sum_hessian":[4.2818076E3,2.095135E3,2.1866726E3,1.057148E3,1.0379869E3,6.2154808E1,2.1245178E3,3.295234E1,1.0241957E3,6.594454E2,3.785416E2,5.1774754E1,1.0380056E1,1.2502848E3,8.742331E2,2.7976591E1,4.9757466E0,9.563411E2,6.785452E1,6.399776E2,1.9467783E1,3.0364975E2,7.489184E1,4.4888676E1,6.8860774E0,3.7457504E0,6.634306E0,1.1628759E3,8.740895E1,4.7223108E2,4.02002E2,2.633966E1,1.6369311E0,2.640386E0,2.3353603E0,3.7056323E2,5.857779E2,6.661577E0,6.1192944E1,2.4174026E2,3.9823734E2,8.891086E0,1.0576697E1,7.25485E0,2.963949E2,3.385235E1,4.103949E1,1.7001072E1,2.7887604E1,1.147895E0,5.7381825E0,1.4474672E0,2.2982833E0,5.3354974E0,1.2988089E0,1.1524644E3,1.0411428E1,5.4128273E1,3.3280678E1,4.38998E2,3.3233086E1,7.5834915E1,3.261671E2],"tree_param":{"num_deleted":"0","num_feature":"11","num_nodes":"63","size_leaf_vector":"0"}},{"base_weights":[2.1618997E-1,1.8890229E-1,3.254744E-1,2.2609949E-1,1.0199834E-1,8.5119975E-1,3.0437836E-1,2.303992E-1,-8.391662E-1,2.557494E-1,4.1774865E-3,4.3123236E-1,1.3871932E0,5.242395E-1,2.470678E-1,2.6411307E-1,1.2608762E-1,3.9329472E-1,-1.2521846E0,-7.142908E-2,3.4081173E-1,-3.8204667E-1,6.414649E-2,-6.544293E-1,8.744638E-1,7.96094E-1,2.7400514E-1,-1.4088093E0,2.5950867E-1,2.4021934E-1,6.4569455E-1,2.59612E-1,-1.15633E-1,1.0365536E0,-4.8961246E-1,-1.6358477E0,8.846223E-2,1.7752208E-1,-5.9508866E-1,2.9010156E-1,7.7461696E-1,6.732404E-2,-6.786361E-1,-8.21934E-2,2.2071639E-1,4.1958398E-1,-1.1416914E0,1.1107155E0,-3.2648924E-1,-2.062205E-1,9.062213E-1,2.5334375E-2,1.2051286E0,-4.564953E-1,2.7549347E-1],"categories":[],"categories_nodes":[],"categories_segments":[],"categories_sizes":[],"default_left":[1,1,1,1,1,1,1,1,1,1,1,1,0,1,1,1,1,1,1,1,1,1,1,1,1,1,1,0,1,0,0,0,0,0,0,0,0,0,0,0,0,0,0,0,0,0,0,0,0,0,0,0,0,0,0],"id":9,"left_children":[1,3,5,7,9,11,13,15,17,19,21,23,-1,25,27,29,31,33,35,37,39,41,43,45,47,49,51,-1,53,-1,-1,-1,-1,-1,-1,-1,-1,-1,-1,-1,-1,-1,-1,-1,-1,-1,-1,-1,-1,-1,-1,-1,-1,-1,-1],"loss_changes":[1.2731293E1,1.1081139E1,9.231728E0,1.1207451E1,1.5511694E1,6.7079544E0,1.0256752E1,8.392021E0,5.5228295E0,1.1185587E1,1.4648353E1,1.0027603E1,0E0,1.1315575E1,1.3874199E1,1.6344383E1,1.8979038E1,2.3484514E0,4.074811E0,1.10014E1,6.7809677E0,1.1374771E1,1.2560023E1,3.7594614E0,4.4429398E0,9.098835E0,2.0763882E1,0E0,7.5845184E0,0E0,0E0,0E0,0E0,0E0,0E0,0E0,0E0,0E0,0E0,0E0,0E0,0E0,0E0,0E0,0E0,0E0,0E0,0E0,0E0,0E0,0E0,0E0,0E0,0E0,0E0],"parents":[2147483647,0,0,1,1,2,2,3,3,4,4,5,5,6,6,7,7,8,8,9,9,10,10,11,11,13,13,14,14,15,15,16,16,17,17,18,18,19,19,20,20,21,21,22,22,23,23,24,24,25,25,26,26,28,28],"right_children":[2,4,6,8,10,12,14,16,18,20,22,24,-1,26,28,30,32,34,36,38,40,42,44,46,48,50,52,-1,54,-1,-1,-1,-1,-1,-1,-1,-1,-1,-1,-1,-1,-1,-1,-1,-1,-1,-1,-1,-1,-1,-1,-1,-1,-1,-1],"split_conditions":[8.117449E-1,6.035534E-1,-4.702806E-3,9.35589E1,8.933239E-4,1.9979551E-3,7.1399537E-4,1.7024064E-3,0E0,6.137704E-4,9.640789E-4,-6.8167723E-3,6.935966E-2,-1.2940952E-1,7.1825576E-4,3.044529E-3,1.2940952E-1,3.880674E-3,3.964575E-3,2.0048442E-1,8.710844E-4,9.212377E-4,5.2728676E1,-1.2940952E-1,-8.3086174E-4,-1.2263341E-3,9.2580036E-4,-7.044046E-2,2.0123396E1,1.2010967E-2,3.228473E-2,1.29806E-2,-5.78165E-3,5.182768E-2,-2.4480624E-2,-8.1792384E-2,4.4231117E-3,8.876104E-3,-2.9754434E-2,1.4505078E-2,3.873085E-2,3.366202E-3,-3.3931803E-2,-4.10967E-3,1.103582E-2,2.09792E-2,-5.708457E-2,5.5535775E-2,-1.6324462E-2,-1.0311025E-2,4.5311064E-2,1.2667187E-3,6.025643E-2,-2.2824766E-2,1.3774673E-2],"split_indices":[10,7,2,5,3,3,3,2,9,3,3,2,0,7,3,6,8,2,1,10,3,3,5,7,1,2,1,0,5,0,0,0,0,0,0,0,0,0,0,0,0,0,0,0,0,0,0,0,0,0,0,0,0,0,0],"split_type":[0,0,0,0,0,0,0,0,0,0,0,0,0,0,0,0,0,0,0,0,0,0,0,0,0,0,0,0,0,0,0,0,0,0,0,0,0,0,0,0,0,0,0,0,0,0,0,0,0,0,0,0,0,0,0],"sum_hessian":[4.2888247E3,3.4340828E3,8.5474194E2,2.4036533E3,1.0304294E3,3.1457413E1,8.232845E2,2.3947712E3,8.882252E0,4.0004288E2,6.3038654E2,1.8649502E1,1.2807911E1,1.6854521E2,6.547393E2,1.8086707E3,5.861005E2,2.2414484E0,6.6408033E0,8.257844E1,3.1746445E2,8.400302E1,5.4638354E2,5.2684174E0,1.33810835E1,7.9737274E1,8.880794E1,4.0454884E0,6.506938E2,1.7036234E3,1.05047264E2,3.7749924E2,2.086013E2,1.1960326E0,1.0454159E0,4.992009E0,1.6487939E0,5.641797E1,2.616047E1,2.8573218E2,3.1732246E1,3.3706455E1,5.0296566E1,2.8266367E2,2.6371985E2,1.687581E0,3.5808365E0,1.1244251E1,2.1368327E0,7.8072915E0,7.1929985E1,7.090017E1,1.7907768E1,1.3607735E1,6.3708606E2],"tree_param":{"num_deleted":"0","num_feature":"11","num_nodes":"55","size_leaf_vector":"0"}},{"base_weights":[1.9507271E-1,2.3040788E-1,7.0654504E-2,1.8889917E-1,3.9324355E-1,3.1655993E-2,4.0974224E-1,-1.7598204E-1,1.9974467E-1,2.24157E-1,5.5525225E-1,1.8566245E-1,-7.20723E-2,6.451113E-1,-4.1683376E-1,-3.356078E-1,5.001683E-1,1.3859373E-1,2.643242E-1,3.768225E-1,3.0236172E-2,3.483473E-1,6.9374824E-1,-5.098174E-1,2.3744985E-1,-4.4125432E-1,2.9737797E-2,7.8847486E-1,-1.6877285E-1,7.111467E-2,-1.5508826E0,1.069176E-1,-6.048518E-1,1.5176325E0,-2.157468E-2,3.145025E-1,8.489517E-2,3.5203865E-1,1.00730106E-1,-4.1964944E-2,5.748337E-1,1.1618723E-1,-6.5872556E-1,8.204037E-1,-9.988517E-2,7.441441E-1,-1.3785917E-1,-7.343517E-1,3.4112164E-1,5.600432E-1,6.0652986E-2,-3.4045553E-1,-1.1168991E0,1.2760511E-1,-3.2895035E-1,1.082781E0,3.8767803E-1,4.9349225E-1,-1.2087132E0,-7.437461E-1,3.1604406E-1],"categories":[],"categories_nodes":[],"categories_segments":[],"categories_sizes":[],"default_left":[1,1,1,1,1,1,1,1,1,1,1,1,1,1,1,1,1,1,1,1,1,1,1,1,1,1,1,1,1,1,0,0,0,0,0,0,0,0,0,0,0,0,0,0,0,0,0,0,0,0,0,0,0,0,0,0,0,0,0,0,0],"id":10,"left_children":[1,3,5,7,9,11,13,15,17,19,21,23,25,27,29,31,33,35,37,39,41,43,45,47,49,51,53,55,57,59,-1,-1,-1,-1,-1,-1,-1,-1,-1,-1,-1,-1,-1,-1,-1,-1,-1,-1,-1,-1,-1,-1,-1,-1,-1,-1,-1,-1,-1,-1,-1],"loss_changes":[1.8887802E1,2.2558105E1,1.2583244E1,1.0601921E1,1.848246E1,1.3677696E1,1.9367397E1,8.5441265E0,1.0205666E1,9.877867E0,9.679039E0,1.2530072E1,1.925116E1,9.094439E0,1.2486264E1,7.6166625E0,8.114426E0,1.2576719E1,1.804963E1,1.5515575E1,8.854051E0,2.9879763E1,8.751831E0,4.8732443E0,1.8292982E1,7.1589947E0,1.4158375E1,7.303581E0,9.085648E0,3.546788E0,0E0,0E0,0E0,0E0,0E0,0E0,0E0,0E0,0E0,0E0,0E0,0E0,0E0,0E0,0E0,0E0,0E0,0E0,0E0,0E0,0E0,0E0,0E0,0E0,0E0,0E0,0E0,0E0,0E0,0E0,0E0],"parents":[2147483647,0,0,1,1,2,2,3,3,4,4,5,5,6,6,7,7,8,8,9,9,10,10,11,11,12,12,13,13,14,14,15,15,16,16,17,17,18,18,19,19,20,20,21,21,22,22,23,23,24,24,25,25,26,26,27,27,28,28,29,29],"right_children":[2,4,6,8,10,12,14,16,18,20,22,24,26,28,30,32,34,36,38,40,42,44,46,48,50,52,54,56,58,60,-1,-1,-1,-1,-1,-1,-1,-1,-1,-1,-1,-1,-1,-1,-1,-1,-1,-1,-1,-1,-1,-1,-1,-1,-1,-1,-1,-1,-1,-1,-1],"split_conditions":[3.7583893E-3,8.117449E-1,2.6220735E-3,5.200617E-4,-7.339695E-4,1.4600607E-3,8.783797E-1,1.9519858E-3,6.078576E-1,4.8189922E-4,1.3362507E-3,3.978429E-3,9.5877657E-4,2.1003461E-3,2.0924374E-3,-1.06687985E-4,4.2661116E-4,7.810317E-4,1.0324055E-3,1.4610105E-3,2.8618781E-3,6.1993697E-4,1.8319533E-3,9.584871E-4,4.7504017E-3,1.8577594E-3,1.5362769E-3,-1.2940952E-1,-6.035534E-1,-1.4747126E-3,-7.754413E-2,5.34588E-3,-3.024259E-2,7.588162E-2,-1.078734E-3,1.5725126E-2,4.2447587E-3,1.7601933E-2,5.0365054E-3,-2.0982472E-3,2.8741686E-2,5.8093616E-3,-3.293628E-2,4.1020185E-2,-4.9942588E-3,3.7207205E-2,-6.892958E-3,-3.6717586E-2,1.7056083E-2,2.8002162E-2,3.0326494E-3,-1.7022777E-2,-5.584496E-2,6.380256E-3,-1.6447518E-2,5.4139048E-2,1.9383902E-2,2.4674613E-2,-6.043566E-2,-3.7187304E-2,1.5802203E-2],"split_indices":[4,10,6,3,4,6,9,4,9,2,6,4,3,0,3,0,3,3,2,6,6,3,3,3,4,6,3,8,8,0,0,0,0,0,0,0,0,0,0,0,0,0,0,0,0,0,0,0,0,0,0,0,0,0,0,0,0,0,0,0,0],"split_type":[0,0,0,0,0,0,0,0,0,0,0,0,0,0,0,0,0,0,0,0,0,0,0,0,0,0,0,0,0,0,0,0,0,0,0,0,0,0,0,0,0,0,0,0,0,0,0,0,0,0,0,0,0,0,0,0,0,0,0,0,0],"sum_hessian":[4.298964E3,3.347431E3,9.5153284E2,2.6691846E3,6.782462E2,8.5436554E2,9.716731E1,7.660758E1,2.5925771E3,3.3303998E2,3.4520624E2,3.4353128E2,5.1083426E2,7.580207E1,2.1365248E1,6.238368E1,1.4223906E1,1.3332532E3,1.2593239E3,1.858137E2,1.4722629E2,1.3982742E2,2.0537883E2,2.31946E1,3.2033667E2,1.0970171E2,4.0113254E2,6.4476006E1,1.1326058E1,1.5593225E1,5.7720227E0,2.3826195E1,3.8557484E1,4.174444E0,1.0049462E1,3.106738E2,1.0225794E3,8.1903094E2,4.402929E2,5.9904873E1,1.2590884E2,1.3163551E2,1.5590761E1,6.769942E1,7.2128E1,1.9374307E2,1.1635768E1,1.84605E1,4.7340975E0,1.12639915E2,2.0769676E2,9.676877E1,1.2932942E1,3.1565186E2,8.54807E1,3.619579E1,2.828022E1,7.2405324E0,4.085526E0,3.1330943E0,1.2460131E1],"tree_param":{"num_deleted":"0","num_feature":"11","num_nodes":"61","size_leaf_vector":"0"}},{"base_weights":[1.8799055E-1,2.215894E-1,6.987632E-2,1.7886189E-1,3.9013574E-1,-2.3550217E-3,1.9752751E-1,2.24276E-1,7.006301E-2,1.8516934E-1,4.8708054E-1,4.29744E-2,-3.7237322E-1,3.098163E-1,-2.1679907E-1,3.2537583E-1,1.6867249E-1,-8.701949E-1,8.608111E-2,8.989621E-1,1.2705754E-1,4.9880508E-1,-1.4715855E0,1.1640396E-2,4.6536466E-1,1.7028688E-1,-7.4918133E-1,7.309822E-2,5.08578E-1,1.698103E-1,-1.0564885E0,3.713263E-1,-1.7940577E-2,7.108637E-2,3.3366936E-1,-7.6979764E-2,-1.2469195E0,2.3921285E-2,2.766454E-1,1.3892667E0,-3.9541984E-1,-3.825937E-1,2.6473597E-1,4.4261524E-1,9.3934625E-1,6.702363E-2,-2.6703075E-1,-7.5601375E-1,8.014214E-1,1.0963497E0,-2.744595E-1,-3.0821797E-1,-1.1436695E0,9.844654E-1,-4.054174E-2,6.5070844E-1,5.358442E-2,-5.534902E-1,4.282238E-1,-1.458107E0,-1.4261231E-1],"categories":[],"categories_nodes":[],"categories_segments":[],"categories_sizes":[],"default_left":[1,1,1,1,1,1,1,1,1,1,1,1,1,1,1,1,1,1,1,1,1,1,0,1,1,1,1,1,1,1,1,0,0,0,0,0,0,0,0,0,0,0,0,0,0,0,0,0,0,0,0,0,0,0,0,0,0,0,0,0,0],"id":11,"left_children":[1,3,5,7,9,11,13,15,17,19,21,23,25,27,29,31,33,35,37,39,41,43,-1,45,47,49,51,53,55,57,59,-1,-1,-1,-1,-1,-1,-1,-1,-1,-1,-1,-1,-1,-1,-1,-1,-1,-1,-1,-1,-1,-1,-1,-1,-1,-1,-1,-1,-1,-1],"loss_changes":[1.7044525E1,2.4029236E1,8.792118E0,1.3183907E1,1.3340469E1,1.0246047E1,1.6098322E1,1.053759E1,1.1945599E1,8.955387E0,1.1257751E1,7.197882E0,1.3759753E1,1.273774E1,2.42221E1,1.053727E1,1.958376E1,3.8760347E0,9.183958E0,1.0891634E1,1.4370297E1,1.087899E1,0E0,7.853493E0,1.6022598E1,1.1889107E1,6.524269E0,1.2995487E1,9.498703E0,9.87674E0,8.412653E0,0E0,0E0,0E0,0E0,0E0,0E0,0E0,0E0,0E0,0E0,0E0,0E0,0E0,0E0,0E0,0E0,0E0,0E0,0E0,0E0,0E0,0E0,0E0,0E0,0E0,0E0,0E0,0E0,0E0,0E0],"parents":[2147483647,0,0,1,1,2,2,3,3,4,4,5,5,6,6,7,7,8,8,9,9,10,10,11,11,12,12,13,13,14,14,15,15,16,16,17,17,18,18,19,19,20,20,21,21,23,23,24,24,25,25,26,26,27,27,28,28,29,29,30,30],"right_children":[2,4,6,8,10,12,14,16,18,20,22,24,26,28,30,32,34,36,38,40,42,44,-1,46,48,50,52,54,56,58,60,-1,-1,-1,-1,-1,-1,-1,-1,-1,-1,-1,-1,-1,-1,-1,-1,-1,-1,-1,-1,-1,-1,-1,-1,-1,-1,-1,-1,-1,-1],"split_conditions":[3.7954177E-3,8.117449E-1,6.625017E-3,6.035534E-1,-2.8334311E-3,1.570273E-3,8.783797E-1,-1.8057763E-3,-1.4311602E-2,-1.1925485E-2,5.8039585E-3,1.434806E-3,-5.6174487E-1,1.2153629E-3,6.035534E-1,1.9654823E-3,1.7409672E-3,-1.6301665E-2,8.783797E-1,1.993918E-3,-8.8086E-3,1.5079889E-3,-7.3579274E-2,1.1654624E-3,-7.865661E-1,-8.450714E-4,6.123234E-17,6.9133188E-3,2.2496507E-3,9.972006E-4,8.8822603E-4,1.8566316E-2,-8.970289E-4,3.5543186E-3,1.6683469E-2,-3.8489883E-3,-6.2345978E-2,1.1960643E-3,1.383227E-2,6.9463335E-2,-1.9770993E-2,-1.9129684E-2,1.3236798E-2,2.2130763E-2,4.6967313E-2,3.3511815E-3,-1.3351537E-2,-3.780069E-2,4.007107E-2,5.4817487E-2,-1.3722976E-2,-1.5410899E-2,-5.7183474E-2,4.922327E-2,-2.027087E-3,3.2535423E-2,2.679221E-3,-2.7674511E-2,2.141119E-2,-7.2905354E-2,-7.1306154E-3],"split_indices":[4,10,4,7,4,3,9,4,4,4,3,3,10,3,7,3,4,4,9,1,4,3,0,3,7,1,7,4,1,3,2,0,0,0,0,0,0,0,0,0,0,0,0,0,0,0,0,0,0,0,0,0,0,0,0,0,0,0,0,0,0],"split_type":[0,0,0,0,0,0,0,0,0,0,0,0,0,0,0,0,0,0,0,0,0,0,0,0,0,0,0,0,0,0,0,0,0,0,0,0,0,0,0,0,0,0,0,0,0,0,0,0,0,0,0,0,0,0,0,0,0,0,0,0,0],"sum_hessian":[4.297854E3,3.3453555E3,9.524984E2,2.670443E3,6.7491235E2,6.0892194E2,3.4357648E2,1.8832765E3,7.871666E2,2.1765126E2,4.5726108E2,5.4325397E2,6.566797E1,2.7051505E2,7.306143E1,6.665273E2,1.2167493E3,1.2292199E1,7.7487445E2,1.5296267E1,2.02355E2,4.552811E2,1.9799693E0,5.0669366E2,3.6560287E1,2.7136057E1,3.853191E1,1.2409277E2,1.4642227E2,5.0573967E1,2.2487469E1,5.87776E2,7.8751274E1,7.654567E2,4.512925E2,4.3459315E0,7.946268E0,5.851356E2,1.8973882E2,1.1040776E1,4.2554903E0,4.265988E1,1.5969511E2,4.0555798E2,4.972311E1,4.2332193E2,8.337171E1,7.6191773E0,2.8941113E1,8.328701E0,1.8807356E1,1.9035322E1,1.9496588E1,1.2908273E1,1.111845E2,1.1124235E2,3.5179928E1,1.3011853E1,3.7562115E1,1.520837E1,7.2790985E0],"tree_param":{"num_deleted":"0","num_feature":"11","num_nodes":"61","size_leaf_vector":"0"}},{"base_weights":[1.7319925E-1,2.0234597E-1,4.215503E-2,1.686739E-1,3.3582297E-1,2.745781E-1,-7.084743E-2,1.7131604E-1,-1.508817E0,-7.6563865E-2,3.7267283E-1,9.221202E-1,1.9102903E-1,3.8929265E-2,-3.226055E-1,-3.715618E-1,1.781016E-1,2.9049882E-1,-7.8641397E-1,1.216642E0,3.3740214E-1,-3.2206845E-1,1.1358031E0,1.3281589E0,1.5968099E-1,2.9921523E-1,-7.880489E-2,-3.6563328E-1,5.081626E-1,-7.886857E-2,-8.371921E-1,2.5180593E-1,1.2596202E-1,-4.8683664E-1,7.196273E-1,-1.1543801E0,2.794621E-1,3.8609096E-1,1.3478627E0,-3.6776718E-2,3.8572648E-1,-1.311345E0,4.6596223E-1,1.354442E0,5.058765E-1,-7.466085E-1,2.0230459E-1,3.9503616E-1,-5.3855747E-1,-1.9912815E-1,5.6096E-1,3.2127818E-1,-4.248513E-1,9.1815567E-1,-3.52088E-1],"categories":[],"categories_nodes":[],"categories_segments":[],"categories_sizes":[],"default_left":[1,1,1,1,1,1,1,1,0,1,1,1,1,1,1,1,1,1,1,1,1,1,1,0,1,1,1,1,1,0,0,0,0,0,0,0,0,0,0,0,0,0,0,0,0,0,0,0,0,0,0,0,0,0,0],"id":12,"left_children":[1,3,5,7,9,11,13,15,-1,17,19,21,23,25,27,29,31,33,35,37,39,41,43,-1,45,47,49,51,53,-1,-1,-1,-1,-1,-1,-1,-1,-1,-1,-1,-1,-1,-1,-1,-1,-1,-1,-1,-1,-1,-1,-1,-1,-1,-1],"loss_changes":[1.6313843E1,1.565419E1,2.047445E1,1.2639442E1,1.0714317E1,1.3618946E1,1.4517264E1,1.0343552E1,0E0,1.5473713E1,1.880938E1,8.04348E0,7.883548E0,1.125051E1,5.886099E0,4.672064E0,1.0559998E1,1.345894E1,8.250121E0,2.2606163E0,1.1245827E1,4.5181746E0,2.7396011E0,0E0,8.732572E0,9.389198E0,1.9591042E1,6.327427E0,3.2404046E0,0E0,0E0,0E0,0E0,0E0,0E0,0E0,0E0,0E0,0E0,0E0,0E0,0E0,0E0,0E0,0E0,0E0,0E0,0E0,0E0,0E0,0E0,0E0,0E0,0E0,0E0],"parents":[2147483647,0,0,1,1,2,2,3,3,4,4,5,5,6,6,7,7,9,9,10,10,11,11,12,12,13,13,14,14,15,15,16,16,17,17,18,18,19,19,20,20,21,21,22,22,24,24,25,25,26,26,27,27,28,28],"right_children":[2,4,6,8,10,12,14,16,-1,18,20,22,24,26,28,30,32,34,36,38,40,42,44,-1,46,48,50,52,54,-1,-1,-1,-1,-1,-1,-1,-1,-1,-1,-1,-1,-1,-1,-1,-1,-1,-1,-1,-1,-1,-1,-1,-1,-1,-1],"split_conditions":[4.323743E-3,8.117449E-1,-5.6174487E-1,1.3453763E-2,-8.8086E-3,3.8825623E1,6.035534E-1,-3.447032E-3,-7.544085E-2,-1.0176563E-2,-7.0411796E-3,-6.035534E-1,-2.9900046E-3,4.8555435E1,8.383063E1,-4.8666648E-3,-1.9775092E-4,-3.7940952E-1,5.9302086E1,3.0271172E1,-4.0537193E-3,-4.7007147E-3,-1.4636852E-3,6.640794E-2,-9.829629E-1,1.6775816E-3,9.963006E-3,4.5786155E-3,8.783797E-1,-3.9434284E-3,-4.185961E-2,1.2590297E-2,6.298101E-3,-2.4341833E-2,3.598137E-2,-5.7719003E-2,1.3973105E-2,1.930455E-2,6.739314E-2,-1.8388359E-3,1.9286325E-2,-6.556725E-2,2.3298113E-2,6.7722104E-2,2.5293825E-2,-3.7330426E-2,1.01152295E-2,1.9751808E-2,-2.6927873E-2,-9.956407E-3,2.8048E-2,1.606391E-2,-2.1242565E-2,4.5907784E-2,-1.7604401E-2],"split_indices":[4,10,10,2,4,5,7,0,0,4,4,7,0,5,5,1,1,8,5,5,4,2,2,0,8,2,4,4,9,0,0,0,0,0,0,0,0,0,0,0,0,0,0,0,0,0,0,0,0,0,0,0,0,0,0],"split_type":[0,0,0,0,0,0,0,0,0,0,0,0,0,0,0,0,0,0,0,0,0,0,0,0,0,0,0,0,0,0,0,0,0,0,0,0,0,0,0,0,0,0,0,0,0,0,0,0,0,0,0,0,0,0,0],"sum_hessian":[4.2724204E3,3.4946091E3,7.778114E2,2.79243E3,7.02179E2,2.5398535E2,5.2382605E2,2.788935E3,3.4948578E0,5.750971E1,6.446693E2,2.7878422E1,2.2610693E2,3.6535977E2,1.5846625E2,3.37656E1,2.7551694E3,3.829709E1,1.921262E1,2.4517267E1,6.2015204E2,4.011847E0,2.3866575E1,4.9561887E0,2.2115074E2,1.1331102E2,2.5204875E2,1.5119531E2,7.270938E0,2.1450983E1,1.2314616E1,1.1399337E3,1.6152358E3,1.3574102E1,2.4722986E1,1.4220371E1,4.992249E0,3.8829231E0,2.0634344E1,7.095801E1,5.4919403E2,1.484349E0,2.5274982E0,1.6863375E1,7.0032005E0,9.191836E0,2.1195891E2,1.0215539E2,1.1155638E1,2.1272873E2,3.932003E1,1.1648685E1,1.3954663E2,4.8785315E0,2.3924065E0],"tree_param":{"num_deleted":"0","num_feature":"11","num_nodes":"55","size_leaf_vector":"0"}},{"base_weights":[1.7390734E-1,2.0662108E-1,6.018978E-2,1.4219964E-1,2.9688278E-1,2.2504529E-2,3.5931244E-1,9.766746E-2,3.4452417E-1,-5.5615302E-2,3.2364762E-1,1.987882E-1,-7.742921E-2,5.4367876E-1,-3.1054145E-1,1.7628753E-1,-2.6156386E-2,3.7850296E-1,-9.8102516E-1,6.731098E-1,-2.1271749E-1,9.34025E-1,3.0674455E-1,-4.6178263E-1,2.5290748E-1,3.520167E-1,-1.2759762E-1,9.227264E-1,2.1115586E-1,1.0474178E0,-6.180553E-1,2.717988E-1,7.050943E-2,9.222054E-2,-2.8093055E-1,3.2336202E-1,9.5664245E-1,5.326593E-1,-1.268358E0,-1.2772249E0,9.6650064E-1,-1.1194347E0,-6.60659E-2,1.6150199E-1,1.2303363E0,2.3081394E-2,3.440339E-1,-9.980599E-1,1.4486651E-1,5.757401E-1,9.068018E-2,8.130018E-1,1.3012155E-2,-2.5499845E-1,7.6993115E-2,1.1164742E0,-4.605287E-1,3.1660438E-1,-1.4231899E0,-1.9094633E-1,-1.2889315E0],"categories":[],"categories_nodes":[],"categories_segments":[],"categories_sizes":[],"default_left":[1,1,1,1,1,1,1,1,1,1,1,1,1,1,1,1,1,1,1,1,1,1,1,1,1,1,1,1,1,0,1,0,0,0,0,0,0,0,0,0,0,0,0,0,0,0,0,0,0,0,0,0,0,0,0,0,0,0,0,0,0],"id":13,"left_children":[1,3,5,7,9,11,13,15,17,19,21,23,25,27,29,31,33,35,37,39,41,43,45,47,49,51,53,55,57,-1,59,-1,-1,-1,-1,-1,-1,-1,-1,-1,-1,-1,-1,-1,-1,-1,-1,-1,-1,-1,-1,-1,-1,-1,-1,-1,-1,-1,-1,-1,-1],"loss_changes":[1.5915176E1,1.9289337E1,1.0790087E1,1.746262E1,1.3072319E1,1.5021397E1,1.33973E1,1.5512218E1,1.6131641E1,1.1419862E1,1.2983215E1,1.1144069E1,1.1772679E1,1.0437994E1,1.05672245E1,9.825806E0,1.8709877E1,1.0589825E1,4.6003513E0,1.1367798E1,1.0801869E1,7.6228046E0,1.3245804E1,7.8587427E0,1.4913004E1,8.929296E0,1.27430725E1,1.0999809E1,8.41858E0,0E0,5.4839787E0,0E0,0E0,0E0,0E0,0E0,0E0,0E0,0E0,0E0,0E0,0E0,0E0,0E0,0E0,0E0,0E0,0E0,0E0,0E0,0E0,0E0,0E0,0E0,0E0,0E0,0E0,0E0,0E0,0E0,0E0],"parents":[2147483647,0,0,1,1,2,2,3,3,4,4,5,5,6,6,7,7,8,8,9,9,10,10,11,11,12,12,13,13,14,14,15,15,16,16,17,17,18,18,19,19,20,20,21,21,22,22,23,23,24,24,25,25,26,26,27,27,28,28,30,30],"right_children":[2,4,6,8,10,12,14,16,18,20,22,24,26,28,30,32,34,36,38,40,42,44,46,48,50,52,54,56,58,-1,60,-1,-1,-1,-1,-1,-1,-1,-1,-1,-1,-1,-1,-1,-1,-1,-1,-1,-1,-1,-1,-1,-1,-1,-1,-1,-1,-1,-1,-1,-1],"split_conditions":[3.7691975E-3,2.0048442E-1,2.5776771E-3,2.1592686E-3,-8.811474E-3,1.4086885E-3,8.783797E-1,-6.3413667E-4,8.87925E1,-1.5235947E-2,-7.072998E-3,3.978429E-3,3.5208794E1,-3.7940952E-1,2.6919348E-3,-6.1232336E-17,7.044058E-1,2.3763054E-3,1.0892056E-3,-7.865661E-1,-5.595061E-3,8.117449E-1,-4.2104297E-3,1.2940952E-1,4.7504017E-3,6.078576E-1,6.644695E-3,8.082681E1,2.0411942E-2,5.2370887E-2,5.597477E1,1.358994E-2,3.5254713E-3,4.611027E-3,-1.4046527E-2,1.61681E-2,4.7832124E-2,2.6632965E-2,-6.3417904E-2,-6.386124E-2,4.8325032E-2,-5.5971738E-2,-3.303295E-3,8.075099E-3,6.1516818E-2,1.1540697E-3,1.7201696E-2,-4.9902998E-2,7.2433255E-3,2.8787006E-2,4.5340094E-3,4.0650092E-2,6.5060775E-4,-1.2749922E-2,3.8496559E-3,5.582371E-2,-2.3026435E-2,1.5830219E-2,-7.11595E-2,-9.5473165E-3,-6.4446576E-2],"split_indices":[4,10,6,4,4,6,9,4,5,4,4,4,5,8,6,8,9,6,6,8,2,10,4,8,4,9,4,5,4,0,5,0,0,0,0,0,0,0,0,0,0,0,0,0,0,0,0,0,0,0,0,0,0,0,0,0,0,0,0,0,0],"split_type":[0,0,0,0,0,0,0,0,0,0,0,0,0,0,0,0,0,0,0,0,0,0,0,0,0,0,0,0,0,0,0,0,0,0,0,0,0,0,0,0,0,0,0,0,0,0,0,0,0,0,0,0,0,0,0,0,0,0,0,0,0],"sum_hessian":[4.2804707E3,3.32355E3,9.569207E2,1.940882E3,1.3826681E3,8.5080634E2,1.0611441E2,1.5919681E3,3.4891382E2,9.749978E1,1.2851682E3,3.0745856E2,5.433478E2,8.335945E1,2.275496E1,9.734605E2,6.185076E2,3.4088998E2,8.023833E0,1.670915E1,8.0790634E1,3.3168877E1,1.2519994E3,2.2711634E1,2.8474692E2,5.620566E1,4.871421E2,3.812513E1,4.5234318E1,3.7572274E0,1.8997732E1,5.1073138E2,4.627291E2,4.2273044E2,1.957772E2,3.1263156E2,2.8258413E1,1.1439004E0,6.8799324E0,1.7464157E0,1.4962735E1,1.0324296E1,7.046633E1,9.623688E0,2.3545189E1,1.4564969E2,1.1063497E3,1.1712549E1,1.0999084E1,9.438054E1,1.9036638E2,2.3225273E1,3.298039E1,3.0005084E2,1.8709125E2,3.3610313E1,4.5148168E0,4.3250088E1,1.9842292E0,1.2392653E1,6.6050787E0],"tree_param":{"num_deleted":"0","num_feature":"11","num_nodes":"61","size_leaf_vector":"0"}},{"base_weights":[1.594137E-1,1.8600427E-1,2.9430313E-2,1.3828257E-1,2.541188E-1,-2.1798816E-2,3.8140398E-1,8.8242225E-2,3.0020598E-1,4.477277E-2,2.9952353E-1,4.0379107E-1,-6.782427E-2,5.817244E-1,-4.202426E-1,1.8581101E-1,1.0029436E-2,3.9401922E-1,1.8782265E-2,-3.637272E-1,1.5362017E-1,3.1424594E-1,-1.9645426E-1,9.317797E-1,2.479888E-2,-7.958017E-2,1.1903E0,1.0671248E0,3.3902133E-1,2.8945005E-1,-9.275068E-1,2.9222032E-1,-7.140403E-2,-4.978504E-3,1.2225146E0,9.318933E-1,3.5171607E-1,7.891834E-2,-1.1065291E0,-7.2465295E-1,8.382679E-2,9.388355E-1,1.0886883E-1,4.215881E-1,2.4646206E-1,-7.383507E-1,2.1582106E-1,-5.051608E-2,1.130261E0,5.086793E-1,-4.3450698E-1,-1.3944112E0,-7.1930245E-2,1.4313767E0,2.9142305E-1,1.2205703E0,-2.4369803E-1,-5.468882E-1,5.623748E-1,-2.5782412E-1,1.2411275E0,-1.3277537E0,-9.138223E-2],"categories":[],"categories_nodes":[],"categories_segments":[],"categories_sizes":[],"default_left":[1,1,1,1,1,1,1,1,1,1,1,1,1,1,1,1,1,1,1,1,1,1,1,1,1,1,1,1,1,1,1,0,0,0,0,0,0,0,0,0,0,0,0,0,0,0,0,0,0,0,0,0,0,0,0,0,0,0,0,0,0,0,0],"id":14,"left_children":[1,3,5,7,9,11,13,15,17,19,21,23,25,27,29,31,33,35,37,39,41,43,45,47,49,51,53,55,57,59,61,-1,-1,-1,-1,-1,-1,-1,-1,-1,-1,-1,-1,-1,-1,-1,-1,-1,-1,-1,-1,-1,-1,-1,-1,-1,-1,-1,-1,-1,-1,-1,-1],"loss_changes":[1.478318E1,1.1510399E1,1.3132057E1,1.6914528E1,1.3884239E1,1.2491252E1,1.5103342E1,1.219734E1,1.3013077E1,1.1695166E1,8.833817E0,1.2431584E1,8.6001E0,8.408966E0,7.137171E0,1.9487387E1,1.6171803E1,8.087193E0,8.502271E0,9.005135E0,7.1855774E0,8.387848E0,8.033915E0,5.1225147E0,8.502108E0,5.6397514E0,7.500634E-1,5.195408E0,1.0418429E1,4.859076E0,3.6818743E0,0E0,0E0,0E0,0E0,0E0,0E0,0E0,0E0,0E0,0E0,0E0,0E0,0E0,0E0,0E0,0E0,0E0,0E0,0E0,0E0,0E0,0E0,0E0,0E0,0E0,0E0,0E0,0E0,0E0,0E0,0E0,0E0],"parents":[2147483647,0,0,1,1,2,2,3,3,4,4,5,5,6,6,7,7,8,8,9,9,10,10,11,11,12,12,13,13,14,14,15,15,16,16,17,17,18,18,19,19,20,20,21,21,22,22,23,23,24,24,25,25,26,26,27,27,28,28,29,29,30,30],"right_children":[2,4,6,8,10,12,14,16,18,20,22,24,26,28,30,32,34,36,38,40,42,44,46,48,50,52,54,56,58,60,62,-1,-1,-1,-1,-1,-1,-1,-1,-1,-1,-1,-1,-1,-1,-1,-1,-1,-1,-1,-1,-1,-1,-1,-1,-1,-1,-1,-1,-1,-1,-1,-1],"split_conditions":[4.511641E-3,2.0048442E-1,2.5776771E-3,2.1674088E-3,-4.415326E-3,3.467476E1,8.783797E-1,-1.8180674E-3,5.6074816E-4,1.5684766E-3,2.2215303E-3,6.078576E-1,5.595591E-3,5.1339653E1,2.826958E-3,6.035534E-1,3.728649E-3,2.3344867E-3,8.782097E1,-5.5248705E-3,-1.7355636E-2,-3.7940952E-1,9.216237E-6,-3.7940952E-1,3.7940952E-1,7.706069E-4,2.2169403E-3,2.243917E-3,-9.159756E-1,1.2387475E-2,1.8573042E-4,1.4611016E-2,-3.5702016E-3,-2.489252E-4,6.1125733E-2,4.6594664E-2,1.7585805E-2,3.945917E-3,-5.5326458E-2,-3.6232647E-2,4.1913395E-3,4.6941776E-2,5.4434417E-3,2.1079404E-2,1.2323103E-2,-3.6917534E-2,1.0791053E-2,-2.525804E-3,5.651305E-2,2.5433963E-2,-2.172535E-2,-6.972056E-2,-3.5965124E-3,7.156884E-2,1.4571153E-2,6.1028518E-2,-1.2184902E-2,-2.734441E-2,2.8118739E-2,-1.2891206E-2,6.2056374E-2,-6.638768E-2,-4.5691114E-3],"split_indices":[4,10,6,4,4,5,9,4,0,6,0,9,1,5,6,7,6,4,5,4,4,7,4,7,7,6,6,0,7,4,1,0,0,0,0,0,0,0,0,0,0,0,0,0,0,0,0,0,0,0,0,0,0,0,0,0,0,0,0,0,0,0,0],"split_type":[0,0,0,0,0,0,0,0,0,0,0,0,0,0,0,0,0,0,0,0,0,0,0,0,0,0,0,0,0,0,0,0,0,0,0,0,0,0,0,0,0,0,0,0,0,0,0,0,0,0,0,0,0,0,0,0,0,0,0,0,0,0,0],"sum_hessian":[4.277713E3,3.550882E3,7.268311E2,2.089787E3,1.461095E3,6.3530206E2,9.1529E1,1.597611E3,4.921761E2,2.607679E2,1.200327E3,6.1241226E1,5.7406085E2,7.3449356E1,1.8079643E1,7.1023376E2,8.8737726E2,3.6882675E2,1.2334934E2,5.4371647E1,2.0639627E2,1.16608E3,3.4247055E1,2.4980858E1,3.626037E1,5.6967456E2,4.386289E0,2.3351025E1,5.0098328E1,7.7151213E0,1.0364521E1,5.0229807E2,2.0793568E2,8.775114E2,9.865797E0,2.535939E1,3.4346735E2,1.179747E2,5.374639E0,2.9756033E1,2.4615612E1,1.00515175E1,1.9634476E2,4.4932004E2,7.1675995E2,1.4455615E1,1.979144E1,4.324438E0,2.065642E1,1.760546E1,1.865491E1,2.2466927E0,5.6742786E2,2.9915555E0,1.3947338E0,2.0965631E1,2.3853927E0,9.795783E0,4.0302547E1,5.361187E0,2.353934E0,6.611607E0,3.7529144E0],"tree_param":{"num_deleted":"0","num_feature":"11","num_nodes":"63","size_leaf_vector":"0"}},{"base_weights":[1.4349847E-1,1.4590284E-1,-9.432628E-1,-2.5956714E-1,1.5168631E-1,5.1566315E-1,-1.2023326E0,4.5349887E-1,-6.3811946E-1,2.408904E-1,1.2636966E-1,-1.4151725E-1,-1.4877791E0,6.028953E-1,-1.102001E0,-4.0195927E-1,-1.4545474E0,-3.9177087E-1,2.5547257E-1,8.383563E-2,1.8600301E-1,-3.9352974E-1,8.1279624E-1,4.003068E-2,-7.6363814E-1,-4.5978054E-1,-1.657691E0,-1.3486173E0,-7.208045E-2,2.2714162E-1,5.419604E-1,6.05355E-2,3.664585E-1,2.605966E-1,6.248296E-2],"categories":[],"categories_nodes":[],"categories_segments":[],"categories_sizes":[],"default_left":[1,1,1,1,1,0,1,1,1,1,1,0,0,1,0,1,1,1,1,1,1,0,0,0,0,0,0,0,0,0,0,0,0,0,0],"id":15,"left_children":[1,3,5,7,9,-1,11,13,15,17,19,-1,-1,21,-1,23,25,27,29,31,33,-1,-1,-1,-1,-1,-1,-1,-1,-1,-1,-1,-1,-1,-1],"loss_changes":[1.129071E1,1.0028641E1,4.2320013E0,1.6559353E1,9.455765E0,0E0,2.3377285E0,5.6575522E0,7.0867043E0,8.656681E0,8.28878E0,0E0,0E0,4.5551653E0,0E0,5.18484E0,9.645901E-1,6.415487E0,7.2401276E0,1.2573955E1,1.253484E1,0E0,0E0,0E0,0E0,0E0,0E0,0E0,0E0,0E0,0E0,0E0,0E0,0E0,0E0],"parents":[2147483647,0,0,1,1,2,2,3,3,4,4,6,6,7,7,8,8,9,9,10,10,13,13,15,15,16,16,17,17,18,18,19,19,20,20],"right_children":[2,4,6,8,10,-1,12,14,16,18,20,-1,-1,22,-1,24,26,28,30,32,34,-1,-1,-1,-1,-1,-1,-1,-1,-1,-1,-1,-1,-1,-1],"split_conditions":[9.5158745E1,4.8332676E-4,2.7983421E-3,4.1698577E-4,7.604462E-4,2.5783157E-2,7.589117E-4,1.5168106E-3,6.933803E1,7.193412E-4,2.0048442E-1,-7.0758625E-3,-7.438896E-2,-5.6174487E-1,-5.510005E-2,-1.2940952E-1,-6.035534E-1,5.2646035E-4,2.487496E-3,3.0347013E-3,1.0217989E-3,-1.9676488E-2,4.0639814E-2,2.001534E-3,-3.818191E-2,-2.2989027E-2,-8.288455E-2,-6.743087E-2,-3.6040226E-3,1.1357081E-2,2.709802E-2,3.026775E-3,1.8322926E-2,1.30298305E-2,3.1241481E-3],"split_indices":[5,3,2,3,3,0,3,2,5,6,10,0,0,10,0,8,8,3,2,6,2,0,0,0,0,0,0,0,0,0,0,0,0,0,0],"split_type":[0,0,0,0,0,0,0,0,0,0,0,0,0,0,0,0,0,0,0,0,0,0,0,0,0,0,0,0,0,0,0,0,0,0,0],"sum_hessian":[4.267335E3,4.258779E3,8.5564785E0,5.9274147E1,4.1995044E3,1.1409409E0,7.4155374E0,2.0486483E1,3.8787666E1,9.2648584E2,3.2730186E3,1.8894564E0,5.526081E0,1.9250042E1,1.236441E0,3.1242725E1,7.5449405E0,2.0290648E1,9.061952E2,1.9118097E3,1.3612089E3,3.1972883E0,1.6052753E1,1.4460535E1,1.678219E1,1.8328834E0,5.712057E0,4.275473E0,1.6015175E1,8.2627704E2,7.991817E1,1.7673215E3,1.4448817E2,8.479958E2,5.132131E2],"tree_param":{"num_deleted":"0","num_feature":"11","num_nodes":"35","size_leaf_vector":"0"}},{"base_weights":[1.5443537E-1,-2.3261116E-1,1.6075192E-1,2.8109305E-2,-6.2952214E-1,1.858824E-1,7.2862536E-2,-1.9049892E-1,1.1547145E0,-2.1765532E-1,-1.6448724E0,1.2725337E-1,2.7245584E-1,2.1378507E-1,6.405802E-4,-6.489978E-1,8.724931E-2,1.3632838E0,3.6001264E-3,-4.5708507E-1,5.7860345E-1,1.0492477E-1,5.0307494E-1,-1.7755578E-1,2.9511294E-1,1.3637367E0,1.8303253E-1,-2.1994881E-2,8.4295106E-1,-8.571247E-1,6.836234E-1,-6.646924E-1,4.3162692E-1,-1.00199625E-1,-1.3740455E0,1.0892339E0,-3.6116317E-1,1.2468895E-1,-3.7681562E-1,-2.1038322E-1,6.777392E-1,2.2330748E-1,-6.8420345E-1,3.2156783E-1,-8.845446E-2,3.8591793E-1,1.4605988E0,-4.3309137E-1,2.3488438E-1,5.3222734E-2,-4.4798234E-1,1.237668E0,-2.9738316E-1],"categories":[],"categories_nodes":[],"categories_segments":[],"categories_sizes":[],"default_left":[1,1,1,1,1,1,1,1,1,1,0,1,1,1,1,1,1,0,0,1,1,1,1,1,1,1,1,1,1,0,0,0,0,0,0,0,0,0,0,0,0,0,0,0,0,0,0,0,0,0,0,0,0],"id":16,"left_children":[1,3,5,7,9,11,13,15,17,19,-1,21,23,25,27,29,31,-1,-1,33,35,37,39,41,43,45,47,49,51,-1,-1,-1,-1,-1,-1,-1,-1,-1,-1,-1,-1,-1,-1,-1,-1,-1,-1,-1,-1,-1,-1,-1,-1],"loss_changes":[1.0515938E1,7.182159E0,9.302361E0,1.0746885E1,1.113824E1,1.661023E1,9.561758E0,4.724553E0,1.6967506E0,4.2127604E0,0E0,1.6370272E1,1.3543991E1,1.1007995E1,1.1880676E1,4.4541E0,6.4262652E0,0E0,0E0,5.255666E0,2.9026592E0,1.7647871E1,1.37869625E1,1.3161638E1,1.28157425E1,2.0695019E-1,1.0043663E1,1.946844E1,7.708084E0,0E0,0E0,0E0,0E0,0E0,0E0,0E0,0E0,0E0,0E0,0E0,0E0,0E0,0E0,0E0,0E0,0E0,0E0,0E0,0E0,0E0,0E0,0E0,0E0],"parents":[2147483647,0,0,1,1,2,2,3,3,4,4,5,5,6,6,7,7,8,8,9,9,11,11,12,12,13,13,14,14,15,15,16,16,19,19,20,20,21,21,22,22,23,23,24,24,25,25,26,26,27,27,28,28],"right_children":[2,4,6,8,10,12,14,16,18,20,-1,22,24,26,28,30,32,-1,-1,34,36,38,40,42,44,46,48,50,52,-1,-1,-1,-1,-1,-1,-1,-1,-1,-1,-1,-1,-1,-1,-1,-1,-1,-1,-1,-1,-1,-1,-1,-1],"split_conditions":[-6.078576E-1,3.7149267E-4,3.7680555E-3,2.5149183E-3,2.312351E-3,2.0048442E-1,-5.6174487E-1,7.774702E-4,4.797048E-3,1.217563E-3,-8.224362E-2,3.0428749E-3,5.2635174E-4,-3.1393904E-3,1.5571341E-2,1.4968998E-3,-6.2497635E-4,6.816419E-2,1.8000632E-4,1.6682599E-3,3.2323883E-3,1.8545005E-3,-9.6246265E-3,3.7940952E-1,2.8922076E-3,-4.4367686E-3,3.985049E-3,1.5314398E-3,2.2761268E-3,-4.2856235E-2,3.418117E-2,-3.3234622E-2,2.1581346E-2,-5.0099813E-3,-6.870227E-2,5.4461695E-2,-1.8058158E-2,6.234448E-3,-1.884078E-2,-1.0519161E-2,3.388696E-2,1.1165374E-2,-3.421017E-2,1.6078392E-2,-4.4227233E-3,1.9295897E-2,7.302994E-2,-2.1654569E-2,1.1744219E-2,2.6611367E-3,-2.2399118E-2,6.18834E-2,-1.4869158E-2],"split_indices":[9,0,4,6,6,10,10,3,6,3,0,6,3,0,4,6,1,0,0,6,4,3,4,7,6,0,4,3,1,0,0,0,0,0,0,0,0,0,0,0,0,0,0,0,0,0,0,0,0,0,0,0,0],"split_type":[0,0,0,0,0,0,0,0,0,0,0,0,0,0,0,0,0,0,0,0,0,0,0,0,0,0,0,0,0,0,0,0,0,0,0,0,0,0,0,0,0,0,0,0,0,0,0,0,0,0,0,0,0],"sum_hessian":[4.2850474E3,6.823336E1,4.216814E3,4.174279E1,2.6490568E1,3.278319E3,9.384946E2,3.565512E1,6.087667E0,1.9709833E1,6.7807355E0,1.9560903E3,1.3222289E3,3.1733572E2,6.2115894E2,1.2946601E1,2.270852E1,4.9978027E0,1.0898641E0,1.5480814E1,4.2290196E0,1.8475985E3,1.0849173E2,6.3052574E1,1.2591763E3,7.13633E0,3.1019937E2,6.0585175E2,1.5307203E1,1.1506366E1,1.4402347E0,6.841065E0,1.5867456E1,1.1942146E1,3.538668E0,2.6370876E0,1.5919319E0,1.7754971E3,7.2101494E1,2.1296507E1,8.719522E1,3.551338E1,2.7539194E1,1.1780847E3,8.109163E1,1.0924358E0,6.0438943E0,2.3508598E1,2.866908E2,5.1567316E2,9.017857E1,1.1307763E1,3.999441E0],"tree_param":{"num_deleted":"0","num_feature":"11","num_nodes":"53","size_leaf_vector":"0"}},{"base_weights":[1.4093275E-1,1.6445045E-1,2.785861E-2,1.6702747E-1,-1.0899582E0,-9.860916E-2,1.7258379E-1,1.4064929E-1,2.7234313E-1,1.831186E-1,-1.5706875E0,1.16470136E-1,-2.7271506E-1,2.851424E-1,-2.3095545E-1,1.9715522E-1,8.546662E-2,1.2481104E-1,3.9904994E-1,-1.35701E0,1.3883722E-1,8.6328045E-2,-4.6163386E-1,5.5780077E-1,1.18318476E-1,4.0116048E-1,-7.079334E-1,2.097093E-1,-7.921372E-1,2.2558127E-2,2.8171268E-1,-1.2937145E-1,2.3268014E-1,7.591258E-1,3.1727272E-1,3.534066E-1,-1.6643466E-2,3.5108703E-1,-3.3839482E-1,-6.564276E-1,-4.476705E-2,7.030232E-1,2.8679049E-2,-8.9704216E-1,2.0019394E-1,1.0239662E0,-2.3988503E-1,-9.7441375E-1,-5.3826157E-2],"categories":[],"categories_nodes":[],"categories_segments":[],"categories_sizes":[],"default_left":[1,1,1,1,1,1,1,1,1,0,0,1,1,1,1,1,1,1,1,0,1,1,1,1,1,1,1,0,0,0,0,0,0,0,0,0,0,0,0,0,0,0,0,0,0,0,0,0,0],"id":17,"left_children":[1,3,5,7,9,11,13,15,17,-1,-1,19,21,23,25,27,29,31,33,-1,35,37,39,41,43,45,47,-1,-1,-1,-1,-1,-1,-1,-1,-1,-1,-1,-1,-1,-1,-1,-1,-1,-1,-1,-1,-1,-1],"loss_changes":[1.1372688E1,1.1630661E1,1.3521664E1,9.782494E0,4.812581E0,1.4800333E1,1.5711153E1,8.804821E0,1.316679E1,0E0,0E0,6.026329E0,1.4844095E1,1.2204758E1,2.3100206E1,1.7516922E1,1.7685963E1,9.026667E0,1.0945709E1,0E0,5.8572626E0,8.675006E0,1.1596104E1,7.8278065E0,1.4198896E1,1.3493786E1,7.5284023E0,0E0,0E0,0E0,0E0,0E0,0E0,0E0,0E0,0E0,0E0,0E0,0E0,0E0,0E0,0E0,0E0,0E0,0E0,0E0,0E0,0E0,0E0],"parents":[2147483647,0,0,1,1,2,2,3,3,4,4,5,5,6,6,7,7,8,8,11,11,12,12,13,13,14,14,15,15,16,16,17,17,18,18,20,20,21,21,22,22,23,23,24,24,25,25,26,26],"right_children":[2,4,6,8,10,12,14,16,18,-1,-1,20,22,24,26,28,30,32,34,-1,36,38,40,42,44,46,48,-1,-1,-1,-1,-1,-1,-1,-1,-1,-1,-1,-1,-1,-1,-1,-1,-1,-1,-1,-1,-1,-1],"split_conditions":[4.511641E-3,1.2760621E-2,6.64532E-3,8.117449E-1,5.1961708E1,5.365557E1,8.783797E-1,6.123234E-17,-7.339695E-4,9.15593E-3,-7.853438E-2,4.5235176E-3,1.3421534E-3,-1.0858354E-4,6.123234E-17,8.799406E1,8.783797E-1,1.4412038E-3,6.146605E-4,-6.78505E-2,5.1474497E-3,7.865661E-1,7.548976E1,6.1003777E1,7.8562624E-4,-1.2940952E-1,1.1482904E-2,1.0485466E-2,-3.960686E-2,1.1279064E-3,1.4085635E-2,-6.4685727E-3,1.1634007E-2,3.7956294E-2,1.5863637E-2,1.7670332E-2,-8.3217333E-4,1.7554352E-2,-1.6919741E-2,-3.2821383E-2,-2.2383526E-3,3.515116E-2,1.4339525E-3,-4.4852108E-2,1.0009698E-2,5.119831E-2,-1.1994252E-2,-4.8720688E-2,-2.6913078E-3],"split_indices":[4,2,4,10,5,5,9,7,4,0,0,4,6,2,7,5,9,6,3,0,4,7,5,5,3,8,4,0,0,0,0,0,0,0,0,0,0,0,0,0,0,0,0,0,0,0,0,0,0],"split_type":[0,0,0,0,0,0,0,0,0,0,0,0,0,0,0,0,0,0,0,0,0,0,0,0,0,0,0,0,0,0,0,0,0,0,0,0,0,0,0,0,0,0,0,0,0,0,0,0,0],"sum_hessian":[4.2773877E3,3.5405527E3,7.36835E2,3.5341592E3,6.3936605E0,3.9339038E2,3.434446E2,2.8281372E3,7.06022E2,1.922237E0,4.4714236E0,1.7613524E2,2.1725514E2,2.6877032E2,7.467431E1,1.3960438E3,1.4320934E3,3.2712097E2,3.7890097E2,1.74148E0,1.7439375E2,7.508947E1,1.4216566E2,1.0113341E2,1.676369E2,3.2182865E1,4.2491447E1,1.3793282E3,1.6715591E1,1.085304E3,3.4678934E2,9.740254E1,2.2971841E2,6.85932E1,3.1030777E2,7.2738625E1,1.0165513E2,4.6362133E1,2.8727335E1,9.6498924E1,4.5666748E1,7.909608E1,2.2037327E1,1.1766094E1,1.5587082E2,1.6020683E1,1.6162182E1,2.9843609E1,1.2647838E1],"tree_param":{"num_deleted":"0","num_feature":"11","num_nodes":"49","size_leaf_vector":"0"}},{"base_weights":[1.3148315E-1,-2.6477784E-1,1.3807437E-1,-9.835054E-1,-1.4238198E-1,1.405107E-1,-9.8698103E-1,-1.3584604E0,9.8913217E-1,1.3272692E0,-2.3909324E-1,1.9283213E-1,9.194425E-2,-5.2337352E-2,-1.422906E0,-1.5216721E0,-2.4827749E-1,7.1557796E-1,-3.4389582E-1,1.1935064E-1,2.9596287E-1,7.464118E-2,3.599342E-1,6.5762866E-1,-7.120817E-1,2.4222706E-2,9.639603E-1,-1.3730419E0,-2.1337512E-1,-2.5601748E-1,1.4728647E-1,8.37786E-1,2.4107961E-1,7.945157E-2,-7.55944E-1,5.649281E-1,-3.2931298E-1],"categories":[],"categories_nodes":[],"categories_segments":[],"categories_sizes":[],"default_left":[1,1,1,1,1,1,1,1,0,0,1,1,1,1,0,0,0,1,1,1,1,1,1,0,0,0,0,0,0,0,0,0,0,0,0,0,0],"id":18,"left_children":[1,3,5,7,9,11,13,15,-1,-1,17,19,21,23,-1,-1,-1,25,27,29,31,33,35,-1,-1,-1,-1,-1,-1,-1,-1,-1,-1,-1,-1,-1,-1],"loss_changes":[1.1221741E1,6.0538964E0,1.1686745E1,8.796739E0,9.034813E0,1.0667099E1,3.685502E0,1.2327328E0,0E0,0E0,6.088538E0,1.5297394E1,1.0093918E1,2.3294044E0,0E0,0E0,0E0,1.024301E0,6.8656373E0,1.2444368E1,2.4810638E1,8.256616E0,1.8852465E1,0E0,0E0,0E0,0E0,0E0,0E0,0E0,0E0,0E0,0E0,0E0,0E0,0E0,0E0],"parents":[2147483647,0,0,1,1,2,2,3,3,4,4,5,5,6,6,7,7,10,10,11,11,12,12,13,13,17,17,18,18,19,19,20,20,21,21,22,22],"right_children":[2,4,6,8,10,12,14,16,-1,-1,18,20,22,24,-1,-1,-1,26,28,30,32,34,36,-1,-1,-1,-1,-1,-1,-1,-1,-1,-1,-1,-1,-1,-1],"split_conditions":[-6.078576E-1,-1.451189E-3,9.5158745E1,5.898522E1,-1.3918479E-3,6.123234E-17,1.4584033E-3,2.664173E-3,4.9456608E-2,6.636346E-2,-9.2891615E-4,2.0048442E-1,7.9007324E1,2.1694186E-1,-7.11453E-2,-7.608361E-2,-1.2413874E-2,7.789028E-4,-4.663859E-4,1.1542034E-3,1.1008447E-3,4.437196E-3,1.1703512E-3,3.2881435E-2,-3.5604086E-2,1.2111353E-3,4.8198014E-2,-6.865209E-2,-1.0668756E-2,-1.2800874E-2,7.364324E-3,4.1889302E-2,1.20539805E-2,3.9725783E-3,-3.77972E-2,2.8246406E-2,-1.6465649E-2],"split_indices":[9,2,5,5,0,7,6,6,0,0,2,10,5,9,0,0,0,3,2,6,6,3,3,0,0,0,0,0,0,0,0,0,0,0,0,0,0],"split_type":[0,0,0,0,0,0,0,0,0,0,0,0,0,0,0,0,0,0,0,0,0,0,0,0,0,0,0,0,0,0,0,0,0,0,0,0,0],"sum_hessian":[4.281497E3,6.941015E1,4.212087E3,9.076438E0,6.0333714E1,4.203859E3,8.228409E0,7.8883786E0,1.1880591E0,2.9395442E0,5.739417E1,2.0222665E3,2.1815923E3,2.9733875E0,5.2550216E0,6.5541773E0,1.3342011E0,5.1009116E0,5.229326E1,1.1821396E3,8.4012683E2,2.0504792E3,1.311129E2,1.4337274E0,1.53966E0,1.6383097E0,3.462602E0,4.814169E0,4.7479088E1,8.1318245E1,1.1008214E3,7.596031E1,7.641665E2,2.0395714E3,1.0907966E1,1.01195885E2,2.9917019E1],"tree_param":{"num_deleted":"0","num_feature":"11","num_nodes":"37","size_leaf_vector":"0"}},{"base_weights":[1.19108796E-1,1.4225154E-1,3.7243906E-2,1.11777894E-1,2.6209885E-1,-1.5671976E-3,3.4956345E-1,1.1416873E-1,-1.2475892E0,1.4485654E-1,3.718277E-1,3.3635798E-1,-4.2115986E-2,-9.869137E-1,4.287356E-1,1.1801638E-1,-6.4169717E-1,-1.3886428E0,-3.7398374E-1,3.0371198E-1,-5.8147326E-2,1.5690327E-1,5.5703706E-1,8.13305E-1,-2.9041346E-2,-4.551959E-4,-4.0625212E-1,-4.2579626E-3,-1.1976364E0,7.513443E-1,1.3475364E-1,1.0877483E-1,6.712737E-1,-1.1480123E0,8.1482184E-1,6.7420185E-2,5.3044695E-1,-3.0590075E-1,2.0605984E-1,5.6678754E-1,-1.21334925E-1,6.177051E-1,-2.8341022E-1,-7.345673E-1,8.848995E-1,-3.687558E-1,5.2507526E-1,-3.4170784E-2,6.182872E-1,2.0646425E-1,-7.653392E-1,-4.1047847E-1,-1.4359403E0,8.580253E-1,-3.1554037E-1,1.091189E0,-4.5267134E-3],"categories":[],"categories_nodes":[],"categories_segments":[],"categories_sizes":[],"default_left":[1,1,1,1,1,1,1,1,1,1,1,1,1,1,1,1,1,0,0,1,1,1,1,1,1,1,1,0,1,1,1,0,0,0,0,0,0,0,0,0,0,0,0,0,0,0,0,0,0,0,0,0,0,0,0,0,0],"id":19,"left_children":[1,3,5,7,9,11,13,15,17,19,21,23,25,27,29,31,33,-1,-1,35,37,39,41,43,45,47,49,-1,51,53,55,-1,-1,-1,-1,-1,-1,-1,-1,-1,-1,-1,-1,-1,-1,-1,-1,-1,-1,-1,-1,-1,-1,-1,-1,-1,-1],"loss_changes":[8.096443E0,1.2145134E1,1.144088E1,8.785671E0,8.630306E0,1.1530838E1,1.1461964E1,7.7992744E0,6.636095E-2,1.0594456E1,1.3767059E1,1.5736097E1,1.1397546E1,1.2657557E0,9.30584E0,1.3440922E1,1.0968782E1,0E0,0E0,9.830635E0,9.542823E0,1.8600395E1,9.687252E0,4.987936E0,9.984889E0,1.4106463E1,1.7128677E1,0E0,3.5788965E-1,5.628399E0,7.0805264E0,0E0,0E0,0E0,0E0,0E0,0E0,0E0,0E0,0E0,0E0,0E0,0E0,0E0,0E0,0E0,0E0,0E0,0E0,0E0,0E0,0E0,0E0,0E0,0E0,0E0,0E0],"parents":[2147483647,0,0,1,1,2,2,3,3,4,4,5,5,6,6,7,7,8,8,9,9,10,10,11,11,12,12,13,13,14,14,15,15,16,16,19,19,20,20,21,21,22,22,23,23,24,24,25,25,26,26,28,28,29,29,30,30],"right_children":[2,4,6,8,10,12,14,16,18,20,22,24,26,28,30,32,34,-1,-1,36,38,40,42,44,46,48,50,-1,52,54,56,-1,-1,-1,-1,-1,-1,-1,-1,-1,-1,-1,-1,-1,-1,-1,-1,-1,-1,-1,-1,-1,-1,-1,-1,-1,-1],"split_conditions":[3.7974957E-3,8.117449E-1,2.5787908E-3,1.2760621E-2,-9.203743E-4,3.5208794E1,2.9001717E1,4.521361E-3,-5.2945944E-4,4.8189922E-4,1.4080417E-3,6.078576E-1,1.5362769E-3,2.6849885E-3,-3.7940952E-1,3.7264829E-3,6.384149E-3,-6.943214E-2,-1.8699188E-2,4.146763E1,5.889334E1,6.1865663E-4,1.8319533E-3,-7.061931E-3,1.257989E-3,1.4448671E-3,-5.6174487E-1,-2.1289813E-4,-7.865661E-1,8.203682E1,1.4795284E-3,5.4387418E-3,3.3563685E-2,-5.7400614E-2,4.0741093E-2,3.3710094E-3,2.6522348E-2,-1.5295038E-2,1.0302993E-2,2.8339377E-2,-6.0667465E-3,3.0885255E-2,-1.4170512E-2,-3.6728363E-2,4.4244975E-2,-1.843779E-2,2.6253764E-2,-1.7085392E-3,3.091436E-2,1.03232125E-2,-3.826696E-2,-2.0523924E-2,-7.179701E-2,4.2901266E-2,-1.577702E-2,5.455945E-2,-2.2633567E-4],"split_indices":[4,10,6,2,4,5,5,3,4,2,6,9,3,6,8,6,3,0,0,5,5,3,3,2,3,3,10,0,8,5,3,0,0,0,0,0,0,0,0,0,0,0,0,0,0,0,0,0,0,0,0,0,0,0,0,0,0],"split_type":[0,0,0,0,0,0,0,0,0,0,0,0,0,0,0,0,0,0,0,0,0,0,0,0,0,0,0,0,0,0,0,0,0,0,0,0,0,0,0,0,0,0,0,0,0,0,0,0,0,0,0,0,0,0,0,0,0],"sum_hessian":[4.275276E3,3.3324683E3,9.428075E2,2.6584385E3,6.740299E2,8.394823E2,1.0332521E2,2.6546853E3,3.7530088E0,3.2698035E2,3.4704953E2,8.915852E1,7.503237E2,5.1373873E0,9.818782E1,2.64208E3,1.2605335E1,2.723685E0,1.0293238E0,1.831584E2,1.4382195E2,1.6149333E2,1.8555621E2,3.814412E1,5.1014404E1,6.7419086E2,7.613289E1,1.0872867E0,4.050101E0,4.607285E1,5.211497E1,2.599849E3,4.2230957E1,9.510949E0,3.0943851E0,9.03243E1,9.283411E1,7.414066E1,6.968129E1,6.487953E1,9.661379E1,1.7331071E2,1.2245491E1,1.276924E0,3.6867195E1,3.1832962E1,1.9181442E1,6.4024817E2,3.3942677E1,2.8288599E1,4.7844288E1,1.5738639E0,2.4762368E0,4.2062645E1,4.0102043E0,5.7557664E0,4.6359207E1],"tree_param":{"num_deleted":"0","num_feature":"11","num_nodes":"57","size_leaf_vector":"0"}},{"base_weights":[1.1684638E-1,1.3933523E-1,3.364694E-2,1.8971764E-1,8.670927E-2,-1.0514063E-2,2.4910857E-1,1.6307098E-1,5.8267707E-1,1.6057412E-1,-3.46506E-2,1.1827784E-2,-4.4564706E-1,4.813378E-1,-9.1257684E-2,-4.0117543E-2,2.1160889E-1,1.1151357E0,3.6619887E-1,-2.9780158E-1,1.8932597E-1,9.479695E-1,-5.6053538E-2,-6.661217E-2,2.0970586E-1,3.3289492E-2,-1.0142577E0,6.2037086E-1,-2.951545E-1,-8.7643564E-1,2.221235E-1,1.342498E0,-5.783994E-2,4.4342488E-2,2.784861E-1,1.425967E0,7.516105E-1,-4.4912314E-1,5.226326E-1,-4.914072E-1,6.344556E-1,2.1615613E-1,-2.9515314E-1,1.1072855E0,-4.6539938E-1,-9.135752E-1,-2.2434065E-2,2.9655898E-1,-1.1638218E-1,4.599062E-1,8.660236E-3,2.726009E-1,-1.2226006E0,-6.0284656E-1,-1.2202772E0,1.0288205E0,4.541622E-1,-9.5317537E-1,4.7633454E-1,-3.441603E-1,-1.3997039E0,-6.33036E-2,7.6623553E-1],"categories":[],"categories_nodes":[],"categories_segments":[],"categories_sizes":[],"default_left":[1,1,1,1,1,1,1,1,1,1,1,1,1,1,1,1,1,1,1,1,1,1,1,1,1,1,1,1,1,1,1,0,0,0,0,0,0,0,0,0,0,0,0,0,0,0,0,0,0,0,0,0,0,0,0,0,0,0,0,0,0,0,0],"id":20,"left_children":[1,3,5,7,9,11,13,15,17,19,21,23,25,27,29,31,33,35,37,39,41,43,45,47,49,51,53,55,57,59,61,-1,-1,-1,-1,-1,-1,-1,-1,-1,-1,-1,-1,-1,-1,-1,-1,-1,-1,-1,-1,-1,-1,-1,-1,-1,-1,-1,-1,-1,-1,-1,-1],"loss_changes":[7.941208E0,8.846672E0,8.613306E0,1.7778564E1,1.4678462E1,7.315852E0,1.22142725E1,1.57876625E1,1.2041435E1,1.3468771E1,1.3095053E1,1.1131073E1,1.0042084E1,1.0081139E1,1.576712E1,7.6575236E0,1.4435886E1,2.400673E0,1.0218692E1,1.1223578E1,1.2519646E1,3.5045462E0,1.7503592E1,9.319181E0,1.023559E1,6.6197696E0,6.912079E-1,4.833645E0,7.8662577E0,4.602948E0,7.1973696E0,0E0,0E0,0E0,0E0,0E0,0E0,0E0,0E0,0E0,0E0,0E0,0E0,0E0,0E0,0E0,0E0,0E0,0E0,0E0,0E0,0E0,0E0,0E0,0E0,0E0,0E0,0E0,0E0,0E0,0E0,0E0,0E0],"parents":[2147483647,0,0,1,1,2,2,3,3,4,4,5,5,6,6,7,7,8,8,9,9,10,10,11,11,12,12,13,13,14,14,15,15,16,16,17,17,18,18,19,19,20,20,21,21,22,22,23,23,24,24,25,25,26,26,27,27,28,28,29,29,30,30],"right_children":[2,4,6,8,10,12,14,16,18,20,22,24,26,28,30,32,34,36,38,40,42,44,46,48,50,52,54,56,58,60,62,-1,-1,-1,-1,-1,-1,-1,-1,-1,-1,-1,-1,-1,-1,-1,-1,-1,-1,-1,-1,-1,-1,-1,-1,-1,-1,-1,-1,-1,-1,-1,-1],"split_conditions":[7.865661E-1,2.2982778E-4,2.1009925E-3,3.0428749E-3,1.8357395E-3,1.7791953E-3,6.078576E-1,-2.1694186E-1,1.9671011E-3,3.8593388E1,8.4538426E-4,5.838163E1,5.956569E1,1.833748E-3,1.1877874E-3,-8.7924795E-3,-2.3934513E-3,3.721849E1,2.421037E1,1.6220917E-3,8.603201E1,6.830127E-1,9.587574E-4,-2.668914E-3,4.852797E-4,2.8351382E-3,2.0048358E-3,8.458444E-4,2.5091348E-3,2.7506286E-3,7.857558E1,6.7124896E-2,-2.891997E-3,2.2171244E-3,1.3924305E-2,7.129835E-2,3.7580527E-2,-2.2456158E-2,2.613163E-2,-2.4570359E-2,3.172278E-2,1.0807807E-2,-1.4757657E-2,5.5364277E-2,-2.326997E-2,-4.567876E-2,-1.1217033E-3,1.4827949E-2,-5.8191093E-3,2.299531E-2,4.3301182E-4,1.3630045E-2,-6.113003E-2,-3.0142328E-2,-6.101386E-2,5.1441025E-2,2.270811E-2,-4.7658768E-2,2.3816727E-2,-1.7208016E-2,-6.9985196E-2,-3.1651799E-3,3.8311776E-2],"split_indices":[7,2,2,6,6,1,9,9,3,5,3,5,5,3,6,2,2,5,5,2,5,8,3,1,2,6,1,3,3,2,5,0,0,0,0,0,0,0,0,0,0,0,0,0,0,0,0,0,0,0,0,0,0,0,0,0,0,0,0,0,0,0,0],"split_type":[0,0,0,0,0,0,0,0,0,0,0,0,0,0,0,0,0,0,0,0,0,0,0,0,0,0,0,0,0,0,0,0,0,0,0,0,0,0,0,0,0,0,0,0,0,0,0,0,0,0,0,0,0,0,0,0,0,0,0,0,0,0,0],"sum_hessian":[4.2457373E3,3.3417783E3,9.03959E2,1.7059508E3,1.6358275E3,7.509878E2,1.5297122E2,1.5989413E3,1.0700958E2,1.016698E3,6.1912946E2,7.152368E2,3.5750923E1,9.068404E1,6.228718E1,3.0834143E2,1.2905999E3,2.973093E1,7.727865E1,5.9456482E1,9.572415E2,1.2275239E1,6.068542E2,5.126736E2,2.0256325E2,1.9916693E1,1.5834231E1,7.708315E1,1.360089E1,1.7255854E1,4.503133E1,2.956268E0,3.0538516E2,3.691023E2,9.2149756E2,1.4451553E1,1.5279376E1,1.2139163E1,6.513949E1,4.9623795E1,9.832687E0,9.0753656E2,4.9704983E1,1.1226358E1,1.0488803E0,2.1906927E1,5.8494727E2,6.1192696E1,4.514809E2,8.9675255E1,1.1288799E2,1.7386599E1,2.5300953E0,6.593497E0,9.240734E0,2.0793703E1,5.6289448E1,7.213137E0,6.3877525E0,9.376087E0,7.879767E0,3.0116598E1,1.4914731E1],"tree_param":{"num_deleted":"0","num_feature":"11","num_nodes":"63","size_leaf_vector":"0"}},{"base_weights":[1.1692668E-1,1.4185299E-1,2.9544678E-2,1.1108469E-1,2.5814152E-1,-3.999549E-2,1.5404032E-1,1.1582143E-1,-7.015174E-1,2.8151232E-1,-5.488122E-1,1.6630663E-1,-2.2611678E-1,-7.7402494E-3,3.5479856E-1,-1.8107736E-1,1.2643369E-1,-1.0788163E0,-8.336734E-2,-5.0968397E-1,2.9361737E-1,-9.2850506E-1,6.961042E-1,5.8683887E-2,5.2262896E-1,-7.3778707E-1,-1.4112897E-1,1.0073308E0,-8.029315E-2,7.301493E-1,1.4395048E-1,-1.5995693E0,-1.0174588E-1,1.835819E-1,7.647382E-2,-1.2597392E0,1.6768107E-1,5.55427E-1,-9.6421397E-1,4.2921352E-1,-1.5348121E0,3.2494003E-1,-1.4498594E-3,-1.5557927E-1,-1.4493179E0,-1.8859324E-1,1.0488269E0,1.8171264E-2,1.3506306E0,6.394828E-1,-4.30046E-1,-9.3332916E-1,1.6543806E-1,7.0508845E-2,-3.1767938E-1,1.9036256E-1,1.4126735E0,1.2557432E-1,-3.9355394E-1,-7.35606E-1,8.3916706E-1,-3.0029792E-1,4.394756E-1],"categories":[],"categories_nodes":[],"categories_segments":[],"categories_sizes":[],"default_left":[1,1,1,1,1,1,1,1,1,1,1,1,1,1,1,1,1,1,1,1,1,1,1,1,1,1,1,1,1,1,1,0,0,0,0,0,0,0,0,0,0,0,0,0,0,0,0,0,0,0,0,0,0,0,0,0,0,0,0,0,0,0,0],"id":21,"left_children":[1,3,5,7,9,11,13,15,17,19,21,23,25,27,29,31,33,35,37,39,41,43,45,47,49,51,53,55,57,59,61,-1,-1,-1,-1,-1,-1,-1,-1,-1,-1,-1,-1,-1,-1,-1,-1,-1,-1,-1,-1,-1,-1,-1,-1,-1,-1,-1,-1,-1,-1,-1,-1],"loss_changes":[9.313427E0,1.1879387E1,8.236892E0,1.0218002E1,1.32725525E1,2.34899E1,1.1075732E1,8.275223E0,3.502686E0,6.630375E0,1.0060941E1,1.1100396E1,1.3877384E1,1.4056805E1,1.1937063E1,1.0054894E1,7.20755E0,2.349555E0,4.430542E0,1.0824806E1,6.166012E0,6.090843E0,1.8287311E0,1.1702547E1,7.756674E0,8.20125E0,1.0370895E1,3.9476376E0,1.1531113E1,9.323492E0,1.3086672E1,0E0,0E0,0E0,0E0,0E0,0E0,0E0,0E0,0E0,0E0,0E0,0E0,0E0,0E0,0E0,0E0,0E0,0E0,0E0,0E0,0E0,0E0,0E0,0E0,0E0,0E0,0E0,0E0,0E0,0E0,0E0,0E0],"parents":[2147483647,0,0,1,1,2,2,3,3,4,4,5,5,6,6,7,7,8,8,9,9,10,10,11,11,12,12,13,13,14,14,15,15,16,16,17,17,18,18,19,19,20,20,21,21,22,22,23,23,24,24,25,25,26,26,27,27,28,28,29,29,30,30],"right_children":[2,4,6,8,10,12,14,16,18,20,22,24,26,28,30,32,34,36,38,40,42,44,46,48,50,52,54,56,58,60,62,-1,-1,-1,-1,-1,-1,-1,-1,-1,-1,-1,-1,-1,-1,-1,-1,-1,-1,-1,-1,-1,-1,-1,-1,-1,-1,-1,-1,-1,-1,-1,-1],"split_conditions":[3.7915497E-3,1.9465722E-3,6.64532E-3,9.380909E-3,8.7851875E1,1.4972003E-3,2.035736E-3,5.214718E-4,2.6150686E-3,-6.078576E-1,6.035534E-1,8.783797E-1,1.5740278E-3,6.795123E-3,8.496888E-3,-2.2056806E-3,-1.8976447E-3,9.09665E1,1.4535425E-2,2.947233E-3,1.4662888E-3,2.1694186E-1,2.514272E-3,8.674692E1,6.2904833E-3,1.1186777E-3,5.3654785E1,5.262961E1,3.5546703E-4,-4.3095904E-3,5.5619694E1,-7.9978466E-2,-5.087294E-3,9.179096E-3,3.8236908E-3,-6.298696E-2,8.384054E-3,2.7771352E-2,-4.82107E-2,2.1460677E-2,-7.674061E-2,1.6247002E-2,-7.249297E-5,-7.7789635E-3,-7.24659E-2,-9.4296625E-3,5.2441347E-2,9.085632E-4,6.753153E-2,3.197414E-2,-2.15023E-2,-4.666646E-2,8.271903E-3,3.5254422E-3,-1.588397E-2,9.518128E-3,7.063367E-2,6.278716E-3,-1.9677697E-2,-3.67803E-2,4.1958354E-2,-1.5014896E-2,2.197378E-2],"split_indices":[4,4,4,2,5,6,6,3,3,9,7,9,6,4,4,4,4,5,2,4,3,9,4,5,4,3,5,5,1,1,5,0,0,0,0,0,0,0,0,0,0,0,0,0,0,0,0,0,0,0,0,0,0,0,0,0,0,0,0,0,0,0,0],"split_type":[0,0,0,0,0,0,0,0,0,0,0,0,0,0,0,0,0,0,0,0,0,0,0,0,0,0,0,0,0,0,0,0,0,0,0,0,0,0,0,0,0,0,0,0,0,0,0,0,0,0,0,0,0,0,0,0,0,0,0,0,0,0,0],"sum_hessian":[4.2768438E3,3.3271328E3,9.4971094E2,2.632552E3,6.945807E2,6.097811E2,3.399298E2,2.6181482E3,1.4403959E1,6.7566345E2,1.8917252E1,2.892617E2,3.205194E2,1.8877077E2,1.5115906E2,8.979842E1,2.5283496E3,8.481744E0,5.9222155E0,9.562232E0,6.661012E2,1.4690799E1,4.226453E0,2.230553E2,6.620639E1,4.4560596E1,2.7595883E2,1.1732997E1,1.7703777E2,5.3484062E1,9.767499E1,3.7411644E0,8.605726E1,1.1780848E3,1.3502649E3,7.3974214E0,1.084322E0,3.646903E0,2.2753127E0,5.294446E0,4.267786E0,6.0208594E2,6.401527E1,6.4368095E0,8.25399E0,1.3373754E0,2.8890774E0,2.1725668E2,5.7986293E0,5.926569E1,6.940703E0,3.6602974E1,7.957624E0,1.25780945E2,1.5017787E2,4.3782563E0,7.3547406E0,1.0719254E2,6.984522E1,3.3046818E0,5.017938E1,3.9012806E1,5.8662186E1],"tree_param":{"num_deleted":"0","num_feature":"11","num_nodes":"63","size_leaf_vector":"0"}},{"base_weights":[1.0043741E-1,1.0243822E-1,-8.9291435E-1,1.508346E-1,6.47393E-2,2.1555597E-1,-1.2415466E0,1.0110364E-1,2.7756697E-1,1.7326401E-1,2.2730611E-2,-3.855169E-1,-1.3311024E0,4.9177524E-1,8.5193515E-2,2.5505787E-1,8.790785E-1,-1.3388897E0,1.815188E-1,4.2528294E-2,-2.6681507E-1,-1.4603566E0,-3.852731E-1,3.0278835E-1,1.325491E0,-1.9772451E-2,1.4471644E-1,2.9284984E-1,-3.7178144E-2,-2.0058931E-1,1.3348147E0,-9.407214E-2,2.2801565E-1,-2.1017122E-1,6.367335E-2,-4.624365E-1,3.0561695E-1],"categories":[],"categories_nodes":[],"categories_segments":[],"categories_sizes":[],"default_left":[1,1,1,1,1,0,1,1,1,1,1,0,1,1,1,1,1,0,1,1,1,0,0,0,0,0,0,0,0,0,0,0,0,0,0,0,0],"id":22,"left_children":[1,3,5,7,9,-1,11,13,15,17,19,-1,21,23,25,27,29,-1,31,33,35,-1,-1,-1,-1,-1,-1,-1,-1,-1,-1,-1,-1,-1,-1,-1,-1],"loss_changes":[8.56665E0,7.756279E0,3.6199298E0,1.1714069E1,1.0912411E1,0E0,4.0826797E-3,8.28458E0,6.876999E0,8.582142E0,9.9134245E0,0E0,1.3424492E-1,7.825095E0,8.052577E0,5.6099777E0,9.375431E0,0E0,8.546892E0,8.657409E0,1.25363865E1,0E0,0E0,0E0,0E0,0E0,0E0,0E0,0E0,0E0,0E0,0E0,0E0,0E0,0E0,0E0,0E0],"parents":[2147483647,0,0,1,1,2,2,3,3,4,4,6,6,7,7,8,8,9,9,10,10,12,12,13,13,14,14,15,15,16,16,18,18,19,19,20,20],"right_children":[2,4,6,8,10,-1,12,14,16,18,20,-1,22,24,26,28,30,-1,32,34,36,-1,-1,-1,-1,-1,-1,-1,-1,-1,-1,-1,-1,-1,-1,-1,-1],"split_conditions":[9.5158745E1,-1.2398092E-4,-2.1694186E-1,2.0080265E-3,-6.035534E-1,1.07777985E-2,-4.8006745E-3,1.8597944E1,-2.0791436E-4,-7.2116796E-3,2.8897452E-3,-1.9275846E-2,7.7593904E-3,1.8396981E-3,-1.5209999E-3,8.965272E-4,-4.4535485E-4,-6.694449E-2,1.1154867E-3,3.3391655E1,4.1045686E-3,-7.301783E-2,-1.9263655E-2,1.5139418E-2,6.6274546E-2,-9.886225E-4,7.2358223E-3,1.4642492E-2,-1.8589072E-3,-1.0029466E-2,6.674074E-2,-4.703607E-3,1.14007825E-2,-1.05085615E-2,3.1836673E-3,-2.3121824E-2,1.5280847E-2],"split_indices":[5,1,9,6,8,0,4,5,1,2,6,0,4,6,2,0,0,0,6,5,6,0,0,0,0,0,0,0,0,0,0,0,0,0,0,0,0],"split_type":[0,0,0,0,0,0,0,0,0,0,0,0,0,0,0,0,0,0,0,0,0,0,0,0,0,0,0,0,0,0,0,0,0,0,0,0,0],"sum_hessian":[4.26323E3,4.255555E3,7.674653E0,1.862084E3,2.3934712E3,1.927598E0,5.747055E0,1.3386019E3,5.2348206E2,6.6706354E2,1.7264077E3,1.0467104E0,4.7003446E0,5.1211006E1,1.287391E3,5.0597217E2,1.7509903E1,2.7465205E0,6.64317E2,1.6167178E3,1.0968995E2,3.6566427E0,1.0437021E0,4.2858913E1,8.352091E0,4.661046E2,8.212863E2,4.480307E2,5.7941456E1,5.3634377E0,1.2146466E1,9.575362E1,5.685634E2,1.2414547E2,1.4925724E3,8.1895386E1,2.7794565E1],"tree_param":{"num_deleted":"0","num_feature":"11","num_nodes":"37","size_leaf_vector":"0"}},{"base_weights":[1.0295352E-1,1.5068896E-1,5.743268E-2,1.9912784E-1,9.281833E-3,-9.210522E-2,8.842439E-2,3.6548603E-1,1.4602748E-1,2.1155456E-1,-1.5947889E-1,-4.622499E-1,2.8106794E-2,1.2251608E-1,-8.264563E-2,3.9199305E-1,-4.465685E-1,-1.9318587E-1,1.8730266E-1,1.4562757E-1,7.7910066E-1,1.4985412E-1,-2.432493E-1,-3.064439E-1,-1.0076482E0,1.3819526E-1,-2.3096865E-1,8.318571E-2,2.8072408E-1,-1.3869527E-1,4.0770063E-1,1.4351035E0,3.6477774E-1,-9.1969514E-1,8.854162E-1,-4.6198407E-1,1.4388019E-1,8.28605E-2,3.119858E-1,2.9959852E-1,-5.192745E-1,-7.6291406E-1,9.7257954E-1,5.590599E-1,-4.787765E-2,1.096659E0,-2.6128137E-1,-6.67042E-1,-3.507927E-3,-9.393711E-2,-1.3169435E0,4.834008E-1,-2.0266237E-2,-4.816094E-1,2.9725072E-1,3.57553E-2,2.801106E-1,3.245608E-1,-6.591384E-1,-9.7563046E-1,-1.1021389E-1,5.622905E-1,-1.0757275E0],"categories":[],"categories_nodes":[],"categories_segments":[],"categories_sizes":[],"default_left":[1,1,1,1,1,1,1,1,1,1,1,1,1,1,1,1,1,1,1,1,1,1,1,1,1,1,1,1,1,1,1,0,0,0,0,0,0,0,0,0,0,0,0,0,0,0,0,0,0,0,0,0,0,0,0,0,0,0,0,0,0,0,0],"id":23,"left_children":[1,3,5,7,9,11,13,15,17,19,21,23,25,27,29,31,33,35,37,39,41,43,45,47,49,51,53,55,57,59,61,-1,-1,-1,-1,-1,-1,-1,-1,-1,-1,-1,-1,-1,-1,-1,-1,-1,-1,-1,-1,-1,-1,-1,-1,-1,-1,-1,-1,-1,-1,-1,-1],"loss_changes":[9.22073E0,1.4194946E1,1.0091474E1,1.3583748E1,1.812158E1,1.6654503E1,1.0523821E1,8.201023E0,1.644405E1,8.920427E0,7.5367E0,7.487335E0,8.110751E0,9.3325E0,8.30601E0,9.742134E0,8.536608E0,1.1629124E1,1.3585964E1,2.2426683E1,8.170062E0,5.067526E0,5.7987423E0,7.949781E0,5.5138416E0,1.0918015E1,1.1375998E1,1.1250896E1,1.2530624E1,6.3311954E0,7.724029E0,0E0,0E0,0E0,0E0,0E0,0E0,0E0,0E0,0E0,0E0,0E0,0E0,0E0,0E0,0E0,0E0,0E0,0E0,0E0,0E0,0E0,0E0,0E0,0E0,0E0,0E0,0E0,0E0,0E0,0E0,0E0,0E0],"parents":[2147483647,0,0,1,1,2,2,3,3,4,4,5,5,6,6,7,7,8,8,9,9,10,10,11,11,12,12,13,13,14,14,15,15,16,16,17,17,18,18,19,19,20,20,21,21,22,22,23,23,24,24,25,25,26,26,27,27,28,28,29,29,30,30],"right_children":[2,4,6,8,10,12,14,16,18,20,22,24,26,28,30,32,34,36,38,40,42,44,46,48,50,52,54,56,58,60,62,-1,-1,-1,-1,-1,-1,-1,-1,-1,-1,-1,-1,-1,-1,-1,-1,-1,-1,-1,-1,-1,-1,-1,-1,-1,-1,-1,-1,-1,-1,-1,-1],"split_conditions":[6.123234E-17,1.0261489E-3,3.4705093E1,-2.184858E-3,-3.7940952E-1,-3.7856204E-3,4.783553E-3,3.9390796E-3,-1.0648845E-3,5.6047505E-3,-2.95266E-5,3.1360107E1,3.7940952E-1,8.117449E-1,2.8982633E-3,-1.4413577E-2,6.835501E-3,6.078576E-1,2.0048442E-1,3.2707946E-3,1.5566051E-3,1.8117449E-3,-2.2377633E-2,-5.6174487E-1,-8.648999E-3,-9.819082E-4,1.815052E-3,2.8585638E-3,4.2911973E-3,4.8610196E-3,1.3837194E-2,7.175518E-2,1.8238887E-2,-4.5984756E-2,4.427081E-2,-2.3099205E-2,7.1940096E-3,4.1430253E-3,1.559929E-2,1.4979926E-2,-2.5963724E-2,-3.8145702E-2,4.862898E-2,2.7952997E-2,-2.3938825E-3,5.4832947E-2,-1.3064069E-2,-3.3352103E-2,-1.7539636E-4,-4.6968553E-3,-6.584718E-2,2.417004E-2,-1.0133119E-3,-2.408047E-2,1.4862536E-2,1.787765E-3,1.400553E-2,1.622804E-2,-3.295692E-2,-4.8781525E-2,-5.510695E-3,2.8114526E-2,-5.3786375E-2],"split_indices":[7,1,5,4,8,4,4,6,4,4,0,5,8,10,1,4,6,9,10,4,6,6,4,10,4,4,4,4,4,4,4,0,0,0,0,0,0,0,0,0,0,0,0,0,0,0,0,0,0,0,0,0,0,0,0,0,0,0,0,0,0,0,0],"split_type":[0,0,0,0,0,0,0,0,0,0,0,0,0,0,0,0,0,0,0,0,0,0,0,0,0,0,0,0,0,0,0,0,0,0,0,0,0,0,0,0,0,0,0,0,0,0,0,0,0,0,0,0,0,0,0,0,0,0,0,0,0,0,0],"sum_hessian":[4.2463853E3,2.0716448E3,2.1747407E3,1.542764E3,5.288807E2,3.7300153E2,1.8017393E3,3.7186496E2,1.170899E3,2.4044055E2,2.8844012E2,9.074461E1,2.8225693E2,1.5025812E3,2.9915808E2,3.606112E2,1.1253769E1,1.2661922E2,1.0442799E3,2.1654318E2,2.389738E1,6.129853E1,2.2714159E2,7.179619E1,1.894842E1,1.9841246E2,8.384447E1,1.2046356E3,2.9794556E2,2.6911383E2,3.0044245E1,7.853924E0,3.5275726E2,8.532514E0,2.7212548E0,7.023705E1,5.638216E1,5.6917163E2,4.7510822E2,1.7627313E2,4.0270046E1,2.336052E0,2.1561329E1,1.9374876E1,4.1923656E1,2.2219007E0,2.2491968E2,3.2229755E1,3.9566437E1,5.121714E0,1.3826706E1,6.1778503E1,1.3663396E2,5.692278E1,2.692169E1,9.717629E2,2.328727E2,2.8529367E2,1.2651881E1,7.7622566E0,2.6135156E2,2.7771133E1,2.2731118E0],"tree_param":{"num_deleted":"0","num_feature":"11","num_nodes":"63","size_leaf_vector":"0"}},{"base_weights":[1.0127005E-1,1.2539591E-1,1.6812801E-2,9.1213234E-2,2.367273E-1,-2.178829E-2,3.492548E-1,9.9611E-2,-4.4386876E-1,9.539259E-1,2.2069941E-1,3.108967E-1,-6.416697E-2,5.526428E-1,-3.542319E-1,-3.7837818E-1,1.0608636E-1,-9.3992585E-1,9.153589E-2,1.0868236E0,-3.51761E-1,1.5899456E-3,2.6013708E-1,6.287964E-1,4.4778537E-2,-1.334217E0,-5.2952167E-2,6.758176E-1,-7.892915E-2,7.0120404E-3,-1.3722826E0,-5.7148892E-2,-1.0881345E0,2.4936512E-1,7.815977E-2,-1.664241E0,-4.4167787E-1,1.2383257E0,-3.6293525E-1,1.166493E0,2.2388121E-2,3.9306727E-1,-3.9154083E-1,2.8021786E-1,-2.975158E-1,7.236983E-1,-3.1402454E-1,-2.125973E-1,5.0170016E-1,-4.9712636E-2,-1.5765483E0,3.4026755E-3,-2.8397927E-1,1.2577319E-1,8.1919324E-1,-8.510693E-1,2.6040527E-1,-3.2142407E-1,9.855388E-1],"categories":[],"categories_nodes":[],"categories_segments":[],"categories_sizes":[],"default_left":[1,1,1,1,1,1,1,1,1,1,1,1,1,1,1,1,1,1,1,1,0,1,1,1,1,1,1,1,1,1,0,0,0,0,0,0,0,0,0,0,0,0,0,0,0,0,0,0,0,0,0,0,0,0,0,0,0,0,0],"id":24,"left_children":[1,3,5,7,9,11,13,15,17,19,21,23,25,27,29,31,33,35,37,39,-1,41,43,45,47,49,51,53,55,57,-1,-1,-1,-1,-1,-1,-1,-1,-1,-1,-1,-1,-1,-1,-1,-1,-1,-1,-1,-1,-1,-1,-1,-1,-1,-1,-1,-1,-1],"loss_changes":[8.687893E0,1.2601868E1,1.2182508E1,1.14553795E1,8.739452E0,1.2017781E1,1.4326496E1,7.7813015E0,1.0556454E1,3.28333E0,6.591648E0,8.120784E0,1.0692505E1,6.043598E0,8.379492E0,7.609416E0,9.857344E0,6.681999E0,1.0805771E1,1.2814159E0,0E0,1.821745E1,7.322914E0,4.1476574E0,6.3993692E0,1.9676123E0,9.766733E0,4.9867573E0,3.7488842E0,6.035169E0,0E0,0E0,0E0,0E0,0E0,0E0,0E0,0E0,0E0,0E0,0E0,0E0,0E0,0E0,0E0,0E0,0E0,0E0,0E0,0E0,0E0,0E0,0E0,0E0,0E0,0E0,0E0,0E0,0E0],"parents":[2147483647,0,0,1,1,2,2,3,3,4,4,5,5,6,6,7,7,8,8,9,9,10,10,11,11,12,12,13,13,14,14,15,15,16,16,17,17,18,18,19,19,21,21,22,22,23,23,24,24,25,25,26,26,27,27,28,28,29,29],"right_children":[2,4,6,8,10,12,14,16,18,20,22,24,26,28,30,32,34,36,38,40,-1,42,44,46,48,50,52,54,56,58,-1,-1,-1,-1,-1,-1,-1,-1,-1,-1,-1,-1,-1,-1,-1,-1,-1,-1,-1,-1,-1,-1,-1,-1,-1,-1,-1,-1,-1],"split_conditions":[3.7954177E-3,1.7073301E-3,2.6220735E-3,1.6109841E-3,2.0530598E1,3.5293823E1,8.783797E-1,4.655848E-4,2.0048442E-1,3.4758355E-3,3.7376778E1,6.078576E-1,3.6033127E1,2.1003461E-3,2.0924374E-3,6.513634E1,7.070446E-4,-3.7940952E-1,-7.278954E-4,9.159756E-1,-1.7588051E-2,6.123234E-17,8.791021E1,6.6817726E-4,1.257989E-3,-1.4437756E-3,8.117449E-1,-9.159756E-1,2.509086E-3,3.0787853E-3,-6.861413E-2,-2.8574446E-3,-5.440673E-2,1.2468256E-2,3.907989E-3,-8.321205E-2,-2.2083893E-2,6.1916288E-2,-1.8146763E-2,5.8324654E-2,1.1194061E-3,1.9653363E-2,-1.9577041E-2,1.4010893E-2,-1.4875791E-2,3.6184918E-2,-1.5701227E-2,-1.0629865E-2,2.5085008E-2,-2.4856317E-3,-7.882742E-2,1.7013378E-4,-1.41989635E-2,6.2886598E-3,4.0959664E-2,-4.2553466E-2,1.3020264E-2,-1.6071204E-2,4.927694E-2],"split_indices":[4,4,6,4,5,5,9,3,10,4,5,9,5,0,3,5,3,7,1,7,0,7,5,0,3,0,10,7,0,6,0,0,0,0,0,0,0,0,0,0,0,0,0,0,0,0,0,0,0,0,0,0,0,0,0,0,0,0,0],"split_type":[0,0,0,0,0,0,0,0,0,0,0,0,0,0,0,0,0,0,0,0,0,0,0,0,0,0,0,0,0,0,0,0,0,0,0,0,0,0,0,0,0,0,0,0,0,0,0,0,0,0,0,0,0,0,0,0,0,0,0],"sum_hessian":[4.263817E3,3.316071E3,9.477459E2,2.5384854E3,7.775856E2,8.4998535E2,9.776054E1,2.5000625E3,3.8423046E1,1.5718415E1,7.618671E2,9.5324455E1,7.546609E2,7.600177E1,2.1758768E1,3.264818E1,2.4674143E3,1.955221E1,1.8870834E1,1.4418473E1,1.2999425E0,1.1637061E2,6.454965E2,4.281529E1,5.250917E1,5.5729103E0,7.49088E2,6.3539646E1,1.2462124E1,1.6793053E1,4.9657154E0,2.321968E1,9.428498E0,4.01185E2,2.0662292E3,7.0146523E0,1.2537558E1,4.8664117E0,1.4004423E1,1.3325243E1,1.0932304E0,5.8308006E1,5.806261E1,6.2354065E2,2.1955872E1,3.9110897E1,3.7043912E0,3.39311E1,1.8578068E1,1.0757773E0,4.4971333E0,6.0298584E2,1.4610213E2,1.3525981E1,5.0013664E1,3.3442895E0,9.117834E0,1.3075776E1,3.7172763E0],"tree_param":{"num_deleted":"0","num_feature":"11","num_nodes":"59","size_leaf_vector":"0"}},{"base_weights":[1.0003405E-1,1.283312E-1,9.981145E-4,9.915625E-2,2.453533E-1,2.166237E-1,-3.638308E-2,4.8506547E-2,1.520476E-1,9.4242975E-2,3.6560476E-1,5.5594003E-1,-8.373355E-2,-7.174993E-2,2.741374E-1,2.3774626E-2,4.046041E-1,7.533047E-1,1.2925796E-1,1.2705378E-1,-7.8543085E-1,1.4435352E-1,5.174274E-1,6.895973E-1,-4.3383294E-1,-1.544356E-1,1.1383146E0,-3.249289E-2,-4.3004137E-1,1.1682045E0,1.0393561E-1,5.4536458E-2,-4.0168527E-1,1.6927429E-1,1.0669771E0,2.9064901E-2,1.0275292E0,3.0672666E-1,3.9378703E-2,7.334345E-1,8.4016524E-2,1.030679E0,-1.185464E0,6.520759E-1,-2.1558554E-1,-2.4003525E-1,5.632812E-1,-1.4678237E-1,8.465279E-1,-1.0200317E0,2.0890637E-1,-4.327525E-2,-8.5348946E-1,-6.221993E-2,5.511901E-1,-6.3217926E-1,6.366691E-1,1.2811038E0,-4.8856106E-2,7.60978E-1,-9.700195E-2],"categories":[],"categories_nodes":[],"categories_segments":[],"categories_sizes":[],"default_left":[1,1,1,1,1,1,1,1,1,1,1,1,1,1,1,1,1,1,1,1,1,1,1,1,1,1,0,1,1,1,1,0,0,0,0,0,0,0,0,0,0,0,0,0,0,0,0,0,0,0,0,0,0,0,0,0,0,0,0,0,0],"id":25,"left_children":[1,3,5,7,9,11,13,15,17,19,21,23,25,27,29,31,33,35,37,39,41,43,45,47,49,51,-1,53,55,57,59,-1,-1,-1,-1,-1,-1,-1,-1,-1,-1,-1,-1,-1,-1,-1,-1,-1,-1,-1,-1,-1,-1,-1,-1,-1,-1,-1,-1,-1,-1],"loss_changes":[1.1863598E1,1.12169E1,7.5989943E0,7.05748E0,1.1892891E1,1.4242502E1,8.843758E0,1.1867573E1,1.7573023E1,8.534039E0,1.2191612E1,8.968748E0,6.6348205E0,1.0143126E1,1.2412142E1,1.6540077E1,1.3461581E1,9.282145E0,1.9825762E1,7.3126435E0,8.956728E0,2.755147E1,7.6435165E0,7.753214E0,3.3819897E0,5.5228605E0,0E0,1.1345579E1,1.57606535E1,1.8590775E0,9.353834E0,0E0,0E0,0E0,0E0,0E0,0E0,0E0,0E0,0E0,0E0,0E0,0E0,0E0,0E0,0E0,0E0,0E0,0E0,0E0,0E0,0E0,0E0,0E0,0E0,0E0,0E0,0E0,0E0,0E0,0E0],"parents":[2147483647,0,0,1,1,2,2,3,3,4,4,5,5,6,6,7,7,8,8,9,9,10,10,11,11,12,12,13,13,14,14,15,15,16,16,17,17,18,18,19,19,20,20,21,21,22,22,23,23,24,24,25,25,27,27,28,28,29,29,30,30],"right_children":[2,4,6,8,10,12,14,16,18,20,22,24,26,28,30,32,34,36,38,40,42,44,46,48,50,52,-1,54,56,58,60,-1,-1,-1,-1,-1,-1,-1,-1,-1,-1,-1,-1,-1,-1,-1,-1,-1,-1,-1,-1,-1,-1,-1,-1,-1,-1,-1,-1,-1,-1],"split_conditions":[3.766948E-3,8.117449E-1,3.8300697E1,6.078576E-1,-1.41958E-3,6.078576E-1,2.5776771E-3,3.0314769E-3,2.0585373E1,8.328697E1,1.3396298E-3,6.801735E-4,3.7955994E1,1.5341048E-3,1.5081873E-3,1.6836938E-3,-2.241938E-3,1.455188E1,-1.7257063E-3,1.0807929E-3,8.139608E-4,5.9685536E-4,2.6722233E1,-6.035534E-1,3.7940952E-1,9.44306E-3,5.691573E-2,1.4448671E-3,1.9414106E-3,1.9250672E-3,5.0738106E1,2.7268229E-3,-2.0084264E-2,8.463714E-3,5.3348858E-2,1.4532451E-3,5.1376462E-2,1.5336334E-2,1.9689351E-3,3.6671724E-2,4.2008264E-3,5.153395E-2,-5.9273202E-2,3.2603797E-2,-1.0779277E-2,-1.2001763E-2,2.8164059E-2,-7.3391185E-3,4.2326394E-2,-5.1001586E-2,1.0445318E-2,-2.1637625E-3,-4.2674474E-2,-3.1109964E-3,2.7559504E-2,-3.1608965E-2,3.1833455E-2,6.40552E-2,-2.4428053E-3,3.80489E-2,-4.8500975E-3],"split_indices":[4,10,5,9,4,9,6,6,5,5,6,0,5,3,3,3,4,5,4,6,3,3,5,7,7,4,0,3,3,0,5,0,0,0,0,0,0,0,0,0,0,0,0,0,0,0,0,0,0,0,0,0,0,0,0,0,0,0,0,0,0],"split_type":[0,0,0,0,0,0,0,0,0,0,0,0,0,0,0,0,0,0,0,0,0,0,0,0,0,0,0,0,0,0,0,0,0,0,0,0,0,0,0,0,0,0,0,0,0,0,0,0,0,0,0,0,0,0,0,0,0,0,0,0,0],"sum_hessian":[4.232363E3,3.2915774E3,9.407855E2,2.636192E3,6.553856E2,1.3829054E2,8.02495E2,1.3476118E3,1.2885801E3,2.9121848E2,3.641671E2,6.4534454E1,7.3756096E1,7.211305E2,8.13645E1,1.2610924E3,8.651945E1,4.5887226E1,1.2426929E3,2.8157175E2,9.646731E0,1.4899191E2,2.151752E2,5.7123825E1,7.41063E0,7.054813E1,3.2079625E0,6.5090344E2,7.0227066E1,1.2074375E1,6.929012E1,1.1768733E3,8.421912E1,6.4765076E1,2.1754368E1,1.2906512E1,3.2980713E1,4.1696768E2,8.2572516E2,1.75968E1,2.6397495E2,1.4567502E0,8.1899805E0,6.1470837E1,8.752108E1,1.2040603E1,2.031346E2,9.035064E0,4.808876E1,3.5687811E0,3.841849E0,6.1785233E1,8.762899E0,6.202095E2,3.0693935E1,5.9381783E1,1.0845282E1,1.1001236E1,1.0731393E0,1.5574896E1,5.371523E1],"tree_param":{"num_deleted":"0","num_feature":"11","num_nodes":"61","size_leaf_vector":"0"}},{"base_weights":[9.1960214E-2,1.156636E-1,8.903203E-3,8.6644165E-2,2.309641E-1,1.3940105E-1,-5.1903177E-2,9.046853E-2,-7.093507E-1,-1.5166707E-1,2.6734605E-1,-6.077603E-1,1.878359E-1,-2.0325851E-1,1.6044615E-1,8.7287284E-2,1.09731E0,-1.1622545E0,6.837002E-1,7.5503165E-1,-4.7022322E-1,1.1486585E0,2.2804384E-1,-9.2018527E-1,4.422574E-1,5.6149095E-1,3.872981E-2,-1.2712716E-1,-5.311339E-1,3.6606905E-1,8.406352E-3,3.4691084E-2,1.430628E-1,1.2587743E0,2.2520915E-2,-1.5323266E0,4.29586E-1,1.0032835E0,-6.0736388E-2,1.1565341E0,-3.3046934E-1,-7.259384E-1,6.1409384E-1,1.207609E0,-1.12467624E-1,2.3979107E-1,-1.6653314E0,-1.3158664E0,-5.6607377E-2,9.920298E-1,6.6274207E-4,3.6979878E-1,1.2920135E0,-4.8769724E-1,1.15406E-1,-2.53619E-1,1.5820076E-1,-2.658838E-1,-8.989838E-1,-9.6832216E-2,6.191751E-1,-2.8448495E-1,1.6088167E-1],"categories":[],"categories_nodes":[],"categories_segments":[],"categories_sizes":[],"default_left":[1,1,1,1,1,1,1,1,1,1,1,1,1,1,1,1,1,1,1,1,1,1,1,1,1,1,1,1,1,1,1,0,0,0,0,0,0,0,0,0,0,0,0,0,0,0,0,0,0,0,0,0,0,0,0,0,0,0,0,0,0,0,0],"id":26,"left_children":[1,3,5,7,9,11,13,15,17,19,21,23,25,27,29,31,33,35,37,39,41,43,45,47,49,51,53,55,57,59,61,-1,-1,-1,-1,-1,-1,-1,-1,-1,-1,-1,-1,-1,-1,-1,-1,-1,-1,-1,-1,-1,-1,-1,-1,-1,-1,-1,-1,-1,-1,-1,-1],"loss_changes":[8.341904E0,1.1010799E1,7.4817796E0,8.086973E0,9.260376E0,1.0958985E1,2.0707912E1,8.308096E0,8.816543E0,1.7149103E1,2.0699245E1,6.4693217E0,1.5700529E1,9.318627E0,8.3835335E0,7.6709347E0,1.3907814E0,6.528901E0,9.528959E-1,7.1379356E0,1.2547092E1,2.0380745E0,1.3312342E1,4.903021E0,1.1921191E0,1.0783276E1,8.241344E0,1.1101494E1,6.644062E0,1.3417999E1,6.978977E0,0E0,0E0,0E0,0E0,0E0,0E0,0E0,0E0,0E0,0E0,0E0,0E0,0E0,0E0,0E0,0E0,0E0,0E0,0E0,0E0,0E0,0E0,0E0,0E0,0E0,0E0,0E0,0E0,0E0,0E0,0E0,0E0],"parents":[2147483647,0,0,1,1,2,2,3,3,4,4,5,5,6,6,7,7,8,8,9,9,10,10,11,11,12,12,13,13,14,14,15,15,16,16,17,17,18,18,19,19,20,20,21,21,22,22,23,23,24,24,25,25,26,26,27,27,28,28,29,29,30,30],"right_children":[2,4,6,8,10,12,14,16,18,20,22,24,26,28,30,32,34,36,38,40,42,44,46,48,50,52,54,56,58,60,62,-1,-1,-1,-1,-1,-1,-1,-1,-1,-1,-1,-1,-1,-1,-1,-1,-1,-1,-1,-1,-1,-1,-1,-1,-1,-1,-1,-1,-1,-1,-1,-1],"split_conditions":[3.7915497E-3,8.117449E-1,1.4054338E-3,4.521361E-3,-8.8086E-3,3.975869E-3,6.78094E-3,3.6096459E-3,6.384149E-3,-1.1925485E-2,-7.0411796E-3,9.800274E-4,4.5786155E-3,8.117449E-1,8.536864E-3,6.078576E-1,