{"learner":{"attributes":{"best_iteration":"4","best_ntree_limit":"5","best_score":"0.6926502588395034"},"feature_names":["ret_1","ret_3","ret_6","vol_24","sma_diff","rsi","atr_norm","hour_sin","hour_cos","dow_sin","dow_cos"],"feature_types":[],"gradient_booster":{"model":{"gbtree_model_param":{"num_parallel_tree":"1","num_trees":"55","size_leaf_vector":"0"},"tree_info":[0,0,0,0,0,0,0,0,0,0,0,0,0,0,0,0,0,0,0,0,0,0,0,0,0,0,0,0,0,0,0,0,0,0,0,0,0,0,0,0,0,0,0,0,0,0,0,0,0,0,0,0,0,0,0],"trees":[{"base_weights":[5.5821124E-2,6.381661E-2,-1.5151515E0,1E0,5.0847456E-2,1.1219512E0,-4E-1,-6.0833648E-2,1.3089146E-1,-0E0,1.2432432E0,-1.0555556E0,-3.3140656E-2,1.7118998E-1,-2.4175824E-1],"categories":[],"categories_nodes":[],"categories_segments":[],"categories_sizes":[],"default_left":[1,1,0,1,1,1,0,1,1,0,0,0,0,0,0],"id":0,"left_children":[1,3,-1,5,7,9,-1,11,13,-1,-1,-1,-1,-1,-1],"loss_changes":[2.0460693E1,1.9545534E1,0E0,4.204878E0,1.424843E1,2.7897167E0,0E0,1.8304317E1,1.3981131E1,0E0,0E0,0E0,0E0,0E0,0E0],"parents":[2147483647,0,0,1,1,3,3,4,4,5,5,7,7,8,8],"right_children":[2,4,-1,6,8,10,-1,12,14,-1,-1,-1,-1,-1,-1],"split_conditions":[2.5801165E-3,1.4702478E1,-7.575758E-2,2.5379877E-3,9.845656E-4,8.404368E-4,-2.0000001E-2,-4.0344056E-3,3.7947698E-3,-0E0,6.216216E-2,-5.277778E-2,-1.6570328E-3,8.559499E-3,-1.2087912E-2],"split_indices":[3,5,0,4,3,3,0,2,2,0,0,0,0,0,0],"split_type":[0,0,0,0,0,0,0,0,0,0,0,0,0,0,0],"sum_hessian":[1.62025E3,1.613E3,7.25E0,2.1E1,1.592E3,1.95E1,1.5E0,6.6475E2,9.2725E2,2E0,1.75E1,1.7E1,6.4775E2,8.3725E2,9E1],"tree_param":{"num_deleted":"0","num_feature":"11","num_nodes":"15","size_leaf_vector":"0"}},{"base_weights":[5.800483E-2,6.503507E-2,-1.4196926E0,3.959496E-2,3.860538E-1,-7.988204E-5,2.0509323E-1,7.162706E-2,9.6424866E-1,-4.824585E-2,1.3316184E-1,-3.860748E-2,3.7955043E-1,1.1765946E0,-8.4982574E-2,1.3273945E0,4.4799384E-1],"categories":[],"categories_nodes":[],"categories_segments":[],"categories_sizes":[],"default_left":[1,1,0,1,1,1,1,1,1,0,0,0,0,0,0,0,0],"id":1,"left_children":[1,3,-1,5,7,9,11,13,15,-1,-1,-1,-1,-1,-1,-1,-1],"loss_changes":[1.697833E1,1.3204247E1,0E0,9.855471E0,2.151881E1,7.7828503E0,1.2354482E1,1.3597325E1,7.2320557E0,0E0,0E0,0E0,0E0,0E0,0E0,0E0,0E0],"parents":[2147483647,0,0,1,1,3,3,4,4,5,5,6,6,7,7,8,8],"right_children":[2,4,-1,6,8,10,12,14,16,-1,-1,-1,-1,-1,-1,-1,-1],"split_conditions":[2.5801165E-3,1.5910199E-3,-7.098463E-2,8.117449E-1,6.078576E-1,8.783797E-1,9.795388E-4,2.0489404E-3,-1.2907938E-3,-2.4122926E-3,6.658092E-3,-1.930374E-3,1.8977521E-2,5.8829732E-2,-4.249129E-3,6.636973E-2,2.2399692E-2],"split_indices":[3,3,0,10,9,9,3,6,4,0,0,0,0,0,0,0,0],"split_type":[0,0,0,0,0,0,0,0,0,0,0,0,0,0,0,0,0],"sum_hessian":[1.6244419E3,1.6177015E3,6.740324E0,1.4999563E3,1.17745255E2,1.2107122E3,2.8924408E2,7.699738E1,4.074788E1,8.8972174E2,3.2099042E2,1.20998695E2,1.6824538E2,8.749799E0,6.824758E1,2.2998787E1,1.774909E1],"tree_param":{"num_deleted":"0","num_feature":"11","num_nodes":"17","size_leaf_vector":"0"}},{"base_weights":[4.473119E-2,8.5875556E-2,-1.8208757E-1,-5.7007473E-2,1.7539562E-1,-6.906502E-1,-3.2063425E-2,3.0847695E-1,-1.2064335E-1,-1.1596205E-1,2.366469E-1,-8.8623625E-1,-1.9869055E-3,3.7305877E-1,-1.5707524E-1,-2.4346877E-2,1.032255E0,-4.8459493E-2,-6.782775E-1,2.3879138E-1,-2.8159022E-1,2.83812E-1,5.88123E-3,9.3989186E-2,-9.934016E-1,-6.271808E-1,7.677577E-1,5.999851E-1,-2.9652143E-1,-2.080798E-1,1.1411761E0],"categories":[],"categories_nodes":[],"categories_segments":[],"categories_sizes":[],"default_left":[1,1,1,1,1,1,1,1,1,1,1,1,1,1,1,0,0,0,0,0,0,0,0,0,0,0,0,0,0,0,0],"id":2,"left_children":[1,3,5,7,9,11,13,15,17,19,21,23,25,27,29,-1,-1,-1,-1,-1,-1,-1,-1,-1,-1,-1,-1,-1,-1,-1,-1],"loss_changes":[1.5083559E1,1.7499798E1,1.8917248E1,1.2304686E1,1.5034338E1,7.6081448E0,9.81969E0,1.8934853E1,1.8078772E1,8.689533E0,7.5645638E0,4.715313E0,6.9777813E0,7.1287313E0,1.0036856E1,0E0,0E0,0E0,0E0,0E0,0E0,0E0,0E0,0E0,0E0,0E0,0E0,0E0,0E0,0E0,0E0],"parents":[2147483647,0,0,1,1,2,2,3,3,4,4,5,5,6,6,7,7,8,8,9,9,10,10,11,11,12,12,13,13,14,14],"right_children":[2,4,6,8,10,12,14,16,18,20,22,24,26,28,30,-1,-1,-1,-1,-1,-1,-1,-1,-1,-1,-1,-1,-1,-1,-1,-1],"split_conditions":[6.963605E1,-5.6174487E-1,-7.865661E-1,1.2037046E-3,1.2823343E-3,1.9530182E-3,-1.4206361E-3,5.4810524E1,5.4557417E-3,3.9091575E-1,3.2362035E-3,-3.6761677E-3,2.478805E-3,6.035534E-1,6.5254364E-3,-1.2173438E-3,5.1612753E-2,-2.4229747E-3,-3.3913877E-2,1.1939569E-2,-1.4079511E-2,1.4190599E-2,2.940615E-4,4.6994593E-3,-4.967008E-2,-3.1359043E-2,3.8387887E-2,2.9999256E-2,-1.4826071E-2,-1.040399E-2,5.7058807E-2],"split_indices":[5,10,7,6,6,6,4,5,4,9,4,4,4,8,2,0,0,0,0,0,0,0,0,0,0,0,0,0,0,0,0],"split_type":[0,0,0,0,0,0,0,0,0,0,0,0,0,0,0,0,0,0,0,0,0,0,0,0,0,0,0,0,0,0,0],"sum_hessian":[1.6135963E3,1.3663629E3,2.4723347E2,5.264534E2,8.399094E2,5.5498177E1,1.917353E2,7.749921E1,4.4895422E2,1.4574454E2,6.941649E2,4.2999165E1,1.2499009E1,4.4745537E1,1.4698978E2,5.3749344E1,2.3749865E1,3.984616E2,5.0492603E1,4.6247288E1,9.9497246E1,5.761737E2,1.1799122E2,4.2498026E0,3.8749363E1,6.999311E0,5.4996977E0,3.3497047E1,1.124849E1,1.4224124E2,4.748526E0],"tree_param":{"num_deleted":"0","num_feature":"11","num_nodes":"31","size_leaf_vector":"0"}},{"base_weights":[6.531632E-2,7.301875E-2,-1.4959275E0,4.492918E-2,4.3405604E-1,8.539234E-2,-1.7040898E-1,6.666907E-1,-3.3638698E-1,1.1062374E0,7.651823E-2,-4.9684837E-1,1.3220066E-1,9.8635006E-1,1.4309244E-1,3.8767913E-1,-1.4576355E0],"categories":[],"categories_nodes":[],"categories_segments":[],"categories_sizes":[],"default_left":[1,1,0,1,1,1,1,1,1,0,0,0,0,0,0,0,0],"id":3,"left_children":[1,3,-1,5,7,9,11,13,15,-1,-1,-1,-1,-1,-1,-1,-1],"loss_changes":[1.9484337E1,1.6249605E1,0E0,1.2993321E1,2.0959171E1,1.1280796E1,2.3373947E1,1.4787312E1,2.2887161E1,0E0,0E0,0E0,0E0,0E0,0E0,0E0,0E0],"parents":[2147483647,0,0,1,1,3,3,4,4,5,5,6,6,7,7,8,8],"right_children":[2,4,-1,6,8,10,12,14,16,-1,-1,-1,-1,-1,-1,-1,-1],"split_conditions":[2.5801165E-3,1.5910199E-3,-7.479637E-2,6.964833E1,2.8407797E-3,1.21463585E1,-1.2940952E-1,5.786474E1,-1.5970891E-3,5.531187E-2,3.8259116E-3,-2.4842419E-2,6.610033E-3,4.9317505E-2,7.154622E-3,1.9383958E-2,-7.288178E-2],"split_indices":[3,3,0,5,6,5,7,5,4,0,0,0,0,0,0,0,0],"split_type":[0,0,0,0,0,0,0,0,0,0,0,0,0,0,0,0,0],"sum_hessian":[1.6101858E3,1.6032295E3,6.956337E0,1.4885419E3,1.1468768E2,1.2535894E3,2.3495251E2,8.819265E1,2.6495035E1,9.73773E0,1.2438516E3,1.1271722E2,1.222353E2,5.42121E1,3.398055E1,1.6496422E1,9.998612E0],"tree_param":{"num_deleted":"0","num_feature":"11","num_nodes":"17","size_leaf_vector":"0"}},{"base_weights":[3.884493E-2,4.6378016E-2,-1.456286E0,8.237255E-1,3.5637632E-2,-2.8614426E-1,1.0143818E0,-4.4319412E-1,5.159806E-2,5.078444E-1,-1.1288787E0,1.4084067E0,2.9643512E-1,-9.843797E-2,-9.70285E-1,2.7389217E-2,3.9275768E-1],"categories":[],"categories_nodes":[],"categories_segments":[],"categories_sizes":[],"default_left":[1,1,0,1,1,1,1,1,1,0,0,0,0,0,0,0,0],"id":4,"left_children":[1,3,-1,5,7,9,11,13,15,-1,-1,-1,-1,-1,-1,-1,-1],"loss_changes":[1.8321165E1,1.3441964E1,0E0,4.9338017E0,1.2193923E1,3.2477953E0,4.9425354E0,9.25856E0,1.2725588E1,0E0,0E0,0E0,0E0,0E0,0E0,0E0,0E0],"parents":[2147483647,0,0,1,1,3,3,4,4,5,5,6,6,7,7,8,8],"right_children":[2,4,-1,6,8,10,12,14,16,-1,-1,-1,-1,-1,-1,-1,-1],"split_conditions":[2.572182E-3,1.4702478E1,-7.28143E-2,1.5046969E-3,-3.8066492E-3,-2.0933771E-4,2.0505534E-3,-4.5184297E-3,1.5909192E-3,2.539222E-2,-5.6443937E-2,7.042034E-2,1.4821756E-2,-4.9218987E-3,-4.851425E-2,1.3694608E-3,1.9637885E-2],"split_indices":[3,5,0,6,1,0,6,1,3,0,0,0,0,0,0,0,0],"split_type":[0,0,0,0,0,0,0,0,0,0,0,0,0,0,0,0,0],"sum_hessian":[1.6196782E3,1.6125226E3,7.155577E0,2.094453E1,1.5915781E3,2.9970322E0,1.7947498E1,5.0475815E1,1.5411023E3,1.7477559E0,1.2492764E0,1.0966905E1,6.9805927E0,3.1233543E1,1.9242271E1,1.4399995E3,1.01102745E2],"tree_param":{"num_deleted":"0","num_feature":"11","num_nodes":"17","size_leaf_vector":"0"}},{"base_weights":[3.966454E-2,4.6033148E-2,-1.2614825E0,-6.683271E-2,1.2300712E-1,-5.693517E-1,-1.4302459E0,-1.3772398E-1,1.9908582E-1,2.909841E-1,1.6472556E-2,3.8526297E-1,-1.7986688E-1,-6.881121E-1,3.436598E-1,6.2368214E-1,1.1860905E-1,4.9041294E-2,-1.472404E0],"categories":[],"categories_nodes":[],"categories_segments":[],"categories_sizes":[],"default_left":[1,1,1,1,1,0,0,1,1,1,1,0,0,0,0,0,0,0,0],"id":5,"left_children":[1,3,5,7,9,-1,-1,11,13,15,17,-1,-1,-1,-1,-1,-1,-1,-1],"loss_changes":[1.33370495E1,1.3870754E1,1.01511955E-1,1.2236102E1,1.6978142E1,0E0,0E0,1.1351872E1,1.7773144E1,2.10442E1,2.8282875E1,0E0,0E0,0E0,0E0,0E0,0E0,0E0,0E0],"parents":[2147483647,0,0,1,1,2,2,3,3,4,4,7,7,8,8,9,9,10,10],"right_children":[2,4,6,8,10,-1,-1,12,14,16,18,-1,-1,-1,-1,-1,-1,-1,-1],"split_conditions":[2.5801165E-3,9.779306E-4,-1.2940952E-1,8.783797E-1,-1.6608685E-3,-2.8467584E-2,-7.15123E-2,6.361428E-4,-4.651477E-3,1.6984036E-3,2.840782E-3,1.9263148E-2,-8.993344E-3,-3.4405604E-2,1.7182989E-2,3.1184107E-2,5.9304526E-3,2.4520648E-3,-7.36202E-2],"split_indices":[3,3,7,9,4,0,0,3,4,6,6,0,0,0,0,0,0,0,0],"split_type":[0,0,0,0,0,0,0,0,0,0,0,0,0,0,0,0,0,0,0],"sum_hessian":[1.6014851E3,1.5946445E3,6.8405395E0,6.4663074E2,9.4801385E2,2.1983504E0,4.642189E0,5.1090936E2,1.3572137E2,3.6724063E2,5.8077325E2,3.7492405E1,4.7341696E2,1.8490753E1,1.1723061E2,1.2444102E2,2.427996E2,5.692873E2,1.1485931E1],"tree_param":{"num_deleted":"0","num_feature":"11","num_nodes":"19","size_leaf_vector":"0"}},{"base_weights":[5.07907E-2,8.9146234E-2,-1.6389464E-1,9.617855E-2,-1.152835E0,-3.9868498E-1,9.152006E-2,8.8341035E-2,1.5136203E0,3.329294E-1,-1.479648E0,-6.3407534E-1,1.23868175E-1,8.4006476E-1,-9.960946E-2,9.7191155E-2,-1.379632E0,5.8598137E-1,-7.4170357E-1,1.2228807E0,-1.7141844E-1,-9.216199E-1,1.0180504E0,9.114864E-1,-1.7450714E-1],"categories":[],"categories_nodes":[],"categories_segments":[],"categories_sizes":[],"default_left":[1,1,1,1,1,1,1,1,0,0,0,1,1,1,1,0,0,0,0,0,0,0,0,0,0],"id":6,"left_children":[1,3,5,7,9,11,13,15,-1,-1,-1,17,19,21,23,-1,-1,-1,-1,-1,-1,-1,-1,-1,-1],"loss_changes":[1.336437E1,1.2129986E1,1.4794525E1,1.5078186E1,4.292186E0,1.5873617E1,1.7063644E1,1.7839712E1,0E0,0E0,0E0,1.2081333E1,1.3423096E1,8.540781E0,7.3864217E0,0E0,0E0,0E0,0E0,0E0,0E0,0E0,0E0,0E0,0E0],"parents":[2147483647,0,0,1,1,2,2,3,3,4,4,5,5,6,6,7,7,11,11,12,12,13,13,14,14],"right_children":[2,4,6,8,10,12,14,16,-1,-1,-1,18,20,22,24,-1,-1,-1,-1,-1,-1,-1,-1,-1,-1],"split_conditions":[6.96328E1,2.5207526E-3,6.123234E-17,2.4370737E-3,-7.865661E-1,1.7864606E-3,8.209859E-4,2.2876023E-3,7.5681016E-2,1.664647E-2,-7.39824E-2,-3.6165765E-3,1.0371662E-3,5.8815966E-4,-5.71381E-3,4.859558E-3,-6.89816E-2,2.929907E-2,-3.708518E-2,6.1144035E-2,-8.570923E-3,-4.6080995E-2,5.0902523E-2,4.557432E-2,-8.725357E-3],"split_indices":[5,3,7,3,7,6,3,3,0,0,0,4,3,3,4,0,0,0,0,0,0,0,0,0,0],"split_type":[0,0,0,0,0,0,0,0,0,0,0,0,0,0,0,0,0,0,0,0,0,0,0,0,0],"sum_hessian":[1.6202239E3,1.375129E3,2.4509485E2,1.3683041E3,6.825011E0,1.27411095E2,1.17683754E2,1.3618363E3,6.4677286E0,1.2271948E0,5.597816E0,8.769459E1,3.971651E1,2.3246254E1,9.44375E1,1.3546035E3,7.232851E0,6.7486324E0,8.094595E1,7.7459416E0,3.1970568E1,1.7497127E0,2.149654E1,5.742724E0,8.869478E1],"tree_param":{"num_deleted":"0","num_feature":"11","num_nodes":"25","size_leaf_vector":"0"}},{"base_weights":[3.79246E-2,7.325633E-1,2.772434E-2,1.0109359E0,1.947183E-1,-8.25384E-2,9.455185E-2,-1.7564036E-1,1.2876856E0,6.4168143E-1,-1.2638563E0,-2.8039026E-1,2.2311965E-2,1.503489E-1,-1.9027E-1,-8.240361E-1,6.22896E-1,4.2410117E-1,1.3880838E0,-2.1534716E-1,1.3093263E0,4.2279983E-1,-4.1487586E-1,-1.5133928E-1,3.9052987E-1,-1.4247045E-1,2.1116953E-1,-4.4652623E-1,5.9623092E-2],"categories":[],"categories_nodes":[],"categories_segments":[],"categories_sizes":[],"default_left":[1,1,1,1,1,1,1,1,1,1,0,1,1,1,1,0,0,0,0,0,0,0,0,0,0,0,0,0,0],"id":7,"left_children":[1,3,5,7,9,11,13,15,17,19,-1,21,23,25,27,-1,-1,-1,-1,-1,-1,-1,-1,-1,-1,-1,-1,-1,-1],"loss_changes":[1.1430941E1,3.2990332E0,1.1751889E1,5.2003393E0,6.80996E0,1.2494209E1,1.5806818E1,2.4521747E0,4.866562E-1,4.691681E0,0E0,1.9901339E1,2.5277046E1,1.48252735E1,1.0469531E1,0E0,0E0,0E0,0E0,0E0,0E0,0E0,0E0,0E0,0E0,0E0,0E0,0E0,0E0],"parents":[2147483647,0,0,1,1,2,2,3,3,4,4,5,5,6,6,7,7,8,8,9,9,11,11,12,12,13,13,14,14],"right_children":[2,4,6,8,10,12,14,16,18,20,-1,22,24,26,28,-1,-1,-1,-1,-1,-1,-1,-1,-1,-1,-1,-1,-1,-1],"split_conditions":[1.472015E1,2.0505534E-3,-5.6174487E-1,1.4888386E-3,-1.2843171E-3,-3.7940952E-1,6.964508E1,-4.856531E-4,-4.4093076E-3,2.2668857E-3,-6.3192815E-2,-4.6322513E-3,5.8782253E1,1.2781911E-3,-1.2940952E-1,-4.1201808E-2,3.1144802E-2,2.1205058E-2,6.940419E-2,-1.0767358E-2,6.5466315E-2,2.1139992E-2,-2.0743793E-2,-7.566964E-3,1.9526495E-2,-7.1235225E-3,1.0558477E-2,-2.2326311E-2,2.9811547E-3],"split_indices":[5,6,10,6,2,7,5,4,1,6,0,4,5,6,7,0,0,0,0,0,0,0,0,0,0,0,0,0,0],"split_type":[0,0,0,0,0,0,0,0,0,0,0,0,0,0,0,0,0,0,0,0,0,0,0,0,0,0,0,0,0],"sum_hessian":[1.615154E3,2.2349257E1,1.5928048E3,1.4147386E1,8.20187E0,6.0097864E2,9.918261E2,2.744703E0,1.1402682E1,6.706733E0,1.4951373E0,2.075878E2,3.9339087E2,8.297491E2,1.6207704E2,1.4971299E0,1.2475731E0,1.731679E0,9.671003E0,3.2334883E0,3.4732447E0,3.298324E1,1.7460457E2,2.6772226E2,1.2566859E2,1.4247314E2,6.8727594E2,7.963125E1,8.24458E1],"tree_param":{"num_deleted":"0","num_feature":"11","num_nodes":"29","size_leaf_vector":"0"}},{"base_weights":[3.347169E-2,4.0028617E-2,-1.2256958E0,8.031836E-1,2.9433684E-2,1.1850737E0,1.388133E-1,5.8352523E-3,3.3315846E-1,8.0702317E-1,1.4242668E0,-7.5942963E-1,4.9214068E-1,2.0803293E-2,-4.0316907E-1,7.527829E-2,8.550289E-1],"categories":[],"categories_nodes":[],"categories_segments":[],"categories_sizes":[],"default_left":[1,1,0,1,1,1,1,1,1,0,0,0,0,0,0,0,0],"id":8,"left_children":[1,3,-1,5,7,9,11,13,15,-1,-1,-1,-1,-1,-1,-1,-1],"loss_changes":[1.3413917E1,1.3004929E1,0E0,5.423834E0,1.1396481E1,1.03328705E-1,3.284776E0,9.04857E0,1.5363325E1,0E0,0E0,0E0,0E0,0E0,0E0,0E0,0E0],"parents":[2147483647,0,0,1,1,3,3,4,4,5,5,6,6,7,7,8,8],"right_children":[2,4,-1,6,8,10,12,14,16,-1,-1,-1,-1,-1,-1,-1,-1],"split_conditions":[2.5801165E-3,1.4702478E1,-6.128479E-2,-9.970603E-5,1.5910199E-3,-2.6408623E-3,6.49472E-5,8.1227394E1,6.078576E-1,4.035116E-2,7.121334E-2,-3.797148E-2,2.4607034E-2,1.0401647E-3,-2.0158453E-2,3.7639146E-3,4.2751446E-2],"split_indices":[3,5,0,0,3,1,0,5,9,0,0,0,0,0,0,0,0],"split_type":[0,0,0,0,0,0,0,0,0,0,0,0,0,0,0,0,0],"sum_hessian":[1.6177522E3,1.6103348E3,7.4173675E0,2.1025915E1,1.589309E3,1.2853673E1,8.172242E0,1.4756732E3,1.1363581E2,6.6760106E0,6.177662E0,1.9826092E0,6.189633E0,1.4244912E3,5.1181953E1,7.681985E1,3.6815968E1],"tree_param":{"num_deleted":"0","num_feature":"11","num_nodes":"17","size_leaf_vector":"0"}},{"base_weights":[2.8165113E-2,9.2116183E-1,2.1275142E-2,-3.6223298E-1,1.0966698E0,-7.588014E-2,7.978474E-2,1.4177939E0,2.999883E-1,-1.6705815E-1,1.2489356E-1,1.4234583E-1,-2.4027015E-1,-4.1039672E-1,1.0377378E0,2.2057067E-1,-2.168866E-1,-5.2271374E-2,4.4868994E-1,1.5909304E-1,-4.1910678E-1,-5.0538445E-1,1.5466689E-2],"categories":[],"categories_nodes":[],"categories_segments":[],"categories_sizes":[],"default_left":[1,1,1,0,1,1,1,0,1,1,1,1,1,0,0,0,0,0,0,0,0,0,0],"id":9,"left_children":[1,3,5,-1,7,9,11,-1,13,15,17,19,21,-1,-1,-1,-1,-1,-1,-1,-1,-1,-1],"loss_changes":[9.879674E0,3.166667E0,9.0878105E0,0E0,2.4052868E0,1.1023084E1,2.000949E1,0E0,2.7564535E0,8.039217E0,1.0823711E1,7.919176E0,1.1092448E1,0E0,0E0,0E0,0E0,0E0,0E0,0E0,0E0,0E0,0E0],"parents":[2147483647,0,0,1,1,2,2,4,4,5,5,6,6,8,8,9,9,10,10,11,11,12,12],"right_children":[2,4,6,-1,8,10,12,-1,14,16,18,20,22,-1,-1,-1,-1,-1,-1,-1,-1,-1,-1],"split_conditions":[1.2075201E1,-4.4093076E-3,-5.6174487E-1,-1.811165E-2,3.7940952E-1,8.2567043E-4,6.964508E1,7.08897E-2,1.1313984E1,-6.0885604E-3,6.035534E-1,4.582217E-3,-1.2940952E-1,-2.0519836E-2,5.1886894E-2,1.1028534E-2,-1.084433E-2,-2.6135687E-3,2.2434497E-2,7.954652E-3,-2.095534E-2,-2.5269223E-2,7.7333447E-4],"split_indices":[5,1,10,0,8,1,5,0,5,4,7,2,7,0,0,0,0,0,0,0,0,0,0],"split_type":[0,0,0,0,0,0,0,0,0,0,0,0,0,0,0,0,0,0,0,0,0,0,0],"sum_hessian":[1.6079254E3,1.1295078E1,1.5966302E3,1.2308235E0,1.0064255E1,6.000122E2,9.9661804E2,6.6173344E0,3.4469197E0,4.127408E2,1.8727141E2,8.3412665E2,1.6249138E2,1.9820784E0,1.4648414E0,4.6622807E1,3.66118E2,1.215849E2,6.5686516E1,8.106626E2,2.3464092E1,7.930363E1,8.318775E1],"tree_param":{"num_deleted":"0","num_feature":"11","num_nodes":"23","size_leaf_vector":"0"}},{"base_weights":[2.5716377E-2,3.2067493E-2,-1.2878176E0,8.4371995E-3,3.319446E-1,1.086171E0,2.0878715E-3,5.3612506E-1,-3.3305636E-1,1.0347423E-1,1.2317998E0,7.1981386E-3,-1.2154082E0,8.1386423E-1,1.083754E-1,3.844013E-1,-1.4323099E0],"categories":[],"categories_nodes":[],"categories_segments":[],"categories_sizes":[],"default_left":[1,1,0,1,1,1,1,1,1,0,0,0,0,0,0,0,0],"id":10,"left_children":[1,3,-1,5,7,9,11,13,15,-1,-1,-1,-1,-1,-1,-1,-1],"loss_changes":[1.3597876E1,1.1463896E1,0E0,1.0268933E1,1.622399E1,1.1303616E0,9.29913E0,1.0698536E1,2.2930422E1,0E0,0E0,0E0,0E0,0E0,0E0,0E0,0E0],"parents":[2147483647,0,0,1,1,3,3,4,4,5,5,6,6,7,7,8,8],"right_children":[2,4,-1,6,8,10,12,14,16,-1,-1,-1,-1,-1,-1,-1,-1],"split_conditions":[2.5801165E-3,1.5910199E-3,-6.439088E-2,1.0706917E1,2.8407797E-3,1.528948E-3,1.5722928E-3,5.7277626E1,-1.5970891E-3,5.1737116E-3,6.1589994E-2,3.5990693E-4,-6.077041E-2,4.0693212E-2,5.41877E-3,1.9220065E-2,-7.1615495E-2],"split_indices":[3,3,0,5,6,6,3,5,4,0,0,0,0,0,0,0,0],"split_type":[0,0,0,0,0,0,0,0,0,0,0,0,0,0,0,0,0],"sum_hessian":[1.62402E3,1.6171764E3,6.8436804E0,1.5000043E3,1.1717208E2,7.7892528E0,1.4922151E3,8.979532E1,2.7376762E1,1.2261025E0,6.5631504E0,1.4869678E3,5.247249E0,5.3897102E1,3.5898216E1,1.6958586E1,1.0418175E1],"tree_param":{"num_deleted":"0","num_feature":"11","num_nodes":"17","size_leaf_vector":"0"}},{"base_weights":[2.7201386E-2,3.24859E-2,-1.109463E0,-5.0718207E-3,2.240815E-1,-4.6448976E-1,-1.2775359E0,5.9592417E-3,-6.5552616E-1,4.8213112E-1,7.086903E-2,-9.8290044E-1,1.3080886E-2,1.0553927E0,-1.0259112E0,7.1388966E-1,-3.3564083E-2,-2.4014942E-1,2.6038176E-1],"categories":[],"categories_nodes":[],"categories_segments":[],"categories_sizes":[],"default_left":[1,1,1,1,1,0,0,1,1,1,1,0,0,0,0,0,0,0,0],"id":11,"left_children":[1,3,5,7,9,-1,-1,11,13,15,17,-1,-1,-1,-1,-1,-1,-1,-1],"loss_changes":[9.749832E0,1.1591152E1,2.2092152E-1,9.673497E0,1.04035635E1,0E0,0E0,9.352065E0,1.5329884E1,1.1758102E1,9.895405E0,0E0,0E0,0E0,0E0,0E0,0E0,0E0,0E0],"parents":[2147483647,0,0,1,1,2,2,3,3,4,4,7,7,8,8,9,9,10,10],"right_children":[2,4,6,8,10,-1,-1,12,14,16,18,-1,-1,-1,-1,-1,-1,-1,-1],"split_conditions":[2.5801165E-3,1.361117E-3,-1.2940952E-1,1.3375559E-3,-3.0951002E-3,-2.3224488E-2,-6.38768E-2,-1.0646302E-2,-6.4579584E-3,1.7717155E-3,-1.7138966E-4,-4.9145024E-2,6.5404427E-4,5.276964E-2,-5.129556E-2,3.5694484E-2,-1.6782042E-3,-1.2007471E-2,1.3019088E-2],"split_indices":[3,3,7,3,4,0,0,4,4,3,4,0,0,0,0,0,0,0,0],"split_type":[0,0,0,0,0,0,0,0,0,0,0,0,0,0,0,0,0,0,0],"sum_hessian":[1.616155E3,1.609643E3,6.512035E0,1.34664E3,2.6300293E2,2.1241834E0,4.387851E0,1.3251575E3,2.1482521E1,9.717989E1,1.6582303E2,8.495662E0,1.3166619E3,3.493866E0,1.7988655E1,6.6782745E1,3.039715E1,6.2683285E1,1.0313975E2],"tree_param":{"num_deleted":"0","num_feature":"11","num_nodes":"19","size_leaf_vector":"0"}},{"base_weights":[3.2188736E-2,8.930984E-1,2.5404343E-2,1.2632611E0,1.5935929E-1,3.0072726E-2,-1.2746698E0,9.379761E-2,1.4538037E0,-6.725908E-1,5.7098866E-1,9.216611E-3,3.103093E-1,-2.0410307E-1,1.0665306E0,3.0641148E-2,-2.763313E-1,5.2270514E-1,-4.023816E-1],"categories":[],"categories_nodes":[],"categories_segments":[],"categories_sizes":[],"default_left":[1,1,1,1,1,1,0,0,0,0,1,1,1,0,0,0,0,0,0],"id":12,"left_children":[1,3,5,7,9,11,-1,-1,-1,-1,13,15,17,-1,-1,-1,-1,-1,-1],"loss_changes":[9.441639E0,3.2318554E0,9.802262E0,1.703661E0,2.2274654E0,9.371815E0,0E0,0E0,0E0,0E0,1.8085982E0,9.147764E0,1.702385E1,0E0,0E0,0E0,0E0,0E0,0E0],"parents":[2147483647,0,0,1,1,2,2,3,3,4,4,5,5,10,10,11,11,12,12],"right_children":[2,4,6,8,10,12,-1,-1,-1,-1,14,16,18,-1,-1,-1,-1,-1,-1],"split_conditions":[1.21463585E1,1.2499045E-3,2.589511E-3,1.528948E-3,-3.7940952E-1,1.6076535E-3,-6.373349E-2,4.6898806E-3,7.269018E-2,-3.362954E-2,-5.161058E-3,2.1469116E-3,2.8407797E-3,-1.0205153E-2,5.332653E-2,1.5320574E-3,-1.3816565E-2,2.6135257E-2,-2.011908E-2],"split_indices":[5,3,3,6,7,3,0,0,0,0,2,6,6,0,0,0,0,0,0],"split_type":[0,0,0,0,0,0,0,0,0,0,0,0,0,0,0,0,0,0,0],"sum_hessian":[1.6193961E3,1.1640398E1,1.6077557E3,7.2574334E0,4.382965E0,1.6029764E3,4.779194E0,1.2258697E0,6.0315638E0,1.2409306E0,3.1420345E0,1.4929027E3,1.1007377E2,1.4547455E0,1.6872889E0,1.389539E3,1.0336381E2,8.500668E1,2.5067081E1],"tree_param":{"num_deleted":"0","num_feature":"11","num_nodes":"19","size_leaf_vector":"0"}},{"base_weights":[2.1469107E-2,-7.635449E-2,8.0754444E-2,7.1665996E-1,-1.10454835E-1,4.7509227E-2,6.4987254E-1,-4.061912E-1,9.4729114E-1,-3.087411E-1,8.819518E-3,7.478675E-2,-5.20257E-1,-1.7450029E-1,8.622099E-1,1.1974453E0,-1.4356632E0,1.389799E0,3.614533E-1,-8.069956E-1,-2.3557015E-1,4.6601892E-1,-1.0953469E-1,-9.898585E-1,8.889899E-2,7.9339314E-1,-6.453026E-1,4.2709193E-1,-1.403762E0,5.5662274E-1,1.2647815E0],"categories":[],"categories_nodes":[],"categories_segments":[],"categories_sizes":[],"default_left":[1,1,1,1,1,1,1,1,1,1,1,1,1,1,1,0,0,0,0,0,0,0,0,0,0,0,0,0,0,0,0],"id":13,"left_children":[1,3,5,7,9,11,13,15,17,19,21,23,25,27,29,-1,-1,-1,-1,-1,-1,-1,-1,-1,-1,-1,-1,-1,-1,-1,-1],"loss_changes":[9.354991E0,1.654255E1,1.8968998E1,6.9193535E0,1.382815E1,1.4749532E1,9.838173E0,9.973017E0,5.002264E0,7.8156853E0,1.9854889E1,1.3718028E1,7.685171E0,9.59733E0,4.730671E0,0E0,0E0,0E0,0E0,0E0,0E0,0E0,0E0,0E0,0E0,0E0,0E0,0E0,0E0,0E0,0E0],"parents":[2147483647,0,0,1,1,2,2,3,3,4,4,5,5,6,6,7,7,8,8,9,9,10,10,11,11,12,12,13,13,14,14],"right_children":[2,4,6,8,10,12,14,16,18,20,22,24,26,28,30,-1,-1,-1,-1,-1,-1,-1,-1,-1,-1,-1,-1,-1,-1,-1,-1],"split_conditions":[-5.6174487E-1,6.571453E-4,1.6717325E-3,-1.8764685E-3,9.784302E-4,4.4236337E-3,-4.646063E-3,-6.830127E-1,1.4906257E-4,-9.159756E-1,1.5292945E-3,-6.464758E-3,7.912916E-4,-5.137449E-3,2.315823E-3,5.9872266E-2,-7.178316E-2,6.948995E-2,1.8072665E-2,-4.0349778E-2,-1.1778507E-2,2.3300946E-2,-5.4767346E-3,-4.9492925E-2,4.4449493E-3,3.966966E-2,-3.226513E-2,2.1354597E-2,-7.01881E-2,2.7831137E-2,6.3239075E-2],"split_indices":[10,3,3,4,3,2,4,8,2,7,6,2,3,4,6,0,0,0,0,0,0,0,0,0,0,0,0,0,0,0,0],"split_type":[0,0,0,0,0,0,0,0,0,0,0,0,0,0,0,0,0,0,0,0,0,0,0,0,0,0,0,0,0,0,0],"sum_hessian":[1.611004E3,6.0780664E2,1.00319745E3,2.4233467E1,5.835732E2,9.4885333E2,5.4344097E1,3.9996328E0,2.0233833E1,2.1859085E2,3.6498233E2,9.0618524E2,4.266811E1,1.116717E1,4.3176926E1,1.4999522E0,2.4996805E0,1.0745203E1,9.48863E0,2.6706331E1,1.9188452E2,7.444924E1,2.9053308E2,1.095015E1,8.9523505E2,3.2439876E0,3.942412E1,7.9359384E0,3.2312315E0,2.5899557E1,1.7277369E1],"tree_param":{"num_deleted":"0","num_feature":"11","num_nodes":"31","size_leaf_vector":"0"}},{"base_weights":[3.1648125E-2,6.644737E-1,2.2464855E-2,9.5376587E-1,1.1324463E-1,-3.1551874E-1,4.2763364E-2,-1.8645607E-1,1.2819518E0,-1.160504E0,4.637091E-1,-1.0771469E0,-1.2194673E-1,-6.9784033E-1,5.2373916E-2,-9.4171965E-1,7.20047E-1,3.532644E-1,1.4037875E0,9.083649E-1,-8.541359E-1,-7.171239E-2,-1.2506579E0,5.905328E-1,-4.139876E-1,6.287135E-1,-1.028407E0,-1.1809295E-1,8.82531E-2],"categories":[],"categories_nodes":[],"categories_segments":[],"categories_sizes":[],"default_left":[1,1,1,1,1,1,1,1,1,0,1,1,1,1,1,0,0,0,0,0,0,0,0,0,0,0,0,0,0],"id":14,"left_children":[1,3,5,7,9,11,13,15,17,-1,19,21,23,25,27,-1,-1,-1,-1,-1,-1,-1,-1,-1,-1,-1,-1,-1,-1],"loss_changes":[9.39109E0,3.5783072E0,1.09658785E1,5.861659E0,4.5964108E0,1.3220647E1,1.0761805E1,3.5749674E0,8.385925E-1,0E0,5.372309E0,3.0898056E0,1.5504487E1,9.142057E0,9.114334E0,0E0,0E0,0E0,0E0,0E0,0E0,0E0,0E0,0E0,0E0,0E0,0E0,0E0,0E0],"parents":[2147483647,0,0,1,1,2,2,3,3,4,4,5,5,6,6,7,7,8,8,10,10,11,11,12,12,13,13,14,14],"right_children":[2,4,6,8,10,12,14,16,18,-1,20,22,24,26,28,-1,-1,-1,-1,-1,-1,-1,-1,-1,-1,-1,-1,-1,-1],"split_conditions":[1.4702478E1,2.0432805E-3,-4.1774386E-3,1.5046969E-3,2.064718E-3,1.0061619E-3,-3.8689384E-3,3.469866E-4,-4.4093076E-3,-5.80252E-2,-1.2843171E-3,-9.159756E-1,1.8353474E-3,-3.8422323E-3,8.104935E-4,-4.708598E-2,3.600235E-2,1.766322E-2,7.018938E-2,4.5418244E-2,-4.2706795E-2,-3.5856196E-3,-6.2532894E-2,2.952664E-2,-2.069938E-2,3.1435676E-2,-5.142035E-2,-5.9046475E-3,4.4126553E-3],"split_indices":[5,6,2,6,6,3,1,4,1,0,2,7,6,2,3,0,0,0,0,0,0,0,0,0,0,0,0,0,0],"split_type":[0,0,0,0,0,0,0,0,0,0,0,0,0,0,0,0,0,0,0,0,0,0,0,0,0,0,0,0,0],"sum_hessian":[1.6175433E3,2.2116594E1,1.5954268E3,1.4025551E1,8.091043E0,8.956509E1,1.5058617E3,3.2311993E0,1.0794352E1,1.2471168E0,6.8439264E0,1.7225414E1,7.233967E1,1.8373331E1,1.4874884E3,1.7414451E0,1.4897542E0,1.7041394E0,9.090212E0,5.3496227E0,1.4943037E0,2.7431483E0,1.4482265E1,2.0733923E1,5.1605747E1,3.4852405E0,1.4888091E1,2.5824414E2,1.2292441E3],"tree_param":{"num_deleted":"0","num_feature":"11","num_nodes":"29","size_leaf_vector":"0"}},{"base_weights":[3.0849658E-2,3.597666E-2,-1.0629379E0,2.6465395E-1,9.395789E-3,-4.9910256E-1,-1.2165121E0,-1.4600517E0,3.0247957E-1,2.0699073E-2,-5.2169526E-1,3.2909606E-2,-8.095228E-1,2.8072398E-2,4.9463987E-1,-1.477478E-3,5.020043E-1,-1.0370809E0,4.0795553E-1],"categories":[],"categories_nodes":[],"categories_segments":[],"categories_sizes":[],"default_left":[1,1,1,1,1,1,0,0,1,1,1,0,0,0,0,0,0,0,0],"id":15,"left_children":[1,3,5,7,9,11,-1,-1,13,15,17,-1,-1,-1,-1,-1,-1,-1,-1],"loss_changes":[9.054595E0,9.730773E0,4.5207977E-2,1.1317421E1,8.628607E0,5.73029E-1,0E0,0E0,8.631748E0,1.5014478E1,1.4775283E1,0E0,0E0,0E0,0E0,0E0,0E0,0E0,0E0],"parents":[2147483647,0,0,1,1,2,2,3,3,4,4,5,5,8,8,9,9,10,10],"right_children":[2,4,6,8,10,12,-1,-1,14,16,18,-1,-1,-1,-1,-1,-1,-1,-1],"split_conditions":[2.5801165E-3,-5.4856334E-3,-1.2940952E-1,1.0542851E-3,2.722599E-3,2.7364586E-3,-6.0825605E-2,-7.3002584E-2,-7.996559E-3,1.6067168E-3,2.0048442E-1,1.6454803E-3,-4.047614E-2,1.4036199E-3,2.4731994E-2,-7.3873896E-5,2.5100216E-2,-5.1854044E-2,2.0397777E-2],"split_indices":[3,4,7,6,6,3,0,0,4,3,10,0,0,0,0,0,0,0,0],"split_type":[0,0,0,0,0,0,0,0,0,0,0,0,0,0,0,0,0,0,0],"sum_hessian":[1.6068096E3,1.6002756E3,6.5339966E0,1.6570927E2,1.4345664E3,2.3084872E0,4.2255096E0,2.749357E0,1.6295992E2,1.4056116E3,2.8954798E1,1.1800493E0,1.1284378E0,6.758863E1,9.537128E1,1.3446525E3,6.095908E1,1.8553457E1,1.04013405E1],"tree_param":{"num_deleted":"0","num_feature":"11","num_nodes":"19","size_leaf_vector":"0"}},{"base_weights":[1.7795999E-2,2.3614546E-2,-9.7248757E-1,1.7910186E-2,1.4674112E0,-1.3802251E0,5.423225E-1,2.3650995E-2,-1.1496623E0,3.360345E-2,-5.081046E-1,-1.4585161E0,1.1401088E-1],"categories":[],"categories_nodes":[],"categories_segments":[],"categories_sizes":[],"default_left":[1,1,1,1,0,0,0,1,1,0,0,0,0],"id":16,"left_children":[1,3,5,7,-1,-1,-1,9,11,-1,-1,-1,-1],"loss_changes":[9.362551E0,1.3253321E1,6.6111116E0,1.0799037E1,0E0,0E0,0E0,8.485673E0,3.2430372E0,0E0,0E0,0E0,0E0],"parents":[2147483647,0,0,1,1,2,2,3,3,7,7,8,8],"right_children":[2,4,6,8,-1,-1,-1,10,12,-1,-1,-1,-1],"split_conditions":[2.5207526E-3,2.4370737E-3,4.34254E-3,2.2876023E-3,7.337056E-2,-6.9011256E-2,2.7116125E-2,8.630116E-3,9.159756E-1,1.6801724E-3,-2.5405232E-2,-7.2925806E-2,5.700544E-3],"split_indices":[3,3,2,3,0,0,0,4,8,0,0,0,0],"split_type":[0,0,0,0,0,0,0,0,0,0,0,0,0],"sum_hessian":[1.6198895E3,1.6113977E3,8.491837E0,1.6060647E3,5.3330665E0,6.760875E0,1.7309613E0,1.5991814E3,6.883231E0,1.5707203E3,2.8461138E1,5.407418E0,1.4758133E0],"tree_param":{"num_deleted":"0","num_feature":"11","num_nodes":"13","size_leaf_vector":"0"}},{"base_weights":[1.2171058E-2,-2.2201343E-2,1.5196578E-1,-1.53076155E-2,-8.9263326E-1,9.507551E-1,1.0746684E-1,-1.3439147E-1,4.0877882E-2,-1.4203938E0,2.955416E-1,-1.7803788E-2,1.0833037E0,-1.9251838E-1,2.0598152E-1,-1.7171696E-1,9.4530207E-1,6.0034037E-2,-9.489745E-1,-1.8529211E-1,-1.6464223E0,9.983785E-1,-6.862014E-1,1.3434888E0,1.9144344E-1,-2.5067687E-1,1.0805304E0,2.9473886E-1,-3.7826857E-1],"categories":[],"categories_nodes":[],"categories_segments":[],"categories_sizes":[],"default_left":[1,1,1,1,1,1,1,1,1,1,1,0,1,1,1,0,0,0,0,0,0,0,0,0,0,0,0,0,0],"id":17,"left_children":[1,3,5,7,9,11,13,15,17,19,21,-1,23,25,27,-1,-1,-1,-1,-1,-1,-1,-1,-1,-1,-1,-1,-1,-1],"loss_changes":[7.7825294E0,7.7888923E0,1.1259195E1,8.644055E0,6.8159E0,2.168254E0,9.02056E0,1.6851439E1,1.6705254E1,1.7147284E0,3.4209003E0,0E0,3.163229E0,5.871379E0,1.1999524E1,0E0,0E0,0E0,0E0,0E0,0E0,0E0,0E0,0E0,0E0,0E0,0E0,0E0,0E0],"parents":[2147483647,0,0,1,1,2,2,3,3,4,4,5,5,6,6,7,7,8,8,9,9,10,10,12,12,13,13,14,14],"right_children":[2,4,6,8,10,12,14,16,18,20,22,-1,24,26,28,-1,-1,-1,-1,-1,-1,-1,-1,-1,-1,-1,-1,-1,-1],"split_conditions":[8.117449E-1,8.6879074E1,1.069112E-3,-1.1278918E-3,1.7235789E-3,4.2693237E1,1.3834685E-3,7.803385E-3,8.633638E-3,1.7026674E-4,6.078576E-1,-8.9018943E-4,6.727575E1,5.2281194E-3,3.2768724E-3,-8.585848E-3,4.7265105E-2,3.0017018E-3,-4.7448725E-2,-9.264606E-3,-8.2321115E-2,4.9918927E-2,-3.431007E-2,6.717444E-2,9.572173E-3,-1.25338435E-2,5.402652E-2,1.4736943E-2,-1.891343E-2],"split_indices":[10,5,6,2,6,5,6,4,4,1,9,0,5,4,2,0,0,0,0,0,0,0,0,0,0,0,0,0,0],"split_type":[0,0,0,0,0,0,0,0,0,0,0,0,0,0,0,0,0,0,0,0,0,0,0,0,0,0,0,0,0],"sum_hessian":[1.6179442E3,1.2993132E3,3.1863095E2,1.2901133E3,9.199972E0,1.5738962E1,3.0289197E2,4.13121E2,8.769923E2,6.235058E0,2.9649146E0,1.9988247E0,1.3740137E1,7.464319E1,2.2824878E2,4.001293E2,1.2991692E1,8.61264E2,1.5728292E1,1.246036E0,4.989022E0,1.7180239E0,1.2468905E0,1.0244955E1,3.495182E0,7.215015E1,2.493048E0,1.9857713E2,2.9671652E1],"tree_param":{"num_deleted":"0","num_feature":"11","num_nodes":"29","size_leaf_vector":"0"}},{"base_weights":[2.2662992E-2,6.3347787E-1,1.4184079E-2,-1.745009E-1,7.818889E-1,-4.421415E-1,2.9472273E-2,-9.07059E-1,7.0362747E-1,9.657992E-1,-9.609505E-2,-1.4837965E-1,-1.0953261E0,5.5443287E-2,-1.8960841E-1,1.3317673E0,3.2496116E-1,-1.2116401E0,7.9195446E-1,-3.386535E-1,6.4557314E-1,2.3361097E-1,-1.2253227E0,6.4864056E-3,1.897596E-1,-9.846064E-2,-7.7884924E-1],"categories":[],"categories_nodes":[],"categories_segments":[],"categories_sizes":[],"default_left":[1,1,1,1,1,1,1,0,0,1,1,1,1,1,1,0,0,0,0,0,0,0,0,0,0,0,0],"id":18,"left_children":[1,3,5,7,9,11,13,-1,-1,15,17,19,21,23,25,-1,-1,-1,-1,-1,-1,-1,-1,-1,-1,-1,-1],"loss_changes":[8.315286E0,2.7724886E0,1.1079788E1,3.3585558E0,3.1210546E0,9.716587E0,8.748992E0,0E0,0E0,3.225051E0,5.0782895E0,5.75838E0,3.018444E0,9.032694E0,8.677511E0,0E0,0E0,0E0,0E0,0E0,0E0,0E0,0E0,0E0,0E0,0E0,0E0],"parents":[2147483647,0,0,1,1,2,2,3,3,4,4,5,5,6,6,9,9,10,10,11,11,12,12,13,13,14,14],"right_children":[2,4,6,8,10,12,14,-1,-1,16,18,20,22,24,26,-1,-1,-1,-1,-1,-1,-1,-1,-1,-1,-1,-1],"split_conditions":[1.4702478E1,1.5046969E-3,-3.8066492E-3,3.469866E-4,1.4404055E-4,-3.8472763E-3,3.277276E-3,-4.535295E-2,3.5181373E-2,6.078576E-1,-6.0077044E-3,6.035534E-1,-5.432424E-3,1.1012871E-3,5.1297536E-3,6.6588365E-2,1.6248059E-2,-6.058201E-2,3.9597724E-2,-1.6932676E-2,3.2278657E-2,1.1680549E-2,-6.1266135E-2,3.2432028E-4,9.48798E-3,-4.923032E-3,-3.8942464E-2],"split_indices":[5,6,1,4,4,2,2,0,0,9,2,7,4,2,4,0,0,0,0,0,0,0,0,0,0,0,0],"split_type":[0,0,0,0,0,0,0,0,0,0,0,0,0,0,0,0,0,0,0,0,0,0,0,0,0,0,0],"sum_hessian":[1.606298E3,2.098303E1,1.585315E3,3.2288334E0,1.7754198E1,5.04857E1,1.5348293E3,1.7423623E0,1.486471E0,1.4596638E1,3.1575606E0,3.567049E1,1.4815207E1,1.3728331E3,1.6199617E2,8.604588E0,5.9920497E0,1.2380146E0,1.9195459E0,2.9237152E1,6.4333377E0,1.2490717E0,1.3566134E1,1.0068831E3,3.6594998E2,1.413052E2,2.069095E1],"tree_param":{"num_deleted":"0","num_feature":"11","num_nodes":"27","size_leaf_vector":"0"}},{"base_weights":[2.304234E-2,6.629184E-1,1.4089742E-2,8.512225E-1,7.584098E-2,-6.616116E-1,2.1343162E-2,-3.2441188E-2,1.0068395E0,9.329863E-1,-8.2763255E-1,8.384711E-1,-1.1126773E0,7.543865E-1,7.890448E-3,5.8668184E-1,-6.3732815E-1,1.3016157E0,5.611483E-1,-1.2241523E0,-1.3285226E-1,1.3406632E0,-2.5985473E-1,-1.0411649E-2,-1.4264857E0,9.187098E-1,-8.0429095E-1,-6.769586E-2,8.367631E-2],"categories":[],"categories_nodes":[],"categories_segments":[],"categories_sizes":[],"default_left":[1,1,1,1,1,1,1,1,1,0,1,1,1,1,1,0,0,0,0,0,0,0,0,0,0,0,0,0,0],"id":19,"left_children":[1,3,5,7,9,11,13,15,17,-1,19,21,23,25,27,-1,-1,-1,-1,-1,-1,-1,-1,-1,-1,-1,-1,-1,-1],"loss_changes":[9.252648E0,2.39927E0,7.834015E0,2.3397026E0,5.813826E0,1.2420021E1,1.5570627E1,1.6774942E0,1.1477957E0,0E0,8.565402E-1,2.8276556E0,4.648506E0,8.026924E0,8.896629E0,0E0,0E0,0E0,0E0,0E0,0E0,0E0,0E0,0E0,0E0,0E0,0E0,0E0,0E0],"parents":[2147483647,0,0,1,1,2,2,3,3,4,4,5,5,6,6,7,7,8,8,10,10,11,11,12,12,13,13,14,14],"right_children":[2,4,6,8,10,12,14,16,18,-1,20,22,24,26,28,-1,-1,-1,-1,-1,-1,-1,-1,-1,-1,-1,-1,-1,-1],"split_conditions":[1.4702478E1,2.0048442E-1,5.5817846E-4,1.5046969E-3,-4.447123E-3,-2.1694186E-1,6.3613546E-4,-6.006644E-4,1.1219964E-3,4.664932E-2,-1.1506975E-3,8.309871E-4,-4.4768356E-4,1.4981059E-3,1.0477228E-3,2.9334093E-2,-3.186641E-2,6.5080784E-2,2.8057415E-2,-6.120762E-2,-6.642613E-3,6.7033164E-2,-1.2992737E-2,-5.205825E-4,-7.132428E-2,4.5935493E-2,-4.021455E-2,-3.3847932E-3,4.1838153E-3],"split_indices":[5,10,3,6,2,9,3,0,3,0,1,1,1,1,3,0,0,0,0,0,0,0,0,0,0,0,0,0,0],"split_type":[0,0,0,0,0,0,0,0,0,0,0,0,0,0,0,0,0,0,0,0,0,0,0,0,0,0,0,0,0],"sum_hessian":[1.615811E3,2.1287195E1,1.5945238E3,1.577686E1,5.510335E0,1.5976744E1,1.5785471E3,2.4808738E0,1.3295986E1,2.810903E0,2.699432E0,3.4949443E0,1.2481799E1,2.7454678E1,1.5510924E3,1.2408831E0,1.2399906E0,6.847001E0,6.4489856E0,1.2335197E0,1.4659122E0,2.2469294E0,1.248015E0,2.9949796E0,9.486819E0,2.5207739E1,2.2469382E0,7.76622E2,7.744704E2],"tree_param":{"num_deleted":"0","num_feature":"11","num_nodes":"29","size_leaf_vector":"0"}},{"base_weights":[3.074137E-2,4.379572E-2,-3.849715E-1,2.622911E-3,2.0336565E-1,6.715394E-1,-5.333188E-1,1.9281504E-1,-5.488493E-2,-4.756651E-1,2.729766E-1,-3.087394E-1,1.0261071E0,-8.560761E-1,-1.0715778E-1,6.156847E-2,4.4817227E-1,-3.405017E-1,-2.191076E-2,1.0511721E-1,-1.1992869E0,5.6228304E-1,1.412664E-1,1.3526783E0,3.5672325E-1,-1.1649153E0,5.156612E-2,5.6976724E-1,-6.072648E-1],"categories":[],"categories_nodes":[],"categories_segments":[],"categories_sizes":[],"default_left":[1,1,1,1,1,1,1,1,1,1,1,0,1,1,1,0,0,0,0,0,0,0,0,0,0,0,0,0,0],"id":20,"left_children":[1,3,5,7,9,11,13,15,17,19,21,-1,23,25,27,-1,-1,-1,-1,-1,-1,-1,-1,-1,-1,-1,-1,-1,-1],"loss_changes":[8.741477E0,1.0246099E1,8.045735E0,1.3581372E1,1.524942E1,2.5697305E0,5.900879E0,9.634177E0,8.972293E0,1.2779055E1,1.09999485E1,0E0,6.0859776E-1,6.96945E0,7.0893784E0,0E0,0E0,0E0,0E0,0E0,0E0,0E0,0E0,0E0,0E0,0E0,0E0,0E0,0E0],"parents":[2147483647,0,0,1,1,2,2,3,3,4,4,5,5,6,6,7,7,8,8,9,9,10,10,12,12,13,13,14,14],"right_children":[2,4,6,8,10,12,14,16,18,20,22,-1,24,26,28,-1,-1,-1,-1,-1,-1,-1,-1,-1,-1,-1,-1,-1,-1],"split_conditions":[8.2044235E1,8.783797E-1,6.944487E-4,-3.303016E-3,-4.6469923E-3,7.438202E-4,1.7620496E-3,1.0719603E-3,-2.2212812E-3,4.359069E1,9.2458574E-4,-1.543697E-2,1.1417998E-3,3.7940952E-1,2.1694186E-1,3.0784234E-3,2.2408614E-2,-1.7025085E-2,-1.095538E-3,5.2558607E-3,-5.9964348E-2,2.8114153E-2,7.0633204E-3,6.763392E-2,1.7836163E-2,-5.8245767E-2,2.578306E-3,2.8488362E-2,-3.0363241E-2],"split_indices":[5,9,2,4,4,3,1,2,4,5,3,0,3,7,9,0,0,0,0,0,0,0,0,0,0,0,0,0,0],"split_type":[0,0,0,0,0,0,0,0,0,0,0,0,0,0,0,0,0,0,0,0,0,0,0,0,0,0,0,0,0],"sum_hessian":[1.6066726E3,1.5586229E3,4.8049732E1,1.2397537E3,3.1886926E2,5.481853E0,4.256788E1,2.8728406E2,9.524696E2,2.9107037E1,2.897622E2,1.4904454E0,3.9914074E0,2.364858E1,1.8919298E1,1.9057492E2,9.670913E1,9.761535E1,8.5485425E2,1.6621376E1,1.248566E1,8.962608E1,2.0013612E2,1.996565E0,1.9948425E0,1.743321E1,6.2153687E0,7.979404E0,1.0939895E1],"tree_param":{"num_deleted":"0","num_feature":"11","num_nodes":"29","size_leaf_vector":"0"}},{"base_weights":[2.2738513E-2,6.1462486E-1,1.4642639E-2,8.87879E-1,1.4415781E-1,1.8990075E-2,-1.1944019E0,1.1706191E0,1.8013321E-1,-5.95104E-1,6.321401E-1,-1.4941881E-2,1.5484321E-1,1.7207278E-1,1.297991E0,1.016782E0,-6.1855197E-1,1.827935E-1,-1.0726568E0,9.6518594E-1,-3.7804094E-1,-4.2157102E-1,-4.7727526E-4,4.7786543E-3,2.986269E-1],"categories":[],"categories_nodes":[],"categories_segments":[],"categories_sizes":[],"default_left":[1,1,1,1,1,1,0,1,1,1,1,1,1,0,0,0,0,0,0,0,0,0,0,0,0],"id":21,"left_children":[1,3,5,7,9,11,-1,13,15,17,19,21,23,-1,-1,-1,-1,-1,-1,-1,-1,-1,-1,-1,-1],"loss_changes":[7.6805115E0,2.6525402E0,8.349002E0,2.4882345E0,3.6736195E0,7.282929E0,0E0,9.7933865E-1,3.9915147E0,1.7375997E0,2.3804598E0,7.4381723E0,6.811091E0,0E0,0E0,0E0,0E0,0E0,0E0,0E0,0E0,0E0,0E0,0E0,0E0],"parents":[2147483647,0,0,1,1,2,2,3,3,4,4,5,5,7,7,8,8,9,9,10,10,11,11,12,12],"right_children":[2,4,6,8,10,12,-1,14,16,18,20,22,24,-1,-1,-1,-1,-1,-1,-1,-1,-1,-1,-1,-1],"split_conditions":[1.4702478E1,1.1079689E-3,2.589511E-3,2.0048442E-1,1.3918802E-3,8.117449E-1,-5.9720095E-2,8.254307E-4,9.466725E0,-5.51498E-4,2.3070646E-3,-3.8106325E-3,6.123234E-17,8.603639E-3,6.489956E-2,5.0839104E-2,-3.0927598E-2,9.139675E-3,-5.3632837E-2,4.82593E-2,-1.8902047E-2,-2.1078551E-2,-2.3863764E-5,2.3893271E-4,1.4931345E-2],"split_indices":[5,3,3,10,3,10,0,3,5,0,4,1,7,0,0,0,0,0,0,0,0,0,0,0,0],"split_type":[0,0,0,0,0,0,0,0,0,0,0,0,0,0,0,0,0,0,0,0,0,0,0,0,0],"sum_hessian":[1.6037104E3,2.0628794E1,1.5830815E3,1.2488221E1,8.140572E0,1.5783904E3,4.6912227E0,8.456065E0,4.0321565E0,3.1496043E0,4.9909673E0,1.2636575E3,3.1473294E2,1.2225667E0,7.233498E0,1.8359103E0,2.196246E0,1.432842E0,1.7167623E0,3.7869818E0,1.2039855E0,4.243996E1,1.2212175E3,1.545084E2,1.6022453E2],"tree_param":{"num_deleted":"0","num_feature":"11","num_nodes":"25","size_leaf_vector":"0"}},{"base_weights":[1.6536511E-2,2.2394261E-1,-7.794329E-3,-1.3197536E0,2.691363E-1,-1.9542964E-1,3.5395194E-2,8.878879E-1,1.6947508E-1,5.1308674E-1,-2.899522E-1,-1.9540846E-1,7.5506546E-2,1.4372417E0,4.585432E-1,-8.631457E-1,2.7656597E-1,1.4220506E0,3.048379E-1,-1.099408E-1,-5.785469E-1,-6.872854E-1,-4.8712038E-2,1.0517176E-1,-4.704697E-1],"categories":[],"categories_nodes":[],"categories_segments":[],"categories_sizes":[],"default_left":[1,1,1,0,1,1,1,1,1,1,1,1,1,0,0,0,0,0,0,0,0,0,0,0,0],"id":22,"left_children":[1,3,5,-1,7,9,11,13,15,17,19,21,23,-1,-1,-1,-1,-1,-1,-1,-1,-1,-1,-1,-1],"loss_changes":[8.13766E0,1.2166979E1,1.1708316E1,0E0,1.0044214E1,1.825268E1,1.0889021E1,4.6946297E0,1.6121273E1,5.6578827E0,1.2360081E1,1.2535374E1,1.626884E1,0E0,0E0,0E0,0E0,0E0,0E0,0E0,0E0,0E0,0E0,0E0,0E0],"parents":[2147483647,0,0,1,1,2,2,4,4,5,5,6,6,7,7,8,8,9,9,10,10,11,11,12,12],"right_children":[2,4,6,-1,8,10,12,14,16,18,20,22,24,-1,-1,-1,-1,-1,-1,-1,-1,-1,-1,-1,-1],"split_conditions":[-5.4856334E-3,1.0542851E-3,-2.1694186E-1,-6.5987684E-2,1.3504064E-3,7.532111E-4,7.932269E-4,3.7940952E-1,9.5472875E-4,-3.6872487E-4,1.8166864E-3,-1.6578699E-3,4.551457E-3,7.186209E-2,2.2927161E-2,-4.3157287E-2,1.3828299E-2,7.110253E-2,1.5241896E-2,-5.4970398E-3,-2.8927345E-2,-3.4364272E-2,-2.435602E-3,5.258588E-3,-2.3523485E-2],"split_indices":[4,6,9,0,6,3,3,7,3,4,4,4,2,0,0,0,0,0,0,0,0,0,0,0,0],"split_type":[0,0,0,0,0,0,0,0,0,0,0,0,0,0,0,0,0,0,0,0,0,0,0,0,0],"sum_hessian":[1.6112328E3,1.6830739E2,1.4429254E3,3.9850907E0,1.643223E2,2.6932553E2,1.1735999E3,2.1698292E1,1.42624E2,3.1180021E1,2.3814551E2,1.7318857E2,1.0004113E3,8.488978E0,1.3209314E1,1.2738026E1,1.2988597E2,4.7255106E0,2.6454512E1,1.4751424E2,9.063127E1,3.893923E1,1.3424934E2,9.496217E2,5.0789616E1],"tree_param":{"num_deleted":"0","num_feature":"11","num_nodes":"25","size_leaf_vector":"0"}},{"base_weights":[1.5249761E-2,2.0213151E-2,-1.1252296E0,-4.8524467E-4,2.8816566E-1,-1.2265215E0,-2.994189E-1,9.3123585E-1,-5.8364524E-3,6.399874E-2,6.995352E-1,8.538484E-2,1.0586663E0,-4.477988E-1,6.7434907E-3,9.820287E-1,-6.87227E-2,1.1564862E0,2.506993E-1],"categories":[],"categories_nodes":[],"categories_segments":[],"categories_sizes":[],"default_left":[1,1,1,1,1,0,0,1,1,1,1,0,0,0,0,0,0,0,0],"id":23,"left_children":[1,3,5,7,9,-1,-1,11,13,15,17,-1,-1,-1,-1,-1,-1,-1,-1],"loss_changes":[9.138374E0,8.898199E0,2.179203E-1,7.4358745E0,1.0564236E1,0E0,0E0,8.276005E-1,8.247147E0,9.274803E0,8.01202E0,0E0,0E0,0E0,0E0,0E0,0E0,0E0,0E0],"parents":[2147483647,0,0,1,1,2,2,3,3,4,4,7,7,8,8,9,9,10,10],"right_children":[2,4,6,8,10,-1,-1,12,14,16,18,-1,-1,-1,-1,-1,-1,-1,-1],"split_conditions":[2.572182E-3,1.5910199E-3,7.295897E-4,1.0706917E1,6.078576E-1,-6.1326075E-2,-1.4970945E-2,1.528948E-3,-3.801835E-3,2.0714418E-3,1.7670684E-3,4.269242E-3,5.2933317E-2,-2.2389939E-2,3.3717454E-4,4.910144E-2,-3.4361351E-3,5.782431E-2,1.2534966E-2],"split_indices":[3,3,0,5,9,0,0,6,1,6,3,0,0,0,0,0,0,0,0],"split_type":[0,0,0,0,0,0,0,0,0,0,0,0,0,0,0,0,0,0,0],"sum_hessian":[1.6093519E3,1.6033563E3,5.995565E0,1.4893105E3,1.1404585E2,4.908293E0,1.0872723E0,7.5167365E0,1.4817937E3,7.456749E1,3.9478363E1,1.2028141E0,6.3139224E0,4.005274E1,1.441741E3,8.610407E0,6.5957085E1,1.878108E1,2.0697283E1],"tree_param":{"num_deleted":"0","num_feature":"11","num_nodes":"19","size_leaf_vector":"0"}},{"base_weights":[3.7082161E-3,-6.1686266E-2,7.580741E-2,-1.0222273E-1,3.490068E-1,2.166731E-1,-7.1113475E-2,-4.4175707E-2,-3.432239E-1,-4.3347365E-1,5.809128E-1,5.459593E-1,1.0197245E-1,-4.472018E-1,-1.666032E-2,-7.6857574E-2,4.7957146E-1,-2.2661458E-1,-1.0020254E0,-1.0160837E0,3.182808E-1,1.2032207E0,3.842848E-1,-1.2195057E0,5.8485264E-1,-2.627593E-1,2.894367E-1,-9.193745E-2,-1.1943698E0,7.066461E-1,-5.577005E-2],"categories":[],"categories_nodes":[],"categories_segments":[],"categories_sizes":[],"default_left":[1,1,1,1,1,1,1,1,1,1,1,1,1,1,1,0,0,0,0,0,0,0,0,0,0,0,0,0,0,0,0],"id":24,"left_children":[1,3,5,7,9,11,13,15,17,19,21,23,25,27,29,-1,-1,-1,-1,-1,-1,-1,-1,-1,-1,-1,-1,-1,-1,-1,-1],"loss_changes":[7.5985255E0,1.4105377E1,1.5878651E1,1.0756358E1,1.4069942E1,1.4733017E1,7.69132E0,1.0677969E1,1.1243233E1,8.198985E0,6.777523E0,7.6432285E0,2.0015852E1,1.250071E1,9.3582535E0,0E0,0E0,0E0,0E0,0E0,0E0,0E0,0E0,0E0,0E0,0E0,0E0,0E0,0E0,0E0,0E0],"parents":[2147483647,0,0,1,1,2,2,3,3,4,4,5,5,6,6,7,7,8,8,9,9,10,10,11,11,12,12,13,13,14,14],"right_children":[2,4,6,8,10,12,14,16,18,20,22,24,26,28,30,-1,-1,-1,-1,-1,-1,-1,-1,-1,-1,-1,-1,-1,-1,-1,-1],"split_conditions":[1.055015E-3,1.8073071E-3,1.8398694E-3,1.5918529E-3,2.7811497E1,3.9781174E1,1.1547499E-3,1.5511443E-3,2.6327525E-3,-3.7940952E-1,9.318531E-4,9.513999E-4,6.123234E-17,1.1279099E-3,1.1827304E-3,-3.8428789E-3,2.3978574E-2,-1.1330729E-2,-5.010127E-2,-5.0804187E-2,1.591404E-2,6.0161036E-2,1.921424E-2,-6.0975283E-2,2.9242633E-2,-1.3137965E-2,1.4471835E-2,-4.5968727E-3,-5.971849E-2,3.5332303E-2,-2.7885025E-3],"split_indices":[3,6,6,6,5,5,3,6,2,8,3,6,7,3,3,0,0,0,0,0,0,0,0,0,0,0,0,0,0,0,0],"split_type":[0,0,0,0,0,0,0,0,0,0,0,0,0,0,0,0,0,0,0,0,0,0,0,0,0,0,0,0,0,0,0],"sum_hessian":[1.6096102E3,8.4412616E2,7.654841E2,7.6897723E2,7.514894E1,3.9055273E2,3.749313E2,6.2066785E2,1.4830942E2,1.6981619E1,5.8167324E1,9.9925026E1,2.9062772E2,4.6507587E1,3.284237E2,5.8501605E2,3.5651794E1,1.2714793E2,2.1161488E1,9.369013E0,7.612607E0,1.2736935E1,4.543039E1,1.4995936E0,9.842543E1,9.852844E1,1.9209929E2,3.2281425E1,1.4226161E1,1.5971629E1,3.124521E2],"tree_param":{"num_deleted":"0","num_feature":"11","num_nodes":"31","size_leaf_vector":"0"}},{"base_weights":[4.8573744E-3,6.2839085E-1,-3.4891986E-3,9.0199465E-1,6.888397E-2,-8.774267E-1,2.4084663E-3,1.2086217E0,3.1239346E-1,8.813505E-1,-4.5450243E-1,-1.3068208E0,-2.728816E-1,6.814087E-3,-1.0550297E0,3.783115E-1,1.2812197E0,-6.6874146E-1,1.0047613E0,3.9887756E-1,-7.681938E-1,-1.9035085E-1,-1.5593994E0,-9.6197826E-1,3.4982395E-1,-6.988381E-2,6.0255747E-2,-1.1526488E0,-2.8821132E-1],"categories":[],"categories_nodes":[],"categories_segments":[],"categories_sizes":[],"default_left":[1,1,1,1,1,1,1,1,1,0,1,1,1,1,1,0,0,0,0,0,0,0,0,0,0,0,0,0,0],"id":25,"left_children":[1,3,5,7,9,11,13,15,17,-1,19,21,23,25,27,-1,-1,-1,-1,-1,-1,-1,-1,-1,-1,-1,-1,-1,-1],"loss_changes":[8.408981E0,3.2050657E0,8.223001E0,2.1987982E0,3.8415127E0,2.4194794E0,7.392566E0,5.9412003E-2,4.9000564E0,0E0,1.8005029E0,1.3920374E0,2.7846558E0,6.4792366E0,1.60635E-1,0E0,0E0,0E0,0E0,0E0,0E0,0E0,0E0,0E0,0E0,0E0,0E0,0E0,0E0],"parents":[2147483647,0,0,1,1,2,2,3,3,4,4,5,5,6,6,7,7,8,8,10,10,11,11,12,12,13,13,14,14],"right_children":[2,4,6,8,10,12,14,16,18,-1,20,22,24,26,28,-1,-1,-1,-1,-1,-1,-1,-1,-1,-1,-1,-1,-1,-1],"split_conditions":[1.4702478E1,-9.970603E-5,1.633876E1,-6.481884E-4,-4.28332E-3,1.0125518E-3,2.5801165E-3,9.608091E-4,-5.3012697E-3,4.4067528E-2,1.0091616E1,-5.6174487E-1,-1.5508744E-3,9.801392E-4,6.035534E-1,1.8915577E-2,6.4060986E-2,-3.3437073E-2,5.023807E-2,1.9943878E-2,-3.840969E-2,-9.517542E-3,-7.796997E-2,-4.8098914E-2,1.7491197E-2,-3.4941905E-3,3.0127873E-3,-5.7632443E-2,-1.4410566E-2],"split_indices":[5,0,5,4,2,3,3,3,2,0,5,10,0,3,8,0,0,0,0,0,0,0,0,0,0,0,0,0,0],"split_type":[0,0,0,0,0,0,0,0,0,0,0,0,0,0,0,0,0,0,0,0,0,0,0,0,0,0,0,0,0],"sum_hessian":[1.6143334E3,2.0342638E1,1.5939908E3,1.3250771E1,7.091867E0,9.694197E0,1.5842966E3,8.026582E0,5.224189E0,2.5106225E0,4.5812445E0,4.988981E0,4.7052155E0,1.5787128E3,5.583858E0,1.1447719E0,6.88181E0,2.1754892E0,3.0486996E0,1.1583787E0,3.4228659E0,1.2439584E0,3.7450228E0,1.9749099E0,2.7303057E0,6.481702E2,9.3054254E2,4.506949E0,1.0769094E0],"tree_param":{"num_deleted":"0","num_feature":"11","num_nodes":"29","size_leaf_vector":"0"}},{"base_weights":[1.2771158E-2,2.285653E-2,-3.354801E-1,9.7567085E-3,2.9886988E-1,1.3113968E-1,-1.0481495E0,2.7971536E-2,-2.94269E-1,4.904753E-1,-4.419619E-2,5.911087E-1,-9.2884547E-1,-1.2906919E0,3.6353543E-1,-1.0409001E0,3.635034E-2,-2.041738E-1,-1.1621076E0,7.814321E-2,1.0569712E0,5.6910974E-1,-6.3441384E-1,-2.4379283E-1,1.2952738E0,-1.224334E0,3.267797E-1,-1.4781351E0,3.059402E-1,7.259059E-1,-1.5394767E-1],"categories":[],"categories_nodes":[],"categories_segments":[],"categories_sizes":[],"default_left":[1,1,1,1,1,1,1,1,1,1,1,1,1,1,1,0,0,0,0,0,0,0,0,0,0,0,0,0,0,0,0],"id":26,"left_children":[1,3,5,7,9,11,13,15,17,19,21,23,25,27,29,-1,-1,-1,-1,-1,-1,-1,-1,-1,-1,-1,-1,-1,-1,-1,-1],"loss_changes":[5.6442375E0,5.639796E0,1.5179092E1,8.264641E0,4.6675587E0,1.4309624E1,6.635191E0,1.26437845E1,6.358845E0,1.052967E1,9.861495E0,1.2246486E1,3.7132668E0,5.117317E0,7.53191E-1,0E0,0E0,0E0,0E0,0E0,0E0,0E0,0E0,0E0,0E0,0E0,0E0,0E0,0E0,0E0,0E0],"parents":[2147483647,0,0,1,1,2,2,3,3,4,4,5,5,6,6,7,7,8,8,9,9,10,10,11,11,12,12,13,13,14,14],"right_children":[2,4,6,8,10,12,14,16,18,20,22,24,26,28,30,-1,-1,-1,-1,-1,-1,-1,-1,-1,-1,-1,-1,-1,-1,-1,-1],"split_conditions":[2.6635053E-3,2.3195692E-3,-1.7498771E-3,2.137185E-3,5.770971E1,1.2940952E-1,7.865661E-1,-1.0646302E-2,5.0334153E-3,3.9152493E1,-1.2940952E-1,2.946141E-3,-2.7918015E-3,8.117449E-1,-2.9954978E-3,-5.2045006E-2,1.817517E-3,-1.0208691E-2,-5.810538E-2,3.9071604E-3,5.284856E-2,2.8455487E-2,-3.1720694E-2,-1.2189642E-2,6.476369E-2,-6.12167E-2,1.6338985E-2,-7.390676E-2,1.5297011E-2,3.6295295E-2,-7.6973834E-3],"split_indices":[6,6,4,6,5,7,7,4,4,5,8,6,4,10,1,0,0,0,0,0,0,0,0,0,0,0,0,0,0,0,0],"split_type":[0,0,0,0,0,0,0,0,0,0,0,0,0,0,0,0,0,0,0,0,0,0,0,0,0,0,0,0,0,0,0],"sum_hessian":[1.6038347E3,1.5596029E3,4.42318E1,1.4899252E3,6.967773E1,2.722333E1,1.7008469E1,1.406563E3,8.336218E1,4.4432247E1,2.5245481E1,1.9293478E1,7.929852E0,1.4587833E1,2.4206352E0,9.981705E0,1.3965813E3,7.664093E1,6.7212586E0,2.6373709E1,1.8058537E1,1.2398126E1,1.2847357E1,9.126419E0,1.016706E1,6.439381E0,1.4904705E0,1.3121587E1,1.4662464E0,1.1868055E0,1.2338297E0],"tree_param":{"num_deleted":"0","num_feature":"11","num_nodes":"31","size_leaf_vector":"0"}},{"base_weights":[9.3489E-3,3.7363328E-2,-1.4512178E-1,-8.245828E-2,1.1074803E-1,-6.504106E-1,-6.0411647E-2,7.0918256E-1,-1.2288585E-1,7.890859E-2,5.183089E-1,-1.1984217E0,-6.08666E-2,1.3428794E-1,-3.0078536E-1,3.676175E-1,1.3816632E0,-4.017729E-1,-4.17145E-2,1.180836E-1,-2.2510044E-1,1.5205337E-1,7.945608E-1,-3.8441163E-1,-1.378794E0,8.2126373E-1,-5.074433E-1,-2.4866842E-1,4.8160136E-1,-3.843923E-1,1.2275665E0],"categories":[],"categories_nodes":[],"categories_segments":[],"categories_sizes":[],"default_left":[1,1,1,1,1,1,1,1,1,1,1,1,1,1,1,0,0,0,0,0,0,0,0,0,0,0,0,0,0,0,0],"id":27,"left_children":[1,3,5,7,9,11,13,15,17,19,21,23,25,27,29,-1,-1,-1,-1,-1,-1,-1,-1,-1,-1,-1,-1,-1,-1,-1,-1],"loss_changes":[6.9879704E0,1.2026192E1,1.0572146E1,1.6718473E1,1.0963031E1,1.1393741E1,1.00286255E1,5.325531E0,1.1194885E1,9.407999E0,6.0780697E0,2.162815E0,7.5673895E0,1.5894818E1,1.2715389E1,0E0,0E0,0E0,0E0,0E0,0E0,0E0,0E0,0E0,0E0,0E0,0E0,0E0,0E0,0E0,0E0],"parents":[2147483647,0,0,1,1,2,2,3,3,4,4,5,5,6,6,7,7,8,8,9,9,10,10,11,11,12,12,13,13,14,14],"right_children":[2,4,6,8,10,12,14,16,18,20,22,24,26,28,30,-1,-1,-1,-1,-1,-1,-1,-1,-1,-1,-1,-1,-1,-1,-1,-1],"split_conditions":[6.96328E1,-5.6174487E-1,-9.159756E-1,6.57327E-4,1.5910199E-3,1.7490631E-3,2.2589639E-3,5.722106E1,8.7110326E-4,2.0307573E-3,3.9091575E-1,1.3674089E-3,9.950796E-5,6.123234E-17,7.331414E-3,1.8380875E-2,6.908316E-2,-2.0088645E-2,-2.085725E-3,5.9041805E-3,-1.1255022E-2,7.602669E-3,3.972804E-2,-1.9220581E-2,-6.89397E-2,4.1063186E-2,-2.5372166E-2,-1.2433421E-2,2.4080068E-2,-1.9219615E-2,6.1378326E-2],"split_indices":[5,10,7,3,3,6,2,5,3,6,9,6,0,7,2,0,0,0,0,0,0,0,0,0,0,0,0,0,0,0,0],"split_type":[0,0,0,0,0,0,0,0,0,0,0,0,0,0,0,0,0,0,0,0,0,0,0,0,0,0,0,0,0,0,0],"sum_hessian":[1.6125636E3,1.3656506E3,2.4691295E2,5.186621E2,8.469885E2,3.449215E1,2.1242079E2,2.4396421E1,4.942657E2,7.867219E2,6.026662E1,1.7340488E1,1.715166E1,1.1760423E2,9.481657E1,1.7204569E1,7.191853E0,1.1053655E2,3.8372913E2,6.974581E2,8.926381E1,2.6578798E1,3.368782E1,3.713387E0,1.3627101E1,5.4826574E0,1.16690035E1,5.606719E1,6.1537045E1,9.060841E1,4.2081504E0],"tree_param":{"num_deleted":"0","num_feature":"11","num_nodes":"31","size_leaf_vector":"0"}},{"base_weights":[1.8252721E-2,5.409029E-1,1.11736385E-2,8.1344354E-1,6.9605233E-3,-7.645481E-1,1.6742863E-2,-2.2546079E-2,9.258964E-1,8.540145E-1,-4.9855298E-1,-9.11584E-1,2.5705785E-1,2.4914213E-2,-4.2107776E-1,1.0966135E0,3.6693835E-1,-9.9871093E-1,2.5102872E-1,-2.9569767E-2,-1.1895326E0,-3.6475018E-1,3.6783412E-2,-8.99204E-1,2.2475457E-1],"categories":[],"categories_nodes":[],"categories_segments":[],"categories_sizes":[],"default_left":[1,1,1,1,1,1,1,0,1,0,1,1,0,1,1,0,0,0,0,0,0,0,0,0,0],"id":28,"left_children":[1,3,5,7,9,11,13,-1,15,-1,17,19,-1,21,23,-1,-1,-1,-1,-1,-1,-1,-1,-1,-1],"loss_changes":[5.9858465E0,3.1406431E0,6.9201455E0,1.365756E0,3.9863014E0,1.9495296E0,5.693275E0,0E0,8.031378E-1,0E0,2.4397354E0,2.4658422E0,0E0,7.2297297E0,9.206051E0,0E0,0E0,0E0,0E0,0E0,0E0,0E0,0E0,0E0,0E0],"parents":[2147483647,0,0,1,1,2,2,3,3,4,4,5,5,6,6,8,8,10,10,11,11,13,13,14,14],"right_children":[2,4,6,8,10,12,14,-1,16,-1,18,20,-1,22,24,-1,-1,-1,-1,-1,-1,-1,-1,-1,-1],"split_conditions":[1.4702478E1,-9.970603E-5,1.633876E1,-2.9814532E-3,-4.28332E-3,2.5158399E-3,8.633638E-3,-1.1273039E-3,7.865661E-1,4.2700727E-2,2.4190059E-4,-3.7940952E-1,1.2852892E-2,-3.8066492E-3,1.6852665E-3,5.4830678E-2,1.8346919E-2,-4.9935546E-2,1.2551436E-2,-1.4784884E-3,-5.9476633E-2,-1.8237509E-2,1.8391706E-3,-4.49602E-2,1.1237728E-2],"split_indices":[5,0,5,0,2,6,4,0,7,0,0,7,0,1,6,0,0,0,0,0,0,0,0,0,0],"split_type":[0,0,0,0,0,0,0,0,0,0,0,0,0,0,0,0,0,0,0,0,0,0,0,0,0],"sum_hessian":[1.6184808E3,2.0620977E1,1.5978599E3,1.3305813E1,7.3151646E0,1.0418476E1,1.5874414E3,1.6724087E0,1.1633405E1,2.4763374E0,4.838827E0,9.201793E0,1.216684E0,1.5592825E3,2.815887E1,8.174774E0,3.45863E0,2.7029366E0,2.1358905E0,2.4700305E0,6.731762E0,4.521304E1,1.5140695E3,1.59548025E1,1.2204068E1],"tree_param":{"num_deleted":"0","num_feature":"11","num_nodes":"25","size_leaf_vector":"0"}},{"base_weights":[1.17077455E-2,8.489904E-3,1.2340131E0,1.3449818E-2,-8.7296337E-1,8.1549445E-3,1.2422457E0,3.193578E-2,-1.3032748E0,1.2903444E-2,-1.0562904E0,3.5331625E-1,1.3549204E0,-8.0689085E-1,7.3176414E-1],"categories":[],"categories_nodes":[],"categories_segments":[],"categories_sizes":[],"default_left":[1,1,0,1,1,1,1,1,0,0,0,0,0,0,0],"id":29,"left_children":[1,3,-1,5,7,9,11,13,-1,-1,-1,-1,-1,-1,-1],"loss_changes":[6.3257046E0,7.0406346E0,0E0,1.0398159E1,3.5504842E0,8.0698395E0,2.080822E-1,2.868274E0,0E0,0E0,0E0,0E0,0E0,0E0,0E0],"parents":[2147483647,0,0,1,1,3,3,4,4,5,5,6,6,7,7],"right_children":[2,4,-1,6,8,10,12,14,-1,-1,-1,-1,-1,-1,-1],"split_conditions":[7.2646737E-3,2.5207526E-3,6.1700653E-2,2.4370737E-3,6.123234E-17,2.2876023E-3,2.0979722E-3,-6.035534E-1,-6.516374E-2,6.451722E-4,-5.281452E-2,1.7665813E-2,6.774602E-2,-4.0344544E-2,3.6588207E-2],"split_indices":[1,3,0,3,7,3,6,8,0,0,0,0,0,0,0],"split_type":[0,0,0,0,0,0,0,0,0,0,0,0,0,0,0],"sum_hessian":[1.6099545E3,1.6067316E3,3.2229357E0,1.5987203E3,8.011215E0,1.5928634E3,5.8570013E0,2.8802142E0,5.131001E0,1.5867726E3,6.0907273E0,1.124124E0,4.7328773E0,1.2404296E0,1.6397846E0],"tree_param":{"num_deleted":"0","num_feature":"11","num_nodes":"15","size_leaf_vector":"0"}},{"base_weights":[2.0255199E-2,-6.614082E-2,7.8211345E-2,-1.3727619E-1,1.9762059E-1,1.1142524E-1,-2.5044018E-1,-1.7765066E-1,4.208456E-1,-1.412277E-2,5.687901E-1,1.2135383E-1,-1.1099596E0,-3.537544E-1,7.6720136E-1,-1.0073858E-1,-6.525665E-1,-3.6496028E-1,8.138828E-1,4.7814664E-1,-1.5730788E-1,7.58257E-1,-9.062871E-2,1.427013E-1,-3.3431447E-1,-3.2609338E-1,-1.1956757E0,2.464114E-1,-4.800973E-1,1.0444307E0,-1.8956941E-1],"categories":[],"categories_nodes":[],"categories_segments":[],"categories_sizes":[],"default_left":[1,1,1,1,1,1,1,1,1,1,1,1,1,1,1,0,0,0,0,0,0,0,0,0,0,0,0,0,0,0,0],"id":30,"left_children":[1,3,5,7,9,11,13,15,17,19,21,23,25,27,29,-1,-1,-1,-1,-1,-1,-1,-1,-1,-1,-1,-1,-1,-1,-1,-1],"loss_changes":[7.989115E0,1.204879E1,1.0450087E1,1.1459201E1,1.0736322E1,1.06586275E1,9.517408E0,1.7168898E1,1.0914875E1,6.2705693E0,6.266857E0,8.430177E0,8.689785E-2,6.2239923E0,2.4315982E0,0E0,0E0,0E0,0E0,0E0,0E0,0E0,0E0,0E0,0E0,0E0,0E0,0E0,0E0,0E0,0E0],"parents":[2147483647,0,0,1,1,2,2,3,3,4,4,5,5,6,6,7,7,8,8,9,9,10,10,11,11,12,12,13,13,14,14],"right_children":[2,4,6,8,10,12,14,16,18,20,22,24,26,28,30,-1,-1,-1,-1,-1,-1,-1,-1,-1,-1,-1,-1,-1,-1,-1,-1],"split_conditions":[9.779306E-4,8.783797E-1,3.801466E-3,1.8020294E-3,6.224712E-4,2.5263308E-3,7.922992E-3,9.396585E-4,-1.5671453E-3,3.343193E1,9.24628E-4,2.667366E-3,2.373354E1,-9.159756E-1,2.0048442E-1,-5.036929E-3,-3.2628324E-2,-1.8248014E-2,4.0694144E-2,2.3907332E-2,-7.865394E-3,3.791285E-2,-4.5314357E-3,7.135065E-3,-1.6715724E-2,-1.630467E-2,-5.9783787E-2,1.232057E-2,-2.4004865E-2,5.2221537E-2,-9.478471E-3],"split_indices":[3,9,2,6,1,3,2,3,2,5,3,6,5,8,10,0,0,0,0,0,0,0,0,0,0,0,0,0,0,0,0],"split_type":[0,0,0,0,0,0,0,0,0,0,0,0,0,0,0,0,0,0,0,0,0,0,0,0,0,0,0,0,0,0,0],"sum_hessian":[1.5934988E3,6.3971924E2,9.5377954E2,5.042143E2,1.3550496E2,8.66837E2,8.694259E1,4.7083575E2,3.3378517E1,8.689524E1,4.8609715E1,8.6074066E2,6.09628E0,7.952167E1,7.4209175E0,4.062553E2,6.458047E1,1.1152525E1,2.222599E1,1.905273E1,6.7842514E1,3.764385E1,1.0965867E1,8.228768E2,3.786389E1,1.074492E0,5.0217876E0,1.3663881E1,6.585779E1,5.6827035E0,1.738214E0],"tree_param":{"num_deleted":"0","num_feature":"11","num_nodes":"31","size_leaf_vector":"0"}},{"base_weights":[1.9919412E-2,6.1194295E-1,1.2246308E-2,7.2384226E-1,-5.0723946E-1,1.6466957E-2,-1.1213316E0,-4.3294883E-1,8.437184E-1,-1.8196627E-3,2.6268962E-1,1.6615069E-1,1.0274557E0,-8.289724E-1,3.7555418E-3,4.355614E-1,-2.990568E-1],"categories":[],"categories_nodes":[],"categories_segments":[],"categories_sizes":[],"default_left":[1,1,1,1,0,1,0,0,1,1,1,0,0,0,0,0,0],"id":31,"left_children":[1,3,5,7,-1,9,-1,-1,11,13,15,-1,-1,-1,-1,-1,-1],"loss_changes":[7.3500557E0,2.9599237E0,7.67334E0,3.0323973E0,0E0,7.1821146E0,0E0,0E0,2.041111E0,6.854619E0,1.0839186E1,0E0,0E0,0E0,0E0,0E0,0E0],"parents":[2147483647,0,0,1,1,2,2,3,3,5,5,8,8,9,9,10,10],"right_children":[2,4,6,8,-1,10,-1,-1,12,14,16,-1,-1,-1,-1,-1,-1],"split_conditions":[1.4702478E1,2.5379877E-3,2.5801165E-3,1.4504327E-3,-2.5361974E-2,1.5910199E-3,-5.606658E-2,-2.1647442E-2,-1.6357808E-3,1.633876E1,2.8407797E-3,8.307534E-3,5.1372785E-2,-4.144862E-2,1.8777708E-4,2.177807E-2,-1.495284E-2],"split_indices":[5,4,3,6,0,3,0,0,0,5,6,0,0,0,0,0,0],"split_type":[0,0,0,0,0,0,0,0,0,0,0,0,0,0,0,0,0],"sum_hessian":[1.6186573E3,1.9703056E1,1.5989543E3,1.8233276E1,1.4697789E0,1.5940048E3,4.949481E0,1.4668366E0,1.676644E1,1.4847286E3,1.09276146E2,3.9829185E0,1.2783522E1,8.951626E0,1.4757771E3,8.373285E1,2.5543303E1],"tree_param":{"num_deleted":"0","num_feature":"11","num_nodes":"17","size_leaf_vector":"0"}},{"base_weights":[1.0509105E-2,-6.3111025E-1,1.70535E-2,1.2446019E-1,-1.0853997E0,4.7283846E-1,4.707405E-3,7.4407667E-1,-5.264814E-1,-1.3321387E0,-4.515568E-2,9.8332065E-1,-1.24370165E-1,-1.864941E-1,3.1955972E-2,1.2218502E0,-1.7252147E-1,1.6695988E-1,-8.9961445E-1,-4.328412E-1,-1.5972998E0,-5.347182E-1,1.3121808E0,-5.9553397E-1,3.9479935E-1,-2.3650412E-1,1.0040114E0,7.722012E-2,-1.255143E-1],"categories":[],"categories_nodes":[],"categories_segments":[],"categories_sizes":[],"default_left":[1,1,1,1,1,1,1,1,1,1,0,1,1,1,1,0,0,0,0,0,0,0,0,0,0,0,0,0,0],"id":32,"left_children":[1,3,5,7,9,11,13,15,17,19,-1,21,23,25,27,-1,-1,-1,-1,-1,-1,-1,-1,-1,-1,-1,-1,-1,-1],"loss_changes":[6.731374E0,5.691069E0,8.91872E0,3.204993E0,2.5608234E0,1.2865706E1,8.052939E0,1.9571784E0,1.1818558E0,1.2684412E0,0E0,1.2008427E1,5.164448E0,1.1716546E1,9.651627E0,0E0,0E0,0E0,0E0,0E0,0E0,0E0,0E0,0E0,0E0,0E0,0E0,0E0,0E0],"parents":[2147483647,0,0,1,1,2,2,3,3,4,4,5,5,6,6,7,7,8,8,9,9,11,11,12,12,13,13,14,14],"right_children":[2,4,6,8,10,12,14,16,18,20,-1,22,24,26,28,-1,-1,-1,-1,-1,-1,-1,-1,-1,-1,-1,-1,-1,-1],"split_conditions":[5.5817846E-4,5.2708336E1,6.5340986E-4,2.7916683E-3,3.7940952E-1,2.5161478E-4,8.04667E-4,5.2540645E-4,-2.179277E-4,2.9659312E-4,-2.2577841E-3,-1.2150875E-3,1.7201537E-4,3.8910024E-3,3.1570988E-3,6.1092507E-2,-8.626074E-3,8.347995E-3,-4.4980723E-2,-2.1642061E-2,-7.986499E-2,-2.6735911E-2,6.560904E-2,-2.9776698E-2,1.9739969E-2,-1.1825207E-2,5.020057E-2,3.8610061E-3,-6.275715E-3],"split_indices":[3,5,3,4,7,2,3,3,0,4,0,4,0,2,4,0,0,0,0,0,0,0,0,0,0,0,0,0,0],"split_type":[0,0,0,0,0,0,0,0,0,0,0,0,0,0,0,0,0,0,0,0,0,0,0,0,0,0,0,0,0],"sum_hessian":[1.5995223E3,1.5186504E1,1.5843358E3,5.9749875E0,9.211516E0,4.0800262E1,1.5435356E3,2.9878469E0,2.9871407E0,7.2186894E0,1.9928273E0,2.1648783E1,1.915148E1,1.9180534E2,1.3517302E3,1.745161E0,1.2426859E0,1.2383329E0,1.7488079E0,2.2432044E0,4.975485E0,3.7433352E0,1.7905447E1,9.962808E0,9.188672E0,1.8484196E2,6.9633884E0,1.0503278E3,3.0140253E2],"tree_param":{"num_deleted":"0","num_feature":"11","num_nodes":"29","size_leaf_vector":"0"}},{"base_weights":[1.5739722E-2,4.4064388E-2,-1.3966903E-1,-5.7826005E-2,1.0690398E-1,1.5687656E-1,-3.2660347E-1,2.6293004E-1,-1.1166045E-1,-1.22577295E-1,1.5311009E-1,9.7138983E-1,-4.1487563E-2,1.3070782E0,-3.5978118E-1,-1.6653302E-1,6.27927E-1,-5.968091E-2,-5.0673294E-1,-3.0693233E-1,3.4053537E-1,-3.0804282E-1,1.747919E-1,-2.3329908E-1,1.2128038E0,7.660903E-1,-1.7655848E-1,-8.791893E-1,-2.4801481E-1],"categories":[],"categories_nodes":[],"categories_segments":[],"categories_sizes":[],"default_left":[1,1,1,1,1,1,1,1,1,1,1,1,1,0,1,0,0,0,0,0,0,0,0,0,0,0,0,0,0],"id":33,"left_children":[1,3,5,7,9,11,13,15,17,19,21,23,25,-1,27,-1,-1,-1,-1,-1,-1,-1,-1,-1,-1,-1,-1,-1,-1],"loss_changes":[7.059253E0,8.688529E0,1.3757486E1,8.972928E0,8.916093E0,1.5595227E1,8.707712E0,1.1819242E1,9.091753E0,1.2159006E1,7.0419617E0,5.778263E0,8.684766E0,0E0,8.474504E0,0E0,0E0,0E0,0E0,0E0,0E0,0E0,0E0,0E0,0E0,0E0,0E0,0E0,0E0],"parents":[2147483647,0,0,1,1,2,2,3,3,4,4,5,5,6,6,7,7,8,8,9,9,10,10,11,11,12,12,14,14],"right_children":[2,4,6,8,10,12,14,16,18,20,22,24,26,-1,28,-1,-1,-1,-1,-1,-1,-1,-1,-1,-1,-1,-1,-1,-1],"split_conditions":[6.963605E1,-5.6174487E-1,-3.7940952E-1,1.1973672E-3,1.2756316E-3,-2.1694186E-1,9.1045955E-4,1.0635509E-3,5.4557417E-3,2.6083086E-3,-3.6933362E-3,1.2262154E-3,-2.9719935E-3,6.5353915E-2,-2.1694186E-1,-8.3266515E-3,3.139635E-2,-2.9840455E-3,-2.5336647E-2,-1.53466165E-2,1.7026769E-2,-1.5402141E-2,8.739595E-3,-1.1664954E-2,6.0640194E-2,3.8304515E-2,-8.827924E-3,-4.3959465E-2,-1.2400741E-2],"split_indices":[5,10,8,6,6,9,6,6,4,4,1,6,4,0,9,0,0,0,0,0,0,0,0,0,0,0,0,0,0],"split_type":[0,0,0,0,0,0,0,0,0,0,0,0,0,0,0,0,0,0,0,0,0,0,0,0,0,0,0,0,0],"sum_hessian":[1.6012848E3,1.3550339E3,2.4625085E2,5.1693555E2,8.380983E2,9.5273476E1,1.5097737E2,7.3733444E1,4.4320212E2,1.40191E2,6.9790735E2,1.7895369E1,7.7378105E1,2.2408504E0,1.4873653E2,3.4125E1,3.9608444E1,3.9268744E2,5.0514683E1,1.0051529E2,3.96757E1,3.0746635E1,6.671607E2,2.993085E0,1.4902285E1,1.0417998E1,6.6960106E1,2.512193E1,1.236146E2],"tree_param":{"num_deleted":"0","num_feature":"11","num_nodes":"29","size_leaf_vector":"0"}},{"base_weights":[6.7566596E-3,-1.7919589E-2,1.319774E-1,-7.4946806E-3,-6.403255E-1,1.5304914E-1,-9.275318E-1,1.4656587E-2,-1.5766959E-1,-1.6734903E-1,-1.0672816E0,6.1549586E-1,1.0865257E-1,1.7333293E-3,7.6060677E-1,2.9449812E-1,-3.010152E-1,-9.792836E-1,2.2384968E-1,2.013749E-1,-1.2411238E0,9.216606E-1,6.97107E-2,1.273404E-1,-9.7437567E-1],"categories":[],"categories_nodes":[],"categories_segments":[],"categories_sizes":[],"default_left":[1,1,1,1,1,1,0,1,1,1,1,1,1,0,0,0,0,0,0,0,0,0,0,0,0],"id":34,"left_children":[1,3,5,7,9,11,-1,13,15,17,19,21,23,-1,-1,-1,-1,-1,-1,-1,-1,-1,-1,-1,-1],"loss_changes":[4.978649E0,8.7302065E0,6.063529E0,4.4102044E0,4.2974186E0,5.2901225E0,0E0,1.1139243E1,1.1134095E1,3.9360225E0,2.778123E0,3.7190447E0,4.9669924E0,0E0,0E0,0E0,0E0,0E0,0E0,0E0,0E0,0E0,0E0,0E0,0E0],"parents":[2147483647,0,0,1,1,2,2,3,3,4,4,5,5,7,7,8,8,9,9,10,10,11,11,12,12],"right_children":[2,4,6,8,10,12,-1,14,16,18,20,22,24,-1,-1,-1,-1,-1,-1,-1,-1,-1,-1,-1,-1],"split_conditions":[1.3611701E-3,1.3389532E-3,2.589511E-3,2.6613995E-3,-6.1232336E-17,1.3837201E-3,-4.637659E-2,2.7959414E-3,9.0488244E-4,-1.6729219E-3,-2.1694186E-1,6.078576E-1,8.313147E1,8.666646E-5,3.8030338E-2,1.4724906E-2,-1.50507605E-2,-4.896418E-2,1.1192485E-2,1.0068745E-2,-6.205619E-2,4.608303E-2,3.485535E-3,6.3670203E-3,-4.8718784E-2],"split_indices":[3,3,3,2,8,3,0,1,3,1,9,9,5,0,0,0,0,0,0,0,0,0,0,0,0],"split_type":[0,0,0,0,0,0,0,0,0,0,0,0,0,0,0,0,0,0,0,0,0,0,0,0,0],"sum_hessian":[1.6094596E3,1.345224E3,2.6423563E2,1.3240588E3,2.1165113E1,2.5992178E2,4.3138313E0,1.1546472E3,1.6941167E2,1.070178E1,1.0463333E1,2.164088E1,2.382809E2,1.1359694E3,1.8677845E1,4.0525154E1,1.288865E2,2.9908886E0,7.7108912E0,1.2418975E0,9.221436E0,1.3422616E1,8.218266E0,2.3510652E2,3.1743808E0],"tree_param":{"num_deleted":"0","num_feature":"11","num_nodes":"25","size_leaf_vector":"0"}},{"base_weights":[8.594002E-3,-3.269096E-2,8.7554686E-2,2.2618422E-1,-6.548571E-2,1.3008757E-1,-2.4105088E-1,5.223444E-1,-6.494567E-2,-1.0143668E-1,2.0312378E-1,1.4835718E-1,-5.8077407E-1,-1.191579E0,-1.4391577E-1,-1.7511466E-1,6.757676E-1,-5.141152E-1,3.084577E-1,-6.58982E-2,-5.2652895E-1,-1.02951914E-1,4.482273E-1,-2.847001E-1,1.7168832E-1,-9.802584E-1,1.007155E0,-1.5912193E0,-3.556943E-2,2.7723998E-1,-4.5398098E-1],"categories":[],"categories_nodes":[],"categories_segments":[],"categories_sizes":[],"default_left":[1,1,1,1,1,1,1,1,1,1,1,1,1,1,1,0,0,0,0,0,0,0,0,0,0,0,0,0,0,0,0],"id":35,"left_children":[1,3,5,7,9,11,13,15,17,19,21,23,25,27,29,-1,-1,-1,-1,-1,-1,-1,-1,-1,-1,-1,-1,-1,-1,-1,-1],"loss_changes":[5.2198515E0,8.942812E0,7.714773E0,1.0248245E1,9.041527E0,6.4159174E0,5.677682E0,6.414221E0,1.0327545E1,1.2421922E1,8.343587E0,4.8579445E0,8.863228E0,2.5934906E0,7.7800994E0,0E0,0E0,0E0,0E0,0E0,0E0,0E0,0E0,0E0,0E0,0E0,0E0,0E0,0E0,0E0,0E0],"parents":[2147483647,0,0,1,1,2,2,3,3,4,4,5,5,6,6,7,7,8,8,9,9,10,10,11,11,12,12,13,13,14,14],"right_children":[2,4,6,8,10,12,14,16,18,20,22,24,26,28,30,-1,-1,-1,-1,-1,-1,-1,-1,-1,-1,-1,-1,-1,-1,-1,-1],"split_conditions":[6.620829E-4,-5.4199398E-3,9.159756E-1,2.1694186E-1,5.1877857E-3,8.4287E-3,-7.970176E-3,-1.5429636E-3,-7.6201744E-3,4.0272595E-3,-1.2940952E-1,3.187482E1,9.686514E-3,2.274984E-3,5.4053886E1,-8.755733E-3,3.378838E-2,-2.570576E-2,1.5422885E-2,-3.29491E-3,-2.6326448E-2,-5.147596E-3,2.2411365E-2,-1.4235005E-2,8.5844165E-3,-4.901292E-2,5.0357748E-2,-7.9560965E-2,-1.7784715E-3,1.3861999E-2,-2.2699049E-2],"split_indices":[1,4,8,9,4,4,4,0,4,4,7,5,4,6,5,0,0,0,0,0,0,0,0,0,0,0,0,0,0,0,0],"split_type":[0,0,0,0,0,0,0,0,0,0,0,0,0,0,0,0,0,0,0,0,0,0,0,0,0,0,0,0,0,0,0],"sum_hessian":[1.599358E3,1.0506216E3,5.4873645E2,1.1746663E2,9.3315497E2,4.863855E2,6.2350925E1,5.7836548E1,5.9630077E1,8.2355225E2,1.0960273E2,4.7496976E2,1.1415735E1,4.7362742E0,5.761465E1,1.0403056E1,4.7433495E1,2.6897749E1,3.2732327E1,7.6107965E2,6.247261E1,4.899707E1,6.0605663E1,2.370835E1,4.512614E2,9.42685E0,1.9888853E0,3.239783E0,1.4964912E0,2.4475672E1,3.3138977E1],"tree_param":{"num_deleted":"0","num_feature":"11","num_nodes":"31","size_leaf_vector":"0"}},{"base_weights":[-8.77245E-3,2.2099152E-2,-1.8090774E-1,4.5676935E-1,5.1833396E-3,-3.8327911E-1,1.9958569E-3,-4.5860213E-1,6.247829E-1,-1.9440238E-1,4.7440782E-2,-6.0563534E-1,9.775164E-2,5.5372465E-1,-2.1673402E-1,1.0035241E0,-1.1438007E0,1.0982536E0,2.5339565E-1,4.526163E-1,-2.6930812E-1,-8.97397E-2,9.367516E-2,4.0824383E-1,-7.016622E-1,9.4036955E-1,-2.3922606E-1,6.944042E-1,-1.2718045E0,9.4626385E-1,-3.061878E-1],"categories":[],"categories_nodes":[],"categories_segments":[],"categories_sizes":[],"default_left":[1,1,1,1,1,1,1,1,1,1,1,1,1,1,1,0,0,0,0,0,0,0,0,0,0,0,0,0,0,0,0],"id":36,"left_children":[1,3,5,7,9,11,13,15,17,19,21,23,25,27,29,-1,-1,-1,-1,-1,-1,-1,-1,-1,-1,-1,-1,-1,-1,-1,-1],"loss_changes":[8.516743E0,9.991584E0,9.021757E0,8.115064E0,1.1051845E1,1.2435074E1,1.5688874E1,9.634232E0,7.3587856E0,1.1219082E1,6.8666906E0,8.003893E0,1.0855258E1,1.0361318E1,9.975694E0,0E0,0E0,0E0,0E0,0E0,0E0,0E0,0E0,0E0,0E0,0E0,0E0,0E0,0E0,0E0,0E0],"parents":[2147483647,0,0,1,1,2,2,3,3,4,4,5,5,6,6,7,7,8,8,9,9,10,10,11,11,12,12,13,13,14,14],"right_children":[2,4,6,8,10,12,14,16,18,20,22,24,26,28,30,-1,-1,-1,-1,-1,-1,-1,-1,-1,-1,-1,-1,-1,-1,-1,-1],"split_conditions":[6.963605E1,6.5586995E-4,-1.2940952E-1,-1.2348774E-3,8.4774394E-4,1.7864606E-3,8.962819E-4,-2.9106473E-3,-5.6174487E-1,-1.087589E-3,-7.3284935E-4,-3.6165765E-3,-6.035534E-1,8.672403E1,-5.700576E-3,5.0176203E-2,-5.719004E-2,5.4912683E-2,1.2669782E-2,2.2630816E-2,-1.3465406E-2,-4.486985E-3,4.683758E-3,2.0412192E-2,-3.508311E-2,4.701848E-2,-1.1961303E-2,3.472021E-2,-6.359022E-2,4.7313195E-2,-1.5309391E-2],"split_indices":[5,3,7,4,3,6,3,4,10,0,0,4,8,5,4,0,0,0,0,0,0,0,0,0,0,0,0,0,0,0,0],"split_type":[0,0,0,0,0,0,0,0,0,0,0,0,0,0,0,0,0,0,0,0,0,0,0,0,0,0,0,0,0,0,0],"sum_hessian":[1.600919E3,1.3582035E3,2.427154E2,4.990248E1,1.308301E3,1.1470545E2,1.2800993E2,7.4707556E0,4.2431725E1,2.2797134E2,1.0803297E3,7.826737E1,3.6438084E1,3.5906666E1,9.2103264E1,2.235631E0,5.2351246E0,1.7792028E1,2.4639698E1,2.3130741E1,2.048406E2,2.7208734E2,8.082424E2,6.490237E0,7.177713E1,9.897825E0,2.654026E1,3.3912876E1,1.9937915E0,5.8941813E0,8.620908E1],"tree_param":{"num_deleted":"0","num_feature":"11","num_nodes":"31","size_leaf_vector":"0"}},{"base_weights":[8.796488E-3,1.773929E-2,-5.0397855E-1,4.4723614E-3,2.9599273E-1,3.3729202E-1,-7.5287426E-1,3.8710285E-2,-2.0377773E-1,6.443697E-1,1.0043893E-2,-2.1043622E-1,1.2574357E0,-8.838312E-1,3.594678E-1,5.1953368E-2,-3.3687583E-1,4.1440377E-1,-2.9121324E-1,2.839408E-1,1.3967341E0,8.3862823E-1,-3.633849E-1,-1.0958389E0,3.4201777E-1,-1.07091E0,-6.984141E-2],"categories":[],"categories_nodes":[],"categories_segments":[],"categories_sizes":[],"default_left":[1,1,1,1,1,1,1,1,1,1,1,1,0,1,0,0,0,0,0,0,0,0,0,0,0,0,0],"id":37,"left_children":[1,3,5,7,9,11,13,15,17,19,21,23,-1,25,-1,-1,-1,-1,-1,-1,-1,-1,-1,-1,-1,-1,-1],"loss_changes":[7.370793E0,5.8271446E0,6.0231166E0,1.0760162E1,7.149856E0,3.7830102E0,3.4599876E0,6.4633937E0,1.1638074E1,8.380764E0,1.2826764E1,2.9343839E0,0E0,2.9081306E0,0E0,0E0,0E0,0E0,0E0,0E0,0E0,0E0,0E0,0E0,0E0,0E0,0E0],"parents":[2147483647,0,0,1,1,2,2,3,3,4,4,5,5,6,6,7,7,8,8,9,9,10,10,11,11,13,13],"right_children":[2,4,6,8,10,12,14,16,18,20,22,24,-1,26,-1,-1,-1,-1,-1,-1,-1,-1,-1,-1,-1,-1,-1],"split_conditions":[8.633638E-3,6.456134E-3,-1.3327848E-3,3.627511E-3,1.0030768E-3,6.078576E-1,9.768881E-3,8.114491E1,3.5083023E1,7.5827567E-3,4.771956E1,-6.035534E-1,6.2871784E-2,1.2077709E-3,1.7973391E-2,2.5976684E-3,-1.6843792E-2,2.072019E-2,-1.4560662E-2,1.4197039E-2,6.9836706E-2,4.1931413E-2,-1.8169245E-2,-5.4791946E-2,1.710089E-2,-5.35455E-2,-3.4920704E-3],"split_indices":[4,4,1,4,3,9,4,5,5,4,5,7,0,3,0,0,0,0,0,0,0,0,0,0,0,0,0],"split_type":[0,0,0,0,0,0,0,0,0,0,0,0,0,0,0,0,0,0,0,0,0,0,0,0,0,0,0],"sum_hessian":[1.6044121E3,1.5778597E3,2.6552486E1,1.507022E3,7.0837685E1,5.9811096E0,2.0571377E1,1.2949382E3,2.1208372E2,3.1367998E1,3.9469685E1,4.232786E0,1.7483237E0,1.8588385E1,1.9829936E0,1.2516665E3,4.327181E1,2.581667E1,1.8626706E2,2.2139305E1,9.228694E0,1.187501E1,2.7594675E1,1.24841E0,2.984376E0,1.4857959E1,3.7304256E0],"tree_param":{"num_deleted":"0","num_feature":"11","num_nodes":"27","size_leaf_vector":"0"}},{"base_weights":[8.996836E-5,2.236831E-2,-1.2261847E-1,8.621998E-3,4.6501794E-1,1.507171E-1,-2.8731748E-1,-7.858381E-2,6.251387E-2,1.5648879E-1,1.0241394E0,8.8913053E-1,-2.5607994E-2,-5.416377E-1,-5.550306E-2,-3.5819165E-2,-4.092706E-1,3.264149E-2,4.1495785E-1,-3.9297363E-1,6.860131E-1,3.2806402E-1,1.2585323E0,-2.4631786E-1,1.1297766E0,3.389528E-1,-3.7374008E-1,-7.053553E-1,-1.3378889E-2,2.6684648E-1,-4.821365E-1],"categories":[],"categories_nodes":[],"categories_segments":[],"categories_sizes":[],"default_left":[1,1,1,1,1,1,1,1,1,1,1,1,1,1,1,0,0,0,0,0,0,0,0,0,0,0,0,0,0,0,0],"id":38,"left_children":[1,3,5,7,9,11,13,15,17,19,21,23,25,27,29,-1,-1,-1,-1,-1,-1,-1,-1,-1,-1,-1,-1,-1,-1,-1,-1],"loss_changes":[4.4086294E0,8.300951E0,1.1198779E1,6.23096E0,6.9279737E0,1.2239188E1,9.106343E0,7.1472516E0,8.612755E0,8.3171015E0,1.9415932E0,5.227829E0,9.862776E0,6.371855E0,1.143151E1,0E0,0E0,0E0,0E0,0E0,0E0,0E0,0E0,0E0,0E0,0E0,0E0,0E0,0E0,0E0,0E0],"parents":[2147483647,0,0,1,1,2,2,3,3,4,4,5,5,6,6,7,7,8,8,9,9,10,10,11,11,12,12,13,13,14,14],"right_children":[2,4,6,8,10,12,14,16,18,20,22,24,26,28,30,-1,-1,-1,-1,-1,-1,-1,-1,-1,-1,-1,-1,-1,-1,-1,-1],"split_conditions":[6.963605E1,6.812982E1,-3.7940952E-1,-5.6174487E-1,3.7940952E-1,-2.1694186E-1,-1.2940952E-1,5.394848E-3,5.1877857E-3,1.5005587E-3,3.2913947E-4,1.2262154E-3,2.662575E-3,4.77254E-3,2.1602884E-3,-1.7909583E-3,-2.0463532E-2,1.6320745E-3,2.0747893E-2,-1.9648682E-2,3.4300655E-2,1.6403202E-2,6.292661E-2,-1.2315894E-2,5.648883E-2,1.694764E-2,-1.8687004E-2,-3.5267767E-2,-6.689445E-4,1.3342324E-2,-2.4106825E-2],"split_indices":[5,5,8,10,7,9,7,4,4,6,2,6,2,4,2,0,0,0,0,0,0,0,0,0,0,0,0,0,0,0,0],"split_type":[0,0,0,0,0,0,0,0,0,0,0,0,0,0,0,0,0,0,0,0,0,0,0,0,0,0,0,0,0,0,0],"sum_hessian":[1.6106697E3,1.3638699E3,2.467998E2,1.3237799E3,4.008999E1,9.282752E1,1.5397227E2,5.0543915E2,8.1834076E2,2.66591E1,1.343089E1,1.7114199E1,7.5713326E1,7.2784706E1,8.118758E1,4.4854175E2,5.6897404E1,7.5540674E2,6.2934017E1,1.3209793E1,1.3449306E1,3.9878438E0,9.443047E0,2.9887424E0,1.4125456E1,3.6996887E1,3.871644E1,5.5308342E1,1.7476366E1,4.645916E1,3.4728413E1],"tree_param":{"num_deleted":"0","num_feature":"11","num_nodes":"31","size_leaf_vector":"0"}},{"base_weights":[5.8319992E-3,-2.4767917E-2,1.3104095E-1,-3.3390108E-1,-7.045227E-3,1.7425257E-1,-5.0879127E-1,-4.7998095E-1,1.9894582E-1,8.8699454E-1,-2.1964237E-2,2.6117632E-1,-1.3551584E-1,-7.813679E-1,4.192963E-1,6.8020695E-1,-6.213711E-1,-1.0246252E0,5.990106E-1,1.3388067E0,1.7284541E-1,-2.997971E-2,5.642514E-1,1.7598597E-2,3.6971182E-1,-4.1253757E-1,4.6635148E-1,-1.6278197E-1,-1.1598289E0,1.0948111E0,-6.7580596E-2],"categories":[],"categories_nodes":[],"categories_segments":[],"categories_sizes":[],"default_left":[1,1,1,1,1,1,1,1,1,1,1,1,1,1,1,0,0,0,0,0,0,0,0,0,0,0,0,0,0,0,0],"id":39,"left_children":[1,3,5,7,9,11,13,15,17,19,21,23,25,27,29,-1,-1,-1,-1,-1,-1,-1,-1,-1,-1,-1,-1,-1,-1,-1,-1],"loss_changes":[6.130338E0,7.042979E0,8.776529E0,5.5212197E0,1.6255404E1,7.9811897E0,5.4211E0,9.444856E0,8.301454E0,6.2228737E0,5.6472373E0,6.094453E0,1.1083215E1,3.5365124E0,1.7913665E0,0E0,0E0,0E0,0E0,0E0,0E0,0E0,0E0,0E0,0E0,0E0,0E0,0E0,0E0,0E0,0E0],"parents":[2147483647,0,0,1,1,2,2,3,3,4,4,5,5,6,6,7,7,8,8,9,9,10,10,11,11,12,12,13,13,14,14],"right_children":[2,4,6,8,10,12,14,16,18,20,22,24,26,28,30,-1,-1,-1,-1,-1,-1,-1,-1,-1,-1,-1,-1,-1,-1,-1,-1],"split_conditions":[8.117449E-1,1.0594442E-3,4.0305275E-3,3.0811925E-3,6.461343E-4,2.6327395E-3,1.5212852E-3,8.3336607E-4,8.0725655E-4,2.7150328E-3,6.5254364E-3,1.4154231E-3,5.060819E-3,1.725611E-3,1.8344659E-3,3.4010347E-2,-3.1068554E-2,-5.123126E-2,2.995053E-2,6.694034E-2,8.64227E-3,-1.4989855E-3,2.8212572E-2,8.7992987E-4,1.848559E-2,-2.0626878E-2,2.3317574E-2,-8.139099E-3,-5.7991445E-2,5.4740556E-2,-3.37903E-3],"split_indices":[10,6,2,4,3,4,0,6,6,4,2,6,4,6,0,0,0,0,0,0,0,0,0,0,0,0,0,0,0,0,0],"split_type":[0,0,0,0,0,0,0,0,0,0,0,0,0,0,0,0,0,0,0,0,0,0,0,0,0,0,0,0,0,0,0],"sum_hessian":[1.5981855E3,1.2849562E3,3.132293E2,6.8705215E1,1.216251E3,2.94095E2,1.9134306E1,5.4000267E1,1.4704948E1,1.9003265E1,1.1972477E3,2.29775E2,6.4320015E1,1.4912604E1,4.221701E0,5.4520645E0,4.8548203E1,3.2386396E0,1.1466309E1,1.1103719E1,7.8995457E0,1.1820343E3,1.5213391E1,7.118416E1,1.5859084E2,4.4262066E1,2.005795E1,6.2034016E0,8.709203E0,1.2452898E0,2.976411E0],"tree_param":{"num_deleted":"0","num_feature":"11","num_nodes":"31","size_leaf_vector":"0"}},{"base_weights":[5.8273734E-3,1.8636404E-1,-1.5539056E-2,4.8662165E-1,-1.4254943E-1,-1.8673128E-1,2.3803575E-2,1.703436E-1,7.5438315E-1,-6.242608E-1,2.4739315E-1,6.266242E-1,-2.4929169E-1,4.5173276E-2,-3.935557E-1,1.0476574E0,-1.3067162E-1,-2.5019942E-2,9.507072E-1,2.559245E-1,-1.0605073E0,-6.34448E-1,5.8450645E-1,8.079022E-1,-1.1224242E0,2.0188106E-2,-4.326475E-1,-1.897998E-1,8.692094E-2,-1.4542139E-1,-8.832943E-1],"categories":[],"categories_nodes":[],"categories_segments":[],"categories_sizes":[],"default_left":[1,1,1,1,1,1,1,1,1,1,1,1,1,1,1,0,0,0,0,0,0,0,0,0,0,0,0,0,0,0,0],"id":40,"left_children":[1,3,5,7,9,11,13,15,17,19,21,23,25,27,29,-1,-1,-1,-1,-1,-1,-1,-1,-1,-1,-1,-1,-1,-1,-1,-1],"loss_changes":[6.2029176E0,1.6875082E1,9.690447E0,7.4244385E0,1.5554083E1,1.3836624E1,1.045524E1,1.1276127E1,7.369442E0,1.4463088E1,1.4052649E1,7.0854497E0,1.2379619E1,1.0945995E1,6.810976E0,0E0,0E0,0E0,0E0,0E0,0E0,0E0,0E0,0E0,0E0,0E0,0E0,0E0,0E0,0E0,0E0],"parents":[2147483647,0,0,1,1,2,2,3,3,4,4,5,5,6,6,7,7,8,8,9,9,10,10,11,11,12,12,13,13,14,14],"right_children":[2,4,6,8,10,12,14,16,18,20,22,24,26,28,30,-1,-1,-1,-1,-1,-1,-1,-1,-1,-1,-1,-1,-1,-1,-1,-1],"split_conditions":[-5.511485E-3,2.1694186E-1,-2.1694186E-1,4.4457993E1,-7.623194E-3,6.857141E-4,4.513102E-3,-7.865661E-1,-7.865661E-1,-1.9261555E-3,9.5472875E-4,2.2918722E-3,4.1300636E1,7.932269E-4,3.0383072E-3,5.2382868E-2,-6.5335813E-3,-1.2509971E-3,4.753536E-2,1.2796225E-2,-5.3025365E-2,-3.17224E-2,2.9225323E-2,4.039511E-2,-5.612121E-2,1.0094054E-3,-2.1632375E-2,-9.48999E-3,4.346047E-3,-7.2710696E-3,-4.4164713E-2],"split_indices":[4,9,9,5,4,3,2,7,7,2,3,1,5,3,4,0,0,0,0,0,0,0,0,0,0,0,0,0,0,0,0],"split_type":[0,0,0,0,0,0,0,0,0,0,0,0,0,0,0,0,0,0,0,0,0,0,0,0,0,0,0,0,0,0,0],"sum_hessian":[1.606296E3,1.6916934E2,1.4371267E3,8.8186455E1,8.098289E1,2.6785568E2,1.169271E3,4.11805E1,4.700595E1,3.5959637E1,4.5023254E1,1.8487043E1,2.4936864E2,1.1131663E3,5.6104767E1,9.886302E0,3.1294199E1,9.633537E0,3.7372414E1,1.2053484E1,2.3906153E1,1.2207678E1,3.2815575E1,1.7238474E1,1.2485702E0,1.01331154E2,1.4803748E2,1.6740356E2,9.457627E2,3.8098473E1,1.8006294E1],"tree_param":{"num_deleted":"0","num_feature":"11","num_nodes":"31","size_leaf_vector":"0"}},{"base_weights":[-4.154065E-3,-1.041529E-3,-8.20845E-1,-5.633908E-3,7.513317E-1,-3.212265E-1,-9.895055E-1,-3.3991542E-4,-1.1953552E0,1.2128704E0,-2.2617301E-1,-9.495845E-3,4.378299E-1,-1.5694692E0,-6.5128463E-3,3.2164332E-1,1.3294585E0,9.9121803E-1,-1.1397913E0],"categories":[],"categories_nodes":[],"categories_segments":[],"categories_sizes":[],"default_left":[1,1,1,1,1,0,0,1,1,1,1,0,0,0,0,0,0,0,0],"id":41,"left_children":[1,3,5,7,9,-1,-1,11,13,15,17,-1,-1,-1,-1,-1,-1,-1,-1],"loss_changes":[4.0680594E0,5.5173607E0,1.9414711E-1,9.994633E0,4.6450014E0,0E0,0E0,6.3464684E0,3.1164083E0,2.724886E-1,5.523027E0,0E0,0E0,0E0,0E0,0E0,0E0,0E0,0E0],"parents":[2147483647,0,0,1,1,2,2,3,3,4,4,7,7,8,8,9,9,10,10],"right_children":[2,4,6,8,10,-1,-1,12,14,16,18,-1,-1,-1,-1,-1,-1,-1,-1],"split_conditions":[2.5801165E-3,2.432298E-3,-1.2940952E-1,2.2876023E-3,2.5207526E-3,-1.6061326E-2,-4.947528E-2,1.8958504E-3,3.6136701E-3,2.0979722E-3,6.123234E-17,-4.7479226E-4,2.1891495E-2,-7.847346E-2,-3.2564232E-4,1.6082166E-2,6.6472925E-2,4.95609E-2,-5.698956E-2],"split_indices":[3,3,7,3,3,0,0,3,6,6,7,0,0,0,0,0,0,0,0],"split_type":[0,0,0,0,0,0,0,0,0,0,0,0,0,0,0,0,0,0,0],"sum_hessian":[1.599687E3,1.594611E3,5.076035E0,1.5859233E3,8.687737E0,2.0141492E0,3.0618856E0,1.5798934E3,6.0298853E0,5.737797E0,2.949941E0,1.5485142E3,3.1379189E1,4.3430233E0,1.686862E0,1.098604E0,4.639193E0,1.2283007E0,1.7216402E0],"tree_param":{"num_deleted":"0","num_feature":"11","num_nodes":"19","size_leaf_vector":"0"}},{"base_weights":[5.876017E-3,1.4353447E-2,-4.644099E-1,6.90026E-3,5.836415E-1,5.882112E-1,-6.856812E-1,5.3216267E-1,-3.8713802E-4,9.110283E-1,-1.1281112E0,8.636285E-2,9.761512E-1,-8.8353693E-1,6.3071656E-1,3.382749E-1,1.2065022E0,-3.790892E-1,1.2283562E-2,1.9081047E-2,1.6876332E0,7.37563E-1,-6.0252535E-1,-9.762449E-1,3.4525135E-1,7.799178E-1,1.828381E-1],"categories":[],"categories_nodes":[],"categories_segments":[],"categories_sizes":[],"default_left":[1,1,1,1,1,1,1,1,1,1,0,1,0,1,1,0,0,0,0,0,0,0,0,0,0,0,0],"id":42,"left_children":[1,3,5,7,9,11,13,15,17,19,-1,21,-1,23,25,-1,-1,-1,-1,-1,-1,-1,-1,-1,-1,-1,-1],"loss_changes":[6.403279E0,6.687207E0,7.0273576E0,5.962513E0,1.2441803E1,9.8222196E-1,6.798214E0,2.3787713E0,7.3813596E0,1.219428E1,0E0,2.0080037E0,0E0,2.7575016E0,1.0560918E-1,0E0,0E0,0E0,0E0,0E0,0E0,0E0,0E0,0E0,0E0,0E0,0E0],"parents":[2147483647,0,0,1,1,2,2,3,3,4,4,5,5,6,6,7,7,8,8,9,9,11,11,13,13,14,14],"right_children":[2,4,6,8,10,12,14,16,18,20,-1,22,-1,24,26,-1,-1,-1,-1,-1,-1,-1,-1,-1,-1,-1,-1],"split_conditions":[8.633638E-3,7.840728E-3,-1.700281E-3,1.4714761E1,7.2487045E1,9.273142E-3,9.768881E-3,1.3456524E1,-3.8066492E-3,1.2940952E-1,-5.6405563E-2,1.5457557E-3,4.880756E-2,1.8828528E-3,1.7775143E-3,1.6913746E-2,6.0325112E-2,-1.8954461E-2,6.141781E-4,9.540524E-4,8.438166E-2,3.687815E-2,-3.0126268E-2,-4.8812248E-2,1.7262569E-2,3.8995888E-2,9.141905E-3],"split_indices":[4,4,1,5,5,4,4,5,1,7,0,6,0,6,6,0,0,0,0,0,0,0,0,0,0,0,0],"split_type":[0,0,0,0,0,0,0,0,0,0,0,0,0,0,0,0,0,0,0,0,0,0,0,0,0,0,0],"sum_hessian":[1.6034415E3,1.5760018E3,2.7439718E1,1.5566343E3,1.9367517E1,4.4781513E0,2.2961567E1,2.0315357E1,1.536319E3,1.6650713E1,2.7168047E0,2.4854865E0,1.9926647E0,2.0247215E1,2.7143512E0,1.6944942E1,3.3704133E0,4.8802113E1,1.4875168E3,8.22672E0,8.423993E0,1.2413716E0,1.244115E0,1.90179E1,1.2293153E0,1.4799705E0,1.2343808E0],"tree_param":{"num_deleted":"0","num_feature":"11","num_nodes":"27","size_leaf_vector":"0"}},{"base_weights":[1.7352873E-2,7.4094784E-1,1.2133495E-2,-3.1440282E-1,8.955359E-1,1.5131546E-2,-1.0148488E0,1.2357714E0,1.0576958E-1,2.6598893E-4,2.1137287E-1,5.0663406E-1,-5.177624E-1,2.3040788E-2,-1.9670817E-1,-2.1727905E-2,6.62154E-1],"categories":[],"categories_nodes":[],"categories_segments":[],"categories_sizes":[],"default_left":[1,1,1,0,1,1,0,0,1,1,1,0,0,0,0,0,0],"id":43,"left_children":[1,3,5,-1,7,9,-1,-1,11,13,15,-1,-1,-1,-1,-1,-1],"loss_changes":[6.042428E0,2.1508927E0,4.91654E0,0E0,2.6246214E0,4.63307E0,0E0,0E0,1.3073697E0,6.632018E0,1.1765686E1,0E0,0E0,0E0,0E0,0E0,0E0],"parents":[2147483647,0,0,1,1,2,2,4,4,5,5,8,8,9,9,10,10],"right_children":[2,4,6,-1,8,10,-1,-1,12,14,16,-1,-1,-1,-1,-1,-1],"split_conditions":[1.21463585E1,1.5145119E-3,2.589511E-3,-1.5720142E-2,1.2872126E-3,1.5910519E-3,-5.0742444E-2,6.178857E-2,1.2940952E-1,2.0466791E-3,6.078576E-1,2.5331704E-2,-2.588812E-2,1.1520394E-3,-9.835409E-3,-1.0863952E-3,3.31077E-2],"split_indices":[5,6,3,0,3,3,0,0,8,6,9,0,0,0,0,0,0],"split_type":[0,0,0,0,0,0,0,0,0,0,0,0,0,0,0,0,0],"sum_hessian":[1.6012963E3,1.0458142E1,1.5908381E3,1.2041016E0,9.254041E0,1.58719E3,3.64819E0,6.0730205E0,3.18102E0,1.4763552E3,1.1083464E2,2.0503447E0,1.1306754E0,1.3241372E3,1.5221806E2,7.36841E1,3.7150547E1],"tree_param":{"num_deleted":"0","num_feature":"11","num_nodes":"17","size_leaf_vector":"0"}},{"base_weights":[1.7458875E-2,1.5446839E-2,1.1930833E0,1.9990548E-2,-1.1699646E0,-6.8576896E-1,2.3586182E-2,-1.3291416E0,-2.866715E-1,9.056506E-1,-1.0900325E0,1.9884E-2,7.685523E-1],"categories":[],"categories_nodes":[],"categories_segments":[],"categories_sizes":[],"default_left":[1,1,0,1,1,1,1,0,0,0,0,0,0],"id":44,"left_children":[1,3,-1,5,7,9,11,-1,-1,-1,-1,-1,-1],"loss_changes":[3.7868247E0,8.678851E0,0E0,4.0810585E0,4.8406792E-1,6.232264E0,4.382835E0,0E0,0E0,0E0,0E0,0E0,0E0],"parents":[2147483647,0,0,1,1,3,3,4,4,5,5,6,6],"right_children":[2,4,-1,6,8,10,12,-1,-1,-1,-1,-1,-1],"split_conditions":[4.006312E-3,3.2980773E-3,5.9654165E-2,-1.1807211E-2,1.4233269E-4,-7.865661E-1,3.1182144E-3,-6.6457085E-2,-1.4333575E-2,4.528253E-2,-5.4501623E-2,9.942E-4,3.8427617E-2],"split_indices":[6,6,0,4,1,8,6,0,0,0,0,0,0],"split_type":[0,0,0,0,0,0,0,0,0,0,0,0,0],"sum_hessian":[1.6077163E3,1.6059808E3,1.7354344E0,1.600828E3,5.1528745E0,7.15272E0,1.5936753E3,3.9383862E0,1.2144884E0,1.1976832E0,5.9550366E0,1.5868162E3,6.8591504E0],"tree_param":{"num_deleted":"0","num_feature":"11","num_nodes":"13","size_leaf_vector":"0"}},{"base_weights":[2.3958202E-2,2.7198251E-2,-8.1441057E-1,2.2837153E-2,7.732259E-1,-2.3593077E-1,-9.948586E-1,2.7023124E-2,-1.0174966E0,1.1509292E0,-3.641312E-2,1.16521055E-2,2.5430647E-1,-5.6604214E-2,-1.3907362E0,2.4705645E-1,1.2787967E0,1.0129573E0,-1.0600904E0],"categories":[],"categories_nodes":[],"categories_segments":[],"categories_sizes":[],"default_left":[1,1,1,1,1,0,0,1,1,1,1,0,0,0,0,0,0,0,0],"id":45,"left_children":[1,3,5,7,9,-1,-1,11,13,15,17,-1,-1,-1,-1,-1,-1,-1,-1],"loss_changes":[4.3821554E0,5.1875587E0,4.1368914E-1,6.95867E0,2.8760147E0,0E0,0E0,5.5385847E0,2.2181563E0,4.1800308E-1,5.2820444E0,0E0,0E0,0E0,0E0,0E0,0E0,0E0,0E0],"parents":[2147483647,0,0,1,1,2,2,3,3,4,4,7,7,8,8,9,9,10,10],"right_children":[2,4,6,8,10,-1,-1,12,14,16,18,-1,-1,-1,-1,-1,-1,-1,-1],"split_conditions":[2.5801165E-3,2.4370737E-3,-1.2940952E-1,2.2876023E-3,2.5263308E-3,-1.1796539E-2,-4.9742933E-2,1.5910199E-3,-7.105012E-4,-1.1621805E-2,6.123234E-17,5.826053E-4,1.2715324E-2,-2.8302108E-3,-6.953681E-2,1.2352823E-2,6.393983E-2,5.0647866E-2,-5.3004522E-2],"split_indices":[3,3,7,3,3,0,0,3,0,2,7,0,0,0,0,0,0,0,0],"split_type":[0,0,0,0,0,0,0,0,0,0,0,0,0,0,0,0,0,0,0],"sum_hessian":[1.6040941E3,1.5988826E3,5.211651E0,1.5906147E3,8.267737E0,1.7878E0,3.4238505E0,1.5852104E3,5.4043555E0,5.350262E0,2.9174755E0,1.4857794E3,9.9430984E1,1.8341237E0,3.570232E0,1.0264682E0,4.323794E0,1.4458294E0,1.4716461E0],"tree_param":{"num_deleted":"0","num_feature":"11","num_nodes":"19","size_leaf_vector":"0"}},{"base_weights":[1.174535E-2,1.993675E-2,-4.4320667E-1,6.5359725E-3,3.053641E-1,-1.0678717E0,-1.4176185E-1,3.5284776E-2,-1.7456399E-1,7.085047E-1,-2.9336201E-2,-1.3191618E0,2.9091388E-1,-5.3514546E-1,9.543643E-1,-4.0806063E-2,1.12796575E-1,3.6774158E-1,-2.59327E-1,3.415748E-1,1.4129045E0,7.153168E-1,-3.887988E-1,-1.5459998E-1,-1.5142798E0,1.4219588E-1,-8.4171367E-1,1.3423992E0,-2.4575785E-1],"categories":[],"categories_nodes":[],"categories_segments":[],"categories_sizes":[],"default_left":[1,1,1,1,1,1,1,1,1,1,1,1,0,1,1,0,0,0,0,0,0,0,0,0,0,0,0,0,0],"id":46,"left_children":[1,3,5,7,9,11,13,15,17,19,21,23,-1,25,27,-1,-1,-1,-1,-1,-1,-1,-1,-1,-1,-1,-1,-1,-1],"loss_changes":[5.9743333E0,6.016153E0,5.1878676E0,7.835853E0,9.538304E0,3.4828472E0,9.254753E0,7.6640425E0,9.573538E0,7.7976894E0,1.0851176E1,1.5474415E0,0E0,3.3514867E0,2.9912596E0,0E0,0E0,0E0,0E0,0E0,0E0,0E0,0E0,0E0,0E0,0E0,0E0,0E0,0E0],"parents":[2147483647,0,0,1,1,2,2,3,3,4,4,5,5,6,6,7,7,8,8,9,9,10,10,11,11,13,13,14,14],"right_children":[2,4,6,8,10,12,14,16,18,20,22,24,-1,26,28,-1,-1,-1,-1,-1,-1,-1,-1,-1,-1,-1,-1,-1,-1],"split_conditions":[8.633638E-3,6.456134E-3,-6.035534E-1,3.6477665E-3,1.0030768E-3,9.5099835E-3,1.7026344E-3,1.055015E-3,3.5083023E1,7.5827567E-3,4.771956E1,5.0139977E1,1.4545694E-2,-5.2695535E-4,3.7940952E-1,-2.040303E-3,5.6398287E-3,1.838708E-2,-1.296635E-2,1.707874E-2,7.064523E-2,3.5765838E-2,-1.9439941E-2,-7.7299993E-3,-7.571399E-2,7.1097943E-3,-4.2085685E-2,6.711996E-2,-1.2287892E-2],"split_indices":[4,4,7,4,3,4,6,3,5,4,5,5,0,0,8,0,0,0,0,0,0,0,0,0,0,0,0,0,0],"split_type":[0,0,0,0,0,0,0,0,0,0,0,0,0,0,0,0,0,0,0,0,0,0,0,0,0,0,0,0,0],"sum_hessian":[1.599748E3,1.5723933E3,2.735472E1,1.5028573E3,6.953605E1,8.076268E0,1.9278452E1,1.2976642E3,2.0519316E2,3.1036411E1,3.8499638E1,6.8403873E0,1.2358811E0,1.45635805E1,4.714871E0,6.550733E2,6.425908E2,2.7285385E1,1.7790778E2,2.138279E1,9.653624E0,1.2211879E1,2.628776E1,1.2388222E0,5.601565E0,4.7048054E0,9.858775E0,3.4732988E0,1.2415721E0],"tree_param":{"num_deleted":"0","num_feature":"11","num_nodes":"29","size_leaf_vector":"0"}},{"base_weights":[-5.173904E-3,-8.7452E-2,3.184898E-2,8.572694E-1,-1.0012461E-1,-1.1518007E-1,8.635515E-2,4.559426E-2,1.0218549E0,-8.269515E-2,-7.4531585E-1,1.2753458E0,-1.3566646E-1,7.8300305E-2,9.621774E-1,2.622684E-1,1.1400914E0,1.2557982E-2,-1.9742654E-1,-2.4679385E-1,-1.2432754E0,-2.870335E-1,6.86687E-2,9.534699E-2,-3.5152432E-1,-2.6718125E-1,1.2510769E0],"categories":[],"categories_nodes":[],"categories_segments":[],"categories_sizes":[],"default_left":[1,1,1,1,1,1,1,0,1,1,1,0,1,1,1,0,0,0,0,0,0,0,0,0,0,0,0],"id":47,"left_children":[1,3,5,7,9,11,13,-1,15,17,19,-1,21,23,25,-1,-1,-1,-1,-1,-1,-1,-1,-1,-1,-1,-1],"loss_changes":[4.925906E0,6.093601E0,8.948363E0,8.547244E-1,5.516813E0,8.778355E0,5.6690283E0,0E0,2.0058537E-1,5.29346E0,2.9013906E0,0E0,9.255247E0,5.953354E0,2.9382815E0,0E0,0E0,0E0,0E0,0E0,0E0,0E0,0E0,0E0,0E0,0E0,0E0],"parents":[2147483647,0,0,1,1,2,2,3,3,4,4,5,5,6,6,8,8,9,9,10,10,12,12,13,13,14,14],"right_children":[2,4,6,8,10,12,14,-1,16,18,20,-1,22,24,26,-1,-1,-1,-1,-1,-1,-1,-1,-1,-1,-1,-1],"split_conditions":[-1.1276698E-3,1.0451771E1,-6.035534E-1,1.528948E-3,-1.1671619E-3,9.897191E-4,6.6478737E-3,2.279713E-3,6.195752E0,1.7157472E-3,-6.1232336E-17,6.376729E-2,6.078576E-1,2.2001562E-3,2.2866488E-3,1.31134195E-2,5.700457E-2,6.278991E-4,-9.871327E-3,-1.2339693E-2,-6.216377E-2,-1.4351675E-2,3.433435E-3,4.7673495E-3,-1.7576216E-2,-1.3359062E-2,6.2553845E-2],"split_indices":[2,5,7,6,2,6,2,0,5,6,8,0,9,0,1,0,0,0,0,0,0,0,0,0,0,0,0],"split_type":[0,0,0,0,0,0,0,0,0,0,0,0,0,0,0,0,0,0,0,0,0,0,0,0,0,0,0],"sum_hessian":[1.6151661E3,5.0081464E2,1.1143516E3,5.7468834E0,4.9506775E2,3.010807E2,8.132708E2,1.184144E0,4.5627394E0,4.8314407E2,1.1923678E1,3.482039E0,2.9759863E2,8.069389E2,6.331934E0,1.0480331E0,3.5147061E0,2.6446695E2,2.1867714E2,6.7058573E0,5.217821E0,1.7072476E2,1.26873886E2,7.769053E2,3.0033606E1,1.2191674E0,5.1127663E0],"tree_param":{"num_deleted":"0","num_feature":"11","num_nodes":"27","size_leaf_vector":"0"}},{"base_weights":[-1.0123687E-2,-1.4656718E-2,7.9387826E-1,4.001866E-4,-2.5340846E-1,1.1438863E0,-1.0401476E-1,-4.499593E-3,9.4901866E-1,5.386093E-2,-4.1960424E-1,-7.4996394E-1,5.9927326E-1,4.617376E-3,-5.183793E-1,1.2153674E0,-2.4284829E-1,-1.750249E-1,1.2808014E0,-6.564346E-1,-5.660369E-4],"categories":[],"categories_nodes":[],"categories_segments":[],"categories_sizes":[],"default_left":[1,1,1,1,1,0,1,1,1,1,1,0,0,0,0,0,0,0,0,0,0],"id":48,"left_children":[1,3,5,7,9,-1,11,13,15,17,19,-1,-1,-1,-1,-1,-1,-1,-1,-1,-1],"loss_changes":[5.853015E0,5.7330446E0,2.9486609E0,6.9816537E0,4.85398E0,0E0,2.0131218E0,7.0038476E0,2.745431E0,9.799286E0,6.1042404E0,0E0,0E0,0E0,0E0,0E0,0E0,0E0,0E0,0E0,0E0],"parents":[2147483647,0,0,1,1,2,2,3,3,4,4,6,6,7,7,8,8,9,9,10,10],"right_children":[2,4,6,8,10,-1,12,14,16,18,20,-1,-1,-1,-1,-1,-1,-1,-1,-1,-1],"split_conditions":[7.922992E-3,4.060843E-3,9.724866E-3,3.948005E-3,3.7161916E-4,5.719432E-2,6.078576E-1,2.292085E-3,2.1628886E-3,2.2567282E-4,1.5391479E-3,-3.74982E-2,2.9963663E-2,2.308688E-4,-2.5918964E-2,6.0768373E-2,-1.2142415E-2,-8.751245E-3,6.404007E-2,-3.282173E-2,-2.8301845E-5],"split_indices":[2,2,2,2,0,0,9,0,6,0,0,0,0,0,0,0,0,0,0,0,0],"split_type":[0,0,0,0,0,0,0,0,0,0,0,0,0,0,0,0,0,0,0,0,0],"sum_hessian":[1.6017642E3,1.5937601E3,8.0039835E0,1.5001512E3,9.360887E1,5.5619216E0,2.442062E0,1.4934327E3,6.7185826E0,3.309585E1,6.0513023E1,1.2383271E0,1.2037349E0,1.4683727E3,2.506004E1,5.4752917E0,1.243291E0,2.8615059E1,4.4807925E0,3.830016E1,2.2212862E1],"tree_param":{"num_deleted":"0","num_feature":"11","num_nodes":"21","size_leaf_vector":"0"}},{"base_weights":[5.411954E-3,4.7722173E-1,-7.624663E-4,7.345821E-1,-4.3760516E-2,-3.1057867E-1,9.474677E-3,8.586954E-2,1.0254306E0,9.20746E-1,-4.6653736E-1,-1.783575E-1,-1.4157504E0,6.221045E-1,4.974113E-3,7.567135E-1,-5.32378E-1,4.935299E-1,1.244565E0,5.1759523E-1,-8.9049304E-1,6.77046E-2,-5.348539E-1,2.0039217E-1,1.2625294E0,-2.8054214E-1,1.6973266E-2],"categories":[],"categories_nodes":[],"categories_segments":[],"categories_sizes":[],"default_left":[1,1,1,1,1,1,1,1,1,0,1,1,0,1,1,0,0,0,0,0,0,0,0,0,0,0,0],"id":49,"left_children":[1,3,5,7,9,11,13,15,17,-1,19,21,-1,23,25,-1,-1,-1,-1,-1,-1,-1,-1,-1,-1,-1,-1],"loss_changes":[4.662116E0,2.8039775E0,5.015932E0,2.5333543E0,3.6017447E0,7.139376E0,4.218107E0,2.639289E0,4.932251E-1,0E0,2.9944377E0,4.0997806E0,0E0,2.7602262E0,5.215048E0,0E0,0E0,0E0,0E0,0E0,0E0,0E0,0E0,0E0,0E0,0E0,0E0],"parents":[2147483647,0,0,1,1,2,2,3,3,4,4,5,5,6,6,7,7,8,8,10,10,11,11,13,13,14,14],"right_children":[2,4,6,8,10,12,14,16,18,-1,20,22,-1,24,26,-1,-1,-1,-1,-1,-1,-1,-1,-1,-1,-1,-1],"split_conditions":[1.4702478E1,-9.970603E-5,-3.8066492E-3,-1.6200193E-3,-7.865661E-1,-2.3735538E-3,-3.550427E-3,-1.45495E-3,-2.7169562E-3,4.60373E-2,-4.28332E-3,-4.5119356E-3,-7.078752E-2,-8.404112E-4,-4.1019125E-3,3.7835676E-2,-2.6618902E-2,2.4676494E-2,6.222825E-2,2.5879761E-2,-4.452465E-2,3.3852302E-3,-2.6742695E-2,1.0019609E-2,6.312647E-2,-1.4027107E-2,8.4866333E-4],"split_indices":[5,0,1,0,7,2,1,4,1,0,2,1,0,0,2,0,0,0,0,0,0,0,0,0,0,0,0],"split_type":[0,0,0,0,0,0,0,0,0,0,0,0,0,0,0,0,0,0,0,0,0,0,0,0,0,0,0],"sum_hessian":[1.5992434E3,1.967294E1,1.5795704E3,1.2893617E1,6.7793226E0,4.9585323E1,1.5299851E3,4.3922706E0,8.501346E0,1.7070568E0,5.0722656E0,4.5324184E1,4.2611365E0,1.0156999E1,1.5198281E3,1.9991169E0,2.3931537E0,3.4294024E0,5.0719438E0,1.4606872E0,3.6115787E0,2.7294779E1,1.8029408E1,6.9158773E0,3.2411208E0,6.0393875E1,1.4594343E3],"tree_param":{"num_deleted":"0","num_feature":"11","num_nodes":"27","size_leaf_vector":"0"}},{"base_weights":[7.198415E-3,-6.004665E-1,1.3265978E-2,2.1197449E-1,-1.178412E0,4.973238E-1,4.7031655E-3,8.322636E-1,-5.3405005E-1,-8.065411E-2,-1.3736674E0,6.444178E-1,-8.052725E-1,-5.5572726E-2,6.353149E-2,1.2541445E0,-1.527208E-1,1.3167214E-1,-1.1059685E0,4.8573427E-2,8.339E-1,-9.634018E-2,4.6177924E-1,1.8422772E-1,-6.425977E-2],"categories":[],"categories_nodes":[],"categories_segments":[],"categories_sizes":[],"default_left":[1,1,1,1,1,1,1,1,1,0,0,1,0,1,1,0,0,0,0,0,0,0,0,0,0],"id":50,"left_children":[1,3,5,7,9,11,13,15,17,-1,-1,19,-1,21,23,-1,-1,-1,-1,-1,-1,-1,-1,-1,-1],"loss_changes":[5.906855E0,7.6868105E0,6.5675607E0,3.8832943E0,1.9056311E0,5.796127E0,5.529917E0,2.0400631E0,1.6620431E0,0E0,0E0,2.8162575E0,0E0,1.62914E1,1.2184324E1,0E0,0E0,0E0,0E0,0E0,0E0,0E0,0E0,0E0,0E0],"parents":[2147483647,0,0,1,1,2,2,3,3,4,4,5,5,6,6,7,7,8,8,11,11,13,13,14,14],"right_children":[2,4,6,8,10,12,14,16,18,-1,-1,20,-1,22,24,-1,-1,-1,-1,-1,-1,-1,-1,-1,-1],"split_conditions":[5.5817846E-4,5.2708336E1,6.3613546E-4,2.7916683E-3,-2.1694186E-1,1.4720925E-3,1.0474708E-3,5.278003E-4,-9.6366115E-5,-4.0327054E-3,-6.868337E-2,9.797076E-4,-4.0263627E-2,1.8427059E-3,1.8396355E-3,6.270723E-2,-7.63604E-3,6.5836073E-3,-5.5298425E-2,2.4286713E-3,4.1695E-2,-4.817009E-3,2.3088962E-2,9.211387E-3,-3.2129884E-3],"split_indices":[3,5,3,4,9,1,3,3,1,0,0,6,0,6,6,0,0,0,0,0,0,0,0,0,0],"split_type":[0,0,0,0,0,0,0,0,0,0,0,0,0,0,0,0,0,0,0,0,0,0,0,0,0],"sum_hessian":[1.5988964E3,1.4838719E1,1.5840576E3,6.4312634E0,8.407455E0,2.6542181E1,1.5575154E3,3.4484332E0,2.9828305E0,1.4829783E0,6.9244776E0,2.430307E1,2.2391102E0,7.693201E2,7.8819525E2,2.223022E0,1.225411E0,1.7340914E0,1.248739E0,6.1669307E0,1.813614E1,7.1388E2,5.5440125E1,4.051231E2,3.8307214E2],"tree_param":{"num_deleted":"0","num_feature":"11","num_nodes":"25","size_leaf_vector":"0"}},{"base_weights":[-6.2956614E-3,-3.1284686E-2,9.453702E-2,-2.6228093E-2,-9.947745E-1,9.7472453E-1,5.04181E-2,-3.6715987E-1,-1.3197554E-2,-1.4823447E0,6.362058E-1,1.2666551E0,6.400473E-2,4.682258E-1,-1.0989515E-2,-6.7689784E-2,-7.9212576E-1,-5.2891746E-2,1.0266407E-1,1.6126175E0,3.7087724E-1,7.514816E-1,-4.855473E-1,6.559439E-1,-4.1904822E-1,6.2320903E-2,-2.9250175E-1],"categories":[],"categories_nodes":[],"categories_segments":[],"categories_sizes":[],"default_left":[1,1,1,1,1,1,1,1,1,0,0,1,1,1,1,0,0,0,0,0,0,0,0,0,0,0,0],"id":51,"left_children":[1,3,5,7,9,11,13,15,17,-1,-1,19,21,23,25,-1,-1,-1,-1,-1,-1,-1,-1,-1,-1,-1,-1],"loss_changes":[4.0396967E0,6.2326217E0,1.2316399E1,5.6769466E0,6.2549295E0,3.9454021E0,7.812046E0,5.933589E0,5.6756263E0,0E0,0E0,2.9395695E0,2.15168E0,6.773036E0,5.513451E0,0E0,0E0,0E0,0E0,0E0,0E0,0E0,0E0,0E0,0E0,0E0,0E0],"parents":[2147483647,0,0,1,1,2,2,3,3,4,4,5,5,6,6,7,7,8,8,11,11,12,12,13,13,14,14],"right_children":[2,4,6,8,10,12,14,16,18,-1,-1,20,22,24,26,-1,-1,-1,-1,-1,-1,-1,-1,-1,-1,-1,-1],"split_conditions":[8.117449E-1,9.462501E-3,1.069112E-3,-3.7647414E-3,1.730203E-3,6.035534E-1,3.048006E1,2.0560327E-3,8.783797E-1,-7.4117236E-2,3.181029E-2,6.7261856E1,-6.8268564E-5,9.159756E-1,3.0732849E-3,-3.3844893E-3,-3.9606288E-2,-2.6445873E-3,5.1332037E-3,8.0630876E-2,1.8543862E-2,3.757408E-2,-2.4277365E-2,3.2797195E-2,-2.0952411E-2,3.1160451E-3,-1.4625087E-2],"split_indices":[10,4,6,1,6,8,5,6,9,0,0,5,0,7,4,0,0,0,0,0,0,0,0,0,0,0,0],"split_type":[0,0,0,0,0,0,0,0,0,0,0,0,0,0,0,0,0,0,0,0,0,0,0,0,0,0,0],"sum_hessian":[1.6010648E3,1.2836355E3,3.1742932E2,1.2779557E3,5.679752E0,1.4144696E1,3.032846E2,4.6045364E1,1.2319104E3,4.4427543E0,1.2369977E0,1.0415263E1,3.729433E0,3.8014576E1,2.6527005E2,2.7691011E1,1.8354351E1,9.179606E2,3.139498E2,6.9361706E0,3.4790926E0,1.4935689E0,2.2358642E0,3.1591558E1,6.423017E0,2.1107997E2,5.4190075E1],"tree_param":{"num_deleted":"0","num_feature":"11","num_nodes":"27","size_leaf_vector":"0"}},{"base_weights":[4.5543993E-3,9.525213E-3,-5.2415437E-1,3.593966E-3,7.646724E-1,1.0748682E0,-8.9190507E-1,8.90549E-3,-9.426661E-1,-3.0565336E-1,1.2139685E0,-1.3610483E0,3.0284595E-1,-2.619692E-1,1.8526759E-2,-1.3804219E0,2.4736272E-1,-1.133783E0,6.286024E-1,1.4222777E0,2.2081074E-1,1.080256E0,-7.265868E-1],"categories":[],"categories_nodes":[],"categories_segments":[],"categories_sizes":[],"default_left":[1,1,1,1,1,0,1,1,1,1,1,0,1,0,0,0,0,0,0,0,0,0,0],"id":52,"left_children":[1,3,5,7,9,-1,11,13,15,17,19,-1,21,-1,-1,-1,-1,-1,-1,-1,-1,-1,-1],"loss_changes":[4.2087765E0,7.0992246E0,9.730129E0,7.920837E0,6.3112464E0,0E0,7.51597E0,4.0873456E0,4.9240456E0,4.1563826E0,1.527503E0,0E0,4.299323E0,0E0,0E0,0E0,0E0,0E0,0E0,0E0,0E0,0E0,0E0],"parents":[2147483647,0,0,1,1,2,2,3,3,4,4,6,6,7,7,8,8,9,9,10,10,12,12],"right_children":[2,4,6,8,10,-1,12,14,16,18,20,-1,22,-1,-1,-1,-1,-1,-1,-1,-1,-1,-1],"split_conditions":[8.669721E1,8.447471E1,-1.9082618E-3,8.350575E1,-7.865661E-1,5.374341E-2,1.7235789E-3,-3.8066492E-3,1.382329E-3,1.7655134E-3,1.664767E-3,-6.805242E-2,-5.6174487E-1,-1.3098461E-2,9.2633796E-4,-6.90211E-2,1.2368136E-2,-5.668915E-2,3.143012E-2,7.1113884E-2,1.1040538E-2,5.40128E-2,-3.632934E-2],"split_indices":[5,5,4,5,7,0,6,1,1,6,6,0,10,0,0,0,0,0,0,0,0,0,0],"split_type":[0,0,0,0,0,0,0,0,0,0,0,0,0,0,0,0,0,0,0,0,0,0,0],"sum_hessian":[1.5985447E3,1.5846283E3,1.3916372E1,1.5732759E3,1.1352419E1,2.2425754E0,1.1673797E1,1.5654791E3,7.7967215E0,3.4510167E0,7.9014025E0,8.282368E0,3.3914297E0,5.2797718E1,1.5126814E3,5.5830054E0,2.213716E0,1.7161995E0,1.734817E0,6.174301E0,1.727101E0,1.904109E0,1.4873207E0],"tree_param":{"num_deleted":"0","num_feature":"11","num_nodes":"23","size_leaf_vector":"0"}},{"base_weights":[-1.8266914E-3,7.1967146E-3,-3.295066E-1,-1.9860398E-2,1.6605748E-1,-4.2130262E-1,6.863554E-1,-8.837175E-3,-6.726376E-1,3.6650726E-1,-8.0188755E-3,-4.937927E-1,1.0235358E0,-1.6853821E-1,1.1381654E0,-1.2430867E-2,9.362955E-1,-1.3962345E0,-4.100499E-1,4.0784153E-1,-7.890092E-1,1.0297017E0,-6.266475E-2,5.2158546E-1,-6.0735774E-1],"categories":[],"categories_nodes":[],"categories_segments":[],"categories_sizes":[],"default_left":[1,1,1,1,1,1,1,1,1,1,1,1,0,0,0,0,0,0,0,0,0,0,0,0,0],"id":53,"left_children":[1,3,5,7,9,11,13,15,17,19,21,23,-1,-1,-1,-1,-1,-1,-1,-1,-1,-1,-1,-1,-1],"loss_changes":[4.7269573E0,6.691621E0,4.2843933E0,9.567756E0,7.9084435E0,4.685697E0,1.7101518E0,4.459013E0,3.623004E0,5.352353E0,6.996171E0,4.777052E0,0E0,0E0,0E0,0E0,0E0,0E0,0E0,0E0,0E0,0E0,0E0,0E0,0E0],"parents":[2147483647,0,0,1,1,2,2,3,3,4,4,5,5,6,6,7,7,8,8,9,9,10,10,11,11],"right_children":[2,4,6,8,10,12,14,16,18,20,22,24,-1,-1,-1,-1,-1,-1,-1,-1,-1,-1,-1,-1,-1],"split_conditions":[2.6952205E-3,1.361117E-3,3.7907371E-3,1.3378004E-3,1.4843068E-4,4.006312E-3,2.9910463E-3,1.3349175E-3,-1.6826137E-3,2.572182E-3,1.2646781E-3,1.4223217E-3,5.1176794E-2,-8.426911E-3,5.690827E-2,-6.215434E-4,4.6814777E-2,-6.9811724E-2,-2.0502495E-2,2.0392077E-2,-3.9450463E-2,5.1485088E-2,-3.1332374E-3,2.6079273E-2,-3.0367887E-2],"split_indices":[6,3,1,3,1,6,6,3,1,3,6,3,0,0,0,0,0,0,0,0,0,0,0,0,0],"split_type":[0,0,0,0,0,0,0,0,0,0,0,0,0,0,0,0,0,0,0,0,0,0,0,0,0],"sum_hessian":[1.5968774E3,1.555034E3,4.1843334E1,1.3294736E3,2.255605E2,3.8912384E1,2.9309516E0,1.3083927E3,2.108084E1,1.04324684E2,1.21235825E2,3.768014E1,1.2322419E0,1.2301985E0,1.7007531E0,1.3044198E3,3.972968E0,4.463588E0,1.661725E1,1.0134644E2,2.97824E0,5.17224E0,1.1606358E2,3.4289818E0,3.425116E1],"tree_param":{"num_deleted":"0","num_feature":"11","num_nodes":"25","size_leaf_vector":"0"}},{"base_weights":[3.450006E-3,-3.0462733E-1,1.3800248E-2,-1.2177221E-1,-9.3668693E-1,1.4656462E-1,-1.0683204E-2,-7.640472E-1,1.1042172E-1,2.4988593E-1,-1.1038436E0,-3.1188247E-1,2.0887668E-1,-7.053381E-1,-3.396397E-3,5.804527E-1,-9.884524E-1,-3.6398944E-2,1.0657135E0,-5.375445E-1,-1.316691E0,-5.205639E-1,1.0483118E0,1.3437958E-1,5.706658E-1,9.069225E-1,-1.0590346E0,8.630007E-1,-8.389134E-3],"categories":[],"categories_nodes":[],"categories_segments":[],"categories_sizes":[],"default_left":[1,1,1,1,1,1,1,1,1,0,1,1,1,1,1,0,0,0,0,0,0,0,0,0,0,0,0,0,0],"id":54,"left_children":[1,3,5,7,9,11,13,15,17,-1,19,21,23,25,27,-1,-1,-1,-1,-1,-1,-1,-1,-1,-1,-1,-1,-1,-1],"loss_changes":[5.114884E0,5.9120126E0,5.0451536E0,6.2867537E0,2.566701E0,6.968446E0,6.6334696E0,3.9437094E0,4.4457064E0,0E0,5.347471E-1,8.86715E0,5.673258E0,8.718269E0,5.6235504E0,0E0,0E0,0E0,0E0,0E0,0E0,0E0,0E0,0E0,0E0,0E0,0E0,0E0,0E0],"parents":[2147483647,0,0,1,1,2,2,3,3,4,4,5,5,6,6,7,7,8,8,10,10,11,11,12,12,13,13,14,14],"right_children":[2,4,6,8,10,12,14,16,18,-1,20,22,24,26,28,-1,-1,-1,-1,-1,-1,-1,-1,-1,-1,-1,-1,-1,-1],"split_conditions":[-2.1794243E-3,3.5550902E-3,3.2654655E1,1.0759289E-3,1.1212794E-3,-9.159756E-1,3.3221466E1,-6.035534E-1,2.2491955E-3,1.2494297E-2,-2.9595005E-3,2.9301648E-3,8.783797E-1,-3.4923274E-3,3.349665E1,2.9022634E-2,-4.9422618E-2,-1.8199472E-3,5.3285677E-2,-2.6877224E-2,-6.583455E-2,-2.6028195E-2,5.241559E-2,6.718979E-3,2.853329E-2,4.5346126E-2,-5.295173E-2,4.3150034E-2,-4.1945672E-4],"split_indices":[0,4,5,3,3,8,5,7,4,0,0,4,9,4,5,0,0,0,0,0,0,0,0,0,0,0,0,0,0],"split_type":[0,0,0,0,0,0,0,0,0,0,0,0,0,0,0,0,0,0,0,0,0,0,0,0,0,0,0,0,0],"sum_hessian":[1.6017598E3,5.1139805E1,1.55062E3,4.0589813E1,1.0549992E1,2.4065483E2,1.3099652E3,1.0169435E1,3.0420378E1,1.2415857E0,9.308406E0,2.83166E1,2.1233823E2,1.2604198E1,1.297361E3,1.2276242E0,8.941811E0,2.7201609E1,3.2187705E0,3.5059679E0,5.802438E0,2.5085295E1,3.231306E0,1.7721814E2,3.51201E1,1.9862258E0,1.0617972E1,6.448749E0,1.2909122E3],"tree_param":{"num_deleted":"0","num_feature":"11","num_nodes":"29","size_leaf_vector":"0"}}]},"name":"gbtree"},"learner_model_param":{"base_score":"5E-1","boost_from_average":"1","num_class":"0","num_feature":"11","num_target":"1"},"objective":{"name":"binary:logistic",