{"learner":{"attributes":{"best_iteration":"0","best_ntree_limit":"1","best_score":"0.693246718427444"},"feature_names":["ret_1","ret_3","ret_6","vol_24","sma_diff","rsi","atr_norm","hour_sin","hour_cos","dow_sin","dow_cos"],"feature_types":[],"gradient_booster":{"model":{"gbtree_model_param":{"num_parallel_tree":"1","num_trees":"51","size_leaf_vector":"0"},"tree_info":[0,0,0,0,0,0,0,0,0,0,0,0,0,0,0,0,0,0,0,0,0,0,0,0,0,0,0,0,0,0,0,0,0,0,0,0,0,0,0,0,0,0,0,0,0,0,0,0,0,0,0],"trees":[{"base_weights":[2.2208514E-2,-7.6058775E-2,2.6609442E-1,3.6363635E-2,-3.2365146E-1,1.0989011E-1,8.076923E-1,2.541806E-1,-9.39061E-2,-4.5454547E-2,-4.7948164E-1,-5.365854E-1,1.9076923E-1,2.4E-1,1.0948905E0,-3.255814E-1,4.10148E-1,-4.6464646E-1,6.214689E-2,5.714286E-1,-3.2608697E-1,-1.590909E-1,-6.666667E-1,-1.36E0,-1.6393442E-1,7.25E-1,1.6194332E-2,-8.5714287E-1,4.6153846E-1,1.3009709E0,4.2105263E-1],"categories":[],"categories_nodes":[],"categories_segments":[],"categories_sizes":[],"default_left":[1,1,1,1,1,1,1,1,1,1,1,1,1,1,1,0,0,0,0,0,0,0,0,0,0,0,0,0,0,0,0],"id":0,"left_children":[1,3,5,7,9,11,13,15,17,19,21,23,25,27,29,-1,-1,-1,-1,-1,-1,-1,-1,-1,-1,-1,-1,-1,-1,-1,-1],"loss_changes":[1.9444687E1,1.6114296E1,1.9623026E1,1.1338383E1,7.813986E0,9.618483E0,8.215321E0,1.3651918E1,1.4507128E1,1.1612083E1,6.835737E0,6.067397E0,1.5143542E1,4.952967E0,4.2083397E0,0E0,0E0,0E0,0E0,0E0,0E0,0E0,0E0,0E0,0E0,0E0,0E0,0E0,0E0,0E0,0E0],"parents":[2147483647,0,0,1,1,2,2,3,3,4,4,5,5,6,6,7,7,8,8,9,9,10,10,11,11,12,12,13,13,14,14],"right_children":[2,4,6,8,10,12,14,16,18,20,22,24,26,28,30,-1,-1,-1,-1,-1,-1,-1,-1,-1,-1,-1,-1,-1,-1,-1,-1],"split_conditions":[8.8226685E-4,4.3322885E-4,2.8865715E-3,-1.307569E-3,6.367498E-4,-4.0579243E-3,9.460653E-4,-4.3129204E-3,3.3233805E-6,1.11231E-4,7.604094E-4,9.392048E-4,9.449848E-4,5.0422062E1,6.078576E-1,-1.627907E-2,2.05074E-2,-2.3232324E-2,3.1073445E-3,2.857143E-2,-1.630435E-2,-7.954545E-3,-3.3333335E-2,-6.8E-2,-8.196722E-3,3.6250003E-2,8.0971664E-4,-4.2857144E-2,2.3076924E-2,6.5048546E-2,2.1052632E-2],"split_indices":[3,1,4,4,3,4,3,4,4,0,2,3,3,5,9,0,0,0,0,0,0,0,0,0,0,0,0,0,0,0,0],"split_type":[0,0,0,0,0,0,0,0,0,0,0,0,0,0,0,0,0,0,0,0,0,0,0,0,0,0,0,0,0,0,0],"sum_hessian":[8.095E2,5.775E2,2.32E2,3.9775E2,1.7975E2,1.81E2,5.1E1,1.485E2,2.4925E2,6.5E1,1.1475E2,1.95E1,1.615E2,1.775E1,3.325E1,3.125E1,1.1725E2,7.325E1,1.76E2,2E1,4.5E1,4.3E1,7.175E1,5.25E0,1.425E1,3.9E1,1.225E2,2.5E0,1.525E1,2.475E1,8.5E0],"tree_param":{"num_deleted":"0","num_feature":"11","num_nodes":"31","size_leaf_vector":"0"}},{"base_weights":[1.7757501E-2,-7.638443E-2,2.486868E-1,2.1218225E-1,-2.0409146E-1,8.958013E-2,7.817969E-1,5.3032404E-1,-1.4272914E-2,-4.356948E-1,1.0026227E-2,1.9107847E-1,-4.2494726E-1,1.2823317E0,4.581119E-1,6.4044094E-1,-1.0389075E0,-8.6353827E-1,1.7379905E-1,-8.4473036E-2,-5.710411E-1,1.5819433E-1,-4.775923E-1,2.4501014E-1,-1.1777899E0,-9.995572E-1,1.2318138E-1,5.4961735E-1,1.5964264E0,-6.8806726E-1,7.883434E-1],"categories":[],"categories_nodes":[],"categories_segments":[],"categories_sizes":[],"default_left":[1,1,1,1,1,1,1,1,1,1,1,1,1,1,1,0,0,0,0,0,0,0,0,0,0,0,0,0,0,0,0],"id":1,"left_children":[1,3,5,7,9,11,13,15,17,19,21,23,25,27,29,-1,-1,-1,-1,-1,-1,-1,-1,-1,-1,-1,-1,-1,-1,-1,-1],"loss_changes":[1.7751274E1,2.1424742E1,1.9985954E1,1.2866631E1,1.9974941E1,9.650189E0,8.196835E0,1.3494801E1,1.6959648E1,9.149071E0,1.5264713E1,1.1637819E1,9.729374E0,3.8949776E0,1.3594013E1,0E0,0E0,0E0,0E0,0E0,0E0,0E0,0E0,0E0,0E0,0E0,0E0,0E0,0E0,0E0,0E0],"parents":[2147483647,0,0,1,1,2,2,3,3,4,4,5,5,6,6,7,7,8,8,9,9,10,10,11,11,12,12,13,13,14,14],"right_children":[2,4,6,8,10,12,14,16,18,20,22,24,26,28,30,-1,-1,-1,-1,-1,-1,-1,-1,-1,-1,-1,-1,-1,-1,-1,-1],"split_conditions":[8.8226685E-4,6.177756E-4,2.8865715E-3,4.521054E1,-1.2940952E-1,1.2107447E-3,4.7474178E-3,1.2910399E-3,-2.1891675E-3,-1.73128E-3,4.6549534E-4,2.483369E-3,-1.2940952E-1,3.344853E-3,5.1082773E-3,3.2022048E-2,-5.1945377E-2,-4.3176915E-2,8.689953E-3,-4.2236517E-3,-2.8552055E-2,7.909717E-3,-2.3879616E-2,1.2250507E-2,-5.8889497E-2,-4.997786E-2,6.159069E-3,2.7480869E-2,7.982132E-2,-3.4403365E-2,3.9417174E-2],"split_indices":[3,3,4,5,8,3,4,6,4,4,1,4,8,4,4,0,0,0,0,0,0,0,0,0,0,0,0,0,0,0,0],"split_type":[0,0,0,0,0,0,0,0,0,0,0,0,0,0,0,0,0,0,0,0,0,0,0,0,0,0,0,0,0,0,0],"sum_hessian":[8.146473E2,5.791976E2,2.3544969E2,1.774869E2,4.0171066E2,1.8223091E2,5.3218777E1,7.324491E1,1.0424198E2,1.9247865E2,2.0923201E2,1.5273103E2,2.9499878E1,1.9736809E1,3.3481968E1,6.899522E1,4.2496915E0,1.824819E1,8.599379E1,5.3992634E1,1.3848602E2,1.6098927E2,4.8242737E1,1.4773161E2,4.9994245E0,1.3999965E1,1.5499914E1,6.747112E0,1.2989697E1,7.2466044E0,2.6235363E1],"tree_param":{"num_deleted":"0","num_feature":"11","num_nodes":"31","size_leaf_vector":"0"}},{"base_weights":[5.463823E-3,-9.056649E-2,2.4033345E-1,1.676555E-1,-2.0281631E-1,9.1001235E-2,7.237464E-1,-2.4430707E-1,3.6873105E-1,5.611259E-2,-3.701349E-1,2.0364211E-1,-4.6336967E-1,1.0029187E0,1.7458321E-1,4.2422011E-1,-6.116559E-1,7.041116E-1,1.4434142E-1,1.5957332E-1,-1.0079219E0,-7.4140906E-1,-2.2207397E-1,8.521554E-1,7.6643795E-2,-1.1379131E0,-2.1725161E-2,-3.733463E-1,1.0928642E0,-3.176796E-1,7.529099E-1],"categories":[],"categories_nodes":[],"categories_segments":[],"categories_sizes":[],"default_left":[1,1,1,1,1,1,1,1,1,1,1,1,1,1,1,0,0,0,0,0,0,0,0,0,0,0,0,0,0,0,0],"id":2,"left_children":[1,3,5,7,9,11,13,15,17,19,21,23,25,27,29,-1,-1,-1,-1,-1,-1,-1,-1,-1,-1,-1,-1,-1,-1,-1,-1],"loss_changes":[1.8368584E1,1.6790394E1,1.699544E1,1.4644822E1,1.7497168E1,1.1441039E1,8.35429E0,1.4560464E1,8.814196E0,1.7688173E1,1.3313004E1,1.2430059E1,9.207735E0,4.9477654E0,5.921895E0,0E0,0E0,0E0,0E0,0E0,0E0,0E0,0E0,0E0,0E0,0E0,0E0,0E0,0E0,0E0,0E0],"parents":[2147483647,0,0,1,1,2,2,3,3,4,4,5,5,6,6,7,7,8,8,9,9,10,10,11,11,12,12,13,13,14,14],"right_children":[2,4,6,8,10,12,14,16,18,20,22,24,26,28,30,-1,-1,-1,-1,-1,-1,-1,-1,-1,-1,-1,-1,-1,-1,-1,-1],"split_conditions":[8.8226685E-4,6.177756E-4,2.8865715E-3,4.9314817E-4,-1.3056208E-3,1.2107447E-3,1.6441725E-3,-4.1911524E-4,4.5199593E1,1.4213638E-3,-8.547261E-5,-2.1694186E-1,-3.7940952E-1,-3.438428E-3,1.0520953E-3,2.1211006E-2,-3.0582795E-2,3.520558E-2,7.2170715E-3,7.978666E-3,-5.0396096E-2,-3.7070453E-2,-1.1103699E-2,4.260777E-2,3.8321898E-3,-5.6895655E-2,-1.0862581E-3,-1.8667316E-2,5.464321E-2,-1.588398E-2,3.7645496E-2],"split_indices":[3,3,4,3,4,3,2,2,5,6,4,9,8,2,3,0,0,0,0,0,0,0,0,0,0,0,0,0,0,0,0],"split_type":[0,0,0,0,0,0,0,0,0,0,0,0,0,0,0,0,0,0,0,0,0,0,0,0,0,0,0,0,0,0,0],"sum_hessian":[8.1243994E2,5.770982E2,2.353417E2,1.7470631E2,4.023919E2,1.8070726E2,5.4634457E1,5.723288E1,1.1747343E2,1.5821526E2,2.4417667E2,1.5071634E2,2.999092E1,3.567332E1,1.8961136E1,2.0241379E1,3.6991497E1,4.6233437E1,7.123999E1,1.4496928E2,1.3245967E1,6.8471535E1,1.7570512E2,2.3746346E1,1.2696999E2,1.124278E1,1.874814E1,1.9951113E0,3.3678207E1,1.0486165E1,8.474972E0],"tree_param":{"num_deleted":"0","num_feature":"11","num_nodes":"31","size_leaf_vector":"0"}},{"base_weights":[1.7725956E-2,-5.113643E-1,6.335804E-2,-2.4988295E-1,-1.1603099E0,-4.085517E-2,2.626612E-1,2.8559172E-1,-7.587954E-1,6.551773E-1,-1.4240638E0,3.145864E-1,-2.1007906E-1,1.4448045E-1,6.6027373E-1,-4.8869077E-2,1.0538422E0,-1.5043339E0,-4.7728935E-1,-2.1361347E-1,-1.5106854E0,3.7830633E-1,-1.0234952E0,-5.8795846E-1,-6.1199956E-2,1.8521571E-1,-7.372765E-1,1.1141238E0,3.740795E-1],"categories":[],"categories_nodes":[],"categories_segments":[],"categories_sizes":[],"default_left":[1,1,1,1,1,1,1,1,1,0,1,1,1,1,1,0,0,0,0,0,0,0,0,0,0,0,0,0,0],"id":3,"left_children":[1,3,5,7,9,11,13,15,17,-1,19,21,23,25,27,-1,-1,-1,-1,-1,-1,-1,-1,-1,-1,-1,-1,-1,-1],"loss_changes":[1.9603853E1,1.0650312E1,1.5529209E1,1.3087455E1,9.668371E0,2.9628479E1,1.1965717E1,6.151778E0,4.421649E0,0E0,1.3804703E0,1.3937284E1,1.8729671E1,7.2895045E0,7.185644E0,0E0,0E0,0E0,0E0,0E0,0E0,0E0,0E0,0E0,0E0,0E0,0E0,0E0,0E0],"parents":[2147483647,0,0,1,1,2,2,3,3,4,4,5,5,6,6,7,7,8,8,10,10,11,11,12,12,13,13,14,14],"right_children":[2,4,6,8,10,12,14,16,18,-1,20,22,24,26,28,-1,-1,-1,-1,-1,-1,-1,-1,-1,-1,-1,-1,-1,-1],"split_conditions":[-4.2942446E-3,8.783797E-1,8.5591245E-4,5.5926535E-6,-7.091801E-3,-1.3056208E-3,2.8865715E-3,1.1787997E-3,-6.035534E-1,3.2758866E-2,-1.1983325E-3,1.4213638E-3,-1.4334875E-5,2.483369E-3,4.7510467E-3,-2.443454E-3,5.269211E-2,-7.5216696E-2,-2.3864469E-2,-1.0680674E-2,-7.553428E-2,1.8915316E-2,-5.117476E-2,-2.9397923E-2,-3.059998E-3,9.260786E-3,-3.6863826E-2,5.570619E-2,1.8703975E-2],"split_indices":[4,9,3,0,4,4,4,6,8,0,0,6,4,4,4,0,0,0,0,0,0,0,0,0,0,0,0,0,0],"split_type":[0,0,0,0,0,0,0,0,0,0,0,0,0,0,0,0,0,0,0,0,0,0,0,0,0,0,0,0,0],"sum_hessian":[8.096307E2,6.3473095E1,7.461576E2,4.6230415E1,1.7242678E1,4.904843E2,2.556733E2,2.274114E1,2.3489275E1,1.9989986E0,1.5243678E1,1.5792215E2,3.3256216E2,1.9814334E2,5.752996E1,1.6495953E1,6.2451878E0,5.2476254E0,1.824165E1,1.2494814E0,1.3994197E1,1.5142836E2,6.4937935E0,9.315935E1,2.3940282E2,1.9014882E2,7.9945154E0,2.1129562E1,3.64004E1],"tree_param":{"num_deleted":"0","num_feature":"11","num_nodes":"29","size_leaf_vector":"0"}},{"base_weights":[-1.2730379E-4,-9.139861E-2,2.1949941E-1,-3.7124477E-2,-5.380104E-1,3.6664695E-1,-3.0865354E-2,6.668699E-2,-2.2037102E-1,-8.2906556E-1,3.45326E-1,-1.184068E0,4.0380976E-1,-3.7735108E-1,2.1279258E-1,1.3699065E-1,-3.7532887E-1,9.7598985E-2,-3.5446027E-1,-9.4063735E-1,3.5486117E-1,8.944374E-1,-4.4113183E-1,5.8739537E-1,1.7347057E-1,-7.370327E-1,1.4058702E-1,4.4432327E-2,1.2635573E0],"categories":[],"categories_nodes":[],"categories_segments":[],"categories_sizes":[],"default_left":[1,1,1,1,1,1,1,1,1,1,1,0,1,1,1,0,0,0,0,0,0,0,0,0,0,0,0,0,0],"id":4,"left_children":[1,3,5,7,9,11,13,15,17,19,21,-1,23,25,27,-1,-1,-1,-1,-1,-1,-1,-1,-1,-1,-1,-1,-1,-1],"loss_changes":[1.6167849E1,1.3790937E1,8.734515E0,9.699459E0,1.6140089E1,9.076954E0,7.557928E0,1.0174539E1,7.894392E0,6.499302E0,7.29922E0,0E0,6.091608E0,6.983455E0,9.256614E0,0E0,0E0,0E0,0E0,0E0,0E0,0E0,0E0,0E0,0E0,0E0,0E0,0E0,0E0],"parents":[2147483647,0,0,1,1,2,2,3,3,4,4,5,5,6,6,7,7,8,8,9,9,10,10,12,12,13,13,14,14],"right_children":[2,4,6,8,10,12,14,16,18,20,22,-1,24,26,28,-1,-1,-1,-1,-1,-1,-1,-1,-1,-1,-1,-1,-1,-1],"split_conditions":[8.8226685E-4,1.3829155E-3,2.587869E-4,3.7094325E-4,8.368065E-4,1.34819E1,-1.2940952E-1,8.133482E-4,8.564462E-4,1.6336553E-3,7.7376906E-5,-5.9203397E-2,1.479827E-4,2.0048442E-1,3.614273E-3,6.8495325E-3,-1.8766444E-2,4.879949E-3,-1.7723015E-2,-4.703187E-2,1.7743059E-2,4.4721868E-2,-2.2056593E-2,2.936977E-2,8.673529E-3,-3.6851637E-2,7.029351E-3,2.2216165E-3,6.317787E-2],"split_indices":[3,6,0,2,3,5,7,3,6,6,2,0,2,10,2,0,0,0,0,0,0,0,0,0,0,0,0,0,0],"split_type":[0,0,0,0,0,0,0,0,0,0,0,0,0,0,0,0,0,0,0,0,0,0,0,0,0,0,0,0,0],"sum_hessian":[8.04552E2,5.687696E2,2.3578241E2,5.0810562E2,6.0663994E1,1.4821007E2,8.7572334E1,3.2476068E2,1.8334492E2,4.5675552E1,1.49884405E1,2.746431E0,1.4546364E2,3.5930237E1,5.16421E1,2.807904E2,4.3970295E1,5.4464256E1,1.2888066E2,4.1929646E1,3.7459047E0,8.745183E0,6.243258E0,8.00844E1,6.537924E1,2.0955025E1,1.4975212E1,4.540871E1,6.2333884E0],"tree_param":{"num_deleted":"0","num_feature":"11","num_nodes":"29","size_leaf_vector":"0"}},{"base_weights":[1.7555773E-2,-7.543024E-1,4.028369E-2,3.4588593E-1,-1.1853737E0,-8.102739E-2,1.663847E-1,1.1486007E0,-8.416167E-1,6.626547E-1,-1.3773836E0,-9.210145E-1,-2.8910818E-2,3.8879994E-1,-1.915335E-3,1.3951178E0,2.5361496E-1,-1.1124157E0,-1.9638777E-1,-1.6328322E0,-3.15979E-1,1.291306E0,-1.1614344E0,4.4099727E-1,-1.426097E-1,3.375781E-1,1.2419715E0,-1.356781E-1,4.5049262E-1],"categories":[],"categories_nodes":[],"categories_segments":[],"categories_sizes":[],"default_left":[1,1,1,1,1,1,1,1,1,0,1,1,1,1,1,0,0,0,0,0,0,0,0,0,0,0,0,0,0],"id":5,"left_children":[1,3,5,7,9,11,13,15,17,-1,19,21,23,25,27,-1,-1,-1,-1,-1,-1,-1,-1,-1,-1,-1,-1,-1,-1],"loss_changes":[1.4087599E1,1.1304234E1,1.1935422E1,7.868786E0,6.8492794E0,1.739179E1,1.4316963E1,6.9267416E-1,3.926525E-1,0E0,3.681326E0,1.3845968E1,2.013448E1,6.7803326E0,1.3296296E1,0E0,0E0,0E0,0E0,0E0,0E0,0E0,0E0,0E0,0E0,0E0,0E0,0E0,0E0],"parents":[2147483647,0,0,1,1,2,2,3,3,4,4,5,5,6,6,7,7,8,8,10,10,11,11,12,12,13,13,14,14],"right_children":[2,4,6,8,10,12,14,16,18,-1,20,22,24,26,28,-1,-1,-1,-1,-1,-1,-1,-1,-1,-1,-1,-1,-1,-1],"split_conditions":[-5.9698247E-3,-7.250382E-3,-6.1232336E-17,-3.7940952E-1,-1.0461651E-3,-4.0721647E-3,-6.3765445E-5,9.5898553E-4,-1.4587757E-4,3.3132736E-2,1.1768407E-3,-5.6217387E-3,-1.7232987E-3,1.1305348E-3,9.417247E-4,6.975589E-2,1.26807485E-2,-5.5620786E-2,-9.819388E-3,-8.164161E-2,-1.579895E-2,6.45653E-2,-5.807172E-2,2.2049865E-2,-7.130485E-3,1.6878905E-2,6.2098574E-2,-6.783905E-3,2.252463E-2],"split_indices":[4,4,8,8,0,4,0,3,2,0,6,4,4,3,3,0,0,0,0,0,0,0,0,0,0,0,0,0,0],"split_type":[0,0,0,0,0,0,0,0,0,0,0,0,0,0,0,0,0,0,0,0,0,0,0,0,0,0,0,0,0],"sum_hessian":[8.0031274E2,2.1971022E1,7.7834174E2,6.240785E0,1.5730236E1,3.9688745E2,3.8145428E2,3.7432346E0,2.4975505E0,1.249837E0,1.4480399E1,2.2212122E1,3.7467532E2,1.6374652E2,2.1770776E2,2.4967172E0,1.2465173E0,1.2492032E0,1.2483474E0,1.1237497E1,3.2429013E0,1.7487993E0,2.0463324E1,7.243379E1,3.0224152E2,1.557891E2,7.9574366E0,1.685677E2,4.9140057E1],"tree_param":{"num_deleted":"0","num_feature":"11","num_nodes":"29","size_leaf_vector":"0"}},{"base_weights":[1.7673435E-2,9.395406E-2,-1.5492824E-1,-3.1669293E-2,2.2395979E-1,-2.2039935E-1,4.1900158E-1,-9.371253E-2,3.8378268E-1,-4.7756422E-1,2.9278082E-1,-4.6537882E-1,-5.7912752E-2,6.197515E-1,-4.741794E-1,-1.21700786E-1,8.170119E-1,4.8108345E-1,-7.7483374E-1,3.5919112E-1,-9.179451E-1,4.0293643E-1,-9.6951716E-2,-6.9018704E-1,-1.4061461E-1,5.196171E-1,-1.639009E-1,-6.4644575E-1,8.429116E-1,6.648956E-1,-9.979845E-1],"categories":[],"categories_nodes":[],"categories_segments":[],"categories_sizes":[],"default_left":[1,1,1,1,1,1,1,1,1,1,1,1,1,1,1,0,0,0,0,0,0,0,0,0,0,0,0,0,0,0,0],"id":6,"left_children":[1,3,5,7,9,11,13,15,17,19,21,23,25,27,29,-1,-1,-1,-1,-1,-1,-1,-1,-1,-1,-1,-1,-1,-1,-1,-1],"loss_changes":[1.0525225E1,9.059063E0,9.300435E0,7.3242536E0,1.3296049E1,8.75489E0,4.854847E0,6.390744E0,4.5367093E0,9.440556E0,1.0719332E1,6.315674E0,8.274185E0,6.535921E0,3.7867422E0,0E0,0E0,0E0,0E0,0E0,0E0,0E0,0E0,0E0,0E0,0E0,0E0,0E0,0E0,0E0,0E0],"parents":[2147483647,0,0,1,1,2,2,3,3,4,4,5,5,6,6,7,7,8,8,9,9,10,10,11,11,12,12,13,13,14,14],"right_children":[2,4,6,8,10,12,14,16,18,20,22,24,26,28,30,-1,-1,-1,-1,-1,-1,-1,-1,-1,-1,-1,-1,-1,-1,-1,-1],"split_conditions":[2.9040244E-4,1.2940952E-1,1.6943293E-3,1.0341256E-3,4.9314817E-4,-1.2940952E-1,8.117449E-1,2.7536189E-3,1.1314955E-3,3.9771758E-4,6.554866E-4,2.0048442E-1,5.725986E-4,4.5017138E-4,2.0007025E-3,-6.0850396E-3,4.0850595E-2,2.4054173E-2,-3.874169E-2,1.7959556E-2,-4.5897257E-2,2.0146823E-2,-4.8475857E-3,-3.4509353E-2,-7.0307306E-3,2.5980854E-2,-8.195045E-3,-3.2322288E-2,4.214558E-2,3.324478E-2,-4.9899228E-2],"split_indices":[0,8,0,1,3,7,10,2,3,3,2,10,3,1,1,0,0,0,0,0,0,0,0,0,0,0,0,0,0,0,0],"split_type":[0,0,0,0,0,0,0,0,0,0,0,0,0,0,0,0,0,0,0,0,0,0,0,0,0,0,0,0,0,0,0],"sum_hessian":[7.9730927E2,5.5325574E2,2.440535E2,2.8175494E2,2.715008E2,2.1961667E2,2.4436815E1,2.4581898E2,3.5935963E1,2.3724718E1,2.4777608E2,8.6833916E1,1.3278276E2,2.0202309E1,4.2345085E0,2.3933029E2,6.4886947E0,3.3691338E1,2.2446258E0,8.244306E0,1.5480412E1,1.931496E2,5.4626488E1,5.0648697E1,3.618522E1,1.9984507E1,1.12798256E2,2.7428362E0,1.745947E1,1.2490177E0,2.9854908E0],"tree_param":{"num_deleted":"0","num_feature":"11","num_nodes":"31","size_leaf_vector":"0"}},{"base_weights":[7.5260084E-3,-8.926963E-2,1.8037577E-1,3.319431E-2,-3.5886306E-1,1.3205127E-1,1.0254912E0,2.7164388E-1,-8.705629E-2,-2.0000213E-1,-5.6670994E-1,-1.3072344E0,1.5684797E-1,1.2443552E0,-8.094781E-2,-1.8958862E-1,5.295565E-1,-3.5931885E-1,1.171459E-1,5.1869486E-2,-6.2680084E-1,-7.345409E-1,-5.741183E-2,1.388538E0,1.3428521E-1,3.315174E-2,1.4000194E0,-1.1276064E0,1.0075164E0],"categories":[],"categories_nodes":[],"categories_segments":[],"categories_sizes":[],"default_left":[1,1,1,1,1,1,1,1,1,1,1,0,1,1,1,0,0,0,0,0,0,0,0,0,0,0,0,0,0],"id":7,"left_children":[1,3,5,7,9,11,13,15,17,19,21,-1,23,25,27,-1,-1,-1,-1,-1,-1,-1,-1,-1,-1,-1,-1,-1,-1],"loss_changes":[1.3419541E1,1.6988499E1,1.1622694E1,1.0188455E1,5.1928234E0,9.965539E0,3.8359509E0,1.426647E1,1.31859255E1,9.990067E0,5.8618183E0,0E0,7.30983E0,2.393011E0,5.1077166E0,0E0,0E0,0E0,0E0,0E0,0E0,0E0,0E0,0E0,0E0,0E0,0E0,0E0,0E0],"parents":[2147483647,0,0,1,1,2,2,3,3,4,4,5,5,6,6,7,7,8,8,9,9,10,10,12,12,13,13,14,14],"right_children":[2,4,6,8,10,12,14,16,18,20,22,-1,24,26,28,-1,-1,-1,-1,-1,-1,-1,-1,-1,-1,-1,-1,-1,-1],"split_conditions":[8.477055E-4,4.0571904E-4,8.0851685E1,6.177756E-4,6.890305E-4,1.34819E1,5.6308033E-3,4.93949E-4,-1.2940952E-1,6.527893E1,6.9622696E1,-6.536172E-2,8.5031416E-4,8.564432E-4,-4.330127E-1,-9.479431E-3,2.6477827E-2,-1.7965943E-2,5.8572954E-3,2.5934742E-3,-3.1340044E-2,-3.6727045E-2,-2.8705916E-3,6.94269E-2,6.7142607E-3,1.6575869E-3,7.000097E-2,-5.638032E-2,5.037582E-2],"split_indices":[3,1,5,3,3,5,2,3,8,5,5,0,3,3,7,0,0,0,0,0,0,0,0,0,0,0,0,0,0],"split_type":[0,0,0,0,0,0,0,0,0,0,0,0,0,0,0,0,0,0,0,0,0,0,0,0,0,0,0,0,0],"sum_hessian":[8.0010913E2,5.1320087E2,2.8690826E2,3.5349927E2,1.5970163E2,2.7248364E2,1.4424619E1,1.18084984E2,2.3541428E2,9.162972E1,6.8071915E1,3.7390356E0,2.687446E2,1.19384365E1,2.4861822E0,4.2444744E1,7.5640236E1,1.00567764E2,1.3484651E2,5.8176075E1,3.3453644E1,5.086719E1,1.7204725E1,3.7453735E0,2.6499924E2,1.4977334E0,1.0440703E1,1.2490982E0,1.237084E0],"tree_param":{"num_deleted":"0","num_feature":"11","num_nodes":"29","size_leaf_vector":"0"}},{"base_weights":[8.023281E-3,-8.0061567E-1,3.0648584E-2,-1.2044244E0,4.083797E-1,-4.2163353E-2,2.0847727E-1,1.2307014E-1,-1.5973258E0,9.9888283E-1,-4.4361E-1,1.9206777E-1,-1.7168961E-1,8.46166E-2,6.175058E-1,7.735947E-1,-4.1518527E-1,-3.4108326E-1,-1.7308246E0,2.420856E-1,1.2547877E0,2.745361E-1,-1.1232731E0,-5.3541833E-1,-2.283235E-2,5.7698524E-1,-6.2458604E-3,2.8296987E-2,8.888315E-1],"categories":[],"categories_nodes":[],"categories_segments":[],"categories_sizes":[],"default_left":[1,1,1,1,1,1,1,1,1,1,0,1,1,1,1,0,0,0,0,0,0,0,0,0,0,0,0,0,0],"id":8,"left_children":[1,3,5,7,9,11,13,15,17,19,-1,21,23,25,27,-1,-1,-1,-1,-1,-1,-1,-1,-1,-1,-1,-1,-1,-1],"loss_changes":[1.4734992E1,1.1193833E1,1.014864E1,8.899483E0,3.5801291E0,1.6915194E1,1.1481916E1,1.9805888E0,1.5808868E0,4.69038E-1,0E0,2.1852655E1,1.9416622E1,7.873357E0,8.409182E0,0E0,0E0,0E0,0E0,0E0,0E0,0E0,0E0,0E0,0E0,0E0,0E0,0E0,0E0],"parents":[2147483647,0,0,1,1,2,2,3,3,4,4,5,5,6,6,7,7,8,8,9,9,11,11,12,12,13,13,14,14],"right_children":[2,4,6,8,10,12,14,16,18,20,-1,22,24,26,28,-1,-1,-1,-1,-1,-1,-1,-1,-1,-1,-1,-1,-1,-1],"split_conditions":[-5.9698247E-3,1.1743953E-3,8.8225066E-4,-6.709257E-4,1.2940952E-1,-1.3002283E-3,2.8865715E-3,6.684634E-4,-9.159756E-1,-7.70209E-3,-2.2180501E-2,1.4347419E-3,-1.4334875E-5,-2.1694186E-1,9.460653E-4,3.8679734E-2,-2.0759264E-2,-1.7054163E-2,-8.654123E-2,1.210428E-2,6.273939E-2,1.3726805E-2,-5.6163657E-2,-2.6770918E-2,-1.1416175E-3,2.8849263E-2,-3.1229304E-4,1.4148493E-3,4.4441577E-2],"split_indices":[4,6,3,0,8,4,4,3,8,4,0,6,4,9,3,0,0,0,0,0,0,0,0,0,0,0,0,0,0],"split_type":[0,0,0,0,0,0,0,0,0,0,0,0,0,0,0,0,0,0,0,0,0,0,0,0,0,0,0,0,0],"sum_hessian":[8.0303894E2,2.0921156E1,7.821178E2,1.5685818E1,5.2353377E0,5.5545123E2,2.2666653E2,3.7391453E0,1.1946672E1,2.9903517E0,2.244986E0,1.9761243E2,3.578388E2,1.7490826E2,5.1758278E1,1.495042E0,2.2441032E0,1.489089E0,1.0457583E1,1.2473915E0,1.7429602E0,1.8669824E2,1.0914194E1,1.0316385E2,2.5467496E2,2.6415726E1,1.4849254E2,1.6667519E1,3.509076E1],"tree_param":{"num_deleted":"0","num_feature":"11","num_nodes":"29","size_leaf_vector":"0"}},{"base_weights":[8.724134E-3,-7.719468E-1,3.4923166E-2,-1.2266731E0,2.7369723E-1,-3.7564795E-2,2.0968366E-1,3.858888E-2,-1.525859E0,1.1607499E0,-7.172472E-1,1.3237547E-2,-4.4731453E-1,9.8236404E-2,6.293168E-1,1.0934912E0,-7.062488E-1,-4.8082533E-1,-1.6274841E0,1.4071065E0,2.3489107E-1,-1.3364581E0,3.7428838E-1,2.1489446E-1,-1.303779E-1,-8.0916077E-1,3.3219972E-1,-1.2592089E0,1.3380574E-1,1.3103753E0,3.5145915E-1],"categories":[],"categories_nodes":[],"categories_segments":[],"categories_sizes":[],"default_left":[1,1,1,1,1,1,1,1,1,1,1,1,1,1,1,0,0,0,0,0,0,0,0,0,0,0,0,0,0,0,0],"id":9,"left_children":[1,3,5,7,9,11,13,15,17,19,21,23,25,27,29,-1,-1,-1,-1,-1,-1,-1,-1,-1,-1,-1,-1,-1,-1,-1,-1],"loss_changes":[1.6430798E1,1.2738804E1,9.850275E0,7.009733E0,8.500585E0,1.1455092E1,1.0598073E1,4.2977467E0,7.972145E-1,8.064995E-1,3.7029197E0,1.4227974E1,1.7389854E1,8.92174E0,8.556139E0,0E0,0E0,0E0,0E0,0E0,0E0,0E0,0E0,0E0,0E0,0E0,0E0,0E0,0E0,0E0,0E0],"parents":[2147483647,0,0,1,1,2,2,3,3,4,4,5,5,6,6,7,7,8,8,9,9,10,10,11,11,12,12,13,13,14,14],"right_children":[2,4,6,8,10,12,14,16,18,20,22,24,26,28,30,-1,-1,-1,-1,-1,-1,-1,-1,-1,-1,-1,-1,-1,-1,-1,-1],"split_conditions":[-5.687834E-3,1.1711768E-3,8.8226685E-4,-6.229237E-4,1.2940952E-1,1.382849E-3,3.344853E-3,-2.1694186E-1,-9.159756E-1,5.70036E-4,-6.297754E-3,-9.586357E-4,8.2250335E-4,1.34819E1,4.7510467E-3,5.4674562E-2,-3.531244E-2,-2.4041267E-2,-8.1374206E-2,7.0355326E-2,1.1744554E-2,-6.682291E-2,1.8714419E-2,1.07447235E-2,-6.5188953E-3,-4.045804E-2,1.6609987E-2,-6.2960446E-2,6.690287E-3,6.551877E-2,1.7572958E-2],"split_indices":[4,6,3,0,8,6,4,9,8,0,4,4,3,5,4,0,0,0,0,0,0,0,0,0,0,0,0,0,0,0,0],"split_type":[0,0,0,0,0,0,0,0,0,0,0,0,0,0,0,0,0,0,0,0,0,0,0,0,0,0,0,0,0,0,0],"sum_hessian":[8.01033E2,2.5085258E1,7.7594775E2,1.736186E1,7.7233977E0,5.4901135E2,2.269364E2,3.486866E0,1.3874994E1,3.9849114E0,3.738486E0,4.8931223E2,5.9699112E1,1.8028891E2,4.664749E1,1.2493447E0,2.2375214E0,1.7376552E0,1.213734E1,2.7368839E0,1.2480276E0,2.2421603E0,1.4963257E0,2.0332214E2,2.8599008E2,4.074669E1,1.8952421E1,3.725099E0,1.7656381E2,1.2439925E1,3.4207565E1],"tree_param":{"num_deleted":"0","num_feature":"11","num_nodes":"31","size_leaf_vector":"0"}},{"base_weights":[6.3800868E-3,-6.896093E-1,2.8727459E-2,-1.1191237E0,3.6862612E-1,2.660316E-1,-2.5051098E-2,-1.915139E-2,-1.5658574E0,1.2852905E0,-7.420362E-1,4.3618497E-1,-1.8482937E-1,-3.412734E-3,-1.1535273E0,1.0695003E0,-5.067859E-1,2.4815033E-1,-1.2392116E0,1.4444152E-1,9.590988E-1,-4.3807298E-2,-1.1188562E0,-6.9247514E-2,2.4628174E-1,-1.5495282E0,7.565188E-1],"categories":[],"categories_nodes":[],"categories_segments":[],"categories_sizes":[],"default_left":[1,1,1,1,1,1,1,1,0,0,1,1,1,1,1,0,0,0,0,0,0,0,0,0,0,0,0],"id":10,"left_children":[1,3,5,7,9,11,13,15,-1,-1,17,19,21,23,25,-1,-1,-1,-1,-1,-1,-1,-1,-1,-1,-1,-1],"loss_changes":[1.2478423E1,1.1757301E1,9.9233465E0,8.815817E0,9.055851E0,1.1100789E1,1.5487219E1,3.8395867E0,0E0,0E0,2.3910296E0,1.5817135E1,5.227806E0,1.0266064E1,1.019798E1,0E0,0E0,0E0,0E0,0E0,0E0,0E0,0E0,0E0,0E0,0E0,0E0],"parents":[2147483647,0,0,1,1,2,2,3,3,4,4,5,5,6,6,7,7,10,10,11,11,12,12,13,13,14,14],"right_children":[2,4,6,8,10,12,14,16,-1,-1,18,20,22,24,26,-1,-1,-1,-1,-1,-1,-1,-1,-1,-1,-1,-1],"split_conditions":[-5.8634477E-3,1.1743953E-3,-2.1694186E-1,-4.3939147E-4,1.2940952E-1,3.9343417E-4,6.956499E-3,6.483054E-4,-7.829287E-2,6.426453E-2,8.117449E-1,1.204537E-3,1.0983724E-3,2.0733378E-3,1.0296842E-3,5.347502E-2,-2.5339296E-2,1.2407517E-2,-6.1960578E-2,7.222076E-3,4.7954943E-2,-2.190365E-3,-5.594281E-2,-3.4623758E-3,1.2314088E-2,-7.747641E-2,3.782594E-2],"split_indices":[4,6,9,0,8,0,4,3,0,0,10,6,3,4,3,0,0,0,0,0,0,0,0,0,0,0,0],"split_type":[0,0,0,0,0,0,0,0,0,0,0,0,0,0,0,0,0,0,0,0,0,0,0,0,0,0,0],"sum_hessian":[8.000149E2,2.395947E1,7.760554E2,1.7001429E1,6.9580426E0,1.4264981E2,6.3340564E2,5.2117186E0,1.178971E1,3.7257972E0,3.2322454E0,1.0358843E2,3.9061375E1,6.2247284E2,1.09328E1,1.2431422E0,3.968576E0,1.2478589E0,1.9843866E0,6.731074E1,3.62777E1,3.4846977E1,4.214396E0,4.9316653E2,1.2930629E2,9.211724E0,1.7210754E0],"tree_param":{"num_deleted":"0","num_feature":"11","num_nodes":"27","size_leaf_vector":"0"}},{"base_weights":[1.1303312E-2,-6.81357E-2,2.021063E-1,1.3923223E0,-8.172414E-2,1.4790739E-1,9.187088E-1,1.2037998E-2,-2.4144137E-1,-1.1753713E0,1.745727E-1,1.2669383E0,-1.3452159E-1,-1.4548212E-1,1.3601449E-1,1.1261701E-1,-3.617585E-1,3.816717E-1,-2.4989193E-2,-4.8221853E-1,1.5522214E0,5.1368994E-1,-1.1441867E0],"categories":[],"categories_nodes":[],"categories_segments":[],"categories_sizes":[],"default_left":[1,1,1,0,1,1,1,1,1,0,1,1,1,0,0,0,0,0,0,0,0,0,0],"id":11,"left_children":[1,3,5,-1,7,9,11,13,15,-1,17,19,21,-1,-1,-1,-1,-1,-1,-1,-1,-1,-1],"loss_changes":[1.2077715E1,1.1280848E1,8.960901E0,0E0,8.366108E0,7.930634E0,6.14032E0,6.910305E0,8.842722E0,0E0,8.915384E0,6.900549E0,3.826427E0,0E0,0E0,0E0,0E0,0E0,0E0,0E0,0E0,0E0,0E0],"parents":[2147483647,0,0,1,1,2,2,4,4,5,5,6,6,7,7,8,8,10,10,11,11,12,12],"right_children":[2,4,6,-1,8,10,12,14,16,-1,18,20,22,-1,-1,-1,-1,-1,-1,-1,-1,-1,-1],"split_conditions":[8.8140415E-4,3.4377383E-4,7.844966E1,6.961612E-2,3.7094325E-4,1.34819E1,1.7018714E-3,-1.2940952E-1,8.564462E-4,-5.8768567E-2,1.479827E-4,9.5192646E-4,8.943058E1,-7.274106E-3,6.8007247E-3,5.6308503E-3,-1.8087925E-2,1.9083586E-2,-1.2494597E-3,-2.4110926E-2,7.7611074E-2,2.5684496E-2,-5.720934E-2],"split_indices":[3,3,5,0,2,5,6,8,6,0,2,6,5,0,0,0,0,0,0,0,0,0,0],"split_type":[0,0,0,0,0,0,0,0,0,0,0,0,0,0,0,0,0,0,0,0,0,0,0],"sum_hessian":[7.949217E2,5.617043E2,2.3321736E2,4.2427096E0,5.574616E2,2.1794025E2,1.5277107E1,3.518389E2,2.0562271E2,3.4540236E0,2.1448624E2,1.1328619E1,3.9484882E0,1.5488019E2,1.9695871E2,5.2168877E1,1.5345383E2,1.0480764E2,1.0967859E2,1.4917754E0,9.8368435E0,2.7038357E0,1.2446526E0],"tree_param":{"num_deleted":"0","num_feature":"11","num_nodes":"23","size_leaf_vector":"0"}},{"base_weights":[-3.5013151E-3,-7.542943E-2,1.7193766E-1,2.6915025E-2,-2.7850926E-1,5.15087E-2,5.934642E-1,9.288479E-2,-3.5020262E-1,4.4366717E-2,-4.4998154E-1,4.0549433E-1,-6.486847E-2,1.1055716E0,2.836943E-1,1.4428669E-1,-4.506109E-1,-7.12472E-1,5.5797386E-1,-4.216088E-1,2.4339087E-1,-6.3528633E-1,-1.4530355E-1,-9.8069406E-1,6.1001635E-1,1.7064244E-1,-3.034417E-1,1.340299E0,5.177095E-1,-7.9811203E-1,6.5010905E-1],"categories":[],"categories_nodes":[],"categories_segments":[],"categories_sizes":[],"default_left":[1,1,1,1,1,1,1,1,1,1,1,1,1,1,1,0,0,0,0,0,0,0,0,0,0,0,0,0,0,0,0],"id":12,"left_children":[1,3,5,7,9,11,13,15,17,19,21,23,25,27,29,-1,-1,-1,-1,-1,-1,-1,-1,-1,-1,-1,-1,-1,-1,-1,-1],"loss_changes":[1.0125815E1,1.1835044E1,1.1814273E1,9.468658E0,1.058217E1,7.547739E0,7.896372E0,9.105611E0,1.904582E1,6.3240137E0,6.9476166E0,1.344425E1,7.8204913E0,1.950119E0,1.3834709E1,0E0,0E0,0E0,0E0,0E0,0E0,0E0,0E0,0E0,0E0,0E0,0E0,0E0,0E0,0E0,0E0],"parents":[2147483647,0,0,1,1,2,2,3,3,4,4,5,5,6,6,7,7,8,8,9,9,10,10,11,11,12,12,13,13,14,14],"right_children":[2,4,6,8,10,12,14,16,18,20,22,24,26,28,30,-1,-1,-1,-1,-1,-1,-1,-1,-1,-1,-1,-1,-1,-1,-1,-1],"split_conditions":[8.8226685E-4,3.675014E-4,2.8865715E-3,1.3394123E-3,9.1047515E-4,9.449848E-4,4.7510467E-3,4.008827E-3,8.273666E-4,5.8671716E-4,1.2180911E-3,-4.0443437E-3,5.0183098E1,1.5558833E-3,5.1082773E-3,7.214335E-3,-2.2530546E-2,-3.5623603E-2,2.7898693E-2,-2.108044E-2,1.2169544E-2,-3.1764317E-2,-7.2651776E-3,-4.9034704E-2,3.0500818E-2,8.532122E-3,-1.5172086E-2,6.7014955E-2,2.5885476E-2,-3.9905604E-2,3.2505453E-2],"split_indices":[3,1,4,6,6,3,4,4,3,1,6,4,5,2,4,0,0,0,0,0,0,0,0,0,0,0,0,0,0,0,0],"split_type":[0,0,0,0,0,0,0,0,0,0,0,0,0,0,0,0,0,0,0,0,0,0,0,0,0,0,0,0,0,0,0],"sum_hessian":[8.0039874E2,5.6806726E2,2.323315E2,3.7829068E2,1.8977655E2,1.815775E2,5.075399E1,3.2260977E2,5.568092E1,6.608402E1,1.2369253E2,4.431124E1,1.3726627E2,1.8161175E1,3.2592815E1,2.9540585E2,2.7203924E1,3.995747E1,1.5723448E1,1.9443216E1,4.664081E1,7.6238976E1,4.7453556E1,5.209278E0,3.9101963E1,6.921976E1,6.804651E1,1.2064133E1,6.097041E0,7.9482274E0,2.4644588E1],"tree_param":{"num_deleted":"0","num_feature":"11","num_nodes":"31","size_leaf_vector":"0"}},{"base_weights":[-1.0304201E-3,-6.6508144E-1,1.933116E-2,2.9518762E-1,-1.0897744E0,1.1516934E-1,-9.210087E-2,1.0163782E0,-9.7986734E-1,7.5839126E-1,-1.3184423E0,-1.2761694E-1,2.1625724E-1,3.0254462E-1,-1.4486095E-1,-2.5402918E-1,1.4275448E0,-1.5686477E0,-6.1134595E-1,5.635104E-1,-2.9314584E-1,1.4942428E-1,6.7174333E-1,-9.025306E-2,7.5414157E-1,-3.0266947E-1,8.6171456E-2],"categories":[],"categories_nodes":[],"categories_segments":[],"categories_sizes":[],"default_left":[1,1,1,1,1,1,1,1,0,0,1,1,1,1,1,0,0,0,0,0,0,0,0,0,0,0,0],"id":13,"left_children":[1,3,5,7,9,11,13,15,-1,-1,17,19,21,23,25,-1,-1,-1,-1,-1,-1,-1,-1,-1,-1,-1,-1],"loss_changes":[1.0926611E1,1.0126364E1,8.384586E0,8.498727E0,8.134739E0,1.0384678E1,7.604538E0,3.341241E0,0E0,0E0,1.7636032E0,1.4429199E1,8.980864E0,7.721306E0,1.1728484E1,0E0,0E0,0E0,0E0,0E0,0E0,0E0,0E0,0E0,0E0,0E0,0E0],"parents":[2147483647,0,0,1,1,2,2,3,3,4,4,5,5,6,6,7,7,10,10,11,11,12,12,13,13,14,14],"right_children":[2,4,6,8,10,12,14,16,-1,-1,18,20,22,24,26,-1,-1,-1,-1,-1,-1,-1,-1,-1,-1,-1,-1],"split_conditions":[-5.907499E-3,-7.180018E-3,1.0893599E-4,1.2940952E-1,-9.799812E-4,-6.035534E-1,7.482838E-4,-7.7923657E-3,-4.8993368E-2,3.7919562E-2,1.1110874E-3,5.8746367E-4,1.0113996E-3,6.6415087E-4,8.5787225E-4,-1.2701459E-2,7.137724E-2,-7.843239E-2,-3.0567298E-2,2.8175522E-2,-1.4657292E-2,7.4712145E-3,3.358717E-2,-4.512653E-3,3.770708E-2,-1.5133473E-2,4.308573E-3],"split_indices":[4,4,1,7,0,8,6,4,0,0,6,3,3,3,3,0,0,0,0,0,0,0,0,0,0,0,0],"split_type":[0,0,0,0,0,0,0,0,0,0,0,0,0,0,0,0,0,0,0,0,0,0,0,0,0,0,0],"sum_hessian":[8.061631E2,2.3041706E1,7.8312134E2,7.1591525E0,1.5882553E1,4.210015E2,3.6211987E2,4.7023225E0,2.4568305E0,1.4936721E0,1.4388882E1,1.236837E2,2.9731778E2,4.2144516E1,3.1997537E2,1.2432253E0,3.459097E0,9.728148E0,4.6607327E0,2.3434423E1,1.00249275E2,2.6043283E2,3.6884956E1,2.2967552E1,1.9176964E1,1.8993124E2,1.3004411E2],"tree_param":{"num_deleted":"0","num_feature":"11","num_nodes":"27","size_leaf_vector":"0"}},{"base_weights":[1.1899681E-2,8.2105264E-2,-1.5796839E-1,3.2925603E-1,2.6271688E-2,-4.5116663E-1,-5.3194184E-2,6.832551E-1,5.2212007E-2,4.879777E-2,-1.2004279E0,-7.142855E-1,-1.0327768E-2,-7.6982194E-1,2.1628309E-2,-6.5919E-1,7.7540344E-1,-6.369693E-1,2.6052606E-1,-6.2876665E-3,4.6916857E-1,-1.6316005E0,1.4999902E-1,-4.5026714E-1,-1.0747288E0,-4.7806668E-1,5.0651073E-1,-1.3372672E0,1.5089834E-1,4.0525943E-1,-1.2832497E-1],"categories":[],"categories_nodes":[],"categories_segments":[],"categories_sizes":[],"default_left":[1,1,1,1,1,1,1,1,1,1,1,1,1,1,1,0,0,0,0,0,0,0,0,0,0,0,0,0,0,0,0],"id":14,"left_children":[1,3,5,7,9,11,13,15,17,19,21,23,25,27,29,-1,-1,-1,-1,-1,-1,-1,-1,-1,-1,-1,-1,-1,-1,-1,-1],"loss_changes":[9.591253E0,7.8424673E0,7.2016873E0,1.0238359E1,1.291309E1,7.1599646E0,9.369186E0,6.1902733E0,8.758339E0,1.0603075E1,5.15174E0,3.1970901E0,6.070728E0,8.83124E0,9.193347E0,0E0,0E0,0E0,0E0,0E0,0E0,0E0,0E0,0E0,0E0,0E0,0E0,0E0,0E0,0E0,0E0],"parents":[2147483647,0,0,1,1,2,2,3,3,4,4,5,5,6,6,7,7,8,8,9,9,10,10,11,11,12,12,13,13,14,14],"right_children":[2,4,6,8,10,12,14,16,18,20,22,24,26,28,30,-1,-1,-1,-1,-1,-1,-1,-1,-1,-1,-1,-1,-1,-1,-1,-1],"split_conditions":[3.0776553E-4,-2.1694186E-1,-6.035534E-1,-4.2E-4,6.9175335E-3,2.0048442E-1,-4.030926E-3,4.494845E-4,-2.2044722E-5,2.9484457E-3,9.3584706E-4,1.2635575E-3,8.5579697E-4,-1.2940952E-1,-1.2847609E-3,-3.2959502E-2,3.8770173E-2,-3.1848468E-2,1.3026304E-2,-3.1438333E-4,2.3458429E-2,-8.158003E-2,7.4999514E-3,-2.2513358E-2,-5.3736445E-2,-2.3903335E-2,2.5325537E-2,-6.686336E-2,7.544917E-3,2.0262972E-2,-6.4162486E-3],"split_indices":[0,9,7,2,4,10,4,3,2,4,3,1,3,8,4,0,0,0,0,0,0,0,0,0,0,0,0,0,0,0,0],"split_type":[0,0,0,0,0,0,0,0,0,0,0,0,0,0,0,0,0,0,0,0,0,0,0,0,0,0,0,0,0,0,0],"sum_hessian":[8.021642E2,5.679501E2,2.3421413E2,1.037587E2,4.6419138E2,6.079116E1,1.7342296E2,4.4909004E1,5.8849693E1,4.5676395E2,7.42741E0,3.7680756E1,2.3110405E1,1.5517008E1,1.5790596E2,2.4893813E0,4.241962E1,1.3181754E1,4.5667942E1,4.047151E2,5.2048866E1,5.47205E0,1.9553602E0,2.3047834E1,1.4632921E1,1.2170824E1,1.093958E1,9.320386E0,6.196622E0,4.3897854E1,1.140081E2],"tree_param":{"num_deleted":"0","num_feature":"11","num_nodes":"31","size_leaf_vector":"0"}},{"base_weights":[2.614108E-3,-5.2337567E-3,1.4131411E0,1.4308664E0,-1.2884121E-2,7.015845E-1,-2.697863E-2,-4.7504714E-1,1.0865227E0,-3.8053653E-1,2.0195884E-3],"categories":[],"categories_nodes":[],"categories_segments":[],"categories_sizes":[],"default_left":[1,1,0,0,1,1,1,0,0,0,0],"id":15,"left_children":[1,3,-1,-1,5,7,9,-1,-1,-1,-1],"loss_changes":[8.863737E0,8.770737E0,0E0,0E0,8.008507E0,7.484846E0,7.9876227E0,0E0,0E0,0E0,0E0],"parents":[2147483647,0,0,1,1,4,4,5,5,6,6],"right_children":[2,4,-1,-1,6,8,10,-1,-1,-1,-1],"split_conditions":[1.1688302E-2,3.4377383E-4,7.065706E-2,7.154332E-2,-6.078576E-1,1.1676451E-3,-4.3129204E-3,-2.3752358E-2,5.4326136E-2,-1.9026827E-2,1.0097942E-4],"split_indices":[4,3,0,0,9,6,4,0,0,0,0],"split_type":[0,0,0,0,0,0,0,0,0,0,0],"sum_hessian":[7.9905804E2,7.956276E2,3.430409E0,3.2302155E0,7.923974E2,1.43857975E1,7.780116E2,3.4884987E0,1.0897299E1,5.8055305E1,7.199563E2],"tree_param":{"num_deleted":"0","num_feature":"11","num_nodes":"11","size_leaf_vector":"0"}},{"base_weights":[2.6074154E-3,-5.713903E-1,2.1919806E-2,2.6951694E-1,-9.9730897E-1,1.2737234E0,1.3053188E-2,-3.4955934E-1,9.265963E-1,-1.3296171E0,-1.1592058E-1,2.3975804E-1,1.5212119E0,5.8152666E-3,1.3552917E0,5.736693E-1,-9.009378E-1,1.2381383E-1,1.3171378E0,-1.4449748E0,-1.4446157E-1,5.298294E-1,-7.319542E-1,8.171233E-2,-1.2974006E-1],"categories":[],"categories_nodes":[],"categories_segments":[],"categories_sizes":[],"default_left":[1,1,1,1,1,1,1,1,1,1,1,0,0,1,0,0,0,0,0,0,0,0,0,0,0],"id":16,"left_children":[1,3,5,7,9,11,13,15,17,19,21,-1,-1,23,-1,-1,-1,-1,-1,-1,-1,-1,-1,-1,-1],"loss_changes":[8.96622E0,9.69843E0,8.667251E0,4.2448816E0,5.026886E0,1.0407381E0,7.5493402E0,3.4128752E0,1.3888135E0,1.5344429E0,2.7502735E0,0E0,0E0,7.9811444E0,0E0,0E0,0E0,0E0,0E0,0E0,0E0,0E0,0E0,0E0,0E0],"parents":[2147483647,0,0,1,1,2,2,3,3,4,4,5,5,6,6,7,7,8,8,9,9,10,10,13,13],"right_children":[2,4,6,8,10,12,14,16,18,20,22,-1,-1,24,-1,-1,-1,-1,-1,-1,-1,-1,-1,-1,-1],"split_conditions":[-5.687834E-3,-4.3555867E-4,-5.5519463E-3,1.10821E-3,1.1768407E-3,-1.1146732E-3,1.1688302E-2,-2.1694186E-1,-5.6174487E-1,-5.830636E-3,-7.094263E-3,1.1987902E-2,7.606059E-2,3.6376258E-4,6.776459E-2,2.8683467E-2,-4.5046892E-2,6.1906916E-3,6.58569E-2,-7.224874E-2,-7.2230785E-3,2.6491469E-2,-3.659771E-2,4.0856167E-3,-6.487003E-3],"split_indices":[4,0,4,6,6,2,4,9,10,4,4,0,0,1,0,0,0,0,0,0,0,0,0,0,0],"split_type":[0,0,0,0,0,0,0,0,0,0,0,0,0,0,0,0,0,0,0,0,0,0,0,0,0],"sum_hessian":[8.067113E2,2.5328146E1,7.813831E2,8.639018E0,1.6689127E1,4.4923472E0,7.768908E2,4.689115E0,3.949903E0,1.1750362E1,4.9387655E0,1.2478409E0,3.2445064E0,7.737229E2,3.1679103E0,1.7382164E0,2.9508986E0,1.7237202E0,2.226183E0,1.0508304E1,1.2420586E0,2.4795456E0,2.45922E0,4.962635E2,2.7745938E2],"tree_param":{"num_deleted":"0","num_feature":"11","num_nodes":"25","size_leaf_vector":"0"}},{"base_weights":[-9.101273E-3,-1.8300056E-2,1.288656E0,-5.398487E-1,-9.378868E-6,2.1029161E-1,-1.134364E0,1.2848232E0,-1.0131438E-2,1.0357336E0,-4.463445E-1,6.35561E-1,-1.3391147E0,2.3308319E-1,1.5127046E0,-4.8419765E-1,9.980065E-3],"categories":[],"categories_nodes":[],"categories_segments":[],"categories_sizes":[],"default_left":[1,1,0,1,1,1,1,1,1,0,0,0,0,0,0,0,0],"id":17,"left_children":[1,3,-1,5,7,9,11,13,15,-1,-1,-1,-1,-1,-1,-1,-1],"loss_changes":[9.51539E0,7.5409117E0,0E0,1.2183105E1,9.958219E0,7.33796E0,6.322485E0,1.0819063E0,7.2482123E0,0E0,0E0,0E0,0E0,0E0,0E0,0E0,0E0],"parents":[2147483647,0,0,1,1,3,3,4,4,5,5,6,6,7,7,8,8],"right_children":[2,4,-1,6,8,10,12,14,16,-1,-1,-1,-1,-1,-1,-1,-1],"split_conditions":[1.1205124E-2,-5.687834E-3,6.44328E-2,1.2940952E-1,-5.527073E-3,-6.966263E-3,-1.2262888E-3,-1.1146732E-3,-4.2942446E-3,5.178668E-2,-2.2317225E-2,3.177805E-2,-6.695574E-2,1.165416E-2,7.563523E-2,-2.4209883E-2,4.990033E-4],"split_indices":[4,4,0,7,4,4,0,2,4,0,0,0,0,0,0,0,0],"split_type":[0,0,0,0,0,0,0,0,0,0,0,0,0,0,0,0,0],"sum_hessian":[7.941061E2,7.8949585E2,4.610218E0,2.578333E1,7.637125E2,1.1685377E1,1.4097954E1,4.9852266E0,7.587273E2,4.9214296E0,6.7639475E0,1.2436246E0,1.2854329E1,1.2480292E0,3.7371974E0,2.9938744E1,7.287885E2],"tree_param":{"num_deleted":"0","num_feature":"11","num_nodes":"17","size_leaf_vector":"0"}},{"base_weights":[-5.86817E-3,-1.4507729E-1,8.300898E-2,2.5984913E-1,-2.8856376E-1,-3.2769207E-2,2.8266177E-1,6.473859E-1,1.2755351E-2,-6.490183E-1,-1.4942181E-1,6.468365E-2,-3.017403E-1,4.9982077E-1,1.0782648E-1,9.632047E-1,-4.2248383E-2,-1.0227759E0,1.5032005E-1,1.0972604E0,-7.2881204E-1,-2.425107E-1,4.8992333E-1,1.406759E-1,-3.686832E-1,1.7746243E-1,-4.3428108E-1,8.907353E-1,9.577759E-2,4.135673E-2,9.548522E-1],"categories":[],"categories_nodes":[],"categories_segments":[],"categories_sizes":[],"default_left":[1,1,1,1,1,1,1,1,1,1,1,1,1,1,1,0,0,0,0,0,0,0,0,0,0,0,0,0,0,0,0],"id":18,"left_children":[1,3,5,7,9,11,13,15,17,19,21,23,25,27,29,-1,-1,-1,-1,-1,-1,-1,-1,-1,-1,-1,-1,-1,-1,-1,-1],"loss_changes":[1.0085739E1,1.8529686E1,1.1510836E1,8.000019E0,1.1689213E1,8.298182E0,6.884061E0,7.1282043E0,7.5739493E0,9.87784E0,1.0287011E1,7.713944E0,5.423345E0,1.274435E1,5.7318835E0,0E0,0E0,0E0,0E0,0E0,0E0,0E0,0E0,0E0,0E0,0E0,0E0,0E0,0E0,0E0,0E0],"parents":[2147483647,0,0,1,1,2,2,3,3,4,4,5,5,6,6,7,7,8,8,9,9,10,10,11,11,12,12,13,13,14,14],"right_children":[2,4,6,8,10,12,14,16,18,20,22,24,26,28,30,-1,-1,-1,-1,-1,-1,-1,-1,-1,-1,-1,-1,-1,-1,-1,-1],"split_conditions":[-3.7940952E-1,6.343364E-4,8.4125355E-4,4.53301E1,7.316895E-4,4.0571904E-4,5.0562263E1,5.897279E-4,4.430456E-4,6.740949E-4,7.394496E1,1.3526437E-3,7.465856E-4,1.2940952E-1,8.39319E1,4.8160236E-2,-2.112419E-3,-5.1138796E-2,7.5160027E-3,5.4863017E-2,-3.6440603E-2,-1.2125536E-2,2.4496166E-2,7.033795E-3,-1.843416E-2,8.873122E-3,-2.1714054E-2,4.4536766E-2,4.78888E-3,2.0678367E-3,4.7742613E-2],"split_indices":[8,3,3,5,3,1,5,3,3,6,5,6,6,7,5,0,0,0,0,0,0,0,0,0,0,0,0,0,0,0,0],"split_type":[0,0,0,0,0,0,0,0,0,0,0,0,0,0,0,0,0,0,0,0,0,0,0,0,0,0,0,0,0,0,0],"sum_hessian":[8.131999E2,3.166288E2,4.9657104E2,8.2630424E1,2.339984E2,3.148349E2,1.8173616E2,3.1541458E1,5.108897E1,6.415001E1,1.6984839E2,2.3165999E2,8.3174904E1,8.0227974E1,1.0150818E2,2.1362013E1,1.0179445E1,5.2364235E0,4.5852547E1,2.245971E0,6.190404E1,1.4880327E2,2.1045122E1,1.9767282E2,3.3987164E1,1.7947302E1,6.52276E1,4.016424E1,4.0063732E1,9.509453E1,6.41365E0],"tree_param":{"num_deleted":"0","num_feature":"11","num_nodes":"31","size_leaf_vector":"0"}},{"base_weights":[1.2229543E-4,-6.021609E-2,1.4948215E-1,1.46919E-1,-1.5335187E-1,-1.1515929E0,1.7432584E-1,-2.3721807E-1,3.3643478E-1,-3.830268E-1,-3.3619127E-3,3.9223403E-1,2.273209E-2,-7.573746E-2,-1.2984021E0,1.2449944E0,2.839944E-1,-5.6999747E-2,-5.3398114E-1,-5.004594E-1,5.5884168E-2,5.2635247E-1,-2.1498212E-1,-1.2751648E-1,4.5051295E-1],"categories":[],"categories_nodes":[],"categories_segments":[],"categories_sizes":[],"default_left":[1,1,1,1,1,0,1,1,1,1,1,1,1,0,0,0,0,0,0,0,0,0,0,0,0],"id":19,"left_children":[1,3,5,7,9,-1,11,13,15,17,19,21,23,-1,-1,-1,-1,-1,-1,-1,-1,-1,-1,-1,-1],"loss_changes":[7.1940427E0,1.0991248E1,7.625168E0,1.2955674E1,1.3527016E1,0E0,7.465107E0,1.0014883E1,5.3090153E0,7.6044674E0,7.054195E0,7.667697E0,8.701742E0,0E0,0E0,0E0,0E0,0E0,0E0,0E0,0E0,0E0,0E0,0E0,0E0],"parents":[2147483647,0,0,1,1,2,2,3,3,4,4,6,6,7,7,8,8,9,9,10,10,11,11,12,12],"right_children":[2,4,6,8,10,-1,12,14,16,18,20,22,24,-1,-1,-1,-1,-1,-1,-1,-1,-1,-1,-1,-1],"split_conditions":[8.8226685E-4,6.177756E-4,1.34819E1,4.93949E-4,-3.7940952E-1,-5.7579644E-2,-1.0795325E-4,6.792938E1,1.9190142E1,-7.4260635E-4,6.478216E-4,1.2013143E-3,6.906569E1,-3.786873E-3,-6.4920105E-2,6.224972E-2,1.4199721E-2,-2.8499875E-3,-2.6699057E-2,-2.5022969E-2,2.7942085E-3,2.6317624E-2,-1.0749106E-2,-6.375824E-3,2.2525648E-2],"split_indices":[3,3,5,3,8,0,2,5,5,1,3,3,5,0,0,0,0,0,0,0,0,0,0,0,0],"split_type":[0,0,0,0,0,0,0,0,0,0,0,0,0,0,0,0,0,0,0,0,0,0,0,0,0],"sum_hessian":[7.962631E2,5.6757214E2,2.2869093E2,1.758662E2,3.9170596E2,3.4351861E0,2.2525575E2,5.8017178E1,1.1784902E2,1.541331E2,2.3757286E2,9.176332E1,1.3349243E2,5.1284565E1,6.732613E0,5.1898994E0,1.1265913E2,4.9215786E1,1.0491731E2,2.4506527E1,2.1306633E2,7.527105E1,1.6492271E1,9.931289E1,3.4179543E1],"tree_param":{"num_deleted":"0","num_feature":"11","num_nodes":"25","size_leaf_vector":"0"}},{"base_weights":[-8.853304E-3,-6.0334307E-1,9.338441E-3,-9.7935224E-1,2.475483E-1,-1.2911122E-1,9.6750185E-2,5.523911E-2,-1.250023E0,1.0109177E0,-7.0794487E-1,-1.0660936E0,-6.930576E-2,-3.960185E-1,1.5042102E-1,7.200524E-1,-5.1803005E-1,-1.8549697E-1,-1.3625988E0,1.126175E-1,1.278545E0,-1.1776581E0,2.3320052E-1,6.7828333E-1,-1.2363865E0,1.259124E-1,-3.7191638E-1,-1.1583878E0,-1.4627913E-1,2.7422925E-2,3.6759615E-1],"categories":[],"categories_nodes":[],"categories_segments":[],"categories_sizes":[],"default_left":[1,1,1,1,1,1,1,1,1,1,1,1,1,1,1,0,0,0,0,0,0,0,0,0,0,0,0,0,0,0,0],"id":20,"left_children":[1,3,5,7,9,11,13,15,17,19,21,23,25,27,29,-1,-1,-1,-1,-1,-1,-1,-1,-1,-1,-1,-1,-1,-1,-1,-1],"loss_changes":[8.648918E0,7.839592E0,9.409344E0,4.7371674E0,6.6058865E0,1.6789288E1,1.2662554E1,2.0554457E0,1.3357639E0,1.0342436E0,2.1200714E0,6.181391E0,1.6820927E1,8.794252E0,1.1488208E1,0E0,0E0,0E0,0E0,0E0,0E0,0E0,0E0,0E0,0E0,0E0,0E0,0E0,0E0,0E0,0E0],"parents":[2147483647,0,0,1,1,2,2,3,3,4,4,5,5,6,6,7,7,8,8,9,9,10,10,11,11,12,12,13,13,14,14],"right_children":[2,4,6,8,10,12,14,16,18,20,22,24,26,28,30,-1,-1,-1,-1,-1,-1,-1,-1,-1,-1,-1,-1,-1,-1,-1,-1],"split_conditions":[-5.830636E-3,1.1743953E-3,-3.7940952E-1,-6.709257E-4,1.2940952E-1,-4.0721647E-3,5.0907664E-4,6.713761E-4,-9.159756E-1,-5.6174487E-1,-6.5850224E-3,7.498694E-4,7.6611E-4,-2.2754828E-3,8.8352954E-4,3.600262E-2,-2.5901502E-2,-9.274849E-3,-6.812994E-2,5.630875E-3,6.3927256E-2,-5.8882903E-2,1.1660026E-2,3.3914167E-2,-6.1819326E-2,6.29562E-3,-1.859582E-2,-5.791939E-2,-7.3139565E-3,1.3711463E-3,1.8379807E-2],"split_indices":[4,6,8,0,8,4,3,3,8,10,4,6,4,4,4,0,0,0,0,0,0,0,0,0,0,0,0,0,0,0,0],"split_type":[0,0,0,0,0,0,0,0,0,0,0,0,0,0,0,0,0,0,0,0,0,0,0,0,0,0,0,0,0,0,0],"sum_hessian":[7.982083E2,2.2745342E1,7.7546295E2,1.5669856E1,7.075486E0,2.9993115E2,4.7553183E2,3.4144893E0,1.2255367E1,3.9009254E0,3.1745608E0,1.698579E1,2.8294537E2,4.607984E1,4.2945197E2,1.4624537E0,1.9520357E0,1.4253067E0,1.0830061E1,1.2215507E0,2.6793747E0,1.9500258E0,1.224535E0,1.2454213E0,1.574037E1,1.7234634E2,1.1059902E2,1.0472494E1,3.5607346E1,2.7489197E2,1.5456001E2],"tree_param":{"num_deleted":"0","num_feature":"11","num_nodes":"31","size_leaf_vector":"0"}},{"base_weights":[-1.9203315E-3,-5.270792E-1,1.650242E-2,4.2989266E-1,-8.463926E-1,1.2105533E0,7.61651E-3,9.0561175E-1,-9.4760597E-1,3.906032E-1,-1.0319504E0,2.2002253E-1,1.4378854E0,1.1540537E0,-9.2159427E-4,-4.840251E-3,1.3379681E0,1.081825E0,-4.982879E-1,-1.2438712E0,-4.8783168E-1,2.8873333E-1,1.3908134E0,-5.2086467E-1,2.3152303E-2],"categories":[],"categories_nodes":[],"categories_segments":[],"categories_sizes":[],"default_left":[1,1,1,1,1,1,1,1,0,1,1,0,0,1,1,0,0,0,0,0,0,0,0,0,0],"id":21,"left_children":[1,3,5,7,9,11,13,15,-1,17,19,-1,-1,21,23,-1,-1,-1,-1,-1,-1,-1,-1,-1,-1],"loss_changes":[7.7551103E0,8.665173E0,8.208476E0,5.746652E0,5.1559095E0,9.704962E-1,7.5360975E0,2.3904681E0,0E0,2.644289E0,1.5010738E0,0E0,0E0,7.644515E-1,9.588867E0,0E0,0E0,0E0,0E0,0E0,0E0,0E0,0E0,0E0,0E0],"parents":[2147483647,0,0,1,1,2,2,3,3,4,4,5,5,6,6,7,7,9,9,10,10,13,13,14,14],"right_children":[2,4,6,8,10,12,14,16,-1,18,20,-1,-1,22,24,-1,-1,-1,-1,-1,-1,-1,-1,-1,-1],"split_conditions":[-5.687834E-3,-7.250382E-3,-5.5519463E-3,7.865661E-1,-1.050692E-3,-1.1146732E-3,3.4377383E-4,-7.7923657E-3,-4.73803E-2,0E0,1.1110874E-3,1.1001127E-2,7.189427E-2,5.4333766E-4,4.494845E-4,-2.4201255E-4,6.6898406E-2,5.4091252E-2,-2.4914395E-2,-6.219356E-2,-2.4391584E-2,1.4436667E-2,6.954067E-2,-2.6043234E-2,1.1576152E-3],"split_indices":[4,4,4,7,1,2,3,4,0,9,6,0,0,6,3,0,0,0,0,0,0,0,0,0,0],"split_type":[0,0,0,0,0,0,0,0,0,0,0,0,0,0,0,0,0,0,0,0,0,0,0,0,0],"sum_hessian":[7.996733E2,2.616631E1,7.73507E2,6.459898E0,1.9706411E1,4.714833E0,7.687922E2,5.05628E0,1.4036181E0,2.4263628E0,1.7280048E1,1.2474208E0,3.4674122E0,4.691453E0,7.641007E2,1.9463916E0,3.1098883E0,1.242847E0,1.1835159E0,1.1510831E1,5.7692175E0,1.4846836E0,3.2067697E0,3.289988E1,7.312008E2],"tree_param":{"num_deleted":"0","num_feature":"11","num_nodes":"25","size_leaf_vector":"0"}},{"base_weights":[-5.9950976E-3,6.1000213E-2,-1.2856844E-1,-5.7974055E-2,1.8650186E-1,-1.8404043E-1,3.9970654E-1,8.025738E-2,-2.789541E-1,2.1851663E-2,4.7061703E-1,6.769777E-2,-2.770973E-1,6.130818E-1,-4.6632457E-1,1.847391E-1,-4.0330696E-1,-3.9091995E-1,9.061935E-1,1.19234726E-1,-4.6873343E-1,5.334036E-1,-7.7120167E-1,-1.2467061E0,1.24027014E-1,-4.689894E-1,-2.4599846E-2,8.811082E-1,2.0571382E-1,7.8111225E-1,-1.0598196E0],"categories":[],"categories_nodes":[],"categories_segments":[],"categories_sizes":[],"default_left":[1,1,1,1,1,1,1,1,1,1,1,1,1,1,1,0,0,0,0,0,0,0,0,0,0,0,0,0,0,0,0],"id":22,"left_children":[1,3,5,7,9,11,13,15,17,19,21,23,25,27,29,-1,-1,-1,-1,-1,-1,-1,-1,-1,-1,-1,-1,-1,-1,-1,-1],"loss_changes":[6.569526E0,7.735422E0,8.358343E0,8.1580515E0,1.1778162E1,6.0282974E0,5.3086357E0,8.39184E0,1.398418E1,7.7280574E0,7.6164455E0,5.3403044E0,9.072954E0,2.2470074E0,5.2262793E0,0E0,0E0,0E0,0E0,0E0,0E0,0E0,0E0,0E0,0E0,0E0,0E0,0E0,0E0,0E0,0E0],"parents":[2147483647,0,0,1,1,2,2,3,3,4,4,5,5,6,6,7,7,8,8,9,9,10,10,11,11,12,12,13,13,14,14],"right_children":[2,4,6,8,10,12,14,16,18,20,22,24,26,28,30,-1,-1,-1,-1,-1,-1,-1,-1,-1,-1,-1,-1,-1,-1,-1,-1],"split_conditions":[3.6376258E-4,1.2940952E-1,1.4964405E-3,8.3322776E-4,7.1783445E-4,9.1047515E-4,8.117449E-1,5.5648327E1,7.0486145E1,5.9648376E1,7.9195015E-3,3.8256907E-4,2.0048442E-1,2.7965088E-3,2.0007025E-3,9.236955E-3,-2.0165348E-2,-1.9545998E-2,4.5309674E-2,5.961736E-3,-2.3436671E-2,2.6670178E-2,-3.8560085E-2,-6.233531E-2,6.2013506E-3,-2.3449471E-2,-1.2299924E-3,4.4055413E-2,1.0285691E-2,3.9055612E-2,-5.299098E-2],"split_indices":[1,8,0,4,4,6,10,5,5,5,4,1,10,1,1,0,0,0,0,0,0,0,0,0,0,0,0,0,0,0,0],"split_type":[0,0,0,0,0,0,0,0,0,0,0,0,0,0,0,0,0,0,0,0,0,0,0,0,0,0,0,0,0,0,0],"sum_hessian":[7.9805164E2,5.1633765E2,2.81714E2,2.65338E2,2.5099963E2,2.5553313E2,2.6180864E1,1.6362262E2,1.01715385E2,1.5959067E2,9.140896E1,6.903948E1,1.8649365E2,2.1239817E1,4.9410486E0,1.3505896E2,2.8563662E1,9.354769E1,8.167693E0,1.3378983E2,2.580085E1,8.755274E1,3.8562155E0,1.9687018E0,6.707078E1,1.05476555E2,8.10171E1,1.21094885E1,9.130327E0,1.4910225E0,3.4500263E0],"tree_param":{"num_deleted":"0","num_feature":"11","num_nodes":"31","size_leaf_vector":"0"}},{"base_weights":[1.3766148E-3,6.7732435E-1,-1.1338614E-2,-4.0035278E-1,1.0123606E0,-5.7497513E-1,5.1062685E-3,3.1831357E-1,-9.059239E-1,1.2391462E0,1.12501554E-1,2.8873587E-1,-9.67648E-1,-1.638402E-3,1.2645152E0,2.5587028E-1,1.4738975E0,-3.621069E-1,5.390986E-1,1.0151851E0,-2.2885917E-1,-1.280615E-1,-1.3144588E0,6.105144E-2,-1.414283E-1],"categories":[],"categories_nodes":[],"categories_segments":[],"categories_sizes":[],"default_left":[1,1,1,1,1,1,1,0,0,1,1,1,1,1,0,0,0,0,0,0,0,0,0,0,0],"id":23,"left_children":[1,3,5,7,9,11,13,-1,-1,15,17,19,21,23,-1,-1,-1,-1,-1,-1,-1,-1,-1,-1,-1],"loss_changes":[6.8893256E0,5.7489305E0,7.2964106E0,1.8240106E0,2.222416E0,7.848022E0,6.504939E0,0E0,0E0,1.7335005E0,8.895663E-1,3.1444666E0,4.3656483E0,6.6905346E0,0E0,0E0,0E0,0E0,0E0,0E0,0E0,0E0,0E0,0E0,0E0],"parents":[2147483647,0,0,1,1,2,2,3,3,4,4,5,5,6,6,9,9,10,10,11,11,12,12,13,13],"right_children":[2,4,6,8,10,12,14,-1,-1,16,18,20,22,24,-1,-1,-1,-1,-1,-1,-1,-1,-1,-1,-1],"split_conditions":[-6.078576E-1,1.1645425E-3,-5.8634477E-3,1.0524632E-3,1.7166443E-3,-4.3555867E-4,1.1688302E-2,1.5915679E-2,-4.5296196E-2,-2.1239286E-3,4.1248025E-3,6.661975E-4,-7.094263E-3,2.8186606E-4,6.322576E-2,1.2793514E-2,7.369488E-2,-1.8105345E-2,2.6954932E-2,5.0759256E-2,-1.1442958E-2,-6.403075E-3,-6.572294E-2,3.052572E-3,-7.0714154E-3],"split_indices":[9,6,4,6,4,0,4,0,0,4,4,3,4,0,0,0,0,0,0,0,0,0,0,0,0],"split_type":[0,0,0,0,0,0,0,0,0,0,0,0,0,0,0,0,0,0,0,0,0,0,0,0,0],"sum_hessian":[7.9967267E2,1.3799801E1,7.8587286E2,3.2264977E0,1.0573303E1,2.131607E1,7.6455676E2,1.4853994E0,1.7410983E0,8.143824E0,2.4294796E0,6.7448974E0,1.4571174E1,7.614775E2,3.0793364E0,1.972365E0,6.1714582E0,1.2215849E0,1.2078948E0,2.4062932E0,4.3386045E0,4.6597486E0,9.911426E0,5.26105E2,2.353725E2],"tree_param":{"num_deleted":"0","num_feature":"11","num_nodes":"25","size_leaf_vector":"0"}},{"base_weights":[1.5104599E-2,2.0780092E-1,-2.9778002E-2,-1.1350932E-2,6.1712587E-1,-1.5902132E-2,-7.4948317E-1,1.7924538E-1,-6.02408E-1,7.6762503E-1,-1.1928846E0,-7.8077056E-2,2.2611685E-1,-1.5978107E0,4.4494325E-1,8.2495195E-1,-1.3410243E-1,-9.5834523E-1,1.3826138E0,1.6434172E0,5.5364823E-1,-1.3748695E0,-3.8932E-1,-4.0859506E-2,-4.2061123E-1,9.159035E-1,1.1271774E-1,8.7948126E-1,-5.0388277E-1],"categories":[],"categories_nodes":[],"categories_segments":[],"categories_sizes":[],"default_left":[1,1,1,1,1,1,1,1,1,1,1,1,1,0,1,0,0,0,0,0,0,0,0,0,0,0,0,0,0],"id":24,"left_children":[1,3,5,7,9,11,13,15,17,19,21,23,25,-1,27,-1,-1,-1,-1,-1,-1,-1,-1,-1,-1,-1,-1,-1,-1],"loss_changes":[6.932438E0,1.3589821E1,6.483566E0,1.1328221E1,1.5303547E1,9.635164E0,1.3155106E1,1.5504822E1,1.8646252E1,8.342352E0,1.1492252E-1,6.4748797E0,1.0135338E1,0E0,2.8684845E0,0E0,0E0,0E0,0E0,0E0,0E0,0E0,0E0,0E0,0E0,0E0,0E0,0E0,0E0],"parents":[2147483647,0,0,1,1,2,2,3,3,4,4,5,5,6,6,7,7,8,8,9,9,10,10,11,11,12,12,14,14],"right_children":[2,4,6,8,10,12,14,16,18,20,22,24,26,-1,28,-1,-1,-1,-1,-1,-1,-1,-1,-1,-1,-1,-1,-1,-1],"split_conditions":[-2.1694186E-1,1.2223485E-3,6.902572E-3,1.6622371E-3,3.2720556E-3,2.0733378E-3,9.3591464E-4,8.27131E-4,8.723464E-3,6.7993393E-4,1.7515275E-3,1.5149717E-3,8.0881885E-4,-7.989054E-2,8.2844053E-4,4.12476E-2,-6.7051216E-3,-4.791726E-2,6.913069E-2,8.217087E-2,2.7682412E-2,-6.8743475E-2,-1.9466E-2,-2.0429753E-3,-2.1030562E-2,4.5795176E-2,5.635887E-3,4.3974064E-2,-2.5194138E-2],"split_indices":[9,6,4,4,2,4,3,6,4,3,4,1,6,0,0,0,0,0,0,0,0,0,0,0,0,0,0,0,0],"split_type":[0,0,0,0,0,0,0,0,0,0,0,0,0,0,0,0,0,0,0,0,0,0,0,0,0,0,0,0,0],"sum_hessian":[7.998418E2,1.5041765E2,6.4942413E2,9.859977E1,5.1817875E1,6.381429E2,1.12812605E1,7.5084305E1,2.3515463E1,4.837175E1,3.4461257E0,5.0825027E2,1.2989262E2,6.398838E0,4.882423E0,2.3998533E1,5.1085773E1,2.0378563E1,3.136899E0,8.186132E0,4.0185616E1,2.2301056E0,1.2160199E0,4.5944882E2,4.8801453E1,1.7339952E1,1.12552666E2,3.398899E0,1.4835238E0],"tree_param":{"num_deleted":"0","num_feature":"11","num_nodes":"29","size_leaf_vector":"0"}},{"base_weights":[7.3025613E-3,-3.792263E-3,9.142744E-1,1.0995761E0,-1.1694618E-2,1.4750243E0,6.1605863E-2,1.3343325E0,2.5982204E-1,-4.6916172E-1,9.153493E-3,-6.628313E-1,7.839929E-1,-9.0995854E-1,1.3087708E-1,2.492001E-1,-4.3935567E-2],"categories":[],"categories_nodes":[],"categories_segments":[],"categories_sizes":[],"default_left":[1,1,1,1,1,0,1,0,0,1,1,0,0,0,0,0,0],"id":25,"left_children":[1,3,5,7,9,-1,11,-1,-1,13,15,-1,-1,-1,-1,-1,-1],"loss_changes":[8.067556E0,6.92454E0,4.5416994E0,7.666378E-1,7.520168E0,0E0,3.0773888E0,0E0,0E0,9.209118E0,9.628489E0,0E0,0E0,0E0,0E0,0E0,0E0],"parents":[2147483647,0,0,1,1,2,2,3,3,4,4,6,6,9,9,10,10],"right_children":[2,4,6,8,10,-1,12,-1,-1,14,16,-1,-1,-1,-1,-1,-1],"split_conditions":[1.6090237E-3,3.4377383E-4,3.1235602E-3,7.865661E-1,4.494845E-4,7.375122E-2,-1.2940952E-1,6.671663E-2,1.2991102E-2,2.0356433E-4,6.177756E-4,-3.3141565E-2,3.9199647E-2,-4.5497928E-2,6.543854E-3,1.24600055E-2,-2.1967783E-3],"split_indices":[3,3,2,7,3,0,7,0,0,4,3,0,0,0,0,0,0],"split_type":[0,0,0,0,0,0,0,0,0,0,0,0,0,0,0,0,0],"sum_hessian":[8.0038477E2,7.916959E2,8.688856E0,4.6474614E0,7.8704846E2,4.801379E0,3.887477E0,3.171813E0,1.4756486E0,3.336745E1,7.53681E2,1.9821472E0,1.9053297E0,1.893848E1,1.4428969E1,1.3582825E2,6.178528E2],"tree_param":{"num_deleted":"0","num_feature":"11","num_nodes":"17","size_leaf_vector":"0"}},{"base_weights":[1.5293245E-4,1.1919993E0,-7.4925567E-3,-5.187817E-1,8.605279E-3,4.2698383E-1,-8.443478E-1,-8.473075E-2,1.07596576E-1,1.1310495E0,-5.3127074E-1,-1.0831755E0,-1.9514091E-1,-8.331271E-1,-3.8380142E-2,-2.1457091E-2,3.1412882E-1],"categories":[],"categories_nodes":[],"categories_segments":[],"categories_sizes":[],"default_left":[1,0,1,1,1,1,1,1,1,0,0,0,0,0,0,0,0],"id":26,"left_children":[1,-1,3,5,7,9,11,13,15,-1,-1,-1,-1,-1,-1,-1,-1],"loss_changes":[7.3230805E0,0E0,6.5770483E0,7.8707557E0,7.171161E0,5.2630763E0,2.654048E0,1.3827355E1,1.0045164E1,0E0,0E0,0E0,0E0,0E0,0E0,0E0,0E0],"parents":[2147483647,0,0,2,2,3,3,4,4,5,5,6,6,7,7,8,8],"right_children":[2,-1,4,6,8,10,12,14,16,-1,-1,-1,-1,-1,-1,-1,-1],"split_conditions":[3.4528127E-4,5.9599966E-2,-5.830636E-3,-7.250382E-3,-6.1232336E-17,-3.7940952E-1,1.1110874E-3,-4.127033E-3,7.8771054E-4,5.6552477E-2,-2.6563538E-2,-5.4158777E-2,-9.757046E-3,-4.1656356E-2,-1.9190072E-3,-1.0728546E-3,1.570644E-2],"split_indices":[3,0,4,4,8,8,6,4,4,0,0,0,0,0,0,0,0],"split_type":[0,0,0,0,0,0,0,0,0,0,0,0,0,0,0,0,0],"sum_hessian":[8.016723E2,4.1224313E0,7.9754987E2,2.3391062E1,7.741588E2,5.910274E0,1.7480787E1,3.9853537E2,3.756234E2,3.3030653E0,2.607209E0,1.2290827E1,5.189962E0,2.2253098E1,3.762823E2,2.3172432E2,1.4389908E2],"tree_param":{"num_deleted":"0","num_feature":"11","num_nodes":"17","size_leaf_vector":"0"}},{"base_weights":[1.7757572E-2,6.778951E-3,1.0691928E0,6.7363665E-2,-1.5468177E-1,1.3014218E0,2.1406072E-1,3.26503E-1,8.80969E-3,-4.8889723E-1,-4.2577878E-2,6.966674E-2,8.750316E-1,2.6134588E-2,-1.1628747E0,-7.553614E-1,-1.111907E-1,4.7587258E-1,-1.249537E-1],"categories":[],"categories_nodes":[],"categories_segments":[],"categories_sizes":[],"default_left":[1,1,1,1,1,0,0,1,1,1,1,0,0,0,0,0,0,0,0],"id":27,"left_children":[1,3,5,7,9,-1,-1,11,13,15,17,-1,-1,-1,-1,-1,-1,-1,-1],"loss_changes":[9.140188E0,7.6918974E0,1.346344E0,8.671916E0,8.018106E0,0E0,0E0,1.4779895E1,9.517458E0,5.3303976E0,6.9680486E0,0E0,0E0,0E0,0E0,0E0,0E0,0E0,0E0],"parents":[2147483647,0,0,1,1,2,2,3,3,4,4,7,7,8,8,9,9,10,10],"right_children":[2,4,6,8,10,-1,-1,12,14,16,18,-1,-1,-1,-1,-1,-1,-1,-1],"split_conditions":[1.6090237E-3,3.3457577E-4,3.0627819E-3,-2.1694186E-1,-6.035534E-1,6.507109E-2,1.0703037E-2,1.2451757E-3,6.9705592E-3,8.162526E-4,5.709917E-4,3.4833371E-3,4.375158E-2,1.3067294E-3,-5.8143735E-2,-3.776807E-2,-5.559535E-3,2.3793628E-2,-6.2476853E-3],"split_indices":[3,0,1,9,7,0,0,6,4,0,3,0,0,0,0,0,0,0,0],"split_type":[0,0,0,0,0,0,0,0,0,0,0,0,0,0,0,0,0,0,0],"sum_hessian":[7.914449E2,7.842624E2,7.1824746E0,5.7070154E2,2.1356087E2,5.238071E0,1.9444038E0,1.0434244E2,4.663591E2,5.279675E1,1.6076413E2,7.183453E1,3.2507908E1,4.6052728E2,5.8318076E0,3.0370869E1,2.2425882E1,2.1386517E1,1.3937761E2],"tree_param":{"num_deleted":"0","num_feature":"11","num_nodes":"19","size_leaf_vector":"0"}},{"base_weights":[5.741159E-3,-5.718763E-1,2.2593986E-2,-9.2646897E-1,2.3292558E-1,-3.540237E-1,4.8886504E-2,4.1802564E-1,-1.0940334E0,5.814974E-1,-9.0623546E-1,-6.0057247E-1,4.3618953E-1,5.1609063E-1,2.2825362E-2,-5.0227106E-1,-1.2397188E0,-2.8577924E-1,9.451418E-1,-7.994839E-1,8.3542186E-1,-1.1559412E0,7.532374E-1,1.0544723E0,-5.785967E-2,1.4303389E0,1.5090101E-2],"categories":[],"categories_nodes":[],"categories_segments":[],"categories_sizes":[],"default_left":[1,1,1,1,1,1,1,0,1,1,0,1,1,1,1,0,0,0,0,0,0,0,0,0,0,0,0],"id":28,"left_children":[1,3,5,7,9,11,13,-1,15,17,-1,19,21,23,25,-1,-1,-1,-1,-1,-1,-1,-1,-1,-1,-1,-1],"loss_changes":[7.7558894E0,6.661751E0,7.679934E0,4.034974E0,3.587395E0,1.0123805E1,8.8061075E0,0E0,6.184902E-1,2.3234365E0,0E0,1.1808257E1,7.2393937E0,1.1870102E1,7.4580455E0,0E0,0E0,0E0,0E0,0E0,0E0,0E0,0E0,0E0,0E0,0E0,0E0],"parents":[2147483647,0,0,1,1,2,2,3,3,4,4,5,5,6,6,8,8,9,9,11,11,12,12,13,13,14,14],"right_children":[2,4,6,8,10,12,14,-1,16,18,-1,20,22,24,26,-1,-1,-1,-1,-1,-1,-1,-1,-1,-1,-1,-1],"split_conditions":[-5.8634477E-3,1.1743953E-3,4.8015983E-4,-1.2262888E-3,1.4091516E-3,8.783797E-1,5.375665E-4,2.0901283E-2,-4.3939147E-4,-5.6174487E-1,-4.5311775E-2,2.5506523E-3,-2.4703392E-3,4.5445225E1,5.031349E-4,-2.5113553E-2,-6.198594E-2,-1.4288962E-2,4.725709E-2,-3.9974194E-2,4.1771095E-2,-5.7797063E-2,3.7661873E-2,5.2723616E-2,-2.8929836E-3,7.1516946E-2,7.545051E-4],"split_indices":[4,6,3,0,3,9,3,0,0,10,0,4,4,5,6,0,0,0,0,0,0,0,0,0,0,0,0],"split_type":[0,0,0,0,0,0,0,0,0,0,0,0,0,0,0,0,0,0,0,0,0,0,0,0,0,0,0],"sum_hessian":[7.9441614E2,2.1587513E1,7.728286E2,1.4880183E1,6.7073293E0,4.9618694E1,7.2320996E2,1.4833605E0,1.3396823E1,5.510661E0,1.1966679E0,3.8001965E1,1.1616734E1,3.7216583E1,6.8599335E2,3.5252357E0,9.871587E0,1.6912428E0,3.8194184E0,3.3767765E1,4.234197E0,1.4897336E0,1.0127E1,1.8771326E1,1.8445257E1,2.7442057E0,6.8324915E2],"tree_param":{"num_deleted":"0","num_feature":"11","num_nodes":"27","size_leaf_vector":"0"}},{"base_weights":[3.6362642E-3,-3.7878037E-3,1.3045462E0,-3.3852667E-1,2.231009E-2,-7.3792286E-2,-9.5700884E-1,1.9704053E-1,-4.724322E-2,3.526612E-1,-5.433676E-1,5.858716E-1,-1.2375383E0,3.8446203E-1,-2.1118794E-1,-1.4563094E-1,1.8551236E-1],"categories":[],"categories_nodes":[],"categories_segments":[],"categories_sizes":[],"default_left":[1,1,0,1,1,1,1,1,1,0,0,0,0,0,0,0,0],"id":29,"left_children":[1,3,-1,5,7,9,11,13,15,-1,-1,-1,-1,-1,-1,-1,-1],"loss_changes":[7.6843615E0,6.9231043E0,0E0,9.313988E0,8.945479E0,8.446008E0,8.124763E0,1.611409E1,1.2089746E1,0E0,0E0,0E0,0E0,0E0,0E0,0E0,0E0],"parents":[2147483647,0,0,1,1,3,3,4,4,5,5,6,6,7,7,8,8],"right_children":[2,4,-1,6,8,10,12,14,16,-1,-1,-1,-1,-1,-1,-1,-1],"split_conditions":[1.1205124E-2,-4.3129204E-3,6.5227315E-2,8.783797E-1,-1.3056208E-3,5.0012335E-5,-7.091801E-3,5.5454956E1,8.957357E-4,1.763306E-2,-2.7168382E-2,2.929358E-2,-6.187692E-2,1.9223101E-2,-1.0559398E-2,-7.281547E-3,9.275618E-3],"split_indices":[4,4,0,9,4,0,4,5,3,0,0,0,0,0,0,0,0],"split_type":[0,0,0,0,0,0,0,0,0,0,0,0,0,0,0,0,0],"sum_hessian":[7.941321E2,7.9061725E2,3.5148273E0,5.6316364E1,7.3430084E2,4.0219967E1,1.6096397E1,2.0855078E2,5.2575006E2,2.120827E1,1.90117E1,2.3089554E0,1.3787442E1,1.429701E2,6.558069E1,3.6980484E2,1.5594525E2],"tree_param":{"num_deleted":"0","num_feature":"11","num_nodes":"17","size_leaf_vector":"0"}},{"base_weights":[1.8962976E-2,-3.889677E-2,1.5826668E-1,1.0301198E-2,-4.4389138E-1,6.026332E-2,5.098126E-1,1.6993025E-1,-1.1326813E-1,-7.608686E-1,1.4586768E-1,4.6463177E-1,-2.4931453E-2,9.3934953E-1,2.376868E-1,2.8112414E-1,-7.251651E-1,-5.8946234E-1,5.0873146E-3,-1.156291E0,-5.743991E-2,1.0708967E0,-3.6470586E-1,-7.941906E-1,7.873537E-1,1.0008515E-1,-3.5951784E-1,3.7334228E-1,1.1673527E0,-7.819885E-1,5.812979E-1],"categories":[],"categories_nodes":[],"categories_segments":[],"categories_sizes":[],"default_left":[1,1,1,1,1,1,1,1,1,1,1,1,1,1,1,0,0,0,0,0,0,0,0,0,0,0,0,0,0,0,0],"id":30,"left_children":[1,3,5,7,9,11,13,15,17,19,21,23,25,27,29,-1,-1,-1,-1,-1,-1,-1,-1,-1,-1,-1,-1,-1,-1,-1,-1],"loss_changes":[6.4676027E0,1.130613E1,8.081274E0,1.0014923E1,1.1600774E1,6.393726E0,5.7608843E0,2.225061E1,1.6135227E1,1.1097801E1,1.0934635E1,1.374304E1,6.4762807E0,2.0828056E0,1.1904424E1,0E0,0E0,0E0,0E0,0E0,0E0,0E0,0E0,0E0,0E0,0E0,0E0,0E0,0E0,0E0,0E0],"parents":[2147483647,0,0,1,1,2,2,3,3,4,4,5,5,6,6,7,7,8,8,9,9,10,10,11,11,12,12,13,13,14,14],"right_children":[2,4,6,8,10,12,14,16,18,20,22,24,26,28,30,-1,-1,-1,-1,-1,-1,-1,-1,-1,-1,-1,-1,-1,-1,-1,-1],"split_conditions":[8.8226685E-4,1.382849E-3,2.8474778E-3,-9.674453E-4,7.1859243E-4,9.26496E-4,4.7510467E-3,6.567142E1,-2.5202371E-5,7.8457163E-4,1.585044E-3,-1.9791021E-3,8.117449E-1,3.344853E-3,5.1082773E-3,1.4056208E-2,-3.6258258E-2,-2.9473117E-2,2.5436573E-4,-5.781455E-2,-2.8719956E-3,5.3544838E-2,-1.8235294E-2,-3.970953E-2,3.9367687E-2,5.0042574E-3,-1.7975893E-2,1.8667115E-2,5.8367636E-2,-3.9099425E-2,2.9064894E-2],"split_indices":[3,6,4,4,4,3,4,5,4,3,4,4,10,4,4,0,0,0,0,0,0,0,0,0,0,0,0,0,0,0,0],"split_type":[0,0,0,0,0,0,0,0,0,0,0,0,0,0,0,0,0,0,0,0,0,0,0,0,0,0,0,0,0,0,0],"sum_hessian":[8.0066064E2,5.662074E2,2.3445328E2,5.0574503E2,6.0462368E1,1.8425768E2,5.0195602E1,2.2051048E2,2.8523453E2,3.91372E1,2.1325167E1,3.1289839E1,1.5296783E2,1.8516441E1,3.1679163E1,1.9675444E2,2.375604E1,5.5988518E1,2.2924602E2,2.4641527E1,1.4495673E1,7.1940126E0,1.4131155E1,6.0867395E0,2.52031E1,1.11869286E2,4.1098553E1,6.07442E0,1.244202E1,7.6630516E0,2.4016111E1],"tree_param":{"num_deleted":"0","num_feature":"11","num_nodes":"31","size_leaf_vector":"0"}},{"base_weights":[-5.696911E-3,1.9223724E-1,-5.1555682E-2,3.6693355E-1,-3.115546E-1,-3.6981206E-2,-7.7642673E-1,-5.2844423E-1,4.5725963E-1,-1.4090068E0,1.1522403E-1,-9.605456E-2,2.189917E-1,-1.1594747E0,7.699724E-1,8.151363E-1,-1.0865637E0,9.592145E-1,1.8345696E-1,-1.647923E0,6.3295476E-2,-9.4689715E-1,5.435946E-1,-3.420526E-2,-3.148295E-1,9.8839834E-2,8.5501677E-1,-1.3243021E0,5.2066E-2],"categories":[],"categories_nodes":[],"categories_segments":[],"categories_sizes":[],"default_left":[1,1,1,1,1,1,1,1,1,1,1,1,1,1,0,0,0,0,0,0,0,0,0,0,0,0,0,0,0],"id":31,"left_children":[1,3,5,7,9,11,13,15,17,19,21,23,25,27,-1,-1,-1,-1,-1,-1,-1,-1,-1,-1,-1,-1,-1,-1,-1],"loss_changes":[7.170686E0,1.3193228E1,6.746213E0,9.202881E0,1.8336823E1,9.542765E0,8.350219E0,8.847447E0,1.3730543E1,3.9526958E0,1.3646966E1,6.9214425E0,8.961817E0,2.1636267E0,0E0,0E0,0E0,0E0,0E0,0E0,0E0,0E0,0E0,0E0,0E0,0E0,0E0,0E0,0E0],"parents":[2147483647,0,0,1,1,2,2,3,3,4,4,5,5,6,6,7,7,8,8,9,9,10,10,11,11,12,12,13,13],"right_children":[2,4,6,8,10,12,14,16,18,20,22,24,26,28,-1,-1,-1,-1,-1,-1,-1,-1,-1,-1,-1,-1,-1,-1,-1],"split_conditions":[-2.1694186E-1,1.664815E-3,6.904017E-3,4.957218E-4,8.878419E-4,2.2166665E-3,1.0523137E-3,6.290028E-4,6.8580866E-4,4.7556404E-3,2.2923518E-3,1.3613289E-3,2.285657E-3,1.754004E-3,3.849862E-2,4.0756818E-2,-5.4328185E-2,4.7960725E-2,9.172848E-3,-8.239615E-2,3.1647738E-3,-4.734486E-2,2.7179731E-2,-1.7102631E-3,-1.5741475E-2,4.941992E-3,4.275084E-2,-6.6215105E-2,2.6033E-3],"split_indices":[9,4,4,3,6,4,3,6,3,4,4,6,2,6,0,0,0,0,0,0,0,0,0,0,0,0,0,0,0],"split_type":[0,0,0,0,0,0,0,0,0,0,0,0,0,0,0,0,0,0,0,0,0,0,0,0,0,0,0,0,0],"sum_hessian":[7.8789075E2,1.476061E2,6.4028467E2,1.0980237E2,3.7803726E1,6.2869495E2,1.1589713E1,9.617389E0,1.0018498E2,9.940486E0,2.7863241E1,5.1131787E2,1.1737705E2,9.489374E0,2.100339E0,2.6874032E0,6.9299855E0,3.4476627E1,6.570835E1,8.44999E0,1.4904954E0,7.660066E0,2.0203176E1,3.9952542E2,1.1179246E2,9.969837E1,1.7678677E1,8.271046E0,1.2183287E0],"tree_param":{"num_deleted":"0","num_feature":"11","num_nodes":"29","size_leaf_vector":"0"}},{"base_weights":[7.229737E-3,1.821714E-3,1.3386033E0,1.0081442E-2,-1.1508013E0,4.5178377E-4,9.2354435E-1,-1.4605451E0,-1.5168613E-1,1.8873473E-1,-4.4327162E-2,1.1432489E0,3.7894964E-2],"categories":[],"categories_nodes":[],"categories_segments":[],"categories_sizes":[],"default_left":[1,1,0,1,1,1,1,0,0,0,0,0,0],"id":32,"left_children":[1,3,-1,5,7,9,11,-1,-1,-1,-1,-1,-1],"loss_changes":[5.7508283E0,7.5976334E0,0E0,6.967551E0,1.5356598E0,6.625788E0,1.5645256E0,0E0,0E0,0E0,0E0,0E0,0E0],"parents":[2147483647,0,0,1,1,3,3,4,4,5,5,6,6],"right_children":[2,4,-1,6,8,10,12,-1,-1,-1,-1,-1,-1],"split_conditions":[9.452662E1,8.926703E1,6.693017E-2,1.6090237E-3,9.0305076E-4,-2.1694186E-1,3.4350823E-3,-7.302725E-2,-7.584307E-3,9.436737E-3,-2.2163582E-3,5.7162445E-2,1.8947482E-3],"split_indices":[5,5,0,3,3,9,1,0,0,0,0,0,0],"split_type":[0,0,0,0,0,0,0,0,0,0,0,0,0],"sum_hessian":[7.9805383E2,7.958226E2,2.2312534E0,7.911445E2,4.6781096E0,7.8388135E2,7.2631245E0,3.218483E0,1.4596264E0,1.4999203E2,6.3388934E2,5.58643E0,1.6766946E0],"tree_param":{"num_deleted":"0","num_feature":"11","num_nodes":"13","size_leaf_vector":"0"}},{"base_weights":[-2.4715152E-2,-3.0663904E-2,1.3310281E0,-2.2665413E-2,-1.0448234E0,-3.1696346E-2,9.389077E-1,-1.4049559E0,-1.7440785E-1,-2.2671863E-2,-8.173557E-1,-1.7484654E-1,1.3202785E0],"categories":[],"categories_nodes":[],"categories_segments":[],"categories_sizes":[],"default_left":[1,1,0,1,1,1,1,0,0,0,0,0,0],"id":33,"left_children":[1,3,-1,5,7,9,11,-1,-1,-1,-1,-1,-1],"loss_changes":[6.404723E0,6.357096E0,0E0,6.8160253E0,1.6774864E0,5.477573E0,3.3331866E0,0E0,0E0,0E0,0E0,0E0,0E0],"parents":[2147483647,0,0,1,1,3,3,4,4,5,5,6,6],"right_children":[2,4,-1,6,8,10,12,-1,-1,-1,-1,-1,-1],"split_conditions":[9.452662E1,8.805192E1,6.655141E-2,1.6090237E-3,9.0305076E-4,1.4086899E-3,-1.3278844E-3,-7.024779E-2,-8.720393E-3,-1.1335931E-3,-4.0867787E-2,-8.742328E-3,6.6013925E-2],"split_indices":[5,5,0,3,3,3,4,0,0,0,0,0,0],"split_type":[0,0,0,0,0,0,0,0,0,0,0,0,0],"sum_hessian":[7.8807935E2,7.856096E2,2.4697285E0,7.804765E2,5.133127E0,7.7417267E2,6.3038616E0,3.1964731E0,1.9366541E0,7.6639825E2,7.774381E0,1.746097E0,4.5577645E0],"tree_param":{"num_deleted":"0","num_feature":"11","num_nodes":"13","size_leaf_vector":"0"}},{"base_weights":[2.0171978E-2,6.9953096E-1,7.836387E-3,-4.3806982E-1,1.004006E0,-5.1410526E-1,2.2483246E-2,5.6153435E-1,-1.1556759E0,1.3462652E0,-1.2000739E-1,2.1621105E-1,-8.538302E-1,1.781658E-1,-2.5978105E-2,-8.1026495E-1,5.679905E-1,-2.4096969E-1,9.451468E-1,2.411042E-2,-1.3104541E0,3.0681464E-1,-5.9499973E-1,9.823235E-1,-3.666788E-2],"categories":[],"categories_nodes":[],"categories_segments":[],"categories_sizes":[],"default_left":[1,1,1,1,1,1,1,0,0,0,1,1,1,1,1,0,0,0,0,0,0,0,0,0,0],"id":34,"left_children":[1,3,5,7,9,11,13,-1,-1,-1,15,17,19,21,23,-1,-1,-1,-1,-1,-1,-1,-1,-1,-1],"loss_changes":[6.73392E0,5.4035316E0,6.057574E0,3.31878E0,4.6274586E0,5.5510497E0,5.8157415E0,0E0,0E0,0E0,2.1830797E0,2.7821763E0,6.030698E0,1.8382227E1,6.3766313E0,0E0,0E0,0E0,0E0,0E0,0E0,0E0,0E0,0E0,0E0],"parents":[2147483647,0,0,1,1,2,2,3,3,4,4,5,5,6,6,10,10,11,11,12,12,13,13,14,14],"right_children":[2,4,6,8,10,12,14,-1,-1,-1,16,18,20,22,24,-1,-1,-1,-1,-1,-1,-1,-1,-1,-1],"split_conditions":[-6.078576E-1,1.1645425E-3,-5.8634477E-3,1.0469432E-3,1.7166443E-3,-4.3555867E-4,-1.7537104E-3,2.8076718E-2,-5.7783794E-2,6.731326E-2,3.6866902E-3,1.10821E-3,-7.094263E-3,1.4204448E-3,5.228881E-4,-4.0513247E-2,2.8399525E-2,-1.2048485E-2,4.725734E-2,1.205521E-3,-6.552271E-2,1.5340732E-2,-2.9749988E-2,4.9116176E-2,-1.833394E-3],"split_indices":[9,6,4,6,4,0,4,0,0,0,4,6,4,6,6,0,0,0,0,0,0,0,0,0,0],"split_type":[0,0,0,0,0,0,0,0,0,0,0,0,0,0,0,0,0,0,0,0,0,0,0,0,0],"sum_hessian":[8.031963E2,1.3330602E1,7.898657E2,2.7219381E0,1.0608664E1,2.0629576E1,7.6923615E2,1.2283592E0,1.493579E0,7.9808E0,2.6278636E0,6.665066E0,1.3964511E1,1.8197223E2,5.872639E2,1.2230662E0,1.4047976E0,4.5074587E0,2.1576073E0,5.102071E0,8.86244E0,1.5653E2,2.5442228E1,5.2071915E0,5.820567E2],"tree_param":{"num_deleted":"0","num_feature":"11","num_nodes":"25","size_leaf_vector":"0"}},{"base_weights":[-8.657367E-3,2.4034898E-1,-4.1886512E-2,5.005845E-1,-2.4943691E-1,-1.410972E0,-3.4633286E-2,1.0263815E0,3.4227303E-1,-4.3740728E-1,9.1008747E-1,-4.1723676E-2,1.1748503E0,-6.142605E-1,1.2825913E0,-2.0028986E-1,4.7963598E-1,-7.766321E-1,3.8860074E-1,1.3295987E0,-3.8309526E-2,1.5345001E-1,-8.562534E-2],"categories":[],"categories_nodes":[],"categories_segments":[],"categories_sizes":[],"default_left":[1,1,1,1,1,0,1,1,1,1,1,1,0,0,0,0,0,0,0,0,0,0,0],"id":35,"left_children":[1,3,5,7,9,-1,11,13,15,17,19,21,-1,-1,-1,-1,-1,-1,-1,-1,-1,-1,-1],"loss_changes":[6.616702E0,1.2125829E1,6.9549704E0,4.7944508E0,7.6639676E0,0E0,6.0743876E0,6.5908766E0,3.7489276E0,8.528974E0,2.0302715E0,6.0065947E0,0E0,0E0,0E0,0E0,0E0,0E0,0E0,0E0,0E0,0E0,0E0],"parents":[2147483647,0,0,1,1,2,2,3,3,4,4,6,6,7,7,8,8,9,9,10,10,11,11],"right_children":[2,4,6,8,10,-1,12,14,16,18,20,22,-1,-1,-1,-1,-1,-1,-1,-1,-1,-1,-1],"split_conditions":[7.4795197E-4,2.0048442E-1,7.5169175E-4,-6.9747487E-4,8.4646896E-4,-7.05486E-2,1.1688302E-2,-5.1980456E-3,5.0915213E-4,5.0289964E-4,3.7325517E-4,6.177756E-4,5.874252E-2,-3.0713025E-2,6.412957E-2,-1.0014493E-2,2.39818E-2,-3.8831603E-2,1.9430038E-2,6.6479936E-2,-1.9154763E-3,7.672501E-3,-4.281267E-3],"split_indices":[6,10,6,2,3,0,4,4,3,2,2,3,0,0,0,0,0,0,0,0,0,0,0],"split_type":[0,0,0,0,0,0,0,0,0,0,0,0,0,0,0,0,0,0,0,0,0,0,0],"sum_hessian":[7.9745544E2,9.315498E1,7.043004E2,6.081853E1,3.2336456E1,2.6917303E0,7.016087E2,1.2805281E1,4.801325E1,2.8361542E1,3.974916E0,6.984795E2,3.1292124E0,1.540863E0,1.1264418E1,9.607392E0,3.8405857E1,2.014725E1,8.214292E0,2.4772108E0,1.4977052E0,1.27804344E2,5.706752E2],"tree_param":{"num_deleted":"0","num_feature":"11","num_nodes":"23","size_leaf_vector":"0"}},{"base_weights":[-9.824107E-3,-1.5533865E-2,1.2913295E0,-7.376921E-3,-1.0937293E0,6.534392E-1,-1.8603567E-2,-2.308148E-1,-1.2680007E0,-9.486286E-2,9.3084174E-1,7.7668086E-2,-8.551854E-2],"categories":[],"categories_nodes":[],"categories_segments":[],"categories_sizes":[],"default_left":[1,1,0,1,1,1,1,0,0,0,0,0,0],"id":36,"left_children":[1,3,-1,5,7,9,11,-1,-1,-1,-1,-1,-1],"loss_changes":[5.8743243E0,6.900628E0,0E0,5.803629E0,5.933018E-1,2.801115E0,4.9578767E0,0E0,0E0,0E0,0E0,0E0,0E0],"parents":[2147483647,0,0,1,1,3,3,4,4,5,5,6,6],"right_children":[2,4,-1,6,8,10,12,-1,-1,-1,-1,-1,-1],"split_conditions":[9.452662E1,8.8434326E1,6.456648E-2,-6.078576E-1,3.1904494E-3,-1.2145422E-3,4.563197E1,-1.154074E-2,-6.340004E-2,-4.7431435E-3,4.654209E-2,3.8834044E-3,-4.275927E-3],"split_indices":[5,5,0,9,2,4,5,0,0,0,0,0,0],"split_type":[0,0,0,0,0,0,0,0,0,0,0,0,0],"sum_hessian":[7.8699976E2,7.8454504E2,2.4547007E0,7.7965356E2,4.8915243E0,1.2068699E1,7.6758484E2,1.2124532E0,3.6790712E0,3.4419534E0,8.626745E0,3.1468365E2,4.5290118E2],"tree_param":{"num_deleted":"0","num_feature":"11","num_nodes":"13","size_leaf_vector":"0"}},{"base_weights":[-8.2840435E-3,-6.87318E-2,1.3902794E-1,5.6694202E-2,-2.0700675E-1,5.0946917E-2,5.0122786E-1,2.3747599E-1,-8.080895E-2,-4.2402792E-1,-4.2706255E-2,3.396855E-1,-6.102337E-2,7.128319E-1,-4.1026133E-1,-2.2361656E-1,5.985727E-1,-7.900078E-1,1.2888546E-1,-3.120424E-1,-9.829789E-1,7.3543084E-1,-1.2084322E-1,-8.420472E-1,5.152179E-1,-3.4029666E-1,5.9907243E-2,1.2248795E0,4.6666965E-1,-9.4555473E-1,6.149221E-1],"categories":[],"categories_nodes":[],"categories_segments":[],"categories_sizes":[],"default_left":[1,1,1,1,1,1,1,1,1,1,1,1,1,1,1,0,0,0,0,0,0,0,0,0,0,0,0,0,0,0,0],"id":37,"left_children":[1,3,5,7,9,11,13,15,17,19,21,23,25,27,29,-1,-1,-1,-1,-1,-1,-1,-1,-1,-1,-1,-1,-1,-1,-1,-1],"loss_changes":[7.038615E0,9.730381E0,7.3120565E0,7.342923E0,9.493228E0,6.038012E0,8.948175E0,2.136819E1,2.5098978E1,6.880478E0,9.386954E0,1.1253485E1,4.578351E0,4.0653095E0,5.569877E0,0E0,0E0,0E0,0E0,0E0,0E0,0E0,0E0,0E0,0E0,0E0,0E0,0E0,0E0,0E0,0E0],"parents":[2147483647,0,0,1,1,2,2,3,3,4,4,5,5,6,6,7,7,8,8,9,9,10,10,11,11,12,12,13,13,14,14],"right_children":[2,4,6,8,10,12,14,16,18,20,22,24,26,28,30,-1,-1,-1,-1,-1,-1,-1,-1,-1,-1,-1,-1,-1,-1,-1,-1],"split_conditions":[8.8140415E-4,6.9512124E-4,3.344853E-3,-9.5811195E-4,7.683657E-4,9.502465E-4,2.5275878E-3,-2.4994053E-3,4.4243766E-6,1.3355424E-3,7.7600154E-4,-4.0704454E-3,1.0036759E-3,4.7510467E-3,1.249002E-3,-1.1180828E-2,2.9928634E-2,-3.9500393E-2,6.444273E-3,-1.5602119E-2,-4.9148943E-2,3.6771543E-2,-6.042161E-3,-4.2102363E-2,2.5760895E-2,-1.7014833E-2,2.9953623E-3,6.1243977E-2,2.3333482E-2,-4.7277737E-2,3.0746106E-2],"split_indices":[3,3,4,4,3,3,2,4,4,6,3,4,3,4,3,0,0,0,0,0,0,0,0,0,0,0,0,0,0,0,0],"split_type":[0,0,0,0,0,0,0,0,0,0,0,0,0,0,0,0,0,0,0,0,0,0,0,0,0,0,0,0,0,0,0],"sum_hessian":[7.8836707E2,5.593697E2,2.2899739E2,2.9362198E2,2.6574768E2,1.8511993E2,4.3877445E1,1.2653434E2,1.6708763E2,1.13821884E2,1.5192581E2,5.115988E1,1.3396007E2,3.57873E1,8.090145E0,5.573974E1,7.07946E1,3.7498405E1,1.2958923E2,9.612213E1,1.7699753E1,1.3095956E1,1.3882985E2,6.125333E0,4.5034546E1,3.993091E1,9.402915E1,1.0327965E1,2.5459335E1,5.3659954E0,2.72415E0],"tree_param":{"num_deleted":"0","num_feature":"11","num_nodes":"31","size_leaf_vector":"0"}},{"base_weights":[-4.8687228E-4,-6.0310336E-3,1.1317782E0,7.7256165E-2,-7.597057E-2,-6.931726E-2,2.2221518E-1,-2.0588165E-2,-2.721082E-1,2.4155639E-1,-1.5746243E-1,7.212681E-2,4.8203713E-1,-6.2567785E-2,8.046217E-1,-6.742078E-1,-1.2890463E-2],"categories":[],"categories_nodes":[],"categories_segments":[],"categories_sizes":[],"default_left":[1,1,0,1,1,1,1,1,1,0,0,0,0,0,0,0,0],"id":38,"left_children":[1,3,-1,5,7,9,11,13,15,-1,-1,-1,-1,-1,-1,-1,-1],"loss_changes":[4.972524E0,4.5970507E0,0E0,7.669786E0,4.6535907E0,4.967442E0,7.037696E0,1.1674771E1,9.826866E0,0E0,0E0,0E0,0E0,0E0,0E0,0E0,0E0],"parents":[2147483647,0,0,1,1,3,3,4,4,5,5,6,6,7,7,8,8],"right_children":[2,4,-1,6,8,10,12,14,16,-1,-1,-1,-1,-1,-1,-1,-1],"split_conditions":[1.1688302E-2,-4.9209506E-5,5.6588914E-2,-1.2940952E-1,1.3606476E-3,6.240135E-4,7.0507143E-4,1.3243477E-3,-6.142179E-4,1.207782E-2,-7.873122E-3,3.6063406E-3,2.4101857E-2,-3.1283894E-3,4.0231086E-2,-3.371039E-2,-6.445231E-4],"split_indices":[4,0,0,8,6,3,4,6,4,0,0,0,0,0,0,0,0],"split_type":[0,0,0,0,0,0,0,0,0,0,0,0,0,0,0,0,0],"sum_hessian":[7.9003613E2,7.871764E2,2.8597534E0,3.5925476E2,4.2792163E2,1.7889212E2,1.8036264E2,3.3455887E2,9.3362755E1,3.913366E1,1.3975847E2,1.151328E2,6.522984E1,3.192427E2,1.5316158E1,3.5968044E1,5.7394714E1],"tree_param":{"num_deleted":"0","num_feature":"11","num_nodes":"17","size_leaf_vector":"0"}},{"base_weights":[1.5636398E-2,-4.4962052E-2,1.1884994E-1,1.6769571E-2,-6.470111E-1,-8.23161E-2,2.50099E-1,4.2176515E-2,-6.416824E-1,3.39734E-1,-7.983706E-1,-2.1905223E-1,7.1222335E-1,4.785093E-1,8.011767E-2,-2.5929973E-2,3.2677317E-1,1.6281304E-1,-9.6516114E-1,7.666159E-1,-5.05192E-1,-8.925689E-1,4.0612194E-1,-8.730756E-2,-1.0942265E0,-8.27306E-1,1.0237452E0,8.051116E-1,1.2288612E-1,-1.4367583E-1,2.7528006E-1],"categories":[],"categories_nodes":[],"categories_segments":[],"categories_sizes":[],"default_left":[1,1,1,1,1,1,1,1,1,1,1,1,1,1,1,0,0,0,0,0,0,0,0,0,0,0,0,0,0,0,0],"id":39,"left_children":[1,3,5,7,9,11,13,15,17,19,21,23,25,27,29,-1,-1,-1,-1,-1,-1,-1,-1,-1,-1,-1,-1,-1,-1,-1,-1],"loss_changes":[4.9513955E0,1.8555683E1,7.751567E0,7.6146135E0,7.2057743E0,1.2797987E1,6.851054E0,8.491152E0,4.5582976E0,2.8674927E0,4.9638004E0,1.1439363E1,9.15379E0,8.671255E0,4.535386E0,0E0,0E0,0E0,0E0,0E0,0E0,0E0,0E0,0E0,0E0,0E0,0E0,0E0,0E0,0E0,0E0],"parents":[2147483647,0,0,1,1,2,2,3,3,4,4,5,5,6,6,7,7,8,8,9,9,10,10,11,11,12,12,13,13,14,14],"right_children":[2,4,6,8,10,12,14,16,18,20,22,24,26,28,30,-1,-1,-1,-1,-1,-1,-1,-1,-1,-1,-1,-1,-1,-1,-1,-1],"split_conditions":[8.3802105E-4,1.3825642E-3,-3.7940952E-1,2.0563002E-3,-2.1694186E-1,7.381352E1,5.0562263E1,1.2135035E-3,9.4233814E-4,2.1430067E-4,1.8521645E-3,1.2453818E-3,-2.1694186E-1,1.2940952E-1,1.2940952E-1,-1.2964987E-3,1.633866E-2,8.140652E-3,-4.825806E-2,3.8330797E-2,-2.52596E-2,-4.4628445E-2,2.0306097E-2,-4.365378E-3,-5.4711323E-2,-4.13653E-2,5.118726E-2,4.025558E-2,6.144306E-3,-7.1837916E-3,1.3764003E-2],"split_indices":[3,6,8,1,9,5,5,6,6,0,1,3,9,7,7,0,0,0,0,0,0,0,0,0,0,0,0,0,0,0,0],"split_type":[0,0,0,0,0,0,0,0,0,0,0,0,0,0,0,0,0,0,0,0,0,0,0,0,0,0,0,0,0,0,0],"sum_hessian":[7.897887E2,4.979803E2,2.918084E2,4.5254984E2,4.5430447E1,1.15363335E2,1.7644508E2,4.3663773E2,1.5912102E1,5.876399E0,3.9554047E1,9.904288E1,1.6320463E1,7.45092E1,1.0193588E2,3.5305698E2,8.358076E1,4.7056866E0,1.1206416E1,3.9655614E0,1.9108377E0,3.6925247E1,2.6288009E0,8.704003E1,1.2002843E1,2.468001E0,1.3852462E1,3.8180504E1,3.63287E1,4.7607723E1,5.432816E1],"tree_param":{"num_deleted":"0","num_feature":"11","num_nodes":"31","size_leaf_vector":"0"}},{"base_weights":[1.7212192E-2,-3.692287E-2,1.5078041E-1,1.8056679E-1,-1.6243242E-1,4.8081845E-2,5.1430875E-1,2.3845012E-1,-6.41765E-1,-4.2751515E-1,-5.331246E-2,9.109751E-2,-1.1016527E0,9.1929233E-1,2.5614318E-1,-4.5810354E-1,2.9337233E-1,-9.8478436E-1,3.0041605E-1,5.847871E-1,-4.8971295E-1,-1.4640114E-1,4.6898463E-1,1.9646235E-1,-4.0772784E-1,-1.5579594E0,9.4377734E-2,-8.6487114E-2,1.0645282E0,-6.246938E-1,5.4996663E-1],"categories":[],"categories_nodes":[],"categories_segments":[],"categories_sizes":[],"default_left":[1,1,1,1,1,1,1,1,1,1,1,1,1,1,1,0,0,0,0,0,0,0,0,0,0,0,0,0,0,0,0],"id":40,"left_children":[1,3,5,7,9,11,13,15,17,19,21,23,25,27,29,-1,-1,-1,-1,-1,-1,-1,-1,-1,-1,-1,-1,-1,-1,-1,-1],"loss_changes":[5.6624312E0,1.5247656E1,8.406324E0,9.885939E0,1.0217889E1,8.863435E0,4.954688E0,7.47036E0,4.729096E0,6.7775936E0,1.2317815E1,9.105514E0,3.6761746E0,2.858633E0,8.548424E0,0E0,0E0,0E0,0E0,0E0,0E0,0E0,0E0,0E0,0E0,0E0,0E0,0E0,0E0,0E0,0E0],"parents":[2147483647,0,0,1,1,2,2,3,3,4,4,5,5,6,6,7,7,8,8,9,9,10,10,11,11,12,12,13,13,14,14],"right_children":[2,4,6,8,10,12,14,16,18,20,22,24,26,28,30,-1,-1,-1,-1,-1,-1,-1,-1,-1,-1,-1,-1,-1,-1,-1,-1],"split_conditions":[8.823226E-4,-1.3056208E-3,2.8865715E-3,1.4213638E-3,-1.4334875E-5,2.483369E-3,4.7510467E-3,-5.8634477E-3,8.5016905E-4,-9.854039E-4,7.08813E1,1.2027151E-3,1.2216702E-3,-1.1272698E-3,5.1082773E-3,-2.2905177E-2,1.46686165E-2,-4.923922E-2,1.5020803E-2,2.9239355E-2,-2.4485648E-2,-7.320057E-3,2.3449233E-2,9.823117E-3,-2.0386392E-2,-7.789797E-2,4.7188867E-3,-4.3243556E-3,5.322641E-2,-3.123469E-2,2.7498333E-2],"split_indices":[3,4,4,6,4,4,4,4,3,0,5,3,6,1,4,0,0,0,0,0,0,0,0,0,0,0,0,0,0,0,0],"split_type":[0,0,0,0,0,0,0,0,0,0,0,0,0,0,0,0,0,0,0,0,0,0,0,0,0,0,0,0,0,0,0],"sum_hessian":[7.813372E2,5.565085E2,2.2482874E2,2.0347589E2,3.530326E2,1.7618723E2,4.8641506E1,1.9075856E2,1.2717322E1,1.0209575E2,2.5093683E2,1.7072072E2,5.4665036E0,1.7939306E1,3.0702198E1,1.340522E1,1.7735335E2,9.289927E0,3.427396E0,5.4234924E0,9.667226E1,2.1358875E2,3.734809E1,1.4144914E2,2.9271576E1,3.737842E0,1.7286613E0,2.3146355E0,1.562467E1,7.3980145E0,2.3304184E1],"tree_param":{"num_deleted":"0","num_feature":"11","num_nodes":"31","size_leaf_vector":"0"}},{"base_weights":[-4.2092167E-3,-9.555406E-3,1.2315335E0,-2.0986544E-3,-9.7294456E-1,-1.0673704E-2,9.306192E-1,-1.3382537E0,-1.35488445E-2,5.96859E-1,-2.1330398E-2,1.2736907E0,2.799535E-1],"categories":[],"categories_nodes":[],"categories_segments":[],"categories_sizes":[],"default_left":[1,1,0,1,1,1,1,0,0,0,0,0,0],"id":41,"left_children":[1,3,-1,5,7,9,11,-1,-1,-1,-1,-1,-1],"loss_changes":[5.248569E0,5.6749196E0,0E0,6.2899036E0,2.1083794E0,5.0563216E0,1.2426639E0,0E0,0E0,0E0,0E0,0E0,0E0],"parents":[2147483647,0,0,1,1,3,3,4,4,5,5,6,6],"right_children":[2,4,-1,6,8,10,12,-1,-1,-1,-1,-1,-1],"split_conditions":[9.452662E1,8.8434326E1,6.1576676E-2,1.6090237E-3,9.0305076E-4,-6.078576E-1,2.57606E-3,-6.691269E-2,-6.7744224E-4,2.9842949E-2,-1.0665199E-3,6.368454E-2,1.3997676E-2],"split_indices":[5,5,0,3,3,9,2,0,0,0,0,0,0],"split_type":[0,0,0,0,0,0,0,0,0,0,0,0,0],"sum_hessian":[7.9167236E2,7.892501E2,2.4222622E0,7.841826E2,5.067492E0,7.780184E2,6.164246E0,3.3840535E0,1.6834387E0,1.2463657E1,7.6555475E2,3.4091892E0,2.7550566E0],"tree_param":{"num_deleted":"0","num_feature":"11","num_nodes":"13","size_leaf_vector":"0"}},{"base_weights":[-6.1407518E-3,-4.965195E-1,8.302876E-3,-8.8154054E-1,3.0239385E-1,9.72745E-1,1.7875822E-4,1.6376099E-1,-1.0773356E0,8.273856E-1,-7.055705E-1,-1.080659E-1,1.4000673E0,-5.5096503E-2,1.16005614E-1,-5.135132E-1,7.4236876E-1,1.21023E0,5.5572312E-2,-9.2903125E-1,-1.477822E-1,-1.4429672E-2,-5.301763E-1,-9.798144E-1,1.411578E-1],"categories":[],"categories_nodes":[],"categories_segments":[],"categories_sizes":[],"default_left":[1,1,1,1,1,1,1,1,0,1,1,0,0,1,1,0,0,0,0,0,0,0,0,0,0],"id":42,"left_children":[1,3,5,7,9,11,13,15,-1,17,19,-1,-1,21,23,-1,-1,-1,-1,-1,-1,-1,-1,-1,-1],"loss_changes":[5.5841756E0,7.2051253E0,6.003728E0,3.3440037E0,4.8596487E0,3.1074815E0,4.8777437E0,1.6782016E0,0E0,1.6386635E0,2.749014E-1,0E0,0E0,9.956529E0,6.92204E0,0E0,0E0,0E0,0E0,0E0,0E0,0E0,0E0,0E0,0E0],"parents":[2147483647,0,0,1,1,2,2,3,3,4,4,5,5,6,6,7,7,9,9,10,10,13,13,14,14],"right_children":[2,4,6,8,10,12,14,16,-1,18,20,-1,-1,22,24,-1,-1,-1,-1,-1,-1,-1,-1,-1,-1],"split_conditions":[-5.717597E-3,1.1711768E-3,-5.527073E-3,-1.0502243E-3,3.7940952E-1,-1.187308E-3,8.652969E-4,-6.595964E-3,-5.386678E-2,5.3066964E-4,1.7110459E-3,-5.403295E-3,7.000337E-2,1.4203426E-3,1.5706613E1,-2.567566E-2,3.711844E-2,6.05115E-2,2.7786156E-3,-4.6451565E-2,-7.3891105E-3,-7.214836E-4,-2.6508814E-2,-4.8990723E-2,7.0578903E-3],"split_indices":[4,6,4,1,8,2,3,4,0,1,6,0,0,6,5,0,0,0,0,0,0,0,0,0,0],"split_type":[0,0,0,0,0,0,0,0,0,0,0,0,0,0,0,0,0,0,0,0,0,0,0,0,0],"sum_hessian":[7.868261E2,2.155718E1,7.652689E2,1.4476894E1,7.0802865E0,5.400675E0,7.598683E2,2.3096826E0,1.2167212E1,4.7732973E0,2.3069892E0,1.7419451E0,3.6587296E0,5.1474457E2,2.4512372E2,1.1159447E0,1.193738E0,2.8109436E0,1.9623536E0,1.1719295E0,1.1350598E0,4.7510587E2,3.963869E1,4.64841E0,2.4047531E2],"tree_param":{"num_deleted":"0","num_feature":"11","num_nodes":"25","size_leaf_vector":"0"}},{"base_weights":[-2.0277423E-3,-9.531296E-3,1.240611E0,9.840551E-1,-1.6488362E-2,1.9573468E-1,1.2171869E0,-3.6573583E-1,5.1928256E-3,-1.0765537E0,-5.9459176E-2,2.6002195E-1,-4.7263756E-2],"categories":[],"categories_nodes":[],"categories_segments":[],"categories_sizes":[],"default_left":[1,1,0,1,1,0,0,1,1,0,0,0,0],"id":43,"left_children":[1,3,-1,5,7,-1,-1,9,11,-1,-1,-1,-1],"loss_changes":[7.358327E0,5.436683E0,0E0,7.668543E-1,5.9057903E0,0E0,0E0,9.860758E0,9.838744E0,0E0,0E0,0E0,0E0],"parents":[2147483647,0,0,1,1,3,3,4,4,7,7,8,8],"right_children":[2,4,-1,6,8,-1,-1,10,12,-1,-1,-1,-1],"split_conditions":[1.1022332E-2,3.4377383E-4,6.203055E-2,5.4333766E-4,4.8015983E-4,9.786734E-3,6.085935E-2,-2.2754828E-3,6.177756E-4,-5.3827684E-2,-2.9729588E-3,1.3001098E-2,-2.363188E-3],"split_indices":[4,3,0,6,3,0,0,4,3,0,0,0,0],"split_type":[0,0,0,0,0,0,0,0,0,0,0,0,0],"sum_hessian":[7.868958E2,7.831591E2,3.7367008E0,4.468963E0,7.786902E2,1.4398364E0,3.029127E0,4.458775E1,7.341024E2,1.26693325E1,3.1918417E1,1.2464276E2,6.0945966E2],"tree_param":{"num_deleted":"0","num_feature":"11","num_nodes":"13","size_leaf_vector":"0"}},{"base_weights":[-1.0050615E-2,1.7543034E-1,-5.248341E-2,4.8954466E-1,-1.8388212E-2,-4.3664396E-1,-2.4751173E-2,2.9030836E-1,8.7598884E-1,1.6161332E-1,-5.301364E-1,2.437647E-1,-5.719737E-1,5.179879E-1,-4.643107E-2,4.5642802E-1,-1.6727705E-1,1.0536163E0,5.36743E-2,7.5433713E-1,-3.5826106E-2,-8.2341284E-1,9.9509054E-1,7.684462E-1,-7.719177E-1,-3.2943127E-1,-1.2525151E0,-1.3111789E0,7.748082E-1,-3.1814117E-2,-8.42428E-1],"categories":[],"categories_nodes":[],"categories_segments":[],"categories_sizes":[],"default_left":[1,1,1,1,1,1,1,1,1,1,1,1,1,1,1,0,0,0,0,0,0,0,0,0,0,0,0,0,0,0,0],"id":44,"left_children":[1,3,5,7,9,11,13,15,17,19,21,23,25,27,29,-1,-1,-1,-1,-1,-1,-1,-1,-1,-1,-1,-1,-1,-1,-1,-1],"loss_changes":[6.2352295E0,8.989541E0,6.856004E0,4.0822277E0,8.5774355E0,4.1298532E0,7.110024E0,3.0149665E0,2.6696615E0,8.097736E0,1.1653979E1,4.7981935E0,5.60318E0,1.1921051E1,6.7215347E0,0E0,0E0,0E0,0E0,0E0,0E0,0E0,0E0,0E0,0E0,0E0,0E0,0E0,0E0,0E0,0E0],"parents":[2147483647,0,0,1,1,2,2,3,3,4,4,5,5,6,6,7,7,8,8,9,9,10,10,11,11,12,12,13,13,14,14],"right_children":[2,4,6,8,10,12,14,16,18,20,22,24,26,28,30,-1,-1,-1,-1,-1,-1,-1,-1,-1,-1,-1,-1,-1,-1,-1,-1],"split_conditions":[-2.1694186E-1,-3.7271128E-4,-4.3127807E-3,3.7940952E-1,1.6608357E-3,-7.094263E-3,-3.438968E-3,1.8067539E-3,2.1273564E-4,8.271573E-4,1.1022332E-2,1.2940952E-1,1.1964242E-3,-2.8431863E-3,6.956499E-3,2.2821402E-2,-8.363853E-3,5.2680817E-2,2.683715E-3,3.7716858E-2,-1.7913053E-3,-4.117064E-2,4.9754526E-2,3.8422313E-2,-3.8595885E-2,-1.6471563E-2,-6.262576E-2,-6.555895E-2,3.874041E-2,-1.5907058E-3,-4.2121403E-2],"split_indices":[9,2,4,8,4,4,4,4,1,6,4,7,6,2,4,0,0,0,0,0,0,0,0,0,0,0,0,0,0,0,0],"split_type":[0,0,0,0,0,0,0,0,0,0,0,0,0,0,0,0,0,0,0,0,0,0,0,0,0,0,0,0,0,0,0],"sum_hessian":[7.9006055E2,1.4650928E2,6.435513E2,5.5323235E1,9.1186035E1,4.2336754E1,6.012145E2,3.765892E1,1.7664314E1,6.79645E1,2.3221535E1,6.890672E0,3.5446083E1,2.2213923E1,5.7900055E2,2.7630573E1,1.0028346E1,1.4295151E1,3.3691647E0,1.6277617E1,5.1686886E1,1.9862446E1,3.3590887E0,4.7040644E0,2.186608E0,2.7226671E1,8.219411E0,2.2294614E0,1.998446E1,5.695813E2,9.419297E0],"tree_param":{"num_deleted":"0","num_feature":"11","num_nodes":"31","size_leaf_vector":"0"}},{"base_weights":[7.4120816E-3,2.0553435E-4,1.0659478E0,1.041779E0,-6.0939286E-3,-1.1375845E-2,1.1989528E0,4.1341623E-3,-5.3798276E-1],"categories":[],"categories_nodes":[],"categories_segments":[],"categories_sizes":[],"default_left":[1,1,0,0,1,1,0,0,0],"id":45,"left_children":[1,3,-1,-1,5,7,-1,-1,-1],"loss_changes":[5.9847245E0,5.125891E0,0E0,0E0,4.956414E0,6.325331E0,0E0,0E0,0E0],"parents":[2147483647,0,0,1,1,4,4,5,5],"right_children":[2,4,-1,-1,6,8,-1,-1,-1],"split_conditions":[1.1022332E-2,3.4377383E-4,5.329739E-2,5.2088954E-2,9.452662E1,3.969794E-3,5.994764E-2,2.0670812E-4,-2.6899138E-2],"split_indices":[4,3,0,0,5,2,0,0,0],"split_type":[0,0,0,0,0,0,0,0,0],"sum_hessian":[7.8356213E2,7.792571E2,4.3050146E0,3.6964607E0,7.755606E2,7.731623E2,2.3983374E0,7.520058E2,2.1156471E1],"tree_param":{"num_deleted":"0","num_feature":"11","num_nodes":"9","size_leaf_vector":"0"}},{"base_weights":[-1.4819655E-2,2.7375821E-2,-1.4926895E-1,2.060709E-1,-1.224111E-2,-2.3313607E-1,2.8476837E-1,5.185281E-1,-4.2638956E-3,4.294654E-3,-9.782689E-1,-3.844107E-1,-3.175484E-2,-7.2629565E-1,4.999334E-1,3.813609E-1,1.1756345E0,1.8893115E-1,-2.6789948E-1,-5.093707E-2,3.2211947E-1,-1.2303592E0,3.3611104E-1,-1.8768972E-1,-6.080936E-1,-5.257991E-1,2.264933E-1,-2.4397753E-1,-1.001928E0,7.272218E-1,-4.066163E-1],"categories":[],"categories_nodes":[],"categories_segments":[],"categories_sizes":[],"default_left":[1,1,1,1,1,1,1,1,1,1,1,1,1,1,1,0,0,0,0,0,0,0,0,0,0,0,0,0,0,0,0],"id":46,"left_children":[1,3,5,7,9,11,13,15,17,19,21,23,25,27,29,-1,-1,-1,-1,-1,-1,-1,-1,-1,-1,-1,-1,-1,-1,-1,-1],"loss_changes":[4.457361E0,4.238173E0,6.8976026E0,7.1415124E0,7.842318E0,4.7957134E0,7.072094E0,3.491723E0,3.4079912E0,8.502321E0,3.1511273E0,3.8476372E0,8.895707E0,5.2915335E-1,5.657159E0,0E0,0E0,0E0,0E0,0E0,0E0,0E0,0E0,0E0,0E0,0E0,0E0,0E0,0E0,0E0,0E0],"parents":[2147483647,0,0,1,1,2,2,3,3,4,4,5,5,6,6,7,7,8,8,9,9,10,10,11,11,12,12,13,13,14,14],"right_children":[2,4,6,8,10,12,14,16,18,20,22,24,26,28,30,-1,-1,-1,-1,-1,-1,-1,-1,-1,-1,-1,-1,-1,-1,-1,-1],"split_conditions":[4.2563226E-4,-2.1694186E-1,1.4964405E-3,-4.4265957E-4,6.956499E-3,6.078576E-1,4.5017138E-4,-5.6727696E-4,5.599086E1,2.5412575E-3,7.719597E1,7.81919E-4,-1.2940952E-1,-4.4679688E-4,8.117449E-1,1.9068046E-2,5.8781724E-2,9.446558E-3,-1.3394974E-2,-2.5468536E-3,1.6105974E-2,-6.151796E-2,1.6805552E-2,-9.384486E-3,-3.0404681E-2,-2.6289955E-2,1.13246655E-2,-1.2198877E-2,-5.00964E-2,3.636109E-2,-2.0330815E-2],"split_indices":[0,9,0,1,4,9,1,1,5,4,5,1,7,2,10,0,0,0,0,0,0,0,0,0,0,0,0,0,0,0,0],"split_type":[0,0,0,0,0,0,0,0,0,0,0,0,0,0,0,0,0,0,0,0,0,0,0,0,0,0,0,0,0,0,0],"sum_hessian":[7.8397363E2,5.9731055E2,1.8666315E2,1.0763107E2,4.8967944E2,1.5682365E2,2.9839481E1,4.2713673E1,6.49174E1,4.8241733E2,7.2621164E0,8.903386E1,6.77898E1,4.819069E0,2.502041E1,3.6644672E1,6.0690026E0,3.7627163E1,2.7290236E1,4.1170993E2,7.070739E1,6.147069E0,1.1150472E0,4.8350464E1,4.0683395E1,2.2915346E1,4.487446E1,2.4380236E0,2.3810453E0,2.0162998E1,4.857414E0],"tree_param":{"num_deleted":"0","num_feature":"11","num_nodes":"31","size_leaf_vector":"0"}},{"base_weights":[1.5566179E-2,8.653573E-2,-6.7743085E-2,-2.7696706E-2,2.2047202E-1,-8.6032934E-2,8.4113467E-1,1.16004415E-1,-2.9823506E-1,1.3891096E-1,7.777433E-1,-5.874586E-2,-9.457511E-1,-2.7847162E-1,1.1121353E0,4.950329E-1,-8.0437265E-2,-3.9073247E-1,8.030009E-1,-1.5356268E-1,2.5386056E-1,1.3431339E0,1.9743542E-1,-1.6052777E-1,1.5379849E-1,-1.1952267E0,5.620619E-1,1.2975498E0,5.0037146E-1],"categories":[],"categories_nodes":[],"categories_segments":[],"categories_sizes":[],"default_left":[1,1,1,1,1,1,1,1,1,1,1,1,1,0,1,0,0,0,0,0,0,0,0,0,0,0,0,0,0],"id":47,"left_children":[1,3,5,7,9,11,13,15,17,19,21,23,25,-1,27,-1,-1,-1,-1,-1,-1,-1,-1,-1,-1,-1,-1,-1,-1],"loss_changes":[4.643513E0,6.493308E0,6.0797954E0,8.9654455E0,8.76781E0,8.276341E0,2.5008726E0,1.1264284E1,8.459784E0,5.8070087E0,7.843664E0,7.494751E0,4.756837E0,0E0,3.2980442E-2,0E0,0E0,0E0,0E0,0E0,0E0,0E0,0E0,0E0,0E0,0E0,0E0,0E0,0E0],"parents":[2147483647,0,0,1,1,2,2,3,3,4,4,5,5,6,6,7,7,8,8,9,9,10,10,11,11,12,12,14,14],"right_children":[2,4,6,8,10,12,14,16,18,20,22,24,26,-1,28,-1,-1,-1,-1,-1,-1,-1,-1,-1,-1,-1,-1,-1,-1],"split_conditions":[1.0893599E-4,1.2940952E-1,1.5431608E-3,1.236684E-3,2.861275E-3,1.2107447E-3,-7.865661E-1,6.7937066E-4,7.0698044E1,6.4668636E-4,4.90478E-3,8.653677E-4,2.486248E-3,-1.3923581E-2,4.215912E-3,2.4751646E-2,-4.0218635E-3,-1.9536624E-2,4.0150046E-2,-7.678134E-3,1.2693028E-2,6.7156695E-2,9.871772E-3,-8.0263885E-3,7.6899244E-3,-5.9761334E-2,2.8103096E-2,6.4877495E-2,2.5018573E-2],"split_indices":[1,8,3,4,4,3,7,3,5,3,4,3,1,0,2,0,0,0,0,0,0,0,0,0,0,0,0,0,0],"split_type":[0,0,0,0,0,0,0,0,0,0,0,0,0,0,0,0,0,0,0,0,0,0,0,0,0,0,0,0,0],"sum_hessian":[7.8339124E2,4.2300375E2,3.6038745E2,2.2872258E2,1.9428117E2,3.541657E2,6.221732E0,1.4975098E2,7.89716E1,1.7056667E2,2.3714506E1,3.4430594E2,9.859787E0,1.2071147E0,5.0146174E0,5.0599915E1,9.915106E1,7.3447624E1,5.523985E0,4.8028572E1,1.2253809E2,1.134582E1,1.2368686E1,2.329818E2,1.11324135E2,8.63791E0,1.2218765E0,2.9880083E0,2.0266092E0],"tree_param":{"num_deleted":"0","num_feature":"11","num_nodes":"29","size_leaf_vector":"0"}},{"base_weights":[-1.502752E-2,1.5415376E-1,-5.271979E-2,3.4377337E-1,-1.4188415E-1,-3.9790962E-2,-7.7876145E-1,7.002442E-1,4.83226E-2,-3.4569967E-1,6.793578E-1,-1.3773678E-1,6.974315E-2,-1.0961381E0,5.962344E-1,-8.1023604E-1,8.881813E-1,5.185954E-1,-5.129902E-1,-4.3530646E-1,8.6675584E-1,-7.3676246E-1,9.171841E-1,-8.355069E-2,-7.2650677E-1,-1.0081564E-1,2.2612162E-1,-5.058541E-1,-1.3372037E0],"categories":[],"categories_nodes":[],"categories_segments":[],"categories_sizes":[],"default_left":[1,1,1,1,1,1,1,1,1,1,1,1,1,1,0,0,0,0,0,0,0,0,0,0,0,0,0,0,0],"id":48,"left_children":[1,3,5,7,9,11,13,15,17,19,21,23,25,27,-1,-1,-1,-1,-1,-1,-1,-1,-1,-1,-1,-1,-1,-1,-1],"loss_changes":[5.0233445E0,8.106913E0,6.0134516E0,9.212678E0,9.734692E0,6.808337E0,5.5464187E0,1.1993597E1,1.3221782E1,5.3894277E0,4.58997E0,1.0623341E1,8.019594E0,6.6995144E-1,0E0,0E0,0E0,0E0,0E0,0E0,0E0,0E0,0E0,0E0,0E0,0E0,0E0,0E0,0E0],"parents":[2147483647,0,0,1,1,2,2,3,3,4,4,5,5,6,6,7,7,8,8,9,9,10,10,11,11,12,12,13,13],"right_children":[2,4,6,8,10,12,14,16,18,20,22,24,26,28,-1,-1,-1,-1,-1,-1,-1,-1,-1,-1,-1,-1,-1,-1,-1],"split_conditions":[-2.1694186E-1,5.551863E1,6.9705592E-3,-9.246245E-4,7.865661E-1,1.6115444E-5,8.0327835E1,-1.9227113E-3,-6.1232336E-17,9.817764E-3,5.7882523E1,-3.6593195E-4,-1.2940952E-1,7.4770083E-3,2.981172E-2,-4.05118E-2,4.4409066E-2,2.592977E-2,-2.5649508E-2,-2.1765323E-2,4.3337792E-2,-3.6838125E-2,4.5859206E-2,-4.1775345E-3,-3.632534E-2,-5.040782E-3,1.1306081E-2,-2.5292708E-2,-6.686019E-2],"split_indices":[9,5,4,4,8,4,5,2,8,4,5,4,8,4,0,0,0,0,0,0,0,0,0,0,0,0,0,0,0],"split_type":[0,0,0,0,0,0,0,0,0,0,0,0,0,0,0,0,0,0,0,0,0,0,0,0,0,0,0,0,0],"sum_hessian":[7.854754E2,1.4255031E2,6.429251E2,8.679483E1,5.575548E1,6.32713E2,1.0212092E1,3.8714478E1,4.8080353E1,4.5133354E1,1.0622126E1,3.3388992E2,2.988231E2,8.461756E0,1.750337E0,3.9175227E0,3.4796955E1,2.6203192E1,2.1877161E1,4.2624176E1,2.5091782E0,1.2257259E0,9.3964E0,3.067965E2,2.70934E1,1.4310104E2,1.5572206E2,3.3520887E0,5.109667E0],"tree_param":{"num_deleted":"0","num_feature":"11","num_nodes":"29","size_leaf_vector":"0"}},{"base_weights":[-3.8442244E-3,-8.842684E-3,1.1689812E0,-1.9571937E-3,-9.8442185E-1,-9.264289E-3,7.20991E-1,-1.2576749E0,-1.2887795E-1,4.8408462E-4,-7.0833963E-1,1.2036746E0,3.3107065E-2],"categories":[],"categories_nodes":[],"categories_segments":[],"categories_sizes":[],"default_left":[1,1,0,1,1,1,1,0,0,0,0,0,0],"id":49,"left_children":[1,3,-1,5,7,9,11,-1,-1,-1,-1,-1,-1],"loss_changes":[4.6503305E0,5.2989154E0,0E0,4.151446E0,1.1303711E0,5.3004947E0,2.5710907E0,0E0,0E0,0E0,0E0,0E0,0E0],"parents":[2147483647,0,0,1,1,3,3,4,4,5,5,6,6],"right_children":[2,4,-1,6,8,10,12,-1,-1,-1,-1,-1,-1],"split_conditions":[9.452662E1,8.926703E1,5.844906E-2,1.6090237E-3,9.0305076E-4,1.3989415E-3,3.1235602E-3,-6.288375E-2,-6.4438977E-3,2.4204232E-5,-3.5416983E-2,6.018373E-2,1.6553532E-3],"split_indices":[5,5,0,3,3,3,2,0,0,0,0,0,0],"split_type":[0,0,0,0,0,0,0,0,0,0,0,0,0],"sum_hessian":[7.904944E2,7.881279E2,2.366459E0,7.835994E2,4.52852E0,7.7673584E2,6.8635616E0,3.0760334E0,1.4524869E0,7.6703906E2,9.696798E0,3.5927389E0,3.2708228E0],"tree_param":{"num_deleted":"0","num_feature":"11","num_nodes":"13","size_leaf_vector":"0"}},{"base_weights":[-4.674616E-4,5.6258313E-2,-1.500144E-1,-2.5242293E-1,8.1995994E-2,-2.1260363E-1,3.9975864E-1,2.5889468E-1,-5.706896E-1,5.998804E-1,5.4109488E-2,9.3396485E-2,-3.7373182E-1,6.106334E-1,-4.9635795E-1,9.607347E-1,-3.2193848E-1,-6.845835E-2,-9.964705E-1,1.5085804E0,1.9226569E-1,-1.0446694E-1,1.3677953E-1,8.360357E-1,-4.6222735E-2,-5.6740016E-1,-1.8471096E-1,9.468966E-1,-1.1520624E-1,-1.1672517E0,3.5596377E-1],"categories":[],"categories_nodes":[],"categories_segments":[],"categories_sizes":[],"default_left":[1,1,1,1,1,1,1,1,1,1,1,1,1,1,1,0,0,0,0,0,0,0,0,0,0,0,0,0,0,0,0],"id":50,"left_children":[1,3,5,7,9,11,13,15,17,19,21,23,25,27,29,-1,-1,-1,-1,-1,-1,-1,-1,-1,-1,-1,-1,-1,-1,-1,-1],"loss_changes":[6.6855464E0,4.5601015E0,7.5425863E0,7.343806E0,7.5951195E0,9.660742E0,4.5546694E0,7.5053782E0,5.8266954E0,9.668946E0,6.598753E0,7.1039877E0,4.5841694E0,4.6638284E0,3.1816702E0,0E0,0E0,0E0,0E0,0E0,0E0,0E0,0E0,0E0,0E0,0E0,0E0,0E0,0E0,0E0,0E0],"parents":[2147483647,0,0,1,1,2,2,3,3,4,4,5,5,6,6,7,7,8,8,9,9,10,10,11,11,12,12,13,13,14,14],"right_children":[2,4,6,8,10,12,14,16,18,20,22,24,26,28,30,-1,-1,-1,-1,-1,-1,-1,-1,-1,-1,-1,-1,-1,-1,-1,-1],"split_conditions":[3.390187E-4,4.8230792E-4,1.7576388E-3,-4.2120402E-4,5.3740427E-4,9.783155E-4,8.117449E-1,4.3755188E-4,2.0048442E-1,3.1039513E1,-3.7940952E-1,-9.159756E-1,8.2076853E-4,7.75033E1,1.2705125E-3,4.8036736E-2,-1.6096925E-2,-3.4229176E-3,-4.9823526E-2,7.542902E-2,9.613285E-3,-5.223347E-3,6.838977E-3,4.1801788E-2,-2.3111368E-3,-2.8370008E-2,-9.235549E-3,4.734483E-2,-5.760312E-3,-5.8362585E-2,1.779819E-2],"split_indices":[0,3,0,2,3,6,10,3,10,5,8,8,3,5,6,0,0,0,0,0,0,0,0,0,0,0,0,0,0,0,0],"split_type":[0,0,0,0,0,0,0,0,0,0,0,0,0,0,0,0,0,0,0,0,0,0,0,0,0,0,0,0,0,0,0],"sum_hessian":[7.8610077E2,5.703724E2,2.1572842E2,4.321938E1,5.27153E2,1.9422954E2,2.1498882E1,1.6652512E1,2.6566868E1,2.5887163E1,5.0126584E2,6.7141266E1,1.2708827E2,1.7661373E1,3.837508E0,7.2445803E0,9.40793E0,1.2721711E1,1.3845156E1,7.179911E0,1.8707253E1,1.716828E2,3.2958304E2,9.835887E0,5.7305378E1,6.17837E1,6.530457E1,1.1861627E1,5.799747E0,1.9405406E0,1.8969674E0],"tree_param":{"num_deleted":"0","num_feature":"11","num_nodes":"31","size_leaf_vector":"0"}}]},"name":"gbtree"},"learner_model_param":{"base_score":"5E-1","boost_from_average":"1","num_class":"0","num_feature":"11","num_target":"1"},"objective":{"name":"binary:logistic","reg_loss_param":{"scale_pos_weight":"1"}}},"version":[1,7,6]}