{"learner":{"attributes":{"best_iteration":"0","best_ntree_limit":"1","best_score":"0.6982692814318934"},"feature_names":["ret_1","ret_3","ret_6","vol_24","sma_diff","rsi","atr_norm","hour_sin","hour_cos","dow_sin","dow_cos"],"feature_types":[],"gradient_booster":{"model":{"gbtree_model_param":{"num_parallel_tree":"1","num_trees":"51","size_leaf_vector":"0"},"tree_info":[0,0,0,0,0,0,0,0,0,0,0,0,0,0,0,0,0,0,0,0,0,0,0,0,0,0,0,0,0,0,0,0,0,0,0,0,0,0,0,0,0,0,0,0,0,0,0,0,0,0,0],"trees":[{"base_weights":[2.3129252E-1,-3.0215827E-1,6.918239E-1,5.671642E-1,-1.0526316E0,7.631579E-1,-5.4545456E-1,1.12E0,-8.5714287E-1,3.0769232E-1,-1.6296296E0,3.2E-1,9.433962E-1,1.7333333E0,1.6666667E-1,-1.4666667E0,4E-1,1.3846154E0,-5.882353E-1,-1.8181819E-1,-1.8297873E0,1.030303E0,-8.5714287E-1,-1.1764706E-1,1.0967742E0],"categories":[],"categories_nodes":[],"categories_segments":[],"categories_sizes":[],"default_left":[1,1,1,1,1,1,0,1,1,1,1,1,1,0,0,0,0,0,0,0,0,0,0,0,0],"id":0,"left_children":[1,3,5,7,9,11,-1,13,15,17,19,21,23,-1,-1,-1,-1,-1,-1,-1,-1,-1,-1,-1,-1],"loss_changes":[1.8265846E1,2.3268028E1,3.9246025E0,1.4149084E1,1.5414604E1,2.7333279E0,0E0,7.0199986E0,4.6095233E0,7.085973E0,3.579483E0,1.133472E1,4.441658E0,0E0,0E0,0E0,0E0,0E0,0E0,0E0,0E0,0E0,0E0,0E0,0E0],"parents":[2147483647,0,0,1,1,2,2,3,3,4,4,5,5,7,7,8,8,9,9,10,10,11,11,12,12],"right_children":[2,4,6,8,10,12,-1,14,16,18,20,22,24,-1,-1,-1,-1,-1,-1,-1,-1,-1,-1,-1,-1],"split_conditions":[9.797532E-4,2.0953123E-3,1.9954885E-3,7.082597E1,7.680943E-4,-6.035534E-1,-2.727273E-2,8.5942826E-4,7.865661E-1,-3.971647E-4,-1.2419679E-3,1.1914617E-3,-7.5979554E-4,8.6666666E-2,8.333334E-3,-7.333334E-2,2.0000001E-2,6.923077E-2,-2.9411767E-2,-9.09091E-3,-9.148937E-2,5.151515E-2,-4.2857144E-2,-5.882353E-3,5.4838713E-2],"split_indices":[3,4,0,5,3,7,0,3,7,1,1,3,4,0,0,0,0,0,0,0,0,0,0,0,0],"split_type":[0,0,0,0,0,0,0,0,0,0,0,0,0,0,0,0,0,0,0,0,0,0,0,0,0],"sum_hessian":[7.25E1,3.375E1,3.875E1,1.575E1,1.8E1,3.7E1,1.75E0,1.15E1,4.25E0,5.5E0,1.25E1,1.15E1,2.55E1,6.5E0,5E0,2.75E0,1.5E0,2.25E0,3.25E0,1.75E0,1.075E1,7.25E0,4.25E0,3.25E0,2.225E1],"tree_param":{"num_deleted":"0","num_feature":"11","num_nodes":"25","size_leaf_vector":"0"}},{"base_weights":[1.8097423E-1,-3.7164247E-1,6.3332045E-1,3.7100828E-1,-1.1596558E0,1.015539E0,1.5867448E-1,9.631224E-1,-9.7355014E-1,1.8911089E-1,-1.6068786E0,1.2647539E0,-2.4853191E-1,7.84732E-1,-9.2665315E-1,1.3360661E0,-1.1816731E-1,-1.4843364E0,1.6910198E-1,1.2296258E0,-7.4898237E-1,-2.1717422E-1,-1.7422404E0,1.3828963E0,-2.1585813E-1,-1.233451E0,6.550879E-1,1.3490072E0,1.7053115E-1,1.6689974E-1,-1.2884768E0],"categories":[],"categories_nodes":[],"categories_segments":[],"categories_sizes":[],"default_left":[1,1,1,1,1,1,1,1,1,1,1,1,1,1,1,0,0,0,0,0,0,0,0,0,0,0,0,0,0,0,0],"id":1,"left_children":[1,3,5,7,9,11,13,15,17,19,21,23,25,27,29,-1,-1,-1,-1,-1,-1,-1,-1,-1,-1,-1,-1,-1,-1,-1,-1],"loss_changes":[1.8467016E1,2.0010933E1,7.1818466E0,1.525432E1,1.0242176E1,7.3190784E0,1.3800256E1,5.3952045E0,3.7501812E0,5.798948E0,1.9690056E0,3.5761967E0,4.8108587E0,4.1864133E0,3.1813545E0,0E0,0E0,0E0,0E0,0E0,0E0,0E0,0E0,0E0,0E0,0E0,0E0,0E0,0E0,0E0,0E0],"parents":[2147483647,0,0,1,1,2,2,3,3,4,4,5,5,6,6,7,7,8,8,9,9,10,10,11,11,12,12,13,13,14,14],"right_children":[2,4,6,8,10,12,14,16,18,20,22,24,26,28,30,-1,-1,-1,-1,-1,-1,-1,-1,-1,-1,-1,-1,-1,-1,-1,-1],"split_conditions":[9.797532E-4,2.2291187E-3,2.0048442E-1,7.0633606E1,7.674915E-4,8.005118E-3,1.1963581E-3,8.9504727E-4,7.865661E-1,-3.784251E-4,-1.2419679E-3,1.9532333E-3,1.163274E-3,-4.0339972E-4,3.4582336E-6,6.680331E-2,-5.908366E-3,-7.421682E-2,8.4551E-3,6.1481293E-2,-3.7449118E-2,-1.0858711E-2,-8.7112024E-2,6.9144815E-2,-1.0792906E-2,-6.167255E-2,3.2754395E-2,6.745037E-2,8.526558E-3,8.344987E-3,-6.4423844E-2],"split_indices":[3,4,10,5,3,4,3,3,7,1,1,0,3,2,4,0,0,0,0,0,0,0,0,0,0,0,0,0,0,0,0],"split_type":[0,0,0,0,0,0,0,0,0,0,0,0,0,0,0,0,0,0,0,0,0,0,0,0,0,0,0,0,0,0,0],"sum_hessian":[7.193416E1,3.245876E1,3.9475403E1,1.6982784E1,1.5475973E1,2.12355E1,1.8239902E1,1.1987458E1,4.995326E0,3.9974182E0,1.1478555E1,1.7737888E1,3.4976113E0,1.174304E1,6.4968615E0,8.738032E0,3.2494256E0,3.2455013E0,1.749825E0,1.7479048E0,2.2495134E0,1.2499741E0,1.022858E1,1.648824E1,1.2496483E0,1.4988729E0,1.9987385E0,5.4967422E0,6.2462983E0,1.7491295E0,4.7477317E0],"tree_param":{"num_deleted":"0","num_feature":"11","num_nodes":"31","size_leaf_vector":"0"}},{"base_weights":[2.3428302E-1,-5.0916392E-2,9.2431444E-1,4.9464542E-1,-6.933549E-1,1.3246505E0,2.9527608E-1,8.4357095E-1,-6.4123815E-1,3.068943E-1,-1.0805315E0,1.549677E0,2.7056694E-1,-1.9578491E-1,1.1324955E0,1.1688646E0,-4.0281844E-1,-1.4624244E0,3.299529E-1,-8.607188E-1,7.907529E-1,-1.1891389E0,2.1875198E-1,3.7052009E-1,1.7050735E0,-2.2129835E-1,6.420002E-1,6.12409E-1,-1.1780468E0],"categories":[],"categories_nodes":[],"categories_segments":[],"categories_sizes":[],"default_left":[1,1,1,1,1,1,1,1,1,1,1,1,1,1,0,0,0,0,0,0,0,0,0,0,0,0,0,0,0],"id":2,"left_children":[1,3,5,7,9,11,13,15,17,19,21,23,25,27,-1,-1,-1,-1,-1,-1,-1,-1,-1,-1,-1,-1,-1,-1,-1],"loss_changes":[1.4611922E1,1.9028946E1,5.0724545E0,1.2198975E1,9.974531E0,2.6574364E0,4.2197676E0,9.769236E0,6.4483767E0,5.0462265E0,2.8244457E0,1.288147E0,7.8031516E-1,6.264214E0,0E0,0E0,0E0,0E0,0E0,0E0,0E0,0E0,0E0,0E0,0E0,0E0,0E0,0E0,0E0],"parents":[2147483647,0,0,1,1,2,2,3,3,4,4,5,5,6,6,7,7,8,8,9,9,10,10,11,11,12,12,13,13],"right_children":[2,4,6,8,10,12,14,16,18,20,22,24,26,28,-1,-1,-1,-1,-1,-1,-1,-1,-1,-1,-1,-1,-1,-1,-1],"split_conditions":[1.6844957E-3,2.500943E-3,5.494586E1,7.0633606E1,-6.964189E-4,8.117449E-1,1.9134887E-3,7.865661E-1,3.7940952E-1,-3.7940952E-1,2.3235986E-3,3.3395027E1,-5.605153E-4,-5.6174487E-1,5.6624778E-2,5.844323E-2,-2.0140922E-2,-7.312122E-2,1.6497646E-2,-4.303594E-2,3.9537646E-2,-5.9456944E-2,1.0937599E-2,1.8526005E-2,8.525368E-2,-1.1064918E-2,3.210001E-2,3.062045E-2,-5.8902342E-2],"split_indices":[6,4,5,5,1,10,6,7,7,7,1,5,0,10,0,0,0,0,0,0,0,0,0,0,0,0,0,0,0],"split_type":[0,0,0,0,0,0,0,0,0,0,0,0,0,0,0,0,0,0,0,0,0,0,0,0,0,0,0,0,0],"sum_hessian":[7.300973E1,5.2313892E1,2.0695835E1,2.8414347E1,2.3899546E1,1.1971213E1,8.724621E0,2.1933933E1,6.4804144E0,6.727298E0,1.7172249E1,9.4777355E0,2.493478E0,5.9820623E0,2.742558E0,1.7443558E1,4.4903746E0,3.2373133E0,3.2431011E0,1.7428094E0,4.9844885E0,1.5925781E1,1.2464665E0,1.4976716E0,7.980064E0,1.2467247E0,1.2467535E0,3.488388E0,2.4936743E0],"tree_param":{"num_deleted":"0","num_feature":"11","num_nodes":"29","size_leaf_vector":"0"}},{"base_weights":[2.0757164E-1,-3.4391228E-2,8.6558115E-1,4.6888486E-1,-6.0087836E-1,1.0482043E0,-7.760812E-1,7.73954E-1,-4.9903154E-1,2.1507135E-1,-9.5356506E-1,4.5800036E-1,1.2933779E0,9.4199216E-1,-4.9367392E-1,7.2844404E-1,-1.165212E0,-9.921576E-1,8.0791384E-1,6.38582E-2,-1.084786E0,9.893039E-1,-3.1864935E-1,1.5424452E0,3.3597457E-1],"categories":[],"categories_nodes":[],"categories_segments":[],"categories_sizes":[],"default_left":[1,1,1,1,1,1,0,1,1,1,1,1,1,0,0,0,0,0,0,0,0,0,0,0,0],"id":3,"left_children":[1,3,5,7,9,11,-1,13,15,17,19,21,23,-1,-1,-1,-1,-1,-1,-1,-1,-1,-1,-1,-1],"loss_changes":[1.1346712E1,1.5372515E1,6.554323E0,8.828716E0,7.4973755E0,1.9626503E0,0E0,5.1792593E0,6.948866E0,6.85887E0,2.4559517E0,3.0924492E0,2.3257828E0,0E0,0E0,0E0,0E0,0E0,0E0,0E0,0E0,0E0,0E0,0E0,0E0],"parents":[2147483647,0,0,1,1,2,2,3,3,4,4,5,5,7,7,8,8,9,9,10,10,11,11,12,12],"right_children":[2,4,6,8,10,12,-1,14,16,18,20,22,24,-1,-1,-1,-1,-1,-1,-1,-1,-1,-1,-1,-1],"split_conditions":[1.6844957E-3,2.4999043E-3,5.4632863E-3,2.201447E-3,-6.620774E-4,2.6964159E-3,-3.880406E-2,9.159756E-1,1.3798866E-3,-3.7940952E-1,-9.159756E-1,-1.2202775E-4,7.387464E-3,4.709961E-2,-2.4683697E-2,3.6422204E-2,-5.82606E-2,-4.960788E-2,4.0395692E-2,3.1929102E-3,-5.4239303E-2,4.9465194E-2,-1.5932469E-2,7.712226E-2,1.679873E-2],"split_indices":[6,4,2,2,1,4,0,7,6,7,8,2,4,0,0,0,0,0,0,0,0,0,0,0,0],"split_type":[0,0,0,0,0,0,0,0,0,0,0,0,0,0,0,0,0,0,0,0,0,0,0,0,0],"sum_hessian":[7.008014E1,5.193161E1,1.8148525E1,2.7591331E1,2.4340279E1,1.6657047E1,1.4914782E0,2.1131477E1,6.4598536E0,7.463492E0,1.6876787E1,5.7303953E0,1.0926653E1,1.8884953E1,2.2465248E0,2.2396703E0,4.2201834E0,2.2362223E0,5.2272696E0,1.9866474E0,1.4890141E1,3.2400668E0,2.4903288E0,8.186003E0,2.7406497E0],"tree_param":{"num_deleted":"0","num_feature":"11","num_nodes":"25","size_leaf_vector":"0"}},{"base_weights":[1.4859122E-1,-2.9162675E-1,5.288469E-1,4.979976E-1,-7.815763E-1,6.6554177E-1,-5.0177294E-1,9.62298E-1,-4.5502612E-1,2.1511829E-1,-1.4596907E0,-1.4726609E-1,7.954385E-1,-9.787847E-1,5.745424E-1,1.1430649E0,-1.4892438E-1,8.3195925E-1,-1.3386632E0,1.3605868E0,-4.2966747E-1,-2.1802266E-1,-1.6319262E0,3.5897115E-1,-1.0910251E0,1.0762959E0,3.7784183E-1,-2.4228694E-1,-1.2250001E0],"categories":[],"categories_nodes":[],"categories_segments":[],"categories_sizes":[],"default_left":[1,1,1,1,1,1,1,1,1,1,1,1,1,1,0,0,0,0,0,0,0,0,0,0,0,0,0,0,0],"id":4,"left_children":[1,3,5,7,9,11,13,15,17,19,21,23,25,27,-1,-1,-1,-1,-1,-1,-1,-1,-1,-1,-1,-1,-1,-1,-1],"loss_changes":[1.2431123E1,1.3788658E1,5.9277134E0,6.5763254E0,1.5022626E1,3.8637915E0,3.2422612E0,2.1084652E0,7.0539727E0,7.73625E0,2.441368E0,3.1308944E0,3.2001438E0,4.2613673E-1,0E0,0E0,0E0,0E0,0E0,0E0,0E0,0E0,0E0,0E0,0E0,0E0,0E0,0E0,0E0],"parents":[2147483647,0,0,1,1,2,2,3,3,4,4,5,5,6,6,7,7,8,8,9,9,10,10,11,11,12,12,13,13],"right_children":[2,4,6,8,10,12,14,16,18,20,22,24,26,28,-1,-1,-1,-1,-1,-1,-1,-1,-1,-1,-1,-1,-1,-1,-1],"split_conditions":[9.797532E-4,1.5569337E-3,4.060843E-3,8.9197466E-4,7.6874567E-4,-4.2251655E-4,1.2924367E-3,7.556442E1,-1.2202775E-4,-3.971647E-4,-1.2419679E-3,7.865661E-1,3.9004444E-3,1.0990738E-3,2.872712E-2,5.7153244E-2,-7.446219E-3,4.1597962E-2,-6.693316E-2,6.802934E-2,-2.1483375E-2,-1.09011335E-2,-8.159631E-2,1.7948559E-2,-5.4551255E-2,5.3814795E-2,1.8892093E-2,-1.2114347E-2,-6.125001E-2],"split_indices":[3,4,2,3,3,4,3,5,2,1,1,7,4,3,0,0,0,0,0,0,0,0,0,0,0,0,0,0,0],"split_type":[0,0,0,0,0,0,0,0,0,0,0,0,0,0,0,0,0,0,0,0,0,0,0,0,0,0,0,0,0],"sum_hessian":[7.2340706E1,3.3634956E1,3.870575E1,1.2872552E1,2.0762402E1,3.448598E1,4.219769E0,8.6490965E0,4.2234554E0,8.682949E0,1.2079453E1,4.733452E0,2.975253E1,2.986707E0,1.233062E0,7.4143248E0,1.2347722E0,1.7431312E0,2.4803243E0,2.7274566E0,5.9554925E0,1.7474808E0,1.0331972E1,3.4841645E0,1.2492871E0,1.6845572E1,1.2906957E1,1.245405E0,1.7413021E0],"tree_param":{"num_deleted":"0","num_feature":"11","num_nodes":"29","size_leaf_vector":"0"}},{"base_weights":[1.8561076E-1,-1.9553608E-1,5.1061213E-1,4.7405344E-1,-8.58333E-1,1.2310057E0,3.182795E-1,9.05126E-1,-4.9674243E-1,4.657295E-1,-1.3997846E0,1.3816568E0,3.305682E-1,5.895462E-1,-1.382181E-1,1.185213E0,-5.554513E-1,-9.2227846E-1,2.6478213E-1,1.2293822E0,-1.0909839E0,-2.1105078E-1,-1.5664337E0,-5.936749E-1,8.386299E-1,-8.1252223E-1,3.6872807E-1],"categories":[],"categories_nodes":[],"categories_segments":[],"categories_sizes":[],"default_left":[1,1,1,1,1,1,1,1,1,1,1,0,0,1,1,0,0,0,0,0,0,0,0,0,0,0,0],"id":5,"left_children":[1,3,5,7,9,11,13,15,17,19,21,-1,-1,23,25,-1,-1,-1,-1,-1,-1,-1,-1,-1,-1,-1,-1],"loss_changes":[9.298018E0,1.5894912E1,5.199765E0,7.984198E0,1.3480411E1,6.4954853E-1,4.1928496E0,5.90386E0,2.2475224E0,8.407331E0,2.234827E0,0E0,0E0,6.6916046E0,4.806843E0,0E0,0E0,0E0,0E0,0E0,0E0,0E0,0E0,0E0,0E0,0E0,0E0],"parents":[2147483647,0,0,1,1,2,2,3,3,4,4,5,5,6,6,7,7,8,8,9,9,10,10,13,13,14,14],"right_children":[2,4,6,8,10,12,14,16,18,20,22,-1,-1,24,26,-1,-1,-1,-1,-1,-1,-1,-1,-1,-1,-1,-1],"split_conditions":[9.797532E-4,2.2291187E-3,-7.865661E-1,2.201447E-3,7.674915E-4,8.117449E-1,3.6174525E-3,7.865661E-1,7.865661E-1,2.4364286E-4,-1.2419679E-3,6.908284E-2,1.652841E-2,-4.000931E-4,5.026139E-3,5.9260648E-2,-2.7772564E-2,-4.6113923E-2,1.3239107E-2,6.1469108E-2,-5.4549195E-2,-1.05525395E-2,-7.832169E-2,-2.9683745E-2,4.1931495E-2,-4.0626112E-2,1.8436404E-2],"split_indices":[3,4,8,2,3,10,4,7,7,1,1,0,0,4,4,0,0,0,0,0,0,0,0,0,0,0,0],"split_type":[0,0,0,0,0,0,0,0,0,0,0,0,0,0,0,0,0,0,0,0,0,0,0,0,0,0,0],"sum_hessian":[7.325475E1,3.3898495E1,3.9356262E1,1.7004498E1,1.6893997E1,7.1552887E0,3.2200974E1,1.1822483E1,5.182014E0,4.943948E0,1.1950049E1,5.6719017E0,1.4833871E0,2.001557E1,1.2185401E1,1.0078344E1,1.7441384E0,3.18895E0,1.9930637E0,3.45792E0,1.4860275E0,1.7479674E0,1.0202082E1,3.2402046E0,1.6775366E1,4.9708066E0,7.214595E0],"tree_param":{"num_deleted":"0","num_feature":"11","num_nodes":"27","size_leaf_vector":"0"}},{"base_weights":[1.7403744E-1,-2.1116538E-1,4.9680454E-1,4.2897856E-1,-8.0116546E-1,8.347399E-1,6.281485E-2,1.0328578E0,-7.92556E-1,4.0976354E-1,-1.3554449E0,1.0566564E0,-2.8794444E-1,5.305358E-1,-6.6682017E-1,1.4849014E0,2.3517635E-1,2.1857783E-1,-1.412463E0,1.2517892E0,-4.2437583E-1,-2.0430996E-1,-1.5223702E0,3.7775818E-1,1.3355687E0,5.68712E-1,-1.1949536E0,1.1511903E0,-7.42076E-2,3.6957487E-1,-1.1584548E0],"categories":[],"categories_nodes":[],"categories_segments":[],"categories_sizes":[],"default_left":[1,1,1,1,1,1,1,1,1,1,1,1,1,1,1,0,0,0,0,0,0,0,0,0,0,0,0,0,0,0,0],"id":6,"left_children":[1,3,5,7,9,11,13,15,17,19,21,23,25,27,29,-1,-1,-1,-1,-1,-1,-1,-1,-1,-1,-1,-1,-1,-1,-1,-1],"loss_changes":[9.164679E0,1.3155798E1,5.805996E0,1.3300726E1,1.2637885E1,5.879239E0,6.6906757E0,3.890418E0,4.172179E0,5.040687E0,2.106472E0,3.07382E0,4.1597157E0,4.5415115E0,4.3497663E0,0E0,0E0,0E0,0E0,0E0,0E0,0E0,0E0,0E0,0E0,0E0,0E0,0E0,0E0,0E0,0E0],"parents":[2147483647,0,0,1,1,2,2,3,3,4,4,5,5,6,6,7,7,8,8,9,9,10,10,11,11,12,12,13,13,14,14],"right_children":[2,4,6,8,10,12,14,16,18,20,22,24,26,28,30,-1,-1,-1,-1,-1,-1,-1,-1,-1,-1,-1,-1,-1,-1,-1,-1],"split_conditions":[9.786865E-4,2.0953123E-3,2.0048442E-1,6.8173004E1,7.680943E-4,7.387464E-3,1.1932601E-3,8.409991E-4,-4.260739E-4,-3.971647E-4,-1.2419679E-3,-3.4687232E-4,6.043372E-4,-4.234676E-4,8.0681326E-5,7.424507E-2,1.1758818E-2,1.0928892E-2,-7.062315E-2,6.258946E-2,-2.1218792E-2,-1.0215498E-2,-7.6118514E-2,1.888791E-2,6.677844E-2,2.84356E-2,-5.9747677E-2,5.7559516E-2,-3.7103798E-3,1.8478744E-2,-5.792274E-2],"split_indices":[3,4,10,5,3,4,3,3,4,1,1,0,2,2,4,0,0,0,0,0,0,0,0,0,0,0,0,0,0,0,0],"split_type":[0,0,0,0,0,0,0,0,0,0,0,0,0,0,0,0,0,0,0,0,0,0,0,0,0,0,0,0,0,0,0],"sum_hessian":[7.1868286E1,3.2922752E1,3.894553E1,1.5921265E1,1.700149E1,2.1376698E1,1.7568832E1,1.0757589E1,5.1636753E0,5.420375E0,1.1581114E1,1.7897736E1,3.4789612E0,1.0872234E1,6.6965985E0,6.316517E0,4.441072E0,2.2086065E0,2.955069E0,2.448266E0,2.9721086E0,1.7483399E0,9.832774E0,5.8973756E0,1.20003605E1,1.9809576E0,1.4980037E0,4.9195986E0,5.952636E0,2.234472E0,4.4621263E0],"tree_param":{"num_deleted":"0","num_feature":"11","num_nodes":"31","size_leaf_vector":"0"}},{"base_weights":[1.4593925E-1,4.8697072E-1,-2.875538E-1,7.1685714E-1,-1.4149691E-1,7.3797956E-2,-1.2667667E0,9.193284E-1,-1.76029E-1,9.7816724E-1,-7.699445E-1,3.7022802E-1,-8.38384E-1,-1.743801E-1,-1.4199265E0,1.3996419E0,7.392807E-1,1.0463166E0,-7.533689E-1,1.3111648E-1,1.2418482E0,-1.2576566E0,1.0589681E0,5.3797615E-1,-1.0018345E0,-1.1933637E0,7.145442E-2],"categories":[],"categories_nodes":[],"categories_segments":[],"categories_sizes":[],"default_left":[1,1,1,1,1,1,1,1,1,1,1,1,1,0,0,0,0,0,0,0,0,0,0,0,0,0,0],"id":7,"left_children":[1,3,5,7,9,11,13,15,17,19,21,23,25,-1,-1,-1,-1,-1,-1,-1,-1,-1,-1,-1,-1,-1,-1],"loss_changes":[1.0807978E1,5.99016E0,1.1558661E1,5.586751E0,9.021989E0,6.965709E0,1.2228956E0,1.0945377E0,5.2949786E0,8.7912273E-1,8.544657E0,4.97416E0,2.1339073E0,0E0,0E0,0E0,0E0,0E0,0E0,0E0,0E0,0E0,0E0,0E0,0E0,0E0,0E0],"parents":[2147483647,0,0,1,1,2,2,3,3,4,4,5,5,6,6,7,7,8,8,9,9,10,10,11,11,12,12],"right_children":[2,4,6,8,10,12,14,16,18,20,22,24,26,-1,-1,-1,-1,-1,-1,-1,-1,-1,-1,-1,-1,-1,-1],"split_conditions":[5.6748367E1,8.117449E-1,2.0048442E-1,7.865661E-1,1.7695841E-3,4.772754E-3,-5.2935566E-4,-1.056556E-3,-8.749982E-4,-9.159756E-1,5.000033E-3,8.084631E1,7.9532166E1,-8.719005E-3,-7.099633E-2,6.99821E-2,3.6964037E-2,5.231583E-2,-3.7668448E-2,6.555824E-3,6.2092412E-2,-6.288283E-2,5.2948404E-2,2.6898807E-2,-5.0091725E-2,-5.9668183E-2,3.572721E-3],"split_indices":[5,10,10,7,4,4,1,4,1,7,4,5,5,0,0,0,0,0,0,0,0,0,0,0,0,0,0],"split_type":[0,0,0,0,0,0,0,0,0,0,0,0,0,0,0,0,0,0,0,0,0,0,0,0,0,0,0],"sum_hessian":[7.1161285E1,3.975916E1,3.1402126E1,2.9007792E1,1.0751369E1,2.3613022E1,7.789104E0,2.3621708E1,5.386083E0,3.6650703E0,7.0862994E0,1.8269987E1,5.3430347E0,1.2207634E0,6.568341E0,4.5936084E0,1.90281E1,1.4672698E0,3.9188132E0,1.2255046E0,2.4395657E0,5.8410316E0,1.2452676E0,1.6821321E1,1.4486647E0,3.6193135E0,1.7237215E0],"tree_param":{"num_deleted":"0","num_feature":"11","num_nodes":"27","size_leaf_vector":"0"}},{"base_weights":[1.7440566E-1,2.9566424E-2,1.0734282E0,2.1988785E-1,-7.6465374E-1,1.199969E0,1.037265E-1,-1.1374394E-1,5.4925084E-1,5.631509E-1,-1.2075571E0,1.3604811E0,1.3228339E-1,5.0092393E-1,-7.236966E-1,-5.358242E-1,7.8324413E-1,-2.8584015E-1,1.102879E0,-1.4310441E0,1.6537347E-1],"categories":[],"categories_nodes":[],"categories_segments":[],"categories_sizes":[],"default_left":[1,1,1,1,1,1,0,1,1,1,1,0,0,0,0,0,0,0,0,0,0],"id":8,"left_children":[1,3,5,7,9,11,-1,13,15,17,19,-1,-1,-1,-1,-1,-1,-1,-1,-1,-1],"loss_changes":[9.158546E0,9.511731E0,1.0737238E0,5.6272354E0,7.8385787E0,1.2840824E0,0E0,1.0105154E1,6.9335456E0,2.022891E0,3.1349592E0,0E0,0E0,0E0,0E0,0E0,0E0,0E0,0E0,0E0,0E0],"parents":[2147483647,0,0,1,1,2,2,3,3,4,4,5,5,7,7,8,8,9,9,10,10],"right_children":[2,4,6,8,10,12,-1,14,16,18,20,-1,-1,-1,-1,-1,-1,-1,-1,-1,-1],"split_conditions":[1.7975996E-3,2.3111603E-3,3.4710038E-3,9.797532E-4,1.386358E-3,1.3306923E-3,5.186325E-3,7.918958E-4,-6.035534E-1,7.693379E-4,1.2657015E-3,6.802406E-2,6.6141696E-3,2.5046198E-2,-3.618483E-2,-2.679121E-2,3.9162207E-2,-1.4292008E-2,5.5143952E-2,-7.155221E-2,8.268674E-3],"split_indices":[6,2,1,3,6,3,0,3,7,3,3,0,0,0,0,0,0,0,0,0,0],"split_type":[0,0,0,0,0,0,0,0,0,0,0,0,0,0,0,0,0,0,0,0,0],"sum_hessian":[6.9578445E1,6.081378E1,8.764667E0,4.9641235E1,1.1172544E1,7.542897E0,1.2217693E0,2.4986027E1,2.465521E1,2.726655E0,8.4458885E0,6.318728E0,1.224169E0,1.2533942E1,1.2452085E1,4.144837E0,2.0510374E1,1.242541E0,1.4841139E0,7.2271223E0,1.2187657E0],"tree_param":{"num_deleted":"0","num_feature":"11","num_nodes":"21","size_leaf_vector":"0"}},{"base_weights":[1.1010938E-1,-1.14623696E-1,7.3119074E-1,2.872956E-1,-5.7177126E-1,9.813631E-1,-3.9934975E-1,5.907138E-1,-6.992107E-1,2.3831926E-1,-9.2784065E-1,1.1271374E0,1.2730226E-1,-8.656744E-1,2.7648503E-1,8.7178665E-1,-3.5273802E-1,-1.3157554E0,1.6320558E-1,-8.1959814E-1,6.716941E-1,-1.1396387E0,-2.887623E-1,1.6225375E-1,1.2764227E0,-7.215235E-1,9.317069E-1],"categories":[],"categories_nodes":[],"categories_segments":[],"categories_sizes":[],"default_left":[1,1,1,1,1,1,1,1,1,1,1,1,1,0,0,0,0,0,0,0,0,0,0,0,0,0,0],"id":9,"left_children":[1,3,5,7,9,11,13,15,17,19,21,23,25,-1,-1,-1,-1,-1,-1,-1,-1,-1,-1,-1,-1,-1,-1],"loss_changes":[1.0056919E1,9.963252E0,5.799718E0,9.107124E0,7.514826E0,1.8416891E0,1.5551946E0,6.3418174E0,4.091035E0,4.455044E0,2.0761356E0,1.736475E0,3.0293415E0,0E0,0E0,0E0,0E0,0E0,0E0,0E0,0E0,0E0,0E0,0E0,0E0,0E0,0E0],"parents":[2147483647,0,0,1,1,2,2,3,3,4,4,5,5,6,6,7,7,8,8,9,9,10,10,11,11,12,12],"right_children":[2,4,6,8,10,12,14,16,18,20,22,24,26,-1,-1,-1,-1,-1,-1,-1,-1,-1,-1,-1,-1,-1,-1],"split_conditions":[1.6844957E-3,2.4999043E-3,4.3087117E-3,7.0633606E1,-6.964189E-4,8.005118E-3,-6.035534E-1,7.865661E-1,3.7940952E-1,-3.7940952E-1,1.0438729E-3,-2.5021266E-3,1.8733128E-3,-4.328372E-2,1.38242515E-2,4.3589335E-2,-1.76369E-2,-6.578777E-2,8.160279E-3,-4.0979907E-2,3.3584706E-2,-5.6981932E-2,-1.4438115E-2,8.112688E-3,6.382114E-2,-3.6076177E-2,4.6585348E-2],"split_indices":[6,4,2,5,1,4,7,7,7,7,1,1,6,0,0,0,0,0,0,0,0,0,0,0,0,0,0],"split_type":[0,0,0,0,0,0,0,0,0,0,0,0,0,0,0,0,0,0,0,0,0,0,0,0,0,0,0],"sum_hessian":[7.04521E1,5.233174E1,1.8120358E1,2.8045755E1,2.4285988E1,1.4945161E1,3.1751974E0,2.1755621E1,6.2901354E0,7.5163336E0,1.6769653E1,1.2493059E1,2.452102E0,1.7126061E0,1.4625913E0,1.6820442E1,4.935179E0,3.361398E0,2.9287374E0,1.9252876E0,5.591046E0,1.2007105E1,4.762549E0,1.9535357E0,1.0539523E1,1.2432408E0,1.2088612E0],"tree_param":{"num_deleted":"0","num_feature":"11","num_nodes":"27","size_leaf_vector":"0"}},{"base_weights":[1.5654081E-1,-2.3396042E-1,5.1185507E-1,4.2264235E-1,-8.1260175E-1,6.2514555E-1,-3.3300906E-1,9.246557E-1,-7.791368E-1,2.5988096E-1,-1.341035E0,2.8727815E-1,1.0026462E0,-1.0578485E0,7.2161305E-1,1.3997841E0,1.5725312E-1,9.603082E-2,-1.2025836E0,1.2101787E0,-5.7292664E-1,-2.1267569E-1,-1.4441333E0,6.3588315E-1,-6.1535424E-1,1.1681622E0,-2.6593087E-3],"categories":[],"categories_nodes":[],"categories_segments":[],"categories_sizes":[],"default_left":[1,1,1,1,1,1,1,1,1,1,1,1,1,0,0,0,0,0,0,0,0,0,0,0,0,0,0],"id":10,"left_children":[1,3,5,7,9,11,13,15,17,19,21,23,25,-1,-1,-1,-1,-1,-1,-1,-1,-1,-1,-1,-1,-1,-1],"loss_changes":[1.0088373E1,1.3608681E1,3.8387718E0,1.0984648E1,1.1060425E1,4.022213E0,4.690529E0,4.3221197E0,2.1742995E0,6.2938504E0,1.1847706E0,6.443717E0,2.5920734E0,0E0,0E0,0E0,0E0,0E0,0E0,0E0,0E0,0E0,0E0,0E0,0E0,0E0,0E0],"parents":[2147483647,0,0,1,1,2,2,3,3,4,4,5,5,6,6,7,7,8,8,9,9,10,10,11,11,12,12],"right_children":[2,4,6,8,10,12,14,16,18,20,22,24,26,-1,-1,-1,-1,-1,-1,-1,-1,-1,-1,-1,-1,-1,-1],"split_conditions":[9.797532E-4,2.0953123E-3,4.060843E-3,7.0633606E1,7.680943E-4,1.6449591E-3,1.2885493E-3,8.5942826E-4,1.3023526E-3,-3.971647E-4,-1.4743423E-3,1.1963581E-3,8.005118E-3,-5.2892424E-2,3.6080655E-2,6.9989204E-2,7.862656E-3,4.801541E-3,-6.0129177E-2,6.0508937E-2,-2.8646333E-2,-1.0633784E-2,-7.220667E-2,3.1794157E-2,-3.0767713E-2,5.840811E-2,-1.3296543E-4],"split_indices":[3,4,2,5,3,6,3,3,6,1,1,3,4,0,0,0,0,0,0,0,0,0,0,0,0,0,0],"split_type":[0,0,0,0,0,0,0,0,0,0,0,0,0,0,0,0,0,0,0,0,0,0,0,0,0,0,0],"sum_hessian":[7.084556E1,3.3914272E1,3.6931282E1,1.6013191E1,1.7901083E1,3.279391E1,4.137374E0,1.1457641E1,4.55555E0,6.0765715E0,1.1824512E1,1.8234673E1,1.45592375E1,2.450258E0,1.687116E0,6.567435E0,4.890206E0,1.7375821E0,2.817968E0,2.6264536E0,3.4501178E0,1.246377E0,1.0578135E1,1.3367531E1,4.867141E0,1.2361939E1,2.197298E0],"tree_param":{"num_deleted":"0","num_feature":"11","num_nodes":"27","size_leaf_vector":"0"}},{"base_weights":[1.0884591E-1,-1.0287675E-1,6.2457633E-1,8.045105E-2,-8.8889986E-1,1.0852067E0,2.9507842E-2,4.582974E-1,-2.8692043E-1,-1.3868186E0,-1.7409833E-1,1.2726729E0,4.0923185E-3,-4.0177378E-1,1.096552E0,9.5991206E-1,-1.1045595E-1,-7.6409024E-1,1.7709416E-1,-8.360288E-1,5.899456E-1,2.4899426E-1,1.4240755E0,-1.0245023E0,8.3907413E-1],"categories":[],"categories_nodes":[],"categories_segments":[],"categories_sizes":[],"default_left":[1,1,1,1,1,1,1,1,1,0,1,1,0,1,0,0,0,0,0,0,0,0,0,0,0],"id":11,"left_children":[1,3,5,7,9,11,13,15,17,-1,19,21,-1,23,-1,-1,-1,-1,-1,-1,-1,-1,-1,-1,-1],"loss_changes":[7.623039E0,7.2672505E0,5.5293446E0,5.8794355E0,3.1493635E0,2.3069687E0,4.9875965E0,6.0396924E0,4.920147E0,0E0,3.0498393E0,1.1517859E0,0E0,6.8623757E0,0E0,0E0,0E0,0E0,0E0,0E0,0E0,0E0,0E0,0E0,0E0],"parents":[2147483647,0,0,1,1,2,2,3,3,4,4,5,5,6,6,7,7,8,8,10,10,11,11,13,13],"right_children":[2,4,6,8,10,12,14,16,18,-1,20,22,-1,24,-1,-1,-1,-1,-1,-1,-1,-1,-1,-1,-1],"split_conditions":[1.6699356E-3,7.0987564E1,5.494586E1,1.4219297E-3,7.473508E1,8.117449E-1,1.2735764E-3,6.035534E-1,2.1694186E-1,-6.934094E-2,-6.1232336E-17,3.3395027E1,2.0461592E-4,1.9134887E-3,5.48276E-2,4.7995605E-2,-5.522798E-3,-3.8204513E-2,8.854709E-3,-4.180144E-2,2.949728E-2,1.2449713E-2,7.1203776E-2,-5.1225115E-2,4.195371E-2],"split_indices":[6,5,5,6,5,10,3,7,9,0,8,5,0,6,0,0,0,0,0,0,0,0,0,0,0],"split_type":[0,0,0,0,0,0,0,0,0,0,0,0,0,0,0,0,0,0,0,0,0,0,0,0,0],"sum_hessian":[6.822483E1,4.8935764E1,1.9289064E1,4.0408707E1,8.527061E0,1.0408438E1,8.880627E0,1.9798344E1,2.0610361E1,4.4718795E0,4.0551815E0,8.719315E0,1.6891227E0,6.7684155E0,2.1122112E0,1.0154654E1,9.643691E0,9.842314E0,1.0768047E1,2.1223044E0,1.9328771E0,1.4641743E0,7.2551403E0,4.622789E0,2.1456268E0],"tree_param":{"num_deleted":"0","num_feature":"11","num_nodes":"25","size_leaf_vector":"0"}},{"base_weights":[1.06596306E-1,-1.1758972E-1,6.7933446E-1,2.8837594E-1,-5.535279E-1,1.1701987E0,1.3267401E-1,5.493881E-1,-5.14619E-1,1.8341911E-1,-8.200488E-1,1.293746E0,4.6161246E-1,-6.2109745E-1,7.709594E-1,8.9767915E-1,-2.1900374E-1,-1.2745055E0,5.4959494E-1,-1.0496002E0,7.859568E-1,-1.0839138E0,1.9387947E-1,3.944061E-1,1.3854856E0,-1.1802057E0,3.71709E-1,1.1008911E0,-3.1639698E-1],"categories":[],"categories_nodes":[],"categories_segments":[],"categories_sizes":[],"default_left":[1,1,1,1,1,1,1,1,1,1,1,1,0,1,1,0,0,0,0,0,0,0,0,0,0,0,0,0,0],"id":12,"left_children":[1,3,5,7,9,11,13,15,17,19,21,23,-1,25,27,-1,-1,-1,-1,-1,-1,-1,-1,-1,-1,-1,-1,-1,-1],"loss_changes":[9.055747E0,9.201779E0,5.1612797E0,5.9654264E0,5.0566506E0,3.0548573E-1,5.5313873E0,5.8021746E0,6.496688E0,6.3611293E0,5.1670313E0,1.3222027E-1,0E0,3.418962E0,2.5484054E0,0E0,0E0,0E0,0E0,0E0,0E0,0E0,0E0,0E0,0E0,0E0,0E0,0E0,0E0],"parents":[2147483647,0,0,1,1,2,2,3,3,4,4,5,5,6,6,7,7,8,8,9,9,10,10,11,11,13,13,14,14],"right_children":[2,4,6,8,10,12,14,16,18,20,22,24,-1,26,28,-1,-1,-1,-1,-1,-1,-1,-1,-1,-1,-1,-1,-1,-1],"split_conditions":[1.6844957E-3,2.500943E-3,5.1480625E1,6.8173004E1,-6.964189E-4,5.6903705E-4,2.8044572E-3,6.035534E-1,6.035534E-1,-3.7940952E-1,1.1102784E-3,-4.166529E-3,2.3080623E-2,1.8114692E-3,3.3802637E-3,4.488396E-2,-1.0950187E-2,-6.372528E-2,2.7479747E-2,-5.2480012E-2,3.929784E-2,-5.419569E-2,9.693974E-3,1.9720307E-2,6.9274284E-2,-5.9010286E-2,1.858545E-2,5.5044558E-2,-1.581985E-2],"split_indices":[6,4,5,5,1,2,4,7,7,7,3,2,0,6,1,0,0,0,0,0,0,0,0,0,0,0,0,0,0],"split_type":[0,0,0,0,0,0,0,0,0,0,0,0,0,0,0,0,0,0,0,0,0,0,0,0,0,0,0,0,0],"sum_hessian":[6.890554E1,5.009257E1,1.881297E1,2.6113228E1,2.3979345E1,9.311363E0,9.501607E0,1.9945728E1,6.1675E0,6.451725E0,1.752762E1,7.225696E0,2.0856671E0,4.36902E0,5.1325865E0,1.3608919E1,6.336808E0,3.4829485E0,2.6845512E0,1.8742784E0,4.5774465E0,1.3853387E1,3.6742332E0,1.1593709E0,6.066325E0,2.6742399E0,1.6947803E0,3.9282172E0,1.2043693E0],"tree_param":{"num_deleted":"0","num_feature":"11","num_nodes":"29","size_leaf_vector":"0"}},{"base_weights":[9.8664075E-2,4.9636024E-1,-1.4573282E-1,1.745452E-1,1.0903267E0,-2.748294E-1,9.038841E-1,7.7311116E-1,-3.163539E-1,1.2415239E0,6.286676E-2,5.279027E-1,-4.2658484E-1,1.1750895E0,-2.134129E-2,4.0417248E-1,-1.0741309E0,4.0586928E-1,1.3270301E0,9.0882975E-1,-1.0242026E-1,4.95224E-2,-8.307252E-1],"categories":[],"categories_nodes":[],"categories_segments":[],"categories_sizes":[],"default_left":[1,1,1,1,1,1,0,1,1,1,0,1,1,0,0,0,0,0,0,0,0,0,0],"id":13,"left_children":[1,3,5,7,9,11,-1,13,15,17,-1,19,21,-1,-1,-1,-1,-1,-1,-1,-1,-1,-1],"loss_changes":[6.7428727E0,4.846279E0,6.1130304E0,5.616024E0,1.33078E0,5.013568E0,0E0,2.7482996E0,6.305331E0,2.2461891E-2,0E0,1.7009479E0,6.5083385E0,0E0,0E0,0E0,0E0,0E0,0E0,0E0,0E0,0E0,0E0],"parents":[2147483647,0,0,1,1,2,2,3,3,4,4,5,5,7,7,8,8,9,9,11,11,12,12],"right_children":[2,4,6,8,10,12,-1,14,16,18,-1,20,22,-1,-1,-1,-1,-1,-1,-1,-1,-1,-1],"split_conditions":[4.821692E1,1.6641808E-3,1.9333014E-3,2.0939668E-3,8.10476E-3,-8.194513E-4,4.5194205E-2,1.0723593E-4,2.0048442E-1,-1.4673797E-3,3.1433383E-3,9.706535E-4,-5.6174487E-1,5.8754474E-2,-1.0670646E-3,2.0208625E-2,-5.3706545E-2,2.0293465E-2,6.63515E-2,4.544149E-2,-5.121013E-3,2.4761201E-3,-4.153626E-2],"split_indices":[5,6,6,4,4,4,0,0,10,0,0,3,10,0,0,0,0,0,0,0,0,0,0],"split_type":[0,0,0,0,0,0,0,0,0,0,0,0,0,0,0,0,0,0,0,0,0,0,0],"sum_hessian":[6.762995E1,2.5349264E1,4.2280685E1,1.7280458E1,8.068806E0,3.830728E1,3.9734027E0,7.5273175E0,9.753141E0,6.852129E0,1.216677E0,5.6964507E0,3.2610832E1,4.6801357E0,2.8471816E0,5.238648E0,4.5144935E0,1.1694756E0,5.6826534E0,3.2752507E0,2.4212E0,1.5375187E1,1.7235645E1],"tree_param":{"num_deleted":"0","num_feature":"11","num_nodes":"23","size_leaf_vector":"0"}},{"base_weights":[9.337631E-2,-2.5774422E-1,3.9700308E-1,4.8176995E-1,-6.786845E-1,6.7735463E-1,5.300632E-2,1.0516709E0,-2.4898069E-1,1.5886275E-1,-1.2124062E0,8.359637E-1,-2.752562E-1,3.5731113E-1,-5.281785E-1,1.2635299E0,2.8609812E-1,6.0711676E-1,-1.025498E0,1.1523014E0,-4.046298E-1,-1.582638E-1,-1.3606294E0,9.348896E-1,-2.9155183E-1,4.7278452E-1,-8.1962854E-1,-1.4993884E-1,1.0503169E0,4.0291986E-1,-9.444343E-1],"categories":[],"categories_nodes":[],"categories_segments":[],"categories_sizes":[],"default_left":[1,1,1,1,1,1,1,1,1,1,1,1,1,1,1,0,0,0,0,0,0,0,0,0,0,0,0,0,0,0,0],"id":14,"left_children":[1,3,5,7,9,11,13,15,17,19,21,23,25,27,29,-1,-1,-1,-1,-1,-1,-1,-1,-1,-1,-1,-1,-1,-1,-1,-1],"loss_changes":[7.416595E0,1.0419659E1,3.550311E0,5.4032063E0,9.614157E0,3.3129148E0,3.3336968E0,7.9454994E-1,4.756136E0,5.5533867E0,1.8141727E0,2.2511702E0,1.8797637E0,4.4699926E0,2.9054337E0,0E0,0E0,0E0,0E0,0E0,0E0,0E0,0E0,0E0,0E0,0E0,0E0,0E0,0E0,0E0,0E0],"parents":[2147483647,0,0,1,1,2,2,3,3,4,4,5,5,6,6,7,7,8,8,9,9,10,10,11,11,12,12,13,13,14,14],"right_children":[2,4,6,8,10,12,14,16,18,20,22,24,26,28,30,-1,-1,-1,-1,-1,-1,-1,-1,-1,-1,-1,-1,-1,-1,-1,-1],"split_conditions":[9.797532E-4,1.5646149E-3,2.0048442E-1,8.6177187E-4,7.6874567E-4,8.005118E-3,1.2321165E-3,6.713925E-4,5.503841E1,-3.971647E-4,-1.2419679E-3,1.9532333E-3,2.2570457E-4,8.117449E-1,8.0681326E-5,6.31765E-2,1.4304906E-2,3.0355839E-2,-5.1274903E-2,5.761507E-2,-2.0231491E-2,-7.91319E-3,-6.8031475E-2,4.674448E-2,-1.4577592E-2,2.3639226E-2,-4.0981427E-2,-7.496942E-3,5.2515846E-2,2.0145994E-2,-4.7221716E-2],"split_indices":[3,4,10,3,3,4,3,0,5,1,1,0,2,10,4,0,0,0,0,0,0,0,0,0,0,0,0,0,0,0,0],"split_type":[0,0,0,0,0,0,0,0,0,0,0,0,0,0,0,0,0,0,0,0,0,0,0,0,0,0,0,0,0,0,0],"sum_hessian":[6.760798E1,3.142201E1,3.618597E1,1.134552E1,2.0076488E1,1.9403433E1,1.678254E1,6.127564E0,5.2179565E0,8.087484E0,1.1989005E1,1.673887E1,2.6645615E0,1.1267925E1,5.514614E0,4.289956E0,1.8376081E0,2.5855665E0,2.63239E0,2.5488782E0,5.538606E0,1.7328652E0,1.025614E1,1.5545759E1,1.1931119E0,1.1777205E0,1.486841E0,6.958354E0,4.3095713E0,1.7136E0,3.8010144E0],"tree_param":{"num_deleted":"0","num_feature":"11","num_nodes":"31","size_leaf_vector":"0"}},{"base_weights":[1.1928584E-1,-2.1840633E-1,3.8452148E-1,1.5461361E-1,-9.388955E-1,5.0130963E-1,-4.507643E-1,5.698558E-1,-4.403506E-1,5.5007887E-1,-1.1735246E0,7.5661623E-1,1.520422E-1,-1.0743614E0,6.391636E-1,8.3301795E-1,7.66932E-2,5.630284E-1,-1.1503885E0,-3.5375798E-1,-1.2897627E0,1.3978647E-1,1.1177238E0,-8.733583E-2,1.0421077E0],"categories":[],"categories_nodes":[],"categories_segments":[],"categories_sizes":[],"default_left":[1,1,1,1,1,1,1,1,1,0,1,1,1,0,0,0,0,0,0,0,0,0,0,0,0],"id":15,"left_children":[1,3,5,7,9,11,13,15,17,-1,19,21,23,-1,-1,-1,-1,-1,-1,-1,-1,-1,-1,-1,-1],"loss_changes":[6.4791837E0,8.758221E0,4.1624446E0,5.6797495E0,4.514161E0,3.0840578E0,4.408939E0,1.6722889E0,7.484614E0,0E0,4.8569012E-1,4.404293E0,3.5856018E0,0E0,0E0,0E0,0E0,0E0,0E0,0E0,0E0,0E0,0E0,0E0,0E0],"parents":[2147483647,0,0,1,1,2,2,3,3,4,4,5,5,6,6,7,7,8,8,10,10,11,11,12,12],"right_children":[2,4,6,8,10,12,14,16,18,-1,20,22,24,-1,-1,-1,-1,-1,-1,-1,-1,-1,-1,-1,-1],"split_conditions":[9.797532E-4,8.801663E-4,4.060843E-3,2.4980824E-3,-1.8457075E-3,6.078576E-1,1.2905612E-3,1.4182997E-3,-3.784251E-4,2.7503943E-2,-4.9561815E-4,-3.7940952E-1,1.79819E-3,-5.371807E-2,3.195818E-2,4.16509E-2,3.83466E-3,2.815142E-2,-5.7519425E-2,-1.76879E-2,-6.4488135E-2,6.9893235E-3,5.588619E-2,-4.366792E-3,5.2105386E-2],"split_indices":[3,3,2,4,1,9,3,6,1,0,4,7,6,0,0,0,0,0,0,0,0,0,0,0,0],"split_type":[0,0,0,0,0,0,0,0,0,0,0,0,0,0,0,0,0,0,0,0,0,0,0,0,0],"sum_hessian":[7.040052E1,3.1047758E1,3.9352764E1,2.0974173E1,1.00735855E1,3.4876263E1,4.476501E0,1.2377659E1,8.596514E0,1.1882701E0,8.885316E0,1.947453E1,1.5401735E1,2.8564682E0,1.620033E0,7.621519E0,4.7561398E0,3.6481838E0,4.94833E0,1.6055565E0,7.2797594E0,7.703249E0,1.1771279E1,1.284817E1,2.553565E0],"tree_param":{"num_deleted":"0","num_feature":"11","num_nodes":"25","size_leaf_vector":"0"}},{"base_weights":[9.386723E-2,5.4080266E-1,-1.6394196E-1,1.0300093E0,2.0113632E-1,-2.7367204E-1,7.975362E-1,1.3413271E0,-4.1199997E-2,6.95842E-1,-7.9580206E-1,-6.79349E-1,-4.385947E-2,-3.335352E-2,1.0822177E0,9.925201E-1,-3.8102922E-1,-1.2814296E0,1.437481E-1,8.5205674E-1,-8.8347906E-1,-3.0158398E-1,7.4596155E-1],"categories":[],"categories_nodes":[],"categories_segments":[],"categories_sizes":[],"default_left":[1,1,1,1,1,1,1,0,0,1,1,1,1,0,0,0,0,0,0,0,0,0,0],"id":16,"left_children":[1,3,5,7,9,11,13,-1,-1,15,17,19,21,-1,-1,-1,-1,-1,-1,-1,-1,-1,-1],"loss_changes":[7.6653323E0,3.828599E0,4.698826E0,3.2934704E0,8.236325E0,3.593367E0,1.1255417E0,0E0,0E0,3.8747911E0,2.7542512E0,5.1245565E0,5.492561E0,0E0,0E0,0E0,0E0,0E0,0E0,0E0,0E0,0E0,0E0],"parents":[2147483647,0,0,1,1,2,2,3,3,4,4,5,5,6,6,9,9,10,10,11,11,12,12],"right_children":[2,4,6,8,10,12,14,-1,-1,16,18,20,22,-1,-1,-1,-1,-1,-1,-1,-1,-1,-1],"split_conditions":[4.821692E1,1.7695841E-3,1.9408248E-3,6.8819575E-4,2.0048442E-1,-3.7940952E-1,-9.159756E-1,6.706636E-2,-2.0599999E-3,7.865661E-1,4.829629E-1,-8.7871496E-4,1.1483128E-3,-1.6676759E-3,5.4110885E-2,4.9626004E-2,-1.905146E-2,-6.4071484E-2,7.187405E-3,4.2602837E-2,-4.4173952E-2,-1.5079199E-2,3.729808E-2],"split_indices":[5,4,6,2,10,7,7,0,0,7,7,4,3,0,0,0,0,0,0,0,0,0,0],"split_type":[0,0,0,0,0,0,0,0,0,0,0,0,0,0,0,0,0,0,0,0,0,0,0],"sum_hessian":[6.475599E1,2.3287436E1,4.146855E1,8.710159E0,1.4577276E1,3.786277E1,3.6057801E0,6.5534234E0,2.156736E0,9.944559E0,4.632717E0,1.2984958E1,2.4877813E1,1.1454462E0,2.4603338E0,7.858007E0,2.0865517E0,2.814239E0,1.8184781E0,1.153934E0,1.1831023E1,1.9223276E1,5.654537E0],"tree_param":{"num_deleted":"0","num_feature":"11","num_nodes":"23","size_leaf_vector":"0"}},{"base_weights":[1.1380891E-1,-7.393542E-2,6.101262E-1,2.7879283E-1,-4.3797436E-1,7.8688216E-1,-2.7489656E-1,5.014336E-1,-5.5067736E-1,-1.0022429E0,-1.3697256E-1,9.19748E-1,3.0298874E-2,-8.6225027E-1,3.040418E-1,7.4439484E-1,-2.800434E-1,-1.0808967E0,7.550948E-2,8.493509E-2,-1.2329323E0,-9.2629117E-1,9.3471654E-2,-1.9597588E-2,1.0711398E0,-7.248207E-1,8.111894E-1],"categories":[],"categories_nodes":[],"categories_segments":[],"categories_sizes":[],"default_left":[1,1,1,1,1,1,1,1,1,1,1,1,1,0,0,0,0,0,0,0,0,0,0,0,0,0,0],"id":17,"left_children":[1,3,5,7,9,11,13,15,17,19,21,23,25,-1,-1,-1,-1,-1,-1,-1,-1,-1,-1,-1,-1,-1,-1],"loss_changes":[6.2375298E0,6.427997E0,3.0864325E0,4.995075E0,4.033428E0,1.535471E0,1.5527536E0,4.1328464E0,2.035178E0,2.2074165E0,3.210045E0,1.897397E0,2.5675943E0,0E0,0E0,0E0,0E0,0E0,0E0,0E0,0E0,0E0,0E0,0E0,0E0,0E0,0E0],"parents":[2147483647,0,0,1,1,2,2,3,3,4,4,5,5,6,6,7,7,8,8,9,9,10,10,11,11,12,12],"right_children":[2,4,6,8,10,12,14,16,18,20,22,24,26,-1,-1,-1,-1,-1,-1,-1,-1,-1,-1,-1,-1,-1,-1],"split_conditions":[1.6844957E-3,2.4999043E-3,4.3087117E-3,7.0633606E1,-3.7940952E-1,8.005118E-3,2.1694186E-1,7.865661E-1,3.7940952E-1,4.306801E1,2.8793071E-3,-3.7009283E-3,1.8733128E-3,-4.3112513E-2,1.520209E-2,3.7219744E-2,-1.40021695E-2,-5.404484E-2,3.7754741E-3,4.2467546E-3,-6.1646618E-2,-4.631456E-2,4.673583E-3,-9.798794E-4,5.355699E-2,-3.6241036E-2,4.055947E-2],"split_indices":[6,4,2,5,7,4,9,7,7,5,4,2,6,0,0,0,0,0,0,0,0,0,0,0,0,0,0],"split_type":[0,0,0,0,0,0,0,0,0,0,0,0,0,0,0,0,0,0,0,0,0,0,0,0,0,0,0],"sum_hessian":[6.545599E1,4.810871E1,1.734728E1,2.4552868E1,2.3555843E1,1.4551882E1,2.7953985E0,1.9668941E1,4.8839264E0,7.3839464E0,1.6171896E1,1.2194678E1,2.357203E0,1.1446974E0,1.6507012E0,1.5040348E1,4.6285934E0,2.2514064E0,2.6325197E0,1.4031403E0,5.9808064E0,2.9721355E0,1.3199761E1,1.813424E0,1.0381255E1,1.2348794E0,1.1223235E0],"tree_param":{"num_deleted":"0","num_feature":"11","num_nodes":"27","size_leaf_vector":"0"}},{"base_weights":[1.4096771E-1,-1.7071788E-1,3.6309814E-1,7.0101565E-1,-4.592496E-1,1.5310854E-1,9.6282345E-1,1.0671452E0,-6.485192E-1,-1.1232867E0,8.879287E-3,6.742841E-1,-4.253561E-2,1.08006E0,6.612917E-2,1.2511231E0,1.5798876E-1,-1.2163207E-1,-1.2582674E0,5.01754E-1,-1.0052572E0,-1.9928804E-2,1.103822E0,3.2612297E-1,-8.2717884E-1,2.796947E-1,1.1530801E0],"categories":[],"categories_nodes":[],"categories_segments":[],"categories_sizes":[],"default_left":[1,1,1,1,1,1,1,1,0,1,1,1,1,1,0,0,0,0,0,0,0,0,0,0,0,0,0],"id":18,"left_children":[1,3,5,7,9,11,13,15,-1,17,19,21,23,25,-1,-1,-1,-1,-1,-1,-1,-1,-1,-1,-1,-1,-1],"loss_changes":[4.644151E0,7.419935E0,4.7594075E0,4.355115E0,6.788656E0,3.0924604E0,9.7093964E-1,8.409548E-1,0E0,1.0670948E0,7.393284E0,2.4851365E0,6.8612833E0,1.8616104E-1,0E0,0E0,0E0,0E0,0E0,0E0,0E0,0E0,0E0,0E0,0E0,0E0,0E0],"parents":[2147483647,0,0,1,1,2,2,3,3,4,4,5,5,6,6,7,7,9,9,10,10,11,11,12,12,13,13],"right_children":[2,4,6,8,10,12,14,16,-1,18,20,22,24,26,-1,-1,-1,-1,-1,-1,-1,-1,-1,-1,-1,-1,-1],"split_conditions":[2.1694186E-1,7.688661E-4,1.7192678E-3,1.2014788E-3,9.882292E-4,-6.6277105E-4,4.8931343E-3,7.865661E-1,-3.2425962E-2,-9.306829E-4,5.6903705E-4,1.2940952E-1,2.7361016E-3,-2.3269923E-3,3.3064585E-3,6.2556155E-2,7.899438E-3,-6.0816035E-3,-6.291337E-2,2.50877E-2,-5.0262865E-2,-9.964402E-4,5.51911E-2,1.6306149E-2,-4.1358944E-2,1.3984735E-2,5.7654005E-2],"split_indices":[9,3,6,1,3,1,2,7,0,1,2,7,4,2,0,0,0,0,0,0,0,0,0,0,0,0,0],"split_type":[0,0,0,0,0,0,0,0,0,0,0,0,0,0,0,0,0,0,0,0,0,0,0,0,0,0,0],"sum_hessian":[6.518291E1,2.7220089E1,3.7962814E1,6.4135118E0,2.0806576E1,2.9047377E1,8.915438E0,5.209438E0,1.2040739E0,8.024443E0,1.2782134E1,7.2602763E0,2.1787102E1,7.703737E0,1.2117008E0,4.0198426E0,1.1895951E0,1.1787049E0,6.845738E0,8.94168E0,3.8404543E0,3.1396399E0,4.1206365E0,1.5220319E1,6.566782E0,1.0479252E0,6.655812E0],"tree_param":{"num_deleted":"0","num_feature":"11","num_nodes":"27","size_leaf_vector":"0"}},{"base_weights":[1.2635748E-1,-1.8764693E-1,3.9891434E-1,4.2981508E-1,-5.9569055E-1,6.6148883E-1,2.2043424E-2,9.937705E-1,-1.6609678E-1,1.7875084E-1,-1.1142088E0,2.4987383E-1,1.256445E0,4.7971672E-1,-6.649615E-1,1.262491E-1,1.128455E0,5.8137256E-1,-7.463553E-1,1.0997844E0,-4.1669723E-1,1.999594E-2,-1.2798287E0,7.497316E-1,-9.118198E-1,1.3344398E0,3.7850565E-1,-1.14156544E-1,8.571739E-1,-1.8632462E-2,-1.4705768E0],"categories":[],"categories_nodes":[],"categories_segments":[],"categories_sizes":[],"default_left":[1,1,1,1,1,1,1,1,1,1,1,1,1,1,1,0,0,0,0,0,0,0,0,0,0,0,0,0,0,0,0],"id":19,"left_children":[1,3,5,7,9,11,13,15,17,19,21,23,25,27,29,-1,-1,-1,-1,-1,-1,-1,-1,-1,-1,-1,-1,-1,-1,-1,-1],"loss_changes":[5.7210455E0,8.151049E0,3.5119376E0,4.5504417E0,7.943831E0,4.8211975E0,5.2453985E0,6.576085E-1,3.5574193E0,5.172668E0,2.221551E0,8.605519E0,6.506443E-2,2.3359835E0,3.452695E0,0E0,0E0,0E0,0E0,0E0,0E0,0E0,0E0,0E0,0E0,0E0,0E0,0E0,0E0,0E0,0E0],"parents":[2147483647,0,0,1,1,2,2,3,3,4,4,5,5,6,6,7,7,8,8,9,9,10,10,11,11,12,12,13,13,14,14],"right_children":[2,4,6,8,10,12,14,16,18,20,22,24,26,28,30,-1,-1,-1,-1,-1,-1,-1,-1,-1,-1,-1,-1,-1,-1,-1,-1],"split_conditions":[9.829139E-4,1.5656671E-3,6.078576E-1,8.6177187E-4,7.6874567E-4,2.1694186E-1,5.3427155E1,-7.865661E-1,5.503841E1,-3.971647E-4,-1.2419679E-3,6.043372E-4,1.4963201E-3,1.1163887E-3,1.0821534E-3,6.3124555E-3,5.642275E-2,2.9068628E-2,-3.7317764E-2,5.498922E-2,-2.0834861E-2,9.99797E-4,-6.3991435E-2,3.748658E-2,-4.5590993E-2,6.672199E-2,1.8925283E-2,-5.7078274E-3,4.2858697E-2,-9.316231E-4,-7.352884E-2],"split_indices":[3,4,9,3,3,9,5,8,5,1,1,2,0,3,3,0,0,0,0,0,0,0,0,0,0,0,0,0,0,0,0],"split_type":[0,0,0,0,0,0,0,0,0,0,0,0,0,0,0,0,0,0,0,0,0,0,0,0,0,0,0,0,0,0,0],"sum_hessian":[6.497245E1,3.0335445E1,3.4637005E1,1.2049094E1,1.828635E1,1.9968964E1,1.4668042E1,5.8475137E0,6.2015805E0,7.5961947E0,1.0690156E1,1.2642414E1,7.32655E0,8.984451E0,5.683591E0,1.0461959E0,4.8013177E0,2.7094452E0,3.4921353E0,2.6500838E0,4.946111E0,1.4741426E0,9.216014E0,9.087034E0,3.55538E0,6.2512336E0,1.0753165E0,3.7624128E0,5.222038E0,3.7212415E0,1.9623494E0],"tree_param":{"num_deleted":"0","num_feature":"11","num_nodes":"31","size_leaf_vector":"0"}},{"base_weights":[7.619567E-2,-3.4142073E-2,8.629957E-1,3.5881698E-1,-2.4178408E-1,1.0851796E0,-9.979607E-2,8.4693855E-1,2.6529184E-2,7.9595464E-1,-3.318342E-1,1.067138E0,-4.2479753E-2,-4.7897822E-1,4.7492465E-1,-4.9022967E-1,2.1579057E-1],"categories":[],"categories_nodes":[],"categories_segments":[],"categories_sizes":[],"default_left":[1,1,1,1,1,0,0,1,1,0,1,0,0,0,0,0,0],"id":20,"left_children":[1,3,5,7,9,-1,-1,11,13,-1,15,-1,-1,-1,-1,-1,-1],"loss_changes":[5.699714E0,4.839168E0,1.834836E0,3.3088794E0,3.881061E0,0E0,0E0,1.6682329E0,3.231373E0,0E0,3.2562675E0,0E0,0E0,0E0,0E0,0E0,0E0],"parents":[2147483647,0,0,1,1,2,2,3,3,4,4,7,7,8,8,10,10],"right_children":[2,4,6,8,10,-1,-1,12,14,-1,16,-1,-1,-1,-1,-1,-1],"split_conditions":[1.8699924E-3,-4.764553E-4,4.21338E-3,1.4184341E-3,-1.1419896E-3,5.425898E-2,-4.989804E-3,9.159756E-1,1.5754219E-3,3.9797734E-2,8.841052E-4,5.3356897E-2,-2.1239878E-3,-2.3948912E-2,2.3746233E-2,-2.4511484E-2,1.07895285E-2],"split_indices":[6,1,2,6,4,0,0,7,6,0,0,0,0,0,0,0,0],"split_type":[0,0,0,0,0,0,0,0,0,0,0,0,0,0,0,0,0],"sum_hessian":[6.4315125E1,5.7244053E1,7.0710745E0,1.953892E1,3.770513E1,5.641959E0,1.4291154E0,7.286476E0,1.2252442E1,2.3847077E0,3.5320423E1,5.6803393E0,1.6061366E0,5.7273726E0,6.52507E0,2.7477589E1,7.8428354E0],"tree_param":{"num_deleted":"0","num_feature":"11","num_nodes":"17","size_leaf_vector":"0"}},{"base_weights":[2.1375729E-2,2.8471953E-1,-2.974426E-1,4.3837547E-2,8.149269E-1,-7.379143E-1,1.3020185E-1,5.5383414E-1,-3.6556146E-1,2.4764091E-1,1.1220073E0,4.8538226E-1,-1.1324722E0,3.702422E-1,-1.1063331E0,1.1778243E0,9.589677E-2,3.2008874E-1,-7.2900206E-1,8.0765516E-1,-6.015598E-1,-6.145682E-1,1.0796716E0,-1.3834707E-1,-1.2288195E0,8.822691E-1,-6.194482E-1],"categories":[],"categories_nodes":[],"categories_segments":[],"categories_sizes":[],"default_left":[1,1,1,1,1,1,1,1,1,1,0,1,1,1,0,0,0,0,0,0,0,0,0,0,0,0,0],"id":21,"left_children":[1,3,5,7,9,11,13,15,17,19,-1,21,23,25,-1,-1,-1,-1,-1,-1,-1,-1,-1,-1,-1,-1,-1],"loss_changes":[5.6507387E0,4.6664567E0,5.837062E0,5.7088447E0,1.7158046E0,7.8686485E0,5.2519507E0,3.356348E0,4.028926E0,3.0075667E0,0E0,3.53851E0,9.569311E-1,7.849414E0,0E0,0E0,0E0,0E0,0E0,0E0,0E0,0E0,0E0,0E0,0E0,0E0,0E0],"parents":[2147483647,0,0,1,1,2,2,3,3,4,4,5,5,6,6,7,7,8,8,9,9,11,11,12,12,13,13],"right_children":[2,4,6,8,10,12,14,16,18,20,-1,22,24,26,-1,-1,-1,-1,-1,-1,-1,-1,-1,-1,-1,-1,-1],"split_conditions":[5.604278E1,1.6641808E-3,9.829139E-4,2.0939668E-3,2.1694186E-1,1.2878163E-3,7.217355E-3,-2.4086339E-4,-8.6523173E-4,2.2570457E-4,5.6100365E-2,1.0750009E-3,-9.624597E-4,6.078576E-1,-5.5316657E-2,5.8891214E-2,4.794839E-3,1.6004438E-2,-3.6450103E-2,4.0382758E-2,-3.0077992E-2,-3.0728409E-2,5.398358E-2,-6.9173537E-3,-6.1440974E-2,4.4113453E-2,-3.097241E-2],"split_indices":[5,6,3,4,9,6,4,2,1,2,0,6,0,9,0,0,0,0,0,0,0,0,0,0,0,0,0],"split_type":[0,0,0,0,0,0,0,0,0,0,0,0,0,0,0,0,0,0,0,0,0,0,0,0,0,0,0],"sum_hessian":[6.5295006E1,3.581707E1,2.9477932E1,2.5372572E1,1.0444499E1,1.4163777E1,1.5314155E1,1.114109E1,1.4231481E1,4.3025694E0,6.1419296E0,3.398084E0,1.0765694E1,1.3411291E1,1.9028642E0,4.0502114E0,7.0908794E0,4.9715905E0,9.25989E0,2.6222334E0,1.680336E0,1.1799784E0,2.2181056E0,1.1664118E0,9.599281E0,8.910097E0,4.5011935E0],"tree_param":{"num_deleted":"0","num_feature":"11","num_nodes":"27","size_leaf_vector":"0"}},{"base_weights":[8.402312E-2,4.395863E-1,-1.1861772E-1,7.8685635E-1,6.2473916E-2,1.913775E-1,-3.3690944E-1,1.0921401E0,1.3206181E-1,-2.8143877E-1,6.4592075E-1,-3.1399083E-1,6.6570544E-1,4.425821E-1,-5.842562E-1,1.2995052E-1,1.2375873E0,9.1477007E-1,-6.2944937E-1,6.2459415E-1,-6.55423E-1,9.48286E-1,1.4359263E-1,5.4757315E-1,-1.0202649E0,1.062506E0,-5.153015E-1,8.043971E-1,-1.27194E-1,-8.015181E-1,7.515726E-1],"categories":[],"categories_nodes":[],"categories_segments":[],"categories_sizes":[],"default_left":[1,1,1,1,1,1,1,1,1,1,1,1,1,1,1,0,0,0,0,0,0,0,0,0,0,0,0,0,0,0,0],"id":22,"left_children":[1,3,5,7,9,11,13,15,17,19,21,23,25,27,29,-1,-1,-1,-1,-1,-1,-1,-1,-1,-1,-1,-1,-1,-1,-1,-1],"loss_changes":[4.6046867E0,2.9825506E0,2.8412607E0,2.2476635E0,2.6266344E0,4.426368E0,4.970933E0,9.620075E-1,3.5216384E0,3.2428641E0,5.9624004E-1,6.155374E0,4.9506845E0,1.4333231E0,6.1122212E0,0E0,0E0,0E0,0E0,0E0,0E0,0E0,0E0,0E0,0E0,0E0,0E0,0E0,0E0,0E0,0E0],"parents":[2147483647,0,0,1,1,2,2,3,3,4,4,5,5,6,6,7,7,8,8,9,9,10,10,11,11,12,12,13,13,14,14],"right_children":[2,4,6,8,10,12,14,16,18,20,22,24,26,28,30,-1,-1,-1,-1,-1,-1,-1,-1,-1,-1,-1,-1,-1,-1,-1,-1],"split_conditions":[4.821692E1,-4.525367E-4,-5.6174487E-1,8.117449E-1,6.035534E-1,9.829139E-4,-8.194513E-4,2.9285757E1,1.7695841E-3,-7.865661E-1,2.0048442E-1,2.5899315E-3,7.387464E-3,9.706535E-4,5.065099E-3,6.497526E-3,6.1879367E-2,4.5738503E-2,-3.147247E-2,3.1229708E-2,-3.277115E-2,4.74143E-2,7.1796314E-3,2.7378658E-2,-5.1013242E-2,5.31253E-2,-2.5765076E-2,4.0219855E-2,-6.3597E-3,-4.0075906E-2,3.757863E-2],"split_indices":[5,1,10,10,8,3,4,5,4,8,10,4,4,3,4,0,0,0,0,0,0,0,0,0,0,0,0,0,0,0,0],"split_type":[0,0,0,0,0,0,0,0,0,0,0,0,0,0,0,0,0,0,0,0,0,0,0,0,0,0,0,0,0,0,0],"sum_hessian":[6.218447E1,2.2149908E1,4.0034565E1,1.0965563E1,1.1184345E1,1.6593496E1,2.3441067E1,7.0232244E0,3.942339E0,7.362278E0,3.8220668E0,8.197536E0,8.39596E0,5.4563956E0,1.7984673E1,1.1708767E0,5.8523474E0,1.844865E0,2.097474E0,1.9552596E0,5.4070187E0,1.8317211E0,1.9903457E0,3.7940197E0,4.403517E0,6.359577E0,2.0363832E0,3.0853696E0,2.3710258E0,1.5812826E1,2.171846E0],"tree_param":{"num_deleted":"0","num_feature":"11","num_nodes":"31","size_leaf_vector":"0"}},{"base_weights":[6.92488E-2,-1.1802106E-1,5.6333584E-1,2.768004E-1,-4.4807133E-1,6.6927344E-1,-5.5255896E-1,5.7124007E-1,-4.715135E-1,-8.121654E-2,-7.983827E-1,7.968956E-1,1.2207302E-2,8.5437286E-1,-5.491205E-1,2.449284E-1,-9.71384E-1,1.008659E0,-3.2758656E-1,-1.0290965E0,5.0681406E-1,3.5626376E-1,1.1070966E0,6.18962E-1,-7.04393E-1],"categories":[],"categories_nodes":[],"categories_segments":[],"categories_sizes":[],"default_left":[1,1,1,1,1,1,0,1,1,1,1,1,1,0,0,0,0,0,0,0,0,0,0,0,0],"id":23,"left_children":[1,3,5,7,9,11,-1,13,15,17,19,21,23,-1,-1,-1,-1,-1,-1,-1,-1,-1,-1,-1,-1],"loss_changes":[6.014069E0,6.305822E0,2.4787965E0,5.164732E0,3.304872E0,1.3944955E0,0E0,5.6703334E0,2.6808853E0,4.0684366E0,4.52641E0,1.5200586E0,2.0617445E0,0E0,0E0,0E0,0E0,0E0,0E0,0E0,0E0,0E0,0E0,0E0,0E0],"parents":[2147483647,0,0,1,1,2,2,3,3,4,4,5,5,7,7,8,8,9,9,10,10,11,11,12,12],"right_children":[2,4,6,8,10,12,-1,14,16,18,20,22,24,-1,-1,-1,-1,-1,-1,-1,-1,-1,-1,-1,-1],"split_conditions":[1.6844957E-3,2.0953123E-3,5.4669823E-3,2.309189E-3,-5.6174487E-1,7.387464E-3,-2.7627949E-2,7.865661E-1,1.3798866E-3,2.7361016E-3,5.0859638E-3,2.307241E-3,1.5931847E-4,4.2718645E-2,-2.7456025E-2,1.2246421E-2,-4.85692E-2,5.043295E-2,-1.6379328E-2,-5.1454823E-2,2.5340704E-2,1.7813189E-2,5.535483E-2,3.09481E-2,-3.521965E-2],"split_indices":[6,4,2,2,10,4,0,7,6,4,4,4,0,0,0,0,0,0,0,0,0,0,0,0,0],"split_type":[0,0,0,0,0,0,0,0,0,0,0,0,0,0,0,0,0,0,0,0,0,0,0,0,0],"sum_hessian":[6.3279015E1,4.6438812E1,1.68402E1,2.1218088E1,2.5220724E1,1.5745623E1,1.0945765E0,1.5396605E1,5.8214846E0,1.2921183E1,1.2299542E1,1.3006549E1,2.7390747E0,1.24801E1,2.916505E0,2.60207E0,3.2194142E0,1.8118696E0,1.1109313E1,1.0631754E1,1.6677879E0,6.2611914E0,6.745357E0,1.5569973E0,1.1820774E0],"tree_param":{"num_deleted":"0","num_feature":"11","num_nodes":"25","size_leaf_vector":"0"}},{"base_weights":[7.555137E-2,-2.346444E-1,3.3248353E-1,2.4248071E-1,-6.700404E-1,7.443014E-1,1.1827806E-1,6.9898707E-1,-7.0309484E-1,1.5532798E-1,-1.1046774E0,1.0422376E0,-1.9140221E-1,4.1545632E-1,-5.711939E-1,1.1922075E0,-1.4213265E-2,2.7447497E-2,-1.1313392E0,1.0101476E0,-5.8479387E-1,-3.3704755E-1,-1.1896088E0,1.1794177E0,-2.9918423E-3,-8.240912E-1,7.362675E-1,7.584764E-2,1.0187994E0,1.6800699E-1,-8.710234E-1],"categories":[],"categories_nodes":[],"categories_segments":[],"categories_sizes":[],"default_left":[1,1,1,1,1,1,1,1,1,1,1,1,1,1,1,0,0,0,0,0,0,0,0,0,0,0,0,0,0,0,0],"id":24,"left_children":[1,3,5,7,9,11,13,15,17,19,21,23,25,27,29,-1,-1,-1,-1,-1,-1,-1,-1,-1,-1,-1,-1,-1,-1,-1,-1],"loss_changes":[5.20617E0,6.339913E0,3.0530038E0,6.9329934E0,5.8446198E0,3.5433745E0,5.2803006E0,3.7334967E0,1.7070663E0,4.596626E0,2.82444E-1,1.3302698E0,2.8028488E0,3.5654738E0,1.8826938E0,0E0,0E0,0E0,0E0,0E0,0E0,0E0,0E0,0E0,0E0,0E0,0E0,0E0,0E0,0E0,0E0],"parents":[2147483647,0,0,1,1,2,2,3,3,4,4,5,5,6,6,7,7,8,8,9,9,10,10,11,11,12,12,13,13,14,14],"right_children":[2,4,6,8,10,12,14,16,18,20,22,24,26,28,30,-1,-1,-1,-1,-1,-1,-1,-1,-1,-1,-1,-1,-1,-1,-1,-1],"split_conditions":[9.797532E-4,2.0953123E-3,-5.6174487E-1,7.0633606E1,7.680943E-4,8.005118E-3,1.2068625E-3,8.5942826E-4,-1.788314E-4,-3.971647E-4,-1.2419679E-3,3.1875551E-3,1.8733128E-3,1.1251401E-3,8.0681326E-5,5.9610374E-2,-7.1066327E-4,1.372375E-3,-5.656696E-2,5.0507378E-2,-2.9239694E-2,-1.6852377E-2,-5.948044E-2,5.8970887E-2,-1.4959212E-4,-4.120456E-2,3.6813375E-2,3.792382E-3,5.0939973E-2,8.40035E-3,-4.3551173E-2],"split_indices":[3,4,10,5,3,4,3,3,4,1,1,1,6,3,4,0,0,0,0,0,0,0,0,0,0,0,0,0,0,0,0],"split_type":[0,0,0,0,0,0,0,0,0,0,0,0,0,0,0,0,0,0,0,0,0,0,0,0,0,0,0,0,0,0,0],"sum_hessian":[6.3343807E1,2.8736637E1,3.460717E1,1.3922673E1,1.4813964E1,1.0994718E1,2.3612452E1,9.565438E0,4.357235E0,5.3317275E0,9.482237E0,8.253027E0,2.7416909E0,1.6778124E1,6.8343287E0,5.257756E0,4.3076816E0,1.9561479E0,2.401087E0,2.3048508E0,3.0268767E0,1.4395664E0,8.04267E0,7.182045E0,1.0709821E0,1.6963806E0,1.0453103E0,1.1455682E1,5.3224416E0,2.09903E0,4.7352986E0],"tree_param":{"num_deleted":"0","num_feature":"11","num_nodes":"31","size_leaf_vector":"0"}},{"base_weights":[1.0112331E-1,-8.074041E-2,5.462603E-1,2.5473812E-1,-4.8788524E-1,-5.354332E-1,6.510469E-1,7.2158754E-1,-6.313176E-2,1.7572966E-1,-7.808865E-1,9.342222E-1,8.796428E-2,1.0718501E0,-9.800425E-2,4.3066812E-1,-7.182117E-1,7.974764E-1,-6.810095E-1,-1.0166302E0,2.0253132E-1,-6.585095E-2,1.0804482E0,-9.0109E-1,5.033572E-1],"categories":[],"categories_nodes":[],"categories_segments":[],"categories_sizes":[],"default_left":[1,1,1,1,1,0,1,1,1,1,1,1,1,0,0,0,0,0,0,0,0,0,0,0,0],"id":25,"left_children":[1,3,5,7,9,-1,11,13,15,17,19,21,23,-1,-1,-1,-1,-1,-1,-1,-1,-1,-1,-1,-1],"loss_changes":[5.0121965E0,6.19427E0,2.3807998E0,3.758651E0,4.1074376E0,0E0,2.5961094E0,3.0377607E0,5.422003E0,4.309276E0,3.5323477E0,1.6903372E0,3.216322E0,0E0,0E0,0E0,0E0,0E0,0E0,0E0,0E0,0E0,0E0,0E0,0E0],"parents":[2147483647,0,0,1,1,2,2,3,3,4,4,6,6,7,7,8,8,9,9,10,10,11,11,12,12],"right_children":[2,4,6,8,10,-1,12,14,16,18,20,22,24,-1,-1,-1,-1,-1,-1,-1,-1,-1,-1,-1,-1],"split_conditions":[1.6786084E-3,2.4999043E-3,-3.6318102E-3,-1.3473112E-4,-6.964189E-4,-2.6771659E-2,2.3773918E-3,1.4604912E-3,9.021867E-4,8.117449E-1,1.1102784E-3,9.4650174E-4,2.1694186E-1,5.3592503E-2,-4.900213E-3,2.1533405E-2,-3.5910588E-2,3.987382E-2,-3.4050476E-2,-5.0831508E-2,1.01265665E-2,-3.2925475E-3,5.402241E-2,-4.5054503E-2,2.5167858E-2],"split_indices":[6,4,1,2,1,0,2,6,3,10,3,3,9,0,0,0,0,0,0,0,0,0,0,0,0],"split_type":[0,0,0,0,0,0,0,0,0,0,0,0,0,0,0,0,0,0,0,0,0,0,0,0,0],"sum_hessian":[6.0369102E1,4.344001E1,1.6929092E1,2.4021305E1,1.9418705E1,1.132168E0,1.5796925E1,9.215947E0,1.4805358E1,6.070331E0,1.3348374E1,1.0072383E1,5.7245417E0,6.2409964E0,2.9749506E0,8.6372E0,6.168158E0,3.557662E0,2.512669E0,1.0740019E1,2.6083555E0,1.354986E0,8.717397E0,1.3473178E0,4.377224E0],"tree_param":{"num_deleted":"0","num_feature":"11","num_nodes":"25","size_leaf_vector":"0"}},{"base_weights":[6.5777086E-2,-1.24485984E-1,5.436156E-1,2.1043226E-1,-5.7846004E-1,7.413332E-1,-3.675759E-1,9.131593E-1,-3.744756E-2,-8.5094845E-1,5.001434E-2,-5.3352594E-1,8.8553345E-1,-7.7245384E-1,3.6141577E-1,1.2027756E0,-2.8958353E-1,8.9500624E-1,-1.6597798E-1,6.503765E-2,-1.0508994E0,1.1482282E0,-7.0728755E-1,-6.3951425E-2,9.952064E-1],"categories":[],"categories_nodes":[],"categories_segments":[],"categories_sizes":[],"default_left":[1,1,1,1,1,1,1,1,1,1,1,0,1,0,0,0,0,0,0,0,0,0,0,0,0],"id":26,"left_children":[1,3,5,7,9,11,13,15,17,19,21,-1,23,-1,-1,-1,-1,-1,-1,-1,-1,-1,-1,-1,-1],"loss_changes":[5.6288047E0,6.8971934E0,3.4443665E0,4.6288676E0,3.3280988E0,3.1929054E0,1.4030173E0,2.757893E0,2.6006083E0,2.5296335E0,6.4234266E0,0E0,1.4871969E0,0E0,0E0,0E0,0E0,0E0,0E0,0E0,0E0,0E0,0E0,0E0,0E0],"parents":[2147483647,0,0,1,1,2,2,3,3,4,4,5,5,6,6,7,7,8,8,9,9,10,10,12,12],"right_children":[2,4,6,8,10,12,14,16,18,20,22,-1,24,-1,-1,-1,-1,-1,-1,-1,-1,-1,-1,-1,-1],"split_conditions":[1.6699356E-3,2.6987996E-3,4.3087117E-3,-5.6174487E-1,1.143869E-3,-3.7538176E-3,1.2905612E-3,1.2014788E-3,-2.7662893E-3,-9.243161E-4,1.1979904E-3,-2.6676297E-2,9.4650174E-4,-3.8622692E-2,1.8070789E-2,6.013878E-2,-1.4479177E-2,4.4750314E-2,-8.298899E-3,3.2518827E-3,-5.254497E-2,5.741141E-2,-3.536438E-2,-3.1975713E-3,4.9760323E-2],"split_indices":[6,4,2,10,3,1,3,1,2,1,3,0,3,0,0,0,0,0,0,0,0,0,0,0,0],"split_type":[0,0,0,0,0,0,0,0,0,0,0,0,0,0,0,0,0,0,0,0,0,0,0,0,0],"sum_hessian":[6.016847E1,4.356248E1,1.6605986E1,2.5377073E1,1.8185408E1,1.3798327E1,2.8076577E0,5.917467E0,1.9459606E1,1.2438459E1,5.746949E0,1.127787E0,1.2670541E1,1.766779E0,1.0408788E0,4.7690654E0,1.1484016E0,1.6349685E0,1.7824638E1,2.3495903E0,1.0088869E1,2.1348507E0,3.6120985E0,1.3551688E0,1.1315372E1],"tree_param":{"num_deleted":"0","num_feature":"11","num_nodes":"25","size_leaf_vector":"0"}},{"base_weights":[1.2036511E-1,3.1464082E-1,-1.4589283E-1,4.833918E-1,-2.8087625E-1,2.0976898E-1,-6.125716E-1,5.6479394E-1,-7.602391E-1,5.0065704E-2,-9.128071E-1,9.585903E-1,-2.7543756E-1,-1.0246108E0,7.4711835E-1,1.24702334E-1,7.945504E-1,-5.067523E-1,4.968653E-1,1.1329747E0,1.01391375E-1,4.0003E-1,-7.9993945E-1,-9.765563E-3,-1.161987E0,9.383909E-1,2.0494536E-1],"categories":[],"categories_nodes":[],"categories_segments":[],"categories_sizes":[],"default_left":[1,1,1,1,1,1,1,1,0,1,0,1,1,1,1,0,0,0,0,0,0,0,0,0,0,0,0],"id":27,"left_children":[1,3,5,7,9,11,13,15,-1,17,-1,19,21,23,25,-1,-1,-1,-1,-1,-1,-1,-1,-1,-1,-1,-1],"loss_changes":[3.282262E0,3.8027163E0,4.622643E0,3.3449044E0,1.8629191E0,6.1176224E0,7.4691997E0,2.6920948E0,0E0,1.9064095E0,0E0,8.6540127E-1,4.0587635E0,1.3276758E0,1.5623462E-1,0E0,0E0,0E0,0E0,0E0,0E0,0E0,0E0,0E0,0E0,0E0,0E0],"parents":[2147483647,0,0,1,1,2,2,3,3,4,4,5,5,6,6,7,7,9,9,11,11,12,12,13,13,14,14],"right_children":[2,4,6,8,10,12,14,16,-1,18,-1,20,22,24,26,-1,-1,-1,-1,-1,-1,-1,-1,-1,-1,-1,-1],"split_conditions":[2.0048442E-1,4.864921E-3,1.7695841E-3,8.084631E1,2.858813E-3,-2.4086339E-4,5.065099E-3,-3.7940952E-1,-3.8011957E-2,9.6737116E-4,-4.5640357E-2,5.771201E1,4.8997635E1,2.9789291E1,5.643344E-3,6.2351166E-3,3.972752E-2,-2.5337616E-2,2.4843266E-2,5.664874E-2,5.0695688E-3,2.0001499E-2,-3.9996974E-2,-4.8827814E-4,-5.8099348E-2,4.6919547E-2,1.0247268E-2],"split_indices":[10,4,4,5,2,2,4,7,0,3,0,5,5,5,4,0,0,0,0,0,0,0,0,0,0,0,0],"split_type":[0,0,0,0,0,0,0,0,0,0,0,0,0,0,0,0,0,0,0,0,0,0,0,0,0,0,0],"sum_hessian":[6.156559E1,3.5489143E1,2.6076448E1,2.7799822E1,7.689321E0,1.5110814E1,1.0965635E1,2.6604284E1,1.1955379E0,5.650782E0,2.038539E0,5.5578012E0,9.553013E0,8.604556E0,2.3610787E0,9.654377E0,1.6949907E1,2.4559298E0,3.194852E0,4.350948E0,1.2068533E0,4.279313E0,5.2736993E0,1.1535996E0,7.4509563E0,1.2051274E0,1.1559515E0],"tree_param":{"num_deleted":"0","num_feature":"11","num_nodes":"27","size_leaf_vector":"0"}},{"base_weights":[6.155271E-2,-2.6228333E-1,3.1565058E-1,3.7403904E-2,-8.7622553E-1,5.019509E-1,-2.0678657E-1,6.4925164E-1,-3.2686788E-1,1.3764702E-1,-1.0509495E0,1.7707016E-1,7.728013E-1,-1.0058153E0,1.19683824E-1,8.4394395E-1,-6.3517734E-2,1.15634404E-1,-8.579412E-1,-4.4352055E-1,-1.1655225E0,6.310714E-1,-2.530268E-1,9.0068537E-1,-3.5590622E-1,6.3179123E-1,-1.0065595E0],"categories":[],"categories_nodes":[],"categories_segments":[],"categories_sizes":[],"default_left":[1,1,1,1,1,1,1,1,1,0,1,1,1,0,1,0,0,0,0,0,0,0,0,0,0,0,0],"id":28,"left_children":[1,3,5,7,9,11,13,15,17,-1,19,21,23,-1,25,-1,-1,-1,-1,-1,-1,-1,-1,-1,-1,-1,-1],"loss_changes":[5.0362616E0,5.002963E0,3.431023E0,4.471764E0,1.7215929E0,2.106196E0,2.6491902E0,1.0898004E0,3.0706859E0,0E0,1.9576073E-2,2.6759863E0,2.2842274E0,0E0,5.120723E0,0E0,0E0,0E0,0E0,0E0,0E0,0E0,0E0,0E0,0E0,0E0,0E0],"parents":[2147483647,0,0,1,1,2,2,3,3,4,4,5,5,6,6,7,7,8,8,10,10,11,11,12,12,14,14],"right_children":[2,4,6,8,10,12,14,16,18,-1,20,22,24,-1,26,-1,-1,-1,-1,-1,-1,-1,-1,-1,-1,-1,-1],"split_conditions":[9.797532E-4,8.9197466E-4,2.3352536E-3,1.5646149E-3,-1.9332152E-3,-2.1570321E-4,4.3616054E-4,6.969937E1,7.6874567E-4,6.882351E-3,-5.2935566E-4,4.6098408E1,9.159756E-1,-5.0290763E-2,6.718575E-3,4.2197198E-2,-3.1758868E-3,5.7817204E-3,-4.289706E-2,-2.2176027E-2,-5.8276124E-2,3.155357E-2,-1.2651341E-2,4.503427E-2,-1.7795311E-2,3.1589564E-2,-5.0327975E-2],"split_indices":[3,3,2,4,2,0,4,5,3,0,1,5,7,0,4,0,0,0,0,0,0,0,0,0,0,0,0],"split_type":[0,0,0,0,0,0,0,0,0,0,0,0,0,0,0,0,0,0,0,0,0,0,0,0,0,0,0],"sum_hessian":[5.9198193E1,2.6013268E1,3.3184925E1,1.811148E1,7.901788E0,2.4490767E1,8.694159E0,6.4669557E0,1.1644525E1,1.1927586E0,6.7090297E0,1.1886661E1,1.2604107E1,1.9182961E0,6.775862E0,4.934944E0,1.5320113E0,6.7786574E0,4.865867E0,1.8376231E0,4.8714066E0,5.555313E0,6.331348E0,1.1502839E1,1.1012671E0,4.9596963E0,1.8161659E0],"tree_param":{"num_deleted":"0","num_feature":"11","num_nodes":"27","size_leaf_vector":"0"}},{"base_weights":[3.0730493E-2,-2.5321326E-1,2.6989123E-1,1.8435031E-1,-6.351147E-1,-2.6136482E-1,3.8813683E-1,9.491474E-1,-1.712942E-1,5.679746E-1,-8.171121E-1,7.160296E-1,-9.238903E-1,-6.6693544E-1,4.7628987E-1,3.7005174E-1,-8.9147955E-1,-1.4252707E-1,-1.2535661E0,-1.1140361E0,-2.2602001E-1,7.1420825E-1,-1.2216166E-1],"categories":[],"categories_nodes":[],"categories_segments":[],"categories_sizes":[],"default_left":[1,1,1,1,1,1,1,0,1,0,1,0,1,0,1,0,0,0,0,0,0,0,0],"id":29,"left_children":[1,3,5,7,9,11,13,-1,15,-1,17,-1,19,-1,21,-1,-1,-1,-1,-1,-1,-1,-1],"loss_changes":[4.1537533E0,4.7995934E0,2.1832347E0,3.9253614E0,3.7894778E0,4.955339E0,2.8761878E0,0E0,4.3416395E0,0E0,3.8260212E0,0E0,3.3056355E-1,0E0,3.7850676E0,0E0,0E0,0E0,0E0,0E0,0E0,0E0,0E0],"parents":[2147483647,0,0,1,1,2,2,3,3,4,4,5,5,6,6,8,8,10,10,12,12,14,14],"right_children":[2,4,6,8,10,12,14,-1,16,-1,18,-1,20,-1,22,-1,-1,-1,-1,-1,-1,-1,-1],"split_conditions":[9.797532E-4,1.3811544E-3,1.4040871E-3,1.5646149E-3,-1.0658968E-3,-3.6662607E-4,-3.7538176E-3,4.745737E-2,7.865661E-1,2.8398732E-2,-4.335929E-4,3.580148E-2,1.1170534E-3,-3.3346772E-2,2.383861E-3,1.8502587E-2,-4.4573978E-2,-7.1263537E-3,-6.267831E-2,-5.5701803E-2,-1.1301001E-2,3.5710413E-2,-6.108083E-3],"split_indices":[3,6,6,4,4,2,1,0,7,0,1,0,2,0,2,0,0,0,0,0,0,0,0],"split_type":[0,0,0,0,0,0,0,0,0,0,0,0,0,0,0,0,0,0,0,0,0,0,0],"sum_hessian":[5.9160824E1,2.7021168E1,3.2139656E1,1.2833953E1,1.4187216E1,5.6308618E0,2.6508795E1,3.5439792E0,9.289973E0,1.5855026E0,1.2601713E1,2.2422347E0,3.388627E0,1.5377969E0,2.4970999E1,5.581024E0,3.7089493E0,5.471499E0,7.1302137E0,2.1943932E0,1.1942339E0,1.7729208E1,7.241791E0],"tree_param":{"num_deleted":"0","num_feature":"11","num_nodes":"23","size_leaf_vector":"0"}},{"base_weights":[8.094764E-2,3.0831796E-1,-1.4063871E-1,8.047779E-2,8.2840866E-1,-4.415064E-1,9.039751E-2,8.704239E-1,-4.0145457E-2,1.7447424E-1,1.1227046E0,-7.502321E-1,7.2531044E-1,2.0135789E-1,-8.012938E-1,2.2497424E-1,-7.795701E-1,-4.399799E-1,5.654321E-1,1.8035991E-1,-1.0088941E0,-1.1798394E-1,4.8338926E-1],"categories":[],"categories_nodes":[],"categories_segments":[],"categories_sizes":[],"default_left":[1,1,1,1,1,1,1,0,1,1,0,1,0,1,0,0,0,0,0,0,0,0,0],"id":30,"left_children":[1,3,5,7,9,11,13,-1,15,17,-1,19,-1,21,-1,-1,-1,-1,-1,-1,-1,-1,-1],"loss_changes":[3.0727963E0,3.487132E0,2.2043986E0,2.127628E0,1.5416203E0,5.477536E0,1.9861807E0,0E0,4.0978193E0,1.2063327E0,0E0,2.907115E0,0E0,1.6062748E0,0E0,0E0,0E0,0E0,0E0,0E0,0E0,0E0,0E0],"parents":[2147483647,0,0,1,1,2,2,3,3,4,4,5,5,6,6,8,8,9,9,11,11,13,13],"right_children":[2,4,6,8,10,12,14,-1,16,18,-1,20,-1,22,-1,-1,-1,-1,-1,-1,-1,-1,-1],"split_conditions":[5.3423836E1,1.6641808E-3,-1.2940952E-1,-1.3094705E-3,-7.865661E-1,1.8625332E-3,8.168634E1,4.3521196E-2,7.865661E-1,-5.6864624E-4,5.6135233E-2,7.7063625E-4,3.6265522E-2,9.829139E-4,-4.006469E-2,1.1248712E-2,-3.8978506E-2,-2.1998996E-2,2.8271604E-2,9.017996E-3,-5.0444704E-2,-5.899197E-3,2.4169464E-2],"split_indices":[5,6,7,0,7,6,5,0,7,0,0,3,0,3,0,0,0,0,0,0,0,0,0],"split_type":[0,0,0,0,0,0,0,0,0,0,0,0,0,0,0,0,0,0,0,0,0,0,0],"sum_hessian":[5.912912E1,2.8990492E1,3.013863E1,2.096217E1,8.028322E0,1.2695235E1,1.7443396E1,1.9534197E0,1.9008749E1,2.9860606E0,5.0422616E0,1.0321355E1,2.3738797E0,1.6201496E1,1.2418993E0,1.4504077E1,4.504673E0,1.1123815E0,1.873679E0,2.31073E0,8.010625E0,7.8709483E0,8.330547E0],"tree_param":{"num_deleted":"0","num_feature":"11","num_nodes":"23","size_leaf_vector":"0"}},{"base_weights":[6.2819846E-2,-2.5324814E-2,9.4527113E-1,1.3297468E-1,-5.185954E-1,1.0466224E0,2.5424716E-1,5.160631E-1,-1.332116E-1,2.8602695E-1,-7.574433E-1,7.789357E-1,-4.4566616E-1,2.7194136E-1,-5.286942E-1,-6.348493E-1,9.550446E-1,-9.80277E-1,4.6066585E-1],"categories":[],"categories_nodes":[],"categories_segments":[],"categories_sizes":[],"default_left":[1,1,1,1,1,0,0,1,1,1,1,0,0,0,0,0,0,0,0],"id":31,"left_children":[1,3,5,7,9,-1,-1,11,13,15,17,-1,-1,-1,-1,-1,-1,-1,-1],"loss_changes":[4.556714E0,4.2820926E0,1.0637045E-1,4.3152347E0,2.7751262E0,0E0,0E0,4.7152057E0,4.2081013E0,2.9308794E0,3.3124075E0,0E0,0E0,0E0,0E0,0E0,0E0,0E0,0E0],"parents":[2147483647,0,0,1,1,2,2,3,3,4,4,7,7,8,8,9,9,10,10],"right_children":[2,4,6,8,10,-1,-1,12,14,16,18,-1,-1,-1,-1,-1,-1,-1,-1],"split_conditions":[1.9333014E-3,2.3111603E-3,1.2773429E-3,1.835064E-3,1.3852983E-3,5.233112E-2,1.27123585E-2,7.865661E-1,-5.6174487E-1,7.315688E-4,1.2905612E-3,3.8946785E-2,-2.2283308E-2,1.3597068E-2,-2.643471E-2,-3.1742465E-2,4.775223E-2,-4.901385E-2,2.3033293E-2],"split_indices":[6,2,3,4,6,0,0,7,10,3,3,0,0,0,0,0,0,0,0],"split_type":[0,0,0,0,0,0,0,0,0,0,0,0,0,0,0,0,0,0,0],"sum_hessian":[5.727435E1,5.2956074E1,4.3182764E0,4.0643314E1,1.2312757E1,3.3171585E0,1.0011181E0,1.6277882E1,2.4365433E1,2.7731476E0,9.539609E0,1.2932945E1,3.3449366E0,1.2189874E1,1.217556E1,1.1884145E0,1.584733E0,8.229416E0,1.3101939E0],"tree_param":{"num_deleted":"0","num_feature":"11","num_nodes":"19","size_leaf_vector":"0"}},{"base_weights":[6.883908E-2,-2.8196206E-2,6.343646E-1,9.3977965E-2,-4.8772958E-1,8.8323474E-1,-2.6154372E-1,-6.760471E-2,8.033196E-1,2.627397E-1,-7.7990335E-1,2.6261565E-1,9.4561285E-1,3.017672E-1,-3.1577963E-1,9.708118E-1,-2.786416E-3,8.658451E-1,-4.3094954E-1,1.4093643E-1,-9.9733704E-1],"categories":[],"categories_nodes":[],"categories_segments":[],"categories_sizes":[],"default_left":[1,1,1,1,1,1,0,1,1,1,1,0,0,0,0,0,0,0,0,0,0],"id":32,"left_children":[1,3,5,7,9,11,-1,13,15,17,19,-1,-1,-1,-1,-1,-1,-1,-1,-1,-1],"loss_changes":[3.165894E0,2.8486028E0,2.1137364E0,4.670561E0,2.5393372E0,1.6342163E-2,0E0,3.186864E0,1.0220685E0,1.9342353E0,1.7253294E0,0E0,0E0,0E0,0E0,0E0,0E0,0E0,0E0,0E0,0E0],"parents":[2147483647,0,0,1,1,2,2,3,3,4,4,5,5,7,7,8,8,9,9,10,10],"right_children":[2,4,6,8,10,12,-1,14,16,18,20,-1,-1,-1,-1,-1,-1,-1,-1,-1,-1],"split_conditions":[1.7958992E-3,2.3111603E-3,4.3087117E-3,1.1987037E-3,1.3798866E-3,3.9720207E1,-1.3077186E-2,1.8457283E-3,7.865661E-1,1.5787642E-3,5.5601463E1,1.3130783E-2,4.7280643E-2,1.508836E-2,-1.5788982E-2,4.854059E-2,-1.3932081E-4,4.3292254E-2,-2.1547478E-2,7.046822E-3,-4.986685E-2],"split_indices":[6,2,2,2,6,5,0,4,8,4,5,0,0,0,0,0,0,0,0,0,0],"split_type":[0,0,0,0,0,0,0,0,0,0,0,0,0,0,0,0,0,0,0,0,0],"sum_hessian":[5.6365906E1,4.892183E1,7.444075E0,3.9275352E1,9.646478E0,5.8368344E0,1.6072407E0,3.2725437E1,6.549915E0,2.7314062E0,6.9150715E0,1.0089126E0,4.827922E0,1.3064662E1,1.9660776E1,5.253933E0,1.2959816E0,1.3283454E0,1.4030607E0,1.3881258E0,5.5269456E0],"tree_param":{"num_deleted":"0","num_feature":"11","num_nodes":"21","size_leaf_vector":"0"}},{"base_weights":[3.459236E-2,4.7710603E-1,-9.936604E-2,6.5838385E-1,-8.288204E-1,-1.5825926E-1,8.3773607E-1,9.8065186E-1,3.3831176E-1,8.4218717E-1,-2.1523802E-1,2.368094E-1,1.0909241E0,7.852373E-1,-3.8569283E-1,1.8610911E-3,-5.618746E-1],"categories":[],"categories_nodes":[],"categories_segments":[],"categories_sizes":[],"default_left":[1,1,1,1,0,1,0,1,1,0,1,0,0,0,0,0,0],"id":33,"left_children":[1,3,5,7,-1,9,-1,11,13,-1,15,-1,-1,-1,-1,-1,-1],"loss_changes":[3.520215E0,3.8093305E0,2.660158E0,9.744048E-1,0E0,2.6855593E0,0E0,2.1602201E-1,2.8525774E0,0E0,3.188892E0,0E0,0E0,0E0,0E0,0E0,0E0],"parents":[2147483647,0,0,1,1,2,2,3,3,5,5,7,7,8,8,10,10],"right_children":[2,4,6,8,-1,10,-1,12,14,-1,16,-1,-1,-1,-1,-1,-1],"split_conditions":[4.318061E1,1.2609374E-3,1.9961174E-3,1.7695841E-3,-4.144102E-2,-1.5285704E-3,4.1886803E-2,-9.0539217E-4,2.0048442E-1,4.210936E-2,2.0048442E-1,1.184047E-2,5.4546207E-2,3.9261866E-2,-1.9284641E-2,9.305456E-5,-2.8093731E-2],"split_indices":[5,3,6,4,0,4,0,4,10,0,10,0,0,0,0,0,0],"split_type":[0,0,0,0,0,0,0,0,0,0,0,0,0,0,0,0,0],"sum_hessian":[5.758467E1,1.2786054E1,4.479862E1,1.166295E1,1.1231042E0,4.293165E1,1.866969E0,4.7831435E0,6.8798056E0,1.5707814E0,4.136087E1,1.0239019E0,3.7592418E0,4.201598E0,2.6782072E0,2.604406E1,1.531681E1],"tree_param":{"num_deleted":"0","num_feature":"11","num_nodes":"17","size_leaf_vector":"0"}},{"base_weights":[8.289171E-2,3.4357113E-1,-1.5627149E-1,6.305265E-2,7.6348287E-1,-7.2602354E-2,-9.6705216E-1,2.573901E-1,-6.667663E-1,-2.9065293E-1,9.1689754E-1,-3.6696082E-1,2.406079E-1,7.7425987E-1,-8.984021E-2,-1.0351596E0,6.998848E-2,1.5538841E-1,1.1005051E0,2.9224283E-1,-7.8568405E-1,7.6159245E-1,-5.422933E-1],"categories":[],"categories_nodes":[],"categories_segments":[],"categories_sizes":[],"default_left":[1,1,1,1,1,1,0,1,1,0,1,1,1,0,0,0,0,0,0,0,0,0,0],"id":34,"left_children":[1,3,5,7,9,11,-1,13,15,-1,17,19,21,-1,-1,-1,-1,-1,-1,-1,-1,-1,-1],"loss_changes":[3.5907264E0,3.1862497E0,1.9835719E0,2.6609523E0,2.030354E0,2.7181187E0,0E0,2.686643E0,1.1497872E0,0E0,1.1938896E0,4.3977585E0,6.2960896E0,0E0,0E0,0E0,0E0,0E0,0E0,0E0,0E0,0E0,0E0],"parents":[2147483647,0,0,1,1,2,2,3,3,4,4,5,5,7,7,8,8,10,10,11,11,12,12],"right_children":[2,4,6,8,10,12,-1,14,16,-1,18,20,22,-1,-1,-1,-1,-1,-1,-1,-1,-1,-1],"split_conditions":[5.3423836E1,1.5805492E-3,7.1060364E-3,1.5319344E-3,-9.829629E-1,9.829139E-4,-4.835261E-2,-2.9534678E-4,1.1115342E-3,-1.4532647E-2,3.2881935E1,1.3811544E-3,6.078576E-1,3.8712993E-2,-4.4920105E-3,-5.175798E-2,3.499424E-3,7.7694207E-3,5.5025257E-2,1.4612141E-2,-3.9284203E-2,3.8079623E-2,-2.7114665E-2],"split_indices":[5,6,4,6,7,3,0,0,3,0,5,6,9,0,0,0,0,0,0,0,0,0,0],"split_type":[0,0,0,0,0,0,0,0,0,0,0,0,0,0,0,0,0,0,0,0,0,0,0],"sum_hessian":[5.5733345E1,2.6458242E1,2.92751E1,1.6551386E1,9.906856E0,2.752426E1,1.7508411E0,1.3582055E1,2.9693303E0,1.1449777E0,8.761878E0,1.4100677E1,1.3423584E1,4.963629E0,8.618427E0,1.7095115E0,1.2598188E0,2.06085E0,6.7010283E0,5.594778E0,8.505898E0,8.076358E0,5.3472257E0],"tree_param":{"num_deleted":"0","num_feature":"11","num_nodes":"23","size_leaf_vector":"0"}},{"base_weights":[3.666763E-2,-7.497334E-2,7.2915334E-1,3.475518E-1,-2.3225664E-1,8.823966E-1,-2.5605017E-2,5.724555E-1,-1.2237257E-1,-4.8167872E-1,7.446009E-2,2.8054884E-1,9.503903E-1,1.081675E0,1.632232E-1,3.7407422E-1,-6.388358E-1,-8.751363E-1,5.302094E-2,3.8712603E-1,-7.3977554E-1],"categories":[],"categories_nodes":[],"categories_segments":[],"categories_sizes":[],"default_left":[1,1,1,1,1,1,0,1,1,1,1,0,0,0,0,0,0,0,0,0,0],"id":35,"left_children":[1,3,5,7,9,11,-1,13,15,17,19,-1,-1,-1,-1,-1,-1,-1,-1,-1,-1],"loss_changes":[4.555292E0,3.4726357E0,9.6819496E-1,1.5756857E0,2.927168E0,1.2619495E-2,0E0,1.8679447E0,1.6325073E0,4.459705E0,4.822109E0,0E0,0E0,0E0,0E0,0E0,0E0,0E0,0E0,0E0,0E0],"parents":[2147483647,0,0,1,1,2,2,3,3,4,4,5,5,7,7,8,8,9,9,10,10],"right_children":[2,4,6,8,10,12,-1,14,16,18,20,-1,-1,-1,-1,-1,-1,-1,-1,-1,-1],"split_conditions":[1.7958992E-3,4.318061E1,4.3087117E-3,8.117449E-1,1.2940952E-1,-2.2954266E-3,-1.2802508E-3,-3.7940952E-1,-1.8183426E-3,1.1379397E-3,1.9524547E-3,1.4027442E-2,4.7519516E-2,5.4083753E-2,8.16116E-3,1.8703712E-2,-3.194179E-2,-4.3756817E-2,2.651047E-3,1.9356301E-2,-3.6988776E-2],"split_indices":[6,5,2,10,8,1,0,8,2,2,2,0,0,0,0,0,0,0,0,0,0],"split_type":[0,0,0,0,0,0,0,0,0,0,0,0,0,0,0,0,0,0,0,0,0],"sum_hessian":[5.7215473E1,5.003989E1,7.175584E0,1.3246049E1,3.6793842E1,5.823992E0,1.351592E0,8.81097E0,4.4350786E0,1.997761E1,1.6816233E1,1.1115128E0,4.712479E0,3.1937344E0,5.6172357E0,2.401935E0,2.0331438E0,1.1142061E1,8.835548E0,1.2529474E1,4.286757E0],"tree_param":{"num_deleted":"0","num_feature":"11","num_nodes":"21","size_leaf_vector":"0"}},{"base_weights":[5.203634E-2,-3.0383784E-2,7.186711E-1,2.6556885E-1,-2.2284354E-1,3.6808204E-2,9.0266925E-1,6.0591143E-1,-3.3613336E-1,-6.636016E-1,3.4118146E-2,2.7912706E-1,1.1107261E0,6.363953E-1,-6.5091705E-1,-9.4554913E-1,-5.1446566E-3,7.947246E-1,-2.1495774E-1],"categories":[],"categories_nodes":[],"categories_segments":[],"categories_sizes":[],"default_left":[1,1,1,1,1,0,0,1,1,1,1,0,0,0,0,0,0,0,0],"id":36,"left_children":[1,3,5,7,9,-1,-1,11,13,15,17,-1,-1,-1,-1,-1,-1,-1,-1],"loss_changes":[3.0893724E0,2.9439495E0,7.425871E-1,4.384059E0,3.5600104E0,0E0,0E0,1.8997397E0,2.8689075E0,2.1396894E0,4.0888743E0,0E0,0E0,0E0,0E0,0E0,0E0,0E0,0E0],"parents":[2147483647,0,0,1,1,2,2,3,3,4,4,7,7,8,8,9,9,10,10],"right_children":[2,4,6,8,10,-1,-1,12,14,16,18,-1,-1,-1,-1,-1,-1,-1,-1],"split_conditions":[1.8699924E-3,1.5646149E-3,-9.159756E-1,5.308443E-4,-3.7940952E-1,1.8404102E-3,4.5133464E-2,3.7940952E-1,-9.159756E-1,3.7940952E-1,-8.248697E-4,1.3956353E-2,5.5536307E-2,3.1819765E-2,-3.2545853E-2,-4.7277458E-2,-2.5723284E-4,3.973623E-2,-1.0747887E-2],"split_indices":[6,4,7,0,7,0,0,8,8,8,1,0,0,0,0,0,0,0,0],"split_type":[0,0,0,0,0,0,0,0,0,0,0,0,0,0,0,0,0,0,0],"sum_hessian":[5.4830112E1,4.9646442E1,5.1836705E0,1.941358E1,3.0232862E1,1.3565598E0,3.8271108E0,1.239536E1,7.0182195E0,1.0551582E1,1.968128E1,8.467183E0,3.9281774E0,1.4663181E0,5.5519013E0,7.082772E0,3.4688103E0,4.3147073E0,1.5366572E1],"tree_param":{"num_deleted":"0","num_feature":"11","num_nodes":"19","size_leaf_vector":"0"}},{"base_weights":[5.0946757E-2,-5.4381464E-2,7.401185E-1,3.3476114E-1,-2.0379685E-1,9.354677E-1,-9.515207E-2,-6.8697685E-1,5.0034136E-1,3.75269E-1,-2.8531563E-1,1.0316083E0,2.3644629E-1,8.8900846E-1,2.347818E-1,7.873324E-1,-3.2504773E-1,-4.9903455E-1,-2.5188886E-2],"categories":[],"categories_nodes":[],"categories_segments":[],"categories_sizes":[],"default_left":[1,1,1,1,1,1,0,0,1,1,1,0,0,0,0,0,0,0,0],"id":37,"left_children":[1,3,5,7,9,11,-1,-1,13,15,17,-1,-1,-1,-1,-1,-1,-1,-1],"loss_changes":[4.1514306E0,2.9788735E0,1.3253155E0,2.757358E0,1.8438619E0,1.7496395E-1,0E0,0E0,1.1181688E0,1.6907971E0,1.8120494E0,0E0,0E0,0E0,0E0,0E0,0E0,0E0,0E0],"parents":[2147483647,0,0,1,1,2,2,3,3,4,4,5,5,8,8,9,9,10,10],"right_children":[2,4,6,8,10,12,-1,-1,14,16,18,-1,-1,-1,-1,-1,-1,-1,-1],"split_conditions":[1.7958992E-3,-6.964189E-4,4.3087117E-3,-3.626109E-3,-9.159756E-1,1.3246115E-3,-4.7576036E-3,-3.434884E-2,1.4099245E-3,5.9726974E-4,3.7940952E-1,5.1580418E-2,1.1822315E-2,4.4450425E-2,1.173909E-2,3.936662E-2,-1.6252387E-2,-2.4951728E-2,-1.2594443E-3],"split_indices":[6,1,2,1,8,3,0,0,6,2,8,0,0,0,0,0,0,0,0],"split_type":[0,0,0,0,0,0,0,0,0,0,0,0,0,0,0,0,0,0,0],"sum_hessian":[5.5636246E1,4.9059433E1,6.5768113E0,1.3266703E1,3.5792732E1,5.232987E0,1.3438241E0,1.4110007E0,1.1855701E1,3.9722848E0,3.1820448E1,4.182019E0,1.0509676E0,3.859436E0,7.9962654E0,2.4225907E0,1.5496942E0,1.6964262E1,1.4856186E1],"tree_param":{"num_deleted":"0","num_feature":"11","num_nodes":"19","size_leaf_vector":"0"}},{"base_weights":[7.035117E-2,1.9273962E-1,-3.248558E-1,5.263898E-1,-6.338605E-2,4.96179E-1,-5.187412E-1,6.8197095E-1,-2.560453E-1,-4.0591633E-1,3.9601696E-1,-7.3934484E-1,5.00251E-1,-4.2936258E-2,8.3142626E-1,4.2418903E-1,-9.503653E-1,3.257335E-1,-7.6632935E-1,-1.8581028E-1,6.935003E-1,-9.650001E-1,4.3486387E-1],"categories":[],"categories_nodes":[],"categories_segments":[],"categories_sizes":[],"default_left":[1,1,1,1,1,0,1,1,1,1,1,1,0,0,0,0,0,0,0,0,0,0,0],"id":38,"left_children":[1,3,5,7,9,-1,11,13,15,17,19,21,-1,-1,-1,-1,-1,-1,-1,-1,-1,-1,-1],"loss_changes":[2.7220018E0,3.6745296E0,2.3862042E0,2.4402108E0,4.094285E0,0E0,2.9116507E0,1.7472057E0,2.204461E0,4.155993E0,2.0644941E0,2.9894238E0,0E0,0E0,0E0,0E0,0E0,0E0,0E0,0E0,0E0,0E0,0E0],"parents":[2147483647,0,0,1,1,2,2,3,3,4,4,6,6,7,7,8,8,9,9,10,10,11,11],"right_children":[2,4,6,8,10,-1,12,14,16,18,20,22,-1,-1,-1,-1,-1,-1,-1,-1,-1,-1,-1],"split_conditions":[2.3111603E-3,2.133166E-3,1.3852983E-3,7.865661E-1,1.0432687E-3,2.480895E-2,1.9342534E-3,-1.7621367E-3,-1.4027343E-4,7.680943E-4,3.974628E1,1.2905612E-3,2.501255E-2,-2.1468129E-3,4.1571315E-2,2.1209452E-2,-4.7518265E-2,1.6286677E-2,-3.831647E-2,-9.2905145E-3,3.4675013E-2,-4.8250005E-2,2.1743193E-2],"split_indices":[2,4,6,7,3,0,6,1,0,3,5,3,0,0,0,0,0,0,0,0,0,0,0],"split_type":[0,0,0,0,0,0,0,0,0,0,0,0,0,0,0,0,0,0,0,0,0,0,0],"sum_hessian":[5.398153E1,4.160845E1,1.2373079E1,1.7611317E1,2.3997135E1,2.0658426E0,1.0307237E1,1.4797373E1,2.8139434E0,1.3813921E1,1.0183214E1,8.698513E0,1.6087236E0,2.6511483E0,1.2146224E1,1.6179122E0,1.1960313E0,4.590758E0,9.223163E0,3.5721276E0,6.611087E0,7.4457793E0,1.2527335E0],"tree_param":{"num_deleted":"0","num_feature":"11","num_nodes":"23","size_leaf_vector":"0"}},{"base_weights":[5.4713834E-2,2.9232556E-1,-1.6307363E-1,4.6773383E-1,-3.1998277E-1,-2.3676357E-1,5.9801406E-1,6.6778666E-1,-1.0663607E-1,9.613849E-1,-8.686867E-1,-6.465288E-1,3.6400147E-2,8.805794E-1,2.2690697E-1,-7.5195986E-1,4.7776103E-1,-1.1350836E0,6.990577E-2,-1.3818301E-1,-9.2184806E-1,1.4303373E-1,-7.643703E-1],"categories":[],"categories_nodes":[],"categories_segments":[],"categories_sizes":[],"default_left":[1,1,1,1,1,1,0,1,1,0,1,1,1,0,0,0,0,0,0,0,0,0,0],"id":39,"left_children":[1,3,5,7,9,11,-1,13,15,-1,17,19,21,-1,-1,-1,-1,-1,-1,-1,-1,-1,-1],"loss_changes":[3.0123773E0,3.1307986E0,1.8540738E0,2.5970058E0,5.598258E0,3.219781E0,0E0,1.342619E0,2.8259337E0,0E0,1.396719E0,1.4786243E0,1.6531672E0,0E0,0E0,0E0,0E0,0E0,0E0,0E0,0E0,0E0,0E0],"parents":[2147483647,0,0,1,1,2,2,3,3,4,4,5,5,7,7,8,8,10,10,11,11,12,12],"right_children":[2,4,6,8,10,12,-1,14,16,-1,18,20,22,-1,-1,-1,-1,-1,-1,-1,-1,-1,-1],"split_conditions":[5.3423836E1,7.865661E-1,1.9134887E-3,1.1914617E-3,-1.6539436E-3,-1.2940952E-1,2.9900704E-2,4.621675E-4,-6.035534E-1,4.8069246E-2,1.4219135E-3,-5.6174487E-1,8.168634E1,4.402897E-2,1.1345348E-2,-3.7597995E-2,2.3888052E-2,-5.675418E-2,3.4952888E-3,-6.9091506E-3,-4.6092402E-2,7.1516866E-3,-3.8218517E-2],"split_indices":[5,7,6,3,1,7,0,1,7,0,6,10,5,0,0,0,0,0,0,0,0,0,0],"split_type":[0,0,0,0,0,0,0,0,0,0,0,0,0,0,0,0,0,0,0,0,0,0,0],"sum_hessian":[5.6290287E1,2.6756262E1,2.9534023E1,2.098173E1,5.774533E0,2.755501E1,1.9790137E0,1.5440995E1,5.5407343E0,1.505858E0,4.268675E0,1.0474976E1,1.7080034E1,9.741761E0,5.6992335E0,2.4968483E0,3.0438862E0,3.161899E0,1.1067756E0,4.2077484E0,6.267227E0,1.57977295E1,1.2823046E0],"tree_param":{"num_deleted":"0","num_feature":"11","num_nodes":"23","size_leaf_vector":"0"}},{"base_weights":[5.6081112E-2,-1.1737359E-2,8.1188834E-1,1.216026E-1,-5.040332E-1,2.3124945E-1,9.21814E-1,4.5910197E-1,-1.1958354E-1,-8.26723E-1,1.0688194E-1,6.4247763E-1,-2.429192E-1,-4.2183813E-1,3.214999E-1,-1.007738E0,-1.21451244E-1,6.8700075E-1,-4.9254474E-1],"categories":[],"categories_nodes":[],"categories_segments":[],"categories_sizes":[],"default_left":[1,1,1,1,1,0,0,1,1,1,1,0,0,0,0,0,0,0,0],"id":40,"left_children":[1,3,5,7,9,-1,-1,11,13,15,17,-1,-1,-1,-1,-1,-1,-1,-1],"loss_changes":[2.7542686E0,3.3515935E0,6.9167376E-2,3.3310273E0,2.232656E0,0E0,0E0,2.3420916E0,3.3707778E0,8.008976E-1,1.9536622E0,0E0,0E0,0E0,0E0,0E0,0E0,0E0,0E0],"parents":[2147483647,0,0,1,1,2,2,3,3,4,4,7,7,8,8,9,9,10,10],"right_children":[2,4,6,8,10,-1,-1,12,14,16,18,-1,-1,-1,-1,-1,-1,-1,-1],"split_conditions":[1.9333014E-3,2.3207057E-3,2.5307806E-4,2.0953123E-3,7.5203826E-4,1.1562473E-2,4.6090703E-2,7.865661E-1,1.0432687E-3,4.408279E-3,4.0277983E-3,3.2123882E-2,-1.2145961E-2,-2.1091906E-2,1.6074996E-2,-5.0386902E-2,-6.072562E-3,3.4350038E-2,-2.4627237E-2],"split_indices":[6,2,4,4,0,0,0,7,3,2,2,0,0,0,0,0,0,0,0],"split_type":[0,0,0,0,0,0,0,0,0,0,0,0,0,0,0,0,0,0,0],"sum_hessian":[5.2547855E1,4.9124397E1,3.4234548E0,3.9247166E1,9.877234E0,1.0390059E0,2.3844488E0,1.5980971E1,2.3266193E1,6.2321277E0,3.6451073E0,1.2738382E1,3.242589E0,1.3831632E1,9.434562E0,4.6180053E0,1.6141224E0,1.7781428E0,1.8669643E0],"tree_param":{"num_deleted":"0","num_feature":"11","num_nodes":"19","size_leaf_vector":"0"}},{"base_weights":[9.476828E-3,1.25135E-1,-3.9101413E-1,-5.501887E-2,6.317044E-1,-5.734347E-1,7.060973E-1,7.213855E-2,-1.0072156E0,8.553948E-1,-3.2272264E-1,-8.972839E-1,-1.407386E-1,5.268233E-1,-2.4315919E-1,-1.0986733E-1,-1.3002816E0,1.0224016E0,-1.0935234E-1,-1.1227013E0,-3.201993E-1,-6.394652E-1,2.9047447E-1],"categories":[],"categories_nodes":[],"categories_segments":[],"categories_sizes":[],"default_left":[1,1,1,1,1,1,0,1,1,1,0,1,1,0,0,0,0,0,0,0,0,0,0],"id":41,"left_children":[1,3,5,7,9,11,-1,13,15,17,-1,19,21,-1,-1,-1,-1,-1,-1,-1,-1,-1,-1],"loss_changes":[2.6381257E0,4.062074E0,2.9602323E0,4.1255145E0,2.764801E0,1.485126E0,0E0,4.4952564E0,9.117608E-1,1.6775098E0,0E0,4.7188044E-1,1.4994378E0,0E0,0E0,0E0,0E0,0E0,0E0,0E0,0E0,0E0,0E0],"parents":[2147483647,0,0,1,1,2,2,3,3,4,4,5,5,7,7,8,8,9,9,11,11,12,12],"right_children":[2,4,6,8,10,12,-1,14,16,18,-1,20,22,-1,-1,-1,-1,-1,-1,-1,-1,-1,-1],"split_conditions":[6.820923E1,1.1987037E-3,1.2622129E-3,5.570892E-4,8.117449E-1,7.453336E1,3.5304867E-2,2.0939668E-3,8.409991E-4,1.4088871E-3,-1.6136132E-2,6.830127E-1,-6.1232336E-17,2.6341164E-2,-1.215796E-2,-5.4933666E-3,-6.501409E-2,5.112008E-2,-5.4676174E-3,-5.6135066E-2,-1.6009966E-2,-3.197326E-2,1.4523724E-2],"split_indices":[5,2,3,2,10,5,0,4,3,0,0,7,8,0,0,0,0,0,0,0,0,0,0],"split_type":[0,0,0,0,0,0,0,0,0,0,0,0,0,0,0,0,0,0,0,0,0,0,0],"sum_hessian":[5.4897945E1,4.312995E1,1.1767995E1,3.2472855E1,1.0657099E1,1.0499525E1,1.2684698E0,2.9462622E1,3.0102315E0,8.717684E0,1.939415E0,5.390974E0,5.108551E0,1.1789843E1,1.767278E1,1.0795653E0,1.9306663E0,7.3803196E0,1.3373641E0,3.1967912E0,2.1941829E0,2.1448936E0,2.9636571E0],"tree_param":{"num_deleted":"0","num_feature":"11","num_nodes":"23","size_leaf_vector":"0"}},{"base_weights":[4.258255E-2,4.4100136E-1,-9.514978E-2,7.2687906E-1,1.19470395E-1,-1.8000561E-1,6.5481395E-1,8.807293E-1,4.2066913E-2,5.7591665E-1,-5.7079923E-1,4.5032465E-1,-2.693403E-1,9.107672E-1,-1.0690121E-1,2.5491807E-1,9.562988E-1,-2.1440384E-1,8.375567E-1,-1.0570079E0,6.588056E-2,7.9756075E-1,-2.0569837E-1,-7.301307E-2,-5.431122E-1],"categories":[],"categories_nodes":[],"categories_segments":[],"categories_sizes":[],"default_left":[1,1,1,1,1,1,1,1,0,1,1,1,1,0,0,0,0,0,0,0,0,0,0,0,0],"id":42,"left_children":[1,3,5,7,9,11,13,15,-1,17,19,21,23,-1,-1,-1,-1,-1,-1,-1,-1,-1,-1,-1,-1],"loss_changes":[3.04518E0,1.221771E0,2.758344E0,7.3622537E-1,2.816907E0,2.2643785E0,9.6164775E-1,3.7274837E-2,0E0,1.2654796E0,1.19819E0,1.325492E0,1.7856526E0,0E0,0E0,0E0,0E0,0E0,0E0,0E0,0E0,0E0,0E0,0E0,0E0],"parents":[2147483647,0,0,1,1,2,2,3,3,4,4,5,5,6,6,7,7,9,9,10,10,11,11,12,12],"right_children":[2,4,6,8,10,12,14,16,-1,18,20,22,24,-1,-1,-1,-1,-1,-1,-1,-1,-1,-1,-1,-1],"split_conditions":[-6.964189E-4,2.0048442E-1,1.8699924E-3,9.159756E-1,-8.8536355E-4,-9.159756E-1,7.893854E1,-2.7399636E-3,2.1033457E-3,-3.8177916E-3,1.5137617E-3,5.9726974E-4,1.5528796E-3,4.5538362E-2,-5.345061E-3,1.2745904E-2,4.7814943E-2,-1.0720192E-2,4.1877836E-2,-5.2850395E-2,3.294028E-3,3.9878037E-2,-1.0284918E-2,-3.6506534E-3,-2.7155612E-2],"split_indices":[1,10,6,7,2,8,5,2,0,1,6,2,6,0,0,0,0,0,0,0,0,0,0,0,0],"split_type":[0,0,0,0,0,0,0,0,0,0,0,0,0,0,0,0,0,0,0,0,0,0,0,0,0],"sum_hessian":[5.3728218E1,1.3236648E1,4.049157E1,6.3394613E0,6.8971863E0,3.7058506E1,3.4330628E0,4.9428983E0,1.396563E0,4.2515073E0,2.6456788E0,4.098602E0,3.2959908E1,2.4231505E0,1.0099123E0,1.0037627E0,3.9391353E0,1.1023237E0,3.1491838E0,1.125777E0,1.5199018E0,2.5389647E0,1.5596371E0,1.9932566E1,1.3027341E1],"tree_param":{"num_deleted":"0","num_feature":"11","num_nodes":"25","size_leaf_vector":"0"}},{"base_weights":[4.825519E-2,-3.3680767E-2,6.0250527E-1,2.8155294E-1,-1.5075794E-1,8.0336654E-1,-1.2488012E-1,8.4966195E-1,-1.8189987E-2,-2.6856202E-1,2.9911435E-1,3.1814948E-1,9.4632477E-1,9.9146634E-1,1.943001E-1,-4.856204E-1,3.878432E-1,1.3074078E-1,-4.321476E-1,7.320883E-1,-3.6754292E-1],"categories":[],"categories_nodes":[],"categories_segments":[],"categories_sizes":[],"default_left":[1,1,1,1,1,1,0,1,1,1,1,0,0,0,0,0,0,0,0,0,0],"id":43,"left_children":[1,3,5,7,9,11,-1,13,15,17,19,-1,-1,-1,-1,-1,-1,-1,-1,-1,-1],"loss_changes":[2.5456054E0,1.8653738E0,1.1544309E0,2.352668E0,2.0236027E0,1.0042572E-1,0E0,2.4985242E-1,2.0793858E0,1.9890199E0,2.6020114E0,0E0,0E0,0E0,0E0,0E0,0E0,0E0,0E0,0E0,0E0],"parents":[2147483647,0,0,1,1,2,2,3,3,4,4,5,5,7,7,8,8,9,9,10,10],"right_children":[2,4,6,8,10,12,-1,14,16,18,20,-1,-1,-1,-1,-1,-1,-1,-1,-1,-1],"split_conditions":[1.7958992E-3,-6.964189E-4,7.893854E1,1.4099245E-3,8.841052E-4,2.1694186E-1,-6.244006E-3,-9.1129483E-4,1.0408106E-3,-3.9771653E-4,1.4780588E-3,1.5907474E-2,4.731624E-2,4.9573317E-2,9.715005E-3,-2.4281021E-2,1.939216E-2,6.537039E-3,-2.160738E-2,3.6604416E-2,-1.8377146E-2],"split_indices":[6,1,5,6,0,9,0,1,3,0,0,0,0,0,0,0,0,0,0,0,0],"split_type":[0,0,0,0,0,0,0,0,0,0,0,0,0,0,0,0,0,0,0,0,0],"sum_hessian":[5.460769E1,4.83929E1,6.2147923E0,1.2725166E1,3.5667732E1,4.7881327E0,1.4266597E0,3.7614245E0,8.963741E0,2.8585361E1,7.0823693E0,1.823712E0,2.9644206E0,2.6706972E0,1.0907273E0,4.0757155E0,4.8880258E0,8.365775E0,2.0219587E1,4.234221E0,2.848148E0],"tree_param":{"num_deleted":"0","num_feature":"11","num_nodes":"21","size_leaf_vector":"0"}},{"base_weights":[3.7886973E-2,9.079616E-1,-1.2840754E-2,7.0779264E-1,-7.951546E-2,9.005182E-1,8.289937E-2,1.3954428E-1,-4.5741233E-1,3.360581E-1,-5.044315E-1,-6.491715E-1,8.087845E-1],"categories":[],"categories_nodes":[],"categories_segments":[],"categories_sizes":[],"default_left":[1,0,1,1,1,0,0,1,1,0,0,0,0],"id":44,"left_children":[1,-1,3,5,7,-1,-1,9,11,-1,-1,-1,-1],"loss_changes":[2.382775E0,0E0,2.5426848E0,4.6529675E-1,4.0592957E0,0E0,0E0,4.133047E0,4.882196E0,0E0,0E0,0E0,0E0],"parents":[2147483647,0,0,2,2,3,3,4,4,7,7,8,8],"right_children":[2,-1,4,6,8,-1,-1,10,12,-1,-1,-1,-1],"split_conditions":[2.8334045E1,4.5398083E-2,-1.0658968E-3,5.4597553E1,2.0048442E-1,4.502591E-2,4.1449685E-3,4.772754E-3,5.065099E-3,1.6802905E-2,-2.5221575E-2,-3.2458574E-2,4.0439226E-2],"split_indices":[5,0,4,5,10,0,0,4,4,0,0,0,0],"split_type":[0,0,0,0,0,0,0,0,0,0,0,0,0],"sum_hessian":[5.2721848E1,1.9735241E0,5.0748325E1,3.4834032E0,4.7264923E1,2.3252037E0,1.1581995E0,3.0319824E1,1.6945099E1,2.3597137E1,6.7226853E0,1.513959E1,1.8055089E0],"tree_param":{"num_deleted":"0","num_feature":"11","num_nodes":"13","size_leaf_vector":"0"}},{"base_weights":[4.3597344E-2,3.8586468E-1,-1.379416E-1,7.9193115E-1,1.16687745E-1,-4.0916413E-1,3.5704453E-2,2.3905182E-1,1.0645239E0,4.4748044E-1,-7.179098E-1,2.8362396E-1,-6.677902E-1,-3.23357E-1,4.2947492E-1,-1.7516145E-1,5.2960515E-1,7.2383136E-1,-1.4034556E-1,-8.993249E-1,-1.0875506E-1,1.002099E0,-9.216707E-1,-1.003448E0,-1.5755585E-1,-6.747827E-1,5.047832E-1,1.0111293E0,5.8668252E-2],"categories":[],"categories_nodes":[],"categories_segments":[],"categories_sizes":[],"default_left":[1,1,1,1,1,1,1,1,0,1,1,1,1,1,1,0,0,0,0,0,0,0,0,0,0,0,0,0,0],"id":45,"left_children":[1,3,5,7,9,11,13,15,-1,17,19,21,23,25,27,-1,-1,-1,-1,-1,-1,-1,-1,-1,-1,-1,-1,-1,-1],"loss_changes":[3.3221736E0,1.929373E0,1.6683447E0,8.307543E-1,3.7159626E0,2.659515E0,3.2956977E0,5.3415036E-1,0E0,1.6321487E0,3.3033216E-1,4.776704E0,1.612217E0,3.9054093E0,2.3301108E0,0E0,0E0,0E0,0E0,0E0,0E0,0E0,0E0,0E0,0E0,0E0,0E0,0E0,0E0],"parents":[2147483647,0,0,1,1,2,2,3,3,4,4,5,5,6,6,7,7,9,9,10,10,11,11,12,12,13,13,14,14],"right_children":[2,4,6,8,10,12,14,16,-1,18,20,22,24,26,28,-1,-1,-1,-1,-1,-1,-1,-1,-1,-1,-1,-1,-1,-1],"split_conditions":[4.821692E1,-9.1129483E-4,2.1694186E-1,-3.7940952E-1,7.865661E-1,7.688661E-4,1.1987037E-3,3.4301605E1,5.32262E-2,2.3017853E-4,1.3743147E-3,1.0916691E-3,1.1440611E-3,6.435005E1,6.0864204E1,-8.758073E-3,2.6480258E-2,3.6191568E-2,-7.017278E-3,-4.4966247E-2,-5.437753E-3,5.0104953E-2,-4.6083536E-2,-5.01724E-2,-7.877792E-3,-3.3739135E-2,2.523916E-2,5.0556462E-2,2.9334126E-3],"split_indices":[5,1,9,7,7,3,2,5,0,0,6,1,3,5,5,0,0,0,0,0,0,0,0,0,0,0,0,0,0],"split_type":[0,0,0,0,0,0,0,0,0,0,0,0,0,0,0,0,0,0,0,0,0,0,0,0,0,0,0,0,0],"sum_hessian":[5.1610523E1,1.7496916E1,3.411361E1,6.200744E0,1.1296171E1,1.2786192E1,2.1327415E1,2.6674705E0,3.5332735E0,8.421963E0,2.874208E0,3.4494383E0,9.336754E0,1.1248886E1,1.007853E1,1.2634457E0,1.4040247E0,5.5713634E0,2.8505998E0,1.8476131E0,1.0265949E0,2.2667918E0,1.1826466E0,5.048774E0,4.2879796E0,8.027539E0,3.2213464E0,3.2514334E0,6.827097E0],"tree_param":{"num_deleted":"0","num_feature":"11","num_nodes":"29","size_leaf_vector":"0"}},{"base_weights":[1.2655723E-2,2.7209073E-1,-1.3732177E-1,6.6820675E-1,9.779084E-3,4.291918E-1,-2.3013759E-1,9.3135345E-1,-1.9209869E-1,4.8054555E-1,-7.470056E-1,7.0741636E-1,3.5415296E-2,1.299182E-1,-5.4410374E-1,1.0285975E0,2.4300419E-1,7.6202035E-1,-2.1204448E-1,-1.1409634E0,5.2686077E-2,-5.808975E-1,5.7868904E-1,-2.9884273E-1,5.537325E-1,-7.058894E-1,5.5165064E-1],"categories":[],"categories_nodes":[],"categories_segments":[],"categories_sizes":[],"default_left":[1,1,1,1,1,1,1,1,0,1,1,0,1,1,1,0,0,0,0,0,0,0,0,0,0,0,0],"id":46,"left_children":[1,3,5,7,9,11,13,15,-1,17,19,-1,21,23,25,-1,-1,-1,-1,-1,-1,-1,-1,-1,-1,-1,-1],"loss_changes":[2.179972E0,2.124325E0,1.9685142E0,2.0251377E0,5.1160173E0,5.616086E-1,3.5981755E0,1.7951822E-1,0E0,1.8849664E0,1.7966788E0,0E0,1.4309459E0,2.9534357E0,3.3786035E0,0E0,0E0,0E0,0E0,0E0,0E0,0E0,0E0,0E0,0E0,0E0,0E0],"parents":[2147483647,0,0,1,1,2,2,3,3,4,4,5,5,6,6,7,7,9,9,10,10,12,12,13,13,14,14],"right_children":[2,4,6,8,10,12,14,16,-1,18,20,-1,22,24,26,-1,-1,-1,-1,-1,-1,-1,-1,-1,-1,-1,-1],"split_conditions":[4.821692E1,1.7695841E-3,-8.194513E-4,6.035534E-1,2.0048442E-1,5.7050217E1,-5.6174487E-1,4.6022858E1,-9.604935E-3,2.2901144E-4,6.035534E-1,3.537082E-2,-1.0569193E-3,9.7545795E-4,5.1175756E-3,5.1429875E-2,1.2150209E-2,3.8101017E-2,-1.0602224E-2,-5.704817E-2,2.6343039E-3,-2.9044876E-2,2.8934453E-2,-1.4942137E-2,2.7686626E-2,-3.529447E-2,2.7582532E-2],"split_indices":[5,4,4,7,10,5,10,5,0,0,7,0,4,3,4,0,0,0,0,0,0,0,0,0,0,0,0],"split_type":[0,0,0,0,0,0,0,0,0,0,0,0,0,0,0,0,0,0,0,0,0,0,0,0,0,0,0],"sum_hessian":[5.406657E1,1.95076E1,3.4558968E1,7.1551914E0,1.2352409E1,4.3547926E0,3.0204176E1,5.4159865E0,1.7392046E0,7.8402867E0,4.512122E0,2.0850787E0,2.2697139E0,1.4342466E1,1.5861711E1,4.3124638E0,1.103523E0,5.503406E0,2.336881E0,2.7370133E0,1.7751089E0,1.0309296E0,1.2387842E0,7.276207E0,7.066259E0,1.41310835E1,1.730627E0],"tree_param":{"num_deleted":"0","num_feature":"11","num_nodes":"27","size_leaf_vector":"0"}},{"base_weights":[9.232194E-3,1.03392534E-1,-3.870274E-1,-5.0945483E-2,5.07799E-1,-1.0039433E0,3.8614087E-2,6.8648316E-2,-9.201382E-1,6.7836607E-1,-2.793945E-1,-4.5526296E-1,6.5516526E-1,4.381218E-1,-1.9042271E-1,-1.9933935E-1,-1.180125E0,8.7540317E-1,-1.4948256E-1,-4.7542322E-2,-6.4622545E-1,7.779954E-1,1.9512121E-1],"categories":[],"categories_nodes":[],"categories_segments":[],"categories_sizes":[],"default_left":[1,1,1,1,1,0,1,1,1,1,0,1,1,0,0,0,0,0,0,0,0,0,0],"id":47,"left_children":[1,3,5,7,9,-1,11,13,15,17,-1,19,21,-1,-1,-1,-1,-1,-1,-1,-1,-1,-1],"loss_changes":[1.9679447E0,2.6809554E0,2.699157E0,3.3581321E0,1.7794721E0,0E0,2.4170268E0,2.8396187E0,4.9621725E-1,1.7659917E0,0E0,3.1601775E-1,4.6237946E-2,0E0,0E0,0E0,0E0,0E0,0E0,0E0,0E0,0E0,0E0],"parents":[2147483647,0,0,1,1,2,2,3,3,4,4,6,6,7,7,8,8,9,9,11,11,12,12],"right_children":[2,4,6,8,10,-1,12,14,16,18,-1,20,22,-1,-1,-1,-1,-1,-1,-1,-1,-1,-1],"split_conditions":[7.0633606E1,1.1987037E-3,2.1694186E-1,5.9500895E-4,8.117449E-1,-5.0197165E-2,9.898511E-4,2.0939668E-3,8.409991E-4,1.4088871E-3,-1.3969726E-2,8.699966E-4,1.1298321E-3,2.190609E-2,-9.521136E-3,-9.966968E-3,-5.900625E-2,4.377016E-2,-7.474128E-3,-2.3771161E-3,-3.2311272E-2,3.8899772E-2,9.756061E-3],"split_indices":[5,2,9,2,10,0,3,4,3,0,0,3,1,0,0,0,0,0,0,0,0,0,0],"split_type":[0,0,0,0,0,0,0,0,0,0,0,0,0,0,0,0,0,0,0,0,0,0,0],"sum_hessian":[5.067056E1,4.153902E1,9.131541E0,3.069759E1,1.084143E1,3.1734092E0,5.9581323E0,2.7794336E1,2.9032526E0,9.024312E0,1.8171175E0,3.4534261E0,2.5047064E0,1.1171296E1,1.6623041E1,1.2379193E0,1.6653333E0,7.2429633E0,1.7813483E0,1.4999248E0,1.9535012E0,1.4313961E0,1.0733101E0],"tree_param":{"num_deleted":"0","num_feature":"11","num_nodes":"23","size_leaf_vector":"0"}},{"base_weights":[1.3948913E-2,1.1882043E-1,-4.2630416E-1,3.4787232E-1,-1.3407423E-1,-6.1484486E-1,6.428484E-1,7.679498E-1,1.0349355E-1,-2.6163706E-1,8.292479E-1,4.376939E-1,-8.086572E-1,-2.1970708E-2,1.0074204E0,-2.6525065E-1,5.821194E-1,1.501523E-1,-9.3959945E-1,-1.1301185E0,-3.3506766E-1],"categories":[],"categories_nodes":[],"categories_segments":[],"categories_sizes":[],"default_left":[1,1,1,1,1,1,0,1,1,1,0,0,1,0,0,0,0,0,0,0,0],"id":48,"left_children":[1,3,5,7,9,11,-1,13,15,17,-1,-1,19,-1,-1,-1,-1,-1,-1,-1,-1],"loss_changes":[2.5276356E0,2.6017635E0,2.5196986E0,2.32522E0,2.8817973E0,2.2858312E0,0E0,1.6223435E0,2.9720647E0,5.6995373E0,0E0,0E0,8.923583E-1,0E0,0E0,0E0,0E0,0E0,0E0,0E0,0E0],"parents":[2147483647,0,0,1,1,2,2,3,3,4,4,5,5,7,7,8,8,9,9,12,12],"right_children":[2,4,6,8,10,12,-1,14,16,18,-1,-1,20,-1,-1,-1,-1,-1,-1,-1,-1],"split_conditions":[6.997443E1,2.0048442E-1,1.2226461E-3,2.4258671E-3,5.059256E-3,-1.4942142E-4,3.214242E-2,-1.6166939E-4,1.0439535E-3,1.7695841E-3,4.1462395E-2,2.1884695E-2,7.491769E1,-1.0985354E-3,5.037102E-2,-1.3262533E-2,2.910597E-2,7.507615E-3,-4.6979975E-2,-5.6505926E-2,-1.6753383E-2],"split_indices":[5,10,3,4,4,2,0,4,3,4,0,0,5,0,0,0,0,0,0,0,0],"split_type":[0,0,0,0,0,0,0,0,0,0,0,0,0,0,0,0,0,0,0,0,0],"sum_hessian":[5.2649155E1,4.311012E1,9.539038E0,2.2424356E1,2.0685762E1,8.470264E0,1.0687737E0,7.4594307E0,1.4964925E1,1.8910093E1,1.7756679E0,1.1214819E0,7.3487825E0,1.946602E0,5.512829E0,8.70455E0,6.2603745E0,1.2248792E1,6.661302E0,3.5516949E0,3.7970877E0],"tree_param":{"num_deleted":"0","num_feature":"11","num_nodes":"21","size_leaf_vector":"0"}},{"base_weights":[5.7437528E-2,8.681695E-1,9.87202E-3,5.337263E-2,-6.3039875E-1,3.389707E-1,-1.14888184E-1,-8.996735E-1,-7.157001E-2,-3.657257E-2,8.6050785E-1,1.6620412E-1,-4.539516E-1],"categories":[],"categories_nodes":[],"categories_segments":[],"categories_sizes":[],"default_left":[1,0,1,1,1,1,1,0,0,0,0,0,0],"id":49,"left_children":[1,-1,3,5,7,9,11,-1,-1,-1,-1,-1,-1],"loss_changes":[1.9901105E0,0E0,1.4253732E0,2.3317127E0,4.257152E-1,3.5454607E0,3.0080817E0,0E0,0E0,0E0,0E0,0E0,0E0],"parents":[2147483647,0,0,2,2,3,3,4,4,5,5,6,6],"right_children":[2,-1,4,6,8,10,12,-1,-1,-1,-1,-1,-1],"split_conditions":[2.8490429E1,4.3408476E-2,7.817468E-3,-5.6174487E-1,8.903922E-3,9.7545795E-4,1.2088907E-3,-4.4983678E-2,-3.5785006E-3,-1.8286286E-3,4.3025393E-2,8.310206E-3,-2.2697581E-2],"split_indices":[5,0,4,10,4,3,4,0,0,0,0,0,0],"split_type":[0,0,0,0,0,0,0,0,0,0,0,0,0],"sum_hessian":[5.0829147E1,1.8607888E0,4.896836E1,4.6711384E1,2.2569757E0,1.6941357E1,2.9770027E1,1.111477E0,1.1454986E0,1.0389829E1,6.551529E0,1.6555174E1,1.3214852E1],"tree_param":{"num_deleted":"0","num_feature":"11","num_nodes":"13","size_leaf_vector":"0"}},{"base_weights":[-5.379724E-2,3.664669E-1,-2.0098053E-1,5.7985353E-1,-1.4951761E-1,9.361489E-2,-3.8090676E-1,8.715512E-1,-2.4006264E-1,7.3812413E-1,-8.205517E-1,3.2053035E-1,-3.8099036E-1,-4.8565036E-1,5.922484E-1,1.0827069E0,3.0003023E-1,3.2473066E-1,-6.8745387E-1,-1.2873797E-1,6.803121E-1,3.3425587E-1,-6.7795414E-1,-6.191367E-2,-7.6277435E-1],"categories":[],"categories_nodes":[],"categories_segments":[],"categories_sizes":[],"default_left":[1,1,1,1,1,1,1,1,1,0,0,1,1,1,0,0,0,0,0,0,0,0,0,0,0],"id":50,"left_children":[1,3,5,7,9,11,13,15,17,-1,-1,19,21,23,-1,-1,-1,-1,-1,-1,-1,-1,-1,-1,-1],"loss_changes":[3.1578155E0,1.5496403E0,2.0272636E0,2.5063455E0,3.394594E0,1.7428944E0,2.6854632E0,5.56149E-1,1.0582016E0,0E0,0E0,1.8211137E0,1.3576304E0,2.5112257E0,0E0,0E0,0E0,0E0,0E0,0E0,0E0,0E0,0E0,0E0,0E0],"parents":[2147483647,0,0,1,1,2,2,3,3,4,4,5,5,6,6,7,7,8,8,11,11,12,12,13,13],"right_children":[2,4,6,8,10,12,14,16,18,-1,-1,20,22,24,-1,-1,-1,-1,-1,-1,-1,-1,-1,-1,-1],"split_conditions":[4.318061E1,8.117449E-1,-5.6174487E-1,2.2901144E-4,1.7695841E-3,2.3111603E-3,5.065099E-3,1.2940952E-1,3.6235605E-3,3.690621E-2,-4.1027587E-2,5.832829E1,7.082597E1,-3.4811313E-4,2.961242E-2,5.413535E-2,1.5001512E-2,1.6236534E-2,-3.4372695E-2,-6.436899E-3,3.4015607E-2,1.6712794E-2,-3.389771E-2,-3.0956834E-3,-3.8138717E-2],"split_indices":[5,10,10,0,4,2,4,8,4,0,0,5,5,4,0,0,0,0,0,0,0,0,0,0,0],"split_type":[0,0,0,0,0,0,0,0,0,0,0,0,0,0,0,0,0,0,0,0,0,0,0,0,0],"sum_hessian":[4.8860477E1,1.2286886E1,3.6573593E1,8.604637E0,3.682249E0,1.40496435E1,2.2523949E1,6.300251E0,2.3043861E0,1.5422223E0,2.1400268E0,9.724744E0,4.324899E0,2.0787483E1,1.7364664E0,3.9474022E0,2.352849E0,1.1397356E0,1.1646506E0,4.6101336E0,5.11461E0,1.2320036E0,3.0928957E0,8.703224E0,1.2084259E1],"tree_param":{"num_deleted":"0","num_feature":"11","num_nodes":"25","size_leaf_vector":"0"}}]},"name":"gbtree"},"learner_model_param":{"base_score":"5E-1","boost_from_average":"1","num_class":"0","num_feature":"11","num_target":"1"},"objective":{"name":"binary:logistic","reg_loss_param":{"scale_pos_weight":"1"}}},"version":[1,7,6]}