{"learner":{"attributes":{"best_iteration":"0","best_ntree_limit":"1","best_score":"0.693070193197067"},"feature_names":["ret_1","ret_3","ret_6","vol_24","sma_diff","rsi","atr_norm","hour_sin","hour_cos","dow_sin","dow_cos"],"feature_types":[],"gradient_booster":{"model":{"gbtree_model_param":{"num_parallel_tree":"1","num_trees":"51","size_leaf_vector":"0"},"tree_info":[0,0,0,0,0,0,0,0,0,0,0,0,0,0,0,0,0,0,0,0,0,0,0,0,0,0,0,0,0,0,0,0,0,0,0,0,0,0,0,0,0,0,0,0,0,0,0,0,0,0,0],"trees":[{"base_weights":[3.646308E-2,1.625E0,2.8684773E-2,2.228531E-1,-2.447077E-2,2.4264178E-1,-1.2E0,-2.806324E-1,3.8155034E-2,2.0679468E-1,1.3488373E0,-0E0,-1.5E0,-1.19944215E-1,-6.6220737E-1,4.6357617E-1,4.6838406E-3],"categories":[],"categories_nodes":[],"categories_segments":[],"categories_sizes":[],"default_left":[1,0,1,1,1,1,1,1,1,0,0,0,0,0,0,0,0],"id":0,"left_children":[1,-1,3,5,7,9,11,13,15,-1,-1,-1,-1,-1,-1,-1,-1],"loss_changes":[2.02854E1,0E0,1.6916613E1,1.0209265E1,2.0661196E1,1.3530537E1,1.8000002E0,1.5433161E1,1.47391205E1,0E0,0E0,0E0,0E0,0E0,0E0,0E0,0E0],"parents":[2147483647,0,0,2,2,3,3,4,4,5,5,6,6,7,7,8,8],"right_children":[2,-1,4,6,8,10,12,14,16,-1,-1,-1,-1,-1,-1,-1,-1],"split_conditions":[3.6831584E-4,8.1250004E-2,-2.4017403E-3,2.4798773E-3,-2.1694186E-1,2.0163676E-3,-8.2034915E-4,2.505645E-3,-2.8714468E-3,1.0339734E-2,6.7441866E-2,-0E0,-7.5E-2,-5.9972107E-3,-3.311037E-2,2.3178808E-2,2.3419203E-4],"split_indices":[3,0,4,3,9,3,0,4,2,0,0,0,0,0,0,0,0],"split_type":[0,0,0,0,0,0,0,0,0,0,0,0,0,0,0,0,0],"sum_hessian":[1.6445E3,7E0,1.6375E3,3.5125E2,1.28625E3,3.4725E2,4E0,2.52E2,1.03425E3,3.375E2,9.75E0,1E0,3E0,1.7825E2,7.375E1,7.45E1,9.5975E2],"tree_param":{"num_deleted":"0","num_feature":"11","num_nodes":"17","size_leaf_vector":"0"}},{"base_weights":[3.879878E-2,2.4168172E-1,-1.6142553E-2,2.0407143E-1,9.492665E-1,-2.8713515E-1,4.8697058E-2,-3.0047882E-1,2.7096832E-1,1.2698455E0,-1.232782E0,-2.474016E-1,-1.6897205E0,5.113914E-1,1.1697781E-2,9.590925E-1,-6.3548446E-1,2.8644848E-1,-1.3402504E0,1.5301738E0,5.061794E-1,-9.18169E-2,-5.8199257E-1,8.3892655E-1,1.9734472E-1,1.5370629E0,3.8293186E-3],"categories":[],"categories_nodes":[],"categories_segments":[],"categories_sizes":[],"default_left":[1,1,1,1,1,1,1,1,1,1,0,1,0,1,1,0,0,0,0,0,0,0,0,0,0,0,0],"id":1,"left_children":[1,3,5,7,9,11,13,15,17,19,-1,21,-1,23,25,-1,-1,-1,-1,-1,-1,-1,-1,-1,-1,-1,-1],"loss_changes":[1.8411888E1,9.173256E0,2.2864408E1,1.1405037E1,1.3800419E1,1.3582733E1,1.7973316E1,1.738175E1,7.785143E0,2.3551636E0,0E0,1.272542E1,0E0,7.8308697E0,1.1678239E1,0E0,0E0,0E0,0E0,0E0,0E0,0E0,0E0,0E0,0E0,0E0,0E0],"parents":[2147483647,0,0,1,1,2,2,3,3,4,4,5,5,6,6,7,7,8,8,9,9,11,11,13,13,14,14],"right_children":[2,4,6,8,10,12,14,16,18,20,-1,22,-1,24,26,-1,-1,-1,-1,-1,-1,-1,-1,-1,-1,-1,-1],"split_conditions":[-2.4017403E-3,2.7091159E-3,-2.1694186E-1,-7.0282975E-3,2.4798773E-3,2.1838294E-3,-2.836533E-3,-9.140295E-3,8.914409E1,3.0982513E-3,-6.16391E-2,2.3588033E-3,-8.448603E-2,-6.035534E-1,3.5331782E-4,4.7954626E-2,-3.1774223E-2,1.4322424E-2,-6.701252E-2,7.650869E-2,2.530897E-2,-4.590845E-3,-2.9099628E-2,4.194633E-2,9.867236E-3,7.685315E-2,1.9146594E-4],"split_indices":[4,6,9,4,3,6,2,4,5,2,0,4,0,7,3,0,0,0,0,0,0,0,0,0,0,0,0],"split_type":[0,0,0,0,0,0,0,0,0,0,0,0,0,0,0,0,0,0,0,0,0,0,0,0,0,0,0],"sum_hessian":[1.6504354E3,3.5097696E2,1.2994585E3,3.344864E2,1.6490564E1,2.5022641E2,1.049232E3,3.8748135E1,2.9573825E2,1.4742672E1,1.7478926E0,2.4447705E2,5.7493515E0,7.673989E1,9.724922E2,7.7492385E0,3.0998896E1,2.937383E2,1.9999466E0,1.024612E1,4.496551E0,1.6774847E2,7.672857E1,3.6745167E1,3.9994728E1,3.9934056E0,9.684988E2],"tree_param":{"num_deleted":"0","num_feature":"11","num_nodes":"27","size_leaf_vector":"0"}},{"base_weights":[3.4094576E-2,2.1938756E-2,8.796355E-1,-1.6466123E-1,6.544199E-2,2.522076E-1,1.6499461E0,1.379324E-1,-2.884488E-1,1.5070014E0,5.7945926E-2,7.9827726E-1,-1.0779424E0,6.7703015E-1,-2.4180031E-1,-6.23305E-1,-1.7808135E-1,-7.7075875E-1,7.012537E-2,1.1229621E0,-5.2661353E-1,-2.0191322E-1,-1.3521719E0],"categories":[],"categories_nodes":[],"categories_segments":[],"categories_sizes":[],"default_left":[1,1,1,1,1,1,0,1,1,0,1,1,1,0,0,0,0,0,0,0,0,0,0],"id":2,"left_children":[1,3,5,7,9,11,-1,13,15,-1,17,19,21,-1,-1,-1,-1,-1,-1,-1,-1,-1,-1],"loss_changes":[1.6823915E1,1.3133247E1,1.0796505E1,1.1498139E1,1.4086084E1,1.10047245E1,0E0,1.848286E1,7.924135E0,0E0,1.3234471E1,5.0977263E0,8.056798E-1,0E0,0E0,0E0,0E0,0E0,0E0,0E0,0E0,0E0,0E0],"parents":[2147483647,0,0,1,1,2,2,3,3,4,4,5,5,7,7,8,8,10,10,11,11,12,12],"right_children":[2,4,6,8,10,12,-1,14,16,-1,18,20,22,-1,-1,-1,-1,-1,-1,-1,-1,-1,-1],"split_conditions":[2.7633475E-3,-2.1694186E-1,2.1694186E-1,-1.4371753E-3,-9.141233E-3,-5.040255E-3,8.2497306E-2,1.1414755E-3,-3.623445E-5,7.535007E-2,-7.0282975E-3,3.359065E-3,3.7940952E-1,3.3851508E-2,-1.2090015E-2,-3.1165252E-2,-8.904068E-3,-3.853794E-2,3.5062686E-3,5.6148108E-2,-2.6330678E-2,-1.00956615E-2,-6.7608595E-2],"split_indices":[6,9,9,4,4,4,0,6,4,0,4,6,8,0,0,0,0,0,0,0,0,0,0],"split_type":[0,0,0,0,0,0,0,0,0,0,0,0,0,0,0,0,0,0,0,0,0,0,0],"sum_hessian":[1.6377247E3,1.6155253E3,2.2199465E1,3.049041E2,1.3106212E3,1.2965945E1,9.23352E0,8.8487E1,2.164171E2,5.7451177E0,1.3048761E3,9.475717E0,3.490229E0,3.62462E1,5.2240803E1,5.2496014E1,1.6392108E2,1.7997831E1,1.2868783E3,7.7330303E0,1.7426863E0,1.2460383E0,2.2441907E0],"tree_param":{"num_deleted":"0","num_feature":"11","num_nodes":"23","size_leaf_vector":"0"}},{"base_weights":[2.0126307E-2,1.4984014E0,1.3346834E-2,-1.8245322E-1,6.060198E-2,-3.1232812E-2,-6.917834E-1,-1.0952591E-1,1.3194922E-1,7.2026186E-2,-4.731101E-1,2.6846832E-1,-7.860841E-1,-5.994598E-1,-4.213693E-2,3.352783E-1,7.007012E-2],"categories":[],"categories_nodes":[],"categories_segments":[],"categories_sizes":[],"default_left":[1,0,1,1,1,1,1,1,1,0,0,0,0,0,0,0,0],"id":3,"left_children":[1,-1,3,5,7,9,11,13,15,-1,-1,-1,-1,-1,-1,-1,-1],"loss_changes":[1.6401312E1,0E0,1.5111855E1,2.443708E1,1.59823E1,1.1254254E1,6.78981E0,1.2825682E1,1.1643333E1,0E0,0E0,0E0,0E0,0E0,0E0,0E0,0E0],"parents":[2147483647,0,0,2,2,3,3,4,4,5,5,6,6,7,7,8,8],"right_children":[2,-1,4,6,8,10,12,14,16,-1,-1,-1,-1,-1,-1,-1,-1],"split_conditions":[3.6831584E-4,7.492007E-2,-2.1694186E-1,2.505645E-3,1.0271914E-3,1.6817932E-3,7.281679E-4,-2.9912042E-3,-2.3895944E-3,3.6013094E-3,-2.3655506E-2,1.3423416E-2,-3.9304208E-2,-2.9972991E-2,-2.1068465E-3,1.6763916E-2,3.5035058E-3],"split_indices":[3,0,9,4,6,6,6,4,4,0,0,0,0,0,0,0,0],"split_type":[0,0,0,0,0,0,0,0,0,0,0,0,0,0,0,0,0],"sum_hessian":[1.6375381E3,6.471159E0,1.6310669E3,3.1655817E2,1.3145088E3,2.449066E2,7.165158E1,3.8823203E2,9.2627673E2,1.9919516E2,4.571143E1,6.242104E0,6.540948E1,4.5988586E1,3.4224344E2,2.1509053E2,7.111862E2],"tree_param":{"num_deleted":"0","num_feature":"11","num_nodes":"17","size_leaf_vector":"0"}},{"base_weights":[3.3752434E-2,1.4523705E0,2.7072828E-2,-1.5492834E-1,7.0967354E-2,1.9208474E-1,-3.0843624E-1,-9.6810855E-2,1.4217031E-1,7.480439E-1,-1.865357E-1,-7.944118E-1,-2.1438836E-1,1.15066506E-1,-3.1253225E-1,-5.802577E-1,1.5875411E-1],"categories":[],"categories_nodes":[],"categories_segments":[],"categories_sizes":[],"default_left":[1,0,1,1,1,1,1,1,1,0,0,0,0,0,0,0,0],"id":4,"left_children":[1,-1,3,5,7,9,11,13,15,-1,-1,-1,-1,-1,-1,-1,-1],"loss_changes":[1.5525262E1,0E0,1.3079803E1,1.700885E1,1.5767271E1,2.0811043E1,9.9297695E0,1.8021065E1,1.1188574E1,0E0,0E0,0E0,0E0,0E0,0E0,0E0,0E0],"parents":[2147483647,0,0,2,2,3,3,4,4,5,5,6,6,7,7,8,8],"right_children":[2,-1,4,6,8,10,12,14,16,-1,-1,-1,-1,-1,-1,-1,-1],"split_conditions":[3.6831584E-4,7.261853E-2,-2.1694186E-1,-1.4372435E-3,1.0271914E-3,7.9411897E-4,5.879357E-4,2.0048442E-1,5.34602E-4,3.7402194E-2,-9.326785E-3,-3.972059E-2,-1.0719418E-2,5.7533253E-3,-1.5626613E-2,-2.9012887E-2,7.937706E-3],"split_indices":[3,0,9,4,6,3,3,10,3,0,0,0,0,0,0,0,0],"split_type":[0,0,0,0,0,0,0,0,0,0,0,0,0,0,0,0,0],"sum_hessian":[1.6415591E3,6.6788006E0,1.6348802E3,3.1718738E2,1.317693E3,9.72031E1,2.1998427E2,3.9249127E2,9.2520166E2,3.898401E1,5.8219093E1,3.4461872E1,1.855224E2,1.9824524E2,1.9424602E2,1.9999258E1,9.052024E2],"tree_param":{"num_deleted":"0","num_feature":"11","num_nodes":"17","size_leaf_vector":"0"}},{"base_weights":[4.5565832E-2,1.4071361E0,3.893611E-2,-2.4673028E-2,1.9294828E-1,-1.437168E-2,-1.1401595E0,4.4419828E-1,-4.3406192E-2,2.9619306E-1,-4.4521376E-2,-1.4544235E0,6.581479E-1,3.6736184E-1,1.1629759E0,-2.1996252E-1,4.5917335E-1],"categories":[],"categories_nodes":[],"categories_segments":[],"categories_sizes":[],"default_left":[1,0,1,1,1,1,1,1,1,0,0,0,0,0,0,0,0],"id":5,"left_children":[1,-1,3,5,7,9,11,13,15,-1,-1,-1,-1,-1,-1,-1,-1],"loss_changes":[1.464529E1,0E0,1.5891135E1,1.3181295E1,2.8173407E1,1.0678373E1,6.8893137E0,1.226968E1,2.1858809E1,0E0,0E0,0E0,0E0,0E0,0E0,0E0,0E0],"parents":[2147483647,0,0,2,2,3,3,4,4,5,5,6,6,7,7,8,8],"right_children":[2,-1,4,6,8,10,12,14,16,-1,-1,-1,-1,-1,-1,-1,-1],"split_conditions":[3.6831584E-4,7.035681E-2,9.731629E-4,7.075991E-3,1.1239252E-3,-3.7215783E-3,7.616374E1,1.1004105E-3,2.222959E-3,1.4809653E-2,-2.2260689E-3,-7.2721176E-2,3.2907393E-2,1.8368093E-2,5.8148798E-2,-1.0998126E-2,2.2958668E-2],"split_indices":[3,0,3,4,3,4,5,3,6,0,0,0,0,0,0,0,0],"split_type":[0,0,0,0,0,0,0,0,0,0,0,0,0,0,0,0,0],"sum_hessian":[1.6274867E3,6.862507E0,1.6206243E3,1.1475219E3,4.7310242E2,1.1380251E3,9.496607E0,2.288987E2,2.4420372E2,9.992259E1,1.0381025E3,8.24668E0,1.2499262E0,2.0815796E2,2.0740734E1,1.8113373E2,6.3069996E1],"tree_param":{"num_deleted":"0","num_feature":"11","num_nodes":"17","size_leaf_vector":"0"}},{"base_weights":[3.8089022E-2,1.3618456E0,3.1771004E-2,-2.8452441E-2,1.791532E-1,2.9050717E-1,-5.825024E-2,4.1519582E-1,-3.6927056E-2,8.813891E-1,1.16885796E-1,-5.081398E-2,-1.2183487E0,9.380092E-1,3.2644203E-1,-3.7907365E-1,2.4343872E-1],"categories":[],"categories_nodes":[],"categories_segments":[],"categories_sizes":[],"default_left":[1,0,1,1,1,1,1,1,1,0,0,0,0,0,0,0,0],"id":6,"left_children":[1,-1,3,5,7,9,11,13,15,-1,-1,-1,-1,-1,-1,-1,-1],"loss_changes":[1.3718979E1,0E0,1.4550127E1,1.1081931E1,2.4268085E1,1.0118726E1,9.130582E0,1.0242611E1,2.3994066E1,0E0,0E0,0E0,0E0,0E0,0E0,0E0,0E0],"parents":[2147483647,0,0,2,2,3,3,4,4,5,5,6,6,7,7,8,8],"right_children":[2,-1,4,6,8,10,12,14,16,-1,-1,-1,-1,-1,-1,-1,-1],"split_conditions":[3.6831584E-4,6.809228E-2,9.731629E-4,-3.7215783E-3,1.1239252E-3,7.029207E-4,7.4907355E-3,-1.9422101E-3,-5.6174487E-1,4.4069454E-2,5.84429E-3,-2.540699E-3,-6.0917437E-2,4.6900462E-2,1.6322102E-2,-1.8953683E-2,1.2171936E-2],"split_indices":[3,0,3,4,3,3,4,2,10,0,0,0,0,0,0,0,0],"split_type":[0,0,0,0,0,0,0,0,0,0,0,0,0,0,0,0,0],"sum_hessian":[1.6445094E3,6.792485E0,1.6377169E3,1.1632114E3,4.7450552E2,9.863713E1,1.0645742E3,2.2633707E2,2.4816847E2,2.1475052E1,7.716208E1,1.0588309E3,5.7433314E0,3.1458544E1,1.9487852E2,1.11611015E2,1.3655745E2],"tree_param":{"num_deleted":"0","num_feature":"11","num_nodes":"17","size_leaf_vector":"0"}},{"base_weights":[1.4313184E-2,1.4308773E0,8.036524E-3,-3.3934247E-1,2.7083926E-2,9.391272E-2,-5.6253725E-1,1.4494115E-2,5.43631E-1,6.1857146E-1,-4.8162308E-1,1.3057811E-2,-8.9936495E-1,9.607845E-2,-6.1450113E-2,7.5735515E-1,-1.2783668E0],"categories":[],"categories_nodes":[],"categories_segments":[],"categories_sizes":[],"default_left":[1,0,1,1,1,1,1,1,1,0,0,0,0,0,0,0,0],"id":7,"left_children":[1,-1,3,5,7,9,11,13,15,-1,-1,-1,-1,-1,-1,-1,-1],"loss_changes":[1.455906E1,0E0,1.0811044E1,8.266059E0,1.0062938E1,9.276705E0,1.0907564E1,9.378805E0,1.5305404E1,0E0,0E0,0E0,0E0,0E0,0E0,0E0,0E0],"parents":[2147483647,0,0,2,2,3,3,4,4,5,5,6,6,7,7,8,8],"right_children":[2,-1,4,6,8,10,12,14,16,-1,-1,-1,-1,-1,-1,-1,-1],"split_conditions":[3.6831584E-4,7.1543865E-2,5.304266E-4,8.317513E-4,2.4484717E-3,6.474443E-4,-1.226442E-4,-2.1611675E-5,2.420595E-3,3.0928573E-2,-2.4081154E-2,6.528906E-4,-4.4968247E-2,4.8039225E-3,-3.0725056E-3,3.786776E-2,-6.3918345E-2],"split_indices":[3,0,3,6,6,4,0,2,3,0,0,0,0,0,0,0,0],"split_type":[0,0,0,0,0,0,0,0,0,0,0,0,0,0,0,0,0],"sum_hessian":[1.6377451E3,6.2234426E0,1.6315217E3,8.3934875E1,1.5475869E3,2.873503E1,5.5199844E1,1.5117686E3,3.58183E1,1.4992805E1,1.3742224E1,2.0732279E1,3.4467564E1,7.28693E2,7.8307556E2,3.258083E1,3.237472E0],"tree_param":{"num_deleted":"0","num_feature":"11","num_nodes":"17","size_leaf_vector":"0"}},{"base_weights":[2.3189133E-2,1.3921635E-2,8.676616E-1,1.2626752E0,8.234563E-3,1.115278E0,-1.1054841E0,4.139017E-1,1.3573313E0,-1.1541867E-1,5.9769828E-2,2.5825542E-1,1.4677718E0,4.4191007E-2,-2.2657357E-1,-2.1162573E-2,1.8575035E-1,1.1149955E0,-2.7548924E-1,1.6249129E0,9.770304E-2],"categories":[],"categories_nodes":[],"categories_segments":[],"categories_sizes":[],"default_left":[1,1,1,1,1,1,0,0,0,1,1,1,1,0,0,0,0,0,0,0,0],"id":8,"left_children":[1,3,5,7,9,11,-1,-1,-1,13,15,17,19,-1,-1,-1,-1,-1,-1,-1,-1],"loss_changes":[1.2849947E1,1.1541629E1,9.941347E0,3.0147552E-2,1.0332116E1,4.555441E0,0E0,0E0,0E0,8.4722805E0,1.1671089E1,3.0389051E0,2.2870655E0,0E0,0E0,0E0,0E0,0E0,0E0,0E0,0E0],"parents":[2147483647,0,0,1,1,2,2,3,3,4,4,5,5,9,9,10,10,11,11,12,12],"right_children":[2,4,6,8,10,12,-1,-1,-1,14,16,18,20,-1,-1,-1,-1,-1,-1,-1,-1],"split_conditions":[2.8523952E-3,3.6831584E-4,2.513776E-3,7.768352E-4,1.0164458E-3,-2.1694186E-1,-5.5274207E-2,2.0695085E-2,6.7866564E-2,8.271076E-4,6.078576E-1,-8.84838E-3,7.3825165E1,2.2095505E-3,-1.1328679E-2,-1.0581287E-3,9.2875175E-3,5.5749774E-2,-1.3774462E-2,8.1245646E-2,4.885152E-3],"split_indices":[6,3,3,6,6,9,0,0,0,6,9,4,5,0,0,0,0,0,0,0,0],"split_type":[0,0,0,0,0,0,0,0,0,0,0,0,0,0,0,0,0,0,0,0,0],"sum_hessian":[1.6424686E3,1.6256448E3,1.6823837E1,6.367914E0,1.619277E3,1.5334262E1,1.4895742E0,1.177957E0,5.1899576E0,4.7597864E2,1.1432983E3,4.973874E0,1.0360388E1,1.9564716E2,2.8033148E2,6.9661255E2,4.4668576E2,1.4912267E0,3.4826472E0,9.127495E0,1.2328931E0],"tree_param":{"num_deleted":"0","num_feature":"11","num_nodes":"21","size_leaf_vector":"0"}},{"base_weights":[2.1464946E-2,7.8911936E-1,1.229892E-2,3.562333E-1,1.2937982E0,-4.8863482E-1,3.204124E-2,1.133532E0,-4.8906466E-1,1.6088058E0,-3.3155498E-1,9.2814493E-1,-5.9019774E-1,-1.4803034E-1,7.479705E-2,1.9605426E-1,1.4943544E0,-1.507922E0,8.693838E-1,1.3805116E0,1.43584255E-2,-3.899412E-1,-1.1385546E0,-2.9725568E-2,-5.4446894E-1,3.895086E-1,4.6298403E-2],"categories":[],"categories_nodes":[],"categories_segments":[],"categories_sizes":[],"default_left":[1,1,1,1,1,1,1,1,1,0,0,1,1,1,1,0,0,0,0,0,0,0,0,0,0,0,0],"id":9,"left_children":[1,3,5,7,9,11,13,15,17,-1,-1,19,21,23,25,-1,-1,-1,-1,-1,-1,-1,-1,-1,-1,-1,-1],"loss_changes":[1.1504889E1,3.754077E0,1.6018536E1,8.284732E0,4.8997345E0,9.3851595E0,1.2004251E1,1.8822508E0,1.0078601E1,0E0,0E0,1.8390484E0,5.9163094E0,1.4017972E1,1.1278278E1,0E0,0E0,0E0,0E0,0E0,0E0,0E0,0E0,0E0,0E0,0E0,0E0],"parents":[2147483647,0,0,1,1,2,2,3,3,4,4,5,5,6,6,7,7,8,8,11,11,12,12,13,13,14,14],"right_children":[2,4,6,8,10,12,14,16,18,-1,-1,20,22,24,26,-1,-1,-1,-1,-1,-1,-1,-1,-1,-1,-1,-1],"split_conditions":[4.359297E-4,9.502568E-4,5.219222E-4,-2.4157518E-4,8.3275604E1,2.0496422E1,-2.1694186E-1,1.2940952E-1,6.2619484E1,8.044029E-2,-1.6577749E-2,2.1694186E-1,6.744614E-4,2.5917592E-3,-2.8755977E-3,9.802713E-3,7.471772E-2,-7.5396106E-2,4.346919E-2,6.902558E-2,7.179213E-4,-1.949706E-2,-5.692773E-2,-1.4862785E-3,-2.7223447E-2,1.947543E-2,2.3149203E-3],"split_indices":[3,4,3,4,5,5,9,7,5,0,0,9,2,4,2,0,0,0,0,0,0,0,0,0,0,0,0],"split_type":[0,0,0,0,0,0,0,0,0,0,0,0,0,0,0,0,0,0,0,0,0,0,0,0,0,0,0],"sum_hessian":[1.6354465E3,1.8293276E1,1.6171533E3,1.0765273E1,7.528003E0,6.041658E1,1.5567367E3,5.4305725E0,5.3347E0,6.3143992E0,1.2136043E0,3.4969056E0,5.6919674E1,2.9823203E2,1.2585048E3,1.9381872E0,3.4923854E0,2.9854982E0,2.3492022E0,1.9973601E0,1.4995455E0,4.2946857E1,1.3972816E1,2.3051651E2,6.77155E1,1.0344875E2,1.1550559E3],"tree_param":{"num_deleted":"0","num_feature":"11","num_nodes":"27","size_leaf_vector":"0"}},{"base_weights":[2.6657512E-2,3.4400623E-2,-8.659464E-1,-1.34092E-1,7.5300604E-2,-3.2836744E-1,-1.5007905E0,2.4701826E-1,-3.0438226E-1,3.895191E-1,4.878189E-2,-8.0309534E-1,7.575757E-1,9.036111E-1,-5.2520353E-2,-3.2631445E-1,1.064309E0,7.362397E-1,-2.0634448E-2,9.576486E-1,4.0534634E-2,4.1431624E-1,-1.5042781E0],"categories":[],"categories_nodes":[],"categories_segments":[],"categories_sizes":[],"default_left":[1,1,1,1,1,1,0,1,1,1,1,1,0,0,0,0,0,0,0,0,0,0,0],"id":10,"left_children":[1,3,5,7,9,11,-1,13,15,17,19,21,-1,-1,-1,-1,-1,-1,-1,-1,-1,-1,-1],"loss_changes":[1.14282255E1,1.1284129E1,4.3606806E0,2.0837032E1,1.0955637E1,5.2382183E0,0E0,1.9587114E1,6.998125E0,1.4571727E1,9.073661E0,6.3718944E0,0E0,0E0,0E0,0E0,0E0,0E0,0E0,0E0,0E0,0E0,0E0],"parents":[2147483647,0,0,1,1,2,2,3,3,4,4,5,5,7,7,8,8,9,9,10,10,11,11],"right_children":[2,4,6,8,10,12,-1,14,16,18,20,22,-1,-1,-1,-1,-1,-1,-1,-1,-1,-1,-1],"split_conditions":[8.269852E-3,-2.1694186E-1,6.756668E1,-1.4372435E-3,-2.8755977E-3,-2.5333115E-4,-7.503953E-2,7.5356395E-4,6.7503615E-3,-3.7940952E-1,-8.927304E-3,-6.035534E-1,3.7878785E-2,4.5180555E-2,-2.6260177E-3,-1.6315723E-2,5.321545E-2,3.6811985E-2,-1.0317224E-3,4.788243E-2,2.0267318E-3,2.0715812E-2,-7.52139E-2],"split_indices":[4,9,5,4,2,2,0,3,4,7,4,7,0,0,0,0,0,0,0,0,0,0,0],"split_type":[0,0,0,0,0,0,0,0,0,0,0,0,0,0,0,0,0,0,0,0,0,0,0],"sum_hessian":[1.6481913E3,1.6349698E3,1.3221484E1,3.189083E2,1.3160615E3,7.98073E0,5.2407537E0,9.835002E1,2.2055829E2,1.0136038E2,1.2147012E3,5.734371E0,2.2463589E0,3.0179487E1,6.817053E1,2.1782933E2,2.7289548E0,5.4496822E1,4.686356E1,9.888141E0,1.204813E3,2.245242E0,3.4891288E0],"tree_param":{"num_deleted":"0","num_feature":"11","num_nodes":"23","size_leaf_vector":"0"}},{"base_weights":[2.7191853E-2,1.3137288E0,2.207964E-2,-2.7067605E-2,1.4266206E-1,-1.7048495E-2,-1.1893141E0,3.4554577E-1,-4.181747E-2,-8.755508E-3,-8.6146086E-1,7.2894645E-1,-1.5471919E0,2.811834E-1,1.0258479E0,-3.3690062E-1,2.0052412E-1],"categories":[],"categories_nodes":[],"categories_segments":[],"categories_sizes":[],"default_left":[1,0,1,1,1,1,1,1,1,0,0,0,0,0,0,0,0],"id":11,"left_children":[1,-1,3,5,7,9,11,13,15,-1,-1,-1,-1,-1,-1,-1,-1],"loss_changes":[1.0793992E1,0E0,9.723419E0,1.3557549E1,1.779503E1,8.095003E0,7.9592876E0,9.622637E0,1.792445E1,0E0,0E0,0E0,0E0,0E0,0E0,0E0,0E0],"parents":[2147483647,0,0,2,2,3,3,4,4,5,5,6,6,7,7,8,8],"right_children":[2,-1,4,6,8,10,12,14,16,-1,-1,-1,-1,-1,-1,-1,-1],"split_conditions":[3.6831584E-4,6.568644E-2,9.731629E-4,7.075991E-3,1.1239252E-3,9.6577493E-4,2.1694186E-1,1.1011325E-3,-5.6174487E-1,-4.377754E-4,-4.3073043E-2,3.6447324E-2,-7.7359594E-2,1.405917E-2,5.1292397E-2,-1.684503E-2,1.0026206E-2],"split_indices":[3,0,3,4,3,3,9,3,10,0,0,0,0,0,0,0,0],"split_type":[0,0,0,0,0,0,0,0,0,0,0,0,0,0,0,0,0],"sum_hessian":[1.6445695E3,5.4959016E0,1.6390736E3,1.1650114E3,4.740623E2,1.1560602E3,8.951114E0,2.2535367E2,2.4870862E2,1.1458175E3,1.02427225E1,1.2443599E0,7.7067533E0,2.0716722E2,1.8186455E1,1.1197453E2,1.3673409E2],"tree_param":{"num_deleted":"0","num_feature":"11","num_nodes":"17","size_leaf_vector":"0"}},{"base_weights":[2.090787E-2,1.2182584E-2,8.2457054E-1,-1.4932698E-1,5.0969068E-2,1.0687181E0,-1.0958475E0,1.1029576E-3,-3.7178665E-1,3.9853907E-1,2.2182347E-2,3.331195E-1,1.3877883E0,5.245777E-1,-1.9988628E-1,-8.544797E-3,-5.5928755E-1,6.9005704E-1,2.583945E-2,3.2322705E-2,-9.6343905E-1,7.450899E-1,-7.269702E-1,1.5453298E0,7.413435E-2],"categories":[],"categories_nodes":[],"categories_segments":[],"categories_sizes":[],"default_left":[1,1,1,1,1,1,0,1,1,1,1,1,1,0,0,0,0,0,0,0,0,0,0,0,0],"id":12,"left_children":[1,3,5,7,9,11,-1,13,15,17,19,21,23,-1,-1,-1,-1,-1,-1,-1,-1,-1,-1,-1,-1],"loss_changes":[1.153796E1,1.0219664E1,9.457237E0,1.0572917E1,1.3150708E1,3.3365746E0,0E0,2.0040174E1,8.67594E0,1.0905843E1,1.2181552E1,3.2548108E0,2.1563683E0,0E0,0E0,0E0,0E0,0E0,0E0,0E0,0E0,0E0,0E0,0E0,0E0],"parents":[2147483647,0,0,1,1,2,2,3,3,4,4,5,5,7,7,8,8,9,9,10,10,11,11,12,12],"right_children":[2,4,6,8,10,12,-1,14,16,18,20,22,24,-1,-1,-1,-1,-1,-1,-1,-1,-1,-1,-1,-1],"split_conditions":[2.856379E-3,-2.1694186E-1,2.513776E-3,1.3038847E-3,-2.8755977E-3,-2.1694186E-1,-5.4792374E-2,-1.5382299E-3,3.7222164E1,-3.7940952E-1,8.232426E-3,1.7789097E-3,7.148767E1,2.6228884E-2,-9.994314E-3,-4.2723987E-4,-2.7964378E-2,3.4502853E-2,1.2919725E-3,1.6161352E-3,-4.8171952E-2,3.7254494E-2,-3.634851E-2,7.726649E-2,3.7067176E-3],"split_indices":[6,9,3,6,2,9,0,4,5,7,4,3,5,0,0,0,0,0,0,0,0,0,0,0,0],"split_type":[0,0,0,0,0,0,0,0,0,0,0,0,0,0,0,0,0,0,0,0,0,0,0,0,0],"sum_hessian":[1.6458481E3,1.6291755E3,1.6672636E1,3.1493106E2,1.3142445E3,1.5185555E1,1.4870802E0,1.8847621E2,1.26454865E2,9.95413E1,1.2147031E3,5.2124887E0,9.973067E0,5.184261E1,1.366336E2,4.3407646E1,8.304722E1,5.53759E1,4.41654E1,1.2032905E3,1.1412596E1,3.9677086E0,1.2447801E0,8.747637E0,1.2254303E0],"tree_param":{"num_deleted":"0","num_feature":"11","num_nodes":"25","size_leaf_vector":"0"}},{"base_weights":[1.4671603E-2,2.3311365E-2,-9.222247E-1,1.5391579E-2,7.464321E-1,-1.2192934E0,6.723831E-1,1.2330978E0,1.12282E-2,9.815302E-1,-1.0787832E0,-1.7015177E-1,-1.5872124E0,8.7955314E-1,6.232741E-3,-2.5793282E-2,1.1414882E0,6.912691E-1,-7.14495E-1,-6.731565E-1,-1.7412008E0],"categories":[],"categories_nodes":[],"categories_segments":[],"categories_sizes":[],"default_left":[1,1,1,1,1,1,0,0,1,1,0,1,1,0,0,0,0,0,0,0,0],"id":13,"left_children":[1,3,5,7,9,11,-1,-1,13,15,-1,17,19,-1,-1,-1,-1,-1,-1,-1,-1],"loss_changes":[1.3277783E1,9.287317E0,7.9201517E0,8.133888E0,8.597929E0,4.7442245E0,0E0,0E0,6.9463177E0,2.6217136E0,0E0,2.600642E0,1.6471863E-1,0E0,0E0,0E0,0E0,0E0,0E0,0E0,0E0],"parents":[2147483647,0,0,1,1,2,2,3,3,4,4,5,5,8,8,9,9,11,11,12,12],"right_children":[2,4,6,8,10,12,-1,-1,14,16,-1,18,20,-1,-1,-1,-1,-1,-1,-1,-1],"split_conditions":[8.794037E1,2.8523952E-3,3.8171052E-3,3.5484636E-4,2.4798773E-3,6.0394255E-4,3.3619158E-2,6.165489E-2,-9.140295E-3,-1.3920305E-3,-5.393916E-2,-2.8586027E-4,1.1070314E-3,4.397766E-2,3.1163704E-4,-1.2896642E-3,5.707441E-2,3.4563456E-2,-3.572475E-2,-3.3657826E-2,-8.706004E-2],"split_indices":[5,6,4,3,3,3,0,0,4,0,0,4,6,0,0,0,0,0,0,0,0],"split_type":[0,0,0,0,0,0,0,0,0,0,0,0,0,0,0,0,0,0,0,0,0],"sum_hessian":[1.6366782E3,1.6226893E3,1.3988811E1,1.60612E3,1.6569313E1,1.1990413E1,1.9983977E0,4.4668865E0,1.6016532E3,1.5088117E1,1.481196E0,3.492845E0,8.497567E0,8.160161E0,1.593493E3,2.1825325E0,1.2905584E1,1.2479908E0,2.2448542E0,1.9996088E0,6.4979587E0],"tree_param":{"num_deleted":"0","num_feature":"11","num_nodes":"21","size_leaf_vector":"0"}},{"base_weights":[3.7522092E-2,4.6496585E-2,-6.519451E-1,3.854073E-2,7.6976985E-1,-1.0014997E0,-3.7726924E-2,1.1381902E0,3.3737764E-2,1.0008539E0,-1.0522279E0,-6.841165E-2,-1.4231194E0,1.3257691E0,-6.392809E-1,3.133798E-1,1.240192E0,-6.886336E-2,7.8023E-2,-4.0908125E-3,1.4139882E0,1.2053573E0,-8.995811E-1,2.588806E-1,-1.2285945E0],"categories":[],"categories_nodes":[],"categories_segments":[],"categories_sizes":[],"default_left":[1,1,1,1,1,1,1,1,1,1,0,1,0,0,1,0,0,0,0,0,0,0,0,0,0],"id":14,"left_children":[1,3,5,7,9,11,13,15,17,19,-1,21,-1,-1,23,-1,-1,-1,-1,-1,-1,-1,-1,-1,-1],"loss_changes":[1.0213532E1,9.324042E0,4.5167522E0,8.459104E0,8.4773245E0,5.2058506E0,8.010529E0,1.9742203E-1,7.2886243E0,6.715475E0,0E0,6.6382146E0,0E0,0E0,3.8825195E0,0E0,0E0,0E0,0E0,0E0,0E0,0E0,0E0,0E0,0E0],"parents":[2147483647,0,0,1,1,2,2,3,3,4,4,5,5,6,6,7,7,8,8,9,9,11,11,14,14],"right_children":[2,4,6,8,10,12,14,16,18,20,-1,22,-1,-1,24,-1,-1,-1,-1,-1,-1,-1,-1,-1,-1],"split_conditions":[8.7072914E1,2.8523952E-3,8.117449E-1,3.6831584E-4,2.4798773E-3,2.2149351E-3,-3.7940952E-1,7.9778896E-4,1.0165126E-3,-2.1694186E-1,-5.2611392E-2,7.202632E-4,-7.115597E-2,6.628846E-2,8.98542E1,1.566899E-2,6.2009603E-2,-3.4431682E-3,3.90115E-3,-2.0454063E-4,7.0699416E-2,6.0267866E-2,-4.4979054E-2,1.294403E-2,-6.1429728E-2],"split_indices":[5,6,10,3,3,2,8,6,6,9,0,3,0,0,5,0,0,0,0,0,0,0,0,0,0],"split_type":[0,0,0,0,0,0,0,0,0,0,0,0,0,0,0,0,0,0,0,0,0,0,0,0,0],"sum_hessian":[1.6447411E3,1.6245278E3,2.0213211E1,1.6078947E3,1.6633224E1,1.2480163E1,7.7330484E0,5.966102E0,1.6019285E3,1.5161034E1,1.4721913E0,4.2458715E0,8.234291E0,1.9987435E0,5.734305E0,1.1047925E0,4.86131E0,4.828032E2,1.1191252E3,4.7053704E0,1.0455663E1,1.4987853E0,2.7470863E0,2.4939826E0,3.240322E0],"tree_param":{"num_deleted":"0","num_feature":"11","num_nodes":"25","size_leaf_vector":"0"}},{"base_weights":[8.818328E-3,1.0503318E-4,6.714972E-1,1.1147349E0,-4.6529127E-3,1.05977334E-1,1.4559748E0,3.2091907E-1,1.2121692E0,-1.4675692E-1,3.656591E-2,9.0053886E-1,-4.0798435E-1,-2.319263E-1,2.060737E-1,-5.1960547E-2,1.727473E-1,-3.606127E-1,1.3324016E0,-6.1533165E-1,4.9102744E-1],"categories":[],"categories_nodes":[],"categories_segments":[],"categories_sizes":[],"default_left":[1,1,1,1,1,1,0,0,0,1,1,1,1,0,0,0,0,0,0,0,0],"id":15,"left_children":[1,3,5,7,9,11,-1,-1,-1,13,15,17,19,-1,-1,-1,-1,-1,-1,-1,-1],"loss_changes":[9.4461355E0,8.573943E0,9.264666E0,1.4248848E-1,9.434859E0,5.8460984E0,0E0,0E0,0E0,1.0930943E1,1.5062755E1,3.5202894E0,1.9489803E0,0E0,0E0,0E0,0E0,0E0,0E0,0E0,0E0],"parents":[2147483647,0,0,1,1,2,2,3,3,4,4,5,5,9,9,10,10,11,11,12,12],"right_children":[2,4,6,8,10,12,-1,-1,-1,14,16,18,20,-1,-1,-1,-1,-1,-1,-1,-1],"split_conditions":[2.7633475E-3,3.6831584E-4,2.1694186E-1,7.746266E-4,6.604472E-4,3.9789352E1,7.2798744E-2,1.6045954E-2,6.0608458E-2,8.117449E-1,6.078576E-1,-1.9125019E-3,9.159756E-1,-1.1596316E-2,1.0303685E-2,-2.5980275E-3,8.637365E-3,-1.8030634E-2,6.662008E-2,-3.0766582E-2,2.4551373E-2],"split_indices":[6,3,9,6,3,5,0,0,0,10,9,0,8,0,0,0,0,0,0,0,0],"split_type":[0,0,0,0,0,0,0,0,0,0,0,0,0,0,0,0,0,0,0,0,0],"sum_hessian":[1.6349568E3,1.6147256E3,2.023121E1,5.871781E0,1.6088538E3,1.2415865E1,7.815346E0,1.1113222E0,4.760459E0,3.6116354E2,1.2476902E3,4.5812726E0,7.8345923E0,2.912111E2,6.995245E1,7.565219E2,4.9116837E2,1.2106993E0,3.3705735E0,6.622688E0,1.2119043E0],"tree_param":{"num_deleted":"0","num_feature":"11","num_nodes":"21","size_leaf_vector":"0"}},{"base_weights":[1.9603563E-2,7.7221215E-1,1.2646274E-2,1.3430142E0,-6.952467E-1,-5.488997E-1,2.4381721E-2,1.4627287E0,4.2814225E-1,-1.2053802E0,3.0082336E-1,-9.101946E-1,4.113169E-1,-2.391135E-2,1.5543313E-1,-1.1313779E0,6.304529E-1,1.344143E0,-6.696106E-1,3.40082E-2,-1.6194245E-1,3.7590292E-1,-6.324902E-2],"categories":[],"categories_nodes":[],"categories_segments":[],"categories_sizes":[],"default_left":[1,1,1,1,1,1,1,0,0,0,0,1,1,1,1,0,0,0,0,0,0,0,0],"id":16,"left_children":[1,3,5,7,9,11,13,-1,-1,-1,-1,15,17,19,21,-1,-1,-1,-1,-1,-1,-1,-1],"loss_changes":[8.64577E0,1.3602455E1,1.0813859E1,6.0370255E-1,2.8496056E0,1.2028267E1,1.0169968E1,0E0,0E0,0E0,0E0,9.136864E0,1.0854897E1,9.396482E0,2.0884403E1,0E0,0E0,0E0,0E0,0E0,0E0,0E0,0E0],"parents":[2147483647,0,0,1,1,2,2,3,3,4,4,5,5,6,6,11,11,12,12,13,13,14,14],"right_children":[2,4,6,8,10,12,14,-1,-1,-1,-1,16,18,20,22,-1,-1,-1,-1,-1,-1,-1,-1],"split_conditions":[-8.901307E-3,5.9295532E1,-7.0282975E-3,-9.140295E-3,7.669743E-4,1.8556349E-3,9.732082E-4,7.313644E-2,2.1407112E-2,-6.026901E-2,1.5041168E-2,6.4242386E1,4.0047043E1,8.0170983E-4,1.1233411E-3,-5.65689E-2,3.1522643E-2,6.720715E-2,-3.3480532E-2,1.70041E-3,-8.097122E-3,1.8795146E-2,-3.162451E-3],"split_indices":[4,5,4,4,0,6,3,0,0,0,0,5,5,3,3,0,0,0,0,0,0,0,0],"split_type":[0,0,0,0,0,0,0,0,0,0,0,0,0,0,0,0,0,0,0,0,0,0,0],"sum_hessian":[1.652045E3,1.4124517E1,1.6379205E3,1.023009E1,3.8944273E0,3.259231E1,1.6053281E3,8.5168E0,1.7132906E0,2.436465E0,1.4579623E0,2.3719584E1,8.872728E0,1.17365E3,4.316781E2,2.0974083E1,2.7455008E0,4.6319275E0,4.2408013E0,8.272707E2,3.4637936E2,2.1460243E2,2.1707567E2],"tree_param":{"num_deleted":"0","num_feature":"11","num_nodes":"23","size_leaf_vector":"0"}},{"base_weights":[1.4187028E-2,2.310224E-2,-6.854979E-1,1.4141832E-2,7.010154E-1,-1.0244921E0,5.8549255E-1,2.2002196E-2,-1.783652E0,1.0298245E0,-1.1181192E0,-1.1649995E0,7.926463E-3,1.281056E0,-3.0637196E-1,1.2109513E0,1.5055981E-2,1.2635076E0,-3.2760587E-1,-1.2784346E0,-2.9577965E-1],"categories":[],"categories_nodes":[],"categories_segments":[],"categories_sizes":[],"default_left":[1,1,1,1,1,1,1,1,0,1,0,1,0,0,0,0,0,0,0,0,0],"id":17,"left_children":[1,3,5,7,9,11,13,15,-1,17,-1,19,-1,-1,-1,-1,-1,-1,-1,-1,-1],"loss_changes":[1.0248148E1,9.834776E0,9.505987E0,2.2657381E1,1.3785338E1,2.4291668E0,3.487218E0,1.3150993E1,0E0,6.2533913E0,0E0,1.0703373E0,0E0,0E0,0E0,0E0,0E0,0E0,0E0,0E0,0E0],"parents":[2147483647,0,0,1,1,2,2,3,3,4,4,5,5,6,6,7,7,9,9,11,11],"right_children":[2,4,6,8,10,12,14,16,-1,18,-1,20,-1,-1,-1,-1,-1,-1,-1,-1,-1],"split_conditions":[8.7072914E1,2.0195812E-3,4.0763244E-3,1.9217497E-3,2.5325092E-3,9.159756E-1,6.080852E-3,-9.0116225E-3,-8.91826E-2,8.783797E-1,-5.5905964E-2,7.865661E-1,3.9632316E-4,6.4052805E-2,-1.5318598E-2,6.0547568E-2,7.527991E-4,6.317538E-2,-1.6380293E-2,-6.3921735E-2,-1.4788982E-2],"split_indices":[5,3,4,3,3,8,4,4,0,9,0,7,0,0,0,0,0,0,0,0,0],"split_type":[0,0,0,0,0,0,0,0,0,0,0,0,0,0,0,0,0,0,0,0,0],"sum_hessian":[1.6393611E3,1.6196904E3,1.9670715E1,1.5995687E3,2.0121655E1,1.5682006E1,3.98871E0,1.593589E3,5.9797726E0,1.7408888E1,2.7127671E0,1.3690391E1,1.9916158E0,1.9958053E0,1.9929047E0,8.24939E0,1.5853396E3,1.4911114E1,2.497774E0,1.1693569E1,1.996821E0],"tree_param":{"num_deleted":"0","num_feature":"11","num_nodes":"21","size_leaf_vector":"0"}},{"base_weights":[1.5665213E-2,1.2367252E0,1.0738308E-2,1.8913312E-2,-6.3463145E-1,-1.3195192E-3,3.1509674E-1,-9.851252E-1,4.3215033E-1,9.721435E-1,-8.98836E-3,3.8760665E-1,-1.0024678E0,-3.1789383E-1,-1.5170519E0,-7.524064E-1,1.0274729E0],"categories":[],"categories_nodes":[],"categories_segments":[],"categories_sizes":[],"default_left":[1,0,1,1,1,1,1,1,1,0,0,0,0,0,0,0,0],"id":18,"left_children":[1,-1,3,5,7,9,11,13,15,-1,-1,-1,-1,-1,-1,-1,-1],"loss_changes":[9.797678E0,0E0,8.586678E0,9.623947E0,8.037872E0,1.1238118E1,1.01993065E1,5.0647354E0,4.8137136E0,0E0,0E0,0E0,0E0,0E0,0E0,0E0,0E0],"parents":[2147483647,0,0,2,2,3,3,4,4,5,5,6,6,7,7,8,8],"right_children":[2,-1,4,6,8,10,12,14,16,-1,-1,-1,-1,-1,-1,-1,-1],"split_conditions":[3.7129954E-4,6.183626E-2,8.7072914E1,3.1339386E-3,2.9476862E-3,-8.901307E-3,7.3228986E-3,7.2820997E-4,8.7464584E1,4.8607174E-2,-4.49418E-4,1.9380333E-2,-5.012339E-2,-1.5894692E-2,-7.5852595E-2,-3.762032E-2,5.1373642E-2],"split_indices":[3,0,5,2,4,4,2,3,5,0,0,0,0,0,0,0,0],"split_type":[0,0,0,0,0,0,0,0,0,0,0,0,0,0,0,0,0],"sum_hessian":[1.6297983E3,5.544972E0,1.6242534E3,1.6048947E3,1.9358767E1,1.5032036E3,1.0169104E2,1.4628939E1,4.7298284E0,1.0766499E1,1.4924371E3,9.7055565E1,4.635474E0,7.197837E0,7.4311023E0,1.4937471E0,3.2360811E0],"tree_param":{"num_deleted":"0","num_feature":"11","num_nodes":"17","size_leaf_vector":"0"}},{"base_weights":[2.8894238E-2,3.92323E-2,-4.6065423E-1,1.9997308E-2,3.324383E-1,-9.609618E-1,2.6727474E-1,9.46456E-1,1.3618085E-2,4.0263796E-1,-8.453908E-1,-1.2479538E0,1.122772E-1,9.2310315E-1,-7.0725363E-1,1.143627E0,-1.679711E-1,-7.017175E-1,2.8459735E-2,-5.1043093E-1,5.051376E-1,2.1112967E-1,-1.4186583E0,-1.6368953E0,-7.9504603E-1,7.0006084E-1,-9.868475E-1,1.4180362E0,-5.77824E-1,-1.1811545E0,1.2632142E-1],"categories":[],"categories_nodes":[],"categories_segments":[],"categories_sizes":[],"default_left":[1,1,1,1,1,1,1,1,1,1,1,1,1,1,1,0,0,0,0,0,0,0,0,0,0,0,0,0,0,0,0],"id":19,"left_children":[1,3,5,7,9,11,13,15,17,19,21,23,25,27,29,-1,-1,-1,-1,-1,-1,-1,-1,-1,-1,-1,-1,-1,-1,-1,-1],"loss_changes":[8.316847E0,9.055214E0,1.2635596E1,8.90491E0,8.513976E0,6.4118843E0,1.000184E1,2.4562473E0,1.5940946E1,9.052536E0,3.862681E0,1.5432358E0,4.059102E0,7.6368976E0,2.697314E0,0E0,0E0,0E0,0E0,0E0,0E0,0E0,0E0,0E0,0E0,0E0,0E0,0E0,0E0,0E0,0E0],"parents":[2147483647,0,0,1,1,2,2,3,3,4,4,5,5,6,6,7,7,8,8,9,9,10,10,11,11,12,12,13,13,14,14],"right_children":[2,4,6,8,10,12,14,16,18,20,22,24,26,28,30,-1,-1,-1,-1,-1,-1,-1,-1,-1,-1,-1,-1,-1,-1,-1,-1],"split_conditions":[8.441316E1,3.1339386E-3,3.7940952E-1,-8.901307E-3,7.1814694E-3,1.5804647E-3,1.1923083E-3,1.9189296E-3,-7.0282975E-3,6.792621E-4,3.3396233E-3,8.6808685E1,9.0021745E-4,8.868013E1,8.423504E-4,5.7181355E-2,-8.398555E-3,-3.5085876E-2,1.4229867E-3,-2.5521547E-2,2.5256881E-2,1.0556484E-2,-7.093292E-2,-8.184477E-2,-3.97523E-2,3.5003044E-2,-4.9342375E-2,7.090181E-2,-2.88912E-2,-5.9057724E-2,6.316071E-3],"split_indices":[5,2,8,4,2,6,6,3,4,3,1,5,3,5,3,0,0,0,0,0,0,0,0,0,0,0,0,0,0,0,0],"split_type":[0,0,0,0,0,0,0,0,0,0,0,0,0,0,0,0,0,0,0,0,0,0,0,0,0,0,0,0,0,0,0],"sum_hessian":[1.6387559E3,1.6057659E3,3.2989975E1,1.5079116E3,9.785429E1,1.936217E1,1.3627804E1,9.304112E0,1.4986074E3,9.297127E1,4.8830175E0,1.5148546E1,4.2136235E0,8.177417E0,5.450387E0,7.8831725E0,1.4209397E0,2.952014E1,1.4690873E3,8.981757E0,8.398951E1,1.9397695E0,2.9432483E0,6.7433743E0,8.405171E0,2.9820004E0,1.2316229E0,6.1911135E0,1.9863031E0,3.2090282E0,2.241359E0],"tree_param":{"num_deleted":"0","num_feature":"11","num_nodes":"31","size_leaf_vector":"0"}},{"base_weights":[2.2446716E-2,-2.3949735E-2,1.4033873E-1,1.1902707E0,-3.0552033E-2,3.5750976E-1,-6.0368016E-2,2.6622093E-1,-5.604382E-2,2.8952998E-1,9.983031E-1,-1.9935039E-1,3.3906734E-1,8.342697E-1,6.1521262E-2,-4.9616218E-1,-3.1621065E-2,1.9347058E-1,6.9980127E-1,1.5461916E-1,1.2028085E0,-2.844961E-1,4.478257E-1,6.7606455E-1,-4.153852E-3],"categories":[],"categories_nodes":[],"categories_segments":[],"categories_sizes":[],"default_left":[1,1,1,0,1,1,1,1,1,1,1,1,1,0,0,0,0,0,0,0,0,0,0,0,0],"id":20,"left_children":[1,3,5,-1,7,9,11,13,15,17,19,21,23,-1,-1,-1,-1,-1,-1,-1,-1,-1,-1,-1,-1],"loss_changes":[8.925503E0,9.426824E0,2.010691E1,0E0,8.836106E0,9.358328E0,1.3409647E1,1.0693781E1,1.15351095E1,7.8111343E0,3.408495E0,9.987022E0,7.2212152E0,0E0,0E0,0E0,0E0,0E0,0E0,0E0,0E0,0E0,0E0,0E0,0E0],"parents":[2147483647,0,0,1,1,2,2,4,4,5,5,6,6,7,7,8,8,9,9,10,10,11,11,12,12],"right_children":[2,4,6,-1,8,10,12,14,16,18,20,22,24,-1,-1,-1,-1,-1,-1,-1,-1,-1,-1,-1,-1],"split_conditions":[9.729717E-4,3.6586248E-4,1.1239252E-3,5.9513535E-2,-3.85876E-3,1.0991727E-3,2.2253976E-3,7.1344315E-4,-3.0220477E-3,2.207368E-3,-7.865661E-1,9.159756E-1,-2.9943346E-3,4.1713487E-2,3.0760632E-3,-2.4808109E-2,-1.5810532E-3,9.673529E-3,3.4990065E-2,7.730958E-3,6.0140427E-2,-1.4224805E-2,2.2391286E-2,3.380323E-2,-2.076926E-4],"split_indices":[3,3,3,0,4,3,6,3,4,4,8,8,4,0,0,0,0,0,0,0,0,0,0,0,0],"split_type":[0,0,0,0,0,0,0,0,0,0,0,0,0,0,0,0,0,0,0,0,0,0,0,0,0],"sum_hessian":[1.6301729E3,1.1703701E3,4.5980276E2,5.359881E0,1.1650103E3,2.204681E2,2.3933469E2,9.140765E1,1.0736025E3,2.0063516E2,1.9832933E1,1.7792657E2,6.140811E1,2.3399006E1,6.8008644E1,5.5428024E1,1.01817456E3,1.637637E2,3.6871456E1,4.212088E0,1.5620845E1,1.5773462E2,2.019195E1,3.049568E1,3.0912432E1],"tree_param":{"num_deleted":"0","num_feature":"11","num_nodes":"25","size_leaf_vector":"0"}},{"base_weights":[1.6040735E-2,1.1827347E0,1.1659188E-2,1.5398291E-1,-2.65586E-2,1.0907549E-1,6.2946665E-1,-1.9764698E-1,1.5437927E-2,-4.168739E-1,1.756485E-1,1.1766883E0,3.0064125E-2,-1.6508053E-1,-1.5226429E0,-2.5198756E-2,2.279257E-1],"categories":[],"categories_nodes":[],"categories_segments":[],"categories_sizes":[],"default_left":[1,0,1,1,1,1,1,1,1,0,0,0,0,0,0,0,0],"id":21,"left_children":[1,-1,3,5,7,9,11,13,15,-1,-1,-1,-1,-1,-1,-1,-1],"loss_changes":[8.3334E0,0E0,8.858105E0,7.292142E0,9.229193E0,1.1144148E1,9.653437E0,1.0671994E1,8.916135E0,0E0,0E0,0E0,0E0,0E0,0E0,0E0,0E0],"parents":[2147483647,0,0,2,2,3,3,4,4,5,5,6,6,7,7,8,8],"right_children":[2,-1,4,6,8,10,12,14,16,-1,-1,-1,-1,-1,-1,-1,-1],"split_conditions":[3.7129954E-4,5.9136737E-2,-2.4017403E-3,2.352388E-3,-2.1694186E-1,-7.0282975E-3,1.9199026E-3,2.1838294E-3,3.7083267E-3,-2.0843696E-2,8.782425E-3,5.8834415E-2,1.5032062E-3,-8.254027E-3,-7.613214E-2,-1.2599378E-3,1.1396285E-2],"split_indices":[3,0,4,6,9,4,3,6,4,0,0,0,0,0,0,0,0],"split_type":[0,0,0,0,0,0,0,0,0,0,0,0,0,0,0,0,0],"sum_hessian":[1.6318861E3,5.0994415E0,1.6267866E3,3.4372385E2,1.2830627E3,3.1518533E2,2.8538517E1,2.5214612E2,1.0309166E3,3.482153E1,2.803638E2,1.4415162E1,1.4123355E1,2.4719502E2,4.951097E0,8.6615283E2,1.6476378E2],"tree_param":{"num_deleted":"0","num_feature":"11","num_nodes":"17","size_leaf_vector":"0"}},{"base_weights":[1.1130616E-3,8.509E-3,-5.752474E-1,1.8160509E-1,-1.6370261E-2,-8.1539476E-1,3.520723E-1,2.13353E-1,-1.212915E0,-2.2408215E-2,8.303333E-1,-3.33653E-1,-1.2337186E0,9.7122145E-1,-5.0728846E-1,1.4859779E-1,1.1013522E0,-1.6409935E-2,-1.6198039E0,1.2871778E0,-5.240179E-1,8.1313044E-1,-1.0213709E0,-3.871625E-1,-1.4692636E0],"categories":[],"categories_nodes":[],"categories_segments":[],"categories_sizes":[],"default_left":[1,1,1,1,1,1,1,1,0,1,1,1,1,0,0,0,0,0,0,0,0,0,0,0,0],"id":22,"left_children":[1,3,5,7,9,11,13,15,-1,17,19,21,23,-1,-1,-1,-1,-1,-1,-1,-1,-1,-1,-1,-1],"loss_changes":[6.967242E0,6.951949E0,4.8985877E0,9.240081E0,7.2359214E0,2.9638643E0,3.1307218E0,1.129064E1,0E0,1.3413728E1,6.8755746E0,8.051143E0,1.1448812E0,0E0,0E0,0E0,0E0,0E0,0E0,0E0,0E0,0E0,0E0,0E0,0E0],"parents":[2147483647,0,0,1,1,2,2,3,3,4,4,5,5,6,6,7,7,9,9,10,10,11,11,12,12],"right_children":[2,4,6,8,10,12,14,16,-1,18,20,22,24,-1,-1,-1,-1,-1,-1,-1,-1,-1,-1,-1,-1],"split_conditions":[8.7072914E1,-3.714557E-3,3.7631397E-3,2.4798773E-3,2.0301933E-3,7.5330737E-4,1.8334971E-4,2.7091159E-3,-6.0645748E-2,1.777233E-3,5.0699776E1,-8.1925525E-4,8.791983E1,4.8561074E-2,-2.5364423E-2,7.42989E-3,5.506761E-2,-8.2049676E-4,-8.0990195E-2,6.435889E-2,-2.6200894E-2,4.0656522E-2,-5.1068544E-2,-1.9358126E-2,-7.346318E-2],"split_indices":[5,4,4,3,3,3,0,6,0,3,5,4,5,0,0,0,0,0,0,0,0,0,0,0,0],"split_type":[0,0,0,0,0,0,0,0,0,0,0,0,0,0,0,0,0,0,0,0,0,0,0,0,0],"sum_hessian":[1.6323087E3,1.6126008E3,1.9707884E1,2.0186145E2,1.4107394E3,1.5749851E1,3.9580317E0,1.9819629E2,3.6651669E0,1.401717E3,9.022292E0,8.155534E0,7.5943174E0,2.2248864E0,1.7331454E0,1.8581361E2,1.2382669E1,1.3974797E3,4.237314E0,6.783654E0,2.2386377E0,2.9889832E0,5.1665506E0,2.2285442E0,5.365773E0],"tree_param":{"num_deleted":"0","num_feature":"11","num_nodes":"25","size_leaf_vector":"0"}},{"base_weights":[1.38845295E-2,8.588011E-2,-5.4034214E-2,3.7123036E-1,4.503752E-2,-2.3968971E-1,-5.4200063E-3,2.5713402E-1,9.712172E-1,3.610165E-2,1.4894725E0,9.091857E-1,-2.7176017E-1,1.799165E-1,-1.13775276E-1,4.7859228E-1,-3.9981735E-1,1.1751655E0,1.203628E-1,-1.4927071E-1,8.6137615E-2,1.9978018E-1,1.0387032E0,5.4606587E-1,-3.179727E-1,2.2674936E-1,-7.3527324E-1,-3.6228183E-1,-1.5799552E-2],"categories":[],"categories_nodes":[],"categories_segments":[],"categories_sizes":[],"default_left":[1,1,1,1,1,1,1,1,1,1,0,1,1,1,1,0,0,0,0,0,0,0,0,0,0,0,0,0,0],"id":23,"left_children":[1,3,5,7,9,11,13,15,17,19,-1,21,23,25,27,-1,-1,-1,-1,-1,-1,-1,-1,-1,-1,-1,-1,-1,-1],"loss_changes":[7.970801E0,9.204422E0,7.5702744E0,6.52262E0,8.894624E0,6.6603975E0,1.3392141E1,1.248251E1,2.5390577E0,6.4132233E0,0E0,2.4794436E-1,6.602557E0,1.0712511E1,1.0239771E1,0E0,0E0,0E0,0E0,0E0,0E0,0E0,0E0,0E0,0E0,0E0,0E0,0E0,0E0],"parents":[2147483647,0,0,1,1,2,2,3,3,4,4,5,5,6,6,7,7,8,8,9,9,11,11,12,12,13,13,14,14],"right_children":[2,4,6,8,10,12,14,16,18,20,-1,22,24,26,28,-1,-1,-1,-1,-1,-1,-1,-1,-1,-1,-1,-1,-1,-1],"split_conditions":[-2.1638907E-5,-3.8015912E-3,6.499494E-4,2.0320062E-3,-3.6062964E-5,3.7129954E-4,8.0291246E-4,1.1489028E-3,5.6926464E-4,-7.865661E-1,7.447363E-2,7.779683E-4,-3.2783672E-3,5.2595064E-3,-6.035534E-1,2.3929615E-2,-1.9990867E-2,5.8758277E-2,6.0181404E-3,-7.4635358E-3,4.3068808E-3,9.989009E-3,5.1935162E-2,2.7303293E-2,-1.5898636E-2,1.1337468E-2,-3.6763664E-2,-1.8114092E-2,-7.899776E-4],"split_indices":[2,4,3,6,2,3,3,3,1,8,0,2,4,4,7,0,0,0,0,0,0,0,0,0,0,0,0,0,0],"split_type":[0,0,0,0,0,0,0,0,0,0,0,0,0,0,0,0,0,0,0,0,0,0,0,0,0,0,0,0,0],"sum_hessian":[1.6281221E3,7.9021246E2,8.379096E2,9.79296E1,6.9228284E2,1.7306223E2,6.6484735E2,8.3482704E1,1.4446901E1,6.890451E2,3.2377224E0,3.9570584E0,1.6910516E2,2.4504654E2,4.198008E2,6.26387E1,2.0844006E1,1.1346101E1,3.1007998E0,1.4603477E2,5.430103E2,1.0034362E0,2.953622E0,8.465968E0,1.6063919E2,2.3383287E2,1.1213655E1,1.1794537E2,3.0185544E2],"tree_param":{"num_deleted":"0","num_feature":"11","num_nodes":"29","size_leaf_vector":"0"}},{"base_weights":[1.0993512E-2,1.459947E-2,-1.2717607E0,5.611291E-3,8.909387E-1,1.41439E-2,-1.2098831E0,1.2360369E0,-5.0789285E-1,4.50139E-3,1.2254595E0,-6.1350703E-1,-1.6381322E0,1.4190844E0,7.311762E-2,6.3780016E-1,-1.2616824E0],"categories":[],"categories_nodes":[],"categories_segments":[],"categories_sizes":[],"default_left":[1,1,0,1,1,1,1,1,1,0,0,0,0,0,0,0,0],"id":24,"left_children":[1,3,-1,5,7,9,11,13,15,-1,-1,-1,-1,-1,-1,-1,-1],"loss_changes":[7.592305E0,1.2863678E1,0E0,1.6799866E1,8.631641E0,1.8774885E1,1.8788986E0,2.7892494E0,4.2503033E0,0E0,0E0,0E0,0E0,0E0,0E0,0E0,0E0],"parents":[2147483647,0,0,1,1,3,3,4,4,5,5,6,6,7,7,8,8],"right_children":[2,4,-1,6,8,10,12,14,16,-1,-1,-1,-1,-1,-1,-1,-1],"split_conditions":[2.464749E-3,2.0202473E-3,-6.358804E-2,1.7779926E-3,8.783797E-1,1.6652597E-3,1.9207008E-3,6.5294565E-3,1.9532577E-4,2.250695E-4,6.1272975E-2,-3.0675352E-2,-8.190661E-2,7.0954226E-2,3.6558812E-3,3.189001E-2,-6.308412E-2],"split_indices":[3,3,0,3,9,3,3,2,1,0,0,0,0,0,0,0,0],"split_type":[0,0,0,0,0,0,0,0,0,0,0,0,0,0,0,0,0],"sum_hessian":[1.6363676E3,1.6327664E3,3.6012602E0,1.617186E3,1.55802765E1,1.6068942E3,1.0291821E1,1.2590516E1,2.98976E0,1.5951996E3,1.169465E1,5.318256E0,4.973564E0,1.06879225E1,1.9025937E0,1.2475183E0,1.7422416E0],"tree_param":{"num_deleted":"0","num_feature":"11","num_nodes":"17","size_leaf_vector":"0"}},{"base_weights":[4.8801214E-3,1.188521E-1,-3.3905834E-2,-9.9211335E-2,2.7597624E-1,-8.288842E-1,-2.1098485E-2,5.914393E-1,-1.6709024E-1,-9.2335457E-1,3.0760613E-1,-3.5209173E-1,-1.2238953E0,9.936505E-1,-2.6231235E-2,1.448893E0,1.0142848E-1,-4.567268E-1,4.8581243E-2,-1.5944145E0,7.8844947E-1,2.694495E-1,1.1743429E0,-8.219E-1,4.3155873E-1,-5.182224E-1,-1.6373818E0,2.1970278E-1,1.1061779E0,-3.3585194E-1,-9.223704E-3],"categories":[],"categories_nodes":[],"categories_segments":[],"categories_sizes":[],"default_left":[1,1,1,1,1,1,1,1,1,1,1,1,1,1,1,0,0,0,0,0,0,0,0,0,0,0,0,0,0,0,0],"id":25,"left_children":[1,3,5,7,9,11,13,15,17,19,21,23,25,27,29,-1,-1,-1,-1,-1,-1,-1,-1,-1,-1,-1,-1,-1,-1,-1,-1],"loss_changes":[7.276739E0,1.4347638E1,1.2488202E1,8.338954E0,9.509077E0,3.2318668E0,6.3273563E0,6.5543485E0,1.0067966E1,8.722126E0,7.5441933E0,4.1157484E0,2.1371078E0,2.8947258E-1,6.340743E0,0E0,0E0,0E0,0E0,0E0,0E0,0E0,0E0,0E0,0E0,0E0,0E0,0E0,0E0,0E0,0E0],"parents":[2147483647,0,0,1,1,2,2,3,3,4,4,5,5,6,6,7,7,8,8,9,9,10,10,11,11,12,12,13,13,14,14],"right_children":[2,4,6,8,10,12,14,16,18,20,22,24,26,28,30,-1,-1,-1,-1,-1,-1,-1,-1,-1,-1,-1,-1,-1,-1,-1,-1],"split_conditions":[-1.107964E-3,-5.6174487E-1,-1.0315625E-3,8.2802045E-4,7.236905E-4,-1.0669576E-3,3.7129954E-4,-8.2572E-4,8.0454553E-4,8.783797E-1,2.0210766E-3,-1.0814485E-3,-8.145386E-4,7.746266E-4,5.2116043E-4,7.244465E-2,5.071424E-3,-2.283634E-2,2.4290623E-3,-7.972073E-2,3.9422475E-2,1.3472475E-2,5.8717143E-2,-4.1095E-2,2.1577938E-2,-2.591112E-2,-8.186909E-2,1.0985139E-2,5.5308897E-2,-1.6792597E-2,-4.611852E-4],"split_indices":[2,10,2,6,6,2,3,4,3,9,3,2,4,6,3,0,0,0,0,0,0,0,0,0,0,0,0,0,0,0,0],"split_type":[0,0,0,0,0,0,0,0,0,0,0,0,0,0,0,0,0,0,0,0,0,0,0,0,0,0,0,0,0,0,0],"sum_hessian":[1.6442188E3,4.169507E2,1.2272681E3,1.747684E2,2.421823E2,1.8447927E1,1.2088202E3,1.4949354E1,1.5981905E2,5.4985304E0,2.3668376E2,9.215652E0,9.232275E0,5.114372E0,1.2037058E3,4.7247725E0,1.0224582E1,6.773563E1,9.208343E1,3.9993038E0,1.4992269E0,2.2795912E2,8.724641E0,5.731023E0,3.4846296E0,4.2434797E0,4.9887953E0,1.0239853E0,4.0903864E0,6.1700787E1,1.142005E3],"tree_param":{"num_deleted":"0","num_feature":"11","num_nodes":"31","size_leaf_vector":"0"}},{"base_weights":[2.1639707E-2,2.875388E-2,-7.935546E-1,4.359908E-3,2.5403434E-1,-9.969612E-2,-1.3626113E0,1.922357E-2,-4.2693055E-1,1.6280337E-1,1.2276905E0,-1.1649219E0,4.945014E-1,-4.86154E-1,-1.5377781E0,4.0414322E-2,-3.5487968E-1,-5.068883E-1,9.619173E-1,9.2797124E-1,1.7324748E-2,-5.0406E-1,1.4859083E0,1.3314095E0,-6.459669E-1],"categories":[],"categories_nodes":[],"categories_segments":[],"categories_sizes":[],"default_left":[1,1,1,1,1,1,1,1,1,1,1,0,1,0,0,0,0,0,0,0,0,0,0,0,0],"id":26,"left_children":[1,3,5,7,9,11,13,15,17,19,21,-1,23,-1,-1,-1,-1,-1,-1,-1,-1,-1,-1,-1,-1],"loss_changes":[9.456256E0,8.865893E0,5.4344482E0,9.347611E0,1.3801768E1,5.282492E0,4.3024158E-1,1.1186608E1,5.8822517E0,1.6155376E1,6.7192936E0,0E0,6.0858917E0,0E0,0E0,0E0,0E0,0E0,0E0,0E0,0E0,0E0,0E0,0E0,0E0],"parents":[2147483647,0,0,1,1,2,2,3,3,4,4,5,5,6,6,7,7,8,8,9,9,10,10,12,12],"right_children":[2,4,6,8,10,12,14,16,18,20,22,-1,24,-1,-1,-1,-1,-1,-1,-1,-1,-1,-1,-1,-1],"split_conditions":[8.269852E-3,4.042634E-3,5.9952206E1,8.097835E1,1.8313187E-3,9.126617E-4,5.755559E-6,3.401219E-3,3.8186694E-3,4.2244396E-3,-1.813737E-3,-5.8246095E-2,1.1618093E-3,-2.43077E-2,-7.688891E-2,2.0207162E-3,-1.7743984E-2,-2.5344415E-2,4.8095863E-2,4.639856E-2,8.662374E-4,-2.5202999E-2,7.429542E-2,6.6570476E-2,-3.2298345E-2],"split_indices":[4,4,5,5,6,3,2,4,4,4,1,0,3,0,0,0,0,0,0,0,0,0,0,0,0],"split_type":[0,0,0,0,0,0,0,0,0,0,0,0,0,0,0,0,0,0,0,0,0,0,0,0,0],"sum_hessian":[1.6256138E3,1.6125062E3,1.3107559E1,1.455879E3,1.5662712E2,6.4356637E0,6.6718955E0,1.4082999E3,4.7579136E1,1.4427577E2,1.2351346E1,1.9605191E0,4.4751444E0,1.7401803E0,4.931715E0,1.3336486E3,7.465138E1,4.558952E1,1.9896152E0,2.2189234E1,1.2208655E2,1.4791673E0,1.0872178E1,2.484514E0,1.9906306E0],"tree_param":{"num_deleted":"0","num_feature":"11","num_nodes":"25","size_leaf_vector":"0"}},{"base_weights":[1.8581823E-2,1.229222E-2,5.9357494E-1,4.0293094E-2,-1.7316125E-1,8.8248026E-1,-7.115396E-1,-8.8668475E-3,2.7670753E-1,-4.197194E-1,5.04553E-2,1.0723593E-1,1.3133624E0,1.5820815E-1,-1.1387404E0,6.726365E-3,-4.7065076E-1,-4.7780716E-1,3.2668346E-1,-6.0384876E-1,1.1153548E-1,-7.8078634E-1,1.3528621E-1,9.11517E-1,-3.3338678E-1],"categories":[],"categories_nodes":[],"categories_segments":[],"categories_sizes":[],"default_left":[1,1,1,1,1,1,1,1,1,1,1,1,0,0,0,0,0,0,0,0,0,0,0,0,0],"id":27,"left_children":[1,3,5,7,9,11,13,15,17,19,21,23,-1,-1,-1,-1,-1,-1,-1,-1,-1,-1,-1,-1,-1],"loss_changes":[5.934507E0,8.451731E0,7.322995E0,1.6432735E1,1.1793289E1,4.864542E0,1.5816038E0,8.43745E0,9.333832E0,1.0011335E1,8.0639515E0,2.5868382E0,0E0,0E0,0E0,0E0,0E0,0E0,0E0,0E0,0E0,0E0,0E0,0E0,0E0],"parents":[2147483647,0,0,1,1,2,2,3,3,4,4,5,5,6,6,7,7,8,8,9,9,10,10,11,11],"right_children":[2,4,6,8,10,12,14,16,18,20,22,24,-1,-1,-1,-1,-1,-1,-1,-1,-1,-1,-1,-1,-1],"split_conditions":[2.8491507E-3,1.147781E-3,2.4255607E-3,9.731629E-4,-5.6174487E-1,-2.1694186E-1,-1.09715685E-2,5.5153077E-3,-7.0282975E-3,1.5564901E-3,-6.3758446E-3,-8.84838E-3,6.566812E-2,7.910407E-3,-5.693702E-2,3.3631825E-4,-2.3532538E-2,-2.389036E-2,1.6334174E-2,-3.0192439E-2,5.576774E-3,-3.9039318E-2,6.764311E-3,4.5575853E-2,-1.6669339E-2],"split_indices":[6,3,3,3,10,9,4,4,4,3,4,4,0,0,0,0,0,0,0,0,0,0,0,0,0],"split_type":[0,0,0,0,0,0,0,0,0,0,0,0,0,0,0,0,0,0,0,0,0,0,0,0,0],"sum_hessian":[1.6419803E3,1.6252241E3,1.675625E1,1.4127078E3,2.1251634E2,1.398443E1,2.7718196E0,1.1703153E3,2.4239249E2,1.0065635E2,1.1185999E2,5.442015E0,8.542416E0,1.1204116E0,1.6514078E0,1.1330409E3,3.727434E1,1.4525908E1,2.2786658E2,7.4647415E1,2.6008934E1,9.598837E0,1.02261154E2,1.5478956E0,3.8941195E0],"tree_param":{"num_deleted":"0","num_feature":"11","num_nodes":"25","size_leaf_vector":"0"}},{"base_weights":[1.7997118E-2,2.2569222E-2,-8.6346513E-1,-1.07425176E-1,5.3901725E-2,-1.2747526E0,4.7393036E-1,-8.31987E-3,-4.2474365E-1,-4.9277022E-2,9.951615E-2,8.406685E-2,-4.3544796E-1,-3.7830062E-2,-7.19429E-1,-2.8851506E-4,-4.864973E-1,1.0082355E0,8.9865535E-2],"categories":[],"categories_nodes":[],"categories_segments":[],"categories_sizes":[],"default_left":[1,1,1,1,1,0,0,1,1,1,1,0,0,0,0,0,0,0,0],"id":28,"left_children":[1,3,5,7,9,-1,-1,11,13,15,17,-1,-1,-1,-1,-1,-1,-1,-1],"loss_changes":[6.618103E0,6.6442223E0,5.2654896E0,9.961632E0,6.1890006E0,0E0,0E0,9.605251E0,8.569071E0,8.641933E0,7.902835E0,0E0,0E0,0E0,0E0,0E0,0E0,0E0,0E0],"parents":[2147483647,0,0,1,1,2,2,3,3,4,4,7,7,8,8,9,9,10,10],"right_children":[2,4,6,8,10,-1,-1,12,14,16,18,-1,-1,-1,-1,-1,-1,-1,-1],"split_conditions":[8.997189E1,-2.1694186E-1,2.7625738E-3,2.505645E-3,1.0286018E-3,-6.373763E-2,2.3696518E-2,1.7500264E-3,4.7396816E1,8.090629E-4,1.0347217E-3,4.203343E-3,-2.1772398E-2,-1.8915031E-3,-3.597145E-2,-1.4425753E-5,-2.4324866E-2,5.0411772E-2,4.493277E-3],"split_indices":[5,9,4,4,6,0,0,6,5,0,6,0,0,0,0,0,0,0,0],"split_type":[0,0,0,0,0,0,0,0,0,0,0,0,0,0,0,0,0,0,0],"sum_hessian":[1.6363173E3,1.628843E3,7.474341E0,3.1587808E2,1.3129648E3,5.7522106E0,1.7221302E0,2.4148378E2,7.4394295E1,4.0248135E2,9.104835E2,1.9920041E2,4.2283363E1,3.265179E1,4.1742508E1,3.6282874E2,3.9652622E1,8.4804E0,9.020031E2],"tree_param":{"num_deleted":"0","num_feature":"11","num_nodes":"19","size_leaf_vector":"0"}},{"base_weights":[7.458566E-3,-9.415719E-2,5.0365906E-2,-5.415435E-1,-5.306315E-2,-2.4132269E-2,1.6728798E-1,-2.4024217E-1,-1.1904505E0,5.1553667E-2,-2.2455768E-1,2.0582521E-1,-1.0470841E-1,2.0838164E-1,-8.077915E-1,-5.9095573E-1,5.822328E-1,2.3682898E-1,-1.5624285E0,6.446833E-1,-6.349015E-2,-4.2745394E-1,4.6572562E-2,2.5604686E-1,-1.0094501E0,-1.24337964E-1,7.2861016E-1,-2.3388037E-1,2.9036954E-1,-1.3163769E0,-5.649019E-2],"categories":[],"categories_nodes":[],"categories_segments":[],"categories_sizes":[],"default_left":[1,1,1,1,1,1,1,1,1,1,1,1,1,1,1,0,0,0,0,0,0,0,0,0,0,0,0,0,0,0,0],"id":29,"left_children":[1,3,5,7,9,11,13,15,17,19,21,23,25,27,29,-1,-1,-1,-1,-1,-1,-1,-1,-1,-1,-1,-1,-1,-1,-1,-1],"loss_changes":[7.1525345E0,8.925859E0,1.0049979E1,7.704006E0,8.034818E0,1.3090768E1,1.8158817E1,8.755573E0,7.115526E0,1.9049383E1,9.35128E0,1.1449196E1,8.6453285E0,1.5718494E1,6.941659E0,0E0,0E0,0E0,0E0,0E0,0E0,0E0,0E0,0E0,0E0,0E0,0E0,0E0,0E0,0E0,0E0],"parents":[2147483647,0,0,1,1,2,2,3,3,4,4,5,5,6,6,7,7,8,8,9,9,10,10,11,11,12,12,13,13,14,14],"right_children":[2,4,6,8,10,12,14,16,18,20,22,24,26,28,30,-1,-1,-1,-1,-1,-1,-1,-1,-1,-1,-1,-1,-1,-1,-1,-1],"split_conditions":[1.0164458E-3,-1.3832082E-3,6.078576E-1,9.598316E-4,2.0048442E-1,7.3972205E-4,7.965428E1,8.0231123E-4,2.1345264E1,7.0412667E-4,1.2198626E-3,5.50389E-3,2.0202473E-3,6.613843E-4,2.816326E-3,-2.9547786E-2,2.9111639E-2,1.1841449E-2,-7.812142E-2,3.2234166E-2,-3.1745078E-3,-2.1372696E-2,2.3286282E-3,1.2802343E-2,-5.0472505E-2,-6.216898E-3,3.6430508E-2,-1.1694019E-2,1.4518477E-2,-6.5818846E-2,-2.8245095E-3],"split_indices":[6,1,9,6,10,3,5,3,5,6,4,4,3,3,4,0,0,0,0,0,0,0,0,0,0,0,0,0,0,0,0],"split_type":[0,0,0,0,0,0,0,0,0,0,0,0,0,0,0,0,0,0,0,0,0,0,0,0,0,0,0,0,0,0,0],"sum_hessian":[1.6383787E3,4.8606226E2,1.1523164E3,3.986611E1,4.4619614E2,7.043352E2,4.4798123E2,2.8160719E1,1.1705392E1,2.7756967E2,1.6862646E2,1.8235503E2,5.2198016E2,4.3061954E2,1.7361696E1,1.9939682E1,8.221038E0,2.4950826E0,9.21031E0,4.4343708E1,2.3322597E2,9.6119965E1,7.25065E1,1.7587619E2,6.47883E0,5.1079868E2,1.1181519E1,6.705523E1,3.635643E2,9.904691E0,7.457006E0],"tree_param":{"num_deleted":"0","num_feature":"11","num_nodes":"31","size_leaf_vector":"0"}},{"base_weights":[6.8716737E-3,4.144668E-5,7.179478E-1,5.9345104E-3,-6.603077E-1,9.003469E-1,-8.3098006E-1,-1.8691478E-2,2.2880523E-1,-8.875636E-2,-1.3502638E0,1.9528726E-1,1.2008177E0,3.0448817E-4,-3.7416208E-1,8.7149036E-1,1.1401369E-1,-7.7726805E-1,1.076727E0,9.041263E-1,-3.1311902E-1,3.2489362E-1,1.274746E0],"categories":[],"categories_nodes":[],"categories_segments":[],"categories_sizes":[],"default_left":[1,1,1,1,1,1,0,1,1,1,0,1,1,0,0,0,0,0,0,0,0,0,0],"id":30,"left_children":[1,3,5,7,9,11,-1,13,15,17,-1,19,21,-1,-1,-1,-1,-1,-1,-1,-1,-1,-1],"loss_changes":[7.87628E0,6.258596E0,5.1072125E0,8.753076E0,5.489963E0,2.7914486E0,0E0,9.699182E0,1.160751E1,7.939199E0,0E0,2.25162E0,2.218113E-1,0E0,0E0,0E0,0E0,0E0,0E0,0E0,0E0,0E0,0E0],"parents":[2147483647,0,0,1,1,2,2,3,3,4,4,5,5,7,7,8,8,9,9,11,11,12,12],"right_children":[2,4,6,8,10,12,-1,14,16,18,-1,20,22,-1,-1,-1,-1,-1,-1,-1,-1,-1,-1],"split_conditions":[2.8523952E-3,8.232426E-3,2.513776E-3,4.0354272E-3,6.756668E1,-2.1694186E-1,-4.1549005E-2,3.401219E-3,4.2244396E-3,-5.213409E-4,-6.751319E-2,-8.789627E-3,-9.657788E-3,1.5224409E-5,-1.8708104E-2,4.357452E-2,5.7006846E-3,-3.88634E-2,5.3836353E-2,4.5206316E-2,-1.5655952E-2,1.6244682E-2,6.3737296E-2],"split_indices":[6,4,3,4,5,9,0,4,4,2,0,4,4,0,0,0,0,0,0,0,0,0,0],"split_type":[0,0,0,0,0,0,0,0,0,0,0,0,0,0,0,0,0,0,0,0,0,0,0],"sum_hessian":[1.6207039E3,1.6062749E3,1.4428982E1,1.5930492E3,1.3225619E1,1.3283472E1,1.1455101E0,1.4353654E3,1.5768385E2,7.8507733E0,5.3748455E0,4.462375E0,8.821096E0,1.3635005E3,7.186485E1,2.2897171E1,1.3478668E2,5.1446533E0,2.7061205E0,1.5387036E0,2.9236717E0,1.1064347E0,7.714662E0],"tree_param":{"num_deleted":"0","num_feature":"11","num_nodes":"23","size_leaf_vector":"0"}},{"base_weights":[5.3351764E-3,1.1027373E-2,-6.2393063E-1,-1.0175433E-2,2.0842503E-1,-4.7417797E-2,-1.3253877E0,-1.5628801E-3,-7.7840394E-1,9.736561E-1,7.576361E-2,-1.1639919E0,4.7288877E-1,1.5365295E-2,-3.084457E-1,-2.5754246E-1,-1.1770971E0,-2.290194E-1,1.1994094E0,-5.7448532E-2,1.209755E0,-6.842403E-1,1.1723998E0],"categories":[],"categories_nodes":[],"categories_segments":[],"categories_sizes":[],"default_left":[1,1,1,1,1,1,0,1,1,1,1,0,1,0,0,0,0,0,0,0,0,0,0],"id":31,"left_children":[1,3,5,7,9,11,-1,13,15,17,19,-1,21,-1,-1,-1,-1,-1,-1,-1,-1,-1,-1],"loss_changes":[5.8542047E0,6.7774625E0,5.8623548E0,9.676931E0,1.5870485E1,5.8251443E0,0E0,7.5246334E0,3.0641098E0,6.552202E0,2.0453657E1,0E0,6.390794E0,0E0,0E0,0E0,0E0,0E0,0E0,0E0,0E0,0E0,0E0],"parents":[2147483647,0,0,1,1,2,2,3,3,4,4,5,5,7,7,8,8,9,9,10,10,12,12],"right_children":[2,4,6,8,10,12,-1,14,16,18,20,-1,22,-1,-1,-1,-1,-1,-1,-1,-1,-1,-1],"split_conditions":[8.269852E-3,4.0354272E-3,6.756668E1,8.705464E1,4.2244396E-3,9.126617E-4,-6.626939E-2,3.3966026E-3,7.5330737E-4,9.2626526E-4,1.8313187E-3,-5.8199596E-2,6.078576E-1,7.6826476E-4,-1.5422285E-2,-1.2877123E-2,-5.8854856E-2,-1.1450971E-2,5.997047E-2,-2.8724268E-3,6.0487747E-2,-3.4212016E-2,5.8619987E-2],"split_indices":[4,4,5,5,4,3,0,4,3,6,6,0,9,0,0,0,0,0,0,0,0,0,0],"split_type":[0,0,0,0,0,0,0,0,0,0,0,0,0,0,0,0,0,0,0,0,0,0,0],"sum_hessian":[1.6314619E3,1.61781E3,1.3651871E1,1.4617496E3,1.5606047E2,8.079279E0,5.5725913E0,1.4465347E3,1.5214958E1,2.2120922E1,1.3393954E2,2.1748784E0,5.904401E0,1.371813E3,7.4721596E1,7.3104253E0,7.904533E0,3.4937723E0,1.862715E1,1.2070897E2,1.3230576E1,2.2327774E0,3.6716235E0],"tree_param":{"num_deleted":"0","num_feature":"11","num_nodes":"23","size_leaf_vector":"0"}},{"base_weights":[2.1884857E-2,1.3345986E-2,4.7775072E-1,1.2458557E-1,-2.4385735E-2,-4.3904725E-2,9.864362E-1,9.5172636E-2,1.0475829E0,1.3565453E-2,-3.077992E-1,6.8701106E-1,-1.1801049E0,1.1999366E0,-5.1471585E-1,2.2099372E-2,4.046189E-1,1.2790196E0,-1.3790312E-1,-6.9163245E-1,2.5016658E-2,-7.9333407E-1,-1.7206466E-1,9.7888637E-1,-5.565417E-1,-1.4478655E0,-1.0205338E-1,1.3819846E0,6.867889E-2],"categories":[],"categories_nodes":[],"categories_segments":[],"categories_sizes":[],"default_left":[1,1,1,1,1,1,1,1,1,1,1,1,1,1,0,0,0,0,0,0,0,0,0,0,0,0,0,0,0],"id":32,"left_children":[1,3,5,7,9,11,13,15,17,19,21,23,25,27,-1,-1,-1,-1,-1,-1,-1,-1,-1,-1,-1,-1,-1,-1,-1],"loss_changes":[6.3497834E0,6.73501E0,8.002671E0,1.093331E1,1.28950405E1,1.390386E1,5.4984007E0,8.921782E0,3.5924492E0,8.560378E0,9.19397E0,4.2564983E0,1.7400246E0,2.712656E0,0E0,0E0,0E0,0E0,0E0,0E0,0E0,0E0,0E0,0E0,0E0,0E0,0E0,0E0,0E0],"parents":[2147483647,0,0,1,1,2,2,3,3,4,4,5,5,6,6,7,7,8,8,9,9,10,10,11,11,12,12,13,13],"right_children":[2,4,6,8,10,12,14,16,18,20,22,24,26,28,-1,-1,-1,-1,-1,-1,-1,-1,-1,-1,-1,-1,-1,-1,-1],"split_conditions":[2.5380645E-3,-1.108535E-3,2.1694186E-1,1.6676066E-3,1.1239252E-3,-4.852934E-3,7.227812E1,8.783797E-1,2.2409926E-3,-1.0315625E-3,-2.1694186E-1,4.795544E-3,2.1197004E-3,1.9258958E-3,-2.5735794E-2,1.1049686E-3,2.0230945E-2,6.395098E-2,-6.895156E-3,-3.4581624E-2,1.2508329E-3,-3.9666705E-2,-8.603233E-3,4.894432E-2,-2.7827084E-2,-7.2393276E-2,-5.1026694E-3,6.909923E-2,3.4339447E-3],"split_indices":[6,2,9,3,3,4,5,9,4,2,9,1,1,3,0,0,0,0,0,0,0,0,0,0,0,0,0,0,0],"split_type":[0,0,0,0,0,0,0,0,0,0,0,0,0,0,0,0,0,0,0,0,0,0,0,0,0,0,0,0,0],"sum_hessian":[1.6318912E3,1.6028965E3,2.8994747E1,4.054015E2,1.197495E3,1.4765973E1,1.4228773E1,3.9395068E2,1.1450817E1,1.0569178E3,1.405771E2,9.22615E0,5.5398245E0,1.2632744E1,1.5960287E0,3.1956046E2,7.4390236E1,9.514457E0,1.9363601E0,1.5939187E1,1.0409786E3,2.9654713E1,1.1092239E2,7.6446886E0,1.5814604E0,4.1628413E0,1.376983E0,1.0690704E1,1.94204E0],"tree_param":{"num_deleted":"0","num_feature":"11","num_nodes":"29","size_leaf_vector":"0"}},{"base_weights":[6.5822187E-3,1.2864597E-1,-2.8134085E-2,3.916459E-1,4.2627577E-2,-3.592604E-2,7.090126E-1,7.375607E-1,1.3640235E-1,-6.878019E-1,6.799572E-2,1.1040752E0,-4.0967062E-2,8.611513E-1,-5.335882E-1,1.0930462E0,4.298819E-1,4.0695366E-1,-2.0221129E-1,-1.0176219E0,3.0083135E-1,-3.2396603E-2,2.681775E-1,5.4981285E-1,-4.8910983E-2,9.65598E-1,-9.483737E-2],"categories":[],"categories_nodes":[],"categories_segments":[],"categories_sizes":[],"default_left":[1,1,1,1,1,1,1,1,1,1,1,0,1,1,0,0,0,0,0,0,0,0,0,0,0,0,0],"id":33,"left_children":[1,3,5,7,9,11,13,15,17,19,21,-1,23,25,-1,-1,-1,-1,-1,-1,-1,-1,-1,-1,-1,-1,-1],"loss_changes":[6.8921347E0,8.130566E0,7.2996383E0,7.7252817E0,5.096066E0,7.252483E0,2.9728808E0,3.6214848E0,4.8671327E0,3.3178234E0,5.3194895E0,0E0,5.891321E0,1.3124714E0,0E0,0E0,0E0,0E0,0E0,0E0,0E0,0E0,0E0,0E0,0E0,0E0,0E0],"parents":[2147483647,0,0,1,1,2,2,3,3,4,4,5,5,6,6,7,7,8,8,9,9,10,10,12,12,13,13],"right_children":[2,4,6,8,10,12,14,16,18,20,22,-1,24,26,-1,-1,-1,-1,-1,-1,-1,-1,-1,-1,-1,-1,-1],"split_conditions":[-5.120428E-4,-6.035534E-1,2.7689505E-3,-4.5876007E-4,-7.2368337E-3,3.6831584E-4,3.4138705E-3,3.699891E1,8.466962E-4,1.6768252E-3,-7.6585007E-4,5.5203762E-2,1.5151648E1,7.103815E1,-2.667941E-2,5.465231E-2,2.1494096E-2,2.0347683E-2,-1.01105645E-2,-5.0881095E-2,1.5041567E-2,-1.6198301E-3,1.3408876E-2,2.7490644E-2,-2.4455492E-3,4.82799E-2,-4.7418685E-3],"split_indices":[0,7,6,4,4,3,6,5,3,3,0,0,5,5,0,0,0,0,0,0,0,0,0,0,0,0,0],"split_type":[0,0,0,0,0,0,0,0,0,0,0,0,0,0,0,0,0,0,0,0,0,0,0,0,0,0,0],"sum_hessian":[1.6245691E3,3.5913437E2,1.2654347E3,8.7635895E1,2.7149847E2,1.2531398E3,1.229496E1,3.640668E1,5.1229214E1,8.236303E0,2.6326218E2,4.557097E0,1.2485826E3,1.1227313E1,1.0676471E0,1.5706811E1,2.0699871E1,2.8364353E1,2.2864859E1,6.1539497E0,2.0823538E0,1.7589032E2,8.737185E1,1.566127E1,1.2329214E3,1.0112426E1,1.1148868E0],"tree_param":{"num_deleted":"0","num_feature":"11","num_nodes":"27","size_leaf_vector":"0"}},{"base_weights":[1.7242455E-4,9.622883E-1,-3.5039382E-3,2.7952987E-1,1.0651482E0,-4.1600723E-2,9.133235E-2,-5.7006497E-2,3.2267144E-1,2.992753E-1,-9.751193E-2,-1.6813867E-2,-2.2371036E-1,4.711528E-1,-8.476269E-1,2.3450509E-1,9.6834624E-1,-3.3493695E-1,9.906183E-2],"categories":[],"categories_nodes":[],"categories_segments":[],"categories_sizes":[],"default_left":[1,1,1,0,0,1,1,1,1,1,1,0,0,0,0,0,0,0,0],"id":34,"left_children":[1,3,5,-1,-1,7,9,11,13,15,17,-1,-1,-1,-1,-1,-1,-1,-1],"loss_changes":[5.788464E0,1.3974667E-1,5.894089E0,0E0,0E0,6.5494184E0,1.8388979E1,7.4831886E0,8.631016E0,9.426594E0,1.1503963E1,0E0,0E0,0E0,0E0,0E0,0E0,0E0,0E0],"parents":[2147483647,0,0,1,1,2,2,5,5,6,6,7,7,8,8,9,9,10,10],"right_children":[2,4,6,-1,-1,8,10,12,14,16,18,-1,-1,-1,-1,-1,-1,-1,-1],"split_conditions":[3.6831584E-4,7.9778896E-4,9.7249786E-4,1.3976494E-2,5.3257413E-2,1.3427364E-3,1.1233411E-3,8.4264216E-4,8.02637E1,1.101239E-3,-5.6174487E-1,-8.4069336E-4,-1.11855185E-2,2.355764E-2,-4.2381346E-2,1.1725254E-2,4.841731E-2,-1.6746847E-2,4.9530915E-3],"split_indices":[3,6,3,0,0,0,3,3,5,3,10,0,0,0,0,0,0,0,0],"split_type":[0,0,0,0,0,0,0,0,0,0,0,0,0,0,0,0,0,0,0],"sum_hessian":[1.6345529E3,5.229486E0,1.6293234E3,1.1714271E0,4.058059E0,1.1627822E3,4.6654108E2,1.1164105E3,4.6371655E1,2.2176416E2,2.4477692E2,9.004187E2,2.1599185E2,4.1680817E1,4.690837E0,2.0342213E2,1.834203E1,1.10549515E2,1.342274E2],"tree_param":{"num_deleted":"0","num_feature":"11","num_nodes":"19","size_leaf_vector":"0"}},{"base_weights":[1.9598031E-2,2.464574E-3,2.5440902E-1,7.572806E-2,-8.022343E-2,4.0464455E-1,-7.29246E-1,6.5208055E-2,8.8378745E-1,-2.3220041E-1,1.0128443E-2,5.3704214E-1,-9.3961254E-2,-1.1781805E0,4.3947378E-1,7.290122E-2,-1.0810643E0,1.3368411E0,-6.666341E-1,5.4640383E-2,-5.8946365E-1,-2.4246986E-1,6.612831E-2,6.5786797E-1,-2.2810693E-1,-5.562842E-1,9.602543E-1,-1.2913609E0,-1.3401724E-1,7.5652754E-1,-2.8063923E-1],"categories":[],"categories_nodes":[],"categories_segments":[],"categories_sizes":[],"default_left":[1,1,1,1,1,1,1,1,1,1,1,1,1,1,1,0,0,0,0,0,0,0,0,0,0,0,0,0,0,0,0],"id":35,"left_children":[1,3,5,7,9,11,13,15,17,19,21,23,25,27,29,-1,-1,-1,-1,-1,-1,-1,-1,-1,-1,-1,-1,-1,-1,-1,-1],"loss_changes":[6.559955E0,9.219289E0,1.6681969E1,6.8015203E0,9.819585E0,6.4431534E0,8.413621E0,7.112361E0,8.119158E0,2.7353645E1,6.3721433E0,7.238039E0,1.0852055E1,1.1439419E0,1.3321321E0,0E0,0E0,0E0,0E0,0E0,0E0,0E0,0E0,0E0,0E0,0E0,0E0,0E0,0E0,0E0,0E0],"parents":[2147483647,0,0,1,1,2,2,3,3,4,4,5,5,6,6,7,7,8,8,9,9,10,10,11,11,12,12,13,13,14,14],"right_children":[2,4,6,8,10,12,14,16,18,20,22,24,26,28,30,-1,-1,-1,-1,-1,-1,-1,-1,-1,-1,-1,-1,-1,-1,-1,-1],"split_conditions":[3.1339386E-3,2.8709133E-5,8.3716286E1,2.0054223E-3,2.1694186E-1,1.2940952E-1,8.117449E-1,1.7849028E-3,-2.18652E-3,8.0082833E-4,6.2510517E-4,3.4357235E-3,1.7578416E-3,7.014284E-3,5.6629097E-3,3.645061E-3,-5.4053217E-2,6.684206E-2,-3.3331703E-2,2.7320192E-3,-2.9473184E-2,-1.21234935E-2,3.3064156E-3,3.28934E-2,-1.1405347E-2,-2.781421E-2,4.8012715E-2,-6.456804E-2,-6.700862E-3,3.7826378E-2,-1.4031962E-2],"split_indices":[2,2,5,3,9,8,10,3,2,3,3,4,4,4,2,0,0,0,0,0,0,0,0,0,0,0,0,0,0,0,0],"split_type":[0,0,0,0,0,0,0,0,0,0,0,0,0,0,0,0,0,0,0,0,0,0,0,0,0,0,0,0,0,0,0],"sum_hessian":[1.6297183E3,1.5198312E3,1.0988706E2,8.058837E2,7.1394745E2,9.583814E1,1.4048914E1,7.965937E2,9.290041E0,2.6560867E2,4.4833878E2,7.56684E1,2.0169743E1,1.0144185E1,3.9047291E0,7.922132E2,4.3805075E0,7.295852E0,1.9941884E0,1.4779419E2,1.17814476E2,8.075369E1,3.6758508E2,6.547013E1,1.0198274E1,1.4349248E1,5.820494E0,8.938561E0,1.2056236E0,2.6759744E0,1.2287548E0],"tree_param":{"num_deleted":"0","num_feature":"11","num_nodes":"31","size_leaf_vector":"0"}},{"base_weights":[-3.9355615E-3,5.948747E-1,-9.347516E-3,1.1340643E0,-6.142646E-1,-5.861012E-1,2.881689E-3,1.2696747E0,2.229345E-1,4.3046576E-1,-1.0352902E0,1.9989659E-1,-9.6309656E-1,2.3118784E-1,-2.2440342E-2,-2.7300066E-1,1.103373E0,-1.1977605E0,5.617963E-1,7.4882746E-1,1.4924823E-1,5.1402235E-1,-2.9658716E-2],"categories":[],"categories_nodes":[],"categories_segments":[],"categories_sizes":[],"default_left":[1,1,1,1,1,1,1,0,0,0,0,1,1,1,1,0,0,0,0,0,0,0,0],"id":36,"left_children":[1,3,5,7,9,11,13,-1,-1,-1,-1,15,17,19,21,-1,-1,-1,-1,-1,-1,-1,-1],"loss_changes":[5.2605906E0,1.017577E1,1.1343411E1,1.0028038E0,2.7033186E0,1.0087318E1,9.114145E0,0E0,0E0,0E0,0E0,5.279827E0,8.810089E0,6.5642824E0,5.51104E0,0E0,0E0,0E0,0E0,0E0,0E0,0E0,0E0],"parents":[2147483647,0,0,1,1,2,2,3,3,4,4,5,5,6,6,11,11,12,12,13,13,14,14],"right_children":[2,4,6,8,10,12,14,-1,-1,-1,-1,16,18,20,22,-1,-1,-1,-1,-1,-1,-1,-1],"split_conditions":[-8.901307E-3,5.9295532E1,-7.0282975E-3,-9.140295E-3,1.8555482E-3,3.501837E1,-3.7257245E-3,6.348374E-2,1.1146725E-2,2.1523288E-2,-5.1764514E-2,1.9268922E-3,6.4242386E1,7.029207E-4,4.3532695E-4,-1.3650033E-2,5.5168655E-2,-5.9888024E-2,2.8089816E-2,3.7441373E-2,7.4624117E-3,2.5701119E-2,-1.4829359E-3],"split_indices":[4,5,4,4,3,5,4,0,0,0,0,6,5,3,3,0,0,0,0,0,0,0,0],"split_type":[0,0,0,0,0,0,0,0,0,0,0,0,0,0,0,0,0,0,0,0,0,0,0],"sum_hessian":[1.6205558E3,1.3539574E1,1.6070162E3,9.406871E0,4.1327024E0,3.239255E1,1.5746237E3,7.84563E0,1.5612409E0,1.1806421E0,2.95206E0,1.0652634E1,2.1739918E1,1.5639746E2,1.4182262E3,7.4506507E0,3.2019832E0,1.9026484E1,2.7134342E0,2.0261307E1,1.3613615E2,1.789741E1,1.4003287E3],"tree_param":{"num_deleted":"0","num_feature":"11","num_nodes":"23","size_leaf_vector":"0"}},{"base_weights":[6.5966477E-3,1.2321928E-2,-6.0308766E-1,-1.07127145E-1,4.0833145E-2,-8.0880463E-1,9.7899806E-1,-3.2388687E-3,-4.5218092E-1,1.3346071E-2,2.502344E-1,-3.1526197E-2,-1.4223604E0,1.2454109E-1,-2.0676406E-1,-5.948279E-1,2.8933787E-1,-1.1544883E-1,7.491719E-2,1.7762348E-1,1.1861265E0,-1.0831763E0,6.137185E-1],"categories":[],"categories_nodes":[],"categories_segments":[],"categories_sizes":[],"default_left":[1,1,1,1,1,1,0,1,1,1,1,1,0,0,0,0,0,0,0,0,0,0,0],"id":37,"left_children":[1,3,5,7,9,11,-1,13,15,17,19,21,-1,-1,-1,-1,-1,-1,-1,-1,-1,-1,-1],"loss_changes":[5.710504E0,5.520185E0,5.74531E0,1.11959715E1,7.5266895E0,6.6395245E0,0E0,6.2956543E0,7.8172026E0,9.187677E0,1.0101252E1,5.554414E0,0E0,0E0,0E0,0E0,0E0,0E0,0E0,0E0,0E0,0E0,0E0],"parents":[2147483647,0,0,1,1,2,2,3,3,4,4,5,5,7,7,8,8,9,9,10,10,11,11],"right_children":[2,4,6,8,10,12,-1,14,16,18,20,22,-1,-1,-1,-1,-1,-1,-1,-1,-1,-1,-1],"split_conditions":[8.269852E-3,-2.1694186E-1,2.0800526E-3,2.505645E-3,3.7674184E-3,1.6059186E-3,4.8949905E-2,1.376623E-3,4.8210984E-3,1.0465919E-3,1.9272171E-3,1.0360393E-3,-7.111802E-2,6.2270546E-3,-1.0338203E-2,-2.9741395E-2,1.4466894E-2,-5.7724416E-3,3.7458595E-3,8.881174E-3,5.9306324E-2,-5.4158814E-2,3.0685926E-2],"split_indices":[4,9,6,4,4,6,0,6,4,6,6,6,0,0,0,0,0,0,0,0,0,0,0],"split_type":[0,0,0,0,0,0,0,0,0,0,0,0,0,0,0,0,0,0,0,0,0,0,0],"sum_hessian":[1.6328313E3,1.6186115E3,1.4219885E1,3.1136713E2,1.3072443E3,1.3016177E1,1.2037069E0,2.4009044E2,7.127668E1,1.1565E3,1.5074434E2,6.205796E0,6.810382E0,1.4772917E2,9.236126E1,5.9943157E1,1.1333521E1,3.7377008E2,7.827299E2,1.4099506E2,9.749272E0,2.1016772E0,4.1041183E0],"tree_param":{"num_deleted":"0","num_feature":"11","num_nodes":"23","size_leaf_vector":"0"}},{"base_weights":[1.3435732E-2,1.0854716E0,9.595937E-3,1.3546635E-1,-2.403825E-2,1.5158404E-1,-8.9281523E-1,-1.7970133E-1,1.3564106E-2,1.05560385E-1,7.48525E-1,-2.3452581E-1,-1.1045206E0,-1.4823122E-1,-1.3900036E0,9.031145E-2,-9.843485E-2],"categories":[],"categories_nodes":[],"categories_segments":[],"categories_sizes":[],"default_left":[1,0,1,1,1,1,1,1,1,0,0,0,0,0,0,0,0],"id":38,"left_children":[1,-1,3,5,7,9,11,13,15,-1,-1,-1,-1,-1,-1,-1,-1],"loss_changes":[6.732517E0,0E0,6.9176145E0,5.8456492E0,7.5513506E0,9.264193E0,5.022087E-1,9.353967E0,8.945672E0,0E0,0E0,0E0,0E0,0E0,0E0,0E0,0E0],"parents":[2147483647,0,0,2,2,3,3,4,4,5,5,6,6,7,7,8,8],"right_children":[2,-1,4,6,8,10,12,14,16,-1,-1,-1,-1,-1,-1,-1,-1],"split_conditions":[3.6831584E-4,5.4273583E-2,-2.4017403E-3,2.4255607E-3,-2.1694186E-1,2.352388E-3,5.808506E1,2.1838294E-3,2.9123935E-4,5.2780192E-3,3.7426252E-2,-1.1726291E-2,-5.5226028E-2,-7.4115614E-3,-6.950018E-2,4.515573E-3,-4.9217427E-3],"split_indices":[3,0,4,3,9,6,5,6,1,0,0,0,0,0,0,0,0],"split_type":[0,0,0,0,0,0,0,0,0,0,0,0,0,0,0,0,0],"sum_hessian":[1.6370669E3,4.837332E0,1.6322296E3,3.4354422E2,1.2886854E3,3.390819E2,4.462319E0,2.4999559E2,1.0386898E3,3.159029E2,2.3179018E1,1.5987773E0,2.8635418E0,2.44754E2,5.2415867E0,6.1645636E2,4.2223343E2],"tree_param":{"num_deleted":"0","num_feature":"11","num_nodes":"17","size_leaf_vector":"0"}},{"base_weights":[-5.354055E-3,5.381579E-1,-1.1971275E-2,8.013651E-1,-8.823591E-1,-3.226104E-1,2.1903045E-3,9.527363E-1,-6.397415E-1,8.328997E-1,-4.1886264E-1,6.690145E-1,-5.994297E-3,4.95233E-2,1.2902651E0,-1.206193E-1,1.2790422E0,-5.08753E-1,8.548442E-1,1.2355014E0,1.3287261E-1,-2.4543602E-2,2.3140126E-1],"categories":[],"categories_nodes":[],"categories_segments":[],"categories_sizes":[],"default_left":[1,1,1,1,0,1,1,1,0,1,1,1,1,0,0,0,0,0,0,0,0,0,0],"id":39,"left_children":[1,3,5,7,-1,9,11,13,-1,15,17,19,21,-1,-1,-1,-1,-1,-1,-1,-1,-1,-1],"loss_changes":[5.869741E0,8.047059E0,7.0904965E0,4.3367977E0,0E0,8.164905E0,8.421708E0,4.772443E0,0E0,2.5953858E0,7.9384804E0,5.5184517E0,6.719488E0,0E0,0E0,0E0,0E0,0E0,0E0,0E0,0E0,0E0,0E0],"parents":[2147483647,0,0,1,1,2,2,3,3,5,5,6,6,7,7,9,9,10,10,11,11,12,12],"right_children":[2,4,6,8,-1,10,12,14,-1,16,18,20,22,-1,-1,-1,-1,-1,-1,-1,-1,-1,-1],"split_conditions":[4.359297E-4,9.159756E-1,5.2725157E-4,1.4390781E-3,-4.4117954E-2,-1.2837264E-3,6.377655E-4,-3.098601E-4,-3.1987075E-2,1.0547561E-3,7.8811724E-4,1.2940952E-1,3.1339386E-3,2.476165E-3,6.451326E-2,-6.030965E-3,6.395211E-2,-2.5437651E-2,4.274221E-2,6.177507E-2,6.6436306E-3,-1.2271801E-3,1.1570063E-2],"split_indices":[3,8,3,1,0,1,6,1,0,6,0,8,2,0,0,0,0,0,0,0,0,0,0],"split_type":[0,0,0,0,0,0,0,0,0,0,0,0,0,0,0,0,0,0,0,0,0,0,0],"sum_hessian":[1.6292617E3,1.863134E1,1.6106304E3,1.6086535E1,2.544806E0,6.927516E1,1.5413552E3,1.48641205E1,1.2224146E0,4.7383127E0,6.453685E1,1.771021E1,1.523645E3,4.355557E0,1.0508563E1,1.7429115E0,2.9954016E0,6.0843468E1,3.6933851E0,7.977143E0,9.733068E0,1.4140522E3,1.0959276E2],"tree_param":{"num_deleted":"0","num_feature":"11","num_nodes":"23","size_leaf_vector":"0"}},{"base_weights":[-4.0337145E-3,1.226891E-1,-3.9984696E-2,3.4670925E-1,3.766455E-2,6.628586E-1,-4.9743734E-2,1.775934E-1,1.0767471E0,-6.347073E-1,6.592784E-2,-9.071056E-3,1.0989572E0,-4.5071945E-2,-1.3453392E0,7.69676E-1,-8.204634E-2,1.2709714E0,3.736319E-2,-1.040811E0,-9.737878E-2,3.5828525E-1,-5.2703053E-2,7.230252E-1,-1.0240744E0,1.1865318E-1,1.2134465E0,-3.3061072E-1,-2.4392463E-2],"categories":[],"categories_nodes":[],"categories_segments":[],"categories_sizes":[],"default_left":[1,1,1,1,1,1,1,1,1,1,1,1,1,1,0,0,0,0,0,0,0,0,0,0,0,0,0,0,0],"id":40,"left_children":[1,3,5,7,9,11,13,15,17,19,21,23,25,27,-1,-1,-1,-1,-1,-1,-1,-1,-1,-1,-1,-1,-1,-1,-1],"loss_changes":[7.4983544E0,6.915363E0,8.826733E0,1.2149099E1,5.0738935E0,5.1753287E0,7.5987196E0,1.2722846E1,3.7077694E0,2.2500615E0,8.863673E0,6.632818E0,1.0566883E0,7.443327E0,0E0,0E0,0E0,0E0,0E0,0E0,0E0,0E0,0E0,0E0,0E0,0E0,0E0,0E0,0E0],"parents":[2147483647,0,0,1,1,2,2,3,3,4,4,5,5,6,6,7,7,8,8,9,9,10,10,11,11,12,12,13,13],"right_children":[2,4,6,8,10,12,14,16,18,20,22,24,26,28,-1,-1,-1,-1,-1,-1,-1,-1,-1,-1,-1,-1,-1,-1,-1],"split_conditions":[-5.080245E-4,3.2799065E1,1.561838E1,2.0571544E-3,-6.9844685E-3,-2.738094E-3,5.3550308E-3,-3.7940952E-1,3.0767128E1,4.6414448E1,-1.1475811E-3,6.123234E-17,-2.696528E-3,2.7664734E1,-6.726696E-2,3.8483802E-2,-4.102317E-3,6.354857E-2,1.8681595E-3,-5.2040547E-2,-4.868939E-3,1.7914264E-2,-2.6351528E-3,3.615126E-2,-5.1203724E-2,5.932659E-3,6.0672324E-2,-1.6530536E-2,-1.2196231E-3],"split_indices":[0,5,5,4,4,4,1,7,5,5,4,7,1,5,0,0,0,0,0,0,0,0,0,0,0,0,0,0,0],"split_type":[0,0,0,0,0,0,0,0,0,0,0,0,0,0,0,0,0,0,0,0,0,0,0,0,0,0,0,0,0],"sum_hessian":[1.6438116E3,3.627499E2,1.2810618E3,9.895321E1,2.637967E2,1.6627556E1,1.2644342E3,8.135118E1,1.7602022E1,9.775873E0,2.5402083E2,6.9296784E0,9.697876E0,1.2609222E3,3.5119734E0,2.420033E1,5.7150852E1,1.4642956E1,2.9590666E0,5.0341434E0,4.7417297E0,7.2739456E1,1.8128137E2,4.193021E0,2.7366579E0,1.227123E0,8.470754E0,8.414028E1,1.176782E3],"tree_param":{"num_deleted":"0","num_feature":"11","num_nodes":"29","size_leaf_vector":"0"}},{"base_weights":[1.0354226E-2,1.9442538E-2,-4.0758896E-1,-2.141479E-3,2.6863146E-1,2.4479091E-1,-9.075948E-1,6.515737E-2,-8.097677E-2,4.8410672E-1,-1.2847343E-1,-1.2244333E-1,1.2231847E0,-1.2430179E0,1.7452575E-1,5.7399377E-2,1.4361465E0,5.331374E-1,-9.4345905E-2,5.195671E-1,-8.783572E-1,1.1119447E0,-2.2417784E-1,-4.4223914E-1,1.0470918E0,-5.223619E-1,-1.3552641E0,-4.233351E-1,7.5550956E-1],"categories":[],"categories_nodes":[],"categories_segments":[],"categories_sizes":[],"default_left":[1,1,1,1,1,1,1,1,1,1,1,1,0,1,1,0,0,0,0,0,0,0,0,0,0,0,0,0,0],"id":41,"left_children":[1,3,5,7,9,11,13,15,17,19,21,23,-1,25,27,-1,-1,-1,-1,-1,-1,-1,-1,-1,-1,-1,-1,-1,-1],"loss_changes":[6.248504E0,8.654249E0,1.1642759E1,7.8663554E0,1.1036978E1,5.890917E0,7.488268E0,8.425163E0,5.656206E0,4.4835186E0,5.698933E0,5.1483116E0,0E0,5.390625E-1,2.2709322E0,0E0,0E0,0E0,0E0,0E0,0E0,0E0,0E0,0E0,0E0,0E0,0E0,0E0,0E0],"parents":[2147483647,0,0,1,1,2,2,3,3,4,4,5,5,6,6,7,7,8,8,9,9,10,10,11,11,13,13,14,14],"right_children":[2,4,6,8,10,12,14,16,18,20,22,24,-1,26,28,-1,-1,-1,-1,-1,-1,-1,-1,-1,-1,-1,-1,-1,-1],"split_conditions":[8.441316E1,2.7670495E-3,2.2149351E-3,-2.1638907E-5,1.6300895E-3,3.8579565E-3,8.117449E-1,-3.6062964E-5,6.3770864E-4,3.5068202E-3,3.9648994E1,1.2295458E-3,6.1159234E-2,2.8220785E-3,1.424191E-3,2.869969E-3,7.1807325E-2,2.665687E-2,-4.7172955E-3,2.5978355E-2,-4.391786E-2,5.5597235E-2,-1.1208892E-2,-2.2111958E-2,5.2354593E-2,-2.6118094E-2,-6.77632E-2,-2.1166755E-2,3.777548E-2],"split_indices":[5,2,2,2,6,4,10,2,6,0,5,1,0,2,1,0,0,0,0,0,0,0,0,0,0,0,0,0,0],"split_type":[0,0,0,0,0,0,0,0,0,0,0,0,0,0,0,0,0,0,0,0,0,0,0,0,0,0,0,0,0],"sum_hessian":[1.6419504E3,1.6079387E3,3.4011677E1,1.4806781E3,1.2726061E2,1.497871E1,1.9032967E1,7.988782E2,6.818E2,8.235463E1,4.4905983E1,1.152698E1,3.4517305E0,1.4415829E1,4.6171374E0,7.95419E2,3.4591541E0,1.3698067E1,6.681019E2,8.0868546E1,1.4860815E0,2.4559574E0,4.2450027E1,9.540193E0,1.9867872E0,2.7046747E0,1.1711154E1,2.4092495E0,2.2078881E0],"tree_param":{"num_deleted":"0","num_feature":"11","num_nodes":"29","size_leaf_vector":"0"}},{"base_weights":[3.18032E-2,1.6359253E-2,2.4814697E-1,9.4522095E-1,9.908491E-3,3.774486E-1,-5.771392E-1,-4.490696E-1,1.1709735E0,-4.4075128E-1,1.8897632E-2,4.3630013E-1,-9.045949E-1,-1.0854688E0,5.3926736E-1,1.249005E0,2.810093E-1,-8.239567E-1,6.1383915E-1,1.3603443E-1,-8.115722E-3,6.264233E-1,1.4967403E-1,-3.3428475E-2,-1.1999162E0,-1.7068794E-1,-1.2070302E0,9.8635226E-1,-5.589274E-1],"categories":[],"categories_nodes":[],"categories_segments":[],"categories_sizes":[],"default_left":[1,1,1,1,1,1,1,0,1,1,1,1,1,1,1,0,0,0,0,0,0,0,0,0,0,0,0,0,0],"id":42,"left_children":[1,3,5,7,9,11,13,-1,15,17,19,21,23,25,27,-1,-1,-1,-1,-1,-1,-1,-1,-1,-1,-1,-1,-1,-1],"loss_changes":[5.450344E0,9.126836E0,1.1817337E1,3.8326359E0,6.1467233E0,7.530836E0,9.165518E0,0E0,2.9616642E-1,1.2497933E1,4.7050505E0,4.8709183E0,1.1115813E0,9.86145E-1,3.2018428E0,0E0,0E0,0E0,0E0,0E0,0E0,0E0,0E0,0E0,0E0,0E0,0E0,0E0,0E0],"parents":[2147483647,0,0,1,1,2,2,3,3,4,4,5,5,6,6,8,8,9,9,10,10,11,11,12,12,13,13,14,14],"right_children":[2,4,6,8,10,12,14,-1,16,18,20,22,24,26,28,-1,-1,-1,-1,-1,-1,-1,-1,-1,-1,-1,-1,-1,-1],"split_conditions":[3.1339386E-3,-9.0116225E-3,8.3716286E1,-1.0390869E-2,-7.016304E-3,7.35264E-3,8.117449E-1,-2.245348E-2,-9.140295E-3,1.8556349E-3,-2.4017403E-3,-3.7940952E-1,3.6660624E-3,-8.4130844E-4,-3.7940952E-1,6.245025E-2,1.4050464E-2,-4.1197836E-2,3.0691957E-2,6.8017216E-3,-4.057861E-4,3.1321164E-2,7.4837017E-3,-1.6714238E-3,-5.999581E-2,-8.534397E-3,-6.035151E-2,4.9317613E-2,-2.7946372E-2],"split_indices":[2,4,5,4,4,2,10,0,4,6,4,8,1,4,8,0,0,0,0,0,0,0,0,0,0,0,0,0,0],"split_type":[0,0,0,0,0,0,0,0,0,0,0,0,0,0,0,0,0,0,0,0,0,0,0,0,0,0,0,0,0],"sum_hessian":[1.6314678E3,1.5237675E3,1.0770025E2,9.505584E0,1.5142618E3,9.3581085E1,1.4119163E1,1.1867542E0,8.31883E0,2.867439E1,1.4855875E3,9.010457E1,3.4765184E0,9.720757E0,4.3984065E0,7.277326E0,1.0415037E0,2.119242E1,7.481972E0,2.7763882E2,1.2079486E3,5.3458965E1,3.6645603E1,1.161984E0,2.3145344E0,1.4222316E0,8.298525E0,3.1982234E0,1.2001832E0],"tree_param":{"num_deleted":"0","num_feature":"11","num_nodes":"29","size_leaf_vector":"0"}},{"base_weights":[-4.641967E-3,4.3469736E-1,-1.3262564E-2,-6.8845123E-1,7.260357E-1,-8.075306E-3,-6.017088E-1,-1.1710649E0,6.608288E-1,2.8954872E-1,1.1741406E0,4.9217988E-2,-5.9683923E-2,-3.899228E-2,-1.2486409E0,-4.1808316E-1,-1.4802123E0,9.2747486E-1,-2.7269772E-1,1.3876036E0,3.1683087E-1,4.0649068E-2,1.2740636E0,-4.8902297E-1,-3.8700648E-2,-5.7429045E-1,9.248726E-1],"categories":[],"categories_nodes":[],"categories_segments":[],"categories_sizes":[],"default_left":[1,1,1,1,1,1,1,1,0,1,1,1,1,1,0,0,0,0,0,0,0,0,0,0,0,0,0],"id":43,"left_children":[1,3,5,7,9,11,13,15,-1,17,19,21,23,25,-1,-1,-1,-1,-1,-1,-1,-1,-1,-1,-1,-1,-1],"loss_changes":[6.147478E0,1.0720924E1,4.8527493E0,5.297617E0,4.60645E0,4.6702976E0,5.0086346E0,6.5622187E-1,0E0,5.3238726E0,1.7841091E0,7.8052235E0,7.4666214E0,4.897127E0,0E0,0E0,0E0,0E0,0E0,0E0,0E0,0E0,0E0,0E0,0E0,0E0,0E0],"parents":[2147483647,0,0,1,1,2,2,3,3,4,4,5,5,6,6,7,7,9,9,10,10,11,11,12,12,13,13],"right_children":[2,4,6,8,10,12,14,16,-1,18,20,22,24,26,-1,-1,-1,-1,-1,-1,-1,-1,-1,-1,-1,-1,-1],"split_conditions":[1.5908005E1,-7.865661E-1,8.269852E-3,-1.9906014E-3,-1.1666012E-3,-2.1650812E-5,5.9952206E1,-1.2940952E-1,3.3041444E-2,-3.7940952E-1,1.5701683E-3,-3.6620277E-5,3.386438E1,-3.3468916E-4,-6.2432047E-2,-2.090416E-2,-7.401062E-2,4.6373744E-2,-1.3634886E-2,6.938019E-2,1.5841544E-2,2.0324534E-3,6.370318E-2,-2.445115E-2,-1.9350324E-3,-2.8714523E-2,4.624363E-2],"split_indices":[5,8,4,1,4,2,5,7,0,7,4,2,5,2,0,0,0,0,0,0,0,0,0,0,0,0,0],"split_type":[0,0,0,0,0,0,0,0,0,0,0,0,0,0,0,0,0,0,0,0,0,0,0,0,0,0,0],"sum_hessian":[1.6206312E3,3.023648E1,1.5903948E3,5.9469857E0,2.4289495E1,1.5775026E3,1.289224E1,4.4775333E0,1.4694526E0,1.3138143E1,1.1151353E1,7.476004E2,8.2990216E2,7.4619417E0,5.430298E0,1.9879398E0,2.4895933E0,5.8505297E0,7.287613E0,8.43304E0,2.7183132E0,7.434326E2,4.1678066E0,3.763088E1,7.9227124E2,5.057407E0,2.4045346E0],"tree_param":{"num_deleted":"0","num_feature":"11","num_nodes":"27","size_leaf_vector":"0"}},{"base_weights":[1.1574138E-2,2.080951E-2,-3.2027066E-1,8.516007E-3,3.895239E-1,-1.8927754E-1,-1.1488239E0,-3.310142E-2,1.1808408E-1,4.8044077E-1,-6.9079995E-1,7.3489815E-2,-7.0779175E-1,-2.526799E-1,-1.4549499E0,2.573723E-2,-1.8145326E-1,2.7972162E-1,-3.7493408E-2,2.0412669E-1,9.7794956E-1,7.236603E-2,-1.1063228E0,-1.3395362E0,2.2341757E-1,-1.1371223E0,2.581508E-1],"categories":[],"categories_nodes":[],"categories_segments":[],"categories_sizes":[],"default_left":[1,1,1,1,1,1,1,1,1,1,1,1,1,0,0,0,0,0,0,0,0,0,0,0,0,0,0],"id":44,"left_children":[1,3,5,7,9,11,13,15,17,19,21,23,25,-1,-1,-1,-1,-1,-1,-1,-1,-1,-1,-1,-1,-1,-1],"loss_changes":[5.011221E0,7.2023964E0,4.588088E0,7.023554E0,5.367614E0,5.4242005E0,1.2364368E0,9.749839E0,1.067238E1,6.3823805E0,1.4721873E0,6.034957E0,5.8320913E0,0E0,0E0,0E0,0E0,0E0,0E0,0E0,0E0,0E0,0E0,0E0,0E0,0E0,0E0],"parents":[2147483647,0,0,1,1,2,2,3,3,4,4,5,5,6,6,7,7,8,8,9,9,10,10,11,11,12,12],"right_children":[2,4,6,8,10,12,14,16,18,20,22,24,26,-1,-1,-1,-1,-1,-1,-1,-1,-1,-1,-1,-1,-1,-1],"split_conditions":[1.8048685E-3,1.3459399E-3,-6.1232336E-17,9.731629E-4,8.3276596E1,3.7940952E-1,1.9661789E-3,8.021769E-4,1.1233087E-3,6.4922195E1,3.7940952E-1,1.8489078E-3,3.237023E-3,-1.2633996E-2,-7.274749E-2,1.2868615E-3,-9.072663E-3,1.3986081E-2,-1.8746704E-3,1.0206334E-2,4.889748E-2,3.6183016E-3,-5.531614E-2,-6.697681E-2,1.1170878E-2,-5.6856114E-2,1.29075395E-2],"split_indices":[0,0,8,3,5,7,0,3,3,5,7,0,2,0,0,0,0,0,0,0,0,0,0,0,0,0,0],"split_type":[0,0,0,0,0,0,0,0,0,0,0,0,0,0,0,0,0,0,0,0,0,0,0,0,0,0,0],"sum_hessian":[1.6319622E3,1.5886858E3,4.327646E1,1.5384156E3,5.0270042E1,3.8429283E1,4.847174E0,1.1154358E3,4.2297995E2,4.6880035E1,3.3900046E0,2.6074024E1,1.2355261E1,1.6989963E0,3.1481779E0,7.992623E2,3.161734E2,2.0705833E2,2.1592162E2,3.1046984E1,1.5833053E1,1.4862117E0,1.9037929E0,1.7400458E0,2.4333979E1,8.430817E0,3.924444E0],"tree_param":{"num_deleted":"0","num_feature":"11","num_nodes":"27","size_leaf_vector":"0"}},{"base_weights":[8.977842E-3,2.4523544E-3,7.062635E-1,1.2288874E-1,-3.1894997E-2,9.4751304E-1,-8.8762474E-1,4.272797E-1,3.1191017E-2,-2.7866744E-2,-1.3908463E0,4.9432173E-1,1.1903682E0,7.555479E-1,1.9508344E-1,-6.5132104E-2,1.9918135E-1,-2.6683676E-1,-4.602686E-3,1.0380871E0,-2.3861922E-2],"categories":[],"categories_nodes":[],"categories_segments":[],"categories_sizes":[],"default_left":[1,1,1,1,1,1,0,1,1,1,0,1,0,0,0,0,0,0,0,0,0],"id":45,"left_children":[1,3,5,7,9,11,-1,13,15,17,-1,19,-1,-1,-1,-1,-1,-1,-1,-1,-1],"loss_changes":[7.4008913E0,6.67564E0,6.6398993E0,9.981958E0,6.8353243E0,9.0638065E-1,0E0,6.165697E0,4.483493E0,6.964896E0,0E0,1.8418938E0,0E0,0E0,0E0,0E0,0E0,0E0,0E0,0E0,0E0],"parents":[2147483647,0,0,1,1,2,2,3,3,4,4,5,5,7,7,8,8,9,9,11,11],"right_children":[2,4,6,8,10,12,-1,14,16,18,-1,20,-1,-1,-1,-1,-1,-1,-1,-1,-1],"split_conditions":[2.8523952E-3,-5.080245E-4,2.4798773E-3,-6.035534E-1,5.3550308E-3,-5.6174487E-1,-4.438124E-2,-4.5876007E-4,9.312422E-4,-1.1931625E-3,-6.954231E-2,4.0524117E1,5.9518408E-2,3.7777394E-2,9.7541725E-3,-3.2566052E-3,9.959067E-3,-1.33418385E-2,-2.301343E-4,5.1904358E-2,-1.1930962E-3],"split_indices":[6,0,3,7,1,10,0,4,3,1,0,5,0,0,0,0,0,0,0,0,0],"split_type":[0,0,0,0,0,0,0,0,0,0,0,0,0,0,0,0,0,0,0,0,0],"sum_hessian":[1.6259043E3,1.6118237E3,1.4080595E1,3.5710043E2,1.2547233E3,1.2581763E1,1.4988315E0,8.182438E1,2.7527603E2,1.2520325E3,2.6908162E0,5.4489503E0,7.132813E0,3.2965458E1,4.8858925E1,1.75347E2,9.992904E1,1.1014504E2,1.1418875E3,2.1692693E0,3.2796807E0],"tree_param":{"num_deleted":"0","num_feature":"11","num_nodes":"21","size_leaf_vector":"0"}},{"base_weights":[-1.7184346E-3,9.98448E-4,-1.047891E0,-5.1678265E-3,1.0459701E0,2.4155602E-3,-6.2914896E-1,1.2129929E0,-1.2928145E-1,-5.614078E-3,1.046419E0,-1.1168494E0,2.201737E-1,1.3056316E0,2.9598463E-1],"categories":[],"categories_nodes":[],"categories_segments":[],"categories_sizes":[],"default_left":[1,1,0,1,1,1,1,1,0,0,0,0,0,0,0],"id":46,"left_children":[1,3,-1,5,7,9,11,13,-1,-1,-1,-1,-1,-1,-1],"loss_changes":[4.617426E0,1.0450108E1,0E0,7.631374E0,2.0243273E0,1.33688965E1,8.26709E0,3.293743E-1,0E0,0E0,0E0,0E0,0E0,0E0,0E0],"parents":[2147483647,0,0,1,1,3,3,4,4,5,5,6,6,7,7],"right_children":[2,4,-1,6,8,10,12,14,-1,-1,-1,-1,-1,-1,-1],"split_conditions":[2.4798773E-3,2.1838737E-3,-5.239455E-2,1.7779926E-3,2.4255607E-3,1.674335E-3,2.0195812E-3,6.8573654E-3,-6.4640725E-3,-2.807039E-4,5.2320953E-2,-5.584247E-2,1.1008685E-2,6.5281585E-2,1.4799232E-2],"split_indices":[3,3,0,3,3,3,3,2,0,0,0,0,0,0,0],"split_type":[0,0,0,0,0,0,0,0,0,0,0,0,0,0,0],"sum_hessian":[1.6231544E3,1.6199464E3,3.207913E0,1.6114326E3,8.51385E0,1.5930679E3,1.8364792E1,7.426332E0,1.0875181E0,1.5818958E3,1.1172052E1,1.1465851E1,6.8989415E0,6.3600287E0,1.066303E0],"tree_param":{"num_deleted":"0","num_feature":"11","num_nodes":"15","size_leaf_vector":"0"}},{"base_weights":[1.3656517E-2,-9.961381E-2,4.504827E-2,-2.0146503E-1,3.282477E-1,2.0734414E-1,5.664181E-4,7.0704055E-1,-2.4017413E-1,-1.0218226E0,4.050478E-1,-4.9195725E-1,2.8195375E-1,-3.6525798E-1,3.0046716E-2,-4.536645E-1,1.0219859E0,-2.1045804E-1,-1.2037256E0,-3.5516167E-1,-1.2824728E0,7.6721627E-1,7.331865E-2,-1.3389336E0,-8.097331E-2,5.8091307E-1,1.043837E-1,-4.9789873E-1,8.0738044E-1,4.375292E-2,-6.310739E-1],"categories":[],"categories_nodes":[],"categories_segments":[],"categories_sizes":[],"default_left":[1,1,1,1,1,1,1,1,1,1,1,1,1,1,1,0,0,0,0,0,0,0,0,0,0,0,0,0,0,0,0],"id":47,"left_children":[1,3,5,7,9,11,13,15,17,19,21,23,25,27,29,-1,-1,-1,-1,-1,-1,-1,-1,-1,-1,-1,-1,-1,-1,-1,-1],"loss_changes":[5.7919126E0,1.5471312E1,9.205227E0,1.0233155E1,7.500922E0,1.4450158E1,1.0815182E1,4.831203E0,7.6266794E0,2.3311615E-1,7.799635E0,9.223413E0,1.3130798E1,1.2034438E1,8.436905E0,0E0,0E0,0E0,0E0,0E0,0E0,0E0,0E0,0E0,0E0,0E0,0E0,0E0,0E0,0E0,0E0],"parents":[2147483647,0,0,1,1,2,2,3,3,4,4,5,5,6,6,7,7,8,8,9,9,10,10,11,11,12,12,13,13,14,14],"right_children":[2,4,6,8,10,12,14,16,18,20,22,24,26,28,30,-1,-1,-1,-1,-1,-1,-1,-1,-1,-1,-1,-1,-1,-1,-1,-1],"split_conditions":[6.543427E-4,8.117449E-1,7.398748E-4,1.856549E1,7.2685356E-4,-2.239767E-3,7.593706E-4,8.3804165E-4,3.182994E-3,-1.9271685E-4,2.2057931E-5,6.9237046E-4,4.8666805E1,1.5054266E-3,8.441316E1,-2.2683226E-2,5.1099297E-2,-1.0522902E-2,-6.0186278E-2,-1.7758084E-2,-6.4123645E-2,3.8360815E-2,3.6659327E-3,-6.694668E-2,-4.0486655E-3,2.9045654E-2,5.2191853E-3,-2.4894936E-2,4.0369023E-2,2.187646E-3,-3.1553697E-2],"split_indices":[3,10,3,5,6,2,3,6,2,0,2,3,5,6,5,0,0,0,0,0,0,0,0,0,0,0,0,0,0,0,0],"split_type":[0,0,0,0,0,0,0,0,0,0,0,0,0,0,0,0,0,0,0,0,0,0,0,0,0,0,0,0,0,0,0],"sum_hessian":[1.6266224E3,3.525064E2,1.2741161E3,2.8515515E2,6.735125E1,2.7329916E2,1.0008169E3,1.0947643E1,2.7420752E2,2.9628203E0,6.438843E1,2.5808388E1,2.4749078E2,7.378764E1,9.2702924E2,2.2425299E0,8.705113E0,2.6718588E2,7.0216413E0,1.4968785E0,1.4659418E0,3.015435E1,3.4234077E1,7.694109E0,1.8114279E1,9.137654E1,1.5611424E2,6.680637E1,6.981273E0,9.091155E2,1.7913755E1],"tree_param":{"num_deleted":"0","num_feature":"11","num_nodes":"31","size_leaf_vector":"0"}},{"base_weights":[7.561126E-4,1.17598884E-1,-3.3991277E-2,3.8837332E-1,2.885905E-2,-2.1840784E-1,5.3569087E-4,7.569234E-1,1.7488323E-1,-7.38538E-2,2.1826072E-1,-2.599174E-1,5.083454E-1,3.3183843E-1,-2.9718114E-2,1.0483805E0,2.0211622E-1,-6.0986626E-1,2.6336232E-1,-2.402417E-2,-1.0714501E0,-8.052902E-2,3.5253084E-1,-2.865652E-1,9.00708E-1,7.9661936E-1,-4.3528274E-1,2.4388483E-1,1.188803E0,3.843428E-1,-4.836326E-2],"categories":[],"categories_nodes":[],"categories_segments":[],"categories_sizes":[],"default_left":[1,1,1,1,1,1,1,1,1,1,1,1,1,1,1,0,0,0,0,0,0,0,0,0,0,0,0,0,0,0,0],"id":48,"left_children":[1,3,5,7,9,11,13,15,17,19,21,23,25,27,29,-1,-1,-1,-1,-1,-1,-1,-1,-1,-1,-1,-1,-1,-1,-1,-1],"loss_changes":[6.594945E0,8.935493E0,7.972391E0,7.092559E0,5.492663E0,6.088622E0,1.0590389E1,5.185814E0,4.288061E0,9.084825E0,4.0096664E0,6.0553646E0,3.3408043E0,6.3739376E0,7.493274E0,0E0,0E0,0E0,0E0,0E0,0E0,0E0,0E0,0E0,0E0,0E0,0E0,0E0,0E0,0E0,0E0],"parents":[2147483647,0,0,1,1,2,2,3,3,4,4,5,5,6,6,7,7,8,8,9,9,10,10,11,11,12,12,13,13,14,14],"right_children":[2,4,6,8,10,12,14,16,18,20,22,24,26,28,30,-1,-1,-1,-1,-1,-1,-1,-1,-1,-1,-1,-1,-1,-1,-1,-1],"split_conditions":[-4.91064E-4,-6.035534E-1,-2.2641888E-4,-6.7495706E-4,-7.6560496E-4,1.3865042E-3,-1.3726755E-4,1.756731E-3,-2.0471322E-3,-7.916452E-4,9.289412E-4,3.0581113E-3,6.472292E1,-1.428162E-4,-2.8341827E-3,5.2419025E-2,1.0105811E-2,-3.0493313E-2,1.3168116E-2,-1.2012086E-3,-5.3572506E-2,-4.026451E-3,1.7626543E-2,-1.4328261E-2,4.5035403E-2,3.9830968E-2,-2.1764137E-2,1.2194241E-2,5.9440147E-2,1.921714E-2,-2.418163E-3],"split_indices":[0,7,0,4,0,1,0,6,0,0,6,2,5,0,2,0,0,0,0,0,0,0,0,0,0,0,0,0,0,0,0],"split_type":[0,0,0,0,0,0,0,0,0,0,0,0,0,0,0,0,0,0,0,0,0,0,0,0,0,0,0,0,0,0,0],"sum_hessian":[1.6223938E3,3.713374E2,1.2510564E3,9.082472E1,2.8051266E2,1.964493E2,1.054607E3,3.238049E1,5.8444233E1,1.8227481E2,9.823787E1,1.864427E2,1.0006587E1,8.741175E1,9.671953E2,2.0645271E1,1.1735218E1,5.324728E0,5.3119507E1,1.7457874E2,7.696073E0,3.0582726E1,6.765514E1,1.8299428E2,3.448432E0,7.784309E0,2.2222784E0,8.044043E1,6.971323E0,4.083095E1,9.263644E2],"tree_param":{"num_deleted":"0","num_feature":"11","num_nodes":"31","size_leaf_vector":"0"}},{"base_weights":[-7.6297987E-3,9.055422E-1,-1.0923789E-2,1.0067066E0,2.6274264E-1,-5.0873384E-3,-5.1433975E-1,-1.9835103E-2,2.102167E-1,-9.0664023E-1,5.736796E-1,8.0029833E-1,-2.5141869E-2,2.6902258E-1,-8.2193E-1,-3.0865973E-1,-1.3716083E0,-4.744337E-1,9.6769094E-1],"categories":[],"categories_nodes":[],"categories_segments":[],"categories_sizes":[],"default_left":[1,1,1,0,0,1,1,1,1,1,1,0,0,0,0,0,0,0,0],"id":49,"left_children":[1,3,5,-1,-1,7,9,11,13,15,17,-1,-1,-1,-1,-1,-1,-1,-1],"loss_changes":[4.9053626E0,1.1666012E-1,4.7649426E0,0E0,0E0,5.100599E0,8.453501E0,6.5618515E0,6.4716105E0,3.48273E0,2.7461832E0,0E0,0E0,0E0,0E0,0E0,0E0,0E0,0E0],"parents":[2147483647,0,0,1,1,2,2,5,5,6,6,7,7,8,8,9,9,10,10],"right_children":[2,4,6,-1,-1,8,10,12,14,16,18,-1,-1,-1,-1,-1,-1,-1,-1],"split_conditions":[3.6831584E-4,3.5484636E-4,8.705464E1,5.033533E-2,1.3137132E-2,3.1339386E-3,3.0268035E-3,-9.0116225E-3,7.3228986E-3,7.2765735E-4,8.7464584E1,4.001492E-2,-1.2570935E-3,1.3451129E-2,-4.10965E-2,-1.5432986E-2,-6.858041E-2,-2.3721686E-2,4.8384547E-2],"split_indices":[3,3,5,0,0,2,4,4,2,3,5,0,0,0,0,0,0,0,0],"split_type":[0,0,0,0,0,0,0,0,0,0,0,0,0,0,0,0,0,0,0],"sum_hessian":[1.6264948E3,4.8615108E0,1.6216333E3,3.711295E0,1.1502159E0,1.6040465E3,1.7586718E1,1.5020668E3,1.0197979E2,1.3048577E1,4.5381403E0,8.693693E0,1.493373E3,9.718224E1,4.7975397E0,6.4356823E0,6.6128955E0,1.1841253E0,3.354015E0],"tree_param":{"num_deleted":"0","num_feature":"11","num_nodes":"19","size_leaf_vector":"0"}},{"base_weights":[5.883071E-3,1.0398847E0,2.4722125E-3,7.4367514E-3,-5.621282E-1,-1.376581E-2,2.0180699E-1,-7.7207863E-1,9.401134E-1,1.0863912E-2,-1.7485303E-1,1.6440501E0,1.4444189E-1,-1.3872494E-1,-1.3085281E0],"categories":[],"categories_nodes":[],"categories_segments":[],"categories_sizes":[],"default_left":[1,0,1,1,1,1,1,1,0,0,0,0,0,0,0],"id":50,"left_children":[1,-1,3,5,7,9,11,13,-1,-1,-1,-1,-1,-1,-1],"loss_changes":[5.7614694E0,0E0,4.5729485E0,6.665631E0,5.2109222E0,5.7892175E0,1.2923778E1,4.2441506E0,0E0,0E0,0E0,0E0,0E0,0E0,0E0],"parents":[2147483647,0,0,2,2,3,3,4,4,5,5,6,6,7,7],"right_children":[2,-1,4,6,8,10,12,14,-1,-1,-1,-1,-1,-1,-1],"split_conditions":[3.6831584E-4,5.1994234E-2,8.269852E-3,4.0354272E-3,2.0885665E-3,2.4819614E-3,7.0704136E-4,1.6059186E-3,4.7005672E-2,5.4319564E-4,-8.742652E-3,8.220251E-2,7.2220946E-3,-6.936247E-3,-6.54264E-2],"split_indices":[3,0,4,4,6,4,6,6,0,0,0,0,0,0,0],"split_type":[0,0,0,0,0,0,0,0,0,0,0,0,0,0,0],"sum_hessian":[1.6333389E3,4.3710814E0,1.6289678E3,1.6157473E3,1.3220458E1,1.457669E3,1.5807828E2,1.2025804E1,1.1946546E0,1.2651622E3,1.9250673E2,4.9889636E0,1.5308931E2,6.091974E0,5.93383E0],"tree_param":{"num_deleted":"0","num_feature":"11","num_nodes":"15","size_leaf_vector":"0"}}]},"name":"gbtree"},"learner_model_param":{"base_score":"5E-1","boost_from_average":"1","num_class":"0","num_feature":"11","num_target":"1"},"objective":{"name":"binary:logistic","reg_loss_param":{"scale_pos_weight":"1"}}},"version":[1,7,6]}