{"learner":{"attributes":{"best_iteration":"0","best_ntree_limit":"1","best_score":"0.693128054615623"},"feature_names":["ret_1","ret_3","ret_6","vol_24","sma_diff","rsi","atr_norm","hour_sin","hour_cos","dow_sin","dow_cos"],"feature_types":[],"gradient_booster":{"model":{"gbtree_model_param":{"num_parallel_tree":"1","num_trees":"51","size_leaf_vector":"0"},"tree_info":[0,0,0,0,0,0,0,0,0,0,0,0,0,0,0,0,0,0,0,0,0,0,0,0,0,0,0,0,0,0,0,0,0,0,0,0,0,0,0,0,0,0,0,0,0,0,0,0,0,0,0],"trees":[{"base_weights":[-2.6777904E-2,4.238806E-1,-3.7159372E-2,5.6953645E-1,-8.108108E-1,1.6088948E-1,-6.0429E-2,2.5925925E-1,1.2888889E0,1E0,-1.1515151E0,-1.8705036E-1,2.9032257E-1,2.0026007E-1,-7.678484E-2,8.131868E-1,-1.3953489E-1,1.443038E0,1.3333334E-1,-4.4444445E-1,-1.5789474E0,-1.1428572E0,-7.9155676E-2,4.6278754E-1,-4.7244094E-2,-1.2068965E-1,6.796116E-1,-1.3333334E-1,7.7377316E-3],"categories":[],"categories_nodes":[],"categories_segments":[],"categories_sizes":[],"default_left":[1,1,1,1,1,1,1,1,1,0,1,1,1,1,1,0,0,0,0,0,0,0,0,0,0,0,0,0,0],"id":0,"left_children":[1,3,5,7,9,11,13,15,17,-1,19,21,23,25,27,-1,-1,-1,-1,-1,-1,-1,-1,-1,-1,-1,-1,-1,-1],"loss_changes":[1.7399874E1,1.5523387E1,1.6752485E1,1.6517342E1,6.858313E0,1.726891E1,1.3880152E1,1.20422325E1,3.8154716E0,0E0,1.7916002E0,1.0660472E1,1.6264805E1,2.9659254E1,1.462907E1,0E0,0E0,0E0,0E0,0E0,0E0,0E0,0E0,0E0,0E0,0E0,0E0,0E0,0E0],"parents":[2147483647,0,0,1,1,2,2,3,3,4,4,5,5,6,6,7,7,8,8,10,10,11,11,12,12,13,13,14,14],"right_children":[2,4,6,8,10,12,14,16,18,-1,20,22,24,26,28,-1,-1,-1,-1,-1,-1,-1,-1,-1,-1,-1,-1,-1,-1],"split_conditions":[-6.5939277E-3,1.453158E-3,2.7317684E1,1.093627E-3,-9.283728E-3,-2.5752601E-3,5.3008273E-4,7.291314E-4,9.463668E-4,5E-2,3.7940952E-1,-9.159756E-1,1.261875E-3,5.350256E-4,6.078576E-1,4.0659342E-2,-6.9767446E-3,7.21519E-2,6.6666673E-3,-2.2222223E-2,-7.894737E-2,-5.714286E-2,-3.957784E-3,2.3139378E-2,-2.3622047E-3,-6.0344827E-3,3.3980582E-2,-6.6666673E-3,3.868866E-4],"split_indices":[4,3,5,3,4,4,3,3,0,0,7,8,4,2,9,0,0,0,0,0,0,0,0,0,0,0,0,0,0],"split_type":[0,0,0,0,0,0,0,0,0,0,0,0,0,0,0,0,0,0,0,0,0,0,0,0,0,0,0,0,0],"sum_hessian":[3.71475E3,8.275E1,3.632E3,7.45E1,8.25E0,3.8125E2,3.25075E3,5.3E1,2.15E1,1E0,7.25E0,1.0325E2,2.78E2,1.9125E2,3.0595E3,2.175E1,3.125E1,1.875E1,2.75E0,3.5E0,3.75E0,9.5E0,9.375E1,1.8375E2,9.425E1,1.15E2,7.625E1,1.83275E3,1.22675E3],"tree_param":{"num_deleted":"0","num_feature":"11","num_nodes":"29","size_leaf_vector":"0"}},{"base_weights":[-3.452019E-2,1.198411E-2,-2.2218072E-1,1.6966614E-1,-3.841753E-2,-2.008674E-1,-9.2195815E-1,8.685871E-2,4.0672895E-1,2.9884046E-1,-6.1186306E-2,-2.3389472E-1,2.854555E-1,-1.4219697E0,-2.3443338E-1,8.85911E-1,6.1721474E-2,-2.3906015E-1,5.0602204E-1,-1.8163605E-2,7.3019975E-1,5.47502E-1,-7.741977E-2,-2.0774865E-1,-8.109625E-1,7.903011E-1,-2.8893915E-1,-1.6251271E0,2.034733E-1,8.2863796E-1,-8.4637004E-1],"categories":[],"categories_nodes":[],"categories_segments":[],"categories_sizes":[],"default_left":[1,1,1,1,1,1,1,1,1,1,1,1,1,1,1,0,0,0,0,0,0,0,0,0,0,0,0,0,0,0,0],"id":1,"left_children":[1,3,5,7,9,11,13,15,17,19,21,23,25,27,29,-1,-1,-1,-1,-1,-1,-1,-1,-1,-1,-1,-1,-1,-1,-1,-1],"loss_changes":[3.2374554E1,2.3639511E1,1.0802704E1,1.4107706E1,1.7328207E1,1.1570734E1,7.056595E0,1.0695736E1,1.2063108E1,1.9530552E1,2.0915997E1,9.959042E0,1.3566776E1,4.375267E0,7.3683915E0,0E0,0E0,0E0,0E0,0E0,0E0,0E0,0E0,0E0,0E0,0E0,0E0,0E0,0E0,0E0,0E0],"parents":[2147483647,0,0,1,1,2,2,3,3,4,4,5,5,6,6,7,7,8,8,9,9,10,10,11,11,12,12,13,13,14,14],"right_children":[2,4,6,8,10,12,14,16,18,20,22,24,26,28,30,-1,-1,-1,-1,-1,-1,-1,-1,-1,-1,-1,-1,-1,-1,-1,-1],"split_conditions":[8.117449E-1,3.730983E1,1.7574341E-3,2.0048442E-1,5.362057E-4,1.905106E-3,2.330386E-3,4.8915076E-4,5.468974E-4,7.647196E-4,7.1094756E-4,3.3046333E-3,2.116817E-3,2.2221003E-3,4.0400757E1,4.429555E-2,3.0860738E-3,-1.1953007E-2,2.5301103E-2,-9.0818026E-4,3.6509987E-2,2.73751E-2,-3.8709887E-3,-1.0387433E-2,-4.0548127E-2,3.9515056E-2,-1.4446958E-2,-8.125635E-2,1.0173665E-2,4.14319E-2,-4.2318504E-2],"split_indices":[10,5,3,10,3,6,6,3,3,2,6,2,6,3,5,0,0,0,0,0,0,0,0,0,0,0,0,0,0,0,0],"split_type":[0,0,0,0,0,0,0,0,0,0,0,0,0,0,0,0,0,0,0,0,0,0,0,0,0,0,0,0,0,0,0],"sum_hessian":[3.7083855E3,2.9726636E3,7.357219E2,7.194599E2,2.2532039E3,7.1522516E2,2.0496777E1,5.342201E2,1.852398E2,1.4173007E2,2.1114736E3,6.702275E2,4.4997654E1,1.1248158E1,9.248618E0,1.5248976E1,5.189711E2,2.4498318E1,1.6074149E2,8.224584E1,5.9484226E1,5.399919E1,2.0574746E3,6.424778E2,2.7749691E1,2.3748655E1,2.1248999E1,9.998661E0,1.249497E0,3.2494574E0,5.9991603E0],"tree_param":{"num_deleted":"0","num_feature":"11","num_nodes":"31","size_leaf_vector":"0"}},{"base_weights":[-3.309349E-2,6.7553287E-3,-1.930363E-1,1.7055686E-1,-5.3558584E-2,-1.7022005E-1,-9.394007E-1,3.7063383E-2,5.1074374E-1,7.625999E-2,-1.1191923E-1,-2.0037569E-1,2.603835E-1,-1.3129765E0,-1.6972288E-1,2.2573188E-2,1.4685034E0,5.827187E-1,-5.3681844E-1,3.3703133E-2,5.499264E-1,-9.839672E-2,-8.4511316E-1,-1.7239079E-1,-7.599488E-1,6.4273536E-1,-2.4204041E-1,-1.5457566E0,6.394981E-1,7.214671E-1,-1.4313807E0],"categories":[],"categories_nodes":[],"categories_segments":[],"categories_sizes":[],"default_left":[1,1,1,1,1,1,1,1,1,1,1,1,1,1,1,0,0,0,0,0,0,0,0,0,0,0,0,0,0,0,0],"id":2,"left_children":[1,3,5,7,9,11,13,15,17,19,21,23,25,27,29,-1,-1,-1,-1,-1,-1,-1,-1,-1,-1,-1,-1,-1,-1,-1,-1],"loss_changes":[2.363548E1,2.9346733E1,1.2435543E1,3.628405E1,1.6457724E1,9.387411E0,6.021967E0,1.189736E1,1.7293278E1,1.3566524E1,1.4770943E1,1.0399004E1,9.27784E0,7.566557E0,1.0303562E1,0E0,0E0,0E0,0E0,0E0,0E0,0E0,0E0,0E0,0E0,0E0,0E0,0E0,0E0,0E0,0E0],"parents":[2147483647,0,0,1,1,2,2,3,3,4,4,5,5,6,6,7,7,8,8,9,9,10,10,11,11,12,12,13,13,14,14],"right_children":[2,4,6,8,10,12,14,16,18,20,22,24,26,28,30,-1,-1,-1,-1,-1,-1,-1,-1,-1,-1,-1,-1,-1,-1,-1,-1],"split_conditions":[8.117449E-1,1.0004487E-3,1.7574341E-3,2.0048442E-1,4.1132217E1,1.905106E-3,2.4230822E-3,8.882166E1,8.558448E-4,1.9892617E-3,2.5089304E-3,3.2141947E-3,2.116817E-3,2.2339206E-3,5.7076344E1,1.1286595E-3,7.342517E-2,2.9135933E-2,-2.6840923E-2,1.6851567E-3,2.7496321E-2,-4.919836E-3,-4.225566E-2,-8.619539E-3,-3.799744E-2,3.2136768E-2,-1.2102021E-2,-7.728783E-2,3.1974908E-2,3.6073353E-2,-7.156904E-2],"split_indices":[10,6,3,10,5,6,6,5,3,6,6,2,6,3,5,0,0,0,0,0,0,0,0,0,0,0,0,0,0,0,0],"split_type":[0,0,0,0,0,0,0,0,0,0,0,0,0,0,0,0,0,0,0,0,0,0,0,0,0,0,0,0,0,0,0],"sum_hessian":[3.7071758E3,2.9685393E3,7.3863654E2,7.9840094E2,2.1701384E3,7.179179E2,2.0718582E1,5.741905E2,2.2421042E2,6.729371E2,1.4972013E3,6.714315E2,4.6486427E1,1.3473245E1,7.2453384E0,5.6944196E2,4.748582E0,2.1021117E2,1.3999255E1,6.184438E2,5.449332E1,1.4712018E3,2.59996E1,6.406976E2,3.0733957E1,2.6238941E1,2.0247486E1,1.2224152E1,1.2490929E0,4.4969873E0,2.748351E0],"tree_param":{"num_deleted":"0","num_feature":"11","num_nodes":"31","size_leaf_vector":"0"}},{"base_weights":[-2.3832705E-2,1.4488774E-2,-1.8083632E-1,1.499444E-1,-3.6548756E-2,6.0902065E-1,-2.332746E-1,2.3487382E-2,4.806507E-1,-2.6264206E-2,-5.550233E-1,7.7222466E-1,-5.9951144E-1,-8.7948E-1,-1.9428614E-1,-2.7955718E-2,4.430572E-1,5.510342E-1,-8.1553113E-1,-4.393315E-2,3.6593318E-1,-1.478987E-1,-9.8503023E-1,1.1276026E0,3.8375363E-2,7.0013624E-1,-1.0896764E0,-3.1740654E-2,-1.075172E0,-7.907369E-1,-1.6639136E-1],"categories":[],"categories_nodes":[],"categories_segments":[],"categories_sizes":[],"default_left":[1,1,1,1,1,1,1,1,1,1,1,1,1,1,1,0,0,0,0,0,0,0,0,0,0,0,0,0,0,0,0],"id":3,"left_children":[1,3,5,7,9,11,13,15,17,19,21,23,25,27,29,-1,-1,-1,-1,-1,-1,-1,-1,-1,-1,-1,-1,-1,-1,-1,-1],"loss_changes":[2.225563E1,2.0564878E1,3.0200224E1,3.4032696E1,1.1507538E1,9.428833E0,1.6993088E1,1.2745429E1,2.0987679E1,1.4705996E1,7.2034454E0,1.0515226E1,4.566885E0,6.3496895E0,1.0579485E1,0E0,0E0,0E0,0E0,0E0,0E0,0E0,0E0,0E0,0E0,0E0,0E0,0E0,0E0,0E0,0E0],"parents":[2147483647,0,0,1,1,2,2,3,3,4,4,5,5,6,6,7,7,8,8,9,9,10,10,11,11,12,12,13,13,14,14],"right_children":[2,4,6,8,10,12,14,16,18,20,22,24,26,28,30,-1,-1,-1,-1,-1,-1,-1,-1,-1,-1,-1,-1,-1,-1,-1,-1],"split_conditions":[8.117449E-1,1.0038768E-3,-5.3869197E-3,2.0048442E-1,2.5073832E-3,1.5431612E-3,-4.083615E-3,6.035534E-1,8.728109E-4,1.5168281E-3,-3.549548E-4,3.7940952E-1,-9.159756E-1,-4.9794153E-3,4.9816025E-4,-1.397786E-3,2.2152862E-2,2.755171E-2,-4.077656E-2,-2.1966575E-3,1.8296659E-2,-7.3949355E-3,-4.925151E-2,5.638013E-2,1.9187682E-3,3.5006814E-2,-5.448382E-2,-1.5870327E-3,-5.37586E-2,-3.9536845E-2,-8.319568E-3],"split_indices":[10,6,4,10,6,3,4,8,3,3,1,8,8,4,3,0,0,0,0,0,0,0,0,0,0,0,0,0,0,0,0],"split_type":[0,0,0,0,0,0,0,0,0,0,0,0,0,0,0,0,0,0,0,0,0,0,0,0,0,0,0,0,0,0,0],"sum_hessian":[3.6975957E3,2.9728818E3,7.24714E2,8.130574E2,2.1598245E3,4.4457294E1,6.802567E2,5.889305E2,2.2412695E2,2.1188452E3,4.0979115E1,3.9486E1,4.9712934E0,3.7480877E1,6.427758E2,5.2544006E2,6.3490387E1,2.131288E2,1.0998152E1,2.0283536E3,9.0491684E1,2.1739962E1,1.9239153E1,2.6241562E1,1.3244439E1,1.2441428E0,3.7271507E0,7.2473745E0,3.0233501E1,2.7496393E1,6.152794E2],"tree_param":{"num_deleted":"0","num_feature":"11","num_nodes":"31","size_leaf_vector":"0"}},{"base_weights":[-2.942684E-2,8.524361E-3,-1.824979E-1,1.8162057E-1,-3.5837617E-2,6.147982E-1,-2.3582119E-1,5.0645027E-2,5.0580364E-1,3.8840285E-1,-4.8343323E-2,1.0472593E0,1.2203654E-1,-7.406738E-1,-2.0511928E-1,8.264891E-1,1.8589102E-2,-1.1741769E-1,6.0650605E-1,-1.3031234E0,5.35517E-1,1.4422253E-2,-1.2673916E-1,1.431831E0,2.1502945E-1,7.26735E-1,-5.728813E-1,-4.0192413E-1,-1.2263782E0,-1.8615149E-1,-1.0211809E0],"categories":[],"categories_nodes":[],"categories_segments":[],"categories_sizes":[],"default_left":[1,1,1,1,1,1,1,1,1,1,1,1,1,1,1,0,0,0,0,0,0,0,0,0,0,0,0,0,0,0,0],"id":4,"left_children":[1,3,5,7,9,11,13,15,17,19,21,23,25,27,29,-1,-1,-1,-1,-1,-1,-1,-1,-1,-1,-1,-1,-1,-1,-1,-1],"loss_changes":[2.1646458E1,2.2940706E1,3.1618208E1,2.5851643E1,1.2636174E1,9.820684E0,1.0614487E1,1.0807906E1,1.1070671E1,1.7671171E1,1.1373234E1,7.6075363E0,1.0061485E1,5.9957657E0,9.966736E0,0E0,0E0,0E0,0E0,0E0,0E0,0E0,0E0,0E0,0E0,0E0,0E0,0E0,0E0,0E0,0E0],"parents":[2147483647,0,0,1,1,2,2,3,3,4,4,5,5,6,6,7,7,8,8,9,9,10,10,11,11,12,12,13,13,14,14],"right_children":[2,4,6,8,10,12,14,16,18,20,22,24,26,28,30,-1,-1,-1,-1,-1,-1,-1,-1,-1,-1,-1,-1,-1,-1,-1,-1],"split_conditions":[8.117449E-1,9.323016E-4,-5.3867334E-3,2.0048442E-1,5.284583E-4,1.2940952E-1,-4.082825E-3,-3.7940952E-1,-3.2084708E-3,-2.2202835E-3,4.778377E-4,8.320778E-4,-6.5917405E-3,8.993028E-4,1.7574341E-3,4.1324455E-2,9.294551E-4,-5.8708848E-3,3.0325303E-2,-6.515617E-2,2.677585E-2,7.2111265E-4,-6.336958E-3,7.159155E-2,1.0751473E-2,3.633675E-2,-2.8644064E-2,-2.0096207E-2,-6.131891E-2,-9.3075745E-3,-5.1059045E-2],"split_indices":[10,6,4,10,3,7,4,7,4,2,4,2,4,3,3,0,0,0,0,0,0,0,0,0,0,0,0,0,0,0,0],"split_type":[0,0,0,0,0,0,0,0,0,0,0,0,0,0,0,0,0,0,0,0,0,0,0,0,0,0,0,0,0,0,0],"sum_hessian":[3.72495E3,2.985655E3,7.3929486E2,6.084494E2,2.3772056E3,4.5684536E1,6.936103E2,4.3418674E2,1.7426266E2,6.720778E1,2.3099978E3,2.3731678E1,2.1952858E1,3.8437134E1,6.5517316E2,1.6244368E1,4.1794238E2,2.4217945E1,1.5004472E2,4.7487283E0,6.2459053E1,1.2833408E3,1.0266571E3,1.5738483E1,7.9931955E0,1.171393E1,1.0238928E1,2.3720806E1,1.471633E1,6.41491E2,1.3682124E1],"tree_param":{"num_deleted":"0","num_feature":"11","num_nodes":"31","size_leaf_vector":"0"}},{"base_weights":[-2.463543E-2,1.1338198E-2,-1.7041692E-1,1.3743842E-1,-3.6415E-2,5.434647E-1,-2.1674304E-1,2.2928724E-2,4.408646E-1,-3.3267718E-2,-1.5400203E0,6.912438E-1,-4.934364E-1,-7.646564E-1,-1.8318501E-1,-3.0724231E-2,4.943484E-1,5.161343E-1,-6.0817724E-1,-4.0463384E-2,1.3155333E0,3.522327E-1,1.2802397E0,1.0735006E0,-1.1021618E0,-5.5708945E-1,-1.5192173E0,-8.854981E-1,-1.5094253E-1],"categories":[],"categories_nodes":[],"categories_segments":[],"categories_sizes":[],"default_left":[1,1,1,1,1,1,1,1,1,1,0,1,1,1,1,0,0,0,0,0,0,0,0,0,0,0,0,0,0],"id":5,"left_children":[1,3,5,7,9,11,13,15,17,19,-1,21,23,25,27,-1,-1,-1,-1,-1,-1,-1,-1,-1,-1,-1,-1,-1,-1],"loss_changes":[1.9502378E1,1.7970057E1,2.445913E1,2.8469608E1,1.0192804E1,7.257612E0,1.2581577E1,1.50935545E1,1.8042732E1,2.1028988E1,0E0,7.52083E0,7.110318E0,5.358288E0,1.4659235E1,0E0,0E0,0E0,0E0,0E0,0E0,0E0,0E0,0E0,0E0,0E0,0E0,0E0,0E0],"parents":[2147483647,0,0,1,1,2,2,3,3,4,4,5,5,6,6,7,7,8,8,9,9,11,11,12,12,13,13,14,14],"right_children":[2,4,6,8,10,12,14,16,18,20,-1,22,24,26,28,-1,-1,-1,-1,-1,-1,-1,-1,-1,-1,-1,-1,-1,-1],"split_conditions":[8.117449E-1,1.003036E-3,-5.3869197E-3,2.0048442E-1,1.0819504E-2,1.542911E-3,-4.083615E-3,6.035534E-1,8.558448E-4,9.230623E-3,-7.700102E-2,9.38077E-4,-2.0855626E-3,2.005116E-3,5.0047133E-4,-1.5362116E-3,2.471742E-2,2.5806716E-2,-3.0408863E-2,-2.0231693E-3,6.577667E-2,1.7611636E-2,6.401198E-2,5.3675033E-2,-5.510809E-2,-2.7854472E-2,-7.596087E-2,-4.4274908E-2,-7.5471266E-3],"split_indices":[10,6,4,10,4,3,4,8,3,4,0,3,2,2,3,0,0,0,0,0,0,0,0,0,0,0,0,0,0],"split_type":[0,0,0,0,0,0,0,0,0,0,0,0,0,0,0,0,0,0,0,0,0,0,0,0,0,0,0,0,0],"sum_hessian":[3.7174153E3,2.9823909E3,7.350246E2,8.186725E2,2.1637183E3,4.4137535E1,6.90887E2,5.9514636E2,2.2352612E2,2.1602188E3,3.499554E0,3.8923515E1,5.2140207E0,3.8615322E1,6.522717E2,5.351725E2,5.9973923E1,2.0903563E2,1.4490508E1,2.1497202E3,1.049846E1,2.5718576E1,1.320494E1,1.2451985E0,3.968822E0,3.1647833E1,6.967491E0,2.7469131E1,6.2480255E2],"tree_param":{"num_deleted":"0","num_feature":"11","num_nodes":"29","size_leaf_vector":"0"}},{"base_weights":[-2.1353334E-2,1.0201805E-2,-1.4978081E-1,1.7661323E-1,-2.9953556E-2,5.2507496E-1,-1.9037007E-1,6.689419E-2,4.592768E-1,-2.1311548E-2,-5.436567E-1,6.8339765E-1,-5.37816E-1,-1.5770978E-1,-6.553762E-1,-2.5086794E-2,4.0317658E-1,8.196859E-1,2.4302444E-1,-4.1228537E-2,2.474051E-1,-9.354141E-2,-1.0562727E0,1.0556376E0,2.3278503E-1,1.0078324E-1,-1.1055965E0,-2.5750124E-1,6.343181E-2,1.3074201E-1,-9.5042026E-1],"categories":[],"categories_nodes":[],"categories_segments":[],"categories_sizes":[],"default_left":[1,1,1,1,1,1,1,1,1,1,1,1,1,1,1,0,0,0,0,0,0,0,0,0,0,0,0,0,0,0,0],"id":6,"left_children":[1,3,5,7,9,11,13,15,17,19,21,23,25,27,29,-1,-1,-1,-1,-1,-1,-1,-1,-1,-1,-1,-1,-1,-1,-1,-1],"loss_changes":[1.5043406E1,1.9922215E1,2.0155354E1,1.7943043E1,1.0651913E1,7.402294E0,1.0396507E1,1.2959986E1,1.2417881E1,1.2658642E1,9.061287E0,5.931095E0,2.2793975E0,1.4301121E1,1.0574289E1,0E0,0E0,0E0,0E0,0E0,0E0,0E0,0E0,0E0,0E0,0E0,0E0,0E0,0E0,0E0,0E0],"parents":[2147483647,0,0,1,1,2,2,3,3,4,4,5,5,6,6,7,7,8,8,9,9,10,10,11,11,12,12,13,13,14,14],"right_children":[2,4,6,8,10,12,14,16,18,20,22,24,26,28,30,-1,-1,-1,-1,-1,-1,-1,-1,-1,-1,-1,-1,-1,-1,-1,-1],"split_conditions":[8.117449E-1,9.2187704E-4,-5.65104E-3,2.0048442E-1,2.5073832E-3,1.6261211E-3,1.3616841E-3,8.772821E-4,-1.7136164E-4,1.360586E-3,-1.0685066E-4,-6.1232336E-17,-6.646489E-3,2.1068784E-3,-1.1448932E-3,-1.2543397E-3,2.015883E-2,4.0984295E-2,1.2151222E-2,-2.0614269E-3,1.2370255E-2,-4.677071E-3,-5.2813638E-2,5.278188E-2,1.1639251E-2,5.039162E-3,-5.527983E-2,-1.2875062E-2,3.1715904E-3,6.5371008E-3,-4.7521014E-2],"split_indices":[10,6,4,10,6,2,3,6,1,3,2,8,4,4,4,0,0,0,0,0,0,0,0,0,0,0,0,0,0,0,0],"split_type":[0,0,0,0,0,0,0,0,0,0,0,0,0,0,0,0,0,0,0,0,0,0,0,0,0,0,0,0,0,0,0],"sum_hessian":[3.7107097E3,2.9795444E3,7.311653E2,5.7854517E2,2.400999E3,4.0803936E1,6.903614E2,4.1766174E2,1.6088345E2,2.3622998E3,3.8699394E1,3.5824715E1,4.9792223E0,6.463064E2,4.405498E1,3.286844E2,8.8977356E1,5.9286064E1,1.0159738E2,2.2000789E3,1.622209E2,2.1235508E1,1.7463886E1,1.8883142E1,1.6941572E1,2.7305691E0,2.2486534E0,4.452295E2,2.0107689E2,1.2174364E1,3.188062E1],"tree_param":{"num_deleted":"0","num_feature":"11","num_nodes":"31","size_leaf_vector":"0"}},{"base_weights":[-1.8840244E-2,1.1641876E-2,-1.4156698E-1,2.1567948E-1,-1.2496755E-2,-1.19052246E-1,-6.979801E-1,6.730638E-2,5.8538467E-1,-7.3200148E-3,-1.0292794E0,-1.4478597E-1,3.4747067E-1,-1.311344E0,-3.1560367E-1,1.6104345E0,2.3311876E-2,3.6916363E-1,9.474983E-1,-1.0137215E-2,1.5632554E0,1.9265458E-1,-1.2912129E0,-1.3188623E-1,-1.0600321E0,6.2992346E-1,-3.2512414E-1,-2.0147948E-1,-1.4371234E0,2.8683433E-1,-5.9910524E-1],"categories":[],"categories_nodes":[],"categories_segments":[],"categories_sizes":[],"default_left":[1,1,1,1,1,1,1,1,1,1,1,1,1,1,1,0,0,0,0,0,0,0,0,0,0,0,0,0,0,0,0],"id":7,"left_children":[1,3,5,7,9,11,13,15,17,19,21,23,25,27,29,-1,-1,-1,-1,-1,-1,-1,-1,-1,-1,-1,-1,-1,-1,-1,-1],"loss_changes":[1.3879075E1,1.4642586E1,9.1637745E0,1.7212765E1,1.3988138E1,8.581637E0,6.270499E0,1.5275952E1,6.692417E0,1.1725541E1,4.557395E0,7.81989E0,7.318191E0,1.1940327E0,3.3951764E0,0E0,0E0,0E0,0E0,0E0,0E0,0E0,0E0,0E0,0E0,0E0,0E0,0E0,0E0,0E0,0E0],"parents":[2147483647,0,0,1,1,2,2,3,3,4,4,5,5,6,6,7,7,8,8,9,9,10,10,11,11,12,12,13,13,14,14],"right_children":[2,4,6,8,10,12,14,16,18,20,22,24,26,28,30,-1,-1,-1,-1,-1,-1,-1,-1,-1,-1,-1,-1,-1,-1,-1,-1],"split_conditions":[8.117449E-1,2.7317684E1,1.5792309E-3,2.4260656E1,2.76895E-3,1.905106E-3,2.0151725E-3,4.5063344E-4,9.3020813E-4,9.6629684E1,-1.604578E-3,1.8535373E-3,2.2003888E-3,1.981934E1,-2.4221619E-3,8.0521725E-2,1.1655939E-3,1.8458182E-2,4.7374915E-2,-5.068608E-4,7.8162774E-2,9.632729E-3,-6.4560644E-2,-6.5943114E-3,-5.300161E-2,3.1496175E-2,-1.6256208E-2,-1.0073974E-2,-7.185617E-2,1.4341717E-2,-2.9955262E-2],"split_indices":[10,5,3,5,6,6,6,3,3,5,0,6,6,5,2,0,0,0,0,0,0,0,0,0,0,0,0,0,0,0,0],"split_type":[0,0,0,0,0,0,0,0,0,0,0,0,0,0,0,0,0,0,0,0,0,0,0,0,0,0,0,0,0,0,0],"sum_hessian":[3.708579E3,2.971453E3,7.371263E2,3.1350882E2,2.657944E3,7.096259E2,2.7500378E1,2.2456615E2,8.894267E1,2.6454822E3,1.2461734E1,6.731824E2,3.6443554E1,9.627539E0,1.7872839E1,5.237929E0,2.1932823E2,5.695428E1,3.1988396E1,2.6417373E3,3.7450385E0,2.246444E0,1.021529E1,6.649544E2,8.227959E0,2.571015E1,1.0733403E1,1.2448617E0,8.382677E0,5.7155647E0,1.2157273E1],"tree_param":{"num_deleted":"0","num_feature":"11","num_nodes":"31","size_leaf_vector":"0"}},{"base_weights":[-2.184754E-2,8.218144E-2,-6.253358E-2,-3.025715E-3,2.1856669E-1,3.3902434E-1,-7.768791E-2,2.164654E-2,-1.0211768E0,4.0410525E-1,8.666097E-2,4.9194726E-1,-1.7884964E-1,-8.077921E-2,1.5197245E0,2.3318817E-1,-7.582904E-2,-1.3413522E0,9.103059E-1,-5.456175E-1,4.9032044E-1,-1.3878517E0,1.0694019E-1,2.4472158E-1,9.249544E-1,-4.535228E-1,1.222306E0,-7.421274E-2,-8.115008E-1],"categories":[],"categories_nodes":[],"categories_segments":[],"categories_sizes":[],"default_left":[1,1,1,1,1,1,1,1,1,1,1,1,1,1,0,0,0,0,0,0,0,0,0,0,0,0,0,0,0],"id":8,"left_children":[1,3,5,7,9,11,13,15,17,19,21,23,25,27,-1,-1,-1,-1,-1,-1,-1,-1,-1,-1,-1,-1,-1,-1,-1],"loss_changes":[1.5602713E1,1.2045853E1,1.615046E1,1.6072096E1,9.71946E0,7.7338715E0,1.2735221E1,1.2901011E1,1.0582135E1,1.3805904E1,7.1523104E0,7.7812653E0,9.307213E0,1.217601E1,0E0,0E0,0E0,0E0,0E0,0E0,0E0,0E0,0E0,0E0,0E0,0E0,0E0,0E0,0E0],"parents":[2147483647,0,0,1,1,2,2,3,3,4,4,5,5,6,6,7,7,8,8,9,9,10,10,11,11,12,12,13,13],"right_children":[2,4,6,8,10,12,14,16,18,20,22,24,26,28,-1,-1,-1,-1,-1,-1,-1,-1,-1,-1,-1,-1,-1,-1,-1],"split_conditions":[3.9167267E1,6.078576E-1,7.1141776E-4,1.9604624E-3,-1.7175096E-3,8.783797E-1,9.6629684E1,7.0904713E-4,3.2738731E-3,1.3442286E1,-1.6853004E-3,6.078576E-1,3.7940952E-1,2.648015E-3,7.598623E-2,1.1659409E-2,-3.791452E-3,-6.7067616E-2,4.5515295E-2,-2.7280876E-2,2.4516022E-2,-6.9392584E-2,5.3470093E-3,1.2236079E-2,4.624772E-2,-2.267614E-2,6.1115302E-2,-3.7106369E-3,-4.057504E-2],"split_indices":[5,9,6,3,2,9,5,3,6,5,2,9,8,6,0,0,0,0,0,0,0,0,0,0,0,0,0,0,0],"split_type":[0,0,0,0,0,0,0,0,0,0,0,0,0,0,0,0,0,0,0,0,0,0,0,0,0,0,0,0,0],"sum_hessian":[3.6841682E3,1.0355022E3,2.648666E3,6.3793066E2,3.9757153E2,9.554529E1,2.5531206E3,6.237934E2,1.4137278E1,1.6434305E2,2.332285E2,7.3802284E1,2.1743004E1,2.549137E3,3.9836419E0,1.9632857E2,4.2746478E2,1.2389109E1,1.7481688E0,1.3233866E1,1.5110918E2,2.2492223E0,2.3097928E2,4.7975693E1,2.5826588E1,1.8744734E1,2.9982696E0,2.5275254E3,2.1611507E1],"tree_param":{"num_deleted":"0","num_feature":"11","num_nodes":"29","size_leaf_vector":"0"}},{"base_weights":[-2.5361795E-2,4.9275155E-3,-1.4823422E-1,6.5004766E-2,-7.663265E-2,5.3007334E-1,-1.932745E-1,2.9730584E-2,2.978249E-1,-1.118073E-2,-3.014067E-1,6.7397606E-1,-5.510717E-1,-7.842386E-1,-1.5884148E-1,-2.5719576E-2,1.668177E-1,-3.34575E-1,3.9900663E-1,8.457808E-1,-3.1850927E-2,-7.43113E-1,-1.7050746E-1,3.2258734E-1,1.250161E0,6.332593E-1,-1.0001866E0,-4.4947606E-1,-1.2383999E0,5.839628E-1,-1.7821787E-1],"categories":[],"categories_nodes":[],"categories_segments":[],"categories_sizes":[],"default_left":[1,1,1,1,1,1,1,1,1,1,1,1,1,1,1,0,0,0,0,0,0,0,0,0,0,0,0,0,0,0,0],"id":9,"left_children":[1,3,5,7,9,11,13,15,17,19,21,23,25,27,29,-1,-1,-1,-1,-1,-1,-1,-1,-1,-1,-1,-1,-1,-1,-1,-1],"loss_changes":[1.373381E1,1.451468E1,2.2397581E1,1.399945E1,1.8482058E1,7.4824886E0,1.3815432E1,1.1272788E1,1.4486963E1,1.7282934E1,1.6254988E1,7.854803E0,3.781818E0,5.1392193E0,9.439186E0,0E0,0E0,0E0,0E0,0E0,0E0,0E0,0E0,0E0,0E0,0E0,0E0,0E0,0E0,0E0,0E0],"parents":[2147483647,0,0,1,1,2,2,3,3,4,4,5,5,6,6,7,7,8,8,9,9,10,10,11,11,12,12,13,13,14,14],"right_children":[2,4,6,8,10,12,14,16,18,20,22,24,26,28,30,-1,-1,-1,-1,-1,-1,-1,-1,-1,-1,-1,-1,-1,-1,-1,-1],"split_conditions":[8.117449E-1,4.778377E-4,-5.3869197E-3,-1.3584203E-4,1.0840809E-3,1.5431612E-3,-4.083615E-3,9.3071803E-4,-2.2438834E-3,1.8185429E1,-7.865661E-1,9.38077E-4,-1.6894587E-3,8.993028E-4,-3.7973158E-3,-1.2859788E-3,8.340885E-3,-1.672875E-2,1.9950332E-2,4.228904E-2,-1.5925464E-3,-3.715565E-2,-8.525373E-3,1.6129367E-2,6.2508054E-2,3.1662967E-2,-5.000933E-2,-2.2473803E-2,-6.1919995E-2,2.919814E-2,-8.910893E-3],"split_indices":[10,4,4,4,3,3,4,3,2,5,8,3,2,3,4,0,0,0,0,0,0,0,0,0,0,0,0,0,0,0,0],"split_type":[0,0,0,0,0,0,0,0,0,0,0,0,0,0,0,0,0,0,0,0,0,0,0,0,0,0,0,0,0,0,0],"sum_hessian":[3.688981E3,2.960217E3,7.2876385E2,1.7047214E3,1.2554956E3,4.4706978E1,6.840569E2,1.4814042E3,2.2331732E2,9.731685E2,2.8232703E2,3.978775E1,4.919226E0,3.646378E1,6.475931E2,1.0553425E3,4.2606155E2,3.048365E1,1.9283368E2,2.1980146E1,9.511884E2,6.3471584E1,2.1885545E2,2.568408E1,1.4103669E1,1.2398043E0,3.6794221E0,2.213658E1,1.43272E1,1.5722559E1,6.3187054E2],"tree_param":{"num_deleted":"0","num_feature":"11","num_nodes":"31","size_leaf_vector":"0"}},{"base_weights":[-2.2327354E-2,8.424004E-2,-5.7299368E-2,1.4296664E-1,-2.8303778E-1,9.840081E-1,-6.248881E-2,1.565601E-1,-9.9681395E-1,-6.5500446E-2,-8.001845E-1,1.1950011E0,-6.492147E-1,2.5610664E-1,-7.435281E-2,1.24695465E-1,8.1885815E-1,-1.2137136E0,2.3814338E-1,-2.5318545E-1,8.211574E-1,-1.2808326E0,-3.7616372E-2,1.3545159E0,-5.3049847E-3,1.3595417E0,1.6502921E-1,-9.702297E-2,8.664279E-2],"categories":[],"categories_nodes":[],"categories_segments":[],"categories_sizes":[],"default_left":[1,1,1,1,1,1,1,1,1,1,1,1,0,1,1,0,0,0,0,0,0,0,0,0,0,0,0,0,0],"id":10,"left_children":[1,3,5,7,9,11,13,15,17,19,21,23,-1,25,27,-1,-1,-1,-1,-1,-1,-1,-1,-1,-1,-1,-1,-1,-1],"loss_changes":[1.3812611E1,1.9793955E1,1.5138603E1,1.2399704E1,1.4188419E1,5.5641546E0,1.0516337E1,1.6396746E1,2.8201675E0,1.5217294E1,1.3657255E1,2.4307137E0,0E0,9.818466E0,9.783534E0,0E0,0E0,0E0,0E0,0E0,0E0,0E0,0E0,0E0,0E0,0E0,0E0,0E0,0E0],"parents":[2147483647,0,0,1,1,2,2,3,3,4,4,5,5,6,6,7,7,8,8,9,9,10,10,11,11,13,13,14,14],"right_children":[2,4,6,8,10,12,14,16,18,20,22,24,-1,26,28,-1,-1,-1,-1,-1,-1,-1,-1,-1,-1,-1,-1,-1,-1],"split_conditions":[3.7297935E1,2.6134732E-3,-8.810822E-3,2.2015264E-3,1.0999833E-3,1.3801251E-3,7.1141776E-4,2.00304E-3,2.4928066E-3,1.5313069E-3,6.078576E-1,1.5439349E-3,-3.2460734E-2,-1.2940952E-1,1.0437431E-3,6.2347734E-3,4.0942907E-2,-6.0685683E-2,1.190717E-2,-1.2659273E-2,4.105787E-2,-6.404164E-2,-1.8808186E-3,6.77258E-2,-2.6524925E-4,6.7977086E-2,8.251461E-3,-4.851149E-3,4.3321396E-3],"split_indices":[5,4,4,3,3,0,6,6,3,6,9,3,0,7,0,0,0,0,0,0,0,0,0,0,0,0,0,0,0],"split_type":[0,0,0,0,0,0,0,0,0,0,0,0,0,0,0,0,0,0,0,0,0,0,0,0,0,0,0,0,0],"sum_hessian":[3.703921E3,9.148286E2,2.7890923E3,7.8924194E2,1.2558663E2,1.2895418E1,2.776197E3,7.807926E2,8.449378E0,8.919393E1,3.63927E1,1.1657699E1,1.2377194E0,9.89306E1,2.6772664E3,7.460851E2,3.4707523E1,7.201718E0,1.2476602E0,7.4201614E1,1.499232E1,2.19058E1,1.44869E1,1.0176779E1,1.4809198E0,6.4812064E0,9.2449394E1,2.3471553E3,3.3011105E2],"tree_param":{"num_deleted":"0","num_feature":"11","num_nodes":"29","size_leaf_vector":"0"}},{"base_weights":[-8.255716E-3,8.951804E-2,-3.9809298E-2,1.4286125E-1,-2.4519707E-1,3.696415E-1,-5.084804E-2,-6.643851E-1,1.5549868E-1,-4.719963E-1,1.0959698E-1,1.0534651E-1,7.763373E-1,-9.363235E-2,5.3747084E-2,-1.0262269E0,5.324792E-1,-1.9658221E-1,1.8575417E-1,-1.9909567E-1,-1.0736427E0,-3.5475856E-1,4.366544E-1,-1.3521804E-1,1.1438123E0,9.0215075E-1,-1.1141853E0,1.0121017E-1,-1.532561E-1,-4.5164192E-1,1.2002737E-1],"categories":[],"categories_nodes":[],"categories_segments":[],"categories_sizes":[],"default_left":[1,1,1,1,1,1,1,1,1,1,1,1,1,1,1,0,0,0,0,0,0,0,0,0,0,0,0,0,0,0,0],"id":11,"left_children":[1,3,5,7,9,11,13,15,17,19,21,23,25,27,29,-1,-1,-1,-1,-1,-1,-1,-1,-1,-1,-1,-1,-1,-1,-1,-1],"loss_changes":[1.1441571E1,1.6191254E1,1.26906395E1,8.071877E0,1.0090235E1,7.8423996E0,1.2225866E1,5.8427553E0,8.237627E0,1.2312689E1,7.6665163E0,1.1606495E1,7.8746223E0,2.2535292E1,2.6631493E1,0E0,0E0,0E0,0E0,0E0,0E0,0E0,0E0,0E0,0E0,0E0,0E0,0E0,0E0,0E0,0E0],"parents":[2147483647,0,0,1,1,2,2,3,3,4,4,5,5,6,6,7,7,8,8,9,9,10,10,11,11,12,12,13,13,14,14],"right_children":[2,4,6,8,10,12,14,16,18,20,22,24,26,28,30,-1,-1,-1,-1,-1,-1,-1,-1,-1,-1,-1,-1,-1,-1,-1,-1],"split_conditions":[3.7141136E1,2.6134732E-3,6.818996E-4,6.5862935E-4,6.078576E-1,3.7006714E-4,1.3967471E-3,8.783797E-1,1.4600999E1,1.0987064E-3,-3.7940952E-1,7.335341E-4,3.0773394E-3,-2.0318464E-3,-3.2497454E-3,-5.1311344E-2,2.6623962E-2,-9.8291105E-3,9.287708E-3,-9.954783E-3,-5.3682137E-2,-1.7737929E-2,2.183272E-2,-6.7609022E-3,5.7190616E-2,4.510754E-2,-5.570927E-2,5.0605084E-3,-7.6628053E-3,-2.2582097E-2,6.0013686E-3],"split_indices":[5,4,6,6,9,1,2,9,5,3,8,3,4,4,4,0,0,0,0,0,0,0,0,0,0,0,0,0,0,0,0],"split_type":[0,0,0,0,0,0,0,0,0,0,0,0,0,0,0,0,0,0,0,0,0,0,0,0,0,0,0,0,0,0,0],"sum_hessian":[3.7064846E3,9.0386847E2,2.8026162E3,7.801155E2,1.2375302E2,7.272179E1,2.7298943E3,1.1229528E1,7.688859E2,7.5292534E1,4.8460484E1,4.4840683E1,2.7881098E1,1.9374794E3,7.9241504E2,8.732152E0,2.4973764E0,6.0409336E1,7.084766E2,5.2713257E1,2.2579277E1,1.999166E1,2.8468824E1,3.7113087E1,7.7275968E0,2.6631582E1,1.249516E0,4.538055E2,1.4836738E3,9.119982E1,7.012153E2],"tree_param":{"num_deleted":"0","num_feature":"11","num_nodes":"31","size_leaf_vector":"0"}},{"base_weights":[-2.0412741E-2,1.3304516E0,-2.2398412E-2,-2.4144148E-2,1.4307884E0,6.415388E-2,-5.2878402E-2,8.348659E-2,-4.0238503E-1,3.0528522E-1,-6.634296E-2],"categories":[],"categories_nodes":[],"categories_segments":[],"categories_sizes":[],"default_left":[1,0,1,1,0,1,1,0,0,0,0],"id":12,"left_children":[1,-1,3,5,-1,7,9,-1,-1,-1,-1],"loss_changes":[9.995547E0,0E0,9.448406E0,9.409561E0,0E0,8.247544E0,1.3511927E1,0E0,0E0,0E0,0E0],"parents":[2147483647,0,0,2,2,3,3,5,5,6,6],"right_children":[2,-1,4,6,-1,8,10,-1,-1,-1,-1],"split_conditions":[-9.829799E-3,6.652258E-2,9.707555E1,3.729621E1,7.1539424E-2,5.018291E-3,7.1141776E-4,4.1743293E-3,-2.0119252E-2,1.5264261E-2,-3.317148E-3],"split_indices":[4,0,5,5,0,4,6,0,0,0,0],"split_type":[0,0,0,0,0,0,0,0,0,0,0],"sum_hessian":[3.7142737E3,4.4697194E0,3.709804E3,3.706335E3,3.4690897E0,9.0969214E2,2.7966428E3,8.742841E2,3.540803E1,1.0054064E2,2.696102E3],"tree_param":{"num_deleted":"0","num_feature":"11","num_nodes":"11","size_leaf_vector":"0"}},{"base_weights":[-1.3790047E-2,3.2152686E-1,-2.1423537E-2,-1.0268617E0,4.4929963E-1,1.2935756E-1,-3.9027344E-2,5.368683E-1,-1.4209213E0,6.918106E-1,-8.713304E-2,-2.1901697E-1,2.5124022E-1,-3.1214956E-2,-6.592378E-1,-1.6299021E0,-4.5422307E-1,-3.1225848E-1,7.581169E-1,-6.8424636E-1,3.8223928E-1,-5.5794287E-1,1.3993302E-1,4.0427318E-1,-7.5771E-2,-3.316154E-2,1.3831254E0,-8.710462E-1,6.4379865E-1],"categories":[],"categories_nodes":[],"categories_segments":[],"categories_sizes":[],"default_left":[1,1,1,1,1,1,1,0,1,1,1,1,1,1,1,0,0,0,0,0,0,0,0,0,0,0,0,0,0],"id":13,"left_children":[1,3,5,7,9,11,13,-1,15,17,19,21,23,25,27,-1,-1,-1,-1,-1,-1,-1,-1,-1,-1,-1,-1,-1,-1],"loss_changes":[9.51896E0,1.4723018E1,9.651915E0,5.3655424E0,9.987352E0,1.6198217E1,1.5751976E1,0E0,5.2032185E-1,3.7428417E0,7.1689305E0,1.2131058E1,1.4148762E1,8.899305E0,1.1723076E1,0E0,0E0,0E0,0E0,0E0,0E0,0E0,0E0,0E0,0E0,0E0,0E0,0E0,0E0],"parents":[2147483647,0,0,1,1,2,2,3,3,4,4,5,5,6,6,8,8,9,9,10,10,11,11,12,12,13,13,14,14],"right_children":[2,4,6,8,10,12,14,-1,16,18,20,22,24,26,28,-1,-1,-1,-1,-1,-1,-1,-1,-1,-1,-1,-1,-1,-1],"split_conditions":[-6.5939277E-3,2.1248318E1,2.7287659E1,-1.2940952E-1,6.8146316E-4,-2.5818786E-3,2.5332663E-3,2.6843414E-2,9.159756E-1,2.4315004E1,-3.7940952E-1,2.1152767E1,1.4464052E-3,9.6629684E1,6.123234E-17,-8.1495106E-2,-2.2711154E-2,-1.56129245E-2,3.7905846E-2,-3.4212317E-2,1.9111965E-2,-2.7897144E-2,6.996651E-3,2.021366E-2,-3.78855E-3,-1.658077E-3,6.9156274E-2,-4.355231E-2,3.218993E-2],"split_indices":[4,5,5,8,2,4,6,0,8,5,8,5,4,5,7,0,0,0,0,0,0,0,0,0,0,0,0,0,0],"split_type":[0,0,0,0,0,0,0,0,0,0,0,0,0,0,0,0,0,0,0,0,0,0,0,0,0,0,0,0,0],"sum_hessian":[3.7151785E3,8.177826E1,3.6334001E3,6.469447E0,7.530881E1,3.791903E2,3.2542097E3,1.2292125E0,5.240235E0,5.166321E1,2.36456E1,9.807312E1,2.811172E2,3.2147659E3,3.9443996E1,3.7446628E0,1.4955721E0,2.9705884E0,4.8692623E1,1.0205216E1,1.3440384E1,5.015842E1,4.7914703E1,1.9133908E2,8.977809E1,3.2113225E3,3.4432564E0,3.421404E1,5.2299595E0],"tree_param":{"num_deleted":"0","num_feature":"11","num_nodes":"29","size_leaf_vector":"0"}},{"base_weights":[-1.5545578E-2,-9.979695E-3,-4.2855015E-1,1.4743543E-2,-1.1065882E-1,-1.4021982E-1,-1.2538912E0,1.3899104E-1,-1.6817119E-2,-8.6689115E-2,-5.8054423E-1,-5.125104E-1,4.1264108E-1,-1.3849434E-1,-1.3639113E0,1.5553758E-2,4.553376E-1,-2.989032E-2,3.7354627E-1,-1.16538666E-1,5.9998566E-1,-6.987048E-1,1.2222981E0,3.6935207E-1,-9.240734E-1,-8.874183E-1,6.6646E-1,-9.786222E-2,-1.5085859E0],"categories":[],"categories_nodes":[],"categories_segments":[],"categories_sizes":[],"default_left":[1,1,1,1,1,1,1,1,1,1,1,1,1,0,1,0,0,0,0,0,0,0,0,0,0,0,0,0,0],"id":14,"left_children":[1,3,5,7,9,11,13,15,17,19,21,23,25,-1,27,-1,-1,-1,-1,-1,-1,-1,-1,-1,-1,-1,-1,-1,-1],"loss_changes":[8.480988E0,9.070008E0,1.149912E1,1.1475504E1,8.040821E0,7.9267306E0,1.3543682E0,2.3139874E1,1.1922597E1,1.4103973E1,8.244237E0,8.63322E0,5.751694E0,0E0,1.9283161E0,0E0,0E0,0E0,0E0,0E0,0E0,0E0,0E0,0E0,0E0,0E0,0E0,0E0,0E0],"parents":[2147483647,0,0,1,1,2,2,3,3,4,4,5,5,6,6,7,7,8,8,9,9,10,10,11,11,12,12,14,14],"right_children":[2,4,6,8,10,12,14,16,18,20,22,24,26,-1,28,-1,-1,-1,-1,-1,-1,-1,-1,-1,-1,-1,-1,-1,-1],"split_conditions":[2.5175672E-3,8.117449E-1,6.5410126E1,9.279746E-4,1.3761256E-3,2.0048442E-1,-1.0642477E-3,2.0048442E-1,1.5517157E-3,1.905106E-3,4.272308E-3,2.8603672E1,1.4214544E-3,-6.924717E-3,-6.035534E-1,7.776879E-4,2.276688E-2,-1.494516E-3,1.8677315E-2,-5.8269333E-3,2.9999284E-2,-3.493524E-2,6.1114907E-2,1.8467603E-2,-4.620367E-2,-4.4370916E-2,3.3323E-2,-4.893111E-3,-7.54293E-2],"split_indices":[6,10,5,6,3,10,2,10,3,6,1,5,3,0,8,0,0,0,0,0,0,0,0,0,0,0,0,0,0],"split_type":[0,0,0,0,0,0,0,0,0,0,0,0,0,0,0,0,0,0,0,0,0,0,0,0,0,0,0,0,0],"sum_hessian":[3.6902754E3,3.642215E3,4.806038E1,2.924833E3,7.1738214E2,3.6484516E1,1.1575861E1,5.9176764E2,2.3330652E3,6.8369037E2,3.3691788E1,2.1846382E1,1.4638135E1,1.2421012E0,1.0333759E1,4.264267E2,1.6534099E2,2.2583567E3,7.4708534E1,6.5600433E2,2.768603E1,3.2194183E1,1.497604E0,6.98407E0,1.4862313E1,1.9833186E0,1.2654817E1,1.2316871E0,9.102073E0],"tree_param":{"num_deleted":"0","num_feature":"11","num_nodes":"29","size_leaf_vector":"0"}},{"base_weights":[-1.5157091E-2,7.427057E-1,-1.9224871E-2,-6.408926E-1,9.1155916E-1,8.145764E-2,-5.2135937E-2,1.1410404E0,2.1513847E-1,1.4357209E-1,-1.2160118E-1,-9.434119E-2,5.379827E-2,1.5729287E-1,1.351657E0,8.4670484E-1,-6.537898E-1,1.6122174E-1,-9.312151E-1,-1.044001E0,-3.1006888E-2,8.8492334E-2,-1.4952187E-1,-4.4023162E-1,1.13017984E-1],"categories":[],"categories_nodes":[],"categories_segments":[],"categories_sizes":[],"default_left":[1,1,1,0,1,1,1,1,1,1,1,1,1,0,0,0,0,0,0,0,0,0,0,0,0],"id":15,"left_children":[1,3,5,-1,7,9,11,13,15,17,19,21,23,-1,-1,-1,-1,-1,-1,-1,-1,-1,-1,-1,-1],"loss_changes":[1.13889885E1,5.1921854E0,1.2168313E1,0E0,2.6298132E0,1.1428915E1,1.2377356E1,2.543047E0,3.6769493E0,1.3301318E1,1.7722504E1,1.9981255E1,2.3133854E1,0E0,0E0,0E0,0E0,0E0,0E0,0E0,0E0,0E0,0E0,0E0,0E0],"parents":[2147483647,0,0,1,1,2,2,4,4,5,5,6,6,7,7,8,8,9,9,10,10,11,11,12,12],"right_children":[2,4,6,-1,8,10,12,14,16,18,20,22,24,-1,-1,-1,-1,-1,-1,-1,-1,-1,-1,-1,-1],"split_conditions":[-8.815326E-3,2.428007E1,3.7297935E1,-3.204463E-2,8.777861E-4,1.4455325E-3,1.4043746E-3,9.956816E-4,1.6908506E-3,2.0606434E-3,5.6489324E-4,-2.0318464E-3,-3.2762964E-3,7.864644E-3,6.758285E-2,4.2335242E-2,-3.2689493E-2,8.061088E-3,-4.6560757E-2,-5.220005E-2,-1.5503444E-3,4.4246167E-3,-7.4760937E-3,-2.2011582E-2,5.6508994E-3],"split_indices":[4,5,5,0,1,4,2,3,6,3,3,4,4,0,0,0,0,0,0,0,0,0,0,0,0],"split_type":[0,0,0,0,0,0,0,0,0,0,0,0,0,0,0,0,0,0,0,0,0,0,0,0,0],"sum_hessian":[3.6887107E3,1.8723783E1,3.6699868E3,1.7324442E0,1.6991339E1,9.037458E2,2.7662412E3,1.2299899E1,4.6914406E0,6.922758E2,2.1146997E2,1.9782113E3,7.8802985E2,2.477027E0,9.822872E0,2.7315986E0,1.9598422E0,6.819275E2,1.0348302E1,1.7971048E1,1.9349892E2,4.5848413E2,1.5197272E3,8.366185E1,7.04368E2],"tree_param":{"num_deleted":"0","num_feature":"11","num_nodes":"25","size_leaf_vector":"0"}},{"base_weights":[-1.5922641E-2,3.548915E-1,-2.3046993E-2,5.003688E-1,-6.708797E-1,1.19914286E-1,-3.9970916E-2,-5.8315426E-1,5.953178E-1,9.750255E-1,-1.0508811E0,-2.0805831E-1,2.4055813E-1,-3.3428848E-2,-5.651337E-1,3.8267422E-1,-1.3642734E0,8.513214E-1,1.0816152E-1,-8.333217E-2,-1.3583555E0,-4.3260595E-1,2.5912592E-1,3.7884802E-1,-3.655486E-2,-4.0043805E-2,4.2074633E-1,-7.531556E-1,6.872907E-1],"categories":[],"categories_nodes":[],"categories_segments":[],"categories_sizes":[],"default_left":[1,1,1,1,1,1,1,1,1,0,1,1,1,1,1,0,0,0,0,0,0,0,0,0,0,0,0,0,0],"id":16,"left_children":[1,3,5,7,9,11,13,15,17,-1,19,21,23,25,27,-1,-1,-1,-1,-1,-1,-1,-1,-1,-1,-1,-1,-1,-1],"loss_changes":[9.788525E0,1.0758904E1,8.795411E0,6.699499E0,6.717988E0,1.5277166E1,1.1145099E1,4.656307E0,7.049719E0,0E0,2.2300987E0,1.1025145E1,1.0813253E1,9.662422E0,9.91771E0,0E0,0E0,0E0,0E0,0E0,0E0,0E0,0E0,0E0,0E0,0E0,0E0,0E0,0E0],"parents":[2147483647,0,0,1,1,2,2,3,3,4,4,5,5,6,6,7,7,8,8,10,10,11,11,12,12,13,13,14,14],"right_children":[2,4,6,8,10,12,14,16,18,-1,20,22,24,26,28,-1,-1,-1,-1,-1,-1,-1,-1,-1,-1,-1,-1,-1,-1],"split_conditions":[-6.9065774E-3,1.4538639E-3,2.7287659E1,2.107956E1,-9.283728E-3,-2.5818786E-3,2.5332663E-3,-8.818276E-4,3.835209E-4,4.8751276E-2,1.5302502E-3,9.088365E-4,1.261875E-3,8.586029E-3,6.123234E-17,1.9133711E-2,-6.821367E-2,4.2566072E-2,5.408076E-3,-4.1666087E-3,-6.791778E-2,-2.1630298E-2,1.2956296E-2,1.89424E-2,-1.8277431E-3,-2.0021903E-3,2.1037316E-2,-3.765778E-2,3.4364536E-2],"split_indices":[4,3,5,5,4,4,6,2,2,0,3,3,4,4,7,0,0,0,0,0,0,0,0,0,0,0,0,0,0],"split_type":[0,0,0,0,0,0,0,0,0,0,0,0,0,0,0,0,0,0,0,0,0,0,0,0,0,0,0,0,0],"sum_hessian":[3.7011372E3,6.884834E1,3.6322888E3,6.074548E1,8.102863E0,3.8383533E2,3.2484536E3,4.4799666E0,5.626551E1,1.2261548E0,6.8767085E0,1.0302778E2,2.8080756E2,3.2095354E3,3.8918243E1,2.2312245E0,2.248742E0,3.639315E1,1.9872362E1,1.9648411E0,4.9118676E0,6.963324E1,3.339454E1,1.8708028E2,9.372727E1,3.164359E3,4.5176353E1,3.418484E1,4.7334023E0],"tree_param":{"num_deleted":"0","num_feature":"11","num_nodes":"29","size_leaf_vector":"0"}},{"base_weights":[-1.2521497E-2,7.801086E-2,-4.2305633E-2,1.22444406E-1,-2.4956205E-1,8.991708E-1,-4.6772644E-2,2.3460343E-1,2.953399E-2,-6.295845E-2,-7.210688E-1,1.350318E0,2.1604344E-1,1.8492188E-1,-6.370634E-2,-3.971058E-2,3.357062E-1,-2.4206173E-2,5.381073E-1,-1.2370944E0,2.7810214E-2,-9.25152E-1,6.889994E-1,9.600932E-1,-4.0580136E-1,-1.6906808E-1,5.8538216E-1,-4.3265736E-1,-4.957343E-2],"categories":[],"categories_nodes":[],"categories_segments":[],"categories_sizes":[],"default_left":[1,1,1,1,1,1,1,1,1,1,1,0,1,1,1,0,0,0,0,0,0,0,0,0,0,0,0,0,0],"id":17,"left_children":[1,3,5,7,9,11,13,15,17,19,21,-1,23,25,27,-1,-1,-1,-1,-1,-1,-1,-1,-1,-1,-1,-1,-1,-1],"loss_changes":[9.966432E0,1.334898E1,1.173741E1,8.396398E0,9.599737E0,3.770749E0,1.0874729E1,1.0142088E1,1.2098497E1,8.521528E0,9.5546665E0,0E0,3.3662164E0,2.686732E1,1.3436261E1,0E0,0E0,0E0,0E0,0E0,0E0,0E0,0E0,0E0,0E0,0E0,0E0,0E0,0E0],"parents":[2147483647,0,0,1,1,2,2,3,3,4,4,5,5,6,6,7,7,8,8,9,9,10,10,12,12,13,13,14,14],"right_children":[2,4,6,8,10,12,14,16,18,20,22,-1,24,26,28,-1,-1,-1,-1,-1,-1,-1,-1,-1,-1,-1,-1,-1,-1],"split_conditions":[3.737024E1,2.901853E-3,-8.815326E-3,-1.5299646E-3,1.1339379E-3,5.60676E-4,5.436265E-4,-3.7271213E-3,1.2101119E-3,5.674793E-4,3.556581E1,6.75159E-2,2.0048442E-1,5.350256E-4,5.737316E-4,-1.9855292E-3,1.678531E-2,-1.2103086E-3,2.6905363E-2,-6.185472E-2,1.3905107E-3,-4.62576E-2,3.4449972E-2,4.800466E-2,-2.0290067E-2,-8.4534045E-3,2.9269109E-2,-2.1632869E-2,-2.4786715E-3],"split_indices":[5,4,4,2,3,2,3,2,3,3,5,0,10,2,3,0,0,0,0,0,0,0,0,0,0,0,0,0,0],"split_type":[0,0,0,0,0,0,0,0,0,0,0,0,0,0,0,0,0,0,0,0,0,0,0,0,0,0,0,0,0],"sum_hessian":[3.693937E3,9.140268E2,2.7799102E3,8.054042E2,1.0862266E2,1.2181683E1,2.7677285E3,3.6421198E2,4.411922E2,7.8635414E1,2.998724E1,6.7483225E0,5.43336E0,1.8783012E2,2.5798982E3,9.824876E1,2.659632E2,3.9988895E2,4.130325E1,4.7365675E0,7.389885E1,2.6496258E1,3.4909835E0,2.2259831E0,3.207377E0,1.0000646E2,8.782367E1,9.4086266E1,2.485812E3],"tree_param":{"num_deleted":"0","num_feature":"11","num_nodes":"29","size_leaf_vector":"0"}},{"base_weights":[-1.6431576E-2,1.0358069E-2,-1.2560585E-1,1.4026766E-1,-2.0836193E-2,-1.78953E-1,9.978799E-2,2.5958614E-2,4.3357286E-1,-6.1556315E-1,-1.5846958E-2,1.3260275E-2,-2.8830588E-1,-5.7473835E-2,5.715539E-1,2.5427434E-1,-8.5835725E-2,7.83671E-1,2.2429423E-1,7.4919444E-1,-7.6660323E-1,6.903483E-2,-5.4917816E-2,-1.9750977E-2,1.0407703E0,-4.3743712E-1,-1.2559706E-1,1.680414E-1,-3.07465E-1,7.4051654E-1,-7.6336265E-1],"categories":[],"categories_nodes":[],"categories_segments":[],"categories_sizes":[],"default_left":[1,1,1,1,1,1,1,1,1,1,1,1,1,1,1,0,0,0,0,0,0,0,0,0,0,0,0,0,0,0,0],"id":18,"left_children":[1,3,5,7,9,11,13,15,17,19,21,23,25,27,29,-1,-1,-1,-1,-1,-1,-1,-1,-1,-1,-1,-1,-1,-1,-1,-1],"loss_changes":[1.085031E1,1.2076892E1,8.806962E0,1.9335167E1,7.1217012E0,1.243491E1,1.0459387E1,1.0647036E1,1.1675781E1,4.6904564E0,7.911544E0,7.3272824E0,9.093075E0,6.045096E0,8.510695E0,0E0,0E0,0E0,0E0,0E0,0E0,0E0,0E0,0E0,0E0,0E0,0E0,0E0,0E0,0E0,0E0],"parents":[2147483647,0,0,1,1,2,2,3,3,4,4,5,5,6,6,7,7,8,8,9,9,10,10,11,11,12,12,13,13,14,14],"right_children":[2,4,6,8,10,12,14,16,18,20,22,24,26,28,30,-1,-1,-1,-1,-1,-1,-1,-1,-1,-1,-1,-1,-1,-1,-1,-1],"split_conditions":[8.117449E-1,9.219407E-4,1.0130494E-3,2.0048442E-1,1.0496473E1,-6.480849E-4,1.6443573E-3,0E0,-1.9846903E-4,9.885735E-4,4.1523026E1,-6.8488537E-4,1.168916E-3,1.1937538E-3,6.11203E-3,1.2713717E-2,-4.2917863E-3,3.9183553E-2,1.1214712E-2,3.7459724E-2,-3.8330164E-2,3.4517415E-3,-2.7458908E-3,-9.875488E-4,5.2038517E-2,-2.1871855E-2,-6.279853E-3,8.40207E-3,-1.537325E-2,3.7025828E-2,-3.8168132E-2],"split_indices":[10,6,1,10,5,1,6,9,1,6,5,1,6,6,2,0,0,0,0,0,0,0,0,0,0,0,0,0,0,0,0],"split_type":[0,0,0,0,0,0,0,0,0,0,0,0,0,0,0,0,0,0,0,0,0,0,0,0,0,0,0,0,0,0,0],"sum_hessian":[3.7083926E3,2.9784365E3,7.299562E2,5.760325E2,2.402404E3,5.904193E2,1.3953687E2,4.1527643E2,1.6075606E2,1.8968273E1,2.3834358E3,2.1441443E2,3.7600488E2,1.0531018E2,3.4226677E1,1.3608263E2,2.791938E2,5.911653E1,1.0163953E2,1.4954602E0,1.7472813E1,7.5103613E2,1.6323997E3,2.0869052E2,5.723912E0,1.953071E2,1.8069778E2,5.5537766E1,4.9772415E1,3.0776514E1,3.4501648E0],"tree_param":{"num_deleted":"0","num_feature":"11","num_nodes":"31","size_leaf_vector":"0"}},{"base_weights":[-1.2147393E-2,1.3413906E-1,-2.946062E-2,-1.7843598E-1,2.600404E-1,8.463715E-2,-6.6444285E-2,9.8475623E-1,-2.8492936E-1,3.9939058E-1,-3.8799986E-2,2.1221857E-1,-9.14036E-2,-1.1819151E-1,8.557078E-2,2.959691E-1,1.283515E0,-6.423934E-1,8.189748E-2,-2.3972523E-1,4.7909147E-1,2.0916224E-1,-5.5038077E-1,7.792406E-1,1.7112029E-1,-2.2342715E-1,3.106738E-1,-4.565594E-2,-1.9708724E-1,6.663828E-1,5.032663E-2],"categories":[],"categories_nodes":[],"categories_segments":[],"categories_sizes":[],"default_left":[1,1,1,1,1,1,1,1,1,1,1,1,1,1,1,0,0,0,0,0,0,0,0,0,0,0,0,0,0,0,0],"id":19,"left_children":[1,3,5,7,9,11,13,15,17,19,21,23,25,27,29,-1,-1,-1,-1,-1,-1,-1,-1,-1,-1,-1,-1,-1,-1,-1,-1],"loss_changes":[9.357779E0,1.5434586E1,1.3944371E1,1.4261936E1,1.1640453E1,1.8190125E1,1.963802E1,1.6143789E0,1.3713187E1,9.816942E0,1.1492043E1,1.0805054E1,1.8152754E1,1.0646296E1,1.2949715E1,0E0,0E0,0E0,0E0,0E0,0E0,0E0,0E0,0E0,0E0,0E0,0E0,0E0,0E0,0E0,0E0],"parents":[2147483647,0,0,1,1,2,2,3,3,4,4,5,5,6,6,7,7,8,8,9,9,10,10,11,11,12,12,13,13,14,14],"right_children":[2,4,6,8,10,12,14,16,18,20,22,24,26,28,30,-1,-1,-1,-1,-1,-1,-1,-1,-1,-1,-1,-1,-1,-1,-1,-1],"split_conditions":[2.7317684E1,-2.5818786E-3,-2.006563E-3,8.2358473E-4,1.4464052E-3,3.9713352E-4,1.4043814E-3,1.9411453E1,8.0901745E-4,8.0505514E-4,1.049862E-3,-7.0101605E-3,-2.6132127E-3,1.2103224E-3,5.499229E-4,1.4798455E-2,6.417575E-2,-3.2119673E-2,4.094874E-3,-1.1986262E-2,2.3954574E-2,1.0458112E-2,-2.7519038E-2,3.8962033E-2,8.556015E-3,-1.1171358E-2,1.553369E-2,-2.2827971E-3,-9.854362E-3,3.331914E-2,2.5163316E-3],"split_indices":[5,4,4,6,4,2,2,5,3,6,3,4,4,6,3,0,0,0,0,0,0,0,0,0,0,0,0,0,0,0,0],"split_type":[0,0,0,0,0,0,0,0,0,0,0,0,0,0,0,0,0,0,0,0,0,0,0,0,0,0,0,0,0,0,0],"sum_hessian":[3.692237E3,3.9002344E2,3.3022136E3,1.1186906E2,2.781544E2,8.080431E2,2.4941704E3,8.69117E0,1.0317789E2,1.8946828E2,8.8686104E1,4.6838586E2,3.3965723E2,1.8609199E3,6.3325055E2,3.2315366E0,5.4596334E0,5.1875366E1,5.1302525E1,2.0785227E1,1.6868306E2,6.0131588E1,2.855452E1,3.0440874E1,4.3794498E2,2.560324E2,8.3624825E1,9.703621E2,8.9055786E2,3.5203354E1,5.980472E2],"tree_param":{"num_deleted":"0","num_feature":"11","num_nodes":"31","size_leaf_vector":"0"}},{"base_weights":[-9.509065E-3,3.6118492E-2,-6.597503E-2,2.2327426E-1,-9.2415735E-3,-8.242066E-3,-2.737791E-1,-2.5711134E-1,3.1183228E-1,-4.5738216E-2,2.6451617E-1,7.3562187E-1,-2.8098064E-2,-7.6939887E-1,-1.9628944E-1,-1.1860205E0,-5.8590177E-2,-8.4134823E-1,3.4137952E-1,-8.806606E-2,1.8797116E-1,-8.032362E-3,4.2244786E-1,1.2516389E0,3.64373E-1,-4.284703E-2,8.042047E-1,-9.2863345E-1,7.0940185E-1,-7.782972E-1,-1.3777184E-1],"categories":[],"categories_nodes":[],"categories_segments":[],"categories_sizes":[],"default_left":[1,1,1,1,1,1,1,1,1,1,1,1,1,1,1,0,0,0,0,0,0,0,0,0,0,0,0,0,0,0,0],"id":20,"left_children":[1,3,5,7,9,11,13,15,17,19,21,23,25,27,29,-1,-1,-1,-1,-1,-1,-1,-1,-1,-1,-1,-1,-1,-1,-1,-1],"loss_changes":[9.506282E0,1.7327765E1,1.978055E1,1.701951E1,1.6434542E1,1.9095953E1,1.3616747E1,1.1460817E1,1.1758095E1,1.4372255E1,8.332484E0,5.9833813E0,1.5487734E1,1.1991768E1,1.049688E1,0E0,0E0,0E0,0E0,0E0,0E0,0E0,0E0,0E0,0E0,0E0,0E0,0E0,0E0,0E0,0E0],"parents":[2147483647,0,0,1,1,2,2,3,3,4,4,5,5,6,6,7,7,8,8,9,9,10,10,11,11,12,12,13,13,14,14],"right_children":[2,4,6,8,10,12,14,16,18,20,22,24,26,28,30,-1,-1,-1,-1,-1,-1,-1,-1,-1,-1,-1,-1,-1,-1,-1,-1],"split_conditions":[3.843446E-4,-1.0556327E-3,1.0949622E-3,-3.7448304E-3,-1.527635E-4,1.8185429E1,1.2654299E-3,7.4118935E-4,7.181484E-4,1.5188837E-3,7.1009155E-4,1.1359365E-3,8.927461E-3,1.1956429E-3,2.9708702E1,-5.9301026E-2,-2.929509E-3,-4.2067412E-2,1.7068977E-2,-4.403303E-3,9.398558E-3,-4.016181E-4,2.1122394E-2,6.258195E-2,1.821865E-2,-2.1423516E-3,4.0210236E-2,-4.643167E-2,3.5470095E-2,-3.891486E-2,-6.888592E-3],"split_indices":[4,1,3,2,4,5,6,3,6,1,3,6,4,0,5,0,0,0,0,0,0,0,0,0,0,0,0,0,0,0,0],"split_type":[0,0,0,0,0,0,0,0,0,0,0,0,0,0,0,0,0,0,0,0,0,0,0,0,0,0,0,0,0,0,0],"sum_hessian":[3.687823E3,2.0398635E3,1.6479596E3,3.9717908E2,1.6426844E3,1.2904745E3,3.574852E2,6.1526024E1,3.3565305E2,1.4501829E3,1.9250154E2,3.261391E1,1.2578606E3,4.712799E1,3.103572E2,9.957793E0,5.156823E1,7.6989975E0,3.2795404E2,1.2283379E3,2.2184497E2,7.097189E1,1.2152965E2,1.2654027E1,1.995988E1,1.2368905E3,2.0970015E1,4.2882515E1,4.245476E0,2.7230112E1,2.831271E2],"tree_param":{"num_deleted":"0","num_feature":"11","num_nodes":"31","size_leaf_vector":"0"}},{"base_weights":[-9.302542E-3,-1.0935927E-2,1.5048381E0,1.308511E-2,-1.0796583E-1,1.5488367E-2,-1.4899803E0,4.7919777E-1,-1.4344147E-1,1.0914336E-2,1.1386926E0,1.3616004E0,2.948604E-1,-6.0661983E-1,-1.1268212E-1],"categories":[],"categories_nodes":[],"categories_segments":[],"categories_sizes":[],"default_left":[1,1,0,1,1,1,0,1,1,0,0,0,0,0,0],"id":21,"left_children":[1,3,-1,5,7,9,-1,11,13,-1,-1,-1,-1,-1,-1],"loss_changes":[9.155599E0,8.607318E0,0E0,1.0717212E1,1.5333013E1,1.517824E1,0E0,6.427415E0,9.788046E0,0E0,0E0,0E0,0E0,0E0,0E0],"parents":[2147483647,0,0,1,1,3,3,4,4,5,5,7,7,8,8],"right_children":[2,4,-1,6,8,10,-1,12,14,-1,-1,-1,-1,-1,-1],"split_conditions":[3.0417137E-3,8.117449E-1,7.524191E-2,1.0962114E-2,-5.65104E-3,9.291101E-3,-7.449902E-2,6.333047E-4,-4.083615E-3,5.457168E-4,5.6934632E-2,6.808002E-2,1.474302E-2,-3.0330991E-2,-5.634106E-3],"split_indices":[3,10,0,4,4,4,0,3,4,0,0,0,0,0,0],"split_type":[0,0,0,0,0,0,0,0,0,0,0,0,0,0,0],"sum_hessian":[3.6943083E3,3.691319E3,2.9892468E0,2.9595168E3,7.3180237E2,2.9557805E3,3.736313E0,4.09827E1,6.908197E2,2.944798E3,1.0982401E1,5.978383E0,3.500432E1,4.1854076E1,6.489656E2],"tree_param":{"num_deleted":"0","num_feature":"11","num_nodes":"15","size_leaf_vector":"0"}},{"base_weights":[-1.058489E-2,2.7081886E-1,-2.0743413E-2,1.7216414E-2,6.598093E-1,7.304428E-3,-1.3659362E-1,5.7066274E-1,-4.3496445E-1,9.214767E-1,-3.384929E-1,1.1464973E-1,-3.247496E-2,-1.1951455E-1,-8.306694E-1,-6.849192E-1,7.2597736E-1,-6.252651E-2,-1.2768067E0,1.0778483E0,-3.435224E-1,2.3517333E-1,-1.0067166E0,-3.534994E-1,1.7667411E-1,7.1608916E-2,-7.855822E-2,-2.0363116E-1,7.384086E-2,2.0453644E-1,-1.338898E0],"categories":[],"categories_nodes":[],"categories_segments":[],"categories_sizes":[],"default_left":[1,1,1,1,1,1,1,1,1,1,1,1,1,1,1,0,0,0,0,0,0,0,0,0,0,0,0,0,0,0,0],"id":22,"left_children":[1,3,5,7,9,11,13,15,17,19,21,23,25,27,29,-1,-1,-1,-1,-1,-1,-1,-1,-1,-1,-1,-1,-1,-1,-1,-1],"loss_changes":[1.0579888E1,1.27096405E1,1.16047325E1,2.0040457E1,1.3598984E1,1.2284559E1,8.152522E0,7.5164804E0,1.3744872E1,8.395416E0,4.5664864E0,2.2647936E1,1.0074298E1,1.1083938E1,8.980995E0,0E0,0E0,0E0,0E0,0E0,0E0,0E0,0E0,0E0,0E0,0E0,0E0,0E0,0E0,0E0,0E0],"parents":[2147483647,0,0,1,1,2,2,3,3,4,4,5,5,6,6,7,7,8,8,9,9,10,10,11,11,12,12,13,13,14,14],"right_children":[2,4,6,8,10,12,14,16,18,20,22,24,26,28,30,-1,-1,-1,-1,-1,-1,-1,-1,-1,-1,-1,-1,-1,-1,-1,-1],"split_conditions":[-6.0006073E-3,9.951149E-4,8.117449E-1,7.324292E-4,1.453158E-3,1.0002246E-3,1.7574341E-3,1.4972851E1,3.7940952E-1,1.0654945E-3,3.7940952E-1,-3.255287E-3,4.122777E1,2.1220294E-3,-1.4987879E-3,-3.424596E-2,3.6298867E-2,-3.1263256E-3,-6.384034E-2,5.3892415E-2,-1.717612E-2,1.17586665E-2,-5.0335832E-2,-1.7674971E-2,8.833705E-3,3.580446E-3,-3.927911E-3,-1.0181558E-2,3.6920428E-3,1.0226822E-2,-6.69449E-2],"split_indices":[4,3,10,3,3,6,3,5,8,0,7,4,5,4,4,0,0,0,0,0,0,0,0,0,0,0,0,0,0,0,0],"split_type":[0,0,0,0,0,0,0,0,0,0,0,0,0,0,0,0,0,0,0,0,0,0,0,0,0,0,0,0,0,0,0],"sum_hessian":[3.6980483E3,1.2795224E2,3.570096E3,7.8087395E1,4.9864845E1,2.8749863E3,6.9510974E2,3.4994225E1,4.3093166E1,3.957001E1,1.0294836E1,7.768263E2,2.09816E3,6.7956006E2,1.5549688E1,3.476874E0,3.151735E1,3.0620625E1,1.2472544E1,3.53484E1,4.2216115E0,5.888045E0,4.4067907E0,9.033024E1,6.8649603E2,6.437129E2,1.454447E3,4.7351202E2,2.0604805E2,5.3170304E0,1.0232658E1],"tree_param":{"num_deleted":"0","num_feature":"11","num_nodes":"31","size_leaf_vector":"0"}},{"base_weights":[-5.071087E-3,-6.7689517E-3,1.3476001E0,4.601914E-2,-4.715335E-2,1.5467595E-1,4.8832693E-3,1.2009189E0,-5.053621E-2,-5.023263E-1,2.1831207E-1,-5.881298E-2,9.866322E-2,1.4604954E0,1.4826475E-1,-9.631889E-2,3.8459085E-2],"categories":[],"categories_nodes":[],"categories_segments":[],"categories_sizes":[],"default_left":[1,1,0,1,1,1,1,1,1,0,0,0,0,0,0,0,0],"id":23,"left_children":[1,3,-1,5,7,9,11,13,15,-1,-1,-1,-1,-1,-1,-1,-1],"loss_changes":[8.485327E0,7.8622684E0,0E0,7.144529E0,8.882416E0,1.84628E1,6.9387617E0,1.3377905E0,8.497897E0,0E0,0E0,0E0,0E0,0E0,0E0,0E0,0E0],"parents":[2147483647,0,0,1,1,3,3,4,4,5,5,6,6,7,7,8,8],"right_children":[2,4,-1,6,8,10,12,14,16,-1,-1,-1,-1,-1,-1,-1,-1],"split_conditions":[9.707555E1,-1.8160176E-4,6.738E-2,-1.9098464E-3,5.468769E-4,1.773991E1,6.078576E-1,4.631334E-4,1.4369227E-3,-2.5116315E-2,1.09156035E-2,-2.940649E-3,4.933161E-3,7.302477E-2,7.413238E-3,-4.815945E-3,1.9229542E-3],"split_indices":[5,1,0,4,6,5,9,0,2,0,0,0,0,0,0,0,0],"split_type":[0,0,0,0,0,0,0,0,0,0,0,0,0,0,0,0,0],"sum_hessian":[3.6896768E3,3.686045E3,3.631706E0,1.5976075E3,2.0884375E3,4.379749E2,1.1596326E3,4.6884313E0,2.083749E3,3.8066715E1,3.999082E2,6.9080444E2,4.688282E2,3.4501984E0,1.2382331E0,1.3758667E3,7.0788226E2],"tree_param":{"num_deleted":"0","num_feature":"11","num_nodes":"17","size_leaf_vector":"0"}},{"base_weights":[-7.522882E-3,-8.962489E-3,1.4181823E0,-3.574563E-3,-4.131387E-1,-1.668345E-2,1.7948805E-1,1.1554781E-1,-7.513674E-1,2.883236E-2,-6.70604E-2,6.685903E-1,6.4946905E-2,4.860151E-1,-8.3655864E-1,-2.8083163E-1,-1.1344912E0],"categories":[],"categories_nodes":[],"categories_segments":[],"categories_sizes":[],"default_left":[1,1,0,1,1,1,1,1,1,0,0,0,0,0,0,0,0],"id":24,"left_children":[1,3,-1,5,7,9,11,13,15,-1,-1,-1,-1,-1,-1,-1,-1],"loss_changes":[7.600309E0,8.043072E0,0E0,8.753714E0,8.775216E0,7.8065743E0,1.3612495E1,7.398812E0,5.047188E0,0E0,0E0,0E0,0E0,0E0,0E0,0E0,0E0],"parents":[2147483647,0,0,1,1,3,3,4,4,5,5,6,6,7,7,8,8],"right_children":[2,4,-1,6,8,10,12,14,16,-1,-1,-1,-1,-1,-1,-1,-1],"split_conditions":[3.0417137E-3,2.5333564E-3,7.090911E-2,1.9266979E-3,4.198415E1,1.2088805E-3,1.0948693E-3,2.214511E-3,-2.7195245E-4,1.441618E-3,-3.3530202E-3,3.3429515E-2,3.2473453E-3,2.4300756E-2,-4.1827932E-2,-1.4041582E-2,-5.672456E-2],"split_indices":[3,6,0,6,5,6,3,3,0,0,0,0,0,0,0,0,0],"split_type":[0,0,0,0,0,0,0,0,0,0,0,0,0,0,0,0,0],"sum_hessian":[3.6958408E3,3.6931055E3,2.7354019E0,3.6455173E3,4.758822E1,3.4027588E3,2.4275848E2,1.8823503E1,2.8764715E1,1.787853E3,1.6149058E3,4.5145504E1,1.9761298E2,1.3903248E1,4.9202557E0,1.3687428E1,1.5077288E1],"tree_param":{"num_deleted":"0","num_feature":"11","num_nodes":"17","size_leaf_vector":"0"}},{"base_weights":[-7.2625605E-3,1.1144123E0,-9.10691E-3,1.3416297E0,2.3688942E-1,1.2623836E-2,-9.8683886E-2,1.5066082E-2,-1.4547615E0,3.5191816E-1,-1.2652925E-1,1.059037E-2,1.1000572E0,6.854727E-1,-1.4631741E-1,-3.9402953E-1,-7.4623875E-2],"categories":[],"categories_nodes":[],"categories_segments":[],"categories_sizes":[],"default_left":[1,1,1,0,0,1,1,1,0,1,1,0,0,0,0,0,0],"id":25,"left_children":[1,3,5,-1,-1,7,9,11,-1,13,15,-1,-1,-1,-1,-1,-1],"loss_changes":[7.677826E0,8.9695406E-1,7.2061405E0,0E0,0E0,1.069993E1,9.112709E0,1.443834E1,0E0,7.1345224E0,9.43163E0,0E0,0E0,0E0,0E0,0E0,0E0],"parents":[2147483647,0,0,1,1,2,2,5,5,6,6,7,7,9,9,10,10],"right_children":[2,4,6,-1,-1,8,10,12,-1,14,16,-1,-1,-1,-1,-1,-1],"split_conditions":[-9.829799E-3,3.7940952E-1,8.117449E-1,6.708149E-2,1.1844471E-2,1.0819504E-2,-5.3867334E-3,9.291101E-3,-7.2738074E-2,3.7940952E-1,9.218586E-4,5.295185E-4,5.5002864E-2,3.4273636E-2,-7.3158704E-3,-1.9701477E-2,-3.7311937E-3],"split_indices":[4,7,10,0,0,4,4,4,0,7,6,0,0,0,0,0,0],"split_type":[0,0,0,0,0,0,0,0,0,0,0,0,0,0,0,0,0],"sum_hessian":[3.7054124E3,5.092486E0,3.7003198E3,3.624984E0,1.4675018E0,2.9785933E3,7.2172675E2,2.974632E3,3.961102E0,4.132673E1,6.8039996E2,2.9634175E3,1.1214672E1,2.4529276E1,1.6797453E1,1.0949803E2,5.70902E2],"tree_param":{"num_deleted":"0","num_feature":"11","num_nodes":"17","size_leaf_vector":"0"}},{"base_weights":[-7.099355E-3,-8.968502E-3,1.3542546E0,1.398749E-2,-1.0191107E-1,1.0652808E-1,-1.5620703E-2,3.728311E-1,-1.3667722E-1,1.4315766E-1,-1.9274782E-1,-5.7439167E-2,8.6336374E-2,9.7533417E-1,4.5522045E-2,-8.265046E-1,-1.0343174E-1],"categories":[],"categories_nodes":[],"categories_segments":[],"categories_sizes":[],"default_left":[1,1,0,1,1,1,1,1,1,0,0,0,0,0,0,0,0],"id":26,"left_children":[1,3,-1,5,7,9,11,13,15,-1,-1,-1,-1,-1,-1,-1,-1],"loss_changes":[9.426616E0,7.8866286E0,0E0,8.124577E0,1.2134836E1,7.906598E0,9.584945E0,9.860279E0,1.5576147E1,0E0,0E0,0E0,0E0,0E0,0E0,0E0,0E0],"parents":[2147483647,0,0,1,1,3,3,4,4,5,5,6,6,7,7,8,8],"right_children":[2,4,-1,6,8,10,12,14,16,-1,-1,-1,-1,-1,-1,-1,-1],"split_conditions":[9.6730865E1,8.117449E-1,6.771273E-2,3.7297935E1,-4.9794153E-3,2.9821962E-3,1.4039422E-3,-3.7940952E-1,-4.083615E-3,7.157883E-3,-9.637391E-3,-2.8719583E-3,4.316819E-3,4.876671E-2,2.2761023E-3,-4.132523E-2,-5.171587E-3],"split_indices":[5,10,0,5,4,4,2,7,4,0,0,0,0,0,0,0,0],"split_type":[0,0,0,0,0,0,0,0,0,0,0,0,0,0,0,0,0],"sum_hessian":[3.6988262E3,3.6947466E3,4.0794983E0,2.9636106E3,7.311361E2,7.1773315E2,2.2458774E3,4.9225353E1,6.819107E2,6.399311E2,7.780208E1,1.5929525E3,6.529248E2,1.6631187E1,3.2594166E1,3.0255867E1,6.5165485E2],"tree_param":{"num_deleted":"0","num_feature":"11","num_nodes":"17","size_leaf_vector":"0"}},{"base_weights":[-2.653179E-3,-4.3335E-3,1.2952387E0,-5.845179E-3,1.4001099E0,1.5434461E-2,-9.25861E-2,1.1599456E-1,-2.1564545E-2,3.8920072E-1,-1.2829536E-1],"categories":[],"categories_nodes":[],"categories_segments":[],"categories_sizes":[],"default_left":[1,1,0,1,0,1,1,0,0,0,0],"id":27,"left_children":[1,3,-1,5,-1,7,9,-1,-1,-1,-1],"loss_changes":[8.064041E0,7.844985E0,0E0,6.8093314E0,0E0,1.1025103E1,1.2552643E1,0E0,0E0,0E0,0E0],"parents":[2147483647,0,0,1,1,3,3,5,5,6,6],"right_children":[2,4,-1,6,-1,8,10,-1,-1,-1,-1],"split_conditions":[9.6730865E1,3.0417137E-3,6.476194E-2,8.117449E-1,7.00055E-2,1.0004487E-3,-5.0940607E-3,5.799728E-3,-1.0782273E-3,1.9460035E-2,-6.4147683E-3],"split_indices":[5,3,0,10,0,6,4,0,0,0,0],"split_type":[0,0,0,0,0,0,0,0,0,0,0],"sum_hessian":[3.694044E3,3.690263E3,3.780952E0,3.68729E3,2.9729931E0,2.961568E3,7.25722E2,7.959929E2,2.1655752E3,4.9394585E1,6.763274E2],"tree_param":{"num_deleted":"0","num_feature":"11","num_nodes":"11","size_leaf_vector":"0"}},{"base_weights":[-1.9564866E-3,6.361121E-2,-4.4512693E-2,1.9086127E-1,1.3296479E-2,-7.383853E-2,1.0699223E-1,-4.5001128E-1,2.4136986E-1,3.75793E-3,1.0797436E0,1.5788619E-1,-9.734324E-2,3.4043273E-1,-7.435884E-2,-1.0652676E0,2.8162056E-1,1.4383738E-1,4.2620486E-1,1.4774776E-1,-6.483647E-2,1.3697778E0,-1.1298788E-1,-7.4879505E-2,6.6503E-1,-1.056029E-1,5.948102E-1,2.1345958E-1,6.7345774E-1,-1.2601323E0,-5.7947107E-2],"categories":[],"categories_nodes":[],"categories_segments":[],"categories_sizes":[],"default_left":[1,1,1,1,1,1,1,1,1,1,1,1,1,1,1,0,0,0,0,0,0,0,0,0,0,0,0,0,0,0,0],"id":28,"left_children":[1,3,5,7,9,11,13,15,17,19,21,23,25,27,29,-1,-1,-1,-1,-1,-1,-1,-1,-1,-1,-1,-1,-1,-1,-1,-1],"loss_changes":[1.0275848E1,9.277781E0,9.930031E0,1.3401093E1,1.0573411E1,1.020942E1,1.5374723E1,1.3961238E1,6.812519E0,1.0198686E1,3.3423653E0,2.044151E1,9.780966E0,6.5668983E0,3.9139314E0,0E0,0E0,0E0,0E0,0E0,0E0,0E0,0E0,0E0,0E0,0E0,0E0,0E0,0E0,0E0,0E0],"parents":[2147483647,0,0,1,1,2,2,3,3,4,4,5,5,6,6,7,7,8,8,9,9,10,10,11,11,12,12,13,13,14,14],"right_children":[2,4,6,8,10,12,14,16,18,20,22,24,26,28,30,-1,-1,-1,-1,-1,-1,-1,-1,-1,-1,-1,-1,-1,-1,-1,-1],"split_conditions":[-3.0880695E-4,-1.7960877E-3,1.8033279E-3,-4.0056887E-3,3.7143123E-3,5.436265E-4,2.6307772E-3,1.043737E-3,1.3295044E-3,1.0978342E-3,5.1056985E-3,6.073521E-4,2.0253793E-3,2.7092015E-3,2.6437878E-3,-5.3263377E-2,1.4081028E-2,7.191869E-3,2.1310244E-2,7.387388E-3,-3.2418238E-3,6.848889E-2,-5.6493944E-3,-3.7439752E-3,3.32515E-2,-5.280145E-3,2.974051E-2,1.0672979E-2,3.3672888E-2,-6.300662E-2,-2.8973555E-3],"split_indices":[1,4,1,2,2,3,2,3,6,6,4,1,0,1,2,0,0,0,0,0,0,0,0,0,0,0,0,0,0,0,0],"split_type":[0,0,0,0,0,0,0,0,0,0,0,0,0,0,0,0,0,0,0,0,0,0,0,0,0,0,0,0,0,0,0],"sum_hessian":[3.6806726E3,1.4484717E3,2.232201E3,4.0964716E2,1.0388246E3,1.870628E3,3.6157285E2,2.934879E1,3.8029837E2,1.0306101E3,8.214491E0,1.7174425E2,1.6988838E3,1.5769977E2,2.0387306E2,1.5694603E1,1.3654187E1,2.5010359E2,1.3019478E2,3.321739E2,6.9843616E2,6.4883046E0,1.7261865E0,1.183E2,5.344425E1,1.679687E3,1.9196743E1,1.1535797E2,4.234181E1,1.7486405E0,2.0212442E2],"tree_param":{"num_deleted":"0","num_feature":"11","num_nodes":"31","size_leaf_vector":"0"}},{"base_weights":[2.5671185E-3,8.4636407E-4,1.2782416E0,4.034894E-2,-5.0170068E-2,9.41037E-2,-8.472666E-2,5.769851E-4,-2.3049523E-1,7.4619345E-2,6.761753E-1,1.5313376E-1,-2.4930781E-1,-1.6990062E-2,1.0356221E0,-7.238486E-1,-1.489512E-1],"categories":[],"categories_nodes":[],"categories_segments":[],"categories_sizes":[],"default_left":[1,1,0,1,1,1,1,1,1,0,0,0,0,0,0,0,0],"id":29,"left_children":[1,3,-1,5,7,9,11,13,15,-1,-1,-1,-1,-1,-1,-1,-1],"loss_changes":[8.077102E0,7.4104047E0,0E0,1.3941587E1,1.4684704E1,1.6393642E1,2.444543E1,2.2805613E1,1.4070036E1,0E0,0E0,0E0,0E0,0E0,0E0,0E0,0E0],"parents":[2147483647,0,0,1,1,3,3,4,4,5,5,6,6,7,7,8,8],"right_children":[2,4,-1,6,8,10,12,14,16,-1,-1,-1,-1,-1,-1,-1,-1],"split_conditions":[9.6730865E1,4.632523E-4,6.3912086E-2,5.6307262E1,1.095352E-3,2.0070076E-3,-5.6174487E-1,8.927461E-3,1.2654299E-3,3.7309674E-3,3.3808764E-2,7.6566883E-3,-1.246539E-2,-8.495031E-4,5.1781107E-2,-3.619243E-2,-7.4475603E-3],"split_indices":[5,4,0,5,3,1,10,4,6,0,0,0,0,0,0,0,0],"split_type":[0,0,0,0,0,0,0,0,0,0,0,0,0,0,0,0,0],"sum_hessian":[3.6790608E3,3.675104E3,3.9566758E0,2.071403E3,1.6037009E3,1.4489316E3,6.224715E2,1.2522811E3,3.5141977E2,1.4030925E3,4.583914E1,2.5459229E2,3.678792E2,1.232349E3,1.9932154E1,4.872848E1,3.0269128E2],"tree_param":{"num_deleted":"0","num_feature":"11","num_nodes":"17","size_leaf_vector":"0"}},{"base_weights":[-1.0219758E-2,6.3893414E-1,-1.3557928E-2,8.17176E-1,-4.9379146E-1,-1.5146941E-2,1.2353984E0,-4.0636855E-1,1.0558702E0,3.736626E-2,-5.5117857E-2,4.8565596E-1,-1.1069908E0,1.2180347E0,3.2153788E-1,3.1068085E-2,7.986318E-1,2.0346361E-1,-7.6635934E-2],"categories":[],"categories_nodes":[],"categories_segments":[],"categories_sizes":[],"default_left":[1,1,1,1,0,1,0,1,1,1,1,0,0,0,0,0,0,0,0],"id":30,"left_children":[1,3,5,7,-1,9,-1,11,13,15,17,-1,-1,-1,-1,-1,-1,-1,-1],"loss_changes":[8.002938E0,4.2182856E0,7.3046627E0,5.3069935E0,0E0,7.700253E0,0E0,2.692856E0,1.3057156E0,7.57788E0,1.1605038E1,0E0,0E0,0E0,0E0,0E0,0E0,0E0,0E0],"parents":[2147483647,0,0,1,1,2,2,3,3,5,5,7,7,8,8,9,9,10,10],"right_children":[2,4,6,8,-1,10,-1,12,14,16,18,-1,-1,-1,-1,-1,-1,-1,-1],"split_conditions":[-8.815326E-3,9.316276E-4,9.6730865E1,2.428007E1,-2.4689574E-2,-1.9071695E-4,6.176992E-2,7.7363267E-4,8.777861E-4,-1.9930907E-4,5.436265E-4,2.4282798E-2,-5.534954E-2,6.090174E-2,1.6076894E-2,1.5534043E-3,3.993159E-2,1.0173181E-2,-3.8317968E-3],"split_indices":[4,0,5,5,0,1,0,3,1,1,3,0,0,0,0,0,0,0,0],"split_type":[0,0,0,0,0,0,0,0,0,0,0,0,0,0,0,0,0,0,0],"sum_hessian":[3.6881228E3,1.7894442E1,3.6702283E3,1.5702176E1,2.1922653E0,3.6665515E3,3.6769824E0,2.4485364E0,1.3253639E1,1.5846831E3,2.0818682E3,1.2121114E0,1.2364249E0,1.0316683E1,2.9369571E0,1.5727124E3,1.1970705E1,1.5928572E2,1.9225825E3],"tree_param":{"num_deleted":"0","num_feature":"11","num_nodes":"19","size_leaf_vector":"0"}},{"base_weights":[-7.986512E-3,4.1553143E-2,-4.9451314E-2,4.5161884E-2,-1.128208E0,2.6794058E-1,-7.502883E-2,2.3323847E-2,2.8900364E-1,-2.1778998E-1,-1.3600252E0,-4.5067864E-3,6.437569E-1,-1.105215E-1,7.318943E-2,1.8244226E-1,-1.2462246E-2,5.602281E-1,-1.474985E-2,-4.1717112E-1,2.952027E-1,-4.8359016E-1,7.644665E-1,3.6790377E-1,-1.22923575E-1,2.2197808E-1,-9.0254135E-2],"categories":[],"categories_nodes":[],"categories_segments":[],"categories_sizes":[],"default_left":[1,1,1,1,1,1,1,1,1,0,0,1,1,1,1,0,0,0,0,0,0,0,0,0,0,0,0],"id":31,"left_children":[1,3,5,7,9,11,13,15,17,-1,-1,19,21,23,25,-1,-1,-1,-1,-1,-1,-1,-1,-1,-1,-1,-1],"loss_changes":[7.557216E0,7.1275063E0,1.6277641E1,8.897617E0,8.000412E-1,1.5317215E1,9.761677E0,8.747539E0,1.1324676E1,0E0,0E0,1.0970064E1,8.924643E0,8.923216E0,8.74561E0,0E0,0E0,0E0,0E0,0E0,0E0,0E0,0E0,0E0,0E0,0E0,0E0],"parents":[2147483647,0,0,1,1,2,2,3,3,4,4,5,5,6,6,7,7,8,8,11,11,12,12,13,13,14,14],"right_children":[2,4,6,8,10,12,14,16,18,-1,-1,20,22,24,26,-1,-1,-1,-1,-1,-1,-1,-1,-1,-1,-1,-1],"split_conditions":[-1.2681856E-4,1.0436537E-2,5.393949E-4,1.9264761E-3,1.8789802E-3,5.970277E-4,1.8033279E-3,9.11328E-4,1.5203077E-3,-1.0889499E-2,-6.800126E-2,1.2940952E-1,-3.0739827E-3,6.949144E-4,3.6533462E-4,9.122114E-3,-6.231123E-4,2.8011406E-2,-7.374925E-4,-2.0858556E-2,1.4760136E-2,-2.4179509E-2,3.8223326E-2,1.839519E-2,-6.146179E-3,1.1098905E-2,-4.512707E-3],"split_indices":[1,4,3,6,6,1,1,6,4,0,0,8,4,6,4,0,0,0,0,0,0,0,0,0,0,0,0],"split_type":[0,0,0,0,0,0,0,0,0,0,0,0,0,0,0,0,0,0,0,0,0,0,0,0,0,0,0],"sum_hessian":[3.6769956E3,1.6753663E3,2.0016293E3,1.6711721E3,4.194214E0,1.4856819E2,1.853061E3,1.5348126E3,1.3635947E2,1.2448381E0,2.9493756E0,8.670185E1,6.1866337E1,1.4952577E3,3.5780334E2,2.8105194E2,1.2537606E3,7.15909E1,6.476856E1,3.6312267E1,5.0389587E1,5.692834E0,5.61735E1,3.7057407E1,1.4582003E3,1.8711113E2,1.7069223E2],"tree_param":{"num_deleted":"0","num_feature":"11","num_nodes":"27","size_leaf_vector":"0"}},{"base_weights":[-3.59586E-3,2.0359658E-2,-1.0084738E-1,7.0143305E-2,-4.6724185E-2,-1.8578622E-1,1.02132216E-1,3.7495258E-1,4.5192055E-2,-7.003837E-2,3.4130287E-1,-8.889291E-3,-3.822601E-1,-2.270913E-1,3.761064E-1,-3.221386E-2,4.8236337E-1,7.940588E-3,2.8502682E-1,-1.23134956E-1,8.781289E-2,7.022587E-1,-3.146951E-1,5.925428E-1,-6.1152738E-2,7.365256E-1,-4.2131868E-1,-1.0269663E0,-1.0712453E-1,8.0079454E-1,-1.1369482E-1],"categories":[],"categories_nodes":[],"categories_segments":[],"categories_sizes":[],"default_left":[1,1,1,1,1,1,1,1,1,1,1,1,1,1,1,0,0,0,0,0,0,0,0,0,0,0,0,0,0,0,0],"id":32,"left_children":[1,3,5,7,9,11,13,15,17,19,21,23,25,27,29,-1,-1,-1,-1,-1,-1,-1,-1,-1,-1,-1,-1,-1,-1,-1,-1],"loss_changes":[8.562483E0,9.852214E0,1.2542611E1,1.2860566E1,1.1394085E1,1.7807281E1,1.94726E1,5.6126003E0,1.3990772E1,9.954863E0,1.7129162E1,8.544683E0,1.0918858E1,9.317832E0,2.4571924E1,0E0,0E0,0E0,0E0,0E0,0E0,0E0,0E0,0E0,0E0,0E0,0E0,0E0,0E0,0E0,0E0],"parents":[2147483647,0,0,1,1,2,2,3,3,4,4,5,5,6,6,7,7,8,8,9,9,10,10,11,11,12,12,13,13,14,14],"right_children":[2,4,6,8,10,12,14,16,18,20,22,24,26,28,30,-1,-1,-1,-1,-1,-1,-1,-1,-1,-1,-1,-1,-1,-1,-1,-1],"split_conditions":[8.117449E-1,4.7805408E-4,2.1068784E-3,-1.1532737E-3,7.311185E-3,4.7463814E1,5.3594395E1,-3.3548088E-3,-1.3557375E-4,8.783797E-1,1.7174012E-3,-6.002868E-3,-6.766319E-3,8.5057283E-4,1.4365594E-3,-1.6106929E-3,2.4118168E-2,3.970294E-4,1.4251341E-2,-6.1567477E-3,4.390645E-3,3.5112936E-2,-1.5734755E-2,2.9627142E-2,-3.057637E-3,3.682628E-2,-2.1065934E-2,-5.1348317E-2,-5.3562266E-3,4.003973E-2,-5.684741E-3],"split_indices":[10,4,4,0,4,5,5,2,4,9,6,4,4,6,6,0,0,0,0,0,0,0,0,0,0,0,0,0,0,0,0],"split_type":[0,0,0,0,0,0,0,0,0,0,0,0,0,0,0,0,0,0,0,0,0,0,0,0,0,0,0,0,0,0,0],"sum_hessian":[3.6734604E3,2.9480671E3,7.253932E2,1.6922124E3,1.2558549E3,5.114546E2,2.1393858E2,1.2697947E2,1.5652329E3,1.185448E3,7.040686E1,2.6968588E2,2.417687E2,9.724927E1,1.1668931E2,2.6651314E1,1.00328156E2,1.3556973E3,2.0953568E2,8.872296E2,2.9821835E2,4.537128E1,2.5035582E1,2.0735086E1,2.489508E2,7.5534067E0,2.342153E2,1.1697315E1,8.555195E1,6.2158817E1,5.4530495E1],"tree_param":{"num_deleted":"0","num_feature":"11","num_nodes":"31","size_leaf_vector":"0"}},{"base_weights":[-7.095443E-3,-8.426709E-3,1.3145232E0,2.0056537E-1,-1.5839368E-2,-2.3596105E-1,4.1979945E-1,5.4042783E-2,-4.6339873E-2,-3.3456606E-1,8.8660026E-1,2.9882735E-1,1.0176364E0,1.355934E-1,-5.1850878E-2,-4.20234E-2,-1.1568874E0],"categories":[],"categories_nodes":[],"categories_segments":[],"categories_sizes":[],"default_left":[1,1,0,1,1,1,1,1,1,0,0,0,0,0,0,0,0],"id":33,"left_children":[1,3,-1,5,7,9,11,13,15,-1,-1,-1,-1,-1,-1,-1,-1],"loss_changes":[6.4745994E0,5.6901693E0,0E0,1.2139912E1,7.5608835E0,5.0234623E0,5.779128E0,9.315685E0,1.1787892E1,0E0,0E0,0E0,0E0,0E0,0E0,0E0,0E0],"parents":[2147483647,0,0,1,1,3,3,4,4,5,5,6,6,7,7,8,8],"right_children":[2,4,-1,6,8,10,12,14,16,-1,-1,-1,-1,-1,-1,-1,-1],"split_conditions":[3.0417137E-3,7.0910936E-4,6.572616E-2,4.211877E1,4.0423046E1,6.035534E-1,9.428817E-4,-1.0691533E-3,2.8993173E-3,-1.6728302E-2,4.4330012E-2,1.4941367E-2,5.088182E-2,6.7796702E-3,-2.5925438E-3,-2.1011701E-3,-5.784437E-2],"split_indices":[3,6,0,5,5,8,1,2,6,0,0,0,0,0,0,0,0],"split_type":[0,0,0,0,0,0,0,0,0,0,0,0,0,0,0,0,0],"sum_hessian":[3.6726555E3,3.6699524E3,2.703116E0,1.2481685E2,3.5451357E3,4.1703304E1,8.311355E1,1.0769279E3,2.4682078E3,3.8981186E1,2.7221181E0,7.037337E1,1.2740176E1,6.0823486E2,4.6869305E2,2.4596853E3,8.522453E0],"tree_param":{"num_deleted":"0","num_feature":"11","num_nodes":"17","size_leaf_vector":"0"}},{"base_weights":[-9.239866E-3,-7.985008E-3,-1.2613742E0,-1.0982648E-2,6.312793E-1,8.997641E-3,-9.3742914E-2,-2.530121E-1,1.1876534E0,4.0305424E-1,2.0066318E-3,-7.344243E-2,-1.1436974E0,3.4170768E-1,-1.0334055E0,1.3958321E0,-5.9592225E-2],"categories":[],"categories_nodes":[],"categories_segments":[],"categories_sizes":[],"default_left":[1,1,0,1,1,1,1,1,1,0,0,0,0,0,0,0,0],"id":34,"left_children":[1,3,-1,5,7,9,11,13,15,-1,-1,-1,-1,-1,-1,-1,-1],"loss_changes":[5.7646008E0,7.044549E0,0E0,6.04693E0,8.742159E0,8.115596E0,1.5073969E1,3.8110878E0,2.8633337E0,0E0,0E0,0E0,0E0,0E0,0E0,0E0,0E0],"parents":[2147483647,0,0,1,1,3,3,4,4,5,5,6,6,7,7,8,8],"right_children":[2,4,-1,6,8,10,12,14,16,-1,-1,-1,-1,-1,-1,-1,-1],"split_conditions":[1.1263613E-2,9.746455E-3,-6.306871E-2,8.117449E-1,6.0173294E1,4.615708E-4,7.978632E-3,1.7347776E-3,3.186366E-3,2.0152712E-2,1.0033159E-4,-3.6721216E-3,-5.718487E-2,1.7085385E-2,-5.167028E-2,6.979161E-2,-2.9796113E-3],"split_indices":[4,4,0,10,5,3,4,6,2,0,0,0,0,0,0,0,0],"split_type":[0,0,0,0,0,0,0,0,0,0,0,0,0,0,0,0,0],"sum_hessian":[3.6742063E3,3.6715332E3,2.6731439E0,3.6553752E3,1.6157974E1,2.9452205E3,7.101547E2,6.4506583E0,9.707315E0,5.0353123E1,2.8948674E3,6.9773425E2,1.2420485E1,3.979845E0,2.4708135E0,8.216724E0,1.4905909E0],"tree_param":{"num_deleted":"0","num_feature":"11","num_nodes":"17","size_leaf_vector":"0"}},{"base_weights":[-5.356344E-3,4.6252996E-1,-9.296657E-3,1.2841372E0,-3.6631674E-1,-2.621937E-2,9.6639544E-2,2.7827325E-1,1.4531953E0,-5.772186E-1,1.1979461E0,1.44880675E-2,-1.2498913E-1,8.2634354E-1,7.383256E-2,6.789601E-1,-2.4609372E-1,3.3158082E-1,1.7148169E0,-9.8233026E-1,3.6488378E-1,1.1061605E-2,1.0731568E0,-5.10735E-1,-9.084818E-2,2.7893043E-1,1.2434042E0,1.0613363E-1,-3.727496E-1],"categories":[],"categories_nodes":[],"categories_segments":[],"categories_sizes":[],"default_left":[1,1,1,1,1,1,1,1,1,1,0,1,1,1,1,0,0,0,0,0,0,0,0,0,0,0,0,0,0],"id":35,"left_children":[1,3,5,7,9,11,13,15,17,19,-1,21,23,25,27,-1,-1,-1,-1,-1,-1,-1,-1,-1,-1,-1,-1,-1,-1],"loss_changes":[6.8058357E0,2.1464653E1,6.562847E0,2.2660942E0,6.011218E0,1.2691587E1,8.331115E0,9.0172535E-1,3.3070374E0,6.039051E0,0E0,8.098806E0,1.2086165E1,3.1199837E0,7.108982E0,0E0,0E0,0E0,0E0,0E0,0E0,0E0,0E0,0E0,0E0,0E0,0E0,0E0,0E0],"parents":[2147483647,0,0,1,1,2,2,3,3,4,4,5,5,6,6,7,7,8,8,9,9,11,11,12,12,13,13,14,14],"right_children":[2,4,6,8,10,12,14,16,18,20,-1,22,24,26,28,-1,-1,-1,-1,-1,-1,-1,-1,-1,-1,-1,-1,-1,-1],"split_conditions":[-4.541078E-3,1.2877386E-3,1.4635706E-3,1.7892117E1,5.2620605E1,3.305761E-4,5.347632E-4,-1.8177942E-3,-6.3216267E-3,1.8359101E-3,5.9897304E-2,8.884601E1,3.884003E-4,4.997859E-4,8.4656235E1,3.3948004E-2,-1.2304686E-2,1.6579041E-2,8.574085E-2,-4.9116515E-2,1.824419E-2,5.530803E-4,5.365784E-2,-2.553675E-2,-4.542409E-3,1.3946521E-2,6.2170208E-2,5.3066816E-3,-1.863748E-2],"split_indices":[1,3,1,5,5,1,3,4,1,3,0,5,1,3,5,0,0,0,0,0,0,0,0,0,0,0,0,0,0],"split_type":[0,0,0,0,0,0,0,0,0,0,0,0,0,0,0,0,0,0,0,0,0,0,0,0,0,0,0,0,0],"sum_hessian":[3.6882322E3,2.9829174E1,3.6584028E3,1.4704148E1,1.5125026E1,3.1551396E3,5.032633E2,2.4964936E0,1.2207655E1,1.3884097E1,1.240928E0,2.2348933E3,9.202462E2,1.4185019E1,4.890783E2,1.2480202E0,1.2484735E0,2.7377744E0,9.46988E0,9.679244E0,4.2048535E0,2.2286904E3,6.2028785E0,7.369007E1,8.4655615E2,6.8555555E0,7.329463E0,4.5680048E2,3.2277817E1],"tree_param":{"num_deleted":"0","num_feature":"11","num_nodes":"29","size_leaf_vector":"0"}},{"base_weights":[-3.6126813E-3,4.9569756E-2,-3.404881E-2,2.0271547E-1,-3.0466525E-3,1.0352668E-2,-1.0995398E-1,1.2524537E0,1.7926656E-1,9.979979E-3,-9.9812376E-1,4.7186736E-2,-1.515892E-1,-1.4021203E-1,3.2486224E-1,1.472596E0,8.637485E-2,-1.4459455E0,2.05472E-1,-5.0334044E-2,1.919207E-1,-1.374891E0,9.0662766E-1,-4.2778608E-1,6.352097E-2,-2.1014877E-2,-3.150458E-1,1.4727184E0,-1.4842394E-1,1.05538055E-1,1.0234984E0],"categories":[],"categories_nodes":[],"categories_segments":[],"categories_sizes":[],"default_left":[1,1,1,1,1,1,1,1,1,1,1,1,1,1,1,0,0,0,0,0,0,0,0,0,0,0,0,0,0,0,0],"id":36,"left_children":[1,3,5,7,9,11,13,15,17,19,21,23,25,27,29,-1,-1,-1,-1,-1,-1,-1,-1,-1,-1,-1,-1,-1,-1,-1,-1],"loss_changes":[5.9841166E0,1.0843982E1,7.9254875E0,8.246117E0,1.3005468E1,8.861425E0,1.14636135E1,1.7600756E0,1.4682533E1,1.0879882E1,1.0550619E1,9.415339E0,5.8691506E0,1.0974882E1,8.58989E0,0E0,0E0,0E0,0E0,0E0,0E0,0E0,0E0,0E0,0E0,0E0,0E0,0E0,0E0,0E0,0E0],"parents":[2147483647,0,0,1,1,2,2,3,3,4,4,5,5,6,6,7,7,8,8,9,9,10,10,11,11,12,12,13,13,14,14],"right_children":[2,4,6,8,10,12,14,16,18,20,22,24,26,28,30,-1,-1,-1,-1,-1,-1,-1,-1,-1,-1,-1,-1,-1,-1,-1,-1],"split_conditions":[7.3619466E-4,-8.964398E-4,3.7940952E-1,-6.9555733E-3,5.816674E-3,6.603612E1,7.65679E1,7.865661E-1,-6.170095E-3,6.587999E1,7.183049E-4,7.4560277E-4,1.5746125E-3,-2.3126104E-3,4.4571655E-3,7.3629804E-2,4.3187425E-3,-7.2297275E-2,1.0273601E-2,-2.5167023E-3,9.596035E-3,-6.8744555E-2,4.5331385E-2,-2.1389304E-2,3.1760484E-3,-1.0507439E-3,-1.5752291E-2,7.363592E-2,-7.421197E-3,5.276903E-3,5.117492E-2],"split_indices":[3,2,8,4,4,5,5,7,4,5,3,3,4,0,4,0,0,0,0,0,0,0,0,0,0,0,0,0,0,0,0],"split_type":[0,0,0,0,0,0,0,0,0,0,0,0,0,0,0,0,0,0,0,0,0,0,0,0,0,0,0,0,0,0,0],"sum_hessian":[3.694897E3,1.3446682E3,2.3502288E3,3.43122E2,1.0015462E3,1.4833766E3,8.668522E2,6.3519535E0,3.3677005E2,9.895815E2,1.1964717E1,1.2090775E3,2.7429898E2,8.1108765E2,5.576455E1,5.1220984E0,1.2298553E0,4.4843125E0,3.3228574E2,7.437492E2,2.4583228E2,1.0221118E1,1.7435989E0,3.936012E1,1.1697174E3,1.5311469E2,1.21184296E2,3.2051914E0,8.0788245E2,4.3317017E1,1.244753E1],"tree_param":{"num_deleted":"0","num_feature":"11","num_nodes":"31","size_leaf_vector":"0"}},{"base_weights":[-1.1875406E-2,-1.3268478E-2,1.297261E0,9.9488974E-1,-1.4834652E-2,2.824524E-1,1.2170018E0,4.2045354E-3,-9.290147E-2,1.007548E-1,-1.8942872E-2,3.1257606E-1,-1.2173567E-1],"categories":[],"categories_nodes":[],"categories_segments":[],"categories_sizes":[],"default_left":[1,1,0,1,1,0,0,1,1,0,0,0,0],"id":37,"left_children":[1,3,-1,5,7,-1,-1,9,11,-1,-1,-1,-1],"loss_changes":[6.725877E0,5.8184114E0,0E0,5.607505E-1,5.4565883E0,0E0,0E0,6.5996027E0,8.453522E0,0E0,0E0,0E0,0E0],"parents":[2147483647,0,0,1,1,3,3,4,4,7,7,8,8],"right_children":[2,4,-1,6,8,-1,-1,10,12,-1,-1,-1,-1],"split_conditions":[3.0417137E-3,-9.846588E-3,6.486305E-2,-9.3662785E-4,8.117449E-1,1.412262E-2,6.085009E-2,9.2187704E-4,-5.0940607E-3,5.03774E-3,-9.471436E-4,1.5628804E-2,-6.0867835E-3],"split_indices":[3,4,0,1,10,0,0,6,4,0,0,0,0],"split_type":[0,0,0,0,0,0,0,0,0,0,0,0,0],"sum_hessian":[3.6775588E3,3.6746384E3,2.9203734E0,4.7159386E0,3.6699226E3,1.6607269E0,3.0552115E0,2.951136E3,7.1878644E2,5.700491E2,2.381087E3,4.706732E1,6.717191E2],"tree_param":{"num_deleted":"0","num_feature":"11","num_nodes":"13","size_leaf_vector":"0"}},{"base_weights":[7.184309E-4,2.2409068E-2,-8.787411E-2,1.16086684E-1,-1.1866474E-2,3.224166E-1,-1.1845049E-1,7.558723E-2,3.9007947E-1,-1.4269271E-2,1.1806372E0,6.969106E-1,-1.00917734E-1,-6.8006617E-1,-8.85445E-2,-1.3883679E-1,1.17635295E-1,4.363993E-1,-4.9930745E-1,-1.2228355E-2,-1.3642083E0,1.0759397E0,-1.2852541E-2,-8.119958E-1,2.365652E-1,-2.958331E-1,-1.1108308E0,-1.4388971E-1,1.6086076E-1],"categories":[],"categories_nodes":[],"categories_segments":[],"categories_sizes":[],"default_left":[1,1,1,1,1,1,1,1,1,1,0,1,1,1,1,0,0,0,0,0,0,0,0,0,0,0,0,0,0],"id":38,"left_children":[1,3,5,7,9,11,13,15,17,19,-1,21,23,25,27,-1,-1,-1,-1,-1,-1,-1,-1,-1,-1,-1,-1,-1,-1],"loss_changes":[7.0538154E0,9.469389E0,9.095444E0,8.736712E0,6.205309E0,8.051189E0,1.1237029E1,6.2329416E0,4.39902E0,5.9244623E0,0E0,7.233758E0,6.07227E0,5.2751646E0,8.854158E0,0E0,0E0,0E0,0E0,0E0,0E0,0E0,0E0,0E0,0E0,0E0,0E0,0E0,0E0],"parents":[2147483647,0,0,1,1,2,2,3,3,4,4,5,5,6,6,7,7,8,8,9,9,11,11,12,12,13,13,14,14],"right_children":[2,4,6,8,10,12,14,16,18,20,-1,22,24,26,28,-1,-1,-1,-1,-1,-1,-1,-1,-1,-1,-1,-1,-1,-1],"split_conditions":[8.117449E-1,-4.1890418E-4,-5.0940607E-3,9.159756E-1,9.6629684E1,1.2940952E-1,-4.0845918E-3,-2.3052408E-3,7.4355246E-4,9.5724144E1,5.9031863E-2,7.154447E-4,3.0866013E1,5.0517067E1,1.05527E-3,-6.9418396E-3,5.881765E-3,2.1819966E-2,-2.4965374E-2,-6.1141775E-4,-6.8210416E-2,5.3796984E-2,-6.4262707E-4,-4.059979E-2,1.18282605E-2,-1.4791655E-2,-5.554154E-2,-7.1944855E-3,8.043039E-3],"split_indices":[10,0,4,7,5,7,4,1,1,5,0,2,5,5,1,0,0,0,0,0,0,0,0,0,0,0,0,0,0],"split_type":[0,0,0,0,0,0,0,0,0,0,0,0,0,0,0,0,0,0,0,0,0,0,0,0,0,0,0,0,0],"sum_hessian":[3.6687239E3,2.9477546E3,7.209693E2,7.889925E2,2.1587622E3,4.9340935E1,6.7162836E2,6.8849976E2,1.0049274E2,2.1554072E3,3.3549342E0,2.5837807E1,2.3503126E1,3.2856865E1,6.387715E2,1.1250073E2,5.75999E2,9.6002205E1,4.490532E0,2.153161E3,2.246215E0,1.6506866E1,9.330942E0,7.1120243E0,1.6391102E1,1.8257933E1,1.4598933E1,5.231115E2,1.1565996E2],"tree_param":{"num_deleted":"0","num_feature":"11","num_nodes":"29","size_leaf_vector":"0"}},{"base_weights":[4.7505717E-3,5.4022763E-2,-3.254029E-2,4.6374545E-2,8.84172E-1,-6.8289496E-2,8.3073E-2,4.269286E-2,1.1971757E0,3.539944E-1,1.3309062E0,-9.321851E-2,2.0622037E-1,1.7599377E-1,-1.1801224E-1,-1.511114E-1,6.35379E-2,1.4413706E0,2.5832668E-1,7.558243E-1,-8.3134043E-1,2.2478338E-1,1.5165846E0,-9.98023E-2,8.110471E-1,4.6651596E-1,3.626074E-2,8.151087E-1,1.454032E-1,-3.2746652E-1,4.3634854E-2],"categories":[],"categories_nodes":[],"categories_segments":[],"categories_sizes":[],"default_left":[1,1,1,1,1,1,1,1,1,1,1,1,1,1,1,0,0,0,0,0,0,0,0,0,0,0,0,0,0,0,0],"id":39,"left_children":[1,3,5,7,9,11,13,15,17,19,21,23,25,27,29,-1,-1,-1,-1,-1,-1,-1,-1,-1,-1,-1,-1,-1,-1,-1,-1],"loss_changes":[6.777059E0,1.0047191E1,8.683216E0,6.623904E0,2.9512472E0,1.0997242E1,9.294591E0,6.358094E0,7.7102995E-1,4.4245195E0,1.1952782E0,8.840569E0,5.905264E0,6.5260897E0,5.3455944E0,0E0,0E0,0E0,0E0,0E0,0E0,0E0,0E0,0E0,0E0,0E0,0E0,0E0,0E0,0E0,0E0],"parents":[2147483647,0,0,1,1,2,2,3,3,4,4,5,5,6,6,7,7,8,8,9,9,10,10,11,11,12,12,13,13,14,14],"right_children":[2,4,6,8,10,12,14,16,18,20,22,24,26,28,30,-1,-1,-1,-1,-1,-1,-1,-1,-1,-1,-1,-1,-1,-1,-1,-1],"split_conditions":[-1.9071695E-4,-2.00106E-4,1.4635706E-3,8.771402E1,7.262232E-4,1.0096412E-3,3.4566843E-3,5.721394E-4,4.4984943E-5,7.04088E-4,-2.1694186E-1,9.07366E1,8.0328016E-4,5.505077E-4,4.5083608E-3,-7.55557E-3,3.1768952E-3,7.2068535E-2,1.2916334E-2,3.779122E-2,-4.1567024E-2,1.1239169E-2,7.582923E-2,-4.9901153E-3,4.0552355E-2,2.3325799E-2,1.813037E-3,4.0755436E-2,7.2701606E-3,-1.6373327E-2,2.1817428E-3],"split_indices":[1,1,1,5,3,0,2,3,0,3,9,5,3,3,2,0,0,0,0,0,0,0,0,0,0,0,0,0,0,0,0],"split_type":[0,0,0,0,0,0,0,0,0,0,0,0,0,0,0,0,0,0,0,0,0,0,0,0,0,0,0,0,0,0,0],"sum_hessian":[3.686434E3,1.5879011E3,2.098533E3,1.5744514E3,1.3449662E1,1.6032084E3,4.9532452E2,1.5704642E3,3.9871917E0,6.9700785E0,6.4795837E0,1.4703428E3,1.328656E2,3.3886227E2,1.5646227E2,1.5190422E2,1.41856E3,2.7394161E0,1.2477753E0,5.476046E0,1.4940325E0,1.2490939E0,5.2304897E0,1.460598E3,9.744704E0,5.1795376E1,8.107022E1,1.4306986E1,3.2455527E2,6.770617E1,8.8756096E1],"tree_param":{"num_deleted":"0","num_feature":"11","num_nodes":"31","size_leaf_vector":"0"}},{"base_weights":[-1.5641524E-2,3.964522E-2,-5.1426843E-2,1.6364838E-1,-9.713389E-3,-5.7628702E-2,7.968581E-1,-4.2688882E-1,2.313791E-1,3.285682E-1,-3.2556035E-2,2.4777393E-1,-7.04513E-2,-1.0386026E-1,1.0267777E0,1.7590982E-1,-8.448541E-1,2.686712E-1,-5.651628E-1,1.1617507E0,1.1759563E-1,-6.601547E-2,2.0571694E-1,-5.108974E-2,5.367498E-1,-9.812103E-2,8.567634E-2,6.3074297E-1,-6.200071E-1,1.1723078E0,-2.1301533E-1],"categories":[],"categories_nodes":[],"categories_segments":[],"categories_sizes":[],"default_left":[1,1,1,1,1,1,1,1,1,1,1,1,1,1,1,0,0,0,0,0,0,0,0,0,0,0,0,0,0,0,0],"id":40,"left_children":[1,3,5,7,9,11,13,15,17,19,21,23,25,27,29,-1,-1,-1,-1,-1,-1,-1,-1,-1,-1,-1,-1,-1,-1,-1,-1],"loss_changes":[7.3064847E0,8.884305E0,1.1839491E1,1.6627964E1,8.039467E0,8.736093E0,3.4900913E0,1.0950252E1,1.1183678E1,1.1431841E1,7.780434E0,7.7942963E0,9.24222E0,1.9951162E0,2.6146383E0,0E0,0E0,0E0,0E0,0E0,0E0,0E0,0E0,0E0,0E0,0E0,0E0,0E0,0E0,0E0,0E0],"parents":[2147483647,0,0,1,1,2,2,3,3,4,4,5,5,6,6,7,7,8,8,9,9,10,10,11,11,12,12,13,13,14,14],"right_children":[2,4,6,8,10,12,14,16,18,20,22,24,26,28,30,-1,-1,-1,-1,-1,-1,-1,-1,-1,-1,-1,-1,-1,-1,-1,-1],"split_conditions":[-3.0880695E-4,-1.7960877E-3,9.16679E-3,1.8228172E1,2.0045708E1,7.103236E-4,6.0205692E1,1.2160736E1,6.456563E1,-7.865661E-1,6.4932497E-4,6.56022E-4,1.0437431E-3,4.9910934E1,2.710109E-3,8.795491E-3,-4.2242706E-2,1.3433561E-2,-2.825814E-2,5.8087535E-2,5.8797817E-3,-3.3007734E-3,1.0285847E-2,-2.5544872E-3,2.6837489E-2,-4.906052E-3,4.283817E-3,3.153715E-2,-3.1000355E-2,5.8615394E-2,-1.0650767E-2],"split_indices":[1,4,4,5,5,6,5,5,5,7,2,6,0,5,1,0,0,0,0,0,0,0,0,0,0,0,0,0,0,0,0],"split_type":[0,0,0,0,0,0,0,0,0,0,0,0,0,0,0,0,0,0,0,0,0,0,0,0,0,0,0,0,0,0,0],"sum_hessian":[3.6909973E3,1.4502762E3,2.240721E3,4.1225543E2,1.0380208E3,2.225383E3,1.5337839E1,4.1872322E1,3.7038312E2,6.4812645E1,9.732081E2,8.893145E1,2.1364517E3,3.230504E0,1.2107335E1,1.7382307E1,2.4490013E1,3.544513E2,1.5931825E1,1.2184889E1,5.2627754E1,8.5400726E2,1.1920086E2,4.4122463E1,4.480899E1,1.8151356E3,3.2131604E2,1.2415096E0,1.9889945E0,1.0884158E1,1.2231772E0],"tree_param":{"num_deleted":"0","num_feature":"11","num_nodes":"31","size_leaf_vector":"0"}},{"base_weights":[-8.386285E-3,9.7179407E-1,-9.892532E-3,1.6136593E-1,1.2069589E0,-1.1095947E-2,1.2099216E0,-1.2683924E0,-1.0006798E-2,-1.1216031E-2,1.10341E0],"categories":[],"categories_nodes":[],"categories_segments":[],"categories_sizes":[],"default_left":[1,1,1,0,0,1,0,0,1,0,0],"id":41,"left_children":[1,3,5,-1,-1,7,-1,-1,9,-1,-1],"loss_changes":[5.453684E0,8.854394E-1,5.4194794E0,0E0,0E0,5.026777E0,0E0,0E0,4.964263E0,0E0,0E0],"parents":[2147483647,0,0,1,1,2,2,5,5,8,8],"right_children":[2,4,6,-1,-1,8,-1,-1,10,-1,-1],"split_conditions":[-9.829799E-3,2.3978966E1,3.0417137E-3,8.068296E-3,6.0347944E-2,-9.551674E-3,6.049608E-2,-6.3419625E-2,9.707555E1,-5.608016E-4,5.5170503E-2],"split_indices":[4,5,3,0,0,4,0,0,5,0,0],"split_type":[0,0,0,0,0,0,0,0,0,0,0],"sum_hessian":[3.6864104E3,4.667842E0,3.6817427E3,1.4290868E0,3.238755E0,3.679104E3,2.638738E0,2.1772232E0,3.6769268E3,3.6739265E3,3.0001621E0],"tree_param":{"num_deleted":"0","num_feature":"11","num_nodes":"11","size_leaf_vector":"0"}},{"base_weights":[-6.128239E-3,8.5373086E-1,-7.810342E-3,-3.8103524E-1,1.2430304E0,-6.4017236E-1,-4.0256744E-3,5.22843E-1,1.4283208E0,5.51603E-1,-8.7456626E-1,3.2511257E-2,-4.8178043E-2,-1.2761696E-1,1.0788327E0,-1.027786E0,7.029274E-1,8.6789876E-2,-9.5045745E-2,-1.1834773E-1,4.651058E-2],"categories":[],"categories_nodes":[],"categories_segments":[],"categories_sizes":[],"default_left":[1,1,1,0,1,1,1,0,0,1,1,1,1,0,0,0,0,0,0,0,0],"id":42,"left_children":[1,3,5,-1,7,9,11,-1,-1,13,15,17,19,-1,-1,-1,-1,-1,-1,-1,-1],"loss_changes":[5.335999E0,3.936099E0,8.800907E0,0E0,1.5315056E-2,6.593897E0,5.9018807E0,0E0,0E0,1.6449083E0,5.2348137E0,1.3869096E1,1.1012229E1,0E0,0E0,0E0,0E0,0E0,0E0,0E0,0E0],"parents":[2147483647,0,0,1,1,2,2,4,4,5,5,6,6,9,9,10,10,11,11,12,12],"right_children":[2,4,6,-1,8,10,12,-1,-1,14,16,18,20,-1,-1,-1,-1,-1,-1,-1,-1],"split_conditions":[6.316242E0,-4.045951E-3,1.0666304E1,-1.9051762E-2,-2.9997518E-3,6.2519277E-4,3.312059E-4,2.614215E-2,7.141604E-2,-2.0897342E-3,3.9712046E-3,5.6306698E1,5.740922E1,-6.380848E-3,5.3941637E-2,-5.1389303E-2,3.514637E-2,4.339494E-3,-4.752287E-3,-5.9173866E-3,2.325529E-3],"split_indices":[5,2,5,0,2,3,4,0,0,4,4,5,5,0,0,0,0,0,0,0,0],"split_type":[0,0,0,0,0,0,0,0,0,0,0,0,0,0,0,0,0,0,0,0,0],"sum_hessian":[3.6836206E3,6.2030478E0,3.6774177E3,1.4920012E0,4.7110467E0,2.0877914E1,3.6565398E3,1.7460893E0,2.9649575E0,3.2089083E0,1.7669006E1,2.000966E3,1.6555739E3,1.7335532E0,1.4753551E0,1.6422392E1,1.2466143E0,1.4038943E3,5.9707166E2,9.50758E2,7.0481586E2],"tree_param":{"num_deleted":"0","num_feature":"11","num_nodes":"21","size_leaf_vector":"0"}},{"base_weights":[4.367195E-3,1.21393554E-1,-9.597339E-3,-1.7745489E-1,2.4376191E-1,-3.9384654E-3,-4.754959E-1,-5.287378E-1,1.7984115E-1,3.674559E-1,-2.6835708E-2,-8.32808E-1,-1.131368E-3,-6.592997E-1,4.8047087E-1,-7.005318E-1,3.4441686E-1,-9.581114E-1,2.933604E-1,4.7742504E-1,-1.519878E-1,-5.318417E-1,2.2848593E-1,-1.0972121E0,1.3461252E-1,9.088326E-2,-2.335613E-2,-1.0183889E0,-8.4839724E-2,9.826868E-1,-1.0140502E0],"categories":[],"categories_nodes":[],"categories_segments":[],"categories_sizes":[],"default_left":[1,1,1,1,1,1,1,1,1,1,1,1,1,1,1,0,0,0,0,0,0,0,0,0,0,0,0,0,0,0,0],"id":43,"left_children":[1,3,5,7,9,11,13,15,17,19,21,23,25,27,29,-1,-1,-1,-1,-1,-1,-1,-1,-1,-1,-1,-1,-1,-1,-1,-1],"loss_changes":[6.0121737E0,1.4385721E1,8.664224E0,1.4468258E1,9.3376465E0,7.557592E0,7.246292E0,8.941116E0,7.7112794E0,1.1001461E1,1.1514208E1,2.9520106E0,6.625109E0,6.8238344E0,6.2041435E0,0E0,0E0,0E0,0E0,0E0,0E0,0E0,0E0,0E0,0E0,0E0,0E0,0E0,0E0,0E0,0E0],"parents":[2147483647,0,0,1,1,2,2,3,3,4,4,5,5,6,6,7,7,8,8,9,9,10,10,11,11,12,12,13,13,14,14],"right_children":[2,4,6,8,10,12,14,16,18,20,22,24,26,28,30,-1,-1,-1,-1,-1,-1,-1,-1,-1,-1,-1,-1,-1,-1,-1,-1],"split_conditions":[2.7317684E1,-2.5818786E-3,2.5332663E-3,2.1265896E1,1.4464052E-3,2.7528345E1,6.123234E-17,9.159756E-1,-9.159756E-1,8.117449E-1,-6.035534E-1,6.035534E-1,-2.1694186E-1,6.078576E-1,6.078576E-1,-3.502659E-2,1.7220844E-2,-4.790557E-2,1.466802E-2,2.3871252E-2,-7.5993906E-3,-2.6592085E-2,1.1424297E-2,-5.4860603E-2,6.730626E-3,4.544163E-3,-1.1678066E-3,-5.0919443E-2,-4.241986E-3,4.913434E-2,-5.0702512E-2],"split_indices":[5,4,6,5,4,5,7,8,8,10,8,8,9,9,9,0,0,0,0,0,0,0,0,0,0,0,0,0,0,0,0],"split_type":[0,0,0,0,0,0,0,0,0,0,0,0,0,0,0,0,0,0,0,0,0,0,0,0,0,0,0,0,0,0,0],"sum_hessian":[3.6772158E3,3.9119647E2,3.2860193E3,1.1351633E2,2.7768015E2,3.2475823E3,3.843716E1,5.699787E1,5.651845E1,1.9032292E2,8.735723E1,9.963343E0,3.237619E3,3.249892E1,5.938237E0,4.7792374E1,9.205497E0,4.451832E0,5.206662E1,1.5713702E2,3.3185898E1,2.8971287E1,5.838594E1,7.719403E0,2.2439396E0,6.2926324E2,2.6083557E3,1.9522701E1,1.2976221E1,4.700997E0,1.2372401E0],"tree_param":{"num_deleted":"0","num_feature":"11","num_nodes":"31","size_leaf_vector":"0"}},{"base_weights":[-8.080915E-3,-9.362196E-3,1.2219117E0,1.225512E0,-1.049058E-2,-1.174279E-2,1.1002636E0,9.449608E-1,-1.3198519E-2],"categories":[],"categories_nodes":[],"categories_segments":[],"categories_sizes":[],"default_left":[1,1,0,0,1,1,0,0,0],"id":44,"left_children":[1,3,-1,-1,5,7,-1,-1,-1],"loss_changes":[5.8243065E0,5.1484194E0,0E0,0E0,5.1359086E0,5.1377077E0,0E0,0E0,0E0],"parents":[2147483647,0,0,1,1,4,4,5,5],"right_children":[2,4,-1,-1,6,8,-1,-1,-1],"split_conditions":[3.0417137E-3,4.960258E-4,6.1095584E-2,6.12756E-2,9.707555E1,-9.829799E-3,5.501318E-2,4.724804E-2,-6.59926E-4],"split_indices":[3,6,0,0,5,4,0,0,0],"split_type":[0,0,0,0,0,0,0,0,0],"sum_hessian":[3.6874453E3,3.6845994E3,2.8458533E0,2.3731844E0,3.6822263E3,3.679068E3,3.158172E0,4.604893E0,3.6744631E3],"tree_param":{"num_deleted":"0","num_feature":"11","num_nodes":"9","size_leaf_vector":"0"}},{"base_weights":[4.38169E-3,2.987426E-3,1.1280105E0,4.9694264E-3,-1.0037383E0,-1.3403834E-2,7.1503595E-2,-1.4119769E0,4.469825E-2,2.610856E-2,-9.045763E-2,-3.5265929E-1,1.2708043E-1],"categories":[],"categories_nodes":[],"categories_segments":[],"categories_sizes":[],"default_left":[1,1,0,1,1,1,1,0,0,0,0,0,0],"id":45,"left_children":[1,3,-1,5,7,9,11,-1,-1,-1,-1,-1,-1],"loss_changes":[5.7559E0,7.333139E0,0E0,4.4829826E0,3.153911E0,8.752138E0,1.8751493E1,0E0,0E0,0E0,0E0,0E0,0E0],"parents":[2147483647,0,0,1,1,3,3,4,4,5,5,6,6],"right_children":[2,4,-1,6,8,10,12,-1,-1,-1,-1,-1,-1],"split_conditions":[9.6730865E1,9.380484E1,5.6400526E-2,1.4043746E-3,3.4479434E-3,5.239035E1,-3.2497454E-3,-7.059885E-2,2.2349125E-3,1.305428E-3,-4.522882E-3,-1.7632965E-2,6.3540214E-3],"split_indices":[5,5,0,2,4,5,4,0,0,0,0,0,0],"split_type":[0,0,0,0,0,0,0,0,0,0,0,0,0],"sum_hessian":[3.6752036E3,3.6716504E3,3.5533385E0,3.665429E3,6.2212825E0,2.8728865E3,7.9254254E2,4.228176E0,1.9931066E0,1.8995024E3,9.7338403E2,9.119513E1,7.013474E2],"tree_param":{"num_deleted":"0","num_feature":"11","num_nodes":"13","size_leaf_vector":"0"}},{"base_weights":[7.0704366E-3,1.0407099E0,5.6431997E-3,4.416484E-3,1.1887432E0,2.2700708E-2,-7.049941E-2,1.2189421E-1,-1.1332419E-3,3.870806E-1,-1.0246949E-1],"categories":[],"categories_nodes":[],"categories_segments":[],"categories_sizes":[],"default_left":[1,0,1,1,0,1,1,0,0,0,0],"id":46,"left_children":[1,-1,3,5,-1,7,9,-1,-1,-1,-1],"loss_changes":[5.4257994E0,0E0,5.3324356E0,5.0355268E0,0E0,6.9857473E0,1.0590181E1,0E0,0E0,0E0,0E0],"parents":[2147483647,0,0,2,2,3,3,5,5,6,6],"right_children":[2,-1,4,6,-1,8,10,-1,-1,-1,-1],"split_conditions":[-9.829799E-3,5.2035492E-2,3.0417137E-3,8.117449E-1,5.9437163E-2,9.2187704E-4,-5.0940607E-3,6.0947104E-3,-5.66621E-5,1.935403E-2,-5.1234746E-3],"split_indices":[4,0,3,10,0,6,4,0,0,0,0],"split_type":[0,0,0,0,0,0,0,0,0,0,0],"sum_hessian":[3.6808684E3,4.071419E0,3.6767969E3,3.6739912E3,2.8057013E0,2.953779E3,7.202122E2,5.7143475E2,2.3823442E3,4.6308083E1,6.739041E2],"tree_param":{"num_deleted":"0","num_feature":"11","num_nodes":"11","size_leaf_vector":"0"}},{"base_weights":[-6.4709047E-3,-5.269141E-3,-1.2223676E0,1.3054276E-1,-1.58009E-2,7.810596E-3,6.7026573E-1,-5.577627E-1,-9.147145E-3,-1.9474712E-1,3.225105E-1,-5.995544E-1,8.05678E-1,-7.970561E-1,2.282726E-1,5.8844745E-2,-3.9637886E-2],"categories":[],"categories_nodes":[],"categories_segments":[],"categories_sizes":[],"default_left":[1,1,0,1,1,1,1,1,1,0,0,0,0,0,0,0,0],"id":47,"left_children":[1,3,-1,5,7,9,11,13,15,-1,-1,-1,-1,-1,-1,-1,-1],"loss_changes":[5.3931646E0,5.2837677E0,0E0,1.760512E1,1.2355734E1,1.3934283E1,8.950193E0,7.998393E0,7.0244536E0,0E0,0E0,0E0,0E0,0E0,0E0,0E0,0E0],"parents":[2147483647,0,0,1,1,3,3,4,4,5,5,6,6,7,7,8,8],"right_children":[2,4,-1,6,8,10,12,14,16,-1,-1,-1,-1,-1,-1,-1,-1],"split_conditions":[1.1263613E-2,5.4088444E-4,-6.1118383E-2,6.913014E1,5.5204425E-4,3.7940952E-1,4.2527143E-4,1.117932E-3,4.1073563E1,-9.737357E-3,1.6125526E-2,-2.9977722E-2,4.02839E-2,-3.9852805E-2,1.141363E-2,2.9422373E-3,-1.9818943E-3],"split_indices":[4,3,0,5,3,8,3,6,5,0,0,0,0,0,0,0,0],"split_type":[0,0,0,0,0,0,0,0,0,0,0,0,0,0,0,0,0],"sum_hessian":[3.6942708E3,3.6916265E3,2.644383E0,2.6485132E2,3.4267751E3,2.1660919E2,4.824212E1,4.0556293E1,3.3862188E3,1.3201709E2,8.45921E1,4.3184547E0,4.3923664E1,3.1080433E1,9.4758625E0,1.0481033E3,2.3381155E3],"tree_param":{"num_deleted":"0","num_feature":"11","num_nodes":"17","size_leaf_vector":"0"}},{"base_weights":[-3.756371E-4,4.289165E-3,-3.320122E-1,-8.531319E-3,1.983546E-1,-1.504094E-1,-1.4007027E0,-1.2869128E-2,4.5150664E-1,2.551673E-1,-1.3343185E0,-3.2716867E-2,-1.2209896E0,6.393416E-1,-1.5802534E-2,6.815488E-1,-7.200728E-1,3.745321E-1,5.0876632E-2,-1.9320111E-1,-1.510643E0,-1.8762986E-1,1.3022856E0],"categories":[],"categories_nodes":[],"categories_segments":[],"categories_sizes":[],"default_left":[1,1,1,1,1,1,0,1,1,1,1,1,0,0,0,0,0,0,0,0,0,0,0],"id":48,"left_children":[1,3,5,7,9,11,-1,13,15,17,19,21,-1,-1,-1,-1,-1,-1,-1,-1,-1,-1,-1],"loss_changes":[5.7113132E0,9.059773E0,9.727786E0,6.822709E0,1.9989067E1,5.6163034E0,0E0,6.486475E0,9.098319E0,5.3072577E0,1.3632555E0,8.821227E0,0E0,0E0,0E0,0E0,0E0,0E0,0E0,0E0,0E0,0E0,0E0],"parents":[2147483647,0,0,1,1,2,2,3,3,4,4,5,5,7,7,8,8,9,9,10,10,11,11],"right_children":[2,4,6,8,10,12,-1,14,16,18,20,22,-1,-1,-1,-1,-1,-1,-1,-1,-1,-1,-1],"split_conditions":[2.5073832E-3,1.945047E-3,7.047148E1,6.0094777E-3,8.250589E1,8.400423E-3,-7.003514E-2,-4.6612606E-3,2.175102E-3,6.078576E-1,7.722491E-5,6.374892E-3,-6.104948E-2,3.196708E-2,-7.9012674E-4,3.407744E-2,-3.600364E-2,1.8726606E-2,2.5438317E-3,-9.660056E-3,-7.553215E-2,-9.381494E-3,6.511428E-2],"split_indices":[6,6,5,2,5,4,0,1,4,9,1,4,0,0,0,0,0,0,0,0,0,0,0],"split_type":[0,0,0,0,0,0,0,0,0,0,0,0,0,0,0,0,0,0,0,0,0,0,0],"sum_hessian":[3.6898977E3,3.639689E3,5.0208817E1,3.4150383E3,2.2465056E2,4.389113E1,6.317688E0,3.3841008E3,3.0937479E1,2.1742464E2,7.225923E0,4.047242E1,3.4187112E0,1.4180902E1,3.36992E3,2.620946E1,4.7280188E0,1.3671199E2,8.071265E1,1.2475944E0,5.9783287E0,3.7034416E1,3.4380012E0],"tree_param":{"num_deleted":"0","num_feature":"11","num_nodes":"23","size_leaf_vector":"0"}},{"base_weights":[-3.4771182E-3,1.0392052E0,-4.9575344E-3,-6.1468435E-3,1.1589309E0,-2.01132E-3,-3.1133604E-1,9.4328797E-1,-4.1492125E-3,-4.003275E-2,-1.0398971E0],"categories":[],"categories_nodes":[],"categories_segments":[],"categories_sizes":[],"default_left":[1,0,1,1,0,1,1,0,0,0,0],"id":49,"left_children":[1,-1,3,5,-1,7,9,-1,-1,-1,-1],"loss_changes":[5.6937294E0,0E0,5.102489E0,4.641776E0,0E0,7.3401484E0,9.677391E0,0E0,0E0,0E0,0E0],"parents":[2147483647,0,0,2,2,3,3,5,5,6,6],"right_children":[2,-1,4,6,-1,8,10,-1,-1,-1,-1],"split_conditions":[-9.829799E-3,5.196026E-2,3.0417137E-3,2.5073832E-3,5.7946544E-2,-7.7130357E-3,6.5410126E1,4.71644E-2,-2.0746063E-4,-2.0016376E-3,-5.1994856E-2],"split_indices":[4,0,3,6,0,2,5,0,0,0,0],"split_type":[0,0,0,0,0,0,0,0,0,0,0],"sum_hessian":[3.6842583E3,4.2297144E0,3.6800286E3,3.6772656E3,2.7628632E0,3.6290955E3,4.8170147E1,7.1956916E0,3.6219E3,3.586835E1,1.2301795E1],"tree_param":{"num_deleted":"0","num_feature":"11","num_nodes":"11","size_leaf_vector":"0"}},{"base_weights":[-8.093698E-3,9.715178E-1,-9.646454E-3,2.2785501E-1,1.2954265E0,5.6574322E-2,-3.2511044E-2,1.2691662E-1,-3.8421746E-2,-5.873809E-2,4.563611E-2,-8.966603E-2,2.0292951E-1,-3.1019968E-1,5.3520303E-2,-1.1412661E-2,-1.3728407E-1,-2.9040492E-1,8.867769E-2],"categories":[],"categories_nodes":[],"categories_segments":[],"categories_sizes":[],"default_left":[1,1,1,0,0,1,1,1,1,1,1,0,0,0,0,0,0,0,0],"id":50,"left_children":[1,3,5,-1,-1,7,9,11,13,15,17,-1,-1,-1,-1,-1,-1,-1,-1],"loss_changes":[5.6051016E0,1.10956E0,5.564551E0,0E0,0E0,6.3082957E0,5.601291E0,8.944731E0,1.0064035E1,7.6025567E0,9.961725E0,0E0,0E0,0E0,0E0,0E0,0E0,0E0,0E0],"parents":[2147483647,0,0,1,1,2,2,5,5,6,6,7,7,8,8,9,9,10,10],"right_children":[2,4,6,-1,-1,8,10,12,14,16,18,-1,-1,-1,-1,-1,-1,-1,-1],"split_conditions":[5.342534E-4,8.2490046E-4,-4.4047058E-4,1.1392751E-2,6.4771324E-2,7.1337307E-4,1.4302309E-3,-3.5000676E-3,1.7842001E-3,5.239272E1,-3.2497454E-3,-4.4833017E-3,1.0146475E-2,-1.5509984E-2,2.6760153E-3,-5.7063304E-4,-6.8642036E-3,-1.4520246E-2,4.4338848E-3],"split_indices":[6,4,0,0,0,4,2,4,4,5,4,0,0,0,0,0,0,0,0],"split_type":[0,0,0,0,0,0,0,0,0,0,0,0,0,0,0,0,0,0,0],"sum_hessian":[3.6777446E3,4.831683E0,3.6729128E3,1.9828067E0,2.8488762E0,9.42309E2,2.730604E3,5.4121576E2,4.0109326E2,2.0446465E3,6.859575E2,1.4055484E2,4.0066092E2,1.0078928E2,3.0030396E2,1.2766101E3,7.680363E2,7.723206E1,6.087254E2],"tree_param":{"num_deleted":"0","num_feature":"11","num_nodes":"19","size_leaf_vector":"0"}}]},"name":"gbtree"},"learner_model_param":{"base_score":"5E-1","boost_from_average":"1","num_class":"0","num_feature":"11","num_target":"1"},"objective":{"name":"binary:logistic","reg_loss_param":{"scale_pos_weight":"1"}}},"version":[1,7,6]}