{"learner":{"attributes":{"best_iteration":"0","best_ntree_limit":"1","best_score":"0.6931957004749956"},"feature_names":["ret_1","ret_3","ret_6","vol_24","sma_diff","rsi","atr_norm","hour_sin","hour_cos","dow_sin","dow_cos"],"feature_types":[],"gradient_booster":{"model":{"gbtree_model_param":{"num_parallel_tree":"1","num_trees":"51","size_leaf_vector":"0"},"tree_info":[0,0,0,0,0,0,0,0,0,0,0,0,0,0,0,0,0,0,0,0,0,0,0,0,0,0,0,0,0,0,0,0,0,0,0,0,0,0,0,0,0,0,0,0,0,0,0,0,0,0,0],"trees":[{"base_weights":[-2.3377137E-2,-1.952862E-1,-4.6845265E-3,-3.773585E-1,-5.8616646E-2,9.353944E-3,-1.731684E-1,6.25E-1,-4.276316E-1,2.857143E-1,-2.1917808E-1,1.2380953E0,7.3027466E-3,-3.2854864E-1,5.6074765E-2,-2.2222222E-1,1.3333334E0,1.3333334E-1,-5.4043394E-1,1.2E0,2.1011673E-1,-1.1111112E0,-1.7468806E-1,-0E0,1.5294118E0,6.291538E-2,-2.3738872E-2,-7.706422E-1,-9.2009686E-2,-1E0,1.2871288E-1],"categories":[],"categories_nodes":[],"categories_segments":[],"categories_sizes":[],"default_left":[1,1,1,1,1,1,1,1,1,1,1,1,1,1,1,0,0,0,0,0,0,0,0,0,0,0,0,0,0,0,0],"id":0,"left_children":[1,3,5,7,9,11,13,15,17,19,21,23,25,27,29,-1,-1,-1,-1,-1,-1,-1,-1,-1,-1,-1,-1,-1,-1,-1,-1],"loss_changes":[1.2164324E1,9.215969E0,8.080152E0,8.279543E0,1.1852419E1,7.9396405E0,9.377542E0,5.0972223E0,9.690336E0,4.4651465E0,5.599492E0,1.8935575E0,5.438494E0,1.632081E1,8.336819E0,0E0,0E0,0E0,0E0,0E0,0E0,0E0,0E0,0E0,0E0,0E0,0E0,0E0,0E0,0E0,0E0],"parents":[2147483647,0,0,1,1,2,2,3,3,4,4,5,5,6,6,7,7,8,8,9,9,10,10,11,11,12,12,13,13,14,14],"right_children":[2,4,6,8,10,12,14,16,18,20,22,24,26,28,30,-1,-1,-1,-1,-1,-1,-1,-1,-1,-1,-1,-1,-1,-1,-1,-1],"split_conditions":[-1.0427664E-3,3.7085487E1,3.6356044E-3,-6.16611E-3,4.535705E1,-1.0347776E-3,1.1169333E-3,-1.2940952E-1,7.411728E-4,-5.596877E-3,5.6915544E-4,-2.6417668E-3,-3.7940952E-1,6.510252E1,-9.842206E-3,-1.1111111E-2,6.666667E-2,6.6666673E-3,-2.7021697E-2,6.0000002E-2,1.0505836E-2,-5.555556E-2,-8.734403E-3,-0E0,7.647059E-2,3.145769E-3,-1.1869436E-3,-3.853211E-2,-4.6004844E-3,-5E-2,6.435644E-3],"split_indices":[0,5,2,0,5,0,0,7,3,1,3,4,7,5,4,0,0,0,0,0,0,0,0,0,0,0,0,0,0,0,0],"split_type":[0,0,0,0,0,0,0,0,0,0,0,0,0,0,0,0,0,0,0,0,0,0,0,0,0,0,0,0,0,0,0],"sum_hessian":[3.78475E3,3.7025E2,3.4145E3,1.58E2,2.1225E2,3.15275E3,2.6175E2,7E0,1.51E2,6.725E1,1.45E2,4.25E0,3.1485E3,1.5575E2,1.06E2,3.5E0,3.5E0,2.525E1,1.2575E2,4E0,6.325E1,5.75E0,1.3925E2,1E0,3.25E0,1.1275E3,2.021E3,5.35E1,1.0225E2,6E0,1E2],"tree_param":{"num_deleted":"0","num_feature":"11","num_nodes":"31","size_leaf_vector":"0"}},{"base_weights":[-1.36113325E-2,-2.907528E-1,-6.3660913E-3,1.2299528E0,-3.52845E-1,-1.3140061E-1,6.079532E-3,-4.9873003E-1,4.3668617E-2,-1.662748E-1,5.710311E-1,1.1248535E0,4.073119E-3,-6.4231044E-1,4.2433806E-2,1.1480919E0,-1.2266856E-1,7.930233E-1,-1.9354416E-1,9.6630263E-1,-6.5382344E-1,-0E0,1.3500587E0,5.959825E-2,-2.9777082E-2],"categories":[],"categories_nodes":[],"categories_segments":[],"categories_sizes":[],"default_left":[1,1,1,0,1,1,1,1,1,1,1,1,1,0,0,0,0,0,0,0,0,0,0,0,0],"id":1,"left_children":[1,3,5,-1,7,9,11,13,15,17,19,21,23,-1,-1,-1,-1,-1,-1,-1,-1,-1,-1,-1,-1],"loss_changes":[7.585066E0,9.521302E0,5.7323256E0,0E0,5.415351E0,8.263897E0,7.5168467E0,5.329794E0,4.9168205E0,8.4845495E0,8.377476E0,1.5186181E0,6.29018E0,0E0,0E0,0E0,0E0,0E0,0E0,0E0,0E0,0E0,0E0,0E0,0E0],"parents":[2147483647,0,0,1,1,2,2,4,4,5,5,6,6,7,7,8,8,9,9,10,10,11,11,12,12],"right_children":[2,4,6,-1,8,10,12,14,16,18,20,22,24,-1,-1,-1,-1,-1,-1,-1,-1,-1,-1,-1,-1],"split_conditions":[-6.001675E-3,-7.4463235E-3,-1.0427664E-3,6.149764E-2,1.2940952E-1,9.101592E-3,-1.0347776E-3,6.035534E-1,-8.370342E-3,1.4946571E1,1.3601441E-2,-2.6417668E-3,-1.6564067E-4,-3.2115523E-2,2.1216904E-3,5.7404596E-2,-6.133428E-3,3.9651167E-2,-9.677208E-3,4.8315134E-2,-3.2691173E-2,-0E0,6.750294E-2,2.9799126E-3,-1.4888541E-3],"split_indices":[2,0,0,0,8,4,0,7,1,5,4,4,2,0,0,0,0,0,0,0,0,0,0,0,0],"split_type":[0,0,0,0,0,0,0,0,0,0,0,0,0,0,0,0,0,0,0,0,0,0,0,0,0],"sum_hessian":[3.7774263E3,9.5239525E1,3.6821868E3,2.998344E0,9.224118E1,3.3247092E2,3.3497158E3,6.724329E1,2.4997892E1,3.174724E2,1.4998519E1,4.9947944E0,3.344721E3,5.2995686E1,1.4247608E1,2.4995456E0,2.2498346E1,7.9989634E0,3.0947345E2,1.1498831E1,3.499688E0,1E0,3.9947941E0,1.2664985E3,2.0782224E3],"tree_param":{"num_deleted":"0","num_feature":"11","num_nodes":"25","size_leaf_vector":"0"}},{"base_weights":[-1.0894773E-2,-1.3237076E-1,2.8152661E-3,7.74265E-1,-1.4820383E-1,7.98124E-1,-2.97621E-4,-2.1991721E-1,1.1660775E0,-1.7064758E-2,-2.7037495E-1,9.3381535E-3,1.274991E0,-7.71201E-1,2.5006994E-3,-2.491703E-1,1.12622775E-1,1.2876266E0,-2.9109135E-1,-4.3444845E-1,8.0439097E-1,1.5576082E0,1.9348438E-3,8.0082965E-1,-1.0650558E0,5.3066455E-2,-2.4497807E-2],"categories":[],"categories_nodes":[],"categories_segments":[],"categories_sizes":[],"default_left":[1,1,1,1,1,1,1,0,0,1,1,1,1,1,1,0,0,0,0,0,0,0,0,0,0,0,0],"id":2,"left_children":[1,3,5,7,9,11,13,-1,-1,15,17,19,21,23,25,-1,-1,-1,-1,-1,-1,-1,-1,-1,-1,-1,-1],"loss_changes":[6.2967405E0,5.6188927E0,8.413102E0,2.882619E0,6.0465584E0,4.97171E0,7.3061485E0,0E0,0E0,5.543447E0,6.6836767E0,2.4662342E0,2.965167E0,6.511525E0,4.608398E0,0E0,0E0,0E0,0E0,0E0,0E0,0E0,0E0,0E0,0E0,0E0,0E0],"parents":[2147483647,0,0,1,1,2,2,3,3,4,4,5,5,6,6,9,9,10,10,11,11,12,12,13,13,14,14],"right_children":[2,4,6,8,10,12,14,-1,-1,16,18,20,22,24,26,-1,-1,-1,-1,-1,-1,-1,-1,-1,-1,-1,-1],"split_conditions":[-1.8976415E-3,-6.8247956E-3,-1.8453639E-3,-1.55999465E-2,1.2184689E-3,3.2820564E1,-1.8062412E-3,-1.099586E-2,5.8303874E-2,-7.1975414E-4,-2.4680775E-2,1.2609996E-3,1.7873102E-3,-7.865661E-1,-2.4992164E-4,-1.2458515E-2,5.631139E-3,6.438133E-2,-1.4554568E-2,-2.1722423E-2,4.021955E-2,7.788041E-2,9.6742195E-5,4.0041484E-2,-5.3252794E-2,2.6533229E-3,-1.2248904E-3],"split_indices":[1,0,1,2,3,5,1,0,0,4,4,3,6,7,2,0,0,0,0,0,0,0,0,0,0,0,0],"split_type":[0,0,0,0,0,0,0,0,0,0,0,0,0,0,0,0,0,0,0,0,0,0,0,0,0,0,0],"sum_hessian":[3.7796023E3,3.8243478E2,3.3971675E3,5.741863E0,3.766929E2,1.2249152E1,3.3849185E3,1.7472136E0,3.994649E0,1.8222807E2,1.9446483E2,4.9993343E0,7.249818E0,1.1249405E1,3.373669E3,6.4990814E1,1.1723726E2,1.7493318E0,1.927155E2,3.4995167E0,1.4998176E0,5.7498403E0,1.4999775E0,1.4999403E0,9.749464E0,1.1739679E3,2.1997012E3],"tree_param":{"num_deleted":"0","num_feature":"11","num_nodes":"27","size_leaf_vector":"0"}},{"base_weights":[-2.0012677E-2,-1.4213055E-1,-8.97891E-3,-1.0139152E0,-1.00097775E-1,2.0039675E-3,-1.374633E-1,-3.529069E-1,-1.177126E0,-1.2627761E-1,6.4959466E-1,-2.300179E-3,3.470731E-1,-2.5155315E-1,7.890069E-2,1.7768402E-1,-7.953836E-1,-1.2796575E0,-2.0955041E-1,7.810034E-1,-1.481632E-1,1.3054961E0,1.5853752E-1,3.8833538E-4,-6.903608E-1,-9.299613E-1,4.68764E-1,-5.754316E-1,-1.0549814E-1,1.4515043E0,-5.626307E-3],"categories":[],"categories_nodes":[],"categories_segments":[],"categories_sizes":[],"default_left":[1,1,1,1,1,1,1,1,1,1,1,1,1,1,1,0,0,0,0,0,0,0,0,0,0,0,0,0,0,0,0],"id":3,"left_children":[1,3,5,7,9,11,13,15,17,19,21,23,25,27,29,-1,-1,-1,-1,-1,-1,-1,-1,-1,-1,-1,-1,-1,-1,-1,-1],"loss_changes":[5.0755157E0,1.1336958E1,4.8780265E0,1.1217775E0,5.9486046E0,4.7318616E0,6.7395787E0,1.1390378E0,8.2302E-1,5.867264E0,3.0939445E0,5.82208E0,6.5354633E0,8.381848E0,1.1000759E1,0E0,0E0,0E0,0E0,0E0,0E0,0E0,0E0,0E0,0E0,0E0,0E0,0E0,0E0,0E0,0E0],"parents":[2147483647,0,0,1,1,2,2,3,3,4,4,5,5,6,6,7,7,8,8,9,9,10,10,11,11,12,12,13,13,14,14],"right_children":[2,4,6,8,10,12,14,16,18,20,22,24,26,28,30,-1,-1,-1,-1,-1,-1,-1,-1,-1,-1,-1,-1,-1,-1,-1,-1],"split_conditions":[-2.1564425E-3,9.6282014E-4,3.6356044E-3,-3.7275732E-3,6.623166E1,3.4041363E-3,1.2685001E-3,6.2704366E-4,7.951377E-4,-6.802338E-3,-4.0942978E-4,3.349421E-3,4.7173744E1,1.6584625E-3,1.3439402E-3,8.884202E-3,-3.976918E-2,-6.3982874E-2,-1.04775205E-2,3.9050173E-2,-7.4081603E-3,6.5274805E-2,7.926877E-3,1.941677E-5,-3.451804E-2,-4.6498068E-2,2.34382E-2,-2.877158E-2,-5.274907E-3,7.257522E-2,-2.8131536E-4],"split_indices":[1,6,2,2,5,2,0,3,3,0,2,2,5,6,0,0,0,0,0,0,0,0,0,0,0,0,0,0,0,0,0],"split_type":[0,0,0,0,0,0,0,0,0,0,0,0,0,0,0,0,0,0,0,0,0,0,0,0,0,0,0,0,0,0,0],"sum_hessian":[3.7667861E3,3.1115457E2,3.4556316E3,1.32486105E1,2.9790598E2,3.1844116E3,2.7121988E2,3.2496634E0,9.998947E0,2.886574E2,9.248579E0,3.146162E3,3.824965E1,1.7747418E2,9.3745705E1,1.7498196E0,1.4998436E0,8.7492695E0,1.2496773E0,5.982048E0,2.8267535E2,3.2495868E0,5.998992E0,3.134912E3,1.1249859E1,2.7499063E0,3.5499744E1,5.424517E1,1.2322902E2,4.4999843E0,8.924572E1],"tree_param":{"num_deleted":"0","num_feature":"11","num_nodes":"31","size_leaf_vector":"0"}},{"base_weights":[-1.3254222E-2,-1.275972E-1,6.5428005E-3,-3.0040854E-1,-2.0137094E-2,4.228755E-3,8.582823E-1,1.9145344E-1,-3.633629E-1,2.437373E-1,-1.02357805E-1,6.8638977E-3,-7.167112E-1,-2.9664866E-3,1.4330314E0,-3.278141E-2,1.2930499E0,-1.14133745E-1,-4.543066E-1,1.3239622E0,1.7915645E-1,2.9325126E-2,-3.9709735E-1,6.137231E-2,-2.6077291E-2,-1.043589E0,4.5915744E-1,-6.691495E-1,4.591527E-1],"categories":[],"categories_nodes":[],"categories_segments":[],"categories_sizes":[],"default_left":[1,1,1,1,1,1,1,1,1,1,1,1,1,1,0,0,0,0,0,0,0,0,0,0,0,0,0,0,0],"id":4,"left_children":[1,3,5,7,9,11,13,15,17,19,21,23,25,27,-1,-1,-1,-1,-1,-1,-1,-1,-1,-1,-1,-1,-1,-1,-1],"loss_changes":[8.578808E0,1.0380573E1,6.364811E0,6.707716E0,7.5303583E0,6.128632E0,4.3353934E0,6.212858E0,4.263645E0,5.5166698E0,1.0275812E1,5.7701106E0,4.9948916E0,1.692583E0,0E0,0E0,0E0,0E0,0E0,0E0,0E0,0E0,0E0,0E0,0E0,0E0,0E0,0E0,0E0],"parents":[2147483647,0,0,1,1,2,2,3,3,4,4,5,5,6,6,7,7,8,8,9,9,10,10,11,11,12,12,13,13],"right_children":[2,4,6,8,10,12,14,16,18,20,22,24,26,28,-1,-1,-1,-1,-1,-1,-1,-1,-1,-1,-1,-1,-1,-1,-1],"split_conditions":[-7.6494453E-4,3.6877525E1,1.4998056E-2,-7.6906807E-3,-1.7061537E-3,4.786724E-3,2.252196E-3,-9.870863E-4,7.865491E-4,3.7777428E1,1.2539173E-3,-1.6564067E-4,7.758631E1,1.6318128E-2,7.165157E-2,-1.6390706E-3,6.4652495E-2,-5.7066875E-3,-2.271533E-2,6.619811E-2,8.957823E-3,1.4662563E-3,-1.9854868E-2,3.0686154E-3,-1.3038645E-3,-5.2179452E-2,2.2957873E-2,-3.3457477E-2,2.2957636E-2],"split_indices":[0,5,4,4,0,0,6,0,3,5,3,2,5,4,0,0,0,0,0,0,0,0,0,0,0,0,0,0,0],"split_type":[0,0,0,0,0,0,0,0,0,0,0,0,0,0,0,0,0,0,0,0,0,0,0,0,0,0,0,0,0],"sum_hessian":[3.7884429E3,5.583129E2,3.23013E3,2.1337675E2,3.4493616E2,3.2223801E3,7.7497473E0,2.3980007E1,1.8939674E2,8.14787E1,2.6345746E2,3.2116316E3,1.0748511E1,3.4999652E0,4.249782E0,2.073047E1,3.249537E0,5.1237232E1,1.3815952E2,3.496298E0,7.79824E1,1.8272195E2,8.073551E1,1.209457E3,2.0021746E3,8.498518E0,2.2499933E0,1.2499938E0,2.2499714E0],"tree_param":{"num_deleted":"0","num_feature":"11","num_nodes":"29","size_leaf_vector":"0"}},{"base_weights":[-1.9640628E-2,-1.2068096E-1,-2.1084761E-3,2.2833064E-1,-1.5887153E-1,2.5055256E-1,-8.845902E-3,-6.874477E-1,3.3705395E-1,-7.589253E-2,-3.5230562E-1,-7.994124E-2,4.2857447E-1,2.031881E-3,-1.3464683E-1,6.518014E-1,-1.1520234E0,1.0534421E0,2.1204446E-1,-2.6395082E-1,2.2833042E-2,4.9266353E-1,-4.089502E-1,9.980876E-2,-9.069444E-1,2.4098533E-1,1.2194554E0,-2.602495E-1,7.828566E-3,-2.6047444E-1,1.6505525E-1],"categories":[],"categories_nodes":[],"categories_segments":[],"categories_sizes":[],"default_left":[1,1,1,1,1,1,1,1,1,1,1,1,1,1,1,0,0,0,0,0,0,0,0,0,0,0,0,0,0,0,0],"id":5,"left_children":[1,3,5,7,9,11,13,15,17,19,21,23,25,27,29,-1,-1,-1,-1,-1,-1,-1,-1,-1,-1,-1,-1,-1,-1,-1,-1],"loss_changes":[6.7176666E0,7.510022E0,5.505029E0,5.7790365E0,8.095058E0,4.976141E0,4.3103085E0,4.634321E0,4.296769E0,6.6039596E0,7.458761E0,4.5870047E0,7.8284845E0,4.410978E0,9.496382E0,0E0,0E0,0E0,0E0,0E0,0E0,0E0,0E0,0E0,0E0,0E0,0E0,0E0,0E0,0E0,0E0],"parents":[2147483647,0,0,1,1,2,2,3,3,4,4,5,5,6,6,7,7,8,8,9,9,10,10,11,11,12,12,13,13,14,14],"right_children":[2,4,6,8,10,12,14,16,18,20,22,24,26,28,30,-1,-1,-1,-1,-1,-1,-1,-1,-1,-1,-1,-1,-1,-1,-1,-1],"split_conditions":[-7.6494453E-4,-6.9655804E-3,-6.746778E-4,-7.567237E-3,1.3264648E-3,-8.736204E-4,3.6356044E-3,-9.407941E-3,1.2434775E-3,3.6144283E1,-9.463821E-3,8.117449E-1,-6.9162564E-4,-5.351836E-3,8.0666626E1,3.2590073E-2,-5.7601172E-2,5.2672107E-2,1.0602224E-2,-1.3197541E-2,1.1416521E-3,2.4633177E-2,-2.0447511E-2,4.990438E-3,-4.534722E-2,1.2049267E-2,6.097277E-2,-1.3012475E-2,3.9142833E-4,-1.3023722E-2,8.252762E-3],"split_indices":[0,4,0,2,3,4,2,1,3,5,1,10,0,2,5,0,0,0,0,0,0,0,0,0,0,0,0,0,0,0,0],"split_type":[0,0,0,0,0,0,0,0,0,0,0,0,0,0,0,0,0,0,0,0,0,0,0,0,0,0,0,0,0,0,0],"sum_hessian":[3.791319E3,5.597153E2,3.2316038E3,5.4714844E1,5.0500043E2,8.2995384E1,3.1486084E3,5.241626E0,4.947322E1,3.5437402E2,1.506264E2,2.9248018E1,5.3747364E1,2.8989272E3,2.4968124E2,1.2461886E0,3.9954371E0,6.2469726E0,4.3226246E1,1.21417404E2,2.3295663E2,8.979628E0,1.4164677E2,2.474827E1,4.4997497E0,4.449766E1,9.2497015E0,6.1734688E1,2.8371924E3,1.7594357E2,7.373766E1],"tree_param":{"num_deleted":"0","num_feature":"11","num_nodes":"31","size_leaf_vector":"0"}},{"base_weights":[-2.1156972E-2,-1.9230391E-1,-1.3615519E-2,-8.166549E-2,-6.09864E-1,-1.3506185E-1,-3.0336299E-3,-1.4253811E-2,-9.1605884E-1,-3.1787002E-1,-1.1716603E0,-1.6485149E-1,9.035963E-1,2.0767601E-1,-9.867712E-3,-5.864465E-2,1.1258816E0,2.3575991E-1,-1.1192318E0,-1.1939312E0,-1.421079E-1,-1.4281204E0,-1.165966E-2,4.21101E-1,-2.04392E-1,-2.30756E-1,1.1391356E0,-7.9141045E-1,3.098397E-1,-8.33246E-3,-8.331918E-1],"categories":[],"categories_nodes":[],"categories_segments":[],"categories_sizes":[],"default_left":[1,1,1,1,1,1,1,1,1,1,1,1,1,1,1,0,0,0,0,0,0,0,0,0,0,0,0,0,0,0,0],"id":6,"left_children":[1,3,5,7,9,11,13,15,17,19,21,23,25,27,29,-1,-1,-1,-1,-1,-1,-1,-1,-1,-1,-1,-1,-1,-1,-1,-1],"loss_changes":[4.876425E0,7.317128E0,4.6539493E0,7.1425943E0,5.081479E0,9.1297035E0,4.8007965E0,6.0747614E0,2.48561E0,3.4101884E0,3.2552338E0,6.6429653E0,2.4662957E0,1.0935382E1,4.074184E0,0E0,0E0,0E0,0E0,0E0,0E0,0E0,0E0,0E0,0E0,0E0,0E0,0E0,0E0,0E0,0E0],"parents":[2147483647,0,0,1,1,2,2,3,3,4,4,5,5,6,6,7,7,8,8,9,9,10,10,11,11,12,12,13,13,14,14],"right_children":[2,4,6,8,10,12,14,16,18,20,22,24,26,28,30,-1,-1,-1,-1,-1,-1,-1,-1,-1,-1,-1,-1,-1,-1,-1,-1],"split_conditions":[-9.829629E-1,6.840422E1,-2.1875477E-3,2.7524675E-3,1.0090899E-3,6.623166E1,2.200468E1,3.530176E-3,-1.5129124E-2,7.004285E1,8.258274E1,-8.230619E-3,2.0015244E-3,-9.159756E-1,9.603665E1,-2.9322326E-3,5.629408E-2,1.1787996E-2,-5.596159E-2,-5.9696563E-2,-7.105395E-3,-7.140602E-2,-5.82983E-4,2.105505E-2,-1.02196E-2,-1.1537801E-2,5.695678E-2,-3.957052E-2,1.5491985E-2,-4.1662302E-4,-4.165959E-2],"split_indices":[8,5,1,6,3,5,5,2,4,5,5,1,6,8,5,0,0,0,0,0,0,0,0,0,0,0,0,0,0,0,0],"split_type":[0,0,0,0,0,0,0,0,0,0,0,0,0,0,0,0,0,0,0,0,0,0,0,0,0,0,0,0,0,0,0],"sum_hessian":[3.7791626E3,1.5846367E2,3.620699E3,1.2621642E2,3.224724E1,2.8925146E2,3.3314475E3,1.1772256E2,8.49387E0,2.2249079E1,9.998161E0,2.820046E2,7.246858E0,1.0373337E2,3.227714E3,1.1422385E2,3.498709E0,1.2495558E0,7.244314E0,2.7498689E0,1.9499208E1,7.9986362E0,1.9995248E0,1.7216894E1,2.647877E2,1.2495171E0,5.9973407E0,8.997534E0,9.473583E1,3.2227148E3,4.999274E0],"tree_param":{"num_deleted":"0","num_feature":"11","num_nodes":"31","size_leaf_vector":"0"}},{"base_weights":[-1.1016332E-2,-9.720131E-3,-1.4080877E0,-1.853033E-1,-2.036666E-3,-9.8495916E-2,-5.615406E-1,-6.466951E-2,1.7544284E-2,3.092682E-2,-3.7061894E-1,-1.190399E0,-2.8263417E-1,3.987452E-1,-7.387713E-2,1.7328179E-1,-7.212509E-5],"categories":[],"categories_nodes":[],"categories_segments":[],"categories_sizes":[],"default_left":[1,1,0,1,1,1,1,1,1,0,0,0,0,0,0,0,0],"id":7,"left_children":[1,3,-1,5,7,9,11,13,15,-1,-1,-1,-1,-1,-1,-1,-1],"loss_changes":[6.8347306E0,5.0982356E0,0E0,5.1192555E0,4.4430337E0,4.588053E0,4.8357983E0,3.7111447E0,7.5722575E0,0E0,0E0,0E0,0E0,0E0,0E0,0E0,0E0],"parents":[2147483647,0,0,1,1,3,3,4,4,5,5,6,6,7,7,8,8],"right_children":[2,4,-1,6,8,10,12,14,16,-1,-1,-1,-1,-1,-1,-1,-1],"split_conditions":[9.685002E1,-9.829629E-1,-7.040439E-2,1.0729617E-3,-7.7994354E-4,1.5953432E-3,1.308296E-3,-8.371977E-3,-4.5309035E-4,1.546341E-3,-1.8530948E-2,-5.9519954E-2,-1.4131709E-2,1.993726E-2,-3.6938568E-3,8.664089E-3,-3.6062545E-6],"split_indices":[5,8,0,0,1,6,6,1,1,0,0,0,0,0,0,0,0],"split_type":[0,0,0,0,0,0,0,0,0,0,0,0,0,0,0,0,0],"sum_hessian":[3.7808047E3,3.7783062E3,2.4985514E0,1.5743652E2,3.6208696E3,1.28947E2,2.848952E1,8.6183813E2,2.7590315E3,8.7986595E1,4.0960407E1,7.7491627E0,2.0740356E1,1.5966119E1,8.45872E2,2.7947778E2,2.4795537E3],"tree_param":{"num_deleted":"0","num_feature":"11","num_nodes":"17","size_leaf_vector":"0"}},{"base_weights":[-1.553248E-2,-1.0227885E-2,-2.5542882E-1,7.5252086E-1,-1.2293701E-2,-1.8301582E-2,-6.0324675E-1,-1.2615734E-1,1.3003417E0,-4.423814E-1,-7.240167E-3,-1.9031282E-1,8.971015E-1,-7.901445E-1,6.0090786E-1,-7.7421284E-1,7.673201E-1,-5.7216924E-1,6.515621E-1,-4.055288E-3,-4.6705595E-1,1.12828E0,-3.0099916E-1,-2.1524541E-1,1.1350628E0,-1.0236796E0,-1.3248841E-1,9.3785346E-1,-2.2775686E-1],"categories":[],"categories_nodes":[],"categories_segments":[],"categories_sizes":[],"default_left":[1,1,1,1,1,1,1,1,0,1,1,1,1,1,1,0,0,0,0,0,0,0,0,0,0,0,0,0,0],"id":8,"left_children":[1,3,5,7,9,11,13,15,-1,17,19,21,23,25,27,-1,-1,-1,-1,-1,-1,-1,-1,-1,-1,-1,-1,-1,-1],"loss_changes":[4.78913E0,5.8157597E0,6.7041583E0,4.963002E0,7.986597E0,7.9562125E0,7.8958664E0,3.3387582E0,0E0,6.431905E0,5.3205214E0,6.5349083E0,2.3609E0,4.3147087E0,1.6092288E0,0E0,0E0,0E0,0E0,0E0,0E0,0E0,0E0,0E0,0E0,0E0,0E0,0E0,0E0],"parents":[2147483647,0,0,1,1,2,2,3,3,4,4,5,5,6,6,7,7,9,9,10,10,11,11,12,12,13,13,14,14],"right_children":[2,4,6,8,10,12,14,16,-1,18,20,22,24,26,28,-1,-1,-1,-1,-1,-1,-1,-1,-1,-1,-1,-1,-1,-1],"split_conditions":[3.4944436E-3,-8.380608E-3,4.4431023E1,-7.865661E-1,-4.9932757E-3,3.0228877E-3,8.060779E1,3.0161883E-3,6.501709E-2,9.159756E-1,2.9075895E-3,-2.4680775E-2,2.0780768E-3,4.6373876E-3,3.306849E-3,-3.8710643E-2,3.8366005E-2,-2.8608462E-2,3.2578107E-2,-2.0276441E-4,-2.3352798E-2,5.6414004E-2,-1.5049959E-2,-1.0762271E-2,5.675314E-2,-5.118398E-2,-6.6244206E-3,4.6892673E-2,-1.1387843E-2],"split_indices":[6,1,5,8,1,1,5,6,0,7,3,4,3,6,1,0,0,0,0,0,0,0,0,0,0,0,0,0,0],"split_type":[0,0,0,0,0,0,0,0,0,0,0,0,0,0,0,0,0,0,0,0,0,0,0,0,0,0,0,0,0],"sum_hessian":[3.764458E3,3.684039E3,8.041893E1,8.969611E0,3.6750693E3,4.844431E1,3.1974619E1,3.7402081E0,5.2294025E0,4.167557E1,3.6333938E3,4.144801E1,6.9962983E0,2.7976225E1,3.9983935E0,2.2452042E0,1.4950039E0,3.7681877E1,3.9936934E0,3.6094023E3,2.399143E1,2.497857E0,3.8950153E1,1.249762E0,5.7465367E0,2.0234392E1,7.7418327E0,2.7488937E0,1.2494998E0],"tree_param":{"num_deleted":"0","num_feature":"11","num_nodes":"29","size_leaf_vector":"0"}},{"base_weights":[-1.3609702E-2,-8.1903316E-2,8.012169E-3,-3.0058488E-2,-1.8194337E-1,2.0198998E-1,-6.5397085E-3,-4.1345302E-2,1.3902295E0,5.6071177E-2,-2.8831533E-1,3.9186515E-2,5.264015E-1,-8.557247E-3,1.1263167E0,-5.20489E-1,-9.564053E-3,-8.55659E-2,4.7577125E-1,3.7754312E-1,-3.438296E-1,1.3948911E-1,-7.245519E-1,5.972788E-1,-5.2458733E-1,2.740266E-1,-1.404108E-2,1.3982313E0,2.0261201E-1],"categories":[],"categories_nodes":[],"categories_segments":[],"categories_sizes":[],"default_left":[1,1,1,1,1,1,1,1,0,1,1,1,1,1,1,0,0,0,0,0,0,0,0,0,0,0,0,0,0],"id":9,"left_children":[1,3,5,7,9,11,13,15,-1,17,19,21,23,25,27,-1,-1,-1,-1,-1,-1,-1,-1,-1,-1,-1,-1,-1,-1],"loss_changes":[5.5692096E0,4.6983414E0,8.088997E0,9.652536E0,7.848915E0,1.0541027E1,6.103483E0,9.052527E0,0E0,5.7708993E0,8.03948E0,1.0383934E1,5.284931E0,4.1297164E0,9.091096E-1,0E0,0E0,0E0,0E0,0E0,0E0,0E0,0E0,0E0,0E0,0E0,0E0,0E0,0E0],"parents":[2147483647,0,0,1,1,2,2,3,3,4,4,5,5,6,6,7,7,9,9,10,10,11,11,12,12,13,13,14,14],"right_children":[2,4,6,8,10,12,14,16,-1,18,20,22,24,26,28,-1,-1,-1,-1,-1,-1,-1,-1,-1,-1,-1,-1,-1,-1],"split_conditions":[-7.7994354E-4,1.2490773E-3,-5.4401625E-4,1.239931E-3,-4.6687834E-3,5.536607E1,1.5431327E-2,-3.6795293E-3,6.951147E-2,6.035534E-1,-8.156091E-3,1.3794554E-3,7.4584633E-3,2.2054153E1,7.865661E-1,-2.602445E-2,-4.7820268E-4,-4.278295E-3,2.3788562E-2,1.8877156E-2,-1.719148E-2,6.974456E-3,-3.6227595E-2,2.9863939E-2,-2.6229367E-2,1.370133E-2,-7.02054E-4,6.991156E-2,1.0130601E-2],"split_indices":[1,3,1,3,4,5,4,4,0,8,1,3,4,5,8,0,0,0,0,0,0,0,0,0,0,0,0,0,0],"split_type":[0,0,0,0,0,0,0,0,0,0,0,0,0,0,0,0,0,0,0,0,0,0,0,0,0,0,0,0,0],"sum_hessian":[3.7701082E3,9.0592303E2,2.8641853E3,5.975492E2,3.0837387E2,1.9897328E2,2.665212E3,5.938012E2,3.747959E0,9.5394646E1,2.1297922E2,1.332324E2,6.574087E1,2.6614646E3,3.7474377E0,3.597992E1,5.578213E2,7.191983E1,2.3474813E1,1.5943716E1,1.970355E2,1.1848854E2,1.4743868E1,6.199192E1,3.7489517E0,4.9733055E1,2.6117314E3,2.498286E0,1.2491517E0],"tree_param":{"num_deleted":"0","num_feature":"11","num_nodes":"29","size_leaf_vector":"0"}},{"base_weights":[-1.6775392E-2,-1.4477654E-2,-7.5336295E-1,-1.132984E-1,-2.547797E-3,-1.1942066E0,1.4767788E-1,-2.5276676E-1,-1.6643193E-2,1.2942806E0,-4.2817737E-3,-1.772931E-1,-1.3561207E0,6.7747205E-1,-2.3544657E-1,-2.10332E-1,-1.2238744E0,1.1109011E0,-5.5118077E-2,-8.7737274E-1,-1.8099393E-3,-1.5656892E0,-3.7328744E-1,-6.427E-1,2.7705598E-1],"categories":[],"categories_nodes":[],"categories_segments":[],"categories_sizes":[],"default_left":[1,1,1,1,1,1,1,1,1,0,1,0,1,0,1,0,0,0,0,0,0,0,0,0,0],"id":10,"left_children":[1,3,5,7,9,11,13,15,17,-1,19,-1,21,-1,23,-1,-1,-1,-1,-1,-1,-1,-1,-1,-1],"loss_changes":[6.385322E0,4.442417E0,4.8368E0,5.467586E0,7.569063E0,1.0748558E0,1.1225214E0,6.586726E0,1.050869E1,0E0,7.249875E0,0E0,8.039284E-1,0E0,9.0762585E-1,0E0,0E0,0E0,0E0,0E0,0E0,0E0,0E0,0E0,0E0],"parents":[2147483647,0,0,1,1,2,2,3,3,4,4,5,5,6,6,7,7,8,8,10,10,12,12,14,14],"right_children":[2,4,6,8,10,12,14,16,18,-1,20,-1,22,-1,24,-1,-1,-1,-1,-1,-1,-1,-1,-1,-1],"split_conditions":[4.786724E-3,-9.826004E-4,7.272038E-3,3.6877525E1,-8.358939E-3,3.6207703E1,8.941162E-3,-1.0124079E-3,3.775095E1,6.471404E-2,-5.7721864E-3,-8.864655E-3,5.709214E-3,3.3873603E-2,8.852141E-3,-1.0516601E-2,-6.1193723E-2,5.5545058E-2,-2.7559039E-3,-4.386864E-2,-9.0496964E-5,-7.8284465E-2,-1.8664373E-2,-3.2135002E-2,1.3852799E-2],"split_indices":[0,0,1,5,1,5,1,0,5,0,1,0,1,0,0,0,0,0,0,0,0,0,0,0,0],"split_type":[0,0,0,0,0,0,0,0,0,0,0,0,0,0,0,0,0,0,0,0,0,0,0,0,0],"sum_hessian":[3.7781948E3,3.767462E3,1.07327E1,4.04909E2,3.362553E3,6.9882584E0,3.7444415E0,1.6508498E2,2.3982402E2,3.4946656E0,3.3590583E3,1.2475998E0,5.7406588E0,1.2490045E0,2.495437E0,1.593389E2,5.746082E0,6.9936886E0,2.3283034E2,8.48384E0,3.3505745E3,4.242911E0,1.4977477E0,1.2489403E0,1.2464966E0],"tree_param":{"num_deleted":"0","num_feature":"11","num_nodes":"25","size_leaf_vector":"0"}},{"base_weights":[-1.9905742E-2,-2.013071E-1,-1.2016461E-2,5.633542E-1,-2.653431E-1,-1.2441887E-1,2.356195E-4,1.0001503E0,-1.7441395E-1,-1.6805813E-1,-6.489254E-1,-2.507998E-1,4.759127E-2,3.0465424E-1,-6.3679577E-3,1.3605652E0,-1.8265587E-1,-8.5024434E-1,6.721892E-1,-2.2782746E-1,1.0952374E0,-3.2791778E-1,-1.1719521E0,-1.5334876E-1,-5.2707493E-1,7.3418736E-1,-2.6029406E-2,-7.2307324E-1,4.1762283E-1,-2.2370183E-1,7.6075655E-4],"categories":[],"categories_nodes":[],"categories_segments":[],"categories_sizes":[],"default_left":[1,1,1,1,1,1,1,1,1,1,1,1,1,1,1,0,0,0,0,0,0,0,0,0,0,0,0,0,0,0,0],"id":11,"left_children":[1,3,5,7,9,11,13,15,17,19,21,23,25,27,29,-1,-1,-1,-1,-1,-1,-1,-1,-1,-1,-1,-1,-1,-1,-1,-1],"loss_changes":[5.411948E0,7.8673306E0,4.994551E0,4.2025347E0,5.3435698E0,7.7609835E0,6.5779004E0,3.6588545E0,3.7183502E0,9.152141E0,4.520212E0,5.4558115E0,7.6930895E0,8.368008E0,4.962208E0,0E0,0E0,0E0,0E0,0E0,0E0,0E0,0E0,0E0,0E0,0E0,0E0,0E0,0E0,0E0,0E0],"parents":[2147483647,0,0,1,1,2,2,3,3,4,4,5,5,6,6,7,7,8,8,9,9,10,10,11,11,12,12,13,13,14,14],"right_children":[2,4,6,8,10,12,14,16,18,20,22,24,26,28,30,-1,-1,-1,-1,-1,-1,-1,-1,-1,-1,-1,-1,-1,-1,-1,-1],"split_conditions":[-9.829629E-1,7.2591414E-4,-2.8189886E-3,3.9027585E-4,6.840422E1,-1.2940952E-1,2.1773441E1,1.6291903E-3,6.691731E-4,6.612814E1,1.0090899E-3,-3.5520988E-3,1.4924974E1,-9.159756E-1,2.7018406E1,6.8028264E-2,-9.132794E-3,-4.251222E-2,3.360946E-2,-1.1391373E-2,5.4761868E-2,-1.639589E-2,-5.8597606E-2,-7.667438E-3,-2.6353747E-2,3.670937E-2,-1.3014703E-3,-3.6153663E-2,2.0881142E-2,-1.1185092E-2,3.803783E-5],"split_indices":[8,6,2,2,5,8,5,4,6,5,3,2,5,8,5,0,0,0,0,0,0,0,0,0,0,0,0,0,0,0,0],"split_type":[0,0,0,0,0,0,0,0,0,0,0,0,0,0,0,0,0,0,0,0,0,0,0,0,0,0,0,0,0,0,0],"sum_hessian":[3.7822908E3,1.56617E2,3.6256738E3,1.1499742E1,1.4511726E2,3.5546158E2,3.2702122E3,6.999839E0,4.499903E0,1.16905556E2,2.8211706E1,2.0464488E2,1.508167E2,6.8474365E1,3.2017378E3,5.24986E0,1.7499791E0,2.4999387E0,1.9999642E0,1.1240699E2,4.4985695E0,1.8490269E1,9.721438E0,1.5243224E2,5.2212643E1,1.3736424E1,1.3708026E2,6.24649E0,6.2227875E1,1.0071924E2,3.1010186E3],"tree_param":{"num_deleted":"0","num_feature":"11","num_nodes":"31","size_leaf_vector":"0"}},{"base_weights":[-6.984985E-3,-2.0297994E-1,-1.7442486E-3,-1.4111812E-1,-1.333151E0,3.4102204E-1,-5.1005706E-3,-3.4828186E-1,2.0275134E-1,-9.4976194E-2,7.641963E-1,-5.7631874E-1,-3.2168073E-3,-5.2412456E-1,1.731752E-1,-9.215354E-2,8.6634773E-1,-5.5120915E-1,3.7090218E-1,-2.5154695E-1,1.0222938E0,-1.1170235E0,-3.0698882E-2,-4.406939E-1,-8.885535E-4],"categories":[],"categories_nodes":[],"categories_segments":[],"categories_sizes":[],"default_left":[1,1,1,1,0,1,1,1,1,1,1,1,1,0,0,0,0,0,0,0,0,0,0,0,0],"id":12,"left_children":[1,3,5,7,-1,9,11,13,15,17,19,21,23,-1,-1,-1,-1,-1,-1,-1,-1,-1,-1,-1,-1],"loss_changes":[3.8819287E0,6.6930947E0,4.2378817E0,6.7978454E0,0E0,6.663191E0,3.9229927E0,5.528161E0,7.151387E0,4.133051E0,5.0383263E0,3.5010858E0,3.7036014E0,0E0,0E0,0E0,0E0,0E0,0E0,0E0,0E0,0E0,0E0,0E0,0E0],"parents":[2147483647,0,0,1,1,2,2,3,3,5,5,6,6,7,7,8,8,9,9,10,10,11,11,12,12],"right_children":[2,4,6,8,-1,10,12,14,16,18,20,22,24,-1,-1,-1,-1,-1,-1,-1,-1,-1,-1,-1,-1],"split_conditions":[-6.001675E-3,-6.107209E-3,1.4355699E1,1.2940952E-1,-6.665755E-2,1.2940952E-1,1.6045916E1,-6.8937456E-3,3.3405922E1,-5.6174487E-1,9.249835E-4,-1.2940952E-1,4.6263583E-4,-2.6206229E-2,8.65876E-3,-4.607677E-3,4.331739E-2,-2.7560458E-2,1.854511E-2,-1.2577347E-2,5.111469E-2,-5.5851173E-2,-1.5349442E-3,-2.2034695E-2,-4.4427677E-5],"split_indices":[2,2,5,7,0,8,5,2,5,10,6,8,6,0,0,0,0,0,0,0,0,0,0,0,0],"split_type":[0,0,0,0,0,0,0,0,0,0,0,0,0,0,0,0,0,0,0,0,0,0,0,0,0],"sum_hessian":[3.7786355E3,9.7423546E1,3.681212E3,9.3434135E1,3.9894109E0,3.472084E1,3.6464912E3,5.8299088E1,3.5135044E1,1.7483292E1,1.7237547E1,1.0983547E1,3.6355076E3,4.3593594E1,1.4705493E1,2.4921127E1,1.0213918E1,8.740546E0,8.742744E0,3.4977052E0,1.3739842E1,4.9906244E0,5.992923E0,1.8249023E1,3.6172585E3],"tree_param":{"num_deleted":"0","num_feature":"11","num_nodes":"25","size_leaf_vector":"0"}},{"base_weights":[-1.3377185E-2,-8.094533E-2,7.838023E-3,-9.2053056E-2,4.705886E-1,3.2258993E-1,7.579309E-4,-3.764095E-2,-1.9003172E-1,9.8744726E-1,-4.336211E-1,1.7678216E-1,1.424383E0,2.9285833E-1,-5.196075E-3,-9.7947665E-2,2.9538798E-1,-4.7480845E-1,-1.22124605E-1,-1.148253E-1,1.4226321E0,-8.947507E-1,7.9845726E-1,-1.9859242E-1,4.4124728E-1,2.1254525E-1,1.6414052E0,-6.60472E-1,4.0385348E-1,-1.0180203E0,-3.3548533E-3],"categories":[],"categories_nodes":[],"categories_segments":[],"categories_sizes":[],"default_left":[1,1,1,1,1,1,1,1,1,1,1,1,1,1,1,0,0,0,0,0,0,0,0,0,0,0,0,0,0,0,0],"id":13,"left_children":[1,3,5,7,9,11,13,15,17,19,21,23,25,27,29,-1,-1,-1,-1,-1,-1,-1,-1,-1,-1,-1,-1,-1,-1,-1,-1],"loss_changes":[5.412752E0,5.570884E0,6.404967E0,4.7125444E0,8.82938E0,9.906013E0,4.8921156E0,1.1485594E1,6.050088E0,5.796505E0,4.823861E0,5.744383E0,1.5573101E0,6.212612E0,5.1376343E0,0E0,0E0,0E0,0E0,0E0,0E0,0E0,0E0,0E0,0E0,0E0,0E0,0E0,0E0,0E0,0E0],"parents":[2147483647,0,0,1,1,2,2,3,3,4,4,5,5,6,6,7,7,8,8,9,9,10,10,11,11,12,12,13,13,14,14],"right_children":[2,4,6,8,10,12,14,16,18,20,22,24,26,28,30,-1,-1,-1,-1,-1,-1,-1,-1,-1,-1,-1,-1,-1,-1,-1,-1],"split_conditions":[-7.7870244E-4,1.0724245E-2,-6.984297E-4,4.6714622E1,1.4146468E-2,9.159756E-1,2.1984905E1,4.197052E1,5.012387E1,1.1410206E-3,5.946184E1,-4.276759E-4,-2.838472E-3,-9.159756E-1,-6.939875E-4,-4.8973835E-3,1.47694E-2,-2.3740424E-2,-6.1062304E-3,-5.741265E-3,7.113161E-2,-4.4737536E-2,3.9922863E-2,-9.929622E-3,2.2062365E-2,1.0627262E-2,8.207026E-2,-3.30236E-2,2.0192673E-2,-5.0901014E-2,-1.6774266E-4],"split_indices":[1,4,1,5,4,8,5,5,5,3,5,4,4,8,1,0,0,0,0,0,0,0,0,0,0,0,0,0,0,0,0],"split_type":[0,0,0,0,0,0,0,0,0,0,0,0,0,0,0,0,0,0,0,0,0,0,0,0,0,0,0,0,0,0,0],"sum_hessian":[3.7745305E3,9.012695E2,2.873261E3,8.8429315E2,1.6976307E1,6.2229492E1,2.8110315E3,5.6944055E2,3.148526E2,1.0743258E1,6.2330494E0,5.5981525E1,6.2479663E0,5.5191246E1,2.7558403E3,4.8273087E2,8.670967E1,5.9469215E1,2.5538338E2,3.2493014E0,7.4939566E0,4.73476E0,1.4982897E0,2.3241812E1,3.2739716E1,1.249608E0,4.9983582E0,5.2394533E0,4.9951794E1,3.9992833E0,2.751841E3],"tree_param":{"num_deleted":"0","num_feature":"11","num_nodes":"31","size_leaf_vector":"0"}},{"base_weights":[-1.4042279E-2,2.3911959E-2,-4.244023E-2,1.578113E-2,7.1572787E-1,-3.570832E-2,-6.344821E-1,-5.88853E-2,8.31014E-2,-1.1603976E-1,9.313958E-1,-3.800251E-2,1.375493E0,-8.5821784E-1,6.196404E-1,-3.7364852E-1,-3.6029536E-2,7.018872E-2,9.8941106E-1,5.459783E-1,-6.843154E-1,1.0918647E0,-1.8064308E-1,-4.6504512E-3,-1.20407395E-1,-1.0902824E0,7.4304825E-1,-1.8953593E-1,1.0194683E0],"categories":[],"categories_nodes":[],"categories_segments":[],"categories_sizes":[],"default_left":[1,1,1,1,1,1,1,1,1,1,1,1,0,1,1,0,0,0,0,0,0,0,0,0,0,0,0,0,0],"id":14,"left_children":[1,3,5,7,9,11,13,15,17,19,21,23,-1,25,27,-1,-1,-1,-1,-1,-1,-1,-1,-1,-1,-1,-1,-1,-1],"loss_changes":[4.068583E0,9.077714E0,8.582439E0,8.037676E0,3.471078E0,6.9672194E0,7.3261347E0,5.4417043E0,9.770204E0,2.1603513E0,2.873599E0,5.862692E0,0E0,8.601691E0,1.5671238E0,0E0,0E0,0E0,0E0,0E0,0E0,0E0,0E0,0E0,0E0,0E0,0E0,0E0,0E0],"parents":[2147483647,0,0,1,1,2,2,3,3,4,4,5,5,6,6,7,7,8,8,9,9,10,10,11,11,13,13,14,14],"right_children":[2,4,6,8,10,12,14,16,18,20,22,24,-1,26,28,-1,-1,-1,-1,-1,-1,-1,-1,-1,-1,-1,-1,-1,-1],"split_conditions":[-1.6564067E-4,-1.8505615E-4,3.8938532E-3,-7.716762E-4,-2.1694186E-1,1.5431327E-2,4.8570316E-3,7.860516E-4,3.807487E-3,-6.035534E-1,9.159756E-1,2.945267E-3,6.8774655E-2,8.0916145E1,2.825576E-3,-1.8682426E-2,-1.8014768E-3,3.5094363E-3,4.9470555E-2,2.7298916E-2,-3.421577E-2,5.4593235E-2,-9.032154E-3,-2.3252257E-4,-6.02037E-3,-5.451412E-2,3.7152413E-2,-9.476797E-3,5.0973415E-2],"split_indices":[2,2,6,1,9,4,1,6,6,7,7,4,0,5,3,0,0,0,0,0,0,0,0,0,0,0,0,0,0],"split_type":[0,0,0,0,0,0,0,0,0,0,0,0,0,0,0,0,0,0,0,0,0,0,0,0,0,0,0,0,0],"sum_hessian":[3.7728757E3,1.6148137E3,2.158062E3,1.5970664E3,1.7747314E1,2.1348477E3,2.3214325E1,7.572778E2,8.3978864E2,3.7493052E0,1.3998009E1,2.132354E3,2.4934986E0,1.9967754E1,3.2465699E0,5.0226345E1,7.0705145E2,8.2905414E2,1.0734529E1,1.7499367E0,1.9993685E0,1.2248651E1,1.7493575E0,1.5187291E3,6.1362494E2,1.7718937E1,2.2488174E0,1.2476062E0,1.9989637E0],"tree_param":{"num_deleted":"0","num_feature":"11","num_nodes":"29","size_leaf_vector":"0"}},{"base_weights":[-5.8463286E-3,-1.9003321E-1,2.1614202E-3,-8.43061E-2,-6.212045E-1,6.7539215E-3,-2.4347639E-1,-1.225396E-1,9.2485964E-1,-2.9988015E-1,-1.0385653E0,3.8115443E-3,6.545758E-1,-5.4170907E-1,-4.034578E-2,-7.427602E-2,-7.8958094E-1,2.070953E-1,1.1219764E0,-5.408437E-1,1.2977525E0,-1.2610074E0,-2.854951E-1,3.0598885E-1,-2.2359812E-4,1.0122275E0,-3.364916E-1,-6.702615E-1,7.006197E-1,7.9871273E-1,-1.7427188E-1],"categories":[],"categories_nodes":[],"categories_segments":[],"categories_sizes":[],"default_left":[1,1,1,1,1,1,1,1,1,1,1,1,1,1,1,0,0,0,0,0,0,0,0,0,0,0,0,0,0,0,0],"id":15,"left_children":[1,3,5,7,9,11,13,15,17,19,21,23,25,27,29,-1,-1,-1,-1,-1,-1,-1,-1,-1,-1,-1,-1,-1,-1,-1,-1],"loss_changes":[5.540928E0,7.08302E0,4.063854E0,5.0080214E0,3.8011208E0,6.737299E0,3.9834454E0,3.9047475E0,4.3936872E-1,7.9133286E0,1.8065567E0,4.293153E0,6.005239E0,4.7347817E0,4.6800227E0,0E0,0E0,0E0,0E0,0E0,0E0,0E0,0E0,0E0,0E0,0E0,0E0,0E0,0E0,0E0,0E0],"parents":[2147483647,0,0,1,1,2,2,3,3,4,4,5,5,6,6,7,7,8,8,9,9,10,10,11,11,12,12,13,13,14,14],"right_children":[2,4,6,8,10,12,14,16,18,20,22,24,26,28,30,-1,-1,-1,-1,-1,-1,-1,-1,-1,-1,-1,-1,-1,-1,-1,-1],"split_conditions":[-9.829629E-1,6.840422E1,2.9048636E-3,6.678018E1,1.4754734E-3,2.6433151E-3,3.4620496E-3,2.975606E-3,8.5078215E-4,1.3421457E-3,7.940358E1,1.4584556E1,3.4784968E-3,4.59122E-3,3.553582E-3,-3.7138013E-3,-3.9479047E-2,1.0354765E-2,5.609882E-2,-2.7042186E-2,6.488763E-2,-6.3050374E-2,-1.42747555E-2,1.5299442E-2,-1.1179906E-5,5.0611377E-2,-1.682458E-2,-3.3513077E-2,3.5030987E-2,3.9935637E-2,-8.713595E-3],"split_indices":[8,5,3,5,6,3,3,6,6,6,5,5,6,6,3,0,0,0,0,0,0,0,0,0,0,0,0,0,0,0,0],"split_type":[0,0,0,0,0,0,0,0,0,0,0,0,0,0,0,0,0,0,0,0,0,0,0,0,0,0,0,0,0,0,0],"sum_hessian":[3.7554807E3,1.5552422E2,3.5999565E3,1.2585818E2,2.966604E1,3.5348408E3,6.51157E1,1.2211044E2,3.7477336E0,1.773243E1,1.1933611E1,3.5198596E3,1.4981157E1,2.5706736E1,3.9408966E1,1.14907684E2,7.202761E0,1.2492912E0,2.4984424E0,1.5983225E1,1.7492045E0,8.69175E0,3.2418618E0,4.539718E1,3.4744626E3,1.0992783E1,3.988374E0,2.371342E1,1.9933136E0,4.741187E0,3.4667778E1],"tree_param":{"num_deleted":"0","num_feature":"11","num_nodes":"31","size_leaf_vector":"0"}},{"base_weights":[-1.25541575E-2,-1.8999409E-2,1.4669526E-1,-1.5089002E-2,-4.3104988E-1,8.016858E-2,8.012005E-1,-1.6398368E-2,7.431933E-1,-1.4737943E-2,-7.1814775E-1,2.9073042E-1,-1.3952506E-1,-6.5911335E-1,1.0040859E0,-1.5451607E-2,-1.0607725E0,-1.6529472E-1,1.1334057E0,4.861413E-1,-5.456221E-1,-1.2524394E0,-1.5582898E-1,-1.311958E-1,4.8346436E-1,-5.443355E-1,1.5799177E-1,1.3916095E0,4.4701293E-1],"categories":[],"categories_nodes":[],"categories_segments":[],"categories_sizes":[],"default_left":[1,1,1,1,1,1,1,1,1,1,1,1,1,0,1,0,0,0,0,0,0,0,0,0,0,0,0,0,0],"id":16,"left_children":[1,3,5,7,9,11,13,15,17,19,21,23,25,-1,27,-1,-1,-1,-1,-1,-1,-1,-1,-1,-1,-1,-1,-1,-1],"loss_changes":[3.8908794E0,5.861172E0,6.3566847E0,3.5948687E0,4.076859E0,6.2841487E0,4.6599913E0,3.5463276E0,2.4000435E0,4.2482953E0,5.879526E0,5.694117E0,8.122624E0,0E0,2.0213509E0,0E0,0E0,0E0,0E0,0E0,0E0,0E0,0E0,0E0,0E0,0E0,0E0,0E0,0E0],"parents":[2147483647,0,0,1,1,2,2,3,3,4,4,5,5,6,6,7,7,8,8,9,9,10,10,11,11,12,12,14,14],"right_children":[2,4,6,8,10,12,14,16,18,20,22,24,26,-1,28,-1,-1,-1,-1,-1,-1,-1,-1,-1,-1,-1,-1,-1,-1],"split_conditions":[8.347345E1,7.01465E-3,1.7211518E-3,6.3892994E-3,3.6587515E-3,1.3863696E-3,1.8544063E-3,6.0741426E-3,5.1530865E1,7.606456E1,7.4647934E1,2.280813E-4,1.32984E-3,-3.295567E-2,2.9424275E-3,-7.725804E-4,-5.3038627E-2,-8.264736E-3,5.6670286E-2,2.4307065E-2,-2.7281106E-2,-6.262197E-2,-7.7914493E-3,-6.55979E-3,2.4173219E-2,-2.7216775E-2,7.899589E-3,6.958048E-2,2.2350647E-2],"split_indices":[5,2,3,1,1,1,6,1,5,5,5,1,6,0,6,0,0,0,0,0,0,0,0,0,0,0,0,0,0],"split_type":[0,0,0,0,0,0,0,0,0,0,0,0,0,0,0,0,0,0,0,0,0,0,0,0,0,0,0,0,0],"sum_hessian":[3.7870771E3,3.6406125E3,1.4646468E2,3.6074143E3,3.3198166E1,1.339699E2,1.2494779E1,3.6021726E3,5.2416835E0,1.3978989E1,1.9219175E1,6.824155E1,6.572835E1,1.2498685E0,1.124491E1,3.599924E3,2.2486587E0,1.7481223E0,3.4935613E0,7.2361226E0,6.742866E0,9.225868E0,9.993308E0,2.149806E1,4.6743484E1,2.7492128E1,3.823622E1,5.748167E0,5.4967427E0],"tree_param":{"num_deleted":"0","num_feature":"11","num_nodes":"29","size_leaf_vector":"0"}},{"base_weights":[-8.101767E-3,-7.189918E-2,1.19592175E-2,-3.930787E-1,-5.2531734E-2,2.3139895E-1,1.8586761E-3,-4.3516215E-2,-8.6518985E-1,-3.5870094E-2,-3.931636E-1,-7.1896225E-2,4.1621962E-1,-8.1834286E-1,4.1766786E-3,3.006178E-1,-4.9887484E-1,-1.0698079E0,3.4606703E-2,-5.0705492E-2,8.4872454E-1,-5.1074874E-1,1.0861512E0,4.02215E-1,-3.5024434E-1,1.977859E-1,8.2186794E-1,-9.6631356E-2,-1.3180748E0,6.05884E-3,-8.935875E-1],"categories":[],"categories_nodes":[],"categories_segments":[],"categories_sizes":[],"default_left":[1,1,1,1,1,1,1,1,1,1,1,1,1,1,1,0,0,0,0,0,0,0,0,0,0,0,0,0,0,0,0],"id":17,"left_children":[1,3,5,7,9,11,13,15,17,19,21,23,25,27,29,-1,-1,-1,-1,-1,-1,-1,-1,-1,-1,-1,-1,-1,-1,-1,-1],"loss_changes":[4.8329306E0,5.598525E0,6.367879E0,8.415347E0,4.827778E0,7.1165276E0,5.227553E0,4.926745E0,4.0392227E0,1.0731168E1,7.4574566E0,6.5705094E0,6.810895E0,2.6673188E0,4.637015E0,0E0,0E0,0E0,0E0,0E0,0E0,0E0,0E0,0E0,0E0,0E0,0E0,0E0,0E0,0E0,0E0],"parents":[2147483647,0,0,1,1,2,2,3,3,4,4,5,5,6,6,7,7,8,8,9,9,10,10,11,11,12,12,13,13,14,14],"right_children":[2,4,6,8,10,12,14,16,18,20,22,24,26,28,30,-1,-1,-1,-1,-1,-1,-1,-1,-1,-1,-1,-1,-1,-1,-1,-1],"split_conditions":[-7.843059E-4,7.86147E-4,-6.183004E-4,7.328384E-4,1.655578E-3,2.1694186E-1,4.06829E-4,-1.0482068E-3,8.783797E-1,1.2804971E-3,1.0186225E-2,-7.144974E-4,5.5487022E1,6.078576E-1,9.63799E1,1.5030891E-2,-2.4943743E-2,-5.3490397E-2,1.7303352E-3,-2.5352747E-3,4.2436227E-2,-2.5537437E-2,5.430756E-2,2.011075E-2,-1.7512217E-2,9.889295E-3,4.1093398E-2,-4.831568E-3,-6.5903746E-2,3.02942E-4,-4.4679377E-2],"split_indices":[1,6,1,6,2,9,6,2,9,2,4,1,5,9,5,0,0,0,0,0,0,0,0,0,0,0,0,0,0,0,0],"split_type":[0,0,0,0,0,0,0,0,0,0,0,0,0,0,0,0,0,0,0,0,0,0,0,0,0,0,0,0,0,0,0],"sum_hessian":[3.774531E3,9.0234216E2,2.8721887E3,5.0220245E1,8.521219E2,1.2542183E2,2.7467668E3,2.9482708E1,2.0737537E1,8.134387E2,3.8683167E1,4.7721188E1,7.770064E1,6.748761E0,2.740018E3,1.6985704E1,1.2497004E1,1.6741495E1,3.9960413E0,8.0094885E2,1.2489905E1,3.6441322E1,2.241843E0,1.7488302E1,3.0232887E1,5.147171E1,2.622893E1,3.2493813E0,3.49938E0,2.7352769E3,4.741254E0],"tree_param":{"num_deleted":"0","num_feature":"11","num_nodes":"31","size_leaf_vector":"0"}},{"base_weights":[-1.4745628E-2,8.4535964E-2,-2.8494803E-2,1.132831E-1,-5.4756796E-1,-2.5213735E-2,-4.226195E-1,8.855435E-2,9.227734E-1,-9.8078763E-1,2.0183288E-1,-2.9742975E-2,3.788843E-1,-5.838755E-1,8.489347E-1,1.3951626E-1,-2.0534058E-1,2.603409E-1,1.2726594E0,-8.5302286E-2,-1.3345724E0,8.448384E-1,-2.2500795E-1,-1.0929263E0,-2.8598573E-2,8.517758E-2,9.9547046E-1,-6.989611E-1,6.005681E-1,1.0931169E0,2.2667627E-1],"categories":[],"categories_nodes":[],"categories_segments":[],"categories_sizes":[],"default_left":[1,1,1,1,1,1,1,1,1,1,1,1,1,1,1,0,0,0,0,0,0,0,0,0,0,0,0,0,0,0,0],"id":18,"left_children":[1,3,5,7,9,11,13,15,17,19,21,23,25,27,29,-1,-1,-1,-1,-1,-1,-1,-1,-1,-1,-1,-1,-1,-1,-1,-1],"loss_changes":[5.17606E0,8.4441185E0,4.2953086E0,8.767048E0,6.7681274E0,6.057335E0,6.1197314E0,6.469699E0,2.6811724E0,4.002985E0,2.4524035E0,3.9445994E0,6.559199E0,3.818572E0,2.831757E-1,0E0,0E0,0E0,0E0,0E0,0E0,0E0,0E0,0E0,0E0,0E0,0E0,0E0,0E0,0E0,0E0],"parents":[2147483647,0,0,1,1,2,2,3,3,4,4,5,5,6,6,7,7,8,8,9,9,10,10,11,11,12,12,13,13,14,14],"right_children":[2,4,6,8,10,12,14,16,18,20,22,24,26,28,30,-1,-1,-1,-1,-1,-1,-1,-1,-1,-1,-1,-1,-1,-1,-1,-1],"split_conditions":[-9.159756E-1,1.3541938E-3,8.132099E-3,1.0812312E-3,1.9592473E-3,6.22472E-3,1.6186211E-2,2.8167013E-3,8.8012195E-4,-9.829629E-1,3.7237576E1,-2.629393E-2,1.2940952E-1,4.6371473E-3,1.4313339E-2,6.9758133E-3,-1.02670295E-2,1.3017045E-2,6.363297E-2,-4.265114E-3,-6.672862E-2,4.224192E-2,-1.1250398E-2,-5.4646313E-2,-1.4299287E-3,4.258879E-3,4.9773525E-2,-3.4948055E-2,3.0028407E-2,5.4655846E-2,1.1333814E-2],"split_indices":[7,0,2,0,0,2,2,2,2,7,5,2,8,6,1,0,0,0,0,0,0,0,0,0,0,0,0,0,0,0,0],"split_type":[0,0,0,0,0,0,0,0,0,0,0,0,0,0,0,0,0,0,0,0,0,0,0,0,0,0,0,0,0,0,0],"sum_hessian":[3.7891099E3,4.6028485E2,3.3288252E3,4.4104745E2,1.9237387E1,3.3023967E3,2.642832E1,4.2905E2,1.1997456E1,1.19946575E1,7.2427297E0,3.266709E3,3.568777E1,2.393389E1,2.4944308E0,3.6609393E2,6.2956062E1,4.749462E0,7.2479935E0,3.7482805E0,8.246377E0,2.4989524E0,4.7437773E0,2.486688E0,3.2642224E3,2.4944004E1,1.0743766E1,2.21879E1,1.7459885E0,1.2480049E0,1.2464257E0],"tree_param":{"num_deleted":"0","num_feature":"11","num_nodes":"31","size_leaf_vector":"0"}},{"base_weights":[-5.325831E-3,-1.6112965E-1,1.6495719E-3,-7.510983E-2,-4.8996684E-1,3.566659E-3,-6.295593E-1,-1.15252666E-1,9.4745374E-1,-1.9247238E-1,-1.046913E0,5.8560335E-4,6.233842E-1,-1.2651684E0,2.3357746E-1,8.129445E-1,-1.4660555E-1,2.0009585E-1,1.1432878E0,-4.0330696E-1,6.467588E-1,-1.2173924E0,4.690815E-2,5.6796014E-1,-2.1455258E-3,9.9296504E-1,-1.4111228E-1,-1.6444932E-1,7.753799E-1],"categories":[],"categories_nodes":[],"categories_segments":[],"categories_sizes":[],"default_left":[1,1,1,1,1,1,1,1,1,1,1,1,1,0,1,0,0,0,0,0,0,0,0,0,0,0,0,0,0],"id":19,"left_children":[1,3,5,7,9,11,13,15,17,19,21,23,25,-1,27,-1,-1,-1,-1,-1,-1,-1,-1,-1,-1,-1,-1,-1,-1],"loss_changes":[4.099693E0,4.535688E0,4.37232E0,5.4172945E0,5.3219843E0,6.654064E0,6.297834E0,3.7661846E0,5.0201654E-1,4.322458E0,2.1794949E0,5.556761E0,5.0104747E0,0E0,1.3101634E0,0E0,0E0,0E0,0E0,0E0,0E0,0E0,0E0,0E0,0E0,0E0,0E0,0E0,0E0],"parents":[2147483647,0,0,1,1,2,2,3,3,4,4,5,5,6,6,7,7,8,8,9,9,10,10,11,11,12,12,14,14],"right_children":[2,4,6,8,10,12,14,16,18,20,22,24,26,-1,28,-1,-1,-1,-1,-1,-1,-1,-1,-1,-1,-1,-1,-1,-1],"split_conditions":[-9.829629E-1,6.846293E1,4.812261E-3,6.678018E1,9.357038E-4,3.504803E-3,6.7499094E-3,5.9824076E-4,4.5457034E-4,8.6479983E-4,8.286009E1,-8.230619E-3,5.4729627E-3,-6.3258424E-2,7.787313E1,4.0647224E-2,-7.3302775E-3,1.0004792E-2,5.716439E-2,-2.0165348E-2,3.233794E-2,-6.0869623E-2,2.3454076E-3,2.8398007E-2,-1.0727629E-4,4.964825E-2,-7.055614E-3,-8.222466E-3,3.8768996E-2],"split_indices":[8,5,0,5,3,0,1,6,3,3,5,1,1,0,5,0,0,0,0,0,0,0,0,0,0,0,0,0,0],"split_type":[0,0,0,0,0,0,0,0,0,0,0,0,0,0,0,0,0,0,0,0,0,0,0,0,0,0,0,0,0],"sum_hessian":[3.7710354E3,1.6064911E2,3.6103862E3,1.2831252E2,3.233659E1,3.6004453E3,9.940808E0,1.243194E2,3.9931233E0,2.1954899E1,1.0381689E1,3.5842078E3,1.6237553E1,5.4567256E0,4.484082E0,3.2475438E0,1.2107185E2,1.2488648E0,2.7442584E0,1.7961885E1,3.9930146E0,8.884074E0,1.497615E0,1.617894E1,3.5680288E3,1.0744491E1,5.4930625E0,2.9865425E0,1.49754E0],"tree_param":{"num_deleted":"0","num_feature":"11","num_nodes":"29","size_leaf_vector":"0"}},{"base_weights":[-1.4174139E-2,-1.805725E-2,2.4550368E-1,-1.6932577E-1,-1.13382265E-2,2.8789923E-1,-7.7330875E-1,-5.4749873E-2,-6.2295836E-1,4.504855E-1,-1.357061E-2,-1.4238684E-1,4.134011E-1,6.7127365E-1,-1.10672615E-1,-3.6186868E-1,-1.1296502E0,-1.044199E0,7.457162E-1,-4.283682E-1,-8.383154E-3,1.4715089E-1,-6.776211E-1,7.219306E-1,1.3633263E-1],"categories":[],"categories_nodes":[],"categories_segments":[],"categories_sizes":[],"default_left":[1,1,1,1,1,1,0,1,1,1,1,1,1,0,0,0,0,0,0,0,0,0,0,0,0],"id":20,"left_children":[1,3,5,7,9,11,-1,13,15,17,19,21,23,-1,-1,-1,-1,-1,-1,-1,-1,-1,-1,-1,-1],"loss_changes":[3.8082929E0,3.7766473E0,2.6262112E0,8.179919E0,3.6770253E0,2.9832072E0,0E0,5.2414494E0,3.7942448E0,8.350128E0,7.623243E0,2.1099904E0,3.5073547E0,0E0,0E0,0E0,0E0,0E0,0E0,0E0,0E0,0E0,0E0,0E0,0E0],"parents":[2147483647,0,0,1,1,2,2,3,3,4,4,5,5,7,7,8,8,9,9,10,10,11,11,12,12],"right_children":[2,4,6,8,10,12,-1,14,16,18,20,22,24,-1,-1,-1,-1,-1,-1,-1,-1,-1,-1,-1,-1],"split_conditions":[1.0620564E-2,-9.829629E-1,4.0496634E-3,6.840422E1,-8.279547E-3,4.4815796E1,-3.866544E-2,7.265047E-4,1.0090899E-3,1.2294506E1,-4.9869725E-3,1.4146468E-2,4.2748026E-4,3.3563685E-2,-5.533631E-3,-1.8093435E-2,-5.6482513E-2,-5.220995E-2,3.7285812E-2,-2.1418411E-2,-4.191577E-4,7.3575447E-3,-3.3881057E-2,3.6096532E-2,6.8166316E-3],"split_indices":[4,8,6,5,1,5,0,6,3,5,1,4,1,0,0,0,0,0,0,0,0,0,0,0,0],"split_type":[0,0,0,0,0,0,0,0,0,0,0,0,0,0,0,0,0,0,0,0,0,0,0,0,0],"sum_hessian":[3.7713303E3,3.716683E3,5.4647236E1,1.5703691E2,3.5596462E3,5.315282E1,1.4944154E0,1.2626605E2,3.077086E1,1.6158058E1,3.5434883E3,1.1972E1,4.118082E1,8.24327E0,1.1802279E2,2.1438269E1,9.332593E0,2.246691E0,1.3911366E1,4.275988E1,3.5007283E3,8.239741E0,3.7322583E0,1.8724524E1,2.2456295E1],"tree_param":{"num_deleted":"0","num_feature":"11","num_nodes":"25","size_leaf_vector":"0"}},{"base_weights":[-7.073366E-3,-2.2576675E-2,5.600348E-2,-1.981628E-2,-6.57336E-1,-6.224977E-1,6.881242E-2,-9.4833076E-1,-1.796764E-2,-9.117744E-1,7.96127E-1,-1.1654776E0,8.909591E-2,8.681102E-2,-3.3601323E-1,1.913432E-2,-1.2754499E0,-2.573084E-2,1.808635E-1,-4.7229826E-2,-1.1111175E0,-1.5736463E0,-8.444831E-2,-5.1077265E-1,5.3701556E-1,2.2582907E-2,2.209507E-1,1.4799415E-1,-6.955229E-1],"categories":[],"categories_nodes":[],"categories_segments":[],"categories_sizes":[],"default_left":[1,1,1,1,1,1,1,1,1,1,0,1,1,1,1,0,0,0,0,0,0,0,0,0,0,0,0,0,0],"id":21,"left_children":[1,3,5,7,9,11,13,15,17,19,-1,21,23,25,27,-1,-1,-1,-1,-1,-1,-1,-1,-1,-1,-1,-1,-1,-1],"loss_changes":[3.7015247E0,5.3102303E0,6.5333695E0,5.1769505E0,5.579152E0,5.48884E0,5.376466E0,1.9211287E0,4.6676855E0,1.9526186E0,0E0,3.3864946E0,2.1446455E0,6.055516E0,5.574527E0,0E0,0E0,0E0,0E0,0E0,0E0,0E0,0E0,0E0,0E0,0E0,0E0,0E0,0E0],"parents":[2147483647,0,0,1,1,2,2,3,3,4,4,5,5,6,6,7,7,8,8,9,9,11,11,12,12,13,13,14,14],"right_children":[2,4,6,8,10,12,14,16,18,20,-1,22,24,26,28,-1,-1,-1,-1,-1,-1,-1,-1,-1,-1,-1,-1,-1,-1],"split_conditions":[8.117449E-1,4.514908E-3,-2.2817117E-3,4.06829E-4,7.758631E1,2.3368823E-3,2.7766647E-3,-5.6174487E-1,1.8057676E-3,4.8581598E-5,3.980635E-2,-2.5550285E-3,-1.078774E-2,5.505497E-4,6.123234E-17,9.56716E-4,-6.377249E-2,-1.286542E-3,9.043175E-3,-2.3614913E-3,-5.5555876E-2,-7.868232E-2,-4.2224154E-3,-2.5538633E-2,2.6850779E-2,1.1291454E-3,1.1047535E-2,7.3997076E-3,-3.4776147E-2],"split_indices":[10,0,0,6,5,6,6,10,0,1,0,0,4,1,7,0,0,0,0,0,0,0,0,0,0,0,0,0,0],"split_type":[0,0,0,0,0,0,0,0,0,0,0,0,0,0,0,0,0,0,0,0,0,0,0,0,0,0,0,0,0],"sum_hessian":[3.782885E3,3.037064E3,7.4582104E2,3.0249407E3,1.2123427E1,1.29370165E1,7.3288403E2,4.993254E0,3.0199473E3,1.06344795E1,1.4889481E0,6.9760866E0,5.9609294E0,7.024391E2,3.0444975E1,1.499612E0,3.4936423E0,2.9073047E3,1.1264275E2,2.2243726E0,8.410107E0,4.733244E0,2.2428424E0,2.4882553E0,3.4726744E0,4.757913E2,2.2664777E2,1.32265005E1,1.7218475E1],"tree_param":{"num_deleted":"0","num_feature":"11","num_nodes":"29","size_leaf_vector":"0"}},{"base_weights":[-4.723229E-3,3.3586135E-4,-2.833602E-1,-3.3762224E-3,4.4178614E-1,-4.0887073E-1,6.677E-1,1.1221209E0,-4.586852E-3,7.433415E-1,-1.5558584E-1,-8.9074683E-1,-2.5381994E-1,9.431595E-1,-3.4328568E-1,-3.667856E-1,5.7625533E-5,-3.6894292E-1,8.492907E-1,3.514118E-1,-4.565797E-1,-1.3532159E0,-1.771988E-1,1.4381625E-1,-5.7991576E-1,1.279528E0,1.8551241E-1],"categories":[],"categories_nodes":[],"categories_segments":[],"categories_sizes":[],"default_left":[1,1,1,1,1,1,1,0,1,1,1,1,1,1,0,0,0,0,0,0,0,0,0,0,0,0,0],"id":22,"left_children":[1,3,5,7,9,11,13,-1,15,17,19,21,23,25,-1,-1,-1,-1,-1,-1,-1,-1,-1,-1,-1,-1,-1],"loss_changes":[5.316629E0,6.0733185E0,8.30146E0,5.0130534E0,5.6828656E0,4.259596E0,2.613196E0,0E0,6.17784E0,2.7539845E0,1.8687304E0,4.451622E0,6.1544847E0,1.477129E0,0E0,0E0,0E0,0E0,0E0,0E0,0E0,0E0,0E0,0E0,0E0,0E0,0E0],"parents":[2147483647,0,0,1,1,2,2,3,3,4,4,5,5,6,6,8,8,9,9,10,10,11,11,12,12,13,13],"right_children":[2,4,6,8,10,12,14,-1,16,18,20,22,24,26,-1,-1,-1,-1,-1,-1,-1,-1,-1,-1,-1,-1,-1],"split_conditions":[2.932024E-3,2.5436254E-3,3.405199E-3,-7.2249053E-3,3.3100517E-3,3.0465494E-3,9.787846E-3,5.6106042E-2,-6.835862E-3,2.0836925E-3,4.346129E1,-1.0439043E-3,-3.3963393E-4,3.493356E-3,-1.7164284E-2,-1.833928E-2,2.8812767E-6,-1.8447146E-2,4.2464536E-2,1.757059E-2,-2.2828985E-2,-6.76608E-2,-8.85994E-3,7.1908124E-3,-2.8995788E-2,6.39764E-2,9.275621E-3],"split_indices":[3,3,1,0,6,6,1,0,2,6,5,2,0,2,0,0,0,0,0,0,0,0,0,0,0,0,0],"split_type":[0,0,0,0,0,0,0,0,0,0,0,0,0,0,0,0,0,0,0,0,0,0,0,0,0,0,0],"sum_hessian":[3.7705278E3,3.7042698E3,6.625802E1,3.674365E3,2.9904789E1,5.903705E1,7.2209725E0,2.9531937E0,3.6714119E3,1.9710506E1,1.0194282E1,1.3216657E1,4.582039E1,5.727509E0,1.4934638E0,4.5495323E1,3.6259165E3,1.4983332E0,1.8212173E1,3.7351856E0,6.4590964E0,7.4752746E0,5.741382E0,2.0897402E1,2.4922989E1,3.4894836E0,2.2380252E0],"tree_param":{"num_deleted":"0","num_feature":"11","num_nodes":"27","size_leaf_vector":"0"}},{"base_weights":[-8.817879E-4,6.4468694E-1,-2.494451E-3,1.1379312E-2,1.4256889E0,2.1842353E-3,-2.577517E-1,-5.5316025E-1,3.539765E-1,-1.1505613E-3,4.6096447E-1,-3.887367E-1,6.438925E-1,6.7089754E-1,-2.5916165E-1,1.5694001E-3,-6.2482494E-1,-6.45883E-1,5.406991E-1,1.6122048E-1,-4.6433437E-1,9.7706634E-1,-4.6940276E-1],"categories":[],"categories_nodes":[],"categories_segments":[],"categories_sizes":[],"default_left":[1,1,1,1,0,1,1,0,1,1,1,1,1,0,0,0,0,0,0,0,0,0,0],"id":23,"left_children":[1,3,5,7,-1,9,11,-1,13,15,17,19,21,-1,-1,-1,-1,-1,-1,-1,-1,-1,-1],"loss_changes":[3.9256043E0,4.6311235E0,4.491904E0,1.394287E0,0E0,5.6521945E0,8.245741E0,0E0,1.0417116E0,6.2239213E0,2.7020936E0,2.5583982E0,3.783524E0,0E0,0E0,0E0,0E0,0E0,0E0,0E0,0E0,0E0,0E0],"parents":[2147483647,0,0,1,1,2,2,3,3,5,5,6,6,8,8,9,9,10,10,11,11,12,12],"right_children":[2,4,6,8,-1,10,12,-1,14,16,18,20,22,-1,-1,-1,-1,-1,-1,-1,-1,-1,-1],"split_conditions":[-6.16611E-3,-1.2940952E-1,2.9062536E-3,-4.546815E-4,7.128444E-2,2.5462722E-3,3.0760313E-3,-2.7658014E-2,3.4412127E-3,2.3959768E-3,-6.9229268E-3,-7.082153E-3,9.787846E-3,3.354488E-2,-1.2958082E-2,7.847E-5,-3.1241247E-2,-3.229415E-2,2.7034957E-2,8.061024E-3,-2.3216719E-2,4.885332E-2,-2.347014E-2],"split_indices":[0,7,3,4,0,3,1,0,3,3,1,1,1,0,0,0,0,0,0,0,0,0,0],"split_type":[0,0,0,0,0,0,0,0,0,0,0,0,0,0,0,0,0,0,0,0,0,0,0],"sum_hessian":[3.7681414E3,8.395897E0,3.7597456E3,5.1965947E0,3.1993027E0,3.6930461E3,6.66995E1,1.7304729E0,3.4661217E0,3.667386E3,2.5660122E1,5.873563E1,7.9638705E0,2.2229252E0,1.2431965E0,3.6524543E3,1.4931558E1,1.2471557E0,2.4412966E1,6.961268E0,5.177436E1,6.2236857E0,1.740185E0],"tree_param":{"num_deleted":"0","num_feature":"11","num_nodes":"23","size_leaf_vector":"0"}},{"base_weights":[-2.5842858E-3,-9.7182274E-2,1.3616304E-2,-6.370314E-2,-5.886487E-1,5.628112E-1,9.22282E-3,-2.2922565E-1,1.128795E-2,-1.6033568E0,-3.962161E-1,6.80413E-1,-4.5181355E-1,3.1037968E-1,4.090863E-3,-7.582442E-2,-6.243143E-1,7.934706E-1,-1.586216E-2,-7.3494464E-1,8.599058E-3,-8.47037E-2,8.559124E-1,-5.632831E-2,5.9923744E-1,-8.8773346E-1,5.723751E-3],"categories":[],"categories_nodes":[],"categories_segments":[],"categories_sizes":[],"default_left":[1,1,1,1,1,1,1,1,1,0,1,1,0,1,1,0,0,0,0,0,0,0,0,0,0,0,0],"id":24,"left_children":[1,3,5,7,9,11,13,15,17,-1,19,21,-1,23,25,-1,-1,-1,-1,-1,-1,-1,-1,-1,-1,-1,-1],"loss_changes":[5.7663927E0,9.014688E0,7.74645E0,6.4099054E0,6.1922054E0,3.3477163E0,4.9260645E0,9.709963E0,7.5769134E0,0E0,4.2187037E0,3.1920786E0,0E0,5.690723E0,4.5714817E0,0E0,0E0,0E0,0E0,0E0,0E0,0E0,0E0,0E0,0E0,0E0,0E0],"parents":[2147483647,0,0,1,1,2,2,3,3,4,4,5,5,6,6,7,7,8,8,10,10,11,11,13,13,14,14],"right_children":[2,4,6,8,10,12,14,16,18,-1,20,22,-1,24,26,-1,-1,-1,-1,-1,-1,-1,-1,-1,-1,-1,-1],"split_conditions":[-2.052023E-3,-2.1714512E-3,-1.9731019E-3,-2.3644117E-3,-2.153147E-3,6.3062943E1,2.1773441E1,-3.617805E-3,-2.0725122E-3,-8.0167845E-2,4.1289497E1,2.7286495E1,-2.2590678E-2,1.7466364E1,3.9190397E-4,-3.791221E-3,-3.1215716E-2,3.9673533E-2,-7.9310796E-4,-3.6747232E-2,4.299529E-4,-4.235185E-3,4.279562E-2,-2.8164156E-3,2.9961873E-2,-4.4386674E-2,2.8618757E-4],"split_indices":[2,2,2,4,2,5,5,4,4,0,5,5,0,5,6,0,0,0,0,0,0,0,0,0,0,0,0],"split_type":[0,0,0,0,0,0,0,0,0,0,0,0,0,0,0,0,0,0,0,0,0,0,0,0,0,0,0],"sum_hessian":[3.7607664E3,5.491555E2,3.2116108E3,5.1518994E2,3.3965576E1,2.4479818E1,3.187131E3,1.5999272E2,3.5519724E2,4.2457023E0,2.9719875E1,2.2232334E1,2.2474825E0,5.2404697E1,3.1347263E3,1.16104645E2,4.3888073E1,1.0968694E1,3.4422855E2,1.5736704E1,1.3983172E1,4.2446184E0,1.7987717E1,2.3445448E1,2.8959251E1,4.737282E0,3.129989E3],"tree_param":{"num_deleted":"0","num_feature":"11","num_nodes":"27","size_leaf_vector":"0"}},{"base_weights":[-7.423847E-4,6.602633E-4,-7.5818545E-1,-7.0027456E-2,1.3007067E-2,-1.4451326E0,2.229756E-1,-3.732698E-2,-4.2066312E-1,9.032546E-2,-1.5212023E-2,-3.2711646E-1,7.346633E-1,-1.6903482E-1,4.4365153E-2,-5.304249E-1,4.733598E-1,8.0250666E-2,8.0918E-1,-4.3336056E-2,7.823511E-2],"categories":[],"categories_nodes":[],"categories_segments":[],"categories_sizes":[],"default_left":[1,1,1,1,1,0,1,1,1,1,1,0,0,0,0,0,0,0,0,0,0],"id":25,"left_children":[1,3,5,7,9,-1,11,13,15,17,19,-1,-1,-1,-1,-1,-1,-1,-1,-1,-1],"loss_changes":[4.009183E0,3.2887695E0,5.0235066E0,6.4088397E0,7.0004377E0,0E0,1.2926931E0,5.53373E0,4.931885E0,6.148052E0,6.1820173E0,0E0,0E0,0E0,0E0,0E0,0E0,0E0,0E0,0E0,0E0],"parents":[2147483647,0,0,1,1,2,2,3,3,4,4,6,6,7,7,8,8,9,9,10,10],"right_children":[2,4,6,8,10,-1,12,14,16,18,20,-1,-1,-1,-1,-1,-1,-1,-1,-1,-1],"split_conditions":[9.603665E1,-7.6494453E-4,1.1166752E-3,-8.2888233E-4,-1.5578751E-4,-7.225663E-2,7.2519872E-3,3.6877525E1,1.8885941E-3,-1.622019E-4,1.8328994E-3,-1.6355824E-2,3.6733165E-2,-8.451741E-3,2.2182576E-3,-2.6521245E-2,2.366799E-2,4.0125335E-3,4.0459003E-2,-2.1668028E-3,3.9117555E-3],"split_indices":[5,0,0,0,0,0,2,5,2,0,6,0,0,0,0,0,0,0,0,0,0],"split_type":[0,0,0,0,0,0,0,0,0,0,0,0,0,0,0,0,0,0,0,0,0],"sum_hessian":[3.7721401E3,3.766165E3,5.97513E0,5.593146E2,3.2068503E3,3.2363567E0,2.7387733E0,5.126143E2,4.670024E1,8.5687366E2,2.3499768E3,1.4936882E0,1.2450851E0,1.9582576E2,3.1678854E2,4.1955894E1,4.744347E0,8.461268E2,1.0746887E1,1.8067499E3,5.432268E2],"tree_param":{"num_deleted":"0","num_feature":"11","num_nodes":"21","size_leaf_vector":"0"}},{"base_weights":[-5.51015E-4,6.2083715E-1,-2.2225014E-3,1.4297584E-2,1.2576904E0,-3.3868837E-1,1.2792214E-3,-6.4454675E-1,4.7691238E-1,3.5678416E-1,-4.7615418E-1,3.9882535E-1,-1.2350109E-3,-4.9396977E-2,7.8260297E-1,6.646719E-1,-5.877825E-1,-8.5795015E-2,-7.6014215E-1,6.5900165E-1,-6.9706094E-1,-1.0846572E0,5.1670487E-4],"categories":[],"categories_nodes":[],"categories_segments":[],"categories_sizes":[],"default_left":[1,1,1,1,0,1,1,0,1,1,1,1,1,0,0,0,0,0,0,0,0,0,0],"id":26,"left_children":[1,3,5,7,-1,9,11,-1,13,15,17,19,21,-1,-1,-1,-1,-1,-1,-1,-1,-1,-1],"loss_changes":[3.9160023E0,3.8890686E0,4.430348E0,2.1946945E0,0E0,3.8727126E0,3.7208543E0,0E0,7.164041E-1,2.4158738E0,3.5672793E0,7.1299295E0,7.0221057E0,0E0,0E0,0E0,0E0,0E0,0E0,0E0,0E0,0E0,0E0],"parents":[2147483647,0,0,1,1,2,2,3,3,5,5,6,6,8,8,9,9,10,10,11,11,12,12],"right_children":[2,4,6,8,-1,10,12,-1,14,16,18,20,22,-1,-1,-1,-1,-1,-1,-1,-1,-1,-1],"split_conditions":[-6.16611E-3,-1.2940952E-1,-3.162282E-3,-4.546815E-4,6.2884524E-2,-9.575184E-3,-2.6573734E-3,-3.2227337E-2,2.9446413E-3,-9.162157E-4,1.4094315E-3,8.117449E-1,-2.5804755E-3,-2.4698488E-3,3.9130148E-2,3.3233594E-2,-2.9389126E-2,-4.289751E-3,-3.8007107E-2,3.2950085E-2,-3.485305E-2,-5.423286E-2,2.5835243E-5],"split_indices":[0,7,0,4,0,4,0,0,6,2,3,10,0,0,0,0,0,0,0,0,0,0,0],"split_type":[0,0,0,0,0,0,0,0,0,0,0,0,0,0,0,0,0,0,0,0,0,0,0],"sum_hessian":[3.767982E3,9.114641E0,3.7588672E3,5.1921163E0,3.922525E0,3.773102E1,3.7211362E3,1.9795797E0,3.2125363E0,5.963715E0,3.1767307E1,2.2395346E1,3.698741E3,1.4883845E0,1.7241518E0,4.721147E0,1.2425683E0,1.392653E1,1.7840776E1,1.8420712E1,3.9746346E0,4.9726934E0,3.693768E3],"tree_param":{"num_deleted":"0","num_feature":"11","num_nodes":"23","size_leaf_vector":"0"}},{"base_weights":[-7.241761E-4,-8.1794095E-1,6.781271E-4,-1.0516353E0,-1.1720817E-1,-8.742185E-2,1.0575406E-2,-1.6471844E-2,-2.6770234E-1,1.3503733E0,8.794001E-3,1.5249176E-1,-1.5904962E-1,-4.333171E-1,1.7572267E-1,5.5895302E-2,-1.577299E-2],"categories":[],"categories_nodes":[],"categories_segments":[],"categories_sizes":[],"default_left":[1,1,1,0,0,1,1,1,1,0,1,0,0,0,0,0,0],"id":27,"left_children":[1,3,5,-1,-1,7,9,11,13,-1,15,-1,-1,-1,-1,-1,-1],"loss_changes":[4.3296947E0,9.3657637E-1,3.290081E0,0E0,0E0,4.8699665E0,8.084133E0,6.6377063E0,7.9747844E0,0E0,3.9219632E0,0E0,0E0,0E0,0E0,0E0,0E0],"parents":[2147483647,0,0,1,1,2,2,5,5,6,6,7,7,8,8,10,10],"right_children":[2,4,6,-1,-1,8,10,12,14,-1,16,-1,-1,-1,-1,-1,-1],"split_conditions":[4.0303916E-4,3.7940952E-1,-2.8189886E-3,-5.2581765E-2,-5.8604083E-3,-3.5506943E-3,-2.8048917E-3,2.0430628E-3,2.8586956E-3,6.751867E-2,-2.4992164E-4,7.6245884E-3,-7.952481E-3,-2.1665854E-2,8.7861335E-3,2.7947652E-3,-7.8864954E-4],"split_indices":[6,8,2,0,0,2,2,6,4,0,2,0,0,0,0,0,0],"split_type":[0,0,0,0,0,0,0,0,0,0,0,0,0,0,0,0,0],"sum_hessian":[3.7766565E3,5.471995E0,3.7711846E3,3.7279563E0,1.7440385E0,3.8008148E2,3.391103E3,2.7352585E2,1.0655565E2,3.4976208E0,3.3876055E3,1.25148026E2,1.483778E2,7.7596825E1,2.895883E1,1.1607915E3,2.226814E3],"tree_param":{"num_deleted":"0","num_feature":"11","num_nodes":"17","size_leaf_vector":"0"}},{"base_weights":[-1.6415494E-3,-7.599106E-2,1.1326305E-2,3.6292917E-1,-1.0636872E-1,6.6544616E-1,7.805375E-3,9.708455E-2,1.039705E0,-2.0448984E-1,-1.3376132E-4,1.1615806E0,1.895898E-1,1.3640773E-2,-2.1229674E-1,9.56761E-1,-1.6101217E-1,1.2129774E0,1.9186594E-2,-1.4498319E-1,-6.133869E-1,2.4945928E-2,-9.979116E-1,1.4289044E0,-1.8913233E-1,-9.862463E-1,6.070694E-1,1.1219525E-2,1.0531121E0,-2.860264E-1,8.775603E-1],"categories":[],"categories_nodes":[],"categories_segments":[],"categories_sizes":[],"default_left":[1,1,1,1,1,1,1,1,1,1,1,1,1,1,1,0,0,0,0,0,0,0,0,0,0,0,0,0,0,0,0],"id":28,"left_children":[1,3,5,7,9,11,13,15,17,19,21,23,25,27,29,-1,-1,-1,-1,-1,-1,-1,-1,-1,-1,-1,-1,-1,-1,-1,-1],"loss_changes":[3.6473494E0,7.529545E0,7.4136825E0,6.482809E0,5.4852953E0,3.8485947E0,4.1193557E0,6.228211E0,1.7834253E0,6.5673313E0,6.3726416E0,3.2463694E0,5.5036526E0,7.848636E0,6.9074087E0,0E0,0E0,0E0,0E0,0E0,0E0,0E0,0E0,0E0,0E0,0E0,0E0,0E0,0E0,0E0,0E0],"parents":[2147483647,0,0,1,1,2,2,3,3,4,4,5,5,6,6,7,7,8,8,9,9,10,10,11,11,12,12,13,13,14,14],"right_children":[2,4,6,8,10,12,14,16,18,20,22,24,26,28,30,-1,-1,-1,-1,-1,-1,-1,-1,-1,-1,-1,-1,-1,-1,-1,-1],"split_conditions":[-7.6494453E-4,-9.088798E-3,-7.4787426E-4,-1.1233481E-2,-1.2603953E-3,-1.0501158E-3,3.1897796E-3,2.396362E1,8.117449E-1,-9.0280164E-4,-7.7792833E-4,2.4052793E-3,4.2189075E1,3.1561512E-3,8.083674E1,4.783805E-2,-8.050608E-3,6.064887E-2,9.593297E-4,-7.2491593E-3,-3.0669346E-2,1.2472965E-3,-4.989558E-2,7.144522E-2,-9.456617E-3,-4.9312316E-2,3.035347E-2,5.609763E-4,5.2655607E-2,-1.430132E-2,4.3878015E-2],"split_indices":[0,4,0,4,2,2,6,5,10,0,0,6,5,6,5,0,0,0,0,0,0,0,0,0,0,0,0,0,0,0,0],"split_type":[0,0,0,0,0,0,0,0,0,0,0,0,0,0,0,0,0,0,0,0,0,0,0,0,0,0,0,0,0,0,0],"sum_hessian":[3.7810618E3,5.60819E2,3.2202427E3,3.559321E1,5.2522577E2,1.6234282E1,3.2040085E3,2.6375921E1,9.217286E0,2.7255896E2,2.5266682E2,7.242313E0,8.991968E0,3.1221707E3,8.1837685E1,5.465218E0,2.0910702E1,7.7182293E0,1.4990569E0,2.3911517E2,3.3443787E1,2.4742271E2,5.244106E0,5.9974494E0,1.2448634E0,1.9990991E0,6.992869E0,3.1159236E3,6.247149E0,7.734293E1,4.494751E0],"tree_param":{"num_deleted":"0","num_feature":"11","num_nodes":"31","size_leaf_vector":"0"}},{"base_weights":[-1.0435109E-2,-8.615421E-3,-5.640351E-1,5.434074E-1,-1.0728318E-2,-1.2472222E0,3.1097478E-1,-1.1077926E0,8.207094E-1,-1.304441E-2,4.3930158E-1,-9.8764285E-2,-1.4709954E0,7.723652E-1,-3.54328E-1,-1.4092591E-1,1.1564058E0,5.629715E-1,-1.4739707E-2,1.2067301E0,4.392122E-2,2.2148976E-1,9.430722E-1],"categories":[],"categories_nodes":[],"categories_segments":[],"categories_sizes":[],"default_left":[1,1,1,1,1,1,1,0,1,1,1,0,0,1,0,0,0,0,0,0,0,0,0],"id":29,"left_children":[1,3,5,7,9,11,13,-1,15,17,19,-1,-1,21,-1,-1,-1,-1,-1,-1,-1,-1,-1],"loss_changes":[3.790546E0,4.3870273E0,7.757512E0,7.476055E0,3.9070294E0,1.6851406E0,2.1785774E0,0E0,4.3124886E0,3.6455739E0,5.770756E0,0E0,0E0,1.6528416E-1,0E0,0E0,0E0,0E0,0E0,0E0,0E0,0E0,0E0],"parents":[2147483647,0,0,1,1,2,2,3,3,4,4,5,5,6,6,8,8,9,9,10,10,13,13],"right_children":[2,4,6,8,10,12,14,-1,16,18,20,-1,-1,22,-1,-1,-1,-1,-1,-1,-1,-1,-1],"split_conditions":[4.786724E-3,-8.746548E-3,6.7499094E-3,1.0048405E1,3.561717E-3,3.6207703E1,3.026979E-3,-5.538963E-2,-7.865661E-1,-2.1274779E-2,2.0027258E-3,-4.9382146E-3,-7.354977E-2,2.290668E-3,-1.77164E-2,-7.046296E-3,5.782029E-2,2.8148575E-2,-7.3698536E-4,6.0336508E-2,2.1960612E-3,1.1074488E-2,4.715361E-2],"split_indices":[0,1,1,5,0,5,6,0,8,4,6,0,0,6,0,0,0,0,0,0,0,0,0],"split_type":[0,0,0,0,0,0,0,0,0,0,0,0,0,0,0,0,0,0,0,0,0,0,0],"sum_hessian":[3.7666038E3,3.755276E3,1.1328059E1,1.3341888E1,3.7419338E3,6.12243E0,5.2056293E0,1.4878086E0,1.1854079E1,3.7237405E3,1.8193325E1,1.2334461E0,4.8889837E0,2.9788563E0,2.226773E0,3.2174823E0,8.636597E0,9.955787E0,3.7137847E3,5.4883766E0,1.2704947E1,1.2482404E0,1.730616E0],"tree_param":{"num_deleted":"0","num_feature":"11","num_nodes":"23","size_leaf_vector":"0"}},{"base_weights":[-9.355517E-3,3.121295E-3,-7.089147E-2,3.9010297E-4,7.015567E-1,-1.776867E-1,-2.153823E-3,-1.0899525E0,1.2511592E-3,9.7932464E-1,-2.7258998E-1,-2.1361579E-1,5.5546576E-1,-4.2994037E-1,3.5670117E-2,7.714222E-1,-1.321324E-4,1.781457E-2,1.1520109E0,2.3887931E-1,-6.628519E-1,-8.620619E-1,-1.822424E-1,1.2074811E0,3.5256725E-3,7.389322E-1,-5.6612325E-1,1.7810993E-1,-1.3272193E-1],"categories":[],"categories_nodes":[],"categories_segments":[],"categories_sizes":[],"default_left":[1,1,1,1,1,1,1,0,1,1,1,1,1,1,1,0,0,0,0,0,0,0,0,0,0,0,0,0,0],"id":30,"left_children":[1,3,5,7,9,11,13,-1,15,17,19,21,23,25,27,-1,-1,-1,-1,-1,-1,-1,-1,-1,-1,-1,-1,-1,-1],"loss_changes":[2.9024045E0,5.9966073E0,4.677664E0,2.9422972E0,3.5802832E0,6.691803E0,6.3051486E0,0E0,3.3358045E0,1.5976791E0,8.5678864E-1,4.696974E0,4.2909355E0,5.457158E0,8.612244E0,0E0,0E0,0E0,0E0,0E0,0E0,0E0,0E0,0E0,0E0,0E0,0E0,0E0,0E0],"parents":[2147483647,0,0,1,1,2,2,3,3,4,4,5,5,6,6,8,8,9,9,10,10,11,11,12,12,13,13,14,14],"right_children":[2,4,6,8,10,12,14,-1,16,18,20,22,24,26,28,-1,-1,-1,-1,-1,-1,-1,-1,-1,-1,-1,-1,-1,-1],"split_conditions":[4.364998E-3,4.311798E-3,-3.7940952E-1,-3.0361146E-2,2.849562E-3,1.2199655E-2,-2.0876713E-3,-5.4497626E-2,-6.802338E-3,-9.159756E-1,4.339721E-3,4.510646E-3,6.651654E1,2.4744354E1,2.9105615E-4,3.857111E-2,-6.60662E-6,8.907285E-4,5.7600547E-2,1.1943965E-2,-3.3142596E-2,-4.3103095E-2,-9.11212E-3,6.037406E-2,1.7628363E-4,3.694661E-2,-2.8306162E-2,8.905496E-3,-6.6360966E-3],"split_indices":[4,4,8,2,2,4,1,0,0,8,4,4,5,5,1,0,0,0,0,0,0,0,0,0,0,0,0,0,0],"split_type":[0,0,0,0,0,0,0,0,0,0,0,0,0,0,0,0,0,0,0,0,0,0,0,0,0,0,0,0,0],"sum_hessian":[3.7790042E3,3.1427422E3,6.36262E2,3.131497E3,1.1244984E1,2.4853578E2,3.8772623E2,1.472964E0,3.1300242E3,8.7458725E0,2.4991112E0,2.376005E2,1.09352865E1,3.0654846E1,3.5707138E2,4.6136703E0,3.1254104E3,1.4995576E0,7.2463145E0,1.249475E0,1.2496363E0,9.743243E0,2.2785725E2,4.468672E0,6.466615E0,2.7369833E0,2.7917862E1,1.9341089E2,1.636605E2],"tree_param":{"num_deleted":"0","num_feature":"11","num_nodes":"29","size_leaf_vector":"0"}},{"base_weights":[-1.54038835E-2,2.4418151E-1,-1.8981466E-2,1.270163E-1,1.5165372E0,-6.995031E-1,-1.6649507E-2,-6.6998625E-1,3.025081E-1,-1.0983558E0,4.432401E-1,9.488052E-1,-1.8075148E-2,2.694745E-1,-1.1843486E0,-4.4294706E-1,5.625223E-1,-1.295807E0,-1.2129049E-1,-2.1716255E-1,1.0535882E0,1.3484347E0,3.345257E-1,-1.2747803E0,-1.654705E-2],"categories":[],"categories_nodes":[],"categories_segments":[],"categories_sizes":[],"default_left":[1,1,1,1,0,1,1,1,1,1,1,1,1,0,0,0,0,0,0,0,0,0,0,0,0],"id":31,"left_children":[1,3,5,7,-1,9,11,13,15,17,19,21,23,-1,-1,-1,-1,-1,-1,-1,-1,-1,-1,-1,-1],"loss_changes":[3.505196E0,7.4571857E0,5.890288E0,6.9274187E0,0E0,6.2644877E0,5.1199393E0,4.662E0,8.020188E0,1.7111082E0,1.8379438E0,8.9542294E-1,7.0898094E0,0E0,0E0,0E0,0E0,0E0,0E0,0E0,0E0,0E0,0E0,0E0,0E0],"parents":[2147483647,0,0,1,1,2,2,3,3,5,5,6,6,7,7,8,8,9,9,10,10,11,11,12,12],"right_children":[2,4,6,8,-1,10,12,14,16,18,20,22,24,-1,-1,-1,-1,-1,-1,-1,-1,-1,-1,-1,-1],"split_conditions":[1.4584556E1,1.4188285E1,1.5762143E1,9.268203E-4,7.582686E-2,1.251412E-4,1.6196934E1,-2.6565269E-3,-6.6325963E-3,1.4935881E-3,1.5318407E1,-9.708983E-4,1.6498482E1,1.3473726E-2,-5.921743E-2,-2.2147354E-2,2.8126115E-2,-6.479035E-2,-6.0645244E-3,-1.0858128E-2,5.267941E-2,6.7421734E-2,1.6726285E-2,-6.373902E-2,-8.273525E-4],"split_indices":[5,5,5,6,0,1,5,2,2,3,5,4,5,0,0,0,0,0,0,0,0,0,0,0,0],"split_type":[0,0,0,0,0,0,0,0,0,0,0,0,0,0,0,0,0,0,0,0,0,0,0,0,0],"sum_hessian":[3.7683608E3,5.0314907E1,3.718046E3,4.7079414E1,3.235492E0,1.1676235E1,3.7063696E3,7.987251E0,3.9092163E1,8.68407E0,2.9921653E0,4.485115E0,3.7018845E3,2.994332E0,4.992919E0,9.927288E0,2.9164875E1,6.952785E0,1.731285E0,1.7465641E0,1.2456012E0,1.9932351E0,2.4918797E0,3.4839244E0,3.6984006E3],"tree_param":{"num_deleted":"0","num_feature":"11","num_nodes":"25","size_leaf_vector":"0"}},{"base_weights":[1.0809331E-3,2.689591E-3,-6.0774446E-1,3.1085024E-4,4.603498E-1,8.4270895E-1,-9.6357876E-1,2.5222616E-3,-5.244721E-1,-2.2704925E-2,1.2801669E0,-1.3920777E0,-4.9580626E-2,1.084638E-2,-1.10821E-1,-1.2888067E0,-7.709213E-2,-1.3097023E0,3.2251984E-1,1.4714105E0,2.0084128E-1,-7.305453E-1,7.289025E-1],"categories":[],"categories_nodes":[],"categories_segments":[],"categories_sizes":[],"default_left":[1,1,1,1,1,0,1,1,1,1,1,0,1,0,0,0,0,0,0,0,0,0,0],"id":32,"left_children":[1,3,5,7,9,-1,11,13,15,17,19,-1,21,-1,-1,-1,-1,-1,-1,-1,-1,-1,-1],"loss_changes":[3.7016208E0,4.102868E0,5.9525995E0,4.3536963E0,7.7463264E0,0E0,3.246067E0,3.525725E0,5.2837453E0,6.307061E0,1.1994438E0,0E0,2.514415E0,0E0,0E0,0E0,0E0,0E0,0E0,0E0,0E0,0E0,0E0],"parents":[2147483647,0,0,1,1,2,2,3,3,4,4,6,6,7,7,8,8,9,9,10,10,12,12],"right_children":[2,4,6,8,10,-1,12,14,16,18,20,-1,22,-1,-1,-1,-1,-1,-1,-1,-1,-1,-1],"split_conditions":[9.49116E1,9.146179E1,-5.6174487E-1,9.0147964E1,1.0418828E-3,4.2135447E-2,1.0852071E-3,3.6245228E-3,8.1820216E-4,-7.85091E-5,9.344612E1,-6.960388E-2,9.5867564E-4,5.4231903E-4,-5.5410503E-3,-6.444033E-2,-3.8546068E-3,-6.548511E-2,1.6125992E-2,7.357053E-2,1.0042064E-2,-3.6527265E-2,3.6445126E-2],"split_indices":[5,5,10,5,3,0,0,2,3,0,5,0,3,0,0,0,0,0,0,0,0,0,0],"split_type":[0,0,0,0,0,0,0,0,0,0,0,0,0,0,0,0,0,0,0,0,0,0,0],"sum_hessian":[3.776841E3,3.767881E3,8.960032E0,3.7493938E3,1.8487219E1,1.4955602E0,7.4644723E0,3.7346514E3,1.4742456E1,1.2244682E1,6.2425375E0,4.725846E0,2.7386265E0,3.4799802E3,2.5467125E2,4.748687E0,9.99377E0,1.9989252E0,1.0245757E1,4.994333E0,1.2482047E0,1.4936556E0,1.2449708E0],"tree_param":{"num_deleted":"0","num_feature":"11","num_nodes":"23","size_leaf_vector":"0"}},{"base_weights":[-5.4093697E-3,-9.2081115E-2,5.134013E-3,-2.0294346E-1,-1.0954214E-2,-1.8820815E-2,7.3919475E-2,-3.483577E-1,1.0801001E-1,9.980031E-1,-3.799102E-2,-1.6502582E-2,-9.786415E-1,8.6463666E-1,6.324786E-2,5.9702605E-1,-4.099115E-1,9.4361115E-1,-2.5465218E-2,1.2507644E0,3.086963E-1,-2.2365348E-1,8.841222E-2,-9.826048E-2,2.1363832E-3,-1.3157248E0,2.0686468E-2,4.002337E-1,1.3878549E0,8.297596E-2,-3.3235765E-1],"categories":[],"categories_nodes":[],"categories_segments":[],"categories_sizes":[],"default_left":[1,1,1,1,1,1,1,1,1,1,1,1,1,1,1,0,0,0,0,0,0,0,0,0,0,0,0,0,0,0,0],"id":33,"left_children":[1,3,5,7,9,11,13,15,17,19,21,23,25,27,29,-1,-1,-1,-1,-1,-1,-1,-1,-1,-1,-1,-1,-1,-1,-1,-1],"loss_changes":[3.4464085E0,3.6765318E0,5.542612E0,7.8502836E0,6.5097375E0,5.5356016E0,7.2768207E0,7.1092796E0,6.249444E0,6.9902945E-1,5.464839E0,3.794792E0,2.046545E0,2.2366533E0,6.7266335E0,0E0,0E0,0E0,0E0,0E0,0E0,0E0,0E0,0E0,0E0,0E0,0E0,0E0,0E0,0E0,0E0],"parents":[2147483647,0,0,1,1,2,2,3,3,4,4,5,5,6,6,7,7,8,8,9,9,10,10,11,11,12,12,13,13,14,14],"right_children":[2,4,6,8,10,12,14,16,18,20,22,24,26,28,30,-1,-1,-1,-1,-1,-1,-1,-1,-1,-1,-1,-1,-1,-1,-1,-1],"split_conditions":[-9.823149E-4,3.6877525E1,1.7387575E-3,-1.781615E-3,3.749688E1,1.7340432E-3,1.748854E-3,-6.16611E-3,-2.0195777E-3,-3.000471E-4,2.1694186E-1,-2.1694186E-1,0E0,5.8636658E1,2.9682964E-3,2.9851303E-2,-2.0495577E-2,4.718056E-2,-1.2732609E-3,6.253822E-2,1.5434816E-2,-1.1182674E-2,4.420611E-3,-4.913024E-3,1.0681916E-4,-6.578624E-2,1.0343235E-3,2.0011684E-2,6.939275E-2,4.148798E-3,-1.6617883E-2],"split_indices":[0,5,6,1,5,6,6,0,0,1,9,9,7,5,3,0,0,0,0,0,0,0,0,0,0,0,0,0,0,0,0],"split_type":[0,0,0,0,0,0,0,0,0,0,0,0,0,0,0,0,0,0,0,0,0,0,0,0,0,0,0,0,0,0,0],"sum_hessian":[3.7699404E3,4.0802692E2,3.3619136E3,1.7178119E2,2.3624573E2,2.4940696E3,8.678439E2,1.1696391E2,5.4817276E1,5.2281795E0,2.3101755E2,2.489075E3,4.994615E0,1.0490955E1,8.5735297E2,6.6181874E0,1.10345726E2,6.714241E0,4.8103035E1,3.2294507E0,1.998729E0,9.326278E1,1.3775476E2,4.6131082E2,2.0277642E3,3.498071E0,1.4965441E0,6.4928856E0,3.99807E0,8.173819E2,3.9971043E1],"tree_param":{"num_deleted":"0","num_feature":"11","num_nodes":"31","size_leaf_vector":"0"}},{"base_weights":[-6.2440294E-3,-4.094767E-3,-6.0337955E-1,-9.1694E-3,2.7887914E-1,-1.0843934E0,1.3771617E-1,5.6359196E-1,-1.0924055E-2,1.2741365E0,1.8557942E-1,-6.093315E-2,-1.3405914E0,-2.0792437E-1,7.380737E-1,-6.1452305E-1,7.693732E-1,-2.5216419E-1,-5.281687E-3,2.2825254E-1,1.5279887E0,-7.797335E-1,2.6587456E-1,4.2212257E-1,-8.2010853E-1],"categories":[],"categories_nodes":[],"categories_segments":[],"categories_sizes":[],"default_left":[1,1,1,1,1,1,1,1,1,1,1,0,0,1,0,0,0,0,0,0,0,0,0,0,0],"id":34,"left_children":[1,3,5,7,9,11,13,15,17,19,21,-1,-1,23,-1,-1,-1,-1,-1,-1,-1,-1,-1,-1,-1],"loss_changes":[4.8301373E0,5.391783E0,4.9609156E0,3.7124152E0,5.9059615E0,2.0940418E0,1.439984E0,3.2079759E0,5.0044103E0,1.111248E0,4.985791E0,0E0,0E0,2.1647134E0,0E0,0E0,0E0,0E0,0E0,0E0,0E0,0E0,0E0,0E0,0E0],"parents":[2147483647,0,0,1,1,2,2,3,3,4,4,5,5,6,6,7,7,8,8,9,9,10,10,13,13],"right_children":[2,4,6,8,10,12,14,16,18,20,22,-1,-1,24,-1,-1,-1,-1,-1,-1,-1,-1,-1,-1,-1],"split_conditions":[4.514908E-3,2.3281847E-3,6.7499094E-3,-9.463821E-3,2.3872417E-3,4.8581598E-5,7.758631E1,-2.7305406E-2,-6.001675E-3,-7.786015E-4,3.1974205E1,-3.0466577E-3,-6.702957E-2,6.852574E1,3.6903687E-2,-3.0726153E-2,3.846866E-2,-1.260821E-2,-2.6408434E-4,1.1412627E-2,7.639944E-2,-3.8986675E-2,1.3293728E-2,2.110613E-2,-4.100543E-2],"split_indices":[0,0,1,1,0,1,5,2,2,2,5,0,0,5,0,0,0,0,0,0,0,0,0,0,0],"split_type":[0,0,0,0,0,0,0,0,0,0,0,0,0,0,0,0,0,0,0,0,0,0,0,0,0],"sum_hessian":[3.76447E3,3.7519724E3,1.249757E1,3.6868232E3,6.514902E1,7.2977076E0,5.1998625E0,1.0282162E1,3.676541E3,4.499119E0,6.06499E1,1.7088858E0,5.588822E0,3.714817E0,1.4850454E0,1.2335706E0,9.048592E0,8.302686E1,3.5935142E3,1.2496501E0,3.2494688E0,3.9885447E0,5.6661354E1,1.9836998E0,1.7311171E0],"tree_param":{"num_deleted":"0","num_feature":"11","num_nodes":"25","size_leaf_vector":"0"}},{"base_weights":[-2.2168648E-3,6.574665E-1,-3.8382062E-3,5.776614E-2,1.3211411E0,-2.3090453E-3,-6.86084E-1,-4.84073E-1,5.1449376E-1,-3.8975823E-1,3.1502382E-4,-9.1363317E-1,3.3934508E-2,1.0313942E0,-2.864503E-1,1.7876515E-1,-6.2699455E-1,9.488477E-1,-1.2663761E-3,-2.2129568E-1,-1.1710224E0],"categories":[],"categories_nodes":[],"categories_segments":[],"categories_sizes":[],"default_left":[1,1,1,1,0,1,1,0,1,1,1,1,0,0,0,0,0,0,0,0,0],"id":35,"left_children":[1,3,5,7,-1,9,11,-1,13,15,17,19,-1,-1,-1,-1,-1,-1,-1,-1,-1],"loss_changes":[4.0275455E0,3.5981445E0,3.9158452E0,1.708044E0,0E0,3.8102646E0,1.4062848E0,0E0,1.8205664E0,3.5124345E0,5.5862923E0,8.838558E-1,0E0,0E0,0E0,0E0,0E0,0E0,0E0,0E0,0E0],"parents":[2147483647,0,0,1,1,2,2,3,3,5,5,6,6,8,8,9,9,10,10,11,11],"right_children":[2,4,6,8,-1,10,12,-1,14,16,18,20,-1,-1,-1,-1,-1,-1,-1,-1,-1],"split_conditions":[-6.16611E-3,-1.2940952E-1,6.20782E-3,3.1161713E-4,6.6057056E-2,-3.4791594E-3,3.0162719E-3,-2.420365E-2,5.1728208E-3,1.88958E-3,-9.08467E-3,1.4106066E-4,1.6967254E-3,5.156971E-2,-1.4322515E-2,8.938258E-3,-3.134973E-2,4.7442388E-2,-6.331881E-5,-1.1064785E-2,-5.855112E-2],"split_indices":[0,7,6,4,0,0,1,0,4,6,1,0,0,0,0,0,0,0,0,0,0],"split_type":[0,0,0,0,0,0,0,0,0,0,0,0,0,0,0,0,0,0,0,0,0],"sum_hessian":[3.762208E3,8.232179E0,3.7539758E3,4.8955607E0,3.336618E0,3.7465818E3,7.394068E0,2.2117624E0,2.6837983E0,2.4211237E1,3.7223704E3,5.4141254E0,1.979942E0,1.4562584E0,1.2275398E0,7.200976E0,1.7010262E1,5.1986284E0,3.7171719E3,1.9713277E0,3.442798E0],"tree_param":{"num_deleted":"0","num_feature":"11","num_nodes":"21","size_leaf_vector":"0"}},{"base_weights":[3.9048197E-3,4.925469E-3,-1.0389202E0,8.952371E-3,-2.141859E-1,5.5361455E-3,4.825551E-1,-3.4275964E-1,7.725287E-1,8.324128E-3,-3.626206E-1,3.1872538E-1,1.2224463E0,-1.6573974E-1,-6.178528E-1,1.1628287E0,-4.3325666E-1],"categories":[],"categories_nodes":[],"categories_segments":[],"categories_sizes":[],"default_left":[1,1,0,1,1,1,1,1,1,0,0,0,0,0,0,0,0],"id":36,"left_children":[1,3,-1,5,7,9,11,13,15,-1,-1,-1,-1,-1,-1,-1,-1],"loss_changes":[4.0364747E0,3.3414726E0,0E0,6.0120616E0,8.935379E0,3.7924674E0,2.8361773E0,2.875825E0,4.3564267E0,0E0,0E0,0E0,0E0,0E0,0E0,0E0,0E0],"parents":[2147483647,0,0,1,1,3,3,4,4,5,5,6,6,7,7,8,8],"right_children":[2,4,-1,6,8,10,12,14,16,-1,-1,-1,-1,-1,-1,-1,-1],"split_conditions":[9.6866806E1,2.9062536E-3,-5.194601E-2,2.5462722E-3,3.405199E-3,2.3642022E-3,8.216638E1,4.2284584E1,9.787846E-3,4.162064E-4,-1.813103E-2,1.5936268E-2,6.1122317E-2,-8.286987E-3,-3.089264E-2,5.8141436E-2,-2.1662833E-2],"split_indices":[5,3,0,3,1,3,5,5,1,0,0,0,0,0,0,0,0],"split_type":[0,0,0,0,0,0,0,0,0,0,0,0,0,0,0,0,0],"sum_hessian":[3.786593E3,3.7838848E3,2.7081437E0,3.7165403E3,6.734467E1,3.6909282E3,2.561198E1,6.015837E1,7.1863055E0,3.6641577E3,2.6770594E1,2.2140348E1,3.4716332E0,3.757907E1,2.2579298E1,5.4559107E0,1.730395E0],"tree_param":{"num_deleted":"0","num_feature":"11","num_nodes":"17","size_leaf_vector":"0"}},{"base_weights":[4.3513672E-3,3.2241046E-3,9.0482134E-1,5.3945184E-3,-6.7826766E-1,1.272475E0,6.378508E-2,4.2040152E-3,7.8223443E-1,-1.1894888E0,-9.989204E-2,6.8909978E-3,-4.1019326E-1,1.7262171E-1,1.2823504E0,-1.3535761E0,-4.0195972E-1,-5.892689E-1,1.1287044E0],"categories":[],"categories_nodes":[],"categories_segments":[],"categories_sizes":[],"default_left":[1,1,1,1,1,0,0,1,1,1,1,0,0,0,0,0,0,0,0],"id":37,"left_children":[1,3,5,7,9,-1,-1,11,13,15,17,-1,-1,-1,-1,-1,-1,-1,-1],"loss_changes":[3.8132484E0,5.5589743E0,1.371176E0,3.460105E0,3.40905E0,0E0,0E0,4.167425E0,1.5240135E0,2.62496E-1,4.687288E0,0E0,0E0,0E0,0E0,0E0,0E0,0E0,0E0],"parents":[2147483647,0,0,1,1,2,2,3,3,4,4,7,7,8,8,9,9,10,10],"right_children":[2,4,6,8,10,-1,-1,12,14,16,18,-1,-1,-1,-1,-1,-1,-1,-1],"split_conditions":[1.5263343E-2,9.947566E-3,-1.2940952E-1,7.5931E-3,3.0450413E-3,6.362375E-2,3.1892543E-3,5.4142107E-3,7.787313E1,1.249811E-2,7.795965E1,3.445499E-4,-2.0509664E-2,8.631086E-3,6.411752E-2,-6.76788E-2,-2.0097986E-2,-2.9463446E-2,5.6435224E-2],"split_indices":[2,2,8,1,6,0,0,1,5,2,5,0,0,0,0,0,0,0,0],"split_type":[0,0,0,0,0,0,0,0,0,0,0,0,0,0,0,0,0,0,0],"sum_hessian":[3.7585242E3,3.7548271E3,3.696939E0,3.7438958E3,1.0931467E1,2.2154737E0,1.4814652E0,3.739171E3,4.7248483E0,5.2417383E0,5.6897287E0,3.716059E3,2.3111832E1,2.7355425E0,1.989306E0,3.743078E0,1.4986604E0,4.44111E0,1.248619E0],"tree_param":{"num_deleted":"0","num_feature":"11","num_nodes":"19","size_leaf_vector":"0"}},{"base_weights":[2.665456E-3,-3.7913874E-3,1.2122558E-1,4.4297578E-4,-5.616012E-1,-1.3648651E-2,3.7539038E-1,5.9738653E-3,-3.2684633E-1,8.9747244E-1,-6.984394E-1,-6.627709E-2,8.788791E-1,-3.651181E-1,4.7721606E-1,2.2725298E-3,5.976779E-1,7.6017255E-1,-3.780496E-1,-8.288527E-1,8.230862E-1,9.2529494E-1,-1.1205169E-1,-2.226852E-1,1.147059E0,1.1448959E-1,-9.636606E-1,7.582911E-1,1.1063318E-1],"categories":[],"categories_nodes":[],"categories_segments":[],"categories_sizes":[],"default_left":[1,1,1,1,1,1,1,1,1,0,1,1,1,1,1,0,0,0,0,0,0,0,0,0,0,0,0,0,0],"id":38,"left_children":[1,3,5,7,9,11,13,15,17,-1,19,21,23,25,27,-1,-1,-1,-1,-1,-1,-1,-1,-1,-1,-1,-1,-1,-1],"loss_changes":[2.8887613E0,8.453918E0,6.6862073E0,6.4337993E0,6.0105944E0,6.0844803E0,5.2716684E0,7.653127E0,3.5748467E0,0E0,5.685627E0,5.6447186E0,2.386508E0,2.618908E0,6.0843277E0,0E0,0E0,0E0,0E0,0E0,0E0,0E0,0E0,0E0,0E0,0E0,0E0,0E0,0E0],"parents":[2147483647,0,0,1,1,2,2,3,3,4,4,5,5,6,6,7,7,8,8,10,10,11,11,12,12,13,13,14,14],"right_children":[2,4,6,8,10,12,14,16,18,-1,20,22,24,26,28,-1,-1,-1,-1,-1,-1,-1,-1,-1,-1,-1,-1,-1,-1],"split_conditions":[2.9340498E-3,2.745417E-3,3.7940952E-1,2.9062536E-3,-9.829629E-1,9.829629E-1,8.582059E-4,2.6254188E-3,1.7683861E-3,4.487362E-2,6.123185E-3,2.9833643E-3,3.2840744E-3,7.7419134E-4,2.123425E-3,1.1362649E-4,2.9883895E-2,3.8008627E-2,-1.890248E-2,-4.1442636E-2,4.115431E-2,4.626475E-2,-5.6025847E-3,-1.113426E-2,5.735295E-2,5.72448E-3,-4.818303E-2,3.7914556E-2,5.531659E-3],"split_indices":[1,1,7,3,7,8,3,1,6,0,2,1,1,3,6,0,0,0,0,0,0,0,0,0,0,0,0,0,0],"split_type":[0,0,0,0,0,0,0,0,0,0,0,0,0,0,0,0,0,0,0,0,0,0,0,0,0,0,0,0,0],"sum_hessian":[3.7719727E3,3.578077E3,1.9389583E2,3.5521118E3,2.5965057E1,1.2729317E2,6.660266E1,3.4940474E3,5.8064453E1,1.749707E0,2.4215351E1,1.2107939E2,6.2137775E0,7.738696E0,5.886396E1,3.4733242E3,2.0723135E1,1.989173E0,5.607528E1,2.2722965E1,1.492386E0,4.494968E0,1.1658442E2,1.249799E0,4.963979E0,4.745157E0,2.9935396E0,3.2712967E1,2.6150997E1],"tree_param":{"num_deleted":"0","num_feature":"11","num_nodes":"29","size_leaf_vector":"0"}},{"base_weights":[-8.780386E-3,-9.325419E-1,-6.9540297E-3,-4.0099722E-1,-1.3552116E0,-5.00513E-3,-7.232315E-1,7.2130156E-1,-1.0114894E0,1.4164064E-2,-4.9024574E-2,-9.85737E-1,8.4560625E-3,-4.7942763E-3,1.7275415E-1,-1.2399176E0,-4.479951E-2,-8.030254E-2,-1.1478864E0,-2.8016075E-1,3.255052E-1],"categories":[],"categories_nodes":[],"categories_segments":[],"categories_sizes":[],"default_left":[1,1,1,1,0,1,1,0,0,1,1,1,1,0,0,0,0,0,0,0,0],"id":39,"left_children":[1,3,5,7,-1,9,11,-1,-1,13,15,17,19,-1,-1,-1,-1,-1,-1,-1,-1],"loss_changes":[6.369292E0,1.1301904E0,5.262813E0,3.9634686E0,0E0,3.176328E0,1.9732442E0,0E0,0E0,7.8856597E0,5.6900883E0,1.0144343E0,4.2909026E-1,0E0,0E0,0E0,0E0,0E0,0E0,0E0,0E0],"parents":[2147483647,0,0,1,1,2,2,3,3,5,5,6,6,9,9,10,10,11,11,12,12],"right_children":[2,4,6,8,-1,10,12,-1,-1,14,16,18,20,-1,-1,-1,-1,-1,-1,-1,-1],"split_conditions":[4.06829E-4,9.814411E-5,4.786724E-3,2.1694186E-1,-6.776058E-2,2.6434327E-3,7.1843867E-3,3.606508E-2,-5.057447E-2,1.894346E-3,2.6494674E-3,1.4877052E-3,3.7082816E-3,-2.3971382E-4,8.637708E-3,-6.1995883E-2,-2.2399756E-3,-4.0151267E-3,-5.7394322E-2,-1.4008038E-2,1.627526E-2],"split_indices":[6,0,0,9,0,4,0,0,0,4,4,3,6,0,0,0,0,0,0,0,0],"split_type":[0,0,0,0,0,0,0,0,0,0,0,0,0,0,0,0,0,0,0,0,0],"sum_hessian":[3.7780933E3,6.4493394E0,3.7716438E3,3.7199268E0,2.7294128E0,3.7624138E3,9.230061E0,1.2466458E0,2.473281E0,2.6215032E3,1.1409105E3,6.537433E0,2.6926272E0,2.3424495E3,2.7905374E2,2.999476E0,1.137911E3,1.220038E0,5.317395E0,1.4704201E0,1.222207E0],"tree_param":{"num_deleted":"0","num_feature":"11","num_nodes":"21","size_leaf_vector":"0"}},{"base_weights":[-3.6694165E-3,-5.8546353E-2,1.3348189E-2,-3.4262785E-1,-4.130788E-2,3.366791E-1,7.755276E-3,-2.210529E-1,-1.0753037E0,3.726353E-1,-6.2933475E-2,4.0038336E-2,7.9304034E-1,-1.0038729E0,9.183165E-3,4.509255E-1,-3.462746E-1,6.35287E-2,-1.3967892E0,5.2140784E-1,-7.0897585E-1,-1.0675329E0,-5.3066332E-2,3.401209E-1,-3.1971255E-1,1.0267261E0,-4.473573E-1,6.557373E-2,-1.4263976E-2],"categories":[],"categories_nodes":[],"categories_segments":[],"categories_sizes":[],"default_left":[1,1,1,1,1,1,1,1,1,1,1,1,1,0,1,0,0,0,0,0,0,0,0,0,0,0,0,0,0],"id":40,"left_children":[1,3,5,7,9,11,13,15,17,19,21,23,25,-1,27,-1,-1,-1,-1,-1,-1,-1,-1,-1,-1,-1,-1,-1,-1],"loss_changes":[3.5209913E0,4.3561835E0,5.201929E0,4.2978745E0,7.5653987E0,6.5899577E0,4.097318E0,3.9368985E0,2.6471128E0,7.123923E0,7.8885865E0,3.4227002E0,6.029354E0,0E0,3.738959E0,0E0,0E0,0E0,0E0,0E0,0E0,0E0,0E0,0E0,0E0,0E0,0E0,0E0,0E0],"parents":[2147483647,0,0,1,1,2,2,3,3,4,4,5,5,6,6,7,7,8,8,9,9,10,10,11,11,12,12,14,14],"right_children":[2,4,6,8,10,12,14,16,18,20,22,24,26,-1,28,-1,-1,-1,-1,-1,-1,-1,-1,-1,-1,-1,-1,-1,-1],"split_conditions":[-7.7614596E-4,7.86147E-4,-7.1311847E-4,7.704868E-4,5.4067496E-4,2.4580043E-3,-7.10021E-4,-1.574965E-3,-1.8070978E-3,-4.8817157E-5,5.5164227E-4,6.078576E-1,1.806739E-3,-5.0193645E-2,-1.6564067E-4,2.2546275E-2,-1.7313732E-2,3.1764351E-3,-6.983946E-2,2.6070392E-2,-3.5448793E-2,-5.3376645E-2,-2.6533166E-3,1.7006045E-2,-1.5985629E-2,5.1336307E-2,-2.2367865E-2,3.2786864E-3,-7.1319885E-4],"split_indices":[1,6,1,6,3,4,1,4,2,2,3,9,6,0,2,0,0,0,0,0,0,0,0,0,0,0,0,0,0],"split_type":[0,0,0,0,0,0,0,0,0,0,0,0,0,0,0,0,0,0,0,0,0,0,0,0,0,0,0,0,0],"sum_hessian":[3.7684695E3,8.914279E2,2.8770415E3,4.9918583E1,8.4150934E2,4.7913708E1,2.829128E3,4.3930737E1,5.9878445E0,4.097431E1,8.0053503E2,2.9697607E1,1.8216099E1,2.9980927E0,2.82613E3,6.4919434E0,3.7438793E1,1.4948543E0,4.4929905E0,3.6475185E1,4.4991245E0,6.7437673E0,7.9379126E2,1.6221321E1,1.3476287E1,1.5473261E1,2.7428377E0,8.294645E2,1.9966653E3],"tree_param":{"num_deleted":"0","num_feature":"11","num_nodes":"29","size_leaf_vector":"0"}},{"base_weights":[-4.6091094E-3,3.5777066E-3,-1.07062355E-1,5.8351867E-2,-2.6242785E-2,-3.1871876E-1,6.799623E-2,-4.048075E-1,7.266572E-2,-3.045604E-2,7.5153893E-1,-5.1474524E-1,1.5918154E-1,-7.555597E-2,3.5665578E-1,-6.771548E-2,-8.774759E-1,7.216393E-1,6.480917E-2,5.273413E-1,-3.459597E-2,3.991985E-2,1.2790003E0,-1.1889079E0,-4.2036834E-1,-4.5600358E-1,5.411869E-1,9.34191E-2,-4.5707098E-1,1.0808179E0,2.4127989E-1],"categories":[],"categories_nodes":[],"categories_segments":[],"categories_sizes":[],"default_left":[1,1,1,1,1,1,1,1,1,1,1,1,1,1,1,0,0,0,0,0,0,0,0,0,0,0,0,0,0,0,0],"id":41,"left_children":[1,3,5,7,9,11,13,15,17,19,21,23,25,27,29,-1,-1,-1,-1,-1,-1,-1,-1,-1,-1,-1,-1,-1,-1,-1,-1],"loss_changes":[3.1602738E0,5.7012787E0,1.03516445E1,8.186474E0,7.429267E0,1.1921442E1,6.384061E0,5.8418756E0,6.0429215E0,5.2114964E0,4.534258E0,5.217369E0,9.065185E0,6.701123E0,4.011069E0,0E0,0E0,0E0,0E0,0E0,0E0,0E0,0E0,0E0,0E0,0E0,0E0,0E0,0E0,0E0,0E0],"parents":[2147483647,0,0,1,1,2,2,3,3,4,4,5,5,6,6,7,7,8,8,9,9,10,10,11,11,12,12,13,13,14,14],"right_children":[2,4,6,8,10,12,14,16,18,20,22,24,26,28,30,-1,-1,-1,-1,-1,-1,-1,-1,-1,-1,-1,-1,-1,-1,-1,-1],"split_conditions":[3.6356044E-3,-3.7940952E-1,-3.7940952E-1,-6.835862E-3,3.8871984E-3,1.5608876E-3,8.007468E1,-8.17919E-3,-1.3889131E-2,-6.8304148E-3,-2.873508E-3,3.8488042E-3,-3.2218965E-3,3.4044033E-3,-2.8301142E-3,-3.385774E-3,-4.3873798E-2,3.6081966E-2,3.2404587E-3,2.6367066E-2,-1.7297985E-3,1.9959926E-3,6.395002E-2,-5.9445392E-2,-2.1018418E-2,-2.280018E-2,2.7059346E-2,4.670955E-3,-2.285355E-2,5.4040898E-2,1.2063994E-2],"split_indices":[2,7,7,2,1,3,5,2,4,1,4,2,4,4,4,0,0,0,0,0,0,0,0,0,0,0,0,0,0,0,0],"split_type":[0,0,0,0,0,0,0,0,0,0,0,0,0,0,0,0,0,0,0,0,0,0,0,0,0,0,0,0,0,0,0],"sum_hessian":[3.7663096E3,3.4885151E3,2.777946E2,1.2294005E3,2.2591147E3,1.2538088E2,1.524137E2,3.6037544E1,1.1933629E3,2.2478987E3,1.1216057E1,8.885641E1,3.6524475E1,1.0228499E2,5.012871E1,2.1702953E1,1.4334593E1,1.3187478E1,1.1801754E3,1.5629758E1,2.2322688E3,5.2324433E0,5.983614E0,9.487427E0,7.936898E1,1.3917649E1,2.2606825E1,7.141156E1,3.0873432E1,5.7391124E0,4.43896E1],"tree_param":{"num_deleted":"0","num_feature":"11","num_nodes":"31","size_leaf_vector":"0"}},{"base_weights":[-1.0579356E-2,-1.5005788E-1,-4.429102E-3,9.126313E-1,-1.7446646E-1,-1.37425205E-2,9.104257E-2,2.1735606E-1,1.1723816E0,-1.1430093E0,-1.4330685E-1,4.9581304E-3,-1.1685964E-1,4.1466275E-1,-3.0498778E-2,-2.3179364E-1,-1.4019158E0,-1.0092624E-2,-3.4178987E-1,-1.1826752E-2,1.7822884E-1,-1.2420969E0,-1.01460285E-1,9.0889645E-1,2.879086E-1,-1.8229745E-1,1.6367646E-1],"categories":[],"categories_nodes":[],"categories_segments":[],"categories_sizes":[],"default_left":[1,1,1,1,1,1,1,0,0,1,1,1,1,1,1,0,0,0,0,0,0,0,0,0,0,0,0],"id":42,"left_children":[1,3,5,7,9,11,13,-1,-1,15,17,19,21,23,25,-1,-1,-1,-1,-1,-1,-1,-1,-1,-1,-1,-1],"loss_changes":[3.239141E0,4.295697E0,3.21851E0,4.208088E-1,4.5662146E0,6.3594403E0,1.2667254E1,0E0,0E0,7.9371595E-1,4.0416737E0,8.123017E0,8.646396E0,5.245494E0,6.951256E0,0E0,0E0,0E0,0E0,0E0,0E0,0E0,0E0,0E0,0E0,0E0,0E0],"parents":[2147483647,0,0,1,1,2,2,3,3,4,4,5,5,6,6,9,9,10,10,11,11,12,12,13,13,14,14],"right_children":[2,4,6,8,10,12,14,-1,-1,16,18,20,22,24,26,-1,-1,-1,-1,-1,-1,-1,-1,-1,-1,-1,-1],"split_conditions":[-9.829629E-1,3.6789058E-4,1.1773361E-3,6.626401E-4,4.036662E-4,1.1820806E-3,1.4076459E-3,1.0867803E-2,5.8619082E-2,-5.442423E-5,9.842791E-4,8.111212E-4,1.1924137E-3,-3.418417E-3,2.6270195E-3,-1.1589683E-2,-7.009579E-2,-5.0463126E-4,-1.7089494E-2,-5.913376E-4,8.911442E-3,-6.2104847E-2,-5.073014E-3,4.5444824E-2,1.4395431E-2,-9.114873E-3,8.183823E-3],"split_indices":[8,3,0,4,3,1,0,0,0,4,3,1,1,4,1,0,0,0,0,0,0,0,0,0,0,0,0],"split_type":[0,0,0,0,0,0,0,0,0,0,0,0,0,0,0,0,0,0,0,0,0,0,0,0,0,0,0],"sum_hessian":[3.7757527E3,1.5847096E2,3.6172817E3,2.741086E0,1.5572987E2,3.2965537E3,3.2072815E2,1.2451023E0,1.4959836E0,3.741745E0,1.5198813E2,2.7912944E3,5.0525912E2,8.690916E1,2.3381898E2,1.2472731E0,2.4944718E0,9.157639E1,6.041173E1,2.545629E3,2.4566551E2,5.745883E0,4.9951324E2,1.6480116E1,7.042904E1,1.3126346E2,1.0255553E2],"tree_param":{"num_deleted":"0","num_feature":"11","num_nodes":"27","size_leaf_vector":"0"}},{"base_weights":[-3.103063E-3,-6.050672E-2,1.5017991E-2,-5.8333958E-3,-1.5678173E-1,3.1112057E-1,8.434613E-3,-6.431121E-2,3.1174162E-1,-8.244866E-1,-1.3212E-1,-5.702505E-2,5.752388E-1,6.373437E-3,1.114277E0,6.722161E-3,-1.7732672E-1,-2.3525427E-1,5.392786E-1,3.0748698E-1,-1.2597641E0,-6.6805327E-1,-1.0662511E-1,1.042627E-1,-1.0095515E0,-3.7468232E-2,8.158855E-1,-7.9530485E-2,2.7174192E-2,1.3330727E0,3.4165213E-1],"categories":[],"categories_nodes":[],"categories_segments":[],"categories_sizes":[],"default_left":[1,1,1,1,1,1,1,1,1,1,1,1,1,1,1,0,0,0,0,0,0,0,0,0,0,0,0,0,0,0,0],"id":43,"left_children":[1,3,5,7,9,11,13,15,17,19,21,23,25,27,29,-1,-1,-1,-1,-1,-1,-1,-1,-1,-1,-1,-1,-1,-1,-1,-1],"loss_changes":[3.9252503E0,4.764741E0,5.5885954E0,1.0763323E1,5.290371E0,6.095923E0,6.3907304E0,3.9297533E0,1.134453E1,6.0479937E0,4.2656174E0,4.2468443E0,5.397298E0,5.0101547E0,4.2634487E-1,0E0,0E0,0E0,0E0,0E0,0E0,0E0,0E0,0E0,0E0,0E0,0E0,0E0,0E0,0E0,0E0],"parents":[2147483647,0,0,1,1,2,2,3,3,4,4,5,5,6,6,7,7,8,8,9,9,10,10,11,11,12,12,13,13,14,14],"right_children":[2,4,6,8,10,12,14,16,18,20,22,24,26,28,30,-1,-1,-1,-1,-1,-1,-1,-1,-1,-1,-1,-1,-1,-1,-1,-1],"split_conditions":[-7.7870244E-4,4.6714622E1,-6.984297E-4,4.197052E1,4.7205505E1,-4.276759E-4,1.5431327E-2,6.078576E-1,-2.1531715E-3,-2.2694091E-3,7.8755035E-4,8.117449E-1,9.261441E-4,-2.1694186E-1,7.865661E-1,3.3610806E-4,-8.866336E-3,-1.1762714E-2,2.6963932E-2,1.5374349E-2,-6.298821E-2,-3.3402663E-2,-5.3312555E-3,5.2131354E-3,-5.0477576E-2,-1.8734116E-3,4.0794276E-2,-3.9765243E-3,1.3587096E-3,6.665363E-2,1.7082607E-2],"split_indices":[1,5,1,5,5,4,4,9,2,2,6,10,6,9,8,0,0,0,0,0,0,0,0,0,0,0,0,0,0,0,0],"split_type":[0,0,0,0,0,0,0,0,0,0,0,0,0,0,0,0,0,0,0,0,0,0,0,0,0,0,0,0,0,0,0],"sum_hessian":[3.771626E3,9.043855E2,2.8672405E3,5.774945E2,3.26891E2,6.1355976E1,2.8058845E3,4.883651E2,8.912937E1,1.048848E1,3.1640253E2,2.5958035E1,3.539794E1,2.8016682E3,4.2162566E0,3.0045892E2,1.879062E2,2.6173855E1,6.2955513E1,2.9945352E0,7.493944E0,1.3223578E1,3.0317896E2,2.2960722E1,2.997312E0,1.0220351E1,2.5177591E1,5.456001E2,2.256068E3,2.7204773E0,1.4957792E0],"tree_param":{"num_deleted":"0","num_feature":"11","num_nodes":"31","size_leaf_vector":"0"}},{"base_weights":[1.7482288E-3,9.086047E-2,-8.921053E-3,-4.8400212E-2,2.0899284E-1,-1.56575E-1,4.3106177E-3,9.78147E-2,-3.3958918E-1,1.1825331E-1,5.2973175E-1,-4.845505E-1,-8.638743E-2,4.3118986E-1,9.355296E-4,2.2395647E-1,-2.9156154E-1,-3.9755094E-1,9.4550043E-1,1.7172655E-1,-6.3012886E-1,1.7048584E-1,8.673361E-1,-1.7978673E-1,-8.8080454E-1,1.2101955E0,-1.22059E-1,5.8409214E-1,-3.9733195E-1,-3.4227645E-1,6.5836464E-3],"categories":[],"categories_nodes":[],"categories_segments":[],"categories_sizes":[],"default_left":[1,1,1,1,1,1,1,1,1,1,1,1,1,1,1,0,0,0,0,0,0,0,0,0,0,0,0,0,0,0,0],"id":44,"left_children":[1,3,5,7,9,11,13,15,17,19,21,23,25,27,29,-1,-1,-1,-1,-1,-1,-1,-1,-1,-1,-1,-1,-1,-1,-1,-1],"loss_changes":[3.5912273E0,6.654442E0,6.59145E0,7.959882E0,6.3024836E0,6.345449E0,4.4616146E0,6.1910067E0,5.02816E0,6.981912E0,5.6666307E0,5.7222404E0,1.0775076E1,3.3094501E0,5.960639E0,0E0,0E0,0E0,0E0,0E0,0E0,0E0,0E0,0E0,0E0,0E0,0E0,0E0,0E0,0E0,0E0],"parents":[2147483647,0,0,1,1,2,2,3,3,4,4,5,5,6,6,7,7,8,8,9,9,10,10,11,11,12,12,13,13,14,14],"right_children":[2,4,6,8,10,12,14,16,18,20,22,24,26,28,30,-1,-1,-1,-1,-1,-1,-1,-1,-1,-1,-1,-1,-1,-1,-1,-1],"split_conditions":[-4.200459E-3,-1.2940952E-1,-2.7299868E-3,2.6177368E-3,5.951599E1,-2.0987713E-3,-5.939382E-3,7.865661E-1,8.045752E1,3.475011E-3,-6.3790036E-3,-3.7940952E-1,-1.8345178E-3,4.0760674E-3,-3.8007065E-3,1.1197823E-2,-1.4578077E-2,-1.9877547E-2,4.727502E-2,8.586328E-3,-3.1506445E-2,8.524292E-3,4.3366805E-2,-8.989337E-3,-4.404023E-2,6.050978E-2,-6.1029503E-3,2.9204607E-2,-1.9866599E-2,-1.7113823E-2,3.2918234E-4],"split_indices":[4,8,4,6,5,2,1,7,5,2,4,8,2,3,1,0,0,0,0,0,0,0,0,0,0,0,0,0,0,0,0],"split_type":[0,0,0,0,0,0,0,0,0,0,0,0,0,0,0,0,0,0,0,0,0,0,0,0,0,0,0,0,0,0,0],"sum_hessian":[3.7753506E3,4.028811E2,3.3724695E3,1.8517606E2,2.1770503E2,2.7647012E2,3.0959993E3,1.237177E2,6.1458363E1,1.7076343E2,4.694161E1,4.7695023E1,2.287751E2,2.3291933E1,3.0727073E3,9.3766174E1,2.995152E1,5.9466858E1,1.9915065E0,1.600949E2,1.06685295E1,2.3471014E1,2.3470596E1,2.7781584E1,1.991344E1,5.243924E0,2.2353117E2,1.9912191E1,3.379742E0,4.8782825E1,3.0239246E3],"tree_param":{"num_deleted":"0","num_feature":"11","num_nodes":"31","size_leaf_vector":"0"}},{"base_weights":[-1.0657562E-4,-8.3268555E-3,8.155047E-2,-6.7470632E-3,-1.0306396E0,3.2011387E-1,-9.722058E-3,-5.2762683E-3,-1.0186329E0,-1.6748898E-1,-1.4137006E0,8.8838196E-1,1.87223E-1,-2.5478807E-1,9.674307E-2,2.3106885E-1,-8.787249E-3,-1.1654092E-1,-1.288944E0,1.3992159E0,9.13926E-2,6.0818408E-2,9.346977E-1,-8.022953E-1,1.4401788E-2,1.3526056E0,6.309893E-2],"categories":[],"categories_nodes":[],"categories_segments":[],"categories_sizes":[],"default_left":[1,1,1,1,1,1,1,1,1,0,0,1,1,1,1,0,0,0,0,0,0,0,0,0,0,0,0],"id":45,"left_children":[1,3,5,7,9,11,13,15,17,-1,-1,19,21,23,25,-1,-1,-1,-1,-1,-1,-1,-1,-1,-1,-1,-1],"loss_changes":[2.5153065E0,5.4914474E0,7.465728E0,5.055135E0,1.4978533E0,6.9979544E0,6.5175757E0,2.820306E0,1.05193E0,0E0,0E0,7.0838184E0,7.327613E0,1.1160275E1,7.27556E0,0E0,0E0,0E0,0E0,0E0,0E0,0E0,0E0,0E0,0E0,0E0,0E0],"parents":[2147483647,0,0,1,1,2,2,3,3,4,4,5,5,6,6,7,7,8,8,11,11,12,12,13,13,14,14],"right_children":[2,4,6,8,10,12,14,16,18,-1,-1,20,22,24,26,-1,-1,-1,-1,-1,-1,-1,-1,-1,-1,-1,-1],"split_conditions":[1.1771164E-3,1.1683502E-3,1.4075912E-3,9.588667E1,-3.667829E-5,-3.418417E-3,1.6969768E-3,1.4916976E1,3.9091575E-1,-8.374449E-3,-7.068503E-2,2.0048442E-1,1.3735534E-3,5.046634E1,9.2383905E-4,1.1553443E-2,-4.3936245E-4,-5.8270465E-3,-6.44472E-2,6.9960795E-2,4.56963E-3,3.0409205E-3,4.6734884E-2,-4.0114768E-2,7.200894E-4,6.763028E-2,3.1549465E-3],"split_indices":[0,0,0,5,4,4,0,5,9,0,0,10,0,5,6,0,0,0,0,0,0,0,0,0,0,0,0],"split_type":[0,0,0,0,0,0,0,0,0,0,0,0,0,0,0,0,0,0,0,0,0,0,0,0,0,0,0],"sum_hessian":[3.7452205E3,3.4034944E3,3.417261E2,3.399248E3,4.246299E0,9.3868996E1,2.478571E2,3.395318E3,3.9299436E0,1.7470074E0,2.4992914E0,1.671353E1,7.7155464E1,7.4644356E1,1.7321275E2,4.8751476E1,3.3465667E3,1.2360591E0,2.6938846E0,9.724767E0,6.988762E0,6.692005E1,1.023541E1,2.3950613E1,5.0693745E1,3.4964004E0,1.6971635E2],"tree_param":{"num_deleted":"0","num_feature":"11","num_nodes":"27","size_leaf_vector":"0"}},{"base_weights":[-7.2186417E-4,8.754296E-2,-1.101091E-2,-5.411904E-2,2.564648E-1,-1.0155805E-1,1.0060604E-2,-3.64424E-1,3.3924486E-2,3.1678838E-1,-1.3220517E-1,-7.686635E-2,-6.007188E-1,-1.5729573E-1,2.2888718E-2,4.1662592E-1,-4.8076162E-1,-6.041292E-1,9.327526E-2,1.6976033E-1,5.6321585E-1,5.823395E-1,-8.082779E-1,3.9123952E-1,-9.73236E-2,-3.059139E-1,-1.2816048E0,7.563822E-4,-3.970803E-1,6.7399657E-1,1.9553531E-2],"categories":[],"categories_nodes":[],"categories_segments":[],"categories_sizes":[],"default_left":[1,1,1,1,1,1,1,1,1,1,1,1,1,1,1,0,0,0,0,0,0,0,0,0,0,0,0,0,0,0,0],"id":46,"left_children":[1,3,5,7,9,11,13,15,17,19,21,23,25,27,29,-1,-1,-1,-1,-1,-1,-1,-1,-1,-1,-1,-1,-1,-1,-1,-1],"loss_changes":[3.4303517E0,9.45052E0,6.455369E0,5.894569E0,4.263135E0,7.825979E0,5.8970385E0,4.532053E0,6.4423027E0,5.5618696E0,1.2496918E1,5.877129E0,5.6214943E0,7.411917E0,5.525555E0,0E0,0E0,0E0,0E0,0E0,0E0,0E0,0E0,0E0,0E0,0E0,0E0,0E0,0E0,0E0,0E0],"parents":[2147483647,0,0,1,1,2,2,3,3,4,4,5,5,6,6,7,7,8,8,9,9,10,10,11,11,12,12,13,13,14,14],"right_children":[2,4,6,8,10,12,14,16,18,20,22,24,26,28,30,-1,-1,-1,-1,-1,-1,-1,-1,-1,-1,-1,-1,-1,-1,-1,-1],"split_conditions":[-4.200459E-3,1.2940952E-1,-2.1694186E-1,-1.1233143E-2,2.028063E-3,9.829629E-1,-2.1532504E-3,-2.1302842E-2,8.6694944E-4,2.713735E-4,-8.684389E-3,-4.757031E-3,7.5157103E-4,-2.8091543E-3,-2.0899838E-3,2.0831296E-2,-2.4038082E-2,-3.020646E-2,4.663763E-3,8.488017E-3,2.8160794E-2,2.9116977E-2,-4.0413897E-2,1.9561976E-2,-4.86618E-3,-1.5295695E-2,-6.408024E-2,3.781911E-5,-1.9854015E-2,3.369983E-2,9.776766E-4],"split_indices":[4,8,9,4,1,7,1,4,3,1,4,2,1,1,1,0,0,0,0,0,0,0,0,0,0,0,0,0,0,0,0],"split_type":[0,0,0,0,0,0,0,0,0,0,0,0,0,0,0,0,0,0,0,0,0,0,0,0,0,0,0,0,0,0,0],"sum_hessian":[3.7751895E3,3.9334677E2,3.3818428E3,2.14305E2,1.790418E2,6.377076E2,2.7441353E3,4.6672165E1,1.6763281E2,1.5514711E2,2.389468E1,6.087489E2,2.8958647E1,1.9456516E2,2.54957E3,5.715971E0,4.0956196E1,1.34847975E1,1.5414803E2,9.82289E1,5.6918217E1,1.16842165E1,1.2210464E1,2.4730782E1,5.840181E2,2.1220179E1,7.738468E0,1.17869354E2,7.669581E1,1.1968396E1,2.5376016E3],"tree_param":{"num_deleted":"0","num_feature":"11","num_nodes":"31","size_leaf_vector":"0"}},{"base_weights":[-3.0717938E-3,-2.1089253E-3,-9.8907405E-1,-5.5417184E-2,1.46272E-2,6.8429685E-1,-6.1326593E-2,6.3324414E-2,-2.0105349E-2,9.079437E-1,-1.1669442E-1,-3.5072107E-2,-2.1619032E-1,1.7261496E-1,1.3570488E-2,-1.3454059E-1,2.1567976E-2],"categories":[],"categories_nodes":[],"categories_segments":[],"categories_sizes":[],"default_left":[1,1,0,1,1,1,1,1,1,0,0,0,0,0,0,0,0],"id":47,"left_children":[1,3,-1,5,7,9,11,13,15,-1,-1,-1,-1,-1,-1,-1,-1],"loss_changes":[3.5758655E0,3.3607438E0,0E0,3.9763043E0,4.8503942E0,1.3985336E0,3.626605E0,6.489016E0,7.986896E0,0E0,0E0,0E0,0E0,0E0,0E0,0E0,0E0],"parents":[2147483647,0,0,1,1,3,3,4,4,5,5,6,6,7,7,8,8],"right_children":[2,4,-1,6,8,10,12,14,16,-1,-1,-1,-1,-1,-1,-1,-1],"split_conditions":[9.6866806E1,-7.7870244E-4,-4.94537E-2,-6.6630533E-3,3.6356367E-5,4.2182648E1,-9.6422917E-4,-3.537687E-4,4.5668083E1,4.539719E-2,-5.834721E-3,-1.7536053E-3,-1.08095165E-2,8.630748E-3,6.7852443E-4,-6.7270296E-3,1.0783988E-3],"split_indices":[5,1,0,0,0,5,1,2,5,0,0,0,0,0,0,0,0],"split_type":[0,0,0,0,0,0,0,0,0,0,0,0,0,0,0,0,0],"sum_hessian":[3.7676824E3,3.7650078E3,2.6745338E0,8.990437E2,2.865964E3,6.215513E0,8.928282E2,1.1927836E3,1.6731807E3,4.7544775E0,1.4610354E0,7.644545E2,1.2837367E2,3.723663E2,8.2041724E2,4.4606223E2,1.2271184E3],"tree_param":{"num_deleted":"0","num_feature":"11","num_nodes":"17","size_leaf_vector":"0"}},{"base_weights":[-7.4227974E-3,-7.487487E-2,3.8645738E-3,-4.3653466E-2,-4.9215654E-1,2.1246104E-3,7.807932E-1,2.9907325E-1,-6.855547E-2,8.3301806E-1,-5.706355E-1,4.402637E-2,-2.9904833E-2,-1.681018E-1,1.4019142E0,1.0002606E0,4.1047097E-3,-2.040239E-1,1.089514E-2,-8.8484114E-1,-2.5248572E-1,5.0472308E-2,-8.2656854E-1,-5.558645E-1,-2.3610093E-2,6.2611556E-1,-8.139756E-1],"categories":[],"categories_nodes":[],"categories_segments":[],"categories_sizes":[],"default_left":[1,1,1,1,1,1,1,1,1,0,1,1,1,1,0,0,0,0,0,0,0,0,0,0,0,0,0],"id":48,"left_children":[1,3,5,7,9,11,13,15,17,-1,19,21,23,25,-1,-1,-1,-1,-1,-1,-1,-1,-1,-1,-1,-1,-1],"loss_changes":[2.8601017E0,6.994219E0,4.3494706E0,4.3058476E0,4.3637753E0,4.312797E0,4.473048E0,7.0690436E0,5.0492024E0,0E0,3.3645449E0,7.854306E0,6.016936E0,2.4267082E0,0E0,0E0,0E0,0E0,0E0,0E0,0E0,0E0,0E0,0E0,0E0,0E0,0E0],"parents":[2147483647,0,0,1,1,2,2,3,3,4,4,5,5,6,6,7,7,8,8,10,10,11,11,12,12,13,13],"right_children":[2,4,6,8,10,12,14,16,18,-1,20,22,24,26,-1,-1,-1,-1,-1,-1,-1,-1,-1,-1,-1,-1,-1],"split_conditions":[-7.8321464E-4,-8.2896964E-4,1.4998056E-2,-9.088798E-3,-9.829629E-1,7.270316E-5,-2.8662325E-4,2.7480165E1,3.674903E1,4.1650902E-2,-9.2730916E-4,4.1562826E-3,8.641627E-5,-1.892301E-3,7.009571E-2,5.001303E-2,2.0523548E-4,-1.0201195E-2,5.44757E-4,-4.4242058E-2,-1.2624286E-2,2.5236155E-3,-4.1328426E-2,-2.7793227E-2,-1.1805047E-3,3.130578E-2,-4.0698778E-2],"split_indices":[0,0,4,4,7,1,1,5,5,0,1,6,1,1,0,0,0,0,0,0,0,0,0,0,0,0,0],"split_type":[0,0,0,0,0,0,0,0,0,0,0,0,0,0,0,0,0,0,0,0,0,0,0,0,0,0,0],"sum_hessian":[3.7552065E3,5.375047E2,3.2177017E3,5.0111542E2,3.6389305E1,3.2115122E3,6.1895785E0,3.319818E1,4.6791724E2,1.4969902E0,3.4892315E1,1.3911711E3,1.8203411E3,2.737231E0,3.4523475E0,9.122193E0,2.4075989E1,1.7239856E2,2.9551868E2,1.6658813E1,1.8233503E1,1.3818816E3,9.289512E0,2.0495852E1,1.7998452E3,1.2413546E0,1.4958763E0],"tree_param":{"num_deleted":"0","num_feature":"11","num_nodes":"27","size_leaf_vector":"0"}},{"base_weights":[-2.5153947E-3,6.170669E-1,-4.015052E-3,6.204213E-2,1.2440974E0,-1.9239618E-1,6.2148017E-4,-6.080891E-1,4.8635378E-1,-1.252427E-1,-1.2716064E0,3.1125583E-2,-3.6249943E-2,8.2242745E-1,-8.185012E-2,-3.028077E-1,2.7077162E-1,1.05504505E-2,1.8321055E-1,-4.3756148E-1,-2.2747507E-2],"categories":[],"categories_nodes":[],"categories_segments":[],"categories_sizes":[],"default_left":[1,1,1,1,0,1,1,0,1,1,0,1,1,0,0,0,0,0,0,0,0],"id":49,"left_children":[1,3,5,7,-1,9,11,-1,13,15,-1,17,19,-1,-1,-1,-1,-1,-1,-1,-1],"loss_changes":[3.5139916E0,3.1008217E0,3.2939296E0,1.9723825E0,0E0,6.4060326E0,4.1418295E0,0E0,8.628599E-1,6.1569552E0,0E0,6.3041306E0,9.024375E0,0E0,0E0,0E0,0E0,0E0,0E0,0E0,0E0],"parents":[2147483647,0,0,1,1,2,2,3,3,5,5,6,6,8,8,9,9,11,11,12,12],"right_children":[2,4,6,8,-1,10,12,-1,14,16,-1,18,20,-1,-1,-1,-1,-1,-1,-1,-1],"split_conditions":[-6.16611E-3,-6.035534E-1,-5.9998753E-3,-1.493345E-2,6.2204868E-2,-6.107209E-3,3.7803082E-4,-3.0404454E-2,-9.159756E-1,-6.1232336E-17,-6.358033E-2,2.1359501E-3,4.4312078E-4,4.1121375E-2,-4.092506E-3,-1.5140384E-2,1.3538581E-2,5.275225E-4,9.160528E-3,-2.1878075E-2,-1.1373754E-3],"split_indices":[0,8,2,2,0,2,2,0,8,8,0,6,2,0,0,0,0,0,0,0,0],"split_type":[0,0,0,0,0,0,0,0,0,0,0,0,0,0,0,0,0,0,0,0,0],"sum_hessian":[3.7782295E3,8.13175E0,3.770098E3,4.896495E0,3.2352552E0,8.9589836E1,3.680508E3,1.7304353E0,3.16606E0,8.539238E1,4.1974616E0,2.0142523E3,1.6662556E3,1.7082632E0,1.4577968E0,5.911965E1,2.6272724E1,1.7751649E3,2.390875E2,5.3215294E1,1.6130403E3],"tree_param":{"num_deleted":"0","num_feature":"11","num_nodes":"21","size_leaf_vector":"0"}},{"base_weights":[7.413504E-4,1.3560589E-1,-5.7198787E-3,1.8355326E-1,-8.062413E-1,-1.7333375E-1,5.9883865E-3,2.1078949E-1,-1.1269066E0,-1.4505273E0,-2.459222E-1,-1.5446284E-2,-4.15767E-1,5.592284E-1,2.9165037E-3,1.3227165E-1,6.7248356E-1,-8.058877E-1,8.041967E-1,5.3186797E-2,-8.634974E-1,-6.12705E-2,-5.465147E-1,-3.774778E-1,9.585209E-1,9.316002E-3,-1.626396E-1],"categories":[],"categories_nodes":[],"categories_segments":[],"categories_sizes":[],"default_left":[1,1,1,1,1,1,1,1,0,0,1,1,1,1,1,0,0,0,0,0,0,0,0,0,0,0,0],"id":50,"left_children":[1,3,5,7,9,11,13,15,-1,-1,17,19,21,23,25,-1,-1,-1,-1,-1,-1,-1,-1,-1,-1,-1,-1],"loss_changes":[3.270377E0,7.896592E0,7.029773E0,6.094138E0,2.7108564E0,8.9458885E0,5.689444E0,5.7688394E0,0E0,0E0,4.0286517E0,8.350321E0,4.2401686E0,7.275891E0,3.530856E0,0E0,0E0,0E0,0E0,0E0,0E0,0E0,0E0,0E0,0E0,0E0,0E0],"parents":[2147483647,0,0,1,1,2,2,3,3,4,4,5,5,6,6,7,7,10,10,11,11,12,12,13,13,14,14],"right_children":[2,4,6,8,10,12,14,16,-1,-1,18,20,22,24,26,-1,-1,-1,-1,-1,-1,-1,-1,-1,-1,-1,-1],"split_conditions":[6.3896575E-4,6.4358197E-4,7.567435E-4,4.725788E-3,7.089011E-4,1.3406457E-3,7.64517E-4,6.2523887E-4,-5.6345332E-2,-7.2526366E-2,9.159756E-1,7.4961194E-4,-2.2397496E-4,-2.006648E-4,9.829629E-1,6.6135824E-3,3.362418E-2,-4.0294386E-2,4.0209837E-2,2.65934E-3,-4.317487E-2,-3.063525E-3,-2.7325734E-2,-1.887389E-2,4.7926046E-2,4.658001E-4,-8.13198E-3],"split_indices":[6,0,6,4,0,4,6,6,0,0,7,6,0,0,7,0,0,0,0,0,0,0,0,0,0,0,0],"split_type":[0,0,0,0,0,0,0,0,0,0,0,0,0,0,0,0,0,0,0,0,0,0,0,0,0,0,0],"sum_hessian":[3.7511646E3,1.7058453E2,3.58058E3,1.6308723E2,7.4973006E0,2.3288121E2,3.3476987E3,1.6058875E2,2.4984822E0,2.7483468E0,4.748954E0,1.4167648E2,9.120473E1,1.7485842E1,3.330213E3,1.3834726E2,2.2241486E1,3.2490203E0,1.4999331E0,1.3193613E2,9.740355E0,2.4970573E1,6.623415E1,5.2423553E0,1.2243486E1,3.2071843E3,1.2302857E2],"tree_param":{"num_deleted":"0","num_feature":"11","num_nodes":"27","size_leaf_vector":"0"}}]},"name":"gbtree"},"learner_model_param":{"base_score":"5E-1","boost_from_average":"1","num_class":"0","num_feature":"11","num_target":"1"},"objective":{"name":"binary:logistic","reg_loss_param":{"scale_pos_weight":"1"}}},"version":[1,7,6]}