{"learner":{"attributes":{"best_iteration":"0","best_ntree_limit":"1","best_score":"0.6936557355714144"},"feature_names":["ret_1","ret_3","ret_6","vol_24","sma_diff","rsi","atr_norm","hour_sin","hour_cos","dow_sin","dow_cos","vol_48"],"feature_types":[],"gradient_booster":{"model":{"gbtree_model_param":{"num_parallel_tree":"1","num_trees":"51","size_leaf_vector":"0"},"tree_info":[0,0,0,0,0,0,0,0,0,0,0,0,0,0,0,0,0,0,0,0,0,0,0,0,0,0,0,0,0,0,0,0,0,0,0,0,0,0,0,0,0,0,0,0,0,0,0,0,0,0,0],"trees":[{"base_weights":[4.230419E-1,5.050435E-1,2.9152164E-1,6.909722E-1,4.5826086E-1,3.8878208E-1,1.3559934E-1,-1E0,7.226148E-1,1.0156815E0,4.3176517E-1,2.8236413E-1,6.519685E-1,3.4587738E-1,-2.142407E-2,-1.2E0,5E-1,7.6739925E-1,-4.7619048E-1,7.092199E-2,1.1954023E0,3.751856E-1,5.566331E-1,2.1934502E-1,5.904405E-1,-9.3333334E-1,6.881029E-1,3.881119E-1,-8.235294E-1,1.9980663E-2,-1.6455696E0,-1.5087719E0,-3.2258064E-1,9.0826935E-1,6.204346E-1,-8.888889E-1,1.5E0,-1.4666667E0,4.5378152E-1,-1E0,1.2325581E0,-9.818182E-1,3.873544E-1,7.530428E-1,3.8414216E-1,1.284901E-1,4.3157226E-1,1.4155251E0,3.7383178E-1,5E-1,-1.2307693E0,7.601219E-1,-1.7085427E-1,5.468354E-1,3.3519555E-2,-1.3939394E0,8.148148E-1,-7.0737916E-1,1.2509198E-1,-3.529412E-1,-1.7714286E0],"categories":[],"categories_nodes":[],"categories_segments":[],"categories_sizes":[],"default_left":[1,1,1,1,1,1,1,1,1,1,1,1,1,1,1,1,0,1,1,1,1,1,1,1,1,1,1,1,1,1,1,0,0,0,0,0,0,0,0,0,0,0,0,0,0,0,0,0,0,0,0,0,0,0,0,0,0,0,0,0,0],"id":0,"left_children":[1,3,5,7,9,11,13,15,17,19,21,23,25,27,29,31,-1,33,35,37,39,41,43,45,47,49,51,53,55,57,59,-1,-1,-1,-1,-1,-1,-1,-1,-1,-1,-1,-1,-1,-1,-1,-1,-1,-1,-1,-1,-1,-1,-1,-1,-1,-1,-1,-1,-1,-1],"loss_changes":[5.0215393E1,2.4690796E1,2.7179947E1,3.1542511E1,3.353076E1,3.0774979E1,2.283563E1,3.8999996E0,3.0752716E1,1.751001E1,1.5315552E1,1.518626E1,1.882988E1,1.49203415E1,2.6713253E1,2.2225227E0,0E0,1.0740295E1,1.8460316E1,1.1041039E1,8.32933E0,2.5401794E1,2.2854233E1,1.2603104E1,2.3307682E1,3.812821E0,1.9368729E1,1.6078365E1,1.1065163E1,2.9742985E1,9.813423E-1,0E0,0E0,0E0,0E0,0E0,0E0,0E0,0E0,0E0,0E0,0E0,0E0,0E0,0E0,0E0,0E0,0E0,0E0,0E0,0E0,0E0,0E0,0E0,0E0,0E0,0E0,0E0,0E0,0E0,0E0],"parents":[2147483647,0,0,1,1,2,2,3,3,4,4,5,5,6,6,7,7,8,8,9,9,10,10,11,11,12,12,13,13,14,14,15,15,17,17,18,18,19,19,20,20,21,21,22,22,23,23,24,24,25,25,26,26,27,27,28,28,29,29,30,30],"right_children":[2,4,6,8,10,12,14,16,18,20,22,24,26,28,30,32,-1,34,36,38,40,42,44,46,48,50,52,54,56,58,60,-1,-1,-1,-1,-1,-1,-1,-1,-1,-1,-1,-1,-1,-1,-1,-1,-1,-1,-1,-1,-1,-1,-1,-1,-1,-1,-1,-1,-1,-1],"split_conditions":[5.5530342E1,-2.1694186E-1,1.4193219E-3,5.352241E-4,5.759249E-4,2.734389E-3,-5.6174487E-1,1.1484849E-3,2.0748407E-3,4.1459565E-4,1.0713313E-3,1.0191626E-3,4.5245205E-4,2.7890906E-3,9.178218E-3,-5.415827E-5,2.5E-2,-6.017523E-4,4.2650765E-3,2.1694186E-1,1.5251354E1,-7.6704193E-3,1.285014E-3,1.195248E-3,8.578705E-4,3.955638E-4,1.1555479E-3,3.1355247E-3,5.1433546E-3,-2.8905375E-3,8.2205085E-4,-7.54386E-2,-1.6129032E-2,4.5413468E-2,3.102173E-2,-4.4444446E-2,7.5E-2,-7.333334E-2,2.2689076E-2,-5E-2,6.1627906E-2,-4.909091E-2,1.9367721E-2,3.7652142E-2,1.9207109E-2,6.4245053E-3,2.1578614E-2,7.0776254E-2,1.869159E-2,2.5E-2,-6.1538465E-2,3.8006093E-2,-8.542714E-3,2.7341772E-2,1.6759777E-3,-6.969697E-2,4.074074E-2,-3.536896E-2,6.2545994E-3,-1.764706E-2,-8.857143E-2],"split_indices":[5,9,6,11,11,4,10,6,3,3,11,11,3,6,4,2,0,4,4,9,5,4,3,6,3,3,3,2,1,4,3,0,0,0,0,0,0,0,0,0,0,0,0,0,0,0,0,0,0,0,0,0,0,0,0,0,0,0,0,0,0],"split_type":[0,0,0,0,0,0,0,0,0,0,0,0,0,0,0,0,0,0,0,0,0,0,0,0,0,0,0,0,0,0,0,0,0,0,0,0,0,0,0,0,0,0,0,0,0,0,0,0,0,0,0,0,0,0,0,0,0,0,0,0,0],"sum_hessian":[4.66875E3,2.874E3,1.79475E3,5.75E2,2.299E3,1.104375E3,6.90375E2,1E1,5.65E2,1.02625E2,2.196375E3,7.87875E2,3.165E2,2.94625E2,3.9575E2,9E0,1E0,5.45E2,2E1,1.6625E1,8.6E1,1.51425E3,6.82125E2,6.555E2,1.32375E2,6.5E0,3.1E2,2.85E2,9.625E0,3.86875E2,8.875E0,6.125E0,2.875E0,2.75625E2,2.69375E2,1.7E1,3E0,2.75E0,1.3875E1,1E0,8.5E1,1.275E1,1.5015E3,3.17375E2,3.6475E2,4.60125E2,1.95375E2,2.6375E1,1.06E2,1E0,5.5E0,2.86125E2,2.3875E1,1.965E2,8.85E1,7.25E0,2.375E0,4.8125E1,3.3875E2,1.125E0,7.75E0],"tree_param":{"num_deleted":"0","num_feature":"12","num_nodes":"61","size_leaf_vector":"0"}},{"base_weights":[4.0984675E-1,4.8384055E-1,2.9066813E-1,6.8370754E-1,4.3377015E-1,3.8577795E-1,1.3614637E-1,-9.441455E-1,7.182325E-1,8.9343953E-1,4.1183484E-1,2.6757717E-1,6.1650074E-1,3.386934E-1,-1.6505497E-2,-1.2501174E0,8.241202E-3,7.5091136E-1,-5.375996E-1,-7.8156896E-2,1.0757493E0,4.2561388E-1,-2.3551339E-1,2.0338468E-1,7.02529E-1,-7.922414E-1,6.504037E-1,5.034329E-1,1.9961558E-2,2.003661E-2,-1.5487039E0,-3.1325778E-1,-1.3398188E0,4.8619437E-1,-5.2349925E-1,7.5832134E-1,-1.1736854E0,-1.1598294E0,1.4452991E0,9.437394E-1,-6.6496545E-1,-7.6977223E-1,1.125026E0,4.0690383E-1,8.275572E-1,-5.4534745E-1,1.4483306E0,1.8846446E-1,1.551892E0,1.4938776E0,4.1018268E-1,5.7788885E-1,-1.6311623E0,6.7402196E-1,-9.124631E-1,6.1173946E-1,-1.19919084E-1,2.9321495E-1,-3.9634347E-1,-2.2844916E-2,1.5993154E0,-1.6796612E0,-3.2708257E-1],"categories":[],"categories_nodes":[],"categories_segments":[],"categories_sizes":[],"default_left":[1,1,1,1,1,1,1,1,1,1,1,1,1,1,1,1,1,1,1,1,1,1,1,1,1,1,1,1,1,1,1,0,0,0,0,0,0,0,0,0,0,0,0,0,0,0,0,0,0,0,0,0,0,0,0,0,0,0,0,0,0,0,0],"id":1,"left_children":[1,3,5,7,9,11,13,15,17,19,21,23,25,27,29,31,33,35,37,39,41,43,45,47,49,51,53,55,57,59,61,-1,-1,-1,-1,-1,-1,-1,-1,-1,-1,-1,-1,-1,-1,-1,-1,-1,-1,-1,-1,-1,-1,-1,-1,-1,-1,-1,-1,-1,-1,-1,-1],"loss_changes":[4.0996582E1,2.8489868E1,2.6244934E1,3.2967163E1,2.285318E1,3.0026627E1,2.1132511E1,3.6132097E0,2.3515167E1,1.8512428E1,1.972348E1,2.0345497E1,1.8390213E1,1.5411594E1,2.1900213E1,3.6723518E-1,1.2710521E0,8.723633E0,2.0017529E1,1.1043337E1,8.838654E0,1.5865631E1,2.5046711E1,1.2601316E1,2.1125599E1,1.1570494E1,1.4125473E1,1.3142815E1,1.1619105E1,2.5938894E1,9.082241E-1,0E0,0E0,0E0,0E0,0E0,0E0,0E0,0E0,0E0,0E0,0E0,0E0,0E0,0E0,0E0,0E0,0E0,0E0,0E0,0E0,0E0,0E0,0E0,0E0,0E0,0E0,0E0,0E0,0E0,0E0,0E0,0E0],"parents":[2147483647,0,0,1,1,2,2,3,3,4,4,5,5,6,6,7,7,8,8,9,9,10,10,11,11,12,12,13,13,14,14,15,15,16,16,17,17,18,18,19,19,20,20,21,21,22,22,23,23,24,24,25,25,26,26,27,27,28,28,29,29,30,30],"right_children":[2,4,6,8,10,12,14,16,18,20,22,24,26,28,30,32,34,36,38,40,42,44,46,48,50,52,54,56,58,60,62,-1,-1,-1,-1,-1,-1,-1,-1,-1,-1,-1,-1,-1,-1,-1,-1,-1,-1,-1,-1,-1,-1,-1,-1,-1,-1,-1,-1,-1,-1,-1,-1],"split_conditions":[5.5530342E1,-2.1694186E-1,1.4202555E-3,5.352241E-4,5.7412987E-4,2.2175205E-3,-5.6174487E-1,-5.415827E-5,2.1953527E-3,4.1459565E-4,6.5113856E-3,1.0858711E-3,4.2724382E-4,2.8612474E-3,9.178218E-3,3.849782E-4,-3.7940952E-1,3.247416E-3,4.2545856E-3,-1.2940952E-1,1.8444403E1,1.7651422E-3,1.9808747E-3,9.277744E1,8.578705E-4,3.9754738E-4,1.5152534E-3,4.8656445E-3,1.3672407E-3,8.162601E-3,7.550188E1,-1.566289E-2,-6.699094E-2,2.4309719E-2,-2.6174963E-2,3.7916068E-2,-5.868427E-2,-5.799147E-2,7.226496E-2,4.718697E-2,-3.324827E-2,-3.848861E-2,5.62513E-2,2.0345192E-2,4.137786E-2,-2.7267372E-2,7.241654E-2,9.423223E-3,7.75946E-2,7.469388E-2,2.0509135E-2,2.8894443E-2,-8.1558116E-2,3.37011E-2,-4.5623157E-2,3.0586973E-2,-5.9959544E-3,1.4660748E-2,-1.9817173E-2,-1.1422458E-3,7.996577E-2,-8.3983056E-2,-1.6354129E-2],"split_indices":[5,9,6,11,11,4,10,2,3,3,4,11,3,2,4,3,8,11,4,8,5,11,11,5,3,3,11,4,4,4,5,0,0,0,0,0,0,0,0,0,0,0,0,0,0,0,0,0,0,0,0,0,0,0,0,0,0,0,0,0,0,0,0],"split_type":[0,0,0,0,0,0,0,0,0,0,0,0,0,0,0,0,0,0,0,0,0,0,0,0,0,0,0,0,0,0,0,0,0,0,0,0,0,0,0,0,0,0,0,0,0,0,0,0,0,0,0,0,0,0,0,0,0,0,0,0,0,0,0],"sum_hessian":[4.663879E3,2.8755137E3,1.788365E3,5.735218E2,2.301992E3,1.1060702E3,6.8229486E2,1.1363974E1,5.6215784E2,1.0303768E2,2.198954E3,7.328078E2,3.7326236E2,2.9270233E2,3.8959256E2,8.3642025E0,2.9997706E0,5.482924E2,1.3865417E1,1.6369553E1,8.666813E1,2.1534595E3,4.549473E1,6.398439E2,9.296394E1,8.246197E0,3.6501614E2,1.92584E2,1.0011832E2,3.8148135E2,8.111201E0,1.1234009E0,7.2408013E0,1.6248944E0,1.3748764E0,5.4679315E2,1.4992595E0,1.0869631E1,2.9957852E0,5.74926E0,1.0620293E1,1.8736665E0,8.4794464E1,2.0595994E3,9.386002E1,3.899553E1,6.499204E0,6.3396924E2,5.8746343E0,2.3969969E1,6.899397E1,3.249784E0,4.9964128E0,3.6014236E2,4.873797E0,1.6409189E2,2.849211E1,6.0622635E1,3.949568E1,3.7235645E2,9.12491E0,6.9872293E0,1.1239719E0],"tree_param":{"num_deleted":"0","num_feature":"12","num_nodes":"63","size_leaf_vector":"0"}},{"base_weights":[3.7709343E-1,4.5142567E-1,2.5787196E-1,6.52774E-1,4.013247E-1,3.4592852E-1,1.0755278E-1,7.0976853E-1,-5.4035947E-2,7.0443755E-1,3.8053408E-1,2.5905746E-1,5.6688184E-1,1.2945081E-1,-9.2018294E-1,8.664047E-1,5.652524E-1,-2.7664855E-1,9.491153E-1,1.1897575E0,3.8768658E-1,3.9590135E-1,-3.340799E-2,2.1979806E-1,7.0786256E-1,-9.818498E-1,5.909378E-1,1.0849771E-1,1.3815017E0,7.50009E-2,-1.5051633E0,9.1792434E-1,-2.5052646E-1,-9.358541E-1,6.2049556E-1,4.9677828E-1,-8.998768E-1,-6.989448E-1,1.4691849E0,1.6777843E0,8.475708E-1,1.0738128E0,2.2506166E-1,3.589372E-1,5.4510987E-1,-7.4987966E-1,3.2638386E-1,-2.4091615E-1,2.542938E-1,8.293688E-1,7.982242E-2,1.923657E-1,-1.3982104E0,6.848287E-1,1.8778598E-1,3.5751662E-1,3.594478E-2,-3.6445916E-1,1.6267668E0,-1.2786361E0,1.0398755E0,-2.9673868E-1,-1.642055E0],"categories":[],"categories_nodes":[],"categories_segments":[],"categories_sizes":[],"default_left":[1,1,1,1,1,1,1,1,1,1,1,1,1,1,1,1,1,1,1,1,1,1,1,1,1,1,1,1,1,1,1,0,0,0,0,0,0,0,0,0,0,0,0,0,0,0,0,0,0,0,0,0,0,0,0,0,0,0,0,0,0,0,0],"id":2,"left_children":[1,3,5,7,9,11,13,15,17,19,21,23,25,27,29,31,33,35,37,39,41,43,45,47,49,51,53,55,57,59,61,-1,-1,-1,-1,-1,-1,-1,-1,-1,-1,-1,-1,-1,-1,-1,-1,-1,-1,-1,-1,-1,-1,-1,-1,-1,-1,-1,-1,-1,-1,-1,-1],"loss_changes":[4.1140686E1,2.8652344E1,2.3659325E1,2.298053E1,1.421225E1,2.1513351E1,1.5034925E1,1.1441467E1,9.960078E0,2.2030891E1,1.3705353E1,1.41489105E1,1.2413597E1,1.6897602E1,8.234245E0,1.4676758E1,2.3553108E1,1.7950764E1,7.979928E0,8.146553E0,9.802345E0,1.1251434E1,2.034394E1,1.19487915E1,4.8828087E0,2.8277512E0,1.1733856E1,1.155377E1,5.1365376E0,9.318941E0,9.7397804E-1,0E0,0E0,0E0,0E0,0E0,0E0,0E0,0E0,0E0,0E0,0E0,0E0,0E0,0E0,0E0,0E0,0E0,0E0,0E0,0E0,0E0,0E0,0E0,0E0,0E0,0E0,0E0,0E0,0E0,0E0,0E0,0E0],"parents":[2147483647,0,0,1,1,2,2,3,3,4,4,5,5,6,6,7,7,8,8,9,9,10,10,11,11,12,12,13,13,14,14,15,15,16,16,17,17,18,18,19,19,20,20,21,21,22,22,23,23,24,24,25,25,26,26,27,27,28,28,29,29,30,30],"right_children":[2,4,6,8,10,12,14,16,18,20,22,24,26,28,30,32,34,36,38,40,42,44,46,48,50,52,54,56,58,60,62,-1,-1,-1,-1,-1,-1,-1,-1,-1,-1,-1,-1,-1,-1,-1,-1,-1,-1,-1,-1,-1,-1,-1,-1,-1,-1,-1,-1,-1,-1,-1,-1],"split_conditions":[5.5530342E1,-2.1694186E-1,1.4417586E-3,2.2769677E-3,5.411514E-4,2.734389E-3,9.211939E-3,-7.7640504E-4,4.2203087E-3,-3.7940952E-1,5.6939055E-3,1.4955394E-3,4.2723183E-4,8.518401E-3,1.8026417E-3,1.5321656E-3,6.7633204E-4,-3.5713695E-4,-4.3521253E-3,-8.8885555E-4,2.6496906E1,7.865661E-1,9.4450766E-4,5.131871E-4,8.117449E-1,3.9668148E-4,1.0001557E-3,5.9776672E1,2.7577672E-4,1.5823172E-3,-1.2298588E-3,4.5896217E-2,-1.2526323E-2,-4.6792705E-2,3.1024778E-2,2.4838915E-2,-4.499384E-2,-3.4947243E-2,7.3459245E-2,8.3889216E-2,4.237854E-2,5.3690642E-2,1.1253083E-2,1.794686E-2,2.7255494E-2,-3.7493985E-2,1.6319193E-2,-1.2045807E-2,1.27146905E-2,4.146844E-2,3.991121E-3,9.618285E-3,-6.991052E-2,3.4241434E-2,9.389299E-3,1.7875832E-2,1.797239E-3,-1.8222958E-2,8.133834E-2,-6.393181E-2,5.1993776E-2,-1.4836934E-2,-8.210275E-2],"split_indices":[5,9,6,6,3,4,4,4,4,8,4,0,3,4,6,3,6,0,2,4,5,8,3,3,10,3,3,5,2,6,0,0,0,0,0,0,0,0,0,0,0,0,0,0,0,0,0,0,0,0,0,0,0,0,0,0,0,0,0,0,0,0,0],"split_type":[0,0,0,0,0,0,0,0,0,0,0,0,0,0,0,0,0,0,0,0,0,0,0,0,0,0,0,0,0,0,0,0,0,0,0,0,0,0,0,0,0,0,0,0,0,0,0,0,0,0,0,0,0,0,0,0,0,0,0,0,0,0,0],"sum_hessian":[4.654505E3,2.8652761E3,1.7892286E3,5.6850616E2,2.29677E3,1.1274626E3,6.617659E2,5.2608075E2,4.2425404E1,1.4531357E2,2.1514565E3,8.108411E2,3.1662158E2,6.488156E2,1.29503145E1,2.5005707E2,2.760237E2,3.5313164E1,7.112241E0,5.6298275E1,8.90153E1,2.0744863E3,7.697014E1,7.469878E2,6.3853325E1,4.2337875E0,3.1238782E2,6.3920514E2,9.610461E0,5.1169734E0,7.8333406E0,2.392018E2,1.0855259E1,9.231732E0,2.66792E2,1.5848301E1,1.9464863E1,1.623512E0,5.4887285E0,2.1595556E1,3.4702717E1,1.5982209E1,7.303309E1,1.6653313E3,4.09155E2,2.5368454E1,5.1601685E1,5.161745E1,6.9537036E2,5.3233692E1,1.0619631E1,1.2490927E0,2.9846945E0,2.5281134E2,5.957647E1,1.433311E2,4.9587405E2,1.1238892E0,8.486572E0,1.9941572E0,3.1228163E0,1.119402E0,6.7139387E0],"tree_param":{"num_deleted":"0","num_feature":"12","num_nodes":"63","size_leaf_vector":"0"}},{"base_weights":[3.6145177E-1,4.1933882E-1,2.3234099E-1,6.121086E-1,3.6934298E-1,2.562109E-1,-3.52912E-1,-8.732225E-1,6.4420116E-1,7.835129E-1,3.4915066E-1,-4.056023E-1,2.7601922E-1,-5.487055E-1,1.4812179E0,-1.5290025E0,-4.4787744E-1,6.72198E-1,-2.8396273E-1,-1.1839093E0,8.518736E-1,7.835671E-1,3.29597E-1,-1.0049883E0,-9.508293E-2,2.6663056E-1,1.3910131E0,1.566298E-1,-8.281269E-1,-1.127873E0,4.3544453E-1,5.4329354E-1,9.105528E-1,-7.388483E-1,1.3499905E0,-1.3692677E0,-3.4260336E-1,1.1593654E0,6.1088204E-1,-4.2128742E-1,8.5837793E-1,2.729293E-1,4.3952513E-1,7.300076E-1,-1.5570633E0,1.5893966E-1,-7.9035836E-1,3.420923E-1,1.415226E-1,2.0410286E-1,1.5224253E0,-5.041508E-1,1.0144451E0,-1.635515E0,-3.4512764E-1],"categories":[],"categories_nodes":[],"categories_segments":[],"categories_sizes":[],"default_left":[1,1,1,1,1,1,1,1,1,1,1,1,1,1,0,0,1,1,1,1,1,1,1,1,1,1,1,1,1,0,0,0,0,0,0,0,0,0,0,0,0,0,0,0,0,0,0,0,0,0,0,0,0,0,0],"id":3,"left_children":[1,3,5,7,9,11,13,15,17,19,21,23,25,27,-1,-1,29,31,33,35,37,39,41,43,45,47,49,51,53,-1,-1,-1,-1,-1,-1,-1,-1,-1,-1,-1,-1,-1,-1,-1,-1,-1,-1,-1,-1,-1,-1,-1,-1,-1,-1],"loss_changes":[3.4580017E1,3.0636658E1,2.0186897E1,3.1926575E1,2.1013123E1,1.8239105E1,2.1207964E1,3.3151302E0,1.6942017E1,1.6814514E1,2.0373016E1,7.4588556E0,1.3689804E1,1.0387118E1,0E0,0E0,6.5653095E0,1.8740692E1,1.5549039E1,2.1154022E-1,7.751114E0,9.725769E0,1.4369049E1,1.4304241E1,5.042898E0,1.2538071E1,1.401617E0,9.3588505E0,1.4034664E1,0E0,0E0,0E0,0E0,0E0,0E0,0E0,0E0,0E0,0E0,0E0,0E0,0E0,0E0,0E0,0E0,0E0,0E0,0E0,0E0,0E0,0E0,0E0,0E0,0E0,0E0],"parents":[2147483647,0,0,1,1,2,2,3,3,4,4,5,5,6,6,7,7,8,8,9,9,10,10,11,11,12,12,13,13,16,16,17,17,18,18,19,19,20,20,21,21,22,22,23,23,24,24,25,25,26,26,27,27,28,28],"right_children":[2,4,6,8,10,12,14,16,18,20,22,24,26,28,-1,-1,30,32,34,36,38,40,42,44,46,48,50,52,54,-1,-1,-1,-1,-1,-1,-1,-1,-1,-1,-1,-1,-1,-1,-1,-1,-1,-1,-1,-1,-1,-1,-1,-1,-1,-1],"split_conditions":[5.9277184E1,-2.1694186E-1,1.7508273E-3,5.352241E-4,5.7412987E-4,5.5313157E-4,8.771097E-3,7.6409103E-4,2.8388777E-3,4.1520063E-4,1.6696424E1,2.7461286E-4,9.284755E1,-4.357597E-4,7.4060895E-2,-7.645013E-2,-2.6339227E-3,1.0580014E-3,3.991319E-3,-3.7543676E-4,-1.1240298E-4,8.0375257E-4,1.0485193E-3,-1.4091006E-3,1.2316746E-3,1.4193219E-3,-2.1694186E-1,6.078576E-1,-7.873148E-4,-5.639365E-2,2.1772226E-2,2.7164677E-2,4.552764E-2,-3.694242E-2,6.7499526E-2,-6.8463385E-2,-1.7130168E-2,5.796827E-2,3.0544102E-2,-2.106437E-2,4.29189E-2,1.3646466E-2,2.1976257E-2,3.650038E-2,-7.7853166E-2,7.946983E-3,-3.951792E-2,1.7104616E-2,7.0761302E-3,1.0205143E-2,7.612126E-2,-2.520754E-2,5.0722253E-2,-8.177575E-2,-1.7256383E-2],"split_indices":[5,9,11,11,11,11,2,6,6,11,5,4,5,1,0,0,4,11,6,2,0,6,11,4,2,6,9,9,4,0,0,0,0,0,0,0,0,0,0,0,0,0,0,0,0,0,0,0,0,0,0,0,0,0,0],"split_type":[0,0,0,0,0,0,0,0,0,0,0,0,0,0,0,0,0,0,0,0,0,0,0,0,0,0,0,0,0,0,0,0,0,0,0,0,0,0,0,0,0,0,0,0,0,0,0,0,0,0,0,0,0,0,0],"sum_hessian":[4.6388457E3,3.201293E3,1.4375529E3,6.5696796E2,2.544325E3,1.3817592E3,5.5793667E1,1.3340146E1,6.436278E2,1.1652147E2,2.4278035E3,3.958873E1,1.3421704E3,5.1045403E1,4.748264E0,4.227547E0,9.112599E0,6.2504974E2,1.857803E1,3.3647695E0,1.131567E2,1.02888794E2,2.3249148E3,1.274704E1,2.684169E1,1.332192E3,9.978397E0,1.4608654E1,3.643675E1,4.992465E0,4.120134E0,4.0779163E2,2.1725812E2,1.4960817E1,3.6172123E0,2.2430298E0,1.1217396E0,4.8044178E1,6.511252E1,5.7442575E0,9.714454E1,1.5363915E3,7.885233E2,2.999203E0,9.747836E0,2.0224106E1,6.6175847E0,8.2989026E2,5.023018E2,1.2491616E0,8.729236E0,8.484937E0,6.123717E0,1.2745327E1,2.3691423E1],"tree_param":{"num_deleted":"0","num_feature":"12","num_nodes":"55","size_leaf_vector":"0"}},{"base_weights":[3.4142047E-1,3.9420775E-1,1.9851603E-1,5.677205E-1,3.4969905E-1,2.9106244E-1,4.9434982E-2,-1.0588323E0,6.0105747E-1,3.3055964E-1,6.4075845E-1,1.5088691E-1,5.3278786E-1,-4.8383963E-1,1.12925544E-1,-5.0863326E-1,-1.6442714E0,6.6279817E-1,3.817797E-2,6.765875E-1,3.140012E-1,3.963403E-1,8.6491466E-1,2.8328517E-2,4.4911516E-1,5.9149355E-1,-1.5479961E-1,1.2351596E0,-8.621486E-1,8.5336405E-1,5.7045437E-2,-1.2046361E0,4.3060237E-1,5.368145E-1,9.584654E-1,-4.1610956E-1,5.0004745E-1,-1.1936891E0,7.4753153E-1,6.940199E-1,2.9618588E-1,4.781946E-1,-8.538753E-1,-4.460825E-1,9.641515E-1,-2.2469968E-2,9.144098E-1,8.380333E-1,3.0174217E-1,4.5413527E-1,1.0026499E0,4.1024065E-1,-7.304461E-1,1.4868054E0,-3.6690322E-1,-5.209443E-1,-1.3657051E0,1.0706291E0,-1.0446471E0,3.2834542E-1,-6.803149E-2],"categories":[],"categories_nodes":[],"categories_segments":[],"categories_sizes":[],"default_left":[1,1,1,1,1,1,1,1,1,1,1,1,1,1,1,1,0,1,1,1,1,1,1,1,1,1,1,1,1,1,1,0,0,0,0,0,0,0,0,0,0,0,0,0,0,0,0,0,0,0,0,0,0,0,0,0,0,0,0,0,0],"id":4,"left_children":[1,3,5,7,9,11,13,15,17,19,21,23,25,27,29,31,-1,33,35,37,39,41,43,45,47,49,51,53,55,57,59,-1,-1,-1,-1,-1,-1,-1,-1,-1,-1,-1,-1,-1,-1,-1,-1,-1,-1,-1,-1,-1,-1,-1,-1,-1,-1,-1,-1,-1,-1],"loss_changes":[3.5148926E1,2.6129822E1,1.739309E1,3.8288162E1,1.4917053E1,2.6289604E1,1.6457066E1,3.7723026E0,2.3643341E1,1.4399841E1,8.779358E0,1.8042675E1,1.1606033E1,3.4705795E1,1.789677E1,6.2868934E0,0E0,2.2344604E1,1.455583E1,1.6230598E1,1.628444E1,8.748228E0,1.1619118E1,1.5827511E1,7.989826E0,1.4399193E1,7.8560967E0,4.4730644E0,6.674595E0,1.3639563E1,1.3743463E1,0E0,0E0,0E0,0E0,0E0,0E0,0E0,0E0,0E0,0E0,0E0,0E0,0E0,0E0,0E0,0E0,0E0,0E0,0E0,0E0,0E0,0E0,0E0,0E0,0E0,0E0,0E0,0E0,0E0,0E0],"parents":[2147483647,0,0,1,1,2,2,3,3,4,4,5,5,6,6,7,7,8,8,9,9,10,10,11,11,12,12,13,13,14,14,15,15,17,17,18,18,19,19,20,20,21,21,22,22,23,23,24,24,25,25,26,26,27,27,28,28,29,29,30,30],"right_children":[2,4,6,8,10,12,14,16,18,20,22,24,26,28,30,32,-1,34,36,38,40,42,44,46,48,50,52,54,56,58,60,-1,-1,-1,-1,-1,-1,-1,-1,-1,-1,-1,-1,-1,-1,-1,-1,-1,-1,-1,-1,-1,-1,-1,-1,-1,-1,-1,-1,-1,-1],"split_conditions":[6.1322987E1,-2.1694186E-1,1.4193219E-3,5.352241E-4,1.8084757E-3,2.1773565E-3,7.7303685E-4,-6.1232336E-17,1.5220367E-3,5.7404547E-4,-8.2565425E-4,1.2248768E-3,1.1407293E-3,-2.1694186E-1,8.484968E-4,-2.8288027E-4,-8.221357E-2,1.0573871E-3,1.5430433E-3,4.2015052E-4,1.6615334E1,2.0928425E-3,6.9268723E-4,1.2064264E-3,6.485626E1,2.1575857E-3,4.482018E-3,4.564158E-3,7.438063E1,4.3809423E-3,-1.9867554E-4,-6.0231805E-2,2.153012E-2,2.6840726E-2,4.792327E-2,-2.0805478E-2,2.5002373E-2,-5.9684455E-2,3.737658E-2,3.4700997E-2,1.4809295E-2,2.390973E-2,-4.2693764E-2,-2.2304125E-2,4.8207577E-2,-1.1234984E-3,4.572049E-2,4.1901667E-2,1.5087108E-2,2.2706764E-2,5.0132494E-2,2.0512033E-2,-3.6522307E-2,7.434028E-2,-1.834516E-2,-2.6047215E-2,-6.828526E-2,5.3531457E-2,-5.2232355E-2,1.641727E-2,-3.4015744E-3],"split_indices":[5,9,6,11,1,4,11,8,3,11,4,6,3,9,11,2,0,11,4,11,5,3,3,11,5,2,4,4,5,4,0,0,0,0,0,0,0,0,0,0,0,0,0,0,0,0,0,0,0,0,0,0,0,0,0,0,0,0,0,0,0],"split_type":[0,0,0,0,0,0,0,0,0,0,0,0,0,0,0,0,0,0,0,0,0,0,0,0,0,0,0,0,0,0,0,0,0,0,0,0,0,0,0,0,0,0,0,0,0,0,0,0,0,0,0,0,0,0,0,0,0,0,0,0,0],"sum_hessian":[4.6688467E3,3.4081543E3,1.2606925E3,6.933692E2,2.7147852E3,7.7724347E2,4.8344897E2,1.3307733E1,6.800615E2,2.5492854E3,1.6549963E2,4.9298676E2,2.8425674E2,5.073034E1,4.3271866E2,7.823741E0,5.4839916E0,6.126807E2,6.738076E1,1.1459925E2,2.4346863E3,8.049579E1,8.500384E1,3.501754E2,1.4281134E2,2.62025E2,2.2231743E1,8.7421055E0,4.198823E1,2.9363726E1,4.0335492E2,4.331439E0,3.4923017E0,4.3159427E2,1.8108647E2,3.4019142E1,3.3361618E1,3.609785E0,1.1098947E2,1.0732743E2,2.3273586E3,7.6128975E1,4.366815E0,5.73569E0,7.926815E1,3.3211038E2,1.8065037E1,3.7956757E1,1.0485458E2,1.9798654E2,6.4038445E1,1.1364234E1,1.086751E1,7.617519E0,1.1245867E0,2.6241686E1,1.5746546E1,2.6738853E1,2.6248717E0,1.2676603E2,2.765889E2],"tree_param":{"num_deleted":"0","num_feature":"12","num_nodes":"61","size_leaf_vector":"0"}},{"base_weights":[3.2581E-1,3.9271137E-1,2.1905833E-1,5.577854E-1,3.5148892E-1,7.776457E-2,2.7149114E-1,-8.6447954E-1,5.88602E-1,8.1080186E-1,3.2845077E-1,3.8511392E-1,-4.2428523E-3,3.070903E-2,3.1861627E-1,-1.1213113E0,-1.00251764E-1,6.160729E-1,-1.21913E-1,2.6315656E-1,1.0198917E0,6.8181753E-1,3.0986884E-1,2.172224E-1,1.1220723E0,3.746929E-2,-7.331449E-1,-5.057914E-1,1.4871064E-1,-1.846023E-1,3.360307E-1,-2.8147382E-1,-1.4961845E0,-1.061723E0,6.543527E-1,-1.913073E-1,6.364836E-1,-1.2057296E0,8.626767E-1,6.9281334E-1,-7.8985226E-1,8.973496E-1,1.600656E0,1.2939426E0,5.316212E-1,3.2187298E-1,-1.957266E-1,7.2345936E-1,-1.07221745E-1,1.524944E0,1.975537E-1,-2.004121E-1,1.4899461E-1,-9.265309E-1,8.83752E-1,-9.3099934E-1,3.158335E-2,2.6262462E-1,-4.3894434E-1,-6.8444526E-1,1.3523614E-1,1.0451117E0,3.1641904E-1],"categories":[],"categories_nodes":[],"categories_segments":[],"categories_sizes":[],"default_left":[1,1,1,1,1,1,1,1,1,1,1,1,1,1,1,1,1,1,1,1,1,1,1,1,1,1,1,1,1,1,1,0,0,0,0,0,0,0,0,0,0,0,0,0,0,0,0,0,0,0,0,0,0,0,0,0,0,0,0,0,0,0,0],"id":5,"left_children":[1,3,5,7,9,11,13,15,17,19,21,23,25,27,29,31,33,35,37,39,41,43,45,47,49,51,53,55,57,59,61,-1,-1,-1,-1,-1,-1,-1,-1,-1,-1,-1,-1,-1,-1,-1,-1,-1,-1,-1,-1,-1,-1,-1,-1,-1,-1,-1,-1,-1,-1,-1,-1],"loss_changes":[3.3185852E1,1.928363E1,1.3292435E1,2.5505417E1,2.400119E1,1.2296296E1,1.4857964E1,2.3410978E0,1.0982346E1,1.2196175E1,1.4139145E1,1.2469445E1,1.1764589E1,1.372298E1,9.66407E0,2.4935102E0,3.7727418E0,8.99054E0,2.412849E1,1.4764765E1,4.1453094E0,9.273705E0,1.2675705E1,1.4026186E1,6.710289E0,9.74225E0,7.3677807E0,8.962263E0,1.1996389E1,6.0549593E0,1.440184E1,0E0,0E0,0E0,0E0,0E0,0E0,0E0,0E0,0E0,0E0,0E0,0E0,0E0,0E0,0E0,0E0,0E0,0E0,0E0,0E0,0E0,0E0,0E0,0E0,0E0,0E0,0E0,0E0,0E0,0E0,0E0,0E0],"parents":[2147483647,0,0,1,1,2,2,3,3,4,4,5,5,6,6,7,7,8,8,9,9,10,10,11,11,12,12,13,13,14,14,15,15,16,16,17,17,18,18,19,19,20,20,21,21,22,22,23,23,24,24,25,25,26,26,27,27,28,28,29,29,30,30],"right_children":[2,4,6,8,10,12,14,16,18,20,22,24,26,28,30,32,34,36,38,40,42,44,46,48,50,52,54,56,58,60,62,-1,-1,-1,-1,-1,-1,-1,-1,-1,-1,-1,-1,-1,-1,-1,-1,-1,-1,-1,-1,-1,-1,-1,-1,-1,-1,-1,-1,-1,-1,-1,-1],"split_conditions":[5.5506325E1,-2.1694186E-1,-6.035534E-1,5.352241E-4,5.7869597E-4,-2.1694186E-1,-2.4097594E-3,-5.415827E-5,1.8518073E-3,5.184531E-4,1.6615334E1,4.16639E-3,1.5808789E-3,8.185244E-4,5.611605E-4,-6.1833113E-4,4.7480213E-4,-4.211474E-3,2.6920156E-3,3.7940952E-1,2.464673E-3,2.1694186E-1,6.5113856E-3,-1.0551354E-3,2.517282E-3,7.654049E-4,1.0495368E-2,2.0048442E-1,8.117449E-1,-5.6174487E-1,5.9177354E-4,-1.4073691E-2,-7.480922E-2,-5.308615E-2,3.2717638E-2,-9.5653655E-3,3.1824183E-2,-6.028648E-2,4.3133836E-2,3.4640666E-2,-3.9492615E-2,4.4867482E-2,8.00328E-2,6.469713E-2,2.6581062E-2,1.6093649E-2,-9.78633E-3,3.6172967E-2,-5.361087E-3,7.62472E-2,9.8776845E-3,-1.0020605E-2,7.4497308E-3,-4.6326544E-2,4.41876E-2,-4.654997E-2,1.5791676E-3,1.3131231E-2,-2.1947218E-2,-3.4222264E-2,6.7618075E-3,5.2255582E-2,1.5820952E-2],"split_indices":[5,9,7,11,11,9,4,2,11,11,5,4,11,11,11,0,11,1,11,8,4,9,4,4,2,11,2,10,10,10,11,0,0,0,0,0,0,0,0,0,0,0,0,0,0,0,0,0,0,0,0,0,0,0,0,0,0,0,0,0,0,0,0],"split_type":[0,0,0,0,0,0,0,0,0,0,0,0,0,0,0,0,0,0,0,0,0,0,0,0,0,0,0,0,0,0,0,0,0,0,0,0,0,0,0,0,0,0,0,0,0,0,0,0,0,0,0,0,0,0,0,0,0,0,0,0,0,0,0],"sum_hessian":[4.6577363E3,2.8616555E3,1.796081E3,5.6931573E2,2.2923396E3,4.8678806E2,1.309293E3,1.1500187E1,5.5781555E2,1.0785404E2,2.1844856E3,1.0175019E2,3.8503784E2,2.1457751E2,1.0947155E3,8.257773E0,3.242414E0,5.371793E2,2.0636229E1,3.0424688E1,7.742935E1,1.0735012E2,2.0771355E3,8.392534E1,1.782485E1,3.650936E2,1.9944248E1,3.8094154E1,1.7648335E2,3.629552E1,1.0584199E3,3.088772E0,5.1690016E0,1.2468107E0,1.9956032E0,1.3038713E1,5.241406E2,9.716214E0,1.0920015E1,2.1850956E1,8.573732E0,6.603995E1,1.1389405E1,1.9650307E1,8.7699814E1,2.0293176E3,4.7817905E1,3.229888E1,5.162646E1,1.1962557E1,5.8622932E0,1.16277954E2,2.4881564E2,1.8195034E1,1.7492144E0,2.0857649E1,1.7236506E1,1.4829099E2,2.819237E1,1.3717643E1,2.2577879E1,2.7078415E1,1.0313416E3],"tree_param":{"num_deleted":"0","num_feature":"12","num_nodes":"63","size_leaf_vector":"0"}},{"base_weights":[3.117682E-1,3.6496413E-1,1.9384906E-1,3.7357008E-1,-4.170261E-1,2.913727E-1,3.7201315E-2,4.4726053E-1,2.741859E-1,-6.5040827E-1,1.4010221E0,-3.3782268E-1,3.2138804E-1,-5.4837626E-1,9.9746004E-2,3.366865E-1,5.548026E-1,1.877102E-1,4.8152587E-1,2.989591E-1,-1.3767993E0,-9.98444E-1,1.2207498E-2,2.2918665E-1,4.852648E-1,-3.0899596E-1,-1.0953443E0,8.4934986E-1,4.460981E-2,3.8927332E-1,-3.8021702E-2,5.3817546E-1,1.2345598E0,6.6266984E-2,3.156096E-1,6.438941E-1,2.2779568E-1,-2.97216E-1,1.2180679E0,-1.6985161E0,-1.370444E-1,7.5574803E-1,-1.4125779E0,-3.1267685E-1,8.967588E-1,6.046218E-1,1.7733334E-1,5.5280465E-1,-4.0626788E-1,-9.555401E-1,1.49298E-1,-1.4490191E0,1.7588933E-1,1.0203241E0,-5.605764E-1,-6.55745E-2,2.6070514E-1],"categories":[],"categories_nodes":[],"categories_segments":[],"categories_sizes":[],"default_left":[1,1,1,1,1,1,1,1,1,1,0,1,1,1,1,1,1,1,1,1,1,1,1,1,1,1,1,1,1,0,0,0,0,0,0,0,0,0,0,0,0,0,0,0,0,0,0,0,0,0,0,0,0,0,0,0,0],"id":6,"left_children":[1,3,5,7,9,11,13,15,17,19,-1,21,23,25,27,29,31,33,35,37,39,41,43,45,47,49,51,53,55,-1,-1,-1,-1,-1,-1,-1,-1,-1,-1,-1,-1,-1,-1,-1,-1,-1,-1,-1,-1,-1,-1,-1,-1,-1,-1,-1,-1],"loss_changes":[2.9069336E1,2.1692108E1,2.2084145E1,2.3062958E1,1.5892189E1,1.693975E1,2.042108E1,2.1411865E1,2.4124176E1,2.2461006E1,0E0,9.508381E0,1.2749451E1,6.7079334E0,2.0762238E1,1.7711319E1,9.725311E0,1.4807529E1,1.6202393E1,8.406593E0,7.063156E0,1.1409016E1,8.278564E0,1.0533556E1,1.8623848E1,1.1647291E1,7.443981E0,8.870604E0,1.1204139E1,0E0,0E0,0E0,0E0,0E0,0E0,0E0,0E0,0E0,0E0,0E0,0E0,0E0,0E0,0E0,0E0,0E0,0E0,0E0,0E0,0E0,0E0,0E0,0E0,0E0,0E0,0E0,0E0],"parents":[2147483647,0,0,1,1,2,2,3,3,4,4,5,5,6,6,7,7,8,8,9,9,11,11,12,12,13,13,14,14,15,15,16,16,17,17,18,18,19,19,20,20,21,21,22,22,23,23,24,24,25,25,26,26,27,27,28,28],"right_children":[2,4,6,8,10,12,14,16,18,20,-1,22,24,26,28,30,32,34,36,38,40,42,44,46,48,50,52,54,56,-1,-1,-1,-1,-1,-1,-1,-1,-1,-1,-1,-1,-1,-1,-1,-1,-1,-1,-1,-1,-1,-1,-1,-1,-1,-1,-1,-1],"split_conditions":[5.9277184E1,2.3131324E-3,1.4193071E-3,3.0637614E-4,9.521972E-3,5.5313157E-4,7.730052E-4,-2.2881338E-3,1.0611208E-3,-1.2940952E-1,7.0051104E-2,2.7461286E-4,2.1810457E-3,2.5376533E-3,8.4529305E-4,1.5561867E-3,2.3447885E-3,2.1155751E-3,1.2940952E-1,3.5985922E-3,1.3756594E-3,-2.0278252E-3,7.69745E1,6.502946E-4,1.1452667E-3,-1.0527928E-4,1.6507606E-3,9.94218E-4,7.288516E1,1.9463666E-2,-1.9010851E-3,2.6908774E-2,6.172799E-2,3.3133493E-3,1.578048E-2,3.2194704E-2,1.1389784E-2,-1.48608005E-2,6.0903396E-2,-8.492581E-2,-6.8522203E-3,3.7787404E-2,-7.06289E-2,-1.5633842E-2,4.483794E-2,3.0231092E-2,8.866667E-3,2.7640233E-2,-2.0313395E-2,-4.777701E-2,7.4649E-3,-7.245096E-2,8.794467E-3,5.1016208E-2,-2.802882E-2,-3.2787248E-3,1.3035257E-2],"split_indices":[5,3,6,4,4,11,11,4,11,7,0,4,4,2,11,3,6,4,8,6,4,4,5,11,3,1,6,3,5,0,0,0,0,0,0,0,0,0,0,0,0,0,0,0,0,0,0,0,0,0,0,0,0,0,0,0,0],"split_type":[0,0,0,0,0,0,0,0,0,0,0,0,0,0,0,0,0,0,0,0,0,0,0,0,0,0,0,0,0,0,0,0,0,0,0,0,0,0,0,0,0,0,0,0,0,0,0,0,0,0,0,0,0,0,0,0,0],"sum_hessian":[4.644458E3,3.1991543E3,1.445304E3,3.1648467E3,3.430745E1,8.902217E2,5.550823E2,1.8153318E3,1.349515E3,3.0973625E1,3.333824E0,4.0066856E1,8.5015485E2,5.28166E1,5.0226566E2,8.9708563E2,9.1824615E2,9.5367096E2,3.9584402E2,1.3681207E1,1.729242E1,1.323522E1,2.6831636E1,5.455901E2,3.0456476E2,3.782669E1,1.4989907E1,3.3425453E1,4.6884018E2,7.86648E2,1.10437614E2,8.980707E2,2.017546E1,4.8996085E2,4.6371008E2,2.4044174E2,1.5540228E2,8.70887E0,4.972337E0,1.3435787E1,3.8566325E0,2.3702796E0,1.0864941E1,2.0096838E1,6.7347975E0,6.491608E1,4.80674E2,2.8346988E2,2.109488E1,1.5240693E1,2.2585999E1,1.1617818E1,3.3720899E0,3.0056938E1,3.3685172E0,3.1097467E2,1.5786552E2],"tree_param":{"num_deleted":"0","num_feature":"12","num_nodes":"57","size_leaf_vector":"0"}},{"base_weights":[2.965248E-1,3.5319886E-1,2.0616706E-1,3.061356E-1,4.5739964E-1,2.2429538E-1,-2.311844E-1,3.2028806E-1,-8.060723E-1,5.9564996E-1,1.3822718E-1,1.9705917E-1,5.769672E-1,-3.623618E-1,1.2699555E0,4.470892E-1,2.3643032E-1,-1.455174E0,-1.962024E-1,-1.9517301E-1,6.210793E-1,-2.6914388E-1,2.9416606E-1,2.690891E-1,7.094277E-2,4.2996615E-2,6.9005394E-1,-1.2111493E0,-1.7169976E-1,1.5175655E0,1.8202138E-1,3.2865223E-1,5.928872E-1,2.80195E-1,-1.0276202E-1,1.5399623E-1,-1.7674018E0,1.1796433E0,-7.160931E-1,5.4645824E-1,-9.439708E-1,5.818598E-1,1.1376073E0,-5.4075664E-1,4.9547493E-1,4.043818E-1,-3.7748975E-1,-5.4888284E-1,2.8946352E-1,2.5642237E-1,-4.6286143E-2,2.78084E-1,-1.4395198E0,-5.2159164E-2,7.683567E-1,-5.062294E-1,-1.6954746E0,8.032866E-2,-9.483325E-1],"categories":[],"categories_nodes":[],"categories_segments":[],"categories_sizes":[],"default_left":[1,1,1,1,1,1,1,1,1,1,1,1,1,1,1,1,1,1,1,1,1,1,1,1,1,1,1,1,1,0,0,0,0,0,0,0,0,0,0,0,0,0,0,0,0,0,0,0,0,0,0,0,0,0,0,0,0,0,0],"id":7,"left_children":[1,3,5,7,9,11,13,15,17,19,21,23,25,27,29,31,33,35,37,39,41,43,45,47,49,51,53,55,57,-1,-1,-1,-1,-1,-1,-1,-1,-1,-1,-1,-1,-1,-1,-1,-1,-1,-1,-1,-1,-1,-1,-1,-1,-1,-1,-1,-1,-1,-1],"loss_changes":[2.3690338E1,1.3838104E1,1.4252213E1,3.1212234E1,3.8960495E1,1.6410408E1,1.4594329E1,2.0549713E1,9.60853E0,1.2530838E1,1.714991E1,1.4501705E1,7.3862953E0,1.060036E1,1.3374414E0,1.31384735E1,1.7417542E1,6.276886E0,1.0888766E1,1.161437E1,1.1454376E1,1.5825722E1,1.4574047E1,1.7108574E1,1.267606E1,8.252586E0,5.926262E0,3.2677708E0,1.097894E1,0E0,0E0,0E0,0E0,0E0,0E0,0E0,0E0,0E0,0E0,0E0,0E0,0E0,0E0,0E0,0E0,0E0,0E0,0E0,0E0,0E0,0E0,0E0,0E0,0E0,0E0,0E0,0E0,0E0,0E0],"parents":[2147483647,0,0,1,1,2,2,3,3,4,4,5,5,6,6,7,7,8,8,9,9,10,10,11,11,12,12,13,13,14,14,15,15,16,16,17,17,18,18,19,19,20,20,21,21,22,22,23,23,24,24,25,25,26,26,27,27,28,28],"right_children":[2,4,6,8,10,12,14,16,18,20,22,24,26,28,30,32,34,36,38,40,42,44,46,48,50,52,54,56,58,-1,-1,-1,-1,-1,-1,-1,-1,-1,-1,-1,-1,-1,-1,-1,-1,-1,-1,-1,-1,-1,-1,-1,-1,-1,-1,-1,-1,-1,-1],"split_conditions":[5.5530342E1,1.0647462E-3,1.753191E-3,1.2378457E-3,1.5228367E-3,1.6906587E-3,8.771097E-3,7.2491524E-4,-4.033519E-4,7.4832037E-4,1.4416842E-3,3.0273636E-4,1.6058262E-3,1.2419547E-3,2.9583038E-3,7.0885144E-4,1.0156427E-3,1.8980429E1,-1.8700252E-4,1.3553236E-3,1.7014013E-3,2.3897626E-3,5.0556274E1,4.515691E-4,1.1357274E-3,2.7054031E-3,-9.829629E-1,6.1823376E1,2.3154663E-3,7.587828E-2,9.1010695E-3,1.6432611E-2,2.964436E-2,1.400975E-2,-5.138101E-3,7.6998114E-3,-8.837009E-2,5.8982164E-2,-3.5804655E-2,2.7322913E-2,-4.719854E-2,2.9092992E-2,5.6880366E-2,-2.7037833E-2,2.4773747E-2,2.0219091E-2,-1.8874487E-2,-2.7444143E-2,1.4473177E-2,1.2821118E-2,-2.3143073E-3,1.3904201E-2,-7.197599E-2,-2.6079582E-3,3.8417835E-2,-2.531147E-2,-8.4773734E-2,4.016433E-3,-4.7416624E-2],"split_indices":[5,11,11,3,3,0,2,3,1,3,11,0,1,3,3,11,11,5,1,6,11,6,5,3,2,0,8,5,3,0,0,0,0,0,0,0,0,0,0,0,0,0,0,0,0,0,0,0,0,0,0,0,0,0,0,0,0,0,0],"split_type":[0,0,0,0,0,0,0,0,0,0,0,0,0,0,0,0,0,0,0,0,0,0,0,0,0,0,0,0,0,0,0,0,0,0,0,0,0,0,0,0,0,0,0,0,0,0,0,0,0,0,0,0,0,0,0,0,0,0,0],"sum_hessian":[4.639395E3,2.8493315E3,1.7900634E3,1.9655222E3,8.8380927E2,1.7192856E3,7.077768E1,1.9415289E3,2.3993307E1,6.160845E2,2.677248E2,1.5974744E3,1.21811356E2,6.578744E1,4.9902387E0,7.711472E2,1.1703817E3,1.0951393E1,1.3041915E1,1.8985403E1,5.970991E2,7.391224E1,1.9381256E2,1.0160406E3,5.814338E2,2.1530294E1,1.0028106E2,1.1085365E1,5.4702072E1,3.7433581E0,1.2468805E0,4.272946E2,3.4385266E2,1.0367834E3,1.3359828E2,1.8619579E0,9.089436E0,3.2286227E0,9.813292E0,9.674106E0,9.311298E0,5.569378E2,4.0161285E1,5.47547E1,1.9157536E1,1.668338E2,2.697876E1,2.406251E1,9.919781E2,2.2471007E2,3.5672366E2,1.9284683E1,2.2456102E0,9.6018E0,9.067926E1,5.34749E0,5.737875E0,4.1976624E1,1.2725448E1],"tree_param":{"num_deleted":"0","num_feature":"12","num_nodes":"59","size_leaf_vector":"0"}},{"base_weights":[2.8043303E-1,3.4110782E-1,1.8380515E-1,3.6658558E-1,9.5501445E-2,2.6439676E-1,4.4769358E-2,3.1401333E-1,5.4632443E-1,-1.3482393E-1,3.359569E-1,-1.9112647E-1,2.943308E-1,7.006357E-2,-1.0550789E0,-3.3718306E-1,3.325473E-1,8.288068E-1,4.6668023E-1,-9.0020806E-1,1.8164381E-1,-1.3435521E0,3.941246E-1,-1.6037707E0,-5.6500533E-3,2.0229332E-1,4.7384554E-1,-4.374867E-1,1.1645019E-1,-1.4402424E0,2.8873408E-1,4.36436E-1,-7.978957E-1,4.332777E-1,2.0323576E-1,5.702185E-1,1.1705482E0,4.1709304E-1,1.030632E0,-2.6300874E-1,-1.7285317E0,7.071213E-1,-1.13417014E-1,-3.9054814E-1,-1.5385579E0,3.233215E-1,1.3461189E0,-3.7068734E-1,-1.7489257E0,-1.426986E-1,1.4668851E0,2.6177806E-1,-2.3753513E-1,4.9895942E-1,-9.884442E-1,1.0387849E0,-6.884224E-1,9.552326E-2,1.2236227E0,-3.0873382E-2,-1.6452533E0,8.7830335E-1,-5.157857E-1],"categories":[],"categories_nodes":[],"categories_segments":[],"categories_sizes":[],"default_left":[1,1,1,1,1,1,1,1,1,1,1,1,1,1,1,1,1,1,1,1,1,1,1,1,1,1,1,1,1,1,1,0,0,0,0,0,0,0,0,0,0,0,0,0,0,0,0,0,0,0,0,0,0,0,0,0,0,0,0,0,0,0,0],"id":8,"left_children":[1,3,5,7,9,11,13,15,17,19,21,23,25,27,29,31,33,35,37,39,41,43,45,47,49,51,53,55,57,59,61,-1,-1,-1,-1,-1,-1,-1,-1,-1,-1,-1,-1,-1,-1,-1,-1,-1,-1,-1,-1,-1,-1,-1,-1,-1,-1,-1,-1,-1,-1,-1,-1],"loss_changes":[2.6922668E1,1.7650055E1,1.990575E1,2.4020813E1,1.483106E1,1.5397377E1,1.8253262E1,2.4047974E1,1.2617844E1,3.3365116E1,1.3317618E1,1.8326586E1,1.7353043E1,1.5112105E1,8.0517235E0,2.0086327E1,2.5036041E1,1.0453117E1,1.2243561E1,2.079749E1,1.5245047E1,2.555933E-1,8.144779E0,8.0477524E-1,1.2895394E1,1.8373627E1,1.3610847E1,2.0637846E1,1.3482239E1,3.3104954E0,2.40697E0,0E0,0E0,0E0,0E0,0E0,0E0,0E0,0E0,0E0,0E0,0E0,0E0,0E0,0E0,0E0,0E0,0E0,0E0,0E0,0E0,0E0,0E0,0E0,0E0,0E0,0E0,0E0,0E0,0E0,0E0,0E0,0E0],"parents":[2147483647,0,0,1,1,2,2,3,3,4,4,5,5,6,6,7,7,8,8,9,9,10,10,11,11,12,12,13,13,14,14,15,15,16,16,17,17,18,18,19,19,20,20,21,21,22,22,23,23,24,24,25,25,26,26,27,27,28,28,29,29,30,30],"right_children":[2,4,6,8,10,12,14,16,18,20,22,24,26,28,30,32,34,36,38,40,42,44,46,48,50,52,54,56,58,60,62,-1,-1,-1,-1,-1,-1,-1,-1,-1,-1,-1,-1,-1,-1,-1,-1,-1,-1,-1,-1,-1,-1,-1,-1,-1,-1,-1,-1,-1,-1,-1,-1],"split_conditions":[5.5530342E1,1.5228367E-3,1.4417586E-3,1.0759712E-3,-1.8622885E-3,5.011556E-4,9.211939E-3,-6.197448E-3,-2.1694186E-1,1.5664266E-3,1.5306335E-3,-2.2759894E-3,2.1311282E-3,7.721528E-4,7.771211E1,7.274515E-4,3.1003403E-4,4.496324E1,1.7016063E-3,1.2940952E-1,1.8807463E-3,6.476534E-4,2.0181516E-3,-2.3726077E-4,1.1538863E-3,1.3849946E-3,1.5029612E-3,-2.1694186E-1,8.421488E-3,-2.1694186E-1,8.308452E1,2.18218E-2,-3.9894786E-2,2.1663886E-2,1.0161788E-2,2.8510926E-2,5.852741E-2,2.0854652E-2,5.15316E-2,-1.3150438E-2,-8.6426586E-2,3.5356067E-2,-5.6708506E-3,-1.9527407E-2,-7.692789E-2,1.6166074E-2,6.7305945E-2,-1.8534368E-2,-8.744629E-2,-7.13493E-3,7.334425E-2,1.3088903E-2,-1.1876757E-2,2.4947971E-2,-4.9422212E-2,5.1939245E-2,-3.442112E-2,4.776163E-3,6.1181135E-2,-1.5436691E-3,-8.2262665E-2,4.3915167E-2,-2.5789285E-2],"split_indices":[5,3,6,11,4,3,4,4,9,11,3,4,4,11,5,3,4,5,11,8,3,4,11,0,11,4,11,9,4,9,5,0,0,0,0,0,0,0,0,0,0,0,0,0,0,0,0,0,0,0,0,0,0,0,0,0,0,0,0,0,0,0,0],"split_type":[0,0,0,0,0,0,0,0,0,0,0,0,0,0,0,0,0,0,0,0,0,0,0,0,0,0,0,0,0,0,0,0,0,0,0,0,0,0,0,0,0,0,0,0,0,0,0,0,0,0,0,0,0,0,0,0,0,0,0,0,0,0,0],"sum_hessian":[4.601754E3,2.825211E3,1.776543E3,2.5592378E3,2.6597302E2,1.1240751E3,6.524679E2,1.982205E3,5.7703284E2,1.3607243E2,1.2990057E2,6.898013E1,1.055095E3,6.387151E2,1.3752814E1,5.4379356E1,1.9278256E3,1.2484078E2,4.5219208E2,3.9264893E1,9.680754E1,3.6086304E0,1.2629195E2,7.1182947E0,6.186184E1,6.9889655E2,3.5619843E2,5.2779903E1,5.859352E2,1.0633331E1,3.119483E0,2.031669E1,3.4062664E1,1.0823512E3,8.454745E2,7.258549E1,5.22553E1,4.1724417E2,3.4947887E1,2.2937458E1,1.6327433E1,3.4309246E1,6.249829E1,1.1230371E0,2.4855933E0,1.1879628E2,7.4956646E0,1.12397E0,5.9943247E0,5.742079E1,4.441048E0,6.159914E2,8.290513E1,3.508319E2,5.366525E0,7.211938E0,4.5567966E1,5.7613184E2,9.803328E0,1.4964466E0,9.136885E0,1.7473074E0,1.3721755E0],"tree_param":{"num_deleted":"0","num_feature":"12","num_nodes":"63","size_leaf_vector":"0"}},{"base_weights":[2.7136818E-1,3.2296482E-1,1.8891744E-1,3.8162667E-1,2.3992E-1,-6.414381E-1,1.9739488E-1,4.211711E-1,-4.0416084E-3,1.5953706E-1,4.3234113E-1,2.23968E-1,-1.6304221E0,1.9112669E-1,1.196339E0,3.7367907E-1,6.207386E-1,-3.9725652E-1,4.9714518E-1,1.9122277E-1,-4.669514E-1,-7.1288526E-1,4.7795475E-1,7.913824E-1,-8.1078637E-1,-1.7545718E0,-4.1978908E-1,2.0168003E-1,-8.780149E-1,1.4327012E0,-4.5005304E-1,4.1899346E-2,4.3841216E-1,8.778458E-1,4.2633548E-1,-6.835528E-1,2.0158216E-1,6.348073E-1,-1.1296585E0,2.1656656E-1,-3.601092E-1,2.793534E-1,-1.0894523E0,-1.1544653E0,7.779803E-1,7.135094E-1,2.8056023E-1,1.1684124E0,-2.6727265E-1,2.2476785E-1,-1.3170912E0,-3.3592016E-1,2.1252084E-1,-1.137123E0,-1.5841529E-1,1.6035967E0,1.5060362E-1],"categories":[],"categories_nodes":[],"categories_segments":[],"categories_sizes":[],"default_left":[1,1,1,1,1,1,1,1,1,1,1,1,1,1,1,1,1,1,1,1,1,1,1,1,1,0,0,1,1,1,0,0,0,0,0,0,0,0,0,0,0,0,0,0,0,0,0,0,0,0,0,0,0,0,0,0,0],"id":9,"left_children":[1,3,5,7,9,11,13,15,17,19,21,23,25,27,29,31,33,35,37,39,41,43,45,47,49,-1,-1,51,53,55,-1,-1,-1,-1,-1,-1,-1,-1,-1,-1,-1,-1,-1,-1,-1,-1,-1,-1,-1,-1,-1,-1,-1,-1,-1,-1,-1],"loss_changes":[1.9532745E1,1.3702454E1,1.262299E1,2.5283081E1,1.8102966E1,1.5921695E1,1.0779556E1,1.4018311E1,3.0774256E1,1.6570648E1,1.8393723E1,6.849398E0,5.5651283E-1,1.9903027E1,4.8368797E0,2.6119705E1,1.399617E1,1.5138859E1,1.6092562E1,1.1130556E1,1.9008604E1,9.877081E0,1.5281204E1,3.2398386E0,2.5182605E0,0E0,0E0,1.0165581E1,3.0408955E0,1.8748722E0,0E0,0E0,0E0,0E0,0E0,0E0,0E0,0E0,0E0,0E0,0E0,0E0,0E0,0E0,0E0,0E0,0E0,0E0,0E0,0E0,0E0,0E0,0E0,0E0,0E0,0E0,0E0],"parents":[2147483647,0,0,1,1,2,2,3,3,4,4,5,5,6,6,7,7,8,8,9,9,10,10,11,11,12,12,13,13,14,14,15,15,16,16,17,17,18,18,19,19,20,20,21,21,22,22,23,23,24,24,27,27,28,28,29,29],"right_children":[2,4,6,8,10,12,14,16,18,20,22,24,26,28,30,32,34,36,38,40,42,44,46,48,50,-1,-1,52,54,56,-1,-1,-1,-1,-1,-1,-1,-1,-1,-1,-1,-1,-1,-1,-1,-1,-1,-1,-1,-1,-1,-1,-1,-1,-1,-1,-1],"split_conditions":[5.5530342E1,3.0637614E-4,-9.370063E-3,1.555484E-3,1.0686419E-3,-1.2940952E-1,9.284755E1,1.1375982E-3,2.4569486E-3,1.1438933E-3,8.0244837E-4,-1.3873953E-1,1.8081118E-3,8.9280624E1,1.0011997E-3,-4.272403E-3,-5.6174487E-1,1.7385704E-3,3.4634972E-3,1.3838902E-3,-5.6174487E-1,1.1840279E-3,1.2770715E-3,1.8798319E-3,-2.9653218E-4,-8.772859E-2,-2.0989453E-2,5.3621765E-4,5.0366223E-3,1.0194415E-3,-2.2502651E-2,2.0949673E-3,2.1920608E-2,4.389229E-2,2.1316774E-2,-3.4177642E-2,1.0079108E-2,3.1740364E-2,-5.6482922E-2,1.0828328E-2,-1.800546E-2,1.39676705E-2,-5.4472614E-2,-5.7723265E-2,3.8899016E-2,3.567547E-2,1.4028012E-2,5.8420625E-2,-1.3363632E-2,1.1238392E-2,-6.5854564E-2,-1.6796008E-2,1.0626042E-2,-5.685615E-2,-7.920764E-3,8.017983E-2,7.530181E-3],"split_indices":[5,4,4,3,11,8,5,11,6,3,3,10,1,5,3,4,10,11,2,1,10,11,3,6,0,0,0,11,2,0,0,0,0,0,0,0,0,0,0,0,0,0,0,0,0,0,0,0,0,0,0,0,0,0,0,0,0],"split_type":[0,0,0,0,0,0,0,0,0,0,0,0,0,0,0,0,0,0,0,0,0,0,0,0,0,0,0,0,0,0,0,0,0,0,0,0,0,0,0,0,0,0,0,0,0,0,0,0,0,0,0,0,0,0,0,0,0],"sum_hessian":[4.6047734E3,2.8305398E3,1.7742338E3,1.6566835E3,1.1738563E3,1.717622E1,1.7570575E3,1.5025298E3,1.5415361E2,8.292645E2,3.4459186E2,9.572971E0,7.6032495E0,1.7472849E3,9.772567E0,1.2160203E3,2.8650952E2,8.649769E1,6.765592E1,7.9000354E2,3.9260986E1,1.2638813E1,3.3195303E2,6.3345675E0,3.2384038E0,6.4885516E0,1.1146982E0,1.7310098E3,1.6275208E1,8.659211E0,1.1133554E0,1.9879152E2,1.0172288E3,1.21846405E2,1.6466313E2,5.842437E1,2.8073324E1,6.293967E1,4.716251E0,7.5586487E2,3.4138626E1,1.810567E1,2.1155315E1,9.924818E0,2.7139952E0,1.5015526E2,1.8179779E2,4.594576E0,1.7399914E0,1.246E0,1.9924037E0,3.3623413E1,1.6973864E3,1.1539819E1,4.7353888E0,7.4194813E0,1.2397299E0],"tree_param":{"num_deleted":"0","num_feature":"12","num_nodes":"57","size_leaf_vector":"0"}},{"base_weights":[2.4950467E-1,2.8616202E-1,1.4402375E-1,4.256196E-1,2.5119933E-1,2.1200664E-1,-3.323619E-2,-8.804888E-1,4.541738E-1,6.2881356E-1,2.3290713E-1,1.03352E-1,3.8906643E-1,1.6311054E-1,-2.847535E-1,-1.24425E0,-3.6160713E-1,4.8676616E-1,-2.6246747E-1,-1.144431E0,6.866448E-1,2.1381485E-1,5.1039696E-1,-6.697096E-1,1.3689065E-1,4.123854E-1,-1.2432418E0,2.8206506E-1,-7.474371E-1,-1.4313947E-1,-9.0510076E-1,-2.6113296E-1,-1.358343E0,3.726292E-1,-1.0744817E0,3.8896394E-1,6.7135316E-1,-6.7005E-1,1.1044081E0,-1.3328034E0,-3.1631187E-1,8.410475E-1,6.938906E-2,2.2941542E-1,-1.6611879E-1,4.0498865E-1,8.888472E-1,7.5940084E-1,-8.763753E-1,5.703582E-1,7.7642746E-2,6.0102004E-1,3.2178304E-1,-3.0153632E-1,-1.4424931E0,1.3663658E0,2.0394367E-1,4.3032968E-1,-1.0454764E0,-4.1128406E-1,2.9589447E-1,-1.066126E0,9.045536E-1],"categories":[],"categories_nodes":[],"categories_segments":[],"categories_sizes":[],"default_left":[1,1,1,1,1,1,1,1,1,1,1,1,1,1,1,1,1,1,1,1,1,1,1,1,1,1,1,1,1,1,1,0,0,0,0,0,0,0,0,0,0,0,0,0,0,0,0,0,0,0,0,0,0,0,0,0,0,0,0,0,0,0,0],"id":10,"left_children":[1,3,5,7,9,11,13,15,17,19,21,23,25,27,29,31,33,35,37,39,41,43,45,47,49,51,53,55,57,59,61,-1,-1,-1,-1,-1,-1,-1,-1,-1,-1,-1,-1,-1,-1,-1,-1,-1,-1,-1,-1,-1,-1,-1,-1,-1,-1,-1,-1,-1,-1,-1,-1],"loss_changes":[1.7799927E1,1.6583618E1,1.4371296E1,2.5936714E1,1.8775665E1,1.653746E1,1.6407164E1,2.3793383E0,1.5794235E1,1.3705067E1,1.3741821E1,1.3972294E1,1.2972286E1,2.0431599E1,1.2661814E1,5.877485E-1,4.3717155E0,1.1327286E1,1.7357311E1,2.5760174E-1,1.162875E1,1.4546867E1,6.325115E0,7.290266E0,1.3154582E1,5.3350334E0,4.76851E-1,1.3769342E1,8.117899E0,1.4217024E1,8.795301E0,0E0,0E0,0E0,0E0,0E0,0E0,0E0,0E0,0E0,0E0,0E0,0E0,0E0,0E0,0E0,0E0,0E0,0E0,0E0,0E0,0E0,0E0,0E0,0E0,0E0,0E0,0E0,0E0,0E0,0E0,0E0,0E0],"parents":[2147483647,0,0,1,1,2,2,3,3,4,4,5,5,6,6,7,7,8,8,9,9,10,10,11,11,12,12,13,13,14,14,15,15,16,16,17,17,18,18,19,19,20,20,21,21,22,22,23,23,24,24,25,25,26,26,27,27,28,28,29,29,30,30],"right_children":[2,4,6,8,10,12,14,16,18,20,22,24,26,28,30,32,34,36,38,40,42,44,46,48,50,52,54,56,58,60,62,-1,-1,-1,-1,-1,-1,-1,-1,-1,-1,-1,-1,-1,-1,-1,-1,-1,-1,-1,-1,-1,-1,-1,-1,-1,-1,-1,-1,-1,-1,-1,-1],"split_conditions":[6.208654E1,-2.1694186E-1,1.5679165E-3,5.3885055E-4,5.751232E-4,2.1272595E-3,1.9983244E-3,-2.8288027E-4,2.5675069E-3,4.1520063E-4,1.8084757E-3,5.542778E-4,1.6495916E-3,8.117449E-1,1.5929419E-3,4.7956302E-4,-6.1232336E-17,1.0573871E-3,4.2203087E-3,-3.7543676E-4,7.865661E-1,5.7667643E-3,2.9898994E-3,-4.2466004E-4,6.550572E-4,6.771037E1,1.892934E-4,-1.2671025E-3,-7.377248E-5,4.499262E-3,2.767065E-3,-1.3056648E-2,-6.791715E-2,1.863146E-2,-5.3724088E-2,1.9448197E-2,3.356766E-2,-3.35025E-2,5.5220407E-2,-6.664017E-2,-1.5815593E-2,4.2052377E-2,3.469453E-3,1.1470771E-2,-8.30594E-3,2.0249432E-2,4.444236E-2,3.7970044E-2,-4.3818768E-2,2.8517911E-2,3.8821374E-3,3.0051002E-2,1.6089153E-2,-1.5076816E-2,-7.212465E-2,6.831829E-2,1.0197184E-2,2.1516485E-2,-5.227382E-2,-2.0564204E-2,1.4794724E-2,-5.33063E-2,4.522768E-2],"split_indices":[5,9,6,11,11,4,4,2,6,11,1,11,11,10,11,11,8,11,4,2,8,4,4,1,11,5,1,1,2,4,11,0,0,0,0,0,0,0,0,0,0,0,0,0,0,0,0,0,0,0,0,0,0,0,0,0,0,0,0,0,0,0,0],"split_type":[0,0,0,0,0,0,0,0,0,0,0,0,0,0,0,0,0,0,0,0,0,0,0,0,0,0,0,0,0,0,0,0,0,0,0,0,0,0,0,0,0,0,0,0,0,0,0,0,0,0,0,0,0,0,0,0,0,0,0,0,0,0,0],"sum_hessian":[4.613117E3,3.4221272E3,1.1909902E3,6.837281E2,2.738399E3,8.6069836E2,3.302919E2,1.39895735E1,6.697385E2,1.249812E2,2.6134177E3,5.343639E2,3.2633447E2,1.8568701E2,1.4460487E2,7.4022746E0,6.587299E0,6.409111E2,2.8827436E1,3.353887E0,1.2162731E2,2.4468374E3,1.6658046E2,2.1430286E1,5.1293365E2,3.22475E2,3.859486E0,1.6484215E2,2.0844858E1,1.1873139E2,2.5873484E1,1.1117047E0,6.29057E0,3.48015E0,3.1071486E0,4.2097006E2,2.1994102E2,2.2598642E1,6.228794E0,2.2358613E0,1.1180258E0,9.700065E1,2.4626667E1,2.3507104E3,9.6127E1,1.3191014E2,3.467032E1,2.3696213E0,1.9060663E1,6.0641758E1,4.5229187E2,1.0280366E2,2.1967133E2,1.1129216E0,2.7465644E0,9.97009E0,1.5487206E2,4.119984E0,1.6724874E1,7.3750626E1,4.4980766E1,2.4136642E1,1.73684E0],"tree_param":{"num_deleted":"0","num_feature":"12","num_nodes":"63","size_leaf_vector":"0"}},{"base_weights":[2.427993E-1,3.6641386E-1,2.1230842E-1,-1.1257676E0,3.96079E-1,5.9076965E-2,2.4938291E-1,-3.9189586E-1,-1.4745113E0,4.340216E-1,-1.7070118E-1,7.4995816E-1,-4.51448E-4,6.1511513E-2,2.783918E-1,-9.658772E-1,8.9348537E-1,5.8614206E-1,2.799061E-1,-4.2956552E-1,8.431165E-1,9.589555E-1,3.5463452E-1,-1.168245E0,2.6326379E-2,3.2250467E-1,-1.259467E-1,3.35213E-1,1.943858E-1,-1.4022214E0,2.8404224E-1,8.513654E-1,5.045596E-1,6.811306E-1,1.833602E-1,-6.0290635E-1,1.2591257E0,-7.760818E-1,1.1716372E0,1.2780716E0,5.3910893E-1,-2.9451624E-1,9.122837E-1,-1.3805614E0,5.6627625E-1,6.9362946E-2,-5.250389E-1,2.2301334E-1,9.165934E-1,-8.260942E-1,-5.1404316E-2,3.4155062E-1,-8.5680723E-1,-1.8326876E-1,2.8224546E-1],"categories":[],"categories_nodes":[],"categories_segments":[],"categories_sizes":[],"default_left":[1,1,1,1,1,1,1,1,0,1,1,1,1,1,1,1,0,1,1,1,1,1,1,1,1,1,1,1,1,0,0,0,0,0,0,0,0,0,0,0,0,0,0,0,0,0,0,0,0,0,0,0,0,0,0],"id":11,"left_children":[1,3,5,7,9,11,13,15,-1,17,19,21,23,25,27,29,-1,31,33,35,37,39,41,43,45,47,49,51,53,-1,-1,-1,-1,-1,-1,-1,-1,-1,-1,-1,-1,-1,-1,-1,-1,-1,-1,-1,-1,-1,-1,-1,-1,-1,-1],"loss_changes":[1.7329803E1,4.083497E1,2.1044998E1,4.0407104E0,1.9329254E1,2.9755852E1,1.624855E1,6.156717E0,0E0,1.95168E1,1.5294301E1,4.401951E0,2.089186E1,1.9634426E1,1.2274216E1,3.3656387E0,0E0,8.691971E0,1.6102612E1,1.4220293E1,7.244916E0,4.262665E0,8.028497E0,6.2969894E0,1.5534491E1,9.707073E0,1.2159498E1,1.1931671E1,3.4739048E1,0E0,0E0,0E0,0E0,0E0,0E0,0E0,0E0,0E0,0E0,0E0,0E0,0E0,0E0,0E0,0E0,0E0,0E0,0E0,0E0,0E0,0E0,0E0,0E0,0E0,0E0],"parents":[2147483647,0,0,1,1,2,2,3,3,4,4,5,5,6,6,7,7,9,9,10,10,11,11,12,12,13,13,14,14,15,15,17,17,18,18,19,19,20,20,21,21,22,22,23,23,24,24,25,25,26,26,27,27,28,28],"right_children":[2,4,6,8,10,12,14,16,-1,18,20,22,24,26,28,30,-1,32,34,36,38,40,42,44,46,48,50,52,54,-1,-1,-1,-1,-1,-1,-1,-1,-1,-1,-1,-1,-1,-1,-1,-1,-1,-1,-1,-1,-1,-1,-1,-1,-1,-1],"split_conditions":[-2.1694186E-1,5.3263933E-4,-7.865661E-1,-1.8534557E-3,2.3051251E-3,-5.5849217E-3,-3.7295613E-3,-2.6339227E-3,-7.3725566E-2,6.6320325E-5,4.2203087E-3,6.078576E-1,-4.9731266E-3,1.2940952E-1,1.3864692E-3,1.1346377E-3,4.467427E-2,-2.6225124E-3,-7.865661E-1,3.992117E-3,-2.4493637E-3,3.2424388E-4,-6.5488257E-3,1.7472253E-3,4.208021E-3,1.7490445E-3,7.754953E-4,1.9323858E-3,2.0820051E-3,-7.011107E-2,1.4202112E-2,4.256827E-2,2.5227979E-2,3.405653E-2,9.16801E-3,-3.0145317E-2,6.295629E-2,-3.880409E-2,5.858186E-2,6.3903585E-2,2.6955446E-2,-1.4725812E-2,4.5614187E-2,-6.902807E-2,2.8313814E-2,3.4681472E-3,-2.6251946E-2,1.1150667E-2,4.582967E-2,-4.130471E-2,-2.5702158E-3,1.7077532E-2,-4.284036E-2,-9.163438E-3,1.4112273E-2],"split_indices":[9,11,7,4,6,4,4,4,0,2,4,9,4,7,4,6,0,4,7,6,1,1,4,11,2,11,11,11,4,0,0,0,0,0,0,0,0,0,0,0,0,0,0,0,0,0,0,0,0,0,0,0,0,0,0],"split_type":[0,0,0,0,0,0,0,0,0,0,0,0,0,0,0,0,0,0,0,0,0,0,0,0,0,0,0,0,0,0,0,0,0,0,0,0,0,0,0,0,0,0,0,0,0,0,0,0,0,0,0,0,0,0,0],"sum_hessian":[4.617482E3,9.114226E2,3.7060593E3,1.704598E1,8.9437665E2,7.225021E2,2.9835571E3,6.1751537E0,1.0870827E1,8.384796E2,5.5897022E1,5.6394497E1,6.661076E2,3.9948407E2,2.584073E3,4.440732E0,1.7344218E0,4.2056018E2,4.179194E2,4.4986603E1,1.0910419E1,3.595845E1,2.0436047E1,1.3976099E1,6.521315E2,1.6668813E2,2.3279593E2,1.5396633E3,1.0444097E3,3.2013116E0,1.2394205E0,9.671281E1,3.2384738E2,7.9883865E1,3.3803555E2,4.1381817E1,3.6047876E0,1.6104672E0,9.2999525E0,1.9268639E1,1.668981E1,9.661318E0,1.0774729E1,1.26337185E1,1.3423804E0,6.05726E2,4.640547E1,1.4395546E2,2.2732664E1,2.1430006E1,2.1136592E2,1.5322305E3,7.4329424E0,1.969136E2,8.474961E2],"tree_param":{"num_deleted":"0","num_feature":"12","num_nodes":"55","size_leaf_vector":"0"}},{"base_weights":[2.268518E-1,3.6199987E-1,1.935781E-1,-1.0264771E0,3.9047372E-1,1.994526E-1,-5.5662614E-1,-4.2872775E-1,-1.3055966E0,4.4464654E-1,4.435777E-2,6.752117E-2,2.3169017E-1,3.76877E-1,-1.6656227E0,-1.008359E0,1.1238304E0,-1.547504E0,-8.047985E-1,3.3615336E-1,7.395256E-1,9.5603514E-1,-1.0684084E-1,7.216751E-1,1.0971089E-2,4.7721367E-2,2.5962326E-1,-1.3872824E0,7.4994975E-1,-4.3452847E-1,-1.7667432E0,-1.4146433E0,2.9365292E-1,3.710997E-1,-1.4069825E0,4.5470294E-1,-1.2611784E-1,9.389166E-1,3.0553728E-1,-5.034851E-1,1.085062E0,-2.3522608E-1,5.7995087E-1,5.875189E-1,1.5241934E0,-1.1695311E0,3.7004575E-2,3.0050144E-1,-1.4362854E-1,2.5624466E-1,1.4820025E0,1.1156878E0,-1.2333658E0],"categories":[],"categories_nodes":[],"categories_segments":[],"categories_sizes":[],"default_left":[1,1,1,1,1,1,1,1,1,1,1,1,1,1,1,1,0,0,1,1,1,1,1,1,1,1,1,0,1,0,0,0,0,0,0,0,0,0,0,0,0,0,0,0,0,0,0,0,0,0,0,0,0],"id":12,"left_children":[1,3,5,7,9,11,13,15,17,19,21,23,25,27,29,31,-1,-1,33,35,37,39,41,43,45,47,49,-1,51,-1,-1,-1,-1,-1,-1,-1,-1,-1,-1,-1,-1,-1,-1,-1,-1,-1,-1,-1,-1,-1,-1,-1,-1],"loss_changes":[2.0668518E1,3.6376442E1,1.6429626E1,2.5371056E0,1.6712845E1,1.561377E1,3.0684792E1,7.7901225E0,2.2821426E-1,2.4434082E1,1.6903065E1,2.6738443E1,1.5161301E1,1.1952395E1,9.0717316E-1,3.5435395E0,0E0,0E0,4.8030586E0,3.106651E1,1.7597694E1,3.830368E0,9.433859E0,5.296711E0,2.0526772E1,1.8929512E1,1.0206421E1,0E0,1.1773965E1,0E0,0E0,0E0,0E0,0E0,0E0,0E0,0E0,0E0,0E0,0E0,0E0,0E0,0E0,0E0,0E0,0E0,0E0,0E0,0E0,0E0,0E0,0E0,0E0],"parents":[2147483647,0,0,1,1,2,2,3,3,4,4,5,5,6,6,7,7,8,8,9,9,10,10,11,11,12,12,13,13,14,14,15,15,18,18,19,19,20,20,21,21,22,22,23,23,24,24,25,25,26,26,28,28],"right_children":[2,4,6,8,10,12,14,16,18,20,22,24,26,28,30,32,-1,-1,34,36,38,40,42,44,46,48,50,-1,52,-1,-1,-1,-1,-1,-1,-1,-1,-1,-1,-1,-1,-1,-1,-1,-1,-1,-1,-1,-1,-1,-1,-1,-1],"split_conditions":[-2.1694186E-1,5.3263933E-4,8.9994725E-3,-1.8534557E-3,1.3979203E-3,-7.865661E-1,1.2940952E-1,-2.6339227E-3,4.988704E-4,1.0573606E-3,1.2444684E-3,-5.5849217E-3,-3.850035E-3,1.4800546E-3,-9.159756E-1,5.178377E-4,5.6191523E-2,-7.7375196E-2,5.435315E-4,9.5631613E-4,5.934011E1,1.4065034E-3,2.6920156E-3,1.872605E-3,-4.9769282E-3,1.2940952E-1,9.28288E1,-6.936412E-2,2.5428985E-3,-2.1726424E-2,-8.833716E-2,-7.073217E-2,1.4682646E-2,1.8554986E-2,-7.034913E-2,2.2735147E-2,-6.305892E-3,4.6945833E-2,1.5276864E-2,-2.5174255E-2,5.42531E-2,-1.1761304E-2,2.8997544E-2,2.9375944E-2,7.620967E-2,-5.8476556E-2,1.8502288E-3,1.5025072E-2,-7.181427E-3,1.28122335E-2,7.410013E-2,5.5784393E-2,-6.1668288E-2],"split_indices":[9,11,4,4,3,7,8,4,11,11,6,4,4,6,7,11,0,0,3,11,5,3,11,11,4,7,5,0,6,0,0,0,0,0,0,0,0,0,0,0,0,0,0,0,0,0,0,0,0,0,0,0,0],"split_type":[0,0,0,0,0,0,0,0,0,0,0,0,0,0,0,0,0,0,0,0,0,0,0,0,0,0,0,0,0,0,0,0,0,0,0,0,0,0,0,0,0,0,0,0,0,0,0,0,0,0,0,0,0],"sum_hessian":[4.610779E3,9.08962E2,3.701817E3,1.7561409E1,8.914006E2,3.6737832E3,2.8033571E1,6.397282E0,1.1164125E1,7.7051733E2,1.2088327E2,7.2202203E2,2.9517612E3,1.5579564E1,1.2454008E1,4.913425E0,1.4838575E0,6.118532E0,5.0455937E0,5.648392E2,2.0567813E2,1.6438932E1,1.04444336E2,5.6514782E1,6.6550726E2,3.8946048E2,2.5623008E3,2.2450073E0,1.3334558E1,1.347383E0,1.1106625E1,3.6789324E0,1.2344923E0,1.8387564E0,3.2068372E0,4.4956458E2,1.1527462E2,1.4013242E2,6.554571E1,1.0994995E0,1.5339433E1,8.854896E1,1.5895378E1,4.9904404E1,6.6103764E0,1.3411932E1,6.5209534E2,1.6755023E2,2.2191026E2,2.5564446E3,5.856222E0,1.1627773E1,1.7067841E0],"tree_param":{"num_deleted":"0","num_feature":"12","num_nodes":"53","size_leaf_vector":"0"}},{"base_weights":[2.2169772E-1,2.2836441E-1,-3.92835E-1,2.2349164E-1,1.3061998E0,-5.766282E-1,1.165697E0,2.6163587E-1,1.2333192E-1,1.4499604E0,3.120596E-1,-7.8270435E-1,1.1738186E0,1.4131646E0,1.6662851E-1,4.0532684E-1,2.2572303E-1,1.6411403E-1,-2.1672724E-1,4.443225E-1,1.6455336E0,1.0657719E0,-6.092709E-1,-9.47737E-1,1.2410764E0,-8.109683E-1,4.3049392E-1,6.0144067E-1,2.0832941E-1,1.1177726E-1,5.02335E-1,-3.326429E-1,4.5247844E-1,-6.466255E-1,1.1904051E0,6.6307145E-1,-1.1851315E0],"categories":[],"categories_nodes":[],"categories_segments":[],"categories_sizes":[],"default_left":[1,1,1,1,1,1,1,1,1,1,1,1,0,0,0,1,1,1,1,1,0,0,0,1,0,0,0,0,0,0,0,0,0,0,0,0,0],"id":13,"left_children":[1,3,5,7,9,11,13,15,17,19,21,23,-1,-1,-1,25,27,29,31,33,-1,-1,-1,35,-1,-1,-1,-1,-1,-1,-1,-1,-1,-1,-1,-1,-1],"loss_changes":[1.8974579E1,2.366121E1,1.4947923E1,1.7318253E1,2.4515266E0,1.7241234E1,1.1461244E0,1.6875702E1,1.743215E1,2.7063408E0,3.316846E0,1.489753E1,0E0,0E0,0E0,2.0435715E1,1.7080246E1,1.9780952E1,1.0603928E1,4.200932E0,0E0,0E0,0E0,1.5528179E1,0E0,0E0,0E0,0E0,0E0,0E0,0E0,0E0,0E0,0E0,0E0,0E0,0E0],"parents":[2147483647,0,0,1,1,2,2,3,3,4,4,5,5,6,6,7,7,8,8,9,9,10,10,11,11,15,15,16,16,17,17,18,18,19,19,23,23],"right_children":[2,4,6,8,10,12,14,16,18,20,22,24,-1,-1,-1,26,28,30,32,34,-1,-1,-1,36,-1,-1,-1,-1,-1,-1,-1,-1,-1,-1,-1,-1,-1],"split_conditions":[2.3154663E-3,2.2346098E-3,8.595407E-3,6.1002735E1,2.2955635E-3,9.655575E-3,2.7198875E-3,-2.1694186E-1,1.9155266E-3,-6.0301954E-3,2.3012266E-4,4.947873E-3,5.869093E-2,7.065823E-2,8.3314255E-3,5.352241E-4,5.7412987E-4,4.75537E-3,9.159756E-1,3.7940952E-1,8.227668E-2,5.3288598E-2,-3.0463545E-2,1.8049779E-3,6.205382E-2,-4.0548414E-2,2.1524696E-2,3.0072033E-2,1.04164705E-2,5.588863E-3,2.5116751E-2,-1.6632145E-2,2.2623923E-2,-3.2331277E-2,5.9520256E-2,3.3153575E-2,-5.925658E-2],"split_indices":[3,3,2,5,3,4,6,9,6,4,0,6,0,0,0,11,11,4,8,8,0,0,0,11,0,0,0,0,0,0,0,0,0,0,0,0,0],"split_type":[0,0,0,0,0,0,0,0,0,0,0,0,0,0,0,0,0,0,0,0,0,0,0,0,0,0,0,0,0,0,0,0,0,0,0,0,0],"sum_hessian":[4.6085605E3,4.5597236E3,4.8837208E1,4.5404043E3,1.9319298E1,4.424906E1,4.588147E0,3.2869932E3,1.2534108E3,1.6477947E1,2.8413491E0,4.008303E1,4.166029E0,3.345091E0,1.2430558E0,6.5519666E2,2.6317966E3,1.1196522E3,1.3375856E2,3.21554E0,1.3262408E1,1.4766072E0,1.3647419E0,3.7552452E1,2.5305786E0,1.2649275E1,6.4254736E2,1.1496086E2,2.5168357E3,9.7076526E2,1.4888701E2,1.1443907E2,1.9319498E1,1.3600837E0,1.8554561E0,4.59315E0,3.29593E1],"tree_param":{"num_deleted":"0","num_feature":"12","num_nodes":"37","size_leaf_vector":"0"}},{"base_weights":[2.0921676E-1,2.8630975E-1,1.6389802E-1,6.2741137E-1,2.675256E-1,2.2578189E-1,7.428656E-2,-8.5118316E-2,7.7447146E-1,4.196056E-1,2.301907E-1,1.7555076E-1,3.749183E-1,3.3983503E-2,3.3809692E-1,-7.2595334E-1,4.578117E-1,1.2879199E0,5.220508E-1,-7.296587E-1,4.5304477E-1,2.4792583E-1,-2.3247732E-1,-1.1401465E-1,2.020741E-1,3.0253243E-1,8.1512755E-1,2.2916754E-1,-1.2565678E-2,-1.0533358E-1,4.791333E-1,-1.1119157E0,4.6446303E-1,1.0431225E0,-1.0459918E0,1.0788155E-1,1.3842446E0,-4.2571563E-1,6.972299E-1,2.6929215E-1,-1.1993707E0,4.744741E-1,-7.9813826E-1,9.17706E-2,2.84598E-1,-4.8191696E-1,1.3671564E0,-3.109194E-1,6.4364153E-1,4.0331417E-1,1.2688524E-1,5.256141E-1,1.2441996E-1,1.1295161E0,5.8036923E-1,1.0188377E0,1.2264903E-1,-3.5230196E-1,4.6255827E-2,3.12401E-1,-5.7047385E-1,-5.810227E-1,5.2322733E-1],"categories":[],"categories_nodes":[],"categories_segments":[],"categories_sizes":[],"default_left":[1,1,1,1,1,1,1,1,1,1,1,1,1,1,1,1,1,1,1,1,1,1,1,1,1,1,1,1,1,1,1,0,0,0,0,0,0,0,0,0,0,0,0,0,0,0,0,0,0,0,0,0,0,0,0,0,0,0,0,0,0,0,0],"id":14,"left_children":[1,3,5,7,9,11,13,15,17,19,21,23,25,27,29,31,33,35,37,39,41,43,45,47,49,51,53,55,57,59,61,-1,-1,-1,-1,-1,-1,-1,-1,-1,-1,-1,-1,-1,-1,-1,-1,-1,-1,-1,-1,-1,-1,-1,-1,-1,-1,-1,-1,-1,-1,-1,-1],"loss_changes":[1.5937714E1,1.0676346E1,1.5974976E1,9.244518E0,9.021416E0,1.2708893E1,1.2528927E1,5.8598413E0,8.7509575E0,1.2448227E1,1.0655548E1,9.834602E0,1.34160385E1,9.30895E0,9.819033E0,4.0419397E0,9.2008915E0,2.4970512E0,8.668999E0,4.6858206E0,8.610405E0,7.0998154E0,1.9890045E1,1.628779E1,1.7662258E1,1.4628471E1,3.76968E0,1.6469803E1,1.6562319E1,7.661187E0,5.852171E0,0E0,0E0,0E0,0E0,0E0,0E0,0E0,0E0,0E0,0E0,0E0,0E0,0E0,0E0,0E0,0E0,0E0,0E0,0E0,0E0,0E0,0E0,0E0,0E0,0E0,0E0,0E0,0E0,0E0,0E0,0E0,0E0],"parents":[2147483647,0,0,1,1,2,2,3,3,4,4,5,5,6,6,7,7,8,8,9,9,10,10,11,11,12,12,13,13,14,14,15,15,16,16,17,17,18,18,19,19,20,20,21,21,22,22,23,23,24,24,25,25,26,26,27,27,28,28,29,29,30,30],"right_children":[2,4,6,8,10,12,14,16,18,20,22,24,26,28,30,32,34,36,38,40,42,44,46,48,50,52,54,56,58,60,62,-1,-1,-1,-1,-1,-1,-1,-1,-1,-1,-1,-1,-1,-1,-1,-1,-1,-1,-1,-1,-1,-1,-1,-1,-1,-1,-1,-1,-1,-1,-1,-1],"split_conditions":[-2.1142473E-4,5.40259E-4,1.3732999E-3,5.173378E-4,-2.1694186E-1,1.212222E-3,1.5084986E-3,2.1694186E-1,-8.809787E-4,6.1305816E-4,6.5720524E-3,-4.12351E-3,4.3712333E-3,-2.1694186E-1,-3.1024402E-3,4.995783E-4,5.0138216E-4,3.7189104E-4,-1.679685E-4,1.4075311E-4,2.2970985E-3,-3.166035E-3,1.9827196E-3,1.1577439E-3,-1.152135E-3,-9.799798E-4,-5.6174487E-1,8.0612587E-4,7.994472E-4,1.9969584E-3,8.053945E-4,-5.5595785E-2,2.3223152E-2,5.2156128E-2,-5.229959E-2,5.394078E-3,6.921223E-2,-2.1285782E-2,3.4861498E-2,1.3464607E-2,-5.996854E-2,2.3723705E-2,-3.9906915E-2,4.58853E-3,1.42299E-2,-2.4095848E-2,6.835782E-2,-1.5545971E-2,3.218208E-2,2.016571E-2,6.344262E-3,2.6280705E-2,6.220998E-3,5.6475807E-2,2.9018462E-2,5.0941885E-2,6.1324514E-3,-1.7615099E-2,2.3127913E-3,1.562005E-2,-2.8523693E-2,-2.9051134E-2,2.6161367E-2],"split_indices":[0,3,6,11,9,6,0,9,4,11,4,4,4,9,4,11,11,3,4,4,3,4,11,11,4,4,10,11,3,1,3,0,0,0,0,0,0,0,0,0,0,0,0,0,0,0,0,0,0,0,0,0,0,0,0,0,0,0,0,0,0,0,0],"split_type":[0,0,0,0,0,0,0,0,0,0,0,0,0,0,0,0,0,0,0,0,0,0,0,0,0,0,0,0,0,0,0,0,0,0,0,0,0,0,0,0,0,0,0,0,0,0,0,0,0,0,0,0,0,0,0,0,0,0,0,0,0,0,0],"sum_hessian":[4.574205E3,1.6914733E3,2.882732E3,8.659486E1,1.6048784E3,1.7042748E3,1.178457E3,1.4886857E1,7.1708E1,3.1431387E2,1.2905646E3,1.2765073E3,4.2776743E2,1.02325964E3,1.5519746E2,6.6731977E0,8.213659E0,2.2281984E1,4.9426018E1,8.298084E0,3.0601578E2,1.2433676E3,4.719701E1,1.0683624E2,1.169671E3,3.6880945E2,5.8957985E1,1.962878E2,8.269718E2,3.7511436E1,1.1768603E2,5.089123E0,1.5840751E0,6.132939E0,2.0807202E0,1.8415697E0,2.0440414E1,7.487336E0,4.1938683E1,2.790381E0,5.507703E0,3.0147314E2,4.5426245E0,2.3713136E2,1.0062362E3,4.1434616E1,5.7623935E0,8.52663E1,2.1569944E1,3.169643E2,8.527068E2,1.6286896E2,2.0594049E2,2.3574963E1,3.5383022E1,2.2312223E1,1.7397557E2,1.2131302E2,7.056588E2,1.9935802E1,1.7575634E1,4.213105E0,1.13472916E2],"tree_param":{"num_deleted":"0","num_feature":"12","num_nodes":"63","size_leaf_vector":"0"}},{"base_weights":[2.0362657E-1,2.3896909E-1,1.0921952E-1,2.228371E-1,4.7317493E-1,2.6282293E-1,4.0997896E-2,4.911641E-1,2.0764782E-1,3.5847163E-1,8.5766083E-1,-4.0420496E-1,2.8234264E-1,1.3554126E-1,-1.3217604E-1,5.634612E-2,5.941282E-1,2.1640748E-1,-2.3698589E-1,5.120538E-1,-1.84541E-1,1.678203E-1,1.0883135E0,7.220662E-1,-7.8243375E-1,8.3771616E-1,2.3213033E-1,2.713982E-2,3.3770365E-1,-1.3896273E-2,-3.6463413E-1,-6.4733773E-1,3.2657668E-1,-1.0198604E-1,6.820392E-1,2.4754447E-1,9.124325E-2,4.8422843E-1,-5.583434E-1,1.7263103E-1,7.470085E-1,-4.2956054E-1,5.286017E-1,-8.179915E-1,7.4584955E-1,1.4148763E0,5.444751E-1,1.1476383E-1,1.0222563E0,6.5851223E-1,-1.129911E0,2.4978314E-2,1.0916737E0,7.643712E-1,2.0405987E-1,-6.042518E-1,8.517903E-2,7.997911E-1,2.2241834E-1,-1.626505E0,2.4443457E-2,-4.990264E-1,4.7766462E-1],"categories":[],"categories_nodes":[],"categories_segments":[],"categories_sizes":[],"default_left":[1,1,1,1,1,1,1,1,1,1,1,1,1,1,1,1,1,1,1,1,1,1,1,1,1,1,1,1,1,1,1,0,0,0,0,0,0,0,0,0,0,0,0,0,0,0,0,0,0,0,0,0,0,0,0,0,0,0,0,0,0,0,0],"id":15,"left_children":[1,3,5,7,9,11,13,15,17,19,21,23,25,27,29,31,33,35,37,39,41,43,45,47,49,51,53,55,57,59,61,-1,-1,-1,-1,-1,-1,-1,-1,-1,-1,-1,-1,-1,-1,-1,-1,-1,-1,-1,-1,-1,-1,-1,-1,-1,-1,-1,-1,-1,-1,-1,-1],"loss_changes":[1.5205399E1,1.2440826E1,1.3038853E1,1.25677185E1,9.090569E0,5.0983124E0,1.4155503E1,7.3899384E0,1.1516861E1,1.3925974E1,7.4941826E0,5.3765187E0,1.019356E1,1.2242271E1,8.393244E0,6.4582143E0,8.267323E0,1.1230438E1,1.3562689E1,1.0202496E1,6.744843E0,8.172812E0,5.6187935E0,4.9516046E-1,5.217986E0,6.2686615E0,4.9686203E0,1.3427191E1,1.0212685E1,1.2620363E1,1.1894059E1,0E0,0E0,0E0,0E0,0E0,0E0,0E0,0E0,0E0,0E0,0E0,0E0,0E0,0E0,0E0,0E0,0E0,0E0,0E0,0E0,0E0,0E0,0E0,0E0,0E0,0E0,0E0,0E0,0E0,0E0,0E0,0E0],"parents":[2147483647,0,0,1,1,2,2,3,3,4,4,5,5,6,6,7,7,8,8,9,9,10,10,11,11,12,12,13,13,14,14,15,15,16,16,17,17,18,18,19,19,20,20,21,21,22,22,23,23,24,24,25,25,26,26,27,27,28,28,29,29,30,30],"right_children":[2,4,6,8,10,12,14,16,18,20,22,24,26,28,30,32,34,36,38,40,42,44,46,48,50,52,54,56,58,60,62,-1,-1,-1,-1,-1,-1,-1,-1,-1,-1,-1,-1,-1,-1,-1,-1,-1,-1,-1,-1,-1,-1,-1,-1,-1,-1,-1,-1,-1,-1,-1,-1],"split_conditions":[6.1322987E1,1.8084757E-3,-1.08088294E-4,1.8260715E1,2.8018898E-3,5.5399386E-4,1.4351375E-3,1.0430559E-3,1.5685299E-3,1.3522594E-3,1.5312898E-3,6.444499E1,6.554133E-4,1.2070425E-3,2.8834692E-3,1.1556724E1,-8.351041E-3,8.117449E-1,-4.8048773E-6,9.159135E-4,8.117449E-1,3.7940952E-1,2.218945E-3,-2.6389852E-4,-6.3614664E-4,-5.4593344E-4,7.966856E-4,-2.1502688E-5,6.485626E1,6.165753E1,3.7940952E-1,-3.2366887E-2,1.6328834E-2,-5.099302E-3,3.410196E-2,1.2377224E-2,4.562163E-3,2.4211422E-2,-2.791717E-2,8.631552E-3,3.7350427E-2,-2.1478027E-2,2.6430085E-2,-4.0899575E-2,3.7292477E-2,7.074382E-2,2.7223755E-2,5.738192E-3,5.1112812E-2,3.2925613E-2,-5.6495547E-2,1.2489157E-3,5.4583687E-2,3.821856E-2,1.0202994E-2,-3.021259E-2,4.2589516E-3,3.9989557E-2,1.1120917E-2,-8.1325255E-2,1.2221729E-3,-2.495132E-2,2.3883231E-2],"split_indices":[5,1,0,5,4,11,6,6,1,11,6,5,11,6,4,5,4,10,0,11,10,7,2,1,1,0,6,0,5,5,7,0,0,0,0,0,0,0,0,0,0,0,0,0,0,0,0,0,0,0,0,0,0,0,0,0,0,0,0,0,0,0,0],"split_type":[0,0,0,0,0,0,0,0,0,0,0,0,0,0,0,0,0,0,0,0,0,0,0,0,0,0,0,0,0,0,0,0,0,0,0,0,0,0,0,0,0,0,0,0,0,0,0,0,0,0,0,0,0,0,0,0,0,0,0,0,0,0,0],"sum_hessian":[4.564001E3,3.3196975E3,1.2443036E3,3.107599E3,2.1209833E2,3.818046E2,8.6249896E2,1.6480977E2,2.9427893E3,1.6485088E2,4.7247456E1,1.0295031E1,3.7150955E2,5.580513E2,3.0444772E2,3.185082E1,1.3295894E2,2.8864375E3,5.6351936E1,1.2854971E2,3.6301155E1,1.2271922E1,3.4975533E1,2.3596144E0,7.9354167E0,2.9503407E1,3.4200616E2,3.6400336E2,1.9404788E2,2.0248082E2,1.01966896E2,8.450392E0,2.3400429E1,1.4890442E1,1.18068504E2,2.310643E3,5.757943E2,1.7213438E1,3.9138496E1,5.329413E1,7.525559E1,2.7314253E1,8.986902E0,4.3825216E0,7.8894E0,2.085245E1,1.4123083E1,1.2377919E0,1.1218225E0,1.3678762E0,6.5675406E0,7.285631E0,2.2217775E1,1.5819723E1,3.2618643E2,2.9851082E1,3.3415228E2,3.7560425E1,1.5648746E2,3.7402103E0,1.9874062E2,8.828776E1,1.3679137E1],"tree_param":{"num_deleted":"0","num_feature":"12","num_nodes":"63","size_leaf_vector":"0"}},{"base_weights":[1.9454646E-1,2.623644E-1,1.5428548E-1,3.292396E-1,1.8926728E-1,5.5361487E-2,1.9104211E-1,3.7933275E-1,1.2655796E-1,1.7670928E-1,1.1871688E0,-7.693052E-1,8.188156E-2,-2.8106892E-2,2.1894951E-1,6.8682617E-1,3.3661908E-1,-3.223251E-1,3.6153525E-1,1.8266405E-1,-1.3558987E0,1.4193584E0,-3.4944645E-1,-1.1713303E0,3.3801547E-1,2.792008E-1,-2.1467605E-3,-7.415264E-1,5.056008E-2,3.357314E-1,1.7473601E-1,1.1055541E0,4.658717E-1,3.5704628E-1,-4.9786696E-1,3.982598E-1,-7.3550993E-1,2.9383752E-1,1.2799181E0,-1.2258993E0,1.8675299E-1,4.4053617E-1,-1.4651757E0,1.387135E0,-8.9892036E-1,-2.3883814E-1,3.7132657E-1,-4.665332E-1,1.0319203E-1,-1.5741663E0,-3.245766E-1,8.5210305E-1,-8.8348135E-2,6.1425424E-1,1.9175042E-1,1.5729307E-1,6.3007843E-1],"categories":[],"categories_nodes":[],"categories_segments":[],"categories_sizes":[],"default_left":[1,1,1,1,1,1,1,1,1,1,1,1,1,1,1,1,1,1,1,1,0,0,0,1,1,1,1,1,1,1,1,0,0,0,0,0,0,0,0,0,0,0,0,0,0,0,0,0,0,0,0,0,0,0,0,0,0],"id":16,"left_children":[1,3,5,7,9,11,13,15,17,19,21,23,25,27,29,31,33,35,37,39,-1,-1,-1,41,43,45,47,49,51,53,55,-1,-1,-1,-1,-1,-1,-1,-1,-1,-1,-1,-1,-1,-1,-1,-1,-1,-1,-1,-1,-1,-1,-1,-1,-1,-1],"loss_changes":[1.2471176E1,8.275093E0,1.04533E1,8.981323E0,1.0031357E1,1.7143864E1,1.2835762E1,9.128075E0,1.8864292E1,7.6239433E0,4.057275E0,1.1271369E1,1.2561592E1,1.3386116E1,9.549812E0,7.43713E0,1.087661E1,1.863386E1,6.9068193E0,4.8710823E0,0E0,0E0,0E0,9.240461E0,1.0698169E1,1.0887339E1,2.6087687E1,7.7120924E0,2.4031593E1,2.0332935E1,1.0638687E1,0E0,0E0,0E0,0E0,0E0,0E0,0E0,0E0,0E0,0E0,0E0,0E0,0E0,0E0,0E0,0E0,0E0,0E0,0E0,0E0,0E0,0E0,0E0,0E0,0E0,0E0],"parents":[2147483647,0,0,1,1,2,2,3,3,4,4,5,5,6,6,7,7,8,8,9,9,10,10,11,11,12,12,13,13,14,14,15,15,16,16,17,17,18,18,19,19,23,23,24,24,25,25,26,26,27,27,28,28,29,29,30,30],"right_children":[2,4,6,8,10,12,14,16,18,20,22,24,26,28,30,32,34,36,38,40,-1,-1,-1,42,44,46,48,50,52,54,56,-1,-1,-1,-1,-1,-1,-1,-1,-1,-1,-1,-1,-1,-1,-1,-1,-1,-1,-1,-1,-1,-1,-1,-1,-1,-1],"split_conditions":[-2.1137655E-4,2.8721843E-4,-6.035534E-1,8.783797E-1,2.0205537E-3,1.0156273E-3,-4.2790947E-3,-9.159756E-1,-3.1729965E-3,2.525094E-3,3.6768285E-3,7.2771707E-4,1.3884704E-3,7.75071E-4,-1.0784564E-3,-1.2578294E-3,1.9871665E-3,-5.541419E-3,1.4295196E-3,3.6812553E-4,-6.779494E-2,7.096792E-2,-1.7472323E-2,-5.099679E-4,7.737329E-4,1.1270044E-3,8.054859E-4,-5.743508E-3,7.94267E-4,7.335469E-4,1.7025541E-3,5.5277705E-2,2.3293585E-2,1.7852314E-2,-2.4893349E-2,1.991299E-2,-3.6775496E-2,1.4691876E-2,6.3995905E-2,-6.129497E-2,9.33765E-3,2.2026809E-2,-7.325879E-2,6.9356754E-2,-4.494602E-2,-1.1941907E-2,1.8566329E-2,-2.3326661E-2,5.1596016E-3,-7.870831E-2,-1.622883E-2,4.2605154E-2,-4.417407E-3,3.0712713E-2,9.587522E-3,7.864653E-3,3.1503923E-2],"split_indices":[0,4,7,9,11,6,4,7,4,3,3,11,6,11,4,1,11,4,11,3,0,0,0,1,11,6,3,4,3,3,3,0,0,0,0,0,0,0,0,0,0,0,0,0,0,0,0,0,0,0,0,0,0,0,0,0,0],"split_type":[0,0,0,0,0,0,0,0,0,0,0,0,0,0,0,0,0,0,0,0,0,0,0,0,0,0,0,0,0,0,0,0,0,0,0,0,0,0,0,0,0,0,0,0,0,0,0,0,0,0,0,0,0,0,0,0,0],"sum_hessian":[4.581318E3,1.7045532E3,2.8767646E3,8.883311E2,8.162221E2,7.8001044E2,2.0967542E3,7.1158905E2,1.7674208E2,8.0724054E2,8.981567E0,2.3429817E1,7.565806E2,2.3684775E2,1.8599064E3,8.495106E1,6.26638E2,6.0601593E1,1.16140495E2,8.0499365E2,2.246895E0,7.868856E0,1.1127114E0,1.7146708E1,6.2831097E0,2.2526952E2,5.313111E2,2.268595E1,2.1416179E2,5.0896774E2,1.3509387E3,2.796031E1,5.699075E1,6.1222363E2,1.4414345E1,2.2098476E1,3.8503117E1,1.0939639E2,6.7441E0,1.465157E0,8.035285E2,2.5669096E0,1.4579797E1,3.3339543E0,2.9491553E0,3.3771893E1,1.9149763E2,9.7602264E1,4.3370883E2,6.64353E0,1.604242E1,3.0874157E1,1.8328764E2,1.7233311E2,3.3663464E2,1.302393E3,4.854573E1],"tree_param":{"num_deleted":"0","num_feature":"12","num_nodes":"57","size_leaf_vector":"0"}},{"base_weights":[1.7310403E-1,2.0878021E-1,8.321053E-2,2.155848E-1,-4.3967333E-1,1.1927689E-1,-1.6608971E-1,2.006771E-1,5.6911105E-1,2.4796286E-1,-8.839087E-1,1.10748544E-1,1.256598E0,-2.1587086E-1,1.1967728E0,2.1798469E-1,-1.6966096E-1,8.398428E-1,-3.4059644E-2,-1.180574E0,5.737442E-1,-1.4046666E-1,-1.4405881E0,1.2183009E-1,-7.553284E-1,1.432309E0,1.3457844E-1,-3.1854868E-1,4.1494378E-1,1.5433215E-1,1.4396747E0,1.7354515E-1,3.7560418E-1,1.0162967E-1,-5.6302565E-1,9.732137E-1,1.6626373E-1,2.5439698E-1,-6.0471416E-1,-3.5472688E-1,8.5984963E-1,-1.4758859E0,5.5849034E-1,-3.6665154E-1,-1.5178027E0,1.0590512E-1,8.3560693E-1,6.504849E-1,-9.524445E-1,-4.3465394E-1,3.6953375E-1,8.162009E-1,-1.959911E-1],"categories":[],"categories_nodes":[],"categories_segments":[],"categories_sizes":[],"default_left":[1,1,1,1,1,1,1,1,1,1,1,1,1,1,1,1,1,1,1,0,1,1,1,1,1,0,0,1,1,0,0,0,0,0,0,0,0,0,0,0,0,0,0,0,0,0,0,0,0,0,0,0,0],"id":17,"left_children":[1,3,5,7,9,11,13,15,17,19,21,23,25,27,29,31,33,35,37,-1,39,41,43,45,47,-1,-1,49,51,-1,-1,-1,-1,-1,-1,-1,-1,-1,-1,-1,-1,-1,-1,-1,-1,-1,-1,-1,-1,-1,-1,-1,-1],"loss_changes":[1.4619659E1,1.4508728E1,1.169386E1,1.6926651E1,1.0682148E1,1.0868284E1,1.1419719E1,1.9933258E1,2.1303993E1,7.2970724E0,8.50017E0,1.0913188E1,1.4534225E0,1.0467176E1,1.2844687E0,2.070993E1,1.4907247E1,7.920086E0,6.9560084E0,0E0,3.5605793E0,1.0262443E1,4.3162918E-1,1.2575542E1,4.605239E0,0E0,0E0,1.1168839E1,5.742016E0,0E0,0E0,0E0,0E0,0E0,0E0,0E0,0E0,0E0,0E0,0E0,0E0,0E0,0E0,0E0,0E0,0E0,0E0,0E0,0E0,0E0,0E0,0E0,0E0],"parents":[2147483647,0,0,1,1,2,2,3,3,4,4,5,5,6,6,7,7,8,8,9,9,10,10,11,11,12,12,13,13,14,14,15,15,16,16,17,17,18,18,20,20,21,21,22,22,23,23,24,24,27,27,28,28],"right_children":[2,4,6,8,10,12,14,16,18,20,22,24,26,28,30,32,34,36,38,-1,40,42,44,46,48,-1,-1,50,52,-1,-1,-1,-1,-1,-1,-1,-1,-1,-1,-1,-1,-1,-1,-1,-1,-1,-1,-1,-1,-1,-1,-1,-1],"split_conditions":[6.083975E1,2.3131324E-3,1.8994991E-3,1.7636863E-3,-1.2940952E-1,9.284755E1,9.162068E-3,1.5775899E-3,4.936372E1,-2.1694186E-1,1.741437E-3,8.9550934E1,1.4414971E-3,9.159756E-1,1.9891763E-3,1.0836076E-3,1.2940952E-1,7.865661E-1,1.9152053E-3,-5.9028704E-2,-8.943496E-3,1.4392139E-3,-3.4728246E-3,1.631855E-3,4.03983E-4,7.161545E-2,6.728922E-3,8.051696E1,1.5549522E-3,7.7166073E-3,7.198374E-2,8.677258E-3,1.878021E-2,5.0814836E-3,-2.8151283E-2,4.8660684E-2,8.3131865E-3,1.2719849E-2,-3.0235708E-2,-1.7736344E-2,4.2992484E-2,-7.37943E-2,2.7924517E-2,-1.8332576E-2,-7.589014E-2,5.295256E-3,4.178035E-2,3.2524247E-2,-4.7622226E-2,-2.1732697E-2,1.8476687E-2,4.0810045E-2,-9.799555E-3],"split_indices":[5,3,6,11,7,5,1,3,5,9,6,5,6,8,3,11,8,7,3,0,1,6,0,3,1,0,0,5,3,0,0,0,0,0,0,0,0,0,0,0,0,0,0,0,0,0,0,0,0,0,0,0,0],"split_type":[0,0,0,0,0,0,0,0,0,0,0,0,0,0,0,0,0,0,0,0,0,0,0,0,0,0,0,0,0,0,0,0,0,0,0,0,0,0,0,0,0,0,0,0,0,0,0,0,0,0,0,0,0],"sum_hessian":[4.563009E3,3.2656448E3,1.2973641E3,3.232393E3,3.3251778E1,1.1338511E3,1.635131E2,3.103107E3,1.292861E2,1.3224016E1,2.0027761E1,1.1265012E3,7.3498354E0,1.585629E2,4.950207E0,2.9649524E3,1.3815445E2,8.896292E1,4.0323185E1,1.9684825E0,1.1255533E1,9.111601E0,1.0916161E1,1.113118E3,1.3383136E1,6.115576E0,1.2342596E0,1.3679222E2,2.1770674E1,1.2445312E0,3.7056763E0,2.3144993E3,6.504531E2,8.220323E1,5.5951214E1,7.3888016E1,1.5074905E1,2.7152325E1,1.3170858E1,2.5948534E0,8.66068E0,2.748601E0,6.3630004E0,1.1177974E0,9.798363E0,1.0899487E3,2.316931E1,1.3629184E0,1.2020218E1,1.17357864E2,1.9434355E1,1.2937465E1,8.833209E0],"tree_param":{"num_deleted":"0","num_feature":"12","num_nodes":"53","size_leaf_vector":"0"}},{"base_weights":[1.7646444E-1,1.8246095E-1,-3.6726055E-1,1.7793316E-1,1.2102596E0,-5.179916E-1,1.0873376E0,2.9789454E-1,1.4872195E-1,1.3494937E0,2.7850384E-1,1.8181294E-2,-1.1972923E0,3.8556448E-1,7.514385E-2,1.5409271E-1,-7.172017E-1,4.048224E-1,1.5402617E0,1.0227842E0,-6.1361194E-1,9.051365E-1,-3.7801036E-1,-1.6412781E0,-2.0287931E-1,4.4110957E-1,-2.1097874E-3,3.8345E-1,-1.7069514E-1,2.0553572E-1,8.18936E-2,9.538122E-1,-1.2199314E0,-6.73628E-1,1.1551881E0,1.1241807E0,-3.1638107E-1,3.91826E-1,-9.060424E-1,-1.7337205E0,-5.6437814E-1,1.0635778E0,-6.948464E-1],"categories":[],"categories_nodes":[],"categories_segments":[],"categories_sizes":[],"default_left":[1,1,1,1,1,1,0,1,1,1,1,1,1,1,1,1,1,1,0,0,0,1,1,1,1,0,0,0,0,0,0,0,0,0,0,0,0,0,0,0,0,0,0],"id":18,"left_children":[1,3,5,7,9,11,-1,13,15,17,19,21,23,25,27,29,31,33,-1,-1,-1,35,37,39,41,-1,-1,-1,-1,-1,-1,-1,-1,-1,-1,-1,-1,-1,-1,-1,-1,-1,-1],"loss_changes":[1.4994949E1,2.086203E1,1.1586241E1,1.5761505E1,2.1789494E0,1.6860521E1,0E0,1.7200241E1,1.6988968E1,2.4171295E0,3.1641505E0,9.767898E0,8.677679E0,1.362825E1,1.9045113E1,1.3382683E1,2.0105436E1,4.1699333E0,0E0,0E0,0E0,2.6504893E0,8.178656E0,4.1209412E-1,5.3749347E0,0E0,0E0,0E0,0E0,0E0,0E0,0E0,0E0,0E0,0E0,0E0,0E0,0E0,0E0,0E0,0E0,0E0,0E0],"parents":[2147483647,0,0,1,1,2,2,3,3,4,4,5,5,7,7,8,8,9,9,10,10,11,11,12,12,13,13,14,14,15,15,16,16,17,17,21,21,22,22,23,23,24,24],"right_children":[2,4,6,8,10,12,-1,14,16,18,20,22,24,26,28,30,32,34,-1,-1,-1,36,38,40,42,-1,-1,-1,-1,-1,-1,-1,-1,-1,-1,-1,-1,-1,-1,-1,-1,-1,-1],"split_conditions":[2.3154663E-3,2.2346098E-3,9.655575E-3,-2.1694186E-1,2.2955635E-3,1.2940952E-1,5.4366883E-2,5.9985653E1,9.220179E-3,-6.0301954E-3,2.3012266E-4,-6.209568E-3,8.105991E-4,1.4056929E-3,8.2047714E-4,1.3730926E-3,4.4318695E1,3.7940952E-1,7.701309E-2,5.1139213E-2,-3.0680597E-2,9.159756E-1,2.7390474E-3,9.159756E-1,2.1405949E-3,2.2055479E-2,-1.0548937E-4,1.91725E-2,-8.534757E-3,1.0276786E-2,4.0946803E-3,4.769061E-2,-6.099657E-2,-3.36814E-2,5.7759404E-2,5.6209035E-2,-1.5819054E-2,1.95913E-2,-4.530212E-2,-8.668603E-2,-2.8218908E-2,5.3178888E-2,-3.474232E-2],"split_indices":[3,3,4,9,3,7,0,5,4,4,0,4,4,3,3,6,5,8,0,0,0,8,6,8,4,0,0,0,0,0,0,0,0,0,0,0,0,0,0,0,0,0,0],"split_type":[0,0,0,0,0,0,0,0,0,0,0,0,0,0,0,0,0,0,0,0,0,0,0,0,0,0,0,0,0,0,0,0,0,0,0,0,0,0,0,0,0,0,0],"sum_hessian":[4.577479E3,4.5282036E3,4.9275265E1,4.5095107E3,1.869279E1,4.523204E1,4.0432243E0,8.8125824E2,3.6282524E3,1.58725815E1,2.820208E0,2.5823084E1,1.9408958E1,6.3184607E2,2.4941219E2,3.6067046E3,2.154799E1,3.1913388E0,1.2681243E1,1.4576445E0,1.3625636E0,7.5766425E0,1.824644E1,1.2968347E1,6.4406114E0,5.525414E2,7.930469E1,1.1040001E2,1.3901218E2,2.105007E3,1.5016975E3,4.775969E0,1.6772022E1,1.3513709E0,1.8399678E0,6.4921474E0,1.0844954E0,7.5284295E0,1.0718011E1,1.1381433E1,1.5869137E0,1.4768667E0,4.9637446E0],"tree_param":{"num_deleted":"0","num_feature":"12","num_nodes":"43","size_leaf_vector":"0"}},{"base_weights":[1.7080627E-1,1.7249131E-1,-1.4891245E0,1.7037223E-1,1.4413459E0,1.7987153E-1,-1.0259942E-1,2.0899141E-1,9.349574E-2,-2.8321645E-1,1.2150211E0,1.6653794E-1,2.9857352E-1,1.4426199E-1,-1.3815783E-1,-1.5522737E-2,-1.1991019E0,1.3248298E0,4.455795E-1],"categories":[],"categories_nodes":[],"categories_segments":[],"categories_sizes":[],"default_left":[1,1,0,1,0,1,1,1,1,1,1,0,0,0,0,0,0,0,0],"id":19,"left_children":[1,3,-1,5,-1,7,9,11,13,15,17,-1,-1,-1,-1,-1,-1,-1,-1],"loss_changes":[1.298793E1,1.1982788E1,0E0,1.1794586E1,0E0,1.1020065E1,3.684194E1,1.2430634E1,1.3055214E1,3.3248146E1,9.87751E-1,0E0,0E0,0E0,0E0,0E0,0E0,0E0,0E0],"parents":[2147483647,0,0,1,1,3,3,5,5,6,6,7,7,8,8,9,9,10,10],"right_children":[2,4,-1,6,-1,8,10,12,14,16,18,-1,-1,-1,-1,-1,-1,-1,-1],"split_conditions":[3.2329182E-3,1.1987133E-2,-7.445623E-2,6.5744044E-3,7.20673E-2,6.2281548E1,1.9808747E-3,1.0488813E-3,8.117449E-1,1.5808789E-3,9.159756E-1,8.326897E-3,1.4928676E-2,7.2130994E-3,-6.9078915E-3,-7.761369E-4,-5.9955098E-2,6.6241495E-2,2.2278976E-2],"split_indices":[11,4,0,4,0,5,11,11,10,11,7,0,0,0,0,0,0,0,0],"split_type":[0,0,0,0,0,0,0,0,0,0,0,0,0,0,0,0,0,0,0],"sum_hessian":[4.550605E3,4.5468857E3,3.719581E0,4.540437E3,6.4485803E0,4.3880747E3,1.5236206E2,3.28065E3,1.107425E3,1.3468478E2,1.767729E1,2.2277605E3,1.0528893E3,9.0866974E2,1.9875525E2,1.0500965E2,2.9675123E1,1.483793E1,2.8393607E0],"tree_param":{"num_deleted":"0","num_feature":"12","num_nodes":"19","size_leaf_vector":"0"}},{"base_weights":[1.56723E-1,1.5466845E-1,1.4039079E0,4.127074E-1,1.4572355E-1,2.7518788E-1,7.509132E-1,-1.4852383E0,1.4717129E-1,-1.3285291E-1,6.33891E-1,9.292608E-1,-2.3525031E-2,1.5128776E-1,-3.9409783E-1,4.5469883E-1,-5.2884537E-1,9.6394464E-2,8.252344E-1,-2.1089347E-1,1.0052723E0,-5.659595E-1,1.162076E0,1.4863281E-1,1.351301E0,2.0244221E-1,-1.0446707E0],"categories":[],"categories_nodes":[],"categories_segments":[],"categories_sizes":[],"default_left":[1,1,0,1,1,1,1,0,1,1,1,1,1,1,1,0,0,0,0,0,0,0,0,0,0,0,0],"id":20,"left_children":[1,3,-1,5,7,9,11,-1,13,15,17,19,21,23,25,-1,-1,-1,-1,-1,-1,-1,-1,-1,-1,-1,-1],"loss_changes":[1.1444588E1,1.0429733E1,0E0,6.849806E0,1.0593796E1,1.6102415E1,5.9995975E0,0E0,9.843376E0,1.2345041E1,5.9281445E0,3.2628613E0,6.494953E0,1.3685585E1,1.3181614E1,0E0,0E0,0E0,0E0,0E0,0E0,0E0,0E0,0E0,0E0,0E0,0E0],"parents":[2147483647,0,0,1,1,3,3,4,4,5,5,6,6,8,8,9,9,10,10,11,11,12,12,13,13,14,14],"right_children":[2,4,-1,6,8,10,12,-1,14,16,18,20,22,24,26,-1,-1,-1,-1,-1,-1,-1,-1,-1,-1,-1,-1],"split_conditions":[1.1987133E-2,1.7840807E1,7.01954E-2,-1.1413555E-3,-1.3783317E-2,9.324361E-4,1.1826116E-3,-7.426192E-2,8.98247E-3,6.916261E-4,-7.694289E-3,-5.398304E-4,2.1884888E-3,8.736651E-3,1.2940952E-1,2.2734942E-2,-2.6442269E-2,4.8197233E-3,4.126172E-2,-1.0544674E-2,5.0263613E-2,-2.8297976E-2,5.81038E-2,7.4316408E-3,6.7565046E-2,1.0122111E-2,-5.2233536E-2],"split_indices":[4,5,0,2,2,3,3,0,4,3,2,0,6,4,8,0,0,0,0,0,0,0,0,0,0,0,0],"split_type":[0,0,0,0,0,0,0,0,0,0,0,0,0,0,0,0,0,0,0,0,0,0,0,0,0,0,0],"sum_hessian":[4.550111E3,4.5437495E3,6.3610945E0,1.5071928E2,4.3930303E3,1.0843974E2,4.2279545E1,2.9870956E0,4.390043E3,5.1025543E1,5.7414204E1,3.4202938E1,8.076609E0,4.357623E3,3.242017E1,2.0484106E1,3.0541437E1,1.5467825E1,4.1946377E1,2.0268066E0,3.217613E1,5.8999233E0,2.1766853E0,4.3491245E3,8.498273E0,1.7271742E1,1.5148427E1],"tree_param":{"num_deleted":"0","num_feature":"12","num_nodes":"27","size_leaf_vector":"0"}},{"base_weights":[1.4477119E-1,1.4246477E-1,1.1870791E0,1.4717671E-1,-8.573641E-1,1.4138349E0,1.3058752E-1,2.4322595E-1,1.2365121E-1,-1.09146E0,2.1040402E-1,-1.0213188E0,2.697747E-1,1.2909985E-1,-6.6323864E-1,-1.3968815E0,-5.253157E-1,8.9299786E-1,-6.751203E-1,-4.155017E-1,-1.2892888E0,3.0361614E-1,-2.3344488E-1,3.9403325E-1,1.15823075E-1,3.4544146E-1,-1.4393743E0,-1.5590099E0,-4.4034547E-1,2.1686316E-1,-1.512241E0],"categories":[],"categories_nodes":[],"categories_segments":[],"categories_sizes":[],"default_left":[1,1,1,1,1,0,0,1,1,1,1,1,1,1,1,1,1,0,0,0,0,0,0,0,0,0,0,0,0,0,0],"id":21,"left_children":[1,3,5,7,9,-1,-1,11,13,15,17,19,21,23,25,27,29,-1,-1,-1,-1,-1,-1,-1,-1,-1,-1,-1,-1,-1,-1],"loss_changes":[1.0770477E1,2.1522537E1,2.1896858E0,1.018605E1,5.591241E0,0E0,0E0,3.010368E1,1.56651E1,2.3361568E0,3.4410295E0,2.464157E0,1.4903751E1,1.2650875E1,2.0187042E1,1.0085449E0,6.059108E0,0E0,0E0,0E0,0E0,0E0,0E0,0E0,0E0,0E0,0E0,0E0,0E0,0E0,0E0],"parents":[2147483647,0,0,1,1,2,2,3,3,4,4,7,7,8,8,9,9,10,10,11,11,12,12,13,13,14,14,15,15,16,16],"right_children":[2,4,6,8,10,-1,-1,12,14,16,18,20,22,24,26,28,30,-1,-1,-1,-1,-1,-1,-1,-1,-1,-1,-1,-1,-1,-1],"split_conditions":[9.284755E1,8.891065E1,1.5759354E-3,-2.1694186E-1,1.3036901E-3,7.069175E-2,6.529376E-3,5.3263933E-4,9.226315E-3,9.0783936E1,8.964914E1,-1.9015754E-3,2.3051251E-3,5.7834387E-4,-1.2940952E-1,3.3914354E-3,9.1717545E1,4.4649895E-2,-3.3756014E-2,-2.0775085E-2,-6.446444E-2,1.5180807E-2,-1.1672244E-2,1.9701663E-2,5.7911538E-3,1.7272074E-2,-7.196872E-2,-7.79505E-2,-2.2017274E-2,1.0843158E-2,-7.561205E-2],"split_indices":[5,5,6,9,11,0,0,11,4,5,5,4,6,11,8,1,5,0,0,0,0,0,0,0,0,0,0,0,0,0,0],"split_type":[0,0,0,0,0,0,0,0,0,0,0,0,0,0,0,0,0,0,0,0,0,0,0,0,0,0,0,0,0,0,0],"sum_hessian":[4.549561E3,4.54065E3,8.910916E0,4.5202E3,2.0449793E1,7.057848E0,1.8530688E0,8.874808E2,3.6327195E3,1.6754396E1,3.6953967E0,1.747878E1,8.70002E2,3.6085688E3,2.4150738E1,9.930023E0,6.824373E0,2.0820434E0,1.6133533E0,6.142526E0,1.1336255E1,8.1555286E2,5.444912E1,1.7083978E2,3.437729E3,1.0743374E1,1.3407365E1,7.9522963E0,1.9777272E0,4.340518E0,2.4838545E0],"tree_param":{"num_deleted":"0","num_feature":"12","num_nodes":"31","size_leaf_vector":"0"}},{"base_weights":[1.4329597E-1,1.4490467E-1,-1.4415351E0,1.4048633E-1,9.8393327E-1,1.4597124E-1,-5.1176304E-1,1.2572526E0,2.4428263E-2,1.4134769E-1,1.1630356E0,-7.9312927E-1,1.1506904E0,1.6880023E-1,1.4871602E0,1.195269E0,-1.2763437E0,1.4380684E-1,-1.0796887E0,1.2955993E0,2.5258905E-1,-8.9597714E-1,9.0584564E-1,1.368058E0,1.8364847E-1,9.5603096E-1,-1.0121503E0],"categories":[],"categories_nodes":[],"categories_segments":[],"categories_sizes":[],"default_left":[1,1,0,1,1,1,1,1,1,1,1,1,1,1,0,0,0,0,0,0,0,0,0,0,0,0,0],"id":22,"left_children":[1,3,-1,5,7,9,11,13,15,17,19,21,23,25,-1,-1,-1,-1,-1,-1,-1,-1,-1,-1,-1,-1,-1],"loss_changes":[1.1788063E1,1.6684784E1,0E0,1.6228767E1,6.159889E0,2.0895737E1,1.8629692E1,4.3415337E0,1.1049212E1,1.3545631E1,2.1021442E0,6.5754337E0,9.8698664E-1,4.991766E0,0E0,0E0,0E0,0E0,0E0,0E0,0E0,0E0,0E0,0E0,0E0,0E0,0E0],"parents":[2147483647,0,0,1,1,3,3,4,4,5,5,6,6,7,7,8,8,9,9,10,10,11,11,12,12,13,13],"right_children":[2,4,-1,6,8,10,12,14,16,18,20,22,24,26,-1,-1,-1,-1,-1,-1,-1,-1,-1,-1,-1,-1,-1],"split_conditions":[3.2329182E-3,2.76803E-3,-7.207676E-2,2.3154663E-3,3.8625672E-3,2.2332964E-3,5.565355E-3,-2.373447E-2,-1.2940952E-1,9.121003E-3,2.2955635E-3,1.0089355E-2,3.3454886E-3,2.812169E-3,7.435801E-2,5.976345E-2,-6.381719E-2,7.1903425E-3,-5.3984433E-2,6.477997E-2,1.2629452E-2,-4.479886E-2,4.5292284E-2,6.84029E-2,9.182423E-3,4.780155E-2,-5.0607514E-2],"split_indices":[11,11,0,3,3,3,2,4,7,2,3,4,3,11,0,0,0,0,0,0,0,0,0,0,0,0,0],"split_type":[0,0,0,0,0,0,0,0,0,0,0,0,0,0,0,0,0,0,0,0,0,0,0,0,0,0,0],"sum_hessian":[4.540736E3,4.537039E3,3.6967804E0,4.514433E3,2.2605625E1,4.4775566E3,3.6876495E1,1.7352404E1,5.2532234E0,4.4584277E3,1.9128883E1,3.198588E1,4.890616E0,3.328497E0,1.4023906E1,2.807377E0,2.4458463E0,4.450347E3,8.080703E0,1.6328384E1,2.8004992E0,3.0605787E1,1.3800921E0,3.654492E0,1.236124E0,2.1114466E0,1.2170503E0],"tree_param":{"num_deleted":"0","num_feature":"12","num_nodes":"27","size_leaf_vector":"0"}},{"base_weights":[1.3637005E-1,1.3791728E-1,-1.394019E0,-2.9797915E-1,1.4305001E-1,3.343304E-1,-8.332299E-1,3.3215472E-1,1.2575649E-1,5.6159204E-1,-1.581499E0,-1.1114374E0,6.627911E-1,3.5687438E-1,-1.8175249E0,9.0200566E-2,2.0476028E-1,7.648201E-1,-6.02801E-1,-1.3870919E-1,-1.2985075E0,1.2132767E0,-5.260449E-1,2.0861296E-1,6.8362904E-1,1.3127854E-1,-1.4659399E-1,3.164453E-1,4.2113364E-2],"categories":[],"categories_nodes":[],"categories_segments":[],"categories_sizes":[],"default_left":[1,1,0,1,1,1,1,1,1,1,0,1,1,1,0,1,1,0,0,0,0,0,0,0,0,0,0,0,0],"id":23,"left_children":[1,3,-1,5,7,9,11,13,15,17,-1,19,21,23,-1,25,27,-1,-1,-1,-1,-1,-1,-1,-1,-1,-1,-1,-1],"loss_changes":[1.0921562E1,1.0172226E1,0E0,1.822154E1,1.4594429E1,1.1780884E1,1.2805725E1,2.054298E1,1.1504623E1,5.9280677E0,0E0,4.337162E0,4.023938E0,1.7828617E1,0E0,2.7553936E1,2.3099922E1,0E0,0E0,0E0,0E0,0E0,0E0,0E0,0E0,0E0,0E0,0E0,0E0],"parents":[2147483647,0,0,1,1,3,3,4,4,5,5,6,6,7,7,8,8,9,9,11,11,12,12,13,13,15,15,16,16],"right_children":[2,4,-1,6,8,10,12,14,16,18,-1,20,22,24,-1,26,28,-1,-1,-1,-1,-1,-1,-1,-1,-1,-1,-1,-1],"split_conditions":[3.2329182E-3,5.131995E-4,-6.970095E-2,-3.7940952E-1,5.8127055E-4,5.797201E-4,5.3001905E-4,1.4715721E-3,1.0827075E-3,5.043439E-4,-7.907495E-2,2.7390745E1,1.0195121E-3,1.0530502E-3,-9.0876244E-2,1.0011115E-3,1.386869E-3,3.8241006E-2,-3.0140052E-2,-6.9354596E-3,-6.492537E-2,6.0663838E-2,-2.6302246E-2,1.0430648E-2,3.4181453E-2,6.5639275E-3,-7.3296996E-3,1.5822265E-2,2.1056682E-3],"split_indices":[11,11,0,8,3,3,3,6,11,11,0,5,6,6,0,11,3,0,0,0,0,0,0,0,0,0,0,0,0],"split_type":[0,0,0,0,0,0,0,0,0,0,0,0,0,0,0,0,0,0,0,0,0,0,0,0,0,0,0,0,0],"sum_hessian":[4.53019E3,4.5265234E3,3.6664782E0,5.201603E1,4.4745073E3,2.4018063E1,2.7997965E1,3.7338095E2,4.1011265E3,2.2103004E1,1.9150591E0,2.382451E1,4.173454E0,3.6996066E2,3.4202735E0,2.829736E3,1.2713901E3,1.9110672E1,2.9923332E0,4.1236763E0,1.9700834E1,2.8385272E0,1.3349268E0,2.5561607E2,1.143446E2,2.4117952E3,4.1794107E2,7.532258E2,5.181643E2],"tree_param":{"num_deleted":"0","num_feature":"12","num_nodes":"29","size_leaf_vector":"0"}},{"base_weights":[1.23685E-1,1.868036E-1,8.170148E-2,2.8255707E-1,1.21468015E-1,-2.6256928E-2,1.21925585E-1,6.1210126E-1,2.0775034E-1,1.11101665E-1,1.1461489E0,-5.6087565E-1,8.483783E-3,2.4276905E-1,6.799274E-2,-5.083941E-1,6.66556E-1,1.7328347E-1,8.39658E-1,-7.4406034E-1,1.2035731E-1,1.430525E0,-4.8224005E-1,-7.899194E-1,1.16313025E-1,1.9859752E-1,-9.507871E-2,4.7619313E-1,1.2117076E-1,-1.24912E0,7.500102E-2,5.272279E-1,-1.5511156E0,7.05391E-1,-7.1849626E-1,1.659674E-2,3.4516132E-1,9.997366E-1,9.028273E-2,-1.1246357E0,4.2116386E-1,1.02529764E-1,5.8189034E-1,-4.8411462E-1,-1.5901867E0,4.095309E-1,-1.007529E0,9.355604E-1,1.2886222E-1,-6.3011146E-1,-4.8116855E-3,1.8104333E-1,7.2279924E-1,9.698229E-1,8.7868065E-2,-1.7201698E0,2.8197476E-1,3.9792296E-2,2.939547E-1],"categories":[],"categories_nodes":[],"categories_segments":[],"categories_sizes":[],"default_left":[1,1,1,1,1,1,1,1,1,1,1,1,1,1,1,1,1,1,1,1,1,0,0,1,1,1,1,1,1,1,1,0,0,0,0,0,0,0,0,0,0,0,0,0,0,0,0,0,0,0,0,0,0,0,0,0,0,0,0],"id":24,"left_children":[1,3,5,7,9,11,13,15,17,19,21,23,25,27,29,31,33,35,37,39,41,-1,-1,43,45,47,49,51,53,55,57,-1,-1,-1,-1,-1,-1,-1,-1,-1,-1,-1,-1,-1,-1,-1,-1,-1,-1,-1,-1,-1,-1,-1,-1,-1,-1,-1,-1],"loss_changes":[1.1966347E1,1.1260094E1,1.18023815E1,1.7905094E1,1.129017E1,1.3718802E1,1.2886288E1,8.5645485E0,1.2871408E1,8.520816E0,5.6252527E0,7.082348E0,1.368902E1,1.7271343E1,1.274172E1,8.177419E0,7.4453125E0,1.5291199E1,3.58679E0,5.593308E0,8.618174E0,0E0,0E0,7.5034866E0,4.4534926E0,1.2479217E1,2.1737192E1,1.5064468E1,1.1297586E1,5.7563734E0,1.0502756E1,0E0,0E0,0E0,0E0,0E0,0E0,0E0,0E0,0E0,0E0,0E0,0E0,0E0,0E0,0E0,0E0,0E0,0E0,0E0,0E0,0E0,0E0,0E0,0E0,0E0,0E0,0E0,0E0],"parents":[2147483647,0,0,1,1,2,2,3,3,4,4,5,5,6,6,7,7,8,8,9,9,10,10,11,11,12,12,13,13,14,14,15,15,16,16,17,17,18,18,19,19,20,20,23,23,24,24,25,25,26,26,27,27,28,28,29,29,30,30],"right_children":[2,4,6,8,10,12,14,16,18,20,22,24,26,28,30,32,34,36,38,40,42,-1,-1,44,46,48,50,52,54,56,58,-1,-1,-1,-1,-1,-1,-1,-1,-1,-1,-1,-1,-1,-1,-1,-1,-1,-1,-1,-1,-1,-1,-1,-1,-1,-1,-1,-1],"split_conditions":[-1.5710955E-4,-6.7385007E-4,-6.035534E-1,6.9159456E-4,2.0205537E-3,1.0896527E-3,7.334491E-4,4.992482E-4,-8.715136E-4,-6.2084256E-4,3.6829105E-3,2.37343E-3,1.4460632E-3,-9.293639E-4,-1.5290675E-4,9.963885E-4,1.497245E-3,1.0793735E-3,5.017438E-4,1.4585757E-3,1.7779147E-3,7.152625E-2,-2.4112003E-2,5.748932E-4,6.306159E-3,-4.0450245E-3,8.034458E-4,-2.400773E-3,-1.2229433E-3,9.159756E-1,1.4767618E-3,2.6361395E-2,-7.755578E-2,3.526955E-2,-3.5924815E-2,8.29837E-4,1.7258067E-2,4.998683E-2,4.514137E-3,-5.6231786E-2,2.1058192E-2,5.1264884E-3,2.9094517E-2,-2.4205731E-2,-7.950934E-2,2.0476546E-2,-5.0376453E-2,4.677802E-2,6.4431108E-3,-3.1505574E-2,-2.4058428E-4,9.052167E-3,3.613996E-2,4.8491146E-2,4.3934034E-3,-8.600849E-2,1.4098738E-2,1.989615E-3,1.4697735E-2],"split_indices":[0,4,7,3,11,6,3,11,4,4,3,4,6,4,0,6,6,11,1,6,1,0,0,4,4,4,3,4,1,7,0,0,0,0,0,0,0,0,0,0,0,0,0,0,0,0,0,0,0,0,0,0,0,0,0,0,0,0,0],"split_type":[0,0,0,0,0,0,0,0,0,0,0,0,0,0,0,0,0,0,0,0,0,0,0,0,0,0,0,0,0,0,0,0,0,0,0,0,0,0,0,0,0,0,0,0,0,0,0,0,0,0,0,0,0,0,0,0,0,0,0],"sum_hessian":[4.520463E3,1.8043418E3,2.7161208E3,7.304687E2,1.0738732E3,7.373846E2,1.9787362E3,1.3381119E2,5.966575E2,1.0642153E3,9.657874E0,4.4069054E1,6.9331555E2,6.095222E2,1.3692141E3,5.8153205E0,1.27995865E2,5.670049E2,2.9652575E1,1.0544899E1,1.0536704E3,8.325455E0,1.332419E0,3.2806522E1,1.1262529E1,2.4416838E2,4.4914716E2,2.0776791E2,4.0175427E2,6.3088856E0,1.3629052E3,3.1656237E0,2.6496968E0,1.2498225E2,3.0136213E0,2.9718375E2,2.6982117E2,2.4157955E1,5.4946203E0,7.9750056E0,2.5698938E0,1.01566077E3,3.8009598E1,2.4897446E1,7.909076E0,9.436168E0,1.8263615E0,2.0033926E1,2.2413446E2,6.3974648E1,3.8517252E2,9.5364876E1,1.1240304E2,1.4108407E1,3.8764587E2,4.7301416E0,1.5787443E0,1.1751221E3,1.8778313E2],"tree_param":{"num_deleted":"0","num_feature":"12","num_nodes":"59","size_leaf_vector":"0"}},{"base_weights":[1.1634017E-1,3.9474198E-1,1.0688108E-1,-9.956556E-2,4.8738226E-1,1.12456955E-1,-4.1870216E-1,-7.499852E-1,7.513738E-1,6.9370747E-1,2.939045E-1,1.0791742E-1,1.1786636E0,-6.504245E-1,1.0288501E0,-1.3071429E0,8.2088864E-1,1.0942223E0,-4.0562475E-1,7.6737404E-1,-1.0921779E0,4.6606424E-1,-5.27188E-1,1.05837844E-1,1.3435636E0,5.2531123E-1,1.4144003E0,-8.066859E-1,9.112284E-1,1.3712072E0,-3.707691E-1,-3.2985546E-2,-1.6487483E0,1.150809E0,-3.3638455E-2,1.2635562E0,1.5699102E-2,-2.048816E-2,-6.175452E-1,4.6645337E-1,1.263761E0,-6.5270823E-1,6.262962E-1,6.3011386E-2,-1.1960278E0,1.0986972E-1,-6.1360687E-1,1.188986E0,-2.0160875E-1,5.770586E-1,-9.985537E-1],"categories":[],"categories_nodes":[],"categories_segments":[],"categories_sizes":[],"default_left":[1,1,1,1,1,1,1,1,1,1,1,1,1,1,1,1,1,1,1,1,0,1,1,1,0,1,0,1,0,0,0,0,0,0,0,0,0,0,0,0,0,0,0,0,0,0,0,0,0,0,0],"id":25,"left_children":[1,3,5,7,9,11,13,15,17,19,21,23,25,27,29,31,33,35,37,39,-1,41,43,45,-1,47,-1,49,-1,-1,-1,-1,-1,-1,-1,-1,-1,-1,-1,-1,-1,-1,-1,-1,-1,-1,-1,-1,-1,-1,-1],"loss_changes":[1.1904961E1,6.858156E0,1.2909523E1,1.4013403E1,4.8021717E0,2.0896873E1,1.6194847E1,1.35658245E1,4.818094E0,8.725414E0,9.639318E0,1.0975086E1,2.0778503E0,1.0620949E1,3.7544336E0,4.699703E0,1.2654843E0,1.5831127E0,2.5262934E-1,8.098713E0,0E0,1.0351585E1,4.80735E0,1.2599197E1,0E0,3.3499618E0,0E0,1.0494364E1,0E0,0E0,0E0,0E0,0E0,0E0,0E0,0E0,0E0,0E0,0E0,0E0,0E0,0E0,0E0,0E0,0E0,0E0,0E0,0E0,0E0,0E0,0E0],"parents":[2147483647,0,0,1,1,2,2,3,3,4,4,5,5,6,6,7,7,8,8,9,9,10,10,11,11,12,12,13,13,14,14,15,15,16,16,17,17,18,18,19,19,21,21,22,22,23,23,25,25,27,27],"right_children":[2,4,6,8,10,12,14,16,18,20,22,24,26,28,30,32,34,36,38,40,-1,42,44,46,-1,48,-1,50,-1,-1,-1,-1,-1,-1,-1,-1,-1,-1,-1,-1,-1,-1,-1,-1,-1,-1,-1,-1,-1,-1,-1],"split_conditions":[1.7609634E1,7.1716367E-4,2.3154663E-3,-1.8706665E-3,9.923002E-4,2.235746E-3,6.0716085E-3,8.3568227E-4,7.1501505E-5,5.316156E-4,7.865661E-1,1.1987133E-2,1.7650531E-3,9.655575E-3,3.413925E-3,5.5847E-4,2.6390094E-3,6.078576E-1,1.3698485E1,1.4489361E-3,-5.4608893E-2,8.4898045E-4,1.2830857E-3,9.220179E-3,6.717818E-2,6.078576E-1,7.072002E-2,1.8049779E-3,4.556142E-2,6.856036E-2,-1.8538456E-2,-1.6492773E-3,-8.243742E-2,5.7540454E-2,-1.6819228E-3,6.317782E-2,7.849551E-4,-1.024408E-3,-3.087726E-2,2.332267E-2,6.318805E-2,-3.2635413E-2,3.1314813E-2,3.1505693E-3,-5.980139E-2,5.493486E-3,-3.0680344E-2,5.9449296E-2,-1.0080437E-2,2.885293E-2,-4.9927685E-2],"split_indices":[5,11,3,2,11,3,2,4,0,0,8,4,11,4,3,3,4,9,5,6,0,3,11,4,0,9,0,11,0,0,0,0,0,0,0,0,0,0,0,0,0,0,0,0,0,0,0,0,0,0,0],"split_type":[0,0,0,0,0,0,0,0,0,0,0,0,0,0,0,0,0,0,0,0,0,0,0,0,0,0,0,0,0,0,0,0,0,0,0,0,0,0,0,0,0,0,0,0,0,0,0,0,0,0,0],"sum_hessian":[4.535731E3,1.4770537E2,4.388026E3,2.3301117E1,1.2440426E2,4.3427397E3,4.5285812E1,1.3273835E1,1.0027283E1,5.8952106E1,6.545215E1,4.325425E3,1.731494E1,3.951153E1,5.7742834E0,9.922434E0,3.351401E0,7.777011E0,2.250271E0,5.716442E1,1.7876818E0,5.4464813E1,1.0987336E1,4.319241E3,6.1835804E0,5.4469404E0,1.1868E1,3.635703E1,3.1545E0,4.6557517E0,1.1185317E0,2.329642E0,7.592792E0,2.1677456E0,1.1836555E0,6.5733924E0,1.2036188E0,1.1879721E0,1.0622991E0,3.6796986E1,2.0367437E1,6.438233E0,4.802658E1,6.317989E0,4.6693473E0,4.296013E3,2.3228231E1,2.5150564E0,2.931884E0,4.1828504E0,3.217418E1],"tree_param":{"num_deleted":"0","num_feature":"12","num_nodes":"51","size_leaf_vector":"0"}},{"base_weights":[1.0814312E-1,2.119116E-1,8.29063E-2,-9.6267617E-1,2.3582974E-1,2.507327E-1,6.383702E-2,5.531271E-2,-1.1813334E0,2.7930862E-1,-1.6663073E-1,-7.42043E-1,3.4002134E-1,-2.4393143E-1,8.174997E-2,1.1408428E0,-9.8714525E-1,-2.013924E-1,-1.2439817E0,1.8403506E-1,5.040221E-1,-3.0330956E-1,6.653615E-1,1.6986297E-1,-1.3137513E0,3.7382895E-1,-6.7247283E-1,-1.9536203E-1,-1.8505758E0,2.8211418E-1,4.9243204E-2,-1.3094479E0,-2.6092273E-1,2.9994473E-1,-2.4327222E-1,6.450146E-1,2.0011553E-1,1.2694858E0,-3.8545293E-1,-8.9496773E-1,9.768852E-1,7.7279603E-1,-3.9709032E-1,4.7468913E-1,-1.5449208E0,-1.4028462E0,3.874489E-1,-1.3685681E0,6.990467E-2,-1.24409445E-1,-1.1830456E0,-9.464052E-1,3.2476953E-1,4.2638865E-1,3.233717E-2],"categories":[],"categories_nodes":[],"categories_segments":[],"categories_sizes":[],"default_left":[1,1,1,1,1,1,1,1,1,1,1,1,1,1,1,0,0,0,1,1,1,1,1,1,1,1,1,1,0,1,1,0,0,0,0,0,0,0,0,0,0,0,0,0,0,0,0,0,0,0,0,0,0,0,0],"id":26,"left_children":[1,3,5,7,9,11,13,15,17,19,21,23,25,27,29,-1,-1,-1,31,33,35,37,39,41,43,45,47,49,-1,51,53,-1,-1,-1,-1,-1,-1,-1,-1,-1,-1,-1,-1,-1,-1,-1,-1,-1,-1,-1,-1,-1,-1,-1,-1],"loss_changes":[1.1827393E1,2.5067375E1,1.16328125E1,4.036846E0,1.5223831E1,3.31428E1,1.8046707E1,5.7771707E0,6.5390396E-1,1.6673992E1,9.889504E0,1.634911E1,1.1927605E1,1.3692112E1,2.0116716E1,0E0,0E0,0E0,5.3705025E-1,2.739079E1,9.837597E0,1.0031457E1,6.869431E0,4.684032E0,8.640911E0,8.546627E0,5.975987E0,1.2181797E1,0E0,2.2905048E1,1.6949741E1,0E0,0E0,0E0,0E0,0E0,0E0,0E0,0E0,0E0,0E0,0E0,0E0,0E0,0E0,0E0,0E0,0E0,0E0,0E0,0E0,0E0,0E0,0E0,0E0],"parents":[2147483647,0,0,1,1,2,2,3,3,4,4,5,5,6,6,7,7,8,8,9,9,10,10,11,11,12,12,13,13,14,14,18,18,19,19,20,20,21,21,22,22,23,23,24,24,25,25,26,26,27,27,29,29,30,30],"right_children":[2,4,6,8,10,12,14,16,18,20,22,24,26,28,30,-1,-1,-1,32,34,36,38,40,42,44,46,48,50,-1,52,54,-1,-1,-1,-1,-1,-1,-1,-1,-1,-1,-1,-1,-1,-1,-1,-1,-1,-1,-1,-1,-1,-1,-1,-1],"split_conditions":[-2.1694186E-1,5.3263933E-4,6.48801E-4,3.8967963E-4,1.5238114E-3,4.2365136E-4,6.8557356E-4,7.862431E-4,2.9114952E1,1.0573606E-3,5.2421372E-3,-1.2940952E-1,7.467139E-4,6.0522687E-3,9.4446994E-4,5.704214E-2,-4.935726E-2,-1.006962E-2,9.159756E-1,9.5631613E-4,5.934011E1,-2.1717608E-2,-1.6204456E-3,4.1323643E1,2.784108E1,-5.5047832E-3,6.3424266E-4,8.073114E-4,-9.252879E-2,-6.0727187E-3,1.8350788E1,-6.5472394E-2,-1.3046137E-2,1.4997236E-2,-1.2163611E-2,3.225073E-2,1.0005777E-2,6.347429E-2,-1.9272646E-2,-4.474839E-2,4.884426E-2,3.8639802E-2,-1.9854516E-2,2.3734456E-2,-7.724604E-2,-7.0142314E-2,1.9372446E-2,-6.8428405E-2,3.4952336E-3,-6.2204725E-3,-5.9152283E-2,-4.7320258E-2,1.6238477E-2,2.1319432E-2,1.6168585E-3],"split_indices":[9,11,11,3,3,3,11,4,5,11,4,8,3,4,6,0,0,0,7,11,5,4,1,5,5,4,11,3,0,4,5,0,0,0,0,0,0,0,0,0,0,0,0,0,0,0,0,0,0,0,0,0,0,0,0],"split_type":[0,0,0,0,0,0,0,0,0,0,0,0,0,0,0,0,0,0,0,0,0,0,0,0,0,0,0,0,0,0,0,0,0,0,0,0,0,0,0,0,0,0,0,0,0,0,0,0,0,0,0,0,0,0,0],"sum_hessian":[4.5220713E3,8.8318854E2,3.6388826E3,1.6842192E1,8.663464E2,3.7004184E2,3.2688408E3,3.1100333E0,1.3732158E1,7.821542E2,8.419221E1,2.9931477E1,3.4011035E2,1.7909703E2,3.089744E3,1.4773083E0,1.6327251E0,1.0784094E0,1.26537485E1,5.505515E2,2.3160266E2,7.285853E1,1.1333682E1,1.1804902E1,1.8126575E1,3.2973126E2,1.0379086E1,1.7493042E2,4.166609E0,4.3022958E2,2.6595142E3,1.155241E1,1.1013385E0,4.3331125E2,1.17240234E2,1.5743903E2,7.416365E1,2.8988996E0,6.9959625E1,1.5745181E0,9.759164E0,5.5449705E0,6.2599316E0,1.9542341E0,1.617234E1,1.7325029E0,3.2799878E2,4.921198E0,5.457887E0,1.6425662E2,1.0673801E1,1.37257595E1,4.165038E2,1.1306226E2,2.546452E3],"tree_param":{"num_deleted":"0","num_feature":"12","num_nodes":"55","size_leaf_vector":"0"}},{"base_weights":[1.17154E-1,1.8740426E-1,7.6441504E-2,1.8959497E-1,-1.1162627E0,-2.7086426E-2,1.1548698E-1,1.4936237E-1,2.7150202E-1,6.99591E-1,-4.6859868E-2,-8.283764E-2,1.4026421E-1,1.9467367E-1,-1.8021464E-1,3.7055713E-1,4.1713838E-2,1.093525E0,-1.5447678E-1,1.9087131E-1,-1.0024949E-1,-8.595316E-1,-6.99042E-3,1.8561527E-1,4.9028113E-2,1.7020905E-1,6.318239E-1,-7.265745E-1,-1.921786E-2,-7.3994905E-1,3.8374153E-1,1.4230642E-1,-9.0811455E-1,1.2138392E0,4.4848898E-1,-1.0997735E0,6.7149884E-1,-1.3181738E0,2.455485E-1,4.9738723E-1,-1.3700934E-1,-1.6789633E0,-4.4807738E-1,1.3666074E0,-3.7593536E-2,2.8903782E-1,8.509897E-2,5.625888E-1,1.8442633E-2],"categories":[],"categories_nodes":[],"categories_segments":[],"categories_sizes":[],"default_left":[1,1,1,1,0,1,1,1,1,1,1,1,1,1,1,1,1,1,1,1,1,1,1,1,1,0,0,0,0,0,0,0,0,0,0,0,0,0,0,0,0,0,0,0,0,0,0,0,0],"id":27,"left_children":[1,3,5,7,-1,9,11,13,15,17,19,21,23,25,27,29,31,33,35,37,39,41,43,45,47,-1,-1,-1,-1,-1,-1,-1,-1,-1,-1,-1,-1,-1,-1,-1,-1,-1,-1,-1,-1,-1,-1,-1,-1],"loss_changes":[1.2931992E1,4.952877E0,1.1594246E1,5.4237556E0,0E0,1.1328165E1,1.0244196E1,1.667422E1,1.23892975E1,7.196105E0,9.744186E0,1.3654719E1,7.651634E0,1.0373508E1,1.1877612E1,5.8578415E0,1.5921827E1,5.7449913E-1,6.5702925E0,1.1946291E1,1.3828442E1,6.2006598E0,8.97439E0,1.2828232E1,9.66705E0,0E0,0E0,0E0,0E0,0E0,0E0,0E0,0E0,0E0,0E0,0E0,0E0,0E0,0E0,0E0,0E0,0E0,0E0,0E0,0E0,0E0,0E0,0E0,0E0],"parents":[2147483647,0,0,1,1,2,2,3,3,5,5,6,6,7,7,8,8,9,9,10,10,11,11,12,12,13,13,14,14,15,15,16,16,17,17,18,18,19,19,20,20,21,21,22,22,23,23,24,24],"right_children":[2,4,6,8,-1,10,12,14,16,18,20,22,24,26,28,30,32,34,36,38,40,42,44,46,48,-1,-1,-1,-1,-1,-1,-1,-1,-1,-1,-1,-1,-1,-1,-1,-1,-1,-1,-1,-1,-1,-1,-1,-1],"split_conditions":[-2.1142473E-4,3.2362149E-3,-6.035534E-1,1.0681418E-3,-5.5813134E-2,1.7503979E1,-4.3161428E-3,1.0023809E-3,3.7940952E-1,-1.4002719E-3,-2.1694186E-1,7.75071E-4,6.228069E1,9.80486E-4,-3.4083074E-3,-6.345303E-3,6.4598084E-3,1.654683E1,1.4898826E-3,-7.644649E-3,-6.001997E-3,-5.8408864E-3,7.895746E-4,3.0637614E-4,-1.2195563E-4,8.510453E-3,3.1591196E-2,-3.6328726E-2,-9.60893E-4,-3.6997452E-2,1.9187076E-2,7.115321E-3,-4.5405727E-2,6.069196E-2,2.242445E-2,-5.498868E-2,3.3574942E-2,-6.590869E-2,1.2277425E-2,2.4869362E-2,-6.850467E-3,-8.3948165E-2,-2.240387E-2,6.833037E-2,-1.8796768E-3,1.4451891E-2,4.2549483E-3,2.8129442E-2,9.2213164E-4],"split_indices":[0,11,7,11,0,5,4,11,8,4,9,11,5,11,4,0,4,5,4,4,4,4,11,4,0,0,0,0,0,0,0,0,0,0,0,0,0,0,0,0,0,0,0,0,0,0,0,0,0],"split_type":[0,0,0,0,0,0,0,0,0,0,0,0,0,0,0,0,0,0,0,0,0,0,0,0,0,0,0,0,0,0,0,0,0,0,0,0,0,0,0,0,0,0,0,0,0,0,0,0,0],"sum_hessian":[4.5255825E3,1.6591249E3,2.8664575E3,1.6571947E3,1.9302152E0,7.8509845E2,2.081359E3,1.1132108E3,5.439838E2,1.9886482E1,7.65212E2,2.3089116E2,1.8504678E3,9.790212E2,1.3418965E2,3.7969537E2,1.6428844E2,1.3417406E1,6.469076E0,1.3986255E2,6.253494E2,1.9622242E1,2.1126892E2,1.2353656E3,6.151022E2,9.2845087E2,5.0570354E1,2.9742456E1,1.0444719E2,3.808243E0,3.7588715E2,1.4932426E2,1.4964169E1,1.0564977E1,2.852429E0,2.8620677E0,3.6070087E0,4.082435E0,1.3578012E2,3.5509533E1,5.898399E2,5.5294685E0,1.4092773E1,3.6529548E0,2.0761597E2,6.07956E2,6.2740967E2,3.3596107E1,5.815061E2],"tree_param":{"num_deleted":"0","num_feature":"12","num_nodes":"49","size_leaf_vector":"0"}},{"base_weights":[9.9199265E-2,9.714018E-2,1.1796308E0,1.3538876E-1,3.6563594E-2,1.3722738E0,-2.1197512E-3,1.2251181E-1,5.337583E-1,-3.8810527E-1,5.3722735E-2,3.495135E-1,1.0655087E-1,7.1390057E-1,-2.0478167E-2,-4.9546266E-1,1.2333727E0,4.5339832E-1,2.9352807E-2,1.4222245E-1,1.0692735E0,5.811473E-1,9.7984515E-2,9.574569E-1,2.8500059E-3,-1.094322E0,1.975313E-1,7.346142E-1,-6.039498E-1,7.410035E-1,-4.3888543E-2,4.920257E-3,3.0851123E-1],"categories":[],"categories_nodes":[],"categories_segments":[],"categories_sizes":[],"default_left":[1,1,1,1,1,0,0,1,1,1,1,1,1,1,1,1,0,1,1,0,0,0,0,0,0,0,0,0,0,0,0,0,0],"id":28,"left_children":[1,3,5,7,9,-1,-1,11,13,15,17,19,21,23,25,27,-1,29,31,-1,-1,-1,-1,-1,-1,-1,-1,-1,-1,-1,-1,-1,-1],"loss_changes":[9.874489E0,1.0381168E1,1.9268694E0,1.4027855E1,1.2673155E1,0E0,0E0,9.609814E0,8.573694E0,1.2370658E1,1.6250092E1,2.5879744E1,1.0062794E1,1.1206558E1,5.3667235E0,8.993931E0,0E0,1.3747072E1,1.0739837E1,0E0,0E0,0E0,0E0,0E0,0E0,0E0,0E0,0E0,0E0,0E0,0E0,0E0,0E0],"parents":[2147483647,0,0,1,1,2,2,3,3,4,4,7,7,8,8,9,9,10,10,11,11,12,12,13,13,14,14,15,15,17,17,18,18],"right_children":[2,4,6,8,10,-1,-1,12,14,16,18,20,22,24,26,28,-1,30,32,-1,-1,-1,-1,-1,-1,-1,-1,-1,-1,-1,-1,-1,-1],"split_conditions":[9.3363556E1,5.5530342E1,5.8865696E-3,5.4788845E1,5.011556E-4,6.861369E-2,-1.0598756E-4,5.406993E-4,1.138939E-3,1.1538863E-3,5.8127055E-4,7.213552E-4,5.7598064E-4,6.035534E-1,1.1937437E-3,-6.045116E-4,6.1668634E-2,3.7940952E-1,1.6906587E-3,7.1111224E-3,5.3463675E-2,2.9057367E-2,4.8992257E-3,4.7872845E-2,1.425003E-4,-5.47161E-2,9.876565E-3,3.673071E-2,-3.019749E-2,3.7050176E-2,-2.1944272E-3,2.4601285E-4,1.5425562E-2],"split_indices":[5,5,2,5,3,0,0,3,11,11,3,11,11,7,11,1,0,7,0,0,0,0,0,0,0,0,0,0,0,0,0,0,0],"split_type":[0,0,0,0,0,0,0,0,0,0,0,0,0,0,0,0,0,0,0,0,0,0,0,0,0,0,0,0,0,0,0,0,0],"sum_hessian":[4.489084E3,4.481633E3,7.4511714E0,2.7463372E3,1.7352958E3,6.268148E0,1.1830233E0,2.6616104E3,8.472669E1,6.655359E1,1.6687422E3,1.7347623E2,2.4881343E3,6.3725918E1,2.1000776E1,6.307205E1,3.4815361E0,9.489099E1,1.5738512E3,1.356163E2,3.7859924E1,4.2928963E1,2.4452053E3,4.7208904E1,1.6517015E1,2.8656933E0,1.8135082E1,4.644067E0,5.8427982E1,5.9809917E1,3.5081074E1,1.4481257E3,1.2572548E2],"tree_param":{"num_deleted":"0","num_feature":"12","num_nodes":"33","size_leaf_vector":"0"}},{"base_weights":[1.0438498E-1,1.3501938E-1,1.6057769E-2,9.334669E-2,2.1891667E-1,-1.07808E0,2.4012377E-2,1.19623154E-1,-3.667461E-1,3.5308167E-1,3.789339E-2,-1.4750012E0,8.802833E-2,1.5885076E-2,1.0639849E0,2.0408781E-1,1.25469435E-2,8.8642853E-1,-5.0379854E-1,3.8581198E-1,-5.17037E-1,-5.5667204E-1,1.16100326E-1,-1.6384658E0,-3.7336865E-1,1.6932602E-1,-4.2715233E-2,1.2276374E0,-3.6053346E-3,-7.8847146E-1,2.1899706E-1,-6.776359E-2,2.1470594E-1,-5.544349E-1,1.0756164E0,-9.747351E-1,-1.3892077E-1,3.3175877E-1,8.618729E-1,2.0802659E-1,-1.2956952E0,1.2516822E-1,-8.3944315E-1,2.4133077E-1,-1.5456976E-1,-8.738361E-1,1.9016837E-1,-6.553392E-2,4.1848084E-1],"categories":[],"categories_nodes":[],"categories_segments":[],"categories_sizes":[],"default_left":[1,1,1,1,1,1,1,1,1,1,1,1,0,1,1,1,1,1,1,1,1,1,1,0,0,1,1,0,0,0,0,0,0,0,0,0,0,0,0,0,0,0,0,0,0,0,0,0,0],"id":29,"left_children":[1,3,5,7,9,11,13,15,17,19,21,23,-1,25,27,29,31,33,35,37,39,41,43,-1,-1,45,47,-1,-1,-1,-1,-1,-1,-1,-1,-1,-1,-1,-1,-1,-1,-1,-1,-1,-1,-1,-1,-1,-1],"loss_changes":[1.2164562E1,1.1651409E1,1.0113511E1,2.7030832E1,2.687645E1,4.011985E0,9.717052E0,1.9102304E1,2.120172E1,1.8305588E1,2.2031061E1,5.252266E-1,0E0,1.0291351E1,1.5620213E0,1.7646816E1,1.515545E1,3.942607E0,1.8692303E1,1.5495621E1,1.3523117E1,1.0726236E1,1.4216649E1,0E0,0E0,7.042885E0,8.745928E0,0E0,0E0,0E0,0E0,0E0,0E0,0E0,0E0,0E0,0E0,0E0,0E0,0E0,0E0,0E0,0E0,0E0,0E0,0E0,0E0,0E0,0E0],"parents":[2147483647,0,0,1,1,2,2,3,3,4,4,5,5,6,6,7,7,8,8,9,9,10,10,11,11,13,13,14,14,15,15,16,16,17,17,18,18,19,19,