{"learner":{"attributes":{"best_iteration":"0","best_ntree_limit":"1","best_score":"0.694212726698308"},"feature_names":["ret_1","ret_3","ret_6","vol_24","sma_diff","rsi","atr_norm","hour_sin","hour_cos","dow_sin","dow_cos"],"feature_types":[],"gradient_booster":{"model":{"gbtree_model_param":{"num_parallel_tree":"1","num_trees":"51","size_leaf_vector":"0"},"tree_info":[0,0,0,0,0,0,0,0,0,0,0,0,0,0,0,0,0,0,0,0,0,0,0,0,0,0,0,0,0,0,0,0,0,0,0,0,0,0,0,0,0,0,0,0,0,0,0,0,0,0,0],"trees":[{"base_weights":[1.02984205E-1,1.2E0,7.995227E-2,1.4461539E0,-1.1111112E0,3.5068494E-1,4.569688E-3,1.7288135E0,-8E-1,1.2972972E0,2.4242425E-1,-5.017301E-2,4.025157E-1,1.5409836E0,1.1764706E-1,2.857143E-1,-1.2E0,7.7593036E-2,-2.0322888E-1,5.787546E-1,-6.122449E-1],"categories":[],"categories_nodes":[],"categories_segments":[],"categories_sizes":[],"default_left":[1,1,1,1,0,1,1,0,0,1,1,1,1,0,0,0,0,0,0,0,0],"id":0,"left_children":[1,3,5,7,-1,9,11,-1,-1,13,15,17,19,-1,-1,-1,-1,-1,-1,-1,-1],"loss_changes":[2.1494194E1,1.1562393E1,1.7100742E1,1.170013E1,0E0,1.8388271E1,1.4321811E1,0E0,0E0,5.1368027E0,1.0645887E1,1.1318757E1,1.457214E1,0E0,0E0,0E0,0E0,0E0,0E0,0E0,0E0],"parents":[2147483647,0,0,1,1,2,2,3,3,5,5,6,6,9,9,10,10,11,11,12,12],"right_children":[2,4,6,8,-1,10,12,-1,-1,14,16,18,20,-1,-1,-1,-1,-1,-1,-1,-1],"split_conditions":[4.8510428E-4,4.4673663E-3,-2.46363E-3,1.0149593E-3,-5.555556E-2,7.399521E-4,2.5794748E-3,8.6440675E-2,-4.0000003E-2,8.2328706E-4,2.4798773E-3,3.2110685E-5,8.238276E1,7.704918E-2,5.882353E-3,1.4285715E-2,-6.0000002E-2,3.879652E-3,-1.0161444E-2,2.8937731E-2,-3.0612245E-2],"split_indices":[3,4,4,1,0,3,2,0,0,1,3,2,5,0,0,0,0,0,0,0,0],"split_type":[0,0,0,0,0,0,0,0,0,0,0,0,0,0,0,0,0,0,0,0,0],"sum_hessian":[8.535E2,1.65E1,8.37E2,1.525E1,1.25E0,1.815E2,6.555E2,1.375E1,1.5E0,1.75E1,1.64E2,5.77E2,7.85E1,1.425E1,3.25E0,1.6E2,4E0,3.1475E2,2.6225E2,6.725E1,1.125E1],"tree_param":{"num_deleted":"0","num_feature":"11","num_nodes":"21","size_leaf_vector":"0"}},{"base_weights":[9.3861565E-2,1.1507165E0,7.315694E-2,1.5061576E0,-7.6019317E-1,-6.317948E-1,1.0415088E-1,1.6736743E0,4.2404354E-1,-1.3207612E0,-2.8269723E-1,5.853022E-2,4.0531856E-1,-1.618708E0,6.570428E-1,4.7725323E-1,-5.6143606E-1,1.8107091E-1,-9.386091E-2,5.771449E-1,-5.498427E-1],"categories":[],"categories_nodes":[],"categories_segments":[],"categories_sizes":[],"default_left":[1,1,1,1,0,1,1,0,0,1,1,1,1,0,0,0,0,0,0,0,0],"id":1,"left_children":[1,3,5,7,-1,9,11,-1,-1,13,15,17,19,-1,-1,-1,-1,-1,-1,-1,-1],"loss_changes":[1.875424E1,1.2334436E1,1.8538101E1,1.8690376E0,0E0,8.224344E0,1.1114818E1,0E0,0E0,7.9871616E0,5.5631466E0,1.3186298E1,1.7793028E1,0E0,0E0,0E0,0E0,0E0,0E0,0E0,0E0],"parents":[2147483647,0,0,1,1,2,2,3,3,5,5,6,6,9,9,10,10,11,11,12,12],"right_children":[2,4,6,8,-1,10,12,-1,-1,14,16,18,20,-1,-1,-1,-1,-1,-1,-1,-1],"split_conditions":[4.8145582E-4,8.576903E-4,7.5944397E-4,4.6770653E-4,-3.800966E-2,6.213977E-4,2.5794748E-3,8.368372E-2,2.1202177E-2,8.117449E-1,6.799674E-4,2.9033145E-5,8.098286E1,-8.09354E-2,3.285214E-2,2.3862662E-2,-2.8071804E-2,9.053546E-3,-4.6930457E-3,2.8857246E-2,-2.7492136E-2],"split_indices":[3,1,6,3,0,3,2,0,0,10,3,2,5,0,0,0,0,0,0,0,0],"split_type":[0,0,0,0,0,0,0,0,0,0,0,0,0,0,0,0,0,0,0,0,0],"sum_hessian":[8.5991785E2,1.5474101E1,8.444438E2,1.3225827E1,2.2482746E0,3.474691E1,8.0969684E2,1.0979478E1,2.2463493E0,1.0749241E1,2.3997671E1,7.042169E2,1.0547993E2,9.499716E0,1.2495244E0,6.2488065E0,1.7748865E1,3.9023395E2,3.1398297E2,8.973333E1,1.5746595E1],"tree_param":{"num_deleted":"0","num_feature":"11","num_nodes":"21","size_leaf_vector":"0"}},{"base_weights":[7.961454E-2,-6.295029E-1,1.1008549E-1,1.151818E-2,-1.4577793E0,1.0455037E0,9.092751E-2,5.059982E-1,-6.712496E-1,-1.6799843E0,6.0342264E-1,1.348547E0,-1.1821631E0,7.242648E-2,9.1008013E-1,-4.6053475E-1,7.571425E-1,-9.6539545E-1,1.6849267E-1,1.6719297E0,6.2782586E-1,1.3551351E-1,-1.4789663E-1,1.2250191E0,-1.253104E0],"categories":[],"categories_nodes":[],"categories_segments":[],"categories_sizes":[],"default_left":[1,1,1,1,1,1,1,1,1,0,0,1,0,1,1,0,0,0,0,0,0,0,0,0,0],"id":2,"left_children":[1,3,5,7,9,11,13,15,17,-1,-1,19,-1,21,23,-1,-1,-1,-1,-1,-1,-1,-1,-1,-1],"loss_changes":[1.8592285E1,1.8847939E1,1.464977E1,7.4248176E0,8.104393E0,1.2677425E1,1.2169817E1,3.4415243E0,2.446127E0,0E0,0E0,2.4274292E0,0E0,1.1009264E1,1.362461E1,0E0,0E0,0E0,0E0,0E0,0E0,0E0,0E0,0E0,0E0],"parents":[2147483647,0,0,1,1,2,2,3,3,4,4,5,5,6,6,7,7,8,8,11,11,13,13,14,14],"right_children":[2,4,6,8,10,12,14,16,18,-1,-1,20,-1,22,24,-1,-1,-1,-1,-1,-1,-1,-1,-1,-1],"split_conditions":[7.5944397E-4,8.897948E-4,4.887445E-4,6.721339E-5,7.4888435E1,4.3458706E-3,2.8491507E-3,3.582051E1,8.783797E-1,-8.399922E-2,3.0171132E-2,2.1958419E-3,-5.9108157E-2,1.1333008E-3,2.4798773E-3,-2.3026738E-2,3.7857126E-2,-4.8269775E-2,8.424634E-3,8.359649E-2,3.1391293E-2,6.775676E-3,-7.3948316E-3,6.1250955E-2,-6.26552E-2],"split_indices":[6,4,3,0,5,4,6,5,9,0,0,4,0,3,3,0,0,0,0,0,0,0,0,0,0],"split_type":[0,0,0,0,0,0,0,0,0,0,0,0,0,0,0,0,0,0,0,0,0,0,0,0,0],"sum_hessian":[8.562487E2,3.4467384E1,8.217813E2,1.9985933E1,1.4481453E1,1.5417653E1,8.0636365E2,1.1741385E1,8.244547E0,1.3239172E1,1.2422812E0,1.3918826E1,1.4988272E0,7.896181E2,1.6745558E1,2.2496858E0,9.4917E0,5.9949846E0,2.2495625E0,8.696821E0,5.2220054E0,6.1414856E2,1.7546956E2,1.4995982E1,1.7495757E0],"tree_param":{"num_deleted":"0","num_feature":"11","num_nodes":"25","size_leaf_vector":"0"}},{"base_weights":[9.9394545E-2,5.9278686E-2,5.297278E-1,3.34974E-1,-1.157024E-2,7.7081895E-1,-9.3202937E-1,1.2433622E0,2.3256482E-1,9.9214673E-1,-3.8115785E-2,9.758255E-1,1.3373558E-1,-1.3343097E0,1.7484535E-1,1.3617157E0,2.7577612E-1,-8.497677E-2,4.2897725E-1,1.2371283E0,-1.0678053E0,-1.4676611E-1,1.5494545E-1,1.1388153E0,-4.5147173E-2,9.799349E-1,-4.7799972E-1,-1.8908833E-1,-1.5182838E0,8.325696E-1,-6.337567E-1],"categories":[],"categories_nodes":[],"categories_segments":[],"categories_sizes":[],"default_left":[1,1,1,1,1,1,1,1,1,1,1,1,1,1,1,0,0,0,0,0,0,0,0,0,0,0,0,0,0,0,0],"id":3,"left_children":[1,3,5,7,9,11,13,15,17,19,21,23,25,27,29,-1,-1,-1,-1,-1,-1,-1,-1,-1,-1,-1,-1,-1,-1,-1,-1],"loss_changes":[1.4708366E1,1.5281303E1,2.6332422E1,1.4589478E1,1.6642681E1,8.089603E0,5.01684E0,1.4537811E0,9.077751E0,9.443068E0,1.2778614E1,7.9486427E0,8.999834E0,1.397418E0,2.520853E0,0E0,0E0,0E0,0E0,0E0,0E0,0E0,0E0,0E0,0E0,0E0,0E0,0E0,0E0,0E0,0E0],"parents":[2147483647,0,0,1,1,2,2,3,3,4,4,5,5,6,6,7,7,8,8,9,9,10,10,11,11,12,12,13,13,14,14],"right_children":[2,4,6,8,10,12,14,16,18,20,22,24,26,28,30,-1,-1,-1,-1,-1,-1,-1,-1,-1,-1,-1,-1,-1,-1,-1,-1],"split_conditions":[3.1339386E-3,-2.46363E-3,8.238276E1,7.320774E-4,4.798898E-4,1.2940952E-1,3.923882E-3,8.783797E-1,-4.9906382E-3,4.4673663E-3,9.5611135E-4,3.4396802E-3,3.7512234E-3,8.456621E1,7.1397666E-3,6.808578E-2,1.3788806E-2,-4.2488384E-3,2.1448864E-2,6.1856415E-2,-5.3390265E-2,-7.3383055E-3,7.7472725E-3,5.6940764E-2,-2.2573587E-3,4.8996743E-2,-2.3899985E-2,-9.454417E-3,-7.59142E-2,4.162848E-2,-3.1687837E-2],"split_indices":[2,4,5,3,3,8,4,9,4,4,3,4,2,5,4,0,0,0,0,0,0,0,0,0,0,0,0,0,0,0,0],"split_type":[0,0,0,0,0,0,0,0,0,0,0,0,0,0,0,0,0,0,0,0,0,0,0,0,0,0,0,0,0,0,0],"sum_hessian":[8.528266E2,7.811456E2,7.168099E1,1.5893846E2,6.2220715E2,6.1938072E1,9.742921E0,1.4974118E1,1.4396434E2,1.5094431E1,6.0711273E2,4.6457E1,1.548107E1,6.9951444E0,2.747776E0,1.2979194E1,1.9949253E0,5.5234165E1,8.873018E1,1.3847093E1,1.2473385E0,3.8863684E2,2.1847589E2,3.9961987E1,6.495017E0,6.2431593E0,9.23791E0,1.248867E0,5.7462773E0,1.4989091E0,1.248867E0],"tree_param":{"num_deleted":"0","num_feature":"11","num_nodes":"31","size_leaf_vector":"0"}},{"base_weights":[6.842712E-2,-5.69079E-1,9.666767E-2,1.1951395E-2,-1.3724422E0,1.4738872E0,8.567301E-2,4.39293E-1,-7.5323427E-1,-3.846554E-1,-1.6328648E0,6.7625366E-2,8.761612E-1,-5.71255E-1,8.691024E-1,-4.967449E-3,-1.0778669E0,-1.1038752E0,3.4399894E-1,1.2784359E-1,-1.6891879E-1,1.1736786E0,-1.2005547E0],"categories":[],"categories_nodes":[],"categories_segments":[],"categories_sizes":[],"default_left":[1,1,1,1,1,0,1,1,1,1,0,1,1,0,0,0,0,0,0,0,0,0,0],"id":4,"left_children":[1,3,5,7,9,-1,11,13,15,17,-1,19,21,-1,-1,-1,-1,-1,-1,-1,-1,-1,-1],"loss_changes":[1.5331512E1,1.6885422E1,1.2190114E1,7.5126824E0,3.2758884E0,0E0,1.1468172E1,6.891819E0,1.9959445E0,2.7246494E0,0E0,1.1289621E1,1.2501028E1,0E0,0E0,0E0,0E0,0E0,0E0,0E0,0E0,0E0,0E0],"parents":[2147483647,0,0,1,1,2,2,3,3,4,4,6,6,7,7,8,8,9,9,11,11,12,12],"right_children":[2,4,6,8,10,-1,12,14,16,18,-1,20,22,-1,-1,-1,-1,-1,-1,-1,-1,-1,-1],"split_conditions":[7.5944397E-4,8.8102475E-4,3.6908267E-4,5.608949E-4,5.541364E-4,7.369436E-2,2.8523952E-3,3.666754E1,-1.4450939E-3,-4.6573934E-4,-8.1643246E-2,1.1558841E-3,2.4798773E-3,-2.8562753E-2,4.345512E-2,-2.4837244E-4,-5.3893346E-2,-5.519376E-2,1.7199947E-2,6.3921795E-3,-8.44594E-3,5.868393E-2,-6.0027737E-2],"split_indices":[6,4,3,2,3,0,6,5,4,2,0,3,3,0,0,0,0,0,0,0,0,0,0],"split_type":[0,0,0,0,0,0,0,0,0,0,0,0,0,0,0,0,0,0,0,0,0,0,0],"sum_hessian":[8.475286E2,3.5139236E1,8.1238934E2,2.0962957E1,1.4176281E1,5.3803287E0,8.0700903E2,1.372417E1,7.238787E0,3.4744985E0,1.0701782E1,7.9005676E2,1.6952248E1,3.9971547E0,9.727015E0,2.4974818E0,4.7413054E0,1.4894165E0,1.985082E0,6.301069E2,1.5994992E2,1.5208295E1,1.7439535E0],"tree_param":{"num_deleted":"0","num_feature":"11","num_nodes":"23","size_leaf_vector":"0"}},{"base_weights":[8.226521E-2,-5.3454095E-1,1.0983111E-1,4.842041E-2,-1.2497234E0,1.2872201E0,9.7164415E-2,8.0971205E-1,-5.337515E-1,-1.4349207E0,5.6512517E-1,1.4683944E0,1.1736233E-1,7.908829E-2,8.625282E-1,-1.7752573E-1,1.4166521E0,7.1014357E-1,-8.757679E-1,9.929048E-2,-1.6097935E0,1.3990188E-1,-1.3690783E-1,1.1440785E0,-1.1657532E0],"categories":[],"categories_nodes":[],"categories_segments":[],"categories_sizes":[],"default_left":[1,1,1,1,1,1,1,1,1,1,0,0,0,1,1,0,0,0,0,0,0,0,0,0,0],"id":5,"left_children":[1,3,5,7,9,11,13,15,17,19,-1,-1,-1,21,23,-1,-1,-1,-1,-1,-1,-1,-1,-1,-1],"loss_changes":[1.4408905E1,1.5184782E1,1.1935778E1,9.716416E0,6.298769E0,1.6347609E0,1.101606E1,5.9287696E0,5.928426E0,4.210634E0,0E0,0E0,0E0,1.0314795E1,1.1832518E1,0E0,0E0,0E0,0E0,0E0,0E0,0E0,0E0,0E0,0E0],"parents":[2147483647,0,0,1,1,2,2,3,3,4,4,5,5,6,6,7,7,8,8,9,9,13,13,14,14],"right_children":[2,4,6,8,10,12,14,16,18,20,-1,-1,-1,22,24,-1,-1,-1,-1,-1,-1,-1,-1,-1,-1],"split_conditions":[7.5944397E-4,8.897948E-4,4.0880364E-4,-1.7708301E-4,7.4888435E1,7.5282156E-4,2.8523952E-3,3.666754E1,-2.2713402E-3,3.7940952E-1,2.8256258E-2,7.341972E-2,5.8681164E-3,1.1333008E-3,2.4798773E-3,-8.876286E-3,7.08326E-2,3.550718E-2,-4.3788396E-2,4.9645244E-3,-8.048968E-2,6.995094E-3,-6.845392E-3,5.7203926E-2,-5.828766E-2],"split_indices":[6,4,3,2,5,1,6,5,4,7,0,0,0,3,3,0,0,0,0,0,0,0,0,0,0],"split_type":[0,0,0,0,0,0,0,0,0,0,0,0,0,0,0,0,0,0,0,0,0,0,0,0,0],"sum_hessian":[8.429895E2,3.5275864E1,8.077136E2,1.9948053E1,1.5327812E1,7.526123E0,8.001875E2,8.474853E0,1.14732E1,1.409847E1,1.2293423E0,6.295896E0,1.2302275E0,7.8280286E2,1.7384657E1,3.4959352E0,4.9789176E0,2.242178E0,9.231022E0,1.4867744E0,1.2611695E1,6.111002E2,1.717026E2,1.5648403E1,1.7362535E0],"tree_param":{"num_deleted":"0","num_feature":"11","num_nodes":"25","size_leaf_vector":"0"}},{"base_weights":[6.624671E-2,1.039807E0,4.7154747E-2,1.2682048E0,-5.526363E-1,-6.323203E-1,7.599248E-2,1.4294637E0,-2.6102337E-1,-4.634449E-2,-1.3791037E0,5.8841255E-2,8.3997107E-1,4.2643663E-1,-8.651627E-1,-5.935633E-1,-1.5230973E0,2.0326873E-2,3.473826E-1,1.1267232E0,-1.1331797E0],"categories":[],"categories_nodes":[],"categories_segments":[],"categories_sizes":[],"default_left":[1,1,1,1,0,1,1,0,0,1,1,1,1,0,0,0,0,0,0,0,0],"id":6,"left_children":[1,3,5,7,-1,9,11,-1,-1,13,15,17,19,-1,-1,-1,-1,-1,-1,-1,-1],"loss_changes":[1.5775024E1,6.639019E0,1.6429392E1,3.9691162E0,0E0,1.4877505E1,1.0470745E1,0E0,0E0,8.175938E0,7.9009056E-1,8.731293E0,1.1208523E1,0E0,0E0,0E0,0E0,0E0,0E0,0E0,0E0],"parents":[2147483647,0,0,1,1,2,2,3,3,5,5,6,6,9,9,10,10,11,11,12,12],"right_children":[2,4,6,8,-1,10,12,-1,-1,14,16,18,20,-1,-1,-1,-1,-1,-1,-1,-1],"split_conditions":[4.8510428E-4,8.576903E-4,7.5944397E-4,4.39905E-3,-2.7631817E-2,8.897948E-4,2.8523952E-3,7.147319E-2,-1.3051169E-2,5.608949E-4,5.5183837E-4,2.621001E-3,2.4798773E-3,2.1321831E-2,-4.3258134E-2,-2.9678166E-2,-7.6154865E-2,1.0163437E-3,1.736913E-2,5.633616E-2,-5.6658983E-2],"split_indices":[3,1,6,4,0,4,6,0,0,2,3,2,3,0,0,0,0,0,0,0,0],"split_type":[0,0,0,0,0,0,0,0,0,0,0,0,0,0,0,0,0,0,0,0,0],"sum_hessian":[8.503429E2,1.5326614E1,8.3501624E2,1.3582186E1,1.7444283E0,3.314425E1,8.01872E2,1.2345569E1,1.2366168E0,1.916678E1,1.3977469E1,7.853187E2,1.6553295E1,1.2454706E1,6.7120743E0,2.958712E0,1.1018757E1,6.9378326E2,9.153545E1,1.4827439E1,1.7258546E0],"tree_param":{"num_deleted":"0","num_feature":"11","num_nodes":"21","size_leaf_vector":"0"}},{"base_weights":[5.212537E-2,-5.7386297E-1,7.371973E-2,1.5661498E-3,-1.3500175E0,5.932256E-2,7.373867E-1,6.911042E-1,-4.425384E-1,-1.4654648E0,-1.7010337E-1,-6.65421E-1,7.547637E-2,9.8010755E-1,-5.3093255E-1,2.5035411E-2,1.03926E0,7.2811174E-1,-6.978693E-1,1.1948537E0,-9.107132E-1,2.880082E-1,3.0674694E-2,5.0464567E-2,1.3961077E0,1.3698201E-1,-9.60937E-1],"categories":[],"categories_nodes":[],"categories_segments":[],"categories_sizes":[],"default_left":[1,1,1,1,1,1,1,1,1,0,0,1,1,1,1,0,0,0,0,0,0,0,0,0,0,0,0],"id":7,"left_children":[1,3,5,7,9,11,13,15,17,-1,-1,19,21,23,25,-1,-1,-1,-1,-1,-1,-1,-1,-1,-1,-1,-1],"loss_changes":[1.1573867E1,1.2757725E1,7.843884E0,5.634096E0,1.4071941E0,9.522229E0,5.8893023E0,1.6451848E0,3.8537478E0,0E0,0E0,9.183992E0,7.5354786E0,5.7267103E0,1.1225166E0,0E0,0E0,0E0,0E0,0E0,0E0,0E0,0E0,0E0,0E0,0E0,0E0],"parents":[2147483647,0,0,1,1,2,2,3,3,4,4,5,5,6,6,7,7,8,8,11,11,12,12,13,13,14,14],"right_children":[2,4,6,8,10,12,14,16,18,-1,-1,20,22,24,26,-1,-1,-1,-1,-1,-1,-1,-1,-1,-1,-1,-1],"split_conditions":[7.4522477E-4,9.5473265E-4,2.8523952E-3,-4.7261978E-4,4.3462412E-3,-7.002471E-3,3.359065E-3,3.719104E1,-2.2713402E-3,-7.327324E-2,-8.505168E-3,-9.141233E-3,-2.6012163E-3,-2.1694186E-1,8.362341E-4,1.2517705E-3,5.1963E-2,3.640559E-2,-3.4893464E-2,5.9742685E-2,-4.553566E-2,1.44004105E-2,1.5337347E-3,2.5232283E-3,6.980538E-2,6.8491003E-3,-4.8046853E-2],"split_indices":[6,4,6,1,4,4,6,5,4,0,0,4,4,9,1,0,0,0,0,0,0,0,0,0,0,0,0],"split_type":[0,0,0,0,0,0,0,0,0,0,0,0,0,0,0,0,0,0,0,0,0,0,0,0,0,0,0],"sum_hessian":[8.520638E2,2.7560194E1,8.2450354E2,1.6399694E1,1.11605E1,8.0806335E2,1.6440231E1,6.2067E0,1.0192994E1,9.945395E0,1.215105E0,1.6741907E1,7.913214E2,1.3990148E1,2.450084E0,2.4985495E0,3.7081506E0,1.493572E0,8.699423E0,1.4994049E0,1.5242503E1,1.3682368E2,6.5449774E2,4.6716456E0,9.318501E0,1.2264743E0,1.2236097E0],"tree_param":{"num_deleted":"0","num_feature":"11","num_nodes":"27","size_leaf_vector":"0"}},{"base_weights":[6.718429E-2,1.0007805E0,4.8962884E-2,1.1797495E0,-6.325207E-1,1.4958233E-2,4.0519682E-1,1.455746E0,-1.6932288E-1,1.4553791E-1,-1.2300745E-1,6.0412586E-1,-7.607617E-1,4.323864E-1,-6.819742E-1,1.1667069E-1,1.3657836E0,5.9022177E-2,-2.4953084E-1,6.720687E-1,-1.1440343E0,-1.1553808E0,1.369043E-1],"categories":[],"categories_nodes":[],"categories_segments":[],"categories_sizes":[],"default_left":[1,1,1,1,0,1,1,0,1,1,1,1,1,0,0,0,0,0,0,0,0,0,0],"id":8,"left_children":[1,3,5,7,-1,9,11,-1,13,15,17,19,21,-1,-1,-1,-1,-1,-1,-1,-1,-1,-1],"loss_changes":[1.4335174E1,5.4628735E0,1.0053364E1,5.791115E0,0E0,1.3693483E1,1.7234455E1,0E0,1.3513454E0,1.3594192E1,8.528208E0,8.17326E0,4.048947E0,0E0,0E0,0E0,0E0,0E0,0E0,0E0,0E0,0E0,0E0],"parents":[2147483647,0,0,1,1,2,2,3,3,5,5,6,6,8,8,9,9,10,10,11,11,12,12],"right_children":[2,4,6,8,-1,10,12,-1,14,16,18,20,22,-1,-1,-1,-1,-1,-1,-1,-1,-1,-1],"split_conditions":[4.8145582E-4,1.7125534E-3,3.1339386E-3,9.159756E-1,-3.1626035E-2,-7.7817785E-5,8.229661E1,7.278731E-2,1.1220599E-3,2.051883E-3,7.973118E-4,3.292736E-3,8.117449E-1,2.161932E-2,-3.409871E-2,5.8335345E-3,6.828918E-2,2.9511089E-3,-1.2476542E-2,3.3603437E-2,-5.7201713E-2,-5.776904E-2,6.845215E-3],"split_indices":[3,2,2,8,0,2,5,0,6,3,3,6,10,0,0,0,0,0,0,0,0,0,0],"split_type":[0,0,0,0,0,0,0,0,0,0,0,0,0,0,0,0,0,0,0,0,0,0,0],"sum_hessian":[8.4455914E2,1.51357765E1,8.2942334E2,1.3891323E1,1.2444527E0,7.5810016E2,7.132319E1,1.1466423E1,2.4249008E0,3.8944717E2,3.6865298E2,6.133964E1,9.983549E0,1.187581E0,1.2373198E0,3.815173E2,7.9299E0,1.5138638E2,2.172666E2,5.963737E1,1.7022706E0,6.735493E0,3.2480557E0],"tree_param":{"num_deleted":"0","num_feature":"11","num_nodes":"23","size_leaf_vector":"0"}},{"base_weights":[4.6553344E-2,1.3372115E0,3.6480516E-2,2.4694084E-1,-2.1816866E-2,1.1314119E0,1.5032302E-1,-1.2982093E-1,1.5732534E-1,1.4342163E0,-1.788923E-1,6.348137E-2,8.739555E-1,-3.562722E-3,-3.41618E-1,4.5835534E-1,-1.6492492E-1],"categories":[],"categories_nodes":[],"categories_segments":[],"categories_sizes":[],"default_left":[1,0,1,1,1,1,1,1,1,0,0,0,0,0,0,0,0],"id":9,"left_children":[1,-1,3,5,7,9,11,13,15,-1,-1,-1,-1,-1,-1,-1,-1],"loss_changes":[1.0987031E1,0E0,1.035239E1,1.5469213E1,1.2815605E1,7.346653E0,1.0385051E1,1.1046159E1,2.4248957E1,0E0,0E0,0E0,0E0,0E0,0E0,0E0,0E0],"parents":[2147483647,0,0,2,2,3,3,4,4,5,5,6,6,7,7,8,8],"right_children":[2,-1,4,6,8,10,12,14,16,-1,-1,-1,-1,-1,-1,-1,-1],"split_conditions":[3.949977E-4,6.686058E-2,-2.389189E-3,7.320774E-4,9.5611135E-4,8.2328706E-4,8.783797E-1,7.946491E-4,1.133613E-3,7.171082E-2,-8.944615E-3,3.1740684E-3,4.3697774E-2,-1.7813609E-4,-1.7080901E-2,2.2917768E-2,-8.246246E-3],"split_indices":[3,0,4,3,3,1,9,3,3,0,0,0,0,0,0,0,0],"split_type":[0,0,0,0,0,0,0,0,0,0,0,0,0,0,0,0,0],"sum_hessian":[8.478712E2,5.54559E0,8.423256E2,1.8201056E2,6.6031506E2,1.6869692E1,1.6514085E2,4.1212314E2,2.4819194E2,1.3626185E1,3.2435064E0,1.4841733E2,1.6723532E1,2.5883884E2,1.532843E2,1.2810258E2,1.20089355E2],"tree_param":{"num_deleted":"0","num_feature":"11","num_nodes":"17","size_leaf_vector":"0"}},{"base_weights":[4.644886E-2,9.216373E-1,3.0160205E-2,1.1439673E0,-5.2122366E-1,2.5975797E-1,-3.168427E-2,1.3061726E0,-2.7315003E-1,8.453241E-1,1.1346724E-1,-7.900177E-1,-2.5462387E-3,1.041278E0,2.8612706E-1,-3.414435E-2,6.517703E-1,-2.2329873E-1,-1.4192E0,-1.18764E-2,1.4623308E0],"categories":[],"categories_nodes":[],"categories_segments":[],"categories_sizes":[],"default_left":[1,1,1,1,0,1,1,0,0,1,1,1,1,0,0,0,0,0,0,0,0],"id":10,"left_children":[1,3,5,7,-1,9,11,-1,-1,13,15,17,19,-1,-1,-1,-1,-1,-1,-1,-1],"loss_changes":[1.1986318E1,5.5251303E0,1.1770935E1,3.4889736E0,0E0,1.4971831E1,1.4437979E1,0E0,0E0,3.5377712E0,1.1296886E1,8.304103E0,8.632343E0,0E0,0E0,0E0,0E0,0E0,0E0,0E0,0E0],"parents":[2147483647,0,0,1,1,2,2,3,3,5,5,6,6,9,9,10,10,11,11,12,12],"right_children":[2,4,6,8,-1,10,12,-1,-1,14,16,18,20,-1,-1,-1,-1,-1,-1,-1,-1],"split_conditions":[4.8510428E-4,8.576903E-4,-2.46363E-3,4.3467674E-3,-2.6061183E-2,8.0482685E-4,7.4522477E-4,6.530863E-2,-1.3657502E-2,4.0256986E-4,2.2283564E-3,9.5473265E-4,2.1853002E-3,5.20639E-2,1.4306353E-2,-1.7072175E-3,3.2588515E-2,-1.1164936E-2,-7.096E-2,-5.9382E-4,7.311654E-2],"split_indices":[3,1,4,4,0,3,6,0,0,0,6,4,3,0,0,0,0,0,0,0,0],"split_type":[0,0,0,0,0,0,0,0,0,0,0,0,0,0,0,0,0,0,0,0,0],"sum_hessian":[8.4176196E2,1.4364723E1,8.273973E2,1.2626295E1,1.738428E0,1.7489583E2,6.525014E2,1.1399753E1,1.2265432E0,3.4004745E1,1.4089108E2,2.3177635E1,6.293238E2,2.4542475E1,9.462272E0,1.1130577E2,2.9585312E1,1.290695E1,1.0270684E1,6.263265E2,2.997334E0],"tree_param":{"num_deleted":"0","num_feature":"11","num_nodes":"21","size_leaf_vector":"0"}},{"base_weights":[4.7064546E-2,3.0496165E-1,-2.0452468E-2,7.8521407E-1,1.7008455E-1,-6.7796063E-1,5.8502653E-3,1.2726191E0,1.5907884E-1,1.555234E-2,6.8026763E-1,-2.6095822E-1,-1.1259394E0,-1.9963649E-1,1.0145811E-1,1.4651366E0,4.513555E-1,-7.228267E-1,5.795611E-1,-6.02484E-1,1.6012609E-1,8.237954E-1,-7.4187165E-1,6.737056E-1,-6.398148E-1,-2.0027094E-1,-1.4261918E0,6.1427325E-4,-4.2489302E-1,9.868764E-3,4.6628055E-1],"categories":[],"categories_nodes":[],"categories_segments":[],"categories_sizes":[],"default_left":[1,1,1,1,1,1,1,1,1,1,1,1,1,1,1,0,0,0,0,0,0,0,0,0,0,0,0,0,0,0,0],"id":11,"left_children":[1,3,5,7,9,11,13,15,17,19,21,23,25,27,29,-1,-1,-1,-1,-1,-1,-1,-1,-1,-1,-1,-1,-1,-1,-1,-1],"loss_changes":[1.4680719E1,1.119681E1,1.1571056E1,1.141802E1,1.0856794E1,4.5137663E0,1.2674423E1,2.7012863E0,7.0231614E0,9.640997E0,7.1473274E0,5.6116595E0,3.078825E0,9.24114E0,1.4705587E1,0E0,0E0,0E0,0E0,0E0,0E0,0E0,0E0,0E0,0E0,0E0,0E0,0E0,0E0,0E0,0E0],"parents":[2147483647,0,0,1,1,2,2,3,3,4,4,5,5,6,6,7,7,8,8,9,9,10,10,11,11,12,12,13,13,14,14],"right_children":[2,4,6,8,10,12,14,16,18,20,22,24,26,28,30,-1,-1,-1,-1,-1,-1,-1,-1,-1,-1,-1,-1,-1,-1,-1,-1],"split_conditions":[-2.4639515E-3,8.0482685E-4,7.4522477E-4,-5.6174487E-1,2.145976E-3,1.0738878E-3,-2.7139077E-4,7.731E-4,-5.6238944E-4,-7.865661E-1,2.4798773E-3,-4.5702804E-4,5.541364E-4,1.2940952E-1,8.117449E-1,7.3256835E-2,2.2567775E-2,-3.6141336E-2,2.8978055E-2,-3.01242E-2,8.0063045E-3,4.118977E-2,-3.7093583E-2,3.368528E-2,-3.199074E-2,-1.0013547E-2,-7.130959E-2,3.071366E-5,-2.124465E-2,4.934382E-4,2.3314027E-2],"split_indices":[4,3,6,10,6,4,4,3,2,7,3,2,3,8,10,0,0,0,0,0,0,0,0,0,0,0,0,0,0,0,0],"split_type":[0,0,0,0,0,0,0,0,0,0,0,0,0,0,0,0,0,0,0,0,0,0,0,0,0,0,0,0,0,0,0],"sum_hessian":[8.417584E2,1.7391861E2,6.678398E2,3.7077232E1,1.3684137E2,2.4735428E1,6.431044E2,2.0267681E1,1.6809553E1,1.0581957E2,3.1021801E1,1.3630219E1,1.1105208E1,2.0386215E2,4.3924222E2,1.5783717E1,4.483963E0,5.1949E0,1.1614654E1,1.9460564E1,8.635901E1,2.8560137E1,2.4616642E0,3.7068698E0,9.923349E0,3.1281703E0,7.977038E0,1.08449196E2,9.5412964E1,3.5191928E2,8.732294E1],"tree_param":{"num_deleted":"0","num_feature":"11","num_nodes":"31","size_leaf_vector":"0"}},{"base_weights":[2.7324665E-2,4.3291E-2,-8.669328E-1,-5.4920065E-1,6.413192E-2,-1.1252617E0,1.092792E0,8.58383E-1,-7.4541914E-1,1.0015455E-2,2.4873143E-1,-4.138944E-1,-1.6199288E0,1.1183535E-1,1.1542234E0,-3.5779664E-1,-1.156741E0,1.2147441E-1,-1.7949781E-1,8.926286E-2,5.6465745E-1,-1.3637183E0,1.297963E0],"categories":[],"categories_nodes":[],"categories_segments":[],"categories_sizes":[],"default_left":[1,1,1,1,1,1,0,1,1,1,1,1,0,0,0,0,0,0,0,0,0,0,0],"id":12,"left_children":[1,3,5,7,9,11,-1,13,15,17,19,21,-1,-1,-1,-1,-1,-1,-1,-1,-1,-1,-1],"loss_changes":[1.217359E1,1.0358521E1,8.80181E0,8.514843E0,8.074447E0,4.153179E0,0E0,7.440102E-1,3.6612492E0,1.3250396E1,9.1816E0,1.3095869E1,0E0,0E0,0E0,0E0,0E0,0E0,0E0,0E0,0E0,0E0,0E0],"parents":[2147483647,0,0,1,1,2,2,3,3,4,4,5,5,7,7,8,8,9,9,10,10,11,11],"right_children":[2,4,6,8,10,12,-1,14,16,18,20,22,-1,-1,-1,-1,-1,-1,-1,-1,-1,-1,-1],"split_conditions":[8.269852E-3,7.4522477E-4,2.0899565E-3,-2.2582142E-3,1.5179174E-3,1.6059186E-3,5.4639604E-2,-2.8156345E-3,9.5473265E-4,2.8913128E-5,1.5616586E-3,9.126617E-4,-8.099645E-2,5.591768E-3,5.7711173E-2,-1.7889833E-2,-5.783705E-2,6.0737203E-3,-8.97489E-3,4.463143E-3,2.8232872E-2,-6.818592E-2,6.4898156E-2],"split_indices":[4,6,6,4,2,6,0,4,4,2,4,3,0,0,0,0,0,0,0,0,0,0,0],"split_type":[0,0,0,0,0,0,0,0,0,0,0,0,0,0,0,0,0,0,0,0,0,0,0],"sum_hessian":[8.4898236E2,8.3502515E2,1.3957193E1,2.7512539E1,8.0751263E2,1.2707862E1,1.2493308E0,2.9531715E0,2.4559366E1,6.252663E2,1.8224635E2,5.965604E0,6.7422585E0,1.2292384E0,1.7239331E0,1.3606609E1,1.0952757E1,3.9393765E2,2.3132861E2,1.219651E2,6.0281242E1,3.9675684E0,1.9980354E0],"tree_param":{"num_deleted":"0","num_feature":"11","num_nodes":"23","size_leaf_vector":"0"}},{"base_weights":[3.2568693E-2,1.0077008E0,1.9559948E-2,1.2868592E0,-6.635422E-1,2.2496825E-1,-3.6213934E-2,3.856953E-1,1.3627362E0,1.0266407E0,1.497479E-1,-3.886472E-1,1.4433741E-2,1.3343682E0,-3.8181952E-1,1.8079242E-1,-1.4470104E0,-1.0579785E-2,-7.806985E-1,-1.9608095E-1,1.1210855E-1],"categories":[],"categories_nodes":[],"categories_segments":[],"categories_sizes":[],"default_left":[1,1,1,1,0,1,1,0,0,1,1,1,1,0,0,0,0,0,0,0,0],"id":13,"left_children":[1,3,5,7,-1,9,11,-1,-1,13,15,17,19,-1,-1,-1,-1,-1,-1,-1,-1],"loss_changes":[1.0681269E1,6.0258675E0,9.556971E0,1.4718819E-1,0E0,1.0587611E1,1.17216835E1,0E0,0E0,7.0580378E0,8.3920145E0,1.2221377E1,1.184217E1,0E0,0E0,0E0,0E0,0E0,0E0,0E0,0E0],"parents":[2147483647,0,0,1,1,2,2,3,3,5,5,6,6,9,9,10,10,11,11,12,12],"right_children":[2,4,6,8,-1,10,12,-1,-1,14,16,18,20,-1,-1,-1,-1,-1,-1,-1,-1],"split_conditions":[4.562373E-4,1.0404375E-3,-2.389189E-3,-4.7699956E-4,-3.317711E-2,7.269137E-4,8.8783714E-4,1.9284766E-2,6.813681E-2,7.7535247E-4,8.6012665E1,9.773781E-4,-2.67363E-4,6.6718414E-2,-1.9090977E-2,9.039621E-3,-7.2350524E-2,-5.289893E-4,-3.9034925E-2,-9.804048E-3,5.6054275E-3],"split_indices":[3,1,4,1,0,3,6,0,0,1,5,4,4,0,0,0,0,0,0,0,0],"split_type":[0,0,0,0,0,0,0,0,0,0,0,0,0,0,0,0,0,0,0,0,0],"sum_hessian":[8.425769E2,1.0085787E1,8.324911E2,8.8393E0,1.2464864E0,1.7712566E2,6.553655E2,1.1588793E0,7.680421E0,1.4108949E1,1.6301671E2,8.150903E1,5.7385645E2,1.1622263E1,2.4866858E0,1.607776E2,2.2390978E0,4.2017357E1,3.9491676E1,1.8155359E2,3.9230286E2],"tree_param":{"num_deleted":"0","num_feature":"11","num_nodes":"21","size_leaf_vector":"0"}},{"base_weights":[4.731109E-2,6.2452286E-2,-7.855972E-1,8.5441834E-1,4.826971E-2,-9.5754623E-1,6.2959176E-1,1.1496663E0,-8.4245604E-1,-9.273782E-1,5.890744E-2,-2.424342E-1,-1.5405779E0,1.3205451E0,-2.5395066E-1,8.081196E-1,-1.3829373E0,4.4642176E-2,7.380137E-1,-1.3143148E0,1.3471894E0],"categories":[],"categories_nodes":[],"categories_segments":[],"categories_sizes":[],"default_left":[1,1,1,1,1,1,0,1,0,1,1,1,0,0,0,0,0,0,0,0,0],"id":14,"left_children":[1,3,5,7,9,11,-1,13,-1,15,17,19,-1,-1,-1,-1,-1,-1,-1,-1,-1],"loss_changes":[1.0714077E1,9.298303E0,4.294937E0,8.267475E0,8.543712E0,5.432459E0,0E0,3.4131966E0,0E0,8.139631E0,7.814548E0,1.4449287E1,0E0,0E0,0E0,0E0,0E0,0E0,0E0,0E0,0E0],"parents":[2147483647,0,0,1,1,2,2,3,3,4,4,5,5,7,7,9,9,10,10,11,11],"right_children":[2,4,6,8,10,12,-1,14,-1,16,18,20,-1,-1,-1,-1,-1,-1,-1,-1,-1],"split_conditions":[8.232426E-3,4.8145582E-4,2.0371738E-3,1.7125534E-3,5.143009E-4,1.6059186E-3,3.147959E-2,4.39905E-3,-4.2122804E-2,-2.9478435E-4,2.8523952E-3,9.126617E-4,-7.702889E-2,6.6027254E-2,-1.2697533E-2,4.040598E-2,-6.9146864E-2,2.232109E-3,3.6900684E-2,-6.5715745E-2,6.735947E-2],"split_indices":[4,3,6,2,3,6,0,4,0,0,6,3,0,0,0,0,0,0,0,0,0],"split_type":[0,0,0,0,0,0,0,0,0,0,0,0,0,0,0,0,0,0,0,0,0],"sum_hessian":[8.446761E2,8.305036E2,1.4172463E1,1.3568766E1,8.169348E2,1.2925377E1,1.247087E0,1.1832456E1,1.7363101E0,7.8816833E0,8.0905316E2,6.44102E0,6.484357E0,1.0601049E1,1.2314066E0,1.4778314E0,6.403852E0,7.934517E2,1.5601462E1,3.9504373E0,2.4905825E0],"tree_param":{"num_deleted":"0","num_feature":"11","num_nodes":"21","size_leaf_vector":"0"}},{"base_weights":[4.5634773E-2,7.55635E-1,2.6863115E-2,2.262375E-1,1.2855462E0,4.0750418E-2,-7.067667E-1,1.34554E0,-2.7945226E-1,1.5021918E0,1.0482175E-1,9.371747E-3,3.7272167E-1,-9.8630416E-1,1.1310629E0,8.4744745E-1,-9.403328E-1,2.4150142E-1,1.6717601E0,1.2712109E0,1.2268142E-4,5.769662E-1,-7.1913433E-1,-1.8127798E-1,-1.5200626E0],"categories":[],"categories_nodes":[],"categories_segments":[],"categories_sizes":[],"default_left":[1,1,1,1,1,1,1,0,1,1,0,1,1,1,0,0,0,0,0,0,0,0,0,0,0],"id":15,"left_children":[1,3,5,7,9,11,13,-1,15,17,-1,19,21,23,-1,-1,-1,-1,-1,-1,-1,-1,-1,-1,-1],"loss_changes":[1.1239565E1,5.8035717E0,8.424957E0,7.2141066E0,2.5650902E0,8.431483E0,9.009099E0,0E0,7.610927E0,1.502739E0,0E0,8.646096E0,1.6003761E1,5.6844435E0,0E0,0E0,0E0,0E0,0E0,0E0,0E0,0E0,0E0,0E0,0E0],"parents":[2147483647,0,0,1,1,2,2,3,3,4,4,5,5,6,6,8,8,9,9,11,11,12,12,13,13],"right_children":[2,4,6,8,10,12,14,-1,16,18,-1,20,22,24,-1,-1,-1,-1,-1,-1,-1,-1,-1,-1,-1],"split_conditions":[1.8352943E1,2.1694186E-1,8.269852E-3,-5.6992127E-3,-5.570113E-4,3.132315E-3,2.0800526E-3,6.727701E-2,-6.035534E-1,1.1275845E1,5.2410876E-3,-9.0116225E-3,8.194803E1,1.4605104E-3,5.6553144E-2,4.2372372E-2,-4.701664E-2,1.2075071E-2,8.3588004E-2,6.3560545E-2,6.134071E-6,2.8848311E-2,-3.5956718E-2,-9.063899E-3,-7.600313E-2],"split_indices":[5,9,4,2,2,2,6,0,7,5,0,4,5,6,0,0,0,0,0,0,0,0,0,0,0],"split_type":[0,0,0,0,0,0,0,0,0,0,0,0,0,0,0,0,0,0,0,0,0,0,0,0,0],"sum_hessian":[8.4383527E2,2.0724346E1,8.231109E2,1.108101E1,9.643336E0,8.0874615E2,1.4364766E1,2.9315236E0,8.149487E0,7.9182E0,1.7251362E0,7.398428E2,6.890337E1,1.2870475E1,1.4942917E0,2.9082265E0,5.24126E0,1.2261736E0,6.692026E0,4.390641E0,7.3545215E2,5.8442574E1,1.0460798E1,5.6654077E0,7.2050667E0],"tree_param":{"num_deleted":"0","num_feature":"11","num_nodes":"25","size_leaf_vector":"0"}},{"base_weights":[4.7754455E-2,5.895335E-2,-7.8860307E-1,2.5364926E-2,3.1259948E-1,-1.2380023E0,4.4103625E-1,1.3043557E-1,-9.1797724E-2,3.9361593E-1,-1.0655584E0,-1.4976574E0,-1.8665543E-2,1.0923226E0,-3.272902E-1,3.5230008E-1,2.7326014E-2,-2.4180897E-1,8.240046E-2,6.614384E-1,1.1174001E-1,-1.2051194E0,-3.1476405E-1],"categories":[],"categories_nodes":[],"categories_segments":[],"categories_sizes":[],"default_left":[1,1,1,1,1,1,1,1,1,1,1,0,0,0,0,0,0,0,0,0,0,0,0],"id":16,"left_children":[1,3,5,7,9,11,13,15,17,19,21,-1,-1,-1,-1,-1,-1,-1,-1,-1,-1,-1,-1],"loss_changes":[7.924666E0,7.0713058E0,6.7259493E0,9.058343E0,1.1258661E1,2.6482677E0,2.2243013E0,8.862614E0,9.114376E0,6.9030876E0,2.137146E-1,0E0,0E0,0E0,0E0,0E0,0E0,0E0,0E0,0E0,0E0,0E0,0E0],"parents":[2147483647,0,0,1,1,2,2,3,3,4,4,5,5,6,6,7,7,8,8,9,9,10,10],"right_children":[2,4,6,8,10,12,14,16,18,20,22,-1,-1,-1,-1,-1,-1,-1,-1,-1,-1,-1,-1],"split_conditions":[8.7089386E1,2.575302E-3,3.8171052E-3,-7.6109995E-5,4.927993E-3,9.159756E-1,1.1410534E-4,3.3791718E1,5.8940968E1,6.8281105E1,2.4736114E-4,-7.488287E-2,-9.3327713E-4,5.461613E-2,-1.6364511E-2,1.7615004E-2,1.3663007E-3,-1.2090448E-2,4.1200235E-3,3.307192E-2,5.5870004E-3,-6.025597E-2,-1.5738202E-2],"split_indices":[5,2,4,2,1,8,0,5,5,5,4,0,0,0,0,0,0,0,0,0,0,0,0],"split_type":[0,0,0,0,0,0,0,0,0,0,0,0,0,0,0,0,0,0,0,0,0,0,0],"sum_hessian":[8.401212E2,8.299378E2,1.0183421E1,7.338585E2,9.6079285E1,7.45282E0,2.7306008E0,3.8683463E2,3.470239E2,9.141949E1,4.659801E0,5.9562035E0,1.4966164E0,1.2496343E0,1.4809666E0,1.2197022E2,2.6486438E2,1.8624788E2,1.60776E2,4.6187855E1,4.523163E1,3.419115E0,1.2406862E0],"tree_param":{"num_deleted":"0","num_feature":"11","num_nodes":"23","size_leaf_vector":"0"}},{"base_weights":[4.4269104E-2,6.9488066E-1,2.866753E-2,2.2938548E-1,9.5535004E-1,9.0828526E-1,1.7964778E-2,7.3773915E-1,-4.5927444E-1,1.3413484E0,2.1912076E-1,1.1985908E0,-6.148151E-1,-5.498615E-1,3.5445392E-2,1.369967E0,-7.003581E-1,-9.5772165E-1,2.9450184E-1,4.812173E-1,1.5411154E0,7.938326E-1,-6.406661E-1,1.2863357E0,3.1681985E-1,-1.196653E-1,-1.1747057E0,4.6841536E-2,-5.519674E-1],"categories":[],"categories_nodes":[],"categories_segments":[],"categories_sizes":[],"default_left":[1,1,1,1,1,1,1,1,1,1,1,1,0,1,1,0,0,0,0,0,0,0,0,0,0,0,0,0,0],"id":17,"left_children":[1,3,5,7,9,11,13,15,17,19,21,23,-1,25,27,-1,-1,-1,-1,-1,-1,-1,-1,-1,-1,-1,-1,-1,-1],"loss_changes":[8.514672E0,2.1630096E0,7.7237015E0,3.2673225E0,3.196394E0,5.098029E0,8.092164E0,5.683956E0,1.8483702E0,6.0931873E-1,3.1866195E0,2.5964737E-1,0E0,6.4048567E0,5.313901E0,0E0,0E0,0E0,0E0,0E0,0E0,0E0,0E0,0E0,0E0,0E0,0E0,0E0,0E0],"parents":[2147483647,0,0,1,1,2,2,3,3,4,4,5,5,6,6,7,7,8,8,9,9,10,10,11,11,13,13,14,14],"right_children":[2,4,6,8,10,12,14,16,18,20,22,24,-1,26,28,-1,-1,-1,-1,-1,-1,-1,-1,-1,-1,-1,-1,-1,-1],"split_conditions":[1.791111E1,1.3846228E1,4.562373E-4,-3.7823405E-4,6.035534E-1,1.0404375E-3,7.385381E-4,2.0048442E-1,-1.9491725E-3,-1.5509469E-3,1.6355389E1,9.159756E-1,-3.0740757E-2,9.5473265E-4,8.269852E-3,6.849835E-2,-3.5017904E-2,-4.7886085E-2,1.4725092E-2,2.4060866E-2,7.7055775E-2,3.969163E-2,-3.2033306E-2,6.431679E-2,1.5840992E-2,-5.983265E-3,-5.873529E-2,2.3420767E-3,-2.759837E-2],"split_indices":[5,5,3,4,7,1,6,10,1,4,5,8,0,4,4,0,0,0,0,0,0,0,0,0,0,0,0,0,0],"split_type":[0,0,0,0,0,0,0,0,0,0,0,0,0,0,0,0,0,0,0,0,0,0,0,0,0,0,0,0,0],"sum_hessian":[8.397998E2,1.8647064E1,8.211528E2,7.365158E0,1.1281906E1,8.863113E0,8.122897E2,4.196285E0,3.168873E0,6.8622007E0,4.419706E0,7.6231813E0,1.2399324E0,2.3350042E1,7.889396E2,2.9477477E0,1.2485373E0,1.7446375E0,1.4242357E0,1.9358709E0,4.9263296E0,2.69499E0,1.724716E0,6.5159683E0,1.1072133E0,1.4534656E1,8.815388E0,7.7482776E2,1.4111845E1],"tree_param":{"num_deleted":"0","num_feature":"11","num_nodes":"29","size_leaf_vector":"0"}},{"base_weights":[3.6675952E-2,1.0351684E0,2.5667714E-2,1.2556733E0,1.71036E-1,7.2886366E-1,1.0009879E-2,1.4921186E0,3.182967E-1,1.667125E-2,-1.2178944E0,-4.4708288E-1,9.665056E-1,5.4709488E-3,1.1268606E0],"categories":[],"categories_nodes":[],"categories_segments":[],"categories_sizes":[],"default_left":[1,1,1,0,0,1,1,0,1,1,0,0,0,0,0],"id":18,"left_children":[1,3,5,-1,-1,7,9,-1,11,13,-1,-1,-1,-1,-1],"loss_changes":[9.2989235E0,1.5432549E0,9.243643E0,0E0,0E0,5.255555E0,6.7512646E0,0E0,6.962026E0,1.0183249E1,0E0,0E0,0E0,0E0,0E0],"parents":[2147483647,0,0,1,1,2,2,5,5,6,6,8,8,9,9],"right_children":[2,4,6,-1,-1,8,10,-1,12,14,-1,-1,-1,-1,-1],"split_conditions":[4.562373E-4,4.7519925E-4,-5.3316066E-3,6.2783666E-2,8.551801E-3,1.988839E1,2.4798773E-3,7.4605934E-2,2.860113E1,2.123073E-3,-6.0894724E-2,-2.2354145E-2,4.832528E-2,2.7354746E-4,5.634303E-2],"split_indices":[3,0,2,0,0,5,3,0,5,3,0,0,0,0,0],"split_type":[0,0,0,0,0,0,0,0,0,0,0,0,0,0,0],"sum_hessian":[8.474167E2,8.226251E0,8.391904E2,6.19288E0,2.03337E0,1.7286825E1,8.2190356E2,5.1250086E0,1.2161817E1,8.1844995E2,3.4536612E0,5.7191496E0,6.4426675E0,8.1127026E2,7.179685E0],"tree_param":{"num_deleted":"0","num_feature":"11","num_nodes":"15","size_leaf_vector":"0"}},{"base_weights":[3.4156654E-2,-5.211908E-1,5.3232122E-2,7.927434E-1,-7.0451313E-1,2.9979265E-1,1.700116E-2,9.618501E-2,1.0736178E0,8.582466E-1,-8.1601316E-1,5.1804173E-1,-2.501221E-1,1.5711915E-1,-5.5174824E-2,-4.3647298E-1,-1.1966616E0,6.6443926E-1,1.8053181E-2,2.6151854E-1,-6.593188E-1,1.9341506E-1,-1.6099951E0,-3.3617812E-1,9.534041E-2],"categories":[],"categories_nodes":[],"categories_segments":[],"categories_sizes":[],"default_left":[1,1,1,1,1,1,1,0,0,0,1,1,1,1,1,0,0,0,0,0,0,0,0,0,0],"id":19,"left_children":[1,3,5,7,9,11,13,-1,-1,-1,15,17,19,21,23,-1,-1,-1,-1,-1,-1,-1,-1,-1,-1],"loss_changes":[8.967803E0,7.331272E0,7.291487E0,6.623368E-1,5.09214E0,1.2682006E1,7.2215037E0,0E0,0E0,0E0,2.950554E0,5.492277E0,6.5348396E0,1.5880445E1,1.9973179E1,0E0,0E0,0E0,0E0,0E0,0E0,0E0,0E0,0E0,0E0],"parents":[2147483647,0,0,1,1,2,2,3,3,4,4,5,5,6,6,10,10,11,11,12,12,13,13,14,14],"right_children":[2,4,6,8,10,12,14,-1,-1,-1,16,18,20,22,24,-1,-1,-1,-1,-1,-1,-1,-1,-1,-1],"split_conditions":[7.4522477E-4,-2.2713402E-3,3.0664974E1,5.018923E1,4.8514036E-4,6.035534E-1,7.9638406E-4,4.8092506E-3,5.3680893E-2,4.291233E-2,9.5473265E-4,1.2538028E-3,-3.2306078E-4,6.7574973E-3,9.5611135E-4,-2.182365E-2,-5.983308E-2,3.3221964E-2,9.026591E-4,1.3075927E-2,-3.296594E-2,9.670753E-3,-8.049976E-2,-1.6808907E-2,4.7670207E-3],"split_indices":[6,4,5,5,3,8,3,0,0,0,4,3,1,4,3,0,0,0,0,0,0,0,0,0,0],"split_type":[0,0,0,0,0,0,0,0,0,0,0,0,0,0,0,0,0,0,0,0,0,0,0,0,0],"sum_hessian":[8.4291833E2,2.7117558E1,8.158008E2,2.9132166E0,2.420434E1,1.0358757E2,7.122132E2,1.2229049E0,1.6903116E0,1.165911E0,2.303843E1,7.419798E1,2.938959E1,2.4173906E2,4.7047415E2,1.2610902E1,1.0427528E1,5.713875E1,1.7059233E1,1.3220361E1,1.616923E1,2.3774637E2,3.9926808E0,1.6367284E2,3.068013E2],"tree_param":{"num_deleted":"0","num_feature":"11","num_nodes":"25","size_leaf_vector":"0"}},{"base_weights":[1.5958752E-2,8.656582E-1,5.9470446E-3,1.1467096E0,-6.081044E-1,-7.687394E-1,1.7328478E-2,2.7624038E-1,1.2333258E0,-1.0779513E0,3.3321103E-1,-1.5452956E-2,2.4434598E-1,-1.7978805E-1,-1.2062227E0,9.0780705E-2,-1.4365229E-1,3.0399376E-1,-1.0392141E0],"categories":[],"categories_nodes":[],"categories_segments":[],"categories_sizes":[],"default_left":[1,1,1,1,0,1,1,0,0,1,0,1,1,0,0,0,0,0,0],"id":20,"left_children":[1,3,5,7,-1,9,11,-1,-1,13,-1,15,17,-1,-1,-1,-1,-1,-1],"loss_changes":[7.2321954E0,4.798145E0,7.436008E0,3.1234646E-1,0E0,4.5199976E0,6.1854067E0,0E0,0E0,9.089165E-1,0E0,9.911053E0,8.344944E0,0E0,0E0,0E0,0E0,0E0,0E0],"parents":[2147483647,0,0,1,1,2,2,3,3,5,5,6,6,9,9,11,11,12,12],"right_children":[2,4,6,8,-1,10,12,-1,-1,14,-1,16,18,-1,-1,-1,-1,-1,-1],"split_conditions":[4.562373E-4,1.0404375E-3,6.905186E-4,-4.7699956E-4,-3.0405222E-2,8.783797E-1,2.575302E-3,1.38120195E-2,6.166629E-2,-9.847316E-4,1.6660552E-2,-1.4407194E-5,7.3228986E-3,-8.989403E-3,-6.0311135E-2,4.5390353E-3,-7.1826144E-3,1.5199688E-2,-5.1960707E-2],"split_indices":[3,1,6,1,0,9,2,0,0,1,0,2,2,0,0,0,0,0,0],"split_type":[0,0,0,0,0,0,0,0,0,0,0,0,0,0,0,0,0,0,0],"sum_hessian":[8.497573E2,8.900519E0,8.408568E2,7.661385E0,1.2391343E0,1.1211243E1,8.2964557E2,1.0724826E0,6.5889025E0,8.771658E0,2.4395847E0,7.257752E2,1.03870346E2,1.3963016E0,7.375356E0,3.970487E2,3.287265E2,9.998706E1,3.8832915E0],"tree_param":{"num_deleted":"0","num_feature":"11","num_nodes":"19","size_leaf_vector":"0"}},{"base_weights":[2.045378E-2,3.364023E-2,-6.614474E-1,6.8916875E-1,2.084771E-2,-1.496267E-1,-1.2791057E0,1.0183979E0,-7.7332497E-1,-5.0926965E-1,3.842367E-2,-1.3371739E0,4.8092487E-1,-2.3748617E-1,-1.5033967E0,1.2446811E0,-6.661606E-1,-1.0199715E0,-1.8002558E-1,3.6362535E-1,-8.5361224E-1,2.456354E-1,-3.2771894E-4,-5.5212784E-1,1.232358E0],"categories":[],"categories_nodes":[],"categories_segments":[],"categories_sizes":[],"default_left":[1,1,1,1,1,1,1,1,1,1,1,0,1,0,0,0,0,0,0,0,0,0,0,0,0],"id":21,"left_children":[1,3,5,7,9,11,13,15,17,19,21,-1,23,-1,-1,-1,-1,-1,-1,-1,-1,-1,-1,-1,-1],"loss_changes":[7.5898733E0,6.9173355E0,4.871273E0,8.390786E0,7.583399E0,8.048832E0,1.3074217E0,5.9069185E0,3.2415676E-1,8.161901E0,6.316931E0,0E0,6.266036E0,0E0,0E0,0E0,0E0,0E0,0E0,0E0,0E0,0E0,0E0,0E0,0E0],"parents":[2147483647,0,0,1,1,2,2,3,3,4,4,5,5,6,6,7,7,8,8,9,9,10,10,12,12],"right_children":[2,4,6,8,10,12,14,16,18,20,22,-1,24,-1,-1,-1,-1,-1,-1,-1,-1,-1,-1,-1,-1],"split_conditions":[8.107159E-3,4.8510428E-4,6.773517E1,8.576903E-4,5.562706E-4,9.126617E-4,8.697916E-4,4.4433298E-3,7.817651E1,-3.934508E-4,3.2791695E1,-6.68587E-2,6.078576E-1,-1.1874309E-2,-7.516984E-2,6.2234055E-2,-3.330803E-2,-5.0998576E-2,-9.001279E-3,1.8181268E-2,-4.2680614E-2,1.2281771E-2,-1.6385948E-5,-2.7606392E-2,6.16179E-2],"split_indices":[4,3,5,1,3,3,3,4,5,1,5,0,9,0,0,0,0,0,0,0,0,0,0,0,0],"split_type":[0,0,0,0,0,0,0,0,0,0,0,0,0,0,0,0,0,0,0,0,0,0,0,0,0],"sum_hessian":[8.406086E2,8.255941E2,1.5014481E1,1.4790871E1,8.108032E2,8.890031E0,6.1244497E0,1.2320908E1,2.4699636E0,2.512163E1,7.856816E2,2.6945732E0,6.1954575E0,1.4498948E0,4.674555E0,1.1092058E1,1.2288498E0,1.2366939E0,1.2332697E0,7.09078E0,1.803085E1,1.2294269E2,6.627389E2,2.7205465E0,3.4749107E0],"tree_param":{"num_deleted":"0","num_feature":"11","num_nodes":"25","size_leaf_vector":"0"}},{"base_weights":[2.4095425E-2,1.3407338E-1,-3.9420724E-2,-2.5418156E-1,2.348578E-1,-5.7381816E-2,6.9019306E-1,-9.577696E-2,-1.0229055E0,6.1771554E-1,1.0368225E-1,-7.043922E-3,-3.1608555E-1,9.8747E-1,-9.84662E-1,-9.7558707E-1,3.626188E-3,-1.3103625E0,-8.73313E-2,-8.352788E-1,6.673679E-1,2.3584133E-1,-2.8447765E-1,-1.1347834E-1,2.5682303E-1,-7.392341E-1,-1.8911794E-2,1.4927709E-1,1.3183591E0],"categories":[],"categories_nodes":[],"categories_segments":[],"categories_sizes":[],"default_left":[1,1,1,1,1,1,1,1,1,1,1,1,1,1,0,0,0,0,0,0,0,0,0,0,0,0,0,0,0],"id":22,"left_children":[1,3,5,7,9,11,13,15,17,19,21,23,25,27,-1,-1,-1,-1,-1,-1,-1,-1,-1,-1,-1,-1,-1,-1,-1],"loss_changes":[5.855853E0,1.206684E1,7.0072575E0,7.660977E0,1.2196744E1,6.767465E0,7.3708367E0,4.7204757E0,2.785596E0,5.037508E0,9.456598E0,1.2279352E1,1.063077E1,2.968648E0,0E0,0E0,0E0,0E0,0E0,0E0,0E0,0E0,0E0,0E0,0E0,0E0,0E0,0E0,0E0],"parents":[2147483647,0,0,1,1,2,2,3,3,4,4,5,5,6,6,7,7,8,8,9,9,10,10,11,11,12,12,13,13],"right_children":[2,4,6,8,10,12,14,16,18,20,22,24,26,28,-1,-1,-1,-1,-1,-1,-1,-1,-1,-1,-1,-1,-1,-1,-1],"split_conditions":[-3.9828263E-4,-2.1694186E-1,2.7619158E-3,3.340696E-3,-6.035534E-1,1.182554E-3,2.513776E-3,-2.2202542E-3,-7.4255076E-4,-7.1230447E-3,2.306669E-3,9.5757394E-4,-5.6174487E-1,-2.1694186E-1,-4.92331E-2,-4.8779353E-2,1.813094E-4,-6.5518126E-2,-4.366565E-3,-4.1763943E-2,3.3368394E-2,1.17920665E-2,-1.4223883E-2,-5.673917E-3,1.2841152E-2,-3.6961704E-2,-9.455897E-4,7.4638547E-3,6.591796E-2],"split_indices":[1,9,6,4,7,3,3,0,1,1,4,3,10,9,0,0,0,0,0,0,0,0,0,0,0,0,0,0,0],"split_type":[0,0,0,0,0,0,0,0,0,0,0,0,0,0,0,0,0,0,0,0,0,0,0,0,0,0,0,0,0],"sum_hessian":[8.365451E2,3.0585226E2,5.306928E2,6.2718357E1,2.4313391E2,5.1884174E2,1.1851108E1,5.293506E1,9.783299E0,6.1098545E1,1.8203537E2,4.3519067E2,8.365103E1,1.0413235E1,1.4378732E0,4.478828E0,4.845623E1,7.1774244E0,2.6058753E0,1.4960662E0,5.9602478E1,1.360918E2,4.5943565E1,3.1051147E2,1.2467921E2,3.3897095E1,4.975394E1,3.358013E0,7.0552216E0],"tree_param":{"num_deleted":"0","num_feature":"11","num_nodes":"29","size_leaf_vector":"0"}},{"base_weights":[1.6130898E-4,-2.9904192E-2,3.1804085E-1,1.2310599E0,-3.8936097E-2,5.2087194E-1,-8.3419853E-1,-8.716944E-1,-2.17213E-2,8.10192E-1,1.1822829E-2,-1.3738565E0,4.0928948E-1,7.881524E-1,-1.2738345E0,2.2452271E-1,-7.6700844E-2,9.6630424E-1,-1.5821478E-1,-3.9783973E-1,9.0003365E-1,-4.9915597E-1,-1.5319625E0,1.1831228E0,-4.5329306E-1],"categories":[],"categories_nodes":[],"categories_segments":[],"categories_sizes":[],"default_left":[1,1,1,0,1,1,1,1,1,1,1,1,1,0,0,0,0,0,0,0,0,0,0,0,0],"id":23,"left_children":[1,3,5,-1,7,9,11,13,15,17,19,21,23,-1,-1,-1,-1,-1,-1,-1,-1,-1,-1,-1,-1],"loss_changes":[8.125581E0,8.894201E0,1.7604033E1,0E0,1.1050994E1,9.281345E0,8.19953E0,1.1426089E1,1.0273571E1,6.231592E0,9.045686E0,3.6463833E-1,3.34967E0,0E0,0E0,0E0,0E0,0E0,0E0,0E0,0E0,0E0,0E0,0E0,0E0],"parents":[2147483647,0,0,1,1,2,2,4,4,5,5,6,6,7,7,8,8,9,9,10,10,11,11,12,12],"right_children":[2,4,6,-1,8,10,12,14,16,18,20,22,24,-1,-1,-1,-1,-1,-1,-1,-1,-1,-1,-1,-1],"split_conditions":[3.1339386E-3,-9.0116225E-3,8.238276E1,6.1552998E-2,-7.002471E-3,-1.2940952E-1,3.923882E-3,-3.773682E-3,-2.46363E-3,3.4396802E-3,1.7578416E-3,-1.1787328E-3,2.0750584E-3,3.9407622E-2,-6.369173E-2,1.1226135E-2,-3.8350422E-3,4.8315212E-2,-7.910739E-3,-1.9891987E-2,4.5001682E-2,-2.4957798E-2,-7.659813E-2,5.915614E-2,-2.2664653E-2],"split_indices":[2,4,5,0,4,8,4,2,4,4,4,4,1,0,0,0,0,0,0,0,0,0,0,0,0],"split_type":[0,0,0,0,0,0,0,0,0,0,0,0,0,0,0,0,0,0,0,0,0,0,0,0,0],"sum_hessian":[8.482093E2,7.757442E2,7.246507E1,4.5546756E0,7.711895E2,6.208421E1,1.0380866E1,1.4613867E1,7.565757E2,3.920839E1,2.287582E1,7.16605E0,3.214816E0,2.662873E0,1.1950994E1,1.375279E2,6.190478E2,3.3767124E1,5.4412665E0,1.603309E1,6.842729E0,1.7333908E0,5.432659E0,1.4987046E0,1.7161114E0],"tree_param":{"num_deleted":"0","num_feature":"11","num_nodes":"25","size_leaf_vector":"0"}},{"base_weights":[3.908397E-2,4.563799E-1,1.4535874E-2,6.954397E-1,-1.4637432E-1,2.4627225E-2,-7.963558E-1,-3.285356E-2,1.0036508E0,8.414991E-1,-6.489998E-1,-1.1407085E-2,2.8040612E-1,-1.2177505E0,4.5288974E-1,-1.0398073E0,3.0422324E-1,1.1679283E0,1.9497497E-1,7.16652E-2,1.2321538E0,-9.0779656E-1,6.4439636E-1,8.2437426E-1,-2.6013318E-2,3.8151714E-1,-5.6177807E-1,-1.186979E-1,-1.4095147E0],"categories":[],"categories_nodes":[],"categories_segments":[],"categories_sizes":[],"default_left":[1,1,1,1,1,1,1,1,1,1,1,1,1,1,0,0,0,0,0,0,0,0,0,0,0,0,0,0,0],"id":24,"left_children":[1,3,5,7,9,11,13,15,17,19,21,23,25,27,-1,-1,-1,-1,-1,-1,-1,-1,-1,-1,-1,-1,-1,-1,-1],"loss_changes":[8.680835E0,6.886385E0,6.5822487E0,7.639557E0,7.5954847E0,7.3130283E0,5.7567115E0,4.065189E0,2.9396667E0,1.48246E0,3.9236183E0,8.51945E0,8.557219E0,1.4481297E0,0E0,0E0,0E0,0E0,0E0,0E0,0E0,0E0,0E0,0E0,0E0,0E0,0E0,0E0,0E0],"parents":[2147483647,0,0,1,1,2,2,3,3,4,4,5,5,6,6,7,7,8,8,9,9,10,10,11,11,12,12,13,13],"right_children":[2,4,6,8,10,12,14,16,18,20,22,24,26,28,-1,-1,-1,-1,-1,-1,-1,-1,-1,-1,-1,-1,-1,-1,-1],"split_conditions":[2.3606068E1,-1.1257917E-3,8.7387665E1,-2.1694186E-1,7.30305E-4,2.575302E-3,1.6245005E-3,1.1787105E-3,6.035534E-1,5.7626487E-4,1.865141E-3,4.8145582E-4,8.098286E1,1.0760068E-3,2.2644488E-2,-5.1990367E-2,1.5211162E-2,5.8396418E-2,9.7487485E-3,3.5832599E-3,6.160769E-2,-4.5389827E-2,3.221982E-2,4.1218713E-2,-1.3006659E-3,1.9075857E-2,-2.8088903E-2,-5.934895E-3,-7.0475735E-2],"split_indices":[5,2,5,9,3,2,6,6,8,3,6,3,5,6,0,0,0,0,0,0,0,0,0,0,0,0,0,0,0],"split_type":[0,0,0,0,0,0,0,0,0,0,0,0,0,0,0,0,0,0,0,0,0,0,0,0,0,0,0,0,0],"sum_hessian":[8.470693E2,4.6084373E1,8.009849E2,3.2887154E1,1.3197223E1,7.9209705E2,8.887827E0,1.0044861E1,2.284229E1,4.2230067E0,8.9742155E0,6.9512305E2,9.697402E1,6.6648536E0,2.2229736E0,1.9963527E0,8.048509E0,1.8616262E1,4.2260284E0,1.8199725E0,2.4030344E0,7.7263694E0,1.2478464E0,1.0987181E1,6.8413586E2,8.706782E1,9.906206E0,1.2306484E0,5.434205E0],"tree_param":{"num_deleted":"0","num_feature":"11","num_nodes":"29","size_leaf_vector":"0"}},{"base_weights":[2.2564486E-2,1.0457535E0,1.4063688E-2,1.9713999E-3,6.3351315E-1,5.533654E-2,-1.991241E-1,9.510054E-1,-7.5085634E-1,1.934011E-2,9.331404E-1,-3.6817703E-1,1.529648E-1,2.1626464E-1,1.3592219E0,-1.1613479E0,7.4783884E-2],"categories":[],"categories_nodes":[],"categories_segments":[],"categories_sizes":[],"default_left":[1,0,1,1,1,1,1,1,1,0,0,0,0,0,0,0,0],"id":25,"left_children":[1,-1,3,5,7,9,11,13,15,-1,-1,-1,-1,-1,-1,-1,-1],"loss_changes":[7.31601E0,0E0,6.2674646E0,8.830809E0,7.7556643E0,2.0529491E1,1.0328387E1,3.7471313E0,1.2891924E0,0E0,0E0,0E0,0E0,0E0,0E0,0E0,0E0],"parents":[2147483647,0,0,2,2,3,3,4,4,5,5,6,6,7,7,8,8],"right_children":[2,-1,4,6,8,10,12,14,16,-1,-1,-1,-1,-1,-1,-1,-1],"split_conditions":[4.0880364E-4,5.2287675E-2,2.8523952E-3,1.1333008E-3,2.4255607E-3,1.0921422E-3,6.078576E-1,-2.1694186E-1,2.955678E-4,9.6700544E-4,4.6657022E-2,-1.8408852E-2,7.6482403E-3,1.0813232E-2,6.79611E-2,-5.8067393E-2,3.7391942E-3],"split_indices":[3,0,6,3,3,3,9,9,0,0,0,0,0,0,0,0,0],"split_type":[0,0,0,0,0,0,0,0,0,0,0,0,0,0,0,0,0],"sum_hessian":[8.418125E2,5.9308767E0,8.358816E2,8.208607E2,1.5020862E1,6.4928375E2,1.7157698E2,1.2473272E1,2.5475886E0,6.2468896E2,2.459482E1,1.1588834E2,5.5688637E1,5.0013046E0,7.471968E0,1.4300127E0,1.1175759E0],"tree_param":{"num_deleted":"0","num_feature":"11","num_nodes":"17","size_leaf_vector":"0"}},{"base_weights":[4.646568E-2,2.0728387E-1,3.0018047E-3,-3.2356223E-1,2.983007E-1,-1.4782968E-1,7.436394E-2,7.122E-1,-6.7762095E-1,5.5602145E-1,4.922435E-2,1.8421224E-1,-2.3726195E-1,2.0569879E-1,-1.4534587E-1,1.1157539E0,-7.6455843E-1,1.4625423E-1,-1.1024445E0,-2.1178198E-1,6.4546204E-1,4.3269736E-1,-1.8373756E-1,-6.779532E-1,4.895965E-1,-4.275611E-1,-1.2908527E-2,7.2078043E-1,1.2132478E-1,2.2297296E-1,-2.2919385E-1],"categories":[],"categories_nodes":[],"categories_segments":[],"categories_sizes":[],"default_left":[1,1,1,1,1,1,1,1,1,1,1,1,1,1,1,0,0,0,0,0,0,0,0,0,0,0,0,0,0,0,0],"id":26,"left_children":[1,3,5,7,9,11,13,15,17,19,21,23,25,27,29,-1,-1,-1,-1,-1,-1,-1,-1,-1,-1,-1,-1,-1,-1,-1,-1],"loss_changes":[5.915171E0,8.7961855E0,7.193484E0,1.0322908E1,9.872642E0,6.4177694E0,1.3119982E1,5.21743E0,7.3397293E0,5.3352184E0,7.183815E0,1.2472082E1,7.2328672E0,1.2269686E1,5.3105993E0,0E0,0E0,0E0,0E0,0E0,0E0,0E0,0E0,0E0,0E0,0E0,0E0,0E0,0E0,0E0,0E0],"parents":[2147483647,0,0,1,1,2,2,3,3,4,4,5,5,6,6,7,7,8,8,9,9,10,10,11,11,12,12,13,13,14,14],"right_children":[2,4,6,8,10,12,14,16,18,20,22,24,26,28,30,-1,-1,-1,-1,-1,-1,-1,-1,-1,-1,-1,-1,-1,-1,-1,-1],"split_conditions":[-2.389189E-3,-6.686109E-3,-2.7139077E-4,-9.0116225E-3,2.0048442E-1,-1.3240414E-3,3.7940952E-1,7.2007095E1,-1.6040511E-3,-1.8563579E-3,-3.7940952E-1,-2.1694186E-1,5.5187263E1,3.2456734E-4,7.2988844E-4,5.5787694E-2,-3.8227923E-2,7.3127113E-3,-5.5122226E-2,-1.05890995E-2,3.2273103E-2,2.1634867E-2,-9.186878E-3,-3.389766E-2,2.4479825E-2,-2.1378055E-2,-6.4542633E-4,3.603902E-2,6.066239E-3,1.1148648E-2,-1.1459692E-2],"split_indices":[4,4,4,4,10,2,7,5,2,1,8,9,5,4,4,0,0,0,0,0,0,0,0,0,0,0,0,0,0,0,0],"split_type":[0,0,0,0,0,0,0,0,0,0,0,0,0,0,0,0,0,0,0,0,0,0,0,0,0,0,0,0,0,0,0],"sum_hessian":[8.453488E2,1.790579E2,6.6629095E2,2.583325E1,1.5322466E2,2.1364914E2,4.5264178E2,6.3233657E0,1.9509884E1,7.4699905E1,7.852475E1,4.5109158E1,1.6853998E2,2.8333676E2,1.6930504E2,5.1582327E0,1.1651332E0,6.860604E0,1.264928E1,7.6511E0,6.7048805E1,2.9351908E1,4.9172844E1,1.1479647E1,3.3629513E1,9.070078E1,7.7839195E1,3.8818306E1,2.4451845E2,3.1087557E1,1.3821748E2],"tree_param":{"num_deleted":"0","num_feature":"11","num_nodes":"31","size_leaf_vector":"0"}},{"base_weights":[3.8738254E-2,5.033568E-2,-6.854924E-1,8.1404096E-1,3.758023E-2,4.3207142E-1,-8.6261976E-1,9.859784E-1,-3.510093E-1,-1.5950935E-1,8.820797E-2,-1.1882106E0,1.7326856E-1,3.0168918E-1,1.1496563E0,2.2854519E-1,-3.8241744E-1,-9.188284E-1,1.05744936E-1,-3.394163E-1,-1.4984554E0,7.7985454E-1,-5.899066E-1],"categories":[],"categories_nodes":[],"categories_segments":[],"categories_sizes":[],"default_left":[1,1,1,1,1,0,1,1,0,1,1,1,1,0,0,0,0,0,0,0,0,0,0],"id":27,"left_children":[1,3,5,7,9,-1,11,13,-1,15,17,19,21,-1,-1,-1,-1,-1,-1,-1,-1,-1,-1],"loss_changes":[7.083288E0,8.024815E0,3.004551E0,3.0575724E0,8.140201E0,0E0,4.1891623E0,1.0036764E0,0E0,1.4515545E1,1.15514965E1,1.8911877E0,2.171534E0,0E0,0E0,0E0,0E0,0E0,0E0,0E0,0E0,0E0,0E0],"parents":[2147483647,0,0,1,1,2,2,3,3,4,4,6,6,7,7,9,9,10,10,11,11,12,12],"right_children":[2,4,6,8,10,-1,12,14,-1,16,18,20,22,-1,-1,-1,-1,-1,-1,-1,-1,-1,-1],"split_conditions":[8.599846E1,4.8145582E-4,1.0368385E-3,8.576903E-4,1.0165126E-3,2.1603571E-2,1.6245005E-3,-2.1694186E-1,-1.7550467E-2,2.1694186E-1,5.4734026E-4,8.7875885E1,8.647691E-4,1.5084459E-2,5.7482816E-2,1.142726E-2,-1.9120872E-2,-4.5941424E-2,5.287247E-3,-1.6970815E-2,-7.492277E-2,3.899273E-2,-2.9495329E-2],"split_indices":[5,3,6,1,6,0,6,9,0,9,3,5,3,0,0,0,0,0,0,0,0,0,0],"split_type":[0,0,0,0,0,0,0,0,0,0,0,0,0,0,0,0,0,0,0,0,0,0,0],"sum_hessian":[8.3822E2,8.2592456E2,1.2295393E1,1.2536052E1,8.1338855E2,1.4852238E0,1.0810169E1,1.1057845E1,1.478207E0,1.6579843E2,6.475901E2,8.113092E0,2.697077E0,2.6832318E0,8.374614E0,6.0481888E1,1.05316536E2,1.0204708E1,6.373854E2,2.732182E0,5.38091E0,1.4905248E0,1.2065524E0],"tree_param":{"num_deleted":"0","num_feature":"11","num_nodes":"23","size_leaf_vector":"0"}},{"base_weights":[2.0870838E-2,1.3196735E-1,-3.7111923E-2,6.8546486E-1,3.5738755E-2,-2.9808027E-1,1.0624769E-1,1.0786462E0,-1.5935476E-1,-4.08469E-1,1.6297118E-1,2.6565245E-1,-4.0302745E-1,3.3669236E-1,-1.0156033E-1,1.2241341E0,-9.40274E-2,6.529782E-1,-8.209288E-1,4.1190264E-1,-5.8077556E-1,7.1379673E-3,7.0901024E-1,5.5816096E-1,-8.000012E-1,-4.768174E-1,3.9205584E-1,2.6487443E-1,8.4858465E-1,-1.6435087E-1,6.0354674E-1],"categories":[],"categories_nodes":[],"categories_segments":[],"categories_sizes":[],"default_left":[1,1,1,1,1,1,1,1,1,1,1,1,1,1,1,0,0,0,0,0,0,0,0,0,0,0,0,0,0,0,0],"id":28,"left_children":[1,3,5,7,9,11,13,15,17,19,21,23,25,27,29,-1,-1,-1,-1,-1,-1,-1,-1,-1,-1,-1,-1,-1,-1,-1,-1],"loss_changes":[5.447821E0,1.542058E1,2.083188E1,1.4419573E1,1.4087935E1,1.17850685E1,1.7253967E1,5.130905E0,8.325315E0,8.087646E0,1.6465647E1,1.0291172E1,9.973383E0,6.052019E0,8.504446E0,0E0,0E0,0E0,0E0,0E0,0E0,0E0,0E0,0E0,0E0,0E0,0E0,0E0,0E0,0E0,0E0],"parents":[2147483647,0,0,1,1,2,2,3,3,4,4,5,5,6,6,7,7,8,8,9,9,10,10,11,11,12,12,13,13,14,14],"right_children":[2,4,6,8,10,12,14,16,18,20,22,24,26,28,30,-1,-1,-1,-1,-1,-1,-1,-1,-1,-1,-1,-1,-1,-1,-1,-1],"split_conditions":[7.9016166E-4,-2.0550261E-3,9.560618E-4,2.0048442E-1,-4.5844368E-4,3.3334877E1,1.1282217E-3,7.033517E1,7.256424E-4,-2.1694186E-1,8.117449E-1,5.3120613E-5,3.3188565E-3,1.094797E-3,2.120586E-3,6.1206706E-2,-4.70137E-3,3.264891E-2,-4.104644E-2,2.0595131E-2,-2.9038778E-2,3.5689838E-4,3.5450514E-2,2.7908048E-2,-4.0000062E-2,-2.384087E-2,1.9602792E-2,1.3243722E-2,4.2429235E-2,-8.217543E-3,3.0177338E-2],"split_indices":[3,4,3,10,4,5,3,5,3,9,10,1,2,3,3,0,0,0,0,0,0,0,0,0,0,0,0,0,0,0,0],"split_type":[0,0,0,0,0,0,0,0,0,0,0,0,0,0,0,0,0,0,0,0,0,0,0,0,0,0,0,0,0,0,0],"sum_hessian":[8.439536E2,2.8898145E2,5.5497217E2,4.1893105E1,2.4708835E2,1.9638977E2,3.585824E2,2.8399246E1,1.3493859E1,5.4522617E1,1.9256573E2,3.0582418E1,1.6580736E2,1.6973636E2,1.8884604E2,2.5225729E1,3.1735177E0,6.0626507E0,7.4312086E0,9.222534E0,4.5300083E1,1.5059946E2,4.1966267E1,2.4369518E1,6.2128997E0,1.520923E2,1.371506E1,1.5018326E2,1.9553104E1,1.7410841E2,1.4737626E1],"tree_param":{"num_deleted":"0","num_feature":"11","num_nodes":"31","size_leaf_vector":"0"}},{"base_weights":[2.2235839E-2,8.193706E-1,9.406389E-3,1.0426375E0,-4.351195E-1,2.0678113E-1,-4.389896E-2,1.1725062E0,7.933196E-2,6.3846374E-1,9.541805E-2,-4.688051E-1,-1.0777466E-2,1.2370319E0,3.9026335E-1,1.164732E0,6.159198E-2,-7.426032E-2,3.94367E-1,-7.510776E-2,-9.1146827E-1,4.0982477E-2,-2.359994E-1],"categories":[],"categories_nodes":[],"categories_segments":[],"categories_sizes":[],"default_left":[1,1,1,1,0,1,1,1,0,1,1,1,1,0,0,0,0,0,0,0,0,0,0],"id":29,"left_children":[1,3,5,7,-1,9,11,13,-1,15,17,19,21,-1,-1,-1,-1,-1,-1,-1,-1,-1,-1],"loss_changes":[8.545818E0,4.1609764E0,8.680036E0,1.3495407E0,0E0,8.372333E0,9.13884E0,2.6446342E-2,0E0,1.0796379E1,7.162534E0,8.115525E0,7.048022E0,0E0,0E0,0E0,0E0,0E0,0E0,0E0,0E0,0E0,0E0],"parents":[2147483647,0,0,1,1,2,2,3,3,5,5,6,6,7,7,9,9,10,10,11,11,12,12],"right_children":[2,4,6,8,-1,10,12,14,-1,16,18,20,22,-1,-1,-1,-1,-1,-1,-1,-1,-1,-1],"split_conditions":[4.8510428E-4,8.576903E-4,-2.46363E-3,9.159756E-1,-2.1755977E-2,8.0482685E-4,8.0817833E-4,7.865661E-1,3.966598E-3,-5.6174487E-1,6.078576E-1,9.7163586E-4,1.1559811E-3,6.18516E-2,1.9513167E-2,5.82366E-2,3.079599E-3,-3.713016E-3,1.971835E-2,-3.755388E-3,-4.5573413E-2,2.0491239E-3,-1.1799971E-2],"split_indices":[3,1,4,8,0,3,6,8,0,10,9,4,3,0,0,0,0,0,0,0,0,0,0],"split_type":[0,0,0,0,0,0,0,0,0,0,0,0,0,0,0,0,0,0,0,0,0,0,0],"sum_hessian":[8.3538336E2,1.2236303E1,8.231471E2,1.0530943E1,1.7053599E0,1.7442416E2,6.487229E2,9.0885E0,1.442443E0,3.479875E1,1.3962541E2,4.5960083E1,6.027628E2,7.8588476E0,1.2296523E0,1.7664627E1,1.7134123E1,8.9549965E1,5.0075447E1,2.4944513E1,2.1015568E1,4.9078897E2,1.11973854E2],"tree_param":{"num_deleted":"0","num_feature":"11","num_nodes":"23","size_leaf_vector":"0"}},{"base_weights":[2.19327E-2,3.2827448E-2,-5.7427776E-1,1.8028481E-2,6.2171954E-1,-7.8171045E-1,9.7665614E-1,1.4122365E-1,-4.9816143E-2,-9.634694E-1,1.0409483E0,-9.9924035E-2,-1.3766627E0,9.541971E-2,1.2099261E0,-2.6744366E-1,7.300871E-2,1.7486656E-1,-1.4176602E0,1.3064951E0,-3.2101575E-1,-1.1590693E0,1.3074876E0,-1.4899602E0,-4.2450827E-1],"categories":[],"categories_nodes":[],"categories_segments":[],"categories_sizes":[],"default_left":[1,1,1,1,1,1,0,1,1,1,1,1,1,0,0,0,0,0,0,0,0,0,0,0,0],"id":30,"left_children":[1,3,5,7,9,11,-1,13,15,17,19,21,23,-1,-1,-1,-1,-1,-1,-1,-1,-1,-1,-1,-1],"loss_changes":[5.4648843E0,7.172767E0,5.621323E0,6.736548E0,1.4412163E1,5.4901676E0,0E0,1.3894016E1,1.3917848E1,2.698349E0,6.364521E0,1.276018E1,1.5829563E-1,0E0,0E0,0E0,0E0,0E0,0E0,0E0,0E0,0E0,0E0,0E0,0E0],"parents":[2147483647,0,0,1,1,2,2,3,3,4,4,5,5,7,7,8,8,9,9,10,10,11,11,12,12],"right_children":[2,4,6,8,10,12,-1,14,16,18,20,22,24,-1,-1,-1,-1,-1,-1,-1,-1,-1,-1,-1,-1],"split_conditions":[8.269852E-3,6.6454336E-3,2.0800526E-3,7.944157E-4,7.929094E-4,1.6059186E-3,4.8832808E-2,1.6271047E-3,9.560618E-4,7.0126867E-4,2.0399452E-3,9.126617E-4,1.262898E-3,4.770986E-3,6.0496308E-2,-1.3372183E-2,3.6504355E-3,8.743328E-3,-7.088301E-2,6.532475E-2,-1.6050788E-2,-5.7953466E-2,6.537438E-2,-7.449801E-2,-2.1225413E-2],"split_indices":[4,4,6,3,3,6,0,6,3,3,1,3,3,0,0,0,0,0,0,0,0,0,0,0,0],"split_type":[0,0,0,0,0,0,0,0,0,0,0,0,0,0,0,0,0,0,0,0,0,0,0,0,0],"sum_hessian":[8.3742346E2,8.2332355E2,1.409992E1,8.041458E2,1.9177721E1,1.2874032E1,1.2258883E0,2.8519498E2,5.189508E2,3.739545E0,1.5438175E1,6.543478E0,6.330554E0,2.7451855E2,1.0676414E1,1.8679688E2,3.3215393E2,1.2419204E0,2.4976246E0,1.2953344E1,2.4848313E0,3.8343773E0,2.709101E0,5.1526113E0,1.1779426E0],"tree_param":{"num_deleted":"0","num_feature":"11","num_nodes":"25","size_leaf_vector":"0"}},{"base_weights":[3.6434352E-2,1.9129781E-1,-5.200077E-3,-3.3859792E-1,2.8022516E-1,-6.9028175E-1,9.507212E-3,6.135926E-1,-6.88074E-1,5.116882E-1,6.5368526E-2,6.586622E-2,-1.2611372E0,-4.1475117E-1,3.7156202E-2,1.1527387E0,-5.15732E-1,-1.1966116E0,2.2617888E-1,-3.3707294E-1,6.1518615E-1,-7.0295674E-1,1.8729633E-1,-1.0197011E0,7.0600724E-1,-3.499964E-1,-1.5063112E0,1.3414865E0,-5.1646173E-1,-9.2429176E-2,9.358706E-2],"categories":[],"categories_nodes":[],"categories_segments":[],"categories_sizes":[],"default_left":[1,1,1,1,1,1,1,1,1,1,1,1,1,1,1,0,0,0,0,0,0,0,0,0,0,0,0,0,0,0,0],"id":31,"left_children":[1,3,5,7,9,11,13,15,17,19,21,23,25,27,29,-1,-1,-1,-1,-1,-1,-1,-1,-1,-1,-1,-1,-1,-1,-1,-1],"loss_changes":[5.4128003E0,8.476462E0,6.6814723E0,9.0785885E0,7.568267E0,6.0988545E0,7.6347165E0,5.168802E0,9.337078E0,6.658499E0,7.6652293E0,5.546598E0,1.257885E0,7.806312E0,4.474587E0,0E0,0E0,0E0,0E0,0E0,0E0,0E0,0E0,0E0,0E0,0E0,0E0,0E0,0E0,0E0,0E0],"parents":[2147483647,0,0,1,1,2,2,3,3,4,4,5,5,6,6,7,7,8,8,9,9,10,10,11,11,12,12,13,13,14,14],"right_children":[2,4,6,8,10,12,14,16,18,20,22,24,26,28,30,-1,-1,-1,-1,-1,-1,-1,-1,-1,-1,-1,-1,-1,-1,-1,-1],"split_conditions":[-2.389189E-3,-6.7942804E-3,-2.2675693E-3,-9.0116225E-3,2.0048442E-1,-1.2940952E-1,7.886075E-4,5.9497322E1,1.8556349E-3,-1.8563579E-3,-9.159756E-1,2.1694186E-1,-2.579306E-4,6.123234E-17,-2.7139077E-4,5.7636935E-2,-2.57866E-2,-5.9830584E-2,1.1308945E-2,-1.6853647E-2,3.0759308E-2,-3.514784E-2,9.364816E-3,-5.0985057E-2,3.5300363E-2,-1.749982E-2,-7.531556E-2,6.707432E-2,-2.5823087E-2,-4.6214587E-3,4.6793534E-3],"split_indices":[4,4,4,4,10,8,6,5,6,1,7,9,0,7,4,0,0,0,0,0,0,0,0,0,0,0,0,0,0,0,0],"split_type":[0,0,0,0,0,0,0,0,0,0,0,0,0,0,0,0,0,0,0,0,0,0,0,0,0,0,0,0,0,0,0],"sum_hessian":[8.383453E2,1.768689E2,6.614764E2,2.5013304E1,1.5185559E2,1.29366865E1,6.4853973E2,6.512754E0,1.850055E1,7.243766E1,7.941793E1,5.945703E0,6.990984E0,3.882292E1,6.097168E2,4.394203E0,2.1185508E0,1.1689579E1,6.8109713E0,7.6277328E0,6.480993E1,1.0224311E1,6.919362E1,1.9855778E0,3.9601252E0,1.9970148E0,4.9939694E0,1.4580202E0,3.7364902E1,1.8477336E2,4.2494342E2],"tree_param":{"num_deleted":"0","num_feature":"11","num_nodes":"31","size_leaf_vector":"0"}},{"base_weights":[2.0802038E-2,1.0627085E0,1.4421393E-2,2.0438438E-2,-1.0381287E0,9.000231E-3,6.857186E-1,-3.3609897E-1,-1.1679729E0,2.7416287E-2,-1.7928884E0,1.3504275E0,-7.7130574E-1],"categories":[],"categories_nodes":[],"categories_segments":[],"categories_sizes":[],"default_left":[1,0,1,1,1,1,1,0,0,0,0,0,0],"id":32,"left_children":[1,-1,3,5,7,9,11,-1,-1,-1,-1,-1,-1],"loss_changes":[5.6376796E0,0E0,5.3801875E0,6.4036813E0,4.763317E-2,2.7562141E1,1.4817745E1,0E0,0E0,0E0,0E0,0E0,0E0],"parents":[2147483647,0,0,2,2,3,3,4,4,5,5,6,6],"right_children":[2,-1,4,6,8,10,12,-1,-1,-1,-1,-1,-1],"split_conditions":[3.6908267E-4,5.3135425E-2,7.3228986E-3,2.120586E-3,3.1452507E-3,1.7779926E-3,2.4255607E-3,-1.6804948E-2,-5.8398645E-2,1.3708144E-3,-8.9644425E-2,6.752138E-2,-3.856529E-2],"split_indices":[3,0,2,3,1,3,3,0,0,0,0,0,0],"split_type":[0,0,0,0,0,0,0,0,0,0,0,0,0],"sum_hessian":[8.493272E2,4.161959E0,8.451653E2,8.4133624E2,3.829031E0,8.2811194E2,1.3224257E1,1.1577724E0,2.6712584E0,8.2070874E2,7.403203E0,9.131526E0,4.092732E0],"tree_param":{"num_deleted":"0","num_feature":"11","num_nodes":"13","size_leaf_vector":"0"}},{"base_weights":[2.591136E-3,-2.0470017E-1,5.2298542E-2,-9.4784194E-1,-1.4901304E-1,2.9114303E-1,-2.906397E-2,3.0056483E-1,-1.3948758E0,2.7171886E-1,-3.443851E-1,1.2569773E0,2.2776486E-1,-1.1634245E0,-6.499619E-4,8.4891E-1,-5.562605E-1,-4.803451E-1,5.752393E-1,-8.176476E-1,-1.0099003E-1,2.0379514E-1,1.4715288E0,5.4190886E-1,8.1537455E-2,-1.5819676E0,-6.7925856E-2,1.6285117E-1,-8.31176E-2],"categories":[],"categories_nodes":[],"categories_segments":[],"categories_sizes":[],"default_left":[1,1,1,1,1,1,1,1,0,1,1,1,1,1,1,0,0,0,0,0,0,0,0,0,0,0,0,0,0],"id":33,"left_children":[1,3,5,7,9,11,13,15,-1,17,19,21,23,25,27,-1,-1,-1,-1,-1,-1,-1,-1,-1,-1,-1,-1,-1,-1],"loss_changes":[8.679416E0,6.601116E0,1.3210817E1,6.653593E0,1.2649759E1,1.0286167E1,1.6362074E1,2.242639E0,0E0,1.1461E1,1.1984091E1,2.053379E0,7.4573298E0,5.5803432E0,6.704846E0,0E0,0E0,0E0,0E0,0E0,0E0,0E0,0E0,0E0,0E0,0E0,0E0,0E0,0E0],"parents":[2147483647,0,0,1,1,2,2,3,3,4,4,5,5,6,6,7,7,9,9,10,10,11,11,12,12,13,13,14,14],"right_children":[2,4,6,8,10,12,14,16,-1,18,20,22,24,26,28,-1,-1,-1,-1,-1,-1,-1,-1,-1,-1,-1,-1,-1,-1],"split_conditions":[-2.1694186E-1,5.9008645E-4,-1.1275711E-3,4.7814444E-4,7.9411897E-4,1.8416748E1,-1.0039215E-3,-4.0123845E-4,-6.974379E-2,4.2498863E1,9.571321E-4,1.2128962E1,-6.035534E-1,1.7935417E-5,-1.0791993E-4,4.24455E-2,-2.7813027E-2,-2.4017256E-2,2.8761966E-2,-4.088238E-2,-5.0495015E-3,1.0189757E-2,7.357644E-2,2.7095443E-2,4.076873E-3,-7.909838E-2,-3.396293E-3,8.142559E-3,-4.15588E-3],"split_indices":[9,3,2,3,3,5,2,2,0,5,3,5,7,0,0,0,0,0,0,0,0,0,0,0,0,0,0,0,0],"split_type":[0,0,0,0,0,0,0,0,0,0,0,0,0,0,0,0,0,0,0,0,0,0,0,0,0,0,0,0,0],"sum_hessian":[8.403027E2,1.6192406E2,6.783786E2,1.0171054E1,1.51753E2,1.7171645E2,5.0666217E2,2.768174E0,7.4028797E0,4.799831E1,1.0375469E2,9.414457E0,1.6230199E2,1.140487E1,4.952573E2,1.6935717E0,1.0746024E0,1.3633818E1,3.4364494E1,3.443643E1,6.931826E1,1.9232998E0,7.491158E0,5.0692364E1,1.1160962E2,7.9307923E0,3.4740777E0,1.6572151E2,3.295358E2],"tree_param":{"num_deleted":"0","num_feature":"11","num_nodes":"29","size_leaf_vector":"0"}},{"base_weights":[-1.4377616E-3,5.876461E-1,-1.5664037E-2,-2.5922203E-1,9.7924304E-1,-4.8838022E-1,7.914136E-4,8.361771E-1,-9.6006227E-1,1.220457E0,4.8381362E-2,7.293383E-1,-6.595171E-1,5.1726356E-2,-1.646717E-1,2.6602417E-1,9.819292E-1,-1.3060875E0,-2.3194323E-1,4.298869E-1,1.477732E0,5.931135E-1,-5.062995E-1,1.1908051E-2,1.0429434E0,5.2894175E-1,-7.504779E-1,-4.0802896E-2,3.4928843E-1,4.9202447E-3,-5.580618E-1],"categories":[],"categories_nodes":[],"categories_segments":[],"categories_sizes":[],"default_left":[1,1,1,1,1,1,1,1,1,1,1,1,1,1,1,0,0,0,0,0,0,0,0,0,0,0,0,0,0,0,0],"id":34,"left_children":[1,3,5,7,9,11,13,15,17,19,21,23,25,27,29,-1,-1,-1,-1,-1,-1,-1,-1,-1,-1,-1,-1,-1,-1,-1,-1],"loss_changes":[6.984275E0,6.7710266E0,6.3295627E0,6.1801634E0,3.005291E0,6.1853023E0,6.643569E0,1.0311365E-2,8.905587E-1,1.5608826E0,1.4635552E0,8.5327816E-1,3.0481424E0,1.6609371E1,1.2381536E1,0E0,0E0,0E0,0E0,0E0,0E0,0E0,0E0,0E0,0E0,0E0,0E0,0E0,0E0,0E0,0E0],"parents":[2147483647,0,0,1,1,2,2,3,3,4,4,5,5,6,6,7,7,8,8,9,9,10,10,11,11,12,12,13,13,14,14],"right_children":[2,4,6,8,10,12,14,16,18,20,22,24,26,28,30,-1,-1,-1,-1,-1,-1,-1,-1,-1,-1,-1,-1,-1,-1,-1,-1],"split_conditions":[1.8352943E1,-2.1694186E-1,7.4907235E-4,-6.035534E-1,-1.0901114E-3,-2.2582142E-3,1.1271877E-3,1.4742587E-3,8.9996913E-4,-1.8507701E-3,1.0860165E-5,-2.8156345E-3,4.8510428E-4,9.732082E-4,6.035534E-1,1.3301209E-2,4.909646E-2,-6.5304376E-2,-1.1597162E-2,2.1494346E-2,7.3886596E-2,2.9655674E-2,-2.5314976E-2,5.9540255E-4,5.214717E-2,2.6447088E-2,-3.7523896E-2,-2.0401448E-3,1.7464422E-2,2.4601223E-4,-2.790309E-2],"split_indices":[5,9,6,7,2,4,3,6,3,4,0,4,3,3,7,0,0,0,0,0,0,0,0,0,0,0,0,0,0,0,0],"split_type":[0,0,0,0,0,0,0,0,0,0,0,0,0,0,0,0,0,0,0,0,0,0,0,0,0,0,0,0,0,0,0],"sum_hessian":[8.313006E2,1.8651918E1,8.126487E2,6.004537E0,1.2647382E1,2.637229E1,7.8627637E2,2.2674506E0,3.7370863E0,9.797464E0,2.849918E0,2.84772E0,2.352457E1,6.0173126E2,1.8454512E2,1.0368162E0,1.2306345E0,1.9951465E0,1.7419398E0,3.0613356E0,6.7361283E0,1.4028962E0,1.4470217E0,1.1818922E0,1.6658276E0,1.3301598E0,2.219441E1,4.5965942E2,1.4207182E2,1.2964302E2,5.49021E1],"tree_param":{"num_deleted":"0","num_feature":"11","num_nodes":"31","size_leaf_vector":"0"}},{"base_weights":[1.9073151E-2,-1.4563322E-1,5.8299817E-2,-6.662555E-1,-2.1605266E-2,2.3266715E-1,-1.0544918E-3,4.3317965E-1,-7.9896957E-1,-8.642272E-1,5.2526522E-2,1.1189575E-1,5.721534E-1,-9.440634E-1,2.4072384E-2,-6.46652E-1,1.1637135E0,-8.747768E-1,3.269927E-1,5.1302344E-1,-1.1279995E0,5.458335E-1,-1.8531564E-1,5.4367E-1,-5.7593003E-2,-8.351789E-1,6.402569E-1,-2.5731143E-1,-1.1208298E0,8.832448E-2,-1.6884753E-1],"categories":[],"categories_nodes":[],"categories_segments":[],"categories_sizes":[],"default_left":[1,1,1,1,1,1,1,1,1,1,1,1,1,1,1,0,0,0,0,0,0,0,0,0,0,0,0,0,0,0,0],"id":35,"left_children":[1,3,5,7,9,11,13,15,17,19,21,23,25,27,29,-1,-1,-1,-1,-1,-1,-1,-1,-1,-1,-1,-1,-1,-1,-1,-1],"loss_changes":[5.3995934E0,1.0367935E1,6.9823437E0,4.854927E0,8.221212E0,6.9605474E0,1.1972157E1,3.8896306E0,2.6695728E0,4.444432E0,1.43267355E1,9.370376E0,4.820285E0,1.3035088E0,6.115872E0,0E0,0E0,0E0,0E0,0E0,0E0,0E0,0E0,0E0,0E0,0E0,0E0,0E0,0E0,0E0,0E0],"parents":[2147483647,0,0,1,1,2,2,3,3,4,4,5,5,6,6,7,7,8,8,9,9,10,10,11,11,12,12,13,13,14,14],"right_children":[2,4,6,8,10,12,14,16,18,20,22,24,26,28,30,-1,-1,-1,-1,-1,-1,-1,-1,-1,-1,-1,-1,-1,-1,-1,-1],"split_conditions":[-2.1694186E-1,-2.2139954E-3,-1.1275711E-3,-6.174913E-3,5.992846E-4,8.783797E-1,-1.0039215E-3,-5.5453507E-3,3.0167395E-4,-9.159756E-1,7.9411897E-4,-6.035534E-1,-5.131268E-3,-5.6174487E-1,8.783797E-1,-3.23326E-2,5.8185674E-2,-4.373884E-2,1.6349634E-2,2.5651172E-2,-5.639998E-2,2.7291676E-2,-9.265782E-3,2.7183501E-2,-2.87965E-3,-4.1758947E-2,3.2012846E-2,-1.2865572E-2,-5.604149E-2,4.416224E-3,-8.442377E-3],"split_indices":[9,2,2,2,3,9,2,1,1,8,3,7,1,10,9,0,0,0,0,0,0,0,0,0,0,0,0,0,0,0,0],"split_type":[0,0,0,0,0,0,0,0,0,0,0,0,0,0,0,0,0,0,0,0,0,0,0,0,0,0,0,0,0,0,0],"sum_hessian":[8.334221E2,1.5978758E2,6.736345E2,2.990133E1,1.2988625E2,1.7032997E2,5.0330457E2,2.976801E0,2.692453E1,9.641198E0,1.2024505E2,1.2661617E2,4.3713795E1,1.2113523E1,4.9119104E2,1.2475579E0,1.729243E0,2.5435152E1,1.4893774E0,1.3978051E0,8.243393E0,3.8694363E1,8.155068E1,3.506924E1,9.1546936E1,1.497853E0,4.2215942E1,2.9823823E0,9.131141E0,3.688781E2,1.2231293E2],"tree_param":{"num_deleted":"0","num_feature":"11","num_nodes":"31","size_leaf_vector":"0"}},{"base_weights":[5.9025553E-3,2.2302936E-1,-2.4406893E-2,1.4237326E-1,1.5261046E0,-3.7936485E-1,-3.6698407E-3,3.1812352E-1,-4.3032452E-1,-1.1684728E0,-2.0188527E-1,-2.5476007E-2,4.9945208E-1,4.679851E-1,-1.5688059E-1,-7.31857E-1,7.322971E-1,-1.4796984E0,1.5687631E-2,7.741463E-1,-3.6468312E-1,1.7813161E-2,-2.9854044E-1,9.4475216E-1,-3.5345498E-1],"categories":[],"categories_nodes":[],"categories_segments":[],"categories_sizes":[],"default_left":[1,1,1,1,0,1,1,1,1,1,1,1,1,0,0,0,0,0,0,0,0,0,0,0,0],"id":36,"left_children":[1,3,5,7,-1,9,11,13,15,17,19,21,23,-1,-1,-1,-1,-1,-1,-1,-1,-1,-1,-1,-1],"loss_changes":[5.5099797E0,1.056148E1,5.407849E0,9.968682E0,0E0,5.4435263E0,7.6411967E0,5.4349685E0,8.726087E0,2.6904163E0,5.7349033E0,7.894327E0,1.1322672E1,0E0,0E0,0E0,0E0,0E0,0E0,0E0,0E0,0E0,0E0,0E0,0E0],"parents":[2147483647,0,0,1,1,2,2,3,3,5,5,6,6,7,7,8,8,9,9,10,10,11,11,12,12],"right_children":[2,4,6,8,-1,10,12,14,16,18,20,22,24,-1,-1,-1,-1,-1,-1,-1,-1,-1,-1,-1,-1],"split_conditions":[3.0664974E1,3.0158978E1,-2.160216E-3,6.0777696E-5,7.630523E-2,1.2183134E-3,2.412199E-3,1.2209553E-3,1.9966383E-3,9.934345E-4,8.4494846E-4,1.182554E-3,1.7789097E-3,2.3399254E-2,-7.84403E-3,-3.6592852E-2,3.6614858E-2,-7.398492E-2,7.843816E-4,3.8707316E-2,-1.8234156E-2,8.9065806E-4,-1.4927022E-2,4.723761E-2,-1.767275E-2],"split_indices":[5,5,1,1,0,6,6,3,6,3,3,3,3,0,0,0,0,0,0,0,0,0,0,0,0],"split_type":[0,0,0,0,0,0,0,0,0,0,0,0,0,0,0,0,0,0,0,0,0,0,0,0,0],"sum_hessian":[8.354294E2,1.0155619E2,7.3387317E2,9.66812E1,4.874991E0,3.9552666E1,6.943205E2,7.4318695E1,2.2362503E1,6.237197E0,3.3315468E1,6.663875E2,2.7933012E1,5.6506073E1,1.7812622E1,1.8051306E1,4.311197E0,4.741454E0,1.495743E0,4.2256885E0,2.908978E1,5.7600726E2,9.038022E1,1.8280918E1,9.652094E0],"tree_param":{"num_deleted":"0","num_feature":"11","num_nodes":"25","size_leaf_vector":"0"}},{"base_weights":[1.389665E-2,2.6462741E-2,-7.0098054E-1,4.215682E-1,9.040882E-3,-9.1691893E-1,9.173341E-1,2.4641836E-1,8.421491E-1,-1.5355838E-2,2.768916E-1,-3.0008966E-1,-1.3478999E0,-3.3237588E-1,5.3834295E-1,1.889746E-2,9.497323E-1,-3.6990065E-2,4.4188893E-1,4.359815E-1,-6.515834E-1,-1.1004345E0,2.9223725E-1],"categories":[],"categories_nodes":[],"categories_segments":[],"categories_sizes":[],"default_left":[1,1,1,1,1,1,0,1,1,1,1,1,0,0,0,0,0,0,0,0,0,0,0],"id":37,"left_children":[1,3,5,7,9,11,-1,13,15,17,19,21,-1,-1,-1,-1,-1,-1,-1,-1,-1,-1,-1],"loss_changes":[7.511291E0,5.645028E0,5.8888736E0,2.3438764E0,5.147063E0,3.116373E0,0E0,4.549338E0,8.47312E-1,7.1609564E0,9.996267E0,3.5139234E0,0E0,0E0,0E0,0E0,0E0,0E0,0E0,0E0,0E0,0E0,0E0],"parents":[2147483647,0,0,1,1,2,2,3,3,4,4,5,5,7,7,8,8,9,9,10,10,11,11],"right_children":[2,4,6,8,10,12,-1,14,16,18,20,22,-1,-1,-1,-1,-1,-1,-1,-1,-1,-1,-1],"split_conditions":[8.245847E-3,-9.829629E-1,2.0800526E-3,2.1799835E-3,3.1339386E-3,1.6059186E-3,4.5866705E-2,1.58541E-3,-2.1694186E-1,2.3298268E-3,8.238276E1,1.0401978E-3,-6.7394994E-2,-1.6618794E-2,2.6917148E-2,9.44873E-4,4.7486614E-2,-1.8495033E-3,2.2094447E-2,2.1799076E-2,-3.257917E-2,-5.502173E-2,1.4611863E-2],"split_indices":[4,7,6,4,2,6,0,6,9,6,5,6,0,0,0,0,0,0,0,0,0,0,0],"split_type":[0,0,0,0,0,0,0,0,0,0,0,0,0,0,0,0,0,0,0,0,0,0,0],"sum_hessian":[8.330827E2,8.196381E2,1.3444592E1,3.363528E1,7.860028E2,1.2244209E1,1.200384E0,2.4865854E1,8.769425E0,7.212515E2,6.475128E1,5.73395E0,6.5102587E0,8.29028E0,1.6575575E1,1.1494241E0,7.620001E0,6.895453E2,3.1706264E1,5.5732254E1,9.0190325E0,2.0739024E0,3.660048E0],"tree_param":{"num_deleted":"0","num_feature":"11","num_nodes":"23","size_leaf_vector":"0"}},{"base_weights":[-1.9011737E-4,1.0020888E0,-6.027145E-3,-3.3623792E-2,1.9292071E-1,6.659222E-2,-1.5545261E-1,3.197402E-1,-5.887417E-1,4.851765E-2,9.409538E-1,-4.908963E-1,-7.382429E-2,4.875079E-1,-1.4368856E-1,-9.8281646E-1,2.4116947E-1],"categories":[],"categories_nodes":[],"categories_segments":[],"categories_sizes":[],"default_left":[1,0,1,1,1,1,1,1,1,0,0,0,0,0,0,0,0],"id":38,"left_children":[1,-1,3,5,7,9,11,13,15,-1,-1,-1,-1,-1,-1,-1,-1],"loss_changes":[4.851541E0,0E0,4.5329185E0,8.860363E0,1.0158581E1,6.250696E0,8.930025E0,6.848634E0,4.9439464E0,0E0,0E0,0E0,0E0,0E0,0E0,0E0,0E0],"parents":[2147483647,0,0,2,2,3,3,4,4,5,5,6,6,7,7,8,8],"right_children":[2,-1,4,6,8,10,12,14,16,-1,-1,-1,-1,-1,-1,-1,-1],"split_conditions":[3.6662933E-4,5.010444E-2,2.563193E-3,2.9033145E-5,8.238276E1,2.051883E-3,3.3914414E-4,1.2940952E-1,8.117449E-1,2.4258827E-3,4.704769E-2,-2.4544816E-2,-3.6912144E-3,2.4375396E-2,-7.184428E-3,-4.9140822E-2,1.2058473E-2],"split_indices":[3,0,2,2,5,3,2,8,10,0,0,0,0,0,0,0,0],"split_type":[0,0,0,0,0,0,0,0,0,0,0,0,0,0,0,0,0],"sum_hessian":[8.2724414E2,3.8015418E0,8.2344257E2,7.238642E2,9.9578354E1,3.9740967E2,3.2645456E2,8.618617E1,1.3392181E1,3.9039502E2,7.014651E0,6.291161E1,2.6354294E2,6.324033E1,2.2945843E1,8.955508E0,4.436673E0],"tree_param":{"num_deleted":"0","num_feature":"11","num_nodes":"17","size_leaf_vector":"0"}},{"base_weights":[2.0711085E-2,3.1779386E-2,-6.430796E-1,1.8345626E-2,4.8444954E-1,-8.682912E-1,9.2412996E-1,1.0846041E-1,-7.2528414E-2,-5.736924E-1,8.558798E-1,-2.8773344E-1,-1.286537E0,3.3911243E-1,1.3652507E-3,-5.0403014E-2,-9.753158E-1,8.480017E-2,-1.4243695E0,2.6321918E-1,1.5246881E0,-7.6561373E-1,5.5430335E-1],"categories":[],"categories_nodes":[],"categories_segments":[],"categories_sizes":[],"default_left":[1,1,1,1,1,1,0,1,1,1,1,1,0,0,0,0,0,0,0,0,0,0,0],"id":39,"left_children":[1,3,5,7,9,11,-1,13,15,17,19,21,-1,-1,-1,-1,-1,-1,-1,-1,-1,-1,-1],"loss_changes":[6.1282587E0,4.9693723E0,5.6314144E0,6.5271587E0,9.748838E0,2.659727E0,0E0,9.883133E0,7.8802643E0,3.8844228E0,6.668622E0,3.045282E0,0E0,0E0,0E0,0E0,0E0,0E0,0E0,0E0,0E0,0E0,0E0],"parents":[2147483647,0,0,1,1,2,2,3,3,4,4,5,5,7,7,8,8,9,9,10,10,11,11],"right_children":[2,4,6,8,10,12,-1,14,16,18,20,22,-1,-1,-1,-1,-1,-1,-1,-1,-1,-1,-1],"split_conditions":[8.269852E-3,6.369248E-3,2.0800526E-3,-6.1232336E-17,-6.035534E-1,1.6059186E-3,4.62065E-2,-1.5763026E-3,4.2053172E-3,7.5189993E-3,1.7642779E-3,1.1969167E-3,-6.432685E-2,1.6955622E-2,6.826253E-5,-2.5201507E-3,-4.876579E-2,4.2400085E-3,-7.1218476E-2,1.3160959E-2,7.623441E-2,-3.828069E-2,2.7715167E-2],"split_indices":[4,4,6,8,8,6,0,4,2,4,6,6,0,0,0,0,0,0,0,0,0,0,0],"split_type":[0,0,0,0,0,0,0,0,0,0,0,0,0,0,0,0,0,0,0,0,0,0,0],"sum_hessian":[8.303313E2,8.1764966E2,1.2681684E1,7.9509436E2,2.255526E1,1.1478203E1,1.2034802E0,3.9911777E2,3.9597662E2,5.7188044E0,1.6836456E1,5.5132866E0,5.964916E0,1.25868E2,2.7324976E2,3.875348E2,8.441825E0,3.7310135E0,1.9877907E0,9.665232E0,7.1712236E0,3.575083E0,1.9382036E0],"tree_param":{"num_deleted":"0","num_feature":"11","num_nodes":"23","size_leaf_vector":"0"}},{"base_weights":[6.7640166E-3,-4.2973408E-3,5.865189E-1,6.6547473E-3,-5.741963E-1,8.4003633E-1,-9.800937E-1,-5.505464E-1,2.041387E-2,-1.7418867E0,5.942647E-1,1.1174911E-1,1.1965218E0,1.1016871E0,-7.7359325E-1,1.1047739E-2,1.1955659E0,1.0807359E0,-6.486854E-1,5.709555E-1,-8.655025E-1,1.277864E0,2.9036915E-1],"categories":[],"categories_nodes":[],"categories_segments":[],"categories_sizes":[],"default_left":[1,1,1,1,1,1,0,1,1,0,1,1,1,0,0,0,0,0,0,0,0,0,0],"id":40,"left_children":[1,3,5,7,9,11,-1,13,15,-1,17,19,21,-1,-1,-1,-1,-1,-1,-1,-1,-1,-1],"loss_changes":[5.320669E0,5.0892076E0,6.9926243E0,6.14747E0,2.201135E1,3.4772215E0,0E0,7.973498E0,8.594651E0,0E0,5.7983704E0,3.0402775E0,3.0961895E-1,0E0,0E0,0E0,0E0,0E0,0E0,0E0,0E0,0E0,0E0],"parents":[2147483647,0,0,1,1,2,2,3,3,4,4,5,5,7,7,8,8,10,10,11,11,12,12],"right_children":[2,4,6,8,10,12,-1,14,16,-1,18,20,22,-1,-1,-1,-1,-1,-1,-1,-1,-1,-1],"split_conditions":[2.8523952E-3,1.777233E-3,2.4798773E-3,-6.7942804E-3,2.1238388E-3,-2.1694186E-1,-4.9004685E-2,-9.199819E-3,1.674335E-3,-8.709434E-2,2.5325092E-3,1.7789097E-3,2.4100295E-3,5.5084355E-2,-3.8679663E-2,5.523869E-4,5.97783E-2,5.4036796E-2,-3.243427E-2,2.8547777E-2,-4.3275125E-2,6.38932E-2,1.4518457E-2],"split_indices":[6,3,3,4,3,9,0,4,3,0,3,3,3,0,0,0,0,0,0,0,0,0,0],"split_type":[0,0,0,0,0,0,0,0,0,0,0,0,0,0,0,0,0,0,0,0,0,0,0],"sum_hessian":[8.282924E2,8.13759E2,1.45334215E1,7.993851E2,1.4373937E1,1.2908318E1,1.6251035E0,1.8323605E1,7.8106146E2,6.9438815E0,7.4300547E0,4.673663E0,8.234654E0,1.710881E0,1.6612722E1,7.758869E2,5.17453E0,5.433841E0,1.9962136E0,3.4624338E0,1.2112293E0,7.179929E0,1.054726E0],"tree_param":{"num_deleted":"0","num_feature":"11","num_nodes":"23","size_leaf_vector":"0"}},{"base_weights":[1.8585816E-2,4.0562353E-1,3.7162823E-3,1.1756955E0,1.3246164E-1,-8.366349E-1,1.3174745E-2,5.9760123E-1,-1.2770649E0,-1.1880487E0,2.530174E-1,1.7024449E-1,-2.6778232E-2,8.7225115E-1,-1.8349265E-1,-1.6044846E0,-3.8195354E-1,-1.4073249E0,-3.1463948E-1,5.1544493E-1,4.5580827E-2,-9.404726E-3,-6.541997E-1],"categories":[],"categories_nodes":[],"categories_segments":[],"categories_sizes":[],"default_left":[1,1,1,0,1,1,1,1,1,1,0,1,1,0,0,0,0,0,0,0,0,0,0],"id":41,"left_children":[1,3,5,-1,7,9,11,13,15,17,-1,19,21,-1,-1,-1,-1,-1,-1,-1,-1,-1,-1],"loss_changes":[4.7537947E0,6.2729044E0,6.3436904E0,0E0,1.629224E1,3.7020903E0,4.9548254E0,4.126698E0,1.2029715E0,8.772278E-1,0E0,6.8661976E0,6.8583064E0,0E0,0E0,0E0,0E0,0E0,0E0,0E0,0E0,0E0,0E0],"parents":[2147483647,0,0,1,1,2,2,4,4,5,5,6,6,7,7,8,8,9,9,11,11,12,12],"right_children":[2,4,6,-1,8,10,12,14,16,18,-1,20,22,-1,-1,-1,-1,-1,-1,-1,-1,-1,-1],"split_conditions":[2.0903019E1,-4.670875E-3,-4.631222E-3,5.878478E-2,1.0282041E-3,-4.469024E-3,-2.4639515E-3,1.1728826E-3,-1.7969727E-3,3.351098E1,1.265087E-2,8.5639535E-4,1.5852128E-3,4.361256E-2,-9.174633E-3,-8.022423E-2,-1.9097677E-2,-7.036625E-2,-1.5731974E-2,2.5772247E-2,2.2790413E-3,-4.7023632E-4,-3.2709986E-2],"split_indices":[5,2,1,0,3,2,4,4,4,5,0,3,3,0,0,0,0,0,0,0,0,0,0],"split_type":[0,0,0,0,0,0,0,0,0,0,0,0,0,0,0,0,0,0,0,0,0,0,0],"sum_hessian":[8.252804E2,2.9561E1,7.957194E2,6.875165E0,2.2685837E1,7.8830667E0,7.8783636E2,1.7490162E1,5.195675E0,5.892447E0,1.9906199E0,1.59099E2,6.2873737E2,1.2853783E1,4.6363783E0,3.2239134E0,1.9717616E0,4.221344E0,1.6711026E0,4.1380222E1,1.1771878E2,6.127841E2,1.5953203E1],"tree_param":{"num_deleted":"0","num_feature":"11","num_nodes":"23","size_leaf_vector":"0"}},{"base_weights":[8.941346E-3,-6.218046E-2,1.0425511E-1,1.9694518E-2,-4.1157743E-1,2.9945055E-1,-7.2796464E-2,8.3640105E-1,-2.31091E-2,-9.5525336E-1,-2.685555E-1,2.260246E-1,9.410792E-1,-1.9391665E-1,3.115064E-1,1.0613204E0,-3.2217273E-1,5.48595E-3,-1.1761577E0,-1.4315844E0,-3.1038946E-2,-3.825722E-1,7.726121E-1,3.3314866E-1,-1.9644997E-1,1.1509525E0,-4.5328557E-1,4.3787986E-2,-7.957551E-1,6.117954E-1,-3.889811E-1],"categories":[],"categories_nodes":[],"categories_segments":[],"categories_sizes":[],"default_left":[1,1,1,1,1,1,1,1,1,1,1,1,1,1,1,0,0,0,0,0,0,0,0,0,0,0,0,0,0,0,0],"id":42,"left_children":[1,3,5,7,9,11,13,15,17,19,21,23,25,27,29,-1,-1,-1,-1,-1,-1,-1,-1,-1,-1,-1,-1,-1,-1,-1,-1],"loss_changes":[5.666463E0,1.3704458E1,1.2365265E1,1.3612356E1,6.814699E0,7.799815E0,8.815436E0,5.3949614E0,1.2220668E1,8.121576E0,9.007767E0,7.031667E0,5.5399E0,2.0582924E1,9.800005E0,0E0,0E0,0E0,0E0,0E0,0E0,0E0,0E0,0E0,0E0,0E0,0E0,0E0,0E0,0E0,0E0],"parents":[2147483647,0,0,1,1,2,2,3,3,4,4,5,5,6,6,7,7,8,8,9,9,10,10,11,11,12,12,13,13,14,14],"right_children":[2,4,6,8,10,12,14,16,18,20,22,24,26,28,30,-1,-1,-1,-1,-1,-1,-1,-1,-1,-1,-1,-1,-1,-1,-1,-1],"split_conditions":[9.5611135E-4,8.6185173E-4,1.1282217E-3,-3.4479E-3,-2.1694186E-1,1.100403E-3,6.2414825E1,6.982639E1,6.7574973E-3,-5.1620125E-5,2.7700851E-3,6.928952E1,1.1216735E-3,6.035534E-1,7.4450066E1,5.3066023E-2,-1.6108638E-2,2.7429752E-4,-5.8807887E-2,-7.157922E-2,-1.5519473E-3,-1.9128611E-2,3.8630605E-2,1.6657433E-2,-9.822498E-3,5.7547625E-2,-2.2664279E-2,2.1893994E-3,-3.9787754E-2,3.0589772E-2,-1.9449055E-2],"split_indices":[3,3,3,4,9,3,5,5,4,4,2,5,0,7,5,0,0,0,0,0,0,0,0,0,0,0,0,0,0,0,0],"split_type":[0,0,0,0,0,0,0,0,0,0,0,0,0,0,0,0,0,0,0,0,0,0,0,0,0,0,0,0,0,0,0],"sum_hessian":[8.3394244E2,4.7777844E2,3.56164E2,3.878389E2,8.993953E1,1.6907321E2,1.8709079E2,1.8391071E1,3.6944785E2,1.754934E1,7.239019E1,1.529252E2,1.6148008E1,1.4263281E2,4.4457977E1,1.5471465E1,2.9196055E0,3.6147858E2,7.969253E0,1.1218474E1,6.330865E0,6.58154E1,6.574792E0,1.2216107E2,3.0764128E1,1.4187188E1,1.9608198E0,1.0291307E2,3.9719738E1,3.1206717E1,1.325126E1],"tree_param":{"num_deleted":"0","num_feature":"11","num_nodes":"31","size_leaf_vector":"0"}},{"base_weights":[8.615182E-3,2.2041185E-1,-2.1955961E-2,1.4715973E-1,1.3403138E0,-4.124973E-1,5.013707E-4,2.7819628E-1,-3.2396567E-1,-1.0699233E0,-2.1155326E-1,-1.986474E-2,4.6610567E-1,3.4266216E-1,-7.8730553E-1,-7.170082E-1,5.391195E-1,3.211301E-2,-1.2940842E0,-8.1135523E-1,5.1571014E-3,-4.9526227E-1,8.2114857E-4,7.2250605E-1,-2.9230696E-1],"categories":[],"categories_nodes":[],"categories_segments":[],"categories_sizes":[],"default_left":[1,1,1,1,0,1,1,1,1,1,1,1,1,0,0,0,0,0,0,0,0,0,0,0,0],"id":43,"left_children":[1,3,5,7,-1,9,11,13,15,17,19,21,23,-1,-1,-1,-1,-1,-1,-1,-1,-1,-1,-1,-1],"loss_changes":[5.3634286E0,8.373796E0,6.3511004E0,6.213518E0,0E0,4.9754653E0,6.5118446E0,5.6372676E0,7.865371E0,2.2578087E0,4.086261E0,6.4708323E0,5.807492E0,0E0,0E0,0E0,0E0,0E0,0E0,0E0,0E0,0E0,0E0,0E0,0E0],"parents":[2147483647,0,0,1,1,2,2,3,3,5,5,6,6,7,7,8,8,9,9,10,10,11,11,12,12],"right_children":[2,4,6,8,-1,10,12,14,16,18,20,22,24,-1,-1,-1,-1,-1,-1,-1,-1,-1,-1,-1,-1],"split_conditions":[3.072469E1,3.0158978E1,-2.160216E-3,6.0777696E-5,6.701569E-2,1.3022772E-3,2.412199E-3,2.4193581E-3,1.7433335E-3,-3.1652302E-3,3.419331E1,-5.435531E-3,2.656042E-3,1.7133107E-2,-3.9365277E-2,-3.585041E-2,2.6955975E-2,1.6056504E-3,-6.470421E-2,-4.0567763E-2,2.5785508E-4,-2.4763113E-2,4.105743E-5,3.6125302E-2,-1.4615349E-2],"split_indices":[5,5,1,1,0,6,6,6,6,4,5,4,1,0,0,0,0,0,0,0,0,0,0,0,0],"split_type":[0,0,0,0,0,0,0,0,0,0,0,0,0,0,0,0,0,0,0,0,0,0,0,0,0],"sum_hessian":[8.265985E2,1.03479996E2,7.231185E2,9.818892E1,5.2910757E0,3.8376087E1,6.8474243E2,7.714241E1,2.1046509E1,7.9714646E0,3.0404621E1,6.569634E2,2.777906E1,7.338105E1,3.76136E0,1.4577346E1,6.469164E0,1.4921902E0,6.4792747E0,7.3414097E0,2.3063211E1,2.6437681E1,6.305257E2,2.0795847E1,6.983212E0],"tree_param":{"num_deleted":"0","num_feature":"11","num_nodes":"25","size_leaf_vector":"0"}},{"base_weights":[9.697866E-3,8.821028E-1,1.1055745E-3,1.0998343E0,9.1411E-2,1.3200796E-1,-5.2812956E-2,3.746067E-1,-5.3009257E-2,-6.812124E-2,6.6491336E-1,7.711747E-1,2.2380479E-1,-1.2680507E-1,6.8699914E-1,-4.824562E-2,-5.801091E-1,9.7838306E-1,-5.440907E-1],"categories":[],"categories_nodes":[],"categories_segments":[],"categories_sizes":[],"default_left":[1,1,1,0,0,1,1,1,1,1,1,0,0,0,0,0,0,0,0],"id":44,"left_children":[1,3,5,-1,-1,7,9,11,13,15,17,-1,-1,-1,-1,-1,-1,-1,-1],"loss_changes":[6.234207E0,1.2958894E0,5.82772E0,0E0,0E0,1.0831617E1,6.4707775E0,6.0675535E0,7.5977015E0,5.808111E0,5.196108E0,0E0,0E0,0E0,0E0,0E0,0E0,0E0,0E0],"parents":[2147483647,0,0,1,1,2,2,5,5,6,6,7,7,8,8,9,9,10,10],"right_children":[2,4,6,-1,-1,8,10,12,14,16,18,-1,-1,-1,-1,-1,-1,-1,-1],"split_conditions":[4.562373E-4,4.7519925E-4,-3.7344283E-4,5.499172E-2,4.5705503E-3,6.123234E-17,2.765979E-3,7.838883E-4,8.305567E-4,1.5911588E-3,3.4121112E-3,3.8558736E-2,1.1190239E-2,-6.3402536E-3,3.434996E-2,-2.412281E-3,-2.9005457E-2,4.8919152E-2,-2.7204534E-2],"split_indices":[3,0,0,0,0,7,6,3,1,3,1,0,0,0,0,0,0,0,0],"split_type":[0,0,0,0,0,0,0,0,0,0,0,0,0,0,0,0,0,0,0],"sum_hessian":[8.30806E2,7.111279E0,8.2369476E2,5.269302E0,1.8419769E0,2.3987718E2,5.8381757E2,1.0334465E2,1.3653255E2,5.725116E2,1.1305932E1,2.7338364E1,7.600629E1,1.24905266E2,1.1627275E1,5.5217035E2,2.0341293E1,9.129575E0,2.176357E0],"tree_param":{"num_deleted":"0","num_feature":"11","num_nodes":"19","size_leaf_vector":"0"}},{"base_weights":[2.2474153E-2,-1.4060608E-1,6.1089E-2,-4.807413E-1,-8.302059E-3,2.4673507E-1,-3.5754468E-3,3.4356353E-1,-6.99621E-1,1.4313538E-1,-4.9899504E-1,1.2580435E-1,5.80326E-1,-8.9539254E-1,1.8935967E-2,-1.1553322E0,7.971055E-1,-1.0840088E0,-2.938074E-1,-8.294231E-1,2.641691E-1,-1.0011003E0,1.7082042E-1,3.258581E-1,-3.8909757E-1,2.456397E-1,9.8851657E-1,-1.1618171E0,-1.13488555E-1,-1.0975537E-1,1.2184964E-1],"categories":[],"categories_nodes":[],"categories_segments":[],"categories_sizes":[],"default_left":[1,1,1,1,1,1,1,1,1,1,1,1,1,1,1,0,0,0,0,0,0,0,0,0,0,0,0,0,0,0,0],"id":45,"left_children":[1,3,5,7,9,11,13,15,17,19,21,23,25,27,29,-1,-1,-1,-1,-1,-1,-1,-1,-1,-1,-1,-1,-1,-1,-1,-1],"loss_changes":[5.2242093E0,7.145296E0,8.048353E0,8.264288E0,8.64641E0,6.9138403E0,1.0018188E1,7.720313E0,5.2145996E0,1.0690621E1,9.3987E0,1.3351976E1,6.0146227E0,2.4275331E0,6.4616747E0,0E0,0E0,0E0,0E0,0E0,0E0,0E0,0E0,0E0,0E0,0E0,0E0,0E0,0E0,0E0,0E0],"parents":[2147483647,0,0,1,1,2,2,3,3,4,4,5,5,6,6,7,7,8,8,9,9,10,10,11,11,12,12,13,13,14,14],"right_children":[2,4,6,8,10,12,14,16,18,20,22,24,26,28,30,-1,-1,-1,-1,-1,-1,-1,-1,-1,-1,-1,-1,-1,-1,-1,-1],"split_conditions":[-2.1694186E-1,-1.3621155E-3,-1.1275711E-3,-3.191913E-3,1.1252913E-3,8.783797E-1,-1.0039215E-3,-4.2773997E-3,8.8026794E-4,5.992846E-4,1.4261117E-3,1.853813E-3,1.7113315E-3,3.1969023E-5,-2.796154E-4,-5.7766613E-2,3.9855275E-2,-5.420044E-2,-1.4690369E-2,-4.1471157E-2,1.3208455E-2,-5.0055016E-2,8.541021E-3,1.6292905E-2,-1.945488E-2,1.2281985E-2,4.942583E-2,-5.8090854E-2,-5.674428E-3,-5.4877684E-3,6.0924822E-3],"split_indices":[9,2,2,4,3,9,2,1,3,3,3,4,4,0,4,0,0,0,0,0,0,0,0,0,0,0,0,0,0,0,0],"split_type":[0,0,0,0,0,0,0,0,0,0,0,0,0,0,0,0,0,0,0,0,0,0,0,0,0,0,0,0,0,0,0],"sum_hessian":[8.2722864E2,1.5786859E2,6.6936005E2,4.3472702E1,1.1439589E2,1.7219304E2,4.9716702E2,9.001867E0,3.4470837E1,8.795848E1,2.6437408E1,1.27389824E2,4.4803215E1,1.1285934E1,4.8588107E2,1.731648E0,7.27022E0,1.6844492E1,1.7626345E1,9.087072E0,7.887141E1,1.4827709E1,1.1609699E1,9.2008934E1,3.538089E1,2.5498278E1,1.930494E1,8.055304E0,3.2306309E0,2.1587169E2,2.700094E2],"tree_param":{"num_deleted":"0","num_feature":"11","num_nodes":"31","size_leaf_vector":"0"}},{"base_weights":[6.19347E-3,1.6288286E-2,-5.6377316E-1,2.547004E-2,-5.377985E-1,-7.9426616E-1,9.3877554E-1,2.0362508E-2,1.1320767E0,-1.1074309E0,7.5114954E-1,-1.2772743E-1,-1.2737675E0,9.595027E-2,-5.6659028E-2,-1.2977389E0,-1.4902814E-1,1.0651466E0,4.143868E-2,-1.0240257E0,4.769744E-1,-4.0513396E-1,-1.3694638E0],"categories":[],"categories_nodes":[],"categories_segments":[],"categories_sizes":[],"default_left":[1,1,1,1,1,1,0,1,0,1,1,1,1,0,0,0,0,0,0,0,0,0,0],"id":46,"left_children":[1,3,5,7,9,11,-1,13,-1,15,17,19,21,-1,-1,-1,-1,-1,-1,-1,-1,-1,-1],"loss_changes":[4.8183985E0,4.196997E0,5.7931194E0,4.554093E0,1.070642E1,4.0489626E0,0E0,4.704401E0,0E0,1.5814819E0,1.0072067E0,4.079115E0,7.2999E-2,0E0,0E0,0E0,0E0,0E0,0E0,0E0,0E0,0E0,0E0],"parents":[2147483647,0,0,1,1,2,2,3,3,4,4,5,5,7,7,9,9,10,10,11,11,12,12],"right_children":[2,4,6,8,10,12,-1,14,-1,16,18,20,22,-1,-1,-1,-1,-1,-1,-1,-1,-1,-1],"split_conditions":[8.269852E-3,8.599846E1,2.0800526E-3,8.5458954E1,2.8817663E-3,1.4605104E-3,4.6938777E-2,-6.1232336E-17,5.6603838E-2,9.159756E-1,4.97038E-4,1.0360393E-3,-1.4841019E-3,4.7975136E-3,-2.8329515E-3,-6.488695E-2,-7.451407E-3,5.3257328E-2,2.071934E-3,-5.1201284E-2,2.384872E-2,-2.0256698E-2,-6.847319E-2],"split_indices":[4,5,6,5,4,6,0,8,0,8,0,6,2,0,0,0,0,0,0,0,0,0,0],"split_type":[0,0,0,0,0,0,0,0,0,0,0,0,0,0,0,0,0,0,0,0,0,0,0],"sum_hessian":[8.3484625E2,8.21272E2,1.3574323E1,8.08823E2,1.2448946E1,1.2177643E1,1.3966796E0,8.061208E2,2.7022421E0,8.731159E0,3.717787E0,5.6249557E0,6.552687E0,4.0672314E2,3.9939764E2,6.9892545E0,1.741905E0,2.2302437E0,1.4875433E0,1.98674E0,3.6382155E0,1.1696188E0,5.3830686E0],"tree_param":{"num_deleted":"0","num_feature":"11","num_nodes":"23","size_leaf_vector":"0"}},{"base_weights":[1.5697593E-2,1.0269936E0,9.700842E-3,8.316292E-1,2.3462432E-3,1.2987486E0,-7.3792464E-1,-7.5041705E-1,1.6781386E-2,1.2579566E-1,-1.120241E0,1.9134699E-1,-2.150638E-2],"categories":[],"categories_nodes":[],"categories_segments":[],"categories_sizes":[],"default_left":[1,0,1,1,1,0,0,1,1,0,0,0,0],"id":47,"left_children":[1,-1,3,5,7,-1,-1,9,11,-1,-1,-1,-1],"loss_changes":[5.048677E0,0E0,5.0167704E0,6.3546467E0,8.965E0,0E0,0E0,5.1711845E0,5.413587E0,0E0,0E0,0E0,0E0],"parents":[2147483647,0,0,2,2,3,3,4,4,7,7,8,8],"right_children":[2,-1,4,6,8,-1,-1,10,12,-1,-1,-1,-1],"split_conditions":[3.949977E-4,5.134968E-2,-8.901307E-3,2.464749E-3,-7.0537617E-3,6.4937435E-2,-3.6896233E-2,-7.865661E-1,-2.4688058E-3,6.2897834E-3,-5.6012053E-2,9.567349E-3,-1.075319E-3],"split_indices":[3,0,4,3,4,0,0,8,4,0,0,0,0],"split_type":[0,0,0,0,0,0,0,0,0,0,0,0,0],"sum_hessian":[8.331408E2,3.9075685E0,8.292332E2,6.360197E0,8.2287305E2,5.0344243E0,1.3257728E0,1.4523373E1,8.083497E2,4.506384E0,1.0016989E1,1.4468573E2,6.6366394E2],"tree_param":{"num_deleted":"0","num_feature":"11","num_nodes":"13","size_leaf_vector":"0"}},{"base_weights":[3.1458307E-2,4.1311834E-2,-6.0147387E-1,9.21002E-1,3.2700192E-2,-9.502737E-1,4.514246E-2,1.1152359E0,-1.0449376E-1,2.711953E-2,1.1681852E0,-1.3871534E-1,-1.1408339E0,-6.198649E-1,6.888852E-1,-3.9393708E-2,1.1709942E-1,-1.3317876E0,-4.7837794E-1],"categories":[],"categories_nodes":[],"categories_segments":[],"categories_sizes":[],"default_left":[1,1,1,1,1,1,1,0,0,1,0,0,1,0,0,0,0,0,0],"id":48,"left_children":[1,3,5,7,9,11,13,-1,-1,15,-1,-1,17,-1,-1,-1,-1,-1,-1],"loss_changes":[5.1972423E0,6.1635323E0,2.9248128E0,1.6879601E0,5.1054792E0,1.1324267E0,2.752459E0,0E0,0E0,4.838885E0,0E0,0E0,2.0036507E-1,0E0,0E0,0E0,0E0,0E0,0E0],"parents":[2147483647,0,0,1,1,2,2,3,3,4,4,5,5,6,6,9,9,12,12],"right_children":[2,4,6,8,10,12,14,-1,-1,16,-1,-1,18,-1,-1,-1,-1,-1,-1],"split_conditions":[8.599846E1,4.562373E-4,8.117449E-1,9.159756E-1,8.5249435E1,1.0368385E-3,8.410761E-4,5.5761795E-2,-5.224688E-3,9.5633656E-4,5.8409262E-2,-6.9357674E-3,3.7940952E-1,-3.0993244E-2,3.444426E-2,-1.9696855E-3,5.8549712E-3,-6.658938E-2,-2.3918897E-2],"split_indices":[5,3,10,8,5,6,3,0,0,3,0,0,7,0,0,0,0,0,0],"split_type":[0,0,0,0,0,0,0,0,0,0,0,0,0,0,0,0,0,0,0],"sum_hessian":[8.2835925E2,8.165814E2,1.1777862E1,6.8892303E0,8.096922E2,7.3457723E0,4.43209E0,5.718591E0,1.170639E0,8.0675104E2,2.9411223E0,1.7254316E0,5.620341E0,2.1982832E0,2.2338064E0,4.6418625E2,3.4256482E2,3.5784645E0,2.0418763E0],"tree_param":{"num_deleted":"0","num_feature":"11","num_nodes":"19","size_leaf_vector":"0"}},{"base_weights":[5.808855E-3,-4.4024813E-1,2.029181E-2,6.507256E-1,-8.196279E-1,3.5865936E-2,-4.241049E-1,1.1121309E0,-6.466836E-1,-1.2826308E0,1.3538036E-1,-3.361877E-2,1.5380567E-1,-4.3936186E-2,-8.491241E-1,-1.4445053E0,1.8290192E-1,6.957693E-1,-1.2558204E0,1.0646483E-1,-2.342085E-1,3.5158032E-1,-2.3924423E-2,3.752528E-1,-1.0175209E0,-1.1435684E0,-5.3932313E-3],"categories":[],"categories_nodes":[],"categories_segments":[],"categories_sizes":[],"default_left":[1,1,1,1,1,1,1,0,0,1,1,1,1,1,1,0,0,0,0,0,0,0,0,0,0,0,0],"id":49,"left_children":[1,3,5,7,9,11,13,-1,-1,15,17,19,21,23,25,-1,-1,-1,-1,-1,-1,-1,-1,-1,-1,-1,-1],"loss_changes":[5.39315E0,1.1399677E1,5.608748E0,5.108039E0,8.982793E0,6.4115767E0,4.3967977E0,0E0,0E0,3.4699116E0,6.650329E0,1.387076E1,1.0202029E1,6.723963E0,3.1991758E0,0E0,0E0,0E0,0E0,0E0,0E0,0E0,0E0,0E0,0E0,0E0,0E0],"parents":[2147483647,0,0,1,1,2,2,3,3,4,4,5,5,6,6,9,9,10,10,11,11,12,12,13,13,14,14],"right_children":[2,4,6,8,10,12,14,-1,-1,16,18,20,22,24,26,-1,-1,-1,-1,-1,-1,-1,-1,-1,-1,-1,-1],"split_conditions":[-6.672591E-3,-9.0116225E-3,1.8048685E-3,2.4255607E-3,1.8556349E-3,9.732082E-4,-6.035534E-1,5.5606544E-2,-3.233418E-2,1.5897311E-3,2.3638909E-3,7.9614605E-4,1.1345979E-3,1.3310754E-3,2.3950809E-3,-7.2225265E-2,9.145096E-3,3.4788467E-2,-6.279102E-2,5.323242E-3,-1.1710425E-2,1.7579017E-2,-1.1962212E-3,1.876264E-2,-5.0876047E-2,-5.717842E-2,-2.6966157E-4],"split_indices":[4,4,0,3,6,3,8,0,0,2,2,3,3,3,0,0,0,0,0,0,0,0,0,0,0,0,0],"split_type":[0,0,0,0,0,0,0,0,0,0,0,0,0,0,0,0,0,0,0,0,0,0,0,0,0,0,0],"sum_hessian":[8.324411E2,2.5253927E1,8.071872E2,6.3314586E0,1.892247E1,7.807449E2,2.6442339E1,4.775814E0,1.5556448E0,1.2512942E1,6.409528E0,4.917457E2,2.8899915E2,1.4540031E1,1.1902308E1,1.1281229E1,1.2317129E0,4.9254055E0,1.484122E0,2.89818E2,2.019277E2,1.3632317E2,1.5267598E2,1.0593454E1,3.9465773E0,8.55976E0,3.3425477E0],"tree_param":{"num_deleted":"0","num_feature":"11","num_nodes":"27","size_leaf_vector":"0"}},{"base_weights":[5.0468454E-3,9.7830695E-1,-2.6059936E-4,7.4558966E-2,-6.810394E-2,5.351875E-2,1.0974334E0,-1.6558568E-1,1.6056088E-1,7.095254E-2,-1.4495658E0,3.4038088E-1,1.1713781E0,-4.0708375E-1,-3.5825245E-2,-7.2659594E-1,2.5167036E-1],"categories":[],"categories_nodes":[],"categories_segments":[],"categories_sizes":[],"default_left":[1,0,1,1,1,1,1,1,1,0,0,0,0,0,0,0,0],"id":50,"left_children":[1,-1,3,5,7,9,11,13,15,-1,-1,-1,-1,-1,-1,-1,-1],"loss_changes":[4.2599583E0,0E0,4.1733356E0,8.355827E0,9.637962E0,1.016942E1,3.955555E-2,9.474232E0,1.0640774E1,0E0,0E0,0E0,0E0,0E0,0E0,0E0,0E0],"parents":[2147483647,0,0,2,2,3,3,4,4,5,5,6,6,7,7,8,8],"right_children":[2,-1,4,6,8,10,12,14,16,-1,-1,-1,-1,-1,-1,-1,-1],"split_conditions":[3.6908267E-4,4.891535E-2,-1.4407194E-5,2.051883E-3,1.3102014E-3,1.777233E-3,-9.159756E-1,5.1396225E1,9.477217E-4,3.5476272E-3,-7.247829E-2,1.7019045E-2,5.8568906E-2,-2.0354187E-2,-1.7912623E-3,-3.63298E-2,1.2583518E-2],"split_indices":[3,0,2,3,1,3,7,5,6,0,0,0,0,0,0,0,0],"split_type":[0,0,0,0,0,0,0,0,0,0,0,0,0,0,0,0,0],"sum_hessian":[8.2364105E2,3.4728615E0,8.201682E2,3.899839E2,4.3018433E2,3.8315482E2,6.8290567E0,3.018002E2,1.2838411E2,3.7970355E2,3.451263E0,1.1062584E0,5.7227983E0,1.0473673E2,1.9706348E2,1.1307273E1,1.17076836E2],"tree_param":{"num_deleted":"0","num_feature":"11","num_nodes":"17","size_leaf_vector":"0"}}]},"name":"gbtree"},"learner_model_param":{"base_score":"5E-1","boost_from_average":"1","num_class":"0","num_feature":"11","num_target":"1"},"objective":{"name":"binary:logistic","reg_loss_param":{"scale_pos_weight":"1"}}},"version":[1,7,6]}